<?xml version="1.0"?>
<opencv_storage>
<opencv_ml_ann_mlp>
  <format>3</format>
  <layer_sizes>
    256 8 16 32 26</layer_sizes>
  <activation_function>SIGMOID_SYM</activation_function>
  <f_param1>6.6666666666666663e-01</f_param1>
  <f_param2>1.7159000000000000e+00</f_param2>
  <min_val>-9.4999999999999996e-01</min_val>
  <max_val>9.4999999999999996e-01</max_val>
  <min_val1>-9.7999999999999998e-01</min_val1>
  <max_val1>9.7999999999999998e-01</max_val1>
  <training_params>
    <train_method>BACKPROP</train_method>
    <dw_scale>1.0000000000000000e-03</dw_scale>
    <moment_scale>0.</moment_scale>
    <term_criteria>
      <iterations>128</iterations></term_criteria></training_params>
  <input_scale>
    4.7129945029069108e-02 -8.3791784737936609e-02
    1.8434711641383847e-01 -2.1282377166574072e-02
    2.0609700714096257e-01 -1.9034674690672024e-02
    4.2915863350727425e-02 -9.2154083607615081e-02
    3.8303884142600469e-02 -1.0347667361413301e-01
    2.4733059015902580e-02 -1.6275580079506702e-01
    2.1599524797423251e-02 -1.8820375509381018e-01
    2.1723461760222055e-02 -1.8866602301643051e-01
    2.5876505870046636e-02 -1.6276144121411262e-01
    3.1433220293691687e-02 -1.3023838531501611e-01
    4.4108152726275857e-02 -8.9622142989644174e-02
    4.5680872728886497e-02 -8.6489229333666845e-02
    3.1491751903431432e-02 -1.2652019485288418e-01
    4.9414535758705469e-02 -7.9866847454988454e-02
    4.8069216548601516e-02 -8.2132027913084993e-02
    3.7984115164199896e-02 -1.0436689375748333e-01
    6.5280118035401291e-02 -6.0291307855948308e-02
    1.6829274626866653e-01 -2.3314732143341160e-02
    2.3796954774174015e-01 -1.6483765304457731e-02
    4.8395132132553462e-02 -8.1571476335338886e-02
    1.9233193572292050e-02 -2.1316034889972357e-01
    1.4949530782585194e-02 -2.8341164519020690e-01
    1.1913194697475050e-02 -3.7694301596164242e-01
    1.0875240266189292e-02 -4.2702550633045261e-01
    1.2689747318286180e-02 -3.4862794212517956e-01
    1.6270920067276960e-02 -2.5931373704830540e-01
    2.9410750937600094e-02 -1.3874769418687996e-01
    3.6359890500701306e-02 -1.0913893246090622e-01
    2.7941902024565972e-02 -1.4322628337655557e-01
    4.9067547726979570e-02 -8.0438967004433648e-02
    4.7436834501782724e-02 -8.3242109076833506e-02
    3.7827248177207069e-02 -1.0480928958914672e-01
    7.6629319320188349e-02 -5.1310559251429987e-02
    1.3742912901175128e-01 -2.8558479815462622e-02
    9.7216721479317217e-02 -4.0404269430465961e-02
    2.9265492110325295e-02 -1.3649633272390943e-01
    1.5616027325029308e-02 -2.6934253576676997e-01
    1.1344535787368642e-02 -4.0198423690238205e-01
    8.9467299550060695e-03 -5.9894241747410015e-01
    8.4110842875532062e-03 -6.9128541868505233e-01
    8.2836268745354515e-03 -7.2113607293617465e-01
    8.6188746423042535e-03 -6.4519113110348036e-01
    1.2289830142405190e-02 -3.6560686745169441e-01
    1.8147324601656578e-02 -2.2736573323131284e-01
    2.5364084093442384e-02 -1.6010561340149845e-01
    3.1271944705161599e-02 -1.2828463010388866e-01
    4.2915863350727425e-02 -9.2154083607615081e-02
    3.7984115164199896e-02 -1.0436689375748333e-01
    6.8798783119006779e-02 -5.7186963874726750e-02
    1.2432059095342653e-01 -3.1575448897533630e-02
    3.5303188179199564e-02 -1.1248815574303084e-01
    1.7823505708320326e-02 -2.3269003078930109e-01
    1.0920775245460212e-02 -4.2666966552083974e-01
    8.1320414012701521e-03 -7.7837714862056151e-01
    7.8983896018501969e-03 -1.0559547581258795e+00
    7.9957799474228829e-03 -1.2040331277310654e+00
    8.0837933181392204e-03 -1.2605762190498215e+00
    7.9374914196775163e-03 -1.0979633470260639e+00
    8.0898699742919973e-03 -7.9605888124156132e-01
    9.0380946385152424e-03 -5.8837717850430615e-01
    1.0275875695736097e-02 -4.7255164514414799e-01
    1.3252497390217157e-02 -3.3086844489356909e-01
    3.0069502165215572e-02 -1.3304475038964678e-01
    3.7620237940255617e-02 -1.0631021422287555e-01
    5.2070889556082647e-02 -7.5744190575739570e-02
    6.4482034659056886e-02 -6.1043070659221280e-02
    2.1306334310791999e-02 -1.9172421201305670e-01
    1.1360376205341848e-02 -4.0690596315210936e-01
    7.9163819933984296e-03 -8.9252261028831104e-01
    8.2133759461870959e-03 -1.3409094801823118e+00
    9.1493640786296619e-03 -1.7641977127439179e+00
    9.2870926880403784e-03 -1.8137883748929102e+00
    8.8191765626430500e-03 -1.6284996020698037e+00
    8.3065103171791853e-03 -1.3969874610559256e+00
    7.8895013114564806e-03 -1.0606235800540398e+00
    8.1616344737818706e-03 -7.7122124900001154e-01
    8.9174733236521472e-03 -5.9878766297361785e-01
    1.3091545150900243e-02 -3.3651103200267668e-01
    2.8193274329980655e-02 -1.4286055940369227e-01
    3.7881054139517686e-02 -1.0479373108208480e-01
    3.7368224055047222e-02 -1.0612589165941290e-01
    3.9670125542955528e-02 -9.9839835156324608e-02
    1.5139669377580487e-02 -2.8172342029939929e-01
    8.5236590660954983e-03 -6.6526294605030190e-01
    7.9078074100571976e-03 -1.1273623431091937e+00
    9.0406217396867741e-03 -1.7180799518741470e+00
    1.0241459455574942e-02 -2.1383757462302473e+00
    1.0752972362754531e-02 -2.3053373782539976e+00
    8.7863864838008694e-03 -1.6251195105634533e+00
    8.5688700781005878e-03 -1.5314946588365022e+00
    7.8806998974159242e-03 -1.0497735906178318e+00
    8.0685621968219455e-03 -8.0654937468738608e-01
    8.7867247514685169e-03 -6.3336898346833626e-01
    1.3720206200400679e-02 -3.1869415219078112e-01
    3.0122844785090124e-02 -1.3344442060037434e-01
    3.7984115164199896e-02 -1.0436689375748333e-01
    7.9409536429154534e-02 -4.9505130234944676e-02
    3.2921031831695452e-02 -1.2086048855632851e-01
    1.1607535334078186e-02 -3.9718391980111195e-01
    8.1497110671504679e-03 -7.5883152242895424e-01
    8.1584129320145474e-03 -1.3230886227080869e+00
    1.0782189828245168e-02 -2.3072441317473111e+00
    1.1072285340394668e-02 -2.4078831958671469e+00
    9.3711197207412070e-03 -1.8485203984600220e+00
    8.3899144945419214e-03 -1.4438644772379816e+00
    7.9797745735025859e-03 -1.1739914583801814e+00
    7.9861041506486350e-03 -8.5332650912201047e-01
    8.3759819193905700e-03 -7.0086278988844797e-01
    9.1006914229935492e-03 -5.7969278342749309e-01
    1.5339944542860043e-02 -2.8090405328815521e-01
    3.0237118473239552e-02 -1.3195200333373600e-01
    3.7984115164199896e-02 -1.0436689375748333e-01
    6.7865784272153798e-02 -5.7978420373756889e-02
    2.6010024151997595e-02 -1.5527353244668610e-01
    9.9259275541694180e-03 -4.9668554165549694e-01
    7.9310872345815294e-03 -8.6211578924458976e-01
    8.8320443487822555e-03 -1.6305702043236545e+00
    1.4122690579056310e-02 -3.2960395627097885e+00
    1.2804780662527953e-02 -2.9221566875000362e+00
    9.9952997498650494e-03 -2.0607585713554619e+00
    8.0390619237191065e-03 -1.2435112730803484e+00
    7.9198844529310905e-03 -1.1489461856691725e+00
    7.9032620132507246e-03 -9.1492852643238887e-01
    8.2271437273340343e-03 -7.3495271006433227e-01
    9.6651301574483331e-03 -5.1582775146168791e-01
    2.0085600605507611e-02 -2.0613384134638207e-01
    3.7756976535776844e-02 -1.0716157456663575e-01
    3.1946863961415280e-02 -1.2466045838619988e-01
    7.4122925361518058e-02 -5.3055208709054717e-02
    1.7848308530855193e-02 -2.3168216356087820e-01
    9.3195898216501486e-03 -5.4839676554023153e-01
    7.8757756049612632e-03 -1.0503549101493097e+00
    9.9782999506139638e-03 -2.0511532156721146e+00
    1.3064642941848928e-02 -2.9970059047861075e+00
    1.2599285217145848e-02 -2.8602716136754389e+00
    1.0392909672603453e-02 -2.1887614573645657e+00
    8.6784489593786877e-03 -1.5754048745913056e+00
    8.1453330079641704e-03 -1.3094706986282276e+00
    7.8783265790506683e-03 -1.0423252911951848e+00
    8.1315232868475786e-03 -7.7386788238181037e-01
    9.8828217548066893e-03 -4.9971963815861270e-01
    1.6605447823356472e-02 -2.5392171522642321e-01
    3.0638139793387587e-02 -1.3016493291431958e-01
    3.7071467484027919e-02 -1.0699502227937249e-01
    7.1848195693746980e-02 -5.4744890145135894e-02
    1.5991376495957794e-02 -2.6344214490203410e-01
    9.1840525807815425e-03 -5.6498056169711874e-01
    8.3374001505431752e-03 -1.4114914974711996e+00
    1.0559472913043778e-02 -2.2381349744167878e+00
    1.2623675601114822e-02 -2.8698047330032028e+00
    1.2062976786464284e-02 -2.7058467161872728e+00
    1.2111914694482299e-02 -2.7169336495668741e+00
    9.7808591886975865e-03 -1.9856171479808986e+00
    8.6349590186452271e-03 -1.5529423359398786e+00
    7.9855979874036264e-03 -1.1866559563438677e+00
    8.0422142547187780e-03 -8.2750845640737691e-01
    1.0312426929974892e-02 -4.7469005036732037e-01
    1.7264741514861268e-02 -2.4104355520277876e-01
    3.3551089158776949e-02 -1.1852551100413643e-01
    3.6359890500701306e-02 -1.0913893246090622e-01
    6.6108741640068219e-02 -5.9530191561977398e-02
    1.7489190297158494e-02 -2.3771774928262887e-01
    8.4358343617600435e-03 -6.9150239151276760e-01
    7.8868819598666047e-03 -1.1062701659587970e+00
    8.6858664411817634e-03 -1.5629581186433159e+00
    1.0856449540161068e-02 -2.3311286164014811e+00
    1.1510337246916016e-02 -2.5414270177281169e+00
    1.0125304185873924e-02 -2.1070149245684169e+00
    8.7616762778851380e-03 -1.6139310760758498e+00
    7.9072526011556756e-03 -1.1093072072961934e+00
    7.9639113384718241e-03 -8.5955077730994334e-01
    9.1952412850361299e-03 -5.7335126950294957e-01
    1.2619365698838534e-02 -3.5475112021820948e-01
    1.9901857987992520e-02 -2.0617813092902829e-01
    2.8255453506738436e-02 -1.4157148857256169e-01
    2.9265492110325295e-02 -1.3649633272390943e-01
    6.8798783119006779e-02 -5.7186963874726750e-02
    1.5361390003084631e-02 -2.7452712286389114e-01
    8.2943136240363948e-03 -7.1417314769396756e-01
    7.9159610462239179e-03 -9.0549520114288284e-01
    8.0013463784852270e-03 -1.2033549683120059e+00
    8.5533728457149859e-03 -1.5221557223036255e+00
    8.3026348953812914e-03 -1.4036550027213821e+00
    8.0201118050648359e-03 -1.2064458696318292e+00
    8.0368795263466280e-03 -8.1077152609622183e-01
    8.5774360574076541e-03 -6.5308663380564824e-01
    1.0007340896852570e-02 -4.9436300275800826e-01
    1.4236236009065147e-02 -3.0354480762537678e-01
    2.0533029102676875e-02 -2.0059490302201341e-01
    3.3880273110151182e-02 -1.1734158334509985e-01
    3.8968801457892617e-02 -1.0167385132281563e-01
    3.3127013132101091e-02 -1.2008692237809374e-01
    6.2253466094295162e-02 -6.3245553203367597e-02
    1.5094134474929461e-02 -2.8020639714324863e-01
    8.9069215040014343e-03 -5.9743071143848803e-01
    8.3056671839737035e-03 -7.1261330908291876e-01
    8.0477932414254570e-03 -8.1058417029984331e-01
    7.9356767735920802e-03 -8.9789121666115845e-01
    7.9252156741292362e-03 -8.9463083839293056e-01
    8.0612393146618968e-03 -8.0244221369154689e-01
    8.7885239247249662e-03 -6.1887633197702874e-01
    1.0016551242293337e-02 -4.8985688085545098e-01
    1.3834200598200183e-02 -3.1439360765471519e-01
    2.0769733734784673e-02 -1.9853676391230382e-01
    2.5439082169721339e-02 -1.5800378861210024e-01
    4.2029361403248935e-02 -9.4132221505737274e-02
    4.3214409652511464e-02 -9.1640843359454771e-02
    3.6262503440211605e-02 -1.0955255589303335e-01
    5.6745271571446390e-02 -6.9441537965238859e-02
    1.7904582203632582e-02 -2.3068118451239406e-01
    1.1889155790994652e-02 -3.7663347021345428e-01
    9.3148964066023729e-03 -5.4693809292895756e-01
    8.5778322801274461e-03 -6.5081700493364636e-01
    9.3418278551073344e-03 -5.4583714812872441e-01
    1.0369184837880397e-02 -4.6238358412125574e-01
    1.0977187384348362e-02 -4.2898100847389337e-01
    1.2318264599533784e-02 -3.6802544331213055e-01
    1.3346852646112880e-02 -3.3084943088220681e-01
    1.7740194370083371e-02 -2.3918099798129427e-01
    2.5826458056064747e-02 -1.5741885643807085e-01
    2.4499654033333165e-02 -1.6492455442848189e-01
    2.7859389693316590e-02 -1.4464482117120367e-01
    4.3082824014773674e-02 -9.4966340801851706e-02
    3.5531752934542041e-02 -1.1361538601325766e-01
    6.3712662170704218e-02 -6.1785821427765501e-02
    2.0227663649693799e-02 -2.0176380185170853e-01
    1.6427659568239800e-02 -2.5413488203855211e-01
    1.4297640284043279e-02 -2.9876294246197821e-01
    1.4534405365405406e-02 -2.9297144607205039e-01
    1.6258557649033261e-02 -2.5714990559080814e-01
    2.0046660269540880e-02 -2.0391904273820730e-01
    2.4606094774997023e-02 -1.6481449247425115e-01
    2.4218500076760702e-02 -1.6794841229435639e-01
    1.8671465092847925e-02 -2.2647858238300508e-01
    2.4970994963099510e-02 -1.6379697465699183e-01
    2.0688488979453412e-02 -1.9713634790309301e-01
    1.9169561161762064e-02 -2.1481399129106404e-01
    2.2210432028785358e-02 -1.8348744996761304e-01
    3.2878132161147065e-02 -1.2348054742666227e-01
    3.4731122140040219e-02 -1.1613101035742532e-01
    5.2486746516981292e-02 -7.5137220430412377e-02
    2.5864828550134299e-02 -1.5527328258546758e-01
    2.7461807397081459e-02 -1.4583801193759757e-01
    2.3344014716488157e-02 -1.7301922533666589e-01
    2.4860803992795256e-02 -1.6187435848622844e-01
    3.8631990391548798e-02 -1.0257905815213406e-01
    3.4219532713072043e-02 -1.1614624988677159e-01
    2.9627723596747514e-02 -1.3476536534612563e-01
    2.9047510996728705e-02 -1.3949065064392493e-01
    2.3920483300039836e-02 -1.7739581163737439e-01
    2.7900107260688090e-02 -1.4476527946998100e-01
    2.5893441867307358e-02 -1.5571468142133449e-01
    2.1823081848872466e-02 -1.8691694868982192e-01
    2.3360341782223074e-02 -1.7351885890645488e-01
    3.5103490624821786e-02 -1.1648294285837052e-01
    3.3538394708712373e-02 -1.1975915734632209e-01</input_scale>
  <output_scale>
    5.2631578947368418e-01 4.9999999999999994e-01 5.2631578947368418e-01
    4.9999999999999994e-01 5.2631578947368418e-01 4.9999999999999994e-01
    5.2631578947368418e-01 4.9999999999999994e-01 5.2631578947368418e-01
    4.9999999999999994e-01 1. 0. 1. 0. 1. 0. 1. 0. 1. 0. 1. 0. 1. 0. 1.
    0. 1. 0. 1. 0. 1. 0. 1. 0. 1. 0. 1. 0. 1. 0. 1. 0. 1. 0. 1. 0. 1. 0.
    1. 0. 1. 0.</output_scale>
  <inv_output_scale>
    1.8999999999999999e+00 -9.4999999999999996e-01
    1.8999999999999999e+00 -9.4999999999999996e-01
    1.8999999999999999e+00 -9.4999999999999996e-01
    1.8999999999999999e+00 -9.4999999999999996e-01
    1.8999999999999999e+00 -9.4999999999999996e-01 1. 0. 1. 0. 1. 0. 1.
    0. 1. 0. 1. 0. 1. 0. 1. 0. 1. 0. 1. 0. 1. 0. 1. 0. 1. 0. 1. 0. 1. 0.
    1. 0. 1. 0. 1. 0. 1. 0. 1. 0. 1. 0.</inv_output_scale>
  <weights>
    <_>
      4.9910966774956184e-02 9.9330375121635214e-02
      -7.2800616251039910e-02 -1.9268626147265380e-01
      -3.7251556487283577e-01 1.8307841018280108e-01
      1.4716428640829382e-01 2.9099365412775635e-01
      6.4575509524455376e-03 -6.5763029925985567e-02
      1.7235368617859338e-02 4.6550949851031767e-02
      -1.8084540839920463e-02 1.9396467677492403e-02
      3.0126171320805578e-03 -1.1669835556371142e-02
      1.8153449022380645e-02 1.2257942045245676e-01
      -4.4865726133388670e-02 -1.3728568594173932e-02
      -1.0543219848756225e-01 1.8160940670743440e-02
      4.4502169082762173e-02 2.6887977516685639e-03
      3.1756690272480342e-01 1.3119667742018330e-03
      3.9336325394006005e-01 1.1388121215671475e-01
      3.3164636793252089e-01 8.3006443618221376e-03
      7.7564231654391178e-02 -8.1579457074221456e-02
      2.6167186553349503e-01 -4.2018669244130155e-02
      1.4816886093045695e-01 8.6873243741715652e-04
      1.8301709806043420e-01 3.4423437645177755e-03
      7.2584127893804765e-02 -4.3550779081525824e-03
      3.9928563597243177e-01 -2.8375033953655632e-01
      2.6296662010565446e-02 2.6732778871828140e-02
      1.3269536374948240e-01 2.0074515111722185e-01
      2.2436506936086015e-01 1.2457879452636578e-01
      3.6995829904239314e-01 5.1464754543754238e-02
      -1.2426211785591794e-01 6.7417742564023470e-02
      1.3903012441378020e-02 1.3759074510839839e-01
      -1.1014408939312489e-01 -7.2475727461097594e-02
      1.8108330574395173e-01 -5.0921933162893407e-01
      1.6147274825172206e-01 3.8350170963219188e-02
      6.0945654480427658e-01 3.0089800776247969e-02
      -9.6578780026221833e-02 -1.2598653569991475e-01
      1.3206108232879096e-01 -2.1427267527255914e-01
      -2.0552078740584506e-01 -3.5921012163312172e-02
      1.1561140386656121e-01 9.8349644098637307e-02
      -1.3432461681830019e-02 -1.9739771989557494e-04
      1.9105614663852349e-01 -1.4696375131159636e-01
      2.3520488600906059e-01 -3.2660986618354051e-02
      5.7423510394577375e-02 -2.7421296258392257e-02
      -8.0801434573142442e-02 -1.5613307648763688e-02
      -3.0557966027611249e-02 -9.9863162698985652e-02
      6.9543578080201052e-03 -7.6643958084831459e-02
      1.5841443390830953e-01 -4.0783969117637993e-02
      1.5610701840468393e-03 -2.5249128926011680e-02
      1.7322424320124369e-01 -5.1491925141084116e-01
      -1.0924175267133945e-01 -1.1986729506977312e-01
      4.7631376423029731e-01 3.7888181637824232e-04
      1.9891054876711003e-01 -3.3956857480773220e-02
      1.6028671471646735e-01 -1.6636300002060511e-01
      -1.8289328026724641e-01 -1.2477975869453049e-01
      1.2013222162236661e-01 1.6278760538930798e-01
      8.7878518997865501e-02 8.0765718494467578e-02
      1.5383909970518334e-01 -3.3655641037970863e-01
      -3.3358981262454040e-01 7.1818856508904100e-03
      -3.7645784307779728e-01 3.1768053919980846e-02
      1.2532263838737598e-01 1.8076477968850724e-01
      -5.8999709114011759e-03 1.6030740869594401e-01
      -1.8007106100421483e-01 1.2283774129847123e-03
      -1.3593839384769030e-01 4.1669681834418514e-02
      3.8838963552443019e-02 5.4768054876909340e-02
      2.6717629379578414e-02 3.0980426036492262e-02
      3.5002514921208545e-02 5.7427794673621461e-02
      1.7177058896040199e-02 1.6760559980869342e-02
      3.2776494721645830e-02 -2.5665049206073903e-02
      9.1795356460699279e-02 -9.7751682276173882e-02
      4.8880878611690631e-01 -6.2463430762609080e-02
      -7.6910501970545456e-02 -2.0287328987620520e-02
      -3.1503796479714484e-02 9.3944941887992989e-02
      -1.7943806130102723e-02 -1.3699244157597257e-01
      -1.4877464921595168e-01 -1.4403434818146821e-01
      4.0254225563068867e-02 -1.0958586114147643e-01
      -1.8146715175904309e-02 -3.5002518723200225e-02
      3.6095373392696806e-02 2.5265191924986725e-02
      1.9391898914158719e-03 -8.4655639169100242e-03
      -5.7168963670804811e-02 4.6168144469526988e-02
      -1.6325588317568210e-02 1.9003306380443199e-02
      4.2100551267183473e-01 -3.0261028052014816e-01
      8.6792811544065471e-02 8.0794237894299611e-02
      1.3362593497916245e-01 1.0091000356547186e-01
      3.6397693232329525e-02 -2.1839818976122929e-02
      4.6272430654755470e-01 9.4193022443935057e-02
      4.5815827939319820e-01 1.6965851146309940e-01
      4.5529867651546252e-01 2.1486101704254384e-01
      -2.3144184811968174e-01 -2.1066100016525584e-03
      6.0772474169272872e-01 3.1629363203255573e-01
      2.1761764503975156e-01 9.1294122560502539e-02
      9.4292736745460334e-02 1.1249987684126608e-01
      3.9301324262684539e-01 -1.8635299799725080e-01
      3.2320550408631610e-01 -6.9397938495128952e-01
      9.5930986126137301e-03 -6.4840751429463467e-02
      4.2564159454298922e-02 3.9635094259510926e-03
      -1.8425590854500704e-01 -2.3855073623779585e-01
      5.7886507544512703e-02 -6.1196199623250458e-01
      -2.0421148711119694e-01 -1.8384611049036809e-01
      -2.3938023958353336e-01 -3.9074456829234244e-02
      -7.1003837727261335e-02 -2.4594857768079445e-01
      -2.2760617093743298e-02 -3.8749442140536999e-01
      5.1457393796503575e-02 -2.3511844118492581e-01
      -2.7426068395537645e-01 3.0291545406249759e-02
      -2.2542367271973590e-02 -1.5544885243676166e-02
      1.3094525397318180e-01 2.6657729611522563e-01
      2.0244825647226472e-01 6.3966998702187694e-02
      1.5308728164462992e-02 -1.8191956500318646e-02
      -7.4480042619509551e-02 1.6737660170468976e-01
      3.6891068426836079e-02 1.3351070241637866e-01
      -1.0863277269449738e-01 1.5347643271421494e-02
      -6.2963943819390716e-02 -4.5684091273169268e-02
      7.3172087613594283e-02 1.1381326706223761e-02
      8.1016467898499214e-02 2.2985273274289458e-01
      9.9773272890489387e-02 9.4999156691552775e-03
      -7.9427584326227751e-01 1.2571835353142000e-01
      3.8571298319512906e-02 -2.1874230802596869e-02
      3.4620095820212726e-01 -2.0012340892491079e-01
      -1.4892455676585464e-01 4.0399158768197668e-03
      -1.0919901935877982e-01 -5.6283208637442780e-02
      1.0355328787444956e-01 1.1902816717815473e-01
      1.1979403684475341e-01 9.2933068843532723e-02
      -4.2382327766793550e-02 -5.7108001844230864e-02
      -5.6891733707289158e-02 7.4458747699756869e-02
      -9.2495862355980851e-03 1.3473281465223227e-01
      -7.7139065814396304e-03 1.4576398262308604e-01
      -1.8305467597663483e-01 -2.2291846876256155e-02
      -1.3432653016349180e-01 7.3572865131046425e-02
      4.2046004537321470e-02 6.4415127893134944e-02
      5.1130425103146832e-02 3.1616904705780109e-02
      3.2427525730071564e-02 6.3357034297385331e-02
      1.9751592663876234e-02 3.0730813883986144e-02
      2.9276401016296801e-02 -2.5596171344247794e-02
      7.7370162332022333e-02 -5.0039345463883363e-03
      -5.5917655256860772e-02 -1.2956788315901197e-01
      -9.4918371328698695e-02 2.4870539308349304e-01
      1.5746412148965900e-02 1.2459713654884937e-01
      -1.0901353733186202e-01 -1.1042500706689454e-01
      1.0421615811495205e-01 2.3213152369180593e-02
      1.8128418350289044e-01 -1.2781334794730603e-01
      -7.1629447553136508e-02 -5.2592483282547169e-02
      -9.4823114938485317e-03 2.6568957785166319e-01
      -1.1082787881520428e-01 -6.1127110070405159e-02
      -1.8032547239969970e-02 3.2269815138580557e-02
      -3.8509865742649162e-02 -9.7264346135156790e-02
      -1.6966908228900790e-02 2.4095451454365410e-01
      6.1188927405358307e-01 -4.6875711152810591e-02
      2.3026609755675190e-01 -3.1804205163722517e-02
      -9.8366098924798001e-02 3.7626290970534958e-02
      5.9030398871153034e-01 2.5505427830944016e-01
      1.2194883440056384e-01 5.2625838203146168e-02
      2.7740507424926503e-01 8.7326359029378492e-02
      1.6339125048126676e-02 -1.4689104476120135e-01
      1.0412619662447267e-01 1.9660512308545219e-01
      -3.0830668505878550e-01 -1.2192528614317981e-01
      3.5961087022287445e-02 8.8744900845667343e-02
      1.1760946068481304e-01 4.7879150906300516e-02
      2.9140215273986098e-02 3.1439074399886774e-01
      -6.3122652713061911e-01 -1.3279428398655965e-01
      -4.8490797173955408e-02 -5.8779308233739294e-02
      2.8039589811741816e-01 7.5086087643957078e-02
      -2.0471721413291324e-01 6.1611704602771204e-02
      -7.0006734195549747e-01 -4.1480501915603923e-01
      -8.5973444616075645e-01 5.8692779618171285e-02
      5.7242387479582491e-01 5.4949170527201741e-01
      3.3298332307055978e-01 -2.0433824652742386e-01
      -3.7378811551170815e-01 -3.7101657051606829e-01
      -8.7663455345282648e-01 7.6689930304707582e-02
      4.9961887997901333e-01 2.9155597727707216e-01
      4.0456044936763913e-02 -8.6723545807938524e-03
      -2.3672901296937671e-01 7.3566916255222116e-03
      -2.5315430001289962e-01 -1.0326738041415732e-02
      1.3872308802887620e-01 1.8229970605745027e-01
      -9.7933010107577337e-02 -1.4846278662442575e-01
      3.4769320659427633e-01 -2.7061729194191531e-01
      -8.9331963342494614e-01 3.8655684302683561e-02
      3.2572683853077450e-01 6.0128731554042324e-02
      1.0376755417991049e-01 9.6264596921495721e-02
      2.7214946732178064e-01 -1.9194688385790248e-02
      4.8178795858923117e-02 -7.2954883707902068e-02
      -1.9948183696331986e-01 -1.3620896393250853e-01
      -1.7986178961686819e-02 -3.1645029080756087e-01
      7.4744410475760636e-02 9.9068501302593693e-03
      1.7172649229897567e-03 1.2628386559727997e-02
      -3.1955751989464411e-02 8.8246226420891031e-03
      -1.9739220139703353e-01 -2.3470859977159692e-01
      2.7692063919448223e-01 -3.8038550035451911e-03
      5.9710143772907343e-02 -6.3177308063238374e-02
      -2.3322724147000604e-01 2.3742850775645280e-02
      -7.6918288042136171e-02 5.6467393033996982e-03
      4.0859291108432172e-01 8.6600834604224648e-03
      -6.3353777337757655e-02 -6.7275623213413807e-02
      -2.5247313418190021e-01 -3.3806058296762177e-02
      2.6095111596034132e-02 2.5298567823968918e-02
      3.6625520804020227e-02 5.3548502204099326e-02
      6.2698993202964506e-03 2.4836688911879661e-02
      2.1927871733885457e-02 -2.0055140565395063e-02
      -8.7894963153008182e-02 -7.5965252473383524e-02
      2.2596752121140193e-01 1.3294420571510801e-01
      -8.1195677361409882e-02 -2.1367439514845565e-01
      -9.7149686531240786e-02 2.5709338556118660e-01
      2.7335843520093637e-02 -5.0491609469468589e-02
      -3.0349538701340849e-02 5.3212702743664006e-03
      -1.7458342344658626e-01 3.1521979390925166e-02
      -7.1242640572716190e-02 -9.5060106507004430e-02
      -3.0990098648120640e-01 -1.7267948517125883e-01
      -6.9109802080297755e-01 -1.5008257206915782e-01
      -4.1333588698125329e-01 1.4320516239192987e-01
      9.0581388473399235e-02 -5.0661707493369228e-02
      -2.7614147092799785e-01 1.8538453139684091e-01
      -2.9034187198296716e-03 5.3761071268447931e-02
      8.6826395483124305e-02 2.8809370581382820e-01
      -3.9107319580961925e-01 8.6952020800665455e-02
      -1.6710613511091790e-01 4.1137461006981474e-01
      6.5304816400424653e-02 3.9207365058999244e-02
      2.5403970149162053e-01 -2.1938346357399160e-02
      2.8976627148517847e-01 1.8357957571949415e-01
      -1.3082728181923159e-01 2.7698684521935690e-01
      -3.6992149937977020e-01 -1.5024714258786237e-01
      1.2281799732453542e-01 -9.0538620401395348e-02
      3.7911052393346539e-01 1.1891543681916569e-01
      -3.1532721717825918e-01 2.6053482218005292e-01
      -9.7530628873948574e-02 -1.0419119124857722e-01
      1.0316354238497920e+00 -8.8732146853772426e-02
      1.2866738687807316e-01 -7.7063537638077356e-02
      1.6432097915899524e-01 -5.0015080856700167e-01
      -2.3482720452987513e-01 2.5039409642882243e-02
      -4.5683661552797689e-01 -8.6550693261645120e-02
      8.1998542620874332e-02 1.0076001397736177e-01
      3.0856907595940373e-02 -2.7231166285014308e-01
      -1.9089089390489400e-01 -1.0604838010578842e-01
      -3.4262342207942187e-01 2.1794057826181185e-03
      -9.2227410775983343e-02 2.1244004174758246e-01
      -6.0905048532115596e-04 8.8026301964994700e-03
      6.4225214818592419e-02 8.7485225989809220e-02
      -5.6282192727321079e-01 1.7902518221476638e-01
      -1.3683139005403561e-01 2.0799534566950723e-01
      -4.2083518843639312e-01 4.6884802273031639e-01
      2.5299132858273543e-01 2.5911007479830717e-01
      2.4457312940130635e-01 -2.4204051279539507e-02
      -3.8074465210216263e-01 -7.0896026261714401e-02
      -3.4814188766210508e-01 4.9275930973020532e-01
      5.6278285817824875e-02 -1.1501374866648900e-02
      -1.3708675775185353e-02 -2.4329248479798060e-02
      -4.0017840917185260e-01 1.4923432813851384e-01
      -5.8077867158943128e-02 -7.0931186284708167e-02
      1.4048416695344806e-01 6.8100713969921886e-02
      2.9519109627668660e-01 -5.3501007978419945e-02
      -9.8790352438267309e-03 -6.1245968629860675e-02
      -3.0900744072833769e-01 -4.4299213351444700e-01
      1.0205376893234819e-01 5.1509083873215615e-02
      2.7188958441193417e-01 -2.2241772294259182e-01
      -2.4902067239455214e-01 -2.9615183761304498e-02
      -1.5779646629168309e-01 -4.5056660997633186e-01
      1.7262070437292092e-02 -6.1671765775181471e-02
      4.0774585958307180e-01 -9.8812151076053414e-02
      -1.7022960599698855e-01 -6.9875042887322339e-02
      5.2424602942251555e-03 -1.5197521259423587e-02
      3.9197175898949922e-02 1.1166535498859877e-02
      3.3550025802253247e-02 1.4689456849570535e-02
      5.6348338503188480e-03 -1.1056206863251304e-02
      2.0237477958200672e-02 -4.3165159222524604e-02
      7.3731244542550617e-02 3.7681038046444362e-02
      1.6372450278000678e-01 -1.3864315808065739e-01
      1.8944352182404641e-02 8.1649565606092753e-03
      -8.6492201292801663e-02 -1.0232363450413251e-01
      -9.8311669873145088e-02 -1.1470421935955261e-01
      -1.8659931976187102e-01 4.9385147536216189e-03
      -5.7924863038299607e-02 -5.0309961784068845e-02
      -4.1344087174093269e-01 1.2979280671309645e-01
      -2.4018793658003626e-01 -1.6372622633646511e-01
      -1.5425359828302057e-01 1.8966852416049546e-01
      2.4413309937850614e-01 1.0460107286373289e-01
      -2.7863936037436193e-01 -3.5291710253662073e-01
      9.3244737555117779e-02 -2.5958122568868664e-02
      -2.0415127206690936e-01 6.7684126551687110e-02
      -9.4606135387230825e-02 1.2953456638924013e-01
      -7.7531574457771202e-01 -4.0899142086823831e-01
      -9.6690521970195772e-02 -1.6368731159787547e-01
      2.1407043669964326e-01 -2.8590879041130257e-01
      1.4810025549175046e-01 1.9566694223700349e-02
      1.5368429447677226e-01 -1.2242036770959383e-01
      2.6788574106449242e-01 3.3886279995614423e-02
      2.4859488709548835e-01 -1.5396747691550561e-01
      5.8452793421613643e-02 -2.2308536541862037e-01
      -3.3680715045068650e-02 2.4114333754006685e-02
      2.5737030899249136e-01 3.6630420298386888e-02
      3.4286267849562269e-01 -1.6805349825923116e-01
      8.1725883372173416e-02 -2.4139592488568123e-01
      1.6982733954082149e-01 2.3327209726056355e-01
      -2.4383679117014667e-01 -4.4564760314907248e-02
      1.7595129450239486e-01 1.2176766932299088e-01
      -1.1724121683968573e-02 -1.6766002697601166e-02
      -1.1833907887883331e-01 1.5679580474939614e-01
      -4.3105714167323900e-01 5.8039185456105882e-02
      -1.1898268292933376e-01 8.3353726534195469e-02
      -3.0703344785196773e-01 1.1231961313928383e-01
      -7.2517904582551723e-02 -2.4950742030455747e-01
      -1.6401714459218256e-01 -1.5946542791190557e-01
      -7.8354596563655635e-02 6.0832288046236992e-02
      -2.1123805173307814e-01 -2.7435658516541020e-02
      -4.9881685307643314e-01 -1.6317654029486064e-01
      3.3027383880048305e-02 2.0134496771198773e-01
      6.1796556191096141e-01 -1.2124637026252533e-01
      -3.3189567747583826e-01 4.0929306232952656e-02
      -5.0488313939899088e-01 2.6732114851136235e-01
      4.6784103382189673e-01 2.8176573941271710e-01
      5.9897909623603716e-02 -1.4823764973065592e-01
      -4.2807723750872906e-01 2.0510383323777123e-02
      -1.7949492447939722e-01 -4.8403569794145057e-01
      1.2486572410880331e-02 5.1409117310566861e-02
      5.5467414186895425e-01 -2.5722168757127917e-01
      -1.2666101233846183e-01 -6.7856176752193811e-02
      -4.6479791914754424e-02 1.0703692297597986e-01
      -9.3970659767008986e-03 5.9856628564232458e-03
      -8.5510457864995393e-02 -2.1338726077911141e-01
      7.2641225749984469e-03 -4.2610429432562484e-02
      -5.3666492969758506e-02 -2.6126624855814468e-01
      -2.5706051570092159e-01 -6.9175441517049727e-02
      8.2195724138447043e-02 -9.6672128465887380e-02
      1.7765676658957064e-01 4.8718002057480676e-02
      1.9703681142426502e-02 1.8844206485712868e-02
      4.7788792276999503e-02 4.4352682801775248e-02
      7.4324269481309442e-03 1.8224264021882652e-02
      3.1312563783585491e-03 -8.1482534757248131e-03
      -9.3406439360849206e-02 5.7252564837262425e-02
      1.7325488332384734e-01 -3.1134151472731356e-02
      3.4216021298783428e-01 -1.9723105473819899e-01
      -4.2740737784411016e-02 -1.3797813670363623e-01
      -1.3015746334737557e-01 4.3442698253116352e-01
      1.5142731957304609e-01 -1.2452056443782340e-01
      1.2816351065939144e-01 -5.9896081884403485e-02
      7.8491626674691659e-02 -1.1617462134040087e-01
      -3.3112689756736424e-01 3.8414710834677929e-01
      -6.4541764066858506e-02 -1.0165664698229132e-02
      -1.1739467162352880e-01 2.3825146375155687e-01
      2.9014156481403941e-01 -7.1666091324802395e-02
      -6.3013238958782625e-01 1.1803318790595803e+00
      -8.6397486303720197e-02 4.0987909000295406e-02
      5.2055168181500844e-01 -2.3821738164307690e-01
      1.1476330197919457e-01 4.8330125189271704e-02
      -5.4483771480419751e-01 -5.9319486106229791e-01
      2.0814955523884721e-01 -2.3326871744047363e-03
      4.9029584966993785e-02 -2.8256180261601882e-01
      -1.4084801598660496e-01 1.1184638720644938e-01
      2.2118535551390317e-01 -8.2506787482896388e-02
      5.4734780314769638e-01 4.4079642178643616e-02
      1.4890104158213671e-01 -3.9341616521091016e-01
      -1.2221157843973124e-01 -2.1163420961763377e-01
      4.2128904690338170e-01 -3.2818654568379999e-02
      3.3692647465123499e-01 2.3435380213350854e-01
      3.1100983425644275e-02 -4.9600559343924031e-02
      -1.3219209604963780e-01 -3.0317953110289908e-01
      -1.9828174672393509e-01 -6.9344706765370426e-02
      6.4739720498459968e-02 4.4732224437443416e-02
      7.9884822193226873e-02 -1.4734870114347776e-01
      -1.1390058872940564e-01 -3.4793665256850892e-01
      -2.4281833681379145e-01 -2.5118850497125644e-01
      -3.8343202196070464e-01 -1.7692504367606121e-01
      3.9870334964814796e-01 -7.3421743097423428e-02
      -3.5958826973962638e-01 -1.7858384960214430e-01
      -4.3071723027661973e-01 -2.3345969835094577e-01
      -1.0635554743006224e-01 -1.1179230762679508e-01
      3.7679363680794231e-01 -1.9534052679064093e-02
      -8.9311831811324682e-02 1.0864099718894378e-01
      -2.8975836937433613e-01 -1.9651421966077395e-01
      1.6906228535597434e-01 1.1954497553350482e-01
      3.9740288770607624e-01 -2.2935377824461692e-01
      -2.4764237784217821e-02 -1.6312402402517054e-01
      -1.4903300220498711e-01 -5.5857058371937973e-01
      2.5904811352014562e-01 6.8860598372497292e-02
      3.9987832047752492e-01 -2.7823284305851664e-01
      -3.1114940125466128e-01 -1.4761288782972470e-01
      -4.9748573052121003e-01 -3.4775375662088337e-01
      -2.7737024519629094e-01 -3.4846777339465944e-02
      -1.5128516981838716e-01 -2.4288981351149153e-01
      -2.4845577179479209e-01 -1.5517986469762803e-03
      -9.8870583251369562e-02 -4.6725770099030295e-01
      3.2837785340774653e-02 2.7868042546608573e-02
      2.4483310881570586e-01 -2.1176739545514120e-01
      -1.6879674855187732e-01 -7.6391990399564721e-02
      2.4963984556534075e-01 5.8108964494333182e-01
      3.9628792888641684e-01 4.3114360570805955e-02
      -1.5463716656171528e-01 -1.5102370764899364e-01
      -5.6615092587265152e-02 -1.3190501064639709e-01
      2.8191205318045625e-02 3.6078183115555093e-02
      4.4721291198719822e-02 5.8332198534351377e-02
      1.2862563884001239e-02 1.9039186330432615e-02
      1.9147075224817355e-02 -1.6256547691147923e-02
      -7.5915450881173146e-03 -1.5365468938382740e-01
      -7.3101563493342625e-02 2.6064666522127106e-02
      -7.9928990477767844e-02 -5.2046220500932765e-02
      -1.0001757651103733e-01 2.2359476000597570e-01
      -3.0379936705439131e-01 3.9790204985623046e-01
      -2.6214409929456656e-01 -2.3356860242218827e-01
      -3.6039700615607256e-01 2.2954736081599370e-01
      3.1005212955807843e-01 3.8524149930601416e-02
      5.6225403926882703e-02 -7.4635425996365662e-02
      3.3322693328374370e-02 2.6707839764807567e-01
      -3.9767950708683636e-01 2.1306301322771420e-01
      4.0680022573238783e-01 -4.2919974054162008e-02
      -2.2600312855759860e-01 2.7227436974267789e-02
      -3.4140448215512043e-02 -8.4594378722849015e-02
      2.5833870055473751e-01 -1.4563644834522055e-01
      1.2685030782314596e-01 -1.1746128279603750e-01
      -4.7153290068602205e-01 -9.6866873525557604e-02
      5.0832454020870083e-02 -9.1856454752977879e-02
      2.5788322882886949e-01 -1.5590685415112265e-01
      -5.8290623396230007e-02 9.2633620571076908e-03
      -5.5520437528854293e-02 6.2519254579873507e-02
      2.4655692246711738e-01 2.5127860573160833e-02
      1.4493843574678650e-01 -3.7822176988914543e-03
      -2.2862218044457192e-02 -1.3343478346098564e-02
      -1.7274626879688296e-01 3.6895554038444456e-01
      -1.2409607626218257e-01 -1.1320130761103163e-01
      1.4928415712670570e-01 -6.6486494064527973e-02
      1.8235179196436535e-01 -3.7416199836474685e-02
      -1.3297568745478094e-01 -3.0962399306834432e-01
      -1.7821394839559884e-01 -1.1254507613792424e-01
      1.7452219891508883e-01 -6.4416871308059065e-02
      -7.6088012453243231e-02 4.7849619071221823e-02
      -1.7378071734456932e-01 -4.4650009846666500e-01
      -3.1388634883543332e-01 -1.3261230567569945e-01
      3.0723851815948494e-01 -2.5243106107665564e-01
      -1.0297589806002447e-01 5.9990110292493307e-02
      -2.3931532438850012e-01 -1.4763782719908346e-02
      1.1045625618687303e-01 -2.3915480781624591e-02
      5.6673844221083225e-01 -4.8786930201435430e-01
      7.5965550240028157e-02 -5.4415712675921372e-02
      -4.3549682758593783e-01 1.4813283132716268e-01
      2.3206388864322314e-01 1.0727694425873942e-01
      6.9161990734463086e-01 -3.1227697968687074e-01
      2.8571398644642126e-01 -1.2834250991606436e-01
      -4.9213235202146116e-01 -6.0607062705335579e-01
      5.3723255804304787e-02 -1.1249558830021315e-02
      1.2764888847052586e-01 -1.9171241410292986e-01
      -9.2457894809754262e-02 1.2389195716216447e-01
      -5.0689108017286999e-01 -1.1647631257079157e-01
      4.3702765245751340e-01 2.4260908584096547e-01
      -5.6968889917852136e-02 -3.1195998934615260e-01
      -3.9620790068749023e-01 -2.3440142031597849e-01
      -3.5562588842210446e-02 -7.7724035616887982e-02
      1.6358097971656782e-01 2.4632985246778027e-01
      -1.4882568251695183e-01 -1.9779593300696605e-01
      -5.3414528340359806e-02 1.0562742118309670e-01
      -3.6431936123735069e-02 -1.1573861918445146e-01
      -1.4312131615677118e-01 -6.8594127413477216e-02
      1.1718024129703244e-01 -5.0157673269380455e-02
      -9.6294283666048683e-02 4.2187133545086531e-03
      3.8055544788780739e-02 3.2754368887098886e-02
      3.4394739091208333e-02 6.7027230438441901e-02
      1.2835861946033469e-02 1.0415595211022794e-02
      2.5384819023298356e-02 -2.6235197026928822e-02
      -7.5813432299136367e-03 -8.7663034876577714e-02
      1.6996215827645416e-02 5.3867125667318258e-02
      -2.3480722478582818e-02 1.2379865794398386e-01
      -8.0243735206981331e-02 2.1900624587093465e-01
      -2.8812360181638408e-01 1.3166389537293466e-01
      -1.2067828445319383e-01 -8.7073758233253820e-02
      -2.1523735687109605e-01 1.8270503922716100e-01
      3.6721979250931869e-01 -1.5774390323806758e-01
      3.1568551279138080e-01 -5.9368271096018144e-01
      2.8463578254795135e-01 -9.0752695555559870e-03
      -2.5437106019157835e-01 3.9386388396023757e-02
      -3.6346751544876277e-01 -4.9879781594614377e-02
      -2.2536923592346250e-01 -7.2148225042933958e-02
      -1.6984817492983434e-01 -1.6099200588184626e-01
      3.8227869094612116e-01 -1.8156728170090200e-01
      1.5260608762676386e-01 -1.1574789052136923e-01
      -3.4581906332491774e-01 9.0644987833409088e-02
      -1.3563067320906139e-01 3.4485171260888292e-02
      5.0478434068050881e-01 -5.2848095418524595e-02
      -7.9440644386074184e-03 1.0741302205820986e-01
      -7.8165392134176087e-02 2.9810049586231163e-01
      1.8130254652929331e-01 2.9520586003369171e-02
      -7.3540345689877523e-02 -8.3851819038640169e-02
      -8.1979268088408871e-02 -6.7020042874062671e-02
      2.4428219542608384e-01 -3.9277495181506063e-02
      -1.7477920871111727e-01 -1.3058399309975235e-01
      -1.9638033284168604e-01 9.4460558026703709e-02
      3.5759569880337842e-02 9.5055560377914947e-02
      -1.5792415402313958e-01 -1.0525335450551702e-01
      -3.2879027349628931e-01 -6.0213709118802403e-02
      -2.4716436706416250e-01 -1.2439743187239724e-01
      -1.0753733740694452e-01 1.6498945976362654e-03
      -5.9647252081810244e-02 -1.0277291506473301e+00
      -5.7138516575195275e-01 -1.3661876135742035e-01
      -5.9508043037485622e-02 -1.3696397918271561e-01
      1.6886106481061794e-01 1.4059443875234393e-01
      -1.6741787856174425e-01 -2.7461193733853506e-01
      2.0393847406199220e-01 1.5276229691919044e-01
      2.9138026109325710e-01 -2.7086345465946710e-01
      5.8880145457158306e-01 -2.1172971250807063e-01
      -4.4181276423050669e-01 3.7403714338088323e-01
      5.8726511654929170e-01 -4.3789914021740220e-02
      2.3453962152514854e-01 -3.4685650310575966e-01
      2.2781874533798360e-01 -1.4682270397010930e-01
      -9.4633134236366934e-02 1.9764732319707108e-02
      4.5320368166462677e-01 6.8204028481663570e-02
      5.5977031281445533e-01 -1.8724696355761239e-01
      -2.0903437463643235e-02 -2.4707531359397905e-01
      -1.4826390190769201e-01 -6.6112687332596276e-01
      6.0234195081988307e-01 2.1408526474585635e-01
      -4.3912049850383619e-02 -2.3836471597446030e-01
      -3.4721597076480903e-01 -2.3663710459232803e-01
      -1.6552925633249435e-01 1.8442245875450913e-01
      3.5063345109293031e-01 5.4472323915356571e-02
      -1.0556472984310263e-01 -1.1230209368775197e-01
      -5.7794893041900261e-02 4.6007006876028239e-02
      -3.1134534925369672e-02 1.7326956677677105e-01
      -1.1791883810072888e-01 -2.2348847810765758e-02
      -3.2195839245716174e-01 7.8000379912988291e-02
      6.2958435483869299e-02 7.5893836918741561e-02
      -5.4474946006222401e-02 3.5818948981378346e-01
      -1.8017658541049630e-01 -1.3648716682761911e-02
      1.3610484038792606e-01 8.1638020068476147e-02
      1.3139338196991943e-01 1.3896006405398054e-01
      1.0260982740713498e-01 2.5512203042185842e-02
      -3.5043926036485958e-03 4.7697839710572114e-02
      -9.6930861455193362e-02 7.9318653551048876e-02
      -4.0086672914294956e-02 -8.4394805571820081e-03
      2.5306660745117747e-02 -3.9041637276257496e-01
      -1.2589596907699746e-01 1.6063770764311373e-02
      8.3235658307416999e-02 7.6912213516188668e-02
      -5.7964505991107806e-01 1.1411544880664821e-01
      8.0851019283008418e-02 -4.3032984059342055e-01
      -1.4719321350205813e-01 -3.8256403949670559e-02
      -2.8149222886977987e-01 8.7122269933058577e-02
      -2.8996255046135505e-01 1.6068892606109542e-01
      -3.9415288562066775e-01 4.1875915692959442e-01
      -2.3444471405956868e-01 -1.0871059798151267e-01
      -1.6627169648082557e-01 -4.9298705778105537e-02
      8.5942456614549689e-02 1.1358570994123846e-01
      -1.4262538920934378e-01 9.4836127750122776e-02
      -1.5572589586773600e-01 1.0329983376849892e-01
      7.3763616042829924e-02 4.1293373700630277e-02
      7.1638987212623462e-02 2.0459537621394905e-01
      -1.4983189904146829e-01 3.1810540996722386e-01
      -2.0339283038189995e-01 -1.7123643587549900e-01
      -3.5532741856758676e-01 -1.5131425941858311e-02
      -1.1110838842321105e-01 1.5240493150241180e-01
      3.3732817411657408e-02 -1.1123413471363444e-01
      -1.8513995729302166e-01 -9.9989990257784031e-02
      -5.3450739063458741e-01 9.6460316235215990e-02
      -7.7603704414080127e-02 1.2365992904296247e-01
      -1.0744406156106273e-01 -1.1699172266296796e-01
      -8.6913861819989530e-02 -2.2128199754939601e-01
      -1.3758281911226611e-01 -1.4376700041979226e-01
      1.5913412722037418e-02 -9.7062879824561157e-03
      -2.8678570002228770e-01 -1.9137556316142945e-01
      -9.8005813507596934e-02 -3.4267575761027416e-02
      4.8853083428220284e-01 -2.9154577409499133e-01
      2.8512472510121895e-01 1.7245094067643291e-01
      -2.5190206302612494e-01 5.0735336237288620e-01
      3.0994195210255409e-02 7.3530400275244170e-02
      6.3900178463965585e-01 -3.5288726707135670e-01
      2.3245139173482690e-01 -6.9109483448618281e-02
      -3.7393474252896619e-01 3.7992211715346963e-01
      3.3060769607005625e-01 -2.2133538001307202e-02
      5.7872556865418900e-01 -1.6518191818745040e-01
      -4.5269011548391708e-01 -3.6799065387651658e-01
      -1.4175157161803331e-01 1.2928643501130566e-01
      2.8974722504017586e-01 3.5491863599553963e-01
      -1.4520682331971632e-01 7.9641478715172950e-02
      -4.2458677777221676e-01 -3.7870307829968863e-02
      -2.6256875537588920e-01 3.3454579561896625e-02
      3.9089426048457498e-01 6.9071617714099906e-02
      -6.8315189621022593e-02 -2.5457538128306537e-02
      -2.3161212237155121e-01 -2.0129317549570563e-01
      3.0841082128814001e-01 2.9692142248768078e-01
      3.1530779426114941e-01 3.4659905724020577e-02
      -4.7652429729753970e-01 7.6656425957272470e-02
      -1.2211016936748700e-01 -1.0144452185604209e-01
      1.3595466273152218e-02 -3.7774588057440056e-01
      1.5364846731504345e-01 1.4161994503433395e-01
      -4.8525850928657299e-02 -9.2143095174753182e-03
      -3.5616680588590459e-02 -1.7239399840860154e-03
      1.4365101589316900e-01 -1.2123653653788318e-02
      1.6444920750259737e-01 5.5077386323882656e-02
      6.8644469111381834e-02 -8.0724708652510514e-03
      -5.3172307325929111e-04 -6.1377304112033959e-02
      1.2245074617771436e-01 -1.5738426993449869e-01
      -1.1853578215809786e-01 -2.1632472400473546e-01
      4.4539608259799787e-02 1.5024104758785458e-02
      2.2600391913985347e-02 9.9364054258707216e-02
      1.6428925402714342e-01 -4.6544516363935007e-01
      -1.1746481894959475e-01 -2.0114233989047749e-02
      -7.8167385985989948e-02 1.0769912269294693e-01
      -4.9053447514031029e-01 1.5326879795996490e-01
      1.1535431849483006e-01 2.3299234723789358e-01
      -3.8286859747248725e-01 -1.3783473239645919e-01
      -2.1358302924353503e-01 1.4438792436431017e-01
      1.9539644602002040e-01 9.3191523968058215e-02
      -9.2874555026962818e-02 1.9138254291698320e-01
      2.3406790782541842e-01 2.0092403828859107e-01
      2.5750771762335534e-01 -1.4016201400410777e-01
      -3.7238227993115353e-02 -3.9064863165198686e-02
      -7.6769420646170455e-02 1.7440431812364213e-01
      9.6242129796067138e-02 -4.0586620209611297e-02
      -3.3808059180074457e-01 -1.4670690437005501e-01
      3.5811447083643158e-02 7.4143206921129634e-02
      1.9346939853472300e-01 -2.2059373762388668e-01
      1.5896345744940255e-01 -1.2508775941758160e-01
      -3.5262250581175181e-01 -4.6286542100929244e-02
      6.9685211339960390e-02 -2.0058796017520972e-01
      2.2931712947037930e-01 -2.8265478172723435e-01
      1.9260981841070676e-01 -1.6668606989596133e-02
      -2.5169288331828560e-01 1.7559538407687089e-01
      -4.8545666833957606e-02 -5.5195893973046181e-03
      7.9349445152607070e-02 2.1088537145156436e-01
      1.6260606216489579e-01 -2.6860078157807946e-02
      -1.6977780167606149e-01 2.4284566300764310e-02
      1.8245411153047797e-01 -1.2314317024824230e-01
      1.6980714453865130e-02 2.9708622452233135e-01
      -2.1991669236609859e-01 -4.4244544161522376e-02
      2.2469264471883330e-01 -1.3542646861946314e-01
      8.6835216125489209e-02 -8.8687237130501972e-02
      -1.1035615626205744e-01 -1.4435142465159601e-01
      -5.6644972342970328e-02 4.7778544167928101e-02
      -2.8727590571625472e-01 -1.5097407878617081e-01
      -1.8717999597799598e-01 2.0152832310658106e-02
      2.6568379905214468e-01 7.1130278197314845e-01
      -1.6940220910171267e-02 2.3315513483104489e-01
      -8.2624427994891725e-01 8.4043895238814240e-02
      -1.2636922056612268e-01 3.3667629628033768e-02
      2.4805820995461153e-01 5.8585164057933481e-01
      2.8529642726007443e-01 8.3382458744357901e-02
      -9.1826161367064271e-02 1.7943380345472543e-01
      -1.0548108385886915e-01 -1.2751159658271902e-01
      4.4321591145772887e-01 3.0253440643389790e-01
      4.7202133685134356e-01 1.3450792881667942e-01
      2.2067802518033566e-01 1.3078131238401689e-02
      1.1738630085926445e-01 -2.8937922338307442e-01
      2.5005963413848770e-01 -2.7643308463468025e-01
      2.9157760040143060e-01 -1.0749583246928391e-02
      5.6295303391529294e-01 1.6928625682065002e-01
      8.2872803739559811e-02 -1.2650947553353992e-01
      1.1713889495792738e-01 -9.5528333639735716e-02
      1.9899733896111027e-01 8.8874303594972212e-02
      2.3240018328314452e-01 -3.1404464777963166e-02
      2.1567425366814028e-02 1.4617968797838957e-02
      -1.3978689022474147e-02 1.0613065617381809e-01
      -4.0312396242073098e-02 -9.5205265269906497e-02
      2.6715358066786991e-02 1.0840670894675807e-01
      -1.6018776194113578e-02 3.8469701698931394e-02
      -6.8069039687756239e-02 -1.3054457124465019e-01
      9.7251102368356102e-02 -2.1442854286021655e-02
      5.9415268928671725e-03 -3.8177332929639235e-02
      -1.6408934239311704e-01 -4.6961519722333719e-03
      1.5638380055228576e-01 -1.8349635092476757e-01
      -1.4229796552448634e-01 1.0169278122593969e-01
      -4.0545553792576128e-02 2.1709001081041224e-01
      -3.5478214159556265e-01 3.4608611008380800e-02
      1.6308171971400034e-01 1.3391301032729799e-01
      -2.2232650827576525e-01 -1.7240178504462325e-01
      4.1768968838833964e-01 -1.1590199117754420e-01
      4.9786297694093401e-01 -1.5349204638998235e-01
      6.1650876391029605e-02 6.7934387493118065e-01
      1.1023383448780770e-01 8.9020757737647893e-02
      2.0766032462694681e-01 -1.0525036556121060e-01
      4.7559958928242711e-02 3.4276485693340110e-02
      1.0743637526502899e-02 -3.9513319753896176e-01
      -9.4240209029520461e-02 -1.1528727103136563e-01
      -4.7922703481134399e-01 7.6384955528049706e-02
      8.8454762060683798e-02 1.3014674338516338e-01
      -1.4339303566307479e-01 -1.4213876734394315e-01
      -6.5363827791120793e-02 -1.5369587723832637e-01
      -1.4019377483337014e-01 -1.0061236351364063e-01
      1.8616553186589799e-01 3.0904798221394161e-02
      -1.5152657693789054e-02 2.0731443611490483e-01
      2.8712817766679199e-01 7.1983689246010257e-02
      -1.5359689215273592e-01 4.4890066366681247e-02
      1.3055079187147026e-01 -2.7532596723457453e-01
      3.2050778825875081e-01 7.3925308507314422e-02
      -7.4851699917544146e-02 1.1676942828393364e-01
      2.4907891258269782e-01 7.1345398203171040e-02
      -3.5739527971383289e-01 -5.9843691701738796e-02
      1.0188259804936259e-01 -1.1969521180663441e-02
      1.4489083191925178e-01 1.7445426675466816e-01
      3.0782726838970809e-01 4.7132302781210375e-02
      -9.7494675116035601e-02 -2.3844993538714118e-01
      -2.7351568437899375e-03 -1.4641047921309422e-01
      -2.6940963055160683e-01 -7.2669882279044307e-02
      -2.6411504619418141e-01 1.4410636138017741e-01
      -1.9447902505637452e-01 -4.8772949195738470e-02
      1.8017006023285040e-01 1.9077483186051494e-01
      1.4729489671438828e-01 -9.6217771164861840e-02
      -7.1014303641665355e-01 1.2534863948445679e-01
      -2.4811586739508334e-01 1.4629038558587274e-03
      5.1912438057533450e-01 5.8412266720842532e-01
      -5.6896810714658866e-02 9.2106287896338221e-02
      -6.0987140469521961e-01 1.2165761451830460e-01
      -1.1667342016450105e-01 -5.6873081663214385e-02
      3.4759678596663013e-01 5.5950279598428099e-01
      7.6020751714622484e-02 4.1525146335164007e-02
      -3.0717242617824980e-01 1.7151057315476778e-01
      9.9336698225153411e-02 -3.2410286591207899e-02
      1.3651474148995582e-01 3.8056916213426238e-02
      -3.9995860967053314e-02 -1.0570787158089109e-01
      1.4835433441303081e-01 -6.1823535261684534e-02
      2.7057329853938095e-02 -4.3447568097693297e-02
      -4.1406201873880534e-02 1.7112201147001038e-01
      -7.2699468423473801e-02 -9.7569870650300636e-02
      4.4337898649431884e-01 -1.3371882092527687e-01
      1.5687810857249787e-01 3.3301015713245168e-02
      -1.9350334451361964e-01 -5.4559775214878023e-02
      -3.2077843157421104e-01 -1.3837733036117406e-01
      3.4256767407800343e-01 -3.2968333212034344e-02
      1.7192753254059082e-01 6.8154181341589071e-02
      1.0196408799184375e-01 6.3129580196459372e-03
      3.4451569643291616e-02 -1.6066564179421486e-01
      -6.3343535498401618e-02 1.8569336232431462e-02
      -1.4582989992869689e-02 -1.0472712646633176e-02
      1.9621049819395861e-01 -2.8089606309776821e-01
      1.1158938409410517e-01 8.7705634785499809e-02
      2.9049850495731594e-01 9.6531338476820397e-02
      -1.8856877233280026e-01 -4.4466282816379432e-03
      -1.5035663449754566e-01 1.0262874090673544e+00
      2.2126424262525182e-01 -2.9634244686112639e-02
      1.1738577106537667e+00 -1.2037325523142392e-01
      1.5389741888224689e-01 4.4272472189774141e-02
      2.8910440202188942e-01 8.8676665740052035e-02
      -3.9777321795721149e-01 -1.2851212991904762e-01
      -2.9918695040478109e-02 4.7604663142980293e-02
      2.3252179745784382e-01 2.3765099042567681e-01
      1.6274911653319193e-01 2.5900045284110340e-01
      -5.4310879702476077e-02 -2.4416771572031711e-02
      -2.1795005743307555e-01 3.4873858203927667e-02
      1.4103951420838709e-01 2.3243237072566808e-01
      1.1268026828488206e-01 -1.4996185461160871e-01
      -9.5019084547112942e-02 3.7038387187713948e-02
      1.4669439265964410e-01 1.6176955203878633e-02
      3.1209298807061574e-02 -7.5833858249775454e-02
      1.6131794986640549e-01 -3.3826416843889789e-01
      -2.2013612610979807e-01 -8.7075619575073052e-02
      3.2493845480870581e-01 -1.1075109828422065e-01
      -2.9944760149872979e-02 3.4846793492770904e-03
      4.0566352393516397e-01 -8.1876874671453201e-02
      -3.1567698716051412e-01 -1.2172229452790943e-01
      -1.2350498105451434e-01 1.3943470454846457e-01
      -1.3235119568762219e-01 -6.6689011310739959e-03
      -3.2203514794806404e-01 -6.5543245270694495e-01
      -1.5915723320217595e-02 -1.4470350993962722e-01
      -1.2454109580947897e-02 -5.7487620146034306e-02
      7.3900990629401832e-03 -3.3786975029556778e-02
      1.3152881734507943e-01 -9.9596581509640889e-02
      -2.3337913315060707e-01 6.2174961899633896e-02
      -2.1427271371697304e-01 -9.9794707280217693e-02
      4.2957433158985418e-02 8.0854734303885956e-02
      2.0584518792371423e-01 2.0657367495661733e-01
      -2.1929297656697427e-01 -1.3822148883021057e-01
      -1.8394070532238301e-02 3.2170238777138024e-02
      1.2454382023565434e-01 -9.3408432950535844e-02
      -1.3598374946196254e-01 -6.4853332015702416e-03
      -1.3769472991628945e-01 3.0919843931418479e-02
      1.6054739689158018e-01 5.4291515041460632e-02
      5.9236219167618842e-02 -7.0491552763153054e-02
      -1.4846871789969088e-01 2.1701141920287390e-01
      -1.1094916671362136e-01 -7.1001877028123370e-02
      3.0530603734993833e-02 2.5300809893687159e-02
      8.8833432811862512e-02 3.7754865154503048e-02
      -9.8811260777057597e-02 1.9003512145693915e-02
      -1.4097450295749284e-01 -6.8864643472338630e-02
      1.0395753109041432e-01 -1.1912901140319299e-01
      7.0628463729552379e-02 -3.0684114720737166e-02
      -1.4591423835202466e-01 -8.6495276623242218e-02
      4.3539211097242757e-02 3.8088266273787211e-02
      -1.6991065210921324e-01 1.7625141327120713e-02
      8.9886795175890127e-02 8.5697646202436570e-02
      7.2818550822812730e-02 -6.1011528286847652e-03
      -1.0808127132402992e-01 -4.0465806877241210e-02
      1.3820305580263520e-01 -1.2916884871387771e-01
      -3.0415453722162231e-02 -1.1057247220122479e-01
      -1.4123188281459795e-02 5.7804414823131985e-02
      2.0917107675645447e-02 6.0245006128264320e-02
      -1.2903830051359741e-01 5.0671783816631302e-02
      3.0349939806762861e-02 -1.1728766032712498e-01
      1.1730607836135475e-01 -5.4051324832384939e-01
      -1.5377866486948427e-01 -5.5402428709233002e-02
      -2.7342563225838690e-01 1.0748752108354179e-01
      2.9616245699740718e-01 4.4295565654603741e-03
      6.1008206395405058e-02 4.4120917019022854e-01
      7.4628801848330284e-01 4.2529845563995382e-02
      5.3632468759651816e-02 -6.4384274523411236e-02
      -1.4734201910367828e-01 -2.3814973281721871e-01
      -3.2963235963730741e-02 -2.5248179748109367e-01
      -2.0497180843493493e-01 -1.5978723411787424e-01
      -7.8919102382148471e-02 8.7035200770173154e-03
      1.2540463715257721e-01 7.1851036179694475e-02
      2.1613396394652106e-02 -2.2227301372522077e-02
      -5.7183279975516130e-02 -1.6139695846257857e-01
      1.4477607440907722e-01 1.3212400647088568e-01
      1.4862640956847703e-01 -4.2781694153824455e-02
      -7.7775574504533812e-03 2.2716354281252676e-01
      -2.3986612464242163e-01 -7.4136531321417953e-02
      1.9244441739981655e-01 4.8671701532951382e-02
      1.5973746862717869e-01 3.8232118940713128e-02
      1.1702705967207029e-01 -6.5138945558197225e-01
      -2.6131640382926558e-01 -1.7717969953421106e-01
      1.7475541344898921e-01 1.0936603314430616e-03
      -2.3475108736553904e-01 -3.1031794579590946e-02
      -1.5043507846765555e-01 -2.5467098551698031e-01
      1.6623161512086249e-01 -1.9043882399733165e-02
      -1.6134880084039166e-01 2.2522662929097262e-03
      -2.5623338188757305e-01 -1.7822661446494656e-01
      1.6679985061545130e-01 -4.1221075863266204e-01
      -5.2430182653060364e-01 5.2675990047963972e-02
      1.2104864478323676e-02 9.5066055230744947e-03
      5.3085966552276855e-02 -6.6348340018757862e-02
      -1.3869420437027971e-01 1.0929526128429150e-01
      -3.5965921384285221e-01 -9.4717399075493466e-02
      -8.4948646607380829e-02 1.9419030648738466e-02
      1.0023684814024227e-01 -4.5726533401576501e-02
      -8.1920855448659499e-02 3.8940678832929614e-02
      -2.1498296014091414e-01 2.4883553294017462e-02
      -2.5705682174618372e-01 6.1958252455992881e-02
      -7.4918658910721123e-02 -6.8833993632981649e-02
      -5.1629986088441805e-02 8.5181456765788380e-02
      2.1602719981046581e-01 3.0528937996005426e-03
      2.1817051122835315e-02 -1.1821265330138107e-02
      -1.4675727450326584e-01 -1.7334113927326358e-01
      7.7127147808818672e-02 2.3186141009047323e-01
      -1.0741869651805193e-01 -5.7284475270191253e-02
      -3.3181259341278174e-01 -1.2362692859087615e-02
      -2.9894827294317725e-02 -6.2901748862930720e-02
      2.6182078948663211e-02 -1.6408313988930195e-02
      -8.6205878147228659e-02 -5.3169287646191506e-02
      7.9594576407396200e-02 1.4547561600796069e-01
      5.7541886549241382e-02 -2.0470970418439369e-01
      7.1046986442368884e-02 8.5065498071338263e-04
      -7.6476923172441674e-02 -2.7559804900105990e-02
      1.7059267258644231e-02 2.7301463081856148e-02
      9.3717270621904280e-03 -1.6541567582854846e-01
      -2.0915579829421549e-01 -1.0880238442855189e-01
      1.8296827953411390e-01 -6.3142633441609183e-02
      -3.2579000843879152e-01 -2.6998020304108136e-02
      -3.0823658177181956e-01 5.8445494800791767e-02
      1.0915191791549092e-01 1.1104563954009428e-01
      -3.4860036728981713e-03 3.7267090224406815e-02
      3.4753396221182682e-02 6.8059775657019983e-02
      6.7580102956341800e-02 7.6519895696471260e-02
      1.5366787837920179e-01 -3.7601537701958399e-01
      -1.2859399232173413e-01 1.7049874326863480e-02
      -1.1685685841077323e-01 1.4444812781209740e-01
      -6.6683319943268163e-02 2.5044167591841446e-03
      1.7996829641974010e-01 -3.1369627948352463e-01
      4.7198839447413676e-01 -7.6207993631409565e-02
      -6.9567576093526196e-01 1.7261057048264783e-01
      4.2857793499865356e-02 -2.1210750223919334e-03
      3.1873412132704323e-02 -4.4908375722742067e-01
      -6.7638702047439570e-04 -7.1403394857104716e-02
      -1.9416985439218987e-01 -5.8521119960238767e-02
      3.1550874783475152e-01 -1.4719250888892571e-01
      3.6722116441145702e-02 -2.6132509316858449e-01
      1.1423520386460573e-01 1.4432198836244878e-01
      6.5250933208079384e-02 -7.7384887921968085e-02
      2.3308758968593124e-01 -2.9146744039819070e-02
      -1.7189982902691185e-02 -1.0254250905739144e-01
      3.7467358937408782e-02 -1.8489247975559239e-01
      -1.2164149907323771e-01 -1.2485183281436208e-02
      1.5911784131017709e-01 9.2590451718462710e-02
      2.5815099498382260e-01 -6.9402072081514443e-01
      -8.3412398981045605e-02 -6.2726401495892842e-02
      7.3003897768496029e-02 -1.7075726836559578e-02
      -1.5116857156612629e-01 -1.5300587176076233e-01
      -5.5258749807104560e-02 -1.6362440873572975e-01
      9.9498344577136993e-02 1.2940883091037719e-01
      -3.1509701447333133e-01 -4.4486325604210654e-02
      -2.3110927539948753e-01 -1.9526989315492457e-01
      1.4139236080667505e-01 -2.4898444022607569e-01
      -8.8312739947118801e-02 1.0894120309609615e-01
      -2.6828206911016850e-01 -3.5123170334442476e-02
      5.1503904185090932e-02 -7.0168138359956306e-02
      1.0027232143658596e-02 -4.7699254049772301e-03
      -1.4440064424754828e-01 5.9484050750915271e-02
      -3.6311777629696412e-01 -1.5351476215544637e-02
      -6.5368758938414073e-03 -8.2468556498781043e-02
      8.3314696633425861e-02 -2.9246884277734914e-01
      -4.1719385197564113e-01 -7.3520129538074963e-02
      1.6440160909539775e-01 -4.6580500501906603e-02
      9.8364145266262262e-02 2.2271500517726070e-01
      1.8549966582077440e-01 -2.5218282432657518e-01
      -4.1281130358514195e-01 -1.8739512710858407e-02
      -3.3098067814163586e-02 -1.7080304335876116e-02
      2.4507733285679470e-01 1.8558549103266334e-01
      1.5426443150556995e-02 1.2416387104850585e-01
      1.6354259601852678e-02 -7.6348142975844607e-02
      1.7620065237225213e-01 6.9718233904408997e-02
      1.0608291102474685e-01 1.4681559095302610e-01
      1.3290912394328844e-01 5.4264484425667880e-01
      1.3321474214482790e-01 -5.1977895925601134e-02
      1.2803545665452373e-01 1.2760749279896819e-01
      1.7272643804487475e-01 2.5022814211276466e-02
      1.0325903413402225e-02 2.5805391018538193e-01
      4.7766896478063370e-02 -9.8810929933501879e-02
      8.9280626592697684e-02 7.5277679872672074e-02
      -7.3981405819574936e-02 -2.0876476446049296e-02
      -5.6775381328657795e-02 1.3539381873940423e-01
      1.4608635377631571e-01 -7.6962787233116517e-02
      1.1322095515678526e-01 7.7152233538896692e-02
      -7.8880792497984395e-02 -4.1718230693799124e-02
      1.8538955369473883e-01 -9.7263552778954071e-02
      1.8537336711218155e-01 1.3326729993080638e-01
      3.9844731486589617e-02 3.1392577223651824e-02
      -2.0622531902982442e-02 -1.1704129791486960e-01
      -7.5786290327058775e-02 -3.8319006218403832e-02
      -1.2756671498927266e-01 1.1078865401921478e-01
      3.1762272127430236e-01 -3.2999952042290728e-04
      -2.3049562574274421e-01 -2.5313453536166047e-01
      2.0760804120657045e-01 -1.8562006241525705e-01
      3.4957661102717745e-02 8.3806310181560525e-03
      1.3493905118204431e-02 6.0692396096275171e-02
      -2.3100364987548913e-01 -7.3226445083177688e-02
      1.9933948492468243e-01 -1.5928598500082233e-01
      -4.7810224443041519e-02 -2.9536266009255897e-02
      -7.4601213206337669e-02 1.1381618122771248e-01
      3.0631044568296883e-01 2.2121788321014935e-01
      1.0718333675167593e-01 -5.0700597454905523e-02
      4.6481866770006243e-03 1.3916582554139975e-02
      -4.9711171094046291e-01 1.3931080755847250e-01
      2.3581150840732540e-01 1.3440165512203042e-01
      2.0612517598832997e-01 -4.9213823603002621e-01
      -2.6105261597729201e-01 -1.0421403718483632e-01
      -5.8703262547902291e-01 1.8914347548224439e-01
      -1.1683622703978341e-01 1.1622809716744477e-01
      -2.6442246607185794e-02 -7.2606135485724554e-01
      2.1206339525777496e-01 2.7523441985578795e-02
      1.2278357385393447e-01 -1.8654272818984751e-02
      -1.6657081611340710e-03 -4.1145725917851712e-02
      -1.4787580731598589e-02 3.6709992480361370e-01
      6.0507559624587093e-02 -8.1880582757932099e-02
      -2.2806729953233282e-01 8.5461288951205420e-03
      1.6067510426453657e-01 4.1006340337490295e-02
      -4.6262544669558724e-02 5.4711218552504881e-01
      -1.9491541206204496e-01 -1.2170782560131735e-01
      -4.5446889805182002e-02 -4.5339334505505917e-02
      1.0474635085507274e-01 1.2487994644069107e-01
      -5.7498182212405421e-02 1.8384145573207633e-01
      -3.0569749539054097e-01 -4.8491608746904752e-02
      -8.5735846057025597e-02 4.5184886513354498e-02
      9.1760071032329481e-03 2.2874113178077288e-01
      4.3382263283363164e-02 2.3710709736308500e-01
      6.6846096541925165e-02 2.6175307299737632e-02
      -1.1203256829941734e-01 -1.6412929149728542e-02
      8.7743395949626352e-02 5.7080901446873306e-02
      6.8292862995278092e-02 1.4720735235811613e-01
      -1.5523465044934681e-01 -3.5567101125719827e-02
      3.8243787948953868e-02 -7.3988586489294420e-02
      4.4121820513615309e-02 2.1470467956831964e-02
      -4.0597991054762639e-02 8.6856686950894768e-02
      7.4460929247188515e-02 -1.3330051488122278e-02
      9.5980188628980834e-02 6.7786274681500683e-02
      1.8711010596353478e-01 9.6715796483424002e-02
      -3.0756613728822074e-02 3.4656058677038964e-01
      -2.9384115725403668e-03 -5.8739351756393492e-02
      2.2183795439154419e-01 -2.3733137138430921e-02
      4.7109716625689725e-02 -8.2048773400308528e-02
      1.8900244852316839e-02 6.3858164163364567e-02
      -1.1027915187108815e-01 -1.0475344696767400e-02
      1.6524406627614491e-01 1.4773779733296138e-01
      1.0726248015705045e-01 -3.4262013070357512e-02
      1.3016161786159023e-02 -1.3479481274596769e-01
      8.2826585123393748e-02 -8.3148209783377135e-03
      -3.3924891506496019e-01 2.1743459163480170e-02
      -1.4474690263806025e-01 8.6093768183260866e-02
      1.5027816553754678e-01 -2.3152728140854043e-01
      2.4685546994196450e-01 4.6505966183497893e-02
      8.4893630643633963e-02 -3.2090413747591133e-02
      1.1958867519120822e-01 -1.4474125624678608e-01
      6.1046358584707944e-02 -2.2023488478722808e-01
      1.0400013197008580e-01 -2.5229471605651758e-02
      2.5131211667457748e-01 -8.7864489907702584e-02
      -1.3275759304829973e-01 -1.6716275477186215e-01
      1.0528744834763558e-02 9.2097767067289921e-02
      -1.7561536189424642e-02 -5.9360470859976186e-02
      1.9235920386390692e-01 -1.4495104774654993e-01
      -1.0547352855761605e-01 -1.1125166254848665e-02
      -1.2261537287340941e-01 2.6906917296338462e-01
      -2.0048923348731956e-01 -1.2269240213598057e-01
      2.1213090715592325e-01 -5.5082783628174536e-02
      -3.2829968608932752e-02 8.6814149329372967e-02
      1.1835069759239357e-01 3.4307837675184957e-02
      1.7687772125584805e-01 -1.1550383046293367e-01
      -2.2954260944401997e-01 7.2259769802963322e-02
      -1.0331176202452684e-01 -3.4695464590753414e-02
      1.1205379085682783e-01 -1.8690805320666606e-01
      2.6087272388615795e-01 4.9020023106820257e-02
      -4.0259166773078975e-01 1.2255847639287068e-01
      -9.7773450284921209e-02 -3.7236971191211651e-02
      -3.8446300776069628e-02 -1.7907659870214604e-01
      -2.0827697127153991e-02 -2.4443621977090664e-02
      -7.5337641336224254e-02 -5.8975785672750027e-03
      1.5833336838789066e-02 5.5864499474887266e-02
      6.6185181702906729e-02 1.9129771940998083e-01
      2.8630002397544894e-02 -6.0317436035547184e-03
      -6.5384706435725566e-03 4.9631125196745542e-02
      -1.2611190402664098e-02 6.3366961593687529e-02
      -5.1029025603020438e-02 7.3142776143075808e-02
      5.6114465674179062e-02 -1.2356266168435284e-02
      -8.8910098722684489e-02 1.1279966577113667e-02
      -7.9478585712063593e-02 7.9439955125371983e-02
      -1.2384035554730004e-01 -8.9120486284747197e-02
      5.2117249161409071e-02 3.3779333865974642e-03
      2.2640435417525329e-01 -5.9623968911237037e-02
      4.0434155970618724e-02 9.4534479653021503e-02
      1.3789980560651543e-02 -2.5053822904101863e-02
      -1.4536263687836862e-01 -1.5058155476384025e-01
      -1.5692225083539207e-02 -6.1219719842212757e-02
      1.3214626091400175e-01 9.9919324240610854e-02
      -1.0472755150818897e-01 2.7093452458234807e-01
      -3.3836848979662361e-02 6.3337556148829596e-03
      -9.4762359646931180e-02 2.1571223981866661e-02
      9.6889660050460222e-02 -4.1604537385140659e-02
      -3.7160268841601057e-01 4.5675789675883199e-01
      -2.5095398994703072e-01 -7.6568543800040967e-02
      1.0895535757756222e-01 -1.0601663304671284e-01
      1.5349135135920947e-01 1.1868267884596531e-01
      -3.5875831836450212e-01 4.5086472690432727e-01
      -3.9933868361102148e-01 -1.8270733237760794e-01
      2.1511124796997150e-01 -7.5286998448081399e-02
      1.9123189367071411e-01 8.1444860868705685e-02
      4.1209980004465865e-02 -2.2448732041818512e-01
      -2.4705506601540077e-02 1.0421698341407278e-01
      -9.7180581136029537e-02 5.2986368448218607e-03
      2.9772687116703542e-02 -6.1393460656112987e-02
      9.8279810713299109e-02 -1.6673394002581998e-01
      -8.8405192786427722e-02 1.2795004270654659e-01
      -2.0638335240095171e-01 1.8247964058111486e-02
      1.0768357339466467e-01 1.6219121228478187e-02
      3.6440956585211737e-01 5.8178869864688088e-01
      2.0808568846395112e+00 1.3531190867889825e-01
      1.4551049922021548e-02 5.5264302219345293e-02
      4.9154341560142208e-02 -1.0893193771088679e-01</_>
    <_>
      3.7507275216131641e-01 8.2377524785297340e-01
      -1.0478160074615857e-01 -3.3468889109986000e-01
      2.8509499759647178e-01 -8.6900656115162511e-02
      -7.4099823401026527e-02 -6.0694750402047015e-01
      6.8390678050000231e-01 -4.2422636994378099e-01
      -2.2015261032886260e+00 -7.9259575483766820e-01
      1.8215998563999375e-01 -3.6747522665619031e-01
      5.2163571304316569e-01 -2.0163263733483777e-01
      -1.3690323609258377e+00 8.1593436832424249e-01
      2.1016543471046423e-01 3.6917837010041538e-01
      4.0827001496763055e-01 -4.2319203126189858e-01
      2.7872148936771995e-01 -5.7480327695544198e-01
      1.4171889039583693e-01 -6.9350136673069579e-02
      -8.1041963651547522e-01 -7.5131706720791502e-02
      9.8244146635072493e-01 2.3787808435528207e-01
      -3.1192154455590171e-01 2.2274566184704578e-01
      9.9294044517160396e-01 2.4230017577626102e+00
      5.8085830361486745e-01 8.4978191886017712e-02
      3.4570225899320708e-03 3.3479470325311372e-01
      -5.8333171248196347e-01 -3.3639972041369282e-01
      5.9461751584519928e-01 -9.0651768251523338e-02
      -2.3846426425401834e-01 -5.0887594426329164e-01
      -6.4236044203617249e-01 1.4735677570450176e-01
      -1.1731972069105767e+00 1.1778114815278122e-01
      2.0520848854606571e-01 -3.6596975837669660e-01
      -6.2550637351986141e-02 -1.3949403026644194e-01
      1.6927698631100482e-01 -1.1102946852377465e-01
      -6.9217613078366422e-02 2.4817706813732449e-01
      -4.9359562139545698e-01 -1.6064208046298190e-01
      -1.3029211555701468e+00 -8.2726892398883922e-02
      2.3866260549404697e-01 4.2591509557903466e-02
      3.6700682112608268e-01 2.1867634539031676e-03
      1.5705035338054036e+00 3.5974784681148642e-01
      -5.3764753346245853e-01 -1.8784763453002296e-01
      -1.9897984511733408e-01 -6.4757335787328230e-01
      -1.0065068715516468e+00 -8.0526731914219285e-01
      -3.2278290432424589e-01 3.7823859314794783e-01
      1.0878322238755471e+00 -7.5368513599528264e-01
      1.2413104396622041e+00 -3.3054890451747621e-01
      -5.4974448991874036e-01 -2.4630281786888218e-02
      4.8147906473337426e-01 -3.3627960110978178e-01
      -1.2136586987074097e-01 -6.3397515655800554e-02
      -3.1870494075506739e-01 9.6321111468308893e-02
      9.6648344365992594e-02 -3.1884141631139939e-01
      3.5173371641694373e-01 -1.2323488907898599e-02
      5.3625779624178094e-01 -7.2320234605946790e-02
      5.6717612283929852e-01 -2.0619191587512756e-01
      -9.4104783122200220e-02 1.2684084943266449e-01
      6.5391816759649513e-01 -1.0083936061677221e+00
      -6.2311829627546411e-01 -2.8355890971673825e-01
      -4.1904847974382549e-02 -4.3570118498423388e-01
      -1.0908006840555699e-01 -3.4908056046082203e-01
      2.3027144826516399e-01 -9.4525315025416681e-02
      -9.4046929382628985e-01 -6.8468901096409240e-01
      1.0361117224279961e+00 -1.6267427756802896e-02
      2.6049406838981581e-01 2.5588639073826130e-01
      -9.5317317767208865e-01 -6.0527961668545682e-01
      8.6601469395899106e-02 1.5978249367679984e-01
      3.5060903996081354e-02 8.0273431524532118e-02
      3.5391773850102298e-01 3.2854932528443265e-01
      1.3439604594910845e-01 8.7251219940076979e-02
      2.3824468052810660e-01 4.1194681482736983e-01
      -8.4770860770639367e-01 1.5722847200859941e-01
      1.6638810018540254e-01 -1.2599461906338738e-01
      -8.3710320314152251e-02 7.5145751643306380e-01
      3.7851646187463811e-01 3.0802427541050378e-02
      7.9129760967958415e-02 9.3797692090769130e-02
      3.2355262555403669e-01 -2.8845390382166308e-01
      2.3149828798306421e-01 -3.2129381907246124e-02
      -5.7073642052784612e-01 -5.6970696808113430e-01
      -7.9649636715480265e-01 -9.2871690015379718e-02
      -1.6668625745640520e+00 -2.8787720346582185e-01</_>
    <_>
      2.4508315305819894e-01 2.4849319837445205e-02
      1.8552844450713429e-01 1.4818212507103781e-01
      2.8874749359606974e-02 6.6576441075911236e-02
      -1.8343482553767398e-01 5.7586637637946033e-04
      1.5370016091457497e-01 1.5356222597298252e-01
      3.0750192766733447e-01 1.0300566440327136e-01
      3.3423235561097420e-01 -5.7116078283109047e-03
      3.6408439062494619e-01 3.2906553951839895e-01
      -2.5997000092832689e-01 9.2587917692877275e-02
      -8.8458038098353977e-03 3.9753050116543553e-01
      3.7214346765747697e-01 9.0647101841581035e-02
      -3.0204353186078770e-01 -1.0893122633332661e-01
      2.5572821472459173e-01 6.6963750230984364e-03
      -7.8279412257532058e-02 -2.5080416023738894e-01
      -2.0512255612035871e-01 1.7207343974528735e-01
      4.2057839336712644e-02 -2.0297386182869931e-01
      1.1630867685214323e-01 1.2163370795484853e-01
      -7.2163815286297294e-03 -1.7566224321761467e-01
      -2.5874505076164078e-02 -7.3418783390912248e-02
      -6.0588159153591017e-02 1.0616082793747308e-02
      -4.2726359266806474e-01 -4.4817872578088730e-01
      1.9800470895665834e-01 -4.9300247096199921e-02
      -7.0755395685889548e-04 1.4867021239162120e-01
      -1.9167589460444256e-01 -4.9542804857068530e-02
      -2.8121623375586016e-02 -1.3572426681988792e-01
      2.4599252426935492e-01 -2.3969792187565098e-01
      -4.5297083841271102e-01 -2.0990576364148000e-01
      8.0942443557833879e-02 -2.2775263229171702e-01
      -1.8646708956707144e-03 -1.1886894141656015e-02
      2.2017922593978801e-03 2.9276687215779135e-01
      4.9840820367760480e-01 -1.2587981044842647e-01
      8.7789364312212820e-02 -1.2058379309328380e-02
      1.1843936679555242e-01 -8.0721136175898697e-02
      -2.3251076566010140e-01 8.1813808421714554e-02
      1.5612881728919664e-01 -2.0399954416702178e-02
      -2.2596234120058814e-01 -1.0161427505822246e-01
      -1.3320447148382625e-01 1.1798436767038906e-01
      -1.5618629387853114e-01 -2.7769060249757026e-02
      1.2630378973561707e-01 -8.3465260440062750e-02
      1.3383416910935930e-01 3.8581233346064898e-02
      -5.4206926126599185e-02 1.6276486583594130e-01
      -8.3747723883002653e-02 1.2933556437790686e-01
      1.1358785006969940e-01 2.1470779691893896e-01
      2.1905267970374581e-01 2.6385376451950759e-01
      -1.2277246772785214e-01 -1.6870705647329462e-01
      -8.9470212600970697e-02 -1.7773815106788005e-01
      1.3840573717441626e-01 1.4639892268893948e-01
      -2.3420568360057445e-04 -1.6327391869409655e-01
      5.8656219066409360e-02 -1.0321651306704832e-01
      -1.8051370731840315e-02 -4.7891866138773588e-02
      5.1316329338952700e-02 5.7822684270857454e-02
      1.9401149783361101e-02 1.0685723800576610e-01
      6.2354263838245542e-02 1.7536085405092156e-01
      2.0607342229448958e-01 6.0405283278512328e-02
      -9.0133973396038132e-03 -1.1071339253653364e-01
      1.6423286899740291e-01 9.2950477550119356e-02
      -8.2784970560703927e-02 9.4636005031709880e-02
      -7.2865787829703210e-02 2.1346484425253562e-01
      9.7059723929933797e-02 9.9181943024985675e-02
      2.0384802185698039e-01 1.1292353538505463e-01
      1.4327609935719497e-02 4.0197469853674186e-02
      -9.9509048795480851e-02 1.1678293065582476e-02
      1.2845339983161430e-01 1.3945520192029512e-01
      7.1457252014358374e-02 -1.6356891215529714e-02
      5.3810937138316313e-02 -9.7987862022078889e-02
      -1.1260994906441342e-01 8.4656810688978013e-02
      1.2463798721711680e-01 -6.9674305721987281e-02
      -2.4068064001311271e-02 -1.0012319000646100e-01
      -4.2696835759565427e-02 1.3815406850737902e-01
      -5.9699156374172788e-03 9.0439962812264907e-02
      2.9630563790469248e-02 2.9247497717669095e-02
      1.1401103305625319e-01 1.2891815108565735e-01
      -4.7216717223675597e-02 2.2550915704555599e-02
      1.4119323764397092e-02 -1.1433177559530100e-01
      1.3908813816727969e-01 -5.8860609234747232e-03
      -5.2229031435150092e-02 1.8636397870843820e-02
      7.5126882450463617e-02 -5.5396835867758745e-02
      -9.3726387738284275e-02 -1.5137591222971764e-01
      5.0944592447198150e-02 2.6598828378896489e-01
      -3.0162628520425908e-02 -4.0627228989675399e-02
      -2.0613117434697531e-01 3.1508375969846008e-04
      -1.2587064043857840e-01 -1.2186709020388650e-01
      1.7517846729816747e-01 -5.0616929175456744e-02
      2.2212230301469155e-02 -5.4316019855340479e-02
      -8.9149761790604493e-02 -2.0665269252174018e-02
      -2.3537121883859916e-01 -6.0282822955928309e-02
      -9.0756622569758250e-02 -7.2430891959104571e-02
      -9.4965335084071331e-02 1.2030617135297447e-02
      1.7990003569275242e-01 1.7402140019652023e-02
      -4.3914313699996904e-02 -7.1142046902188352e-02
      7.0128798884166368e-03 2.2566568725146390e-02
      2.2547436844227167e-01 1.9183319977853011e-01
      -9.3820828650072671e-02 3.5567516344312940e-02
      1.0522435670508601e-01 6.2837845127994606e-03
      1.1177267418126720e-01 4.3806544078035404e-03
      -9.0963045562473116e-03 -3.3518643071724211e-02
      -5.5261308527427791e-02 -7.7087410511004970e-02
      -9.6147104151782348e-02 -1.5066082570248190e-01
      1.9633955288090879e-01 -6.8780796323141283e-02
      -5.4709750107081151e-02 -7.1347037657808476e-02
      -9.4346230013026458e-02 -4.8866245539959365e-02
      -2.0191967694955529e-01 -1.1266580411513284e-01
      -1.5633214435202197e-01 -1.4230789803255514e-01
      5.9624786626282997e-02 -6.3332989264184070e-02
      1.3402824333914290e-01 -6.9300216844641702e-02
      -7.5061668385656338e-02 -9.0015147517674116e-02
      1.2621104505156336e-01 8.2260144239525601e-02
      1.1846269327859849e-01 2.0318711922836860e-01
      -1.4026691272949118e-01 1.1232577448991234e-02
      -1.0747560457201646e-02 1.0270421668565521e-02
      2.6235284674163466e-02 1.1931081206853836e-02
      -8.6674184173198138e-02 4.1316135073391290e-02
      -6.1135159328895947e-02 3.5383670698632685e-02
      3.9337806753440258e-02 -1.3212835634143655e-01
      8.2158410341074628e-02 3.2889961017350249e-02
      -1.5063343730873630e-01 -6.4515725934185572e-02
      2.2249311325935758e-02 -2.4933587461510173e-01
      -8.1960070669186477e-03 2.3128824288154673e-01
      1.0133966545187044e-01 -1.2415894688977672e-02
      1.6855139186205326e-01 1.5836776512041373e-01
      -6.1672200161713070e-02 -1.2149438410960271e-01
      -1.1103148605571997e-02 3.9712562686942655e-02
      -5.5997112353674945e-02 1.0940329466519176e-01
      -2.1626040033534810e-01 -2.0214153687422078e-04
      1.3839246702765964e-01 7.8678680140677176e-03
      1.8369972183257763e-01 1.9774382247658859e-01
      -1.0269109970216811e-01 2.9383136771407213e-02
      -3.9595762374778819e-02 -9.8417701944127814e-02
      1.6778005336371729e-01 1.0757065282588188e-01
      7.6206784696202706e-02 3.5419897989872107e-02
      7.4016755026616018e-02 1.1222597195310657e-01
      -1.4186813662127434e-01 -8.7710825402763370e-02
      -8.2171277437591173e-02 -1.8457033793324118e-01
      1.5789032225753186e-01 1.2222214443751500e-01
      1.6500723794503933e-01 1.2657751951986776e-01
      -2.0180628195888665e-02 1.9736123816935908e-01
      -1.8266577433762099e-01 -1.7058991989397004e-02
      1.0167620782633637e-01 3.0120287695998005e-02
      -7.6338056623526079e-02 -1.2286036324997621e-01
      -2.4460706139794736e-01 -1.6737861084110664e-01
      1.8814324318776332e-01 -3.6982079805985210e-02
      8.5742376518513352e-03 5.9079245758924370e-02
      1.2521430098339542e-01 -3.4234884034124682e-02
      -1.0111993963913950e-02 -1.4677693615160611e-01
      1.2394576831530791e-02 1.0808031516152505e-01
      -8.5451241823781166e-02 8.0398784856448996e-02
      -2.3587440823736491e-01 -5.4310633058666465e-02
      1.4095767731704878e-01 7.7291045576537071e-02
      -6.8382239790045499e-02 -7.3056419204863735e-02
      6.0722802360155093e-02 -1.2344307916514216e-01
      4.7426938298822913e-02 -1.7783172135771050e-01
      -1.3713038713549075e-01 2.2459115097625663e-02
      4.1919628101035999e-02 -2.9664168518741200e-02
      -1.8541867222366188e-02 1.1677275225816958e-02
      1.7943744296394365e-03 -3.5144129639895702e-03
      -1.2784121259334378e-02 1.8671889507194537e-02
      -1.5139374140374653e-01 1.4615485655602661e-01
      -1.6912670829319587e-01 -3.9184337777107454e-02
      -9.2128815159939325e-03 -9.7893897079837963e-02
      1.1955754014613638e-01 -5.3506041795755216e-02
      9.3655456164245351e-02 -3.1691006355822206e-02
      6.0117909780896803e-02 -1.0308486872964324e-01
      6.2217186022996629e-01 -5.4237091573703752e-02
      -2.8372450418551737e-01 -2.5899182949793481e-01
      -1.9348024821658202e-01 2.4537037115965922e-02
      -3.7655917224691700e-02 -2.0537087916420851e-02
      6.4418076229427676e-02 1.1494908206634065e-01
      1.2035042416518540e-01 4.7413544795473092e-02
      -1.2660836951384127e-01 1.9890588620502453e-01
      1.1814865730507265e-01 -1.0470714238457168e-01
      2.8231412801280631e-01 -1.8594578975658374e-02
      -6.1726756879267444e-02 -2.2114394498636622e-01
      2.0943402159230552e-02 -4.2243891656119203e-01
      -9.3370616804046611e-02 -3.0342716708563566e-01
      2.1157923223825267e-01 1.8290278113136932e-01
      -2.7498167982438210e-01 1.1017084806017564e-01
      -2.2744151381578294e-02 1.5321434050969707e-01
      2.2574789475508331e-01 -4.7815328243091489e-02
      -3.5699842343412114e-02 1.0628175738313136e-01
      -1.3879918275978342e-01 -2.7859305048825729e-02
      -3.6522440957359012e-03 -3.6973028737831332e-01
      1.2045343406039578e-01 6.3805884822717387e-02
      1.8413853311722347e-01 1.2716786169516037e-01
      -5.0876149746283801e-02 1.6294432002363093e-02
      2.4458988676810834e-02 -6.7627055161072119e-02
      6.5839504846070027e-02 -4.8834869291503935e-02
      -1.6488186162868138e-01 -2.0386351559839588e-02
      -2.7661813716678579e-01 -9.9570344729607810e-02
      2.5587002749832588e-01 1.0430513091886676e-01
      2.1470312601866115e-01 2.0234671845382060e-01
      6.8182878450531656e-02 -2.3745329124112022e-01
      1.0826216982548346e-01 -1.3663752422716842e-02
      -9.4007641724386373e-02 6.7609934988293346e-02
      3.0423201631870117e-01 1.3228420938196248e-01
      7.5457733431009436e-02 2.1042661479680377e-01
      1.5712238469629874e-01 4.3131916875140043e-02
      4.3129074845674598e-01 -1.5015653902354123e-01
      -2.3323073583034468e-02 1.0982470586793616e-01
      4.9845607877445242e-02 1.6357859207055847e-01
      -3.4223452045178682e-01 -1.7810918889126956e-01
      2.3620695078365388e-02 -7.5681816789018985e-03
      -6.4205509954746290e-02 -1.5750499562433184e-01
      -1.1982903899072445e-01 -1.1873873033171752e-01
      -6.9058927751684118e-01 -3.6474615912610148e-01
      1.1496003771617984e-01 1.4527928040267024e-01
      1.5171789524527035e-01 1.3154852609512802e-01
      -3.5048336226450399e-01 -2.6905359612483770e-01
      5.8086613448973125e-02 1.1238168712591196e-01
      1.2568954980081964e-01 9.4122583966897197e-02
      -1.4069569621178485e-01 9.7579989390474201e-03
      4.6870559248778053e-02 2.0593944461557837e-02
      3.5993320109338353e-02 -8.9701585800031399e-03
      -1.1231466419283820e-01 1.6213719291996201e-01
      -6.8341387387269692e-02 2.3580956920868815e-02
      4.6011329443571940e-02 -3.6344189583768421e-02
      8.7014465186252526e-02 1.7561584596607055e-01
      -8.9367808064752613e-02 4.1897920864690241e-02
      1.1469568778970855e-01 1.0551417901790616e-01
      -4.6917289547988503e-03 -4.2617149185403776e-02
      1.4558716409629366e-01 1.5700611521389377e-01
      7.6397878591964230e-02 -4.6152492006158459e-02
      -1.0037706879721292e-01 -4.9950100756863479e-02
      5.5321372409952753e-02 1.9443165508726837e-01
      -5.8335594764250667e-02 -4.3250419525981292e-02
      3.7927276226693152e-01 -4.5577891453488673e-02
      -1.6366357345670696e-01 1.3676983573565660e-02
      6.3760849901461011e-02 7.3815322229063424e-03
      -7.8259941415964179e-02 9.2611015095284466e-02
      -1.1424138111761853e-01 2.1876741524616908e-01
      2.5816839326948166e-01 6.8614733478348747e-02
      2.3952011875092574e-01 -8.1926885342024788e-02
      3.9606408463941190e-01 3.2284922990484977e-01
      -4.0481867612803196e-01 1.8857501044088598e-01
      1.1632744507683714e-01 2.0210209969831544e-01
      1.4305072381314901e-01 9.6630836813984280e-02
      1.2272677555835969e-01 1.1977111140590385e-01
      1.4400184468245139e-01 -8.7784855250822108e-02
      -4.1168035052857471e-01 -2.0208106696418068e-01
      1.8349315004992223e-01 4.8909054103462002e-01
      -2.6807039730726092e-02 -1.8824236553846047e-01
      -1.5628219416559407e-02 -1.0364107905634630e-01
      3.8104225681757468e-02 3.6343882200100049e-02
      -8.1096456127493100e-03 2.5057188563680197e-02
      -1.7133174809724858e-02 5.4438781233102806e-02
      1.3357059499802848e-01 -4.5247605517394242e-02
      7.5938799530361228e-02 -2.9256787910715981e-02
      -1.7476749106055945e-02 -3.8571983468613076e-02
      6.8331657845435392e-02 -2.8802473114269776e-02
      -8.9176594154700209e-02 4.8061210827684976e-02
      2.5838413151653701e-02 -1.0436082770232175e-01
      1.6567724287120331e-01 5.2132374231334275e-03
      2.5427568873180847e-05 -3.8161653320359177e-03
      -9.5347850377959509e-03 -2.1933887217998591e-02
      -1.7089235141776252e-01 -2.1084022693180784e-01
      2.5785220081614765e-02 7.9257050557927630e-02
      -7.1608538721228479e-02 -3.5709952345978554e-02
      4.8760501465743927e-01 4.5797194941648578e-01
      1.2921806684319709e-01 4.4142617740636275e-01
      -1.9054493406958087e-01 1.8662327564999442e-01
      5.0541046316108473e-01 -6.8681906111741423e-02
      -3.0093185792646504e-01 7.5197013277625069e-02
      -6.9270392397647179e-02 -7.7935071401096845e-02
      3.7539681029955663e-01 -1.1324690046431542e-01
      -1.7004992322130463e-01 1.8868194174215414e-01
      -3.8254219758762309e-01 1.5239904967538878e-01
      -2.8424948866138178e-01 5.6356608382253670e-01
      -2.0951802181593059e-02 -3.9478108091868552e-02
      1.1293629821452514e-01 1.0776297175379609e-01
      3.5900128853830493e-01 5.8996893590361595e-02
      1.7465991747354459e-01 1.3895628098406454e-01
      1.8220574507847015e-01 -8.4057271245257720e-02
      -2.5910115085486235e-01 5.1038022961422469e-01</_>
    <_>
      3.6908567385979962e-01 -8.3853266283952677e-01
      -1.0545554909367052e+00 -1.0582091226936345e+00
      -1.0071355947793761e+00 1.4553957282976990e-01
      8.0029217151392051e-01 -5.9645021249712971e-01
      6.4155498024357471e-01 4.7311012510162181e-01
      1.1482531178455671e+00 2.6738353083154404e-01
      8.6961606543882741e-02 5.9546451028015601e-01
      1.5318293535105976e-01 3.8744439180615786e-01
      5.6815737401828814e-01 7.8769658424604727e-01
      -9.2010474659038527e-02 -9.7245207370758036e-02
      6.5518019510975578e-01 -8.5530654862598920e-01
      3.0645638175954393e-01 -7.4406078576318424e-01
      -6.0008214221280975e-01 -7.3032074260517221e-01
      -8.6230523973956807e-01 -4.8359686786636391e-01
      -1.0169600369227576e+00 2.0894911416132345e-01
      -8.9681131458251273e-01 -8.7674149754205510e-01
      8.9010084096357778e-01 3.8969127141114129e-01
      5.6173451553070208e-01 -2.6810661528938534e-01
      4.5929911992615391e-01 -3.8000408959919635e-01
      -1.1056856573554377e-01 2.7510492634019829e-01
      4.0883849111165882e-01 -6.8774354891162981e-01
      1.3076140500785360e-01 -2.9888104971530899e-01
      4.8825306791825340e-01 9.0084863530767512e-01
      -8.8982789006930652e-01 -7.2994538320044400e-01
      -3.2552843438490664e-01 -2.3643433477456482e-01
      -8.3996584913138095e-01 -9.4829448082029477e-02
      3.2073467304996406e-01 -7.4002359637705850e-01
      -1.0435901270179775e-01 1.9335059638086785e-01
      -4.9373723443375456e-01 -5.3067630677837452e-01
      -4.7318216526597384e-01 2.3458135462687082e-01
      5.2533307367111648e-01 -6.1710054941266101e-01
      1.6083462761493730e-01 4.8892197194390397e-01
      8.1701092676743536e-01 -7.3527027430727587e-01
      3.8606867474896292e-02 -3.2496131734986396e-02
      8.8221980960042723e-01 5.1344204803964366e-01
      -4.4973346519227525e-01 -4.3709050220885060e-01
      -4.4875264352909111e-01 2.8866102204163535e-01
      6.0467829802863360e-01 8.4415026995179887e-01
      -4.0727013776850068e-01 -1.3242017621783939e-01
      1.5715905538458589e-02 2.9358973804396321e-01
      -5.3250405538268342e-01 -8.3512762851142031e-01
      -1.1043078382502997e-01 -5.4023142018601111e-01
      6.4715187036723121e-01 4.9912930153581025e-01
      -5.5032024597938656e-01 -8.3353461716744859e-01
      1.3642776690219049e-01 1.5796732353295939e-01
      -5.5486640098474149e-01 5.3828508196758307e-01
      5.6217987159017702e-01 -4.8469511284397726e-01
      -2.8451209980658348e-01 2.7386491426192783e-01
      -2.8045040722842429e-01 -5.0022891683118831e-01
      -6.9170577792242305e-01 2.5643294356485369e-01
      -1.8002720888336377e-01 -2.7140795850329100e-03
      -5.7799511469872504e-05 -5.7493247117893631e-01
      8.4288385193012860e-01 -9.6105495487369941e-01
      -6.1682680162142911e-01 3.2925192229483041e-01
      3.9261402783246802e-01 5.4744781496667408e-02
      -2.1788739767267876e-01 5.1029927298707575e-02
      4.0812143366007081e-01 -5.6722496040527182e-01
      -7.0698822807426787e-01 -1.0589623918031138e-01
      -8.8031341393730334e-01 -1.7415559379010057e-02
      2.5128053764962105e-01 7.3904627218940599e-01
      3.7953807968017150e-01 1.0092633114232290e-01
      -1.1244812833814781e-01 1.4059200772793515e-01
      -4.1477934564569124e-01 -2.2050673460046336e-01
      6.9756674804810903e-02 3.2583375972062095e-01
      5.2063940555770072e-01 1.5919929215937081e-01
      -6.3317429974762240e-01 -8.4200275377539820e-03
      -9.4812196357302825e-01 -7.0498701669235486e-01
      -2.8643098032519770e-01 -6.2453586527049054e-01
      -4.8416650084840235e-01 3.7682400683362819e-03
      1.8978196061870975e-01 2.9220209194965924e-01
      -3.6449544381804988e-01 -7.3942312457549875e-01
      2.9406862126197375e-01 4.1350137782258123e-01
      -1.0028876148700347e+00 -8.2882963163920831e-01
      8.1352222891329562e-01 4.2678872080273789e-01
      -3.1091579631544752e-01 5.5661492123973433e-01
      1.3763755401120420e-01 2.1325766340001312e-01
      6.9976007763227899e-01 8.3458797535003670e-01
      -2.2953653180665026e-01 -6.1740558718199523e-01
      -1.3587602943200461e-01 -2.7915080989720126e-01
      7.9810487657209694e-01 9.3373394832866788e-02
      -1.0151139023495166e+00 -6.4885864197497922e-01
      1.7908544050854761e-01 -5.4336960820353520e-04
      7.1590639700003988e-01 -1.0381425577367203e+00
      -8.3781525216823405e-01 -4.3003497430796589e-01
      -1.0169620134524902e+00 -4.6507392683122023e-01
      -8.5325848972353846e-01 3.2918422904234113e-01
      2.4341482304900966e-01 4.8496770675893514e-01
      -1.0461991603090287e-01 9.2560798423048629e-01
      5.0867574822486172e-01 8.5684811823016771e-01
      -7.1363577332047234e-02 -1.9814259996511246e-01
      5.1965409725576361e-01 7.9035056824576377e-01
      -6.8564505778011442e-01 7.4533825326749348e-01
      8.2827387544214415e-01 4.2473858000021153e-01
      -6.2602423102709659e-01 9.0715147246589589e-01
      2.6949626702518592e-01 8.7618603812121698e-01
      -9.3356211596413718e-01 -3.2563561088260806e-01
      5.8010780244544524e-01 1.2884092562587227e-01
      6.6810547364766359e-01 4.3891622101312189e-01
      1.0423285403367479e+00 9.1762264851316855e-01
      3.3192269540503200e-01 4.7611769625010314e-01
      -5.9498613364353026e-01 -9.5709270955944126e-01
      -6.0759876149331915e-01 8.6314686065024415e-01
      -5.9699672516343893e-01 5.8606577191002485e-01
      7.1159678517452718e-01 1.4609596098941580e-02
      -7.0615996517093982e-01 6.9123120755544820e-01
      -6.7983511962725518e-01 4.2947275716807659e-01
      6.1302721753466349e-01 -2.1861099564796233e-01
      5.4848503749483934e-01 -8.5300936084895473e-01
      -3.1029109607669542e-01 7.9770298509255777e-01
      -6.2063655091116532e-01 -3.7835027496828172e-01
      3.6917523748927866e-01 -3.6160715080749473e-01
      -5.0819451999096166e-01 3.7579819992127855e-01
      3.0539693537512527e-02 2.6160214150163976e-03
      6.6304014504630893e-01 2.1709947179219471e-01
      2.4113650849478005e-01 -6.3352999605876625e-01
      3.8534710396526883e-01 -9.2563768694759341e-01
      -5.4339983964682403e-01 3.7440954289379136e-01
      4.0371696608300686e-02 -2.6060234118172937e-01
      -9.8785057656180253e-01 -9.1110676313977079e-01
      -2.4764186421504622e-01 1.6883129827255888e-01
      9.2089994818380594e-02 -4.1476606440584546e-01
      3.8795397543249693e-01 4.2530966647033080e-01
      -8.8411923056218156e-01 9.6557453701941720e-01
      8.2465075133099663e-01 -8.5872615360691251e-01
      5.0205289416801835e-01 -4.4002031248452023e-01
      6.7100336921139170e-01 5.0987409039016929e-01
      -7.1969185875617334e-02 -4.2576354978666367e-02
      -4.9759017272337563e-01 -2.9801591740569644e-01
      7.8961544091880576e-01 6.7929450246349388e-01
      4.9755938915525916e-01 6.3214282654428977e-01
      5.1672403729232919e-01 1.1679583068800277e+00
      7.8248416052411585e-01 5.9594472234658413e-01
      -8.7064627328776889e-01 4.5667293197076503e-01
      -3.9990917633388140e-01 -1.0061736373458070e-02
      1.1412006714661091e-01 -6.0212693811837814e-01
      -3.5826442761550603e-01 -6.7480801511777344e-01
      2.3093708382018549e-01 4.5179681750898287e-02
      -4.5413399719087144e-01 -1.6104502695987938e-01
      -1.2552484463842542e-01 7.6671489605070164e-01
      -2.5157317931861362e-01 -1.2895900725492113e-01
      3.0264254332129065e-01 5.1544616149447231e-01
      3.0519747345084841e-01 -7.0004444492365137e-01
      1.0090143972858077e+00 -4.6844367929754988e-01
      1.8043738139438853e-01 -2.0224262868367826e-01
      -4.6364420193192546e-01 2.3053263050849007e-01
      3.6462606102960193e-01 9.0115369520204491e-01
      -9.1476591843534227e-01 9.9169244792196998e-01
      1.2006647937269056e-01 8.3629186036518977e-02
      3.2774905031932000e-01 4.1777210569859585e-01
      7.6000280818712976e-02 -4.1706223098716688e-01
      6.3507743441975395e-01 6.0183062659074749e-01
      -6.8239661446177902e-01 2.6367919892274827e-01
      4.7245147380322344e-01 -2.5217210857129435e-01
      3.7396048781376945e-01 -8.3888258678088212e-01
      -4.5620295626831409e-01 1.0649169197324673e-01
      7.8107540571603040e-01 2.8169902280252201e-01
      4.3850218142172170e-01 2.2445252104207166e-02
      -4.0487925090712251e-01 1.6002212360501941e-01
      -3.8090490606625060e-01 -7.0063019126260484e-01
      8.1029813141846174e-01 -3.4884374184568878e-01
      2.8015107971236164e-01 -1.9878800743855687e-01
      -3.4095361838335309e-01 -7.1493698816263751e-01
      -2.6158295463343140e-01 -9.6843035620390183e-01
      -9.3238845038859031e-01 1.8569014172173284e-01
      -4.9058763519603638e-01 -1.1961966283555925e-01
      -6.4237844212790585e-01 -6.2250035563219952e-01
      6.4519938974316671e-01 -4.9545452409331675e-01
      9.8886767455063473e-01 -1.4135741008850825e-01
      -2.5898816303604211e-01 9.0626219672890329e-01
      9.4489663288482006e-01 -4.9104454673486841e-01
      -7.4466110677264707e-01 6.5791690599224706e-01
      1.2437489373468581e-01 -9.0154509128169047e-01
      6.9008593613262470e-01 6.4688742440113878e-01
      -7.8931927880344921e-01 -9.4136970511933327e-01
      -5.2310905684302067e-01 -5.0765181948310545e-01
      -9.6403970323064625e-01 4.8564060646172180e-01
      9.2887802810564468e-01 -8.2203585871975560e-01
      1.8364362115355436e-02 -2.0218949214018622e-01
      2.8217983873753616e-01 -1.5345249294600013e-02
      7.1053536657373861e-01 -8.7279374582102193e-02
      6.4782769697181808e-01 4.9075154221314349e-01
      -9.6058065937703252e-01 4.6116246615573397e-01
      5.2042547178342391e-01 1.0849357795932386e+00
      1.4597444126297385e-01 5.3493068223564297e-02
      -3.5910214951729152e-01 -2.7826687952901596e-01
      6.9627985800713232e-01 4.6669324279596619e-01
      -4.5963106608416987e-01 8.3104834199380773e-01
      -4.9117906670654904e-01 -3.9714569744889805e-01
      -7.4917921478039029e-01 -2.0712393520000794e-01
      -1.0199126091707738e+00 -6.3098454912182445e-01
      9.7790139259332123e-02 7.9665403766015941e-01
      -4.4409794924098905e-01 6.2655870382821288e-01
      -7.4070265593942330e-01 3.5588176951684747e-01
      6.9409189477170508e-02 2.4568967984709184e-01
      -9.7868757733453282e-01 1.0087059454129656e-01
      -3.9669461327975891e-01 4.6796935881223323e-01
      -1.0221550318551749e+00 1.0308401743046367e+00
      -9.4409269269581175e-01 -4.7642640506053258e-01
      6.6363504199573531e-01 7.0194586312758500e-01
      -6.2628221169798340e-02 -3.5400990307530106e-01
      -9.0443977359419309e-02 -8.6320669018365093e-01
      8.6273655053122034e-01 7.1320849345071413e-01
      6.9279231904346172e-01 9.5629796059601080e-01
      -2.5367160531937349e-01 -8.2696391954942061e-01
      2.4901372290845492e-01 -3.1202781335429314e-01
      1.6640676405110372e-01 7.6605915898306642e-01
      7.8289476582770656e-01 -1.2325179876751381e-01
      5.7711302681603016e-01 8.3283033104365178e-01
      -1.1963598855079887e+00 1.0487636901736269e-01
      7.9052766088723248e-01 2.5675749500714057e-01
      7.0294078630635359e-01 5.6822910848924968e-01
      1.5508941060080750e-01 -6.2538219872243994e-01
      6.5857879408378595e-01 -5.5625865355640769e-01
      -1.1222562710196680e-01 -6.3743358742595291e-01
      -5.0580714465474567e-02 6.7005553148180885e-01
      -8.4635069638487292e-01 -4.9925042277188164e-01
      7.6165830678023250e-01 -8.4418619129770209e-02
      4.1381006002595205e-01 -3.3928437239852866e-01
      -2.0618109459560510e-01 2.3047918776987655e-01
      -2.9412381685785410e-01 1.5860468388302609e-01
      -8.5370578733717140e-01 1.8427933772466135e-01
      -6.0081542997844539e-01 9.8516989899570229e-01
      -3.3748719496423457e-01 -5.8347803038379586e-01
      -3.2852922531520679e-01 -2.2621066488591274e-02
      -8.2574958915021468e-01 5.7969119775720312e-01
      -7.3840971646432585e-01 9.3337984959916478e-02
      7.1576665862094782e-02 -4.3069991897664078e-01
      -3.8244295514256282e-01 5.8460774330403620e-01
      3.9721988030296618e-01 1.1379133029248015e-01
      -9.4685588851473368e-01 -1.1337184144006894e-01
      8.9750829238191754e-01 5.4535788961015286e-01
      -8.6635201099242454e-01 9.7109182744269062e-01
      -1.2555015395780053e-01 -9.6413539947543403e-01
      -2.9628581024398704e-01 -7.2121689748237006e-01
      8.4732113477742654e-01 -7.5779658247256121e-01
      1.6857266855121270e-01 1.2087831369843823e-02
      -2.0956372081222913e-01 6.7413728287711958e-02
