<?xml version="1.0"?>
<opencv_storage>
<opencv_ml_ann_mlp>
  <format>3</format>
  <layer_sizes>
    576 32 32 26</layer_sizes>
  <activation_function>SIGMOID_SYM</activation_function>
  <f_param1>6.6666666666666663e-01</f_param1>
  <f_param2>1.7159000000000000e+00</f_param2>
  <min_val>-9.4999999999999996e-01</min_val>
  <max_val>9.4999999999999996e-01</max_val>
  <min_val1>-9.7999999999999998e-01</min_val1>
  <max_val1>9.7999999999999998e-01</max_val1>
  <training_params>
    <train_method>BACKPROP</train_method>
    <dw_scale>1.0000000000000000e-03</dw_scale>
    <moment_scale>0.</moment_scale>
    <term_criteria>
      <iterations>128</iterations></term_criteria></training_params>
  <input_scale>
    1.2416962285694883e+01 -2.3164471718544410e+00
    1.8911815584118003e+01 -2.5651301257186816e+00
    2.0215404614954060e+01 -2.7440576796055733e+00
    1.8735614222124727e+01 -1.9749170575430848e+00
    1.6179941829868550e+01 -3.2119548310246864e+00
    1.7989325032261117e+01 -1.8963967183582728e+00
    1.8175082776343597e+01 -2.4835833776390048e+00
    1.8497586807438555e+01 -2.3728891314703069e+00
    1.2478172443979410e+01 -2.2941293343804117e+00
    1.3412826112086975e+01 -2.6761638579552280e+00
    2.0207713156882118e+01 -2.9995509767398509e+00
    1.9463529258639380e+01 -2.8684254672519924e+00
    1.8316449163477483e+01 -2.0584256027507353e+00
    1.6658172298660467e+01 -3.2578500497070695e+00
    1.8731803616785935e+01 -2.0017508478907926e+00
    1.7902277046708029e+01 -2.5725288541768423e+00
    1.9069310757262357e+01 -2.6175612264051402e+00
    1.3381247440540065e+01 -2.5736508696814488e+00
    1.6509639457974050e+01 -2.9732236479235592e+00
    1.8123312045421866e+01 -2.6044813766763455e+00
    1.9967944690312446e+01 -2.9025989287862988e+00
    1.8993506770457568e+01 -2.1140173902745834e+00
    1.6882595904563118e+01 -3.3691447216838286e+00
    2.0977001060986591e+01 -2.2347875992920812e+00
    1.9225278558315061e+01 -2.7061231490521811e+00
    1.8398981240261154e+01 -2.4851857441415577e+00
    1.8177382837924238e+01 -3.1249153910540337e+00
    1.5955401897630210e+01 -3.0801343564110160e+00
    1.5572607485545673e+01 -2.5044827256211146e+00
    1.5946549819996857e+01 -2.6015917538247550e+00
    1.5289590875391957e+01 -1.9187236302180233e+00
    1.6200236107556155e+01 -3.2386573291612790e+00
    1.6144105082108261e+01 -1.9376831121668607e+00
    1.6937430268522018e+01 -2.6101958285881599e+00
    1.6978567306459006e+01 -2.5322496774892791e+00
    1.6309233076458238e+01 -3.0472812225864225e+00
    1.1565896513654378e+01 -1.8600875561465837e+00
    1.5194087856435393e+01 -1.9257046562621665e+00
    1.7726666953912762e+01 -1.9180209915323516e+00
    2.0813362728918868e+01 -1.6239230608370998e+00
    1.3765798005764335e+01 -1.9171264275798161e+00
    1.8357456131509220e+01 -1.4166279282678700e+00
    1.5672052264798054e+01 -1.5803622025453654e+00
    1.7086552540353207e+01 -1.6796476122221948e+00
    1.1863904134465750e+01 -1.7275508802306270e+00
    1.1843182377679371e+01 -2.2302729062607831e+00
    1.3644233471093047e+01 -1.9905228067132976e+00
    1.5629940342974471e+01 -1.9042016847394945e+00
    1.5598208694371300e+01 -1.4293420126337775e+00
    1.3245302756174789e+01 -1.9446238669183060e+00
    1.7838074955257383e+01 -1.4801330114245930e+00
    1.4962665230603498e+01 -1.6026389892282717e+00
    1.6818457051481488e+01 -1.7793051335023902e+00
    1.2250426966739463e+01 -1.9866934207439058e+00
    1.1559609689451291e+01 -2.6522667448620068e+00
    1.0451808459291854e+01 -2.2718884148325054e+00
    1.2894575031125505e+01 -2.2548177701762273e+00
    1.6279702591489798e+01 -1.7387539364424853e+00
    1.3433998544555807e+01 -2.0489633568926138e+00
    1.6405640822420661e+01 -1.5753931580182605e+00
    1.5087339771991594e+01 -1.7734458921661371e+00
    1.5599017378267439e+01 -1.9527481074841955e+00
    1.2231862668837980e+01 -2.3733106220480233e+00
    1.2149634754063189e+01 -3.0253931497554323e+00
    1.1109214988652035e+01 -2.5722404594616988e+00
    1.1899112073946268e+01 -2.0897279938444706e+00
    1.3474498764714200e+01 -1.6068519561458590e+00
    1.2566333649318283e+01 -1.9439404301648275e+00
    1.4378894859010620e+01 -1.5649618137564183e+00
    1.4029251486454568e+01 -1.7603935338001286e+00
    1.4442062872252224e+01 -2.0312201293491978e+00
    1.1628681049564159e+01 -2.5763494702765763e+00
    9.5450901669621153e+00 -1.5773651666464905e+00
    1.2197080501986516e+01 -1.5759401818945338e+00
    1.3929644600580271e+01 -1.3007166352918655e+00
    1.4319788912415376e+01 -9.9761863556405217e-01
    1.3245893816455732e+01 -1.3266990931520215e+00
    1.9552675650504010e+01 -1.1305967492343898e+00
    1.5628599612915782e+01 -1.0974565104936174e+00
    1.5014000587290351e+01 -1.1424672021254956e+00
    1.0019951169970243e+01 -1.3922834410602785e+00
    1.0506905013181587e+01 -2.2567150706253960e+00
    9.5814794705815363e+00 -1.9797419029584045e+00
    1.0206621284749936e+01 -1.5010758414103800e+00
    1.2614828753190219e+01 -1.2976078806655957e+00
    1.1611612350316665e+01 -1.4782056872856049e+00
    1.4426378027667379e+01 -1.0798788612462180e+00
    1.2891008530514004e+01 -1.1202950642434952e+00
    1.3033864575457377e+01 -1.2286877125234243e+00
    1.0525540203165860e+01 -1.6809403917651511e+00
    9.8721633492396901e+00 -2.4388778415474857e+00
    8.8365618463379327e+00 -1.9835634656604075e+00
    1.0782266201124546e+01 -1.4510149185020782e+00
    1.3773972438462447e+01 -1.0634360160510952e+00
    1.3799300378343068e+01 -1.2444141252455339e+00
    1.5572755476074676e+01 -9.7132046179482601e-01
    1.2633912893781375e+01 -1.0255708364975955e+00
    1.1433046093309374e+01 -1.1646278652945907e+00
    9.4062535603861779e+00 -1.6791042263640046e+00
    9.5061752159390682e+00 -2.4302756950943545e+00
    8.7015198091517600e+00 -2.0854105761526958e+00
    9.8855136399466623e+00 -1.6719328908437674e+00
    1.2975009629263861e+01 -1.2922410943267815e+00
    1.3170669265509488e+01 -1.4560920459386399e+00
    1.3240415443200144e+01 -1.0639279285772203e+00
    1.1683056298628735e+01 -1.1907323219628567e+00
    1.0980778559999663e+01 -1.3200529553914857e+00
    9.7785996162787594e+00 -1.8758818620650068e+00
    9.1739023966072786e+00 -1.9835061430812426e+00
    9.0771233885381335e+00 -2.0225092033918157e+00
    1.0104082499707866e+01 -1.6893755874610532e+00
    1.3827969379433734e+01 -1.3507479973682870e+00
    1.2164274640221207e+01 -1.4030698948109350e+00
    1.0538406010128304e+01 -9.3818862550959192e-01
    8.7716625175425644e+00 -1.1295199185644287e+00
    1.2628197689674481e+01 -1.2376564314128193e+00
    1.1658075491092829e+01 -1.6439833193543565e+00
    9.1914592496044634e+00 -1.7665819348765897e+00
    9.0341591209753904e+00 -1.7591312865226352e+00
    1.0651235486509533e+01 -1.5097574751225555e+00
    1.3934520505060142e+01 -1.2207458885342481e+00
    1.2761727226018758e+01 -1.4184605316046357e+00
    1.3569617545451319e+01 -9.5635375592423755e-01
    1.1252414724666535e+01 -1.1415606266762841e+00
    1.1856856160373953e+01 -1.1033503367147397e+00
    1.1583639965250994e+01 -1.4729003522946216e+00
    9.5255457559918444e+00 -1.6260419422167847e+00
    1.0506550347260967e+01 -1.6631124536036821e+00
    1.2692412304019516e+01 -1.4958581387283885e+00
    1.5642839958448047e+01 -1.3834941444423712e+00
    1.1470863616105069e+01 -1.4399210583183872e+00
    8.2262447509474921e+00 -1.1517112891225398e+00
    7.5464271191006134e+00 -1.3290971582596436e+00
    8.8368138737796897e+00 -1.2385433336186116e+00
    1.1458556889113721e+01 -1.4282652528483510e+00
    9.9325832557643992e+00 -1.4014009417052329e+00
    1.0442268785776642e+01 -1.3722330873776678e+00
    1.0852713749451686e+01 -1.3249696345816064e+00
    1.1799303979551157e+01 -1.0861379970338456e+00
    1.1404868552073856e+01 -1.4454573262360946e+00
    1.0327309883418115e+01 -1.2066956798291764e+00
    9.5749713038117044e+00 -1.5127534685895310e+00
    1.1221089323349682e+01 -1.2207752386954218e+00
    1.1617577677733580e+01 -1.3339112646849698e+00
    1.1168183469292888e+01 -1.6304255410421067e+00
    1.6888626123161099e+01 -1.8646757214624998e+00
    1.9847289968528759e+01 -1.9972409375107421e+00
    2.0176092066710531e+01 -1.5543014786138027e+00
    1.3417088317456370e+01 -1.7326700740690988e+00
    1.9835819895250442e+01 -1.4074178837055831e+00
    1.8815621300120572e+01 -1.5614428904948574e+00
    1.6386245431730352e+01 -1.5445121129561561e+00
    1.2717302297052614e+01 -1.6045772177718738e+00
    1.2276451408990976e+01 -2.3179667778006436e+00
    1.3025921763134278e+01 -2.4570792414293048e+00
    1.0403064644470939e+01 -1.9703490452965724e+00
    1.1109434478404060e+01 -1.6232882697577935e+00
    1.1088179589187195e+01 -1.7837249383026570e+00
    1.4473047758552466e+01 -1.4874004578143318e+00
    1.4962394850385504e+01 -1.6326321040383673e+00
    1.4132769716825546e+01 -1.7231220877907139e+00
    1.2821814787179555e+01 -2.0843691431066813e+00
    1.0917127350882906e+01 -1.7339730638190305e+00
    1.3256963458805636e+01 -1.7847522456503648e+00
    1.3251721257115280e+01 -1.8176566592773125e+00
    1.4356276015638725e+01 -1.6725283566726163e+00
    1.2972461402653861e+01 -2.1465422289746479e+00
    1.7646075718909234e+01 -1.6975896069525345e+00
    1.9510850979316942e+01 -1.9203443085822622e+00
    1.7814376526575444e+01 -1.8677197700486665e+00
    1.1392907782928472e+01 -1.6865857175972556e+00
    1.1974919744855118e+01 -2.5232994751833528e+00
    1.1920859417145458e+01 -2.5985374644932486e+00
    1.0626691185528792e+01 -2.2794312275537041e+00
    9.8711908343529231e+00 -1.9621247078524733e+00
    1.0922884288706706e+01 -2.2299245128972958e+00
    1.1971794780735520e+01 -1.7196407951090575e+00
    1.3888303498034926e+01 -1.7911727796075732e+00
    1.4247777111599039e+01 -1.9510174706623777e+00
    1.1610567212602009e+01 -2.2346300248919548e+00
    1.2777343765312189e+01 -2.5620140450249145e+00
    1.1809025745890816e+01 -2.0914560109851466e+00
    1.1867258070507708e+01 -1.8021379305276524e+00
    1.3901702198976372e+01 -1.4734186822300814e+00
    1.4550529984654604e+01 -1.3156844735446971e+00
    1.4575019671725110e+01 -1.1037667104047337e+00
    1.3378815028655186e+01 -1.2221214348952436e+00
    1.2297959897317517e+01 -1.5071718686016686e+00
    1.1801905038966549e+01 -2.0340636189538137e+00
    1.2164314352679506e+01 -2.2341280012927065e+00
    1.0785314446557598e+01 -1.8996928193808797e+00
    1.1769625577844241e+01 -1.6859533852746686e+00
    1.4299063403391871e+01 -1.4821359806731031e+00
    1.2916118717832891e+01 -1.4175939526088099e+00
    1.1599995677494270e+01 -1.1721022236193914e+00
    1.2386882859893765e+01 -1.2825031157870745e+00
    1.2685471747320355e+01 -1.4998706119312319e+00
    1.2594239630169811e+01 -1.9050866164195273e+00
    1.2770304643683561e+01 -2.7111826302705091e+00
    1.1954576484552318e+01 -2.3032883432023992e+00
    1.1544614520901082e+01 -1.9477345550158001e+00
    1.3432873410921978e+01 -1.7527709095362003e+00
    1.3621904833891307e+01 -1.5636091258683495e+00
    1.3497698665285764e+01 -1.3302367839294604e+00
    1.4038499686999879e+01 -1.5392894906940160e+00
    1.3850420151714253e+01 -1.8792326550609935e+00
    1.2410499613642720e+01 -2.3189250793605698e+00
    1.1862815460951927e+01 -2.3506473070100675e+00
    1.1390922446434889e+01 -2.1508048318510600e+00
    1.2318442568413698e+01 -2.0133998180880117e+00
    1.4463962723621471e+01 -1.8678085332581065e+00
    1.2971965213721305e+01 -1.7412221224410802e+00
    1.2250678425506271e+01 -1.4855352169167035e+00
    1.3436459688462751e+01 -1.7289763210388469e+00
    1.4283412982036900e+01 -1.9660653176650327e+00
    1.1599087048142721e+01 -2.0546022051270110e+00
    1.3215045970278863e+01 -2.1921433820207703e+00
    1.2618226408507276e+01 -2.0283413986521186e+00
    1.4401793273098962e+01 -2.0159496180010792e+00
    1.7194282495677559e+01 -1.7121662426182571e+00
    1.3582012940057190e+01 -1.5201961667450381e+00
    1.2760117918552384e+01 -1.3554807657457877e+00
    1.2522223318804421e+01 -1.5136479752444083e+00
    1.2860350571236973e+01 -1.7133648820116862e+00
    1.3739117422348007e+01 -2.1315523973767987e+00
    1.3697971602476288e+01 -2.2740112774370216e+00
    1.2400817930255446e+01 -1.9754761874493649e+00
    1.3105522932209363e+01 -1.8630932838718277e+00
    1.5233998588698663e+01 -1.6719925391006660e+00
    1.3676350433763291e+01 -1.7042475319731627e+00
    1.2171786859793496e+01 -1.5269856619658031e+00
    1.1420545830906002e+01 -1.7034904820170884e+00
    1.2352795536507722e+01 -1.9028249967966537e+00
    1.3716141554686228e+01 -2.2624946692385803e+00
    1.3416082479476339e+01 -2.4200684471524685e+00
    1.3539044982576058e+01 -2.4060743849353954e+00
    1.4607978184998865e+01 -2.4614952336655809e+00
    1.3982521924725887e+01 -1.9001575710328733e+00
    1.2745928151398591e+01 -1.7784751441182631e+00
    1.3291337230125741e+01 -1.6340288026265044e+00
    1.3489499799657198e+01 -1.7175422233082376e+00
    1.3301084576870151e+01 -1.8472557313286733e+00
    1.3350374833273424e+01 -2.1625825635802207e+00
    1.3558640241774512e+01 -2.4893256261085965e+00
    1.2445385658837237e+01 -2.2746407224943281e+00
    1.2373329043624437e+01 -2.1714532950048926e+00
    1.2298813452869972e+01 -1.8953204375470531e+00
    1.3000719503560155e+01 -1.9719045569268003e+00
    1.3795575079060439e+01 -1.8315179413862053e+00
    1.3303851151694365e+01 -1.8649050452459732e+00
    1.3420790469666093e+01 -2.0039634764027361e+00
    1.4323278593695166e+01 -2.4129283232092993e+00
    1.0813661706384803e+01 -1.4771236518869386e+00
    1.0361949092981737e+01 -1.6926723666674677e+00
    1.1185560302332359e+01 -1.6399181687802649e+00
    1.2991395049308826e+01 -1.3493343001342812e+00
    1.0606608638060543e+01 -1.4422283409260086e+00
    1.0449927523692349e+01 -1.3291564620275782e+00
    1.0602374012421190e+01 -1.3999887873309724e+00
    1.1797341627856548e+01 -1.3624245303388534e+00
    1.2634600551229777e+01 -1.4446267196655143e+00
    1.0412850052672054e+01 -1.5746639995348430e+00
    1.0799952926986320e+01 -1.9024750400559125e+00
    1.1922785642132807e+01 -1.7449189302380774e+00
    1.2903156201638289e+01 -1.2922050667334699e+00
    1.1365600589440765e+01 -1.6023845573759121e+00
    1.0716795104742751e+01 -1.4262882197718214e+00
    1.1648140227217727e+01 -1.4695726666153266e+00
    1.1616616668755544e+01 -1.2810788538064255e+00
    1.1996785767402717e+01 -1.4080639857027035e+00
    1.0337728671199416e+01 -1.7174367327213684e+00
    1.0216677231248605e+01 -1.9865950408424486e+00
    1.0800303852603632e+01 -1.8243679015536194e+00
    1.1982027555042283e+01 -1.3986932311508078e+00
    1.0003697872353619e+01 -1.4858128860115614e+00
    1.0580000319602377e+01 -1.2676939931975646e+00
    1.0781281687881883e+01 -1.4482294918231207e+00
    1.2375378670735683e+01 -1.4855513588513991e+00
    1.2809237430719524e+01 -1.6995508705572908e+00
    1.0161174074244505e+01 -1.7944402495633216e+00
    1.0363677008828406e+01 -1.8874706071388661e+00
    1.1442346072896777e+01 -1.7614104668577304e+00
    1.2816661925372173e+01 -1.3654070011591102e+00
    1.0842730889383541e+01 -1.5926015736107892e+00
    1.2432101462242205e+01 -1.4737230085151545e+00
    1.0379857997762896e+01 -1.4261552594496938e+00
    1.1388233128769256e+01 -1.4860384603164607e+00
    1.1177938769441067e+01 -1.6797023846911907e+00
    1.1888149569317912e+01 -1.4467869083963589e+00
    1.5915671227473373e+01 -1.5116932899558082e+00
    1.9320411483941772e+01 -1.8731235367524832e+00
    2.1357536073047434e+01 -2.1676169853376019e+00
    1.4453164009773378e+01 -2.5939123605562959e+00
    1.7379131183782984e+01 -2.0437983650381910e+00
    1.8132643832607190e+01 -2.1995937119217213e+00
    1.5736244429351551e+01 -1.7471073073317509e+00
    1.2568841399962608e+01 -1.5366638111232933e+00
    1.0835258895844570e+01 -1.8727132145838516e+00
    1.2618547507787918e+01 -1.9832927247476995e+00
    1.3399074421745299e+01 -2.3623542137707516e+00
    1.1779066493730438e+01 -2.2968301389627577e+00
    1.2440510629604777e+01 -2.8321226972933262e+00
    1.0813474269553547e+01 -2.1817368483261306e+00
    1.1603777934960895e+01 -2.2456737537396467e+00
    1.1157454539088043e+01 -1.9481361082763344e+00
    1.0992607842665954e+01 -1.8535417560296090e+00
    1.4326171966933700e+01 -1.5020385828200900e+00
    1.8224202058834514e+01 -1.4947335227205776e+00
    1.8956614893398282e+01 -1.5962905638856442e+00
    1.8723801440868783e+01 -1.5367498746583677e+00
    1.3798491441737083e+01 -2.1977486789118390e+00
    1.7619621115598747e+01 -1.7839864098228635e+00
    1.9761650203345511e+01 -2.1888609399509753e+00
    1.9484511652203015e+01 -1.9334797105089592e+00
    1.5119545947750449e+01 -1.6315193863333182e+00
    1.2647760316729006e+01 -1.9604291632646251e+00
    1.4863357445963885e+01 -1.9591853399304509e+00
    1.3685817845085479e+01 -1.9324598281018617e+00
    1.1875264800886296e+01 -1.8238955199035114e+00
    1.1975083554829329e+01 -2.5822222283234728e+00
    1.1190026273835628e+01 -2.0952760194854902e+00
    1.2036837670536050e+01 -2.3732482050091668e+00
    1.2317064449623766e+01 -2.1280158472632138e+00
    1.3859695383159941e+01 -2.1772982706019364e+00
    1.1585127509865254e+01 -1.9920011708189274e+00
    1.1491551996700293e+01 -1.8918420599838086e+00
    1.2272773723758091e+01 -1.8814613585883275e+00
    1.2005366988579482e+01 -1.6248240249705797e+00
    1.1664724061550439e+01 -1.8085460052359073e+00
    1.5348974263042200e+01 -1.8779360050368163e+00
    1.3717161555435412e+01 -1.8142327553959101e+00
    1.3620792088401759e+01 -1.7340371682778777e+00
    1.1583269473559161e+01 -1.7623676023668691e+00
    1.1457654361215045e+01 -1.8800887654861456e+00
    1.3093585867996856e+01 -2.1852893739417474e+00
    1.2591252319399064e+01 -2.1137069060816036e+00
    1.2997193147039651e+01 -2.0188363871451100e+00
    1.2588927207257022e+01 -2.2222642750658630e+00
    1.3924397243670541e+01 -1.9643319853486900e+00
    1.3292897710022604e+01 -2.0170743004291065e+00
    1.2423705226138097e+01 -1.7830771318252290e+00
    1.1019820136771932e+01 -1.7154673755293837e+00
    1.2188771381981393e+01 -1.7246605703645503e+00
    1.2273131217318369e+01 -1.6520806955000977e+00
    1.1964904850285052e+01 -1.6762000978557570e+00
    1.2214988282027541e+01 -1.4766721044234188e+00
    1.1013229822877562e+01 -1.6093227711857239e+00
    1.3356373742076308e+01 -1.6060179900455580e+00
    1.3364261690906364e+01 -1.6976853811963470e+00
    1.4330719072834182e+01 -1.5802347444556077e+00
    1.2869400426393872e+01 -1.6001855148440383e+00
    1.2752924057709496e+01 -1.8963106798642764e+00
    1.2454848149736618e+01 -1.9308547414211190e+00
    1.1761140868461490e+01 -1.8037212805220462e+00
    1.1348697518229605e+01 -1.6322179383789424e+00
    1.1017695140120329e+01 -1.9296601566120390e+00
    1.3877860721990622e+01 -1.8703969412559125e+00
    1.3263573080666914e+01 -1.8479071952684545e+00
    1.3206903168864649e+01 -1.7022333475640199e+00
    1.3041686826763444e+01 -1.7546385652980288e+00
    1.1291228381640858e+01 -1.3767727830870449e+00
    9.7610075472402578e+00 -1.6878826683522048e+00
    9.4754731169523012e+00 -2.1097476269720916e+00
    1.1254626295150896e+01 -1.9508569007655538e+00
    1.0140338256519087e+01 -1.6553982430984513e+00
    1.4435206471244063e+01 -1.3683748896260133e+00
    1.4522451857202228e+01 -1.2915767926505350e+00
    1.3626160625605031e+01 -1.3060431286368084e+00
    1.2850520292183337e+01 -1.3539656119155388e+00
    1.0863795884257460e+01 -1.2188367632625750e+00
    1.1570642549607449e+01 -1.9008632249881894e+00
    8.4416000823059161e+00 -1.9555714406597979e+00
    1.0577023729747877e+01 -2.0208068255694891e+00
    1.0296994142359809e+01 -1.8159017708900997e+00
    1.3625703285307997e+01 -1.3663495286604976e+00
    1.3382326959118432e+01 -1.1687968096767525e+00
    1.2348006428857754e+01 -1.1259590317722949e+00
    1.1116956435944253e+01 -1.1581291692166340e+00
    1.3074170536728513e+01 -1.3923726787846982e+00
    9.6656243849308900e+00 -1.7045041555384794e+00
    8.1347327867608108e+00 -1.7755996907706091e+00
    1.0814456889758027e+01 -1.7479120455580239e+00
    9.2214168876391014e+00 -1.5237071029889337e+00
    1.4807109574463682e+01 -1.3089568791309307e+00
    1.6579869317913953e+01 -1.2343875333224319e+00
    1.4938095077188212e+01 -1.2246687446925826e+00
    1.3806543674155074e+01 -1.2883384622333107e+00
    1.2694615080771586e+01 -1.2134692240481202e+00
    1.1043755291796305e+01 -1.5156276504624846e+00
    8.1505091887421592e+00 -1.6133542147084516e+00
    1.0246194597712977e+01 -1.6847501060307375e+00
    9.3530313547762294e+00 -1.6527987608634844e+00
    1.3112021450390239e+01 -1.3232977607200780e+00
    1.5269890298368090e+01 -1.1712014421008730e+00
    1.4363835320830731e+01 -1.1039693014886265e+00
    1.2941571787989478e+01 -1.1561333706523358e+00
    1.0904773769371550e+01 -1.5632439915900986e+00
    1.1838002425658726e+01 -1.5246993133311673e+00
    1.2689222253573957e+01 -1.7680834155867635e+00
    1.2041717052381438e+01 -1.7517567958511304e+00
    1.0555164824459990e+01 -2.1753089058483148e+00
    1.2795287607553584e+01 -1.7763377860927982e+00
    1.4918462504578846e+01 -1.7388617290079689e+00
    1.3089449599229416e+01 -1.5339776128599261e+00
    1.1421829894049846e+01 -1.5783998153452532e+00
    1.0627459509352681e+01 -1.5676394961191915e+00
    1.2043402031129192e+01 -1.5465263014417072e+00
    1.2275839192702628e+01 -1.6558620376056286e+00
    1.2520800433417332e+01 -1.7627991880306524e+00
    1.1432392140377740e+01 -2.4393999662863979e+00
    1.3669988000135044e+01 -1.8804563656408273e+00
    1.3200445780331618e+01 -1.5992520169101128e+00
    1.2782975408508863e+01 -1.4716979371942440e+00
    1.1533005480268422e+01 -1.5951051065965829e+00
    1.1685349853876760e+01 -1.6146105077964306e+00
    1.5592933797535883e+01 -1.8214559290390686e+00
    1.2947760704310932e+01 -1.7092321386234046e+00
    1.1706219030073454e+01 -1.7172165242662276e+00
    1.0804907943880899e+01 -2.2383564866665746e+00
    1.2584394234083232e+01 -1.8147923549839113e+00
    1.4049040578724544e+01 -1.6700061461517526e+00
    1.4038672011056679e+01 -1.6019957262968911e+00
    1.1424693416053904e+01 -1.5638351871941474e+00
    1.1333732508087811e+01 -1.5870459048353973e+00
    1.4459438361673850e+01 -1.6348221630955713e+00
    1.0931772956577760e+01 -1.5004142003082319e+00
    1.0230171593381495e+01 -1.5845281678561800e+00
    1.1019161874024034e+01 -2.5085902973037859e+00
    1.4099442386649091e+01 -2.0715433322122330e+00
    1.3712200097778208e+01 -1.6790589973337120e+00
    1.3057967782687930e+01 -1.5621398943175955e+00
    1.0843118056577739e+01 -1.5359200927179864e+00
    2.0061115230558737e+01 -2.8354627877159042e+00
    1.9888730883968734e+01 -2.3681513433466947e+00
    1.9711395082465955e+01 -2.5712996682745612e+00
    1.8508727859751716e+01 -1.9846118922630953e+00
    1.8655718668260100e+01 -3.6936782849090943e+00
    2.1368478680240823e+01 -2.3741390292659585e+00
    2.1630077474689521e+01 -3.0576801361081984e+00
    2.0814291283354635e+01 -2.7323604828752464e+00
    2.0610137964695316e+01 -3.0145760323414570e+00
    1.8996680569420121e+01 -3.3989784824699769e+00
    1.8551090055991160e+01 -2.9139012970950069e+00
    1.7285643248903067e+01 -2.9301313554979864e+00
    1.4721940353523095e+01 -2.2074628774103000e+00
    1.9330074832994878e+01 -4.3040301599851496e+00
    1.3039049823074574e+01 -2.2272985629909727e+00
    1.5043444996286510e+01 -2.9266789092387153e+00
    1.5957372279220706e+01 -2.8802576173496846e+00
    1.8528883631707178e+01 -3.4187573699261780e+00
    1.7116219685495352e+01 -2.5699333973546312e+00
    1.8596186292010451e+01 -2.2914970236538861e+00
    1.8316858666679433e+01 -2.4708831566048457e+00
    1.6950893982253138e+01 -1.8438982473673111e+00
    1.6839287312059788e+01 -3.3157464044499494e+00
    1.9864095373267396e+01 -2.1631504959546430e+00
    2.0212277468706699e+01 -2.8192184555523756e+00
    2.0869550690052648e+01 -2.6494676665445831e+00
    1.8027167372149272e+01 -2.7292555426067655e+00
    1.9670862234475241e+01 -3.4365970223799791e+00
    1.9987713795508075e+01 -2.9246452566854857e+00
    1.9745014219609452e+01 -2.9893495165783297e+00
    1.7107764056879532e+01 -2.1372346905081105e+00
    1.9242459602683127e+01 -4.1418018432084054e+00
    1.6010482223435389e+01 -2.2982417712554755e+00
    1.7287952363675199e+01 -3.0924393635195808e+00
    2.0312172765904005e+01 -3.2842111602541229e+00
    2.0327692632352530e+01 -3.6523693417615317e+00
    1.1284700685518608e+01 -1.9185610061575977e+00
    1.1952775685420397e+01 -1.7656603082357727e+00
    1.2932933165498076e+01 -1.8739779431995118e+00
    1.3742276443921211e+01 -1.6136178683864442e+00
    1.1685776282658191e+01 -2.0790908677561881e+00
    1.4771117595241980e+01 -1.8045769042382642e+00
    1.5198252040376914e+01 -2.2034967399025374e+00
    1.3711046708196653e+01 -2.0706258930805856e+00
    1.1858001696800631e+01 -2.0617063180191328e+00
    1.1854961078137492e+01 -2.2168872407568694e+00
    1.2052693900045767e+01 -1.9948195235410628e+00
    1.5424526271822712e+01 -2.2550954597859021e+00
    1.4201661737426619e+01 -1.7334764072317217e+00
    1.2141064674669952e+01 -2.3043591623102877e+00
    1.3785633092361184e+01 -1.8395725232248525e+00
    1.3654817173605432e+01 -2.0281240048510081e+00
    1.4255517424260709e+01 -2.1265058655570837e+00
    1.3092552356592027e+01 -2.3560086761825376e+00
    1.5308712474691069e+01 -2.2398834155608540e+00
    1.7472059151731646e+01 -2.1071018684841185e+00
    1.5512708623598144e+01 -1.9067471809428798e+00
    1.4418615824365961e+01 -1.5491937838948884e+00
    1.2385752651010986e+01 -2.2158230704660564e+00
    1.4913726952219506e+01 -1.7748211462048316e+00
    1.5479020914024503e+01 -2.1338522320915696e+00
    1.7495239549949368e+01 -2.3124455255284868e+00
    1.5857481135382653e+01 -2.3849796733158879e+00
    1.4922553065756279e+01 -2.4005774536580970e+00
    1.7682007296560585e+01 -2.4066375688254542e+00
    1.5938187947706947e+01 -2.1954095602083075e+00
    1.4261467939529616e+01 -1.7700395186702342e+00
    1.3469146164261470e+01 -2.6403835680536609e+00
    1.3692940262262677e+01 -1.9065813933304681e+00
    1.4427584456301675e+01 -2.1763119529376307e+00
    1.5231257291931060e+01 -2.2255285626686594e+00
    1.4754246617419104e+01 -2.4110606197344455e+00
    1.1850463702657386e+01 -1.8873278656273196e+00
    1.1948845340232884e+01 -1.6179238992035361e+00
    1.1948443228650264e+01 -1.6148575391546836e+00
    1.7216400415897155e+01 -2.0238976520506724e+00
    1.1349964977937560e+01 -2.4867674554153778e+00
    1.4770563915587472e+01 -2.0685557504128562e+00
    1.5414273008011905e+01 -1.9723688952922669e+00
    1.5147649666316093e+01 -1.9173689754320347e+00
    1.2868206145205839e+01 -1.9501296035024152e+00
    1.2500975889462303e+01 -1.9039563636825907e+00
    1.3408386017414886e+01 -1.7766415600989123e+00
    1.2559836370508775e+01 -1.6875702382553717e+00
    1.7071173704930708e+01 -2.1713482697426101e+00
    1.1685837148788808e+01 -2.5766092412914650e+00
    1.5949583896991159e+01 -2.2497393253358395e+00
    1.4273241557501324e+01 -1.8107470353903319e+00
    1.4858425787779010e+01 -1.8329580390321172e+00
    1.2625163244437534e+01 -1.8987827583868069e+00
    1.3833929034768039e+01 -2.1470067395882784e+00
    1.6972696405370929e+01 -2.0774348532942399e+00
    1.6174618205511599e+01 -1.9588502476018899e+00
    1.7433610795308052e+01 -2.0186886815345848e+00
    1.1438510827519849e+01 -2.5162531873217575e+00
    1.3357970449480623e+01 -1.9405498018383738e+00
    1.6876352510771312e+01 -2.2079260767019733e+00
    1.6985258444326995e+01 -2.1848080754605204e+00
    1.4041062647582438e+01 -2.1775096886474712e+00
    1.1787975541143922e+01 -1.9010790101945676e+00
    1.4966989289504177e+01 -1.9026557101953494e+00
    1.5625442080548577e+01 -1.9669520512518506e+00
    1.6978838600897078e+01 -2.1481629867486824e+00
    1.2027941841596752e+01 -2.6892566411649628e+00
    1.3043108789489532e+01 -2.0930645754101502e+00
    1.4698572487631020e+01 -2.0795001341338240e+00
    1.4359993952141487e+01 -1.9920753385712209e+00
    1.1961421429397365e+01 -1.9635144872464152e+00
    1.3190126278057276e+01 -1.5170752314772380e+00
    1.6113644173404637e+01 -1.4954776622463650e+00
    1.5186982864578502e+01 -1.7300483714486008e+00
    1.0215564759057708e+01 -1.4531428733310969e+00
    1.1188802501813997e+01 -2.3443425391540424e+00
    1.3252422025782961e+01 -1.7109308285304425e+00
    1.4299364119581918e+01 -1.6302428489699958e+00
    1.3853516538635596e+01 -1.5590223675560624e+00
    1.2540770134347694e+01 -1.5498309501989489e+00
    1.2459694961993003e+01 -1.4420258997509121e+00
    1.5704120299710706e+01 -1.4246055911095210e+00
    1.0624687361325590e+01 -1.4923979967931402e+00
    9.1122298451328163e+00 -1.6368452928459631e+00
    1.1202705214101973e+01 -2.7425614361253281e+00
    1.2239886160040470e+01 -1.7432439720483788e+00
    1.3475038142461958e+01 -1.5333888796406463e+00
    1.3613825539057375e+01 -1.4848034056006520e+00
    1.2509670744573269e+01 -1.5323839401769066e+00
    1.1593511286510457e+01 -1.5240792547123538e+00
    1.6995911414782515e+01 -1.6559723151495165e+00
    1.5638869849083779e+01 -1.9231422485144347e+00
    9.8413530343693498e+00 -1.5383009975921729e+00
    1.1601034129743258e+01 -2.5948222408961508e+00
    1.3433652708028411e+01 -1.7556107154286964e+00
    1.4580467128387467e+01 -1.7145590504692778e+00
    1.4492264965402327e+01 -1.6803793931569706e+00
    1.1470874559484756e+01 -1.6292096419286601e+00
    1.1153554315512434e+01 -1.3988765600136981e+00
    1.6272206385512003e+01 -1.4574750789139765e+00
    9.4451428844045537e+00 -1.4439651595775511e+00
    8.3871192658759242e+00 -1.6591803055299201e+00
    1.1201960713745054e+01 -2.9319868089982424e+00
    1.4168419725789139e+01 -2.0594695345464715e+00
    1.3455299401431329e+01 -1.5984971358922808e+00
    1.3339192865306412e+01 -1.5273948553273358e+00
    1.1053469086301584e+01 -1.5097262314834607e+00</input_scale>
  <output_scale>
    5.2631578947368418e-01 4.9999999999999994e-01 5.2631578947368418e-01
    4.9999999999999994e-01 5.2631578947368418e-01 4.9999999999999994e-01
    5.2631578947368418e-01 4.9999999999999994e-01 5.2631578947368418e-01
    4.9999999999999994e-01 5.2631578947368418e-01 4.9999999999999994e-01
    5.2631578947368418e-01 4.9999999999999994e-01 5.2631578947368418e-01
    4.9999999999999994e-01 5.2631578947368418e-01 4.9999999999999994e-01
    5.2631578947368418e-01 4.9999999999999994e-01 5.2631578947368418e-01
    4.9999999999999994e-01 5.2631578947368418e-01 4.9999999999999994e-01
    5.2631578947368418e-01 4.9999999999999994e-01 5.2631578947368418e-01
    4.9999999999999994e-01 5.2631578947368418e-01 4.9999999999999994e-01
    5.2631578947368418e-01 4.9999999999999994e-01 5.2631578947368418e-01
    4.9999999999999994e-01 5.2631578947368418e-01 4.9999999999999994e-01
    5.2631578947368418e-01 4.9999999999999994e-01 5.2631578947368418e-01
    4.9999999999999994e-01 5.2631578947368418e-01 4.9999999999999994e-01
    5.2631578947368418e-01 4.9999999999999994e-01 5.2631578947368418e-01
    4.9999999999999994e-01 5.2631578947368418e-01 4.9999999999999994e-01
    5.2631578947368418e-01 4.9999999999999994e-01 5.2631578947368418e-01
    4.9999999999999994e-01</output_scale>
  <inv_output_scale>
    1.8999999999999999e+00 -9.4999999999999996e-01
    1.8999999999999999e+00 -9.4999999999999996e-01
    1.8999999999999999e+00 -9.4999999999999996e-01
    1.8999999999999999e+00 -9.4999999999999996e-01
    1.8999999999999999e+00 -9.4999999999999996e-01
    1.8999999999999999e+00 -9.4999999999999996e-01
    1.8999999999999999e+00 -9.4999999999999996e-01
    1.8999999999999999e+00 -9.4999999999999996e-01
    1.8999999999999999e+00 -9.4999999999999996e-01
    1.8999999999999999e+00 -9.4999999999999996e-01
    1.8999999999999999e+00 -9.4999999999999996e-01
    1.8999999999999999e+00 -9.4999999999999996e-01
    1.8999999999999999e+00 -9.4999999999999996e-01
    1.8999999999999999e+00 -9.4999999999999996e-01
    1.8999999999999999e+00 -9.4999999999999996e-01
    1.8999999999999999e+00 -9.4999999999999996e-01
    1.8999999999999999e+00 -9.4999999999999996e-01
    1.8999999999999999e+00 -9.4999999999999996e-01
    1.8999999999999999e+00 -9.4999999999999996e-01
    1.8999999999999999e+00 -9.4999999999999996e-01
    1.8999999999999999e+00 -9.4999999999999996e-01
    1.8999999999999999e+00 -9.4999999999999996e-01
    1.8999999999999999e+00 -9.4999999999999996e-01
    1.8999999999999999e+00 -9.4999999999999996e-01
    1.8999999999999999e+00 -9.4999999999999996e-01
    1.8999999999999999e+00 -9.4999999999999996e-01</inv_output_scale>
  <weights>
    <_>
      -8.0919102902514639e-02 9.9148105589204425e-03
      5.2418476380561435e-02 1.4173804323405045e-03
      -6.0843627127435247e-02 -4.5452375400481991e-02
      6.3315718671059618e-02 6.8194241253060339e-02
      2.3034048686941977e-02 3.5533766059647042e-03
      -2.7388391359424485e-02 -5.1574935899358847e-02
      -5.7370791123921280e-02 -1.4468542120075737e-02
      5.0717773323432573e-02 -2.5934101310702572e-02
      9.9925511255183216e-02 7.5909788179342477e-02
      -4.6892904864839612e-03 -6.1383138624824828e-02
      -9.5741060038303898e-03 4.8543740858730935e-02
      7.0378982468126253e-02 -2.7178619577630920e-02
      -1.4101142305160510e-02 -1.0145517254420290e-02
      -8.0238284059996855e-03 1.1977790816465821e-02
      3.3761582740325903e-02 8.4262016759205194e-02
      -1.1247696784823791e-02 -1.5332514965173865e-02
      9.3550556955898367e-03 -5.1831624355509569e-04
      -3.1448188834021382e-02 -3.9841350384787470e-02
      -2.6450637100151712e-02 -3.4084818744849518e-02
      4.1518735676800006e-02 -9.0706411553466981e-03
      9.1419303255257101e-02 -2.4331613458335307e-03
      -1.1018661436328167e-02 -4.1983715899804284e-02
      -1.3480168311515621e-02 -4.4046928475738288e-02
      6.7108842506814398e-02 -4.4151555581994843e-02
      1.2499511100006681e-01 -1.7576980438415428e-02
      -2.5141904639875590e-02 2.4418224148573194e-02
      3.0463979790966787e-02 7.7469378225326027e-02
      5.1468868144401670e-03 2.5485088478710848e-02
      -3.5013526133918477e-02 -2.0260381353046117e-03
      4.2401485162142857e-02 4.3481648377367087e-02
      1.4809069562599931e-02 -9.1616926070992259e-03
      -1.3488652645304102e-02 -6.9767216772416421e-03
      1.0442263701748511e-01 1.7427250598781266e-02
      -5.0366604942739299e-02 1.2345049168297963e-01
      -5.6040637500365489e-02 8.1929963277963952e-02
      -3.6705613199361519e-03 -2.4596674745153934e-02
      5.3456459429064941e-02 -2.1501396475367942e-02
      3.1506548428536702e-03 1.0951161208137883e-02
      5.3419131309750262e-02 -1.6566839656921559e-02
      6.9992445463623659e-03 -1.1402712611232764e-01
      -2.7820571100311609e-02 3.5692834847999885e-02
      2.0231305085853166e-02 -2.9811040267051045e-02
      7.7205814998178440e-02 2.9593961664095021e-02
      2.0203465097059635e-02 -7.0544258483771133e-02
      1.3450225593218301e-02 -1.5631294970446491e-02
      3.2927842272866610e-02 -8.6506398792336753e-03
      -3.5610920147870331e-02 2.3309624178891007e-02
      1.8595557178308468e-04 -1.1844867197091975e-02
      3.5421085815308395e-02 -3.6818541204470562e-02
      -6.1110045320115956e-02 1.1332462483403330e-01
      -5.7480773249689789e-02 7.7434421851170665e-02
      -7.8387300714797842e-03 9.0498959792980321e-03
      -1.4409623857847548e-02 -4.7938396577485852e-02
      1.7943003296089988e-02 -7.3135950313245449e-02
      -2.0790960251949899e-02 -3.3968143694338739e-03
      -4.2619512335724294e-02 -8.7704336386526707e-02
      -4.5015008715728985e-02 2.0341381471533068e-02
      -3.4892706327867673e-02 4.3966034339778602e-02
      3.6099873612343680e-02 7.0890841496696541e-02
      -3.5833810233363524e-02 -3.5614956971478993e-03
      -4.5525329955128188e-02 -1.4323270008277570e-02
      4.3333487296078922e-02 5.8240589727746638e-03
      -2.3645760706529306e-02 -6.5179329175674445e-03
      5.1360650888448843e-02 3.3948803197886867e-03
      6.9231696545686089e-02 2.2454471099619022e-02
      -6.1674390315911216e-02 9.5835188028715913e-03
      -7.9066798456173690e-02 -2.6649974967902900e-02
      -5.8599041694036985e-02 -5.6972859576846615e-03
      -3.0990109305108898e-02 -4.2465296527356734e-02
      4.7017880468204917e-02 -5.5599520714069608e-02
      9.0993506951234149e-02 -4.7883733298656084e-02
      -1.9325937812007955e-02 3.1271270489860756e-03
      -3.2807695225677218e-02 2.3482676556002453e-03
      3.9524573984701931e-02 9.5572025402697158e-02
      1.1210246281240170e-01 7.7146457781019029e-02
      -1.1581904877251527e-02 2.1592260610874738e-02
      -3.6971049107717445e-02 4.7651987808362634e-02
      -1.6937267207607548e-02 -1.1633582701808165e-02
      -9.3870536178030373e-03 2.5823051593331550e-02
      -5.5033956207556523e-02 -9.5020357214544299e-02
      -6.3003453373325538e-02 -2.1905057709471532e-02
      -9.9896658348124348e-02 2.7710814645306756e-02
      -1.2838058540405634e-01 5.5103743732886803e-02
      -5.7470313536301380e-02 -2.5352190318080451e-02
      -3.5664376663515095e-02 -4.6600717808348673e-02
      8.9258984951488068e-02 2.2044828220848849e-02
      6.5821539965128014e-03 -2.1082207451576837e-02
      -9.7426397240100410e-02 -6.9873833757277778e-02
      5.5410938149219921e-02 1.6411792470165474e-02
      -3.3646163224005508e-02 3.8091835322123860e-02
      4.6918224299391083e-02 -1.0642897398775091e-02
      4.9996831080689218e-02 1.8318522994966023e-02
      -4.2594957507309371e-02 -8.2904231051241454e-03
      1.1304780747089629e-01 -3.5079905911723545e-02
      -3.7631756748073140e-02 -6.7422826558825269e-02
      5.3399075387205792e-02 -1.9130962399144209e-02
      6.6407034710609894e-02 -2.1409270311452955e-03
      -1.4723070941245326e-02 5.6803197645248410e-02
      -2.5238903362672132e-02 3.5362496473361621e-03
      -5.9041339311903529e-02 5.0325304414978545e-04
      1.8262022614210737e-02 1.7558663472497991e-02
      7.8816944447439828e-03 2.3409547313544825e-02
      -5.1460905111298499e-02 2.9035388750490047e-02
      1.8891893814083190e-02 2.5532205664677812e-02
      -7.2817258238015242e-02 -9.1985514484884887e-03
      3.5502553951989209e-02 -6.9190015251919638e-03
      -1.6846065856517337e-02 -2.2793831021239826e-02
      -7.2845056923765261e-03 -1.0263835289322164e-02
      -1.9647447468622210e-03 3.5092600879613717e-02
      4.0434512069975059e-02 -2.3739324858888525e-02
      -1.7451359252948669e-02 4.6749257822877900e-03
      1.7779396281011040e-02 4.6258380698731552e-03
      -1.5053064915199430e-02 7.2099959193847431e-03
      2.4652596681500532e-02 3.9915390804913041e-02
      -7.5303057677183500e-03 2.4881475069649894e-02
      -1.0482635093433727e-02 -1.5283842011255473e-02
      -4.3522560318612992e-02 -3.6641329137972584e-03
      -2.8805745691595927e-02 1.9306114888296394e-03
      1.4881417256289924e-02 -4.4445107823368460e-03
      5.2061628865783032e-03 -6.5864616459153863e-03
      1.0700832811118097e-01 6.2888153027255228e-02
      -5.6843258695156744e-03 -2.6014704939886888e-03
      1.4740361045932404e-02 -1.1402161498166459e-02
      6.8322364010081044e-02 -8.7119349241655234e-04
      1.3766324495147361e-02 -3.7347507010608676e-02
      3.8616689623375493e-02 -2.4752784989900339e-02
      7.3989738545157766e-04 9.0040033540129370e-03
      7.2484691240953594e-03 -6.1234517008061547e-02
      -3.2467629937395354e-02 3.1934379207467570e-02
      -5.4248717236925106e-02 -4.4817181295128565e-02
      -4.9700311241482650e-02 -3.0111200537930694e-02
      8.8360294564194669e-03 5.1035645670568126e-02
      1.5677694090971240e-02 -1.8479051032945039e-02
      -5.4931818227307493e-02 9.8077791729449908e-03
      -9.6779310934255180e-02 -3.3708315703005309e-02
      -1.8758307228496456e-02 -2.4050036299211278e-02
      2.3225539866971487e-03 9.1427239807682290e-02
      9.4573088117077611e-02 2.6364307281842279e-02
      -6.8497082354422225e-03 -2.0927586643571239e-02
      1.7300550849257213e-03 2.3765177688002705e-02
      -1.8128819086581333e-02 1.7015834000770415e-02
      -3.9103470692258653e-03 -4.0569259319976035e-02
      4.7758685535942189e-02 -2.2132814357870453e-02
      -6.3524075700689075e-02 -3.7782488164239247e-03
      -8.9379592400615979e-02 -2.0197151741525199e-02
      6.3383531733308948e-02 -7.9333240890854237e-02
      5.1348571607052626e-02 5.8930846394443744e-02
      9.6880863364733033e-02 -7.8647534882970802e-03
      1.0325403951101321e-02 5.2413469068896601e-02
      -2.7877449756096136e-02 8.1373282055381777e-03
      -6.5025228425938136e-02 2.5876673974446290e-02
      -2.4943957719747060e-02 -3.6624132917863934e-02
      3.7045994496029071e-02 -9.7729879535821997e-03
      5.7309225394859095e-02 -1.7409946772624762e-02
      -1.4703324667604645e-02 -3.1794977397417552e-02
      1.1253692693249995e-01 -3.2499431748355741e-02
      6.2694949697161585e-03 -3.9668030858426566e-02
      3.4510937668508018e-02 2.0041840799294008e-02
      4.7592291464373306e-02 2.1744823893394653e-02
      3.5928663302152344e-02 6.7216372774545535e-02
      1.1367818468495491e-02 -2.9675693049689575e-02
      5.1354333709218977e-02 -5.3894153834364654e-02
      5.0963949871495523e-02 3.2941256131365601e-02
      3.4873217488033188e-02 6.3365282650312132e-02
      6.3462161389286703e-02 4.9991567551936442e-02
      5.3578413420652032e-02 7.0734554272574149e-02
      -1.8445200084692054e-01 7.5356635000553103e-03
      3.6427604296950140e-02 -8.1070341702051532e-02
      -3.2042367758502215e-02 -8.5904503439286711e-02
      1.8204775061824788e-02 -1.7604384604111400e-02
      -1.2570195894447682e-03 -7.5960854629614251e-03
      3.6571832604055547e-02 -5.1768500709049613e-02
      2.2176849058285025e-02 -1.2071028636310693e-02
      -1.7266539484184197e-02 8.5909612292782198e-02
      -1.0928949693875631e-02 1.2385066956692658e-02
      7.9727134138825161e-03 2.1654730649698337e-02
      -2.8767522996545971e-02 8.6305769789427028e-02
      1.3504965526430150e-02 8.4553912011334498e-03
      9.3680427393075141e-04 -1.1393578237570666e-02
      -2.6422305349982061e-02 4.5722194813472714e-02
      1.5677835896643590e-02 -3.3073462963793945e-02
      -7.3302830976127525e-02 -3.8063511011698976e-02
      -1.0012766122245599e-01 -1.3598120202891469e-02
      3.5627052010499642e-02 -1.1128248249848645e-01
      4.2998357931071894e-02 5.1444242183729845e-03
      3.4678997932767984e-02 3.0104144599623621e-02
      2.4541666454979214e-02 -7.5103377404186350e-03
      2.9346684966860808e-02 -2.4378523279550163e-02
      -1.6030074307062232e-02 -2.1627313304193461e-02
      -7.8580992936000457e-03 -7.7854399592460488e-03
      -5.4218140285243827e-02 2.1902467238974110e-02
      -4.8407688201643921e-02 6.2692408105108136e-02
      -1.3377712460527666e-01 9.2377483107299208e-02
      -1.6827680492023878e-02 -1.1500986190201611e-01
      -8.8445703727792844e-03 5.7128425857872978e-02
      4.0805126408088664e-02 1.6511547070124383e-02
      -5.4433938324934580e-02 -2.6593140314163405e-02
      -7.0931143861070452e-05 -2.2032905372866247e-02
      -8.0691395806036598e-02 -2.4891747323623526e-02
      -9.6483728268762253e-02 -1.8347597104312736e-02
      1.5193312160394812e-01 2.2025536051957548e-02
      -2.9261671737417470e-03 3.1950762728603234e-02
      2.5398026552528777e-02 -2.7764122760110074e-02
      2.4374250804884003e-02 -3.0101344899346977e-03
      -1.1902049479103005e-02 -4.1627083766908650e-02
      4.3230458876104601e-03 -7.1676014898172838e-02
      -5.7785545941626180e-02 -3.9370702558211193e-02
      -3.3972287703913369e-02 -5.7666348540891706e-02
      2.9538209326178599e-03 -6.5388399937630584e-02
      -2.9717625599977551e-02 9.6269053579795660e-03
      -5.2409095116277005e-02 6.0349704306050744e-02
      9.2513620353507058e-03 2.3533372023045365e-02
      4.9910980651118354e-03 5.4917485373113001e-02
      -6.2980671573986347e-02 9.1005849569782346e-03
      -6.2724638962699433e-02 7.4720019706065094e-02
      2.3614208481824824e-02 -9.7106029552106371e-02
      -1.1748772194477111e-01 1.4213410339707820e-02
      7.7279120324448794e-02 3.1773008644678170e-02
      2.9031377052563853e-02 2.6279378951609932e-02
      1.0473824828913030e-02 9.8925832060140807e-03
      -2.7220682482798075e-02 4.2966956602965047e-02
      -1.5604589431575534e-03 -9.4531025430829127e-02
      -4.1411101942433977e-02 2.5000183563252270e-02
      3.6086205658150028e-03 3.6262964119187412e-02
      -6.2235470855443930e-03 -4.3974923493936578e-02
      -6.5952910953606669e-02 -3.2586808144953947e-02
      -3.2230432824973926e-02 -1.7630614089814443e-02
      -8.8343853333503978e-03 4.1483476965679243e-02
      -4.7820527424292013e-02 6.9135020519148433e-03
      1.0696613710086629e-02 -8.9220668832006092e-03
      -3.0091379359069182e-02 6.1608130672001354e-02
      1.0282447836880350e-02 -3.0088941038324352e-02
      4.9371580738554653e-02 -7.2492437785556425e-03
      -2.5136932886665212e-03 4.3833060091933947e-02
      4.8005902047617115e-02 9.3597052155461810e-02
      -1.2738633113031493e-02 1.8327318490577175e-02
      2.0468231082950636e-03 -2.3074977972086146e-03
      -5.2338796000056108e-02 -3.0508975112230126e-03
      -3.5827258576909722e-02 -1.6210879588204892e-02
      7.1603371573399346e-03 -7.1089072920528171e-02
      -4.6302211354028691e-02 1.1436210394614158e-02
      8.6533274581717515e-02 3.8771224925478895e-02
      6.5076211560033126e-02 -5.6393404839116014e-03
      -5.1874884609676104e-02 -7.5521990088929930e-02
      3.9030545432215125e-02 6.6163657758281313e-02
      -4.8969379422991198e-02 2.9258727132054772e-02
      4.8558831302793065e-03 -2.9199619519064524e-02
      1.1199980821346983e-02 2.2292937553223483e-02
      6.5216799290102935e-04 1.9228342095821482e-02
      5.4551866091909956e-02 -1.2422353993681209e-01
      -4.3198483431197088e-02 4.1492221636096234e-02
      4.1363444675580223e-02 -5.7802825906895046e-03
      4.5501063327429196e-02 -3.7340963566984652e-03
      1.0948648462450366e-02 -2.5776564270470276e-02
      4.6488966774411930e-02 3.8055729730817889e-02
      4.1591172426402251e-03 4.6807285287486990e-02
      6.8380253439369848e-02 -6.7729350428552581e-04
      -2.3056795621419820e-02 4.3417156144486052e-03
      5.2639497017484948e-03 -2.0484916123526677e-02
      -3.0287537602451169e-04 6.1389882894052915e-02
      -2.2849898546141275e-02 -1.5295033133453198e-02
      -2.4231128175055079e-02 3.0795045304681270e-02
      5.3001680536327943e-02 -3.4462010403947016e-02
      3.0217268059013740e-03 -3.4827633725802977e-02
      -9.7826487081712543e-02 3.0997931549501499e-02
      -3.1486542676740073e-02 1.5384092735508330e-02
      3.6600717778553234e-02 6.7569318240898657e-04
      7.6558293983878855e-03 4.1284464263746920e-02
      -3.7903296729444480e-02 2.3057283339810924e-02
      -8.6336340741864373e-02 4.7215178929685769e-02
      1.7800105420900748e-02 -2.0954372759868106e-03
      -2.1369451229545190e-02 -2.3573282528455329e-02
      1.5604028377442002e-02 -1.9692300486577795e-02
      2.1482854665220790e-03 1.8845545961699191e-02
      4.8131210486683951e-04 -3.2984949091713123e-02
      1.9588590369200402e-02 9.7963288140528362e-02
      4.6089578656235072e-02 -1.7428559551526234e-02
      -3.9640780891477503e-02 2.5685243013707306e-02
      -4.6646979782986805e-02 -8.4281156871983953e-02
      1.3371961509227729e-03 -2.9781109398124339e-02
      -9.9940162620288611e-02 6.6235527284484411e-02
      3.3532059936579379e-02 2.5749494221267839e-02
      -1.4624484192842229e-03 -9.4311244163254579e-02
      -2.7036881544547892e-02 -1.8783372984476774e-02
      -1.4959509183545161e-02 -1.5474361232234207e-03
      -2.7738390137613818e-02 5.2616228702502960e-02
      -1.4376470140327342e-02 2.8514505646537829e-02
      -1.4894181289285015e-02 -4.3932071817117694e-03
      4.7528932094699619e-02 -1.1863588376801011e-03
      -4.8413607065677010e-02 1.5825712003616651e-02
      -5.7828765843390618e-02 2.5246085625745426e-02
      -3.3179604971307362e-02 1.0169279042589626e-02
      -1.8086464207912187e-02 -4.0920218549952661e-02
      -7.9718903571954575e-02 2.3289720233993717e-02
      3.2813254822088453e-02 -8.3541558226653354e-03
      2.7909058929782973e-02 -5.0070796238865185e-02
      -1.3421087151953520e-01 4.6703869928859436e-02
      -2.4811037259535665e-02 -7.8597314068048416e-03
      1.0823971372669076e-01 -6.2210869917333012e-03
      -1.2150335047150224e-01 -7.2221141779514872e-02
      -8.8763562599907166e-03 2.7462113390258913e-03
      -3.2053875721860019e-02 -8.5321645394251435e-03
      -3.8080691028287268e-02 -3.3900983953410913e-03
      -5.4208398940686846e-02 -3.7367265979853577e-02
      1.5526049054656781e-02 1.1156960254426099e-02
      3.3725250545407190e-02 4.5466598934562487e-02
      7.2002664403447367e-02 9.0730867786110673e-03
      -4.6792075773138805e-02 3.4017277285800922e-04
      -1.3223545715042895e-01 -2.6122207176165434e-02
      2.1419826863178459e-02 2.2237694794647187e-02
      -1.1150441174498102e-01 -1.9644150379368432e-02
      3.2574769480204338e-02 -6.2602577335204648e-02
      -3.0533412341895546e-02 4.6486769552557788e-02
      3.6718902636374291e-02 -3.5166583864058999e-02
      1.8013383626711024e-02 -2.5720428888264354e-02
      -3.9979940386682115e-02 2.5187457233144740e-02
      -3.0652523728369720e-02 2.4530308339614067e-02
      2.0719505891704567e-02 1.8233395449182514e-02
      1.4635510640325571e-02 -5.6738987367266477e-04
      6.2233856725409778e-02 -1.4147780778530662e-02
      -1.1351619740022169e-02 -1.0740260197668101e-01
      2.1350440623746081e-02 -2.3885731987382062e-03
      -1.7905186784566388e-02 7.7235474543562730e-03
      -5.1073922857076383e-02 1.5344215400662340e-02
      -4.5155364647160204e-02 3.9693927554313592e-02
      2.0995750132421276e-02 1.4330556949658461e-02
      -2.4567516404554878e-03 -4.2230380863675684e-02
      -2.8519234964019327e-02 3.5144830376021750e-02
      1.2892917310614160e-02 4.6292020418590457e-02
      -3.8829926210794667e-02 2.5953560772461682e-02
      -1.5113430864389925e-02 -2.4747418018493002e-02
      3.2136662482706281e-02 1.7849466286465217e-02
      1.8961705197371302e-02 -2.9025551465595201e-02
      -1.5875026018661441e-02 -8.0540574786682894e-04
      4.9953715266917748e-02 -8.2449443391374342e-04
      -2.1542694898970833e-02 -4.4682394990237717e-03
      -7.4169348320702100e-02 -1.9958537945784383e-02
      4.6616995527742157e-02 -2.0776645600289093e-02
      -1.2841623920364361e-02 2.1986130017354402e-03
      -1.8040173128309144e-02 -3.8407344062963049e-03
      -7.0193209297834208e-02 5.0134127986314482e-02
      4.1740148856621057e-02 -2.7426016645874091e-02
      4.4841608318875299e-02 -6.3073461674097733e-02
      -1.0984921629179771e-01 9.1651354954379489e-03
      6.2069458675300400e-02 4.4546343033803663e-02
      4.8855507428367695e-02 1.7433469715988546e-02
      1.6290941994143906e-02 -6.1662536638501721e-02
      9.8665497574213931e-02 7.9123051750023002e-02
      2.9423512451930794e-02 5.0953849297125285e-02
      9.3493844953293798e-02 -2.9552769689467209e-02
      -5.6570982212524691e-02 2.5893349930523300e-03
      6.2399976332290592e-03 1.7485444411306852e-02
      -3.1956690496531624e-02 -8.3980233256890816e-02
      3.9184958820260629e-02 -9.9525415904947276e-02
      -5.9456919255318111e-02 -3.1946879854359525e-02
      -2.6033862133647976e-02 -3.9961050753171190e-02
      2.5719712613576161e-02 1.0597186531751225e-01
      6.8611303839162155e-02 3.9841990705081660e-02
      -2.9204285364893379e-03 3.2648492575991082e-02
      1.0318046447620044e-02 1.1137374718663437e-01
      7.7465625628723014e-02 -1.8614489159172808e-02
      -3.1803240069582531e-02 -4.6518452543383208e-02
      -6.1819192778637413e-02 -2.0569751542288392e-02
      7.9030609674717339e-02 4.8248201209892615e-02
      -3.2922220060001985e-02 3.4855202118044847e-02
      -4.6677434058668185e-02 1.9487035625010949e-02
      1.8435110983052175e-02 3.0700198896442764e-03
      1.9918487476642002e-02 -7.5462944314062808e-02
      4.8563379908743133e-02 -1.1777446788203019e-01
      5.4777340609230514e-02 2.5245851338536834e-04
      -1.9787407687178436e-02 1.8169707747677243e-02
      3.3409846339379169e-03 1.9403498634594821e-03
      1.4134856213367696e-02 -2.0300755223213078e-03
      7.5798317680102464e-02 8.1087790564981393e-04
      2.4389357526051147e-02 2.9880395609652371e-02
      1.3997571889043100e-02 -4.2127302399514933e-02
      -8.2465565591740286e-02 -2.9877963176120067e-02
      6.8628482954086203e-02 -2.6156103884147301e-02
      1.3018653945320952e-02 4.1850560936855775e-02
      -7.0882206096256270e-02 5.1868481796991661e-02
      9.1394860118042699e-03 1.3690104266336696e-02
      -3.9291854282051519e-03 -2.8310953176145369e-02
      4.9195016664055069e-03 -2.6562890111557925e-02
      4.2207851787237412e-02 3.6763912321429316e-02
      2.2118881552197971e-02 -8.0506708085579470e-02
      1.7687943381307161e-02 8.6183664904860458e-02
      -1.8761601612266116e-02 1.1243408114640962e-02
      -2.2928713426912863e-02 -1.2831979969588667e-02
      -5.8010938945135829e-02 -1.2394029236797886e-03
      1.1068939241931957e-02 4.3158868359266647e-02
      -2.1782876625817550e-02 -1.2289208578608952e-02
      2.9744696607097013e-02 -3.7033484873166642e-02
      4.4603342763248753e-02 4.0151695422863141e-02
      1.2816362485004236e-02 -8.9167582194132344e-03
      2.1065868952357951e-02 1.1359228708564457e-03
      4.0905253429998371e-03 -4.8083105691414947e-02
      1.7915113007213601e-02 -4.6778958173983127e-03
      -1.4516408950194832e-02 -2.3511109022890535e-04
      2.4717671972346939e-02 3.2961141093999516e-02
      -5.0662641250530577e-02 2.9908132903569411e-02
      5.0853815299876551e-02 9.2035311896054822e-02
      -8.8502495815035109e-02 4.2635246843525411e-02
      -3.5459914462059358e-02 1.9752153642311806e-02
      -6.4863069966381845e-02 -8.9207300337175634e-03
      -7.1796485623192838e-02 -2.0921572937237374e-02
      -2.1122897868818234e-02 -1.4514709838436297e-02
      -2.8261439018007095e-02 -6.2882752592336014e-02
      -3.6061929885525104e-02 -1.3308016417536309e-01
      -2.3813648680704753e-02 9.4794900351661979e-02
      -6.6085690631253913e-02 3.0670910958253198e-02
      2.9875529745727047e-02 5.2933927307508045e-02
      -7.5986814999387309e-02 5.0359364651493869e-02
      -3.3855824407624760e-02 -2.3420725976433681e-03
      6.9852158336121781e-02 -4.5329636287720416e-02
      -3.3796629837477894e-02 4.3181885695922472e-03
      2.2298788065865660e-02 -1.9980609853733535e-02
      5.3617882763422026e-02 1.0285130329981641e-01
      -6.1923216684991511e-02 1.0235168383475364e-02
      -3.5335939111410940e-02 -4.3217164529793812e-03
      -1.6086519894007598e-01 -3.1189620036805053e-02
      -7.8401787044320090e-02 -3.5790702779952617e-02
      -5.4520732799194595e-02 -5.8206042193852718e-02
      -4.6631264786302584e-02 9.9528018369168664e-02
      2.5084278190778915e-02 -3.3898326790110220e-02
      -5.0552295343847420e-02 1.1657944083973059e-02
      -7.1178164036978894e-02 3.9321874289514655e-02
      4.8257224492408060e-02 3.5770419836252100e-02
      -9.3072725093242492e-02 8.0623033332269570e-02
      -3.7949053369828158e-02 -2.6683005844468764e-04
      1.7612525433025425e-02 -1.1928466414690726e-01
      1.4543246210368777e-02 -1.6060393018123308e-02
      1.3269962448685415e-02 -3.9344145213584349e-02
      1.6433943752879310e-01 -3.6229268418857138e-02
      -5.1823607290089621e-03 -2.3733560993016479e-02
      -1.1453291558942959e-01 2.6749183159742410e-02
      1.1216520383050452e-01 8.1020597287573923e-02
      2.7059482069262471e-03 -2.6028969649870386e-03
      -8.3338603946505260e-03 1.0462408867446385e-02
      -6.8266346659122817e-02 9.1676508001143995e-03
      -8.7155988164998813e-03 1.9477847937839327e-02
      -4.9452942460071918e-02 -3.3417411044486658e-02
      -2.9895269384777875e-02 9.3085940664615494e-02
      4.1908824956720658e-03 -5.1858078876315605e-02
      -2.6299321653142842e-02 7.7542078330059341e-03
      1.7512897046560460e-02 -2.7320262482552326e-02
      5.4804642459649583e-02 -2.5112549481634650e-02
      -8.6772048901484752e-02 -6.9824831012769650e-02
      -3.1827151048278754e-02 1.7758083997236405e-02
      2.8158039020722121e-02 -2.2851970558237615e-02
      5.9218400209925864e-03 -7.9950678947977999e-02
      -3.5321168299487303e-02 3.9663537365551678e-02
      4.9831986089173504e-02 -1.7494930297882974e-02
      2.2044298184827102e-02 4.0215033334021081e-03
      -2.2313415480846383e-02 -5.2000520694664987e-02
      -8.5603721819549686e-02 -1.1401663112516829e-02
      -4.9886294993069055e-02 -1.1775767269559605e-02
      -1.3383391728402416e-01 3.6060243087009593e-02
      3.7005497716479686e-03 -1.0739237360090014e-02
      4.7831923049653433e-02 6.6714188371753899e-02
      1.3401051913429021e-02 1.2510746552901958e-02
      -5.8220920498827829e-02 -1.4124116187949398e-02
      1.4660994567935598e-01 -4.7085411381994097e-02
      -5.4252265525755211e-02 3.8742360915435613e-02
      3.0568000049199514e-02 -2.5085851115480534e-02
      9.1662076269145312e-02 5.6104038498036662e-02
      -1.1650062202439179e-02 2.8392879865036014e-02
      5.2288798964064069e-02 4.2264614222596891e-02
      1.2429282320844996e-01 -2.6600807853818582e-02
      2.8686666396188210e-02 -5.0207544008418958e-03
      5.4404035061818609e-02 -1.4764818991197016e-02
      -1.0774072483265434e-01 1.2244096655793053e-02
      6.1309145020636306e-03 -3.6778223312396677e-02
      -2.3347193308794861e-01 2.6757748367240878e-02
      -1.4022229663669507e-02 3.0020816126479530e-03
      4.9608097453829714e-02 -2.3395638302047540e-02
      -2.3365259077557849e-03 3.9446195883458990e-02
      -2.1234155649666502e-02 -9.5246315327551040e-02
      4.2014642835827981e-02 2.3147432112975711e-02
      -6.7929501877222423e-02 -4.5476258272880753e-03
      3.1632364992641264e-02 4.0145294886549825e-02
      7.0551052181155358e-02 7.9210122822033924e-03
      -1.7321504899987902e-02 3.6866884843637822e-02
      -1.2607633295372881e-02 6.3708892226907093e-02
      -4.3172815118834564e-02 -8.9657672581245924e-03
      8.5147550737655286e-02 4.0249455984585236e-02
      1.4695711457470480e-02 -1.5703214861302977e-02
      8.4105568171015638e-02 2.3901284170986133e-02
      -3.1999292853620048e-02 8.4742841866104965e-02
      -9.6446624466763622e-02 -2.5229790783720539e-03
      -2.6788219210121911e-03 3.1798120598529593e-02
      7.3779757619309664e-03 2.1713269816306707e-02
      3.6739587833718126e-02 -1.1653054249127062e-02
      -6.0198601836182274e-02 5.8691042304927887e-02
      5.1097835324204949e-02 5.9032405082730499e-02
      7.2747493825744778e-03 3.6583881738467376e-02
      3.0086599802468467e-03 -6.4833722549183709e-02
      -7.6624989555270390e-02 3.5886678720933575e-02
      2.8399660328925151e-02 4.5880997210470127e-02
      -4.6731190706027848e-03 -7.3244520151459477e-02
      -4.4030345548762582e-02 -6.6679193769261552e-04
      -2.9309107624634793e-02 -5.3875696565602260e-02
      6.3500967580657347e-03 9.6761767810191069e-03
      2.6360092079163042e-02 1.9618193159477017e-02
      4.0302367600218915e-02 2.9176582330176387e-03
      9.8267906180337060e-03 -1.9930601813345824e-02
      -2.1614587964831258e-02 3.7260431608806692e-04
      -1.7671867916855481e-02 -4.3716344716531914e-02
      -6.0413460746364129e-03 4.4763356287260261e-02
      2.1924922667110838e-02 -3.4605779950429676e-02
      2.7908743282665464e-02 -3.1054396002444959e-02
      3.6644358792045049e-02 -4.1023948354999833e-02
      3.4899285889932248e-02 -1.9190856644540517e-02
      5.4224876825942930e-02 5.4748077631065276e-02
      8.2842080613012958e-02 -4.3636717390995096e-02
      2.7905749179549977e-03 -1.2487136556783915e-02
      1.5792614593383408e-02 -5.3574777083935578e-02
      -1.9705353131796222e-02 -2.7401032014656424e-02
      3.7090058025389040e-02 1.7994389076550561e-02
      4.1566474077873374e-02 2.9542838962053029e-02
      1.7293466486744635e-02 -4.4450354095816038e-03
      -4.6519135126121018e-03 6.5108132847636196e-03
      -3.2643953448576048e-02 1.9676481324443523e-02
      -7.1468854218813799e-02 -1.2558805813589242e-02
      -3.3068436419421858e-02 -4.5606024928989977e-02
      2.7157137301710134e-02 -1.6358250973586192e-02
      -2.0815103800764768e-02 5.2676333237336670e-02
      -2.6408384386920236e-03 2.6063838665338193e-02
      5.9054557505529855e-02 -5.5309359280385870e-02
      8.3074355732465164e-03 -5.4502296697476429e-02
      -1.3126939356835393e-02 -2.8012978777259129e-02
      -1.0778318884053877e-01 -1.0331806273400647e-01
      9.5414976369601182e-02 5.0032910343703850e-03
      -1.3595900403962745e-02 1.2452151328168477e-02
      2.5710095124171717e-02 8.4160451663258980e-03
      -6.4789942915916172e-03 -2.9312063833537082e-02
      3.0231501536485718e-02 -2.2925584107521258e-02
      5.6742455761895828e-02 9.0567828588084872e-03
      1.8278278191472385e-02 3.8577995766683228e-02
      -3.1619393797909810e-02 -5.6079669689639039e-02
      2.6445264705930015e-02 -6.9363724322761389e-02
      -2.8861798373702573e-03 -3.4212262730890643e-03
      -3.9236469932034036e-02 8.9916789704366385e-03
      6.9986918351803221e-02 -2.7351024528307941e-02
      2.6796976164935135e-02 4.2857486542489656e-03
      6.3245421204498166e-03 8.1349677852969918e-04
      -4.6368034182904345e-03 -7.3941017651079410e-02
      -1.2912550326228855e-01 5.9520638107288422e-02
      -3.3205072689457956e-03 -3.8359034371057508e-03
      1.5417078658347759e-03 -3.9417641923823327e-03
      4.6651851918297606e-02 -5.1931623991436714e-02
      -4.1857998787433098e-02 -1.3163653410019059e-02
      -3.8323984729442496e-03 1.9843186714528751e-02
      4.8484999932159122e-02 6.7454931590244599e-02
      -1.5491237710472545e-02 9.4441771253313517e-02
      2.2433934001220023e-02 4.2871349547431548e-02
      7.3583897971728263e-02 2.6045001726311382e-03
      -6.4013794192045628e-02 1.8240108533829662e-02
      1.0543090071382039e-01 -4.8985353534310314e-02
      2.8263699287269635e-02 4.6438556031396162e-02
      3.2010694862006021e-02 -1.9820453011157837e-02
      1.5819530115513555e-01 1.1259046378636438e-02
      -1.3182681898199669e-03 3.1292099959099193e-02
      -1.1003898349496608e-01 2.7048369077079235e-03
      -1.6247274069572253e-02 -3.6248430858169714e-02
      -3.0576700193637514e-02 -2.6320870538129024e-02
      5.0135319352509686e-03 -2.3882976751103940e-02
      -5.5110638663496594e-02 -4.8969559301099051e-02
      -1.9974872887873942e-02 7.1253092100753659e-02
      -9.7413919274495983e-03 2.3200263685813391e-02
      -1.4495305641009421e-02 1.1975863685892964e-02
      6.3312129893613844e-02 9.8636904308912157e-02
      -1.0751871115830872e-02 1.5761224086096325e-02
      -8.3834589351892211e-02 3.7494919843205354e-02
      1.1621672969140405e-01 -2.4966570518875290e-02
      3.1498737511163541e-03 3.8497440865717047e-02
      5.2092930485124062e-02 -5.4690543503965058e-02
      3.8319303143388127e-02 -3.5483316910043791e-02
      -1.3753334717019153e-02 -1.8419835504683766e-02
      -3.3798909301323198e-02 7.4306572200554893e-02
      9.7870464705999388e-02 -1.4662545820930012e-04
      3.1319000560400077e-03 5.0990813941819930e-02
      -9.9543151273558152e-03 6.6992945059749266e-03
      7.9282794110868582e-02 1.4812220307590170e-03
      -5.5909313396574269e-02 2.5316234454672570e-02
      -2.8339911182354835e-02 -7.7481690631947292e-02
      3.1932658744959701e-02 -4.0847571110462343e-03
      -7.1635662252301571e-02 -8.2095070423206015e-03
      -1.2844554500807936e-01 1.0213848439705093e-02
      -2.0177148249292884e-03 -2.7814392294567104e-02
      3.7149161058339195e-02 -2.0424338198925047e-02
      -4.7560209968554271e-02 -1.8944092393102137e-03
      2.1729400345657707e-02 2.2717229402711557e-02
      6.9915002892882147e-02 6.3920772054303493e-02
      -6.2725568475903534e-02 2.3856684942668333e-03
      3.8206663844304260e-02 -3.5814510157691257e-02
      6.4314724411705826e-02 -9.1004577749452947e-03
      -5.6838456273523418e-03 -5.2050665541174920e-02
      -4.9404757524861825e-03 -8.1070347032099421e-02
      9.1614950124114011e-02 8.9059550085828970e-02
      -9.0561846124975563e-03 1.1571989477505223e-01
      -1.6350300810115320e-01 -1.7199980181310959e-02
      -1.0587255284368458e-01 -1.3424339252026454e-02
      -2.0941259456849222e-02 3.2572580775257751e-02
      -7.8490822297909019e-02 1.4193002509381696e-02
      -5.4506592551996656e-02 5.3572994927596007e-03
      -3.0912331127156360e-02 1.7827673095002810e-02
      -7.0557376079816186e-02 9.2231734703138984e-03
      -2.3342152511181366e-02 5.0796743279406869e-03
      3.7465125852702091e-02 2.8564092679164911e-02
      -4.8478153328120208e-02 -4.2670261347567802e-02
      1.5395745052872249e-02 -4.0992781853691838e-02
      2.5746572129603719e-02 1.4523648896045108e-02
      -5.7482001629745967e-03 -1.6811215475944018e-02
      3.0075131879721919e-03 -2.8884992135141854e-02
      -1.7560339268073252e-02 9.6458049730051926e-02
      3.2846460297648601e-02 1.6251772343174778e-01
      -6.3318589577347692e-02 2.9704690476100158e-02
      -1.0955458318475611e-01 1.3015877602874062e-02
      -1.2181852919429638e-02 1.4164406460976921e-02
      -3.4941594360609271e-02 7.1043576068535036e-03
      -3.7900911038432276e-03 -3.0094728517484001e-02
      2.2326603546600814e-02 -1.6338843136888197e-02
      -2.9832604139039192e-02 4.0747651209941074e-02
      2.3181556293361077e-02 1.6769408974015628e-02
      2.4892130676224228e-02 7.2835580223896634e-02
      1.6888744455188263e-02 -4.9735650212367602e-02
      2.5751211556202913e-02 1.6578709195786145e-02
      1.7492124291993846e-03 3.8071029857868838e-02
      -5.0690515237695646e-02 1.3103729168103402e-02
      -8.1102041892196566e-02 -9.8106755155773148e-03
      -3.3779808686458426e-02 -3.0895901597822552e-02
      -3.3449259046552111e-02 -3.9149078036471309e-02
      4.6192515721886346e-03 8.2039935965576252e-02
      2.7770557745605346e-02 -9.7432730649666104e-03
      -1.8760922478030368e-02 -3.5689487044227371e-02
      2.9708841779436050e-02 3.7244534976333107e-02
      3.0556504842269971e-02 -1.7309056410785697e-02
      4.0450848052619996e-02 -3.0156210020439601e-02
      -1.5563964349504977e-02 -1.3255139765454399e-02
      -8.2812553132555297e-02 9.8378856791999387e-03
      8.2806546910618589e-02 -4.8079932664493834e-03
      -3.2417265271968136e-02 5.9953269929064280e-02
      1.2361322046780662e-02 -4.0432247900809369e-02
      -8.4296710683880699e-02 1.1135531476362934e-02
      -7.8578000995856601e-02 -3.3352861518417175e-02
      3.8082201069862191e-03 -8.3501581097140773e-02
      -2.7439754084579573e-02 -3.6976483020355076e-02
      -9.8326833769929761e-02 -7.7084685686264101e-02
      -1.7824851573422584e-01 1.3063734389020023e-02
      4.5440583542820670e-02 1.2598219451311312e-02
      -1.0459138030663633e-02 4.4926333620370837e-02
      -7.5108413738141741e-02 7.3075577120876173e-02
      -1.0672485243138510e-02 2.4629599472468393e-02
      7.6023500019761714e-02 -6.4024426070541166e-02
      -1.5083852058902416e-02 3.7981413093234363e-02
      -8.1654480949094943e-02 -4.9355448231490906e-02
      -2.2908297603228243e-02 -1.0545359795064898e-02
      4.4906015409114708e-02 -4.2661837315489143e-02
      -1.4110347505460927e-02 8.3475883334452036e-02
      -9.0528297648234196e-02 -1.1076439003938390e-02
      -1.3666241326121292e-01 4.3266992101384176e-02
      6.6453377565880142e-02 -7.9356789429542024e-03
      -7.1719751276168822e-02 3.8487808848812290e-02
      -4.3691932110286907e-02 -9.1715763017883936e-02
      4.5236280296693493e-02 3.6092797746510426e-02
      2.9758228813453934e-02 -4.5666827825786793e-02
      2.3087281477772365e-02 3.2018746052267719e-02
      -3.1051589849949480e-02 4.5618348217869580e-02
      2.8873160776943210e-03 3.8322372309928923e-02
      2.3453119604507480e-02 -5.4672156617954056e-02
      2.2881321700452414e-02 -5.1178316812036185e-03
      3.1285933310746063e-02 1.0505122632913099e-02
      3.8153273649241856e-02 -4.7174166502077702e-02
      -9.0181302498480803e-02 9.1692477384703458e-02
      -5.0098469682099959e-02 6.6265371956149635e-02
      -2.9390646711578098e-02 2.4615623430543590e-02
      -6.7968745484686038e-02 1.8048877933534872e-02
      -1.1794230538968524e-02 4.6608278062991740e-02
      2.4375429753514245e-02 4.4368063283612924e-02
      1.2616785444175767e-02 7.0931370385663578e-02
      7.8881616503422639e-02 -9.9680000563332079e-04
      -5.1560134927875728e-02 6.0017261347007148e-02
      -3.4660842636712874e-02 8.0575072346822957e-02
      -7.1084321328761302e-02 -2.4442221256235495e-02
      1.7725698282516581e-02 -4.0375199101019235e-02
      3.8024385295834282e-02 -4.2289935688343376e-03
      1.0381690139274742e-02 3.7339914367422469e-02
      -5.2260254347914446e-02 -1.5507640787335475e-03
      -1.7905216277127947e-02 2.1349028652992159e-02
      -4.1498459667038252e-02 -5.5360751632791833e-02
      1.1724216473044891e-02 -2.7037856705811221e-02
      6.9962728768175816e-03 -1.3339201479296420e-03
      -8.3914483752951352e-02 -3.3539761626343687e-02
      1.3905872162789218e-02 4.2349080547886365e-02
      3.0065215835954902e-02 -4.6991007014955663e-02
      -3.2662233727910057e-02 1.6221212730885045e-03
      2.4253629058358254e-02 -2.1586423824344517e-02
      -1.6343791233945606e-02 8.5861291356482281e-02
      6.6417331152242879e-03 -2.2648406707139700e-02
      -1.1958529793033212e-01 -6.3318902055523901e-02
      -4.1146056205597685e-02 5.1596553306319619e-02
      -6.5982468343553152e-03 -6.6455253158054478e-02
      4.4174723588685837e-03 -1.7432431579810146e-02
      -2.4019206921799322e-02 2.1138030087255340e-02
      -6.7390704717263564e-02 -4.1985714870519483e-02
      -2.0519746315633452e-02 -5.6905958029639988e-03
      4.6253570828018852e-03 -5.9517080312819536e-03
      -2.4665379250742119e-02 -2.5082079615001453e-02
      -7.1411323574251048e-02 1.2718771548277746e-02
      1.7666331489059349e-02 2.9819648426637146e-02
      3.6409560541770969e-02 -2.5611158099139140e-02
      4.9238415598224956e-02 5.9299948026934730e-02
      4.9327337388882064e-02 -5.3964872897547068e-02
      -1.5488569278262729e-02 -1.0692710833423378e-02
      -1.9536054879005883e-02 -3.8623597127677170e-02
      -1.5750053131687605e-02 -7.4411994569885800e-02
      4.4853738446028246e-02 -1.0035862911130201e-01
      6.2665417185992625e-02 1.5593555689505097e-02
      6.8082003729214011e-02 -1.7694060615382708e-02
      7.6321553479780421e-03 -9.4333047524830255e-03
      7.7896143902142445e-02 4.7654531465229959e-02
      -3.6005371351367818e-02 -6.8605420150411489e-02
      -9.0727827937047319e-03 -5.8498954112747512e-02
      -3.8239444171775251e-02 -3.3649277289509852e-02
      -6.3982130892977246e-02 -5.5533592554103312e-02
      -1.8622519847384597e-02 -3.9195162902926829e-02
      -3.6934450602227331e-02 2.8956654697516952e-02
      4.0983502241612027e-02 1.0007719454423170e-01
      -2.0298694125995460e-02 6.8209335357388851e-02
      -4.2198345683601438e-02 1.6328692635515465e-02
      -3.4113462884357383e-02 -1.4335985055601442e-03
      -1.3278938618467476e-01 2.1586138297984208e-02
      -3.5176411309928234e-02 -1.0294565190371703e-02
      -2.3322343286234426e-03 -3.7765604523746520e-02
      1.9253153349408542e-02 -2.4173737889631997e-02
      5.2816852825935963e-02 -2.6738182448835572e-02
      8.3885501928246800e-02 7.8781513142941462e-02
      -1.2700121447021186e-02 6.1192383529373583e-02
      -5.6865488951759718e-02 2.1972931037953117e-02
      2.2770401352302454e-02 -4.2195366789804338e-02
      -1.6380311936786161e-02 -6.0856105832611938e-02
      -6.8877005968750515e-02 -3.5308556178240719e-02
      -2.8806343833366863e-02 7.3798973941735244e-03
      -2.9052496137243203e-02 1.9280916965493985e-01
      -3.3873000992614873e-02 -1.9106726857355510e-02
      -1.0243145996128342e-01 7.7181278873273099e-02
      1.8297713778907012e-02 9.8137008101165726e-03
      -1.3518107193529516e-01 5.4281988077270318e-02
      -2.0654702602206042e-02 2.4801189121282884e-02
      1.2139538775899232e-02 -3.9017939591390507e-02
      -6.4503449168260799e-02 -6.3970739369303645e-03
      -7.3847918756915071e-02 1.0221138232224401e-02
      -6.2867668918826336e-02 -1.0856195263147886e-02
      -3.7608925005596168e-03 6.2680811621020668e-02
      -1.3084524694004923e-01 5.9546345233815919e-03
      2.1700771060570011e-03 -9.9357838886393046e-02
      5.0682011310422943e-02 -4.0875533294233796e-02
      2.7397948897484904e-02 -7.7954818074412631e-03
      3.5255926603827856e-02 2.5873587963088928e-02
      -1.1303945379859238e-01 1.5627735883297608e-01
      8.4457954612556715e-02 -5.3570285327115649e-02
      -9.9775580242658767e-03 2.2493248032088017e-02
      3.9392071620579158e-02 -3.2170299935534878e-02
      6.9356840876212134e-02 6.3980008354215315e-02
      1.9101083613584865e-02 -1.7380321543909334e-03
      -7.4463322164989342e-03 -3.5266289983261565e-03
      8.9416204504705055e-03 -1.0415303911295536e-01
      2.9852426312545276e-02 -1.2541897470501465e-01
      6.7022449419531657e-02 -3.4824446651413689e-02
      2.1772145230504334e-02 4.6725366408208950e-02
      6.9502783519529446e-02 5.5585530808744954e-02
      -7.1180847574909736e-02 -3.8171215826162556e-02
      -2.1372167768296126e-02 -2.5752492743556638e-02
      5.6533785263113874e-03 3.0744865828034731e-02
      2.0205503060999504e-02 -4.3071817309531933e-02
      -7.0990881208127465e-02 9.5564710660644980e-02
      1.2431464085017847e-01 1.0877436500325481e-02
      -3.6114697903345829e-03 2.0333550208647827e-02
      -3.9548930201277081e-02 -5.9344305417282785e-02
      4.6805611899095184e-02 1.8676683425728535e-02
      -6.7162885829247884e-02 -2.5758832798563173e-02
      -2.2393920698008725e-02 -7.8515241598155032e-03
      7.1938804913042817e-02 -1.0495174823537658e-02
      5.8118825615587837e-02 -4.1069532718418032e-02
      -6.9001039547694862e-02 2.3287117061034302e-02
      -1.6973008569759845e-02 1.4531021125014473e-01
      1.0155900022107271e-01 6.9691368430204849e-03
      -1.0939503117624273e-01 -1.3186196294249658e-01
      -1.1394553244892391e-01 -7.1872343118734670e-03
      7.5791623030388736e-02 -1.7776710922465341e-02
      -2.6852006764513128e-02 3.8290778957764116e-02
      7.5896749213282995e-03 1.4767884746942408e-01
      1.3688366166213409e-01 9.4075362486548464e-02
      -1.0311707486743252e-01 5.1213644567984169e-02
      -6.1850381037850038e-02 1.3032121763948103e-02
      -5.0567420096388357e-02 -4.9019448101548888e-02
      1.5494824618919757e-02 -2.5865234024524406e-03
      1.6399622849000667e-02 -9.8208998347796644e-02
      4.1678705992335995e-02 1.3046944897235841e-02
      8.1651394147389533e-02 -1.1096215776883888e-02
      6.1658921351417498e-02 1.4059437848955350e-02
      -1.1206435333103219e-02 3.0730812589843041e-03
      -5.3045180736714950e-02 5.7494065878802014e-02
      -3.4299509199633905e-02 -1.2431055908795620e-02
      8.9573138702979921e-02 -1.1845261065764896e-02
      5.0756108915137469e-03 2.0728232663124444e-04
      7.2520757660834448e-02 -1.4767386458354136e-02
      -5.4834056611051361e-02 1.3329939723212644e-01
      -3.5218660516172756e-02 -4.7401160637608533e-03
      -5.4686968814671402e-02 2.5688723625986030e-02
      3.4363034995260992e-02 5.6098183122194343e-03
      -1.5562395344037636e-01 4.3304928442603065e-02
      2.1374675293219434e-02 -1.2896988200747495e-02
      4.3140053048653426e-02 2.7162370309251581e-02
      -1.2718524177963786e-02 -3.1707476101571165e-03
      -3.6661180662431431e-02 3.8560827580366282e-02
      -1.3064232883140146e-02 9.1974982099107316e-02
      -3.5626234035412443e-02 6.1756101397773704e-02
      3.6751242364613294e-02 -8.5470623960265335e-02
      1.9384853322125490e-02 -6.7085504384486001e-03
      -2.6157397388199971e-02 -2.3617193286727570e-02
      4.4248325352177681e-02 -5.1811109306615810e-02
      3.3714937300591427e-02 1.7145576344938272e-02
      -1.2278515450530079e-02 6.7235486147718584e-02
      9.6115620234856827e-02 1.8622077051154141e-02
      5.9815118610519295e-02 1.0931059847110107e-01
      3.2454595904607239e-02 3.0773844115289874e-03
      -1.4434120654614888e-01 -1.6564873284296629e-02
      -2.3775711955812896e-02 -4.3866321448091342e-02
      7.9159920170352588e-02 -3.5111247610988626e-02
      -1.1936915876433717e-02 -4.2153214321948337e-02
      2.6276452953151605e-02 -4.8008816412749580e-02
      8.2128173597143708e-02 7.8115336531141895e-04
      -4.6993943732776822e-02 -2.2864743555943601e-01
      -2.3646352080423396e-02 3.5122741736661259e-03
      7.1566667995134683e-02 -4.0563142774161474e-03
      -1.1825896249218084e-04 5.5807114603111350e-03
      -2.1231046408724625e-03 -2.3847322456768790e-02
      4.9972257795609751e-02 -3.1992289042470250e-02
      -4.7454969476826989e-03 1.9476155571046715e-02
      2.7399957509261285e-02 -3.4993757153092456e-02
      -4.3602293699626850e-02 6.0136877866553501e-02
      1.8228254209611723e-02 2.6127491800641982e-02
      -3.7410930770225836e-03 1.1673905091763484e-01
      6.6236409553800469e-03 3.9052895108069407e-03
      7.2070288009093861e-02 -5.3935102294016782e-02
      7.0946038107848108e-02 -9.8136214300780039e-02
      4.6722978906011452e-02 2.8903286766520469e-02
      1.0318704925236158e-01 1.5617905861700419e-02
      3.8052216667692290e-02 -1.0875780278281151e-02
      -8.0402486659659055e-03 -1.3707155481930865e-02
      3.4197520359835365e-02 -6.4266628806099874e-02
      1.6621499960462006e-02 2.1334407264240140e-02
      -1.5855768857787274e-02 3.3176785097516606e-02
      9.0337344580561946e-02 -1.3093467406917029e-02
      5.4029752895887045e-02 1.1377219618825003e-01
      -6.9529255822705638e-02 2.4981305724730462e-02
      -6.1483969294527244e-03 3.7377774686070314e-02
      8.0733398387545147e-02 4.3491388034826967e-02
      7.9874984553750445e-04 -6.6836582672036710e-02
      5.6562613557765255e-02 -5.4894913863446165e-02
      7.5281990857371493e-03 -7.3017337468579007e-04
      1.8568392209851955e-02 6.2516690401510705e-03
      7.8997885424899647e-02 -8.4625257919100597e-02
      -3.5670333922648872e-02 -9.9384424888912137e-02
      6.1903114691022838e-02 -5.2234875305184343e-02
      8.4143253896935735e-02 5.8169351899292107e-02
      1.1304859835414753e-01 -4.3520537335149038e-02
      -8.5014625180999212e-02 5.9608185212144470e-02
      -3.7599061680904343e-02 1.9544388435343816e-02
      4.6927008395208934e-02 -1.4989689717838728e-02
      -6.6762522597153900e-02 1.1457595806938750e-01
      1.0687123103079076e-02 7.8957677355747324e-02
      1.6862333052231292e-02 1.2195914830292852e-02
      -9.3282725755977638e-02 -7.3418911984911697e-02
      -1.0881104929331958e-01 -7.5773229952991739e-02
      1.2277582090162914e-01 -1.1155749265103040e-01
      3.6111838238866469e-02 -5.7075689401280695e-02
      5.5023229869478683e-02 9.3889919328791534e-03
      5.5550785898028608e-02 -1.0509755164961025e-02
      1.0018293106963586e-01 1.2669872315640806e-02
      6.4729491641739828e-02 -2.3323220753397794e-02
      2.2427926895154455e-02 3.0974474856603741e-02
      6.7931748319771543e-02 -5.3317598194223123e-03
      -7.0011414595662874e-02 1.0693207956152566e-01
      2.0871159326015704e-02 3.9124558522462827e-02
      8.7171877863249411e-02 3.6393820024684338e-02
      4.8201672958018076e-02 4.6999945440382447e-02
      -9.5098940286462694e-02 4.3984626948813700e-02
      -7.3328764145694766e-02 3.5612939339178404e-02
      -6.7592822379067358e-02 1.0873849111420543e-02
      -5.6518675959612186e-02 8.4501859279670858e-03
      7.2025105063333386e-03 1.7528563841977922e-02
      -3.5890763514427521e-02 -6.0354558638541160e-02
      4.4459127573476281e-02 2.5676339479002211e-03
      -6.9689843348006139e-02 -1.3327620293129784e-02
      1.3313876085781881e-01 -2.6559359494823277e-02
      4.8817579193192968e-02 -1.3434178341976549e-01
      3.7122867191885782e-02 3.5197054493522041e-02
      -7.5303965597496483e-02 -4.6464968131421598e-02
      -7.9239217308232801e-02 -6.3357355649750258e-02
      6.5828909368630794e-03 -3.7451207230382588e-02
      -4.4921356325614697e-02 -5.7261928629377450e-02
      -5.8505078432893022e-02 -1.3294717581299514e-01
      -9.0894086517091341e-02 5.1484034431099487e-02
      6.6697436368202689e-03 -1.1386354988193691e-02
      9.5269516966941165e-02 3.5356321922759552e-02
      -4.5495042928506327e-02 8.7329465645584886e-02
      1.5115289634948402e-02 1.1686476986952259e-02
      1.4938377362286429e-01 3.0023749030670146e-02
      -1.7935045226581549e-02 3.1931257499872377e-02
      -1.6003471860858390e-02 5.2073812462569138e-03
      1.0016499038383363e-01 1.1535436070676466e-02
      -2.2023762062640277e-02 -7.0743402963958299e-02
      -6.1884982651765841e-02 1.9530305340036511e-02
      -1.2209597120266755e-01 -5.9616652782890349e-02
      4.9891615907404617e-02 -6.9624135279292398e-02
      3.0166962197724381e-02 2.1685882218075596e-02
      1.1941753148436249e-02 2.3316276440159475e-02
      6.5271328342586726e-02 8.0276781107734646e-02
      -1.7220032093959989e-02 2.6497128964088686e-02
      4.3669684792511966e-02 -1.3055174749115325e-02
      8.5860461309839542e-02 -6.6359369023157144e-02
      1.7460942893115056e-03 5.9576647598229122e-02
      5.3622430394252912e-03 2.5299572276100066e-03
      8.3988432512694167e-02 -2.1866548548271927e-02
      -4.5305701391236845e-02 5.3048898771448725e-03
      6.8938634683625849e-03 -1.3549287224887360e-01
      2.7387949134135631e-02 -5.7062589578428059e-02
      -2.7003229932612751e-02 6.0965773405021545e-02
      6.1202135044580754e-02 1.6975529125981631e-02
      -9.1499988332188545e-02 -1.3402967298515905e-01
      6.2519325859805921e-03 -1.1986485183657412e-02
      3.7122895877917270e-02 8.2061188498475882e-03
      1.0867365210116134e-01 1.1962146476798014e-02
      3.8347007437362746e-02 1.3763853708276988e-01
      2.2958375979561643e-02 4.1264094843055904e-02
      -7.5993689480323173e-02 5.6381279309558732e-02
      -4.7868290672290377e-02 6.1804107961140255e-02
      -1.1326951625803153e-01 6.8476839305397844e-02
      1.9557489205723037e-02 -3.5572263784229584e-02
      -1.5267578144089456e-02 -4.6262411075349771e-02
      1.1510252479583439e-02 -1.6858438383725798e-02
      -5.8971101395976812e-02 -2.7305336559536771e-02
      2.4251303837173093e-02 -1.4438335723196770e-02
      5.1374089019613954e-02 -6.3240876360582772e-03
      1.4208796740761773e-01 3.1507084025976004e-02
      -5.9414198943194823e-04 1.2900887821267221e-02
      1.1864037147522480e-01 4.0366308293324674e-02
      4.3029466946726998e-02 2.9878593625355276e-02
      3.7165974324449356e-03 -1.5541237264695997e-03
      -4.1444681184756166e-03 -1.8112597020406598e-02
      -3.9690050492275968e-02 3.5646402595137905e-02
      -4.8600997456366223e-02 -6.5246267672545355e-03
      3.6676012191878556e-02 -2.5187223898909334e-02
      -4.2765371487424521e-02 7.0872475828547745e-03
      -1.4436183855522451e-02 -1.8735320626135733e-02
      -1.2790455783156320e-02 3.2681257896565515e-02
      3.0932382756440297e-02 -2.8047514358402630e-02
      2.4572080397614136e-02 6.4356101890477913e-02
      1.7344430409475118e-02 -8.6599841084299647e-02
      4.9966995478148866e-03 1.2344925467299803e-02
      4.0300578331150284e-02 7.9937472876696180e-03
      2.3030717753893201e-02 4.1172081611886395e-02
      7.3927294261616067e-02 9.7433914545902670e-03
      2.6732274638570978e-02 1.2934707335344889e-02
      1.8958134000044816e-02 -6.8558901229423944e-02
      -1.0763776869151305e-01 -1.9740446715155071e-03
      -1.4194004703794247e-01 -3.2179591623946444e-02
      5.3914117603066469e-02 -8.1172399858081196e-02
      -1.1423501221705620e-03 -9.2229586743663994e-02
      -6.3783395540320809e-02 2.5229923632554524e-02
      -3.0957809492733489e-02 5.3411871553902618e-02
      2.9367803464063383e-02 9.4374540649107178e-02
      3.3164331803430647e-02 1.1658014630612185e-02
      -1.6706899377820491e-02 7.9891228163192343e-02
      -1.2381077465546722e-01 3.7770573259472179e-03
      4.1879957760062640e-02 -1.1215507145314633e-01
      4.6778765012907439e-02 -9.7064918369716924e-02
      -7.0911552637465930e-02 2.4031827069620031e-02
      1.5365428601119994e-02 7.3365025575246615e-02
      -3.7381217899244534e-02 -3.1433908426784077e-02
      1.2521629960760920e-02 -5.1672160516093690e-02
      -6.4761740689110031e-02 1.2196544091900489e-01
      2.2910166313402067e-01 1.9270044227955252e-02
      -3.4640716127213367e-02 -1.3678721887439514e-02
      -7.1560957182945403e-02 -1.6688047676976160e-02
      4.4957231212973535e-02 1.4379372231456200e-01
      -4.4835992193239360e-02 1.4680854479239621e-03
      -3.7295126521286165e-02 -4.2514811429403512e-02
      6.8506354465749500e-02 1.2282052308514292e-02
      1.7632097624794962e-02 -2.0868675728073039e-02
      -3.2445917682675995e-03 -2.0368038922817459e-02
      1.1920281615988577e-01 -6.3059336456604151e-02
      4.9531910960401285e-02 -1.2188286084714277e-02
      1.2751722906444171e-01 5.8069276187401257e-02
      -3.7225765361830632e-03 8.0854937466416893e-02
      -4.1126512724313440e-02 7.8386327331006186e-02
      9.3716989845705631e-02 -4.0472437961630019e-02
      -3.1837598162499176e-02 4.3187289252244479e-02
      5.5368900169913103e-02 2.9268646742182824e-02
      -1.7170353884184020e-02 -1.6286709941422860e-02
      -8.6175624590961744e-02 -3.0701453605162011e-02
      7.6824442127502142e-03 3.9450384315964364e-02
      1.9945594109625195e-02 -8.1204623875991647e-03
      5.5490888706281223e-02 7.5200130446925209e-02
      -2.3342887073225085e-02 -1.7089674669304996e-02
      -6.9500889437199937e-03 4.3292131547738415e-02
      8.4098696812887258e-02 4.4031916765614472e-02
      5.6696626048500431e-03 -2.2235659142301609e-02
      -9.8916635616989497e-03 -6.0405993577564522e-02
      -4.1427937977773577e-03 -1.4773327806808840e-02
      -1.1262509687681974e-01 -7.9568739195440330e-02
      -8.5030403851402883e-02 -5.1831257006607311e-02
      7.1103910379396423e-02 -1.4602302151887693e-02
      8.0986543562127075e-02 1.1293707109049760e-01
      -6.8218124013477432e-03 1.2966621283234380e-02
      1.4171073703205696e-02 -4.5520594873315515e-02
      -5.5099151751999566e-02 -4.0625464714166531e-02
      -1.4945729612813602e-01 5.9544746515905279e-02
      4.5808119984546140e-02 -1.4439809997586591e-02
      2.2047278448228864e-02 3.4359679173669208e-02
      1.2480586823156944e-02 3.4850722518034720e-02
      -5.9376107183444056e-02 2.9559150573382927e-02
      3.0017458778332273e-01 3.8698020598429035e-02
      -2.3727726656070890e-02 1.3996183399019874e-01
      -6.0094130761866940e-03 2.1250127072500957e-02
      -3.2942833261356413e-02 -1.3596658869600046e-02
      -1.1742457249488672e-01 -3.8806264373157828e-03
      -2.7075811894571825e-02 -1.2050258864243723e-02
      1.8919346140517029e-01 -1.4826601581491490e-02
      3.8922538176971930e-02 -3.0451982747066304e-02
      -8.8834225989232532e-02 5.3765064648233350e-02
      -3.7821896125172914e-02 -3.9829137036872894e-02
      9.7912524530428570e-03 -1.1453540573732032e-01
      -8.7311032722479753e-02 -7.9429087007480595e-02
      5.3851066493438092e-02 -4.4373655885917622e-02
      -9.3000721638645562e-02 3.4313331450924203e-02
      -4.1559372013869646e-02 7.3786320628751276e-02
      4.4329894368367671e-02 -8.5774643560555478e-03
      1.3729930766718060e-01 -1.9619502522696057e-02
      -4.3047360595492169e-02 6.0625039343128025e-02
      -1.0379776434409310e-01 8.5814646079718254e-02
      4.2899623819720741e-02 -3.1152329493907456e-02
      1.0660344248136244e-01 -6.1050858250042278e-02
      1.0169570076039528e-02 -7.5151989058859323e-02
      -5.0638766281885406e-02 2.3672510625866321e-02
      -2.0383186322800458e-02 1.1669060212946782e-01
      -6.0970985849071777e-02 3.3072721048965789e-02
      -8.1165337117316202e-02 1.0751434515309913e-01
      -2.5421903077415108e-02 2.1632191280886025e-02
      -5.3798019522785921e-02 6.0143573860879013e-02
      -7.8985227937737032e-02 -3.2986964275663007e-02
      -9.0513983425728084e-02 8.8689157429318724e-02
      3.4643292006830376e-02 -2.2585899151725902e-02
      -8.6475914823574807e-02 -5.5419335137691260e-03
      2.0352882062203634e-02 -4.3599196833291269e-02
      -1.5934805776757374e-02 2.8486892779221704e-02
      -8.3068523652888998e-02 -1.6449236980075523e-02
      -8.0486349906680344e-03 -1.0850053392623950e-01
      1.2395459941463009e-01 2.5387558535374761e-03
      -1.8549661943142788e-02 -1.3288740052813894e-02
      1.1559385472145882e-01 6.0015595329770063e-02
      -4.9020170895703638e-02 3.5328487998046276e-02
      2.8282188107730453e-02 -2.9041443725227763e-02
      4.8687998848926529e-02 -2.2246893294736371e-02
      1.2152617926368132e-01 -7.8669579829213424e-03
      4.3742301605073697e-02 -1.2879185501649154e-02
      -1.5999978034541163e-02 1.2990472392442394e-02
      7.5737543766662918e-02 -1.1069821999813614e-02
      -5.5893741816645942e-03 -6.8049757870173075e-02
      -1.9179797015143236e-02 6.1411973985623335e-02
      -1.4881252620450358e-01 1.0890029804299473e-01
      -9.3084194329258498e-03 1.1403230848406139e-01
      -8.3301384132162116e-04 6.6526656768527460e-03
      4.7851641853809024e-02 2.4224215733802099e-02
      4.0115364015884523e-02 -5.4843559131282721e-02
      1.8285864965126183e-02 4.9050149180800126e-02
      9.4312807879222013e-02 5.2138247549068401e-02
      -1.0281487980581085e-01 7.8180280820923403e-02
      5.9025980560283013e-02 -3.3355272993826637e-02
      3.5450786113647860e-02 -2.8194486207092882e-02
      1.3089530794326898e-01 -5.0595688042125588e-02
      -9.9435161329767527e-02 1.0651536057802284e-01
      -4.9320843681248970e-02 3.0855084344609318e-02
      -1.3731579257438465e-02 -4.6445062272258836e-02
      -6.5025485222781161e-03 -5.0312277233420313e-03
      8.5355343713049606e-02 -4.4259541962018818e-02
      2.5486442495599362e-02 -3.9395418992827606e-03
      1.4104428622478630e-02 -3.9873226301104188e-02
      3.8736489284821471e-02 -6.3056794807879998e-02
      -2.1269166483747332e-03 3.2072703604673035e-02
      -2.1546848367696780e-02 -4.5190542254057185e-02
      -1.7566820876669994e-02 -1.2652884340207704e-02
      4.6289951874774651e-02 -1.3708837531080641e-02
      -3.2413945670169343e-02 -3.6632697263740958e-02
      2.9866781075404492e-03 -8.1321616131740104e-03
      2.4217990105683533e-02 1.4875369883804024e-02
      -8.4687021756630167e-04 -3.0635881440862080e-02
      3.1739534669701024e-02 -6.1245180516187922e-02
      1.4016390010589293e-02 -6.3936834536552856e-02
      -4.7345991693683094e-02 -4.4765634208932939e-02
      -3.6117552385649928e-03 1.0745407117157162e-03
      1.9333973567658688e-02 -4.5345575810231624e-02
      -4.5723160261747109e-02 -2.0337198645445916e-02
      7.5596974046836546e-02 -4.5107186536250350e-02
      -3.3348774053552025e-03 -5.9159032113338386e-03
      -1.1649141203095266e-02 3.7154262754849288e-02
      -1.4434397447067867e-02 3.0500517963177428e-02
      1.6935173731619204e-02 4.8071849245746243e-02
      -5.7828029907347782e-03 5.6794244515398225e-02
      1.6854527149359991e-02 -1.9009615328839626e-02
      3.1889902366859860e-02 -4.9120857437235143e-03
      2.2124121065402864e-02 -3.2217523152878416e-02
      2.8182231464130292e-02 -2.9331627974176801e-02
      8.2509595660307675e-02 -1.2460626199560243e-03
      7.3969889346826093e-02 -2.4785084920685044e-02
      1.7109515645918998e-02 6.9135388690971947e-03
      -2.0508449458738930e-02 -2.2829207810689169e-02
      2.2752521307616617e-02 -2.9940351301987321e-02
      -9.4438834874335256e-02 -2.5303168886804586e-02
      7.0146005125712965e-02 -7.5953918600838652e-02
      -1.9940431894699063e-02 -6.6982203802495505e-02
      1.1814231585537564e-02 1.8878756848978034e-02
      -1.9141473909008791e-02 5.5689167855728396e-02
      5.6359844573353295e-02 6.5736343317383136e-02
      -2.5497265989796458e-02 -2.3263631169893266e-02
      2.0894811153018906e-02 6.1262892767424956e-02
      9.0672203291768949e-02 4.8477171271791977e-02
      5.0045254143298343e-02 -1.3177358885731964e-02
      3.5138165620551706e-02 -1.1614353550126839e-02
      4.7064932977833544e-03 -4.1382654126543073e-02
      4.9306735592197552e-02 2.1969209072378447e-02
      1.6103448524565970e-02 -2.8591634997726760e-02
      4.3742827343237776e-02 4.9679245466484986e-02
      5.9533337551700795e-02 1.7726647081876250e-03
      7.9010808835155905e-02 -5.3994539306980054e-02
      -1.2327863964318810e-01 -1.0780434792679652e-01
      -1.1982470853072358e-02 2.1561915203691065e-02
      4.6606837181372304e-02 2.6001781355798250e-02
      4.4437153033441097e-02 -4.5101253764818605e-02
      1.6145690808399473e-02 8.3249639580496200e-03
      4.5535747472542958e-02 3.0057236038696679e-03
      2.9302232016865423e-02 7.6719152977133984e-02
      -1.2385848056799910e-02 8.1820898468483089e-02
      -1.4491223880034506e-02 1.2552021479502700e-02
      -4.9311571785022199e-02 -7.1516863029186375e-02
      -1.0700566348977233e-01 5.5988550127286325e-02
      4.9154331717536658e-04 -1.8088620043506171e-02
      -5.3533711488550984e-03 3.8804772961854812e-02
      2.8337025098848556e-02 3.2773753825778525e-02
      4.9622107546541130e-02 4.2923166483550323e-02
      4.0536990480073420e-02 1.8831212870797011e-04
      -8.0734821632922980e-03 2.3785686284553322e-02
      1.2311617969941083e-02 -3.7432105664095133e-02
      1.0741688288202525e-02 -1.2604257911106496e-02
      -7.4510742937097911e-03 -1.7161952723302541e-02
      -3.0798299588782052e-02 -1.7759910474126232e-02
      -1.1521988762867670e-01 -4.5829352060172836e-02
      -4.3275255833041315e-02 -3.4960019371128585e-03
      -7.4586078905921019e-02 2.8653326306058512e-02
      3.8951732485826528e-02 2.7971380277853206e-02
      -5.6722584252584260e-03 2.2015637117838130e-03
      -8.0764490216100548e-02 1.1209303099508250e-01
      -3.4211579725901123e-02 -1.9782428801994920e-02
      1.1326749102848498e-01 1.3118609733179794e-02
      -8.2685200248221541e-02 -6.7958490644114394e-03
      -9.4546874718773502e-02 -4.6776521460467155e-03
      8.8727328137678446e-02 -1.0622617942671159e-01
      3.0187646608105915e-02 -9.7554257822575919e-03
      3.1337680575698690e-02 -3.0277905639600641e-02
      -3.6505989672075717e-02 2.7162220266220144e-02
      -1.1421309443937441e-01 -2.1308613921534582e-02
      1.6026811028923820e-02 -3.6136314388168542e-02
      -1.0864711298458650e-01 8.2378746131763284e-02
      2.8100060739251208e-02 7.2481010214118478e-03
      -1.4859855007908786e-02 4.2632692431723719e-02
      -3.9605901348273513e-02 2.8449206435042555e-02
      1.4758090529629519e-02 7.2287543326386691e-02
      -9.8669919185765897e-02 2.2706632405294625e-02
      -3.5078285042566604e-02 2.3444271764790494e-02
      -3.6459328948970525e-03 -1.1602279757549175e-01
      1.6739623071601206e-02 2.5628173630407345e-02
      5.7852449270426570e-02 -1.3315219655704785e-02
      1.0715223601666286e-01 -7.3256508546321653e-02
      -4.5423279129091505e-02 1.9112723828826828e-02
      -4.8402566713752752e-02 4.1262819463023362e-02
      -1.2680181128707119e-01 2.3496213302163744e-02
      -8.3304973062440266e-02 3.7216827771122036e-03
      5.8631693583684703e-02 -2.9551014709679309e-02
      3.7001357495816188e-03 -3.9876145308957930e-02
      -6.0620795149427864e-02 -9.8071474004353426e-02
      -1.5096182104022823e-01 -4.8815308922837176e-02
      -1.3309997412959690e-02 7.1957262813237013e-02
      1.3267195825678788e-01 -2.7781529321783925e-02
      9.1720957136405101e-02 1.4331502975168612e-02
      2.9271674464353529e-02 1.8029588690037530e-02
      1.4914830297498736e-02 -5.2913704027805646e-02
      2.8199110644380371e-02 3.3356775106115254e-02
      8.0888064839653856e-02 4.0098136918387560e-02
      1.1367279254529519e-01 -1.1599040311202218e-01
      8.7477948156813909e-02 -2.5353210973229214e-02
      3.1437978056154815e-02 6.1320255533528052e-02
      -5.7656099720949219e-02 -1.5537884981081740e-02
      -1.0502092706598349e-02 1.4703751560133149e-02
      5.8429558201977670e-02 2.1961732386751840e-02
      -3.8609627671557803e-02 7.3117738515060871e-02
      -9.1972052933949819e-03 5.5335897921925829e-02
      -5.1308606021416375e-02 2.4527948565962104e-02
      -1.9434446468905853e-02 -3.3156029397935653e-02
      4.8999968612126042e-02 1.0341616067494609e-02
      7.5079465984243088e-02 -5.8683177400856601e-02
      -4.0649785357916773e-02 -5.6380383988826513e-02
      -1.9509739204433083e-02 1.0317197532587726e-02
      3.6333954991116482e-02 -5.2224114524085145e-02
      7.9608458545719393e-02 2.4372675439984438e-02
      9.3384434514005941e-03 6.0957616238659473e-02
      -5.2894506575135981e-02 2.3180089853660990e-02
      -7.0100614897829067e-02 -4.0672371639456140e-02
      1.4502826324944467e-02 4.8710839598002917e-02
      3.2962129362394982e-02 -4.6533267672342123e-02
      -1.6257449546648081e-02 -3.1146610771411783e-02
      3.1181821282935483e-02 -2.2298991049955141e-02
      7.8273603473594713e-03 -2.4475954843601294e-02
      -3.5637753109399373e-02 -4.3338049250093741e-02
      -6.3520583933753802e-02 -2.9483879429797265e-02
      -5.0834243080717226e-02 -9.6793399823863376e-03
      -4.3312787306215732e-02 4.0357208198040499e-02
      -5.3550416151482864e-02 1.1788613628713421e-02
      2.1196809095040261e-02 1.5627721290093051e-02
      -7.8371240360377722e-02 1.5520257631723076e-02
      5.0420363700007041e-02 -1.7561934762885493e-03
      1.6576465153988449e-02 5.8552231693009195e-02
      -7.7300774188566013e-02 1.0601966112762685e-02
      1.0732199994231957e-03 6.5260923136062892e-03
      -4.0861802678180154e-02 4.4984683892679758e-03
      4.9254784958126706e-02 -1.2127845109163765e-02
      -9.0531330038765248e-02 2.3071247548775379e-02
      5.4428192386327436e-02 -2.8032116415926955e-02
      -4.5365037069552354e-02 -8.0834897018375092e-03
      4.9755761567160011e-03 1.4501244008829512e-02
      1.6761397058744402e-02 1.6950158028849884e-02
      -4.6372067121416734e-03 -4.1337391055425970e-02
      -4.3560569250621024e-02 -4.0421932262772874e-02
      -6.9753097960743582e-02 -3.7684326532412521e-02
      2.2542369468473637e-03 -5.4307211801124168e-02
      -4.4700296819057024e-02 6.3787186396558268e-03
      -1.0393611876085500e-01 -8.3452696591532257e-03
      -1.3638869725347651e-02 5.2321006889407801e-02
      1.0095052728011206e-01 2.3833716206923431e-02
      2.3784863501379396e-02 2.9378223201389400e-02
      -6.0423691997222057e-02 4.6806876418975463e-02
      -3.3908851440870885e-02 -2.8221360091417503e-02
      6.4297765013808086e-02 1.5776863030523735e-02
      -1.4462204991914032e-01 3.2830858441168474e-02
      8.4361201030109162e-02 -7.2468030306358386e-02
      7.4298605819038965e-02 -2.0042574776784134e-02
      1.8463947773535667e-02 2.4823365737858795e-02
      -6.4467469457042889e-02 -5.4026449901135074e-02
      -7.9894945106288237e-02 -1.9538268480269005e-01
      4.7048776016205066e-02 -4.6806785123577867e-02
      -9.8284281486495526e-02 -9.2063332401560088e-02
      -4.0988138081731788e-02 -3.5945683677622072e-03
      5.0030084972467102e-02 7.1386914274943758e-02
      -1.1976308813326966e-01 -4.0697396106321906e-02
      -4.8371184614302412e-02 -1.2734352120719136e-01
      2.0328370816040917e-02 -2.9370627121736156e-02
      8.9687847786883591e-03 2.1072765878087742e-02
