<?xml version="1.0"?>
<opencv_storage>
<opencv_ml_ann_mlp>
  <format>3</format>
  <layer_sizes>
    576 8 16 32 26</layer_sizes>
  <activation_function>SIGMOID_SYM</activation_function>
  <f_param1>6.6666666666666663e-01</f_param1>
  <f_param2>1.7159000000000000e+00</f_param2>
  <min_val>-9.4999999999999996e-01</min_val>
  <max_val>9.4999999999999996e-01</max_val>
  <min_val1>-9.7999999999999998e-01</min_val1>
  <max_val1>9.7999999999999998e-01</max_val1>
  <training_params>
    <train_method>BACKPROP</train_method>
    <dw_scale>1.0000000000000000e-03</dw_scale>
    <moment_scale>0.</moment_scale>
    <term_criteria>
      <iterations>128</iterations></term_criteria></training_params>
  <input_scale>
    1.2416962285694883e+01 -2.3164471718544410e+00
    1.8911815584118003e+01 -2.5651301257186816e+00
    2.0215404614954060e+01 -2.7440576796055733e+00
    1.8735614222124727e+01 -1.9749170575430848e+00
    1.6179941829868550e+01 -3.2119548310246864e+00
    1.7989325032261117e+01 -1.8963967183582728e+00
    1.8175082776343597e+01 -2.4835833776390048e+00
    1.8497586807438555e+01 -2.3728891314703069e+00
    1.2478172443979410e+01 -2.2941293343804117e+00
    1.3412826112086975e+01 -2.6761638579552280e+00
    2.0207713156882118e+01 -2.9995509767398509e+00
    1.9463529258639380e+01 -2.8684254672519924e+00
    1.8316449163477483e+01 -2.0584256027507353e+00
    1.6658172298660467e+01 -3.2578500497070695e+00
    1.8731803616785935e+01 -2.0017508478907926e+00
    1.7902277046708029e+01 -2.5725288541768423e+00
    1.9069310757262357e+01 -2.6175612264051402e+00
    1.3381247440540065e+01 -2.5736508696814488e+00
    1.6509639457974050e+01 -2.9732236479235592e+00
    1.8123312045421866e+01 -2.6044813766763455e+00
    1.9967944690312446e+01 -2.9025989287862988e+00
    1.8993506770457568e+01 -2.1140173902745834e+00
    1.6882595904563118e+01 -3.3691447216838286e+00
    2.0977001060986591e+01 -2.2347875992920812e+00
    1.9225278558315061e+01 -2.7061231490521811e+00
    1.8398981240261154e+01 -2.4851857441415577e+00
    1.8177382837924238e+01 -3.1249153910540337e+00
    1.5955401897630210e+01 -3.0801343564110160e+00
    1.5572607485545673e+01 -2.5044827256211146e+00
    1.5946549819996857e+01 -2.6015917538247550e+00
    1.5289590875391957e+01 -1.9187236302180233e+00
    1.6200236107556155e+01 -3.2386573291612790e+00
    1.6144105082108261e+01 -1.9376831121668607e+00
    1.6937430268522018e+01 -2.6101958285881599e+00
    1.6978567306459006e+01 -2.5322496774892791e+00
    1.6309233076458238e+01 -3.0472812225864225e+00
    1.1565896513654378e+01 -1.8600875561465837e+00
    1.5194087856435393e+01 -1.9257046562621665e+00
    1.7726666953912762e+01 -1.9180209915323516e+00
    2.0813362728918868e+01 -1.6239230608370998e+00
    1.3765798005764335e+01 -1.9171264275798161e+00
    1.8357456131509220e+01 -1.4166279282678700e+00
    1.5672052264798054e+01 -1.5803622025453654e+00
    1.7086552540353207e+01 -1.6796476122221948e+00
    1.1863904134465750e+01 -1.7275508802306270e+00
    1.1843182377679371e+01 -2.2302729062607831e+00
    1.3644233471093047e+01 -1.9905228067132976e+00
    1.5629940342974471e+01 -1.9042016847394945e+00
    1.5598208694371300e+01 -1.4293420126337775e+00
    1.3245302756174789e+01 -1.9446238669183060e+00
    1.7838074955257383e+01 -1.4801330114245930e+00
    1.4962665230603498e+01 -1.6026389892282717e+00
    1.6818457051481488e+01 -1.7793051335023902e+00
    1.2250426966739463e+01 -1.9866934207439058e+00
    1.1559609689451291e+01 -2.6522667448620068e+00
    1.0451808459291854e+01 -2.2718884148325054e+00
    1.2894575031125505e+01 -2.2548177701762273e+00
    1.6279702591489798e+01 -1.7387539364424853e+00
    1.3433998544555807e+01 -2.0489633568926138e+00
    1.6405640822420661e+01 -1.5753931580182605e+00
    1.5087339771991594e+01 -1.7734458921661371e+00
    1.5599017378267439e+01 -1.9527481074841955e+00
    1.2231862668837980e+01 -2.3733106220480233e+00
    1.2149634754063189e+01 -3.0253931497554323e+00
    1.1109214988652035e+01 -2.5722404594616988e+00
    1.1899112073946268e+01 -2.0897279938444706e+00
    1.3474498764714200e+01 -1.6068519561458590e+00
    1.2566333649318283e+01 -1.9439404301648275e+00
    1.4378894859010620e+01 -1.5649618137564183e+00
    1.4029251486454568e+01 -1.7603935338001286e+00
    1.4442062872252224e+01 -2.0312201293491978e+00
    1.1628681049564159e+01 -2.5763494702765763e+00
    9.5450901669621153e+00 -1.5773651666464905e+00
    1.2197080501986516e+01 -1.5759401818945338e+00
    1.3929644600580271e+01 -1.3007166352918655e+00
    1.4319788912415376e+01 -9.9761863556405217e-01
    1.3245893816455732e+01 -1.3266990931520215e+00
    1.9552675650504010e+01 -1.1305967492343898e+00
    1.5628599612915782e+01 -1.0974565104936174e+00
    1.5014000587290351e+01 -1.1424672021254956e+00
    1.0019951169970243e+01 -1.3922834410602785e+00
    1.0506905013181587e+01 -2.2567150706253960e+00
    9.5814794705815363e+00 -1.9797419029584045e+00
    1.0206621284749936e+01 -1.5010758414103800e+00
    1.2614828753190219e+01 -1.2976078806655957e+00
    1.1611612350316665e+01 -1.4782056872856049e+00
    1.4426378027667379e+01 -1.0798788612462180e+00
    1.2891008530514004e+01 -1.1202950642434952e+00
    1.3033864575457377e+01 -1.2286877125234243e+00
    1.0525540203165860e+01 -1.6809403917651511e+00
    9.8721633492396901e+00 -2.4388778415474857e+00
    8.8365618463379327e+00 -1.9835634656604075e+00
    1.0782266201124546e+01 -1.4510149185020782e+00
    1.3773972438462447e+01 -1.0634360160510952e+00
    1.3799300378343068e+01 -1.2444141252455339e+00
    1.5572755476074676e+01 -9.7132046179482601e-01
    1.2633912893781375e+01 -1.0255708364975955e+00
    1.1433046093309374e+01 -1.1646278652945907e+00
    9.4062535603861779e+00 -1.6791042263640046e+00
    9.5061752159390682e+00 -2.4302756950943545e+00
    8.7015198091517600e+00 -2.0854105761526958e+00
    9.8855136399466623e+00 -1.6719328908437674e+00
    1.2975009629263861e+01 -1.2922410943267815e+00
    1.3170669265509488e+01 -1.4560920459386399e+00
    1.3240415443200144e+01 -1.0639279285772203e+00
    1.1683056298628735e+01 -1.1907323219628567e+00
    1.0980778559999663e+01 -1.3200529553914857e+00
    9.7785996162787594e+00 -1.8758818620650068e+00
    9.1739023966072786e+00 -1.9835061430812426e+00
    9.0771233885381335e+00 -2.0225092033918157e+00
    1.0104082499707866e+01 -1.6893755874610532e+00
    1.3827969379433734e+01 -1.3507479973682870e+00
    1.2164274640221207e+01 -1.4030698948109350e+00
    1.0538406010128304e+01 -9.3818862550959192e-01
    8.7716625175425644e+00 -1.1295199185644287e+00
    1.2628197689674481e+01 -1.2376564314128193e+00
    1.1658075491092829e+01 -1.6439833193543565e+00
    9.1914592496044634e+00 -1.7665819348765897e+00
    9.0341591209753904e+00 -1.7591312865226352e+00
    1.0651235486509533e+01 -1.5097574751225555e+00
    1.3934520505060142e+01 -1.2207458885342481e+00
    1.2761727226018758e+01 -1.4184605316046357e+00
    1.3569617545451319e+01 -9.5635375592423755e-01
    1.1252414724666535e+01 -1.1415606266762841e+00
    1.1856856160373953e+01 -1.1033503367147397e+00
    1.1583639965250994e+01 -1.4729003522946216e+00
    9.5255457559918444e+00 -1.6260419422167847e+00
    1.0506550347260967e+01 -1.6631124536036821e+00
    1.2692412304019516e+01 -1.4958581387283885e+00
    1.5642839958448047e+01 -1.3834941444423712e+00
    1.1470863616105069e+01 -1.4399210583183872e+00
    8.2262447509474921e+00 -1.1517112891225398e+00
    7.5464271191006134e+00 -1.3290971582596436e+00
    8.8368138737796897e+00 -1.2385433336186116e+00
    1.1458556889113721e+01 -1.4282652528483510e+00
    9.9325832557643992e+00 -1.4014009417052329e+00
    1.0442268785776642e+01 -1.3722330873776678e+00
    1.0852713749451686e+01 -1.3249696345816064e+00
    1.1799303979551157e+01 -1.0861379970338456e+00
    1.1404868552073856e+01 -1.4454573262360946e+00
    1.0327309883418115e+01 -1.2066956798291764e+00
    9.5749713038117044e+00 -1.5127534685895310e+00
    1.1221089323349682e+01 -1.2207752386954218e+00
    1.1617577677733580e+01 -1.3339112646849698e+00
    1.1168183469292888e+01 -1.6304255410421067e+00
    1.6888626123161099e+01 -1.8646757214624998e+00
    1.9847289968528759e+01 -1.9972409375107421e+00
    2.0176092066710531e+01 -1.5543014786138027e+00
    1.3417088317456370e+01 -1.7326700740690988e+00
    1.9835819895250442e+01 -1.4074178837055831e+00
    1.8815621300120572e+01 -1.5614428904948574e+00
    1.6386245431730352e+01 -1.5445121129561561e+00
    1.2717302297052614e+01 -1.6045772177718738e+00
    1.2276451408990976e+01 -2.3179667778006436e+00
    1.3025921763134278e+01 -2.4570792414293048e+00
    1.0403064644470939e+01 -1.9703490452965724e+00
    1.1109434478404060e+01 -1.6232882697577935e+00
    1.1088179589187195e+01 -1.7837249383026570e+00
    1.4473047758552466e+01 -1.4874004578143318e+00
    1.4962394850385504e+01 -1.6326321040383673e+00
    1.4132769716825546e+01 -1.7231220877907139e+00
    1.2821814787179555e+01 -2.0843691431066813e+00
    1.0917127350882906e+01 -1.7339730638190305e+00
    1.3256963458805636e+01 -1.7847522456503648e+00
    1.3251721257115280e+01 -1.8176566592773125e+00
    1.4356276015638725e+01 -1.6725283566726163e+00
    1.2972461402653861e+01 -2.1465422289746479e+00
    1.7646075718909234e+01 -1.6975896069525345e+00
    1.9510850979316942e+01 -1.9203443085822622e+00
    1.7814376526575444e+01 -1.8677197700486665e+00
    1.1392907782928472e+01 -1.6865857175972556e+00
    1.1974919744855118e+01 -2.5232994751833528e+00
    1.1920859417145458e+01 -2.5985374644932486e+00
    1.0626691185528792e+01 -2.2794312275537041e+00
    9.8711908343529231e+00 -1.9621247078524733e+00
    1.0922884288706706e+01 -2.2299245128972958e+00
    1.1971794780735520e+01 -1.7196407951090575e+00
    1.3888303498034926e+01 -1.7911727796075732e+00
    1.4247777111599039e+01 -1.9510174706623777e+00
    1.1610567212602009e+01 -2.2346300248919548e+00
    1.2777343765312189e+01 -2.5620140450249145e+00
    1.1809025745890816e+01 -2.0914560109851466e+00
    1.1867258070507708e+01 -1.8021379305276524e+00
    1.3901702198976372e+01 -1.4734186822300814e+00
    1.4550529984654604e+01 -1.3156844735446971e+00
    1.4575019671725110e+01 -1.1037667104047337e+00
    1.3378815028655186e+01 -1.2221214348952436e+00
    1.2297959897317517e+01 -1.5071718686016686e+00
    1.1801905038966549e+01 -2.0340636189538137e+00
    1.2164314352679506e+01 -2.2341280012927065e+00
    1.0785314446557598e+01 -1.8996928193808797e+00
    1.1769625577844241e+01 -1.6859533852746686e+00
    1.4299063403391871e+01 -1.4821359806731031e+00
    1.2916118717832891e+01 -1.4175939526088099e+00
    1.1599995677494270e+01 -1.1721022236193914e+00
    1.2386882859893765e+01 -1.2825031157870745e+00
    1.2685471747320355e+01 -1.4998706119312319e+00
    1.2594239630169811e+01 -1.9050866164195273e+00
    1.2770304643683561e+01 -2.7111826302705091e+00
    1.1954576484552318e+01 -2.3032883432023992e+00
    1.1544614520901082e+01 -1.9477345550158001e+00
    1.3432873410921978e+01 -1.7527709095362003e+00
    1.3621904833891307e+01 -1.5636091258683495e+00
    1.3497698665285764e+01 -1.3302367839294604e+00
    1.4038499686999879e+01 -1.5392894906940160e+00
    1.3850420151714253e+01 -1.8792326550609935e+00
    1.2410499613642720e+01 -2.3189250793605698e+00
    1.1862815460951927e+01 -2.3506473070100675e+00
    1.1390922446434889e+01 -2.1508048318510600e+00
    1.2318442568413698e+01 -2.0133998180880117e+00
    1.4463962723621471e+01 -1.8678085332581065e+00
    1.2971965213721305e+01 -1.7412221224410802e+00
    1.2250678425506271e+01 -1.4855352169167035e+00
    1.3436459688462751e+01 -1.7289763210388469e+00
    1.4283412982036900e+01 -1.9660653176650327e+00
    1.1599087048142721e+01 -2.0546022051270110e+00
    1.3215045970278863e+01 -2.1921433820207703e+00
    1.2618226408507276e+01 -2.0283413986521186e+00
    1.4401793273098962e+01 -2.0159496180010792e+00
    1.7194282495677559e+01 -1.7121662426182571e+00
    1.3582012940057190e+01 -1.5201961667450381e+00
    1.2760117918552384e+01 -1.3554807657457877e+00
    1.2522223318804421e+01 -1.5136479752444083e+00
    1.2860350571236973e+01 -1.7133648820116862e+00
    1.3739117422348007e+01 -2.1315523973767987e+00
    1.3697971602476288e+01 -2.2740112774370216e+00
    1.2400817930255446e+01 -1.9754761874493649e+00
    1.3105522932209363e+01 -1.8630932838718277e+00
    1.5233998588698663e+01 -1.6719925391006660e+00
    1.3676350433763291e+01 -1.7042475319731627e+00
    1.2171786859793496e+01 -1.5269856619658031e+00
    1.1420545830906002e+01 -1.7034904820170884e+00
    1.2352795536507722e+01 -1.9028249967966537e+00
    1.3716141554686228e+01 -2.2624946692385803e+00
    1.3416082479476339e+01 -2.4200684471524685e+00
    1.3539044982576058e+01 -2.4060743849353954e+00
    1.4607978184998865e+01 -2.4614952336655809e+00
    1.3982521924725887e+01 -1.9001575710328733e+00
    1.2745928151398591e+01 -1.7784751441182631e+00
    1.3291337230125741e+01 -1.6340288026265044e+00
    1.3489499799657198e+01 -1.7175422233082376e+00
    1.3301084576870151e+01 -1.8472557313286733e+00
    1.3350374833273424e+01 -2.1625825635802207e+00
    1.3558640241774512e+01 -2.4893256261085965e+00
    1.2445385658837237e+01 -2.2746407224943281e+00
    1.2373329043624437e+01 -2.1714532950048926e+00
    1.2298813452869972e+01 -1.8953204375470531e+00
    1.3000719503560155e+01 -1.9719045569268003e+00
    1.3795575079060439e+01 -1.8315179413862053e+00
    1.3303851151694365e+01 -1.8649050452459732e+00
    1.3420790469666093e+01 -2.0039634764027361e+00
    1.4323278593695166e+01 -2.4129283232092993e+00
    1.0813661706384803e+01 -1.4771236518869386e+00
    1.0361949092981737e+01 -1.6926723666674677e+00
    1.1185560302332359e+01 -1.6399181687802649e+00
    1.2991395049308826e+01 -1.3493343001342812e+00
    1.0606608638060543e+01 -1.4422283409260086e+00
    1.0449927523692349e+01 -1.3291564620275782e+00
    1.0602374012421190e+01 -1.3999887873309724e+00
    1.1797341627856548e+01 -1.3624245303388534e+00
    1.2634600551229777e+01 -1.4446267196655143e+00
    1.0412850052672054e+01 -1.5746639995348430e+00
    1.0799952926986320e+01 -1.9024750400559125e+00
    1.1922785642132807e+01 -1.7449189302380774e+00
    1.2903156201638289e+01 -1.2922050667334699e+00
    1.1365600589440765e+01 -1.6023845573759121e+00
    1.0716795104742751e+01 -1.4262882197718214e+00
    1.1648140227217727e+01 -1.4695726666153266e+00
    1.1616616668755544e+01 -1.2810788538064255e+00
    1.1996785767402717e+01 -1.4080639857027035e+00
    1.0337728671199416e+01 -1.7174367327213684e+00
    1.0216677231248605e+01 -1.9865950408424486e+00
    1.0800303852603632e+01 -1.8243679015536194e+00
    1.1982027555042283e+01 -1.3986932311508078e+00
    1.0003697872353619e+01 -1.4858128860115614e+00
    1.0580000319602377e+01 -1.2676939931975646e+00
    1.0781281687881883e+01 -1.4482294918231207e+00
    1.2375378670735683e+01 -1.4855513588513991e+00
    1.2809237430719524e+01 -1.6995508705572908e+00
    1.0161174074244505e+01 -1.7944402495633216e+00
    1.0363677008828406e+01 -1.8874706071388661e+00
    1.1442346072896777e+01 -1.7614104668577304e+00
    1.2816661925372173e+01 -1.3654070011591102e+00
    1.0842730889383541e+01 -1.5926015736107892e+00
    1.2432101462242205e+01 -1.4737230085151545e+00
    1.0379857997762896e+01 -1.4261552594496938e+00
    1.1388233128769256e+01 -1.4860384603164607e+00
    1.1177938769441067e+01 -1.6797023846911907e+00
    1.1888149569317912e+01 -1.4467869083963589e+00
    1.5915671227473373e+01 -1.5116932899558082e+00
    1.9320411483941772e+01 -1.8731235367524832e+00
    2.1357536073047434e+01 -2.1676169853376019e+00
    1.4453164009773378e+01 -2.5939123605562959e+00
    1.7379131183782984e+01 -2.0437983650381910e+00
    1.8132643832607190e+01 -2.1995937119217213e+00
    1.5736244429351551e+01 -1.7471073073317509e+00
    1.2568841399962608e+01 -1.5366638111232933e+00
    1.0835258895844570e+01 -1.8727132145838516e+00
    1.2618547507787918e+01 -1.9832927247476995e+00
    1.3399074421745299e+01 -2.3623542137707516e+00
    1.1779066493730438e+01 -2.2968301389627577e+00
    1.2440510629604777e+01 -2.8321226972933262e+00
    1.0813474269553547e+01 -2.1817368483261306e+00
    1.1603777934960895e+01 -2.2456737537396467e+00
    1.1157454539088043e+01 -1.9481361082763344e+00
    1.0992607842665954e+01 -1.8535417560296090e+00
    1.4326171966933700e+01 -1.5020385828200900e+00
    1.8224202058834514e+01 -1.4947335227205776e+00
    1.8956614893398282e+01 -1.5962905638856442e+00
    1.8723801440868783e+01 -1.5367498746583677e+00
    1.3798491441737083e+01 -2.1977486789118390e+00
    1.7619621115598747e+01 -1.7839864098228635e+00
    1.9761650203345511e+01 -2.1888609399509753e+00
    1.9484511652203015e+01 -1.9334797105089592e+00
    1.5119545947750449e+01 -1.6315193863333182e+00
    1.2647760316729006e+01 -1.9604291632646251e+00
    1.4863357445963885e+01 -1.9591853399304509e+00
    1.3685817845085479e+01 -1.9324598281018617e+00
    1.1875264800886296e+01 -1.8238955199035114e+00
    1.1975083554829329e+01 -2.5822222283234728e+00
    1.1190026273835628e+01 -2.0952760194854902e+00
    1.2036837670536050e+01 -2.3732482050091668e+00
    1.2317064449623766e+01 -2.1280158472632138e+00
    1.3859695383159941e+01 -2.1772982706019364e+00
    1.1585127509865254e+01 -1.9920011708189274e+00
    1.1491551996700293e+01 -1.8918420599838086e+00
    1.2272773723758091e+01 -1.8814613585883275e+00
    1.2005366988579482e+01 -1.6248240249705797e+00
    1.1664724061550439e+01 -1.8085460052359073e+00
    1.5348974263042200e+01 -1.8779360050368163e+00
    1.3717161555435412e+01 -1.8142327553959101e+00
    1.3620792088401759e+01 -1.7340371682778777e+00
    1.1583269473559161e+01 -1.7623676023668691e+00
    1.1457654361215045e+01 -1.8800887654861456e+00
    1.3093585867996856e+01 -2.1852893739417474e+00
    1.2591252319399064e+01 -2.1137069060816036e+00
    1.2997193147039651e+01 -2.0188363871451100e+00
    1.2588927207257022e+01 -2.2222642750658630e+00
    1.3924397243670541e+01 -1.9643319853486900e+00
    1.3292897710022604e+01 -2.0170743004291065e+00
    1.2423705226138097e+01 -1.7830771318252290e+00
    1.1019820136771932e+01 -1.7154673755293837e+00
    1.2188771381981393e+01 -1.7246605703645503e+00
    1.2273131217318369e+01 -1.6520806955000977e+00
    1.1964904850285052e+01 -1.6762000978557570e+00
    1.2214988282027541e+01 -1.4766721044234188e+00
    1.1013229822877562e+01 -1.6093227711857239e+00
    1.3356373742076308e+01 -1.6060179900455580e+00
    1.3364261690906364e+01 -1.6976853811963470e+00
    1.4330719072834182e+01 -1.5802347444556077e+00
    1.2869400426393872e+01 -1.6001855148440383e+00
    1.2752924057709496e+01 -1.8963106798642764e+00
    1.2454848149736618e+01 -1.9308547414211190e+00
    1.1761140868461490e+01 -1.8037212805220462e+00
    1.1348697518229605e+01 -1.6322179383789424e+00
    1.1017695140120329e+01 -1.9296601566120390e+00
    1.3877860721990622e+01 -1.8703969412559125e+00
    1.3263573080666914e+01 -1.8479071952684545e+00
    1.3206903168864649e+01 -1.7022333475640199e+00
    1.3041686826763444e+01 -1.7546385652980288e+00
    1.1291228381640858e+01 -1.3767727830870449e+00
    9.7610075472402578e+00 -1.6878826683522048e+00
    9.4754731169523012e+00 -2.1097476269720916e+00
    1.1254626295150896e+01 -1.9508569007655538e+00
    1.0140338256519087e+01 -1.6553982430984513e+00
    1.4435206471244063e+01 -1.3683748896260133e+00
    1.4522451857202228e+01 -1.2915767926505350e+00
    1.3626160625605031e+01 -1.3060431286368084e+00
    1.2850520292183337e+01 -1.3539656119155388e+00
    1.0863795884257460e+01 -1.2188367632625750e+00
    1.1570642549607449e+01 -1.9008632249881894e+00
    8.4416000823059161e+00 -1.9555714406597979e+00
    1.0577023729747877e+01 -2.0208068255694891e+00
    1.0296994142359809e+01 -1.8159017708900997e+00
    1.3625703285307997e+01 -1.3663495286604976e+00
    1.3382326959118432e+01 -1.1687968096767525e+00
    1.2348006428857754e+01 -1.1259590317722949e+00
    1.1116956435944253e+01 -1.1581291692166340e+00
    1.3074170536728513e+01 -1.3923726787846982e+00
    9.6656243849308900e+00 -1.7045041555384794e+00
    8.1347327867608108e+00 -1.7755996907706091e+00
    1.0814456889758027e+01 -1.7479120455580239e+00
    9.2214168876391014e+00 -1.5237071029889337e+00
    1.4807109574463682e+01 -1.3089568791309307e+00
    1.6579869317913953e+01 -1.2343875333224319e+00
    1.4938095077188212e+01 -1.2246687446925826e+00
    1.3806543674155074e+01 -1.2883384622333107e+00
    1.2694615080771586e+01 -1.2134692240481202e+00
    1.1043755291796305e+01 -1.5156276504624846e+00
    8.1505091887421592e+00 -1.6133542147084516e+00
    1.0246194597712977e+01 -1.6847501060307375e+00
    9.3530313547762294e+00 -1.6527987608634844e+00
    1.3112021450390239e+01 -1.3232977607200780e+00
    1.5269890298368090e+01 -1.1712014421008730e+00
    1.4363835320830731e+01 -1.1039693014886265e+00
    1.2941571787989478e+01 -1.1561333706523358e+00
    1.0904773769371550e+01 -1.5632439915900986e+00
    1.1838002425658726e+01 -1.5246993133311673e+00
    1.2689222253573957e+01 -1.7680834155867635e+00
    1.2041717052381438e+01 -1.7517567958511304e+00
    1.0555164824459990e+01 -2.1753089058483148e+00
    1.2795287607553584e+01 -1.7763377860927982e+00
    1.4918462504578846e+01 -1.7388617290079689e+00
    1.3089449599229416e+01 -1.5339776128599261e+00
    1.1421829894049846e+01 -1.5783998153452532e+00
    1.0627459509352681e+01 -1.5676394961191915e+00
    1.2043402031129192e+01 -1.5465263014417072e+00
    1.2275839192702628e+01 -1.6558620376056286e+00
    1.2520800433417332e+01 -1.7627991880306524e+00
    1.1432392140377740e+01 -2.4393999662863979e+00
    1.3669988000135044e+01 -1.8804563656408273e+00
    1.3200445780331618e+01 -1.5992520169101128e+00
    1.2782975408508863e+01 -1.4716979371942440e+00
    1.1533005480268422e+01 -1.5951051065965829e+00
    1.1685349853876760e+01 -1.6146105077964306e+00
    1.5592933797535883e+01 -1.8214559290390686e+00
    1.2947760704310932e+01 -1.7092321386234046e+00
    1.1706219030073454e+01 -1.7172165242662276e+00
    1.0804907943880899e+01 -2.2383564866665746e+00
    1.2584394234083232e+01 -1.8147923549839113e+00
    1.4049040578724544e+01 -1.6700061461517526e+00
    1.4038672011056679e+01 -1.6019957262968911e+00
    1.1424693416053904e+01 -1.5638351871941474e+00
    1.1333732508087811e+01 -1.5870459048353973e+00
    1.4459438361673850e+01 -1.6348221630955713e+00
    1.0931772956577760e+01 -1.5004142003082319e+00
    1.0230171593381495e+01 -1.5845281678561800e+00
    1.1019161874024034e+01 -2.5085902973037859e+00
    1.4099442386649091e+01 -2.0715433322122330e+00
    1.3712200097778208e+01 -1.6790589973337120e+00
    1.3057967782687930e+01 -1.5621398943175955e+00
    1.0843118056577739e+01 -1.5359200927179864e+00
    2.0061115230558737e+01 -2.8354627877159042e+00
    1.9888730883968734e+01 -2.3681513433466947e+00
    1.9711395082465955e+01 -2.5712996682745612e+00
    1.8508727859751716e+01 -1.9846118922630953e+00
    1.8655718668260100e+01 -3.6936782849090943e+00
    2.1368478680240823e+01 -2.3741390292659585e+00
    2.1630077474689521e+01 -3.0576801361081984e+00
    2.0814291283354635e+01 -2.7323604828752464e+00
    2.0610137964695316e+01 -3.0145760323414570e+00
    1.8996680569420121e+01 -3.3989784824699769e+00
    1.8551090055991160e+01 -2.9139012970950069e+00
    1.7285643248903067e+01 -2.9301313554979864e+00
    1.4721940353523095e+01 -2.2074628774103000e+00
    1.9330074832994878e+01 -4.3040301599851496e+00
    1.3039049823074574e+01 -2.2272985629909727e+00
    1.5043444996286510e+01 -2.9266789092387153e+00
    1.5957372279220706e+01 -2.8802576173496846e+00
    1.8528883631707178e+01 -3.4187573699261780e+00
    1.7116219685495352e+01 -2.5699333973546312e+00
    1.8596186292010451e+01 -2.2914970236538861e+00
    1.8316858666679433e+01 -2.4708831566048457e+00
    1.6950893982253138e+01 -1.8438982473673111e+00
    1.6839287312059788e+01 -3.3157464044499494e+00
    1.9864095373267396e+01 -2.1631504959546430e+00
    2.0212277468706699e+01 -2.8192184555523756e+00
    2.0869550690052648e+01 -2.6494676665445831e+00
    1.8027167372149272e+01 -2.7292555426067655e+00
    1.9670862234475241e+01 -3.4365970223799791e+00
    1.9987713795508075e+01 -2.9246452566854857e+00
    1.9745014219609452e+01 -2.9893495165783297e+00
    1.7107764056879532e+01 -2.1372346905081105e+00
    1.9242459602683127e+01 -4.1418018432084054e+00
    1.6010482223435389e+01 -2.2982417712554755e+00
    1.7287952363675199e+01 -3.0924393635195808e+00
    2.0312172765904005e+01 -3.2842111602541229e+00
    2.0327692632352530e+01 -3.6523693417615317e+00
    1.1284700685518608e+01 -1.9185610061575977e+00
    1.1952775685420397e+01 -1.7656603082357727e+00
    1.2932933165498076e+01 -1.8739779431995118e+00
    1.3742276443921211e+01 -1.6136178683864442e+00
    1.1685776282658191e+01 -2.0790908677561881e+00
    1.4771117595241980e+01 -1.8045769042382642e+00
    1.5198252040376914e+01 -2.2034967399025374e+00
    1.3711046708196653e+01 -2.0706258930805856e+00
    1.1858001696800631e+01 -2.0617063180191328e+00
    1.1854961078137492e+01 -2.2168872407568694e+00
    1.2052693900045767e+01 -1.9948195235410628e+00
    1.5424526271822712e+01 -2.2550954597859021e+00
    1.4201661737426619e+01 -1.7334764072317217e+00
    1.2141064674669952e+01 -2.3043591623102877e+00
    1.3785633092361184e+01 -1.8395725232248525e+00
    1.3654817173605432e+01 -2.0281240048510081e+00
    1.4255517424260709e+01 -2.1265058655570837e+00
    1.3092552356592027e+01 -2.3560086761825376e+00
    1.5308712474691069e+01 -2.2398834155608540e+00
    1.7472059151731646e+01 -2.1071018684841185e+00
    1.5512708623598144e+01 -1.9067471809428798e+00
    1.4418615824365961e+01 -1.5491937838948884e+00
    1.2385752651010986e+01 -2.2158230704660564e+00
    1.4913726952219506e+01 -1.7748211462048316e+00
    1.5479020914024503e+01 -2.1338522320915696e+00
    1.7495239549949368e+01 -2.3124455255284868e+00
    1.5857481135382653e+01 -2.3849796733158879e+00
    1.4922553065756279e+01 -2.4005774536580970e+00
    1.7682007296560585e+01 -2.4066375688254542e+00
    1.5938187947706947e+01 -2.1954095602083075e+00
    1.4261467939529616e+01 -1.7700395186702342e+00
    1.3469146164261470e+01 -2.6403835680536609e+00
    1.3692940262262677e+01 -1.9065813933304681e+00
    1.4427584456301675e+01 -2.1763119529376307e+00
    1.5231257291931060e+01 -2.2255285626686594e+00
    1.4754246617419104e+01 -2.4110606197344455e+00
    1.1850463702657386e+01 -1.8873278656273196e+00
    1.1948845340232884e+01 -1.6179238992035361e+00
    1.1948443228650264e+01 -1.6148575391546836e+00
    1.7216400415897155e+01 -2.0238976520506724e+00
    1.1349964977937560e+01 -2.4867674554153778e+00
    1.4770563915587472e+01 -2.0685557504128562e+00
    1.5414273008011905e+01 -1.9723688952922669e+00
    1.5147649666316093e+01 -1.9173689754320347e+00
    1.2868206145205839e+01 -1.9501296035024152e+00
    1.2500975889462303e+01 -1.9039563636825907e+00
    1.3408386017414886e+01 -1.7766415600989123e+00
    1.2559836370508775e+01 -1.6875702382553717e+00
    1.7071173704930708e+01 -2.1713482697426101e+00
    1.1685837148788808e+01 -2.5766092412914650e+00
    1.5949583896991159e+01 -2.2497393253358395e+00
    1.4273241557501324e+01 -1.8107470353903319e+00
    1.4858425787779010e+01 -1.8329580390321172e+00
    1.2625163244437534e+01 -1.8987827583868069e+00
    1.3833929034768039e+01 -2.1470067395882784e+00
    1.6972696405370929e+01 -2.0774348532942399e+00
    1.6174618205511599e+01 -1.9588502476018899e+00
    1.7433610795308052e+01 -2.0186886815345848e+00
    1.1438510827519849e+01 -2.5162531873217575e+00
    1.3357970449480623e+01 -1.9405498018383738e+00
    1.6876352510771312e+01 -2.2079260767019733e+00
    1.6985258444326995e+01 -2.1848080754605204e+00
    1.4041062647582438e+01 -2.1775096886474712e+00
    1.1787975541143922e+01 -1.9010790101945676e+00
    1.4966989289504177e+01 -1.9026557101953494e+00
    1.5625442080548577e+01 -1.9669520512518506e+00
    1.6978838600897078e+01 -2.1481629867486824e+00
    1.2027941841596752e+01 -2.6892566411649628e+00
    1.3043108789489532e+01 -2.0930645754101502e+00
    1.4698572487631020e+01 -2.0795001341338240e+00
    1.4359993952141487e+01 -1.9920753385712209e+00
    1.1961421429397365e+01 -1.9635144872464152e+00
    1.3190126278057276e+01 -1.5170752314772380e+00
    1.6113644173404637e+01 -1.4954776622463650e+00
    1.5186982864578502e+01 -1.7300483714486008e+00
    1.0215564759057708e+01 -1.4531428733310969e+00
    1.1188802501813997e+01 -2.3443425391540424e+00
    1.3252422025782961e+01 -1.7109308285304425e+00
    1.4299364119581918e+01 -1.6302428489699958e+00
    1.3853516538635596e+01 -1.5590223675560624e+00
    1.2540770134347694e+01 -1.5498309501989489e+00
    1.2459694961993003e+01 -1.4420258997509121e+00
    1.5704120299710706e+01 -1.4246055911095210e+00
    1.0624687361325590e+01 -1.4923979967931402e+00
    9.1122298451328163e+00 -1.6368452928459631e+00
    1.1202705214101973e+01 -2.7425614361253281e+00
    1.2239886160040470e+01 -1.7432439720483788e+00
    1.3475038142461958e+01 -1.5333888796406463e+00
    1.3613825539057375e+01 -1.4848034056006520e+00
    1.2509670744573269e+01 -1.5323839401769066e+00
    1.1593511286510457e+01 -1.5240792547123538e+00
    1.6995911414782515e+01 -1.6559723151495165e+00
    1.5638869849083779e+01 -1.9231422485144347e+00
    9.8413530343693498e+00 -1.5383009975921729e+00
    1.1601034129743258e+01 -2.5948222408961508e+00
    1.3433652708028411e+01 -1.7556107154286964e+00
    1.4580467128387467e+01 -1.7145590504692778e+00
    1.4492264965402327e+01 -1.6803793931569706e+00
    1.1470874559484756e+01 -1.6292096419286601e+00
    1.1153554315512434e+01 -1.3988765600136981e+00
    1.6272206385512003e+01 -1.4574750789139765e+00
    9.4451428844045537e+00 -1.4439651595775511e+00
    8.3871192658759242e+00 -1.6591803055299201e+00
    1.1201960713745054e+01 -2.9319868089982424e+00
    1.4168419725789139e+01 -2.0594695345464715e+00
    1.3455299401431329e+01 -1.5984971358922808e+00
    1.3339192865306412e+01 -1.5273948553273358e+00
    1.1053469086301584e+01 -1.5097262314834607e+00</input_scale>
  <output_scale>
    5.2631578947368418e-01 4.9999999999999994e-01 5.2631578947368418e-01
    4.9999999999999994e-01 5.2631578947368418e-01 4.9999999999999994e-01
    5.2631578947368418e-01 4.9999999999999994e-01 5.2631578947368418e-01
    4.9999999999999994e-01 5.2631578947368418e-01 4.9999999999999994e-01
    5.2631578947368418e-01 4.9999999999999994e-01 5.2631578947368418e-01
    4.9999999999999994e-01 5.2631578947368418e-01 4.9999999999999994e-01
    5.2631578947368418e-01 4.9999999999999994e-01 5.2631578947368418e-01
    4.9999999999999994e-01 5.2631578947368418e-01 4.9999999999999994e-01
    5.2631578947368418e-01 4.9999999999999994e-01 5.2631578947368418e-01
    4.9999999999999994e-01 5.2631578947368418e-01 4.9999999999999994e-01
    5.2631578947368418e-01 4.9999999999999994e-01 5.2631578947368418e-01
    4.9999999999999994e-01 5.2631578947368418e-01 4.9999999999999994e-01
    5.2631578947368418e-01 4.9999999999999994e-01 5.2631578947368418e-01
    4.9999999999999994e-01 5.2631578947368418e-01 4.9999999999999994e-01
    5.2631578947368418e-01 4.9999999999999994e-01 5.2631578947368418e-01
    4.9999999999999994e-01 5.2631578947368418e-01 4.9999999999999994e-01
    5.2631578947368418e-01 4.9999999999999994e-01 5.2631578947368418e-01
    4.9999999999999994e-01</output_scale>
  <inv_output_scale>
    1.8999999999999999e+00 -9.4999999999999996e-01
    1.8999999999999999e+00 -9.4999999999999996e-01
    1.8999999999999999e+00 -9.4999999999999996e-01
    1.8999999999999999e+00 -9.4999999999999996e-01
    1.8999999999999999e+00 -9.4999999999999996e-01
    1.8999999999999999e+00 -9.4999999999999996e-01
    1.8999999999999999e+00 -9.4999999999999996e-01
    1.8999999999999999e+00 -9.4999999999999996e-01
    1.8999999999999999e+00 -9.4999999999999996e-01
    1.8999999999999999e+00 -9.4999999999999996e-01
    1.8999999999999999e+00 -9.4999999999999996e-01
    1.8999999999999999e+00 -9.4999999999999996e-01
    1.8999999999999999e+00 -9.4999999999999996e-01
    1.8999999999999999e+00 -9.4999999999999996e-01
    1.8999999999999999e+00 -9.4999999999999996e-01
    1.8999999999999999e+00 -9.4999999999999996e-01
    1.8999999999999999e+00 -9.4999999999999996e-01
    1.8999999999999999e+00 -9.4999999999999996e-01
    1.8999999999999999e+00 -9.4999999999999996e-01
    1.8999999999999999e+00 -9.4999999999999996e-01
    1.8999999999999999e+00 -9.4999999999999996e-01
    1.8999999999999999e+00 -9.4999999999999996e-01
    1.8999999999999999e+00 -9.4999999999999996e-01
    1.8999999999999999e+00 -9.4999999999999996e-01
    1.8999999999999999e+00 -9.4999999999999996e-01
    1.8999999999999999e+00 -9.4999999999999996e-01</inv_output_scale>
  <weights>
    <_>
      5.5594206630201509e-02 -1.3328243077421845e-01
      -1.5045095666505720e-01 4.9626215893537280e-02
      -1.0781532701175357e-01 1.1022327770306699e-01
      5.9813784397742077e-02 9.5015236876544895e-02
      -6.8383594172154408e-02 -1.1129929592116308e-01
      -1.2001239512155304e-01 5.3104699042415410e-02
      2.0805701544748968e-02 1.5113212916485036e-01
      9.0885908151025173e-03 -1.7186363801808798e-03
      2.3311214738900238e-01 -1.5235432995618584e-01
      -3.2509195516905044e-02 9.7695177640242895e-02
      -6.7811090442393019e-03 -6.8476740432845309e-02
      -1.0737356418667643e-01 -8.5700296209380994e-03
      1.4640879854317029e-01 -6.5582780681054442e-02
      -7.0999526387949166e-02 2.4112081951511769e-02
      5.7862706449050685e-02 -1.1060720499472472e-01
      -1.0952091610439363e-01 -1.1970341297295066e-01
      -7.9223921280282147e-02 -2.2637111235955399e-02
      4.6399101785613482e-02 -2.4017169396960043e-02
      -5.1587642813692486e-04 1.0901721797051767e-01
      -1.1841912374871419e-01 -1.2083935907061608e-01
      -2.1996172463141547e-02 -4.7555081138916197e-02
      -1.3227390899989824e-01 -1.9910188665849449e-01
      4.2235619168640944e-02 -6.2344013588355521e-03
      -3.7280157159158738e-03 -7.5621891013878326e-02
      -5.4930678733624588e-02 3.2137993251250552e-02
      6.4793098998630033e-02 -3.5900288318021743e-02
      -1.0673794659846080e-01 3.5042400348028850e-02
      9.5123268972156956e-03 2.5740607293129141e-02
      3.5579164347505118e-02 -7.2099286070725077e-02
      -1.5408466301793447e-01 1.3489468916365443e-02
      -2.6749022761658341e-02 1.4843080348827802e-02
      -1.1282530993397181e-02 2.2267708809403871e-02
      6.0173401543727509e-02 -1.0587713265068095e-01
      -1.2582485726556208e-01 -1.1935980174540206e-01
      -2.7968805866641390e-02 1.9540089506271921e-01
      8.8441021151973390e-03 7.1293727685727171e-02
      4.1800743700750695e-02 3.9366948487631899e-02
      -7.1246160828259728e-02 -6.2465749436411831e-02
      -9.8054877076104857e-02 -9.2031648573240605e-03
      2.5239706492856555e-02 -7.4822091594615794e-02
      1.4129670205098790e-01 -4.2182646380885128e-03
      1.0078635045552489e-01 -4.0756886815037169e-02
      -5.2994715850320617e-02 -8.8031523602476406e-03
      4.3865338577737514e-02 -5.2619013833992298e-02
      -1.3523733407405958e-01 -8.7545774772869886e-02
      2.0633669155429782e-01 5.8304214214395612e-02
      -5.5277954200016050e-02 1.1300739655191249e-02
      1.3953257183633513e-01 -9.4456798138177270e-02
      4.5288787780388799e-03 -7.1368240677460323e-02
      1.2459321487655056e-01 1.1786692890877474e-02
      -8.6218147752629745e-02 3.0847881264220466e-02
      1.5689670102222864e-01 -6.8055515512787268e-02
      7.9810697999597627e-02 5.6998270654764822e-02
      2.8673742318194827e-02 -1.3173652608771189e-01
      -5.3954563835793355e-02 2.0171256801876414e-02
      2.2527260590012629e-02 -3.7509025880034397e-03
      7.2816802544921844e-02 -9.7552574353105978e-02
      3.8357489019267943e-02 2.9763592509928848e-02
      -2.8820493707092973e-03 1.6819099288202569e-01
      8.1531831082817460e-02 1.7940845182423479e-01
      -2.0259809889729496e-01 2.5142266497317694e-02
      7.5370474396137921e-02 1.1115127895879520e-01
      -1.1048009784894315e-01 7.1600102687824407e-02
      1.5888151814991688e-01 -2.3857329044954821e-02
      6.1432469383220847e-02 -3.6789045346435491e-02
      -2.0461313445149329e-01 -4.2992100365430726e-02
      2.3858250689971344e-01 -9.3400656012431832e-02
      -1.9827912406498591e-01 2.1285010856227204e-03
      -7.7983997180804121e-03 5.5744843594994896e-02
      -9.6150347539917733e-02 -3.7769315339676680e-02
      1.1685539137252612e-01 1.5311345418862581e-03
      -1.2729214389804841e-01 -3.4218205754758910e-02
      9.6058172426009128e-02 -6.1085962012085639e-02
      -1.7361890650019132e-01 -8.1169128809056960e-03
      1.7190136325083507e-02 -2.0218152732184369e-01
      -1.4233467079332771e-01 7.4610451975625543e-03
      1.1495274423764691e-01 8.0735114345564796e-02
      -7.5674496084989773e-02 9.1108123813374214e-02
      -6.0410101591728063e-02 -1.3077686107006464e-01
      -4.3688292772724992e-02 -4.3508704802816031e-02
      -2.9758010010429090e-02 -1.5246897535399434e-02
      -1.4289275246600116e-02 -3.0729133299797547e-02
      2.5901314602456645e-02 -9.1182635413552593e-02
      -9.5596413526447543e-03 -1.2875278097283074e-02
      -2.1918673907642208e-01 6.2524756140168905e-02
      9.3274188926426624e-02 -4.1570007795036215e-03
      7.7822799803614354e-02 2.5863225633144245e-02
      1.6120628556573768e-02 -2.1259034090729143e-01
      -2.9291191973802438e-01 1.5366835001443083e-01
      1.8538650196930708e-02 -2.0627469025119301e-02
      3.7469043792659230e-02 2.6295662863537544e-01
      6.2893740145035057e-02 7.1834210167020596e-03
      1.1764593727354278e-01 1.4027627942273829e-01
      -4.0593568475282261e-02 7.2210203978697665e-02
      5.9361215153723758e-03 -1.1007676782942803e-01
      -2.7399892438864121e-02 -6.2575069516239881e-02
      1.5002112525774559e-02 -3.8812785708674073e-02
      2.9843630983800912e-02 4.9788970546389366e-02
      -1.1839340841692114e-01 -7.7655628893463377e-02
      4.0121868130971475e-02 7.2328478325980383e-02
      1.0810663306360154e-02 -8.1674370666213636e-02
      7.3987834992125023e-02 1.1003061741874363e-01
      1.8287260950475512e-01 9.1100043455483781e-02
      -1.1840294225041252e-01 -1.9669111166770631e-01
      -1.5029739218670854e-01 -3.1484645876218013e-02
      -2.7069456246094973e-02 1.3302867673411969e-01
      5.4139817401842039e-02 6.6534361003628736e-02
      1.4957648214928641e-02 2.4316906153447344e-02
      1.6181275259586494e-01 -8.3730947470783829e-03
      -4.5140634528834447e-02 -2.7873307882639264e-02
      6.5414246143705099e-02 -4.1093878014283963e-02
      -1.1662232669612622e-02 7.2715094395415972e-02
      1.1456012040410994e-01 5.5542753678130087e-02
      5.6824551156013751e-02 3.6268793669813892e-02
      7.1789465462272746e-03 -3.3136504108981696e-02
      2.6616901884114537e-02 -1.9324462419071275e-01
      6.0235774242502316e-02 3.3729472621145729e-02
      1.1744488443806056e-01 -7.3516304520629544e-02
      1.7340368964190891e-01 -8.5240253416173084e-02
      -1.1276133833613666e-01 1.5526365025050524e-02
      8.2812313234097625e-03 9.3555593248737814e-02
      -3.0824670898862618e-02 -1.1138660708577702e-01
      5.6358192087331747e-02 -2.2675571501935863e-02
      -1.2723374581617855e-01 -3.5237915744840143e-02
      1.1537795864754128e-02 1.1834268429109640e-02
      -3.2626103037272751e-02 5.1135796587981723e-02
      1.0868900811884920e-01 -3.6713878127555208e-02
      7.0646547035349741e-02 -3.1997771279796755e-03
      -6.3527536378217772e-02 5.6177593735055882e-02
      -1.8244616857775894e-02 7.2446322910810157e-02
      6.4418351506258312e-02 -2.2662926821281443e-01
      -6.7944313081897773e-02 -6.1893791374444389e-02
      1.0596917829823961e-01 -5.8030325092949038e-02
      -5.6969035987453384e-02 5.9591531763618109e-02
      -8.9101304804823783e-02 5.1972370768687111e-02
      3.1744023540152114e-02 8.0805765959607825e-02
      -4.2732901929824110e-02 -4.6052536985773995e-02
      -7.7899437694921470e-02 -5.6256200575726625e-02
      4.7051749199073692e-02 1.4523560519123715e-01
      -5.6486247372062169e-02 -1.1954237025697251e-01
      -4.2303381889525309e-02 5.3501319564026421e-02
      -6.5907477101374817e-02 4.9586403108498309e-02
      3.9992475049256015e-02 8.3284294244655749e-02
      -7.7956793856287426e-02 -1.5610330809204620e-01
      9.4010475996377699e-02 9.1239320684264338e-02
      -5.6594259567984889e-02 -1.1976471075134676e-01
      9.1083415149314451e-02 -1.5440386652695370e-01
      -2.3957025385640471e-02 1.8533889053910634e-02
      -5.8297248113879978e-02 -3.3071474825402465e-02
      6.0896154634717029e-04 1.2434979604979937e-01
      1.3055361016649897e-01 -1.6468439646088004e-02
      -1.4030008085270620e-01 6.8532390110362065e-02
      -5.5979930822665717e-02 -6.0439852114424583e-02
      1.0958141198027649e-01 -4.6781826934641033e-03
      -4.9222639878440277e-02 2.0822581254364853e-01
      -1.1164577566208056e-01 9.4026060548974236e-02
      4.5497237028270930e-02 -9.3367166603511034e-02
      4.4058432294450063e-02 -3.0297543849763568e-02
      9.5306075800398904e-02 -3.3138492321795519e-02
      2.5997093809901898e-02 6.3294357960285069e-02
      1.8094949511141523e-01 8.6253192181475841e-02
      -9.2033754846555316e-04 -3.6397806898978396e-02
      1.2100195837092211e-01 -7.5497289078730684e-02
      -1.6791993112996706e-01 -7.0738615244306649e-02
      5.5868132901193530e-02 5.5404591159748259e-02
      6.7268394847818255e-02 1.3360518727896029e-01
      -2.8719649600116269e-02 2.8946427442139225e-03
      -5.8887297237661576e-02 -2.6568178510989443e-02
      6.7428702321747089e-03 -1.2292242573650292e-01
      -4.5545082222864616e-02 -8.4109133027980482e-02
      -4.4036513196451826e-02 4.6153551872763800e-02
      -1.2186154355066011e-02 7.2952817033330467e-02
      2.9473049184701880e-02 1.1643872791087040e-01
      5.4754192631956036e-02 -8.0489909127340206e-02
      -3.2450487388063123e-02 -9.5695251352540006e-02
      -9.9911156808036184e-04 -4.8281365182665230e-02
      -1.0861006632809787e-01 -3.3610824361055003e-02
      1.0516455873208231e-02 3.5528929042097847e-02
      -9.3637145736800681e-02 -1.3094094699874398e-01
      2.5572769011931690e-02 -1.2359381820616580e-01
      -1.7358482467249342e-01 1.8195822271229517e-01
      2.1001695674399426e-01 -1.0355114420039180e-01
      7.2951058565557378e-02 8.4023381227254584e-02
      -8.2861648393123807e-02 1.2786279510220683e-01
      -8.0711568825480876e-02 1.2254904920783888e-01
      -7.8647743942577078e-02 -1.8696981729202403e-01
      -4.5467698960442317e-02 -1.0770041301193618e-01
      -3.4285212019853219e-02 1.4191804866242716e-01
      9.3720801733057617e-03 -4.0121769900694805e-02
      -2.5411771478880840e-01 -5.2205123720455403e-02
      4.2020366936066894e-02 2.6320663742774038e-02
      1.0653732365897899e-01 1.4943009440399124e-01
      -4.0199092280218396e-02 8.9895796387826091e-02
      -5.6943076900951559e-02 1.0722469917316641e-02
      -1.6578833516917443e-01 -2.2581281113365219e-03
      5.4858296720556851e-02 5.9365269365052167e-02
      -1.1057214266768862e-01 1.1559414726257869e-01
      7.3761264196421900e-02 -1.8257461311627820e-02
      -1.4179552013314081e-01 2.0627502404320652e-02
      1.0608966278347809e-01 2.1351571159375668e-01
      -1.0914432101757225e-01 1.8039781735201776e-02
      -2.2481576772691716e-02 -1.9043789432190278e-01
      -5.0816066416709696e-03 -8.6105539297598552e-02
      -1.4906067020214377e-02 5.8413336791913906e-02
      -1.0640478347228809e-01 -3.6097875314413705e-02
      8.6929029562317670e-02 -6.5209527240368881e-02
      -2.7268241103199583e-02 2.3468117499074910e-02
      9.7469605823982175e-02 4.0470104244479499e-02
      1.0157724311914840e-01 -9.4270227271719742e-02
      1.1937253806957904e-01 -1.3817793682554871e-01
      1.0053915691671810e-02 2.6697770970646356e-01
      5.0406601632537087e-02 -1.8726897925909811e-01
      -1.1583896785654478e-01 2.2112581130420913e-02
      6.8097954368688124e-03 7.6314331350457515e-03
      1.0224054636761763e-01 -7.4116743999018513e-03
      -3.1217142657360249e-02 1.5174049830540720e-02
      1.2465469552269971e-02 1.4069141731220844e-01
      -1.7257253678770252e-02 -9.0557318591673056e-02
      -1.0576481798434376e-01 -2.5792463550679190e-01
      -1.9832593824140390e-02 4.4110144042614194e-02
      1.9496360368154539e-01 7.9315476764907147e-02
      1.1768164642178917e-01 8.6016911611618257e-02
      1.1904531566194922e-01 -1.3074008227687942e-01
      -1.0845694612442204e-01 6.0208657648306019e-02
      6.1170236320732235e-02 -7.3056221736945634e-02
      1.1018592583183552e-01 2.6328944471187854e-01
      1.0674424065630923e-01 -1.6003417735217004e-02
      -1.3750393553476650e-01 -4.3890505343014008e-01
      -1.4887643149929372e-01 7.0268878865191800e-02
      -4.7606500055088770e-02 -2.6862044122780637e-01
      1.2109896707868252e-02 1.0954472798479142e-01
      -4.3324947160480000e-02 -2.0436136258905227e-01
      -2.1193925786856629e-01 1.4694289073043690e-01
      7.3492191063610809e-02 -1.7954592631968816e-01
      -1.5896762141865137e-01 -1.3617682589242935e-01
      6.6823634876032975e-02 1.8265342038492055e-01
      1.1565074522814707e-01 -3.2685304954574608e-04
      -5.7210959656183301e-02 9.7543573318405213e-02
      -1.0314601071652196e-02 -7.9814343824311670e-02
      6.4840192907237096e-03 6.9516452315494762e-02
      3.8836475672946888e-02 4.9696904842755033e-02
      -1.0480490331818838e-01 -1.7159141369243760e-02
      3.9727532396875993e-02 -3.7767785332229548e-02
      -1.4477548101446885e-01 -2.6381166754416353e-02
      -3.1498629733465860e-01 6.2395875358683073e-02
      7.0888171950928572e-02 -2.2455104859830211e-02
      2.2159660468286768e-02 2.3228825440380427e-01
      6.3883109736749460e-02 -4.6441183507624523e-02
      1.0468105087131867e-01 4.3463641402684335e-02
      2.5606787943811241e-03 3.6914110539258679e-02
      1.6068238871877530e-01 -1.1434253259706839e-01
      -9.3746764712085233e-04 2.8308790815048671e-02
      -2.5689184747048738e-01 6.2438558325864729e-02
      1.3626988502809900e-03 -8.7378093440172167e-02
      -9.7817745033556586e-02 -1.5218564106119725e-01
      -4.9165390767311655e-02 5.2154400310575659e-02
      4.2825562033499964e-02 -8.6561783693098263e-02
      -4.0136801252924445e-02 2.2506122078925966e-01
      1.5215925736168853e-01 -3.6470725157776546e-01
      -1.8363595592217702e-01 -1.5415160625958864e-02
      5.3298823765985860e-02 1.5658001632011795e-01
      -2.0457060426152604e-01 -2.1078670689629733e-01
      1.7474949076220503e-01 -1.1803818525115817e-01
      -1.6887695453816673e-01 2.4067429565618237e-01
      -2.0426857678831230e-02 -6.2743969296454885e-02
      -2.0230320035243535e-01 -1.1133450585584680e-01
      5.5702975772253312e-02 1.9000060669335964e-02
      -6.8664884706681459e-02 -1.8075647467384967e-01
      -1.9992800782004860e-01 4.5585811851852225e-02
      -1.3276587308031801e-01 -6.8922299245506177e-02
      -5.8831587566540958e-02 -1.8782463387229845e-01
      1.2629266785933574e-01 6.9305262662694600e-02
      7.3227402015128645e-02 -8.8144565289123233e-02
      1.3689641008786446e-01 1.3612636007026990e-01
      -3.3714883969009742e-02 -4.7112219884530543e-02
      1.8511703774825871e-02 3.0696988440416982e-02
      -8.7689813093278696e-02 -2.0898218545152142e-02
      8.0092650111024802e-02 5.5261239210747284e-02
      -2.4408374210126135e-02 2.3240054051582675e-02
      6.5286209307874016e-02 -3.4067961163343291e-02
      -9.3433823598249630e-02 4.5389046509513031e-03
      7.9622328044238355e-02 1.1360128313211428e-04
      -7.2695446525660568e-02 1.0522746333205300e-01
      5.6195389394691084e-02 5.0825072576914584e-02
      3.6002469941616613e-02 -3.1608750153266661e-02
      7.6361621194788495e-02 -1.2358205070396754e-01
      7.4722236227648939e-02 4.2389400868832992e-02
      -1.6842489015983134e-02 1.2694693590452946e-01
      -1.7857404193066275e-02 -6.2312900835530746e-02
      -2.8452384545259314e-02 7.6174803901592786e-02
      -6.7593407702619526e-02 2.5400011909919137e-02
      1.7314647245365571e-02 -5.4644269051575087e-02
      1.7150313085745172e-01 7.4576000872831880e-02
      4.6216279247543589e-02 1.5558304390840222e-01
      -1.8598941448150447e-01 -8.0422633907692331e-02
      -5.5806419305062402e-02 1.0956809846575329e-01
      1.7546359816694615e-01 -1.8284838462136069e-01
      -1.7486176945149459e-01 1.7896351565411980e-01
      5.9277914511577080e-02 -2.0598554870810701e-01
      -7.4021733284802937e-02 -1.4998627103098328e-01
      7.5622524402535321e-02 1.5583282449470090e-01
      8.9478275908557392e-02 1.2674978495642153e-01
      -6.0285035520113835e-02 2.6199665896192496e-02
      -1.7750427584795839e-01 5.8390919190049573e-02
      -2.8905649897820986e-02 -7.1691461410431007e-02
      -8.2032320787979313e-02 1.0888428272831016e-01
      1.1655067379747121e-01 2.6231777551467564e-02
      -5.1890356678886133e-02 -1.2542080178630621e-01
      4.1677835729110914e-02 -1.0370379233370806e-01
      -2.2801075589653528e-02 -1.0718041164316455e-01
      5.2708575843363602e-02 2.2142565906043042e-02
      3.5486396535428302e-02 -7.8006339684994777e-02
      1.2177603932438087e-02 1.7811649917083922e-01
      4.7172816075403240e-01 -9.3170304236694965e-02
      -5.3550948572705155e-02 -1.1625777197298252e-01
      2.4485529407421339e-02 1.7383140820080961e-01
      5.9291510499420344e-02 -4.0182982220310047e-02
      2.0195375946222219e-01 7.7622280237188798e-02
      -1.9486219665298921e-01 1.1263827085326701e-01
      1.8343790825592451e-01 1.6821882645281244e-01
      -1.7946965076859980e-01 7.0775990950443415e-02
      5.4818616623773908e-02 -1.2202127027201244e-01
      -1.4188321073127150e-01 2.8136661675057506e-01
      6.9023944629044404e-02 3.0875886832731431e-01
      2.0384891622205967e-01 5.9320184250636371e-02
      -1.0788009527460676e-01 -3.1986802486981006e-02
      8.0387999616645278e-02 -1.6725975425373329e-01
      4.2240784868912166e-03 -1.0083782856651917e-01
      -1.4238562733163074e-01 1.4942855049437476e-01
      1.6235725288133251e-01 -1.0876304928738199e-01
      6.5797538394700816e-02 1.2647159690822204e-01
      5.2146764274627756e-02 -2.4882952385513168e-01
      -2.1770122490008975e-01 1.0032070513039301e-01
      -3.8580113363975263e-03 -5.7858067825612397e-02
      -1.1845318018372756e-03 -4.3349313536941998e-02
      6.2232240237563519e-02 -5.4529321798332343e-02
      4.6690971420454471e-03 2.1790087917241577e-01
      1.9657375805150146e-02 -1.2803303096520641e-01
      1.3864775705610372e-01 -3.8250463453262398e-02
      -8.3834275943946532e-02 -9.3846826334097536e-02
      -1.8983643732755413e-02 2.6614412284779859e-01
      7.7363881483359612e-02 3.6586092306612403e-03
      6.2949676976934835e-02 -1.8603070049981063e-01
      -1.0727077731167782e-01 -3.0107197597469246e-02
      3.0729557054142681e-02 -1.6542068296740969e-01
      -1.9804700685171390e-02 5.6371336044335342e-02
      8.5054335782627666e-02 -6.1685800835149775e-02
      -1.1498621485205872e-01 -3.4452195314388659e-02
      8.5512506160311128e-02 -9.8214237999163595e-02
      -2.3554920455548096e-02 2.4116123738645401e-01
      -1.6309954735162258e-01 1.0330176985902770e-01
      -3.1490221334058727e-03 -2.1369714866493160e-02
      -1.6985156145425151e-01 -1.6113502908633705e-02
      -6.9825396071774792e-02 -4.4180847060394934e-02
      -8.0764095762699176e-02 -7.6755816742385713e-02
      1.2740276103773029e-01 1.3378674324873358e-01
      4.3655439759769439e-02 1.7834782368591016e-02
      -1.2744337909690509e-01 -4.6612393297057873e-02
      -8.6673537967417863e-02 1.7328364870106801e-02
      -2.8849697144908121e-02 5.4989204583658448e-02
      1.2757506549910894e-01 3.0890215031761488e-02
      -1.3820525152011892e-01 1.3552366783358502e-01
      -1.6969705983697086e-01 -1.1492761341832355e-01
      1.3769377305350844e-01 1.3195854489276798e-01
      2.1026199021598216e-01 1.9619837880283118e-02
      3.8898643634023296e-02 5.3776445688601238e-02
      -7.9874875005617477e-02 -1.7145018628629999e-01
      -3.0934645404677114e-01 -5.2129698008212044e-02
      -2.0553919783097838e-01 7.6234923871428037e-02
      -4.9203134243696274e-02 -1.4093702276696610e-01
      7.0674437002359050e-02 -6.3787476332008750e-02
      -1.4653155067285606e-03 -1.3719801457386449e-01
      -4.5950719164295703e-02 8.2247809024681082e-02
      -1.3372943083460448e-01 -9.8635121625811312e-02
      6.9687387926706135e-03 -4.4469418034563293e-02
      1.2793761570222564e-01 1.1175992788749130e-01
      -1.1207303564408759e-03 -1.2994277640325927e-01
      6.7262134817341834e-02 -1.1750060029725022e-01
      -6.3774944857197244e-02 3.2611678880795253e-01
      -3.1545805562960258e-02 -8.5432103046030272e-02
      -1.5262297751651896e-01 -1.1792049603734681e-03
      -1.8064405522358237e-01 -2.3043567930541412e-01
      2.8080924017366726e-02 -5.6296602474995390e-03
      -1.2735423368038130e-02 -7.6701823368286154e-02
      1.6990181412018113e-01 -2.6019024992982592e-01
      -3.6080353771030263e-02 1.4335751861784918e-01
      -1.9099307942555151e-02 -2.0967238208180914e-03
      -1.8339467585775877e-02 -1.0464830437962831e-01
      -5.3326847219451558e-02 -1.2945603634855482e-01
      -1.0682615017734294e-01 2.0583746740142503e-01
      -2.0345177214714058e-01 1.5514713524582605e-01
      1.0891761553360980e-01 -3.3300129281081461e-02
      7.1098612713718569e-04 -5.4528649979593488e-02
      1.6709887802392226e-01 -9.3375800899735545e-02
      -2.2562423832915329e-01 2.9600448837506815e-01
      5.0661071569311947e-02 7.2500756797742344e-02
      1.6340289579405234e-01 -9.4157370526992981e-02
      -1.5669009479183341e-03 -4.9666886837910380e-02
      5.0398013185258120e-02 1.6240164929959131e-01
      -2.3252042336826803e-02 -1.1504877374254624e-01
      -4.6055748141192406e-02 1.3488745534331503e-01
      1.9989073889043793e-01 1.0998879767472360e-02
      9.1405187510620572e-02 1.1860425076886254e-01
      7.3080166976239702e-02 -2.0480471517028792e-01
      -1.4100555914595725e-01 1.4805826138819933e-01
      2.1468612468005890e-01 -1.2562048223101263e-01
      -2.1743819222003596e-01 1.7851100638867912e-01
      2.2311236008435278e-01 -2.6739402654589788e-02
      7.9279011391581635e-03 -1.0743335185196894e-01
      -6.7287382537487395e-02 -1.7409817817190931e-01
      -1.1435130915230619e-01 1.0964051349062268e-01
      3.8297050402778900e-02 2.3851819655950432e-01
      9.8958489824633539e-02 -8.8439308588741217e-02
      -1.7701361888942416e-01 -8.8058795154651467e-02
      -9.9607721695425408e-02 9.3709380572091425e-02
      1.2988204047635812e-01 3.1747027430625224e-01
      1.8613709576232035e-01 1.2131800847245744e-01
      -6.0647762829545974e-02 5.9354322353352640e-02
      -1.9899426252019881e-01 -8.2736913153358918e-02
      9.6822791987174750e-02 1.3322327430534067e-01
      1.6778147865701076e-01 -2.6067242186594040e-02
      -1.4169428022933794e-01 -2.2038957775272663e-02
      -6.7952338283936806e-02 -7.1515444327088741e-04
      2.4816416274035373e-03 -9.1870989640406769e-02
      -1.5115094411079635e-01 2.6697485648169275e-02
      -2.4168757007244537e-02 9.9743841646228709e-02
      -5.4365861115212959e-02 9.8160736706621843e-02
      5.7349142422685427e-02 5.5697289939557838e-02
      -9.7096761733982809e-02 3.2210736878741775e-01
      -9.2254803173690156e-02 -1.4957151245012029e-01
      4.1059485453330609e-02 -1.5260632871305008e-01
      1.4972590144926308e-02 4.2887869758202257e-01
      9.4262519223671154e-02 -2.9761842538983695e-02
      -3.5972360754180387e-02 -2.1637751104502009e-01
      -2.8178518005273778e-02 -1.8669777793141298e-02
      7.1574186489679267e-02 -3.6355361679653274e-02
      -3.2689058196138741e-03 -1.2111785462947849e-01
      1.8084659816392301e-01 7.7027012799285130e-02
      -3.6498672126644253e-02 1.9985360954429673e-01
      5.4088645219102907e-02 -1.7639589982557946e-01
      -2.1221661321834801e-02 1.8125029034860230e-02
      -1.3329799122290070e-01 -1.6081386366835114e-02
      -4.6464923441581533e-02 -2.3272267650877085e-01
      -2.7931670801006770e-02 1.7536262829077387e-01
      -6.7143246862932755e-03 2.4532867476670574e-03
      -5.3890753032682530e-02 -1.8003018994511330e-01
      -7.9323026509776684e-02 2.5663178314640701e-02
      5.6060333327490885e-02 1.8160315161539872e-01
      2.7093873147117465e-02 9.7276631832206362e-02
      -1.2019867953134762e-01 4.8843139751844740e-02
      -4.2634992445000047e-02 -1.4267328637726381e-01
      -1.0066255951319968e-01 4.9283177713927255e-02
      -2.7881485057063965e-01 6.3398137817634301e-02
      1.8951423373686990e-01 1.1155469536801632e-01
      1.8644176372766391e-01 -3.5934217892681884e-02
      -1.3022057459438369e-01 -4.0916045830433068e-01
      1.5358703577421198e-01 7.4526064648900242e-02
      -2.2080104159939263e-02 1.0750979141426596e-01
      1.3545991947057145e-01 -1.2549859757369858e-01
      -6.5871547375482967e-02 -1.1978063726363981e-01
      8.3904684242334271e-02 -1.5260820451039009e-01
      -9.6294182710734130e-02 1.8776326823432463e-01
      -5.5318964311487822e-03 -1.1376295394356423e-01
      -7.0257204372094983e-02 1.1662902069071157e-01
      -9.7118488081672477e-02 5.0484774037503399e-02
      -1.3149727997981400e-01 -1.4802452671956343e-01
      -2.7029617767523378e-01 6.4766155049491861e-02
      1.4153139988302590e-01 7.2527373340140144e-02
      6.6679396231713650e-02 -9.3020098533656378e-02
      -5.2178180042444559e-02 7.7692955197872393e-02
      5.7990360708847950e-03 -4.2142132300634447e-02
      -6.5842919134681353e-03 4.3990186252686379e-02
      1.8624708809165119e-01 -1.2778757825729106e-01
      -1.0942351621314692e-01 1.3580837496285397e-01
      8.3716094589246559e-02 -2.0163534272944594e-01
      -1.6267178171797478e-01 -1.0452517266936727e-01
      1.2236871829215035e-01 4.7701905150363648e-02
      5.6607935078484703e-02 -5.7468927999822152e-02
      -3.7161894072960965e-02 -1.4719351156065325e-01
      -5.8380032101166893e-02 3.8576265282279268e-02
      2.1455949332053953e-01 -1.0435614089939921e-01
      -1.4029400945461590e-02 -5.1157280709364901e-03
      -5.3024683543531285e-02 -5.4750524573538871e-02
      -2.8435805359130116e-02 4.0520836061025012e-03
      -7.6677641907302321e-02 -1.9639764640394360e-02
      -2.4694710254668953e-01 -1.0190554368237448e-01
      -2.4818722195333129e-01 -1.1553482543165548e-01
      8.8173165125975728e-02 9.6292330819048172e-02
      -1.4694242957637988e-02 1.8773550020210344e-02
      -1.9996657850620952e-01 -2.2482275994894690e-01
      -1.6601492019528463e-01 -1.4905746382137083e-01
      1.0653517187907507e-01 3.2034107258620059e-01
      2.7829938312484098e-01 -6.3163896153412516e-02
      -3.1777571254789472e-04 -2.2113749936893013e-02
      1.5344915979284032e-01 -5.8088473474757228e-02
      -2.0812715424264047e-01 -2.6380458075438405e-02
      -3.4780553303380618e-01 6.3273816334841415e-02
      2.4750321156547342e-01 6.5917783674249017e-03
      -9.3726937761706347e-02 9.7820947973753292e-02
      9.0848936927401494e-02 -1.7858438795323123e-01
      -1.6122092265050886e-01 -3.9778566483363510e-02
      2.7035346766805246e-02 1.1842122320090095e-02
      -1.3290154261636662e-02 1.8009644924756629e-01
      9.7997534636586503e-02 9.9335646807881581e-02
      1.0053789681495793e-02 1.5531995551294395e-01
      -8.3747243681548053e-02 -1.3701364273278518e-01
      -7.4960846561420200e-02 -5.4034840684254778e-02
      -7.9292395313749098e-02 3.9055833410884339e-02
      -1.6802696982899404e-01 -1.3088586857341108e-01
      -1.4395722150693605e-02 9.2191597510372786e-02
      6.6702452181422317e-02 1.5484184049381727e-01
      1.0446190588695553e-01 -1.0475422672205759e-01
      1.0252043698377353e-01 -1.3329761878001820e-01
      -1.7584506434830857e-01 7.3504580584651272e-02
      -9.0409466464899932e-02 7.2992837542762520e-02
      -1.5218273853637308e-02 1.7435632615495378e-01
      -1.3941492942233072e-01 -2.3311352110948733e-01
      -3.8946131624834915e-02 -1.5626506688112388e-02
      -2.2708882960326857e-01 1.0471992477615732e-01
      2.2519973223293152e-01 6.7439811696558993e-02
      -4.3064729118935073e-03 6.9966052673572310e-02
      1.9057069065307899e-01 -3.4185423214360385e-03
      -8.8529160693595649e-02 2.2488653317325008e-01
      3.9767101027768492e-03 -2.0938162276030517e-01
      5.2200456705922361e-02 -8.2598085386037592e-03
      -9.3929460264765962e-03 1.4017168268435898e-02
      -9.8375454416697820e-03 -4.6766714709118751e-02
      1.1674529333282155e-01 -3.1694684033171366e-01
      6.6510598343494418e-02 -2.7387844726786782e-02
      6.5218412127962524e-03 4.3182499405717452e-02
      6.3170680322797171e-02 -1.9137672615807755e-01
      -4.3968786178714206e-02 -1.3494174003365744e-01
      4.7847084227209548e-02 1.0797831878607697e-03
      -2.3816550678939097e-01 1.0124285370415466e-01
      1.1878654076270097e-01 -2.8070513077361264e-01
      2.8497628262007170e-02 2.3849133530811942e-01
      2.7703042019318683e-02 -2.4014728170899041e-01
      -8.5605222283964305e-02 -6.5842460622527521e-02
      -1.7276868074524818e-01 1.5058009322433011e-01
      7.0360059360799381e-05 4.6678242813799065e-02
      9.2026771834730833e-03 -1.8734007368309683e-03
      -9.5557922632410794e-02 -8.8613246164553142e-02
      -1.2491923687607852e-01 -1.3498567165368724e-01
      -1.7140348360850200e-02 7.8969657639635885e-02
      -6.9027014873789733e-02 2.7900464336019188e-02
      1.4846327669304898e-01 1.4336160960831648e-01
      1.9457216552673247e-02 -8.0480091359072629e-03
      7.7000231855225629e-02 -1.8588937681846680e-02
      -3.7718676176822959e-03 1.1743454158643246e-01
      -2.2958882299822479e-02 -1.6106412092959624e-01
      1.0783711923101628e-01 9.7779479620050028e-02
      -8.0719392231746678e-02 -4.8853354143513709e-02
      7.4160144091216879e-02 -4.8389526043738453e-02
      -7.1289383670263259e-02 -1.7257852903461049e-01
      7.1651088919098327e-02 6.5514202618382394e-02
      -1.7948187513127559e-02 -1.5147341492414047e-02
      -8.4186655943858532e-02 -6.6874334387997836e-02
      -1.0411368355326461e-01 1.1158826962555456e-02
      -1.9758233434749561e-01 -1.8296162352814352e-02
      8.2314127826323510e-02 -5.2553705161185099e-02
      -1.1177623731180931e-01 2.2383075414594330e-02
      -2.0713251989618181e-02 -2.1581132067085468e-01
      6.0896304103718497e-02 3.5227885537503056e-02
      -3.4350725493742046e-02 -1.2290209474969230e-01
      -2.9086793143997383e-02 2.2610706850709272e-02
      1.2508639227393686e-01 -2.1996876417012506e-01
      -1.2169029196108308e-01 1.2628161416874603e-01
      1.9437431251362498e-02 -1.3409624240394977e-01
      1.3897551054157997e-01 8.8912368358291631e-03
      1.1440194291857728e-01 3.1992583879371331e-02
      4.6701639123482141e-03 -7.7831714078897468e-02
      2.2073806805107028e-02 1.0795090979804388e-01
      -1.6256269545269988e-01 -1.1399575241295720e-02
      -4.5729840499626168e-02 -9.8557375308019057e-02
      3.8644623324472063e-02 1.2620335089652135e-01
      7.1983286271736405e-02 5.8588311276372262e-02
      -2.5837814932723456e-03 -2.7259723252254720e-02
      -1.7212505333713624e-01 4.1389896196337553e-02
      1.5819080150896381e-01 -1.9784361765979036e-01
      -7.9388438636873712e-02 -6.9296177317354851e-02
      -8.8893569128167302e-02 7.0483818395197601e-02
      -8.7829288435459826e-04 3.3175818327433042e-02
      6.8945948260885417e-02 -1.0212181149376448e-02
      1.2647463314176046e-02 -5.8711173691691966e-02
      1.1825644290899250e-01 -6.0045642945906934e-03
      -4.8504953761927615e-02 -2.0397292934998426e-01
      -1.8647967789936490e-03 -1.7156145928172220e-01
      -5.7387295042192775e-02 -2.1489942687947457e-02
      6.2360813855303579e-02 3.7209844054156831e-02
      -6.2279582278509833e-02 1.1092439262401275e-01
      2.3258438272414497e-01 -1.4777915358529126e-01
      -2.2037450756694402e-01 -1.4501530719143854e-01
      5.1222932517997144e-02 -1.4420379041607256e-01
      1.4355367131373576e-02 1.9479546048100871e-01
      8.7116569952982989e-02 1.3121468924034069e-01
      -1.4669548931796105e-02 -2.0695044442632055e-02
      2.5317846404422006e-01 -9.4669311487165231e-02
      -4.3464230553170842e-02 7.5446759275312553e-02
      1.1154393478514449e-01 3.9760505018334925e-02
      -1.3572382712796766e-01 -5.0443753111762905e-02
      4.3730964825758549e-02 -8.2505482534311558e-02
      6.5610014525408322e-02 -2.1904039224987606e-01
      -6.2637267238401420e-02 1.6628169050615252e-01
      3.3411118912119807e-02 1.2512514680309303e-01
      -4.3398092874184280e-02 7.4154213240476094e-02
      9.3679447149665557e-02 -8.5724654905629544e-03
      1.8333168830136390e-01 2.1456507231411098e-02
      -1.3442850401306353e-01 -2.4533921915856283e-01
      -3.5156611297399491e-02 -1.0980404494397213e-01
      2.1783964295204281e-02 1.1206841244865526e-01
      2.2014943000095466e-01 5.7358057325846160e-02
      -3.0728485539063034e-02 -3.0206255085886874e-01
      1.1755221771770201e-01 2.0587291644693567e-01
      2.4071852970776922e-01 -1.3299405831355154e-01
      1.0462894077992622e-01 1.3429266371919890e-01
      1.0916315727122054e-03 1.6645912159882764e-01
      1.7056165936603550e-02 2.5627785779772982e-01
      9.4575014091492243e-02 -9.5522788338548367e-02
      5.1192261540384622e-02 -1.7781070411677521e-01
      -1.3771585388563931e-01 8.6996082052795867e-02
      2.7722849224417162e-01 1.8656808533197033e-01
      -1.2253809079252612e-01 -1.5831498565681057e-02
      -8.0188039463105210e-02 -3.6695264344462791e-01
      -2.3383796172560797e-02 2.2609024012257015e-01
      -1.6212526505747733e-02 1.2230304623059775e-01
      7.9791312026530906e-02 1.0527424729496105e-02
      1.2900163592294273e-01 -1.1391763973635335e-01
      -8.2430159297658942e-02 -1.9485214292361521e-02
      1.1012337144960420e-01 1.2591843674460068e-02
      2.0584444994769396e-01 1.0992203176490059e-01
      -8.0637859630932271e-02 -5.8294705916047171e-02
      3.3824986902164192e-02 1.3541694081639402e-01
      9.2092710739689304e-02 1.0401071363396901e-01
      -2.2103848393768891e-01 -5.3301553401736187e-02
      1.3310750377045352e-01 -1.4465437545355020e-01
      -1.0879270438784031e-01 -4.3318678000941774e-02
      -2.3325647163548452e-01 1.5162221444478424e-01
      1.0052660178050572e-01 1.8720521466186540e-01
      -1.8867891393061034e-01 -1.5290440167133093e-01
      1.8917395761341058e-01 8.2406414763906935e-02
      -2.7132379886907093e-01 1.6742211369995774e-01
      2.1915303537318523e-01 -1.2035068878660012e-01
      -1.1040712834883215e-01 3.3652839856017643e-02
      1.1091918375476749e-01 -8.2077313226643397e-02
      -7.3108701818502070e-02 2.6362850704901550e-02
      -4.3024048046576254e-03 2.8425217718224906e-02
      -1.0498127741432423e-01 3.8827360626635603e-02
      7.7295089899411494e-03 -8.5517574317390793e-02
      -1.7950877088578662e-01 3.3477387094346972e-02
      -2.2207325608410877e-02 -6.6888276409207803e-02
      -1.6892955347283356e-02 -3.1747797348973074e-02
      2.0412985230024487e-02 4.3154000467548005e-02
      -3.7872711060459655e-02 2.1671750405541443e-01
      1.3362157674093122e-01 -1.1151730921559126e-01
      1.1110824323124838e-01 -4.6113334753844069e-02
      -8.5655798317575332e-02 9.4097462645185842e-02
      2.1244212194761758e-01 6.7532055577041103e-02
      4.9447298423593848e-02 1.1361603110094964e-01
      1.1277617789322147e-01 -1.5961826766809045e-01
      1.0478268354531929e-02 -1.4152973710610581e-01
      1.5531589860964165e-01 -1.0915272326390470e-01
      -9.3771830117137925e-02 9.6464261581546404e-02
      1.2127772524019913e-01 -2.2226849327253403e-01
      -6.4804350293498444e-02 -1.4063929766774985e-01
      4.8532017753095628e-03 -4.3301423773506278e-02
      -3.5646149463037499e-02 9.4080271330528098e-02
      -1.7339314329495797e-01 -1.2182626135761659e-01
      3.0821241468277923e-02 -9.2826182460541001e-02
      -1.0778315364900250e-01 1.0295999040607433e-01
      2.0605363047375272e-01 2.3271781152913315e-01
      -3.5666295469518348e-02 -1.6916155872498612e-01
      2.5366804540216007e-02 -5.8397273974509278e-02
      4.1527471996358381e-02 1.5003757350204083e-01
      9.8359342409462841e-02 -3.2186097725107235e-02
      5.8224931813650786e-02 -2.7177400289043313e-01
      -1.1610771035114674e-02 1.3998525768725725e-01
      2.2135318584798522e-01 -1.9449914740352382e-02
      -2.1129333564810320e-02 1.1167075977547827e-01
      1.0242311608002230e-01 -1.3963447698157186e-01
      -1.4721204947513186e-01 -8.2813880321365968e-02
      -1.5618449948969547e-02 -1.6979017395632168e-01
      8.5938365003774539e-02 2.9408933834115074e-03
      -1.8126318539219109e-03 1.5530967717141311e-01
      -2.8290110020935233e-02 -1.0817399427111940e-02
      2.1302092869588884e-01 3.9423886172367972e-02
      1.3309345947115586e-01 -1.6486282527544534e-02
      -7.9093224892049119e-02 -4.5264442570934395e-04
      1.6056112560288080e-01 3.9878878500285625e-02
      -1.5968869747713366e-01 5.3138912673376157e-02
      1.4021904533091487e-01 -4.8226727737648939e-02
      3.1023165953933916e-02 5.2610038995124765e-02
      -7.3489237150358849e-02 7.3187097198975995e-02
      -3.7730214823860435e-03 -1.8475041453540236e-01
      -7.2676409185766774e-02 2.9215476131434748e-01
      -7.5191919818315689e-02 -8.3789717101434180e-02
      -1.3988892530198929e-02 -1.2346143816189532e-01
      1.4830899457749935e-01 -1.0907596446719924e-01
      1.1364367793757199e-02 2.2504256683228857e-01
      2.1206290069041073e-01 -6.5775899379632283e-02
      -1.4290145491465390e-02 -4.2252271282242911e-02
      1.3751582195407194e-01 -2.1343314553362905e-01
      1.9004687369478765e-01 3.1961791582717941e-01
      -1.5069022690964962e-01 -3.8269788789499215e-02
      8.7708392052097864e-02 -1.7457912045782509e-01
      2.0621015499111703e-02 -2.7928653348228793e-03
      1.0804012087877034e-01 -5.1763429296762933e-02
      1.8074886781054410e-02 -1.8347134320838374e-02
      1.3321367680860496e-01 -7.7710101503454421e-02
      1.6429641379298379e-01 -1.6593495701433651e-02
      1.1741841881949960e-01 1.6010310144982018e-01
      -2.2444186714124176e-01 2.3054545864280584e-02
      8.6794795925058121e-02 -1.0050705594348898e-01
      -1.3397903733870531e-01 1.2080706604078292e-01
      2.7621676272481649e-01 1.3445691657622019e-01
      4.5299974103341765e-02 -1.1977096206530147e-02
      8.4784202562026525e-02 -1.6358992931228378e-02
      8.1551036446036049e-02 1.7828811666743669e-01
      9.4512970585803324e-02 5.5682107091870485e-02
      -8.3547773377770404e-02 -2.5922621302419341e-01
      1.5368177974638162e-02 1.5454456542784353e-01
      -1.1809089439604248e-01 3.7664456249848355e-01
      4.5318926982709840e-01 -1.7322697780473028e-02
      2.0011751590817542e-01 3.4638075243990968e-03
      -1.4645704652821493e-03 2.4456377396739584e-01
      2.1150540489593134e-01 2.8554763081927231e-01
      3.3479825577502488e-02 1.5168248285563554e-01
      1.5101166549982720e-02 -4.1963065296753854e-01
      -1.5671681097005138e-01 1.1469049421984502e-01
      2.8071282563968120e-01 -2.5225582312989375e-01
      -3.2041584570164116e-03 3.1091014655456500e-01
      -1.1696922547501483e-01 1.2546134839281414e-01
      8.6502022719959076e-02 7.2110416245332085e-02
      2.0623398094176068e-01 -5.5471695568527934e-02
      -3.0449194963266660e-02 2.6605735647832252e-01
      -7.5410121277655826e-02 -1.2126482943417018e-01
      -1.2680029798789186e-01 7.0951152670232304e-02
      -1.8533689322337485e-01 2.5915523749443250e-02
      3.3428170500609852e-02 -1.1803953708252778e-01
      -9.3867135767082596e-02 -4.1314114177598192e-02
      -1.0350893548627496e-02 1.9653701073244706e-01
      -4.3208146659594049e-02 -2.0711035870514136e-01
      -4.7970687539223629e-02 1.6591251599817719e-01
      -5.6676965819949229e-02 -1.6449195396183414e-01
      6.9549349134351318e-02 2.7086203574853190e-01
      1.1074347676313916e-01 5.4221827651796638e-02
      -2.6917029590047792e-06 1.5797863349076446e-01
      3.1812414593927203e-02 -3.3161026114872760e-02
      5.5933251319100243e-02 3.0474064450870575e-01
      -1.8971823343266889e-01 2.3992477720647252e-02
      3.7315670446785049e-02 9.0797885853197910e-02
      -1.8996070878840355e-02 -1.3574004952312410e-01
      7.8220699161856505e-02 1.5024574325416182e-01
      -1.8626726494062457e-01 -1.6197059637360289e-02
      2.0623885647675427e-01 1.0388560748064370e-01
      -1.2052255536177649e-01 1.6566048740792538e-01
      1.6958751774259231e-01 2.5506956563694316e-01
      -4.3619591414311543e-02 1.3111694221826951e-02
      7.7508803786713303e-03 -3.3159361350627685e-02
      -9.2167975735799407e-02 5.6783014808660374e-02
      -1.2125467769074856e-01 -1.3362994750732521e-01
      3.5695375514582295e-02 -1.0689724491125115e-01
      -1.8299044477596985e-01 -5.0847746884174157e-02
      2.1849331209082534e-01 -1.7977223875721662e-01
      -2.8401573240319417e-01 -1.1942069445544509e-01
      -1.3390291402071830e-01 -6.9260605104864963e-03
      -1.7437912639109299e-01 8.0829960220626676e-02
      2.1730946709750953e-03 -6.1154042264493294e-02
      -9.3117944314053416e-02 6.4345213843408994e-02
      -2.4644027644986303e-02 2.1179245760284546e-01
      -1.0522514725942009e-01 -2.1083482113235089e-01
      -2.4946297356814751e-02 -3.0251698880110353e-02
      1.5042892005838202e-02 3.4541675949004924e-01
      -1.0355946214610939e-01 -1.0106001244209395e-01
      -6.3494523500805767e-03 1.6574818594307768e-02
      -9.7587486859638556e-02 1.1038386321765438e-01
      1.8893768625600513e-01 4.0830268556991366e-02
      -4.8942478072378615e-02 -9.3121889845061936e-02
      2.6417063556318909e-01 2.4622167706615083e-02
      -2.0932151731502074e-01 1.3175396141585127e-01
      4.7866531726881947e-02 3.1741090124023569e-01
      -2.9813639335802018e-03 -5.9064904024140129e-02
      4.3497465438370964e-02 1.7313121748158272e-01
      -1.9617626669404750e-01 8.8509070082754132e-02
      1.3065793582986121e-01 1.2788825208551569e-01
      1.5137326739272949e-01 -1.7532564951487684e-01
      9.4871523145405701e-02 1.4311195243401556e-01
      -1.1707538425099165e-01 2.6197414346704340e-01
      1.1298865958613974e-01 8.4455494836935388e-02
      7.9109708143496500e-03 -8.0961226979857207e-02
      -4.0880290694808984e-03 -4.9544500949176951e-02
      -1.5758471715167166e-01 1.2276550872499320e-01
      1.5267171045259292e-01 -2.1465233495511878e-02
      -9.6986982831321900e-02 4.6060033059237317e-02
      4.9316560985130847e-02 1.4680242475633479e-01
      -4.5162908460727749e-02 3.8620165424547791e-02
      -2.1420563891119498e-02 1.4571299251189418e-01
      7.0206867949213783e-02 9.2307906250225863e-02
      -6.2333230609664565e-02 1.2001099248957772e-01
      1.8992835605427413e-01 -4.4118232323669036e-02
      -3.5008691454092349e-02 -1.2283520871774438e-01
      -6.3406428605944837e-02 4.1403148346592636e-03
      -8.1614138401418013e-02 -5.1428865761494170e-02
      2.0771762349035991e-01 -2.0591022259142444e-02
      -1.4699501923699984e-01 -1.3075117547893203e-01
      -2.6022246115294684e-01 9.5048597996823581e-02
      7.9980564893029946e-02 1.0695262910025102e-01
      3.4062526390224244e-02 -1.6307735183410922e-02
      -3.5875395711729097e-02 -2.4467706834536695e-01
      -1.8363143431444132e-01 8.8547531647553815e-02
      1.3414524962363580e-01 7.2753522963833681e-02
      -9.4810884959513158e-04 8.9453396557840861e-02
      5.2953787618836304e-02 -3.0898483113292491e-02
      -1.2966299979142373e-01 2.5030269421423768e-02
      2.7592083230078340e-01 1.1772068551713731e-01
      -9.9654692545614945e-02 1.7293163664459590e-01
      1.0255676923730082e-01 1.4928566439950230e-01
      -3.5528152949729191e-02 -3.7388745974035527e-02
      1.0082912943730060e-01 4.2220785456681217e-02
      -1.6325316437983076e-02 8.4953637736311538e-02
      -9.4734187260912789e-02 9.0396597728391176e-02
      -2.6306899522889088e-01 6.1138013675752001e-02
      2.1200138703815496e-01 1.0063910228288925e-01
      -1.1251883516075270e-01 1.7629324422903153e-01
      2.3402303663433380e-02 1.1664110662680557e-01
      1.6760146417533636e-01 1.8313311223932488e-01
      1.8823178877873531e-01 1.2276874407575203e-02
      -6.8394598316751903e-02 1.5804758886581419e-01
      8.5707740849168684e-02 2.7695888407415542e-01
      -3.9559805586574304e-01 4.2340798950013900e-02
      -3.2693649466629608e-02 -1.3925232933861192e-01
      4.4258302516889999e-03 2.5177525324132011e-01
      6.6858161671966482e-02 -1.4781887816288450e-01
      1.8228139081648147e-02 -2.2025981783323881e-01
      -1.1163668398008054e-01 -1.1886662969393662e-02
      1.2711648714485470e-02 1.7825412776318711e-01
      -3.5909541615072323e-02 -1.6696173479878111e-02
      -2.1465914931603800e-02 -1.5520251863629961e-01
      -4.8662538029529398e-02 2.9303896565446144e-02
      -7.5798231888158166e-02 2.9425096405531598e-01
      -2.2133958746169448e-02 6.6159636552226425e-02
      -2.5576213508830520e-02 7.6905015036271618e-02
      5.5926304666021012e-02 -5.8902883718831131e-04
      1.1113214146358211e-03 9.3429297978121426e-02
      -2.5472414940869586e-02 1.7899651670371713e-01
      9.7100172691706454e-02 -5.2686466263772325e-02
      4.2538333773297346e-03 1.2073870059011961e-01
      -3.0131151739373568e-01 -1.5649810148828956e-02
      1.6950461866874217e-01 9.9495141922714511e-02
      -4.5666457059904068e-02 -4.7237724103383075e-02
      1.1527327983336903e-01 1.8256879713224025e-02
      -2.5920779439150349e-01 2.3921453292320044e-01
      1.9375697052117702e-01 1.9913508632756291e-01
      -2.7723369462026315e-01 -4.5832786877885529e-02
      1.5834094419049982e-02 -7.3961461901176959e-02
      -6.7694263930927340e-02 5.2288482142301057e-02
      1.9035996106998149e-01 5.9441445989199038e-02
      -3.5881808223251793e-02 3.0904603805572910e-02
      -1.4196984424292958e-02 -2.0278824000860177e-01
      1.9948738871758718e-02 -1.2036895020452954e-02
      -1.6996466672563620e-01 4.1360794905370223e-02
      -5.2908694967149651e-02 3.2272862619366732e-01
      3.0675069628274928e-02 -1.6879889584449273e-01
      7.0811266552094451e-02 9.9137511242294057e-02
      -8.7937885285633718e-02 -1.7110170619455817e-01
      2.3198761927325506e-02 -2.5555782879741373e-02
      -4.9508339742513861e-02 4.0981663609659477e-02
      5.3905433851959242e-02 -1.5788048724887707e-01
      -4.7979147894105172e-02 -1.3047778289472997e-01
      6.6517541977472464e-02 1.4479692229851476e-01
      -1.8828461203572763e-01 1.1937389896729091e-01
      1.5673274832575249e-01 -4.7609562847723885e-01
      -1.9788548268640993e-01 1.4000189266962382e-01
      8.4992600218296202e-02 5.2418758729546919e-02
      -3.3107419319360161e-03 4.8048312575643515e-02
      -9.1702979051589445e-02 -5.3529231382455904e-02
      -2.9642389249243794e-02 1.2463738628048306e-01
      5.6354827336489527e-02 2.2186220390202318e-02
      -1.6911347094577747e-01 -8.5496757281294369e-02
      -8.2258916852780958e-02 2.5746519966568498e-02
      1.4034474676565034e-01 2.4839768059476092e-01
      -2.9054348729170999e-02 3.8112687760292474e-02
      5.1796340203800410e-02 -9.3582203703883454e-02
      -3.2412206472702085e-02 9.7382244120655034e-02
      2.0679636483950339e-02 -1.1506765338515700e-01
      1.4555111203204857e-01 9.1315758077100309e-02
      3.2063225151846925e-01 1.6009508624563465e-01
      -5.9488918572255724e-02 2.3496906975986909e-01
      1.3786383174878053e-01 1.1569584315037700e-01
      -3.0491979895642729e-02 -7.8816422082645235e-02
      7.0002972636103902e-02 1.1790723318567506e-01
      -1.0732853114867950e-01 9.9467539575068181e-02
      1.8697137526165728e-02 -3.5712114277710684e-02
      -1.4642760730915164e-01 -1.1877249076737972e-01
      -1.1077561013174826e-01 1.8227823603974835e-01
      -3.7666545313538669e-01 1.1388774122348427e-01
      2.7970303166109395e-01 5.2656874713854419e-02
      2.1342992499484289e-02 1.5092925735531496e-01
      5.2081327844054635e-02 9.5760952795686791e-02
      -7.3687252930309477e-02 1.1010960164551717e-01
      1.1825729088609370e-01 1.0756493381915967e-01
      -2.0091695523635494e-01 8.9868928136940335e-02
      1.7331853773933054e-01 -1.7121670521525929e-02
      9.4639719387492563e-02 1.2015239599704806e-01
      5.4051111543727395e-02 -1.0152143748324731e-01
      -5.6882071220655910e-02 1.2921286293175108e-01
      -3.9642809469555743e-02 2.7615673479209634e-02
      -1.6148746644998835e-01 -8.1119566265963158e-02
      1.5593574220538989e-01 -9.0708209092485503e-02
      4.3766919515807974e-02 3.5510376566469444e-02
      2.1100856180682900e-01 7.4273853515897256e-02
      -7.2529544021135636e-02 1.3115860704078547e-01
      -3.2857449557696282e-02 -2.1907762720490764e-01
      1.6016763978762512e-02 -1.3521374613976619e-01
      -1.0130147773811020e-01 -4.0711820713895827e-02
      -6.3150355083970530e-02 1.5011102163374193e-01
      2.1126961671225944e-01 1.3740560630237250e-01
      1.2270904725697208e-01 5.3665441915737404e-02
      -1.5673938232812468e-01 2.9813378682655593e-02
      -1.1565073032915396e-01 6.1263449838287631e-02
      1.2938014153685734e-01 2.5586354291786373e-01
      -2.8502281986786588e-03 -5.0586691080049935e-02
      -2.5802558666596426e-01 1.3503708455580476e-01
      -7.4529855687848187e-02 -2.9795609806048281e-02
      1.3367723077257432e-01 1.4248807345245545e-01
      2.2828808294547417e-01 3.8112771418585399e-02
      -2.7795361251447592e-01 2.1897120424838012e-01
      -1.5877486852381728e-01 -2.2455493323934475e-01
      3.7297596644070452e-02 2.1741845620471538e-02
      3.8894091077082103e-02 -4.9178806341334126e-02
      -2.4022530808968204e-01 -5.3815068422590970e-02
      -1.3594352458445827e-01 8.1430437132810566e-03
      9.9110274302102758e-02 1.6304298352044741e-01
      -9.7554031047829656e-02 1.6612027978589317e-01
      2.3870569399961178e-01 9.2883312830673373e-02
      -3.2687617201911823e-02 3.6306560043688381e-02
      -1.2759478910624695e-02 1.9051816736974997e-01
      -1.0168609329983311e-01 -6.6355240344792760e-02
      6.0885162513347364e-02 6.1640993888730393e-02
      6.4678222695795665e-02 1.8342132218452936e-01
      -7.9171842295665470e-03 1.1243109060628632e-01
      -1.9522379181871941e-01 5.8132155754733267e-02
      9.1150759725509664e-02 -1.3936454122351715e-02
      -2.0815956951869249e-01 1.2652522814060888e-01
      1.7991311512259058e-02 3.9516385573333770e-02
      -3.9164515517909206e-02 -1.8619809971905044e-01
      3.7397817619456687e-02 2.3728892162926418e-01
      -1.0247947158792986e-01 2.3045883673309100e-01
      1.1955353611711021e-01 -1.2414531338675983e-01
      2.8120499868993939e-02 4.6489537209241594e-02
      -1.0338432185422691e-01 4.8021553983831365e-02
      -2.3746711372704632e-01 9.1175478355817166e-04
      9.9471481518064966e-02 3.6863529136656836e-01
      2.7733243589218113e-02 1.7074391738611508e-01
      1.3925480342393692e-01 1.4052746334358230e-02
      -9.2794908990064748e-02 -1.8190206276763463e-01
      -4.5618589743875074e-02 2.3109922643953174e-02
      1.9220559729811716e-02 4.1485787826743739e-02
      -3.6316686537963966e-02 2.8810433304680878e-02
      1.3213357664452488e-01 -1.2895351996141227e-01
      -5.9853755338398207e-02 8.6142322153274324e-03
      -2.5579002098621632e-02 -3.2030747332013693e-02
      1.3549833679576873e-02 -1.5196922797760302e-02
      -1.5289071862104466e-02 4.8935597360772964e-02
      8.8843545038636645e-02 -1.2001726564684928e-01
      1.4378640273672200e-01 -4.3429187020051642e-02
      -5.2427531690131916e-02 -6.9260336343276288e-02
      8.3019063627213632e-02 2.4749737140584243e-02
      3.8810209228806875e-02 1.9539544296574329e-01
      1.0672472930263603e-02 -7.6196113540241764e-02
      -5.5727129179289021e-02 -1.3880923266693459e-04
      3.6629390343511856e-02 -5.0807084787700983e-02
      -5.6444646284565282e-02 6.2065961929398415e-02
      2.1235577211663342e-01 -2.6589716789933632e-02
      2.6071605020568975e-02 2.3821440703078658e-01
      -2.7727681796135890e-02 -6.1566757463283349e-02
      5.4995462457986786e-05 1.7146593880517785e-02
      2.3386055259029126e-01 1.2727488406807194e-01
      -8.6854242600220358e-02 -4.9037220970307412e-03
      1.4764718695286222e-01 3.7053016894771959e-02
      -1.3661258695272424e-02 3.2745591616501826e-03
      -1.8639376529800800e-01 1.2509365715745388e-01
      9.7176852427749580e-02 -1.9181440451663148e-01
      1.8999998196888049e-01 1.4321025093810763e-01
      3.9849012050386594e-02 -1.9860586561931437e-01
      -6.6559763799959926e-02 1.2976025158509188e-01
      8.6313580706580656e-02 -1.1841171592335363e-01
      4.2155624633875748e-03 1.5977967670776977e-01
      7.5289210594985112e-02 1.8037188540082660e-01
      -2.2724949531167651e-01 1.1798347911218565e-01
      -3.0475601210637318e-02 1.3058759658882171e-01
      -1.1889985480973430e-02 -1.3783806555885592e-01
      -1.2416425240817891e-01 -1.6954137426456090e-01
      -1.5363052688450310e-01 -1.0990699163530985e-03
      -1.9910787832614126e-02 5.0919582312910792e-02
      2.2677110777180642e-01 7.7735955764946657e-02
      -6.5865111168197182e-02 -2.9670429575728588e-02
      1.5074356413244669e-01 7.0959135697379631e-03
      5.7032755065879785e-02 -1.0975970565245259e-01
      -1.0131939788029024e-01 1.6366624333485594e-01
      1.4951925935272811e-01 4.0096305502974480e-02
      9.2497685865267475e-03 -3.6627366902477289e-02
      -3.7977275206043731e-01 -2.0898576985351400e-02
      -1.3752635456852791e-01 -1.0230118858071020e-01
      7.8595003020545846e-03 9.6596578800456079e-02
      8.7888433083699577e-02 3.0176998105616092e-02
      -7.8213200407393754e-02 1.4793076544267575e-01
      -5.9906396071966156e-02 -2.3926985181580507e-01
      -7.6308551664567570e-02 -6.5009003525423548e-02
      1.0555096229825643e-01 -8.9223693508038437e-02
      -6.3146425906980153e-03 9.4806131108920402e-02
      2.7498078403347833e-02 -2.6613754684612534e-01
      -1.4573233745726188e-01 -2.6443290482091381e-01
      3.3521387889977050e-02 7.0410800321045491e-02
      2.1561732737069850e-01 -3.0885122317756770e-02
      5.0104752720642803e-03 -7.0748920758196721e-02
      -1.1106745753457579e-01 -1.1188470722530916e-01
      -1.4505564308288360e-01 -7.9152512552557550e-02
      2.4116132181427610e-01 2.5506957082604276e-01
      -1.4939917595915057e-02 -2.4602961752700608e-01
      1.5436529805802342e-02 -2.2657936021445682e-01
      -1.1235691193599206e-03 3.3663842270017050e-02
      2.9134135867771171e-01 -1.1815475082937150e-01
      9.0442588252269990e-03 1.1584917274288022e-01
      1.6402035904152245e-02 -1.1463713706386915e-02
      -2.3471067384048636e-01 -2.0080148665508737e-01
      5.6116342214442066e-03 6.2049304152549924e-02
      -1.2345073368967764e-01 1.5505593015619455e-02
      7.2980825173091776e-02 8.1549256607411316e-02
      -9.7848142095538757e-02 1.4654691616704082e-01
      6.2532839347028024e-02 -1.2323080520527788e-01
      -2.6604267051155362e-02 -4.3064311846766470e-02
      -5.9547091929104089e-02 2.7925858653274446e-02
      1.1952431809586135e-01 -1.3336185601731088e-01
      7.9120904496530364e-02 4.0413847028737834e-02
      -2.9274873760686455e-02 -8.4452918775396221e-02
      -7.8380629218338885e-03 -1.0024024705149698e-01
      4.8275612272430476e-02 1.0784314993793347e-01
      -1.6626273068948319e-01 8.1914041887416592e-02
      1.6330181640699115e-01 -1.8563247935192725e-01
      -2.9569602108723309e-02 2.2925622927078848e-01
      -1.0224382488513287e-01 -1.3998418254879670e-02
      4.3492003556599747e-02 6.9208668036390125e-03
      1.0103443073526883e-01 -1.0953135231200856e-02
      -2.2337058698799886e-02 2.7126271027307680e-01
      2.0291031542803056e-01 1.7543832901983680e-01
      5.0419719953917396e-03 8.3709487354762371e-02
      -3.9825570971242723e-02 -1.3840682323461706e-01
      1.0573455716808391e-02 2.4831715127269432e-02
      -3.4062465151298786e-02 -5.9889432155873570e-02
      -1.0584426968040060e-01 5.9505376214849526e-02
      1.0881995755125817e-01 -2.1017692359241233e-01
      -3.8102251739256965e-02 2.6133018596789039e-02
      7.8163558272490816e-02 2.0532970109678703e-01
      1.2211989212516414e-01 6.1526522461032358e-02
      1.2511100979171269e-01 -1.5045588764673198e-01
      -6.0758271753827933e-02 2.1404364255257691e-01
      -9.7658864093529890e-02 -7.4847368550502238e-02
      1.1433312446017445e-01 -1.6116306293113675e-01
      -1.0115253543324963e-02 1.5670123072371775e-01
      5.6958413436170058e-02 6.9276870653559058e-02
      -7.0618997200233846e-03 -6.0352765387969416e-02
      -1.5790073310022565e-01 1.2018406956646879e-01
      1.4653436867096029e-01 -1.5879322059431319e-01
      -8.1704998925316796e-02 -1.1124317675409910e-01
      -1.2432055334656057e-02 2.1844259596987725e-01
      1.9226956299589298e-01 8.6689517391996013e-02
      4.8065188159451225e-02 -1.2670988595022986e-01
      -1.3283651169576804e-01 -5.0317452778746642e-02
      -1.7368503925751497e-01 3.4923512711065335e-02
      1.8475081538792779e-01 -1.0506963111158393e-01
      1.0826921414764348e-01 1.3636330707883923e-01
      7.7335070387598764e-02 3.9133940260364979e-02
      -1.7018383659585018e-01 9.8023792454498423e-02
      1.0541138696972092e-01 -2.3393430940210216e-01
      1.1905673010155510e-01 1.5478744519626736e-01
      -1.2506711880090556e-02 9.9072466672695120e-02
      -1.4437750291502743e-01 1.6636279830436879e-02
      3.2847430888133022e-02 -4.1657923720071162e-02
      -2.5589888210770018e-01 -1.0205346592022617e-02
      1.6452247052885527e-01 1.9093709909141618e-01
      1.9837846480958751e-01 -1.4992771729206703e-01
      6.6200974274810323e-02 1.1037556015780541e-01
      -7.6987388702970727e-02 3.3527669815736988e-02
      4.6543387929444548e-02 7.4784427950738794e-02
      -2.0940318083430329e-01 2.3639737134861694e-01
      2.9656385470467050e-01 -3.2135513716399861e-02
      -1.9521078856778656e-01 -2.6009338668192988e-01
      1.0367530328947752e-01 2.2708449810871217e-01
      2.5740861793027392e-01 -9.8957445203302519e-02
      8.1162766030260930e-02 1.7315676033533323e-01
      -1.4130293865811616e-01 4.5692633670450546e-02
      7.8570769116770717e-02 -4.3773158546699482e-03
      1.2613230671083078e-02 3.8899855699692253e-02
      -1.5357130567088317e-01 -3.0620658231272493e-02
      -1.5259798940471425e-01 -4.5515825967518971e-02
      6.6921840366042318e-02 -7.1364754964167373e-03
      -2.2132966184338435e-01 3.6987639594401725e-02
      -1.6093678622412569e-01 1.3591556997968447e-02
      1.4635302114869175e-01 -1.3761250041308207e-01
      -4.7403529330913304e-02 8.7589787283335427e-02
      -8.3162916308290799e-02 2.3558454581719296e-01
      1.3370902472235932e-01 1.0387860312426468e-01
      -1.4668011031894176e-01 -1.8920270249375043e-01
      3.5658230756301292e-02 6.2610334005809842e-02
      4.5588776502660744e-02 -1.4286955559054948e-01
      1.6858678434970495e-01 4.8694399655997110e-02
      -1.0057354343128146e-01 1.7513949652449085e-01
      6.8166690404422095e-02 -3.5278250356993199e-03
      9.7554225286389490e-02 8.1268469203091123e-02
      -3.2208657305324857e-02 4.0925839349090172e-02
      -4.8201470420714349e-02 4.1390346970867811e-02
      4.9550523788656216e-02 2.1655432138944744e-01
      -1.4833072220805896e-01 -1.3598283690929261e-02
      4.1068718753705151e-02 -1.1375628622966991e-01
      -8.7162920742803365e-02 -6.5921746099032244e-02
      7.7489733687740592e-02 1.0667803215408658e-02
      -1.2793076678308418e-01 8.5699412478905695e-02
      2.3967154187224418e-01 4.1054139922910522e-02
      -1.3795860023779874e-01 1.5836893286300849e-01
      4.6481087088114409e-02 6.0614238415847212e-02
      -1.9988762816207775e-01 1.0744264546575309e-01
      2.2738452388850872e-01 -7.8278135898647516e-02
      3.3339051093537346e-02 2.4214052177120533e-02
      3.9906600079265449e-02 2.6913460878356044e-01
      2.0684165646019892e-01 -2.5503187779372699e-01
      -4.5187250368784702e-02 1.9219056741311602e-01
      -1.8379901136450435e-02 -1.3457528271230865e-01
      -4.8368716349947490e-03 -2.3821166859146467e-02
      -1.4938355252157579e-01 8.9769903359770045e-02
      -6.4535467723298018e-02 -2.1728728299808248e-01
      -1.1190137527383431e-01 1.4421317671429476e-01
      9.3789572295150031e-02 5.3416841892075927e-02
      -1.3826591399652804e-01 6.5935626709815773e-02
      5.2581651778520366e-02 -5.3903937296711654e-02
      5.7154990086695556e-02 -1.5700431535720152e-01
      -9.6858484578289605e-02 2.1457958060401153e-01
      1.3192487655006208e-01 7.8814400286059738e-02
      -3.8682206995507611e-02 2.1026410977853346e-02
      2.0580109412680839e-01 -6.8838642418180232e-02
      -4.8036565417243997e-04 -9.7171592788440675e-02
      7.9312763443661269e-02 -3.1490454835608722e-02
      6.9260112525063117e-02 2.1763107547011426e-02
      -2.4991849957212018e-02 -2.8577500690701463e-01
      -5.1820509574626673e-02 2.5295380070664699e-02
      8.1275976349237944e-02 -1.9159226650566574e-02
      -2.3423545623683244e-02 1.8488557672796754e-01
      4.9010297466081647e-02 -1.0641328511616645e-01
      -7.3865391884435874e-02 -8.6648990576752905e-02
      -1.1401335704043010e-02 -3.5047156008442437e-02
      -1.0302525989780940e-01 3.2861833134181576e-02
      -1.7397257958316589e-02 7.7411912451378750e-03
      2.0353652217423478e-02 -1.1726340432341087e-01
      -5.3982544715702546e-02 5.6431508856440486e-02
      1.7982371344643013e-02 -1.0471068416892333e-01
      6.2198274012252024e-02 4.6515186546723056e-02
      -7.2497636117053788e-02 1.0480430229951446e-02
      -6.9258852045116184e-02 3.8484134668001879e-02
      8.0124404764671711e-02 -1.3160903470466334e-01
      -1.1951656671105457e-01 2.1827921424496366e-01
      -5.6661076451828975e-02 -8.6594736793291133e-02
      -2.2785323299983742e-02 7.2855746530591417e-02
      1.4370340382663127e-01 -5.5176633316105499e-02
      1.6486171609947095e-01 1.1429526223198377e-01
      -7.5607012566381221e-02 -5.2644184780084584e-02
      -9.7863304533596540e-02 7.7357764842735655e-02
      9.1884017759018569e-02 1.0012463400797575e-02
      -3.7519051411800848e-02 -2.2335308664194333e-02
      -1.7169421782372834e-02 -6.7831784322451863e-02
      9.8396031946039630e-02 -3.9226846174725487e-02
      -2.0148077345432502e-01 -4.0301040787482992e-02
      1.0199836976950384e-02 1.3189558727731002e-01
      9.5119830243130837e-02 4.4270754829972662e-02
      1.1285310565687358e-01 -5.4829489365825532e-02
      9.0348247146966904e-02 2.5157849795430870e-01
      -1.5063427819837421e-02 -1.5467777513223246e-01
      -1.7879680321600134e-02 -6.4287376379116440e-02
      7.7812721014149044e-02 3.6602285829720892e-03
      -2.8931348900920872e-02 7.7319989304863561e-04
      5.8274361898910887e-02 9.3284223850398806e-02
      -1.3017659319727154e-02 1.1397827516624140e-01
      8.6521914239215625e-02 -9.5640817408750661e-02
      -1.7087134712275237e-01 1.9985416304634601e-01
      -4.3961243500354949e-02 -2.6955352213024728e-02
      -2.7483328959839504e-02 -2.8108580926485254e-02
      -8.2560719625844430e-03 -1.0984517458535745e-01
      -2.0983609758678642e-01 -1.6605178250830688e-01
      -1.5357882957200061e-01 1.6614090910639953e-01
      -1.3242284161098641e-02 -4.9327376664173785e-02
      -2.9977937510635204e-02 5.6997818940213940e-02
      -3.0327092811137470e-02 -3.4073972634062019e-02
      -1.5462108127329985e-01 2.4851848841018154e-02
      8.8508433970120981e-02 2.3571675479468465e-01
      -2.2219398256569844e-01 3.2796355642232648e-02
      8.4589931310390179e-03 1.2239672069579858e-02
      -2.2406741257470728e-01 -8.0144545640616488e-02
      2.2038643124954815e-01 1.5989712236529466e-01
      1.9049706412342812e-01 -3.5100692987140539e-02
      4.1012544735813311e-02 2.0045701276401362e-01
      -1.6917631307561007e-01 -3.7635210460152918e-02
      2.9941947527568361e-02 6.8840353295297640e-02
      6.3877056129388696e-02 -9.4749640310431330e-02
      3.3517428129162405e-02 2.8102711906581074e-01
      -1.7605670738938897e-03 4.5819037908025606e-02
      -7.3066907061513142e-02 -1.2677285275573219e-01
      1.5291064654299602e-01 2.3427191588329462e-02
      2.9841394530692313e-02 8.4061755655188877e-02
      -7.9066173023995726e-02 4.5211099515495727e-02
      -8.9736764438986441e-02 -1.6128441518907627e-01
      -5.6810689384846711e-03 -1.1641942470869701e-01
      4.5826362180724486e-02 2.0729582845699338e-01
      -4.0215863936838993e-02 -9.1041621880390972e-03
      1.2578062447525851e-02 -8.3681227072987294e-02
      -5.4140949852752918e-02 -7.0245962583870156e-02
      5.5670449258638198e-02 7.1086453683774267e-02
      2.8648427283435123e-02 -1.0374369804553572e-01
      -1.4815364390414002e-02 -1.2717831203810745e-01
      -7.0512958240600193e-02 8.1857909480025234e-02
      -2.9654350698311740e-04 -2.7241441272218767e-02
      -7.7137051429755368e-02 1.6497918044639462e-01
      -4.9289989059387036e-02 1.2723154734126202e-01
      3.2674404858332728e-02 4.8117139142396223e-02
      -1.4579552384812358e-01 7.1349546288941565e-02
      -1.6142510845760957e-01 -2.2087355238008760e-01
      9.0003496497786037e-02 2.7022879033248148e-01
      4.0845947684160770e-02 -7.8005190588802925e-02
      -6.0440357564875556e-02 -1.5588344107400164e-02
      -6.9070760184338040e-02 1.6410196895194801e-01
      6.3484074622586956e-02 -1.7346346775424107e-01
      -2.6439785649742788e-02 1.7041530548735181e-02
      5.6352466413950142e-02 -6.8001972545709444e-02
      2.3035255039851606e-02 2.1121781529604516e-01
      -1.0415227684537823e-01 5.0931008029548974e-02
      1.5090392921460163e-01 4.6244716987715991e-02
      3.9953802434527244e-02 -1.6703323641257004e-01
      -3.4640961337957570e-02 1.6057568857477414e-01
      -7.7681764628390422e-03 1.0994525716124452e-01
      -1.1532352927927007e-01 1.0120479590395827e-01
      1.0784180887417798e-02 1.2854794038766815e-01
      -9.0672811138915704e-02 1.1903098834625843e-02
      5.8951155389897654e-02 7.9144558812117488e-02
      -3.1661705345211524e-02 -1.3076567215141593e-01
      -1.9667259648237687e-01 -6.9199290841918476e-02
      -1.5082666405535092e-01 -1.9487462893234755e-01
      1.2984010538001415e-02 1.1264416196306344e-01
      8.6514945108518523e-02 -2.9036896842723973e-02
      8.8513313755184425e-02 7.0548393582783725e-02
      1.1823554937475935e-02 -9.6285062210377304e-02
      -2.9469725705755538e-03 -8.2762031120471216e-02
      -2.8528167145558763e-02 3.9714749868578855e-02
      -9.2008680203934143e-02 -3.2626784932168126e-02
      3.0211120909617084e-02 2.5722232754644296e-02
      2.0873082858728780e-02 -6.9556602634409187e-02
      -3.3774092300140154e-02 -1.3690524258219303e-01
      -1.5976220273324340e-01 -1.0188712315021235e-01
      -7.1603385843247491e-02 -2.4749758933904676e-02
      3.9449495240135839e-03 6.4923168191531419e-02
      -7.2687146798038088e-02 1.5265433778075481e-02
      -1.6047474885533222e-01 -1.3473709618104462e-01
      1.0356842515309297e-01 7.8153382576435143e-02
      -2.5402767716485825e-02 -9.7416107563736504e-02
      -3.0402118239201772e-02 -3.0539681535091689e-02
      -9.7712245662989715e-03 1.9164764817697336e-01
      -1.5536885425674266e-01 -1.2023671783062924e-01
      2.1060121316292691e-02 -6.5099973011276943e-02
      9.6783555198162938e-02 7.6990910889849301e-02
      1.1585290987220092e-02 2.1744145481665533e-01
      1.3192346736944333e-01 -3.0773520133769688e-01
      -1.0278974824057606e-01 8.8383298458986043e-02
