<?xml version="1.0"?>
<opencv_storage>
<opencv_ml_ann_mlp>
  <format>3</format>
  <layer_sizes>
    256 4 4 4 4 26</layer_sizes>
  <activation_function>SIGMOID_SYM</activation_function>
  <f_param1>6.6666666666666663e-01</f_param1>
  <f_param2>1.7159000000000000e+00</f_param2>
  <min_val>-9.4999999999999996e-01</min_val>
  <max_val>9.4999999999999996e-01</max_val>
  <min_val1>-9.7999999999999998e-01</min_val1>
  <max_val1>9.7999999999999998e-01</max_val1>
  <training_params>
    <train_method>BACKPROP</train_method>
    <dw_scale>1.0000000000000000e-03</dw_scale>
    <moment_scale>0.</moment_scale>
    <term_criteria>
      <iterations>128</iterations></term_criteria></training_params>
  <input_scale>
    4.7811143833927178e-02 -9.4328346021469320e-02
    3.3887852892301992e-02 -1.3995362249973706e-01
    3.8992929205718806e-02 -1.2199141045145045e-01
    5.9212591071374603e-02 -1.0584551123854648e-01
    3.1072481430681208e-02 -1.6389787904843756e-01
    2.7259717082672420e-02 -1.7587866177291217e-01
    1.9287533661485813e-02 -2.4194240465760961e-01
    2.3172914023175638e-02 -2.1849643425370480e-01
    2.0996722120786973e-02 -2.3948764649000462e-01
    2.2320531805117057e-02 -2.2115146668074029e-01
    2.3809077466464667e-02 -2.0410081968884122e-01
    2.6731504812003749e-02 -1.8006688897720521e-01
    2.8531024836214502e-02 -1.7527855582735297e-01
    3.6660027423232773e-02 -1.5988534287561465e-01
    3.9249254834892590e-02 -1.5009254961218738e-01
    4.4556168771600090e-02 -1.2872452006409499e-01
    4.1345348628490458e-02 -1.3086166500952529e-01
    2.7475886961581399e-02 -1.6385146663016134e-01
    2.7022169676572342e-02 -1.7705188846273787e-01
    2.3824964258121400e-02 -1.9214720836049196e-01
    2.0724141074489829e-02 -2.2367489744266697e-01
    1.6394800993887119e-02 -2.8911643647136254e-01
    1.3292765671106271e-02 -3.6449878695439442e-01
    1.3641150852356218e-02 -3.6247805045699466e-01
    1.4054707707072078e-02 -3.4170626978750201e-01
    1.4424811097218776e-02 -3.4621498569874076e-01
    1.5522527696417368e-02 -3.0845510043557378e-01
    1.8326855357594384e-02 -2.5511280252175023e-01
    2.2712047321660312e-02 -2.0474649425832339e-01
    3.1242831140448797e-02 -1.6830542729381145e-01
    3.0691913909950713e-02 -1.6483925075587874e-01
    3.6182992312514997e-02 -1.4478093135061817e-01
    3.3489260776521083e-02 -1.5847353847834131e-01
    2.4029253013646699e-02 -1.8709651128622884e-01
    1.8770122398277130e-02 -2.5747324864862686e-01
    1.7201915103761185e-02 -2.8686928516745991e-01
    1.3460526977632850e-02 -3.7046503139116987e-01
    1.1815816343394884e-02 -4.4406044290271462e-01
    1.1437602059047022e-02 -4.6549028352895572e-01
    1.0430518432904393e-02 -5.3624720814795213e-01
    1.0655806714873678e-02 -5.0506216752622501e-01
    1.1091904280092565e-02 -4.8633272325244831e-01
    1.1679605476778186e-02 -4.2057642942157553e-01
    1.2432389048372121e-02 -3.9299135070361668e-01
    1.6893584247570110e-02 -2.8479062592182469e-01
    2.1219989398943175e-02 -2.3186930229562400e-01
    2.7806275697081540e-02 -1.8711855080052300e-01
    3.8860620352013132e-02 -1.3835222211927814e-01
    3.1492945354415922e-02 -1.6871525122886688e-01
    2.4338633534088754e-02 -2.0439182640399836e-01
    1.4298006740916297e-02 -3.3908912874330044e-01
    1.2731262717712048e-02 -4.6475138611057903e-01
    1.0970033892278467e-02 -5.7735926685558692e-01
    9.9830503380205042e-03 -6.6556820988353471e-01
    9.4738374231329667e-03 -7.2538314331953002e-01
    9.0981390762933413e-03 -7.9047931755286416e-01
    9.0352793989181383e-03 -7.6610366324250423e-01
    9.0721440029474260e-03 -7.0384614920837307e-01
    9.2767642861939469e-03 -6.4452799121832482e-01
    1.0553762057282987e-02 -5.0073959271246737e-01
    1.2245479365465902e-02 -4.1351277072422404e-01
    1.5352355603778983e-02 -3.1273932511405794e-01
    1.8817361460983187e-02 -2.4757943908679231e-01
    3.1833793616451368e-02 -1.6791356903508450e-01
    3.0803471952931698e-02 -1.7777646533051922e-01
    2.0385364312442807e-02 -2.6649932966510143e-01
    1.3016844850545526e-02 -4.6668647403951791e-01
    1.0985397366520860e-02 -5.7342585035661997e-01
    9.8927319924250537e-03 -6.6716370370565603e-01
    9.4308031456421370e-03 -8.1260598254656125e-01
    9.0043218487625993e-03 -9.1300655584773904e-01
    8.7064188292705277e-03 -9.4061133005430264e-01
    8.7238758953150086e-03 -8.4089191850484257e-01
    8.7837047568852661e-03 -7.6415854198228772e-01
    9.1526820744219327e-03 -6.8742958844210411e-01
    9.8034804580431397e-03 -6.0770966141130756e-01
    1.1018314116408202e-02 -4.6625807719664042e-01
    1.4512521546213806e-02 -3.4694549141672437e-01
    2.1716798436168670e-02 -2.2663051358556532e-01
    4.0789200180451318e-02 -1.4477682283264384e-01
    2.6671644531036726e-02 -2.0196823111729570e-01
    1.7855729382891462e-02 -2.8407281509425564e-01
    1.3133830711577057e-02 -5.0692321161882603e-01
    1.0368477815191695e-02 -6.8015250209343414e-01
    9.8631858606841750e-03 -8.0463042758195780e-01
    9.4224402434035653e-03 -9.5405076272383649e-01
    9.0791332235102030e-03 -1.0338540458614440e+00
    8.9029701911922596e-03 -1.0199261926743393e+00
    8.7374064220194590e-03 -8.8609597333998424e-01
    8.7073496952556634e-03 -7.9638669269598150e-01
    8.6901128860581642e-03 -7.6338937528704176e-01
    9.7176484339644639e-03 -6.0351988163089720e-01
    1.0990120379535704e-02 -4.7850894902833668e-01
    1.5356136861469015e-02 -3.1911257615910643e-01
    2.6456593643957412e-02 -2.0166440053641690e-01
    3.7707177270057075e-02 -1.4587932315980132e-01
    2.1789033354681017e-02 -2.3817565823966610e-01
    1.6627679837955579e-02 -3.2294599284732939e-01
    1.1489675222309729e-02 -5.7387740477763793e-01
    9.7826003663354661e-03 -7.7180613228528150e-01
    9.3150015832349411e-03 -9.1061388278435973e-01
    9.2650438470715055e-03 -1.0154061789149773e+00
    8.8763631201084284e-03 -1.0260667382073918e+00
    8.8310231088490933e-03 -1.0239445820092603e+00
    8.7189409485115346e-03 -9.3608862489290079e-01
    8.6841871999691778e-03 -8.6492859334144978e-01
    8.8872979493164455e-03 -7.6909401685343071e-01
    9.9311270356591888e-03 -6.2509658195356854e-01
    1.0741396568050598e-02 -5.1406085578111704e-01
    1.5721741447044333e-02 -3.3377320915112119e-01
    2.3491185971698712e-02 -2.2267355579397763e-01
    3.0525087473947117e-02 -1.6943695374577952e-01
    1.9093590166970553e-02 -2.6211701250868236e-01
    1.5318996617751188e-02 -3.4139182042996524e-01
    1.1160040240211401e-02 -5.8983606454963045e-01
    9.5811421588887311e-03 -7.9960400745237292e-01
    9.2171642693834044e-03 -8.8927550100509789e-01
    8.9106743288538889e-03 -9.8674564776963192e-01
    8.7726307556727674e-03 -1.0010295820065789e+00
    8.7479024497056704e-03 -9.8390819460708512e-01
    8.7102846481094433e-03 -9.5401779391424424e-01
    8.6468810591851936e-03 -7.8062965729986378e-01
    8.9632977093486547e-03 -7.1186049507358851e-01
    9.6166376767467376e-03 -6.2338975359208726e-01
    1.0805818075123893e-02 -5.2458664311656944e-01
    1.4965010379030740e-02 -3.3842388830089543e-01
    2.1684418077756725e-02 -2.2611654358212899e-01
    3.0575222993563696e-02 -1.6719144264816088e-01
    1.7044261350979011e-02 -2.9514940799523465e-01
    1.4129184382227255e-02 -3.6923248821322430e-01
    1.1156445991379309e-02 -5.7462490361281549e-01
    9.4742803805148747e-03 -7.7939097046365458e-01
    9.2191696209015777e-03 -9.1681460704963169e-01
    8.8990181077446308e-03 -1.0106707588158310e+00
    8.7055360411551538e-03 -9.7407762404741183e-01
    8.6803045275665302e-03 -9.7022077669417517e-01
    8.5634098339984772e-03 -8.5824138828858354e-01
    8.7256484994560693e-03 -8.0972601190216287e-01
    8.8027415666656096e-03 -7.5272374165187173e-01
    9.4169660850158578e-03 -6.3942346573749753e-01
    1.0310278673866127e-02 -5.4465895689994548e-01
    1.3752636497613584e-02 -3.7267970027227287e-01
    2.3562836990736143e-02 -2.1139595297507527e-01
    2.8284616514753190e-02 -1.7192760133189625e-01
    1.5143902446386559e-02 -3.1628009520640071e-01
    1.2412832017000044e-02 -4.2561400606057387e-01
    1.0270526199634878e-02 -6.1795490790333585e-01
    9.6720481572286320e-03 -7.7651233716965462e-01
    9.1620655766282300e-03 -8.2370564931746004e-01
    8.8539980584518320e-03 -1.0036048732940137e+00
    8.8476868104852713e-03 -9.6740296300518391e-01
    8.5967774557770306e-03 -9.3404743201177964e-01
    8.7589113953169314e-03 -8.3078096798828815e-01
    8.6371781729338987e-03 -7.7448255971510804e-01
    9.0089209888726315e-03 -7.3105138546781323e-01
    1.0076694392827087e-02 -6.0105641249772401e-01
    1.1416595777614773e-02 -4.8088740644870454e-01
    1.5135564035326916e-02 -3.4037610108673610e-01
    2.4633364097687259e-02 -1.9683357915675678e-01
    3.2498526176526155e-02 -1.7625722992627449e-01
    1.5681568832173698e-02 -3.1505311563096466e-01
    1.2925284073144352e-02 -4.3253352520819999e-01
    1.0506018021525336e-02 -6.1890255554679829e-01
    9.6005999822726239e-03 -7.4018157508793336e-01
    9.1122584930428772e-03 -7.7539277818201391e-01
    8.7106464566512019e-03 -8.7311559625166602e-01
    8.7808123051528169e-03 -9.2103473049245010e-01
    8.5460713404770829e-03 -8.7753928488419819e-01
    8.7446788596519821e-03 -7.6276319254826352e-01
    9.1960523019349785e-03 -6.8247400872438690e-01
    9.7406743386198851e-03 -6.1273982135239868e-01
    1.0660530295677928e-02 -5.2295743474819523e-01
    1.3399301533934095e-02 -4.0513395598677054e-01
    1.7035803755927850e-02 -3.0274859367604934e-01
    2.7179405917884390e-02 -1.8992483377531122e-01
    3.1706738097078087e-02 -1.5703201818038673e-01
    1.6102549850477713e-02 -3.1200596929498026e-01
    1.2910498625416511e-02 -4.2527776459880129e-01
    1.0506853303878081e-02 -5.8886718557513174e-01
    9.6802116850822871e-03 -6.9059599492452406e-01
    9.4632822813006303e-03 -6.8891158344981229e-01
    9.0413281670158885e-03 -7.7700366787417063e-01
    8.9992564592522566e-03 -8.2715222698004087e-01
    9.0439848004224242e-03 -7.3836364677115851e-01
    9.0984857403629479e-03 -6.8880092453362041e-01
    9.6012524253468179e-03 -5.9319889477196885e-01
    1.0283741934819636e-02 -5.2312101057339611e-01
    1.1794906660003988e-02 -4.4276387774718623e-01
    1.5198639400276699e-02 -3.5141969070707435e-01
    1.8536402124082873e-02 -2.8669969726423172e-01
    2.8986889157760425e-02 -1.9404349210208499e-01
    2.9859476544014423e-02 -1.5434803842778769e-01
    1.7253831132723461e-02 -3.0996192438164638e-01
    1.2852631235778190e-02 -4.3603290624112989e-01
    1.0806108952601619e-02 -5.7079358993884188e-01
    1.0205400049184606e-02 -6.2530516133569547e-01
    1.0238718973680030e-02 -6.0601024074257714e-01
    9.6110523901411903e-03 -6.5794741599085627e-01
    9.5391400495181376e-03 -6.7992511903696662e-01
    9.4494601229536818e-03 -6.4293410614646018e-01
    9.5020312928896355e-03 -6.1125448664774074e-01
    1.0557886660602535e-02 -5.1165033149683170e-01
    1.1987764677916096e-02 -4.2674171228949759e-01
    1.4653324041910774e-02 -3.4539411567800238e-01
    1.8031973859898184e-02 -2.9563652948109120e-01
    2.2512386906593115e-02 -2.5784146519269840e-01
    2.9698006604002739e-02 -1.9554871466180965e-01
    3.1594022528812847e-02 -1.6036424696289173e-01
    1.6583966374232897e-02 -3.1255951780827573e-01
    1.4351423568742236e-02 -4.2263874306703286e-01
    1.2006992239880299e-02 -5.0907047477662992e-01
    1.1021343085583727e-02 -5.4495247137649439e-01
    1.0883025089261868e-02 -5.6222090505108302e-01
    1.0086212273572644e-02 -5.9159251826523174e-01
    1.0250324305181364e-02 -5.6684709523659926e-01
    1.0394538788202925e-02 -5.3090915637445113e-01
    1.0512810828614971e-02 -5.1585324258083365e-01
    1.1754842622416935e-02 -4.4495022013108110e-01
    1.3771088496896854e-02 -3.6252064359760677e-01
    1.6545124393514202e-02 -2.8959564821394612e-01
    1.8069833713392776e-02 -2.8011910016323094e-01
    2.4639706505832394e-02 -2.4513007067778045e-01
    3.5563466939348788e-02 -1.6698948616987860e-01
    2.9179830568967273e-02 -1.8029107764263136e-01
    1.8290778954305545e-02 -3.1005221645546083e-01
    1.4773355971656899e-02 -4.0004008978190286e-01
    1.2962832238179461e-02 -4.6718819192377775e-01
    1.2081389529437145e-02 -4.8708108205690159e-01
    1.2161286627558438e-02 -4.5342345121666799e-01
    1.1566666986001103e-02 -4.8778778974116971e-01
    1.2017720997472241e-02 -4.5525859177839695e-01
    1.1911657966243371e-02 -4.3444508411929306e-01
    1.1440576918795898e-02 -4.4653856650304313e-01
    1.4044580080385402e-02 -3.5945762874209675e-01
    1.6260849117064696e-02 -3.0167285709737074e-01
    1.8940632136798800e-02 -2.5240506804221191e-01
    2.1455139493641268e-02 -2.3699364504275194e-01
    2.9891301118131815e-02 -2.0964359092730339e-01
    2.8774236800373974e-02 -1.8701307084194344e-01
    3.0666291466199008e-02 -1.7428744811642197e-01
    1.6854484660477589e-02 -3.1961941546946271e-01
    1.4793409776888193e-02 -3.8588979738710921e-01
    1.4071330361993319e-02 -4.0582173749007255e-01
    1.4173294774586885e-02 -3.9769613050857056e-01
    1.4682668709031862e-02 -3.8580251825707806e-01
    1.4100176933167634e-02 -3.8404379067767003e-01
    1.3466160503107729e-02 -3.9410841591503920e-01
    1.3938634433188985e-02 -3.6042403976158094e-01
    1.4785196176715134e-02 -3.3967937846856505e-01
    1.6980276365553774e-02 -2.9976276788229306e-01
    1.7449432741001053e-02 -2.8313416508436212e-01
    1.9078358206815981e-02 -2.6002330698112386e-01
    2.0731790584499251e-02 -2.4406844125188565e-01
    2.6537756976741544e-02 -2.1413348423857892e-01
    3.7525918569175844e-02 -1.6249382871632301e-01
    2.9600299516678384e-02 -1.9322306477463669e-01</input_scale>
  <output_scale>
    5.2631578947368418e-01 4.9999999999999994e-01 5.2631578947368418e-01
    4.9999999999999994e-01 5.2631578947368418e-01 4.9999999999999994e-01
    5.2631578947368418e-01 4.9999999999999994e-01 5.2631578947368418e-01
    4.9999999999999994e-01 5.2631578947368418e-01 4.9999999999999994e-01
    5.2631578947368418e-01 4.9999999999999994e-01 5.2631578947368418e-01
    4.9999999999999994e-01 5.2631578947368418e-01 4.9999999999999994e-01
    5.2631578947368418e-01 4.9999999999999994e-01 5.2631578947368418e-01
    4.9999999999999994e-01 5.2631578947368418e-01 4.9999999999999994e-01
    5.2631578947368418e-01 4.9999999999999994e-01 5.2631578947368418e-01
    4.9999999999999994e-01 5.2631578947368418e-01 4.9999999999999994e-01
    5.2631578947368418e-01 4.9999999999999994e-01 5.2631578947368418e-01
    4.9999999999999994e-01 5.2631578947368418e-01 4.9999999999999994e-01
    5.2631578947368418e-01 4.9999999999999994e-01 5.2631578947368418e-01
    4.9999999999999994e-01 5.2631578947368418e-01 4.9999999999999994e-01
    5.2631578947368418e-01 4.9999999999999994e-01 5.2631578947368418e-01
    4.9999999999999994e-01 5.2631578947368418e-01 4.9999999999999994e-01
    5.2631578947368418e-01 4.9999999999999994e-01 5.2631578947368418e-01
    4.9999999999999994e-01</output_scale>
  <inv_output_scale>
    1.8999999999999999e+00 -9.4999999999999996e-01
    1.8999999999999999e+00 -9.4999999999999996e-01
    1.8999999999999999e+00 -9.4999999999999996e-01
    1.8999999999999999e+00 -9.4999999999999996e-01
    1.8999999999999999e+00 -9.4999999999999996e-01
    1.8999999999999999e+00 -9.4999999999999996e-01
    1.8999999999999999e+00 -9.4999999999999996e-01
    1.8999999999999999e+00 -9.4999999999999996e-01
    1.8999999999999999e+00 -9.4999999999999996e-01
    1.8999999999999999e+00 -9.4999999999999996e-01
    1.8999999999999999e+00 -9.4999999999999996e-01
    1.8999999999999999e+00 -9.4999999999999996e-01
    1.8999999999999999e+00 -9.4999999999999996e-01
    1.8999999999999999e+00 -9.4999999999999996e-01
    1.8999999999999999e+00 -9.4999999999999996e-01
    1.8999999999999999e+00 -9.4999999999999996e-01
    1.8999999999999999e+00 -9.4999999999999996e-01
    1.8999999999999999e+00 -9.4999999999999996e-01
    1.8999999999999999e+00 -9.4999999999999996e-01
    1.8999999999999999e+00 -9.4999999999999996e-01
    1.8999999999999999e+00 -9.4999999999999996e-01
    1.8999999999999999e+00 -9.4999999999999996e-01
    1.8999999999999999e+00 -9.4999999999999996e-01
    1.8999999999999999e+00 -9.4999999999999996e-01
    1.8999999999999999e+00 -9.4999999999999996e-01
    1.8999999999999999e+00 -9.4999999999999996e-01</inv_output_scale>
  <weights>
    <_>
      -1.1089653662193559e-01 1.2027769516760013e-01
      5.5056110729582483e-02 -1.3310543555030654e-01
      -2.1584796269968530e-02 3.4223954067580623e-02
      1.8327374172357486e-02 -1.1989360620482099e-02
      2.1957576663628579e-02 -1.3348292330442716e-02
      -2.3842102760445068e-02 3.5278095857590168e-02
      -3.2916660340201902e-02 4.3399769059088461e-02
      1.2459057382314910e-02 -5.1399140859735098e-02
      7.4960453870010742e-03 -1.4724649967631715e-03
      -1.6193230278251553e-02 1.6124744065473443e-02
      -1.8274962677029213e-02 1.3145972279025897e-02
      4.2914646395940410e-03 -6.3588940425594286e-03
      -2.1828190977588757e-02 4.6322823051151388e-02
      1.4647324843563546e-03 -4.8481802226756125e-02
      4.5711409408857012e-02 -3.5383395707192337e-02
      -4.0895870839068864e-02 4.2561577857225502e-02
      3.0288271339695420e-02 -2.4558360290350419e-02
      -1.9445073733607553e-02 3.1125046592879218e-02
      -2.6994534175362180e-02 2.5091910450380221e-02
      2.0083223710968681e-02 -4.6619011372288702e-02
      3.2813803395033966e-02 -2.2864436703522010e-02
      -1.4582147890624359e-02 2.8790062742507248e-02
      1.2434376610442530e-03 -2.3853013260974592e-03
      -1.3035528284857814e-02 -1.3303710837619470e-02
      1.1496005763972791e-02 2.1590113716844607e-03
      -3.9002572582452585e-02 -3.5125803573189440e-04
      -1.7576074050855501e-02 2.5016890642555519e-02
      -5.1862346081303339e-03 -6.6743305949644267e-03
      7.4373206180969728e-03 -2.1933642584948273e-03
      -1.2749754372974589e-02 1.9723696725988196e-02
      1.7702780585435198e-03 4.2425866245708668e-03
      -2.1531489970214632e-02 9.3048068393216752e-03
      2.0374441945292726e-02 -2.1984158205471883e-02
      -2.8669002638770810e-02 1.2109515291588395e-02
      -1.0065880367969999e-02 2.3247600408358556e-02
      1.5333780712487924e-03 1.3221738484665065e-02
      7.5944001731018701e-02 -8.6664845852462161e-02
      -3.2766340543564768e-02 9.9341639784014696e-02
      -6.6558410257861980e-02 6.2034579685973479e-02
      5.7740513786991209e-02 -8.0874501114551967e-02
      4.0175102560577720e-02 -2.1847714227554018e-02
      -2.3206753701140226e-02 3.3021941201677230e-02
      3.6337603688731582e-02 -2.7023943050230769e-02
      -4.0496329213127444e-02 4.3193827997624584e-02
      2.3264367597329205e-02 1.6544319831990318e-03
      -2.5873292918785450e-02 1.0337258924379416e-03
      -1.7319652940562910e-02 3.9410445550358213e-02
      -1.1442221051389125e-02 -3.8514820880484073e-02
      -6.0832309280482069e-02 8.5522745124343894e-02
      3.7950328723919118e-02 -9.4265169472843899e-02
      -3.2859995892417095e-02 1.9155164201260590e-02
      2.2898929009580224e-02 -5.1484417006727533e-02
      -2.4249483299869899e-02 3.0722646606784056e-02
      -6.1274391889923157e-04 -5.7795590882797024e-02
      6.0214170444995482e-02 -5.9937942864003578e-02
      -6.8602057343620418e-02 6.9364586548750107e-02
      -1.0357833847202557e-02 2.5316538239596030e-02
      -9.5305744843954023e-03 -4.1104343840956604e-02
      2.7041064152157159e-03 -1.9736771798614721e-03
      -1.8492509117547202e-02 6.5346316929975438e-03
      7.4506654595350988e-03 -1.4161285028464114e-02
      -2.1337318072923446e-02 4.2544564107286506e-02
      3.0300413123159685e-03 1.8838796647349068e-02
      -1.4921201383865556e-02 2.7410531961763459e-02
      -4.0657851165507741e-02 4.0611715064732941e-02
      2.9750756117824295e-02 -5.5439453714491382e-02
      -3.1524426559702189e-02 3.6373117342775103e-02
      2.4158957357713586e-02 -3.0307331142129312e-02
      2.8647037139109169e-02 -3.7473092698125564e-02
      -1.0801072459732709e-04 4.8394135406662944e-02
      -3.6467101080182716e-02 3.2644772316099545e-02
      3.6870940829780617e-02 -2.4376863088776977e-02
      -3.6934656378279411e-02 4.5830858486970029e-02
      2.7434057237807310e-02 -4.6271096565263542e-02
      5.6342930593979608e-02 -4.3069327397396259e-02
      -4.5960271205927536e-02 5.3761852945099185e-02
      7.0081351439506806e-02 -4.2569497391467266e-02
      -5.7668795262549803e-02 7.2454383326644611e-02
      -9.2204459382398442e-03 3.4240937081285769e-02
      -1.1229210092774382e-03 -1.8304813345180949e-02
      -5.1154568253127301e-02 5.4844341701116586e-02
      2.3371785781099854e-02 -6.1347022930612324e-02
      -1.0128605237799642e-02 -1.4007744755135965e-02
      2.2140065008555108e-02 -1.4657515944341580e-02
      3.1033356392375429e-02 -3.9698517545251354e-02
      6.1973814247499523e-03 2.9393084830016160e-02
      -1.0546285947984669e-02 -2.3730681083587511e-03
      4.1796906377798058e-02 -1.6770908020364763e-02
      -3.4021973635976749e-04 -9.1206054512009450e-03
      -2.0939941155276565e-03 9.7508495582544470e-04
      1.5543340023188745e-02 -2.7434790777044029e-03
      -2.4848282199366713e-02 1.1829345437731049e-02
      2.5888391544309844e-02 -1.2726420943807912e-02
      -5.0531454946300888e-02 4.5751580562663992e-02
      -6.6433691414276982e-03 -1.0924233733170185e-03
      -4.1226843089165214e-03 3.8052098488335177e-03
      7.0497576271265298e-03 1.0108788555399154e-02
      -1.4370987716601455e-02 -2.9323765794037242e-03
      1.9768945393360018e-02 -7.7351488167751335e-03
      -1.7552821957817748e-02 -5.2251246051304061e-03
      1.1971409536921928e-02 -1.4757870007260952e-02
      3.1433259513944851e-03 4.3719512980337327e-02
      -2.9048947458172224e-02 4.0205969262784177e-02
      2.9139500358548752e-02 -3.5420461500950233e-02
      -3.0577920249494871e-02 3.4629879124720639e-02
      2.3696917026167198e-02 -2.3177055159104704e-02
      -6.8505416557390189e-02 7.5484998800823100e-02
      4.4308238752875810e-02 -6.0081536650868940e-02
      5.0227374412942179e-02 -4.4777902075074115e-02
      -5.5240192359254564e-02 8.2011167208714347e-02
      4.5786858408775610e-02 -2.8694798833404096e-02
      -3.6030282397174609e-02 6.8272454060758977e-02
      3.4484208782158163e-03 -6.7168325191466370e-03
      6.7131999414840526e-03 2.2129998029771940e-02
      2.2912725775657398e-02 -5.9934393661972750e-02
      1.0186098582338321e-02 4.6902518768623717e-02
      2.6267494717932889e-02 -3.5515139021872810e-02
      8.2525963044149109e-03 5.4717881127386118e-02
      -4.3521871689655545e-02 2.7392500089379462e-02
      5.3870118950539399e-02 -4.0798120047132312e-02
      -3.4865986544137346e-03 -1.2860688978239117e-02
      5.7142735930854971e-03 -6.0812468292156790e-03
      -1.6238339516887960e-02 3.4532844725560325e-03
      1.6807107842620565e-02 -9.2161443120994790e-03
      5.1317111814303037e-03 -1.4221565838257465e-02
      -1.7758190607734602e-02 2.9538086513769667e-03
      2.2566603664112322e-02 -2.3836956542109981e-02
      -2.3944825207030711e-02 2.5692978283577705e-02
      2.6859295290451484e-02 -2.1514881022039301e-02
      -1.1589853320237998e-02 1.6414074788837871e-02
      -3.1113884638517147e-02 4.5300214639154297e-02
      2.5450473595134773e-02 -2.5019421356887440e-02
      -1.9906690032151012e-02 3.2205861824379609e-02
      1.7020957612834661e-02 -1.6643400928846523e-02
      3.3015583285621326e-02 -4.9079596731067716e-02
      -3.4761449388187544e-02 4.8468443225617414e-02
      1.7707600830209193e-02 -1.6508659283065205e-02
      -3.8663776605004307e-02 1.6768293593651881e-02
      5.1373369540915030e-03 -1.8809029984943014e-02
      -9.9595906337963634e-03 3.2777156809650432e-02
      -1.0439892525466224e-01 9.1484047795733603e-02
      6.3065933303699792e-02 -9.3592874569851561e-02
      3.8520341396634974e-02 -5.7823885715141639e-02
      -7.5735429923734030e-03 7.3470405119083287e-02
      -1.7706020715123533e-02 1.1789872678772415e-02
      2.6393963549101701e-02 -7.3983299833970551e-03
      -5.6920990947791288e-02 3.9080210887736604e-02
      4.2647654392118955e-02 -4.1649010298096541e-02
      -5.9149950724557823e-02 3.7799445789390290e-02
      5.0523245343959335e-02 -4.3445112138653624e-02
      5.5613247996679889e-02 -6.6299959195229546e-02
      -4.9953751801947943e-02 9.0902146530855196e-02
      3.1314924027955269e-04 -3.9273794053006020e-03
      -6.8158877837315038e-03 1.2511627304516253e-03
      -3.4387716991693758e-03 -2.9228358499106444e-03
      -2.0547597466981701e-02 4.4018042988117753e-03
      -4.2642413499289392e-02 5.7044726964715221e-02
      5.5579710191408600e-03 -7.2533974149620178e-02
      2.9269666104585645e-02 -2.2860259264258911e-02
      -3.3898798043110134e-02 3.1202987433549816e-02
      -6.7958865783171576e-02 5.9242036134760701e-02
      4.8134130837595032e-02 -7.8258272072372098e-02
      -1.4451852985363292e-02 1.3866147494981039e-02
      7.5570026763559913e-03 -3.0377344319161868e-02
      3.5970132481450312e-02 -7.0063421863444303e-02
      3.9784375838381849e-03 5.6113802156757035e-02
      -2.0384386945400561e-02 4.8187939643530896e-03
      3.0372041931100756e-03 -1.2328038788626846e-02
      -3.8395341844713694e-02 1.8118681353969848e-02
      8.3718935615342861e-03 -7.1392541803890104e-03
      -1.0528870391897094e-02 -7.8387445260501773e-03
      2.4211576516053068e-03 3.4736586933480952e-02
      -7.7926007447529366e-02 7.4162083345392704e-02
      6.2204986535841278e-02 -8.1070477702821386e-02
      -1.4647680364144553e-02 -2.8250793129180880e-03
      1.9054428929438115e-02 7.6399783085413699e-03
      4.1422742502041657e-02 -5.6259601018710054e-02
      -1.6343710146146686e-02 6.5106818645290027e-02
      3.1590036141401186e-03 -4.4380459097350007e-03
      -2.4545652983681259e-03 2.9195438079309851e-02
      4.2032494081057165e-02 -4.9522823517308107e-02
      -4.3754795316702774e-02 8.2727331662193870e-02
      7.3755806308964944e-02 -6.9285056787277588e-02
      -6.6410959272537110e-02 1.2167195326515819e-01
      -1.8400557654378285e-03 -1.4900474774127190e-02
      -1.3836873741993530e-02 2.1823652450342575e-02
      1.8244386993732695e-02 -3.7374833909029674e-02
      -3.9002114105333587e-02 3.8985805358264930e-02
      -1.1477376487765591e-02 4.0749430227645144e-03
      -1.6933215233111518e-02 -2.7898334950226592e-02
      -3.6352051468924777e-02 4.7231131211608220e-02
      1.9651426023515911e-02 -3.3695534756993398e-02
      4.8551912814347106e-02 -4.5334966468532634e-02
      -4.2900084127311118e-02 7.3789249627312856e-02
      1.2119727628916574e-02 -3.6052339996637830e-03
      -7.6632197305901142e-03 1.4310416821090358e-02
      2.3272629530857219e-02 -2.1834662250590848e-02
      -5.3190992165762512e-04 2.7516406503257745e-02
      -6.3564408368215725e-02 4.6785182020150362e-02
      5.3522127194459986e-02 -5.1241293640775662e-02
      4.6566149401202116e-03 -2.7956773568080701e-02
      6.5196824843031650e-03 2.5400876410968411e-02
      1.0941557735586869e-02 -2.1611555541175099e-02
      -8.7453734584035624e-03 3.4416380458994061e-02
      -8.1938777817975594e-02 7.4842177970324844e-02
      6.2134676378819337e-02 -7.8187177865862809e-02
      4.0008126923051134e-02 -4.4080547019839975e-02
      -1.5353589480650421e-02 7.1924495446652761e-02
      4.6631973552381210e-02 -5.4043214144634470e-02
      -2.9412344844773747e-02 8.0224953604321553e-02
      5.4097114121627841e-03 -2.2068905120083838e-02
      -1.2964150053881116e-02 4.7227537334888124e-02
      -1.4731286969584862e-04 2.3113673847380539e-03
      -2.5177349707100300e-02 1.4836616029498722e-02
      3.5265097660004581e-02 -2.4932432049133556e-02
      -5.1422414867415632e-02 4.8824212264985664e-02
      4.4342521482300869e-02 -4.9391685624237305e-02
      -5.9916739316866585e-02 7.1359919326695859e-02
      -4.6194966337076676e-02 4.4811499543591961e-02
      2.0313893324410217e-02 -1.6099752445027492e-02
      2.4053231349366606e-02 -2.3994447228034420e-02
      -1.7590547358057693e-02 2.8552964901350415e-02
      -6.7437454313719641e-02 7.1332355945915707e-02
      5.2752412606738776e-02 -7.7038014566557692e-02
      1.8783303806088857e-02 -3.8373010459160209e-02
      -2.6901110318858092e-02 3.6145158114076141e-02
      2.7414565671917334e-03 -1.0142417898470774e-02
      2.2638841219353362e-02 2.2025282919490456e-02
      -2.2064979149995563e-02 1.6141146012390684e-02
      2.5433064314844663e-02 -2.5706092011045085e-02
      -2.3376168186697816e-02 4.8318082361196940e-03
      2.0449614075786632e-02 -4.4440154656689981e-03
      4.4380972575999475e-02 -5.7324189856715550e-02
      -1.2792084942224377e-03 7.8985758581962398e-02
      3.6768229038416131e-02 -3.4114022557821470e-02
      -2.0303897723581796e-02 5.1692210529038315e-02
      -2.8493298700599523e-03 -1.2095943556501995e-02
      2.7646133678530058e-03 2.2768238864075047e-02
      -7.1149533729333459e-03 5.6908027410795970e-03
      1.6372333450800473e-02 6.9826396816728351e-03
      5.0593378287800521e-02 -5.6020636085100238e-02
      -1.8640869603649267e-02 7.7072620306758738e-02
      5.6353342946843882e-02 -6.5780062166539352e-02
      -4.2350249215919088e-02 9.8929023803728228e-02
      4.2080189540759420e-02 -4.2580140018648710e-02
      -3.1245092209293068e-02 5.3917920079482401e-02
      3.3012917924050496e-03 -2.5508553965799805e-03
      -5.0879735602894305e-04 1.8832690926423392e-02
      3.8143696799517708e-03 -1.4073508003082925e-02
      -1.2657633760333476e-02 4.0318731834131843e-02
      -2.0543388549356986e-02 1.5732342470016588e-02
      2.2981642636911704e-02 8.8542494523939589e-03
      6.8635329434775724e-03 -1.4892425040192463e-02
      -1.7037653732357827e-02 2.8990069169108807e-02
      5.1772633010457883e-02 -5.3404290319223259e-02
      -2.7493801112217456e-02 5.1430837594711565e-02
      1.9110860212652122e-02 -2.8981883806451222e-02
      -1.6990627643782400e-02 3.3894698625761117e-02
      8.0858158566202848e-03 -2.8825220599738854e-02
      2.1300329207049374e-02 2.7476762560978731e-02
      -3.9599607877000668e-02 1.8617795540388546e-02
      3.8413586069853914e-02 -3.2495213390319681e-02
      -2.1455835853911646e-02 5.3627428510504612e-03
      9.6108398136531756e-03 -4.7098278709847979e-03
      -2.9843434985669163e-02 1.1674123300596931e-02
      4.7671330878386174e-02 -2.4437418983211546e-03
      -1.0257042509109769e-02 9.3444548615210510e-03
      -2.5300234520696414e-03 4.5112774183787728e-03
      6.5122543769177187e-03 -1.6333771458972801e-02
      1.3410562237811285e-02 1.9109324171191718e-02
      -7.3817800247977808e-02 6.3348973381374726e-02
      6.8802851296614356e-02 -8.1974682141821631e-02
      -1.9792685750469337e-02 1.4670102662995945e-02
      2.9923443563752782e-02 -3.8736399231402690e-03
      1.3478525697800487e-02 -2.0766471777211214e-02
      7.0015811268742782e-03 2.9578696680236910e-02
      -1.9719206136973453e-02 1.7763745171352586e-02
      2.6995680042143075e-02 -8.3306521598060321e-03
      -6.6728303202047895e-02 3.1897767710027114e-02
      5.5135250313167308e-02 -4.4011675236619599e-02
      9.4328207574381241e-03 -1.6457239722675342e-02
      8.2278409868607443e-03 3.9975149708699968e-02
      2.8877712323975999e-02 -3.4991167111459359e-02
      3.7929641419502521e-03 5.6778459312481780e-02
      -3.1805610700064255e-02 3.2703772711474191e-02
      2.0300047222512760e-02 1.0895965981228052e-02
      -1.7103686621857811e-03 1.6765311573890915e-02
      -9.3524411365716736e-03 -7.6220374825441061e-03
      -7.7489364119331799e-02 7.3531978866255884e-02
      7.7790997838772122e-02 -9.0074893384278806e-02
      -6.9871142027923662e-03 -1.1326374930417301e-02
      1.5538591841179212e-02 1.3195160193395490e-02
      7.3159132168176615e-04 -2.4787052437070366e-02
      -7.9220637731361682e-04 8.3346165252705471e-03
      -7.3075784873544533e-02 4.9120585237809489e-02
      6.2828878791812995e-02 -7.2630742903952078e-02
      5.3659032965947253e-03 -3.0538486906056522e-02
      1.1390400218940978e-02 3.2049366422877458e-02
      -2.8775279688897440e-02 1.5363323970367241e-02
      3.0068958606763532e-02 -3.2133814239064244e-02
      -9.0988422100841543e-02 8.7789312572997102e-02
      6.7442471791110112e-02 -1.0053660874361359e-01
      -1.6218554624993334e-01 1.5305460496526341e-01
      1.2316047287645905e-01 -1.9069579011898768e-01
      3.5429169016810938e-02 -5.4734098214165951e-02
      -9.6626410098956915e-03 6.2857619539961204e-02
      -3.1752843285251055e-02 2.3302956247780397e-02
      5.1860791382045843e-02 -2.1405061341109321e-02
      -2.1846318707202921e-02 1.3088188402552355e-02
      3.0023252454096469e-02 -2.4283002911961739e-03
      -1.4813546381192534e-02 6.0979912102978179e-03
      1.4994636536701404e-02 1.3808133607740657e-02
      2.3869218798560656e-02 -3.3141858731881246e-02
      -1.9595114024633389e-02 6.1153036342315038e-02
      -4.4746811801901869e-02 4.5692053548577478e-02
      2.9360584988761394e-02 -2.8767158384227321e-02
      4.0820459371752181e-02 -3.5149081862819363e-02
      -2.9487624278397573e-02 9.1257412446447930e-02
      -7.4144669121119578e-03 1.0577938521192577e-02
      6.3088717016544140e-03 2.3786285801152267e-02
      -3.8681565087099128e-02 1.2088762223696623e-02
      2.5598423099014424e-02 -3.0753030444665867e-02
      2.4825637181385998e-02 -3.4405400410366237e-02
      -6.7656823137377010e-03 3.0698890499613628e-02
      -5.4895264368733716e-02 1.5768980018702517e-02
      4.7602201059634718e-02 -5.2338956395175912e-02
      -6.3986148068162066e-02 2.7680520767060627e-02
      6.1314311039936516e-02 -7.1381306182624990e-02
      -5.3176443119574320e-02 2.2919075865304520e-02
      5.9241092001363287e-02 -5.1172080781591418e-02
      -4.9509741380827595e-02 4.1606305231679852e-02
      4.2832039641909549e-02 -3.8535899113734819e-02
      5.1593268619735476e-02 -5.9994184360037998e-02
      -2.8850019215903532e-02 6.1798623599087645e-02
      -9.3567448339641104e-02 8.8384711646171565e-02
      8.5850917211070660e-02 -9.3653487010527753e-02
      -3.2927104427669697e-02 1.7390018717440520e-02
      4.4837070393039129e-02 -2.0031095674514846e-02
      -5.1869484814691363e-02 4.0015492641098022e-02
      5.1277980710962213e-02 -4.1110047954759546e-02
      -5.3843225730759114e-02 4.3360827293842809e-02
      4.4314891390109891e-02 -3.3531979225374813e-02
      5.7193254795778114e-03 -6.8860405345392535e-03
      1.8509659653858030e-03 3.7088282820364657e-03
      1.0027973715215391e-01 -1.0737543613807311e-01
      -5.1374476031402896e-02 1.6361176905601324e-01
      5.4802960782141481e-02 -5.6444647343568841e-02
      -5.8760323986371814e-02 8.3471664852539443e-02
      1.7116165364328546e-02 -1.4565250651337118e-02
      -8.4192462156728112e-03 8.1186814536584731e-02
      -2.3314668980052633e-02 3.1515793516396190e-02
      2.9316907106060053e-02 -4.3824697718408247e-03
      -1.9335526068127756e-02 -1.5153009850629158e-03
      1.7222754787820781e-02 -2.6674484691833200e-02
      -6.0297167698829136e-03 -6.7977309291832244e-03
      1.1773471482774842e-02 1.5017844388575485e-02
      -1.0925401261375103e-02 -6.6961113640470263e-03
      1.3214534458926671e-02 -9.4225725644401688e-03
      -2.9064533609408538e-02 1.1294783707290075e-02
      3.3009393913992921e-02 -3.1838325615760887e-02
      -4.8629714510549871e-02 1.9160070200083625e-02
      5.5115027545312202e-02 -3.8378907867046924e-02
      -3.9597555975091604e-02 2.7420526184375689e-02
      3.4891273159116366e-02 -2.9168115685862632e-02
      -3.4337343267210940e-02 2.7414612059679672e-02
      2.4439383017471093e-02 -1.7872604756291016e-02
      -9.8859177239756253e-03 -5.1447438636656861e-03
      2.0278352370121121e-02 1.7563914131404772e-02
      3.5943766863158803e-02 -5.5683876860351353e-02
      -1.3728757920775148e-02 7.6989902233538368e-02
      5.7906370225734333e-02 -5.5176788153590429e-02
      -3.1693937699881033e-02 1.0131662053270840e-01
      -8.9733780991556406e-02 7.0674163766221099e-02
      7.1379521189610315e-02 -7.0631212582061106e-02
      -9.8215794357300559e-02 8.4692891391332528e-02
      1.0316900273462697e-01 -8.5808390657671915e-02
      4.1249536201083500e-02 -4.8388187437935756e-02
      -2.4082559590020831e-02 8.3495188812827192e-02
      7.9162906901923055e-03 1.0607966284310847e-02
      -8.8310398381144413e-03 3.2725829559593272e-02
      -1.7092191482145636e-02 2.3445706097214327e-02
      1.6519037909161396e-02 -5.0470448854297916e-03
      2.6338234050380830e-02 -1.6986830759432871e-05
      -3.4163589826178932e-02 2.7016796344472311e-02
      -4.9822333584597776e-02 1.9664440839862608e-02
      4.7204956709910678e-02 -3.2882125325659296e-02
      -9.4138469270873312e-02 8.6133008763893584e-02
      7.6839044825870284e-02 -1.0630555014045651e-01
      -3.5324120496402732e-02 1.2392315352761720e-02
      3.3330174239799774e-02 -4.6334218901940977e-02
      -2.5651640994542538e-02 1.3393447269291728e-03
      3.4339877947837431e-02 -9.5192465432042822e-03
      -7.1919072400826846e-03 -2.1584548495446894e-02
      2.6214794275880318e-02 1.2729942193653547e-02
      -2.0364964048128917e-02 1.5009886904249051e-02
      2.6314431168256228e-02 -1.2342011420456442e-02
      7.1558939448186615e-02 -7.5776157327310981e-02
      -4.4918106045753310e-02 1.1712537629854412e-01
      4.4499196314570832e-02 -4.3356592507055168e-02
      -2.7335772587307225e-02 7.4885638379017766e-02
      -8.0991165630567380e-02 7.1582491031692647e-02
      7.3214105500504070e-02 -7.7655118942444007e-02
      -1.8637638270397747e-02 -4.3593830779021644e-03
      1.3944090276414583e-02 5.4719519173642628e-03
      -7.3775448571426344e-02 5.7965933215887049e-02
      7.0732414007639896e-02 -8.7619713240368102e-02
      -8.1952543381307238e-02 6.1892616117453378e-02
      7.7980744578257016e-02 -5.2455458922998667e-02
      1.6780333687972375e-02 -1.7718971499050870e-02
      -1.5868430549331441e-03 6.4011708187007868e-02
      2.7675883646124081e-03 -1.4176106660685098e-02
      -1.1538752978310649e-02 5.0544367331900028e-02
      2.5939323561242112e-02 -1.3297111062064999e-02
      -2.3143761928889645e-02 4.3657569367363862e-02
      -2.7196548674265183e-02 3.2081275946846982e-02
      2.0242644875816663e-02 4.6338980856547074e-04
      2.8896639774129304e-02 -5.0537432957158825e-02
      -6.6373102148462853e-03 3.8615999179780272e-02
      3.3227514418552706e-02 -4.0923743918262541e-02
      -1.6807203566719775e-02 3.2639015588852828e-02
      -5.0098959249373833e-02 2.9572735036207290e-02
      3.1641239993713988e-02 -5.4863319622390695e-02
      5.3137831482789107e-03 -3.7337886347399041e-02
      5.7933908667679905e-03 1.6026475101176232e-02
      -9.6218744599173948e-03 -2.2628917782815627e-02
      2.5108109244118802e-02 -2.5305955563106968e-03
      4.0556902632507379e-02 -7.3584055305895887e-02
      -2.1142404182178210e-02 7.3735924089158356e-02
      -8.2841059445675821e-03 -2.1160617472499071e-02
      1.2531685276569409e-02 1.7250377117865517e-02
      -9.9080999482016346e-02 9.4796339840960572e-02
      6.6078714899737101e-02 -1.1594864845656710e-01
      6.0688516341209531e-02 -8.0790697805475889e-02
      -2.2230111821885910e-02 9.1246106676444644e-02
      -1.1858826015970396e-02 -1.1468380771851428e-02
      6.5610819737235808e-03 1.2464157234626192e-02
      -9.3264656424979879e-03 8.7186068893629030e-03
      2.3620363036579314e-02 -1.0299885338984818e-02
      -2.4543838763705804e-03 -1.2042338779046580e-02
      3.1016016421498486e-02 3.7693691663592620e-02
      1.3962246071661653e-02 -2.3497005395089494e-02
      1.4518693835265410e-03 3.6286878855398302e-02
      6.2162376208088335e-03 1.3951706759186994e-02
      -1.2840173257661935e-02 1.3649921993599677e-02
      -1.1960041122750691e-02 1.2646902761227671e-02
      1.3063099039462138e-02 1.4674911519242211e-02
      2.4416328190296925e-02 -1.6484503255256546e-02
      -1.7851434864661384e-02 3.5854147917507129e-02
      6.8044210165830760e-02 -9.0135502819950739e-02
      -4.9541652843133818e-02 7.7848858630272771e-02
      -2.7995672941091104e-02 2.2774853291303295e-02
      4.3824841835279800e-02 -4.8653911062652780e-02
      2.7788114053204339e-02 -5.6881183110837064e-02
      -1.9292085091751371e-02 3.8195667681115791e-02
      -6.2056013677158156e-02 2.9435174007501175e-02
      3.1738318394532769e-02 -6.8665146756034898e-02
      -2.2874849997691175e-02 -3.6925700488628943e-03
      3.0055966939460360e-02 2.5537532133066681e-03
      -2.3628632566222194e-02 -7.2702314151682065e-03
      2.5709058199989851e-02 -5.0408976274579284e-03
      2.5734022779712002e-02 -5.8531294753911653e-02
      -5.4863339039892443e-04 5.1361771659094467e-02
      -7.1086341997170753e-03 -1.1636307908888336e-02
      3.4710061686652492e-02 -1.0858899699612529e-02
      2.6009598827086856e-03 -5.8911522938630521e-03
      1.2941743558550052e-02 -6.0608492259281201e-03
      4.4233956069094629e-03 -8.7460928101990489e-03
      1.3468030859690614e-02 -5.2427247557513641e-03
      1.5573504200977089e-02 -2.2603743727049194e-02
      4.0278932872000869e-03 2.9077314785457133e-02
      3.7709008658901470e-02 -6.9904069409265898e-02
      -1.6279006145389525e-02 7.3041977720804521e-02
      2.8299532826073531e-02 -6.5302506921550776e-02
      1.1420788056841181e-03 4.6098103603199096e-02
      1.4098327247127397e-02 -2.5616103542003461e-02
      6.7977594725293113e-03 5.4819624109307179e-02
      -3.5082923257345579e-03 3.6264545555929652e-03
      1.4418592138215216e-02 -7.7077397616879166e-03
      5.0310488559948435e-02 -2.6845099167229835e-02
      -5.7732811105347143e-02 6.4074549917592163e-02
      2.4648946364779930e-02 -6.2686109614226188e-02
      1.2261747674921256e-02 6.9373869209532729e-02
      -1.7344086950280273e-02 6.6766255266465582e-03
      7.6661767880675030e-03 -1.5396107958056687e-02
      6.3473418552141017e-02 -9.6156576519214790e-02
      -4.8109420541244508e-02 8.9665069794852115e-02
      -5.9889680519131835e-02 3.5128076709365165e-02
      2.9968698255917438e-02 -4.1266102503192660e-02
      -3.9843628960784326e-02 -8.0764384789322879e-03
      3.7447367517850154e-02 -1.5626305496547831e-02
      -7.3291929010975726e-02 3.1310236941322012e-02
      7.9352176143807393e-02 -6.4088690355986147e-02
      -5.4438586247620366e-02 1.8608415281011176e-02
      5.9292497778897106e-02 -3.8038973722088178e-02
      -5.2378174532568683e-02 3.0101866503708993e-02
      4.8752882825380296e-02 -5.3915349018861379e-02
      -3.2121226490850051e-02 3.8006901646299801e-02
      2.3094427210014392e-02 -5.1168475232395080e-02
      4.1772632491593423e-02 -3.8116073510697610e-02
      -1.3759106608849997e-02 4.3383288129113066e-02
      1.7527197027577469e-02 -4.1194588824657027e-02
      4.2135620152605425e-03 2.1955376084991356e-02
      -2.5580703997998791e-02 7.8485758753016350e-03
      3.3748749046002308e-02 -7.4302738002085230e-03
      4.2094201122980131e-02 -6.4689400108038517e-02
      -1.1011863584446422e-02 7.1341353250463174e-02
      -5.1454130342418357e-03 1.7672152511051212e-02
      2.2764755988090011e-03 1.3409310204924698e-02
      -3.1125943282878567e-02 3.1087847659704789e-02
      1.6607897510072668e-02 -2.5056752472783939e-02
      -8.3452139775566517e-04 5.7425213661953679e-03
      -8.0664830904511233e-03 -8.0408727161296930e-03
      2.3018475857328013e-03 -2.6217565069370133e-02
      -2.1311127202899255e-03 8.4898689342124120e-02</_>
    <_>
      5.8097122840536253e-01 -2.1799161764307537e-01
      4.1820191460223449e-01 2.7096704019868534e-01
      -5.0829502553005079e-01 4.9166550182095931e-01
      -4.3634940663915095e-01 -3.5072745669162814e-01
      -5.6620838363020964e-01 -9.1714831980774486e-02
      -2.0563690951809591e-01 1.7244697514423460e-01
      6.8035690196877185e-01 -3.5476257625604679e-01
      5.1965286800204813e-01 3.8154478766466343e-01
      -1.2217886352134553e-01 -4.8668857053647027e-02
      1.0935655716825224e-01 8.9485983104804601e-02</_>
    <_>
      6.4934916815921684e-01 -3.8305195680705439e-01
      1.0660702014138792e+00 -3.3964187807722490e-01
      -2.7738914723615998e-01 3.5568672927694728e-01
      -1.7942618677440084e-01 -3.0168245207819466e-02
      -1.0973202327693884e-01 7.9276522203282893e-02
      5.8954753058076370e-01 -5.3287775716050634e-01
      2.3806490340701947e-01 1.8318591399586853e-01
      4.0147737509846032e-01 3.4838297131767099e-01
      -1.2507613190520850e+00 -2.1140019000746982e-01
      5.9218549499133986e-02 -2.2435242580151987e-01</_>
    <_>
      -7.5759908156229971e-01 -5.0065759277850275e-01
      -3.5255056084733963e-02 1.2477057765106505e+00
      -5.5757833416384170e-02 4.7436000447156046e-01
      1.7674032119017405e-01 2.1681822171264226e-01
      -6.7792199225193098e-02 -7.3393291345576550e-01
      -1.0412112697022109e+00 4.3471483252466853e-01
      -4.4561221842251264e-01 1.3936225156825502e-01
      3.4994191153746318e-01 -2.6184922021400958e-01
      -1.9025108349909059e-02 6.0536851510532841e-01
      -9.4883524301954414e-01 -1.4263134152408576e+00</_>
    <_>
      1.9898418357788039e-01 5.0190737134905294e-01
      -8.0993601921001523e-01 2.1543780973748602e-01
      -9.2318398972457294e-01 6.6422858067815271e-01
      4.5451555840249153e-01 -7.8723872862560773e-02
      -3.4844592304441951e-01 2.3484260100654450e-01
      -6.1811206859084900e-01 -8.0233011365893903e-01
      -1.2616062954995361e-01 5.1825109140336079e-01
      7.9225143568690637e-01 -1.0129058368730379e+00
      -3.7266083835096414e-01 -1.8030812720992381e-01
      -1.0111368088203549e+00 3.1771418942251950e-01
      9.1239821389849463e-01 2.8176777178769413e-01
      8.1932340373866208e-02 -4.9599506782512598e-01
      -1.5599381405337223e-01 -3.3003663211557194e-01
      -2.0839844835066790e-02 1.2453576927458392e+00
      8.2749261617971781e-01 8.0518150070265304e-01
      -3.1872474507108978e-01 -1.0289805103963001e+00
      -2.6918182890248610e-01 3.2784119953734114e-01
      -5.4858885370020150e-01 -9.5371666112545675e-02
      7.9692469705577376e-02 -3.3384181689820103e-01
      -3.2688435251299630e-01 -3.1464166081910105e-01
      -9.9322949178662778e-01 -6.4708007292024958e-02
      -6.5493368685766562e-01 1.6932470751790465e-01
      -4.4236611045567320e-01 -4.8490265896470486e-01
      -1.0955389285723387e+00 6.1052664355552888e-01
      6.3985769676505784e-04 5.0624685942071235e-01
      -1.0424140858825202e+00 -7.8173541098915911e-01
      9.8317258736181834e-01 1.7060492687048596e+00
      1.1575015594550253e+00 2.6601626135791107e-01
      2.7945510393483719e-01 7.0630122086923774e-01
      -8.1220029975724334e-02 9.5885436112593536e-01
      5.9259966541484699e-01 1.1345517512612360e-01
      -1.3611033233947895e-01 -4.5408767176515508e-01
      -3.8469392198848290e-01 7.8590451958955965e-01
      -4.4397434840773742e-01 2.6861831444401135e-01
      6.1896131042009517e-01 6.1702747191598017e-01
      3.6593742179198124e-01 3.6275821367793526e-01
      8.7016856134268383e-01 -3.2497781015445337e-01
      4.2074795338758630e-01 3.7741228835410323e-01
      6.0644587990123799e-01 3.3129760385543200e-01
      7.5598079632258930e-01 -4.6502269274386200e-02
      3.6972615881850204e-02 1.2715043786444582e+00
      7.5028450490154674e-01 1.2783596184161039e-01
      1.1677742496259418e+00 1.2528430726084729e+00
      8.9677655014670532e-01 8.3561361101643217e-01
      1.4202517584516461e+00 -1.1812614470682589e-01
      1.2919378248876194e+00 1.0794973208498522e+00
      5.0148177456560183e-01 4.2825177988285562e-01
      -1.1480331940231039e-01 6.4586825431340689e-01
      9.8986273833276878e-02 6.4906408099644630e-01
      -4.0184132416297792e-02 9.8136345475267994e-01
      1.2854243141215662e+00 9.7250464828285454e-01
      -2.4714608527823914e-01 4.3287325003266619e-01
      -3.6815936923858573e-02 -1.2413827237597741e+00
      -8.3105040646672879e-01 -7.3565385486191304e-01
      -3.4597322429204108e-01 -9.9724473914257938e-01
      -6.5403615225077416e-01 -1.9182226600043362e-02
      2.7178372811589546e-01 -8.7836356687776318e-01
      -1.7833097427594996e-01 -1.5195458528844084e+00
      -1.7521412630091493e-01 -2.3559255594418749e-01
      -1.0160808610752716e+00 -8.9364602798224391e-01
      -1.1793443653569005e+00 -6.9916740856138859e-01
      -9.8316088539336655e-01 -8.1066313087463782e-01
      -1.1930512869091414e+00 -1.2779705304072602e+00
      1.6845032979386429e-01 -6.7575861676067461e-01
      -1.1951301140349140e+00 -7.4430497397090256e-01</_></weights></opencv_ml_ann_mlp>
</opencv_storage>
