<?xml version="1.0"?>
<opencv_storage>
<opencv_ml_ann_mlp>
  <format>3</format>
  <layer_sizes>
    576 4 4 4 4 26</layer_sizes>
  <activation_function>SIGMOID_SYM</activation_function>
  <f_param1>6.6666666666666663e-01</f_param1>
  <f_param2>1.7159000000000000e+00</f_param2>
  <min_val>-9.4999999999999996e-01</min_val>
  <max_val>9.4999999999999996e-01</max_val>
  <min_val1>-9.7999999999999998e-01</min_val1>
  <max_val1>9.7999999999999998e-01</max_val1>
  <training_params>
    <train_method>BACKPROP</train_method>
    <dw_scale>1.0000000000000000e-03</dw_scale>
    <moment_scale>0.</moment_scale>
    <term_criteria>
      <iterations>128</iterations></term_criteria></training_params>
  <input_scale>
    1.2896849564330152e+01 -2.4682503053449563e+00
    1.9960414179720690e+01 -2.8411727063989138e+00
    2.1617256824617510e+01 -3.0141228501985813e+00
    1.9498102068647562e+01 -2.0886229188127379e+00
    1.8457318334865818e+01 -3.6257128953350755e+00
    1.8656222474340534e+01 -1.9896572306840163e+00
    1.9352517837600679e+01 -2.7052387105162867e+00
    1.9615590159877268e+01 -2.6099973843697586e+00
    1.2997769474948210e+01 -2.4463230743152273e+00
    1.4102941745962713e+01 -2.8647875413287109e+00
    2.2343603943663918e+01 -3.4299619065023874e+00
    2.1677225664750551e+01 -3.2192474074660997e+00
    2.0595572643122647e+01 -2.2943327551491972e+00
    1.9163808642662328e+01 -3.7371986198253384e+00
    2.0072555836180481e+01 -2.1378933070325203e+00
    1.8798871678859268e+01 -2.7373346037028830e+00
    2.0364941254048926e+01 -2.8764813294509195e+00
    1.4002772214687170e+01 -2.7349654069867992e+00
    1.8298935150060561e+01 -3.4080807135238480e+00
    1.9414359715552433e+01 -2.8760668935948042e+00
    2.2069766586931728e+01 -3.2425048706178070e+00
    2.0235442577482463e+01 -2.2419884455929933e+00
    1.9191070438176219e+01 -3.7547333680538855e+00
    2.3246494219780647e+01 -2.4546294767314478e+00
    2.1115664077594690e+01 -2.9980412985097544e+00
    1.9810370124083789e+01 -2.7400115670736662e+00
    2.0824134230764933e+01 -3.6837263283056472e+00
    1.7431442107315135e+01 -3.4088313869740059e+00
    1.6794887077626857e+01 -2.7200810802451931e+00
    1.7703401478334939e+01 -2.8508005452822127e+00
    1.7078460922940259e+01 -2.0758339190717914e+00
    1.8496041739400642e+01 -3.6456217102233834e+00
    1.7246380885390785e+01 -2.0264558698148560e+00
    1.7830790397515567e+01 -2.7361205666596620e+00
    1.7901425281221879e+01 -2.7066237821686818e+00
    1.7587592391649395e+01 -3.3378383926433504e+00
    1.1860255483197127e+01 -1.8947087510458325e+00
    1.5595778979109197e+01 -2.0167470435146546e+00
    1.8279270142985563e+01 -1.9982024742269813e+00
    2.2162753751300205e+01 -1.7270419941889283e+00
    1.4531917193346974e+01 -2.0269726443044012e+00
    2.0568395035023805e+01 -1.5527992832955722e+00
    1.6376850861947482e+01 -1.6489525645367400e+00
    1.7735253608132947e+01 -1.7570074552916604e+00
    1.2263798105780477e+01 -1.7640839423659305e+00
    1.2287390528493473e+01 -2.3030354665865582e+00
    1.4192998011065086e+01 -2.1107545875756450e+00
    1.6411446673146749e+01 -2.0218626912166227e+00
    1.5614840120987022e+01 -1.4582119117479138e+00
    1.3880712765821356e+01 -2.0587950706212248e+00
    1.9367228714329045e+01 -1.5923676975492116e+00
    1.5576097656796433e+01 -1.6582707365784390e+00
    1.7588635178159766e+01 -1.8491609090506897e+00
    1.2698166154384435e+01 -2.0228393730476233e+00
    1.2201059871477490e+01 -2.8728092715200471e+00
    1.0809102732478767e+01 -2.4431424619912656e+00
    1.3323434170468081e+01 -2.3925761086772566e+00
    1.6741141588704924e+01 -1.7922138653524708e+00
    1.4036587224863920e+01 -2.1392934825059240e+00
    1.8002807020601960e+01 -1.6879786676673347e+00
    1.5961324404582374e+01 -1.8460598196983322e+00
    1.6619492435072587e+01 -2.0790339605860053e+00
    1.2730189850764669e+01 -2.5177223856967963e+00
    1.2868683466448312e+01 -3.2674782142341869e+00
    1.1910492126020964e+01 -2.8644831770684513e+00
    1.2397370355506402e+01 -2.2152589499133333e+00
    1.3915529877615999e+01 -1.6682659454871098e+00
    1.3205974941723509e+01 -2.0410470078660787e+00
    1.5132240094880817e+01 -1.6263038357746018e+00
    1.4834236088087906e+01 -1.8063784755783099e+00
    1.5567763786219517e+01 -2.1532198487027658e+00
    1.1893563035948089e+01 -2.6697090684815978e+00
    9.5647522947270964e+00 -1.5600219427451176e+00
    1.2346082163900791e+01 -1.6298137605838587e+00
    1.3952832120510640e+01 -1.2942106940756986e+00
    1.4061239209725487e+01 -9.6783409057582559e-01
    1.3852485847328520e+01 -1.3251221622380507e+00
    2.1484510605235858e+01 -1.1683815956755175e+00
    1.7201944702254231e+01 -1.1163426234019254e+00
    1.5951325657348500e+01 -1.1275589005304949e+00
    1.0307302182444172e+01 -1.3609099561860720e+00
    1.0948513012614324e+01 -2.4239483091297456e+00
    1.0152758810873557e+01 -2.2715900940851488e+00
    1.0099119891452654e+01 -1.5642898520989696e+00
    1.2500139109931805e+01 -1.3334125576738542e+00
    1.1961274121599795e+01 -1.4993140732002710e+00
    1.6045370123356758e+01 -1.1345213841466895e+00
    1.3994363549514652e+01 -1.1396113247821744e+00
    1.4067348182479076e+01 -1.2474244270033579e+00
    1.0747968724525292e+01 -1.6758682154085700e+00
    1.0078936046767371e+01 -2.5533844900023834e+00
    9.0064999343006509e+00 -2.1491635314772561e+00
    1.0570892286880040e+01 -1.4433893096854913e+00
    1.3745613101841913e+01 -1.0244353254372398e+00
    1.5648888432048114e+01 -1.2739042430719805e+00
    1.7548566606517497e+01 -9.7106543394047384e-01
    1.3931618449971392e+01 -9.9999342210232478e-01
    1.2342009786532337e+01 -1.1423402234045803e+00
    9.5000690821352407e+00 -1.6497592620903403e+00
    9.8039210130980869e+00 -2.6060009884269801e+00
    9.1232872696781566e+00 -2.3505049885847238e+00
    9.8156786963648983e+00 -1.7365017430564353e+00
    1.3012620822486998e+01 -1.2930872893960348e+00
    1.4250986049920389e+01 -1.4913456259624771e+00
    1.3558795657284069e+01 -1.0297239901700990e+00
    1.2279472486922893e+01 -1.1529779807330758e+00
    1.1568779442077243e+01 -1.2894143858225897e+00
    9.8800164530371983e+00 -1.8735030088290714e+00
    9.3156863409021256e+00 -2.1160442333729188e+00
    9.7166383368517089e+00 -2.3489289361347985e+00
    1.0170663741848660e+01 -1.8078334332795096e+00
    1.3982985113385704e+01 -1.3912655126463758e+00
    1.2725814696483040e+01 -1.4117613219095435e+00
    1.0261927876921552e+01 -9.0830509570804641e-01
    8.5010284529589644e+00 -1.1124732102971056e+00
    1.2858037139358515e+01 -1.2156021594758384e+00
    1.1888456131180718e+01 -1.6377338479252759e+00
    9.0750670393377515e+00 -1.7848474835059478e+00
    9.1352607780155921e+00 -1.8872583591693144e+00
    1.0536094852370754e+01 -1.5294022154419298e+00
    1.4159903598141346e+01 -1.2127937640862421e+00
    1.4025031303284401e+01 -1.4407357081415615e+00
    1.4309293882462775e+01 -9.3535132871322113e-01
    1.1276644080010660e+01 -1.1120367431983853e+00
    1.1986879399307048e+01 -1.0620812777404653e+00
    1.1886265625692293e+01 -1.4327296074641174e+00
    9.3999984310105340e+00 -1.5907198579276585e+00
    1.0442612055713422e+01 -1.6853335858293170e+00
    1.2949000202410076e+01 -1.4981910227153259e+00
    1.6625907805026145e+01 -1.4202030573286171e+00
    1.1922329093964288e+01 -1.4371714559092617e+00
    7.9369777839028535e+00 -1.1535582979774783e+00
    7.3106445115186265e+00 -1.3299565555088255e+00
    8.7587448805411281e+00 -1.1978635152117474e+00
    1.2660876582370118e+01 -1.4325072992126153e+00
    1.0005459961227357e+01 -1.3398790120391426e+00
    1.0342618530816807e+01 -1.3288027736002572e+00
    1.0783908587250368e+01 -1.2841344838408013e+00
    1.1744607468094440e+01 -1.0365720906992009e+00
    1.1937559101116511e+01 -1.4220943226304552e+00
    1.0039847142198473e+01 -1.1814756276239942e+00
    9.4017056336468148e+00 -1.5073848680792112e+00
    1.1858095222259067e+01 -1.1849969942848178e+00
    1.2769815171400145e+01 -1.3074362072275354e+00
    1.1174254934376737e+01 -1.6766551654509523e+00
    1.7243422546564599e+01 -1.9371760398631304e+00
    2.1859313655547716e+01 -2.1569549073185939e+00
    2.2586074211375060e+01 -1.6521781190724942e+00
    1.4968608777423098e+01 -1.8038690598220106e+00
    2.2404348431857077e+01 -1.4993150811822518e+00
    2.0661635693325554e+01 -1.6542701096665611e+00
    1.6853009599741576e+01 -1.5943242655432817e+00
    1.2999682508115898e+01 -1.6540424998786256e+00
    1.2652308526840786e+01 -2.4512444130532289e+00
    1.3613937901961904e+01 -2.6684780202541756e+00
    1.0344208029115887e+01 -2.0243452608730266e+00
    1.1287774709235899e+01 -1.6585604586619320e+00
    1.1447291490659172e+01 -1.7866324343553630e+00
    1.5543731446141850e+01 -1.5358390478005732e+00
    1.6026299131971825e+01 -1.6863288644598535e+00
    1.4545091777039907e+01 -1.7785146794449465e+00
    1.3295791406038067e+01 -2.1837086707960509e+00
    1.1133602004237433e+01 -1.7896618179697312e+00
    1.3413081407012566e+01 -1.8359113635589033e+00
    1.3282180731109772e+01 -1.8401024400816983e+00
    1.4571123610547694e+01 -1.7055529573387767e+00
    1.3760580525129688e+01 -2.2009260457420821e+00
    1.8665953898662270e+01 -1.7586793600347905e+00
    2.1582959345258736e+01 -2.0639931165356220e+00
    1.9199852191463457e+01 -1.9988976143927248e+00
    1.1676248659261221e+01 -1.7384166625086082e+00
    1.2606666547658678e+01 -2.7130561066665524e+00
    1.2711354333263362e+01 -2.8869286388188242e+00
    1.0897011570362846e+01 -2.4254145382827108e+00
    1.0096447114776874e+01 -2.0914127334377661e+00
    1.1217235987114810e+01 -2.3028935185622577e+00
    1.2434897759305358e+01 -1.7699264549020819e+00
    1.4502553503843002e+01 -1.8169021467238398e+00
    1.4684841539875112e+01 -1.9964162749573260e+00
    1.1987262672266333e+01 -2.3386331680569468e+00
    1.3840219330142787e+01 -2.8559027372438406e+00
    1.2203895171050108e+01 -2.2358375162890267e+00
    1.2144951243256655e+01 -1.8899792768477683e+00
    1.4478816625668143e+01 -1.5057423647180224e+00
    1.6966493332607111e+01 -1.3939007561541057e+00
    1.6038125894372943e+01 -1.1108982964678609e+00
    1.3665228664236038e+01 -1.1921335003005735e+00
    1.2323766463438282e+01 -1.5091136940206320e+00
    1.2235020386029861e+01 -2.1264982736840121e+00
    1.2537550785093300e+01 -2.3409209037506575e+00
    1.0848959762383460e+01 -1.9756837685448019e+00
    1.1844260222922898e+01 -1.7162478735576441e+00
    1.4812713316940702e+01 -1.4957708785905863e+00
    1.3654936889966852e+01 -1.4230823766188345e+00
    1.1587796511835585e+01 -1.1393243847569543e+00
    1.2573636586784703e+01 -1.2430266853789269e+00
    1.2890510498785583e+01 -1.4762851602395630e+00
    1.3168510714138183e+01 -1.9462963576734704e+00
    1.4026066459841360e+01 -3.0702522824434975e+00
    1.2616935212777422e+01 -2.5392438975524039e+00
    1.1784395225346978e+01 -2.0772956599038217e+00
    1.3707759823434499e+01 -1.8254854387695332e+00
    1.4711278820434675e+01 -1.6214072161124993e+00
    1.4063543109325423e+01 -1.3382193321826814e+00
    1.4487770260276463e+01 -1.5516951820217919e+00
    1.4301823636485221e+01 -1.9411959701562149e+00
    1.3047341468417043e+01 -2.4700914559036065e+00
    1.2418613762234367e+01 -2.5184104739933431e+00
    1.1706192582613291e+01 -2.3036066588990081e+00
    1.2547619213605953e+01 -2.1208891891834853e+00
    1.5166097476012409e+01 -1.9798772180269459e+00
    1.3514417755076900e+01 -1.7904686605005240e+00
    1.2388998298506941e+01 -1.4981840632570369e+00
    1.3713403989332644e+01 -1.7477315783940983e+00
    1.4858080501996783e+01 -2.0160956294303207e+00
    1.1841304557008934e+01 -2.0983358921947888e+00
    1.3856187005804188e+01 -2.3673065218732874e+00
    1.3080350730301577e+01 -2.2048486781067571e+00
    1.5090623149729158e+01 -2.1839387302144733e+00
    1.8679831168163950e+01 -1.8202286281941897e+00
    1.4790153070046365e+01 -1.5513810571498969e+00
    1.3565475259847718e+01 -1.3481971454803652e+00
    1.3542265930052684e+01 -1.5268378538415568e+00
    1.3268718692646027e+01 -1.7267539132362790e+00
    1.4308072452782234e+01 -2.2511544262416732e+00
    1.4656652953405256e+01 -2.5151286258354180e+00
    1.2833608924422022e+01 -2.1518311937194916e+00
    1.3557706775876389e+01 -1.9990601000338142e+00
    1.6414287140352755e+01 -1.7871602637389790e+00
    1.4452498823832343e+01 -1.7505803225903245e+00
    1.2154392753839641e+01 -1.5172098216412309e+00
    1.1480169113477903e+01 -1.7056757358068035e+00
    1.2649356752046520e+01 -1.9719438614217031e+00
    1.4554633437026663e+01 -2.4770643702380264e+00
    1.4113779872993291e+01 -2.6314362498021033e+00
    1.4494818390865202e+01 -2.6850523950812417e+00
    1.5816414699681927e+01 -2.7565871830314466e+00
    1.4424927718112491e+01 -1.9739760210683841e+00
    1.3194036322204882e+01 -1.7859470304322511e+00
    1.4137758682463604e+01 -1.6609915473599342e+00
    1.4959303257143899e+01 -1.7762897485965417e+00
    1.3757313941842796e+01 -1.8639948677589977e+00
    1.3718652225909985e+01 -2.2491362075300381e+00
    1.4570531973898136e+01 -2.7871196404540157e+00
    1.3259896681951167e+01 -2.5473741104760230e+00
    1.3058045648620785e+01 -2.3881908665178400e+00
    1.2625975720194601e+01 -2.0003399687275678e+00
    1.3400724106675352e+01 -2.0179448174553078e+00
    1.4284815312242246e+01 -1.8653678500519599e+00
    1.4272352460999484e+01 -1.9250230485285535e+00
    1.4032648142994585e+01 -2.0824886838211678e+00
    1.5228552270098048e+01 -2.6261797378364795e+00
    1.0855767448667031e+01 -1.4929775448027640e+00
    1.0577750921776273e+01 -1.8213775987009309e+00
    1.1271115228216416e+01 -1.7085783145645781e+00
    1.3428864012412733e+01 -1.3605850421356638e+00
    1.0819963222726306e+01 -1.4258815359157031e+00
    1.0440405715315162e+01 -1.3183428651715059e+00
    1.0579224125088006e+01 -1.3780804634800519e+00
    1.2135585212066553e+01 -1.3564989113795578e+00
    1.3297985519140218e+01 -1.4558447284526317e+00
    1.0376882424988478e+01 -1.5976980298230032e+00
    1.1374034710296938e+01 -2.1346955306146227e+00
    1.2131602869658627e+01 -1.8494423196098866e+00
    1.3372644128256395e+01 -1.2934266921216622e+00
    1.1958467644042560e+01 -1.6101375891231853e+00
    1.0849004350974543e+01 -1.4387707124512124e+00
    1.1891733540369954e+01 -1.4741032022982044e+00
    1.2075613951867762e+01 -1.2778206297256980e+00
    1.2525841295506543e+01 -1.4032444800454706e+00
    1.0340046234620820e+01 -1.7707895359980697e+00
    1.0542659157184255e+01 -2.1742711617446133e+00
    1.0831243496594574e+01 -1.8808051445381890e+00
    1.2210710906519964e+01 -1.3745889397792237e+00
    1.0051056754872164e+01 -1.4525624352669666e+00
    1.0568489737764843e+01 -1.2367322583225160e+00
    1.0723746438965945e+01 -1.4336751197791475e+00
    1.2615158101978045e+01 -1.4942381855087634e+00
    1.3225460180539592e+01 -1.7381491877343886e+00
    1.0284453618302903e+01 -1.8824317428378441e+00
    1.0703636603709201e+01 -2.0559409578003986e+00
    1.1474819068418480e+01 -1.8124312303565142e+00
    1.3542234731278928e+01 -1.3706598594966835e+00
    1.1242524623238340e+01 -1.5789505492993321e+00
    1.3013632363146794e+01 -1.4994357523864117e+00
    1.0188213704818420e+01 -1.4078637325219663e+00
    1.1506714044011028e+01 -1.4991383046504614e+00
    1.1370136178183744e+01 -1.7192244351601222e+00
    1.2390235604217212e+01 -1.4460314151667102e+00
    1.6622300209649502e+01 -1.5372016203656125e+00
    2.0872101460834134e+01 -1.9758781473198068e+00
    2.4451601845960035e+01 -2.4700314510659913e+00
    1.5609825076790266e+01 -2.7783600701734641e+00
    1.8557760874020850e+01 -2.1939734659116672e+00
    1.9579550314474531e+01 -2.3862190195298800e+00
    1.7068181893763192e+01 -1.8621382340552184e+00
    1.3510055795466190e+01 -1.5709016274864600e+00
    1.0977816745152790e+01 -1.8870683217358137e+00
    1.2617082070943381e+01 -2.0412017622362439e+00
    1.4031561894218573e+01 -2.5944428964578758e+00
    1.2783136975483387e+01 -2.6523020354641038e+00
    1.3936231314986282e+01 -3.2823854278287108e+00
    1.1427907297945961e+01 -2.4256153631258868e+00
    1.2049537621640132e+01 -2.4277337182872332e+00
    1.1303857750896093e+01 -2.0329427473870774e+00
    1.1195363386438746e+01 -1.8703538617247797e+00
    1.5966309361470563e+01 -1.5653614835527621e+00
    2.0461320803896083e+01 -1.5853042412536009e+00
    2.0561371755642448e+01 -1.6438286478318140e+00
    2.0173081704363049e+01 -1.5879919628978267e+00
    1.4871174895344947e+01 -2.2893763025664393e+00
    1.9546467532217385e+01 -1.9144110213942946e+00
    2.2036586066639789e+01 -2.3916704093428764e+00
    2.2181474239867597e+01 -2.1254650722917980e+00
    1.6997109290125490e+01 -1.7187139815769021e+00
    1.3109775614860213e+01 -2.0043445132431033e+00
    1.5635566873455030e+01 -2.0592838828476348e+00
    1.3918091319369497e+01 -1.9916414858690019e+00
    1.2071488177449568e+01 -1.9202005569385838e+00
    1.2778782207522806e+01 -2.8184606458530097e+00
    1.1649939893163626e+01 -2.2633674775679129e+00
    1.2549274816715629e+01 -2.5736981327565323e+00
    1.2421358800195325e+01 -2.2099834808793362e+00
    1.4808768551728393e+01 -2.2841077776456000e+00
    1.1979752698206681e+01 -2.0454281193205519e+00
    1.1550160806792086e+01 -1.9632688194190473e+00
    1.2402486392233504e+01 -1.9919268018450802e+00
    1.2005966568250699e+01 -1.6827989263393697e+00
    1.1832879697625295e+01 -1.8643139437847327e+00
    1.6597166849452627e+01 -2.0305097711872580e+00
    1.4099513077654652e+01 -1.8807862005021310e+00
    1.3969867057076632e+01 -1.7569715947827833e+00
    1.1985970204506266e+01 -1.7777170343236304e+00
    1.1762036019864270e+01 -1.9047955144892073e+00
    1.3502780153350942e+01 -2.3219944949018934e+00
    1.2905533608443296e+01 -2.2529119404091129e+00
    1.3449108746745038e+01 -2.1561575110773994e+00
    1.3140027770731589e+01 -2.3761034102777088e+00
    1.4540712087845380e+01 -2.0664051213100425e+00
    1.3602214350649241e+01 -2.0859672714196189e+00
    1.2630654896193557e+01 -1.8095712869615654e+00
    1.1290930166740711e+01 -1.7146994301145786e+00
    1.2651737878109619e+01 -1.7370710450720295e+00
    1.2443369640697934e+01 -1.6818791162166011e+00
    1.1949460436718821e+01 -1.7305452496117555e+00
    1.2169451344350124e+01 -1.5006590591873818e+00
    1.1083612370380362e+01 -1.6273636147987751e+00
    1.3910259803770566e+01 -1.6716369628848906e+00
    1.3640870546762812e+01 -1.7428727468253833e+00
    1.4777645889799127e+01 -1.5805312675583656e+00
    1.3782323883742794e+01 -1.6134385849866453e+00
    1.3403709979032149e+01 -1.9426767262653442e+00
    1.2598931430075208e+01 -1.9991092074775219e+00
    1.1755940109579152e+01 -1.8590227034395308e+00
    1.1309230540761625e+01 -1.6653709616563765e+00
    1.1158771212321053e+01 -1.9924903958433842e+00
    1.4550097308332751e+01 -1.9682551907550390e+00
    1.3563875035324543e+01 -1.8954810678464031e+00
    1.3523928946544190e+01 -1.7143384743298913e+00
    1.4039959618226122e+01 -1.7949246752637908e+00
    1.1472071145749913e+01 -1.3467976581411447e+00
    9.6251698942958264e+00 -1.7270103599576114e+00
    9.7528677973416222e+00 -2.3063296240379692e+00
    1.1412756011353245e+01 -2.0598629189526134e+00
    9.9440328603377921e+00 -1.6444428007416134e+00
    1.5572647859665057e+01 -1.3820535077167073e+00
    1.6093457195453514e+01 -1.2926999337946319e+00
    1.4563465346154244e+01 -1.2929460617070756e+00
    1.3788474026171231e+01 -1.3508381510509542e+00
    1.1037095893828011e+01 -1.1593403267111273e+00
    1.1614855011702804e+01 -1.9455144479130113e+00
    8.5204521112711298e+00 -2.0871005997056535e+00
    1.0768260265081166e+01 -2.1657549103556430e+00
    1.0137766136960327e+01 -1.8340354402685706e+00
    1.4143104760480080e+01 -1.3622832179206297e+00
    1.4242744481108364e+01 -1.1370291861751098e+00
    1.2961099475455461e+01 -1.0850646257052194e+00
    1.1412776732768704e+01 -1.1029296303177007e+00
    1.4520632925577791e+01 -1.4071031500986499e+00
    9.4725302716275390e+00 -1.7180528539756641e+00
    8.0541319061430769e+00 -1.8478077621689930e+00
    1.0786532036881665e+01 -1.7964585099050823e+00
    8.9822843027179413e+00 -1.5114042710966453e+00
    1.5892156868120493e+01 -1.3207262332005985e+00
    1.9492826761282817e+01 -1.2779655572632707e+00
    1.6521879978903051e+01 -1.2182110249699176e+00
    1.5961802656571658e+01 -1.3219473530607819e+00
    1.4224687815478770e+01 -1.2007382378771165e+00
    1.1081071508476537e+01 -1.4764362401852644e+00
    7.9444397782003522e+00 -1.6198163503445455e+00
    1.0191450952639141e+01 -1.7177439999313862e+00
    9.1540586981350067e+00 -1.6653565040440019e+00
    1.3383691577286450e+01 -1.3183017566960173e+00
    1.6823588168065424e+01 -1.1667754667572969e+00
    1.5570107709831605e+01 -1.0764092808958110e+00
    1.4461135365322685e+01 -1.1419651344843993e+00
    1.1114028011430317e+01 -1.5629747099810114e+00
    1.2545342526975556e+01 -1.5491623750060444e+00
    1.4057451115259179e+01 -1.9137460366320647e+00
    1.2594224901132408e+01 -1.8709798119279299e+00
    1.1129377469651104e+01 -2.4232459703089630e+00
    1.3281276223680521e+01 -1.9097887799585536e+00
    1.6017987879946851e+01 -1.8525347156077330e+00
    1.3430708036740187e+01 -1.5592941542810892e+00
    1.1514199456065739e+01 -1.5789258700820663e+00
    1.0681659984024263e+01 -1.5516134152604153e+00
    1.2627922019767098e+01 -1.5680075065266550e+00
    1.2930191418899563e+01 -1.7231828948401346e+00
    1.2866065144922304e+01 -1.8636269774986152e+00
    1.2115832435978360e+01 -2.6934236159025877e+00
    1.4615790877083171e+01 -2.0506498129689876e+00
    1.3759239042829080e+01 -1.6544697885930664e+00
    1.3302235583173868e+01 -1.5015853863759734e+00
    1.1629396523172879e+01 -1.5881804002282653e+00
    1.1921317133083075e+01 -1.6312853982980049e+00
    1.8960819861688453e+01 -2.0930275560467053e+00
    1.4039279753265268e+01 -1.8050473408893024e+00
    1.1954777245639590e+01 -1.8239945590937210e+00
    1.1535461798528669e+01 -2.5377485089467573e+00
    1.3139431127409681e+01 -1.9931912009480885e+00
    1.4851842565041544e+01 -1.7631452816578885e+00
    1.4659382077934257e+01 -1.6592097134275277e+00
    1.1433854178751455e+01 -1.5674711449143026e+00
    1.1530361546731465e+01 -1.5925319290661057e+00
    1.6189072259399786e+01 -1.7541877401530006e+00
    1.1046467221099197e+01 -1.5166162093824807e+00
    1.0258528711483153e+01 -1.6728548624704291e+00
    1.1928634512472847e+01 -2.8540956168399081e+00
    1.5244946880774473e+01 -2.3254395240950667e+00
    1.4396703530831941e+01 -1.7469152050887335e+00
    1.3505503063530469e+01 -1.5982302781298001e+00
    1.0861946737789967e+01 -1.5243479802804438e+00
    2.5378536374251652e+01 -3.5585019987856894e+00
    2.1924052096193176e+01 -2.6497435758454846e+00
    2.1862617451845075e+01 -2.9101553453937279e+00
    1.9198648761342053e+01 -2.0938427638534400e+00
    2.2933582406716003e+01 -4.5336327117464119e+00
    2.5184437113015587e+01 -2.7814039419135907e+00
    2.5476014000953221e+01 -3.6329729114350431e+00
    2.4624298423306133e+01 -3.2423365560736994e+00
    2.6840008433679124e+01 -3.8963875247872468e+00
    2.2745351018115286e+01 -4.0814624509350610e+00
    2.0783958337196520e+01 -3.3527464413668926e+00
    1.9081904959457468e+01 -3.3456629343258886e+00
    1.5463855633584940e+01 -2.4208311342644202e+00
    2.7625873620270966e+01 -6.3271721272994093e+00
    1.3774311246236543e+01 -2.4551404908751464e+00
    1.6617208434776469e+01 -3.3369357623276654e+00
    1.7961955720257254e+01 -3.3180091071982512e+00
    2.2273763433510108e+01 -4.1273905345505808e+00
    2.1006855790826553e+01 -3.0608486711334995e+00
    2.0136827742156584e+01 -2.5403311882370145e+00
    2.0021186519304706e+01 -2.7650024565666507e+00
    1.7614478809529317e+01 -1.9453496382918896e+00
    1.9330627968079348e+01 -3.8002866246186722e+00
    2.1807962669287072e+01 -2.3957560177159043e+00
    2.1946531328610018e+01 -3.1341283043314618e+00
    2.3332379338040823e+01 -3.0176019284922364e+00
    2.2818322824512695e+01 -3.3497104188119118e+00
    2.5194891581869520e+01 -4.3173341255408788e+00
    2.2898461528749174e+01 -3.4390050390177827e+00
    2.2694771212391839e+01 -3.5137586810909198e+00
    1.8516297808079340e+01 -2.3608256048660778e+00
    2.6307736259545081e+01 -5.8206156889677647e+00
    1.7632184828029498e+01 -2.6126003414467429e+00
    1.9492736418256516e+01 -3.6240534149588601e+00
    2.4733970947889265e+01 -4.1217533976775886e+00
    2.6376218819734163e+01 -4.6651373688315925e+00
    1.1615289699055344e+01 -1.9419555872485541e+00
    1.2213747377817795e+01 -1.8328744646220176e+00
    1.3246341433211171e+01 -1.9762149464625640e+00
    1.3889857276910375e+01 -1.6958334721476236e+00
    1.2043101206603193e+01 -2.2270611447795430e+00
    1.5406298102710322e+01 -1.9494852434402330e+00
    1.6062790528494656e+01 -2.3713111797333148e+00
    1.4818330284318684e+01 -2.2360943573474352e+00
    1.2535888418399262e+01 -2.1337769889094598e+00
    1.2278987453813951e+01 -2.2677757824846729e+00
    1.2355348630496421e+01 -2.0787321856288870e+00
    1.6609008590951067e+01 -2.4660324336972517e+00
    1.4461095077975745e+01 -1.8233684009628246e+00
    1.2770488168012793e+01 -2.5261925694257052e+00
    1.4265292825001088e+01 -1.9801325838716717e+00
    1.4430746137189441e+01 -2.1651569320647912e+00
    1.6319928529518773e+01 -2.3962449080299204e+00
    1.4362760098902408e+01 -2.5297866724777389e+00
    1.7742404677985157e+01 -2.4859949561611687e+00
    1.9690242138883349e+01 -2.3779047281513299e+00
    1.6326297660952491e+01 -2.0318358358164024e+00
    1.4663678096748946e+01 -1.6249404056576815e+00
    1.3040562858574685e+01 -2.4210120567665037e+00
    1.5575819184531925e+01 -1.9396451186034824e+00
    1.6415771152012510e+01 -2.3487925673787484e+00
    1.9205016736921610e+01 -2.5994108043781665e+00
    1.8361875232059404e+01 -2.6663661266253724e+00
    1.6638930737866943e+01 -2.5870005079208496e+00
    1.9838549390341154e+01 -2.7269711761867779e+00
    1.7134292251313010e+01 -2.4095559579839501e+00
    1.4874571414103864e+01 -1.9280497519389352e+00
    1.4942789257838282e+01 -3.0696791039274545e+00
    1.4482289188995871e+01 -2.1391965368482251e+00
    1.5345707167464477e+01 -2.3956603384400954e+00
    1.6509451591134166e+01 -2.4505412286797346e+00
    1.6505802532806161e+01 -2.6045529039890716e+00
    1.2601460115756916e+01 -1.9332239549013679e+00
    1.3125385443643610e+01 -1.6888385828506103e+00
    1.2902197062820221e+01 -1.6770016882546188e+00
    1.9598055407392796e+01 -2.3277627546122028e+00
    1.2620398119917340e+01 -2.9496334329276630e+00
    1.5760673092475091e+01 -2.3522685601466420e+00
    1.6040431584380205e+01 -2.0928850246704638e+00
    1.6223974924329376e+01 -2.0355410073915272e+00
    1.3792800158599844e+01 -2.0215632304542570e+00
    1.3290263686374324e+01 -1.9612302705586795e+00
    1.4804283812711278e+01 -1.8789050472603110e+00
    1.3366726779346946e+01 -1.7335240165656185e+00
    1.8798440658744735e+01 -2.4562271002969061e+00
    1.3075380955573340e+01 -3.0739234878740893e+00
    1.7835393106758300e+01 -2.6760773934080202e+00
    1.4723410160841004e+01 -1.9075963969137171e+00
    1.5677050320206003e+01 -1.9421692491545179e+00
    1.3317565884155949e+01 -1.9676458901479148e+00
    1.5201095442854207e+01 -2.2696324048137844e+00
    1.9729520484676485e+01 -2.3629384127525266e+00
    1.8387905613470295e+01 -2.1884862569638948e+00
    1.9169185672685860e+01 -2.2983118084987142e+00
    1.2720865750131994e+01 -2.9872110075657954e+00
    1.4246059593822213e+01 -2.2191080401488277e+00
    1.8212746847064366e+01 -2.4477161148690021e+00
    1.8704589387385713e+01 -2.4379050194696084e+00
    1.5653425121488366e+01 -2.3533694731100274e+00
    1.2327764293799397e+01 -1.9373268338849254e+00
    1.5720507968712884e+01 -1.9882059539273680e+00
    1.6903438137339148e+01 -2.1134546218609973e+00
    1.8954221550006356e+01 -2.4925315834245660e+00
    1.3603475859864290e+01 -3.2360766349601682e+00
    1.4268373568641405e+01 -2.4650279986687273e+00
    1.5546572368839460e+01 -2.2761114390270611e+00
    1.5234557391947849e+01 -2.1684746254382872e+00
    1.2598595321243895e+01 -2.0360031063284794e+00
    1.4484163881462292e+01 -1.5495140099899753e+00
    1.8585423375323046e+01 -1.6012416881344678e+00
    1.6331893145748630e+01 -1.8139438646076298e+00
    1.0025412566358977e+01 -1.4987937336090680e+00
    1.1834883038390840e+01 -2.6071595732503883e+00
    1.3396793331227272e+01 -1.8037132563304450e+00
    1.4644009580292488e+01 -1.6502377132479593e+00
    1.4179463504600569e+01 -1.5754101376822289e+00
    1.3179513224867895e+01 -1.5561710388616528e+00
    1.3662622452479566e+01 -1.4474907113924080e+00
    1.8539953108534050e+01 -1.5083737181245196e+00
    1.0434542402488969e+01 -1.4626868568866829e+00
    9.0531295627663404e+00 -1.7316444864803411e+00
    1.2203556169325767e+01 -3.1118085440551653e+00
    1.2273528200195690e+01 -1.8194015230771410e+00
    1.3678254310110272e+01 -1.5165017467977984e+00
    1.4125000137496979e+01 -1.4887829652158182e+00
    1.3369505441577221e+01 -1.5386986124221982e+00
    1.2211137068054335e+01 -1.5086927632227749e+00
    1.8821979154708561e+01 -1.7486640294645044e+00
    1.6685654135957201e+01 -2.0316629169360900e+00
    9.7602303789392888e+00 -1.6186363666106067e+00
    1.2525865559671152e+01 -2.9522684892913227e+00
    1.3648045587383752e+01 -1.8588014762978318e+00
    1.4790065996928666e+01 -1.7315933806541655e+00
    1.4764613365597265e+01 -1.7127756305065900e+00
    1.1895935187136077e+01 -1.6200537011232738e+00
    1.1803061285831294e+01 -1.3522209377183894e+00
    1.8644517640321208e+01 -1.5205030433284128e+00
    9.1704660001532190e+00 -1.4217667472782762e+00
    8.4241577146439770e+00 -1.7869379276558242e+00
    1.2433629224529712e+01 -3.4117215506312530e+00
    1.4932613021081320e+01 -2.2476335809869212e+00
    1.3697792970011159e+01 -1.5876020663983943e+00
    1.3597503344290477e+01 -1.5165793874802416e+00
    1.1561504239287830e+01 -1.4734658560036991e+00</input_scale>
  <output_scale>
    5.2631578947368418e-01 4.9999999999999994e-01 5.2631578947368418e-01
    4.9999999999999994e-01 5.2631578947368418e-01 4.9999999999999994e-01
    5.2631578947368418e-01 4.9999999999999994e-01 5.2631578947368418e-01
    4.9999999999999994e-01 1. 0. 1. 0. 1. 0. 1. 0. 1. 0. 1. 0. 1. 0. 1.
    0. 1. 0. 1. 0. 1. 0. 1. 0. 1. 0. 1. 0. 1. 0. 1. 0. 1. 0. 1. 0. 1. 0.
    1. 0. 1. 0.</output_scale>
  <inv_output_scale>
    1.8999999999999999e+00 -9.4999999999999996e-01
    1.8999999999999999e+00 -9.4999999999999996e-01
    1.8999999999999999e+00 -9.4999999999999996e-01
    1.8999999999999999e+00 -9.4999999999999996e-01
    1.8999999999999999e+00 -9.4999999999999996e-01 1. 0. 1. 0. 1. 0. 1.
    0. 1. 0. 1. 0. 1. 0. 1. 0. 1. 0. 1. 0. 1. 0. 1. 0. 1. 0. 1. 0. 1. 0.
    1. 0. 1. 0. 1. 0. 1. 0. 1. 0. 1. 0.</inv_output_scale>
  <weights>
    <_>
      6.4004697796114327e-02 4.2507843325383238e-02
      2.8201884349688632e-02 6.9013344848829705e-02
      3.9581925847666323e-02 -3.8152523683347575e-03
      6.4269742038690195e-02 9.3613836378159926e-02
      9.1919649836977771e-02 -2.2308215371114000e-02
      3.5377153537050246e-02 3.9835288574190324e-02
      1.9523877515968693e-02 -4.7797028108498583e-02
      1.2565568066750287e-02 9.1743958147975341e-02
      -9.7486659289049721e-03 -1.3378453816942245e-02
      -2.7609729190783808e-02 1.1977111191635801e-02
      -7.8978268675461816e-02 4.6624951732317909e-03
      -7.2152170547158563e-03 -1.1363772289764480e-01
      -5.4114313959091345e-02 -1.3944621570574099e-02
      -6.5539699099728774e-02 5.7353639031955818e-02
      -2.0645585959573932e-02 1.2548959282061478e-02
      2.5094480595841281e-02 -3.3461288264651765e-02
      1.0321614667321979e-01 -2.3838021231309209e-02
      -2.8789729985443310e-02 2.0632528027025056e-02
      4.5961127992026077e-02 6.9257769576995171e-02
      8.5568215745058143e-02 5.0869590886124208e-02
      3.3294826093986471e-02 3.3588114160124340e-02
      1.0486372590228932e-01 3.7837042651026997e-02
      3.0620609648028138e-02 2.7523827289405493e-02
      1.1558217000160350e-02 4.7302853227554176e-02
      1.6779067778254383e-02 2.2836515462005668e-02
      2.0993387379021417e-02 6.0418969622762803e-02
      5.2052854002022112e-03 -4.4221015209405589e-04
      -9.1444121616780210e-03 5.4333666176589156e-02
      -7.4497159477858246e-02 -4.6813176256524430e-03
      3.6714313775663386e-02 -3.6544352996436921e-02
      -4.2118280170698151e-02 1.9633381231029215e-02
      -8.9495959562294249e-03 3.5060251875810135e-03
      -4.1058274450345676e-02 5.0095010044877722e-02
      1.1131353702657025e-01 2.0097564458054209e-04
      9.6672510169563311e-02 -3.9737292421895632e-03
      2.2115148858835889e-02 5.7220833285853721e-02
      -6.2978973257980325e-02 -3.8381445961327997e-02
      1.0344722386237269e-02 -6.5715138741269177e-02
      -5.3264518717519145e-02 -1.0822556409387200e-02
      9.8221660091161629e-03 -7.2655881841545589e-02
      -6.1606605120920338e-02 3.5276656376465997e-03
      -2.0917567644107109e-02 -1.3554115201931116e-02
      -8.8053315948480856e-02 3.1893241311249820e-02
      1.3973113624623300e-02 -5.8380395968321383e-02
      -1.3355613166467318e-02 5.0975090576901513e-02
      -1.1198821625241061e-02 -2.2669910395936278e-02
      -8.6496320676267738e-02 -1.7689614495915692e-03
      -1.5428681644691685e-02 -6.7206143374792457e-02
      -4.4628227872040079e-02 1.7982706024421889e-02
      -5.3905653143923572e-02 -1.9553511195419145e-02
      -3.4949199999843049e-02 -4.5496461680092880e-02
      -1.9820781127121646e-02 4.5618275860403309e-03
      -5.5097927862597679e-02 2.5511267064138362e-03
      -3.2879152325386206e-02 8.7242275715512255e-02
      -2.9117679313788579e-02 -4.0421886317016383e-02
      4.5206182184735842e-02 -4.4060366662681373e-03
      -2.7972650840539556e-02 -6.0571094522994279e-02
      2.6890608274766793e-02 2.5657372854630264e-02
      2.7075221418254990e-02 -3.2184629961516498e-02
      3.5624089002989140e-03 -2.7216798375970110e-02
      -4.7240896481148535e-02 -4.1695345965068929e-02
      -4.3273171515437095e-02 -4.5954270489911041e-02
      -2.6069211345590790e-02 -2.8003463926392490e-02
      -6.5854706603666380e-02 3.2726515752324159e-02
      -3.0236391227686819e-02 2.4839127684307894e-02
      -3.0421091061927051e-02 -8.9654311103446543e-02
      5.8297466254413101e-03 1.4449826752597289e-02
      -6.5492705205821483e-02 -2.7268385792392536e-02
      -4.3864504543562319e-02 -2.6359319581754768e-02
      7.0656989575994941e-03 4.0416442724458414e-02
      -4.1269261527542636e-02 -9.9710257190217845e-03
      -3.9664302993220593e-03 9.2627866402920186e-02
      -5.7646245101095950e-02 2.9559808170054195e-03
      -4.0584269995441180e-02 -1.0673029028579531e-01
      -3.8173188432037188e-02 -3.0699787302045169e-02
      -6.4670751005968224e-02 -6.5050711504921574e-02
      5.2435398508551799e-02 -7.6107407936343963e-02
      -6.0390068700390376e-02 1.4412948250896984e-01
      4.0006169151605750e-02 -7.3657499648743727e-03
      5.1688928994002729e-02 7.4987387569947245e-02
      -9.7841691487015173e-02 -2.4705727961399596e-02
      -6.1136322690643959e-02 -2.0006263161652060e-02
      -8.3933222139761010e-02 -7.0242885914339479e-03
      -1.7627818936559028e-02 -1.9518874389187334e-02
      -5.5807205780929736e-02 -1.6828909020749617e-02
      -1.7949605689328296e-02 -6.0961643584603112e-02
      -5.4901597200134218e-02 -6.0955554443688810e-03
      -2.2979678066444877e-02 -4.2273557864898080e-02
      -1.3004991408710359e-01 1.2032388297448973e-02
      5.4772690727909719e-03 -1.1881826230020180e-02
      -2.5298417287818703e-02 -4.1920740179457926e-02
      -1.0868596923611785e-01 4.3076125102802482e-02
      2.0602326352091995e-02 -9.5963445648664047e-02
      -1.0866218682584688e-01 -1.5889369888667668e-01
      -2.8984119522177880e-02 -3.5489610157353427e-02
      -3.9386930784375025e-04 -3.0094973688078334e-02
      -2.6830649759156729e-02 -1.1676623805775622e-02
      4.3604447682855665e-02 -3.3816832386614828e-02
      -1.2108780807839907e-01 -2.4325587671911612e-02
      -8.6682990022466919e-02 -1.1259333425371977e-01
      -8.7672343204603487e-02 -6.5727270112341918e-02
      -1.8038844884040561e-02 -1.3219747964685499e-01
      -1.2369981302967228e-01 -4.5456592303567307e-02
      -6.3191383783585256e-02 -2.5735688122199105e-02
      -1.2123081772167855e-01 -3.6887302126077326e-02
      -5.9192749217644051e-02 1.0624738333874355e-02
      -4.9277929639884331e-02 -3.0703234314913817e-02
      -4.2562403332521342e-02 -5.1404789480353395e-02
      1.7290797521197594e-03 6.0370562379337904e-02
      9.7328242660988766e-03 -2.7829865297800876e-02
      -1.0321962138787030e-01 5.8131959919659720e-02
      -1.1563996068406234e-02 -1.7494892263161062e-03
      9.6173571268900623e-02 -7.6474837562865314e-02
      -3.2403344971252794e-02 1.0336481864382924e-01
      -6.2822391062373030e-03 -9.0812493721618606e-02
      -1.0230815767609383e-01 1.2353166326046246e-01
      -1.5246389368409399e-02 -4.3996889199981612e-02
      -1.4081224753488575e-01 2.5869642287449737e-03
      -2.7132412003713829e-02 1.2360589628363859e-03
      -9.6442630108892910e-02 4.2169816076538949e-03
      1.0417589086914788e-02 -1.0894472006432334e-02
      -1.0864665669869686e-01 2.4814816633633049e-02
      7.5739942069432020e-02 3.1406548569733767e-02
      -5.0453533045581547e-02 9.6809740144399650e-02
      1.0409835659865102e-01 4.7546215396492127e-02
      5.0897941624101543e-02 3.2652174482066275e-02
      8.2901861877160976e-03 1.4551311623068748e-02
      -7.2749905261169354e-02 -3.4305618179251512e-02
      -1.2748292412512599e-01 8.9645219563993850e-02
      4.3256667171015187e-02 -8.4551176072445625e-02
      2.4219189928856792e-02 -3.7018069929894759e-02
      -2.6312263945030365e-02 1.8845767800876490e-02
      1.0969105143176242e-02 -3.6464953345903592e-02
      -1.1736746794503856e-02 -1.0180254214237079e-01
      -6.0024650696366928e-02 -5.1401700412031055e-03
      -1.1164328060257335e-01 -1.5514108041900643e-01
      -3.6218566285332141e-02 7.1833145193175262e-03
      -5.6105200681498685e-02 -6.1821216018857636e-02
      3.1858770387112122e-02 -1.9341191648639414e-02
      -9.9000952795533878e-02 4.6524619245142597e-02
      9.3605040688624991e-02 3.9482574734333295e-02
      -4.0034428625534239e-02 2.3868929427995272e-02
      9.4940505069144657e-02 2.8611580280226902e-02
      -2.8002935714362687e-02 -1.3569098062673134e-03
      4.3346261124164308e-02 -9.6906172129207144e-02
      -4.8656619273700720e-02 6.4540681661908350e-02
      -5.0070486738213092e-02 -3.4341311426663627e-02
      1.3752719220153427e-02 -1.5411411277713852e-01
      -8.0038958079615821e-02 -8.9931437271257159e-02
      3.0254397208227306e-02 -8.2314441032995400e-02
      -7.4596051304235425e-02 -4.8433966723285746e-02
      1.3208697198635427e-01 7.2488240482762187e-02
      -5.8207734709285773e-02 -5.7424085801740826e-02
      9.5193647747810931e-02 -7.5637413567154269e-03
      3.1381485624943077e-02 -7.9626567862848038e-02
      5.4302893612921711e-02 6.2707192977604853e-02
      2.2190112113393938e-02 -3.8805747619034769e-02
      5.6052375231738383e-03 1.7677570713304222e-01
      -9.6478989916401012e-02 6.7696817669332032e-03
      -3.8435950701225567e-02 3.3555206975476169e-02
      4.9229068897645244e-02 -3.9774357004157983e-02
      -1.6218862677282878e-01 -3.5468812526778172e-02
      -2.8472077540256636e-02 -8.8524105551412824e-02
      -8.9619086214695776e-02 7.0450117177466489e-03
      -1.0801782086671890e-02 -3.7799259512998958e-02
      -4.9045954040137577e-02 3.4673710995961317e-02
      6.1437748059998167e-03 -1.5781536064189940e-02
      -1.3997590434163074e-01 1.3565747179991336e-02
      -1.2243962309752189e-01 -5.5205572342614299e-02
      -7.7602540162029332e-02 3.9027222364903448e-02
      -1.4385548556271940e-01 -4.1896624720103838e-02
      -4.3284324401515813e-02 -1.0111451871134731e-01
      -7.2051612253759792e-02 -5.5061067812307268e-02
      -9.8400229790676294e-03 -8.8238084353203100e-02
      -8.9826974850839278e-02 -2.7815368035283144e-02
      -9.9411579920756828e-03 -7.9801924751812317e-02
      -2.5747302972769798e-01 7.7287362476594110e-02
      -1.9853923048161959e-01 -1.9171376770222964e-01
      -8.5812687311346822e-02 -1.8359600692750971e-02
      -2.6408677921511298e-01 -1.9793128468906346e-01
      8.1081838476619594e-02 2.0020020713488424e-02
      -6.2304011985834573e-02 -5.8327687217955858e-02
      3.3836675843031863e-02 -8.0046672494925669e-02
      -1.4459642749862917e-02 5.1967491655796734e-02
      -1.1738994620562382e-01 -1.1861077476051930e-02
      -5.1662523537892961e-02 -1.5999302950453615e-02
      7.3152422156790662e-03 -4.8814054061688955e-02
      6.3801619640361726e-02 2.0496568468664197e-02
      4.2749312624944386e-02 -1.0707767131068935e-03
      1.6919582114784804e-01 4.4711779527190507e-02
      9.4012459958652830e-02 2.2720160365085045e-02
      1.3786743508472690e-01 8.7051626027066981e-02
      8.8749519113865347e-02 6.4443378524159184e-02
      2.0401039020513603e-01 2.4628347257102768e-02
      -1.5273619367328574e-02 2.9141211909084919e-02
      -4.3078285928993411e-02 1.3560713843280274e-03
      1.2056768417130163e-01 -1.5657990469299936e-02
      -1.4831420433020465e-01 2.1861408359721338e-02
      1.1297400774492213e-01 3.8838024930696151e-03
      -3.4957867579372269e-02 7.5011297120556389e-02
      5.3751611914246426e-02 -2.8269802084762964e-02
      2.1722649525471087e-02 1.7540376857163470e-01
      8.6665648577786705e-02 8.8019371875812186e-02
      -6.6101603100686386e-03 2.8447107845946062e-02
      1.2353798607527551e-01 3.4916637552437610e-02
      2.7714936308025507e-03 2.2885649577400236e-02
      1.1778256125256344e-01 -2.2301350606121650e-02
      6.8389484297723707e-02 9.0420304991298620e-03
      4.7929540097394537e-02 -3.9272575920716209e-02
      -1.9672205735429993e-02 -5.3942651740741733e-02
      -8.1009656287700064e-03 -3.5287204913626968e-02
      -5.1802518749187225e-02 -7.4028931194489500e-02
      -6.9166404833241199e-02 3.6710383634585154e-02
      -1.7115753982514423e-01 -1.6705971401574404e-01
      6.6431077421671494e-02 -1.2375571506601244e-03
      -2.8865965897794882e-01 -1.6392975021828693e-01
      5.3089529820904161e-02 -2.0440725157079051e-02
      8.1536448976025980e-02 4.0868725650998694e-02
      8.6990031129797613e-03 5.0278645300696747e-03
      1.4020344098029419e-01 1.4229585238678330e-01
      6.1018006793189708e-02 -1.0649583428179676e-03
      3.7419796218721214e-03 1.9822147464239701e-02
      6.7507263376829441e-02 9.3141700210812084e-02
      6.7443508256656959e-02 2.0716178183485603e-02
      -1.5581056802850496e-01 5.8087225914401699e-02
      -2.8304720916229452e-02 -1.0289754373279181e-01
      -1.5097490361424126e-01 1.1472633532014399e-02
      -9.4838641642273944e-02 1.2787996587775438e-01
      -1.6923829715062507e-02 1.9936646280924269e-02
      4.9929467015756505e-02 -5.1331477810843920e-02
      -1.3193811688228849e-01 1.2545649470446799e-01
      1.6416020015406219e-01 -9.4585854669506544e-02
      -5.4451053879583794e-02 -5.6435425399975502e-02
      -2.8786474037329466e-03 -1.9764891925547071e-01
      -2.4095392286264121e-03 2.2965508633960963e-02
      7.9085831909918539e-02 -9.0616597381419375e-02
      -1.7493714498618640e-02 5.4313960936059474e-02
      1.6084711937570476e-01 -3.1973321251023618e-02
      -1.4930082451265765e-02 7.1181300944962347e-02
      1.1161394336267212e-01 2.2437288095053645e-02
      -1.2358044663297528e-02 7.4001702506476294e-02
      1.2392848233569127e-01 8.6878982749932776e-02
      -5.3998985181878026e-02 -2.6526560293184107e-02
      1.8982135139289535e-02 -1.0105429037772377e-01
      2.3358129701177233e-02 -3.3943031603740813e-02
      -3.7193656221923999e-02 -5.8128169470151696e-02
      5.0908217128052796e-02 -5.7252565236626460e-02
      -2.3231169307317921e-02 8.0948777099751013e-02
      -1.2385300949058428e-01 1.9362671528366064e-02
      -6.1582914841551949e-02 1.2569892352341408e-01
      -1.3407123199288304e-01 2.2929026421285082e-03
      -6.9489952015433842e-02 -8.5357681909324259e-02
      2.1098447069143583e-02 3.5875088634777702e-02
      2.7033613587378588e-02 8.4678287558001816e-02
      3.8277669238110740e-02 1.1491134935338994e-01
      8.5608913120767335e-02 2.8607928156460630e-02
      8.2759770086930098e-02 -2.3450047831062203e-02
      -1.6912111692439682e-02 -1.1990562099462612e-01
      -7.2114735047462811e-02 2.2878704684228909e-02
      -1.1337036016324076e-01 -4.6495698374096749e-02
      -1.9238963864128036e-01 4.2253054780812309e-02
      -7.5941285649185897e-02 -1.1582816372685122e-01
      -1.0015218791293017e-01 3.6253037007747631e-02
      -1.8284239965340166e-03 -9.2675558145202203e-02
      -7.3046369450033621e-02 -4.7750596140316830e-03
      -6.6354874367802186e-02 -1.3509011254392889e-01
      3.1968298803657529e-02 1.8660982245678373e-02
      -8.8111926443561556e-02 -2.2118519505568457e-01
      -1.4938798775160236e-02 -4.9584080784340748e-02
      -1.1053220072443623e-01 2.9985161413276642e-02
      -8.3299451863954696e-02 3.8941332705895081e-02
      2.7188824183563685e-02 7.1665405735738708e-02
      -2.5170389984254037e-02 3.1292646716959971e-02
      -2.2778751057813573e-02 8.7113575343457407e-03
      -5.2900999975108429e-02 -1.1275038169611140e-01
      -9.1746469000141315e-02 -1.0926967947473126e-01
      -5.5171354140322114e-02 -5.8365906251729473e-02
      -1.1232372975748629e-01 1.8375327281882688e-02
      -9.0817071156028786e-02 -2.2950084968815114e-02
      2.4028433463915044e-02 -1.2357347671010906e-01
      -4.4590706891395861e-02 -4.3845714332130789e-02
      -5.4629111410790292e-02 1.5422513915281639e-02
      2.7203742901977506e-02 -8.6093802985441989e-02
      -7.7795604435892549e-02 -2.6056592722268884e-02
      4.5977662288876425e-02 -3.9749021421062840e-02
      -1.0104576245855877e-01 1.0366869881946342e-01
      -1.0109931067361046e-01 -5.3815569478170358e-02
      -8.8726597762517484e-02 1.3531008837854580e-01
      6.6535007963327147e-02 -1.1395350122302646e-01
      -1.2200349544514669e-01 5.6569567553970350e-02
      -3.9953374103892103e-02 -3.5509325878366332e-02
      -8.5601444442296434e-02 1.4567439266537500e-04
      -2.3218543710595483e-02 -5.3958347723088058e-02
      -2.0656537560673992e-02 -1.1171729724766714e-01
      -8.3812362933680912e-02 -2.1574629280494740e-02
      9.8247735887258394e-02 1.2766488379952935e-02
      1.0180139368040277e-01 -1.9566406279197594e-02
      8.3093469463100436e-02 1.4521513055737558e-02
      5.4710444541229725e-02 -2.3228818138417054e-02
      7.7081367813114296e-02 1.4445170029041268e-01
      5.0920023106545059e-02 -7.5673798330831168e-02
      4.7252520222080194e-02 1.3968234229251264e-01
      2.7838337047572818e-02 -1.0279519439984902e-01
      -4.0958800868434432e-02 1.6255508636377800e-01
      2.7905726892508018e-02 -1.0328424285719540e-01
      -9.6442763967571760e-02 8.9080048323735853e-02
      2.1701613826432992e-01 -6.6773716322850937e-02
      -1.6904533461166332e-01 2.7412281358024393e-01
      -5.0639247250961597e-02 -5.4754427952435868e-02
      -1.1738870793586496e-01 -8.5498231181118517e-02
      -8.9909438038416625e-02 5.9771136920184931e-02
      7.6442136601350477e-02 -2.1070430747272087e-01
      6.2058734528971878e-02 8.7498610000197249e-03
      9.3720500590013286e-02 -3.7077475483388710e-02
      1.4373711915346149e-01 9.6379036648760408e-02
      7.1429011420673608e-02 -1.0345891854747680e-02
      3.7847016252184327e-03 4.9527140082386158e-02
      -7.7611278676720213e-02 -1.7849970032016615e-01
      -1.1575196261934784e-01 5.0684896929568624e-02
      -9.3670713243305434e-02 -2.1041730643264181e-01
      -1.0418742377964282e-01 4.7797959133484336e-02
      -1.2069178440575969e-01 7.5059962348329101e-03
      -5.9366899952524189e-03 -9.0366450693839023e-04
      -1.3477497013021153e-01 1.3342180169078674e-01
      6.3204904334453471e-02 -1.5134924128753367e-02
      -1.0897039367148217e-01 3.9335199115788748e-02
      4.7421916985951135e-02 1.3529690544752384e-03
      -2.2678547739151478e-01 2.6963350524788807e-02
      -3.6933520614148341e-02 -1.9571754874066056e-02
      -7.8591248428388615e-03 -2.2500301357709271e-01
      -9.3226596646742668e-02 -2.2868677544031640e-02
      1.5252209606307257e-01 -1.7478453210799560e-01
      6.0517422496021343e-02 4.0198986807732463e-02
      2.5522455667200561e-01 5.1514401854204452e-02
      1.0078819120358366e-03 6.3299541836327508e-02
      1.3515530325837205e-01 -3.5285317624672088e-02
      4.3823440873955795e-02 -2.3930768288637442e-02
      2.6631315279877124e-02 -3.4188375111456240e-02
      -2.3641225777891423e-02 -4.2009867040785742e-02
      -1.6356643452135864e-02 -4.7924323333029865e-02
      1.8769132864479218e-02 -1.8584860140716756e-02
      -7.3987564020297575e-02 9.5339289955257103e-02
      1.8995042604771625e-01 4.1724301560063515e-02
      -1.0009179752378337e-01 5.3715743798500477e-02
      3.6557536643007808e-02 -3.9586115374891227e-02
      -1.2873189945568231e-01 8.9185825065789703e-02
      -6.1619370411893908e-02 3.9177436327411962e-02
      7.8545494372810457e-02 -1.3799003154127409e-01
      -1.2136487615573360e-01 7.4436164056349882e-02
      2.1975863765656278e-01 -2.6033919573874013e-02
      -5.7677383478169857e-02 5.4609425365452768e-02
      2.5588770653004689e-01 2.8634152375209172e-02
      9.4831832240636627e-03 9.1187565292058945e-02
      8.2581847857657542e-02 4.4718795834648550e-02
      -1.1180132792286697e-01 1.0930645754027274e-01
      3.6828166964922005e-03 7.6612785481391193e-02
      -1.2531399069889834e-01 1.3507617984848166e-01
      -5.1437536649192275e-02 6.8437399036057472e-03
      9.9777952698737016e-02 9.7264599016579800e-02
      -1.0212096409642567e-01 4.1180586092501054e-02
      1.9408596662787442e-01 -9.7063374507018060e-02
      -1.5886542295533584e-01 9.2285373451669747e-02
      -9.0176552468464302e-02 -1.1481608749530584e-01
      -7.0147045664984350e-02 -3.1111131345856302e-01
      -7.4919480669447022e-02 4.0061045443641509e-03
      1.2787396202338969e-01 -1.7968744537538756e-01
      -1.0226489631973730e-01 -3.9531175304649956e-03
      -1.6184974518315000e-02 -1.7521015652325475e-01
      6.1819961007494916e-03 7.1177376020312863e-02
      -4.7651519528720048e-03 -4.9694765920137350e-02
      1.1912294028618308e-02 1.6220802962486364e-01
      -4.6657637382829943e-02 -1.2312701434198052e-01
      7.9056201560986042e-02 9.7498265313956639e-02
      -1.0957425633405393e-01 -1.3527402188081741e-01
      1.0046944607134550e-01 1.2579204774064265e-01
      -3.2301718524303462e-02 7.6908490421552594e-02
      1.6729022842728389e-01 4.9263567234789328e-02
      -1.4905939769480694e-02 1.8713248221853751e-01
      -1.7363770278328114e-01 -5.8262811166195458e-02
      9.2676719048409545e-02 8.9105265395291594e-03
      6.6413896001303249e-03 -1.8815588344428769e-01
      -4.0548336005111721e-02 -2.3233276735994501e-01
      1.2460227691484914e-01 -1.1279087719393142e-01
      -6.2686407286052445e-02 -9.6587055686676179e-02
      2.1814579228951506e-01 -9.1521539611962230e-02
      -1.5871709388994246e-01 -1.2506652168494179e-02
      1.6878948472490038e-01 1.0872081717094249e-01
      2.9548367442014608e-02 1.2311730061428676e-01
      1.2806235807067673e-01 1.8823955141265133e-01
      8.6070898141719185e-02 2.2981546830558219e-01
      7.8061649660372365e-02 1.6353859053284084e-01
      6.8951586987004737e-02 1.3706034964180572e-01
      1.1999991908590925e-01 1.0609969066844496e-01
      1.1418992973016273e-01 1.1985684442454517e-01
      6.6973153195463805e-02 9.5906748161408810e-03
      1.7012567455319327e-01 1.1809903103192859e-01
      1.3670752401839170e-01 4.0909565991047933e-02
      -4.3741383061000470e-02 6.3534848222162640e-02
      -7.5244947474645399e-02 -9.6401474198708981e-02
      -3.0818226399029251e-02 -2.6979862607103261e-01
      -1.7836914129606568e-01 -1.2379219051673229e-01
      3.2854923086153932e-02 -2.2739645767076155e-01
      -2.8682459547779687e-01 -5.2226567408281729e-02
      -5.1738640716728790e-02 -2.0980152715931871e-01
      -8.6550806393191654e-02 1.2062360042992036e-02
      -5.0128754691593835e-02 -2.1833063585644949e-02
      -8.3919731489437238e-02 5.5482304721596327e-02
      -1.2961724382010070e-01 5.2953189968115259e-02
      -1.0112398558650540e-01 -3.9432907703297312e-02
      -2.0122069626259431e-01 5.4599527566748518e-02
      -2.6052057693165508e-02 5.7039677734659462e-02
      -1.2652373234116870e-01 1.3322712232518522e-01
      2.4894923568348740e-01 4.8729847361895846e-02
      -5.1703138664295378e-02 1.4898949932397776e-01
      -1.6330912722374552e-02 -6.2226794057501221e-02
      8.4212021878837889e-02 1.5123597606808251e-01
      -1.4413852034832184e-01 -1.2980387530814891e-01
      4.5384792286666233e-02 1.1554328060938503e-01
      3.4038211361456412e-02 -1.6963632277483812e-01
      5.3217521055833349e-02 1.2260167885846375e-01
      1.5301895132688290e-01 -5.8053280810234954e-02
      -6.1069603037596266e-02 8.7728417451413770e-02
      1.4182920652371281e-01 8.3318247701917231e-02
      -3.3135065964016680e-03 1.9077448751298427e-02
      9.9927739555159448e-02 1.8943740694611891e-01
      5.6625407797879154e-02 7.8305359837862257e-02
      3.0922703583157393e-02 5.0250446388437196e-02
      -3.1659745339011815e-02 -8.2337739868897867e-03
      4.5350401588828776e-02 -9.8406831897605764e-03
      -1.0743614440187169e-01 -2.3525453941055711e-02
      9.2963978996371183e-02 -9.8509979809150064e-02
      -6.9573681858991723e-02 9.7199441540245082e-02
      -1.6217346078479133e-02 -3.4689423050283767e-02
      4.2864626164865076e-02 -1.1832667385196745e-01
      -2.2449508242494576e-02 -1.0615045207515550e-02
      -1.0188484318833253e-01 -1.4404610752680519e-01
      3.9943470594774592e-02 8.8337692443922242e-02
      -4.9657327617182709e-02 2.6858349797637893e-02
      1.0458283427496888e-01 7.6317363643262831e-02
      -4.3184040256085049e-02 7.7670242838342521e-02
      1.2661177895601011e-01 1.5735638337452901e-01
      1.1012782655830405e-01 1.0753415884968318e-01
      4.7026669310492097e-02 1.7398399068443210e-01
      1.0262891456472305e-01 1.8645137551781732e-01
      7.6578109824617574e-02 1.3760404483822805e-01
      1.0376927180407113e-01 1.0977156339516236e-01
      6.2114085233288797e-02 -5.1495179759083552e-03
      -4.1496042152167560e-02 -6.0289859488399516e-02
      1.3646648125361280e-01 -1.3489769742553800e-01
      -4.1554103034628143e-02 -1.2047891429416618e-01
      -8.7534317915284321e-03 -1.0301398092589851e-02
      -1.3692265291531863e-02 6.2493891070324888e-02
      -1.5392061347101724e-01 8.6263550528818955e-03
      8.0932133964499997e-03 -7.9864691762630793e-02
      -1.0553356854027042e-01 7.4500583404492971e-03
      7.3646335685833328e-02 -3.0323691193384450e-03
      5.8393167325467087e-02 -2.1807103180823042e-02
      2.8890739414017597e-02 5.1801627158171307e-03
      1.0897690745820116e-01 1.2077300815388471e-02
      3.9735109849750580e-02 1.7210362271045530e-02
      2.0258629503755069e-02 1.0274623599562420e-01
      7.2466709806016091e-02 -3.2389864723284062e-02
      8.1426108029116664e-02 1.3726007459465919e-01
      7.0770641073834836e-02 -1.3315031318520568e-01
      3.8986206774977175e-02 5.7370422165013736e-02
      -2.2210722236413998e-02 -9.7079771189031758e-02
      -6.0451628783328805e-02 1.8611980281122775e-02
      2.6581622703055183e-02 1.0317763706441054e-01
      -7.8428860314733090e-02 -4.4103873864091168e-02
      -3.0500273875075754e-03 -1.8477851517400119e-02
      -1.0371453062162027e-01 5.7167548992261445e-02
      2.3204576436588298e-02 1.1482908199553717e-01
      4.0256099951362645e-02 7.4001369878608850e-02
      7.7158054326973133e-02 1.3811828299391554e-01
      2.3109017699407021e-02 7.3135106942914890e-02
      -2.1292490697596991e-02 8.4136358199152460e-03
      -9.8487915929198200e-02 5.1357919126735083e-02
      1.7507635889411465e-02 1.5933511394070430e-02
      -1.4191320218402351e-01 1.8161626146033223e-04
      -5.5358969591003636e-03 -7.2307641546533838e-02
      1.2865457096565460e-03 -4.6769812280221340e-02
      -4.4914376730544232e-04 -7.2883178169800902e-02
      1.1041045594875969e-01 -7.8908597568372221e-02
      -9.2548804102450311e-02 -1.7566150756522353e-01
      -2.4630822528201458e-02 -1.4488789803325441e-01
      -1.0305989556468723e-01 -5.4576832349474164e-02
      -8.1549871079552458e-02 2.6096254050213940e-02
      1.2575645115962228e-01 -1.0048309212455286e-01
      -6.7212149487060321e-02 -8.1179038009944943e-02
      -2.1513657203739135e-02 5.0566905336923837e-03
      -1.6451507056650372e-01 -7.7695229353128198e-02
      -6.8850966693524099e-02 4.1202055691918760e-02
      -1.8130481003943530e-01 -1.6428931845372426e-02
      -1.2768565965764206e-01 -3.9009289751201201e-02
      -2.1379177270974511e-01 5.0814858888565392e-02
      4.7747863615090119e-02 -9.6445150182634998e-02
      -1.4158996806901866e-01 5.9223257885218969e-02
      8.0647852342344853e-02 -6.8425138346500269e-02
      -2.3818199925432427e-02 7.2147830648191455e-02
      4.3661076879812508e-02 -2.3915703318523402e-02
      8.2758618143849109e-03 2.1347524168528656e-02
      -9.3934067874793914e-02 -2.2043316467883639e-01
      -9.2843490658611819e-03 -6.6446624941984018e-03
      4.1535679267404015e-02 -3.2966053953518752e-02
      3.5403617258695709e-02 -6.1948078743632763e-03
      -1.1771327090394086e-02 -1.0790820246027335e-02
      -1.2948393987531805e-02 -4.6501951790347682e-05
      3.0239012568255351e-03 2.9185959237799569e-02
      -1.6658524684347978e-01 1.0549241496852265e-02
      -3.2505917581346938e-05 -7.2428804189770851e-02
      -2.0413632004433364e-02 1.5000157283586229e-02
      8.4910855339656116e-02 1.3343055061669967e-01
      -1.5776744961161371e-01 9.2018430750036087e-02
      4.5859116503617937e-02 -3.6562493660901832e-03
      -2.0495775357620230e-01 6.1958700424314117e-02
      -1.0885701062542689e-02 7.0857633697800453e-03
      6.7534899676732374e-02 7.3114318858284325e-03
      4.7930570124258727e-02 1.4319214909258363e-01
      1.7944368979649714e-01 1.4008716474606914e-02
      5.4338522927707307e-02 -3.8442527958437486e-02
      5.2372224797727837e-02 -7.4363858552697323e-02
      -1.5141824635818936e-02 2.8577395532758176e-02
      -1.2091080904059909e-01 -2.7877582797951859e-02
      -5.1974181542351353e-02 -2.2182720686995987e-02
      7.3652813809939642e-03 2.2358929866817596e-02
      -3.8258476807216148e-02 -7.3250128675279969e-02
      5.1607356000574200e-04 -5.8981838764226413e-02
      -1.7074441391869113e-01 -1.3732035250137956e-01
      -8.1787491291455419e-02 9.9334904591658960e-03
      4.7035716580130373e-02 8.3744993704869763e-02
      -5.4416100284685506e-02 6.7909338694909907e-02
      1.2872441295190523e-01 -9.1732133989206696e-02
      -7.7279369887527016e-03 -2.2366508862286579e-02
      -3.4761516851466480e-02 4.4933271532369888e-02
      -5.3713657326567125e-03 3.8037145758920378e-03
      5.0451539615218192e-02 1.4346645218607149e-01
      1.6102828459567387e-02 -7.9975634051825131e-02
      -5.0185771957135375e-02 -2.8478114620712952e-02
      -9.2223991213720449e-02 -7.3767122775878102e-02
      -5.7266102538976703e-02 -2.2289282744110173e-01
      2.0603865980438130e-01 3.9555162347082826e-02
      6.0772194226091907e-03 -3.1273388122169309e-02
      6.5328392155917930e-02 3.5929071447328195e-02
      -4.7377805132921245e-02 7.9819362635414809e-02
      7.3828138643013339e-02 1.6878980680561911e-02
      6.6099091347241526e-02 6.6403000290003442e-02
      3.2785574589044931e-03 1.3581048518335574e-03
      4.0698767163128098e-02 2.4552585176166014e-02
      -1.2934089209587865e-01 2.3820058259464420e-02
      -3.9660550182471790e-02 -1.8114514610561569e-01
      -1.5739286932986080e-01 6.2123717723093629e-02
      -5.3163917206556749e-02 -9.8719365793228084e-02
      2.9893188470198871e-02 1.2991754575758555e-02
      4.1772607070911613e-02 7.2123697951576290e-02
      1.4425626188469648e-02 3.9661650700860852e-03
      -2.7179097096881034e-02 -1.4917591666661918e-02
      7.6581936377751902e-02 -5.3774551896627089e-02
      -1.6989482764682695e-01 -1.3444729306194297e-01
      -4.0707471328408497e-02 4.4416716757549584e-03
      -8.0945128055600016e-02 1.1313913445497793e-01
      1.0309179662663578e-01 2.2182468365715958e-02
      -6.7446324670309546e-02 1.9832842239904444e-01
      1.4768640183804177e-01 -1.6541693845553318e-02
      8.4455801568270192e-02 2.7866553573281681e-02
      3.1064854807733758e-02 -1.2765795540840494e-02
      -2.9390935540983241e-02 9.1777211556048371e-02
      3.8854663257546128e-02 -1.6990514993830270e-02
      -1.0344367416655541e-01 -4.9162507129292973e-02
      -1.1500014253341085e-02 -1.3641873370227334e-02
      -1.3993789542582609e-02 -1.2760145005416995e-01
      3.5821855454053753e-02 -5.7795661734940537e-02
      7.9166711181635957e-02 -3.6109280283858111e-02
      -8.0847333541678321e-02 -2.1413137420846627e-02
      -5.3775310152547412e-02 -2.9083281143066214e-01
      -6.5809398194571170e-02 -1.1836162359543334e-01
      -1.4322918719252326e-01 -2.1440747593783993e-01
      2.6325066754615746e-02 -3.5494276643031050e-02
      -4.1860807591920367e-02 3.9391245760097296e-02
      -1.5303135838926460e-02 5.3032179246654404e-03
      -9.9815649295485587e-02 5.1824400090450959e-02
      -2.3391139390932365e-02 5.0921681088830009e-03
      -1.2530720788794367e-01 6.6490133030355489e-02
      7.6789550028629437e-03 -3.6581499323098170e-02
      -7.1110240925638959e-02 3.4385715973643738e-03
      1.2158471682486842e-02 -3.9713704461252185e-02
      1.5568183067257974e-01 4.5344046279497424e-02
      -1.0123423428344495e-01 -1.9949360485229738e-02
      7.8730394488280842e-02 -5.8881425173626580e-02
      -4.7548021103007744e-02 -5.1940592840057087e-02
      -8.5549381872790584e-02 -5.1073991859085156e-02
      -1.3101766335741472e-01 1.2980652150436272e-02
      -1.8311772847398721e-02 -9.2418388336486149e-02
      -2.8028945299542342e-02 -4.5952812427963202e-02
      6.1802809881450855e-03 -6.9562079081092586e-03
      9.1533495016827893e-02 9.6221733638774301e-02
      -4.5331064746024219e-02 -7.7512489357812422e-02
      -8.5356205701666577e-02 6.7041246869422658e-02
      -1.5074784933605928e-01 -1.6315811034184727e-02
      1.1716310937103069e-03 1.0958156587103472e-02
      -1.0824216161986176e-02 4.9695946414501976e-03
      -1.7535786686600968e-02 -1.1493371691559923e-02
      8.6873072790852768e-02 4.2916625718984983e-02
      3.6698830430550683e-03 -1.0792684306994057e-02
      1.6534029070551509e-01 1.1365876208603980e-02
      -3.2511986431851395e-03 -1.7938218964074389e-03
      5.3117459227042349e-02 9.9650826637205838e-03
      7.5130957199603041e-02 -2.6413215676693743e-02
      -1.0052367871108742e-01 1.0915855469872654e-01
      1.5671755508115506e-01 -1.5665243090209533e-02
      -1.7559745905541915e-01 1.0437869715863241e-01
      3.4848065847642114e-02 1.3008658291360950e-01
      -1.1262695928405259e-02 -1.2586366119747011e-01
      -2.1151521425679165e-02 6.3683826960945792e-03
      2.6094044646893466e-02 2.0605327776962078e-02
      8.0823688879743272e-04 -6.8262643681542912e-03
      -3.7179797225439792e-02 4.3487961002655465e-02
      3.4725161654917132e-02 -4.3477085032276264e-02
      -1.8144644635150194e-02 1.9563915078396429e-02
      3.6696810426129545e-02 4.8184152894968071e-03
      4.4041095841079569e-02 4.0032163985737048e-03
      3.3095917718011067e-03 -8.0015526590033970e-02
      3.1523292866509935e-02 -1.0839118189553502e-01
      -4.5611187682075699e-02 -3.5458957127425840e-02
      2.5014745525977603e-02 -5.5339850640773090e-02
      -7.7054576667241739e-03 -8.1025076840318774e-02
      -6.8460859615790196e-02 -6.7012200319908594e-02
      -7.9299737433282780e-02 -1.7738836257597028e-02
      -5.7471220896697713e-02 -6.0603300163985128e-03
      -4.3571502837970871e-02 -1.2133842895887557e-02
      -1.8382918653883951e-04 5.9823373392486343e-03
      -4.4459383962405742e-03 1.4491858342173169e-01
      6.8679797027243028e-02 -1.1654297338796939e-02
      -2.1068047200750954e-03 6.3174771480724187e-02
      1.0463454428566629e-02 -5.2961990287880727e-02
      -5.3488287312920456e-02 4.9155997981963143e-02
      -1.1700120731746861e-02 -1.6004032183810002e-01
      -3.7449270415391089e-02 -1.1876143960446105e-02
      1.1583324245064466e-02 -1.1469114186698598e-01
      6.4693877994196250e-02 -5.3876046341988608e-02
      5.5074243644927794e-02 -8.6723755553840209e-02
      -2.9227000567174145e-03 -9.1640696059890489e-02
      -1.3503869617376813e-02 -1.9887929131086574e-02
      2.6872574763409905e-02 -1.0328989801779979e-01
      -1.1219999807344222e-01 1.1275313819272659e-01
      8.9463034035672795e-02 -5.8670476265494848e-02
      -1.5958890426056507e-01 8.1745664544191646e-02
      -1.0114545925830692e-01 8.6778121205872930e-02
      -2.0459299561040239e-02 -4.4854628125381192e-02
      8.3796570376176618e-02 1.0630452147568227e-01
      -6.0449266882761303e-02 -2.5741426660884765e-02
      9.4373857649275875e-02 1.4884355959213294e-01
      7.3645552654050803e-02 -1.0759875587109119e-01
      -2.0005754312301699e-01 5.9430614664744932e-02
      1.5539202121261711e-01 -8.7611983834279789e-02
      -2.2338452073691026e-01 -1.8068191862781328e-03
      8.0767990695640196e-02 -1.7968636373828226e-01
      -1.9018424921407856e-01 -2.0518941542459392e-02
      7.8990393600212025e-02 -2.8603504442811828e-01
      -5.0676560141212697e-02 -9.2234089605076675e-02
      -7.5908765042311754e-02 2.5103935490895637e-02
      3.3680699418081626e-02 -1.8105898166932406e-03
      -1.8462036728874476e-01 2.3467315831574956e-01
      6.3996270235721062e-02 -2.7756394167670718e-02
      -2.0461224482839607e-01 2.5176035056133650e-01
      3.6992290314316764e-02 1.0685774148378992e-02
      -1.2209721584924060e-01 -3.9121389533776939e-02
      -3.0454725901428819e-02 -4.5222245459375247e-02
      -8.8371390421794913e-02 9.2797390151624803e-02
      1.8735508438756560e-01 2.5658686502419210e-02
      4.6309307596998084e-02 2.0372155809357562e-01
      3.6900434332917610e-03 -1.1276086638336420e-02
      1.5314619438054522e-01 1.3974708085057860e-01
      -4.8526812744579463e-02 1.4999090286728545e-02
      1.3446218813282690e-01 3.4758680644341552e-02
      8.2150921490870235e-02 -4.9129307489940433e-02
      -6.2522207456310874e-02 3.0945451858814026e-02
      2.0076269581883430e-01 2.8528932331761559e-02
      -8.3192038767266829e-02 2.1008382631448505e-01
      6.4996063584277008e-02 4.6472341824964188e-02
      -1.7478511266429009e-01 2.0323955669184024e-01
      -3.4419184826901164e-02 -3.3236113469685422e-03
      -2.1999916015260249e-01 5.0559035242238405e-02
      -9.8910601843469781e-02 -4.2425293758287269e-02
      -1.6086382880066979e-01 -3.1386644043905690e-02
      1.2839969807427534e-01 8.3123540167870616e-02
      6.6142948337904975e-02 -1.0017767531640145e-02
      2.1795241178157795e-01 1.1942220025808271e-01
      1.2007255528453841e-02 2.4373742600419718e-02
      4.1402910110144832e-02 -2.4707154033569691e-02
      -2.7831337777555910e-02 -1.6550549302986825e-01
      -1.2079829408074347e-02 -6.5857240823510244e-02
      4.4509535662606700e-03 -1.9031562822815401e-01
      -1.0875715009006019e-01 -8.3106689550499338e-02
      -1.5153508998991526e-02 -2.6888962046069553e-01
      -1.1121452482980163e-01 -2.7003452077497908e-02
      2.7975195259226000e-02 -9.2461768202722214e-02
      -2.0499186894129984e-02 2.1375593698103174e-02
      -5.7097388020819359e-02 3.7534281452707090e-02
      3.3743433976791429e-02 -3.4286480241395891e-02
      -1.1131242659355937e-01 3.2595928640640986e-01
      3.9804439544594325e-02 -2.6254242938519846e-02
      -1.9817062158404490e-03 9.1857749099519340e-02
      -2.2850166582564366e-02 5.6992102548698083e-02
      8.6559208080467936e-02 6.4450343841419469e-02
      1.1015314849512596e-01 7.3037000429804461e-02
      7.4684906758202566e-02 1.1467834139500405e-01
      1.1972366106586285e-01 4.5257290376366090e-02
      1.3369939586387558e-01 -1.6021404168967610e-02
      -8.1964388841548486e-03 -4.7756202961416723e-03
      2.3098538758255200e-02 -1.1544005242271480e-01
      -2.8577517543751416e-02 2.5887612734044003e-02
      5.4663011466133400e-02 -1.3220495837827489e-01
      1.5879123884589709e-02 2.3857943329111935e-02
      1.7813490505910665e-02 4.3240138486585117e-02
      -4.6574912332351184e-02 -7.8114673479393942e-03
      -7.6010878765702561e-02 7.4984173715858266e-03
      -7.2785973641221899e-02 3.0311928262623383e-03
      -1.4286646826216173e-01 -2.4583691372490610e-01
      -1.2573266287370616e-01 -3.1525497229365117e-02
      -1.0890840684419724e-01 -9.9125063251036871e-02
      4.6792381687414515e-02 -1.0525298764356295e-01
      -2.1405851031246201e-01 -2.2503443912624745e-02
      -5.5669979333862807e-02 2.5477128438225302e-03
      -1.2178066087216442e-02 1.3237274855172196e-01
      -1.2615644137947768e-01 7.9466677601959274e-02
      1.2527323240284824e-01 1.6998693092829956e-01
      -2.0304441787711117e-01 5.3034921127546888e-02
      1.8001888031212995e-01 2.4451871328912279e-02
      1.6613785659407257e-02 -4.7123986568561968e-02
      -2.6256445292216709e-02 -9.1748308362648121e-02
      2.8817384956708599e-02 -9.4809190469796453e-02
      -1.9620749711885913e-01 -1.1375252301728278e-01
      -7.0483328641648496e-02 -1.2446273442437999e-01
      -1.4487428251959600e-01 -2.1495061788197459e-01
      -5.8373809887623668e-02 -1.3275718253627394e-01
      -9.2552499007630171e-02 -2.6091634901071797e-01
      1.0319720733027077e-01 -1.1486963484173342e-01
      -2.0223944393393756e-01 -9.4219197565283838e-02
      -5.3965915938465357e-02 -4.3743540319744312e-02
      -7.1046567219276435e-02 7.0717088540266274e-02
      3.5609586692635177e-02 -4.7687862095626664e-02
      -5.8659174711750528e-02 8.2281239022986036e-02
      -1.0324837698397130e-01 4.0588964517069516e-03
      5.8159829930844849e-02 1.7096296465836275e-01
      1.7331189031497061e-03 -6.5560113397328673e-02
      -6.3075434938375974e-02 7.4800403103566046e-02
      3.2208051924708117e-02 -4.2423649008157559e-02
      -6.0405133292602373e-02 9.7308069098612476e-02
      -1.9558420166785228e-02 1.0948735849116323e-01
      -2.6709934787288551e-02 -5.3629488027771989e-02
      -1.2996114492273553e-01 1.0540838345632735e-01
      -4.7451750085379975e-02 -2.6528507065220064e-01
      -1.9086749849248913e-01 4.4144114320509645e-02
      -4.1732080615975303e-02 -2.7674164456708683e-01
      -1.1519359492358729e-01 4.1147615228269048e-02
      -4.7176763860048126e-02 -1.1869218559380297e-01
      -1.1456544563262354e-01 2.3971175908583778e-02
      -4.3167092346248277e-02 -1.2015540105806297e-01
      -2.7467963279715357e-02 1.6435180493193573e-02
      -1.1077735711254621e-02 1.4180788468437955e-01
      -1.2322723548489683e-02 5.0308007409625856e-02
      1.4357074067512857e-01 3.8664904020071313e-02
      -9.8894375064952536e-02 2.8097574496459121e-02
      1.8373182500595242e-01 7.5087184306666235e-02
      6.9238985074139531e-02 -3.3731532842485062e-02
      1.1727070724550588e-01 -8.2665579626125738e-02
      7.4823453575061675e-03 2.0480288663305476e-02
      9.2012541946808121e-02 -8.6244777047968540e-02
      -1.0255693567901800e-01 -4.1360709773003240e-02
      -1.6633578562519666e-02 -3.4847742354222763e-02
      -1.9546059988130041e-01 -3.8028458153296626e-02
      -1.5041184700055164e-02 -1.2716942755294061e-01
      -8.5690391189400195e-02 -7.3446826319323796e-02
      -1.4273019621375918e-01 -1.6424710568143208e-01
      -1.5278386979897656e-02 -6.3250423058787225e-02
      -6.4340017835333996e-02 -9.2267690594820428e-02
      -5.7887657244763607e-02 1.3381968670618488e-01
      9.4056544678194007e-02 1.2683915623176717e-02
      4.9304795223073163e-02 5.6065049296193568e-02
      3.2870543102549714e-02 -2.9000866262138478e-02
      -7.6374369614177776e-02 2.5008723844053244e-02
      3.2994427594303689e-02 -4.0596672228065435e-03
      2.8316187335725083e-02 -1.9346084634253011e-02
      1.9321865177080750e-02 -2.1619893344403236e-02
      2.0295472777497849e-02 8.9332393190144962e-03
      -1.4485509152670079e-02 -5.1595622283412280e-02
      -1.3310503688638683e-01 3.4080262314013253e-02
      -3.9189825545946265e-02 -1.4881960456455137e-01
      -1.8815621265448587e-01 9.9389944166958909e-03
      2.4226917007934078e-02 -1.9079645611412294e-01
      -1.1996598657140499e-01 -1.8523772648477183e-02
      -1.4127570569091022e-02 -1.2399332338117999e-01
      1.0207115340177807e-01 -4.9492288105126063e-02
      4.3268259049100158e-02 4.0111522228964261e-02
      1.0431499919072346e-01 -7.8729467502798630e-03
      -3.7512881753958040e-02 5.6391539839651214e-02
      -3.2812052372593201e-02 9.7152153993719653e-02
      2.0382487690963107e-02 -1.4461692912563442e-01
      -3.0061328963659907e-02 3.1082879434849463e-02
      -1.1270998105101886e-01 -3.5398953317058329e-03
      -1.0120288889787279e-01 1.3322769600109582e-02
      -5.1692576232325642e-02 8.4619638893754595e-02
      -9.2419892321063679e-02 -5.3307568133589993e-02
      -7.1618483108506256e-02 -1.1884227616510150e-01
      -6.6673917538715460e-02 -2.6203082676598009e-02
      8.6977520719465698e-02 -1.1373831055451535e-01
      -1.4287843978651392e-02 -1.5057134654403056e-02
      5.4417192550796856e-02 -1.9466447367251906e-03
      3.1733626319887520e-02 -5.1018428035389382e-03
      7.2174676247945629e-02 1.9993853210106109e-02
      2.2414087976708626e-02 -1.6842655561832572e-02
      1.6444232017906155e-02 2.0654963250593322e-01
      8.4653734168541078e-02 -5.6369493259053154e-02
      -4.2021333948212919e-02 1.1023496816456828e-01
      -6.2832765477543948e-02 -6.2857404703234740e-02
      1.9929790199199660e-02 -9.0026031604903013e-03
      -2.9091500137897212e-03 -6.7510112265605396e-02
      -7.2600129779573281e-05 4.2757496473621981e-02
      -2.4071897707164756e-02 1.7039454435441890e-02
      5.3030342616236785e-02 -5.1937405445803886e-02
      -9.9054047288157060e-02 -5.4949608537029460e-02
      -1.5994744225476344e-02 -1.7934830502252672e-01
      -1.0591812822802160e-01 -5.1620467029326170e-02
      6.6015848393907894e-02 -3.7402946973812419e-02
      -7.7923252124229139e-02 -7.7480749347977107e-02
      3.7525424881270426e-02 3.5979651639996134e-02
      2.0373089996919606e-02 -5.0972645024244902e-02
      2.0691864686038283e-03 1.1791764973007070e-01
      -7.4974877475103882e-02 3.5748127673428005e-02
      -1.4633456331476330e-02 -4.0408254942633434e-02
      -1.2760188376301845e-01 8.3742207753145337e-02
      5.0765319509259353e-02 -6.9282087000456183e-02
      -1.7145917545909672e-01 1.1197457922150690e-02
      -9.2054615287281205e-02 -9.2728403688067715e-02
      -1.1690149253727738e-01 2.0853080783669500e-02
      -1.0002218769833697e-01 1.4325436309925191e-01
      4.2798073923933228e-02 -3.2797423986837243e-02
      -3.8671425716709888e-02 8.3332054417691551e-02
      -7.5322164550661916e-02 -3.3459771897962225e-02
      -7.0344897538686682e-02 -1.4853805443687462e-01
      -1.0677343877635051e-01 2.1910134689338168e-02
      5.0442235651716695e-03 -3.4978013120741759e-02
      -8.6699259765622733e-02 5.3154248646704684e-02
      -1.5931704151029600e-02 -1.3998427084528890e-02
      -5.3624292576364495e-02 4.9094146718744978e-02
      1.7973800090201313e-02 2.2881778699798537e-02
      2.1590773179250605e-02 2.9747168277899017e-02
      -5.1535687036655960e-02 -4.3262067806298980e-02
      -3.9337442523039105e-02 -9.1641847011113570e-03
      6.4740456173667466e-03 7.0293378681611979e-02
      -7.5667642859997997e-02 -4.0981866976230734e-02
      5.4846927439850889e-02 4.0255241164657569e-04
      1.1219438640217899e-03 -2.7230404363430515e-02
      7.0632015406079385e-02 -7.7831824342305705e-02
      1.1277066531027666e-01 -7.3669927212219308e-02
      -5.0556490169783239e-02 -6.4628534816286221e-02
      -9.0936706893496311e-02 -1.8101114075213493e-02
      -3.7915533665459668e-02 -8.8216371313642374e-03
      -2.2546493403268961e-02 -6.0957138691863526e-02
      -5.2204227683419951e-02 -1.6061371910492582e-02
      3.7206111520801097e-02 -9.3113452174297853e-02
      -7.7568151043352199e-02 -8.3240454123430063e-02
      3.3980552772920690e-02 -2.9204829620462832e-03
      -4.1646368662946909e-02 2.5660938754976846e-02
      1.2438247066792226e-02 -2.6204567007442014e-02
      -9.7358649059880210e-03 -3.4034811972960904e-02
      -6.7996242567927648e-02 -1.0837506188414007e-02
      -2.2797814658620883e-02 -5.9039002632542539e-02
      -9.8592475849153382e-03 -6.4934143547177053e-02
      -2.3603683773451636e-02 -4.2200281909636227e-02
      -1.9666365004367228e-03 -3.0279303600445503e-02
      -3.4530370831116833e-02 -4.1712564664204338e-02
      1.1738468201039614e-02 1.0304143746265981e-02
      7.7356072690322561e-02 2.3518522592528572e-03
      -2.5036628038881688e-02 1.8552834481210354e-02
      2.1175944791386032e-02 3.7972136860762798e-02
      -1.6836473663109919e-02 -3.4583031882855705e-02
      -3.9211778069194715e-02 -3.1198997174830694e-02
      -4.5147840780399844e-02 -2.7948352175934426e-02
      -7.4799376575516510e-02 -6.5330189236297603e-02
      8.4333197016637825e-03 -7.5136359731183960e-02
      -1.6142057964172816e-02 2.9771757538837186e-02
      -4.1922863841946510e-02 3.1675147088358717e-02
      -9.8675462405674770e-03 5.6068314927916217e-02
      3.6115155910681040e-02 4.0529326446848174e-02
      -1.9591748441622966e-02 5.4274520663815835e-02
      9.6561671387287218e-02 3.5764841180177975e-02
      5.5731102865329882e-02 1.5419821796983316e-01
      1.2336511737831037e-01 3.7169696727993556e-02
      3.0837185549175104e-02 6.8135492914311646e-02
      -1.4272188107919681e-03 1.9886591934761482e-02
      4.8820279548229824e-02 -1.2012258178538029e-02
      2.9747182140959921e-02 3.9086372751152246e-04
      -1.2998024606276207e-02 -2.0388997628410087e-02
      7.3127693617240370e-04 -1.8247549957018779e-02
      -2.6052166899723801e-02 5.2361201878609556e-02
      4.0536784191727050e-03 -2.0270845113414766e-02
      -4.8326150979288718e-02 -5.1614393946408516e-03
      -3.0403562252686242e-02 1.9444059814249702e-02
      -4.0402226084235701e-02 8.0954186077387257e-03
      -8.0815173715740693e-02 -8.8118685855864184e-03
      -5.2881733951661028e-02 -2.7184431101162903e-03
      -2.3733696122617103e-02 1.8004460976191631e-02
      -2.4896866584509233e-02 -2.7779147357671355e-02
      -8.2759898953417618e-03 -2.7095596838065374e-02
      -5.9553183447486523e-02 3.4543602389262809e-02
      -1.4120335427484754e-02 -4.3633844136862054e-02
      -9.1933563124411213e-02 -2.2047728980928525e-02
      -6.7628154421693690e-02 -1.4500420262560029e-02
      -1.2915395663115198e-02 -3.3524702564415435e-02
      -6.1374392674150895e-02 1.1385961606622011e-02
      7.9462167198076066e-03 -2.2864693313540765e-02
      -8.8385240440390270e-02 1.2447718132911725e-03
      2.9339334830823988e-02 -2.9102759156402241e-02
      -4.3008679972363593e-02 -5.3246037811979216e-02
      -5.4112387299771235e-03 -2.0021915596729195e-02
      -5.8442445349333579e-02 -1.7615902132302164e-03
      1.6325188841285598e-02 -1.1028572441432960e-02
      -4.9181810610300254e-02 4.6330061663295719e-03
      -1.5259145807031260e-02 -3.9302631476347903e-02
      6.8507759417403821e-02 -6.4853214603487813e-03
      -3.1848098094693911e-02 6.9299007596880929e-02
      3.9784636954321509e-02 2.3578256527474746e-03
      4.0095153790824033e-02 4.5549072460412253e-02
      1.6440893426016123e-02 -1.2531998236271989e-02
      4.5604243522589585e-02 -3.7076202445307620e-03
      1.7466143990513338e-02 -2.4759753296814738e-02
      2.0541265768429132e-02 -1.3951763999406049e-03
      -4.1124159748679910e-02 -1.2644941674794404e-02
      -7.1634369932098852e-04 -3.8429919894940490e-02
      -3.0326576321650632e-04 -2.8142196428710426e-02
      4.0683549082381207e-04 1.5622415201059725e-02
      -2.1602816207810297e-02 -3.4015566936187844e-03
      -1.1996689013297233e-02 -9.4909385939713122e-03
      -3.3122528724999184e-02 -2.2398854378997576e-02
      -2.1656169655438130e-02 -2.3402925457574754e-02
      9.5653948178985024e-02 5.2614124182628383e-02
      5.2502159283356775e-02 1.3028021880077906e-01
      1.6601054345364874e-01 4.2599884798393314e-02
      5.9951108512657544e-02 1.7610822488898453e-01
      3.7734450878170643e-02 2.1378779020480819e-02
      9.7991109531741921e-02 9.1341819512297542e-02
      -1.5919872673866195e-01 -2.2956909337265720e-02
      -4.1637147553159150e-02 1.0619355264373464e-04
      -1.3701398320611655e-01 -9.1333806580065485e-02
      -7.4278849411534356e-02 -3.6897056895720398e-02
      -6.5165422760472186e-02 -9.8941565128369227e-02
      -5.9592761529341128e-02 -9.3454013313407733e-02
      -6.0318915480671809e-02 -2.2105917836426951e-02
      -2.0382646026908077e-02 -2.9183542611434046e-02
      8.1499478763360375e-02 -2.7156372290867464e-02
      -4.3769690780256047e-02 2.8311365348871641e-02
      6.4298618429225018e-02 2.0702623810148087e-02
      2.6696098798809397e-03 9.7941906915898630e-02
      7.8267763510735000e-02 3.2529422045318293e-02
      1.9836124565705205e-02 1.8722472867091605e-01
      1.9410322980442282e-01 -7.3693363418330807e-03
      -2.2235243018648480e-02 2.0214986179622754e-01
      4.7664334019400859e-02 -4.9459731985669220e-02
      -3.1855884434623213e-02 8.2701933291536953e-02
      -8.8437930568590131e-02 4.0007293748956334e-02
      1.2952451985191507e-02 -1.3750348966942580e-01
      -8.0744617256671064e-02 -3.4996337721990685e-02
      3.4491912624613610e-02 -1.4431791075490349e-01
      -5.8081991822096377e-02 1.2965987345291178e-02
      2.6933244269310232e-02 -1.0907223005814821e-01
      -1.0626690888217522e-01 -4.2584101911407414e-02
      -4.0133658843571160e-02 -9.8071787684694475e-02
      -1.0360578038696280e-01 -2.2190991831443661e-02
      -9.0363233564737550e-02 -9.7683955215835561e-02
      -6.2162311866412981e-02 3.5551436898812155e-02
      -1.5818177463171091e-02 -3.5755553643704995e-02
      4.9601894327564967e-03 -3.3646182831204380e-02
      -3.1377965668471994e-02 -1.2279728688628446e-02
      5.1692338197792460e-02 -7.6983046696315113e-03
      -2.4359333164870215e-02 3.1351623933265314e-02
      1.8644013508523467e-02 -1.0075703004611639e-01
      -5.1286073874318397e-02 -1.6786828997894881e-02
      -8.1213506102441602e-02 -7.5786694859650588e-02
      -1.6724172904825385e-01 -8.0322594666609279e-02
      -1.0320517040600517e-01 -3.8709622482770982e-02
      -9.0111934491379733e-02 -7.7952284915546829e-02
      -1.2480621685801790e-01 -9.9160785844506771e-03
      -6.3001863166055605e-02 -6.6737841775956125e-02
      -1.0954448080160337e-01 -5.1637550724509401e-02
      -1.9358140718240324e-02 -5.5177283673978908e-02
      -6.1321005434453332e-02 -4.7033881004291220e-02
      -5.9156624839698628e-02 -1.1373314335535589e-01
      2.4732006322310658e-02 -6.1088126664107074e-02
      -5.7996349425920531e-02 2.7603095210983801e-02
      -3.4863448436017561e-02 -3.4086147576097077e-02
      -6.1835550269030745e-02 -5.1993979014994147e-02
      1.9482157588537264e-02 3.3700463881146482e-02
      -5.1564556146806682e-02 -6.4927922677805077e-03
      -6.9607629092150750e-02 4.1289708049617561e-02
      -5.5591296148076584e-02 -3.1633439364919545e-02
      -7.5304316379391611e-02 5.3955382498757478e-03
      -1.0464215500762497e-01 -1.0824811575170611e-01
      -1.2113844494875875e-01 -3.3568878429719645e-02
      -4.2603138146056339e-02 -6.2477731000974535e-02
      -7.9437357059456967e-02 -3.0145279612614314e-02
      -1.2042816661858415e-01 -4.6291708057881888e-02
      -4.4821889476851597e-02 -5.4096186185746090e-02
      -6.7531653766450234e-02 -6.2355021973112601e-02
      -1.2252528428247916e-01 1.6794864395297416e-02
      -7.1137827525199079e-02 -1.1624969630384849e-01
      -1.2946760766496720e-01 -1.6150401574956511e-02
      -7.1538143057238351e-02 -1.0747593065643637e-01
      6.6488122954109663e-02 4.0684462818487033e-02
      4.9137107337637112e-02 1.4534950600074053e-02
      8.2689121944441862e-02 -2.2444964212088397e-02
      5.6764042903506229e-02 -1.8368685912998773e-02
      7.1197197454477862e-02 -1.8413876948012414e-02
      6.4628365259020104e-02 4.0768043706742599e-02
      9.4189740119156679e-02 -1.2966490879521142e-01
      -8.7807437662888968e-02 9.2869016129454196e-02
      5.7713947852989562e-02 -7.0483038668284065e-02
      -1.3257470983753395e-02 6.5255220889856205e-02
      2.3688435010803182e-02 -2.3745558803755051e-03
      3.1226341528586784e-03 5.2369873611091682e-02
      3.1995228441044833e-02 -8.4845269471416337e-02
      -2.6172349894087815e-02 -2.0911356790157206e-02
      -2.4370096613374508e-02 -5.1777909919912164e-02
      -3.6721357958741587e-03 -4.5941531485390236e-02
      -1.7258594609756959e-02 9.1885298108639150e-03
      -1.9420525192554675e-03 -5.6450934597836198e-02
      -1.7524037522386976e-03 -2.9390712285298163e-02
      -9.5062382311662738e-02 -6.3403153614192728e-02
      -7.1738850878753410e-02 -2.8150953761435546e-02
      -1.6806501480231602e-02 8.0147672018787461e-02
      1.0115010141134993e-02 -1.2555513312440199e-02
      2.0137500382582205e-02 9.7785466913880376e-02
      4.8718041121432222e-02 -5.3190585738717183e-02
      -6.0174451735762566e-02 -3.4102433273813973e-02
      -3.4131576347932950e-02 -5.7581663405672570e-02
      -5.8341437560539118e-02 -6.0693163995471117e-02
      3.1040115392134037e-02 -4.4676246943637685e-02
      -2.5594389400341246e-03 4.1290271526194938e-02
      3.4554053057205915e-02 -3.6242018618468708e-02
      -2.5292511187703870e-02 7.1966046925022092e-02
      -3.3291140906442883e-02 8.1860921852015423e-03
      -9.2642687936405968e-03 1.6195797281376857e-02
      -4.9082686007663516e-02 -9.6657238550641941e-03
      -4.2982270597158596e-02 -7.4994496531488139e-02
      5.0111757604513550e-02 3.4950800710035021e-02
      -6.3405949781454032e-04 3.1265086500980734e-02
      -1.2886125171580508e-02 2.3249406148916621e-03
      1.3804996952561877e-02 -5.2740818853236719e-02
      5.1480569772559531e-03 1.8937136184927275e-03
      -1.6400475887982487e-02 -4.1077549974246431e-02
      6.6385459555712923e-03 6.4567725297229497e-02
      -4.3592476220401287e-03 -2.8576601987490653e-04
      7.0081923193461206e-03 -3.7603288380922716e-03
      5.5971062301108591e-02 3.9590694611239041e-02
      -3.1534562409362012e-02 6.0461084723493971e-02
      5.0917135598988771e-02 -4.0983172578487334e-03
      1.1828021329994272e-03 1.8356391681424652e-02
      5.7970886592646369e-02 3.3656884875672366e-02
      -1.1221676134360837e-02 2.7555802247919363e-02
      2.9797451269965098e-02 4.7318923337675298e-03
      5.4705511612960195e-02 -3.7902596585158255e-03
      -1.5454241540061456e-02 1.2675330458197003e-02
      -7.1363895071695160e-02 -2.4001920880861449e-02
      -9.6518626852734338e-02 -6.2991692374733677e-02
      -2.7603226200433426e-03 -4.0167879611839596e-02
      -1.1632731624715044e-01 -7.0435173900452314e-03
      1.4119023169831105e-02 2.0349059367533763e-03
      -1.2094453609147168e-01 1.2835891405859952e-02
      4.5938272636066361e-04 4.8626616042771596e-02
      -9.0940210307540376e-02 3.9541604154268196e-02
      -1.3546342483882248e-02 -5.5543710411244448e-03
      -3.6027906305321135e-02 -3.6224568921645682e-02
      -3.9513790238001591e-02 1.5352756988551623e-02
      -1.0641878410427025e-01 1.7157194614144174e-02
      5.3048801442845669e-02 -3.3841332457825890e-02
      -5.0076867658032632e-02 4.0188719157510655e-02
      1.3357380349871967e-02 -2.0862203992493236e-02
      -5.9347964393911434e-02 -9.4038619319613912e-03
      -5.5133561836651274e-02 -1.3194919394627008e-02
      -5.7070495999854330e-02 -9.0565534140483905e-02
      1.5425775071482260e-02 1.0197911752552215e-02
      4.5932154464854699e-02 1.2379568676107176e-01
      -1.0421173470310748e-02 5.7691052581675999e-02
      -3.9379625851908247e-02 1.2476062771680198e-01
      -6.6820143803452164e-02 -3.6987426402363354e-03
      -7.4216976330800266e-02 -3.2412478964008812e-02
      -1.1837494557490319e-01 4.6834156076973662e-03
      5.8359697090335581e-02 4.9189932318191975e-03
      1.0434068010802239e-01 -4.8475870645353664e-02
      -1.4985221133622877e-02 8.1290362984510853e-02
      7.4683727272121594e-02 -8.1695761822857885e-02
      -2.2617450411314596e-01 -6.6484550588162550e-02
      -2.1265295105176385e-02 4.5163499307120498e-02
      -5.7553035745127760e-02 -2.7363080171247538e-02
      -1.0645740493729846e-02 5.4273341564016635e-02
      -1.1069099987693062e-01 -1.1816616258229903e-01
      3.0111455180826866e-02 9.9709074356445666e-03
      5.7698649698832366e-03 9.4375803388235275e-03
      3.2549434290788541e-02 5.6775018974567458e-02
      9.4745484290273796e-02 2.2199141145115489e-01
      9.5502032138719967e-02 3.0683377435089049e-02
      1.2906118103651110e-01 8.0551887154680812e-02
      -9.0127891049616077e-02 -1.0429007311784214e-01
      2.5242529889040556e-02 -1.0123409256239285e-01
      8.1624717833284944e-04 -7.9809206169913674e-02
      9.3951867747774278e-03 -5.5725176669703155e-02
      1.0655705652688020e-01 2.0056494875067991e-02
      -1.1268382911016911e-01 -1.7818477270954855e-02
      -1.0120253576289144e-01 3.7422820451379402e-02
      -2.4473472457298112e-01 4.9568351488624457e-02
      4.7049869323770796e-02 1.7429176118251778e-02
      3.1521047572062788e-03 -5.4859402150880053e-02
      7.9570471878058407e-02 2.7763374256881163e-02
      -1.8994163504133417e-02 1.5594541444940274e-02
      7.8144521151697136e-02 4.1374893766022727e-02
      2.7429903989868231e-02 5.1208252838731094e-02
      4.6240004918933139e-02 -1.1837481191765730e-02
      -5.6281854605162857e-02 2.2920768932589851e-03
      2.7094849117824019e-02 -2.8336236189360466e-02
      -9.8609520534157349e-02 -2.3585829064889968e-02
      -4.5359855817067397e-02 -3.5566001425704763e-02
      -9.4139071097612256e-02 -3.1671829767465368e-02
      -1.6838598282429063e-02 -3.0788299897302158e-02
      2.3831451990659697e-02 -5.5034884364582058e-02
      1.7556716103579360e-02 3.3833339984549383e-02
      8.5368928088741095e-02 5.6808290557025028e-02
      -9.2039838997305709e-02 3.8601774719452905e-02
      6.4957528460402633e-02 -7.0279419000521745e-02
      -4.3905341490602816e-02 3.8133300207011507e-02
      8.7796563989805485e-03 3.0584747680243090e-02
      -5.7020139207788978e-02 3.1500352253029461e-02
      -3.4275903211017575e-02 6.2030177851070720e-02
      1.7895480313751679e-02 1.3302937583057905e-03
      -2.8003737089940549e-02 2.6043750793432678e-02
      8.2042560416011046e-02 1.3716556147030488e-02
      -1.3125661255029425e-03 -9.9345002867221380e-03
      3.7783412496850556e-02 -2.5710856867905477e-02
      -1.4089796403078714e-02 1.3449680255108379e-01
      -3.9794169970734906e-02 -6.9913593164446222e-03
      6.6263123752659747e-02 1.2234932910965196e-01
      -4.4580000034781811e-02 4.4944989303134772e-02
      8.0637647659721909e-02 9.9655417344012717e-02
      3.1022494014317167e-02 6.9155187116528544e-02
      5.1599354912106592e-02 5.6174858228008148e-02
      -1.3421700971000153e-01 3.9261499090080920e-02
      -1.4935797296682715e-01 2.4066319519151606e-02
      3.4791860887821095e-02 9.8941466937848641e-03
      1.1919888883052305e-02 3.5785347657249590e-02
      3.2909611369654652e-02 1.2435197767395890e-02
      9.1831036995676865e-03 1.1613125969700491e-01
      8.9339139023445133e-02 2.6374806050948860e-02
      -5.4443153148545755e-03 2.4256710344160229e-02
      -3.5942739442775579e-01 2.4793954815419375e-01
      3.3697961366194945e-01 -3.2039049813743942e-01</_>
    <_>
      -1.1709000530753984e+00 -6.4148701493349625e-01
      3.9558797979629989e-01 6.1032958922076341e-01
      1.1145917863344808e-01 -3.8674305650996960e-01
      -4.2800904850522742e-01 -1.5966713138616675e+00
      -1.2527632045872047e-01 -6.1124769451745199e-02
      1.1794051791601061e+00 -1.4348416012014074e+00
      4.3266895496129454e-01 1.7518702179339636e+00
      -2.7578745887793005e-01 4.6711014875477863e-01
      1.7062133224893378e-01 -4.2412963368063644e-01
      2.5940017814702876e-01 -8.2342070877460283e-01</_>
    <_>
      -1.0996717063259418e+00 2.8134799488900425e-01
      -1.8123109232192219e-01 -6.4186361778722978e-01
      -9.4106528247017218e-01 1.5085693660238448e+00
      5.2974584521305368e-01 -9.7631522918911862e-01
      9.7390213362073996e-01 -3.7337681805239181e-01
      -1.4354571688326204e-01 -9.2252553452940222e-01
      2.8541343363657562e-01 -2.0971723881299861e-01
      2.2629358714942787e+00 8.5362502974784049e-01
      -4.9663542618808260e-01 3.3742214573605450e-01
      8.0579109631560758e-02 -3.1103193752502023e-01</_>
    <_>
      1.5207637272130790e+00 -7.9497142559193945e-01
      -8.1319077991133470e-01 5.4973793811873961e-01
      -6.8697287177272481e-01 1.2696910169382261e-01
      1.4571337832780449e+00 -5.1392645115518376e-01
      7.6113921157592246e-02 3.2227941091424406e-01
      1.1846588742682798e+00 1.9087737551235449e+00
      1.4622607747002856e+00 1.2571644552280683e+00
      -5.6622055709336250e-01 5.2427879504820818e-01
      -5.2170460363010718e-01 7.9352320899241946e-01
      1.7287975489291513e-01 1.7747977587257431e+00</_>
    <_>
      -2.1018933251488390e+00 2.4084940143006408e+00
      2.2412574242066707e+00 -1.4679910525026856e+00
      -3.6967168127863176e-01 -4.0016889401869288e-02
      5.9304878382251514e-02 -9.3883584579341428e-02
      2.9449198005228442e-02 2.3590615330192489e-03
      8.7971642098562022e-02 -1.3223812203797219e-01
      -5.9775174766593664e-02 -1.3167047992738284e-01
      -4.6616689686475019e-02 6.5640929751701965e-02
      -1.6001890445527737e-02 1.1225325783951397e-01
      -1.1200564232564618e-02 -6.3523812313585726e-02
      -5.0198950860026834e-02 7.2954446552286499e-03
      -1.7287632455330333e-02 1.3367068494354656e-01
      6.9354819518230165e-02 -1.0129264996077689e-01
      -1.0734781315787543e+00 1.2384970432316744e-02
      -1.7829252381200285e+00 2.9721380098075244e-02
      2.7528761323501056e+00 -1.0795202892368643e-03
      1.5997454807505597e-03 -2.5320683513565621e-03
      7.9445865918874997e-04 6.3642795311011843e-05
      2.3727043548380550e-03 -3.5654966076714154e-03
      -1.6124287652187965e-03 -3.5502087359825562e-03
      -1.2575372311950206e-03 1.7706145674187136e-03
      -4.3169571635072576e-04 3.0271314777024754e-03
      -3.0216780407600266e-04 -1.7135221357890286e-03
      -1.3541574778060692e-03 1.9681630436992048e-04
      -4.6638155251215845e-04 3.6040777314791821e-03
      1.8707634870920563e-03 -2.7317647233427301e-03
      2.0048927263228928e+00 1.2561616422510460e+00
      -3.5301271281156499e+00 -7.5550008327456869e-02
      -8.9069922079706665e-01 -3.8732992187045082e-02
      5.7402257859725823e-02 -9.0872091943293945e-02
      2.8504332384676898e-02 2.2833700236433406e-03
      8.5149694325010281e-02 -1.2799744890221107e-01
      -5.7857469433796327e-02 -1.2744799104918858e-01
      -4.5121071121127371e-02 6.3535086321974368e-02
      -1.5488466761947865e-02 1.0865293603279330e-01
      -1.0841190589300201e-02 -6.1485871806559136e-02
      -4.8588418332684097e-02 7.0613674963071037e-03
      -1.6732956214249431e-02 1.2938412115878495e-01
      6.7129863596422285e-02 -9.8043639811771874e-02
      -2.8075123142777212e+00 -7.0238378689119285e-01
      -2.2988614309249384e+00 1.4966190584118140e+00
      -1.5900177428719298e+00 3.4486181744270858e-02
      -5.1108432733433233e-02 8.0908247944314865e-02
      -2.5379035926944904e-02 -2.0330158121750564e-03
      -7.5813340212179503e-02 1.1396235821054498e-01
      5.1513731342960792e-02 1.1347315887924293e-01
      4.0173837907257225e-02 -5.6568806431354098e-02
      1.3790271831314784e-02 -9.6739267656257802e-02
      9.6525355723450969e-03 5.4744285818133648e-02
      4.3261004363483894e-02 -6.2871419153341587e-03
      1.4898311926414023e-02 -1.1519695487314388e-01
      -5.9769418588040781e-02 8.7293385467541132e-02
      -3.1410596761285929e+00 5.1001455889792302e-01
      -2.7586188369999545e+00 -2.1955399441496311e+00
      -1.9867038576288065e+00 -3.7205423537757222e-02
      5.5138404151249432e-02 -8.7288248233958157e-02
      2.7380165783143718e-02 2.1933174277242191e-03
      8.1791531095650585e-02 -1.2294945938922100e-01
      -5.5575662952065917e-02 -1.2242167088394749e-01
      -4.3341566999078991e-02 6.1029364345906015e-02
      -1.4877625550523547e-02 1.0436785152500927e-01
      -1.0413630753331781e-02 -5.9060967323179836e-02
      -4.6672167729944064e-02 6.7828780459977811e-03
      -1.6073034270895341e-02 1.2428144451374629e-01
      6.4482369853798932e-02 -9.4176964291797741e-02</_></weights></opencv_ml_ann_mlp>
</opencv_storage>
