<?xml version="1.0"?>
<opencv_storage>
<opencv_ml_ann_mlp>
  <format>3</format>
  <layer_sizes>
    256 8 8 26</layer_sizes>
  <activation_function>SIGMOID_SYM</activation_function>
  <f_param1>6.6666666666666663e-01</f_param1>
  <f_param2>1.7159000000000000e+00</f_param2>
  <min_val>-9.4999999999999996e-01</min_val>
  <max_val>9.4999999999999996e-01</max_val>
  <min_val1>-9.7999999999999998e-01</min_val1>
  <max_val1>9.7999999999999998e-01</max_val1>
  <training_params>
    <train_method>BACKPROP</train_method>
    <dw_scale>1.0000000000000000e-03</dw_scale>
    <moment_scale>0.</moment_scale>
    <term_criteria>
      <iterations>128</iterations></term_criteria></training_params>
  <input_scale>
    4.7129945029069108e-02 -8.3791784737936609e-02
    1.8434711641383847e-01 -2.1282377166574072e-02
    2.0609700714096257e-01 -1.9034674690672024e-02
    4.2915863350727425e-02 -9.2154083607615081e-02
    3.8303884142600469e-02 -1.0347667361413301e-01
    2.4733059015902580e-02 -1.6275580079506702e-01
    2.1599524797423251e-02 -1.8820375509381018e-01
    2.1723461760222055e-02 -1.8866602301643051e-01
    2.5876505870046636e-02 -1.6276144121411262e-01
    3.1433220293691687e-02 -1.3023838531501611e-01
    4.4108152726275857e-02 -8.9622142989644174e-02
    4.5680872728886497e-02 -8.6489229333666845e-02
    3.1491751903431432e-02 -1.2652019485288418e-01
    4.9414535758705469e-02 -7.9866847454988454e-02
    4.8069216548601516e-02 -8.2132027913084993e-02
    3.7984115164199896e-02 -1.0436689375748333e-01
    6.5280118035401291e-02 -6.0291307855948308e-02
    1.6829274626866653e-01 -2.3314732143341160e-02
    2.3796954774174015e-01 -1.6483765304457731e-02
    4.8395132132553462e-02 -8.1571476335338886e-02
    1.9233193572292050e-02 -2.1316034889972357e-01
    1.4949530782585194e-02 -2.8341164519020690e-01
    1.1913194697475050e-02 -3.7694301596164242e-01
    1.0875240266189292e-02 -4.2702550633045261e-01
    1.2689747318286180e-02 -3.4862794212517956e-01
    1.6270920067276960e-02 -2.5931373704830540e-01
    2.9410750937600094e-02 -1.3874769418687996e-01
    3.6359890500701306e-02 -1.0913893246090622e-01
    2.7941902024565972e-02 -1.4322628337655557e-01
    4.9067547726979570e-02 -8.0438967004433648e-02
    4.7436834501782724e-02 -8.3242109076833506e-02
    3.7827248177207069e-02 -1.0480928958914672e-01
    7.6629319320188349e-02 -5.1310559251429987e-02
    1.3742912901175128e-01 -2.8558479815462622e-02
    9.7216721479317217e-02 -4.0404269430465961e-02
    2.9265492110325295e-02 -1.3649633272390943e-01
    1.5616027325029308e-02 -2.6934253576676997e-01
    1.1344535787368642e-02 -4.0198423690238205e-01
    8.9467299550060695e-03 -5.9894241747410015e-01
    8.4110842875532062e-03 -6.9128541868505233e-01
    8.2836268745354515e-03 -7.2113607293617465e-01
    8.6188746423042535e-03 -6.4519113110348036e-01
    1.2289830142405190e-02 -3.6560686745169441e-01
    1.8147324601656578e-02 -2.2736573323131284e-01
    2.5364084093442384e-02 -1.6010561340149845e-01
    3.1271944705161599e-02 -1.2828463010388866e-01
    4.2915863350727425e-02 -9.2154083607615081e-02
    3.7984115164199896e-02 -1.0436689375748333e-01
    6.8798783119006779e-02 -5.7186963874726750e-02
    1.2432059095342653e-01 -3.1575448897533630e-02
    3.5303188179199564e-02 -1.1248815574303084e-01
    1.7823505708320326e-02 -2.3269003078930109e-01
    1.0920775245460212e-02 -4.2666966552083974e-01
    8.1320414012701521e-03 -7.7837714862056151e-01
    7.8983896018501969e-03 -1.0559547581258795e+00
    7.9957799474228829e-03 -1.2040331277310654e+00
    8.0837933181392204e-03 -1.2605762190498215e+00
    7.9374914196775163e-03 -1.0979633470260639e+00
    8.0898699742919973e-03 -7.9605888124156132e-01
    9.0380946385152424e-03 -5.8837717850430615e-01
    1.0275875695736097e-02 -4.7255164514414799e-01
    1.3252497390217157e-02 -3.3086844489356909e-01
    3.0069502165215572e-02 -1.3304475038964678e-01
    3.7620237940255617e-02 -1.0631021422287555e-01
    5.2070889556082647e-02 -7.5744190575739570e-02
    6.4482034659056886e-02 -6.1043070659221280e-02
    2.1306334310791999e-02 -1.9172421201305670e-01
    1.1360376205341848e-02 -4.0690596315210936e-01
    7.9163819933984296e-03 -8.9252261028831104e-01
    8.2133759461870959e-03 -1.3409094801823118e+00
    9.1493640786296619e-03 -1.7641977127439179e+00
    9.2870926880403784e-03 -1.8137883748929102e+00
    8.8191765626430500e-03 -1.6284996020698037e+00
    8.3065103171791853e-03 -1.3969874610559256e+00
    7.8895013114564806e-03 -1.0606235800540398e+00
    8.1616344737818706e-03 -7.7122124900001154e-01
    8.9174733236521472e-03 -5.9878766297361785e-01
    1.3091545150900243e-02 -3.3651103200267668e-01
    2.8193274329980655e-02 -1.4286055940369227e-01
    3.7881054139517686e-02 -1.0479373108208480e-01
    3.7368224055047222e-02 -1.0612589165941290e-01
    3.9670125542955528e-02 -9.9839835156324608e-02
    1.5139669377580487e-02 -2.8172342029939929e-01
    8.5236590660954983e-03 -6.6526294605030190e-01
    7.9078074100571976e-03 -1.1273623431091937e+00
    9.0406217396867741e-03 -1.7180799518741470e+00
    1.0241459455574942e-02 -2.1383757462302473e+00
    1.0752972362754531e-02 -2.3053373782539976e+00
    8.7863864838008694e-03 -1.6251195105634533e+00
    8.5688700781005878e-03 -1.5314946588365022e+00
    7.8806998974159242e-03 -1.0497735906178318e+00
    8.0685621968219455e-03 -8.0654937468738608e-01
    8.7867247514685169e-03 -6.3336898346833626e-01
    1.3720206200400679e-02 -3.1869415219078112e-01
    3.0122844785090124e-02 -1.3344442060037434e-01
    3.7984115164199896e-02 -1.0436689375748333e-01
    7.9409536429154534e-02 -4.9505130234944676e-02
    3.2921031831695452e-02 -1.2086048855632851e-01
    1.1607535334078186e-02 -3.9718391980111195e-01
    8.1497110671504679e-03 -7.5883152242895424e-01
    8.1584129320145474e-03 -1.3230886227080869e+00
    1.0782189828245168e-02 -2.3072441317473111e+00
    1.1072285340394668e-02 -2.4078831958671469e+00
    9.3711197207412070e-03 -1.8485203984600220e+00
    8.3899144945419214e-03 -1.4438644772379816e+00
    7.9797745735025859e-03 -1.1739914583801814e+00
    7.9861041506486350e-03 -8.5332650912201047e-01
    8.3759819193905700e-03 -7.0086278988844797e-01
    9.1006914229935492e-03 -5.7969278342749309e-01
    1.5339944542860043e-02 -2.8090405328815521e-01
    3.0237118473239552e-02 -1.3195200333373600e-01
    3.7984115164199896e-02 -1.0436689375748333e-01
    6.7865784272153798e-02 -5.7978420373756889e-02
    2.6010024151997595e-02 -1.5527353244668610e-01
    9.9259275541694180e-03 -4.9668554165549694e-01
    7.9310872345815294e-03 -8.6211578924458976e-01
    8.8320443487822555e-03 -1.6305702043236545e+00
    1.4122690579056310e-02 -3.2960395627097885e+00
    1.2804780662527953e-02 -2.9221566875000362e+00
    9.9952997498650494e-03 -2.0607585713554619e+00
    8.0390619237191065e-03 -1.2435112730803484e+00
    7.9198844529310905e-03 -1.1489461856691725e+00
    7.9032620132507246e-03 -9.1492852643238887e-01
    8.2271437273340343e-03 -7.3495271006433227e-01
    9.6651301574483331e-03 -5.1582775146168791e-01
    2.0085600605507611e-02 -2.0613384134638207e-01
    3.7756976535776844e-02 -1.0716157456663575e-01
    3.1946863961415280e-02 -1.2466045838619988e-01
    7.4122925361518058e-02 -5.3055208709054717e-02
    1.7848308530855193e-02 -2.3168216356087820e-01
    9.3195898216501486e-03 -5.4839676554023153e-01
    7.8757756049612632e-03 -1.0503549101493097e+00
    9.9782999506139638e-03 -2.0511532156721146e+00
    1.3064642941848928e-02 -2.9970059047861075e+00
    1.2599285217145848e-02 -2.8602716136754389e+00
    1.0392909672603453e-02 -2.1887614573645657e+00
    8.6784489593786877e-03 -1.5754048745913056e+00
    8.1453330079641704e-03 -1.3094706986282276e+00
    7.8783265790506683e-03 -1.0423252911951848e+00
    8.1315232868475786e-03 -7.7386788238181037e-01
    9.8828217548066893e-03 -4.9971963815861270e-01
    1.6605447823356472e-02 -2.5392171522642321e-01
    3.0638139793387587e-02 -1.3016493291431958e-01
    3.7071467484027919e-02 -1.0699502227937249e-01
    7.1848195693746980e-02 -5.4744890145135894e-02
    1.5991376495957794e-02 -2.6344214490203410e-01
    9.1840525807815425e-03 -5.6498056169711874e-01
    8.3374001505431752e-03 -1.4114914974711996e+00
    1.0559472913043778e-02 -2.2381349744167878e+00
    1.2623675601114822e-02 -2.8698047330032028e+00
    1.2062976786464284e-02 -2.7058467161872728e+00
    1.2111914694482299e-02 -2.7169336495668741e+00
    9.7808591886975865e-03 -1.9856171479808986e+00
    8.6349590186452271e-03 -1.5529423359398786e+00
    7.9855979874036264e-03 -1.1866559563438677e+00
    8.0422142547187780e-03 -8.2750845640737691e-01
    1.0312426929974892e-02 -4.7469005036732037e-01
    1.7264741514861268e-02 -2.4104355520277876e-01
    3.3551089158776949e-02 -1.1852551100413643e-01
    3.6359890500701306e-02 -1.0913893246090622e-01
    6.6108741640068219e-02 -5.9530191561977398e-02
    1.7489190297158494e-02 -2.3771774928262887e-01
    8.4358343617600435e-03 -6.9150239151276760e-01
    7.8868819598666047e-03 -1.1062701659587970e+00
    8.6858664411817634e-03 -1.5629581186433159e+00
    1.0856449540161068e-02 -2.3311286164014811e+00
    1.1510337246916016e-02 -2.5414270177281169e+00
    1.0125304185873924e-02 -2.1070149245684169e+00
    8.7616762778851380e-03 -1.6139310760758498e+00
    7.9072526011556756e-03 -1.1093072072961934e+00
    7.9639113384718241e-03 -8.5955077730994334e-01
    9.1952412850361299e-03 -5.7335126950294957e-01
    1.2619365698838534e-02 -3.5475112021820948e-01
    1.9901857987992520e-02 -2.0617813092902829e-01
    2.8255453506738436e-02 -1.4157148857256169e-01
    2.9265492110325295e-02 -1.3649633272390943e-01
    6.8798783119006779e-02 -5.7186963874726750e-02
    1.5361390003084631e-02 -2.7452712286389114e-01
    8.2943136240363948e-03 -7.1417314769396756e-01
    7.9159610462239179e-03 -9.0549520114288284e-01
    8.0013463784852270e-03 -1.2033549683120059e+00
    8.5533728457149859e-03 -1.5221557223036255e+00
    8.3026348953812914e-03 -1.4036550027213821e+00
    8.0201118050648359e-03 -1.2064458696318292e+00
    8.0368795263466280e-03 -8.1077152609622183e-01
    8.5774360574076541e-03 -6.5308663380564824e-01
    1.0007340896852570e-02 -4.9436300275800826e-01
    1.4236236009065147e-02 -3.0354480762537678e-01
    2.0533029102676875e-02 -2.0059490302201341e-01
    3.3880273110151182e-02 -1.1734158334509985e-01
    3.8968801457892617e-02 -1.0167385132281563e-01
    3.3127013132101091e-02 -1.2008692237809374e-01
    6.2253466094295162e-02 -6.3245553203367597e-02
    1.5094134474929461e-02 -2.8020639714324863e-01
    8.9069215040014343e-03 -5.9743071143848803e-01
    8.3056671839737035e-03 -7.1261330908291876e-01
    8.0477932414254570e-03 -8.1058417029984331e-01
    7.9356767735920802e-03 -8.9789121666115845e-01
    7.9252156741292362e-03 -8.9463083839293056e-01
    8.0612393146618968e-03 -8.0244221369154689e-01
    8.7885239247249662e-03 -6.1887633197702874e-01
    1.0016551242293337e-02 -4.8985688085545098e-01
    1.3834200598200183e-02 -3.1439360765471519e-01
    2.0769733734784673e-02 -1.9853676391230382e-01
    2.5439082169721339e-02 -1.5800378861210024e-01
    4.2029361403248935e-02 -9.4132221505737274e-02
    4.3214409652511464e-02 -9.1640843359454771e-02
    3.6262503440211605e-02 -1.0955255589303335e-01
    5.6745271571446390e-02 -6.9441537965238859e-02
    1.7904582203632582e-02 -2.3068118451239406e-01
    1.1889155790994652e-02 -3.7663347021345428e-01
    9.3148964066023729e-03 -5.4693809292895756e-01
    8.5778322801274461e-03 -6.5081700493364636e-01
    9.3418278551073344e-03 -5.4583714812872441e-01
    1.0369184837880397e-02 -4.6238358412125574e-01
    1.0977187384348362e-02 -4.2898100847389337e-01
    1.2318264599533784e-02 -3.6802544331213055e-01
    1.3346852646112880e-02 -3.3084943088220681e-01
    1.7740194370083371e-02 -2.3918099798129427e-01
    2.5826458056064747e-02 -1.5741885643807085e-01
    2.4499654033333165e-02 -1.6492455442848189e-01
    2.7859389693316590e-02 -1.4464482117120367e-01
    4.3082824014773674e-02 -9.4966340801851706e-02
    3.5531752934542041e-02 -1.1361538601325766e-01
    6.3712662170704218e-02 -6.1785821427765501e-02
    2.0227663649693799e-02 -2.0176380185170853e-01
    1.6427659568239800e-02 -2.5413488203855211e-01
    1.4297640284043279e-02 -2.9876294246197821e-01
    1.4534405365405406e-02 -2.9297144607205039e-01
    1.6258557649033261e-02 -2.5714990559080814e-01
    2.0046660269540880e-02 -2.0391904273820730e-01
    2.4606094774997023e-02 -1.6481449247425115e-01
    2.4218500076760702e-02 -1.6794841229435639e-01
    1.8671465092847925e-02 -2.2647858238300508e-01
    2.4970994963099510e-02 -1.6379697465699183e-01
    2.0688488979453412e-02 -1.9713634790309301e-01
    1.9169561161762064e-02 -2.1481399129106404e-01
    2.2210432028785358e-02 -1.8348744996761304e-01
    3.2878132161147065e-02 -1.2348054742666227e-01
    3.4731122140040219e-02 -1.1613101035742532e-01
    5.2486746516981292e-02 -7.5137220430412377e-02
    2.5864828550134299e-02 -1.5527328258546758e-01
    2.7461807397081459e-02 -1.4583801193759757e-01
    2.3344014716488157e-02 -1.7301922533666589e-01
    2.4860803992795256e-02 -1.6187435848622844e-01
    3.8631990391548798e-02 -1.0257905815213406e-01
    3.4219532713072043e-02 -1.1614624988677159e-01
    2.9627723596747514e-02 -1.3476536534612563e-01
    2.9047510996728705e-02 -1.3949065064392493e-01
    2.3920483300039836e-02 -1.7739581163737439e-01
    2.7900107260688090e-02 -1.4476527946998100e-01
    2.5893441867307358e-02 -1.5571468142133449e-01
    2.1823081848872466e-02 -1.8691694868982192e-01
    2.3360341782223074e-02 -1.7351885890645488e-01
    3.5103490624821786e-02 -1.1648294285837052e-01
    3.3538394708712373e-02 -1.1975915734632209e-01</input_scale>
  <output_scale>
    5.2631578947368418e-01 4.9999999999999994e-01 5.2631578947368418e-01
    4.9999999999999994e-01 5.2631578947368418e-01 4.9999999999999994e-01
    5.2631578947368418e-01 4.9999999999999994e-01 5.2631578947368418e-01
    4.9999999999999994e-01 1. 0. 1. 0. 1. 0. 1. 0. 1. 0. 1. 0. 1. 0. 1.
    0. 1. 0. 1. 0. 1. 0. 1. 0. 1. 0. 1. 0. 1. 0. 1. 0. 1. 0. 1. 0. 1. 0.
    1. 0. 1. 0.</output_scale>
  <inv_output_scale>
    1.8999999999999999e+00 -9.4999999999999996e-01
    1.8999999999999999e+00 -9.4999999999999996e-01
    1.8999999999999999e+00 -9.4999999999999996e-01
    1.8999999999999999e+00 -9.4999999999999996e-01
    1.8999999999999999e+00 -9.4999999999999996e-01 1. 0. 1. 0. 1. 0. 1.
    0. 1. 0. 1. 0. 1. 0. 1. 0. 1. 0. 1. 0. 1. 0. 1. 0. 1. 0. 1. 0. 1. 0.
    1. 0. 1. 0. 1. 0. 1. 0. 1. 0. 1. 0.</inv_output_scale>
  <weights>
    <_>
      2.9767373682848156e-02 3.0763228740073989e-01
      6.1350725823512878e-02 -1.9357385337640454e-01
      -2.3719467234258745e-02 6.3212050344989845e-01
      -9.4161378616834587e-02 -1.0194437499708185e-01
      -2.7474521735647382e-02 -2.0376565462307830e-02
      1.5265189517947565e-02 2.1763726072252007e-02
      -1.8805714329252691e-03 -1.3084873172011744e-02
      1.3608799502194131e-02 3.0507748723147186e-02
      -1.0570552089806440e-01 6.9436437998957934e-02
      -8.1761766333322550e-02 1.0763894615059848e-01
      2.9123925789204211e-02 -8.3927538838596029e-03
      4.8696267543096451e-02 4.5054908127935368e-02
      -9.1989154387249255e-04 -3.4521262777959311e-01
      -2.1357946833844774e-01 1.7406240891372146e-01
      1.2897886727571287e-01 -4.2240453103938924e-01
      5.0619872679271809e-02 6.6650684899245161e-01
      -6.6615370600903473e-02 -2.8110817989095016e-01
      -1.2447300935143404e-01 -5.4771825387095567e-02
      1.9999130087360550e-01 -4.8048556394026254e-01
      1.8906137156465935e-01 5.8769404177842410e-01
      -2.1043645299825814e-01 -4.8412519870908811e-02
      -1.6988431237104479e-01 -1.0778428565606134e-02
      1.3810565776882774e-01 -8.3193649868975117e-01
      3.7409305066433851e-01 4.5899819167395085e-02
      -1.3579146382580687e-01 2.3276877659095556e-03
      -2.8134382882057901e-01 -1.7682714277165792e-02
      1.4830251276209222e-01 -6.6733992596528025e-01
      3.1249950314398645e-01 8.0720596593545045e-03
      9.0251392459135757e-02 -7.0900934699879414e-01
      -1.1259712270897321e-01 -8.6136743236816735e-02
      1.4067329549552643e-01 -6.8916318629853190e-01
      1.9150611800805234e-01 -7.3061240059332261e-02
      1.0852923247630397e-01 -5.5719518993433040e-02
      6.0403721810800864e-02 -4.4230008368827158e-02
      4.1806189437269400e-03 -5.5881485268059472e-01
      -2.2198182394842843e-02 -1.0112470540024521e-01
      -7.1747796102648184e-02 -1.5315762257705140e-01
      -1.1549781089756234e-02 3.0623780116786768e-02
      3.0315457967491570e-02 -2.7032154476280845e-01
      9.6518354073226106e-02 1.2697230917553973e-01
      -8.2982625082594144e-02 -1.8826799906222661e-02
      5.4585400070315253e-02 3.3201065087947609e-02
      3.5470398654726953e-02 -7.0431105871088515e-02
      1.0948508138119876e-01 -1.6414030208952535e-01
      -4.0315424080073374e-02 -3.8298854351558070e-01
      -8.7148106403229744e-02 5.2835654229694967e-02
      1.4170095184437245e-01 -2.2788572982975008e-01
      1.0918650800743603e-01 -1.8402623747135238e-01
      -1.8308910820437588e-01 -6.4450282735905154e-02
      -9.2178008414028068e-02 5.1826757721014104e-02
      6.5993678769784944e-02 -1.5025270104438238e-01
      1.7157109459066702e-01 -3.1369442714206119e-01
      -5.5686878746945084e-02 2.1003075104994848e-01
      -6.8860420858876947e-02 1.0491241648340192e-01
      4.4900382608582388e-02 -1.9841295506099629e-01
      1.2196300144021457e-01 -2.6502577242065700e-01
      -3.8224783527823408e-02 1.5880898339766697e-01
      -9.2316362626765999e-02 -1.1106080883904312e-03
      9.1900777472027802e-03 -2.0024808703416528e-02
      7.0018420216154967e-02 -6.6474036550971116e-03
      -5.6079458331202425e-02 -2.5286385206165485e-02
      -6.4058372732028426e-02 -5.5956181297255173e-02
      -4.6939485839058132e-02 -6.9829492344481825e-02
      -1.0797082333433522e-03 6.1685366940904922e-02
      3.4244512838808958e-02 -1.4913170661871880e-01
      -6.3625977271869472e-02 8.4430008369967072e-02
      -3.1211941830193838e-03 5.8055070781507423e-01
      -4.0527122085607735e-02 3.5905242789682518e-02
      1.8015114116752695e-01 -8.1544933732500921e-02
      6.7764957231692000e-02 -1.6313665107906394e-02
      -8.0670966138441838e-02 5.7749695133953546e-02
      -1.6498275628833411e-01 -9.1396907496728449e-02
      -6.3610700132779151e-03 3.1335910898009495e-02
      -6.3903424232406428e-02 1.0879777483544092e-02
      1.8947538501553864e-02 -1.7849888468423957e-02
      1.5554843566433758e-02 5.2233721828200644e-02
      -7.8370504990089893e-02 5.4880992952212437e-02
      -5.6161466464834074e-02 1.8621877097866915e-01
      -6.6274119938986104e-02 -5.3092034450430825e-01
      4.8262054523234607e-02 -1.4586372853131371e-01
      -5.8499544721320575e-03 -3.7513269427335727e-01
      -5.1977365308776655e-02 -4.6133792285808259e-02
      1.1890133636747055e-01 -4.9635388567103467e-01
      1.7230171170541980e-01 4.7307893092799458e-01
      -2.5600792137678291e-01 -2.5168260947321142e-01
      -4.3894672282170222e-01 1.4449772277146264e-01
      1.7081517404485488e-01 -5.1747895145415124e-01
      3.5187938887695686e-01 6.4298233709898112e-01
      -1.3069015209473495e-01 -4.3331377193147208e-01
      -1.5329413899558378e-01 8.2489873191158303e-02
      1.0008148094702858e-01 -3.3911662866545694e-01
      2.6052933135059608e-01 -5.4883409021281214e-02
      -3.2220053545525512e-02 -3.4725387769953341e-02
      -5.7241003704231568e-02 1.0870182559345334e-01
      9.6072311067824614e-02 -1.9268588363328712e-01
      1.7631052001466457e-01 -1.7514030680018625e-01
      -2.4302697923266697e-01 3.4708773281648653e-01
      4.6449431413079487e-02 2.4608713806596888e-01
      3.1595465708935212e-02 -1.4821431769776497e-01
      2.2930121250730079e-01 -6.0498525011370055e-02
      3.7562540451067647e-02 1.8365669259502254e-01
      6.8636600515533551e-03 -5.7670604224844425e-03
      2.5375754329035664e-02 -2.1435922619145983e-01
      -1.1744735903908550e-02 3.4946358863806726e-01
      4.5807439768162747e-02 -1.8796734081184253e-02
      -1.5506920564359736e-01 -6.3647260708914622e-03
      6.0635268211781321e-02 -1.3307626041168508e-01
      -7.0669646306264156e-02 1.5240022126755043e-01
      -1.9688339687911763e-01 6.0613614143292516e-01
      -2.4943561967563008e-01 -2.8408019201154124e-02
      1.5291755893425188e-01 -9.7640941054601041e-02
      2.3966395446791638e-01 3.7301443155951208e-01
      6.9840912899615540e-02 1.5037817233484805e-02
      -2.9459844443933791e-01 1.1613164064079268e-01
      3.1711008327782189e-02 -1.4553561499258941e-01
      3.7047803507453576e-02 -6.2046900881081316e-03
      -1.3951775562810087e-01 1.1546505320708639e-01
      -3.1366273895842622e-02 -5.9566637756780762e-02
      -6.3460365702041069e-02 -8.0813413915016730e-02
      8.9893008421881263e-02 -2.0776765337192343e-01
      1.5281028510512204e-02 1.5995069238687223e-01
      -9.4513625341873894e-02 1.5902277450303828e-02
      3.0984729032343707e-02 -1.4395933212511597e-02
      1.2117674101272168e-01 -6.8499547925112945e-03
      -1.8723803945814660e-02 -3.4712345437223138e-02
      -6.5403737068998546e-02 -4.3284792063812402e-02
      -7.2997525432472676e-02 -6.9963174598930061e-02
      3.3300637906766462e-02 6.3715411136821401e-02
      1.1474366124861286e-01 -5.3781963296192876e-03
      6.7366328931003680e-02 -7.3977956429685000e-03
      -5.2774461926638878e-02 1.5597634364325066e-02
      -1.2472786933272280e-01 3.1461330764507812e-03
      1.0421463264105574e-01 -1.4128614244724838e-01
      9.7812580341892275e-02 -5.8065125279125766e-02
      -7.8294791643287953e-02 4.6334338816421310e-03
      -9.7113019631706446e-02 -1.5107452861134024e-01
      8.8304284863684260e-02 -3.0210888323395787e-03
      1.4416877707541098e-01 -6.3217663374471919e-02
      -1.7010493884814110e-01 1.7916840376042537e-01
      -6.7768796595684092e-02 -4.3657787627057180e-02
      9.9566047601968646e-02 -2.4142475870347774e-01
      2.0060328396710184e-01 6.4026209703427192e-02
      3.1008141077105908e-02 4.1140295743522559e-01
      -7.1777389258675162e-02 5.3841774938812781e-01
      -4.7127329085132974e-01 -3.0287773339440849e-01
      -2.9767340754407057e-01 1.8208771337525961e-02
      8.4986644903957978e-02 -5.5795968862755252e-01
      4.8188800759355982e-01 3.8169667284273040e-01
      -1.5087140751648123e-01 2.4366996943524555e-01
      4.9234375560764133e-02 -1.2654631155481193e-02
      3.8054278522613789e-02 -1.4481693139003135e-01
      7.4438132415482403e-02 -1.5217108790357181e-01
      -3.0424353039895308e-01 6.7594171857194052e-01
      -4.3602764919755781e-02 -1.0117017479019241e-01
      -5.5893183449429796e-05 -1.1653163370792753e-01
      9.3896238907005339e-02 -4.1102023016436678e-01
      -5.2062658050233990e-01 1.3183048041217755e+00
      -3.1940164695845451e-02 3.9993562400020756e-02
      2.0981507722464515e-01 3.4302291665405549e-01
      4.0219005619677078e-01 -5.8129381047654771e-01
      -3.7426834879015780e-01 9.1170075855572619e-01
      -3.9840277307494526e-01 1.6829469070734127e-01
      1.7904308898114918e-01 -1.7505456119629248e-01
      2.3298955185573661e-01 -5.7700772505701235e-02
      -1.7381288673712728e-01 2.0707601028801378e-01
      -2.7414352586573443e-01 -1.0158861057658064e-01
      2.1854094064221807e-01 -2.0113369309389541e-02
      2.0455514883907033e-01 1.2489159056751045e-02
      -6.3319208618400513e-02 2.9617262617680035e-01
      9.0042122207637437e-02 3.7718636208002553e-02
      -1.5437353091627913e-02 6.4130112575487264e-01
      6.8593161087525820e-02 1.4376623064681463e-02
      2.6193511523234403e-01 -3.4975682606961134e-01
      -3.8048122457793272e-02 -8.0064923008921693e-02
      -1.8257091965846395e-01 9.3993341716330253e-02
      -4.2873893101799482e-02 1.2296114735199933e-01
      1.4545225704635478e-01 -1.6391808409691541e-01
      -3.8891927851401394e-02 1.1627983867765803e-02
      5.2694051482458079e-02 -1.2565756874193654e-01
      -4.5241598881117145e-02 -1.2598067128755736e-01
      1.6113862799900114e-01 -1.1038316083430184e-01
      1.7160209021570158e-01 -8.0305606905430853e-03
      6.1353564787404065e-02 2.5501328052713407e-01
      -4.7590550276239964e-02 -3.2884056545094395e-02
      1.8118574295928963e-01 -1.8869013774565427e-01
      7.2093218063750644e-02 -3.2996757283559865e-02
      -6.5163745203741449e-03 1.2448828826842592e-01
      -1.0535623008478812e-01 2.0484292533402483e-02
      -5.6701976114746838e-02 -3.0968243418690609e-02
      -6.2435366849218105e-02 -5.9835473766777683e-02
      -5.7846645414802417e-02 -6.1753363413478077e-02
      -1.1928331221108748e-02 6.7295275581580369e-02
      1.4953480914202877e-01 2.8284130861339081e-02
      8.4599529133096207e-02 -1.4909008177565553e-01
      -7.4460697002952422e-02 2.9555532826719638e-01
      -7.8672984862984241e-02 -6.9930772765848748e-02
      1.3138466747549843e-01 1.0856910873258317e-02
      7.0803611642915820e-02 -6.8020346949734439e-02
      -4.7239847377991542e-02 1.0661713382433385e-01
      -9.8944854015078992e-02 -4.8170298340373457e-03
      7.1163628586144764e-02 4.2096891694689859e-01
      7.4052887648532503e-02 -4.7315843462286018e-02
      4.8016033791278848e-02 1.6402211670536959e-01
      -3.1507652188690866e-01 -6.6065869014407719e-01
      1.8532888341728782e-01 3.3534524158325435e-01
      6.7468656094023605e-01 -1.1490126195737599e-01
      -3.2287423436440627e-01 3.8919178004853006e-01
      -1.7819278415769907e-01 -4.2576140208437169e-01
      1.3143335358606362e-01 -7.4753105083156107e-02
      2.9428989314392240e-01 -1.3930582994704319e-01
      -7.4773317746447757e-02 2.8685152018577725e-01
      -2.0250880657881740e-01 -2.6853586096807419e-01
      -3.3624969949164768e-01 2.4418517805831774e-01
      1.4730144977556517e-01 1.4171673839806869e-02
      -7.8457602651754138e-02 2.3132119275249632e-02
      -9.0218776670506970e-02 -2.3785030021692247e-01
      -3.0379571464006910e-01 -1.3373713076900390e-01
      5.1710459029812839e-01 -1.5876720381857487e-03
      -1.0073750276791701e-01 -5.1276821167402092e-02
      1.1545112013534562e-02 -3.2303960867622883e-01
      7.9032045233657939e-03 3.3976613948123052e-01
      -1.7452136284297115e-01 -2.1557298992629821e-02
      -7.5954176991775355e-02 -5.5736042454415290e-02
      2.0721777868385788e-03 -5.2667927601585574e-01
      9.4126770064578411e-02 4.7088712302398100e-01
      2.4871389938021646e-01 -1.0604637959858967e-01
      -4.1316718056957587e-02 -1.1324840455347182e-01
      -1.0301308925269587e-01 -5.5687283476620320e-01
      1.5866697264748156e-01 3.5611039465338928e-01
      -1.9565600634721300e-01 -1.2698077475615280e-01
      8.3490162134674847e-02 1.8197052288946300e-01
      -4.8742731020383206e-02 -1.1385427809747456e-01
      5.0592984891993309e-01 -5.2085335334401739e-01
      1.4636123945683044e-01 -2.2659526063792135e-01
      2.8958188231698708e-02 5.4963411929228290e-01
      -2.9939192663304715e-01 3.7905989926289063e-01
      7.1570454442353437e-02 2.7234708718077122e-01
      3.1390273311243894e-01 -2.2457903900149696e-02
      -2.9475473780939110e-01 1.1960898069877413e+00
      -3.8474233583989370e-01 1.0229693926670028e-01
      3.9043875690219956e-02 -2.5074505294173888e-01
      -2.8956456570056174e-02 4.2036919898843630e-02
      9.7246289165308069e-03 1.1304854143075367e-01
      -5.8318380252643194e-02 1.2455180434012340e-01
      5.3431819084927612e-01 -3.7166557501210840e-01
      3.4287293463648866e-01 -9.3583701053270102e-02
      -8.8303665109718418e-02 -3.6532494352936470e-02
      -3.9165525143323060e-01 -1.9338246344717014e-01
      2.1181318329587587e-01 -5.5451058262005426e-01
      2.4901600064269011e-01 7.1314855977265168e-02
      1.5621812770590757e-01 -1.3111387865649404e-01
      -1.1557463434971156e-01 -6.0107153266755664e-01
      -1.4178629193998668e-02 -4.4970158978069684e-02
      1.6171282856900226e-02 2.0737183412690267e-02
      1.7249782529179428e-02 -5.0073357780918058e-02
      -6.8377740389688147e-03 -3.1784571932909893e-02
      2.1713874723163638e-02 -1.0133867685279219e-01
      -1.5299279141187228e-01 -1.0697582360661802e-01
      9.5564860412567884e-02 -5.4602308077385656e-02
      5.8287203018153377e-02 2.5822945470457267e-02
      9.8539180276112193e-02 8.3266194666145071e-02
      1.5536544899118435e-01 3.7456569594633830e-02
      -7.4939040485824351e-02 1.8239387908259339e-01
      -1.0472710997282829e-01 -3.9974635048350443e-02
      -1.0826768300911517e-02 1.3758750259979305e-01
      5.0871317669339354e-02 2.0234885852149533e-02
      -1.0011367303378958e-01 4.0765171877848644e-01
      -4.4695394946682537e-01 -2.7174640985634596e-01
      2.9536019267047026e-01 -1.0054443338051920e-01
      2.7800990048230872e-01 -1.9823188241125519e-03
      -1.7234741042039273e-01 2.3046379040463486e-01
      -2.8581800477669850e-01 -3.1650480310399887e-01
      1.4633201119788428e-01 -1.9448899641688056e-01
      7.5522952498528728e-01 -6.6168162140271311e-02
      -4.1422415560263826e-01 5.9939020422375178e-01
      -5.4149121376755849e-01 -8.1767385470880538e-01
      1.3102077354831911e-02 -4.2761721838331257e-01
      -2.9398292806790277e-01 1.0256623745270440e-02
      6.1373902296104427e-02 -2.3193242034301090e-01
      1.1149742571266315e-01 5.7664842553251050e-02
      3.9973096627632966e-02 -4.4980703081040108e-01
      7.0762105541003706e-02 -1.0410438454751229e-01
      -1.3766238953123405e-01 -7.4570785016537687e-03
      -1.7413959158613022e-02 1.5096110904862689e-01
      -1.1642922881078190e-01 1.2739759343799614e-01
      -1.1626907188283615e-02 -1.7984524837867202e-01
      9.1382915519848867e-02 -4.2791476373000059e-01
      1.6945924969056200e-01 -4.6064348942610633e-02
      2.1488689993903193e-01 4.1659668793141336e-01
      2.6391495943379606e-01 -1.0311656693782516e-01
      -1.4831882074238348e-01 -4.0686127649970358e-02
      -3.4480794630984796e-01 -2.0762028578076389e-01
      9.3711842826592145e-02 1.8369512683891126e-01
      2.2778720458467644e-01 7.3572996597418547e-02
      -1.3578219491603455e-01 8.1151376459678418e-02
      -1.4524490731354855e-01 -3.3915135843421740e-01
      4.3121238204048778e-01 -3.1798622490245099e-01
      4.8977743495632464e-01 -2.3112277028844874e-01
      -1.4946800474902266e-01 5.5472487768208845e-01
      -3.6872014254970709e-01 -4.0310038584865904e-01
      8.5430006061383512e-02 9.5518586233851975e-03
      4.9676987043035403e-01 -1.3603602592901762e-01
      -2.9820336021921334e-01 7.4046715242700534e-01
      -2.6430500222675479e-01 8.6415001190694549e-02
      1.3511642595828285e-01 -3.3977073610979797e-01
      3.7598235390004664e-01 -1.2255092002183932e-01
      -1.1628851768953918e-01 1.7491597406536417e-02
      -9.0496624295082734e-02 -4.1106441161277807e-01
      6.4905561719501320e-02 5.6186953785813891e-02
      6.4653129534429192e-03 -2.4041880260922049e-02
      5.6359894692176449e-02 3.5032353143689854e-02
      -4.1590537826322674e-02 1.0733926855004407e-01
      -8.4976330225113056e-02 4.6251585047969425e-02
      4.2074387563815131e-02 3.7885980999878222e-02
      1.7296273945171897e-02 -1.5251522847254328e-01
      1.9809722380359697e-02 -3.3378169030977362e-01
      -2.4750130284171747e-02 -2.2118464269933254e-02
      -2.0839589524959731e-02 -6.2003149655867236e-03
      -1.5602876588787024e-02 -3.4187563483007624e-02
      -1.9032757770934541e-03 3.7703369299161238e-02
      1.1424207889351820e-01 -2.8977198802431620e-01
      4.9080962499799340e-02 -7.7389692548171268e-02
      3.1484291602357002e-02 -1.1531409885244852e-01
      -6.8372787729094206e-02 1.8323562539820476e-01
      1.2174111119550005e-01 -9.3043089824241421e-02
      3.4162724223310285e-02 4.9929249138413713e-02
      -1.3870442726305723e-01 -2.2221909692143405e-03
      -2.1807779578382261e-01 1.1279952499294617e-01
      -1.6812663498554278e-01 -3.5163644820165089e-02
      -3.2274627288745167e-01 1.3600740498859752e-02
      -4.2460929571710708e-02 5.0027370439431817e-01
      -2.9838577479775669e-01 2.5557500816825302e-01
      -1.7363282675272534e-01 2.0507537710955331e-01
      3.3567272385956687e-01 -1.8423409895289761e-01
      -2.1250655940064975e-01 8.4236716545916157e-01
      -4.7632923286581547e-01 1.2330679197098336e-01
      1.6280617065728670e-01 -2.2916415639314155e-01
      3.6256060724284633e-01 -6.3666678762771848e-03
      -2.4092053938864361e-01 5.4447615114250070e-01
      -1.4368746437038418e-01 -7.8288679625058466e-01
      2.0944608796667466e-01 -4.3481785163146142e-01
      -3.3895067979559446e-01 2.0327193852496293e-02
      1.4067314436569356e-01 -3.0620680463564337e-01
      1.2490888644201169e-01 5.7896955430785524e-01
      -2.0694655567319500e-02 -2.8673362410449710e-01
      -3.7213916707349254e-01 -7.5657671145094700e-04
      1.2453101902012215e-01 -2.7658061702766384e-01
      1.7602994970982155e-01 4.5189593331383882e-01
      -1.7398282438687318e-01 -1.2700992310334894e-01
      -3.0595159578718591e-02 -6.9933437553887602e-03
      1.3488992011051723e-01 -5.7140938466742043e-02
      2.0589728953846467e-01 6.7302423408971399e-02
      1.9681121987039318e-01 -1.2196145981380391e-01
      4.4383966393512508e-01 2.4953994535550188e-02
      -8.1043405428050594e-02 -8.7915805363930600e-04
      -2.5061368474917395e-01 -3.9091738286390210e-01
      3.3739685439678579e-01 -7.6893048967709196e-02
      8.0346478525089782e-01 -2.4571743132018900e-01
      -2.6448291559288561e-01 2.6268642874103215e-01
      -4.2635295986400795e-01 -5.2500484709368711e-01
      2.3971458250944067e-01 -4.7285244868196524e-01
      3.4093109895832019e-01 -1.3796937046153762e-01
      -2.9012445424371686e-01 1.5804515153413057e-01
      -2.5115756355406588e-01 -4.6213586458230610e-01
      4.4341673596247450e-01 -5.2877689311403442e-01
      2.6241839774073722e-01 -2.7309612442608367e-02
      -1.5850293658792702e-01 1.0459130576961252e-02
      -2.4407917390027589e-01 -5.2918813465149628e-01
      2.3927228468461065e-01 -1.6006446079448043e-03
      5.4875195638297869e-01 -1.2248166388340952e-01
      -3.0788459601167695e-01 3.1959927506010810e-01
      -3.7697359978656686e-01 -6.1277457784537981e-01
      4.1227704584556069e-01 -3.5748464731853369e-01
      9.2246882181437034e-02 -3.2822925522614545e-02
      -2.0709534957680107e-02 -2.6021523309410336e-03
      -1.7709548280111820e-01 -1.0351406712857690e-01
      -1.9286076664164378e-01 1.7218978792561146e-01
      -3.8110167625342012e-01 -1.1632019544701989e-01
      -1.2670641859966950e-02 1.0595577869608060e-01
      7.3519147771364743e-02 7.7844307498631515e-01
      -5.4605882392735047e-02 -2.0188628127102929e-02
      -5.4339596454524408e-02 -5.5051777436526048e-02
      -5.1253980851097697e-02 -6.7550865994922105e-02
      -1.4709127730177877e-02 7.1093868455829420e-02
      1.2635128929508682e-01 2.7598470133137834e-02
      5.5378455660774081e-02 -3.2928741433615565e-02
      -6.1213307259188048e-02 5.7424371062322364e-02
      -9.7224017187622733e-02 -9.9351575057287547e-02
      -4.3880850216824152e-01 3.3766564747528854e-01
      1.8847278212327517e-01 -6.6029393744793125e-03
      -9.8270614103344520e-02 3.9487979036095527e-01
      -6.6539296121084779e-03 -3.0821663995834298e-01
      -6.2394755107650336e-02 1.9530102467388316e-02
      -4.4147138104842015e-01 -3.0720865272801975e-02
      -7.4579914576081846e-02 2.2167874527714340e-01
      -9.1897398062616376e-02 7.3642532634807217e-02
      -8.2040861554196820e-02 -3.0409646696196294e-02
      3.5881608647317753e-01 -2.6684889117465176e-02
      -2.5050260939607327e-01 2.3508133913398446e-01
      -1.7063976034530687e-01 -2.3270022841913210e-01
      2.1787054855544249e-01 -2.1881702169391412e-01
      5.8218795881370944e-01 -7.5703444202861708e-02
      -1.8539282710337146e-01 1.6682228676059938e-01
      -2.7620228364497162e-01 -2.1999037998910176e-01
      -5.7957567467551110e-02 -2.5091782480224223e-01
      -7.3536358487850978e-02 1.1036619557076537e-02
      8.3199141408583255e-02 1.2710824894558334e-01
      9.1901665550291167e-02 2.3335067723753514e-01
      -1.8135776544004611e-01 -2.9166123494009499e-02
      -3.0835142272758763e-02 -4.1661651447372279e-02
      1.1269507226228784e-01 1.7686774152976961e-01
      1.3055846633025758e-01 9.0481487249156792e-02
      -7.4725083177660870e-02 -2.3728469149891945e-02
      1.2982057358299612e-01 2.9459447124649072e-02
      -2.5074739236546600e-02 1.1171406258690546e-02
      4.6939239795243760e-02 -2.7867320996853640e-01
      2.1372401934125912e-01 -8.9513059747551596e-02
      4.2737112276838518e-01 -1.0357113976961889e-01
      -2.4736273864664707e-01 -1.4514114153577964e-01
      -2.6164464993365466e-01 -7.7460137318131272e-01
      3.4159536999406520e-01 -4.7692033629451613e-01
      3.2693364054308666e-01 -1.3750089678684749e-01
      -1.0529620357787298e-01 8.4701893698599817e-02
      -2.1097489130831881e-01 5.4399139995265362e-02
      1.0751860201531285e-01 -5.7552864243719981e-01
      2.6806712878077193e-01 -2.2736599430455723e-02
      -2.1235701753225203e-01 2.4988643292845603e-01
      -2.6650638645001856e-01 -9.9793670005417418e-02
      3.7672718900306507e-01 -3.0607410607247029e-02
      4.8402738345597851e-01 -1.1698117504328120e-01
      -3.0671086340999876e-01 2.9745592818964911e-01
      -3.2990279520122368e-01 -6.7263208125346741e-01
      4.3162278113060187e-01 -1.3964365688942840e-01
      5.6019120886318952e-01 -2.9440084061045141e-01
      -2.5820272286424245e-01 3.4406804530592439e-01
      -3.1431691639550258e-01 -1.3196096894852674e-01
      3.2038208138245261e-01 -1.9830545198043956e-01
      -1.8213524223722419e-01 -3.4141752119176826e-02
      7.1281420845123344e-02 1.0707429369025077e-01
      -1.3248299148257106e-01 4.3016527627072426e-01
      1.3647462894110474e-01 -1.4768370383664745e-01
      1.0387914522057461e-01 9.1159075099080972e-02
      8.4394123396668741e-02 -4.7783484425989807e-02
      -2.6521588325939371e-02 -2.6230784408166147e-01
      -4.4741542922004149e-02 -2.3512442355558143e-02
      -6.4666148562028083e-02 -4.6356745532436724e-02
      -5.1280682789065571e-02 -7.6174457114331851e-02
      -8.4713839316962938e-03 6.1115219120050822e-02
      8.5008795733690926e-02 6.9460618317816497e-02
      1.4207530656416742e-01 1.7641287183556346e-02
      -9.4902261917446079e-02 2.7010814730429666e-02
      -1.0339350389054359e-01 -4.2217731690744227e-02
      -4.0777898912811672e-01 -5.4259163329383473e-03
      -8.3191280501959800e-02 8.0029365412585721e-02
      -7.0499125248240910e-02 3.0012939132342059e-01
      -6.6352898245002179e-02 -8.5228491859057509e-02
      1.5723902432917766e-01 -8.1073772192335261e-03
      -1.1289429348319935e-01 6.9593654933209015e-02
      -6.8546369250282223e-03 -2.8719755736525976e-01
      1.8131156034362966e-01 4.2401814644249511e-02
      3.2800257767148525e-02 1.1377325727345790e-01
      3.5320749512200961e-01 -6.5917568786976161e-02
      -1.8738521461636437e-01 7.0316020126728121e-02
      -1.7901519088395348e-01 -2.8859103277649162e-01
      2.0559205999053851e-01 -3.0976241402139232e-01
      1.5777839732100449e-01 -1.2859804009106149e-01
      9.7459310720755012e-03 8.8149832102268288e-02
      -2.2649931082298622e-01 -4.3435052427984548e-05
      -1.1464687520314472e-02 -2.0289007139862515e-02
      4.9891837424848297e-02 3.7105736476297252e-02
      -2.2605312447906659e-02 2.8946076219365746e-01
      -8.8827009189493461e-02 3.2883103064762204e-01
      -2.2069075687931237e-02 2.9421039084259293e-01
      -1.3192626319687409e-01 1.4985610235740213e-01
      1.3161790908914353e-02 -9.4145037312749952e-02
      6.1343680077618111e-02 2.2902786543870901e-02
      2.1108625526318650e-01 2.1726018384057169e-01
      2.3257994770661145e-01 4.0579337690793617e-02
      -2.6101702626507811e-01 -6.0749675005756308e-02
      -3.3991224080387261e-01 -3.7982414723316177e-01
      3.6615346120790282e-01 2.6720891228421173e-01
      2.8876943292977270e-01 1.5280009299732833e-01
      -3.1741659514883414e-01 -4.2100970468212540e-01
      -4.0625470592290142e-01 -1.0473883730643727e+00
      2.3183528711679027e-01 -4.2279541742860921e-01
      1.0625163193146514e-01 -4.5383162912405239e-02
      -2.8082364735746723e-01 -3.0536949214775266e-01
      -3.0916578529830147e-01 1.6417316579303811e-02
      1.3615926196307826e-01 -4.7896204096390199e-01
      4.5057261947007710e-01 -4.5459548214061576e-04
      -2.4829085134659584e-01 4.5758315589635767e-01
      -3.9202285843533086e-01 5.3443932529268690e-01
      3.1116968187112692e-01 -8.4909251405376573e-01
      3.6264321849097980e-01 -1.5638813136478036e-01
      -3.5437425137849510e-01 -3.8660456944703504e-03
      -2.8274772992582237e-01 8.4843282527504189e-03
      6.5341816173900591e-01 -3.8898875112173747e-01
      2.9314149615819618e-01 -2.6554906147166030e-01
      -1.1623380686023145e-01 9.1027518494563475e-02
      -2.0659661608346216e-01 -4.0938394250066096e-01
      1.3215020466161584e-01 1.9601093737113669e-02
      3.9050459541774933e-03 -2.4788961573327765e-02
      -5.6784514540996554e-02 2.2144510303742820e-01
      -1.0416085846126044e-01 5.3172406998973645e-02
      -6.9093330069496195e-02 4.6980207903973581e-01
      -8.2996382036171434e-02 -8.9233036221969389e-02
      4.2460505729451328e-02 1.8186671309297472e-01
      9.1476079412941724e-02 1.3273345441359993e-01
      -1.7153044630207245e-01 3.7122506720653425e-01
      -4.2903012637663093e-02 2.7804519728834548e-02
      5.9241694080681993e-02 1.0381776713629134e-01
      -9.5895312510243576e-03 7.8812491428355919e-02
      3.5372200504196652e-03 6.1432227647599862e-02
      -6.4224147176931718e-03 7.3521226295901994e-03
      -2.1803992375407782e-03 -7.4445850132362976e-02
      1.4801330781374208e-02 5.5071148865886342e-02
      3.5747911559211781e-01 2.7894163784606497e-02
      5.9754747739327230e-01 -4.3177343814613439e-02
      -1.8152444671490381e-01 -2.1931037369064130e-01
      -1.6112860700428885e-01 -3.3529850725614030e-01
      -9.3096349599169889e-02 1.9431450402322528e-01
      1.1447573085010741e-01 1.6017966218947555e-01
      2.2593753573006144e-02 -3.2167307361745062e-01
      6.6316932601302406e-02 -2.2569263190321284e-01
      -5.4582290441430183e-02 3.8154154110779215e-01
      3.2078446669976807e-01 6.9515513258098394e-03
      -9.8929984624893816e-02 3.4014060622637921e-01
      -2.4654816124319395e-01 9.6119722600559399e-02
      1.0823142484272939e-02 3.2961632472704078e-01
      2.5851488621029911e-01 -1.3358202944370967e-01
      -1.2717493315173625e-01 1.8010018871757471e-02
      -1.0485540771673792e-01 -2.5038708583415276e-01
      -8.1443097796680148e-03 4.3988330511133877e-01
      2.1913920311654922e-01 -4.2795852355599750e-03
      -1.0936240862021553e-01 5.6512293818257342e-01
      -1.1083795665474637e-01 -2.3491400617909143e-02
      -2.8678311617387271e-02 3.5604977957623579e-01
      2.5513258753494462e-02 -4.4782762078713477e-02
      -4.2735326635983235e-02 7.8936134019606169e-02
      4.5593568692352940e-02 -2.5476876457105707e-01
      1.9824637380819446e-01 2.2134004705842765e-02
      3.1180629470427657e-01 9.6487016801248104e-02
      -1.2353476125704171e-01 -1.5873538854273780e-02
      -1.8924685991878165e-01 -1.5301552687690617e-01
      2.8549985465398436e-01 -3.0980565665349896e-01
      2.1122136244542095e-01 -2.9394254314052605e-02
      -1.0641516045384090e-01 -1.3680479430584963e-01
      -4.5507025376977217e-01 -3.5494684322493203e-01
      1.2611820054285299e-02 -2.6168152457367844e-01
      -1.6004664509969604e-01 -6.8889027313125822e-02
      6.0892280695246138e-02 1.1855235581822897e-01
      -6.9625379897255202e-02 1.6149838054725615e-01
      1.2084849725108020e-01 -4.6730571750728905e-01
      5.0430268648620546e-01 -1.2224777333771518e-02
      -1.6862596148897679e-01 2.3230959725427441e-01
      -2.1271928185788408e-01 1.6222402058981500e-01
      2.1226166140450098e-01 1.0780236100836904e-01
      9.6196733410634894e-02 -9.5512749971709374e-02
      -1.9205836933723866e-01 6.1523938623036079e-01
      -3.1762283257965157e-01 -1.7197851505682801e-01
      1.4240760724794257e-01 -2.5861639575361706e-01
      1.7455543632088430e-01 -8.3060462356755196e-02
      6.0292448742968807e-05 2.2991649592355312e-01
      8.9334389638838843e-02 3.2722472681999509e-01
      -7.3426017044641037e-02 2.6751288019465064e-01
      -4.5254575902411287e-01 -9.3547020282910787e-02
      9.0521920075810072e-02 2.2984342306455841e-02
      1.9642131378392966e-01 6.3887203970269069e-01
      1.3757732455036453e-01 -2.2342231180627861e-01
      -3.4906663962237974e-02 -4.4535262512610425e-02
      -1.1110418508096422e-01 -4.5882082673639685e-03
      -8.2416752024737833e-02 6.1419742097975821e-02
      4.0084879630912007e-02 -1.4729380244452525e-01
      -2.4243718368519490e-02 -4.5128080657255543e-02
      -1.0951288494567178e-01 -1.3625040232344629e-01
      -2.6085632068480614e-02 6.0905906865820945e-02
      1.1991918331367615e-03 9.2031174700476105e-03
      4.6398556115618654e-02 4.6791260195105981e-02
      -4.8956259666397918e-02 3.0607990656312837e-03
      -2.8850109518720086e-02 -1.5917504579935116e-01
      2.0718998173811937e-01 3.0674041894521153e-01
      3.0835894175713424e-01 -5.1189478406692211e-02
      -9.8583146618939025e-03 -2.2170661569198338e-01
      1.8093092514384182e-01 -4.0898223434548969e-01
      -3.6577848458996276e-01 5.6362383242428993e-01
      -1.9543950872649457e-01 7.1796453734929683e-02
      1.2532014545836914e-01 -1.7390740801415336e-01
      2.9657965479992937e-01 1.0825402641354177e-01
      2.3521074571628992e-01 -2.8480289581573170e-01
      -1.9644156710992857e-03 -2.8880631324635676e-02
      -9.3473960442845734e-03 -1.0502535321653493e-01
      -1.7347561241536491e-01 2.5221360729613329e-01
      5.5137678046121498e-02 2.2838960619460577e-01
      1.1298991393944792e-01 -4.1154180993402630e-02
      -1.6142828066727877e-01 4.1445622397721049e-01
      -1.9840989506234730e-01 -3.3876292013791972e-03
      -3.8431640140654623e-02 1.3402476947233338e-01
      -2.4452803016117480e-01 3.8619772623426321e-02
      1.4730763034280359e-01 -8.7914090343652287e-02
      2.4393863928455728e-01 1.4997929811907668e-01
      -1.3877392744643166e-01 1.1494638882647670e-02
      -2.1595695031950057e-01 1.3961351896424715e-01
      1.6475327553144198e-01 -2.9257068413777898e-01
      3.3346350655662532e-01 1.7140476479055608e-01
      -1.6106045192715929e-01 5.3895493570732568e-02
      -2.2507802147273745e-01 9.7392678050594969e-02
      1.5094490420156587e-01 -1.5941528295813903e-01
      1.4944073292472507e-01 4.2250242176591341e-01
      -1.7861897160610010e-01 4.1111060543476595e-02
      -1.0355958502727300e-01 1.3321539830379733e-01
      3.0259503034060577e-02 -6.7883358147265260e-02
      -6.0849145240153085e-02 1.3285827171045164e-01
      -7.9395977464876699e-02 1.9906556794891633e-01
      5.0920068663860230e-02 1.0312194057451135e-01
      -3.3958922358254214e-02 1.3459436887574183e-01
      9.5783168662943782e-03 -8.1636229312015501e-02
      -5.2113710605776342e-01 8.0492647671736417e-01
      -5.2114337713853021e-01 1.1905586320357718e-01
      3.3786958725514550e-02 3.2869228160518094e-01
      2.8533751810467389e-01 5.0766955616372622e-01
      -2.7692856466826238e-01 1.6671333220784504e-01
      -3.7739382396561588e-01 1.0959556293749088e-01
      1.5758783031474863e-01 1.2596467130695480e-01
      2.4628952594657177e-01 6.3312841170845469e-01
      -9.8657293138130264e-02 -4.3992770164897954e-01
      -4.2347131022674167e-01 3.2234222407454265e-02
      8.0785153392014530e-02 -2.4833076334638646e-01
      2.2737715936377328e-01 8.0241849318466774e-01
      1.4005369541706403e-01 -6.9807270236050623e-01
      -1.1873276740477665e-01 8.1165306239119300e-02
      1.1955387667915504e-01 -5.7888141026102935e-01
      2.0203878156641479e-02 8.5277845055452606e-02
      4.7451605850383129e-03 -3.5812774948134790e-01
      -5.4390302504931549e-02 9.7085155670442926e-03
      2.7559634290804647e-02 -2.4273610120377373e-01
      -2.0671627376264786e-03 4.2357671209684498e-02
      3.0385221128460798e-02 6.5038992747782576e-02
      5.6842488948635882e-02 2.3912263934820106e-02
      1.4482784119450937e-01 -3.6401095605752352e-02
      -8.6860993718243060e-02 -2.1690398818471243e-01
      6.7226841772313764e-02 -3.9268517646352953e-02
      1.3625734147683968e-01 -1.7112839927523184e-02
      -3.9038181611758122e-02 2.0264317939595048e-02
      -5.0589180729577139e-02 -9.4822909538782404e-02
      1.3757698214624894e-01 1.6915414271438314e-01
      1.6813683324110046e-01 2.3627769415506612e-02
      2.0145088564551335e-02 -2.2580382732329504e-01
      1.1875037577274587e-01 -1.6771992041973571e-01
      -3.6803914468258903e-01 -1.7784287403973742e-01
      -3.0454436378494143e-01 6.8167768468826842e-02
      1.3717336287151996e-01 -2.1829403155099839e-01
      2.0940973947755129e-01 1.6002592153809791e-01
      -3.6799928205914961e-02 6.7479226905599959e-02
      -8.8291027093648680e-02 -1.1996110658740938e-01
      1.1372487647727775e-01 4.5810231464734848e-02
      1.9844535350075898e-01 4.2327097797148572e-01
      3.9427368646699629e-02 2.8728788064060351e-01
      1.3908394717622538e-01 1.5073560425410604e-01
      -1.8468914002953704e-01 9.1663491986462398e-02
      -1.5080670608471197e-01 -3.8297660262215472e-01
      -3.9384076081626897e-02 4.1050257796606315e-02
      4.4179250757095501e-02 5.9379692492818673e-02
      -1.7231501511539463e-02 1.1416800751588604e-01
      -5.4050545297875660e-02 -3.5684900124538399e-02
      1.0080345388892255e-01 -2.6919405403825938e-02
      -2.6591608615867307e-01 4.8055893774149476e-02
      1.0295618491730134e-01 4.0462312847080899e-02
      -9.5505028940443396e-02 5.6477737747955881e-01
      -3.3992617130261568e-02 -1.0082209218064944e-01
      -3.0357388249443762e-01 5.2239460295161938e-02
      1.6565212622595696e-01 -2.8640728137872129e-01
      8.3233178338293440e-02 4.7357980108489828e-01
      1.2273559458477008e-01 -3.6373822810982470e-01
      -1.3243612964576720e-01 -5.0720230402718336e-02
      -6.0495084939658937e-03 -6.9611157864468823e-02
      -5.5218365741895946e-02 2.3576373984692595e-01
      -1.2994196694246335e-01 1.4260271708562727e-01
      1.3446807743054556e-01 3.6530510976479039e-02
      -9.7142152737473689e-02 2.3984976092870794e-01
      -8.0613943056341286e-03 -3.7481030050978897e-01
      -1.9982262141168503e-01 5.0333848723373642e-01
      -2.3548704759297770e-01 1.8962297153044635e-01
      4.9716268585990320e-02 3.4664512324444907e-01
      2.1326904338600472e-01 2.2900544481672394e-01
      -2.9772843811517175e-01 5.3102544964092713e-01
      -6.0268304732218092e-01 1.1961321201143592e-01
      1.8440029118853987e-01 -1.7610892026154285e-01
      3.0097003184784027e-01 7.2179957865167288e-01
      -2.0335303271728472e-01 1.1965350165585228e-01
      -3.9536901138328406e-01 4.7966332693639341e-02
      1.3047734031155506e-01 -9.5110253986879625e-02
      2.4142741682397470e-01 4.0857040239399178e-01
      3.6251324236966122e-02 -2.6627168292024384e-01
      -7.5292544149921092e-02 4.7969204900599145e-02
      -2.4032501111700386e-02 -3.5771017657541634e-02
      -6.2884947288280955e-03 -7.8058953065410122e-02
      -7.2084419599183117e-02 7.4639827592426405e-02
      1.3588711437601211e-01 5.2040264845251843e-02
      -1.2154466073736567e-01 -1.1490872579554343e-01
      -9.9061929565863543e-02 -1.7782913116252538e-01
      -8.6659776699707702e-02 -1.5236599768095654e-01
      2.2715704990622529e-01 1.1310131775228746e-01
      -3.6805249835583038e-02 -8.8771534889681598e-03
      -6.4829769393583023e-02 -2.1404157875062360e-01
      7.4244585245742789e-02 7.7112865036437730e-02
      4.4694561001451111e-02 -6.3356912578332064e-02
      -2.7377927042269361e-02 -1.1058033107677150e-02
      -4.2923298146446201e-02 2.2268525516701602e-02
      7.5866372847575053e-02 -2.6492426515696466e-01
      4.3941316115299903e-02 2.7424530634983093e-02
      7.0042257856978624e-02 -3.8616761850817244e-01
      3.2528907054254860e-02 -1.4166720310771708e-01
      -3.4252165856588107e-01 -4.3570169032881273e-01
      4.5147085217779551e-03 1.6367520913547869e-02
      1.4313865033518480e-01 2.2395259057662023e-01
      1.6048368256145409e-01 6.8772879976380097e-01
      -3.0313405015735911e-01 2.1869083292383845e-01
      -2.5660451825169545e-01 8.4475540644315075e-02
      7.0891232556399911e-02 2.2351389688652645e-02
      8.8520342513452185e-02 -9.9686138532859278e-02
      1.1080390672002390e-01 1.8285914798146255e-01
      -1.3779678027681422e-01 -1.9087979793404215e-02
      6.4182661129071436e-02 3.6803534808898821e-03
      -4.9009884087202589e-02 1.0990142234754319e-01
      5.5261947515549199e-02 -2.4709952411730574e-01
      -1.3384985622244591e-01 1.0980768286915596e-02
      1.1862764674593143e-01 -3.2797330162907523e-01
      3.9660288234506305e-02 2.3629651761320272e-01
      6.9909820220395422e-02 -2.4635909429469738e-01
      1.7914641056027188e-02 -7.7159174068773026e-02
      -4.7502302845767227e-03 -4.2941491447961233e-01
      5.5714473531388517e-02 -4.7203020313430127e-01
      1.2246138597726693e-02 1.5079016739675863e-01
      -1.2929005936154692e-01 1.4572838069247349e-01
      -6.0610188789355729e-02 -2.7018875390807356e-01
      6.4073164531842407e-03 -2.7228886748394415e-01
      2.6066885695060240e-02 -2.6182082291600761e-01
      3.8501434842199872e-01 3.3278076787204104e-02
      -2.4315041301093944e-02 1.2131738477955910e-01
      -5.4914625723111773e-02 -5.3448972255941096e-01
      -1.8541107303965990e-01 2.8033341880682250e-01
      -6.7788374103438742e-02 5.0400132427965982e-02
      -1.4551079265118191e-02 -2.3314877938298198e-01
      9.7380304877615079e-02 -1.7376720528399145e-01
      -1.9623170939686840e-01 1.8246826674707151e-01
      -1.7906815196681664e-01 6.0771435915028982e-02
      8.2629085162717483e-02 -3.9781511392325725e-01
      2.2965648920796908e-01 3.2808173114631446e-02
      1.7911519544343994e-02 2.8343146373649687e-02
      7.4546885640766225e-02 6.5829955385957678e-02
      -6.6893094466850517e-02 -1.9685769009351040e-01
      -1.6101016921659236e-01 1.5729226882785668e-01
      8.2785327228183381e-02 6.7694966711077928e-02
      1.7664022579080446e-01 -8.4725639440612996e-02
      -1.2585240631737221e-01 -4.8091529770447297e-02
      -2.1213102397222702e-01 -1.5361861145495670e-01
      -1.4959395107677700e-02 5.3705792387549231e-02
      9.7137832599321794e-02 6.8885272716126319e-03
      -1.4678832378573115e-01 3.3274318274788606e-01
      -6.4766811363373394e-02 -1.9996548011074873e-02
      8.6417266143159421e-02 2.3002324207090930e-01
      -1.2617329411192802e-02 5.4279036635479255e-02
      -3.1701445231733995e-02 8.6190058336940947e-02
      -1.9099679574626310e-01 1.6257513630598230e-01
      1.3957196147915363e-01 -1.9833493734734803e-01
      6.2441539664053983e-02 2.7310769381966433e-02
      -3.3944506714257215e-02 -3.2245314546500599e-02
      5.6548083390265937e-02 8.8684132423843976e-03
      -9.8223684225150695e-02 8.4241474524727709e-03
      -1.0481988959687054e-01 3.4708011518915019e-02
      5.0828950627626095e-02 8.1559079340971605e-02
      4.2927297638264750e-02 1.6660828551937099e-01
      -3.0380935420632055e-01 -1.9899606653850360e-02
      -2.6934919753379161e-01 1.1215493131861252e-01
      4.8863041635934329e-02 -3.0926891261813755e-01
      1.9504479145578563e-01 -3.2341501504982761e-01
      -6.4700183550716633e-02 -2.4838593413367441e-01
      -1.0551608986760469e-01 2.8699508536240072e-02
      8.3145160949280761e-02 9.0231393804320881e-02
      2.3326598726354222e-01 9.0058520886505400e-01
      4.4525095776158020e-02 1.8301044989433968e-01
      3.4762677243867224e-02 1.2640390735063137e-01
      -1.2153601685388241e-01 8.1587858243409078e-04
      -1.1678043023395983e-01 -2.8987008278741699e-01
      -4.3054258868633996e-02 -9.6459175399876182e-02
      1.7859995142375792e-01 5.5953438280630576e-02
      -7.6666934430161773e-02 -1.6876669700796383e-02
      -9.6133871368834611e-02 -1.0421639981252155e-01
      -1.4227746172440250e-01 -2.4554389238963293e-02
      8.1955969408896105e-03 -4.1422263347354556e-02
      6.8085820295656118e-04 2.3656913872485617e-02
      1.4117257864805263e-02 -8.5254689797364974e-02
      1.3648322172080851e-01 -1.0037493433054104e-01
      2.8135065463386638e-01 1.0707654257686687e-01
      -2.4063200048240163e-01 -2.4913740701199186e-01
      -1.5354471853924573e-01 -7.1526310513812719e-01
      1.4214866640621612e-01 5.3184828496968088e-02
      1.3602896892151933e-01 8.6896521438504341e-03
      -1.9367524716438184e-01 4.8706289360687161e-02
      -1.1886419795861840e-01 -1.6736639691132840e-01
      -1.4243736247946505e-02 1.7890933326425265e-01
      -8.0699819993672706e-02 -2.8934588004074484e-02
      1.1312915458957284e-01 -5.5435938429248721e-01
      2.4058927804025801e-01 -6.5103264280112683e-01
      -1.8759553476912202e-01 2.0934889889291214e-01
      1.5333827316241047e-01 4.9521869935461128e-02
      1.5958796488479940e-01 -8.4108415722385699e-02
      8.8949089755006483e-02 -3.4831884832212984e-01
      -1.7517131955182962e-02 3.7963603496074977e-01
      1.4042816433484542e-01 -6.3892711982872621e-02
      -5.2848562851403942e-02 -9.9760357582058312e-02
      -1.2832917487208908e-03 1.5213833213250521e-02
      3.2926192224422015e-03 -1.4490369447174425e-01
      -6.2580776463687829e-02 -6.7467922095927182e-02
      7.2127360322465792e-02 9.8033300972971985e-02
      5.3373829673304868e-02 2.7335421248498376e-01
      -6.4843657863300166e-02 3.0216075367324136e-01
      -9.5089629842495679e-02 -1.5740249361183293e-02
      3.2478772766591335e-02 8.9525105855392431e-02
      7.6082203602326537e-02 2.0483263680715935e-01
      -1.3259108111106846e-01 -1.1086426737494713e-01
      4.7122273970448866e-02 4.9416046771692680e-02
      2.4595535427396193e-02 -1.2780293401338522e-01
      7.0423678174564366e-02 -7.7412252211976160e-02
      -9.1733078812754054e-02 1.7941493703928859e-02
      -4.4676598697014923e-02 1.9722903392892073e-02
      -3.2928546944698309e-02 -9.2301071889930600e-02
      2.0917497227575577e-02 2.3738793237281942e-03
      1.3336536449502040e-01 1.5928982915668613e-01
      5.9712574563699508e-02 9.3655527209080713e-02
      7.5049991652292869e-02 2.8841096867101018e-01
      3.2193069254070686e-02 -3.6724971666437588e-02
      -8.5779703212093869e-02 -1.6455628917060705e-02
      -1.5567478115435046e-01 9.4232077379252845e-03
      1.0351587427574387e-01 4.7953214054007508e-02
      1.1180822799825048e-01 1.2803172929995593e-01
      -7.9524382539108457e-02 2.5491560120530415e-02
      -7.7257882298622557e-02 -7.9495622268331040e-02
      1.1359746104028533e-02 -1.8007693365103999e-01
      8.2529455065521895e-02 -3.8532043529226834e-01
      -1.6927766196606342e-01 9.1431615632658822e-02
      -2.7263137450339003e-01 1.3359943486676507e-01
      1.1808707010224588e-01 8.7412458057355313e-02
      4.3708173826952118e-01 3.0077560074282733e-01
      2.7332397398632130e-03 -2.9839409194691913e-01
      -1.6732402439489480e-01 -9.2008076874778473e-03
      7.8615149808730453e-02 -2.8010928538436725e-01
      1.3792156664096306e-01 -3.1522288591783099e-01
      1.9270014896422185e-02 -1.6915886218445345e-01
      -4.4454639273043710e-02 -5.5904162261806195e-02
      -5.5678169415061922e-02 5.4265441448401057e-02
      -7.5786555314998755e-02 -1.4791072103139016e-01
      1.3183637723215927e-01 1.2215460639960153e-02
      7.8309764762404255e-02 6.9799745326327425e-03
      -1.1914662600594708e-01 1.5471578037926670e-01
      -1.2479220089115430e-01 -1.8567603807870783e-01
      2.3206793084425992e-01 -2.9766717722783331e-01
      6.1823316668086624e-02 1.1863993811760802e-01
      -1.5513224266357578e-01 -9.7518562140091331e-02
      -1.5347772306219321e-01 -2.8552043715639103e-01
      1.0388465302082447e-01 -9.6034280122686180e-02
      -7.4872233473335367e-02 -2.2899414423663677e-02
      3.2438634961608190e-02 -1.0154460228420109e-01
      -1.5254348581879549e-02 8.3867953903846350e-03
      8.2846982160106192e-02 9.3283619773470078e-02
      -2.0613718920566909e-01 -2.9897792565168318e-02
      3.1475509513065707e-02 -2.7166062613743786e-01
      1.2713363630572158e-01 -1.3144754510659507e-01
      -7.9364504025247577e-03 2.8450811454632735e-01
      -8.2774155944831770e-02 1.5835867443306433e-02
      1.0360762490943670e-02 -8.4816952413705279e-02
      3.0224175786017111e-02 -6.8089388007271531e-02
      -1.7398779692428576e-01 -7.3048773450984289e-02
      -1.3743828631556781e-01 1.5275141546932061e-01
      5.9694838591657966e-02 -3.8351821769069067e-01
      1.2429030686165056e-01 -2.2082102107474530e-01
      -1.6554635650252827e-01 1.0110297367262105e-01
      -1.6175968058023518e-01 1.1690857784013019e-01
      2.7763030904473730e-02 -2.5050822698085284e-01
      1.5363526661812346e-01 -3.0803693388323516e-01
      -1.9435698001799143e-01 1.4137528333144902e-02
      9.2117281602740186e-03 3.6631520192251667e-02
      9.3077323762601416e-02 -3.4047981206660527e-02
      1.4034405114850740e-01 1.5749144190495101e-01
      -2.7798670834891509e-01 1.3279859952522952e-01
      -2.1836186667339941e-01 -1.1037136471439858e-01
      1.6448819472514747e-01 -1.4709939223681037e-01
      1.8607419552922710e-01 4.5083803026670149e-01
      -1.3816356387705725e-01 -1.6353163969716786e-02
      2.8921120557102625e-01 4.2905912436078206e-02
      -7.5029712214331856e-02 1.4931320458609015e-01
      4.6852956171469923e-02 1.1390233154309028e-01
      -2.6956469165523682e-02 4.8025476890872984e-02
      2.7500661945764299e-01 -9.7872260331440951e-04
      9.6508049809020169e-02 2.2857183295742939e-01
      -1.2860648725705253e-02 6.1088620563373976e-02
      3.1849912827386494e-02 -1.0984581690142496e-01
      -1.1615908273329660e-02 2.5655537303829273e-02
      -1.4728073413048704e-02 -2.1981371372877857e-02
      1.0307860621021393e-03 7.6258397862502630e-02
      -1.3910521242391080e-01 -1.1711012167266988e-01
      1.4293745075232583e-01 -2.5253793813072158e-02
      -6.6448966545187144e-02 -1.9364165845619599e-01
      6.3052956494968657e-02 -1.0386553094458306e-01
      -7.8227411724790627e-02 -2.0155038100379857e-01
      -1.5530868625605107e-01 1.2180075385798729e-01
      3.7403349531512753e-02 -1.4343797193799776e-01
      1.1005183693215319e-01 8.9053385413562045e-02
      -1.0854314327314025e-02 4.5940419867665054e-02
      -1.6113690256332558e-01 -4.6691694012745880e-02
      4.7432905048319762e-02 -1.2003001326151448e-01
      1.2335488136741214e-01 -6.9053374557286329e-02
      -1.8753782471924979e-01 1.8861943244379012e-01
      -3.4595819830707275e-01 3.6844116542760701e-02
      3.7432227690588057e-02 9.3501413564372485e-02
      1.3073441715535983e-01 6.8546654723231921e-03
      -1.1528275883255491e-01 2.8138176466996501e-01
      -2.3214472401985772e-01 7.5162201879756932e-02
      1.3561825941613534e-01 -8.0220563046522864e-02
      2.7695621331044051e-01 -2.8679047498673599e-01
      1.8177686269397456e-01 -2.3783917615635411e-01
      1.2075147554076782e-01 -1.0034391330199069e-01
      -1.2886616514223123e-01 1.5625237069611833e-01
      -1.0444323367726505e-01 -3.2657630135425902e-01
      -1.5969953646294549e-01 9.3053869951016083e-02
      -1.6057666495972805e-01 1.0838095019737854e-02
      1.0433008291368048e-01 -1.3873485303670078e-02
      7.9660473570557319e-02 2.5805657728289466e-01
      -7.9801605093972189e-02 3.7076055156540805e-01
      5.9780192695946241e-02 -3.9924862365920050e-02
      -9.2005982027258178e-03 4.9102583696882939e-02
      -2.1059346142247130e-02 -8.9342583896274363e-02
      -7.4224834463955017e-02 2.0143584239439366e-01
      4.3996882643707935e-02 7.5800434456478272e-02
      1.6688600150616611e-02 8.4797310202308143e-02
      -5.7579284525810424e-02 1.8214297496669166e-01
      -5.7667799852628189e-02 7.0665664639356404e-02
      -1.6833785060067422e-01 -4.6203577243938934e-02
      7.3300077129799843e-02 -1.4546534774123640e-01
      1.2401712779164405e-01 -4.0973813103781204e-02
      -1.2994870078444135e-01 5.8117051404380955e-02
      -9.8966849422402303e-02 2.3018999993409967e-02
      1.2728459408705575e-01 -1.8333887697478995e-01
      1.1537294088090499e-01 -1.4957255966411559e-01
      -1.2488438226077699e-01 9.4819970767044584e-02
      -3.1267840214782246e-02 -4.1155604997272804e-02
      8.7096872663172675e-02 2.0987120991061734e-02
      7.9345742537478198e-02 1.9782658892624810e-01
      2.5669561886806216e-02 -2.1872821991673796e-01
      4.9350314973815521e-02 -2.6580834782811945e-02
      3.3038508169961085e-03 6.6396863838985590e-02
      -3.1081643816203638e-02 1.4980126128298543e-01
      -9.8589212426159936e-02 -6.6053815257140491e-02
      6.9798755400999501e-02 -5.3992718174585230e-02
      1.8532605459902395e-02 4.6716994645729489e-02
      -1.1475815635343845e-03 2.8807271639809961e-02
      1.1186348627721777e-01 1.7166486790969895e-01
      -2.2252449100121658e-03 6.2279738496519979e-02
      4.2996451133553791e-02 3.6004224193258832e-01
      6.2590953504273544e-02 -1.1446004437859385e-01
      6.4502192815335369e-02 -2.7488802987550665e-01
      -1.4086173165497537e-01 -5.1259620616057114e-02
      1.1218182333360660e-01 -3.0122629284319508e-01
      2.2575079483083149e-01 1.6884489346836182e-01
      1.4307879109921987e-01 -3.5594896975200752e-01
      1.2114807385911133e-01 -4.9612608528443305e-02
      -4.1260223362804417e-02 -9.7720635812879320e-02
      -1.2213962815109355e-02 -1.9477126365929334e-01
      -1.6573024204866869e-02 -7.4451685966375220e-02
      -5.1097969560879962e-05 7.2649563146496926e-02
      -6.2926409502836551e-03 1.5194063872324573e-01
      -9.9199470717183713e-02 3.7539382943621309e-02
      3.2604218016618489e-02 2.3018314593043371e-01
      1.0123289146212047e-01 -3.0597707608367535e-02
      -5.6150959465347428e-02 1.9978470217390146e-01
      -1.9268151928326283e-01 2.6171946080080768e-03
      -1.0814191225863073e-01 1.1909766606154777e-01
      -1.8312423160663785e-01 3.9245738055010977e-02
      8.9826232560037897e-02 -2.1130905425828694e-02
      2.0057765921788526e-01 1.4683237261369131e-01
      8.8978554161744203e-02 -1.0109486524183579e-01
      -2.1755657109077758e-01 4.8167080051421111e-02
      8.6410928946307072e-02 2.0060624411772723e-02
      8.8595973844083187e-02 1.5884329585525656e-01
      6.5351738948497912e-02 1.6424805039000033e-02
      1.2891194482403438e-02 -8.4800039857696796e-02
      8.4237648235711948e-05 -1.7317427951310176e-02
      -1.3068906134221590e-02 -1.5924459628243939e-01
      3.4254722023846634e-02 -7.9390134502634296e-02
      -7.0719427866144484e-03 2.9151701329922807e-03
      4.7553844868897001e-02 -2.3697279621403965e-02
      1.7055863587476981e-02 1.5403031643202025e-01
      -4.1971000005324678e-03 2.8747110663812336e-01
      1.7439849253964251e-01 -4.8056275284292603e-05
      -7.4868505775369423e-02 1.2040101693520842e-01
      -7.1146504055650803e-02 -3.9909505247299977e-02
      -5.6815081101001738e-02 -1.1125026429281806e-01
      1.1224772743585096e-01 5.4004327728794113e-02
      -2.5023182666417513e-02 9.9811417675960204e-02
      -2.8712168723563376e-02 -1.5253330839915788e-01
      -1.4290840855049119e-01 1.7996928204254672e-01
      -1.6862193554372869e-03 1.1903081336121335e-01
      -8.4690388220921578e-02 1.2309204048331153e-01
      -4.7315620258825533e-02 -1.0738693086709675e-01
      -3.4818540108195524e-02 5.3434772173305334e-02
      9.8871096851708820e-02 -5.2131251214248053e-02
      -7.8477221276767838e-03 -1.5295131325974320e-02
      1.1846252006962937e-02 -8.3790510712155847e-02
      1.1437735476860470e-02 3.2446651780944852e-01
      4.5125862133008088e-01 -4.3598674368753580e-02
      -1.7733401446807254e-01 3.7817348879769785e-01
      -3.6439981402784899e-01 -2.1274027213434898e-01
      -2.7482594631426860e-01 5.5779486923169941e-01
      3.0954657046755779e-01 1.0472515594491022e-01
      -1.9293715937219055e-01 3.8462172554533580e-01
      -2.4906759431650924e-01 -2.9064446006693573e-01
      1.2739115816284816e-02 -1.4557676381957405e-01
      -1.3688062697990849e-01 1.4878663613186109e-03
      2.6865049415945474e-02 -1.3276584712889933e-01
      2.9728455279736391e-02 1.8324930049697935e-01
      -4.3218796239193134e-02 -7.2174599949759874e-02
      -1.8778479959101155e-01 2.8380384174362585e-03
      -2.2880495021522368e-02 -2.0925230972644696e-01
      7.8146236741387598e-02 1.4381606745601084e-02
      -1.7537133469452324e+00 8.4065333733388503e-01
      -5.6285710768002728e-01 -4.8509083377017775e-01
      -3.6246975987800251e-01 1.6486102909837235e+00
      -1.3420475852310554e-01 -9.2727741631703309e-01</_>
    <_>
      -1.9257911954042506e-01 -6.7905448456496231e-01
      8.4933339042807132e-01 -2.3014756742021161e-01
      2.0986222182982012e-01 -1.3096416825660693e+00
      -3.0053993786197664e-01 -5.7430011206533564e-02
      -1.8433343423732887e-01 -6.5698769341092178e-01
      -5.4824108540343142e-01 -3.2375151006170633e-01
      -4.7033817573034920e-01 -3.0985168491158938e-01
      1.6128915415532227e-01 -1.7876938739238785e-01
      2.5402999371149004e-01 -3.1139067213937766e-01
      1.2777912559966813e+00 2.1669154122642857e-02
      1.8865502129087355e-01 9.5901652450154773e-01
      9.8684866991813558e-02 -2.7372502193723725e-01
      6.9476874323056520e-02 -8.8272714356742762e-02
      5.4334886792956938e-01 3.0517864874136127e-02
      1.4129000492161142e-01 -5.1860394538230870e-01
      1.6945001970464658e-02 -9.3884230525132617e-02
      4.2072338055482461e-01 1.3094398366564430e-01
      7.6230485350837252e-01 2.6004180928794862e-01
      1.2406349890582946e-01 -5.8145862331446518e-01
      4.7201057368013355e-01 -3.4989875543507376e-01
      -1.8434020704787318e-01 -9.6928163085000396e-01
      1.9955645421797166e-01 -4.3286885949363924e-01
      -3.7193085460410735e-01 5.0046720164850633e-01
      4.4913284322003831e-02 -2.6551293457821196e-01
      -3.7531939525988300e-01 -8.0766071933804073e-01
      8.3827744868281029e-01 -3.8917975894953138e-01
      1.9693535117009162e-01 8.5306632850821990e-02
      -6.0477196403287925e-01 1.1352617073989320e-01
      -3.8237120639085509e-01 -6.7091382107267450e-01
      -5.6510273776299580e-01 -4.5538655319754084e-01
      -4.3403246323590355e-01 1.5611766826945119e+00
      -2.6334896936003899e-01 9.5486793319109503e-02
      -2.1963322605985433e-01 1.9075518130507976e-01
      -9.8527189856544151e-01 8.8207869890973095e-02
      4.9811033112042210e-03 1.3845637990487809e+00
      -9.8456570386958575e-01 -1.2817299785235411e-01</_>
    <_>
      -8.2747473812345030e-03 -1.0537331744379894e+00
      -1.0263586773638498e+00 -1.0039191101397797e+00
      7.3720488953672991e-01 -4.3380203415518120e-01
      7.2843972008984259e-01 -9.8475749497238418e-01
      -5.2453821113458476e-01 8.3870635181245001e-01
      3.4646269380636757e-01 -8.5238395899304631e-01
      -1.3578982543910506e-01 -3.0071911234353144e-01
      -4.8456725287866081e-01 -3.0002944759142169e-01
      -9.5714824505113172e-01 -4.9932620853741028e-01
      5.0676106265834375e-01 4.6770313211476716e-01
      -7.6646120784912786e-01 -4.1486502051692387e-01
      1.6979802468496141e-01 -1.9830305002523488e-01
      -3.1740790902901905e-01 -4.6964815593164622e-01
      4.0248078086973788e-01 3.1910768538322976e-01
      -1.0790641558436056e+00 1.3482444796959949e+00
      9.4150863487324032e-01 2.0650610390152452e-01
      -1.4545816457160268e-01 1.0958952776877202e-01
      7.0843551849434541e-02 -2.7636263241373804e-01
      -2.2890918116914860e-01 1.6342822922293007e-01
      7.6879613383336021e-01 6.1553632894980936e-01
      4.2902375410035010e-01 1.3933712092888137e-01
      2.3030229865403395e-01 -1.4129922951974469e-01
      -4.8032203261444661e-01 1.9585769383987311e-01
      -1.6403419596713967e-01 1.1269384854355391e-01
      -7.0358628284557162e-02 -1.4568177434069576e-01
      -9.9716920841723719e-02 -6.9465569529848459e-01
      1.9984791251704306e+00 -5.6753663866308646e-01
      -3.2159539289102751e-01 -3.5821537018312788e-01
      -3.3034458892663499e-01 3.9350297430760428e-01
      5.1895256302201542e-02 8.6047249911183718e-02
      3.6751420716504152e-01 -2.2132708129427547e-01
      -3.6536171152083552e-01 4.8130619260094917e-02
      3.9258341825563153e-01 1.7836547780002371e-01
      2.8609992052663696e-04 1.0347032503148541e-01
      4.5477799234450039e-01 -1.0083473370852314e-01
      1.1485532251583848e-01 3.0160430233739582e-01
      4.2053999636674992e-02 -9.5930666759951003e-02
      -1.3788991396423064e-01 -2.9970313652188590e-01
      6.5684554433149356e-02 -1.5167978785527378e-01
      -1.2700141504860745e+00 -1.2278363087575114e-01
      -8.6885370225177316e-01 4.0812180915252655e-02
      -2.6922405517382508e-01 -1.3198185153417821e-01
      -4.4488335366077318e-02 1.4146994598371768e-01
      1.4129702401773608e-01 -7.4836739163136312e-01
      -7.8554639427600459e-01 5.4111911202953156e-01
      -4.9119618741044757e-01 -6.2542904378734510e-01
      -7.8458230399593409e-01 1.8111457228925731e-01
      2.2000014666938761e-01 2.7398531169264534e-01
      5.8058023340769238e-01 -9.4357390096061167e-01
      6.8396681239609514e-01 2.9680812770973292e-01
      -5.8629431181492231e-01 -5.4070966016079580e-01
      -2.5976603804322929e-01 7.6234385376998615e-01
      1.9171997940345745e-01 4.3504327974547119e-01
      8.1903059552803303e-02 6.1432384682353813e-01
      -4.9799515851408960e-01 -4.1231323167087480e-01
      -3.7654494694272328e-01 2.9700569063182480e-01
      -3.8547441560159712e-01 5.9824740010016841e-01
      1.1134120509593999e+00 -7.1905176414642946e-02
      -8.7157144057223168e-01 -2.0135073543092621e-01
      4.7607870221244070e-01 -2.2584050394952229e-01
      -4.4638053263903582e-01 4.0669819517363387e-01
      -4.6710339078042640e-01 -2.5372441181645705e-01
      8.7011087159907075e-02 8.9069970583862637e-02
      5.9046267615693138e-01 1.1082829441498236e+00
      3.8765216491501903e-01 6.3117187175846279e-01
      1.5789196138856262e-02 -1.4153762061424628e+00
      -3.1111405607984249e-01 1.0145606376199332e+00
      7.5717874375774830e-01 -3.1887562380793433e-02
      -5.2073672929699263e-02 5.0466608264851907e-02
      -2.0812536060432426e-02 -1.7797040761921149e-03
      5.2500319922241183e-02 3.6441076802156219e-02
      -7.1382683428637822e-02 -1.9646083183563551e-02
      3.0244476825286696e-02 -2.9976578642822802e-03
      -1.0989976583357802e-02 5.1168135842177394e-02
      -4.2093624194348651e-02 -6.7299826718652450e-02
      4.3109200171536396e-02 3.2646029201317490e-02
      2.1801223405923068e-02 7.3674614314572326e-02
      2.2678924078489239e-02 7.1796589159521640e-02
      -1.9288797991826284e-01 5.4739987071835527e-01
      -4.3610519313359258e-01 -5.2118181347902437e-01
      1.9124405622174179e+00 6.1817021061724997e-01
      -2.2680201436094657e-01 5.8899965003517740e-01
      6.3944814591183097e-01 2.7891371125074210e-01
      4.5387757921781796e-01 -7.2284299351275685e-02
      -3.2113134423863759e-01 -3.8853851917255280e-02
      3.9295326672765363e-01 -5.7026908821215028e-02
      7.3773374333315089e-01 2.7654432409615554e-01
      3.7512943392321897e-02 5.7923076309218680e-01
      3.1555615269784010e-01 -2.8463224705519913e-01
      3.9956131885732038e-01 5.9367139679441761e-01
      7.9723616858589985e-01 7.2842544206052973e-01
      -3.1467065956838580e-01 -4.1879084930472760e-01
      1.5600434787401276e-02 7.4642451410196720e-01
      -1.2834873087647531e+00 7.2410525795012370e-01
      4.9675115409733012e-01 -1.1509622106484457e-01
      7.4197662490447736e-01 5.7076415993324392e-01
      9.9175976668144900e-02 -6.4016276982758380e-01
      -2.3563854418131297e-01 -3.8503384033065219e-01
      -3.4378933096718950e-01 -1.6045672265030667e-01
      5.7051203131881922e-01 -1.7655819934478267e-01
      9.2650132018019604e-01 1.1156605878205348e+00
      -4.8082364253068596e-02 -7.3636089585609055e-01
      2.2276194455307657e-01 -9.1170993713929963e-02
      5.9461565215257139e-01 5.2477193735615124e-01
      3.6207914608251540e-01 -5.0762382988707555e-01
      -1.0221777584175582e+00 -2.6134401072920022e+00
      -1.5665451899362135e+00 5.0211366749871111e-01
      8.3129556656377557e-02 1.6512432879461569e-01
      4.8690218659048123e-01 2.6437604171429657e-01
      1.5819101452222997e-01 -2.3840817401469772e-01
      -4.7496938440001260e-02 -3.4518712966530439e-02
      9.1018793049129562e-02 -5.6178081112516112e-02
      4.8240910612542925e-01 -4.3551602563369632e-03
      2.5553862985736542e-01 6.4548561821060513e-01
      4.3444835849780296e-02 -3.4640597515814470e-01
      2.0932458505810056e-01 1.4394971735401441e-01
      4.6231945201626606e-01 2.9243557221552557e-01</_></weights></opencv_ml_ann_mlp>
</opencv_storage>
