<?xml version="1.0"?>
<opencv_storage>
<opencv_ml_ann_mlp>
  <format>3</format>
  <layer_sizes>
    576 32 16 8 26</layer_sizes>
  <activation_function>SIGMOID_SYM</activation_function>
  <f_param1>6.6666666666666663e-01</f_param1>
  <f_param2>1.7159000000000000e+00</f_param2>
  <min_val>-9.4999999999999996e-01</min_val>
  <max_val>9.4999999999999996e-01</max_val>
  <min_val1>-9.7999999999999998e-01</min_val1>
  <max_val1>9.7999999999999998e-01</max_val1>
  <training_params>
    <train_method>BACKPROP</train_method>
    <dw_scale>1.0000000000000000e-03</dw_scale>
    <moment_scale>0.</moment_scale>
    <term_criteria>
      <iterations>128</iterations></term_criteria></training_params>
  <input_scale>
    1.1064957198997968e+01 -1.7938700879589391e+00
    1.8681616971558501e+01 -1.9002101971713767e+00
    1.6705714892772637e+01 -1.9557080282130148e+00
    1.6086113117818901e+01 -1.5564924586608668e+00
    1.1068238901855638e+01 -2.3135212536441028e+00
    1.5538955274678731e+01 -1.5413323821219971e+00
    1.4854178674771157e+01 -1.7938104838830695e+00
    1.6093965801954958e+01 -1.6756065071578767e+00
    1.0920099131522349e+01 -1.7667920045702332e+00
    1.1291073059850573e+01 -2.0465103486035603e+00
    1.5981613066770478e+01 -1.9619556198123647e+00
    1.3882275738964925e+01 -1.9662447958287321e+00
    1.2799121187213565e+01 -1.5019727460898882e+00
    1.1145194878682858e+01 -2.2111021269280893e+00
    1.4573826877821924e+01 -1.5836270416755946e+00
    1.4943672032692156e+01 -2.0027190277699289e+00
    1.5854667736088693e+01 -1.8569327915454603e+00
    1.1348460523377183e+01 -2.0113733671844254e+00
    1.2952964363839218e+01 -1.9293329546430968e+00
    1.5036451952928108e+01 -1.8236554921118540e+00
    1.4531513016228310e+01 -1.9978080468391426e+00
    1.5019530361356752e+01 -1.7102340065718578e+00
    1.1907347614614670e+01 -2.6120320432153092e+00
    1.5108552314052467e+01 -1.6817377895983412e+00
    1.4140636200536212e+01 -1.9028925933514369e+00
    1.4608242021303873e+01 -1.7336748510947195e+00
    1.3007967478328627e+01 -1.9081484243595868e+00
    1.1987935271183400e+01 -2.1619818209300341e+00
    1.1943174694571706e+01 -1.8523249250819753e+00
    1.1509630691773143e+01 -2.0008015341478980e+00
    1.1113046144526209e+01 -1.6164408664035776e+00
    1.1140754188022633e+01 -2.3856736445042412e+00
    1.2863085534346700e+01 -1.7081442479315225e+00
    1.3873388947705946e+01 -2.1842570953597149e+00
    1.3998832553247357e+01 -1.9424876859308422e+00
    1.2741855587922947e+01 -2.1912076937912217e+00
    1.0372588740630670e+01 -1.7244575288344151e+00
    1.3810429613120082e+01 -1.5705253881306365e+00
    1.5611608842240962e+01 -1.6010595350308947e+00
    1.6468547913835220e+01 -1.2930661234144454e+00
    1.1168598316625696e+01 -1.5431685585996335e+00
    1.2979593377127848e+01 -1.1116041158879735e+00
    1.3124154494583665e+01 -1.3334942578252560e+00
    1.4661748010374209e+01 -1.3844332489229096e+00
    1.0361237387165726e+01 -1.6014932328424214e+00
    1.0170979953575726e+01 -1.9609766531029695e+00
    1.1795752975402559e+01 -1.5519140083741938e+00
    1.2951403144230603e+01 -1.4882316218093905e+00
    1.5693498499804965e+01 -1.2990122024820376e+00
    1.1035982509733531e+01 -1.5362520121069090e+00
    1.3438793021865648e+01 -1.1665281424199814e+00
    1.2701125313417981e+01 -1.4019652535726728e+00
    1.4066117074746655e+01 -1.5351622606897324e+00
    1.0692718986970862e+01 -1.8894427539068566e+00
    9.8764243352500802e+00 -1.9655798584905628e+00
    1.0067182478344238e+01 -1.7472411654015398e+00
    1.1735196326615444e+01 -1.7723584986809000e+00
    1.4419929878555740e+01 -1.5219211653494000e+00
    1.1253615132778886e+01 -1.7228075401553311e+00
    1.2175380235923518e+01 -1.3087414165321076e+00
    1.2261306252348774e+01 -1.5583273470965584e+00
    1.2323511714409301e+01 -1.5481898557022280e+00
    1.0630732452345633e+01 -1.8610028573404003e+00
    1.0121000481045080e+01 -2.2694003621280623e+00
    9.5467103102574864e+00 -1.7776643586676868e+00
    1.0212060266564830e+01 -1.6349561295970407e+00
    1.1757449648731983e+01 -1.3643832479130629e+00
    1.0335799295742991e+01 -1.6061851298645973e+00
    1.1821577563844915e+01 -1.3682559767593983e+00
    1.1645794483348764e+01 -1.6798890871294700e+00
    1.1174032504851850e+01 -1.7035107213770451e+00
    1.0670657027494492e+01 -2.2066907752054221e+00
    9.5079260204701104e+00 -1.6747983993745414e+00
    1.1706750022348224e+01 -1.3464793641048720e+00
    1.3829701944932870e+01 -1.3348712716115470e+00
    1.5932436893241999e+01 -1.1774583752789343e+00
    1.1509455651215275e+01 -1.4148242341742980e+00
    1.4864520196848227e+01 -1.1182866443409769e+00
    1.2090497129828762e+01 -1.1747506941096237e+00
    1.2803141505710993e+01 -1.3244421802561357e+00
    9.4223194600289393e+00 -1.6390362216754839e+00
    9.3901671802892022e+00 -1.7027434230760048e+00
    1.1226363709418139e+01 -1.3471728627698951e+00
    1.2233067226630046e+01 -1.3147689579011093e+00
    1.3797060643969777e+01 -1.1533700625477608e+00
    1.0280707308465297e+01 -1.4105618737649253e+00
    1.0578501198460046e+01 -1.0138371224246685e+00
    1.0147368980247952e+01 -1.1627885021212241e+00
    1.0458382203999536e+01 -1.2819039121756561e+00
    9.7777756646286829e+00 -1.7483795612649706e+00
    9.4682192333865860e+00 -2.0376160870873190e+00
    1.0489428529121128e+01 -1.6035143391227515e+00
    1.2194454477805657e+01 -1.5195350207195255e+00
    1.4226604738622196e+01 -1.2911568191181131e+00
    1.0659399888462644e+01 -1.4344852962540851e+00
    1.1919230421638092e+01 -1.1678437033422056e+00
    1.0432598071137706e+01 -1.3429323697252613e+00
    9.7657530431824409e+00 -1.4547223763076662e+00
    9.2432475889857582e+00 -1.8769173488270314e+00
    9.4279598477884949e+00 -1.9256206748657920e+00
    1.0350829979368147e+01 -1.5391497945960644e+00
    1.1442941005635500e+01 -1.4848029793338553e+00
    1.2791173769667063e+01 -1.2883541389380715e+00
    1.0570531794440720e+01 -1.4845704308523815e+00
    1.2453770823077065e+01 -1.2785746648085297e+00
    1.0620685112658920e+01 -1.5136992931615265e+00
    9.9510514281293965e+00 -1.6372572876930338e+00
    9.3703946488665650e+00 -1.9023518595649764e+00
    9.9846545961328275e+00 -1.6062750761917375e+00
    1.0559693644962428e+01 -1.3414673422361008e+00
    1.1928860042346052e+01 -1.3575510870907579e+00
    1.3231102964039618e+01 -1.1709550286770698e+00
    1.0474835799987277e+01 -1.4417605976123768e+00
    1.2395674733536680e+01 -1.1357420694141378e+00
    1.0777887987763711e+01 -1.2736564127238523e+00
    1.1929886858664435e+01 -1.3785014750675528e+00
    1.0871402438286996e+01 -1.7122828620326991e+00
    1.0166142174734333e+01 -1.7235845813327604e+00
    1.0371394647088616e+01 -1.3965847163630165e+00
    1.1564631712517853e+01 -1.4394845748691516e+00
    1.3068003104524317e+01 -1.2741686122563516e+00
    1.0364276266135677e+01 -1.5937256393624948e+00
    1.1626844536989077e+01 -1.1201021665327302e+00
    1.1306289223605837e+01 -1.3092739582430435e+00
    1.1718641532753562e+01 -1.3544798430160652e+00
    1.1176245658921895e+01 -1.7952836489262385e+00
    1.0284441711030341e+01 -1.8324854071173104e+00
    1.1041900416181683e+01 -1.5748185829434460e+00
    1.1706190403148621e+01 -1.5072796550023313e+00
    1.2720828609865540e+01 -1.3195461246598492e+00
    1.0155871230425452e+01 -1.5309654595515299e+00
    1.0940120935749800e+01 -1.2363348264147778e+00
    9.6648739155841614e+00 -1.4186750144223526e+00
    9.4104628283097504e+00 -1.4806081084031362e+00
    9.7443374208970504e+00 -1.7816823247408411e+00
    1.0368691342505743e+01 -1.8394364566325030e+00
    1.1174324655187775e+01 -1.6342662482025854e+00
    1.1423543210817130e+01 -1.5685089348904389e+00
    1.2497467140051079e+01 -1.3901662745942502e+00
    1.0366480321338868e+01 -1.7131525530344887e+00
    1.2309833893515021e+01 -1.3864269375256857e+00
    1.0729409212641352e+01 -1.5680750480650714e+00
    1.0134809420356351e+01 -1.5570121318268484e+00
    1.0466014337844150e+01 -1.8601166818174273e+00
    1.1503660046786395e+01 -1.4432100894938271e+00
    1.5590852372453982e+01 -1.5689203906692244e+00
    1.4622186260956688e+01 -1.6161518866794293e+00
    1.4899766213583069e+01 -1.4408324951939311e+00
    1.0662017112616025e+01 -1.8423929025833627e+00
    1.4400027646225917e+01 -1.3155529489111268e+00
    1.4138356722635070e+01 -1.3823033744373212e+00
    1.4509556118016427e+01 -1.3422835793453833e+00
    1.1552530026078369e+01 -1.3953979984025342e+00
    1.1281922462003291e+01 -1.8490551063883931e+00
    1.2177264601982731e+01 -1.8422345280976038e+00
    1.1554291069546618e+01 -1.8202192828661354e+00
    1.0332236438805062e+01 -1.4670536769006675e+00
    1.0014597916176513e+01 -1.8538688532081868e+00
    1.1542686156615030e+01 -1.4176855138529565e+00
    1.2035746084962112e+01 -1.5503723025848373e+00
    1.2481760579895006e+01 -1.4995904757565275e+00
    1.1075719237755143e+01 -1.7065744388765178e+00
    1.0043803137443915e+01 -1.4980108107654690e+00
    1.2698522248402242e+01 -1.5651861602268051e+00
    1.3166448443258062e+01 -1.7143340592574710e+00
    1.3409418711822029e+01 -1.5249923136371142e+00
    1.0942302820479185e+01 -2.1165035280052811e+00
    1.4406760747225304e+01 -1.5305515379574555e+00
    1.4407837882671888e+01 -1.6217493301447459e+00
    1.3668400257108107e+01 -1.4837592758630014e+00
    1.0232229431843439e+01 -1.4709274475423451e+00
    1.0100250606181735e+01 -1.8986776942375534e+00
    1.0677695996169838e+01 -1.8341873122996524e+00
    1.0511090089928512e+01 -1.8251441459228896e+00
    9.8032017321104359e+00 -1.5334103779223955e+00
    9.7415386581643677e+00 -1.9321690165030088e+00
    1.0256805186639948e+01 -1.5410548462232614e+00
    1.2001787509057275e+01 -1.7718497206323944e+00
    1.2541163351767715e+01 -1.7797659360502720e+00
    1.0244547044255969e+01 -1.8354959848252710e+00
    1.0175341334107392e+01 -1.7398219962542443e+00
    1.0950192154514506e+01 -1.6013584807738799e+00
    1.0982206907410935e+01 -1.4587717001131884e+00
    1.1869210976303904e+01 -1.3776374993975338e+00
    1.0570302495368312e+01 -1.3978630799382037e+00
    1.1490574443312500e+01 -1.2459951932430051e+00
    1.2657548616355809e+01 -1.4193983032572877e+00
    1.2170095681280582e+01 -1.4976019410396322e+00
    1.0184416445870184e+01 -1.6803738165150082e+00
    1.0860313403743623e+01 -1.8270144884116726e+00
    1.1171687009188721e+01 -1.6302196328299596e+00
    1.1475430327495658e+01 -1.5477106853275460e+00
    1.2541075924222651e+01 -1.4695830126903366e+00
    1.1011170906961697e+01 -1.5169775598757191e+00
    1.1846815676713641e+01 -1.3602219116935270e+00
    1.2109942537798716e+01 -1.5404342501133714e+00
    1.2140689945906667e+01 -1.6633828421127865e+00
    1.0747355890345816e+01 -1.8142610576573606e+00
    9.9472812795620893e+00 -1.7800357057830203e+00
    1.0939355203742128e+01 -1.6323989605719356e+00
    1.1720776824108965e+01 -1.5290268134435889e+00
    1.2467154031351406e+01 -1.4571982733369111e+00
    1.0759878144065658e+01 -1.4839528751091511e+00
    1.1684313701905516e+01 -1.3523927696601017e+00
    1.2457935735781076e+01 -1.5263397416185760e+00
    1.2081144417281868e+01 -1.6361133130689347e+00
    1.0295104239672803e+01 -1.7952164702505460e+00
    1.0210462616209108e+01 -1.7834804388422287e+00
    1.1299241881569660e+01 -1.6779560427026015e+00
    1.2089638131095580e+01 -1.6345912602673756e+00
    1.2032905558102554e+01 -1.4679700346425497e+00
    1.1033090517652621e+01 -1.5783166674364519e+00
    1.1618193145511878e+01 -1.4284076011432811e+00
    1.2296972284118700e+01 -1.6589432799241557e+00
    1.2248460596451983e+01 -1.8072184163394609e+00
    1.0567082864056502e+01 -1.8680572378687441e+00
    1.1478924342077606e+01 -1.6157236874622494e+00
    1.2296265369259938e+01 -1.4903675133849614e+00
    1.2590862633570092e+01 -1.4603252926803751e+00
    1.3066930471452123e+01 -1.4422740490733534e+00
    1.1041970726467882e+01 -1.6289056251432890e+00
    1.0985649321495698e+01 -1.5473788176581784e+00
    1.0524438594653402e+01 -1.7051408168931286e+00
    1.1465116457117929e+01 -1.7068084321374737e+00
    1.1752505636720327e+01 -1.6931235525757566e+00
    1.1335204662945264e+01 -1.5610205408632714e+00
    1.2368534950931908e+01 -1.4465526172839767e+00
    1.2040838383901237e+01 -1.3896107435793723e+00
    1.1697563200308897e+01 -1.3356837974160416e+00
    1.1321880952154640e+01 -1.6105662097769631e+00
    1.2272001885639506e+01 -1.5783523193420104e+00
    1.1139715892858053e+01 -1.6945372438360604e+00
    1.1190992725008073e+01 -1.6189482788045313e+00
    1.1559937671622647e+01 -1.6003609821172331e+00
    1.1833811049632123e+01 -1.7718655580180771e+00
    1.1754331081597327e+01 -1.6411531151014189e+00
    1.1829871350407767e+01 -1.6472232620223870e+00
    1.2262545811227163e+01 -1.6075033816805919e+00
    1.1395165711800344e+01 -1.8305822302565138e+00
    1.1127837843953307e+01 -1.6750890404706089e+00
    1.0889859638964490e+01 -1.8594672137426547e+00
    1.1813368649351526e+01 -1.8432067786026884e+00
    1.1955262002668228e+01 -1.8179901063252377e+00
    1.1690006256357204e+01 -1.6915300891955558e+00
    1.1417719898783840e+01 -1.5471515748801408e+00
    1.1023191202914161e+01 -1.5220147284469405e+00
    1.1360147033763869e+01 -1.5020899014723188e+00
    1.1440382346156412e+01 -1.7984386328866577e+00
    1.2039529738974034e+01 -1.7310187129099510e+00
    1.0823085146078286e+01 -1.8074023274415665e+00
    1.1234824573763902e+01 -1.7295583847170228e+00
    1.1759398063105847e+01 -1.7436635789883799e+00
    1.0623763050494469e+01 -1.4011605066751474e+00
    1.0645805488160342e+01 -1.2631458315678623e+00
    1.1290905063659373e+01 -1.3709238533887844e+00
    1.1434932550164538e+01 -1.3349670193347007e+00
    9.9472700294006096e+00 -1.5635649149872815e+00
    1.0513547282338941e+01 -1.3861755110435621e+00
    1.0782392791370494e+01 -1.5209759915975929e+00
    1.0683095479943967e+01 -1.4341302556867970e+00
    1.0768514011656519e+01 -1.4960834141348116e+00
    1.0740989530729587e+01 -1.4751626097362898e+00
    1.0678894088125999e+01 -1.2583859951765139e+00
    1.1859632410949683e+01 -1.3698298402882394e+00
    1.1364233821503257e+01 -1.3350043974434693e+00
    9.8552496143414654e+00 -1.7056613118068864e+00
    1.0118351020124843e+01 -1.3707708156378675e+00
    1.0700460670353289e+01 -1.4693061567462957e+00
    1.0208191498213433e+01 -1.3562051064861249e+00
    1.0552525451910375e+01 -1.5237875337499263e+00
    1.0799663885554155e+01 -1.5142600051850903e+00
    1.0996209448739998e+01 -1.4822339792838730e+00
    1.1087223756478005e+01 -1.6075927247703583e+00
    1.1364859559980443e+01 -1.5658778738564940e+00
    1.0012318237667968e+01 -1.6901391421948506e+00
    1.0786481583619414e+01 -1.4452037186023965e+00
    1.1095773603596768e+01 -1.5262097920698365e+00
    1.1399219635529349e+01 -1.4602556337441766e+00
    1.1210691804780952e+01 -1.5587653964231802e+00
    1.0215846419651347e+01 -1.4712673884655130e+00
    1.0416223753504934e+01 -1.3723673647306649e+00
    1.1653902850676285e+01 -1.5574810288702070e+00
    1.0890094713889948e+01 -1.4533054658997748e+00
    9.8812287657337414e+00 -1.7732291829583546e+00
    1.0545429185903540e+01 -1.4272938887858273e+00
    1.1563201055324056e+01 -1.5425729857546684e+00
    1.0841048090975656e+01 -1.4258900800062635e+00
    1.0350574451238977e+01 -1.5063630285109746e+00
    1.0451738525446654e+01 -1.5360023190546754e+00
    1.3585859422069491e+01 -1.4624761095963505e+00
    1.4974714406568568e+01 -1.6249011710420995e+00
    1.4411212954466951e+01 -1.4972384732440791e+00
    1.1059110049467312e+01 -2.0677258678876798e+00
    1.3659806591255313e+01 -1.5633218791590180e+00
    1.3838282406985060e+01 -1.6389420999576221e+00
    1.1961402512676576e+01 -1.4444791041925966e+00
    1.0238402262953661e+01 -1.5617058587902752e+00
    1.0204697326927741e+01 -1.8120999342566793e+00
    1.3337032127120048e+01 -1.7852593893219000e+00
    1.3142815776620475e+01 -1.7457234171258766e+00
    1.1231961947499999e+01 -1.4802156921091019e+00
    9.4488509749061809e+00 -1.7745317235712887e+00
    1.0151215896745025e+01 -1.5091796282650263e+00
    1.1031139182333172e+01 -1.6911261497094510e+00
    1.1018565419104670e+01 -1.6316879794335899e+00
    1.0151015325471580e+01 -1.7913522730126155e+00
    1.1004533420627556e+01 -1.5326438794454356e+00
    1.3449902852159124e+01 -1.4121853156706947e+00
    1.5182229455228754e+01 -1.6057196830892593e+00
    1.4896746364670777e+01 -1.4756259922786181e+00
    1.1126596300222626e+01 -2.0721033386422403e+00
    1.2974535422769526e+01 -1.5308667085193561e+00
    1.4220492437683628e+01 -1.7356510052592111e+00
    1.3708411353752116e+01 -1.5968310693955918e+00
    1.1485358434753953e+01 -1.6339499345283623e+00
    1.0973365547108322e+01 -1.8182020856134458e+00
    1.2187313321086966e+01 -1.6131080615081042e+00
    1.2779689213971810e+01 -1.6819331596363749e+00
    1.1682645543006807e+01 -1.4703013551136876e+00
    9.7458525577921282e+00 -1.8586684390847530e+00
    1.0208588941220452e+01 -1.5480468397700473e+00
    1.1343434163507457e+01 -1.7818471719443236e+00
    1.2562416817743060e+01 -1.8431630320205417e+00
    1.1027069470634437e+01 -1.8916244999945917e+00
    1.0076342741285186e+01 -1.7939720635117307e+00
    1.1881840423478298e+01 -1.6345338766803703e+00
    1.3242163392246677e+01 -1.5407264377726220e+00
    1.2670628294712460e+01 -1.4057136862543973e+00
    1.1039340758892408e+01 -1.5714027664629664e+00
    1.1661427314100843e+01 -1.4272710437041762e+00
    1.2204300913686634e+01 -1.5441386505079513e+00
    1.2250491315766865e+01 -1.6550084705745491e+00
    1.0262745674331882e+01 -1.7603969781136939e+00
    1.0289461642168563e+01 -1.8001171909176457e+00
    1.2120115293898108e+01 -1.7121157620563576e+00
    1.2434757648745867e+01 -1.6659907146415001e+00
    1.1838656500277951e+01 -1.5399100844867186e+00
    1.0934485523121079e+01 -1.6920836785685764e+00
    1.1712351722265051e+01 -1.5906168535891585e+00
    1.2067572692595991e+01 -1.7325787836471007e+00
    1.1514575636654492e+01 -1.6673930960129539e+00
    1.0118297031995551e+01 -1.7699743402580728e+00
    1.0759598568038587e+01 -1.7509206817992573e+00
    1.1514620454984017e+01 -1.5177520761605208e+00
    1.2691692362728304e+01 -1.4743347688624411e+00
    1.2631128835884633e+01 -1.3720950130190470e+00
    1.0685731170994572e+01 -1.5236310723841191e+00
    1.1308821360113724e+01 -1.3638535633426498e+00
    1.2199073091196547e+01 -1.5041965830254369e+00
    1.2909868302648178e+01 -1.6400893582669389e+00
    1.0957635689709075e+01 -1.7658019422345883e+00
    1.0744124697683368e+01 -1.8020370733181945e+00
    1.2143758051139853e+01 -1.6586874238554752e+00
    1.2404622242309346e+01 -1.6028949063436324e+00
    1.1844258349378192e+01 -1.4977281989476876e+00
    1.0583719352129686e+01 -1.6707038410440513e+00
    1.1504044070922331e+01 -1.5214318546909935e+00
    1.2005314427848495e+01 -1.6469195281349533e+00
    1.2004976577119432e+01 -1.6764761231086125e+00
    1.0793123098424132e+01 -1.8178323277730233e+00
    1.0875716597830161e+01 -1.5756644056120321e+00
    1.1404569739335312e+01 -1.5966881552107355e+00
    1.0885765166206834e+01 -1.6623566862042962e+00
    1.1603831836945851e+01 -1.5916153680888270e+00
    1.1451806543311434e+01 -1.7465956208847699e+00
    1.1871106049054234e+01 -1.4884379050649255e+00
    1.2018716241608804e+01 -1.5926180368206091e+00
    1.1745253441449753e+01 -1.5458091940568468e+00
    1.0906944744106706e+01 -1.5572409759913801e+00
    1.1016127454005192e+01 -1.6345860536497014e+00
    1.1594359833340013e+01 -1.7159183008251671e+00
    1.0038653834962943e+01 -1.6503438258444005e+00
    1.1606685029128052e+01 -1.6262816717959965e+00
    1.1717395472295312e+01 -1.7961248593024084e+00
    1.2070209356645801e+01 -1.4519722295104318e+00
    1.1812515687420344e+01 -1.4803568863384917e+00
    1.1241280151925926e+01 -1.4498381068191735e+00
    1.0882005540468313e+01 -1.5486412799748559e+00
    1.0763613428150677e+01 -1.6688235381018621e+00
    1.1396749488969125e+01 -1.7200099770972823e+00
    1.0121178918971983e+01 -1.6382001639231742e+00
    1.1482685236967372e+01 -1.5701166135909732e+00
    1.0997564419977671e+01 -1.6486208953715613e+00
    1.2176083815120805e+01 -1.4025918461574973e+00
    1.2594159198480414e+01 -1.5041640274257169e+00
    1.2371687238727374e+01 -1.5306859245536408e+00
    1.0812476689621155e+01 -1.5830773799186311e+00
    1.0680619539619462e+01 -1.6249789023461445e+00
    1.1188928694170194e+01 -1.7619464610391853e+00
    1.0017065012061650e+01 -1.6813654629957815e+00
    1.0855826166630205e+01 -1.5586505441170255e+00
    1.1141168428497078e+01 -1.6749259718430756e+00
    1.2109606634907591e+01 -1.3705251663275757e+00
    1.2444780502997590e+01 -1.4171113159410549e+00
    1.2244307254630812e+01 -1.4196288193636126e+00
    1.0726775922244959e+01 -1.5209460568939679e+00
    1.0117429656207374e+01 -1.5897861923540750e+00
    9.8882316163729360e+00 -1.5393446843981180e+00
    9.2386893168940567e+00 -1.4368787407069279e+00
    1.0206651176293269e+01 -1.3255052062959014e+00
    1.0323239990409290e+01 -1.5192696819048883e+00
    1.1492257385629687e+01 -1.3065549477955640e+00
    1.1560810569019685e+01 -1.4003992816600843e+00
    1.1718873102019755e+01 -1.4381509544518725e+00
    1.1009347092907921e+01 -1.5806080749979556e+00
    1.0452762721472578e+01 -1.6608077375113923e+00
    1.0261266576888946e+01 -1.5379669668382041e+00
    1.0066771313405559e+01 -1.4403875314315677e+00
    1.1483878024982191e+01 -1.3809822380585068e+00
    1.0286659304796009e+01 -1.7301378564590999e+00
    1.0839102045921569e+01 -1.3406127805973946e+00
    1.1163440020769727e+01 -1.4037024676779020e+00
    1.0953220264611016e+01 -1.3855895193915739e+00
    1.1143358716122879e+01 -1.6394233793913546e+00
    1.0708133571734523e+01 -1.5519830627874776e+00
    1.0215259414022013e+01 -1.5254124206026192e+00
    9.9439133880239456e+00 -1.4857073307498017e+00
    1.1354822803388689e+01 -1.3277377532710315e+00
    1.0641420396685712e+01 -1.5134445032909110e+00
    1.1753660478956752e+01 -1.2498123262048062e+00
    1.1350272809916964e+01 -1.3580584090704551e+00
    1.1805124627729612e+01 -1.4026036146836218e+00
    1.1379657376076100e+01 -1.5456751762467771e+00
    1.0538110222238320e+01 -1.5775927328273345e+00
    1.0541630729478893e+01 -1.4428942208340234e+00
    1.0401692913453136e+01 -1.4254680493231144e+00
    1.1345046768043723e+01 -1.2875360322794178e+00
    9.8932867424990434e+00 -1.6712455407249849e+00
    1.1362866560336631e+01 -1.3466701133762797e+00
    1.1338126627798911e+01 -1.4519567929948396e+00
    1.1360971499647517e+01 -1.4333945136472057e+00
    1.0782201086091431e+01 -1.5988097149608111e+00
    1.1815836350628940e+01 -1.7372786693285809e+00
    1.4594973793395940e+01 -1.6056280289792346e+00
    1.4444447321624018e+01 -1.6895645459996043e+00
    1.6099379488914586e+01 -1.5766871296677312e+00
    1.1331325577745364e+01 -2.2610772030350232e+00
    1.3761788994290345e+01 -1.5751902107857645e+00
    1.3990536985987864e+01 -1.8898695723736934e+00
    1.3318123437985012e+01 -1.7214297003923280e+00
    1.1780808807676983e+01 -1.7884576364290463e+00
    1.1949194946956812e+01 -2.1067652001369304e+00
    1.3679397671368479e+01 -1.8552290240088776e+00
    1.3676090798853805e+01 -1.9155833031968050e+00
    1.3529483810514748e+01 -1.5765774728469717e+00
    1.0947794038367492e+01 -2.0847267909363119e+00
    1.1716395157749488e+01 -1.5613124788815591e+00
    1.1744154179672833e+01 -1.9126043510613993e+00
    1.1495829070117646e+01 -1.8290759831845291e+00
    1.1599248085091212e+01 -2.0936220810124300e+00
    1.0774360328832334e+01 -1.8597226786106236e+00
    1.4461237134973965e+01 -1.5676201655542206e+00
    1.3970675282170719e+01 -1.6578870904036127e+00
    1.4590470097499868e+01 -1.4644700774525488e+00
    1.1303489883297567e+01 -2.2435240100040978e+00
    1.4601690997052728e+01 -1.5192034940027557e+00
    1.5834275980471226e+01 -1.9420222167690298e+00
    1.4997708934486871e+01 -1.7236101170651874e+00
    1.0989097110597243e+01 -1.9193558915615130e+00
    1.1667234114323573e+01 -2.2359354286091171e+00
    1.4056978358187793e+01 -1.7821013880032708e+00
    1.3660340727466032e+01 -1.8311290115015717e+00
    1.3194412751394719e+01 -1.4766316168720859e+00
    1.1216767621667712e+01 -2.0733329238114653e+00
    1.2208832328579785e+01 -1.4667514713750802e+00
    1.3558789745679025e+01 -1.9424054339141605e+00
    1.3288076755105557e+01 -1.8152522133083036e+00
    1.1825617702401892e+01 -2.2926301273657033e+00
    1.0082196852536221e+01 -1.8582196540533973e+00
    1.0958059939567907e+01 -1.4886002194200407e+00
    1.2101018217495403e+01 -1.4907742712834753e+00
    1.3877646734338123e+01 -1.3014880754817160e+00
    1.1192051838376740e+01 -1.5943974412341968e+00
    1.3051236408958415e+01 -1.3059517894065793e+00
    1.2490811228159377e+01 -1.6438566719372962e+00
    1.0430819385965762e+01 -1.5814905474211107e+00
    9.7640463978812111e+00 -1.8781010052087430e+00
    1.0316997865146300e+01 -2.0500445963700726e+00
    1.0950311779284794e+01 -1.6606999537471299e+00
    1.1978101724169115e+01 -1.6134217733281557e+00
    1.3667662861370891e+01 -1.3898521063569604e+00
    1.1101497586116066e+01 -1.6567749276677946e+00
    1.2762646426343553e+01 -1.3565190876723827e+00
    1.1088423008605638e+01 -1.5622419705300366e+00
    9.6885086425109552e+00 -1.5600193146060048e+00
    9.8163760120393686e+00 -1.9559547178724384e+00
    1.0779658515536820e+01 -1.9152904590303939e+00
    1.2127710095658768e+01 -1.4523176996833713e+00
    1.2775973431028097e+01 -1.4710321687562071e+00
    1.3776977467527184e+01 -1.2453371845979659e+00
    1.0943382631300715e+01 -1.5839444556714355e+00
    1.3541348894284855e+01 -1.2330575558586170e+00
    1.3271819902751970e+01 -1.4785726565037431e+00
    1.3164293032429326e+01 -1.5285227271631781e+00
    1.0999123475224186e+01 -1.9430543093910113e+00
    1.1148482456044560e+01 -2.0975088894624934e+00
    1.2432574251363445e+01 -1.6071301648436129e+00
    1.2533619811653727e+01 -1.5436484589498534e+00
    1.2914994128052708e+01 -1.2430494599763204e+00
    1.1156297666240375e+01 -1.6565548876857414e+00
    1.2916639226039498e+01 -1.2447363643793627e+00
    1.2149554807675965e+01 -1.5087821755038171e+00
    1.1630738184469658e+01 -1.5630969454847421e+00
    1.0978307817320255e+01 -2.1061128948628713e+00
    9.8829506044473572e+00 -1.8664739711694567e+00
    9.2521037757654980e+00 -1.5680444507324349e+00
    9.4365814560954036e+00 -1.5224246507811248e+00
    1.1764602253960584e+01 -1.3104522702003765e+00
    1.0709835610914782e+01 -1.5542419289021772e+00
    1.4420438124622706e+01 -1.3479984750712011e+00
    1.3310341561473289e+01 -1.5335540737479321e+00
    1.1827041557856100e+01 -1.5636942163700358e+00
    1.0404283254234892e+01 -1.8388850423019598e+00
    1.0290760028872002e+01 -1.8139126724957244e+00
    1.0173092067874453e+01 -1.6354884608009073e+00
    1.0300419795372937e+01 -1.6275344179667912e+00
    1.2796540795063883e+01 -1.4031363454052821e+00
    1.1015288010625728e+01 -1.6148846633836214e+00
    1.3562253984488970e+01 -1.2960900735113370e+00
    1.2719798579992494e+01 -1.4399609648711746e+00
    1.2080556600259488e+01 -1.4582085657501092e+00
    1.0384224327102066e+01 -1.7009121489811498e+00
    1.0719325972650745e+01 -1.9831637123677810e+00
    1.1304979873197139e+01 -1.5342665260010626e+00
    1.1135706276837416e+01 -1.4662938306436344e+00
    1.3301318931800832e+01 -1.2640419260413958e+00
    1.0984280650592732e+01 -1.5911710812493027e+00
    1.3302702270139502e+01 -1.2259678694078309e+00
    1.3324277860488266e+01 -1.5027835171310049e+00
    1.2448671636756108e+01 -1.4937103892677839e+00
    1.0315131925297248e+01 -1.8470479043025678e+00
    1.0104255842807099e+01 -1.8402402621908465e+00
    1.2342399067331286e+01 -1.6096860025135853e+00
    1.1877182369595227e+01 -1.5462169360447946e+00
    1.2725307426888348e+01 -1.2891827617652543e+00
    1.0994436716177951e+01 -1.6625712041683192e+00
    1.2765540493353507e+01 -1.2547730255671263e+00
    1.2530676895361701e+01 -1.4602400193059526e+00
    1.1797385730206802e+01 -1.4207785357505649e+00
    9.8643823111256737e+00 -1.7464714188930028e+00
    1.0701348252588980e+01 -1.6659543148125373e+00
    1.1677630447824319e+01 -1.4768449798102912e+00
    1.1905787352859935e+01 -1.5278891816459088e+00
    1.2789626688870515e+01 -1.3500296301478325e+00
    1.0705973458970197e+01 -1.6598350156873531e+00
    1.3643265030640503e+01 -1.3793360083544557e+00
    1.2922361250210274e+01 -1.5594155177188636e+00
    1.2553216832462855e+01 -1.5035941689135330e+00
    1.0865061449266905e+01 -1.6455653883564019e+00
    1.0547154476672285e+01 -1.7431325594895122e+00
    1.1812665549825459e+01 -1.6308794591604614e+00
    1.1778863466353242e+01 -1.6716682421217892e+00
    1.1877852227170164e+01 -1.4338338432920552e+00
    9.4776174442047374e+00 -1.8320810543790611e+00
    1.3104527724529763e+01 -1.4808417775984553e+00
    1.2838676353220769e+01 -1.6510006639723751e+00
    1.2017776494094861e+01 -1.5336058910469117e+00
    1.0700503429061630e+01 -1.7117349904907369e+00
    1.0406678870915291e+01 -1.7845191871824497e+00
    1.2838334036226136e+01 -1.5450301116300365e+00
    1.2348380468353652e+01 -1.5941609667757715e+00
    1.2246010050356238e+01 -1.3236672166022783e+00
    1.0946467750690328e+01 -1.7825447791648428e+00
    1.3502323037847409e+01 -1.3882894138687809e+00
    1.3651861359499152e+01 -1.6409174883021400e+00
    1.3313456631243154e+01 -1.5399670070071687e+00
    1.0396695074892683e+01 -1.7841018125480075e+00
    1.0672699973141670e+01 -1.9247312328169532e+00
    1.2539341642331719e+01 -1.6317217492015574e+00
    1.1457192615386315e+01 -1.6264380884851446e+00
    1.0795393256026786e+01 -1.3547210309316888e+00
    9.6895968045608196e+00 -1.9156538697848740e+00
    1.2236848807733397e+01 -1.4590865152483221e+00
    1.2652501322865783e+01 -1.6886855518743102e+00
    1.2480875937863235e+01 -1.6167112633811644e+00
    1.0434848265192045e+01 -1.9077065908594135e+00</input_scale>
  <output_scale>
    5.2631578947368418e-01 4.9999999999999994e-01 5.2631578947368418e-01
    4.9999999999999994e-01 5.2631578947368418e-01 4.9999999999999994e-01
    5.2631578947368418e-01 4.9999999999999994e-01 5.2631578947368418e-01
    4.9999999999999994e-01 5.2631578947368418e-01 4.9999999999999994e-01
    5.2631578947368418e-01 4.9999999999999994e-01 5.2631578947368418e-01
    4.9999999999999994e-01 5.2631578947368418e-01 4.9999999999999994e-01
    5.2631578947368418e-01 4.9999999999999994e-01 5.2631578947368418e-01
    4.9999999999999994e-01 5.2631578947368418e-01 4.9999999999999994e-01
    5.2631578947368418e-01 4.9999999999999994e-01 5.2631578947368418e-01
    4.9999999999999994e-01 5.2631578947368418e-01 4.9999999999999994e-01
    5.2631578947368418e-01 4.9999999999999994e-01 5.2631578947368418e-01
    4.9999999999999994e-01 5.2631578947368418e-01 4.9999999999999994e-01
    5.2631578947368418e-01 4.9999999999999994e-01 5.2631578947368418e-01
    4.9999999999999994e-01 5.2631578947368418e-01 4.9999999999999994e-01
    5.2631578947368418e-01 4.9999999999999994e-01 5.2631578947368418e-01
    4.9999999999999994e-01 5.2631578947368418e-01 4.9999999999999994e-01
    5.2631578947368418e-01 4.9999999999999994e-01 5.2631578947368418e-01
    4.9999999999999994e-01</output_scale>
  <inv_output_scale>
    1.8999999999999999e+00 -9.4999999999999996e-01
    1.8999999999999999e+00 -9.4999999999999996e-01
    1.8999999999999999e+00 -9.4999999999999996e-01
    1.8999999999999999e+00 -9.4999999999999996e-01
    1.8999999999999999e+00 -9.4999999999999996e-01
    1.8999999999999999e+00 -9.4999999999999996e-01
    1.8999999999999999e+00 -9.4999999999999996e-01
    1.8999999999999999e+00 -9.4999999999999996e-01
    1.8999999999999999e+00 -9.4999999999999996e-01
    1.8999999999999999e+00 -9.4999999999999996e-01
    1.8999999999999999e+00 -9.4999999999999996e-01
    1.8999999999999999e+00 -9.4999999999999996e-01
    1.8999999999999999e+00 -9.4999999999999996e-01
    1.8999999999999999e+00 -9.4999999999999996e-01
    1.8999999999999999e+00 -9.4999999999999996e-01
    1.8999999999999999e+00 -9.4999999999999996e-01
    1.8999999999999999e+00 -9.4999999999999996e-01
    1.8999999999999999e+00 -9.4999999999999996e-01
    1.8999999999999999e+00 -9.4999999999999996e-01
    1.8999999999999999e+00 -9.4999999999999996e-01
    1.8999999999999999e+00 -9.4999999999999996e-01
    1.8999999999999999e+00 -9.4999999999999996e-01
    1.8999999999999999e+00 -9.4999999999999996e-01
    1.8999999999999999e+00 -9.4999999999999996e-01
    1.8999999999999999e+00 -9.4999999999999996e-01
    1.8999999999999999e+00 -9.4999999999999996e-01</inv_output_scale>
  <weights>
    <_>
      3.4024396226246416e-02 3.2789131467788377e-02
      3.5026868562094096e-02 -4.2032296334611641e-02
      1.9278517094724838e-02 -5.3597554212978814e-02
      7.0351980990033050e-03 2.0027742597532143e-02
      1.5306596225607035e-02 2.3642134093401816e-02
      1.3582291177406842e-02 2.4248107748210217e-02
      5.6889452252268137e-03 1.1827278408757927e-02
      -3.9121723546238475e-02 -2.9382330201571119e-02
      -1.4418995359555441e-02 1.4070534640755434e-02
      1.2726591384825972e-02 2.4187657422702711e-02
      -3.7836728979756727e-02 -1.7377917907273343e-02
      2.7333844415270345e-02 2.0637224330260717e-02
      -1.7909416580801491e-02 2.4360221222621378e-02
      -1.9858575303117857e-02 -8.7755816991259387e-03
      -1.1650920640135749e-02 2.5346627235985086e-02
      -2.0720262421807124e-02 -1.0862848376111509e-01
      1.6444126773088825e-02 4.9067119181804772e-02
      -5.4538874031840781e-02 -1.3092260601423933e-01
      1.6187574859046587e-02 6.6566135680742522e-03
      6.2250255069154686e-02 1.2863624990232629e-02
      2.7453713818246597e-02 -5.9165291940449220e-02
      -1.0972869138803666e-02 2.8495582145337726e-03
      1.5502913941458727e-02 3.1189746200010540e-02
      -1.5811024808167307e-02 3.7064431406741774e-02
      9.1962089217757625e-03 -1.3311378059840664e-02
      -1.7019296701417566e-02 5.6871577519531723e-02
      -4.9479743476282027e-02 -4.2656095690246462e-02
      2.8670705954053455e-02 -7.0225194668618364e-04
      -2.4703369682030709e-02 -3.2635093776042533e-02
      -6.1661315805640368e-02 -2.6909095818829561e-02
      -4.4626499474182790e-02 -5.0197666474059190e-02
      -2.8268885668546542e-02 3.5421816609814444e-02
      1.7862929061413846e-02 4.8141685320113363e-02
      -3.6834174567487048e-02 -2.5853414329509876e-02
      5.5511549709693752e-03 1.3293862037329466e-02
      -2.1529811012764598e-02 1.0601470714474438e-02
      2.6656841461925936e-02 -8.9419747069649710e-02
      6.0276472274173468e-03 -1.4034456431375710e-02
      7.1726784543055594e-03 -1.0255645343219466e-02
      7.5987601773622624e-03 6.2169136134856695e-02
      -2.9238590485834708e-02 4.5295872086286160e-02
      3.6639999784116160e-02 4.0549085219379159e-03
      3.5583039075197588e-02 1.0348439324552398e-02
      3.4539146309775699e-03 5.3404759412144830e-03
      3.1649192413727739e-02 -1.4858155301258081e-02
      5.3507525918312926e-02 -3.0146798184462263e-03
      -6.2778033288512142e-02 -3.6446900070282247e-03
      -1.9848893579501189e-02 8.0454157704852883e-02
      1.4614455771065991e-02 -2.1255174809781719e-02
      -1.7496521662070764e-02 -1.7340676474655495e-02
      1.8145875466499633e-02 -6.8494707685959810e-03
      -2.4169462189760755e-02 -9.9083088609930835e-03
      2.9985869020288350e-03 1.8797029692149768e-02
      -2.6860149083683619e-03 -7.9460216135236374e-03
      4.2665178722474210e-03 -5.7469838562003508e-03
      -6.4722126613543061e-03 4.1923448597660347e-02
      -3.2722771340426226e-03 2.2577546350164790e-02
      -1.4162911776713319e-02 -5.4008307464153152e-02
      -3.4208206437425864e-02 -2.6276834454065222e-02
      -4.6578327470275682e-02 -1.3346930378298479e-02
      1.8249266240064763e-02 -1.5269454275109071e-02
      -2.5318865683237820e-02 2.7120929387044117e-02
      -3.7550697000891427e-02 -2.0044693368130653e-02
      2.9753652656083023e-02 2.4674143266527601e-02
      -2.1177071783678451e-02 3.5321131235573178e-02
      6.0993689393521091e-03 8.6339674773983494e-03
      -5.3769030227268387e-02 5.6166704323751697e-02
      -5.0515145285115359e-02 -3.5356652426645541e-02
      -5.9738736756362650e-03 -2.2660162599049176e-02
      -3.6741640854007586e-02 -3.2229634562721189e-02
      2.9715572264563051e-02 -4.6472605228628791e-03
      -6.3722404107699046e-03 -2.2822994441082010e-02
      -2.7558835263157062e-02 1.1566082678716512e-02
      -5.5908542368384592e-02 1.3211751959575229e-02
      2.8880132738271638e-02 3.3443457163845211e-02
      -1.5839169906169317e-03 -2.0657899109075336e-02
      2.2364687480018568e-02 -3.2972836394419822e-02
      3.7620603261956945e-02 -2.0822063380561513e-03
      -6.4378542240738898e-02 -7.8071530302570649e-02
      4.0680033772912787e-03 6.5353952171821147e-02
      2.2976897531376793e-02 -7.1995296590199223e-02
      4.5438444249899776e-02 -4.5317615984790862e-03
      8.2266277764773722e-03 -3.0259689166431424e-02
      5.2550480160797525e-02 1.4642580913954583e-02
      -2.9327176424784215e-02 7.1264293843387658e-02
      1.8771339343252071e-02 6.3497328278081175e-03
      1.3845740559854833e-02 2.4489562199090754e-02
      -4.2859343358728832e-02 -2.9353990652061332e-02
      -1.7810262673591336e-02 3.7587228172068471e-02
      1.2678009730886309e-03 -5.3821858003973343e-02
      -7.6628763035902388e-03 -6.3125225632293933e-02
      -2.2974915309911456e-02 1.2014145877332932e-02
      2.0940756593042635e-03 -3.5630438534139421e-03
      -9.9770081544478025e-03 1.6543296719769049e-02
      -2.1525191451166537e-02 -1.4682663759878894e-02
      5.1905709337782477e-03 -2.8154223883111885e-02
      -9.3739036375324828e-03 4.6839519708392993e-02
      1.3565534372695169e-02 3.1881260726970111e-02
      -2.3800917839298490e-02 1.4781129331344334e-02
      -3.5573056713798575e-02 -4.4258562248342133e-02
      3.3008575150928490e-02 -6.3510688697354422e-03
      3.2138920615369074e-03 2.7761576356193519e-03
      3.2266752944698252e-04 -1.7700409807451415e-02
      8.6746838804463693e-03 1.2952674923849645e-02
      5.5997600493744759e-04 -5.0365145846264442e-03
      3.7133765052208161e-02 6.5288117809484568e-03
      1.1405527846481658e-02 -4.8503505495793163e-04
      -1.4606973714310527e-03 -3.7281335574404707e-03
      8.0287451943370381e-03 4.9798604881789416e-02
      3.2132381878086778e-02 1.6445782143913564e-02
      3.7307661302758685e-02 2.6047873065384128e-02
      1.5397454791113208e-02 -1.4195828139160796e-02
      1.6165780233752394e-02 5.3851305017874246e-02
      1.4288986571252167e-02 2.3223809898706232e-02
      -1.0532830117725669e-02 8.0300876130172706e-03
      3.6274144169384771e-02 2.9497047654027087e-03
      -1.4819329814806367e-02 2.3005420029703013e-02
      1.5572209090157024e-02 -2.5074769879730703e-03
      2.3535226295162252e-02 2.0659499393393312e-02
      1.6297990607113341e-02 1.0131012270712468e-02
      1.4911949987420623e-02 4.3615132866960593e-03
      3.2633778630677374e-02 4.3089859490612562e-03
      -2.2735988346943282e-02 -4.4453237161808552e-02
      -2.5289349637893893e-02 7.7368938006472654e-03
      -1.7913093901180612e-03 2.0346046496097802e-03
      -1.9126269106413498e-03 9.2931731358132010e-03
      4.3087090348516025e-03 8.2379144204352012e-03
      -4.5165418960099240e-03 -2.3517424200925292e-02
      3.8372264459638830e-02 4.4383998141567398e-02
      5.5141093646081302e-02 2.8615686442538393e-02
      2.7007425894934826e-03 -7.1639330139423432e-02
      -3.0560437252072796e-02 -6.0020752783688687e-03
      -1.8798371362515786e-02 4.9762918870802447e-02
      1.5026353657011885e-02 3.4228900280913008e-02
      1.4375454807297097e-02 4.8449009350982298e-03
      -1.3290501749648236e-02 2.1309194156922416e-02
      -2.6060180868004008e-02 5.3650733572048824e-02
      -7.1285646857804788e-03 -2.6724641373536570e-02
      -4.1501859584886031e-02 -1.9108102242980065e-02
      -4.9742743102162229e-02 1.7976745991465565e-02
      1.6880090650952428e-02 2.9835468328792813e-02
      -1.0393402507886747e-03 4.5317026367535825e-02
      -3.4276894236277909e-02 2.7751978038826189e-02
      -3.9575307031631925e-03 -7.6539683126449376e-02
      2.4506230411223365e-02 3.1473004878215763e-02
      3.3758217843863139e-02 -2.4365841788676065e-02
      1.4505439446355742e-02 -5.0711842497502907e-02
      9.9555461742353163e-04 -3.3993874601163042e-03
      1.7081134563480843e-02 5.1361340265839633e-02
      2.5777939031047551e-03 1.7502768568205623e-02
      9.1219916915816594e-03 1.2290537675256515e-02
      -3.8730389682410681e-02 -3.8430204206286074e-02
      -1.9202965558362498e-02 1.2169543672710444e-02
      -2.2060649377174384e-02 2.4010784402099087e-02
      -1.2316254432875238e-02 3.3096820374109055e-03
      1.0068262809268048e-02 1.5276675221537195e-02
      -1.9915125603701230e-02 5.0578083751610915e-02
      -2.1124573248108475e-02 -2.7772441188976902e-03
      1.1212349909006226e-02 3.0157677445763434e-02
      -2.7174597236319712e-02 -9.4388858460636563e-02
      2.8828565886782347e-03 3.2934772109209996e-02
      -5.1024448760274774e-02 -1.0892458241886714e-02
      2.1742262726339740e-02 -1.8566230293781301e-02
      -2.4385281590090725e-02 -1.9199160909903000e-02
      9.1683807668374973e-02 -1.0215860267884204e-01
      5.0600464555811148e-03 2.4564937445805804e-02
      -3.1257453257275199e-02 -4.3072693668311464e-02
      -9.3677006008634333e-03 5.6361573475226079e-02
      -2.0287503617289072e-02 1.5835957894652176e-02
      6.6323295616950535e-03 3.0116815816224749e-02
      2.0178213063508608e-02 5.5537325506272016e-02
      1.9704765832010689e-02 -4.3184429231956966e-03
      4.2511439093303452e-03 3.9403298059493878e-02
      2.6019686092591702e-02 -1.3325773116028283e-03
      1.7298027930628793e-02 6.9824141091451436e-02
      7.6700476282305034e-03 7.7435349203884563e-02
      1.0076535723982320e-01 -6.0834607418237346e-02
      4.1766178680669015e-02 -4.1939252695152855e-02
      1.5429811277173217e-02 -2.8207238048684399e-02
      8.7445462411347610e-02 7.0364943831351265e-02
      8.5130753639956998e-04 -6.9968060029327817e-02
      7.7835975754547426e-02 -2.2519786622397404e-02
      4.2608782800104009e-02 6.0248406993615097e-02
      -1.4951728335518950e-02 6.3653392825256620e-03
      -9.9142749655535250e-03 2.1101844757962115e-02
      6.1314039574955209e-02 -5.6276944504658151e-02
      2.9100369968280190e-02 -6.5782409077574613e-02
      -5.5210422064412297e-02 6.0027657647184422e-02
      -2.5711675963108048e-02 -5.2434997227950558e-02
      -1.1897559452607748e-02 -2.2069027376643513e-02
      -1.9993685219414421e-02 4.5662821871757457e-02
      -7.4617754341498588e-02 9.3232823722228478e-02
      3.7124191930048907e-02 -9.2284742763829170e-02
      5.1622270780335489e-02 -1.3294123003021515e-02
      3.7851118706066451e-02 -8.2256242760209972e-02
      7.1268588859126542e-02 2.5232204736331990e-02
      1.3860950570510504e-02 2.5772654934122792e-02
      2.3767437689466167e-02 -1.6198106862489837e-02
      2.5739539213144182e-02 3.0329760788236813e-03
      -1.9013315530431445e-02 -5.4232510867605242e-02
      -1.6319806519906235e-02 1.7178589942425364e-02
      1.6187283797182359e-02 -5.0787956084264937e-02
      6.1478442166951301e-02 -5.8946252500899883e-03
      -2.4183203708776222e-02 3.6286692308348488e-02
      -1.7056237676706169e-02 5.5038401995067422e-03
      1.3363390234788880e-02 -2.2495958475230567e-02
      -4.3180954062247770e-03 3.9906540726556694e-02
      -1.6390916880211565e-02 2.2508322843130268e-02
      9.9967654238856387e-04 -4.1588038990967732e-02
      2.1014611614973585e-02 2.7625860191634087e-03
      -7.1987199688500939e-02 -1.9793430469755061e-03
      3.0689362557989795e-02 -8.2047958852748529e-02
      5.6453065917615119e-02 2.5415074888817221e-02
      -3.3310076754424219e-02 3.0498159037798751e-02
      -3.2828980760486251e-03 -3.6316391746927787e-02
      -4.9135739967205473e-02 -4.3881055606302649e-02
      -3.4163381744401797e-02 2.3287575394377786e-03
      -5.1830770827556299e-02 3.9918953587941355e-02
      2.1669657406732441e-02 4.2276712497672217e-02
      -7.5124703044772249e-03 -1.2502873082772032e-02
      1.2865233059793840e-02 6.6186269483554008e-02
      5.9235989537634326e-04 -1.0720955430262413e-02
      -2.4967873069882348e-02 -1.9392183477714178e-02
      3.6253077919390225e-03 8.9735048457563665e-02
      -3.3135297856472685e-02 -5.2802893336174966e-02
      -7.3928273608616077e-02 -2.2194394006841336e-02
      4.8281019127355308e-03 3.4136170453686145e-02
      -1.4757610200366728e-02 -8.6170878665860380e-03
      2.0412092880716146e-02 -5.7013413599053505e-04
      -1.9624219576493550e-03 4.1615410645647402e-02
      -6.2758111267785285e-02 -3.3610959836457566e-02
      -2.5856746422021456e-02 4.6288593309021745e-03
      -2.4635434635261219e-03 -7.9917291500669497e-03
      1.6730674767709227e-02 1.5241061463193343e-02
      2.4154689608417466e-02 -1.0281869400041482e-02
      3.4079821721078485e-02 -3.2555527665821114e-02
      -7.5307934086901404e-04 1.5847816839803422e-02
      2.1437565501811386e-02 -2.4274370180571082e-02
      -2.8728267937735894e-02 -1.2717417043862556e-02
      3.3568566641060928e-02 5.0479516381225976e-02
      7.6530817459689749e-03 -1.3795863929158925e-02
      1.4765509682215874e-02 -5.6048144946682324e-02
      1.9374252422055819e-02 -1.6610474610844150e-02
      1.7434475542484579e-02 -5.1284839037452432e-03
      -5.5009275228640186e-03 -4.4568404984442235e-02
      -4.9601792502422587e-03 2.8158371327099006e-03
      2.3387385831700705e-02 3.8705658613249895e-03
      1.5046842522415367e-02 -1.7853021610806717e-03
      2.5025001922566605e-02 -2.4067232300040126e-02
      1.7401692664264615e-02 -2.0082658406910394e-02
      -1.5333573997432655e-02 -2.7422989445559588e-02
      -1.3541565476506063e-03 8.9848246060819197e-03
      -2.0926130080190876e-02 3.1900339758943963e-02
      -2.0878133194903597e-02 5.6715973274411762e-03
      1.4655361625693065e-02 -7.3373327505745220e-03
      -1.3126783219005494e-02 -3.4985612473367005e-02
      -4.2716671874288993e-02 1.7224140237364227e-01
      -4.2859584696699565e-02 -1.2307805529156281e-03
      -4.5964108754118237e-02 6.3218473929530700e-02
      -1.7856650114775802e-02 -1.2705774422243854e-02
      6.1791211708541953e-02 -2.0196575924564728e-02
      -8.4913093143872236e-03 -7.4545172269351685e-03
      -9.3665867806760807e-04 -7.2821988568664573e-03
      1.4009144488251120e-02 1.2861277009140144e-02
      -2.7351549070431264e-02 3.1686400183220836e-04
      1.5123118591547059e-02 8.8857985722442856e-02
      5.0584908558999289e-02 3.8629655918162913e-02
      2.2134790365159515e-02 -1.5935153790404078e-03
      4.1757746025980896e-03 2.8409966401645208e-02
      6.6331428929756797e-02 -5.8865794599533769e-02
      -3.0783818656642644e-02 -1.8446424726444699e-02
      -3.4146564038367827e-02 3.8046837577299417e-02
      -3.2614989293978214e-02 1.5649262300928285e-01
      4.7620487663572082e-03 3.6461134760191916e-02
      -3.5655551598319448e-04 1.5378298469815272e-02
      -6.8815955626601089e-02 -2.1135701522140005e-03
      -8.0459861799398093e-03 -4.7327827632821264e-03
      -2.8901667998766496e-02 -2.5409237910331246e-02
      3.1008746531322982e-02 8.1491115466721942e-03
      4.7952013898809119e-02 -6.0402000811550860e-03
      -1.4504376754551221e-02 2.1859480559770487e-02
      -2.0828264311929332e-02 -5.5519219390349464e-04
      4.6611298633406899e-02 3.2019686576607254e-02
      -2.4753020802278525e-02 9.2251455563505617e-03
      3.0539571176341460e-02 -1.1308809799366331e-02
      3.9927362652360125e-02 -2.5175637777115284e-03
      -4.7615439060630718e-02 -4.1932468176873121e-02
      -3.1575995302293526e-02 1.6360788679921248e-03
      -2.1094614204211538e-02 9.8624400927341385e-02
      -2.6659961600651694e-02 -2.9395935756283062e-02
      7.9519865334682673e-03 1.9702703917958805e-02
      -9.5390781604491173e-02 -2.0143692966856100e-02
      3.6716847846083957e-02 4.9751228253869300e-03
      -3.9495757271619830e-02 6.6040606473916613e-03
      9.2226453485468683e-03 -1.3103659501767133e-02
      1.8544328427940043e-02 4.0525981247729000e-02
      3.3090877490858624e-03 1.0701094990060179e-02
      -2.0996303525371348e-02 3.4466335599544082e-02
      -1.4093676343338109e-02 7.0531407787988434e-03
      1.4584653676539947e-02 -2.1085846887814778e-02
      1.1789766397647637e-02 1.8492846017404047e-02
      3.5210023275190037e-03 -9.3483670069123091e-03
      -2.7167057134921485e-02 -2.4799525235089510e-02
      -7.2321512477804325e-03 1.1916772167310995e-01
      -1.1791263475993925e-02 2.2614562932777044e-02
      -3.0048546698178295e-02 -2.1972973880975740e-02
      -1.4499719447447219e-02 -2.3063404256697034e-02
      -3.2801454359476581e-02 -4.2822023204029551e-02
      5.0055348665128729e-02 -1.3055053015603123e-02
      -1.7719161295676109e-02 4.9790291404782231e-03
      3.2033750843679697e-04 -6.1425884848253960e-03
      8.8753153645761643e-03 4.3385233494710330e-02
      1.6271962314480904e-02 -1.7361128167531017e-02
      -7.5048233325143796e-03 1.7823338910143302e-02
      -3.2032926327980077e-02 5.0845075094026952e-04
      -6.7949399847413094e-04 -1.4465321735317886e-02
      -1.2756343035883105e-02 3.7908256982377528e-02
      -1.7884765292548600e-02 2.4967605707334833e-02
      5.8442112467633200e-02 3.5086375263652714e-02
      2.4427805818238685e-02 1.5594520188660874e-02
      2.4849939258142405e-02 -2.3192798329892471e-03
      -2.7914396585026327e-02 -2.1994794536473589e-02
      -3.9029605499510511e-02 8.5336256384686664e-03
      1.8564803219456368e-02 -1.0121414065367391e-02
      3.3262777616769629e-02 -1.7661304790072745e-03
      -5.5559255509935518e-03 -1.3613739135096885e-02
      1.8738420820997203e-02 1.0473371852019407e-02
      -7.4145402792686445e-03 1.2949577269366429e-02
      -3.3947743930347932e-03 -1.3684728727113157e-03
      2.2759994457751064e-03 1.7872203705667604e-02
      -5.6084358290052179e-03 -1.2000173211589192e-04
      -4.0429983679008121e-03 -6.3592726302306004e-03
      -4.4902637153927715e-03 2.3188443600736956e-02
      -2.0595579318640257e-03 1.4731617031043366e-03
      4.0251096913229263e-02 1.5685312159663164e-02
      -1.4401187372342960e-02 4.7327602760168008e-02
      2.6724729048001165e-02 -3.4595774200942904e-02
      2.2381720414812990e-02 -1.7558001600362590e-02
      -1.3361436648522995e-02 -4.5353165572408038e-02
      9.5671602983708900e-02 -4.8136233636485023e-03
      2.1689502685200154e-04 3.9634640855490760e-02
      -3.1805794479068590e-03 -5.7399297189669157e-02
      4.8457940400967389e-02 2.7765904432088095e-02
      -2.5251162034357118e-02 -1.2608324156278635e-02
      -1.2736681976782583e-02 1.6414709476148776e-02
      -4.2233777035427279e-02 -5.0486953980267257e-02
      1.8201540069329506e-02 -1.1462363101888317e-02
      -3.1426991565324212e-02 9.2141727846275796e-03
      1.1677743848001261e-03 1.3366892463579316e-02
      -1.5649174805366796e-02 1.0870639542669423e-02
      3.3997036722715257e-02 -1.6868222464835759e-02
      -4.5252155994447646e-03 1.8095493338621510e-02
      -1.7139314845115737e-02 -3.6967408550097600e-02
      -2.6692535197332466e-02 -8.3851541351595560e-02
      -4.6868514956462000e-02 5.5462074627947236e-02
      3.3200589599467346e-02 -3.4706538009361278e-02
      2.6222249762764022e-02 1.5555635540826654e-03
      -4.7786114077874316e-02 -1.9589827322737913e-02
      8.2058693362087303e-03 1.6222916748773249e-03
      -5.7333041426726621e-02 -9.2033421328854295e-02
      1.8018846503024603e-02 -6.3190424677521978e-02
      -6.8614909087154743e-02 6.9125066416142411e-02
      -1.1661916116693392e-02 2.8800863384193222e-02
      7.9587728451796347e-02 -3.4221470711559517e-02
      -4.2192694242019914e-02 -1.0720986753587283e-02
      -4.6071798240789955e-02 -4.4594235435563047e-02
      7.5539003799607969e-03 -6.5779718792448941e-02
      1.8651523430490716e-02 -4.3021669958041499e-02
      -1.3729640955281850e-02 -5.6187392044118609e-03
      -3.8802335563986191e-02 1.3222128044708688e-02
      1.7704841992645642e-02 1.8181504429090400e-02
      -5.0026965784458484e-02 -3.2419193294021119e-02
      3.4804039623648489e-02 -2.8809008949076710e-03
      -1.1054917049208480e-02 2.9902038123616449e-02
      -4.9208936376076810e-02 -4.7942949695634458e-02
      2.0579334940959899e-03 6.1036997371654571e-02
      -5.6061236878036588e-04 1.6296491754809544e-02
      9.3779862593818559e-03 -3.1895456218237021e-02
      3.8491743216968765e-03 1.6837763125966011e-02
      1.5307300826634319e-02 -3.8894253490703475e-02
      1.3584461441022214e-02 2.6250406135849232e-02
      1.3391614399127946e-02 2.5705573148215529e-02
      -1.7415495658604244e-02 -8.4916304658789847e-03
      5.8169412209161414e-02 2.6103750755815509e-02
      2.2596503418863247e-02 2.2855179801655794e-02
      1.0233088328671289e-02 -3.8948280496070242e-02
      2.0915401740895810e-02 -2.9532398700902709e-02
      -4.4434179069867796e-02 -2.6207009975407147e-02
      2.7962271807079730e-03 2.6553075839763449e-02
      -3.8741527831221832e-02 4.1757390527824116e-02
      3.7747062398921167e-03 -2.1016693396060677e-02
      1.8381116066607976e-02 1.1666824343450757e-02
      9.8704022083228125e-03 8.0974954048106899e-03
      -2.2291370091007474e-02 -1.4448667155922924e-02
      -2.3959695447424201e-02 -7.9388963743330621e-04
      -7.2739927161716662e-03 -1.4083975632637396e-02
      1.0011419255807631e-02 4.2217676236668847e-02
      -1.5087956966607939e-02 2.8057585641882776e-02
      -2.8883562097039794e-02 -1.9573332062251925e-02
      1.7477434887433412e-02 -1.4948291117275992e-02
      -6.4665962315045818e-03 6.6830537594219627e-02
      -2.9097457875294462e-02 -1.8555888236523051e-02
      1.5650458160431639e-02 4.8587939384151325e-02
      -8.7449770899163028e-03 1.8113780822316392e-02
      2.9444537552521598e-02 -3.1275104995096635e-02
      6.8552849152857479e-03 -1.0937366536222994e-02
      -1.2274000021222668e-02 -4.4914939942584664e-03
      3.3898408960802547e-02 1.7440306543016197e-02
      3.4079367161822000e-02 -3.1834700224055233e-02
      6.1604285281339211e-02 3.9652961404712916e-02
      -1.7191328262565902e-02 -1.7550390956623061e-02
      2.4876978320445119e-02 -1.5481168349564058e-02
      -1.5717271500729640e-02 -1.1421900863993789e-03
      7.9329355166295017e-03 -1.3139169652639686e-02
      1.8473497190226579e-02 1.2650589969205856e-02
      2.2188351601571066e-02 4.1911102270617201e-02
      1.9301816386955627e-02 9.1286784375934557e-02
      6.2133776304703556e-02 -2.2281112716269171e-02
      -1.6521695163406059e-02 -3.5535692657517465e-03
      2.0062419111769786e-02 1.1863966639263326e-02
      2.5334295389208739e-03 4.5344204476237063e-02
      4.7412752303768752e-03 -4.4965150904933401e-02
      6.3090532935928742e-02 4.9464954527318493e-02
      -9.4574289705405875e-03 -1.6858235429613861e-02
      -1.5126676249748358e-02 9.6568499893984576e-03
      3.6320325182258892e-03 4.2015507566780463e-02
      -1.1432648114074058e-02 -3.1823713778665823e-02
      3.2786280235775414e-03 2.5139877008146662e-02
      -1.2902058846595470e-02 3.2298954681716251e-02
      1.1436250247562686e-02 -3.5755674279980915e-02
      2.0154091695842951e-03 -2.2042005006594444e-02
      -5.2147678241545307e-02 6.1298005168290613e-02
      -2.0230998198928287e-02 3.9463356707799017e-03
      2.5323228348345699e-02 2.0911014271076837e-02
      4.8963514123651970e-02 -5.6496467435454160e-02
      -8.5925141209931180e-02 1.7942094187262947e-02
      5.1251009186107669e-03 -6.2230601335268006e-03
      -2.2820478921051122e-02 -1.4092894267076706e-02
      3.5483963175539472e-02 -6.9062982334372599e-04
      3.7000382293565282e-02 1.9220597664724205e-02
      1.0934765580885953e-02 1.6737010808886614e-02
      -1.4134858858523745e-02 -2.5271831859946640e-02
      8.1336067472940424e-03 5.4936764814771652e-02
      5.2590914849782308e-03 1.9202576511292906e-02
      7.3756047311736746e-03 1.9026975733220070e-02
      2.2564686074293582e-02 2.4158786183578453e-02
      4.7438624832849642e-02 1.2136338764070085e-02
      -1.3887801358127606e-02 5.8798843842377366e-02
      -2.1848130043261471e-02 2.2220089310015269e-03
      -2.7760366754047413e-02 4.0864159819463799e-02
      -1.5663516323790577e-02 -8.9032010559045340e-03
      -9.3616429387599065e-02 -3.6519097585088658e-02
      2.6947219642350549e-02 5.2692788682631043e-03
      -5.0906100449567421e-02 1.7747662722892982e-02
      6.2639766346908963e-03 -1.3642484767099323e-02
      1.1540742314427034e-02 2.3622817206085459e-02
      -3.7031225711395099e-03 1.3701835536585556e-02
      -6.4923722468482353e-02 1.0046590601611423e-02
      -6.3128727203192363e-03 4.6083351636570589e-02
      -1.5881289067491772e-02 -1.4846790587642248e-02
      1.9816209547727160e-02 1.9640718495757475e-02
      1.1935230178207018e-02 2.2568870794243676e-02
      1.0706266813178076e-02 -2.1793635047691828e-02
      -3.7337047644534274e-04 6.1501078839291054e-02
      -5.3990862035019184e-03 -7.7874260389301205e-03
      4.0744338173132520e-02 4.7231022440389035e-02
      -3.6589136010656928e-02 -2.3037836450281922e-02
      9.2296078103991010e-03 1.0218464660900577e-02
      2.0705375502851158e-02 8.1569977112372870e-03
      5.7056997615686231e-03 -7.7043634913492767e-02
      7.0103902509956781e-02 3.5524495865137215e-02
      1.6127713647837556e-02 -3.3444294154475189e-02
      -1.9130805776772877e-03 -1.7278151201382902e-02
      8.1951943080391266e-03 -8.0645805294695325e-03
      7.7443372110362702e-02 4.6882706406401936e-02
      -2.6609249054886795e-02 2.6304856871879525e-02
      -1.3690326528109859e-02 8.8026517976804840e-03
      2.7951083405989313e-02 -1.6833459597138490e-02
      7.4076049647519071e-02 7.6926295471558071e-03
      -4.1641901829727837e-02 5.9806246380798636e-02
      -1.7699017463694171e-02 -3.5794421992479980e-02
      -3.3415291699534597e-02 5.6660952887868703e-02
      -3.2063478027628378e-02 -1.7155631643850502e-02
      -2.8473586512541674e-02 -4.8236033771491806e-02
      4.1410466675320778e-02 3.3204556826623877e-02
      -7.6788357746025680e-03 2.6238316315243395e-02
      -4.3205105710023485e-02 -6.0655450210671792e-02
      -5.3410083577444733e-03 2.6680795725243071e-02
      -5.6218176481300411e-02 4.4316192112118930e-02
      -1.2716444986143292e-02 -8.3777829718909586e-03
      6.2132967655322960e-02 7.7006124966276124e-02
      -3.6466947733038046e-02 -1.6584865232681129e-02
      4.1482696307472047e-02 4.8743567317685220e-02
      6.2188138482911375e-02 6.7262699828558297e-03
      -2.6480757331854766e-02 5.1412674417281701e-02
      2.2300350029119436e-02 4.0855337330231403e-02
      5.5416047985725338e-02 -1.2434227984689911e-01
      6.3594863157076770e-02 1.0202887466624176e-02
      -1.6342629529416928e-03 -2.9360335534837211e-02
      5.7556633785386530e-02 -2.6921864305106732e-03
      -2.2284495635653333e-02 -2.2081890476157287e-02
      2.2255358655875211e-02 -3.6150553304001007e-02
      3.3623256331527691e-02 1.8841277981538136e-02
      -5.3502008432229752e-03 -3.5982493110252776e-02
      8.1600101374521283e-03 -6.3144503551018777e-03
      6.0801642283902077e-03 -4.3541353343670118e-02
      1.3455737236767998e-02 -2.4399694897221737e-02
      -3.3000460283332693e-02 2.4010985412083657e-02
      -1.0520763362361725e-02 -1.3440730612049956e-02
      -2.9710947703628667e-02 2.5876790862390916e-02
      2.3269211373949741e-02 8.0224581711551383e-03
      -4.5444157915327261e-03 4.6102250328708072e-02
      4.1449055685419101e-04 -5.6630828473858480e-03
      5.0132951488354449e-03 -1.8793054637035938e-02
      3.5054025511110760e-02 -1.9070487605555853e-02
      1.8952628179285023e-02 3.6521149208454368e-02
      -2.8018668050047494e-02 1.2531240000684441e-02
      8.8056678682892093e-03 -2.5565882196201529e-02
      2.4463137795820010e-02 2.0539222434637933e-02
      3.0589139133305163e-02 -1.7372224311668134e-02
      2.7361793722930619e-03 2.2691372102792962e-03
      5.5184349002978614e-03 -5.8807959481784501e-02
      1.0159693445038888e-01 -2.2474481934075315e-02
      -1.9708921271695188e-02 2.2008421211652310e-02
      1.7053312505836838e-03 -2.0853623108114203e-02
      2.6334604593989563e-02 -2.0109257319038506e-02
      -2.8558016705877726e-02 -4.4139812784117743e-02
      -2.8900374555363869e-02 2.9508188446930612e-02
      -2.5752101261540660e-02 -4.8622848501117741e-03
      -1.3662133142800981e-02 3.5000383169081751e-03
      1.3968131553160871e-02 -2.6105247216105420e-02
      -2.6654536075999817e-02 -3.2980119049795899e-02
      2.5076455270312759e-02 3.9025398950531295e-02
      -2.7739294629611316e-02 1.7114003568764174e-02
      1.8289043069241766e-02 -2.1670286117422818e-02
      3.7839952538211305e-02 2.2023168769707512e-02
      2.1915143034227668e-03 -1.8760229224423445e-03
      -9.7834385265902490e-03 -3.2532928298159978e-02
      4.1138437087852142e-02 4.2732208896896051e-02
      -4.9301377552487188e-02 3.5928267732136857e-03
      1.5355974779571339e-02 3.9407050952991511e-02
      1.3494972295637177e-02 2.6565121294749305e-02
      -2.5977742970203319e-02 -1.1040371945933923e-02
      -5.7409487919878851e-03 4.4626093057422581e-03
      2.1726725402504327e-02 -6.0975842838464694e-03
      2.0513758586423660e-02 -8.4424039925678776e-02
      -3.6806619992036042e-02 -1.0023208074282981e-02
      9.9214652610591036e-02 -1.7661484611425106e-03
      6.9645564845846651e-03 1.2011091976308257e-01
      5.8911794536692938e-03 2.5431279663914057e-02
      3.5193169755542673e-02 3.7959222315292508e-02
      -3.7919005381607342e-02 -1.0535513227332987e-02
      6.2082943125402953e-03 -2.6973516011671278e-02
      -3.5215137516149679e-02 4.2961873851549065e-02
      -6.5039515263102560e-02 -2.4647231501289762e-02
      -3.3961196467528480e-02 1.6615116413005015e-02
      -3.5987024443823470e-02 4.8164929685791752e-02
      -7.4438600227500720e-02 -2.0573637008667035e-02
      -4.5095220905904867e-03 -9.6826913556568635e-03
      -5.0865505743118163e-02 -6.7613403513971770e-02
      -8.1566496540011312e-03 3.3778212504477087e-02
      -2.1984197917211586e-04 -4.8850924112698889e-02
      3.5186507334186296e-02 8.5413529553540861e-03
      -2.7567228397994990e-02 4.3921759083515546e-02
      5.0079901253207654e-03 -1.1192965569673320e-02
      8.1951498348439341e-03 -1.3636042572500885e-02
      1.4570112648502579e-02 1.2968640047171708e-02
      2.4279543714223504e-02 1.8884648840172977e-02
      1.5964786224801377e-02 -2.7220640855636505e-03
      2.0615014739815873e-02 3.1399533815596035e-02
      -1.8269596421290717e-02 1.7353762147179409e-02
      3.2994085491210620e-02 1.8450129175401325e-02
      -1.4071660692716053e-02 6.6393083155489663e-04
      6.7742246629912814e-03 -2.6372353043017223e-02
      9.9056617102730657e-03 7.0902375668835749e-03
      -3.1128216108475781e-02 -2.0799471656359921e-02
      -3.7854026270443847e-02 2.4227036171499954e-02
      -1.1590186392013584e-02 -3.2913595416802104e-02
      4.0376069642524770e-02 -4.7076022011331278e-02
      -3.0236226379326100e-02 5.4861686761004417e-04
      2.3878992370931676e-02 9.0491635749410437e-02
      -2.7194668422801289e-02 3.1667344156668692e-02
      -5.0829622695272433e-03 -1.7772201594842503e-02
      -1.2975349232298570e-02 -5.1380159201472424e-03
      2.1278636414959917e-02 -3.9655985156706028e-02
      -4.2605180696719792e-02 5.2856906454000756e-02
      -2.6129005522605331e-02 2.3893992969153968e-02
      1.3637404008168891e-02 -6.6989517462666690e-03
      -2.9304147870703786e-02 3.9114152498584832e-02
      -5.8878272079322093e-02 -3.6246310331088734e-03
      1.7638374388770924e-02 1.5657300087343094e-02
      -1.9793201735237692e-04 -5.1614704485953941e-02
      -1.1049838934991127e-02 8.8207049993577563e-02
      -3.1177291276624507e-02 -8.0653026032404141e-03
      -1.5690230800458557e-02 3.0500891190210169e-02
      -2.8077328475807333e-02 2.8875323215900778e-02
      3.0557915335440170e-02 -2.8116652388203975e-02
      3.2607877522082274e-02 -2.6434464936242977e-02
      -8.6807583501009259e-03 2.1437638675095454e-02
      -4.2088185609201287e-02 2.4168326351110402e-02
      -6.1899766938556724e-03 -6.2842082625986532e-03
      3.2093051685452539e-02 4.6209001258956182e-02
      1.6611488861174504e-02 -5.5980157188791988e-03
      5.4746700991687046e-03 -7.9031575198658891e-03
      -3.1741821634364620e-02 -3.2050506507520449e-02
      1.1933280103208883e-02 -4.0818243080970013e-02
      1.6270174834845889e-02 2.1854026413155519e-02
      -1.3438908698059670e-02 4.7103979727820551e-02
      7.5397162430449046e-03 1.1149526933055983e-02
      -3.6208578661112295e-02 -3.9137761576937005e-02
      -3.5016331694935211e-02 3.2275215098159310e-02
      2.9195990984521553e-02 3.9016641311657337e-03
      4.9881732662393548e-02 -6.1484364739928816e-03
      4.6736857347894178e-02 7.1982711519017525e-03
      -4.2636327874421190e-02 1.7529307896752493e-02
      -7.6826131169927966e-02 -1.7224979711846201e-02
      -1.1170019207488203e-03 -1.5260183255549859e-02
      6.9696929316124076e-02 7.3332512546708487e-02
      -2.8325099205150240e-02 -2.0319429865307395e-02
      1.1845297331525048e-02 -2.1833288426858624e-02
      -5.1299519646610031e-02 2.3357549209069399e-03
      -2.8905528922485563e-02 -3.9143524594504479e-02
      1.7853777054762137e-02 5.1190500037066745e-02
      -4.4854244035290539e-05 2.0187996846543741e-02
      -2.4663406954677728e-02 2.4237227504079847e-02
      2.1781689449867709e-02 2.4027733754264115e-02
      1.6866526466314161e-02 -1.4599679908271402e-02
      -1.4800084184272587e-02 2.5068831457035434e-02
      -1.4326771078147506e-02 -3.9274514189787578e-02
      2.5179764073613681e-02 -3.9960648288844207e-02
      7.3717970355013894e-03 1.8355060921411429e-02
      3.6888730421190397e-02 -2.5073699350928003e-02
      2.2295810356013938e-03 1.6674058953602123e-02
      4.6365297015545336e-02 -7.2006262139858182e-02
      3.4144275123103272e-02 -2.2957245680756657e-02
      -4.6427797101899156e-02 7.1954936346130260e-03
      8.8208379536024797e-03 -3.5712067761460652e-02
      1.1183989117254493e-02 2.7304548250221424e-03
      -6.7794529983705686e-03 3.8234222465071313e-02
      7.5112509779702956e-03 8.1201642297440951e-02
      -5.9936196096827127e-02 9.5932928912418794e-02
      -3.7981591633484057e-03 2.6591964133329277e-02
      -8.4399323692031878e-03 3.2900887945185822e-02
      -7.1195057571671258e-02 -4.8884285456486216e-02
      3.7064377434772734e-02 -1.3242483046365817e-02
      -2.5834216595222684e-02 6.5064891256881368e-03
      -1.0551099063916612e-03 -2.9467005900828791e-02
      1.7177449663998718e-02 -2.1738911316268032e-02
      -1.1827290100722726e-02 6.1154731888786781e-03
      4.2204678122847832e-04 -6.0114383949499521e-03
      7.5141636617824234e-02 2.8465979783504184e-02
      -7.0860217495638516e-03 -2.0720261124792715e-02
      3.0088868450791471e-02 -1.4759966468409385e-03
      4.0495463984176541e-02 -4.9480014064657669e-03
      -1.3859658420731004e-02 -4.3406810852271403e-03
      2.2048128461976790e-02 8.4387690992556288e-02
      -2.7511728769789103e-02 -2.8086016912254794e-02
      -2.5369596205233436e-02 2.2191219930021648e-02
      -4.2830757186622138e-02 1.4075877803853106e-02
      -5.0849176021723709e-02 -4.2680379051191389e-02
      -8.7120666438931203e-04 4.7415408763942943e-02
      1.1424373181394163e-02 3.8682197993631526e-02
      -2.8599406466983519e-02 -1.7812191085834572e-03
      -2.0575277109905069e-03 9.9815515882868654e-03
      -5.0208363587450674e-03 -1.0135768679035303e-04
      -1.0832570447253940e-02 -2.4194914033287669e-02
      4.1229758178976408e-02 -3.6722534554701161e-02
      -6.6289256549675935e-02 -1.9956220747705641e-02
      7.0396530025503114e-03 2.3110900568190422e-02
      -1.9281658188066441e-02 1.4167295638910728e-02
      -1.4298139052095191e-02 3.2142978891266175e-02
      1.7824948192270623e-02 1.7970325965701410e-02
      1.5132407203924510e-02 -6.3512855150585065e-02
      -5.5131366292287758e-02 -4.9804494386102099e-02
      -1.5101824763302985e-02 2.8173848028736594e-02
      -3.1627011344754090e-02 -1.6498523282079524e-02
      1.5106880116067811e-02 7.7059327979593585e-04
      2.3735488760841455e-02 4.7761697218497892e-02
      -3.8400456798623479e-02 1.1658753166667936e-02
      -1.5809811796716800e-02 2.2947581852606067e-02
      6.0209760400488288e-03 -2.5417622011023291e-02
      6.6660363832681891e-03 1.0780112506260483e-02
      1.6107740518923719e-02 -4.1171799749958098e-02
      -1.6289249617608772e-02 -1.0660465619663674e-02
      -1.8711376609217976e-02 8.1638748185908095e-03
      -3.0649301027774075e-02 -1.2809363965901760e-02
      -2.9157156136106767e-03 3.7361833939390618e-02
      -7.1076588759339341e-03 -3.3828875821025665e-02
      8.7307253473597780e-03 -7.3313389966103454e-02
      -2.5261290172928975e-02 -5.3916206829918913e-02
      4.8870217599791189e-02 -2.6517820057165988e-02
      -3.4180960496799813e-02 -4.7829076807144009e-03
      6.6201341527687553e-04 2.3625011408923334e-02
      -1.4265062425896608e-02 1.9898863937427028e-02
      5.5640823520525305e-04 2.7223642873358254e-03
      4.4843307707746777e-02 5.9775063694231099e-02
      5.3859686651142203e-03 -2.7245459955966464e-03
      -3.6174730083513018e-02 -3.1871949020957711e-02
      1.7832096688134593e-03 3.5282929849803106e-03
      -2.0433867346028957e-02 1.8765648642271742e-02
      -7.6245427402514528e-03 -1.3328618832696693e-02
      -2.0088911459367025e-02 3.8661403510215080e-03
      -2.5679419850898642e-02 2.7137925606227908e-03
      -2.2215360291463666e-02 -5.6393594069217567e-02
      1.7163496456516665e-02 3.0565213829219528e-03
      -1.2090573129214840e-03 -3.1966464268223367e-02
      6.0835755044890555e-02 -3.5574223169426031e-02
      9.8305564409890359e-04 3.5608337450094077e-02
      -5.0322491999202613e-02 6.3381709554903048e-02
      8.5633895177645598e-03 -7.9871059965048591e-03
      1.4623336356181222e-02 3.2797458020448873e-02
      5.3658101160447828e-02 3.3477504621274946e-02
      4.2908239301392488e-02 -2.7756333216153607e-02
      -1.5396052840157253e-02 -1.6279451509174252e-02
      -4.8681910827397271e-02 -5.9640722412400975e-02
      -4.2211674415111540e-02 1.9955633802520040e-02
      -1.7412111232544325e-02 -3.7748223573949913e-02
      -8.8650187864910954e-02 3.0252141291185721e-02
      -1.8477632252940654e-03 8.9336382192196865e-03
      -2.8120348666929300e-02 -1.9242470825560003e-02
      -2.3949581857768600e-02 6.7779761657735249e-02
      -1.4959430319225123e-02 2.4658329367117041e-02
      4.0703219394643476e-02 7.9922520899458338e-03
      -6.1248567430178494e-02 4.2469731359656718e-02
      1.8270580539044911e-02 -1.0386824691453985e-02
      1.2658039825836117e-03 -2.3524042135328879e-02
      -1.5066766226010175e-02 -3.2404879132713273e-03
      2.1007762177207723e-02 1.1949471444664579e-02
      2.1001707177969335e-02 -1.4624216565249554e-02
      3.5861728130303271e-02 2.1306750271025007e-02
      1.9029069929906628e-03 1.0015796417862733e-02
      2.2814277653014695e-02 -1.8531270720072762e-03
      -2.7040042597585969e-03 -2.7943655828022256e-02
      7.0030864474362022e-03 -4.4261067526865329e-03
      7.1456858475168672e-03 3.0734261758157768e-02
      7.8217752258551987e-03 4.1246579669206487e-02
      2.8173304478532592e-02 2.4005933143345703e-02
      5.7388002544045184e-02 6.1586448320228686e-03
      2.0430911530666142e-02 -5.2819046648959700e-02
      -3.3381694533028954e-03 2.9738348164554024e-02
      -1.4017170237590847e-02 1.9213624499623157e-02
      2.8875443724114564e-02 -9.7637016493214556e-03
      2.9768590316077790e-03 2.2233592481656430e-02
      -5.2779386375413136e-02 -3.4964662971112331e-04
      -7.8771153392648849e-04 2.0742579594346153e-02
      1.7073402303251255e-02 -2.2101802548502032e-02
      -4.4938721498658747e-02 -3.3271138050072223e-02
      -1.2636236739290327e-02 1.4013959553478974e-02
      -2.5245889332278584e-02 -3.6239867027944516e-03
      -2.0241480289786173e-02 2.8915254545761266e-03
      6.1131735601910294e-03 2.4505785672195239e-02
      1.1432839545097587e-02 3.5652326686311228e-02
      -4.0312724705012090e-03 -1.0166057078507252e-02
      5.9217072839459969e-02 -1.1799246038159204e-02
      2.3964231982734799e-02 -7.1051012168596120e-02
      4.4658344262705922e-02 -4.4956108897836328e-02
      -3.5792389555094874e-02 6.8339256445927726e-02
      -5.1636748695042908e-02 -8.2197921585745737e-04
      2.0395013204517205e-02 -2.5760468201775875e-02
      -4.2175738221975491e-02 -7.2756588261954497e-02
      1.2449311341123530e-02 2.2386694346851407e-03
      -4.3509877861764149e-02 -1.5123903140805082e-02
      -9.1761559691598341e-03 1.9350409308370425e-02
      -9.1596499066458510e-03 -1.9385713800980413e-02
      -8.9468057907227689e-03 5.1761097813803433e-02
      -2.2936348999399111e-02 1.4317013523326275e-02
      -2.6466882403034827e-03 -3.4162330779626965e-02
      3.3332655563920420e-02 1.1842591464410394e-01
      -8.8502840623050118e-03 -5.1379897919150680e-02
      -2.1002664068891327e-02 5.6271000810913822e-03
      -2.7828246295375368e-03 1.0601598066545049e-02
      4.0952149429093476e-02 -3.9736367859699931e-02
      1.5142768686055262e-02 7.2145059656118241e-02
      2.1016186512235603e-03 2.6892103457126195e-02
      -5.5221763454901464e-02 -3.4327814510405709e-02
      -1.4840742332788114e-02 -8.9932993436042316e-03
      -7.6232868498943415e-03 -1.7132372389746971e-03
      2.5983173042572645e-02 -1.3584238773580381e-02
      -1.5567932223942118e-02 1.5901706267988016e-03
      -1.2883389807602237e-02 -3.6973791078387663e-02
      7.8984623540924101e-03 3.2368368808094558e-02
      -3.2458089049188688e-03 -1.3564826850043657e-03
      -1.9337888724619039e-02 4.1870351286826375e-02
      5.0753134789260981e-02 6.8132836567402127e-02
      5.2805229139238796e-02 -9.6189120102423753e-02
      3.7759646478673838e-02 -4.9214421777206717e-02
      3.0757622152349721e-02 -1.7754880327148455e-02
      8.1518159127718759e-02 1.9363172116816034e-02
      -6.8560086086968839e-03 3.5894900140233874e-02
      4.9773673385433537e-02 1.9476171158185077e-02
      -8.4180605680074191e-04 2.9778647300506958e-02
      -4.5759102838879587e-02 -6.6984426320365498e-02
      1.5196790270163504e-02 -2.7612369964735619e-02
      6.1388968732388645e-02 -1.7681276377505880e-02
      -3.5272935666656326e-02 -7.0263309486407938e-02
      7.0104716859512046e-03 1.4606096697509964e-02
      -3.3602897826305433e-02 1.4399962083945676e-02
      -5.1880141474168487e-02 -1.8194303863553068e-02
      3.4411063723463663e-02 4.7674209354067444e-02
      5.4678985474928832e-03 -7.5270503740771239e-02
      -4.3105625271250229e-03 -3.6586446718547293e-02
      1.6978531193378013e-02 -2.3811291171970863e-02
      -3.1551754589360388e-02 9.3097079074614102e-03
      5.9819973743498234e-02 -1.1234387282111742e-02
      -1.5532113942773634e-02 6.8904344687540378e-02
      -1.1171890971697747e-02 1.0778601132431281e-03
      1.6948340794294314e-02 3.7744858594398557e-02
      -8.5473745375912093e-03 -4.9882046067386894e-02
      9.2313783710360371e-03 -2.3580040469563881e-02
      -1.4695163046665526e-02 -1.9567654810639077e-02
      1.9920512952410388e-02 -4.3360187546788394e-02
      -2.4404409311226047e-02 -1.4403536647838387e-02
      -1.8782464599765580e-02 -1.1205618007642046e-02
      -4.1149915381668969e-02 -3.1015118558143422e-02
      -5.2193056895505491e-03 -2.3899811287422232e-02
      -1.1819744941058091e-02 -1.0369091144293532e-02
      3.4123214588969129e-02 -5.3349583945712327e-02
      2.1636177611410502e-02 6.9495052154829942e-02
      2.3763693020185502e-02 -3.1517812984911506e-02
      -5.2975739684000260e-02 2.4442937447278674e-02
      -1.5887005081602661e-02 -3.8579304983286919e-02
      3.0209126469141614e-02 -4.0073635442122890e-02
      2.8428970042089857e-02 9.9794106852685738e-03
      6.3815734139348615e-02 4.1587269345054086e-02
      -1.6577753801075720e-02 4.4614073578800734e-02
      6.6404375763812626e-02 -9.4984577459195321e-02
      6.8419616875270151e-02 1.5163079650960642e-03
      -3.9129117663081900e-02 2.6481303827791042e-02
      3.3866600327675196e-02 -1.9754659398326359e-02
      8.7170746798571092e-02 1.5575265795938724e-02
      7.1945820769638378e-03 3.4276784459184570e-02
      -1.5401225017691729e-02 -2.7487072902054765e-02
      6.3450954092735814e-03 -5.1268771378992613e-02
      -9.2382304981442238e-03 2.0482903619174698e-02
      -3.9309425493527428e-03 1.2663738693352210e-02
      1.5948685987923275e-03 -8.2777379278765207e-03
      4.0325767054599615e-02 2.1572832410495329e-02
      6.0825525528343570e-03 -2.4797630911897336e-02
      2.8478101583293879e-03 -5.4854302100997912e-03
      3.3829414125626428e-02 5.7106946542758913e-02
      -1.3025701255056153e-03 -8.8228142902328967e-03
      1.5296438840695724e-02 1.9498767666648457e-03
      8.7432786295753937e-03 3.0712724499810638e-02
      -1.0600188095116451e-02 7.3015953328256214e-03
      2.3138631529813236e-03 1.0979272152455076e-02
      2.0721702633281103e-02 4.0758876578778032e-04
      2.1576169575173228e-02 3.2594252929565998e-02
      -1.5741148516145300e-02 -5.4361682437819109e-02
      2.5067167817088599e-02 5.6601430854042553e-02
      1.1125216811904452e-02 1.6581898901815006e-02
      -1.0078625208227448e-02 6.8080590518159040e-03
      3.7596635289457184e-02 2.5848785617238849e-02
      2.1484923781330684e-02 6.9285127989283116e-02
      2.3857392770197772e-02 -2.5402964217174525e-02
      1.3637381547226943e-03 2.5138029935360986e-02
      -4.0497937256955907e-03 4.1168713195023693e-03
      -8.3755108390078589e-03 -1.0160692554603650e-02
      6.2448404699472345e-03 5.7993402639826663e-02
      -4.2128366701984325e-03 -2.1779472197951379e-02
      1.1197393931545384e-02 9.8837932074572771e-03
      -1.0184320248319112e-02 1.0186986507260873e-02
      -1.7097785415380106e-02 -1.4612688950876598e-02
      2.1756419938957331e-02 3.1820438059726751e-02
      -3.6755660275047446e-02 1.3047322048882011e-03
      1.8944687349519714e-02 -7.8162572931916811e-03
      3.6703028363560430e-02 4.7026764266100529e-02
      4.0742295942734430e-02 -6.0176618845236826e-02
      -1.2105756484999862e-01 6.6902111152622977e-03
      -4.6528946111151555e-02 -1.5683949090906708e-02
      1.3910657732249282e-02 1.4379299961703949e-02
      1.1060755016130077e-02 3.8716203505209197e-03
      3.3328877188882625e-02 6.8437124121175280e-02
      1.4083066586029980e-02 4.2737378929695015e-02
      -3.8930425062644607e-04 -6.4545380732895202e-02
      -9.6177823254305794e-02 -3.5499965864470941e-02
      -4.2050973773611160e-02 1.3280341816016341e-02
      2.7243921913203614e-02 1.0560101336949627e-02
      -2.5052346650563065e-02 1.1489575319998453e-01
      3.7782712513792047e-02 2.9144266868741473e-02
      3.1184081003465966e-02 -1.3499003614310966e-02
      -2.7239403353178950e-02 5.3618623976546133e-02
      6.1564702074985592e-04 -1.8491321436362704e-02
      -6.7334804332105109e-03 -2.6913851123928797e-02
      -6.6310719111132260e-02 -3.4989965588653672e-02
      6.8180232498009877e-02 1.3982143546360052e-02
      -4.4526748527881459e-02 3.1667626010467610e-02
      -2.2947653772577827e-02 -4.7207729120802948e-02
      -6.2416458821071011e-02 -4.5823231589791791e-02
      -3.2077877597841121e-03 -5.7879094633758342e-04
      -2.7999372013441142e-02 8.8295058548387276e-02
      -3.5600194194667117e-02 6.3957394297695869e-02
      9.4227709947653754e-02 -3.3040313691539834e-02
      -2.2121418191073002e-02 5.2116454089477682e-02
      9.7770699405641363e-03 -4.8155068153952086e-03
      3.1500901549997261e-02 2.4673414885666468e-03
      4.2058994103724587e-02 -1.4264821902843379e-02
      2.7226515756116274e-02 2.1237653257807090e-02
      -1.4538115614994671e-02 6.0731400562625461e-03
      3.8824893487788989e-02 2.8173765807759391e-02
      -7.6485355057574186e-02 4.9611109936348582e-02
      -4.1574569557844755e-02 -1.3399310445107254e-01
      2.1381377961843334e-02 -3.8417183832420099e-02
      1.6897237950603439e-03 2.2685598470418625e-02
      5.0889085022404093e-02 8.6021827347151095e-02
      4.3253532023474872e-02 4.0849330772564389e-03
      7.4871315901663654e-02 -4.6112196598171236e-02
      -4.8129544297993675e-02 -7.7632911122841236e-02
      -3.0309206494894492e-02 3.0033106071600274e-04
      7.3514841367346530e-04 -1.0793769037922055e-01
      -1.0719916126539587e-02 3.2067765063844567e-02
      -3.4695846241142754e-02 -1.5313293321557906e-02
      3.3347430042086491e-02 7.5685066238135298e-02
      1.5635673082860648e-02 5.3581072053233200e-03
      3.1420996667464181e-02 -3.7123086088401501e-02
      -1.9744772164971724e-02 -5.7365463543853711e-02
      5.4357873829705410e-02 -1.0268089975306819e-02
      -3.0050065445480979e-02 3.2112174841131609e-02
      -1.8446200195949364e-02 1.0619439426172670e-02
      -1.1091386936370969e-03 -1.4419896158415251e-02
      -1.8682853533533189e-02 -4.2037813676402316e-02
      -1.8299631946634368e-02 2.4852885434796763e-02
      -3.0939789944849010e-02 -3.4956044711319322e-02
      -1.6525979764500431e-02 -1.7115061425510395e-02
      -4.8595493285171744e-02 -1.1741571124818518e-02
      1.0682320594579194e-03 2.5474427582328773e-02
      -1.9253346086448613e-02 7.3466309329587526e-03
      -3.4808802372173375e-02 1.3435304078318031e-02
      1.0375330359873959e-02 1.4809658907941356e-02
      -1.5718731009263534e-02 5.4899096828591371e-02
      -2.2679424142772391e-02 -6.8821556209630414e-03
      -3.0763568087038107e-02 3.4129025192024522e-02
      1.7982568376719077e-02 -4.9557771712977122e-02
      -9.9775859926317153e-03 2.3921248772550783e-02
      -2.0966086494401969e-02 -1.0436312845132618e-02
      6.0301204369274785e-03 -8.5631911643142839e-03
      -1.2294084912924257e-04 -4.1337970573242989e-02
      4.8918833146843581e-03 -2.4040779305119470e-02
      -7.0724054423199128e-03 1.0318979186670896e-02
      4.0403472240252210e-02 -1.3249096893275953e-02
      -3.4546675105759542e-03 -2.4978427382118109e-02
      1.0847005300780987e-03 8.8925167555651344e-03
      -6.0205315083012335e-03 -5.1464703649191012e-03
      7.3083075299730056e-03 -1.3157750868023703e-02
      9.5711358316283700e-03 5.7313203673783591e-02
      -1.6092094076208676e-02 -4.2149597906298221e-02
      -5.2312451466329138e-02 3.0679403538400262e-03
      6.8469448785518877e-04 -1.1019617445948801e-04
      -1.6600282021188240e-02 -1.7911121463549933e-02
      1.4869806903179813e-02 -3.8154186397717928e-02
      3.1896685746616221e-02 -3.5446764776299561e-03
      -3.4767744952097501e-02 -2.0030759820937463e-02
      2.1377608323929025e-02 1.6448935702084631e-02
      3.8169480838186581e-02 -5.4026591292165409e-02
      7.9463231424460545e-02 -1.6820444443242592e-02
      4.1935487753087447e-02 -3.5150655331115672e-02
      -7.9459545068438393e-03 -1.8214052216276987e-02
      -2.1998619341032689e-02 1.9418262799785733e-02
      6.4830058402851217e-04 9.2259358586248182e-03
      6.4009143528112350e-02 8.5995906386390236e-02
      4.4446347117731072e-02 -4.4440031633499362e-02
      8.7326033523245430e-03 5.1819781117565106e-02
      -5.6164990560490388e-02 1.5277892521965125e-03
      -2.7491869730678221e-02 1.4388664986070363e-02
      -3.3751349788226387e-02 -4.8702283272893054e-02
      -3.6313355259506734e-02 4.2246096458470626e-02
      -3.3082674562076378e-02 -6.3337907288420620e-03
      2.4245502741258775e-02 -8.2237409777461952e-04
      6.1879937864829648e-02 6.5742238414533041e-02
      -1.2033066522965178e-02 1.3500871137285438e-02
      -4.6053606533538613e-02 -6.1429825831893922e-02
      6.2900277892491752e-02 -1.4525289304882127e-02
      -8.2233918876815817e-02 -6.4562713413184427e-03
      4.6354680653342389e-02 -2.1788466793721602e-02
      2.5652641189109822e-02 4.9123838461333696e-02
      -7.1352970231268437e-02 -4.2083828253080317e-02
      -1.3545114186441408e-02 -6.3463225345287205e-03
      -4.4395700175228203e-03 -9.1698894814058792e-03
      -3.0386146094356366e-02 -6.5862650286315480e-02
      1.2919075479989692e-03 5.1435699277641647e-02
      6.6494781329285199e-02 3.4170475692775662e-02
      -2.5096708905403228e-03 8.0804002732327070e-03
      2.2031151999915887e-03 -6.2794369909647679e-02
      3.2888122790095585e-02 4.9407372427800890e-02
      5.0826530539998555e-02 8.5883011825951990e-03
      2.4984352984441894e-02 -4.7455748825197902e-02
      8.1052983511693370e-03 1.8951288530471573e-02
      2.1092047355157809e-02 -2.8188572479866600e-02
      1.1208277390738229e-02 1.3787183653073052e-02
      -2.3804903690140530e-02 -4.9108143129447376e-02
      -9.4120487308279044e-03 -2.6128732865511720e-02
      1.2534666690837496e-02 -1.1155157568118478e-02
      -3.7404206055839592e-02 -1.4745113284980046e-01
      -8.4505900721973642e-02 8.6687154770734923e-02
      -4.0484546012538071e-02 -1.3687783329988526e-02
      1.7481718640412099e-02 2.7907566066332819e-02
      -2.6086173208593865e-02 9.2627816927164930e-03
      1.9631495060209659e-02 -1.5897728365646770e-02
      -4.9439953376054481e-02 -5.2949439710621243e-02
      2.7413976961229252e-02 -4.7054090361190234e-03
      5.7364576888191465e-02 -1.7244118518335756e-02
      2.0235351753061261e-02 -3.3089069378638411e-02
      -2.5096182038241672e-02 5.3457631030083233e-02
      1.3971679075380281e-02 6.4905310179016212e-02
      5.8953250530685043e-02 -9.8608783777433522e-03
      9.2523349380889755e-03 -1.6117681914130221e-02
      3.7902686630882212e-02 4.1110387192448989e-03
      5.7895716470326521e-02 -5.7923538911770718e-02
      -3.0812836242444640e-03 -6.6605972102529401e-02
      2.7513962860795202e-02 5.6441439120759815e-02
      6.5857536749253626e-02 -2.8650927742030870e-02
      -2.0212295641500171e-02 2.2079822219559671e-02
      4.7244050761842862e-02 1.7684730359121412e-02
      -3.0383379286131714e-02 7.1128748086282917e-02
      9.7313522666358215e-03 -3.0796768541547576e-02
      5.2314673849717407e-02 6.2681537330336018e-02
      -5.4738491514630734e-02 -6.0984550463615235e-02
      -8.3394226684872386e-03 -4.8647169826648113e-03
      -4.0984195763790303e-02 4.3185114470797245e-02
      -4.7271659770458142e-02 -5.1910665436127636e-02
      4.2904373516556502e-02 2.1232056423013415e-02
      -2.8159140322724284e-02 -1.8065657718078217e-02
      -3.4194096065531011e-02 -1.5835971418185057e-02
      -2.8731770643895626e-04 -6.1395413230416022e-02
      -4.1051094139773002e-02 2.8118011366533423e-02
      1.4835813666098640e-02 6.3974718227156932e-02
      3.7786337174183365e-02 2.8713793529792163e-02
      2.9834615025598889e-02 1.7606759673067563e-02
      -6.9785255200249446e-02 3.4997839067697309e-02
      -3.2963154294146702e-02 -3.0890703150874849e-02
      4.6177657510765184e-02 -3.3581548868735135e-02
      1.0000507127307030e-02 2.9774766090811568e-02
      -5.6049450923160446e-03 1.5373886539900898e-02
      1.8552172872600702e-02 6.3249986557995987e-03
      5.7664107416724675e-02 -1.7267872005998920e-02
      -2.9912743365621264e-02 -5.9714270064473184e-02
      2.6625812522681914e-02 1.9201982443989334e-02
      -1.8306945345915475e-02 -4.7224464190925852e-02
      2.5380563640185295e-02 -1.2825272158055508e-03
      -1.4375883050062280e-03 -1.1823384880295820e-03
      1.7668889044639379e-02 1.3122738210551638e-01
      -1.2607709704246661e-02 1.1955789829080707e-01
      4.8048140103695847e-03 -1.8158553546726239e-03
      -3.4326700376101450e-02 6.1587997165262573e-02
      6.7000206595177067e-02 -3.1527973448445545e-02
      4.6469165173028557e-02 6.6700280705659656e-02
      3.6130603538625044e-03 -3.2979318911663780e-02
      -6.3744258974923742e-03 5.5240391005746568e-03
      -9.5317242836476440e-02 -7.4935978457734101e-02
      2.3118380419131232e-05 -5.0865020918015223e-02
      1.1018652433916632e-02 1.2634867243883058e-01
      2.3832399260809614e-02 3.9413151395994214e-03
      8.3231346039686793e-02 -1.0745903716813584e-02
      -5.0013277110719345e-02 3.2101555073030481e-02
      3.4750600334877528e-02 -9.5300834725113359e-02
      3.7218077606985568e-02 -2.9534557574012684e-02
      2.8579837673748366e-03 1.3677170128249819e-01
      7.1344665011339917e-02 -5.6095606661872029e-02
      3.9839947170997952e-02 -1.6470804240942608e-02
      3.5174927889106776e-02 -8.2043915999578679e-02
      6.4020454919745076e-02 2.7653189780474851e-03
      -3.4693723600013798e-02 5.7307447816358853e-02
      1.2637311289699046e-02 3.7386693377371688e-02
      -2.3275027923164757e-02 -2.8538583740908736e-02
      -8.8898856026799356e-03 1.6809151049792640e-02
      -1.2379319529548039e-02 4.3807768681470252e-02
      1.6279104465697542e-02 -6.9385183799243799e-02
      -3.4753223685534268e-02 -3.4819658940154583e-02
      -4.8219687842873088e-02 4.2507129407675743e-03
      1.1011093887709721e-02 3.4648954575663131e-02
      6.0633543410077420e-03 1.4181336492052532e-02
      -3.2621135549020588e-02 1.9482479554973040e-02
      3.1620912923385744e-02 1.0086431328799243e-01
      5.8456758879654486e-02 3.7475103170518617e-03
      2.7578039590937034e-02 5.9304161712361372e-02
      5.1779776619807517e-03 -2.9388938023699480e-02
      5.9988072247863712e-02 -8.6549262795975381e-03
      -3.7009454770695414e-02 2.9409566240521261e-02
      2.3388413836859231e-02 -1.7485378101738763e-02
      1.1706034807723859e-02 -2.8295441101923997e-03
      1.8380048144114633e-02 -1.8261481107922826e-02
      -2.9186752293015119e-02 5.0951150868715753e-02
      4.6854726828459030e-02 -7.2617813202418044e-02
      5.1083054628498041e-02 -1.5545222543301139e-02
      -3.7705667836957175e-02 1.5308047413803419e-02
      3.7978759054737313e-02 1.1942679514790638e-02
      6.8144967676049828e-02 1.4185640588119814e-02
      -8.8292142468199050e-03 3.2266311141667246e-02
      -1.6206951979285801e-03 5.3628488752202726e-02
      3.0004876494903313e-02 -4.0743826907510737e-02
      -1.4823054927716923e-02 1.3120166906366124e-02
      2.3989539661645590e-02 -4.2143068329498407e-02
      6.1610610666298759e-03 2.2191990131513000e-02
      1.3588619679903559e-03 -4.1161526101949099e-02
      -9.4822435935976220e-03 -4.1548890458004860e-03
      -5.1795595593262236e-03 -2.2136101878730607e-02
      6.7717313344893809e-02 1.7451943114599217e-02
      -2.8867839084451724e-03 3.4324248880674708e-02
      4.1176121267412366e-02 -9.7936037452659053e-02
      7.6095955580535946e-02 1.3521654660481296e-02
      -1.4425077943799821e-02 -7.3237088702385617e-03
      3.2830044999005083e-02 -1.0761767729579664e-02
      6.2131160711318890e-02 1.2006957398537053e-02
      -1.8779213833229880e-02 2.2455006133893569e-02
      2.2252532884191028e-02 -1.7696193326628969e-02
      3.9405848254538654e-02 -5.0183136411066372e-02
      -1.8840936767527135e-02 -2.1987513473038307e-02
      -8.6225132856402112e-03 -7.2038679929423395e-03
      4.0855272851867908e-02 -1.5224839927992702e-02
      7.9179123809912585e-03 6.2994233448366105e-02
      -3.3623406377991195e-02 -2.6263369813028639e-02
      1.7955529919561893e-02 -1.0064364183115253e-03
      2.2852654604622831e-02 1.6522744316241879e-02
      1.0630273694164686e-03 6.1445529458339582e-03
      -1.4801919689613934e-02 -4.2144761731249314e-02
      2.2991921312705148e-02 5.5542049256998016e-03
      -2.2537045733674134e-02 -7.9896080748844724e-03
      1.2572566321810343e-02 1.8694160565617794e-02
      1.7585630293803431e-02 1.1592661175284109e-02
      -1.9101723719171673e-03 -2.8956675613093476e-02
      -3.3949853154661247e-03 -1.2266321627787045e-01
      3.3124573576760373e-02 -6.5875039531481674e-02
      5.3602354823681503e-03 -2.7013648878727026e-02
      -1.8583112068946812e-02 2.5723560515030293e-03
      3.7101805950948100e-02 -2.2778108542868144e-03
      3.5554426119776709e-02 3.6422179505323490e-02
      -3.0083849260066652e-03 -1.4439268799352365e-02
      1.2591952230016187e-02 4.1207143471476918e-03
      1.5908473959509725e-02 3.7037483877416510e-02
      -2.8663508265110455e-02 3.0733819193429639e-02
      -1.4629482020034255e-02 7.6781400592593864e-03
      -2.8433783602907103e-02 1.6455230263838102e-02
      -1.1027506026751855e-02 1.5886098195921010e-02
      8.0794631187160078e-03 1.8668805590882492e-02
      2.3363709177562236e-02 -1.7630616203719984e-04
      -7.6844611418227871e-03 6.7427687223529272e-03
      -3.2028511488530483e-02 -1.8234895602977302e-01
      1.7238527835414116e-03 3.3132392701927665e-02
      -1.4331432797000217e-02 7.1797635222413475e-02
      -5.0946489498770064e-02 4.9001283730640513e-02
      -6.8159308369655697e-02 -4.0763434591360032e-02
      1.6849255009182527e-02 2.3442702303631241e-02
      3.5827867881486376e-02 -6.6568503628851080e-03
      -1.6534323679869407e-02 -7.9017353303952650e-03
      2.3431565136968766e-03 7.6740853583623897e-02
      -3.2030428015700184e-02 3.9912688958811497e-02
      1.6324993733244982e-02 3.3984383950986768e-02
      -3.8303140270304681e-02 -3.5146025588425481e-03
      -2.5702854205267266e-03 8.3945252199086370e-04
      3.4670984739756570e-02 2.8976121843968156e-02
      4.5677633505780219e-02 4.2472004742355567e-02
      1.5083937009586750e-02 2.5062811371764089e-02
      1.8639526469700978e-03 -3.7437670363407893e-02
      1.7770613084455034e-02 5.4917438700741190e-03
      2.3707460282755919e-02 -1.1721115309860832e-02
      2.7574117621830117e-02 -3.0643753452334110e-02
      -7.4255818598725270e-03 5.3308443558783385e-02
      -4.2938298800903538e-02 1.7683681482429259e-02
      -3.4165174062773204e-03 -3.1329003878587882e-03
      1.4026038197551188e-02 3.2122659384353568e-02
      1.5288041601775855e-02 -3.2144098960682835e-02
      2.8772180686751359e-02 -9.7874697283916959e-03
      -2.4276859563051551e-02 -2.5308899687990893e-02
      -3.9150950841226495e-02 -5.6066270098877671e-02
      3.6823700122305737e-03 1.7181123339703827e-02
      -1.4398988045440561e-02 -3.1407697466679110e-02
      -5.6451891295513812e-02 1.1726295314760314e-02
      -1.6126825702731894e-02 -1.3799532131120992e-02
      -5.9637133385094011e-04 -2.5369775510919776e-02
      -1.9460393764183202e-02 7.8889135008719496e-02
      -2.5240436710708129e-02 4.6982581035070498e-02
      3.6748653277180387e-03 1.4617956384065078e-02
      -1.4848685751377125e-01 -1.2508608922206763e-02
      8.7287981247508348e-02 -2.2193395325296097e-02
      4.6991547697986427e-02 4.6892532019192155e-02
      -7.0798875389805491e-02 -5.1181898782655035e-02
      -4.0147082208080484e-02 9.0847641747263452e-02
      -2.1646433037633549e-02 8.2592842991386622e-03
      6.2918135499102967e-02 2.2740931146671688e-02
      1.2243429773217390e-02 3.6714749520286735e-02
      1.3491061390100860e-02 -1.7120637223635785e-02
      -1.0931556947412508e-02 6.2228172752818590e-02
      3.8836109996137562e-02 -1.5670140622272514e-02
      1.3051984726550024e-02 7.9875353266705126e-02
      4.8507213599219182e-02 1.4489969748863785e-02
      2.8742308468544718e-02 8.1580907854670495e-02
      -7.7595757190534040e-03 1.9414721978438357e-02
      -1.4259359449535642e-02 5.9397402897207623e-02
      -6.0629666145100666e-02 1.4318614968715242e-02
      -3.0752274626307002e-02 9.7033445164159682e-03
      4.9942308527021952e-02 -5.4636406444111059e-02
      7.4678288510629867e-03 3.7948852817015419e-02
      2.2142673351027271e-02 7.0737368800246350e-02
      1.6097365061882392e-03 -1.2726186312994809e-02
      7.6547959064684507e-02 -3.1312750906608462e-02
      -2.3000706706960507e-02 -8.3428758667666247e-02
      -6.6401679575976133e-02 1.9959420706219841e-03
      -1.0010896980117038e-02 -1.7402160051883957e-03
      1.1285119250685767e-03 -7.2235986745574588e-03
      1.0650782786829235e-02 2.9875384235658758e-02
      -1.7309866701527486e-02 7.6166844244042908e-02
      -2.9030204965726091e-03 -1.2585937400526458e-02
      -7.2502961095015736e-02 -2.7562208737641123e-02
      1.8775556451976927e-02 2.5353923725315256e-02
      -1.0151746483710821e-02 -3.7653613941956189e-02
      5.3878304819714867e-02 5.0806624376900145e-02
      -5.5407938397563292e-03 3.8544294705790412e-02
      -8.8819096041748868e-02 -6.3438721865832021e-02
      -1.4384470787438194e-03 3.4440093339812801e-02
      3.0375616977100652e-02 -3.4666260820401439e-02
      5.0789393283750699e-02 6.2666333188473502e-03
      -7.3354216022765484e-02 -1.1258968886802289e-02
      9.2781286868740299e-03 -7.4805613055093284e-02
      -1.9837444931624020e-02 5.0255150265260617e-02
      -3.0813072286274151e-02 1.5762611300086962e-02
      2.4568445082241246e-02 6.3914940380873503e-02
      9.2216461566713523e-02 -5.8111606068832981e-04
      1.7621798241061404e-02 -1.9578824535979523e-02
      -3.1208420120537702e-02 -3.4750692736396659e-02
      3.6830736266247666e-02 1.3976443072973483e-02
      7.1164781405727975e-02 2.0905226609252914e-02
      -9.9598947355828520e-03 -2.6772608115104672e-03
      -1.3020580528503979e-02 -6.7565345068089028e-03
      -2.8271969679244838e-03 -3.6340709154600143e-03
      1.5119543115868578e-02 -8.3500164190359605e-02
      9.8889971680072176e-04 1.1466350513357862e-02
      -1.1668379495574767e-03 -2.9778114374033413e-02
      1.0342055666833199e-02 -2.8096546887382178e-02
      -7.9101832502132055e-03 -1.7101415065026434e-02
      5.8256626109340556e-03 -8.3941419709879402e-03
      1.9600166186746412e-03 -1.0271335839800977e-02
      -2.6462312816905219e-02 -2.4781311335021480e-02
      1.4465647303027521e-02 7.2990098699634125e-03
      1.6834105192121057e-02 -4.8221007288533770e-02
      -2.4336195396944375e-02 -2.0900378462119042e-02
      3.9686492827897518e-02 -2.0969178446344543e-02
      -2.0714587192179027e-03 5.4267841522635661e-02
      -2.1319434849834933e-02 -3.7638178328506161e-02
      -1.6047834136733157e-03 -1.4252595386067162e-02
      -9.0468692481905574e-03 -2.9060573206810877e-03
      1.7146895160012061e-02 -4.1588151700762972e-02
      -2.2313275966116979e-02 4.8482272323198829e-02
      1.4063396311669828e-02 -6.3703235042965850e-02
      6.1886579191039251e-02 -2.2227466916464690e-02
      6.0180672047103929e-03 -1.5294584395707521e-02
      1.8977638636511581e-02 -3.1875004565430756e-02
      4.4389215102901301e-02 -1.0246014327701881e-02
      -7.9349077812243568e-02 1.7594506894943931e-02
      1.1160758469801225e-03 6.6506581942943621e-02
      2.6264847423909790e-02 -7.3565329151157072e-02
      -8.3330864066691324e-03 -2.7345828521931174e-02
      1.9091072194509558e-02 -2.4041974750088655e-02
      1.6979352584522836e-02 3.5933388572054206e-02
      2.5977897041378722e-03 -6.7411462986774015e-02
      2.0303793127824574e-02 -3.2825219427401395e-02
      9.2517887676294517e-03 1.8383571575480328e-02
      -5.9531224535970756e-03 -1.3340821007521637e-02
      3.9938005693818095e-03 3.4282165029735183e-03
      4.1250830975801955e-02 -3.7393870927298220e-02
      5.2052663309269519e-02 -4.1584875349269274e-02
      2.4972819750362418e-02 7.6974517728059287e-03
      -1.9825514963204699e-02 1.6576245613111138e-02
      2.7818522694343276e-02 -1.9634223828944270e-02
      2.3656858623954061e-02 6.6966707581934543e-02
      -1.8399892495964847e-02 1.2679336207298450e-02
      -3.2927997699793099e-02 -2.3278938860135448e-02
      -7.0599664209163873e-02 -1.6999566161176427e-02
      -2.4041248089721547e-02 -1.2303484638495017e-02
      1.3455412558454720e-02 -3.1080737622360237e-02
