<?xml version="1.0"?>
<opencv_storage>
<opencv_ml_ann_mlp>
  <format>3</format>
  <layer_sizes>
    576 4 4 4 26</layer_sizes>
  <activation_function>SIGMOID_SYM</activation_function>
  <f_param1>6.6666666666666663e-01</f_param1>
  <f_param2>1.7159000000000000e+00</f_param2>
  <min_val>-9.4999999999999996e-01</min_val>
  <max_val>9.4999999999999996e-01</max_val>
  <min_val1>-9.7999999999999998e-01</min_val1>
  <max_val1>9.7999999999999998e-01</max_val1>
  <training_params>
    <train_method>BACKPROP</train_method>
    <dw_scale>1.0000000000000000e-03</dw_scale>
    <moment_scale>0.</moment_scale>
    <term_criteria>
      <iterations>128</iterations></term_criteria></training_params>
  <input_scale>
    1.2646200195069767e+01 -2.1944958363240290e+00
    2.1253819257567844e+01 -2.3374482991587517e+00
    1.7407238018969700e+01 -2.0702156028068437e+00
    2.3482197791753613e+01 -1.8127308893802172e+00
    1.3449838785078230e+01 -2.1545596641673712e+00
    1.9374636205000581e+01 -1.4226678604738277e+00
    1.5676669733746532e+01 -1.7759067587052930e+00
    1.9349540887364526e+01 -1.9149158059517690e+00
    1.1600134219525691e+01 -1.9119903179610669e+00
    1.2176732796516456e+01 -2.6068150567302810e+00
    1.4582331358668922e+01 -2.1018282783660229e+00
    1.6411543531213930e+01 -2.2003522011053005e+00
    2.0404345039765239e+01 -1.6537985968489581e+00
    1.3179084301437806e+01 -2.1538623802212138e+00
    2.0613132888873931e+01 -1.5817971487045472e+00
    1.6285114890811521e+01 -1.9273655252285180e+00
    1.5413868391595525e+01 -1.7050864118474114e+00
    1.1612025331004515e+01 -2.1920970212767337e+00
    1.1122257790782795e+01 -2.5694150327932781e+00
    1.5708452313577176e+01 -2.2966691742234353e+00
    1.7357347023199758e+01 -2.4471525654224107e+00
    2.2568361428541618e+01 -2.0630159760959206e+00
    1.4420572060265902e+01 -2.4826327946370519e+00
    2.2153415450154004e+01 -1.8058522381410484e+00
    1.6789604878422093e+01 -2.1015819438279477e+00
    1.6911522589675137e+01 -1.9991940187896935e+00
    1.1472702244349529e+01 -2.4177716561394478e+00
    1.1346959521752593e+01 -2.9514916754262743e+00
    1.0489959334433793e+01 -1.9453552881137308e+00
    1.1581647278038236e+01 -1.9750748318535374e+00
    1.4016515953079049e+01 -1.5325833253912424e+00
    1.2230692406065444e+01 -2.2379691033709328e+00
    1.6170077709444087e+01 -1.6269527002508908e+00
    1.6428150906198894e+01 -2.3138298319295871e+00
    1.6032986891901373e+01 -2.1932844296125467e+00
    1.1581606533139059e+01 -2.8106203992812602e+00
    1.0481639416365899e+01 -1.9859792464406201e+00
    1.2391033153311476e+01 -1.4501435873049369e+00
    1.6592822969080242e+01 -1.3123275468358784e+00
    2.3532662754629005e+01 -1.0919481048679160e+00
    1.1419740312699242e+01 -1.1444737523405006e+00
    2.0703385542492480e+01 -9.5902812710381580e-01
    1.7474508765366931e+01 -1.1926899981891668e+00
    1.3551179701029801e+01 -1.1439539521922035e+00
    1.0765932700477371e+01 -1.7894662432318236e+00
    1.0942586123016600e+01 -2.4241573879609488e+00
    1.2041756584017220e+01 -1.6135845954151795e+00
    1.6197078945739538e+01 -1.3529510633437012e+00
    2.2077658330729037e+01 -1.1010817367484249e+00
    1.1615169882126995e+01 -1.1636272004313004e+00
    1.8815104151669292e+01 -9.4651057535018823e-01
    1.5544828893549733e+01 -1.1767924852160652e+00
    1.5088775029236951e+01 -1.3457232515505877e+00
    1.1807430509542730e+01 -2.1965296712412474e+00
    1.0432597252995258e+01 -2.9756815249057578e+00
    8.5847389494183748e+00 -1.8574075747932470e+00
    9.9431814718828360e+00 -1.5296670897539657e+00
    1.9254760054452774e+01 -1.4983180765735262e+00
    1.2052799267157480e+01 -1.3253299252391473e+00
    2.0950930496873280e+01 -1.2141418464909204e+00
    1.7007483130380379e+01 -1.4526302803822795e+00
    1.2449539348912626e+01 -1.5015207684357514e+00
    1.0234193183164660e+01 -2.5715567006862017e+00
    1.1223503762965841e+01 -3.2875952292750061e+00
    9.5495698995703417e+00 -2.0956896870817441e+00
    1.1278471687092203e+01 -1.5327037589088077e+00
    1.9932958834681543e+01 -1.5094155607255964e+00
    1.1886401070469928e+01 -1.3013665209754610e+00
    1.9167734483625026e+01 -1.2578975128536016e+00
    1.4415070456080933e+01 -1.3893267068008819e+00
    1.2715826700165621e+01 -1.6370604611832438e+00
    1.0664055262430550e+01 -2.8753190789685874e+00
    9.0829432948216962e+00 -1.9422300250494160e+00
    1.0665372331256563e+01 -1.3365082763107621e+00
    1.9188296511529174e+01 -1.1490720754059816e+00
    2.0298266636206719e+01 -7.4459499644808202e-01
    1.3226570111337413e+01 -8.8855067151026967e-01
    2.0905617098304067e+01 -7.1888074263578094e-01
    2.2042166604409793e+01 -1.0016736367831596e+00
    1.7502219585613989e+01 -1.1839282471444379e+00
    8.5212858990821871e+00 -1.6059183217572728e+00
    9.7378332970184367e+00 -2.2097533890673127e+00
    8.5658456290529017e+00 -1.4454933993197676e+00
    1.0200038030342256e+01 -1.0877554232442599e+00
    1.2704494044993584e+01 -6.9480297830478122e-01
    1.1610685093127838e+01 -8.7963040777289825e-01
    2.2867197087935189e+01 -7.9172951969385519e-01
    2.5550770237668193e+01 -1.1186342041576900e+00
    1.5039459526972641e+01 -1.1652047769434404e+00
    8.6991172153884389e+00 -1.6776230114359578e+00
    1.0618419328596394e+01 -3.0266981943596951e+00
    8.4905826321669799e+00 -1.7429061694218200e+00
    1.0457124117409686e+01 -1.1949029422588346e+00
    1.8640725547748019e+01 -9.8948672489321710e-01
    1.4164184860321692e+01 -8.9220005459354512e-01
    1.4829837901626838e+01 -6.8013764354447848e-01
    1.4153042875893030e+01 -8.8551287883977070e-01
    1.1011567245744864e+01 -1.2081101117076094e+00
    8.5653527139554821e+00 -2.0067300645134116e+00
    1.1642909356827518e+01 -3.3982469320763262e+00
    8.7534598262340850e+00 -2.1453798903562946e+00
    8.4248308582380584e+00 -1.3991714946087745e+00
    1.3743270601683603e+01 -1.0518131042585674e+00
    1.2852850620624762e+01 -9.2201639713252759e-01
    2.1482822404300190e+01 -8.3818919435178851e-01
    2.2813106187363015e+01 -1.1537894166637357e+00
    1.1037423380693845e+01 -1.2103384621368891e+00
    8.4946085157144928e+00 -1.9936225235373648e+00
    1.1219828422470689e+01 -2.5559135980073857e+00
    1.2072099659105934e+01 -2.7751525300445810e+00
    1.2595443810226104e+01 -1.7729084913728481e+00
    1.2497475271021088e+01 -1.2070514371652128e+00
    9.4656319874974333e+00 -1.2331927772674591e+00
    8.8401622991512152e+00 -1.0503552580441680e+00
    1.0129749202417829e+01 -1.1474627956114352e+00
    1.2487654017451044e+01 -1.1616190986461754e+00
    1.0322134816807084e+01 -1.5772397952746620e+00
    9.1520232011543250e+00 -1.9114176321825134e+00
    9.1333364928894802e+00 -1.8444022267431930e+00
    1.2563637984312090e+01 -1.3791216030212083e+00
    1.7252014118033234e+01 -1.0952062560674192e+00
    1.1369043893202178e+01 -1.2586099139061973e+00
    1.0196791548230536e+01 -1.0859084934210592e+00
    1.0898378990903856e+01 -1.0828385797881870e+00
    1.3464657636199529e+01 -9.7707793124159958e-01
    1.1445325334538175e+01 -1.4968129697332428e+00
    1.0841582560697653e+01 -2.3794230461927866e+00
    1.0817621142835192e+01 -2.4548440213332632e+00
    1.2661137478556704e+01 -1.8339359315649033e+00
    1.4595477293970749e+01 -1.4117816781304819e+00
    9.9404756596220416e+00 -1.2084313719379991e+00
    9.5800818712609246e+00 -1.0498047564503890e+00
    1.2525811077182995e+01 -1.0744162941759752e+00
    1.3281313469228397e+01 -1.0226226803075580e+00
    1.1886295882767502e+01 -1.5592023723356130e+00
    7.9671076428851784e+00 -1.4106896985459556e+00
    8.5172447796800768e+00 -1.5081085405699937e+00
    1.1066856151383256e+01 -1.3373179425939592e+00
    1.5591813509250446e+01 -1.2436003883053657e+00
    1.0173983346908630e+01 -1.2705069810405039e+00
    1.0187060666061610e+01 -1.1247631797033848e+00
    1.1320998253467556e+01 -1.0689062920635513e+00
    1.1752754240518925e+01 -8.9549773729609727e-01
    1.0334079944755668e+01 -1.2344387139634705e+00
    8.7578714688853765e+00 -1.6166607939147419e+00
    1.4695752804583760e+01 -1.5471952341690882e+00
    1.8194246555273068e+01 -1.5205385951040378e+00
    2.1553960030477583e+01 -1.2646068989906050e+00
    1.4542474066900052e+01 -1.4359077624296090e+00
    2.2719617429554120e+01 -1.1941350271600353e+00
    1.7142200761741435e+01 -1.2761581320407334e+00
    1.1852738317965873e+01 -1.1556186275611813e+00
    8.4771689047977112e+00 -1.5681892683930638e+00
    9.4776661492146275e+00 -2.0814176320003561e+00
    1.2703106158282512e+01 -2.1561409967222249e+00
    9.2505337407525001e+00 -1.4631606473433423e+00
    9.8588086471116512e+00 -1.0893786375583627e+00
    9.6270802412853662e+00 -1.2157368097102406e+00
    1.2679174280325306e+01 -1.0342389826322360e+00
    1.4483517145762764e+01 -1.3017065069452565e+00
    1.0862917889228873e+01 -1.2594482524151158e+00
    8.9491321210104040e+00 -1.8866660510647846e+00
    9.3513243628732159e+00 -1.6076706675162351e+00
    1.2950634943643720e+01 -1.3908784741493969e+00
    1.2777737819831286e+01 -1.3571231121193015e+00
    1.7599948199218137e+01 -1.2544384173813166e+00
    1.3373538479058080e+01 -1.5605847041018317e+00
    1.8374268549957922e+01 -1.1913757332175574e+00
    1.6826225819056226e+01 -1.4444633658540142e+00
    1.3398694169158031e+01 -1.3477700957700562e+00
    9.3200753506589660e+00 -1.7049253663302586e+00
    1.0331393551589027e+01 -2.2797136958355106e+00
    8.8769437604951147e+00 -1.6464184490590597e+00
    7.8390005928572020e+00 -1.4317306631224993e+00
    7.9081599015069592e+00 -1.2480132732058631e+00
    8.9288186850707785e+00 -1.4105576149670835e+00
    9.6371517370889386e+00 -1.1278759664743945e+00
    1.1239854810834913e+01 -1.3279435897228014e+00
    1.1837957982840486e+01 -1.4552808990663690e+00
    9.8142955694967355e+00 -2.1148259576796833e+00
    1.2940706825218152e+01 -3.0412526891564915e+00
    1.1831149138834661e+01 -2.4101530147838135e+00
    1.0333564967142570e+01 -1.5428651862375959e+00
    1.6562785590901253e+01 -1.3332693723990485e+00
    2.0769260199757099e+01 -1.2489154372240832e+00
    2.3321699429566770e+01 -1.1590338897156185e+00
    1.6625680665891494e+01 -1.1533344500050928e+00
    1.1383295566867332e+01 -1.3477514407026576e+00
    9.5614358756083426e+00 -1.9060013591264136e+00
    1.3497311695813600e+01 -3.0225902281954413e+00
    1.0978731473746162e+01 -2.0994468712180536e+00
    1.1021251124846069e+01 -1.4614961922596088e+00
    2.0163962641157593e+01 -1.4367560540957809e+00
    1.8884396747799325e+01 -1.1777208230853489e+00
    2.0116826767877178e+01 -1.1811934910182700e+00
    1.5558811027419081e+01 -1.2612745952252944e+00
    1.2252796059980984e+01 -1.4570658185925265e+00
    1.0410824126641121e+01 -1.9056470044882912e+00
    1.3828545416990902e+01 -3.3879287858005185e+00
    1.1127485251891423e+01 -2.3717132821477125e+00
    9.7528867411275524e+00 -1.5864980449908204e+00
    1.3203532563765563e+01 -1.2871222870790680e+00
    1.5097678081297261e+01 -1.1706212760245853e+00
    1.6847950666049226e+01 -1.0829887986902280e+00
    1.4701813938013677e+01 -1.1733952885260874e+00
    1.2708939718055161e+01 -1.5365134609827682e+00
    1.0773119652150811e+01 -2.2922177115979609e+00
    1.2435578342957536e+01 -2.8761339792793890e+00
    1.1336280043708594e+01 -2.2050546350979072e+00
    1.1200469135751515e+01 -1.5997314925996144e+00
    1.5702334684370976e+01 -1.3648650592710958e+00
    1.5673584811750283e+01 -1.2793128167617445e+00
    1.4425855282042987e+01 -1.2047236090114650e+00
    1.3164996498350742e+01 -1.4077714575088505e+00
    1.3091241885892636e+01 -1.7922278530249731e+00
    1.1064951043162969e+01 -2.2402685951310919e+00
    1.2926484672799582e+01 -2.3601432870072281e+00
    1.2166319775941208e+01 -2.4195820374575550e+00
    1.1606008211361191e+01 -1.9659715228217223e+00
    1.3680222367609774e+01 -1.5378183956756941e+00
    1.7705542304811683e+01 -1.4236408746042930e+00
    1.5964592039968194e+01 -1.1371909410391745e+00
    1.3911616762475500e+01 -1.1976337016502534e+00
    1.2023149223897491e+01 -1.3382692302860437e+00
    1.1490871307417860e+01 -1.7314917696571892e+00
    1.2907498588698900e+01 -2.1517803727480955e+00
    1.1608464002373204e+01 -2.4250778640200887e+00
    1.0599388433002929e+01 -2.1153749908750643e+00
    1.2818142517916032e+01 -1.6479020926336636e+00
    1.6304219230646353e+01 -1.4803447854596508e+00
    1.7422712162985974e+01 -1.1582413189798659e+00
    1.4434072301686507e+01 -1.1264750454252426e+00
    1.2346565901279163e+01 -1.2148931432213197e+00
    1.1801494302729438e+01 -1.5486560962535081e+00
    1.4115551678945437e+01 -2.6342830247152320e+00
    1.4539720698690523e+01 -3.1145829277411665e+00
    1.1857200194937226e+01 -2.4772971417230898e+00
    1.2647624095145355e+01 -1.9943069707346974e+00
    1.4304490933792392e+01 -1.7398633055220314e+00
    1.3881427278247946e+01 -1.2983710230963030e+00
    1.3289115776570851e+01 -1.3298085770735686e+00
    1.2660189908378392e+01 -1.4320137379329996e+00
    1.2134741312495400e+01 -1.8199266786465240e+00
    1.1895687914189409e+01 -2.1023480025531383e+00
    1.2804941033712362e+01 -2.9504551681782067e+00
    1.2274287298613746e+01 -2.8546032510700217e+00
    1.1092062211776785e+01 -1.8296815762291327e+00
    1.1913572417169190e+01 -1.5403700166317305e+00
    1.4831123184272872e+01 -1.3253924359795972e+00
    1.3884492086221805e+01 -1.2051557984741947e+00
    1.3581030455295428e+01 -1.2291963719091610e+00
    1.2124368966617245e+01 -1.5470108533449791e+00
    9.4506306693448128e+00 -2.0252442709839915e+00
    1.0584995489521772e+01 -2.6851204172008547e+00
    9.8641973901123166e+00 -2.0005053597158247e+00
    1.2136162916243848e+01 -1.1353061985389423e+00
    1.1605260071080300e+01 -1.1444448047928732e+00
    1.0616845341539795e+01 -8.9323514632854972e-01
    1.1461754881972185e+01 -9.9008498634810826e-01
    1.5550611738531801e+01 -1.0967764862162486e+00
    1.2107009251666211e+01 -1.4592963376839438e+00
    1.0281082681605767e+01 -2.3498804817145724e+00
    9.8954391329734701e+00 -2.4580287341931490e+00
    1.2103265462662149e+01 -1.9525103829754147e+00
    1.6512894994650754e+01 -1.0800305546144053e+00
    1.4124799793086236e+01 -1.2696743215384485e+00
    1.2058572950336949e+01 -1.0330873476613656e+00
    1.0031984783069554e+01 -1.1495078139808896e+00
    1.2926898702351007e+01 -1.1594972539265234e+00
    1.1209060493199070e+01 -1.7246300711871190e+00
    1.0223066992136909e+01 -1.9588910188644439e+00
    1.0558307118881611e+01 -2.4497555921794416e+00
    1.0220636118792804e+01 -1.8861347427731221e+00
    1.3105884510665494e+01 -1.0316013840354594e+00
    1.2807613146034406e+01 -1.1325184077371058e+00
    1.2169104385829163e+01 -8.4844542292883518e-01
    1.3105289265704640e+01 -1.0757272049878819e+00
    1.7129577743006262e+01 -1.1507317556201284e+00
    1.2240242773368180e+01 -1.3811081436461536e+00
    1.0352646454785754e+01 -2.1005451877466137e+00
    9.6709924097041355e+00 -1.9291607361680843e+00
    1.0337688701540474e+01 -1.4759427742268738e+00
    1.5256114816531555e+01 -9.3576629358868113e-01
    1.4701201862305327e+01 -1.2473620504608194e+00
    1.2925430247622582e+01 -9.1723923624253778e-01
    1.1168705234951791e+01 -1.1274880656800950e+00
    1.4506402700373108e+01 -1.2264451254809203e+00
    1.1504252983084577e+01 -1.6692676038208860e+00
    1.0914285111622220e+01 -1.6068618242427251e+00
    1.5647130545901767e+01 -1.6361423740900896e+00
    1.6600198058333504e+01 -1.9074833763879580e+00
    2.4371365798894093e+01 -1.9752326904144499e+00
    1.4089445924891457e+01 -2.4841758850315236e+00
    1.7405792406047794e+01 -1.5148035640379878e+00
    1.6113800768399898e+01 -1.8572680060575222e+00
    1.5896309338345572e+01 -1.5288411083886457e+00
    1.0781800987101258e+01 -1.5711718516504685e+00
    1.0616949571848167e+01 -1.9379524992107164e+00
    1.4227286364053199e+01 -2.0383181364116765e+00
    1.3972403568966605e+01 -2.4527119913747106e+00
    1.0764313928483695e+01 -1.6560654724763142e+00
    1.3349797164063455e+01 -3.1297178769083085e+00
    9.7275730128073992e+00 -1.7351699916267462e+00
    1.0973300854350525e+01 -2.1120693758481637e+00
    1.1440062589016037e+01 -1.7072446334440696e+00
    1.0263961642902068e+01 -1.8444731084514050e+00
    1.1296665000047172e+01 -1.6184101925410221e+00
    1.5511688132013948e+01 -1.6284306852612003e+00
    1.5163518415314293e+01 -1.7861489898017615e+00
    2.4371568531342540e+01 -1.8771421928589249e+00
    1.4782590248940483e+01 -2.4727526462807337e+00
    2.0763337002754170e+01 -1.6600084718126236e+00
    2.0688149614491280e+01 -2.2884583302401529e+00
    2.1620888298535871e+01 -1.8672619081434081e+00
    1.1566800059306244e+01 -1.6018620542853763e+00
    1.1470090469958738e+01 -1.9878124091540621e+00
    1.3481613371923531e+01 -1.8063799718550289e+00
    1.3135198788643464e+01 -2.1013912674312052e+00
    1.2005169777569691e+01 -1.5386056565663675e+00
    1.3456425065791297e+01 -2.8459481516840066e+00
    9.8452252814188199e+00 -1.4645789434591741e+00
    1.1916110727190368e+01 -2.2419163818334340e+00
    1.4390469820816806e+01 -2.0105717869899800e+00
    1.1882448255007056e+01 -2.0601394095378489e+00
    1.1790886607519123e+01 -2.7374301464147672e+00
    1.0901609644185950e+01 -1.9433653662302122e+00
    1.2390633577068130e+01 -1.7470057877302785e+00
    1.7689540828345599e+01 -1.4919201312872472e+00
    1.2733859689505223e+01 -1.6213472561397630e+00
    1.2691373603251193e+01 -1.2641970182768145e+00
    1.1591106174208498e+01 -1.6340177379234884e+00
    1.0872894167537273e+01 -1.6372733019298393e+00
    1.1031772759404618e+01 -2.3932316199217110e+00
    1.1556297198423067e+01 -2.6461127567626912e+00
    1.2350503768843794e+01 -2.2302883372854176e+00
    1.2699388545930491e+01 -1.9986808678078303e+00
    1.5384003274142581e+01 -1.4311029342950190e+00
    1.2486180551122386e+01 -1.5891685108395286e+00
    1.6048038346547781e+01 -1.4756149104963960e+00
    1.1154393747064919e+01 -1.6730002324439817e+00
    1.0720758300708114e+01 -1.7533020670994555e+00
    1.0893641415040268e+01 -2.3879242513768606e+00
    1.1372192251116095e+01 -1.9567998237824273e+00
    1.1306290380787489e+01 -1.3798575096118548e+00
    1.3024391223889067e+01 -1.3640291071895123e+00
    1.7768935765153284e+01 -1.2064364145472910e+00
    1.2341854527797651e+01 -1.4247487856219503e+00
    1.5538162857264080e+01 -1.1527572292393853e+00
    1.3443304780902523e+01 -1.4973497526429100e+00
    1.3621046217236145e+01 -1.5933873233459730e+00
    1.2005730124228403e+01 -2.0619450263592678e+00
    1.2096740444510981e+01 -2.2406833249823710e+00
    1.1411493892216447e+01 -1.5954361137445607e+00
    1.1132164857704016e+01 -1.5251874333062159e+00
    1.2329734512528713e+01 -1.0734520028100853e+00
    1.0967109773122672e+01 -1.3187987120538320e+00
    1.7675713494181171e+01 -1.2655887971523103e+00
    1.4797013193991845e+01 -1.6342351672238287e+00
    1.3023725728557459e+01 -1.6024879763885871e+00
    1.2154364875506349e+01 -2.2385271937968518e+00
    9.5520283358463747e+00 -1.5659341401545481e+00
    7.9939890259641952e+00 -1.7472510160736123e+00
    8.8676603288408185e+00 -2.2775268714578907e+00
    9.2713120193290770e+00 -1.4996853176423881e+00
    1.1033636991653237e+01 -1.6159892206201338e+00
    1.9488481738985335e+01 -1.3764307586467162e+00
    1.6222694200290121e+01 -1.4281600889935131e+00
    1.4000235258857149e+01 -1.2791990639440194e+00
    1.0002613685533579e+01 -1.3331023072467727e+00
    1.0014067917224999e+01 -1.4627674571494658e+00
    9.1062934248796115e+00 -1.8210977213301895e+00
    1.0073447272045664e+01 -2.4253842524506237e+00
    1.0847124144474289e+01 -1.3562101372056095e+00
    1.1372215239631199e+01 -1.5218198830883716e+00
    2.0639495914391002e+01 -1.2275730246774035e+00
    1.4618487591897111e+01 -1.2169248374427422e+00
    1.4550468411215519e+01 -1.2060733796959431e+00
    1.0742418891903666e+01 -1.2834008193710136e+00
    1.1893074948466507e+01 -1.6075325640262867e+00
    9.4166853347146944e+00 -1.7418294302371484e+00
    9.0449093933548390e+00 -2.1463999665348434e+00
    1.0385054668216863e+01 -1.3176889064917057e+00
    1.0830310218100717e+01 -1.5355873002294913e+00
    2.1046582700775350e+01 -1.3045025004385931e+00
    1.6507603794943957e+01 -1.3080016403633550e+00
    1.7580396870404321e+01 -1.3353901326401041e+00
    1.2128147178830853e+01 -1.3957538168273294e+00
    1.1055546982988764e+01 -1.3240353668119644e+00
    1.0036038407597911e+01 -1.3692338714824224e+00
    9.2398835200435947e+00 -1.7552512106570477e+00
    1.0475510834517474e+01 -1.2571740463116763e+00
    1.0578877444849068e+01 -1.5195280400335269e+00
    1.9703108503301458e+01 -1.1645780134330617e+00
    1.5013282658176877e+01 -1.1943016536784627e+00
    1.7087452646383689e+01 -1.2431514534987669e+00
    1.1308073503871586e+01 -1.2513748156833275e+00
    1.3023888210756123e+01 -2.2257128674011035e+00
    1.1447307250278287e+01 -1.9728982227434366e+00
    1.1424819147150027e+01 -2.1184628785592055e+00
    1.2251321701844248e+01 -1.3407841380368792e+00
    1.2336327673256370e+01 -1.9196474595042696e+00
    1.8782524992151664e+01 -1.5350675031997800e+00
    1.4326153828501621e+01 -1.7887334222374696e+00
    1.4847787585879527e+01 -1.6638654432219868e+00
    1.3985380222571257e+01 -2.2240960585915883e+00
    1.2948196077231389e+01 -2.4251974315905849e+00
    1.2378647738040678e+01 -2.1329187735786332e+00
    1.2370997651978705e+01 -2.2632158396717816e+00
    1.6085560473035208e+01 -1.6071376927618386e+00
    1.1940681957766060e+01 -1.8906980612098452e+00
    1.4292370309241155e+01 -1.4091143258767249e+00
    1.2914669105559264e+01 -1.7640614002057244e+00
    1.7076931555332120e+01 -2.0624608275807619e+00
    1.5401794753756963e+01 -2.7111702182344630e+00
    1.1621667309155917e+01 -1.9286420782245295e+00
    1.2491522752447082e+01 -1.9160441840693483e+00
    1.0967656780051966e+01 -2.0340378648507476e+00
    1.1612072977397782e+01 -1.4437214713662212e+00
    1.2560220019584420e+01 -2.1377052316701119e+00
    1.8221706022998557e+01 -1.5458059547050904e+00
    1.4372030342611469e+01 -1.7582583689632749e+00
    1.7856960336918959e+01 -1.9038466935462515e+00
    1.2192861820373507e+01 -1.8832186241639259e+00
    1.2009747125683347e+01 -2.2101454252758153e+00
    1.1980610184295291e+01 -1.8836529521846497e+00
    1.1898499293170369e+01 -2.1039903768688055e+00
    1.2324557112988666e+01 -1.4950386860301925e+00
    1.2189594167154439e+01 -2.1136386228858619e+00
    1.5956280722537116e+01 -1.5608996682007916e+00
    1.3720716006706947e+01 -1.8752615132562489e+00
    1.7296200799487156e+01 -2.0812436429163843e+00
    1.3394213832650255e+01 -2.3020618578415144e+00
    1.3822614029217974e+01 -2.3324121763849903e+00
    2.2670806493822749e+01 -2.6501154667299969e+00
    1.8651478737150736e+01 -2.7720207780809827e+00
    1.8229609171674085e+01 -1.7161111680950696e+00
    1.5212095542501773e+01 -2.9655397610742065e+00
    2.0425020087055554e+01 -1.6730760317433722e+00
    1.9669320313452058e+01 -2.5040433062394345e+00
    2.1995932734581213e+01 -2.2540351900716415e+00
    1.3649169128153460e+01 -2.2370339488827766e+00
    1.4221406764834850e+01 -2.7960793916116931e+00
    1.6912581755302515e+01 -2.5677393611670398e+00
    1.5462754987263809e+01 -2.8046577688638683e+00
    1.4266993538843424e+01 -1.6987969792108544e+00
    1.4797508443238225e+01 -3.1196112684240869e+00
    1.5232786580268629e+01 -1.6492037484179038e+00
    1.5345249437237685e+01 -2.3885504392966541e+00
    1.7889230301217687e+01 -2.2585710803387564e+00
    1.3994858002316350e+01 -2.6617682518176675e+00
    1.3808638832973736e+01 -2.4353063880614187e+00
    1.8470012971291808e+01 -2.4415172720314127e+00
    1.7499147776751173e+01 -2.8179363372361159e+00
    1.7344472038338232e+01 -1.7612972237059108e+00
    1.5880122819349948e+01 -3.2042230700046392e+00
    1.8983417211248582e+01 -1.6136372350838297e+00
    1.8773346564854307e+01 -2.5272632762604164e+00
    1.8587381468941121e+01 -2.1655533186817513e+00
    1.3558908785369152e+01 -2.3261479020242319e+00
    1.4490923273487875e+01 -2.8346586594200942e+00
    1.3912080513362419e+01 -2.2757543973816436e+00
    1.5356623942919429e+01 -2.8779506353782613e+00
    1.4537334439335662e+01 -1.7884262644569024e+00
    1.6302551479512143e+01 -3.5210633861726861e+00
    1.7748934371852211e+01 -1.8140930239561484e+00
    1.6665065636167689e+01 -2.7085711545466076e+00
    2.0198956610773195e+01 -2.7220366606593598e+00
    1.4271320439073925e+01 -2.6974183379489340e+00
    1.0246950012664737e+01 -1.9207559332252782e+00
    1.1400668538274578e+01 -1.5517135958549446e+00
    1.2973292731759082e+01 -1.8452463993703223e+00
    1.6435620126536460e+01 -1.3103464252239236e+00
    1.1432447993683166e+01 -1.9165812088888547e+00
    2.0572442266210928e+01 -1.3482429808461784e+00
    1.4437739710661196e+01 -1.6761579797445167e+00
    1.7501253971575206e+01 -1.7656621544832782e+00
    1.0535815918029842e+01 -1.8364560777540400e+00
    1.0995655895231822e+01 -2.2749115494206467e+00
    1.1410331256673500e+01 -1.7218721900586715e+00
    1.2869419658393854e+01 -1.9376973198227856e+00
    1.7098560465877000e+01 -1.4371658755117238e+00
    1.1722163601375701e+01 -1.9463075543652324e+00
    1.6923730398320398e+01 -1.2680853698634476e+00
    1.3228098053654010e+01 -1.6294311537012298e+00
    1.5570754816983575e+01 -1.7542615318900108e+00
    1.0853515564264924e+01 -2.0734566449077771e+00
    1.2763848034777917e+01 -2.4492608411343397e+00
    1.1461310895182429e+01 -1.8406986749936158e+00
    1.2696904805011926e+01 -2.1019594575693192e+00
    1.3842148701370427e+01 -1.3152679054982632e+00
    1.2457385941913090e+01 -2.4299739827462123e+00
    1.6330719606384790e+01 -1.3163845286162787e+00
    1.1878751390662238e+01 -1.6147504734401665e+00
    1.2435834064947848e+01 -1.4947694854060485e+00
    1.1758775816068704e+01 -2.0664108632492648e+00
    1.1844633453289157e+01 -2.4041892329936259e+00
    1.0950505549944216e+01 -1.7370978541616855e+00
    1.2487348559973361e+01 -2.0513652396058046e+00
    1.4113640496010913e+01 -1.3099167840656076e+00
    1.2618274008892136e+01 -2.3308607875065928e+00
    1.9562524738015362e+01 -1.5234385776550841e+00
    1.3016495627518710e+01 -1.7445895880362814e+00
    1.4198471101814983e+01 -1.7627990639569839e+00
    1.1809473742145597e+01 -2.2489505120469997e+00
    9.9961412009158348e+00 -1.5730065704513641e+00
    1.1070951468044617e+01 -1.3088120385780699e+00
    1.0388836808277755e+01 -1.4956688690043247e+00
    1.0812919016611581e+01 -1.1123532610525055e+00
    1.0219552698549665e+01 -1.6554965745754844e+00
    2.0368364857197811e+01 -1.1822184437041445e+00
    1.4107819214004152e+01 -1.3058924352087196e+00
    1.6872270622900441e+01 -1.4897189029851639e+00
    9.9721938037895281e+00 -1.5615856226091829e+00
    1.0837293114891164e+01 -1.5737420858887792e+00
    1.3337785086555417e+01 -1.5573571704734981e+00
    9.8748706178042909e+00 -1.9030716209833236e+00
    7.6807382054294289e+00 -1.2798453704163184e+00
    8.6133909815481289e+00 -1.8993193515347069e+00
    1.8618615136081726e+01 -1.3036872512513979e+00
    1.4064583367772480e+01 -1.3588479980966783e+00
    1.4561970385804736e+01 -1.3710698018280016e+00
    1.0656679537895570e+01 -1.5281829741427972e+00
    1.0025293107547872e+01 -1.5831701528367681e+00
    1.5665129691293041e+01 -1.6600184234344861e+00
    1.1945627571155187e+01 -1.7243400890712024e+00
    9.9920723321498208e+00 -1.1976832106478930e+00
    1.1347771119276540e+01 -2.0590671496558826e+00
    2.3022878181153942e+01 -1.3916373751407298e+00
    1.4729275527517833e+01 -1.4120563573237130e+00
    1.1936943548744534e+01 -1.3057354522462079e+00
    9.9647871536048456e+00 -1.5537910031377729e+00
    1.0172530559609552e+01 -1.5898066981485828e+00
    1.5206267156312647e+01 -1.8794176634316679e+00
    9.4321972131673562e+00 -1.8551109907397030e+00
    7.5987347973548260e+00 -1.3647333800441011e+00
    8.6169252753019254e+00 -2.0264595709832576e+00
    1.6847978625611976e+01 -1.3654190106307691e+00
    1.3403336078690202e+01 -1.4183225936112163e+00
    1.0939585061644818e+01 -1.2901627249164784e+00
    9.7893626219533321e+00 -1.5254684599906967e+00
    1.3318006508764682e+01 -2.2317310909222110e+00
    1.3236299855764692e+01 -1.8152609792402816e+00
    1.4253927653699790e+01 -2.1629746549507485e+00
    1.2764032401000451e+01 -1.3984253354428549e+00
    1.3713728284911845e+01 -2.5496303457302778e+00
    1.7339537993188511e+01 -1.5780037109801512e+00
    1.5684399948431123e+01 -2.0519727048095913e+00
    1.5850108896390431e+01 -1.8305966431245901e+00
    1.3009703086417412e+01 -2.1262316895528088e+00
    1.3286582079042384e+01 -2.3460419178177943e+00
    1.3155568936292164e+01 -1.9309102927290276e+00
    1.4061393574306914e+01 -2.3724515271422613e+00
    1.1371891479410861e+01 -1.4329622513170686e+00
    1.3498779259020989e+01 -2.6923907108698355e+00
    1.5107714797438051e+01 -1.5730613390086130e+00
    1.5361203291351639e+01 -2.1281160809260475e+00
    1.6667683977215500e+01 -2.0014618989357671e+00
    1.5505700966709911e+01 -2.5716997307873806e+00
    1.3478860916897235e+01 -2.4366849028423871e+00
    1.7582673011028660e+01 -2.3666294663662040e+00
    1.4976015780425444e+01 -2.1871809065245005e+00
    1.5327812088994900e+01 -1.6239585962237062e+00
    1.4120899022648372e+01 -2.6142439008167226e+00
    1.9597927616539717e+01 -1.8598535219281571e+00
    1.3036335533092442e+01 -1.9374504781121078e+00
    1.2825546358780137e+01 -1.7455715435292571e+00
    1.2722214070589835e+01 -2.2130531805123006e+00
    1.6211945432215423e+01 -2.9844345501006444e+00
    1.4889521027127076e+01 -2.2240621590743501e+00
    1.3771496843974685e+01 -2.3632766027470189e+00
    1.1887924478271307e+01 -1.5641775923773245e+00
    1.3907385267998041e+01 -2.7837241090397735e+00
    1.5359072197638957e+01 -1.6649492585925576e+00
    1.5112217633038615e+01 -2.3045864236468887e+00
    1.3659594955765419e+01 -1.8792593186532642e+00
    1.3887065803226783e+01 -2.5180279165880051e+00</input_scale>
  <output_scale>
    5.2631578947368418e-01 4.9999999999999994e-01 5.2631578947368418e-01
    4.9999999999999994e-01 5.2631578947368418e-01 4.9999999999999994e-01
    5.2631578947368418e-01 4.9999999999999994e-01 5.2631578947368418e-01
    4.9999999999999994e-01 5.2631578947368418e-01 4.9999999999999994e-01
    1. 0. 1. 0. 1. 0. 1. 0. 1. 0. 1. 0. 1. 0. 1. 0. 1. 0. 1. 0. 1. 0. 1.
    0. 1. 0. 1. 0. 1. 0. 1. 0. 1. 0. 1. 0. 1. 0. 1. 0.</output_scale>
  <inv_output_scale>
    1.8999999999999999e+00 -9.4999999999999996e-01
    1.8999999999999999e+00 -9.4999999999999996e-01
    1.8999999999999999e+00 -9.4999999999999996e-01
    1.8999999999999999e+00 -9.4999999999999996e-01
    1.8999999999999999e+00 -9.4999999999999996e-01
    1.8999999999999999e+00 -9.4999999999999996e-01 1. 0. 1. 0. 1. 0. 1.
    0. 1. 0. 1. 0. 1. 0. 1. 0. 1. 0. 1. 0. 1. 0. 1. 0. 1. 0. 1. 0. 1. 0.
    1. 0. 1. 0. 1. 0. 1. 0. 1. 0.</inv_output_scale>
  <weights>
    <_>
      -6.0939722900043611e-02 -7.4956014091697706e-02
      -2.5686891942241448e-02 5.8701443110636305e-02
      -1.0261693388441084e-02 -3.8145135324605513e-02
      1.3106498253989756e-02 -2.3974941447712269e-04
      -3.4216689747846848e-02 -2.0389367521081891e-02
      -3.8026915606915873e-02 7.3133102808064935e-03
      -2.7026976662298273e-02 -5.8667709737856386e-02
      1.7766599411935195e-02 -1.3063260418422078e-02
      -1.9697197107047822e-02 1.0020310691833866e-02
      1.5656308954258642e-04 7.6011313545906178e-03
      -3.8088101461210812e-02 -2.1393400387423215e-02
      -3.2576096030099951e-03 6.3481226522125359e-02
      -7.0414453396218935e-03 -8.8325326989567004e-03
      1.9344595503107180e-02 4.6715029747248671e-02
      4.0732774328835479e-02 3.4307012878191143e-02
      8.6483979432071034e-02 -1.9597819261893541e-02
      -1.3713666363554918e-02 2.0474386241355363e-02
      -3.9980660749505501e-02 -9.6931467215642178e-02
      5.5811391406484570e-02 2.7600273163859976e-02
      6.7647653333942431e-02 3.4925843235633754e-02
      -8.0117992878927694e-02 -1.2876284223173931e-01
      -3.0342641422517816e-02 9.2365035368203244e-02
      -7.2564046707461180e-02 -7.3397033730312825e-02
      -5.4617907478902550e-02 1.4152043947727689e-03
      2.0467142176316847e-02 2.2563665504852375e-02
      -2.6429053813881890e-02 6.3751503568951499e-04
      -3.0729766465831032e-02 2.7816251861227347e-02
      -6.9541478820157945e-02 5.9226652552749143e-02
      -4.5448435224174411e-02 -2.7273539159232540e-02
      -5.5448118934700114e-02 6.8320500715206900e-02
      1.1846029100376973e-02 5.0469686446332568e-02
      5.5645294992763524e-03 3.9686864472485688e-03
      8.8682291566972132e-02 1.0375741859420108e-01
      1.3032854699499405e-01 2.7490637609766722e-02
      8.4971176155273484e-02 8.6506639682622746e-02
      8.8424042593938310e-02 -7.0436458758706147e-02
      9.8827670022076895e-03 5.5805212332706376e-02
      -5.4866674840066743e-02 -1.7557531004529073e-02
      2.8488560817056578e-02 2.8382354063901504e-03
      3.3752905582108056e-02 -2.5187137750584548e-02
      1.2350130380756091e-02 7.2677395106936632e-02
      5.6362353832004174e-03 2.0038445762876486e-02
      3.4290934864986945e-02 7.5096345583091119e-03
      9.1077192269222965e-02 4.2530325288555326e-02
      -8.3703118708480569e-03 -9.8695876473297237e-03
      3.0339566657996565e-02 1.8417514388887680e-03
      1.8318206633880899e-02 6.4301625438111354e-02
      6.3959683744465126e-04 -5.5481428733953064e-02
      2.0967766060785438e-02 3.4119499442223485e-02
      -1.0921573146133463e-02 7.5320145922570053e-02
      1.9492416619947522e-03 1.6644125335500044e-02
      1.2159794283071878e-02 -1.0538244745499444e-01
      -6.8190347300310164e-02 -5.8763718640349308e-02
      -7.8816633137710118e-02 7.8170399082566379e-03
      6.1959996895377130e-02 4.6681129852421413e-02
      7.1492942124291178e-02 9.2292360937446263e-02
      3.6417095563060387e-02 2.4566899486792547e-02
      1.6485443800874532e-02 -1.6429787971305936e-02
      -8.9931573437740924e-03 1.7832356396879041e-02
      -4.5158754404334901e-02 1.9277873283805116e-02
      4.0850809135498600e-02 -1.6564974884328437e-02
      7.7030564165484330e-02 5.7847261055454652e-02
      -4.6295553460267480e-02 -6.4776958752920319e-02
      -2.0532373421879278e-02 6.4825915149538629e-02
      -2.2480667677526316e-02 -2.6398361512897858e-02
      2.4460490352743610e-02 -2.1909883173712168e-02
      -2.7006733339979737e-02 -1.2166245910034812e-02
      -6.8065901361775698e-05 4.0608737154963888e-02
      2.7821467941187703e-02 1.3685754147894150e-02
      1.3092720214023781e-01 1.9788009590718567e-02
      7.1175714974258980e-02 1.0792712512081007e-01
      4.4040289097333291e-02 8.8194016156185967e-02
      -7.4652895772260142e-02 -1.3362306389910655e-01
      -3.6489048127219238e-02 3.7789534321859421e-02
      -1.5990023555586971e-01 -2.4830545198632542e-01
      -2.0205227117617120e-02 2.0614070747255075e-01
      6.2165410506816480e-03 3.2674537543929766e-02
      -3.7329236700201732e-02 -1.0771030847934897e-01
      4.5684913111823704e-02 8.6276225516300750e-02
      1.3535717696602364e-02 5.6757347617797695e-02
      -2.0863084477436664e-02 -1.0927950278247204e-02
      -4.7328781217759110e-02 -2.9750888746952336e-03
      -1.5330584272084797e-02 7.3559194439330611e-03
      -1.3272258781596782e-01 -1.5945200259169848e-02
      -2.3585976752233287e-03 9.5073439664887863e-03
      -4.8686846788547296e-02 -4.0669304311390285e-02
      6.5653597044204787e-02 6.5004659195486467e-02
      6.6831968098634037e-02 -4.8727838086868633e-02
      3.0044873782855416e-02 6.8737882906876038e-03
      5.4005419682070455e-02 4.2982761179718908e-02
      -3.3884276938790300e-02 -4.3796975088665771e-02
      -1.3193381860671663e-02 -1.9462267827451443e-02
      3.9030816178911949e-03 -3.2017767391907336e-02
      -2.1155727799899344e-02 9.0606204620275230e-02
      -3.5637299366191741e-02 -7.0000769480912800e-02
      -2.4880321899661662e-02 8.0183896546505914e-02
      -2.1612101266858082e-02 -1.5647780223593175e-03
      1.7822772487941611e-02 9.0237180679410625e-02
      8.1342357159607075e-03 -1.2467914071313424e-02
      -8.0503667058189968e-03 4.0001798497845090e-02
      -1.2265234702192733e-02 -1.1468650874962103e-02
      -6.7256226401229788e-02 3.0903333858466362e-02
      -5.2254006682658408e-02 -5.0393411377406085e-02
      -8.0024714155585999e-02 -3.1071432591409082e-04
      7.5919461455904044e-02 1.1561827434771771e-01
      8.9795799102495133e-02 4.5757143427693013e-02
      3.9495418323251624e-02 8.5770649669043048e-02
      5.6737670337181099e-02 7.5596585777755821e-03
      -1.0347997490058039e-02 -5.2740526649380254e-02
      3.8457526964670585e-02 6.4976618837295511e-02
      -1.5535776208681396e-01 -2.1742845486725362e-01
      -3.8680467375743162e-02 -3.5901836551335727e-02
      -7.0635269929642697e-02 -9.0661100906517786e-02
      2.6325681662634586e-02 -1.9109189982781499e-01
      6.6689582475746535e-03 -3.6082182056552871e-02
      9.3050270423778766e-02 -8.6049400517756572e-02
      1.6412589578540730e-03 3.5644927346788996e-03
      -3.8534644466729440e-02 2.0950755364947091e-02
      3.3090764465819038e-02 6.7746538711207685e-02
      -7.8143005049561204e-02 -1.0432568760553346e-01
      -1.6991354938930562e-02 -2.3489190262608955e-02
      -2.8797209687083825e-02 6.5655522964576177e-02
      8.4018395814603131e-02 9.9575942165361572e-02
      5.7329038740512511e-02 -1.7233650906672754e-02
      2.7451993125292333e-02 -4.5305840419205747e-02
      1.4196771462910798e-01 4.1370073651506481e-02
      -2.8577180175694977e-02 -5.2262760041520008e-02
      -3.4211759967525047e-02 6.1174563845474922e-03
      -9.1902912217655314e-02 -8.0177791037921470e-02
      -6.4366131433773593e-02 -8.9366029483467727e-03
      -4.5458659338892489e-02 -2.9542603180940919e-02
      -3.5072459432840576e-02 -3.0728819543794413e-02
      -5.9654930057285449e-03 -2.9841801107996169e-02
      1.0235487960168148e-01 8.6254688512459890e-02
      3.1857970643559869e-03 -1.5296341020688864e-02
      -1.7064622165763481e-02 3.3335529167371113e-02
      4.9076247618429693e-02 1.4558587668717862e-02
      8.8351973564173032e-03 -1.1921063420304037e-02
      9.2707916550101369e-03 2.2763132207828565e-02
      8.4975000738447444e-03 1.4988724225791505e-02
      8.8213504738755430e-02 1.1459855591674190e-01
      1.0216234325208097e-01 1.0721622607355196e-02
      4.9076368788250627e-02 7.2867624602675610e-02
      1.4303117140554875e-01 -2.3378084659403183e-03
      -5.6549818112880429e-02 -3.1399896673473336e-02
      -1.9225390986746298e-02 3.8939883098467690e-03
      -3.4330211027001271e-03 9.9326747929057893e-02
      -3.2262090027193554e-03 3.7673411474561082e-02
      -2.1283135329470449e-02 -6.9562586238467561e-02
      -3.2740792563838245e-02 -1.0987418822529368e-03
      2.9315990239036447e-03 -1.5774184095145662e-02
      6.3276225774960195e-03 -8.0227335660699423e-02
      -2.3179977761243848e-03 -4.2753299007584802e-02
      2.5067413257614114e-02 -1.6974368852491570e-02
      -3.6386501808962655e-02 -1.0613656046086863e-02
      -7.2345855583096988e-02 5.5107586124507717e-03
      -5.7222133574209924e-03 -5.1348405914257204e-02
      3.2460863818199520e-03 -1.4757609591571186e-02
      2.0154574945846233e-03 -1.1946981247145732e-02
      2.0277928431125664e-02 1.8073248447266731e-02
      4.5246705393226630e-02 2.6167139142360889e-02
      4.4140991672149688e-02 7.4253059506826063e-02
      -2.0758104840122332e-02 3.0061567711435762e-02
      1.4925370198934564e-02 7.8514823518411408e-02
      6.0347271969434554e-02 1.4921721322276893e-01
      1.9701730479562959e-02 -3.3314194120583264e-02
      2.3336699937898605e-02 8.0417289707430686e-02
      -5.9166334645985603e-03 -6.5552645004876356e-02
      6.6241024439541579e-02 6.3010883318103783e-02
      3.4698858882462574e-02 -4.7470139703290823e-02
      4.2497682548865150e-02 -2.1850912663230974e-02
      8.7642546563222234e-02 1.9461320918401703e-02
      -7.7228591621558021e-03 7.0287616038497571e-05
      2.0208307992675041e-02 3.7836689276963903e-02
      -8.0788772670100663e-04 5.1040242265410858e-03
      -4.1815460037873592e-02 1.7587918680708119e-02
      -5.2240619602152587e-02 -2.0309971647066959e-02
      -1.3727056317770747e-01 7.1781548724023619e-02
      2.3804627413528168e-02 4.3209430957291071e-04
      -1.3585601946890876e-02 9.2843329739963384e-02
      8.1308059327645683e-03 3.2472327226027416e-03
      -3.6828815058590418e-02 -1.1441261823582809e-01
      -1.2770532123957123e-02 6.0882483989154919e-02
      -7.7330398866326561e-02 -3.6782831973923305e-02
      3.5334265561834215e-02 3.0120663470682197e-02
      1.6990163919811435e-03 1.0146188072167101e-01
      3.4601871560607872e-02 -9.1356439724165420e-03
      2.0836577653335329e-02 -2.3935770711893449e-02
      -2.3344849950384293e-02 -7.6998231453210733e-02
      -2.8358452118472807e-02 -4.2163612298747141e-02
      -4.4822452962230877e-02 -8.1088398934093531e-02
      -6.1951659058120313e-02 -5.0356484095862616e-02
      -2.9866672810812265e-02 -7.6735354125092275e-02
      -5.9792497210477247e-02 -3.4790452519163420e-02
      1.4433309112945401e-02 -2.8272403971523502e-02
      2.6855913936265356e-02 8.0179183252902492e-02
      -2.7694691563112859e-02 -9.7476688880690721e-02
      4.2050315958689084e-02 -7.2921966502334540e-02
      1.9911914550173920e-02 4.0555456954546022e-02
      6.2050218934181521e-02 8.8207724108081267e-02
      -3.7671524842282878e-03 2.4705554545923512e-02
      -4.7636916021407329e-02 3.9296879433068400e-02
      2.2796040587149197e-02 5.5367009022851243e-02
      -5.4908283849481959e-02 1.1016030487683622e-01
      2.6434969497331845e-02 9.2970721703323003e-03
      6.6901288534187697e-02 1.0852230642192272e-01
      -2.1918664783475796e-02 -1.2720253442155843e-01
      1.1157777517341756e-01 1.6464117086649754e-02
      -4.4509312588325188e-03 1.2757347729009286e-02
      -5.6177870121608938e-03 -5.1986455253593612e-02
      1.9300742396001703e-02 2.1036591106168710e-02
      5.9690207962270529e-02 -9.2836877802724219e-02
      6.0233542416806694e-02 8.5546906115625168e-02
      2.6779523295324254e-02 1.1556989503835037e-01
      -1.2207372848475744e-02 -1.0466462032270898e-01
      4.2019541466816086e-02 -1.1639639230311086e-02
      -6.2862459474458218e-02 -6.3689756996978236e-02
      -1.2170646875665284e-02 4.5652860882824969e-02
      -2.6699259965393855e-02 -1.1255121688014551e-01
      1.1328171694348031e-01 8.1179945871032458e-02
      5.7378823394813781e-02 -2.4133276531666008e-02
      9.0887527389291747e-02 -5.8539549956052636e-02
      5.2057768010764331e-02 8.6066114937774107e-02
      9.0647389288264768e-02 9.5295899049727656e-02
      -1.8186481815834408e-02 -2.8407779997839600e-02
      5.1934514904923998e-02 2.7194189604079926e-02
      -1.4743748356533396e-02 1.3896218396828811e-02
      -8.4380056346711446e-04 -1.2673250187832397e-01
      -1.5419844764271967e-02 -7.0045115861563229e-02
      7.6406516795835488e-02 5.4408095905724728e-02
      -5.0603625918323417e-02 -8.5340812921084752e-02
      -9.4636226187390801e-02 7.0984386306152059e-02
      -4.8088375632674991e-02 -1.1316089708301559e-01
      -9.4299850260423659e-02 2.9300402496727995e-02
      -3.5580328649346259e-02 -9.1046576044182981e-02
      -2.4140195511107930e-02 -1.4157629337391783e-01
      1.9234428483240083e-03 9.7794424042299093e-03
      6.5838220156723450e-03 -1.0503553820004692e-01
      -2.5354570166840382e-02 -5.7581225893020699e-02
      -5.1570518966365178e-02 4.2837965140038729e-02
      -6.9641631229814954e-02 -5.6105177330326690e-03
      -1.0408155054445241e-01 -4.2754022263256164e-03
      -4.0283140052268906e-02 -4.7357105674406555e-02
      -8.6261072439202859e-03 3.3748710674364080e-02
      2.6363840475074861e-02 2.8618168948703934e-02
      3.3525534711969639e-02 2.9705528623715331e-02
      5.5294936643056007e-02 7.9198437659505211e-02
      3.9533901595706328e-02 -6.3077363372413417e-02
      -4.2625950624574256e-02 -7.5440845423446576e-02
      -4.1298014149615592e-02 3.3524647184959316e-02
      -1.4524233394603200e-02 -1.5226892246825685e-02
      -6.6149080243930528e-02 -3.8050837322312875e-02
      -3.6540588336525619e-02 -9.5243672891326139e-02
      4.9672231628631207e-02 5.5015788977513830e-02
      -3.3691361736625986e-03 -4.6228336450030300e-03
      5.4423669123104944e-02 -3.2821384978090208e-02
      1.9201707843544410e-02 1.4962185684398577e-02
      4.1239889520591523e-02 -1.5682990448871556e-01
      -7.4762655307897927e-02 -7.5715631313758988e-03
      -9.3314725391394446e-02 -9.5301926848677491e-03
      1.4549266648378887e-02 2.0685414642084787e-02
      8.0983574903536679e-02 1.7604509831913074e-02
      2.0597908884575151e-02 4.1198462153925412e-02
      9.0526529795610638e-03 -1.3820191641636798e-01
      1.2942012762401532e-02 -2.2339442872749343e-02
      -8.2211298857465319e-04 -5.1375070475314769e-02
      -3.6690106054451319e-02 -4.3992611275102442e-02
      -1.1801952868974656e-01 8.1695259904361606e-03
      -4.2122139779791467e-03 -3.7706134668090786e-02
      -7.9651524716746455e-02 5.2626911283051546e-02
      5.4654529281248448e-02 7.6886126980593245e-02
      2.2702282419677495e-02 -1.5054396578290731e-02
      -1.0952940002259206e-02 -5.7698111040869922e-03
      -6.1004019864250136e-02 4.1587834132770861e-02
      7.9685041793352410e-02 1.3320658264639429e-01
      -1.6825935782936900e-02 2.5528854609882010e-02
      6.9997692425195577e-03 3.8288891934382001e-02
      -4.9042213412544666e-02 -6.8034638056645391e-02
      -6.8359762616482300e-02 -5.4643815159700564e-02
      -4.5058788647992801e-02 -2.1227909502507612e-02
      -2.2336398115223820e-02 -4.7340201285485828e-02
      2.0957153793723748e-03 -7.7847323865484652e-02
      9.7044609208634044e-02 4.0369660151936278e-02
      1.4191110882746982e-01 1.1090202366875396e-01
      -6.9324316614320966e-02 -1.5005068825759169e-01
      7.0173353310599255e-03 -3.0230983466748171e-02
      3.1000456460620569e-02 4.2790882635838356e-02
      -1.5234142847440396e-02 -4.6644152970226893e-02
      -6.7849411948950070e-02 1.4896561200962492e-02
      -9.8729111094244482e-02 -4.8052976059725618e-04
      -1.8601868604464420e-02 2.4080406642523800e-02
      -6.5638511815857309e-02 -4.1472597239055269e-02
      1.4624989784445160e-02 5.8090471423169712e-02
      -6.8529234179149176e-02 1.0033723266386305e-01
      -4.9423435354922912e-02 2.1974621361933053e-02
      -1.4120425243036919e-01 1.0410193302357845e-01
      -3.0119448650000459e-03 1.5926889730775273e-02
      -1.3996652119608394e-01 9.2468274889673949e-02
      1.8365350549480516e-02 1.4026463262083136e-02
      -1.2540995068341976e-01 -1.3414867705531891e-01
      4.7923543657409562e-03 -3.3678762561875904e-03
      -1.1259881485914502e-01 5.3585644388308318e-02
      -1.0000411107458853e-02 4.6738171106524104e-02
      -3.8948752957378013e-02 -3.9769046675747773e-02
      -8.6682784527662607e-02 1.6413928904771887e-02
      -7.7280140164313241e-02 -3.6159934127412800e-02
      -7.4488134555588800e-03 -3.1407580161059351e-02
      9.1261679223706385e-02 -4.9646697802519839e-02
      4.7575422563970196e-02 -7.1992122758194624e-02
      8.2006449846901114e-02 8.2986822249392522e-02
      6.5039081205980134e-02 1.0990462642423392e-01
      -2.6770242187374452e-02 3.7170605923396119e-02
      3.6347213705865966e-02 3.9908142542483781e-02
      -2.0387875309037996e-02 -1.4176396239143232e-01
      5.6514678153843478e-02 1.2310832025341084e-01
      -9.4512252601985591e-02 -1.4266266403355266e-01
      -3.5739654894991024e-03 -1.7517608389721561e-02
      -3.7287039987426447e-02 -2.5738669798677047e-02
      -4.5880384706250181e-03 -7.8539189646186475e-02
      3.1491385043836848e-02 6.6099451299146975e-02
      -3.0731746201358927e-02 -1.2532844580235214e-01
      1.0014229331048601e-01 -1.4658444833330148e-02
      -5.8071284132872013e-03 2.8522722104393656e-04
      8.9715514990533804e-02 -9.0649378666951774e-02
      -2.2212936130906431e-02 3.1283042583019283e-02
      -3.7710421326459020e-02 -1.2805959672966838e-01
      -6.2926798745299467e-02 -9.8485231295523626e-02
      -5.6391162171834090e-02 -1.1035251318157688e-01
      1.4447001844182867e-02 1.1493376924005523e-02
      -7.5888166117857689e-02 5.9536114121914202e-02
      -3.2638617631531083e-03 1.1376349870248900e-01
      -2.0214945350796992e-01 2.1779827301321584e-02
      2.1421699707849979e-02 9.2352322795867248e-02
      -1.3614155256916463e-01 1.8294009510619247e-01
      3.0558697022779459e-04 -5.1260240031445102e-02
      4.0917295872960995e-02 2.7689395232397499e-02
      -1.9276731000505979e-02 -5.6765640246897300e-02
      -2.4397339146607924e-02 1.9720683594576720e-02
      -8.9798011451799692e-02 -7.3965917716518059e-02
      -8.7004110649224711e-02 -1.1567529562174124e-01
      -2.3987668749450700e-02 5.4475104920175203e-02
      -6.0626993043719296e-02 -1.1155908138971321e-01
      1.9765236209552652e-02 -7.6535061259486045e-02
      9.1906731354135476e-02 5.5272095517177523e-02
      7.1914846631411400e-02 1.9213933653434118e-02
      8.8043609112985650e-03 5.7415143964408846e-02
      1.3792722092318121e-04 -5.4318550822068171e-03
      -7.4734315162415368e-02 2.2401126481579207e-02
      1.8908646921373649e-02 1.8956068841088070e-02
      -7.7150642473539310e-02 -1.5919190469001039e-02
      1.7258170017450122e-04 5.3223582525864316e-02
      -1.0833944850303864e-01 -4.2327183418973804e-02
      -2.9045357736559731e-02 -7.3712323724157897e-02
      1.2273392080559487e-02 -4.4089581400101586e-02
      -2.0429949385346282e-02 -1.5072852944865237e-01
      7.6915772944224692e-02 7.9947213736661402e-02
      -1.1587502715148083e-01 -2.6697539710736490e-01
      4.3717615224838385e-02 1.1489268666959676e-01
      -2.1498496265475536e-02 -1.2123078687397300e-01
      1.2354151130904957e-01 -3.8520540925681176e-02
      3.1328405404418114e-02 2.1987237663830744e-02
      -3.3087690626278983e-02 1.9525688183841441e-01
      -1.6507069620053154e-02 -2.5432485216024186e-02
      6.7709714797623888e-02 9.3289558359026581e-02
      -5.1200834379906558e-02 -2.1999608963419636e-02
      -4.5220701808837589e-02 -1.7089609075573564e-01
      -5.4580535971154219e-02 -1.0265462637125983e-01
      -7.5443167150837948e-03 -1.1219374971768815e-01
      8.3175106030573508e-03 1.2729304855057275e-01
      -4.6068638448432474e-02 8.1407661718365884e-04
      2.4611294036981337e-02 -1.5824425762670506e-02
      1.0372392380917722e-01 1.6139723354969801e-01
      -6.1106745302888961e-03 -1.1214317694390107e-01
      1.2252266366136240e-01 2.0350771986533017e-01
      5.6822862247104963e-02 3.5639687199013358e-02
      -1.9619529833268780e-02 -5.8985086670165880e-02
      9.4633253454034533e-02 5.5526987441076779e-02
      2.1442770469901905e-02 8.3170721519700674e-02
      -5.7865842612889302e-02 -5.0933866025215546e-02
      -1.2940844114735386e-01 -2.3868565992222025e-02
      -9.9932954754998957e-02 -7.2785640926461628e-03
      -1.1977698579029943e-01 -9.6047470597603546e-02
      -8.0287284539710776e-02 -5.1424365813144725e-02
      -6.7212343263205007e-02 -3.4805833810128387e-03
      -7.8057104988312045e-02 -1.5009016876567491e-01
      -9.9919329915923505e-02 5.9705032729637973e-02
      -6.8937960156166475e-02 -4.0508158164186001e-02
      -1.0330294721476066e-01 8.8600471918067969e-02
      -2.9994782490810556e-02 -4.4241750171523507e-02
      -1.9748314955990803e-02 4.7963635180809767e-02
      -9.4334386202969377e-03 -3.6228990435391642e-02
      -9.3718099034628740e-03 5.1504121594468329e-02
      1.2055871226000339e-01 1.5054634586109150e-01
      -2.7733331984657317e-02 -2.2726049845882411e-02
      7.8182316540176017e-02 4.8612648612881885e-02
      3.0780801688608424e-02 -3.7257427024218553e-02
      1.0854624735719200e-01 1.1796323257633583e-01
      -1.0292563124781847e-02 1.0434737956531336e-01
      1.2996328442276173e-01 1.8128102594223167e-01
      2.0364331745852665e-01 3.1175503945877443e-02
      2.4595280604535870e-02 -1.5329944974209033e-02
      2.1697168637593342e-01 1.1814120315153703e-01
      1.8956893118288087e-02 -6.6730067955982769e-02
      2.1129038535241734e-01 -5.5965949049393122e-02
      6.0697225464370390e-02 5.1845508619362192e-02
      1.7078190479192742e-01 -2.6567972633036927e-02
      4.1213800922460457e-02 5.0437174569640524e-02
      8.7475614573822066e-02 5.5899192933693179e-02
      1.3573303044347406e-02 -4.5603708545338170e-02
      1.4460475146408486e-01 5.9686637543928833e-02
      4.5239001071123539e-02 1.6219190059331201e-02
      1.2613583563607214e-01 3.1773693655348240e-02
      5.8248656244987734e-02 2.1991679024140499e-02
      4.4086221448771376e-02 -5.2463099453492625e-02
      3.1955084358929291e-02 6.4291159782141227e-02
      -1.3726000774221517e-01 -1.6028216934248049e-01
      5.7194487309855997e-02 1.6819970458522179e-01
      1.7823438865142153e-02 -1.4921651090740309e-01
      1.8644787812572217e-02 -1.8917010486182842e-02
      1.4341601979638327e-01 7.5978610294867410e-02
      -2.1229921020863733e-02 -1.1804023761161772e-01
      6.2616716791006347e-02 -2.2437061785541318e-03
      -5.8556158952444468e-02 -1.4949585840987850e-01
      9.4143752366931843e-02 -3.0068174135053648e-02
      -6.3025052874958465e-02 -1.5768766298865222e-01
      9.9980405874332809e-02 -1.0564892374100714e-01
      -2.1090967711618922e-02 -5.1722953776638561e-02
      1.3269128324298912e-01 -1.9306768167910226e-02
      -2.4255609346547102e-03 -8.6299140857331487e-03
      1.1231799488373875e-01 -4.4144478581229392e-02
      -8.8797724558351762e-02 -1.6593721422660032e-01
      -4.3997872847287470e-02 -1.1183219303727811e-01
      -4.7154564037579456e-02 6.6795989626853666e-02
      -7.6319894724394571e-02 3.8178892750518029e-02
      -4.7469578264753107e-02 8.5903531243160507e-03
      -4.6979470872816932e-02 2.6402417407436034e-02
      2.6587745575151655e-02 5.6417753950528921e-02
      3.0193113997300285e-02 1.0230079520689325e-01
      1.0407412898840128e-01 8.6279402306008612e-02
      5.8896014401397745e-02 -4.6556153049593103e-02
      -3.1601525792616762e-02 -5.6073676083922074e-02
      -1.2302720355096924e-01 -7.0696533250368149e-02
      6.1500661480973925e-02 3.1692840352447911e-02
      -6.5397915582527277e-02 -5.7072884514670040e-02
      -4.0558677727826738e-02 -6.2745579798242954e-02
      -1.1081705758760083e-01 3.1132874503904805e-02
      -7.1139289351012339e-02 -1.0963488945627878e-01
      -5.1515707820772817e-03 -2.6651233037208795e-02
      -3.3269332148241036e-02 -6.5490704665561589e-02
      6.6889965231603427e-02 -3.5940942605556678e-02
      3.9610655582640812e-02 1.0517643848734574e-01
      -4.2231458310723349e-02 -2.6836220323409690e-03
      -4.2728816787091388e-02 -3.6564781660635953e-02
      -2.5801968718905745e-02 -2.9087050173494642e-02
      1.2219537055393317e-02 -1.4910159467254984e-02
      7.8345426036398033e-02 5.7611269315852885e-02
      -1.2896522832537671e-02 -3.0011762185537687e-02
      6.9671670859061050e-02 4.6029488638321743e-02
      -1.2534040637607458e-02 4.5612091015800826e-02
      -8.3070685428633193e-03 -8.1077510467948491e-02
      -4.0965958047540739e-02 6.6794365134809021e-04
      -5.4107406692909643e-02 2.2145164962683109e-03
      -1.7013822393726556e-02 3.5380252966531897e-02
      -9.5024143333347338e-03 4.8525611099774192e-02
      9.3328054702385456e-03 8.7322267514478247e-02
      5.0918414288441474e-02 -1.0828862118315107e-01
      6.4609842499973827e-02 1.0620002670031024e-01
      8.1258284742505793e-02 -8.2789713801687911e-02
      3.1951402994705176e-02 2.0762012864449748e-02
      9.0552954652964451e-03 -8.3392122615860275e-03
      1.6219699307323625e-02 1.0602100096125054e-01
      5.5128434738139082e-02 -1.1902946893028983e-01
      -7.2464790477278921e-03 2.4641629114251141e-02
      2.0996096252646725e-02 -6.5520296632706629e-02
      4.2990028533986951e-02 1.0384579575751049e-02
      5.5713604650556954e-03 1.4007769890895327e-01
      2.9623267229626417e-02 1.5477950264867346e-02
      -8.0473420406829629e-02 -3.4157187094061112e-02
      8.4371992430604809e-02 9.6192676521457507e-02
      -1.2133475225219865e-01 7.5718999839204076e-02
      4.4168289569602101e-02 4.9729636914694883e-02
      -1.8333653771413283e-01 1.6790487314444449e-01
      -9.2260784099631413e-02 -2.1419833411652958e-01
      -1.9952189091367639e-01 8.1204310695520018e-02
      -7.0621803458074506e-02 -1.7959423492603513e-01
      -7.8231780432380715e-02 5.4596133526384476e-02
      3.3423121298528383e-02 -9.0339783957153804e-03
      9.6159225391906841e-03 1.2716008830007072e-01
      -6.0941628680520554e-02 -1.0510274319012838e-01
      -2.0545085841690878e-02 -5.3130296073610278e-02
      -3.9480276529986806e-02 -1.8109951890877798e-02
      4.2010872422890186e-02 -7.5739584009583125e-02
      -4.0108892686339902e-02 -1.1145570512208141e-02
      -7.5216642808960191e-02 1.3314831476414088e-01
      2.8092649752914302e-03 -2.2501742197267169e-04
      -9.7910281904217394e-03 -3.7967389076933207e-02
      5.2260182265064636e-03 -6.0439739631750054e-02
      2.5090535838520407e-02 -6.3065382813426722e-04
      2.5353887920903144e-02 1.5896727056027442e-02
      -2.5617352474622285e-02 2.4983269181725287e-02
      3.8417976926512165e-02 -6.7189628409884718e-03
      8.1209020997963968e-02 -1.0447399137309030e-01
      6.1511571320814792e-02 9.0997094651294134e-03
      8.7693709775899145e-02 1.6832408764832055e-02
      1.8128278478346249e-02 5.3758246556125371e-02
      3.1028447694631072e-02 1.9788988407691430e-02
      -2.3365559526596132e-02 -3.4561139907881414e-02
      2.2885288431960579e-02 5.3523480222454900e-02
      6.1549977730682007e-02 1.4055614747348874e-01
      6.0056977845930622e-02 4.3469639331597816e-02
      -2.0987503641172818e-03 1.3143346731885424e-02
      -9.8572399449293691e-02 -5.5732994966238195e-02
      -1.8331882813168297e-02 -8.5543233466012381e-03
      -1.1294771210219622e-01 -6.4887210177180479e-02
      2.6684779519287619e-04 2.3090341488397684e-02
      -4.4134743149872709e-02 -5.0636072927521250e-03
      3.3703737867764323e-02 5.7736049854995350e-02
      2.1460361970241041e-02 -1.0702227260155128e-01
      1.9377843926760916e-03 1.5746052113134637e-02
      -3.2595001201745438e-02 -1.2282860494915301e-02
      -3.9941794576125816e-02 -2.0585739233133549e-02
      -6.3979036882401752e-02 7.6626902806167754e-02
      3.6357824689991512e-02 1.0857008981015834e-01
      -4.5854478940678706e-02 3.1821033455791022e-03
      -1.8508361514456513e-02 -1.3814137187330074e-02
      -5.2389102121105834e-02 4.0435719297644612e-02
      -7.0723068008077844e-02 -6.8924340766023343e-02
      -1.3984040551612034e-01 5.3408058918631915e-02
      1.8705180541700707e-02 3.1534544417686307e-02
      8.0492534389057877e-03 7.5559496090821396e-02
      -3.4594163743667417e-02 5.9728067079278090e-03
      -1.0118164541098126e-01 3.0726346074197101e-02
      -3.1372224956576045e-02 -2.5195350205280639e-03
      3.8830696463553055e-03 3.9517972007097342e-02
      2.3767778592306030e-02 3.1900724392617298e-02
      8.1848404208974629e-02 3.2059690618100316e-02
      1.9468759849057261e-02 1.4977903940563973e-02
      4.4705233851019890e-03 9.8114282073677714e-02
      -4.3606963093917955e-02 -4.4754281642859835e-02
      -8.3884304181924219e-02 6.8088055037583112e-02
      3.0434688538873420e-02 6.1855452458543847e-02
      -2.0904329872633631e-02 9.8084481465240542e-02
      -1.6910239606151300e-02 -1.7592147595074721e-02
      6.3522337114313418e-02 7.6562165769622687e-04
      1.7908958297207612e-02 2.7880254855446238e-02
      -3.8362944778791673e-02 4.4931231469916767e-02
      -1.4127645508950341e-02 2.5487520288931382e-02
      -1.1344612740196028e-01 1.1789782112710237e-01
      2.3929906868941492e-02 -1.8793446592002716e-02
      2.1422210824272401e-02 7.2007877756977548e-02
      1.5755901484093247e-02 2.0096572612753390e-02
      2.0720509715560248e-02 9.2349843170894605e-02
      -3.6129402036113159e-02 -6.5753062167906648e-02
      -1.5815391812363629e-02 -8.4369567389454989e-02
      9.1416164824676526e-03 -9.8274333750502270e-03
      -2.5592066809462851e-02 2.6804687324002475e-02
      9.8301793667430401e-03 3.8035625940309355e-02
      -3.9530480701171745e-02 4.5961513914575723e-02
      -6.8373592734380165e-03 2.5861319559826384e-02
      -2.4958726915656707e-02 2.1899398599271178e-02
      -1.6246566588207626e-03 -5.6472885823793321e-04
      -1.9987306465252663e-02 3.1191251663063913e-02
      -2.7830493848498912e-03 -1.6929446808501166e-02
      -7.1597532200030900e-02 -7.8025254775679880e-03
      6.9692813061350500e-02 9.9178791347078910e-02
      3.1794999045307172e-02 8.1297058259731117e-02
      -1.2535855237185162e-03 2.2464930064894740e-02
      -3.0076882686524638e-02 -9.2084776667266041e-03
      -4.2829123522977845e-02 -1.4974258043330689e-02
      1.6394414996553461e-02 3.6727835071840291e-02
      -4.9148112208934155e-02 -7.9530821290010281e-02
      1.2124164720467408e-01 -4.2746970983587325e-02
      -6.3430814790885566e-03 -3.1688739633678610e-02
      4.6822346004512946e-02 -4.1681174172640167e-02
      -6.2905963460461123e-02 -1.6078709512834369e-01
      -4.0127992528498073e-02 -2.9135512881170510e-02
      4.5965778714541695e-02 3.7663055654733872e-02
      1.2381820909653294e-02 -9.3560175023265787e-02
      -4.6250343762797526e-02 -8.8133487202122343e-02
      4.8538556500108384e-03 -2.7197359565646662e-02
      -2.7707063998191783e-02 -9.2357419691724202e-02
      4.6420874105083824e-02 5.5248666407582666e-03
      1.7523709173207874e-02 1.6601052713234601e-02
      5.8889626777968079e-02 -4.6947272005160051e-02
      2.6928970162496929e-02 5.7227370476840018e-02
      3.6325881871062914e-02 2.0983913512260307e-04
      1.7195111119489875e-02 -7.2031536059453897e-03
      4.2009939976846378e-02 4.0068239352629986e-02
      3.0611821607269132e-02 8.0522239185810834e-03
      9.1598080274546509e-02 -1.3317004428804688e-02
      8.7164600856850707e-03 -6.1086072065551618e-02
      5.9359350307037893e-02 4.4514414416466953e-02
      3.4143119083532777e-02 1.6221288316981584e-02
      -2.6876281238783568e-02 -1.0294242082050815e-01
      4.8174358288109080e-03 -6.4020979532520006e-02
      1.8292509011328523e-02 4.3373846364385293e-02
      5.8512732933673301e-03 -4.6070560977012958e-03
      1.5378448898968222e-02 1.9408772191360016e-02
      -2.1066634442361974e-02 -8.1788773176234064e-02
      7.3064479277264879e-02 1.0755653537737565e-01
      5.1529731803544331e-02 8.2779567141751401e-02
      3.3927672069397792e-02 3.3198613530032721e-02
      -4.9718111651132567e-02 -3.1081640629733343e-02
      1.6947487720447246e-03 8.9970334343576430e-02
      -8.5355533299100991e-02 -1.3498172725228383e-01
      7.1483743941903710e-02 -1.3226199667796456e-02
      -1.0550853084991366e-01 -2.1709650067369149e-01
      6.4508148307921842e-02 -7.6003976104911275e-02
      -5.3347785050271185e-02 -1.5688974209361833e-01
      9.5490459091095797e-02 1.2893154858077882e-01
      3.6070511782510944e-02 -5.9148563992671675e-02
      1.2201762296340397e-01 -5.7569173683376461e-02
      -3.5502057244046504e-04 1.7397443014483836e-02
      1.6321531430813385e-02 -5.1367897703559116e-02
      -2.9250396444447921e-02 -1.8539941068657056e-02
      -8.2919947548974374e-02 -5.3203399625704501e-02
      3.7116263345616123e-02 5.7315538334720424e-02
      -6.0001903879381542e-02 -2.4904620546843236e-02
      -2.2380460843430990e-03 -1.8658582537039406e-02
      4.3542389829615925e-02 6.0569787840295012e-03
      -1.7261437898634234e-02 3.2869735969226571e-02
      -3.2386123858158061e-02 -3.0813058876616124e-02
      -1.0856791184674038e-02 -1.2157282564871053e-03
      -8.0569830549236457e-02 4.8113768026705056e-02
      9.8534841095911097e-04 1.3856133175244945e-02
      -6.2268863011219346e-02 -5.9074709323832533e-02
      -4.8226580467003871e-02 -4.6896833987185048e-02
      -4.2250907592335504e-02 2.0676975567885694e-02
      2.3128650545949151e-02 7.7378323308629565e-02
      -1.3735548232188456e-02 -5.6181068657653196e-02
      2.4395757999808410e-02 3.6016198606509779e-02
      -8.6943076622382730e-03 -1.3892442493799796e-02
      5.3602685672816223e-02 1.1411764072131252e-01
      -1.4568390683341070e-01 -9.4477759374810816e-02
      -1.5414346106377874e-02 1.0225056832935507e-01
      -1.3956469080287412e-01 -2.9186860484638300e-02
      -4.7267203101391202e-02 5.6893834117972782e-02
      -1.3345354035178975e-01 -1.6518584972356958e-02
      -3.1653785738205383e-03 1.3738665617850272e-02
      -2.8865626320298556e-03 1.3387931024852674e-02
      3.8938061302784084e-03 -2.2022353151594693e-02
      5.5584639269232745e-02 -1.2841734149762621e-02
      1.8331497658996918e-02 -1.3899991068375601e-02
      -1.4698636251869469e-02 -3.9301899239536156e-02
      7.3208223866378985e-02 -3.2633137758474474e-03
      4.5074413171560745e-02 -4.4623271442798880e-02
      -8.2622257965836166e-03 -5.9794350502924136e-02
      4.8479648981257374e-02 1.0722031504171695e-01
      5.0200015385261287e-03 -4.0767471466162275e-02
      -2.2550478563078416e-02 2.5576207407460878e-02
      6.0883189369553947e-02 8.4396101207444493e-02
      -4.0912949567628067e-02 -2.0368693005029023e-03
      -2.4016615235203681e-02 -7.1008436546182406e-03
      -4.8862003097630773e-02 1.0965776782406483e-01
      3.9588187096888224e-02 2.6845435648725123e-02
      2.7013276267008571e-02 -4.4892176779660779e-02
      -7.0061830551371492e-03 -5.1588722025955065e-03
      -1.5906955266981347e-02 9.4651232139097291e-02
      -9.9121293625893864e-02 -1.6886657469417199e-01
      8.3880084831033125e-02 -7.0398883234355225e-02
      1.3981671352680089e-02 -4.9782160740401274e-02
      2.5021043198199838e-01 -1.5517538131550301e-02
      -4.7342066916310377e-02 -1.8265838784509547e-01
      2.2026129209913867e-01 -6.0161175312784039e-02
      -7.5636895160264103e-02 -1.7566950820967647e-01
      -4.3433955352581897e-02 -2.5309479004102381e-02
      2.1698669904887145e-02 6.7414195788434828e-02
      -1.4132745702037749e-01 -1.6831940364896611e-01
      5.2896815524266130e-02 1.1786399547613700e-01
      1.0727603825208033e-01 -2.0084969741433858e-01
      -5.3645475283242372e-02 -9.6187605583959668e-02
      1.4646476154499111e-01 -1.1336775334776555e-01
      9.4044450387562057e-03 -1.7994498461899888e-02
      7.4716510770522345e-03 -9.1181312555982056e-03
      4.7978613043268030e-03 -6.3633647550912012e-02
      6.8511704521016514e-02 2.1907722793371390e-01
      1.6497403984098796e-02 -2.0747058229519853e-02
      1.5605169013244999e-02 -8.0330045430611799e-02
      3.3063496144296947e-03 2.2921916965384169e-02
      8.0303456303207468e-02 -8.6386649208886279e-02
      7.2323013114952733e-02 1.1597165987380770e-01
      1.5602538654880144e-01 -2.1685546061357086e-02
      -2.2565215782324264e-02 1.2992568683336772e-03
      -3.7210170496968585e-02 -1.0543496648746797e-04
      -2.0670200507925851e-03 -1.0786743965153354e-01
      1.6906593510194724e-02 -1.0597659292880104e-01
      1.6561707913163692e-02 -3.0133394912659667e-02
      -6.2737690634662280e-02 -8.2988706106697285e-02
      -4.8539494721302895e-02 -4.5370107723868083e-02
      -1.3941485106330898e-01 1.0437340668972499e-02
      7.1138139869041259e-02 5.4312816128191992e-02
      -1.1974180389716431e-01 -3.3194675483257434e-02
      8.7768256414248416e-02 7.2067348902867673e-02
      -1.1130128330251184e-01 1.7133262054797795e-02
      2.0478184886488386e-02 -4.6033330696095422e-02
      1.6143801506999823e-02 -2.2638944499427830e-02
      1.9634689123253713e-02 -1.0152152329354117e-01
      1.1061488919195260e-01 2.2563012601686763e-02
      -1.0808955622070388e-01 -2.8295560236586587e-01
      6.9372160246146744e-02 -2.4715828963206374e-02
      -3.0837033478875099e-02 -1.1145588956269681e-01
      9.7588166460977604e-03 -1.3805225454403705e-01
      3.8498323930637103e-02 8.3053691004352614e-02
      -3.2788578841624380e-02 -1.3259631249671741e-01
      3.6458373130279609e-02 8.8899840698254250e-03
      -5.2475268715698794e-03 -1.6956348130469953e-01
      -3.4870149246020109e-03 1.1014461884056917e-01
      -1.5319968556409794e-01 -1.8808243839215158e-01
      -4.8647725623992638e-02 -8.1729416355262492e-03
      -1.1206006935586507e-01 4.7997646084689864e-02
      5.2633676435407555e-02 9.7261261400622440e-02
      -1.3170422435825863e-01 1.7215387931580641e-02
      3.7602729598034290e-02 5.6773369925781490e-02
      -3.3261517280303972e-02 -9.9901488733424471e-02
      -3.8301624062932860e-02 -9.2424972595291699e-02
      6.1777954465180543e-02 5.4262590656906591e-02
      -3.3225906648867619e-02 -7.1186688837849038e-02
      9.9817114105612698e-02 -3.7281049880098720e-02
      -3.8996892817885161e-02 -9.7467758551197450e-02
      9.5521883324802326e-02 1.2648169127627587e-01
      7.7698846197290922e-02 9.4373948738070229e-02
      9.3424315256916551e-02 -7.6891388078172168e-02
      1.3893619950664837e-01 2.5407025743404427e-01
      1.4479504024041553e-01 -1.6549068650612811e-01
      4.6767965765598912e-02 1.6438361727929607e-01
      9.8141695107580293e-02 -4.5544538192502995e-02
      -1.1289424275705714e-04 6.6276460271021284e-02
      -8.4436759305435607e-02 2.6510407030514466e-02
      2.6358769926490978e-02 3.5309457487570244e-02
      1.5126893401721055e-03 3.1859853632984880e-02
      8.1181145569061940e-03 6.8457291984060614e-02
      -2.8039303276865386e-02 -1.3118572512284894e-02
      -4.0343573161777946e-02 -1.8137163590810336e-02
      -3.2107089877602711e-02 5.8033125591527075e-02
      -1.0187865087080969e-01 -1.4742004948853749e-01
      -1.8236829571719773e-01 -2.7973978905886758e-03
      1.8213320557365898e-02 9.8512851899694061e-03
      -5.8411958027278429e-02 4.9739955619022939e-02
      -7.2007709540745340e-02 -1.4304604827343315e-01
      -1.1769166288724750e-01 2.0405854444267766e-02
      -3.7727924694672635e-02 -5.0741629711299072e-02
      -3.3115245173693172e-02 -5.6630841330064116e-02
      -4.4861485083368104e-02 -1.6573558914253064e-01
      6.3566701253698177e-02 -2.7527333240415834e-02
      5.1282221634464289e-02 4.3130632245357653e-02
      5.3752069919247351e-02 7.2493855686791175e-02
      -5.6487627768888223e-03 6.3657089854377943e-02
      -3.5909469670039856e-02 -8.5937591833861751e-02
      3.8853554740099057e-02 5.3598976718753077e-02
      1.1404256781094897e-02 1.6469385594735871e-02
      -5.7496360945114185e-02 -7.5797645229452079e-02
      -8.3847679647354817e-02 1.4875891464696261e-02
      1.7124233064502354e-02 -5.5529929844243556e-02
      -2.7324942373809395e-02 4.2411300356075918e-02
      -2.8174521053278900e-02 -1.0738567304013280e-01
      -9.4245081662938462e-02 3.0820895808233613e-02
      1.3708528555170499e-01 2.1899672082828575e-01
      6.0954737776271500e-02 4.2966956194394786e-02
      7.1637050076797076e-02 1.5820015001978946e-01
      8.7226184198509506e-03 -2.8266343989608988e-03
      -1.2587089602275933e-02 -8.4207585096506388e-02
      1.0707959658760128e-02 -7.5176320800402754e-03
      8.9191686968406528e-03 3.9937307361739623e-02
      -1.0357841586772606e-01 -5.3203336555454634e-03
      6.3127519547394040e-02 1.0131950626546135e-01
      -2.5812178655490233e-02 -6.8227390933679188e-02
      4.6270001196829558e-02 4.6461456841980969e-02
      8.2522448578648017e-02 -1.9393918852089007e-02
      -1.7839706500209492e-02 -7.2246330084845975e-02
      7.3599459441210671e-02 1.4263426773353375e-02
      -7.7119967526101145e-03 -2.1894184374154208e-02
      -2.0956391203858379e-02 1.5628826075258881e-02
      -3.5601920912434963e-02 -4.3169145129631228e-02
      -2.5626129005847677e-02 3.3311506514826353e-02
      6.0253993455207842e-02 4.1696977455234895e-02
      2.2895976608395274e-02 -4.9438635003835746e-02
      2.0997349560707472e-02 -5.2358396765809102e-03
      2.0689425768953561e-02 -4.5351971500602599e-02
      2.8269246044711430e-02 1.5026940389276416e-02
      4.8756164990476573e-02 6.9748745240573978e-02
      2.8428772316529492e-02 2.7932550480988957e-02
      6.5361116848616105e-02 9.5545878275186763e-02
      -1.4824204660331590e-02 4.9732482186211888e-02
      -3.3950838168837705e-02 -1.4166627058854805e-01
      3.8462506059204350e-02 8.6300136047060327e-02
      -7.0294702504219327e-03 -6.9160194922663440e-02
      -7.1803469390833881e-03 -2.6331199298330034e-02
      2.5036688372406545e-03 -9.1267213462284794e-02
      -1.2304901496126239e-02 -3.0800490968105627e-02
      1.3739757776001999e-02 -1.1897056980150212e-02
      -5.4540955382980795e-02 -1.0273345511268665e-01
      -1.6791903947817589e-02 -1.2696049914246801e-02
      -8.6499793571569725e-04 -2.1676202128059464e-02
      -4.3621202741612672e-02 -4.9056148562585382e-02
      -1.0111188908726781e-02 -3.6621460188223716e-02
      -2.9619407361675620e-02 6.9901266167756906e-03
      -2.9258115673279517e-02 -6.6797553001301163e-02
      4.9053176264818969e-02 6.7429809392668821e-02
      1.6749092821382476e-02 -1.0127375180422305e-02
      6.2812633258687287e-02 -1.0424769665734020e-02
      -2.6948312358626082e-02 -4.9503346488215451e-02
      -2.7083686227159221e-02 -1.9103443365474943e-02
      -9.4479809741510098e-03 -3.2627697631728854e-02
      -1.8370478906397068e-02 -6.2096373257888464e-02
      1.1645197523286157e-02 -1.4645123916474290e-02
      1.7319742515978623e-02 6.0785066557859065e-03
      1.5848873530928825e-02 1.7431131459024508e-02
      -2.2643750437021101e-02 -1.6994123558093540e-02
      -7.2457202490372168e-03 5.5340521735147870e-03
      -7.9338695899096104e-02 -7.5270550523693594e-02
      -1.5906093917780081e-02 -1.0394276570010382e-02
      -4.5095224706595619e-02 6.9381452380205258e-03
      2.8274758064584335e-02 -5.6778091447699568e-02
      9.3306047866042727e-02 -1.3660234602954945e-02
      -2.2455297781876934e-02 -1.7481321651140736e-02
      -5.0791839512880715e-02 4.7650092677470083e-03
      2.8470327350272544e-02 2.1129001863801969e-02
      -6.1026481292334088e-02 -2.8268930755459293e-02
      1.9895165808097862e-02 1.5789115845803146e-02
      -1.4514076531125903e-02 -4.8085828348316421e-02
      -2.2020535595662891e-02 6.4930937232073474e-03
      -3.5094925049248257e-02 1.6296506656294927e-02
      4.3136012241494666e-02 6.9303250407411449e-02
      -8.0274581773901073e-03 -3.6147186173800971e-02
      3.6211502384572718e-03 -2.5035075652757748e-02
      -3.5762978775643488e-02 2.9330617426645582e-03
      -5.0692850610975330e-02 -5.0145646772129827e-02
      -7.1091002752061427e-02 -9.5255436109847380e-02
      3.0256457238065276e-02 8.0483089497843496e-02
      -1.6376442342475414e-02 -3.1960881909600669e-02
      -3.7737466597983930e-02 -5.6171374106976951e-02
      3.9612976837090893e-03 5.8248378947146122e-02
      -6.0241504946322568e-03 -3.7134503020053430e-02
      1.1977691821177924e-01 8.4625286659410024e-03
      -1.7522002373940040e-02 2.1301557788882281e-02
      1.3920361215337355e-02 2.3810325386024837e-02
      -2.8800749480141042e-02 1.5550407619632903e-02
      -7.2490513431254641e-03 3.0146859147505048e-02
      1.5993018068659121e-02 4.1418569180301498e-02
      5.0063320552179359e-02 5.5128783933196694e-02
      5.2348832775198403e-02 7.7151530183525233e-02
      6.0639567433577443e-02 -2.3243751085678260e-02
      4.0087707031940699e-03 6.4312815250082395e-02
      -1.0882817509590715e-02 -1.1108605565401246e-04
      4.7930437845888567e-02 6.7849285794439732e-02
      5.9558465805825682e-02 2.1464250886996401e-02
      -3.8184294442489525e-02 -2.8906102244735159e-02
      -3.7976170794643570e-02 -5.4809137875172248e-02
      1.2424825854340108e-02 -4.0846338886521755e-02
      3.0101643119569550e-02 -7.0422800503830679e-02
      -1.7814287372082176e-02 -3.9279905466735342e-02
      -1.3980916312626077e-02 -5.2752407185957149e-04
      8.4560331780695992e-05 -4.2044289875183313e-02
      -6.9600153481308866e-02 -4.7132648189745982e-03
      2.1789959682683664e-02 1.2246555292649614e-02
      -1.1607197189482872e-02 6.5596058902636561e-02
      7.3179666962275586e-03 -1.1515319858909868e-02
      2.6127189970991848e-02 2.2673591251945475e-02
      -6.1202812621214034e-02 -4.2314719938178945e-02
      -1.1379542605212975e-03 3.5064795779472357e-02
      -6.2069296647797985e-02 -2.8820611067050205e-02
      -2.8970949932177685e-02 9.1440476876023542e-03
      1.6102579710559697e-03 -1.6809074421631431e-02
      6.6020455040814802e-02 -1.9724528238412073e-02
      -4.2838846524381809e-02 -5.3786089425244640e-02
      2.6230337907527712e-02 2.8701886781092603e-02
      -3.8414877079758075e-02 -6.9778315891128612e-03
      -9.5326124690191041e-03 7.2110274652514668e-03
      -4.0683603691470664e-02 -4.0672263228079243e-02
      -2.2271802437060888e-03 1.5321732939149539e-02
      -1.9522672092811986e-03 2.3288271713531657e-02
      1.1688973526426370e-02 1.1253946327662429e-01
      2.5016942993702322e-02 9.4354171695094110e-04
      3.4948919626503289e-02 -3.9061717304176423e-02
      9.9874954671859920e-03 4.9732893821256244e-02
      -6.9492022371238707e-02 -8.0743449144253090e-02
      -2.3054757634863247e-02 -4.9287148901239919e-02
      -6.6661735327036745e-02 -3.8521736895727552e-03
      -1.0006383996234627e-02 -3.8411591638643987e-02
      -4.1555258121073621e-02 -8.8908393171572217e-02
      -2.2683388371928393e-02 -2.4741270878000283e-02
      1.2474877071574169e-02 -3.5287624729804193e-02
      -3.3200732941958508e-02 2.9149713664675392e-03
      -2.2006687281208939e-02 7.8909268527720622e-02
      3.0537808019626304e-02 1.2122109203642278e-01
      -1.2915299544700948e-01 -9.3984005467059664e-02
      8.6830139769933038e-03 5.7160206740225050e-03
      -2.8558333206351618e-02 -3.6389479340848220e-02
      6.8386467970789240e-03 4.3053077334434517e-02
      -1.8578488537217691e-02 8.8992647422554022e-04
      -1.1486374596481037e-02 -1.0645147485257727e-02
      4.2769424477555738e-02 2.9228707605241135e-02
      2.2815312496209453e-02 9.3209924675402983e-02
      4.6180146843327857e-04 -2.3014900899236825e-02
      1.5042441285065900e-02 1.6857347263623011e-02
      -1.0304396035626820e-02 9.3748344860949351e-02
      -3.0742969485517335e-03 -1.8378447071771574e-02
      4.1340821367570918e-02 -6.8110766075034843e-03
      -2.8765215060288039e-03 -2.0328703363752653e-03
      2.5749933409554015e-02 3.9436527232162621e-02
      -3.6067583097911950e-02 -7.8473225739956978e-02
      4.7290495832996174e-02 2.2763310219316241e-02
      -4.7079557243515022e-02 -5.0666602733780826e-02
      2.2986848644636668e-02 7.9872120840971585e-03
      2.4990706503588003e-02 3.4384420967881239e-02
      -4.4027402946444907e-03 -2.3297399948270552e-02
      -4.7985389961691704e-03 2.5253974353156711e-02
      -2.4594284582259048e-02 4.5527002617515418e-02
      5.6901466419595672e-03 -4.0229838608240379e-02
      8.6565904742327934e-02 1.1770980923083513e-02
      -4.4389352806506301e-03 1.2259082926253578e-02
      1.2338480582035139e-02 6.3195857946745149e-02
      -1.9594457130458695e-02 -5.4079049541415694e-02
      2.4158679055714165e-02 1.7520694051580275e-02
      1.3091381744936110e-02 4.0274360230546612e-02
      3.8595937741567575e-02 -7.6944528722595565e-02
      -2.4803139149613705e-02 -5.5069745593456149e-02
      1.6534608583600802e-02 -1.1088595890962548e-02
      5.7213206762104243e-02 4.3094519390062938e-02
      1.2576553085063537e-02 -4.1261449165223174e-02
      -1.2039653958120773e-02 -1.3220194039730165e-02
      -7.3760566042512923e-02 1.4819987977015184e-02
      -1.1741592355477466e-02 -1.6761022471069621e-02
      -7.6105029034499852e-02 -1.8856339279790590e-02
      -6.6852767606842889e-02 -8.6482080608798736e-02
      -6.2183321635229584e-02 -4.0474661147290251e-02
      2.3952575702183152e-02 2.4225929920806213e-02
      4.8232663972484650e-02 1.5710332044168679e-03
      2.2613848985958189e-02 3.5621203117242414e-02
      2.8527813537259483e-02 -4.0644133258804720e-02
      5.3099974735682370e-02 2.7262610701115221e-02
      -3.2528210669245773e-03 -2.9194705107592030e-02
      -2.5557981790167161e-02 1.2455294795231872e-02
      -4.4755140003729474e-02 -2.9210522295946744e-03
      3.3890127890240318e-02 -5.1947578214795447e-02
      9.5430587860518265e-02 6.5788760075798078e-02
      -4.3296472202531501e-02 -1.7428920136565759e-02
      -3.3519242982525073e-02 -1.0445915335191321e-02
      1.3855352961076544e-02 -9.2823673026066131e-03
      -6.6020877505414591e-02 -5.5876004238849253e-02
      7.7700236642630260e-02 2.9108267664018552e-02
      -6.7667847888226267e-03 -3.6400615103453535e-02
      -3.9603066432648160e-02 -5.2307853015273874e-02
      4.7504798247543480e-02 -3.7260803961935846e-02
      -4.3365015711847857e-03 -3.1079755462604986e-02
      4.7522440393551288e-02 -2.9112625286934233e-02
      4.4383046004627044e-02 2.5096623681498672e-02
      1.9074743283233653e-02 3.2187993574578140e-02
      1.3825612195388850e-02 -3.0717047674778876e-02
      5.6987162900669339e-02 9.1398628005601473e-02
      2.7680388456017616e-02 -4.4957285148174056e-02
      5.8644007388125072e-02 -6.0635416650909185e-02
      2.4620689599435296e-03 3.1666385026533524e-02
      -2.6992670885020074e-02 -8.9291402896744032e-02
      -7.1661157659303282e-02 -3.2118174577779574e-02
      5.9971138097826993e-03 1.2234011426862162e-01
      2.6629644370081782e-03 2.5514022428664979e-02
      -7.6807898409432709e-02 1.5643387141801163e-02
      -3.2486096856218366e-03 -4.5021667821894254e-03
      -7.9109918193316225e-02 -3.9959098134692353e-02
      -1.5556237003758161e-02 3.0671758185829311e-02
      -9.6793902143042024e-02 5.4888675983888774e-02
      1.9886251839381190e-02 3.2675139848636235e-03
      1.7070894107223945e-02 3.1610931208144975e-02
      9.3144930307401501e-03 5.9544524357508337e-02
      -1.0939204403937616e-01 5.1706348376827367e-02
      8.8951892456519063e-03 -1.3047419038058027e-02
      -9.2925137146257965e-03 8.0616702828513839e-02
      4.6773131953890785e-04 -8.8906208732958153e-02
      7.9904127792877269e-02 -1.9655998729432720e-02
      -3.9678195324631294e-02 9.8319515026912465e-03
      1.3972579143706611e-03 -2.6657489640452614e-02
      4.0758409596248830e-02 3.3164093161619460e-02
      -2.2661798483023247e-02 5.9178002329089451e-02
      4.9414966287987083e-02 1.4292105926470398e-02
      2.5240834648926153e-02 2.4187161826092297e-02
      5.2455696548768397e-04 -7.1430067567520433e-02
      2.3782299081249198e-02 1.9546790080080916e-02
      -8.3845784721185729e-02 -7.7394840691583339e-02
      -2.9894236900527563e-02 -8.5369762236267716e-02
      -4.4820822576008744e-02 -1.0447887494769943e-01
      3.8850549976524269e-02 -1.7919169181624270e-02
      3.4049760748723137e-03 -2.3802240258981332e-02
      6.3693666951255305e-03 -1.8714689418475476e-02
      -4.9866974742346623e-02 -6.1020588162900291e-02
      -1.1015194457946597e-03 8.2818448496545141e-02
      -3.8568017804491830e-02 2.5728131188013193e-02
      -9.8349729400430200e-02 5.5402873524837797e-03
      -1.0206565363036938e-02 -8.5963856106174963e-02
      -6.2844640993390362e-03 -3.5253139676887854e-02
      6.2978631708772784e-02 3.7323556032120071e-02
      4.3331839281803746e-03 -2.7622639235985975e-02
      4.0875932662641119e-02 5.7689241142590709e-03
      2.3236250442797139e-02 4.1489233295984532e-03
      -9.5240490537555431e-03 -3.4494858646720646e-02
      -9.5950966405968941e-03 2.4802789945814908e-02
      8.9309436145358651e-03 -3.4731185227024047e-03
      -4.7171283195829288e-03 4.4670686593883714e-02
      -6.6077406238119613e-03 -5.1552824275147312e-02
      -3.2501164427687447e-04 -1.0814205029362289e-03
      -2.8748927893771483e-03 -8.2489562359749427e-03
      -2.0283457071388677e-02 -1.4055819985543920e-02
      -4.5374697127068382e-02 -7.3338530404765026e-02
      6.0612703861785411e-03 6.9251209213218964e-02
      -3.1378075847095621e-02 -1.3176689887412116e-02
      -3.3543018662903594e-02 6.8489106954281479e-03
      -2.3835356452291290e-02 -9.8091292594494464e-02
      -3.6559114134287737e-02 1.7432706987189472e-02
      2.0673214708363627e-02 -3.0443982340735516e-03
      1.0488911664258457e-01 2.4160903166760117e-02
      7.9276204365072225e-03 -2.4160888134942358e-02
      2.9031255436526703e-02 8.8302804243423679e-03
      2.6443175902957205e-02 2.1877748012717965e-02
      1.2881132518575932e-02 -2.7108667724219715e-02
      -1.3044665440733698e-02 -1.7452102481225740e-02
      -7.7121735646927411e-02 1.3803458957981839e-03
      3.2706808203746031e-02 5.5252089247334053e-02
      -3.4498379584108015e-03 4.2328783639072068e-02
      6.0933913438019401e-03 -5.3811189363911285e-03
      3.1886975847015345e-02 4.6450909521401178e-02
      4.5057942772904910e-02 3.6868505422197273e-02
      3.6086330726042670e-02 -3.5217303488473501e-03
      8.5072239181748638e-03 -2.0212030376735787e-02
      1.2618512540709616e-02 6.3673860929877854e-02
      3.6551308405642122e-02 3.4171995735739841e-02
      1.0426534178412086e-01 3.0276983150942419e-02
      8.6031269938975207e-03 6.0781997025120141e-03
      7.4672355597876827e-02 1.6900110475978294e-02
      2.6133605480651689e-02 2.7631755623917084e-03
      4.8527175297499586e-02 1.1897437392846249e-02
      -4.9200962199023000e-03 -7.4255364638857374e-02
      2.6923950897015016e-02 2.5213666849368807e-02
      -2.6881913078128733e-02 -4.5051947923141045e-02
      1.2170508964007891e-02 -5.3207233270712393e-03
      -3.3595159819863024e-02 -4.0782121171582468e-02
      1.6476191131835134e-02 1.5287054316755472e-02
      -3.1091268765302371e-04 7.3103822126804581e-03
      1.3425468123540058e-02 3.0998131297086035e-02
      -3.4932587095390100e-02 -4.4034619832195213e-02
      -1.8003981934839590e-02 -1.8047118188418032e-02
      6.0592786713726940e-03 -5.4966253783442165e-02
      9.1965163084000628e-02 -1.5767868556780355e-02
      1.6271421275422943e-02 2.7431424495515753e-02
      7.8759225538571190e-02 -1.5289750193682918e-02
      -5.2949144896800859e-02 -3.1988497842992944e-02
      -8.2175278948442190e-02 1.0758913597553684e-02
      -1.7698042147871296e-02 6.0959886874723576e-02
      -7.2558871443091366e-02 -4.9877698268185590e-02
      -1.2921831558934425e-02 4.5142453052995406e-02
      -4.7591637751701069e-02 -2.8130808776959195e-02
      6.2642180972826852e-02 1.0962775758398947e-01
      -4.0374307314529397e-03 3.6125570902605958e-02
      -8.4570402841408002e-03 -4.2414680559866635e-02
      5.5269289490817400e-02 1.1020772674575385e-02
      1.4224962947938550e-02 1.0719308165447859e-02
      4.2382411115963782e-03 2.7745402094098034e-02
      3.0822499616038897e-02 6.4628207327074985e-02
      -3.0548009980494686e-02 1.8700041458356673e-02
      -2.7682415017205035e-03 2.7806855693927757e-02
      -7.1651013364443752e-02 3.3557160654141750e-02
      -7.9935377980288420e-04 -1.0594603182715110e-02
      -2.1622812822201191e-02 4.8307372413712156e-02
      6.2420512790853974e-03 -1.5627470696080868e-02
      3.0293037141289090e-02 1.1419398638616847e-03
      -3.8809307892905522e-02 1.6855909613945452e-03
      -6.6354029917008006e-02 -6.7087274135526134e-02
      5.2297289344928888e-02 1.1186752437456322e-01
      -1.7976556448468474e-03 -5.8216647374717725e-02
      4.3890109596993847e-02 7.3986824008113725e-02
      9.4161218655178271e-03 -5.5867771669257729e-02
      6.4055987272983918e-03 -1.0124632407601877e-02
      5.7949526470401060e-02 5.7033470595505308e-02
      -1.7665007296251690e-02 -1.2088182521324431e-02
      -1.3006454674811888e-02 -1.4886118903074539e-02
      7.5076034716399231e-02 7.9508829297025740e-02
      4.4462044960279112e-02 -2.1396501135640164e-02
      -4.0811979449726754e-02 -7.9996207554672974e-02
      -4.1999534391563322e-02 3.7840589558456240e-02
      -9.6670487435226663e-03 -2.6609426601226116e-02
      -2.4119598834954646e-02 1.2780232823125799e-02
      1.0930954087011469e-02 -1.0394132333503940e-02
      2.7984649852487277e-03 -2.0424902697477907e-02
      -3.1915893466208517e-02 1.1498222320809793e-02
      -8.5057104465605923e-02 1.4641920498722736e-02
      2.1252579255890896e-02 -9.4015096272193706e-04
      -1.9354916751552369e-02 6.3357840285939451e-02
      3.7265170628621433e-02 6.6319399810545951e-02
      4.1770405578965920e-02 8.7831944594324134e-03
      1.9143203962114122e-02 1.8611918270786303e-03
      6.9809363487640233e-02 -3.1927067138676692e-02
      -2.4561348932890387e-02 9.5367246041685432e-03
      6.9223458667814902e-03 -9.3389111036945686e-03
      -2.9999212627349500e-02 -5.3904624925573304e-02
      -3.4500486190494679e-02 6.6892853760557355e-02
      -4.6031064665995970e-02 -9.3937538297954232e-02
      -1.0130912431190599e-02 -5.5113295413720884e-02
      -1.7999778486920470e-02 -7.2063497465403109e-02
      2.1555311775039134e-02 -1.8407570579633208e-02
      1.2862192641969829e-02 -2.2762480589595176e-02
      2.8000330420666626e-03 7.4444774472069791e-02
      -4.2250003832941051e-02 -7.7992753904954040e-02
      2.0036996689854511e-03 6.5662560828565628e-02
      1.0968772966629398e-02 -4.9426398870165124e-02
      6.5683180142782793e-02 -2.9090417338591953e-02
      1.7914927872880945e-02 5.9820229125224549e-02
      -5.9141559785199894e-02 -3.8050260189054184e-02
      -1.6909385069584826e-02 -4.4005063448502781e-02
      -1.9046930609072552e-03 1.1159421476445166e-02
      -3.5161656336590484e-02 -6.4711430944659337e-02
      1.2434825759400597e-03 -2.7246766391780169e-02
      5.7198594807437476e-03 -1.3997828936786473e-02
      -4.6880059857453846e-02 3.8242055697866088e-02
      4.3052817023572114e-04 -1.0158727556065965e-02
      -2.2830047998463797e-02 4.2832994568843867e-02
      9.4998062311400806e-03 -3.7535907188753687e-02
      -2.1910116983534872e-02 -1.0439974277611185e-02
      2.5582068599504140e-02 2.4989267692190769e-02
      5.0424608748147061e-02 -2.7915407189475550e-02
      5.5997748340368379e-02 5.9250480540642678e-02
      4.9896975730822080e-02 -1.8572380930204154e-03
      -2.0538176697575038e-02 -8.3788689825626803e-02
      -3.0760857329602535e-02 -2.3328000463217970e-03
      1.5242893458467894e-02 -2.0077679132940846e-03
      1.1025549263207040e-02 -1.8698349942609660e-02
      2.5778096340171672e-02 -9.1569814338051340e-03
      -2.7426619163200820e-02 -5.8637882265256680e-02
      -5.2992129207388480e-02 -2.5765802331639928e-02
      -5.4309210093586413e-02 -1.6673018114281530e-02
      -2.5322896819868726e-02 -3.4764825916575405e-02
      -4.2541397498566356e-03 -1.5035424827706178e-03
      -5.2906802674916563e-02 -1.6709079265419774e-01
      1.9179925674575743e-02 7.7955758091699065e-02
      4.6119275406888906e-02 -1.0994297557939648e-02
      9.0811895861065001e-02 -1.6699430705483511e-03
      -1.4220120277720717e-02 -1.0850908668855702e-01
      5.6040949044311623e-02 -1.0073025388184243e-02
      -1.5711149066775315e-02 -1.8003545341205251e-02
      -5.7199419052114474e-02 3.6005989197288361e-02
      -9.7119819475246269e-02 -1.7206449225851828e-01
      -7.5139003691308423e-02 3.9976541965459834e-02
      3.6553045380286253e-02 4.4232784555693884e-02
      -9.5779784107656255e-03 2.2968516336910792e-02
      -1.8938530424704954e-02 -4.5482749694859777e-02
      -3.9646528747834128e-02 4.1196621041397007e-02
      -3.0080790132717888e-02 -1.0355165804932769e-02
      -3.4497607696925586e-02 1.2862682291629962e-02
      2.3374581300613415e-02 1.1466739183992944e-02
      7.4898286924049789e-02 -5.1599613856719899e-02
      6.0054929802847927e-02 6.1822495562291004e-02
      8.3033534760102307e-02 1.4035794845378652e-02
      5.1771592342179366e-02 1.0109689495638386e-02
      8.2378971810541213e-02 3.2622149548857206e-02
      -5.3309023520974747e-02 2.8735400134142897e-01
      -1.4061917819847905e-01 -1.8467683891225314e-02</_>
    <_>
      -7.7555332904184782e-01 3.0322934392885825e-01
      6.7632019549935385e-01 -2.0429239468613059e-01
      -9.4553505839904584e-01 4.6671137065210783e-01
      -4.4301021355193637e-01 -1.0629617885288432e+00
      4.9747293506458783e-02 1.5631628724336920e-03
      1.4031710924472274e+00 -7.0753274599203575e-01
      7.7584040716177571e-01 1.6292899029616608e+00
      1.7228001793540093e-01 6.0216568737783780e-03
      -1.0839055968043224e-01 5.2443536038564727e-02
      -3.3821785216295495e-02 -4.2025012377155035e-01</_>
    <_>
      -1.2504672328468049e+00 -5.3580772771682050e-01
      -2.3418996750933815e-01 -4.8833963455381643e-02
      -7.6985449999971900e-01 1.1204027058286530e+00
      9.3287722857683864e-01 -1.1418274098874706e+00
      1.5552052536291799e-01 -1.0065663737749737e+00
      -1.4078944803342675e-01 -1.1800811782485920e+00
      -7.5749600508276771e-01 -2.8830548268578432e-01
      5.6967277564920316e-01 9.1635643771326292e-01
      -7.4485419348173476e-01 2.5809954648924285e-02
      -1.0454041099866134e+00 -6.4710642315112521e-01</_>
    <_>
      1.9700695851946664e+00 -1.0952029580302680e+00
      -3.0888125341330919e-01 4.6514402729431881e-01
      -1.0067605439557703e+00 1.9226834039075975e+00
      -3.1347604556657846e-02 1.3347578142305999e-01
      1.3953262009732967e-01 -2.8032278851598418e-03
      3.2289140299779945e-02 -1.8341085707409507e-01
      -1.0077170778983198e-01 4.4093015472253763e-02
      2.1256084820272494e-01 -1.9291231906426579e-01
      -1.3146369869553251e-01 -9.8398986303305541e-02
      -1.5162474349033925e-01 3.2077092207108408e-02
      2.8526046072315639e-02 1.4304126566209865e-01
      -1.3493689926792490e-01 -1.9712136505374236e-01
      3.2211552537678725e-03 6.0254855885652214e-02
      5.3849761041293853e-01 -5.0568154508899787e-01
      1.9987834205350936e+00 -1.9505775906932832e+00
      -9.5838326311415389e-01 -5.3052890359326410e-01
      3.7969913322437737e-02 -1.6167246339479757e-01
      -1.6900918255879957e-01 3.3950538467928506e-03
      -3.9110816276779564e-02 2.2215683408910919e-01
      1.2205978501348363e-01 -5.3407350215145095e-02
      -2.5746469328450872e-01 2.3366600953055131e-01
      1.5923576763575775e-01 1.1918640225219562e-01
      1.8365587458702087e-01 -3.8853896676507953e-02
      -3.4551669053759705e-02 -1.7325944417124842e-01
      1.6344208874406371e-01 2.3876352222304040e-01
      -3.9014261759363110e-03 -7.2983575886133856e-02
      5.2093923752293836e-01 1.3931251854624793e+00
      1.6551418994310212e+00 -6.3640755846521824e-01
      1.0426015120725678e+00 1.1899774326519079e+00
      -9.3262187809575209e-02 3.9709683604993257e-01
      4.1511929893414395e-01 -8.3367367102373021e-03
      9.6067281917000688e-02 -5.4565898977206295e-01
      -2.9980206188151681e-01 1.3117677946888609e-01
      6.3237948840982672e-01 -5.7393039459079997e-01
      -3.9111456363281105e-01 -2.9274802737894962e-01
      -4.5109462100342002e-01 9.5435763695109699e-02
      8.4862486545947663e-02 4.2556115091263086e-01
      -4.0144239959572070e-01 -5.8644634820005126e-01
      9.5814508132615744e-03 1.7926085355958024e-01
      2.0274112257132679e+00 1.6839709534702465e+00
      -9.7991780895922154e-01 8.5592259658985281e-01
      -1.3938163299927733e+00 -1.4823744816335522e+00
      -8.7210588662677141e-03 3.7138322796957425e-02
      3.8821436646111700e-02 -7.8206142377839532e-04
      8.9802572340885855e-03 -5.1030297070201285e-02
      -2.8037735709515552e-02 1.2269861463796057e-02
      5.9142537882806247e-02 -5.3671142187615838e-02
      -3.6575849748947717e-02 -2.7374112188944293e-02
      -4.2185490402429061e-02 8.9217212170227492e-03
      7.9397752426371426e-03 3.9795270311893040e-02
      -3.7545793877586400e-02 -5.4846574640757054e-02
      8.9739764989865808e-04 1.6765459372131426e-02
      -3.5882856383552525e-01 -5.7847562738660363e-01
      -1.6784229937263242e+00 -1.2508877263889746e+00
      -1.7411753105335337e+00 -1.0323872829989527e+00
      -6.5911371054579004e-02 2.8064409901360671e-01
      2.9337985071620459e-01 -5.8933012505949069e-03
      6.7891989307938591e-02 -3.8563745953244943e-01
      -2.1188137684093158e-01 9.2708805628920324e-02
      4.4692721247125211e-01 -4.0561605690702640e-01
      -2.7641443466603999e-01 -2.0689371583109040e-01
      -3.1880471309816455e-01 6.7445980323339982e-02
      5.9977497219942180e-02 3.0075790578578920e-01
      -2.8371590045611822e-01 -4.1446444128904031e-01
      6.7723569761944597e-03 1.2669088297701456e-01</_></weights></opencv_ml_ann_mlp>
</opencv_storage>
