<?xml version="1.0"?>
<opencv_storage>
<opencv_ml_ann_mlp>
  <format>3</format>
  <layer_sizes>
    576 4 4 4 26</layer_sizes>
  <activation_function>SIGMOID_SYM</activation_function>
  <f_param1>6.6666666666666663e-01</f_param1>
  <f_param2>1.7159000000000000e+00</f_param2>
  <min_val>-9.4999999999999996e-01</min_val>
  <max_val>9.4999999999999996e-01</max_val>
  <min_val1>-9.7999999999999998e-01</min_val1>
  <max_val1>9.7999999999999998e-01</max_val1>
  <training_params>
    <train_method>BACKPROP</train_method>
    <dw_scale>1.0000000000000000e-03</dw_scale>
    <moment_scale>0.</moment_scale>
    <term_criteria>
      <iterations>128</iterations></term_criteria></training_params>
  <input_scale>
    1.1064957198997968e+01 -1.7938700879589391e+00
    1.8681616971558501e+01 -1.9002101971713767e+00
    1.6705714892772637e+01 -1.9557080282130148e+00
    1.6086113117818901e+01 -1.5564924586608668e+00
    1.1068238901855638e+01 -2.3135212536441028e+00
    1.5538955274678731e+01 -1.5413323821219971e+00
    1.4854178674771157e+01 -1.7938104838830695e+00
    1.6093965801954958e+01 -1.6756065071578767e+00
    1.0920099131522349e+01 -1.7667920045702332e+00
    1.1291073059850573e+01 -2.0465103486035603e+00
    1.5981613066770478e+01 -1.9619556198123647e+00
    1.3882275738964925e+01 -1.9662447958287321e+00
    1.2799121187213565e+01 -1.5019727460898882e+00
    1.1145194878682858e+01 -2.2111021269280893e+00
    1.4573826877821924e+01 -1.5836270416755946e+00
    1.4943672032692156e+01 -2.0027190277699289e+00
    1.5854667736088693e+01 -1.8569327915454603e+00
    1.1348460523377183e+01 -2.0113733671844254e+00
    1.2952964363839218e+01 -1.9293329546430968e+00
    1.5036451952928108e+01 -1.8236554921118540e+00
    1.4531513016228310e+01 -1.9978080468391426e+00
    1.5019530361356752e+01 -1.7102340065718578e+00
    1.1907347614614670e+01 -2.6120320432153092e+00
    1.5108552314052467e+01 -1.6817377895983412e+00
    1.4140636200536212e+01 -1.9028925933514369e+00
    1.4608242021303873e+01 -1.7336748510947195e+00
    1.3007967478328627e+01 -1.9081484243595868e+00
    1.1987935271183400e+01 -2.1619818209300341e+00
    1.1943174694571706e+01 -1.8523249250819753e+00
    1.1509630691773143e+01 -2.0008015341478980e+00
    1.1113046144526209e+01 -1.6164408664035776e+00
    1.1140754188022633e+01 -2.3856736445042412e+00
    1.2863085534346700e+01 -1.7081442479315225e+00
    1.3873388947705946e+01 -2.1842570953597149e+00
    1.3998832553247357e+01 -1.9424876859308422e+00
    1.2741855587922947e+01 -2.1912076937912217e+00
    1.0372588740630670e+01 -1.7244575288344151e+00
    1.3810429613120082e+01 -1.5705253881306365e+00
    1.5611608842240962e+01 -1.6010595350308947e+00
    1.6468547913835220e+01 -1.2930661234144454e+00
    1.1168598316625696e+01 -1.5431685585996335e+00
    1.2979593377127848e+01 -1.1116041158879735e+00
    1.3124154494583665e+01 -1.3334942578252560e+00
    1.4661748010374209e+01 -1.3844332489229096e+00
    1.0361237387165726e+01 -1.6014932328424214e+00
    1.0170979953575726e+01 -1.9609766531029695e+00
    1.1795752975402559e+01 -1.5519140083741938e+00
    1.2951403144230603e+01 -1.4882316218093905e+00
    1.5693498499804965e+01 -1.2990122024820376e+00
    1.1035982509733531e+01 -1.5362520121069090e+00
    1.3438793021865648e+01 -1.1665281424199814e+00
    1.2701125313417981e+01 -1.4019652535726728e+00
    1.4066117074746655e+01 -1.5351622606897324e+00
    1.0692718986970862e+01 -1.8894427539068566e+00
    9.8764243352500802e+00 -1.9655798584905628e+00
    1.0067182478344238e+01 -1.7472411654015398e+00
    1.1735196326615444e+01 -1.7723584986809000e+00
    1.4419929878555740e+01 -1.5219211653494000e+00
    1.1253615132778886e+01 -1.7228075401553311e+00
    1.2175380235923518e+01 -1.3087414165321076e+00
    1.2261306252348774e+01 -1.5583273470965584e+00
    1.2323511714409301e+01 -1.5481898557022280e+00
    1.0630732452345633e+01 -1.8610028573404003e+00
    1.0121000481045080e+01 -2.2694003621280623e+00
    9.5467103102574864e+00 -1.7776643586676868e+00
    1.0212060266564830e+01 -1.6349561295970407e+00
    1.1757449648731983e+01 -1.3643832479130629e+00
    1.0335799295742991e+01 -1.6061851298645973e+00
    1.1821577563844915e+01 -1.3682559767593983e+00
    1.1645794483348764e+01 -1.6798890871294700e+00
    1.1174032504851850e+01 -1.7035107213770451e+00
    1.0670657027494492e+01 -2.2066907752054221e+00
    9.5079260204701104e+00 -1.6747983993745414e+00
    1.1706750022348224e+01 -1.3464793641048720e+00
    1.3829701944932870e+01 -1.3348712716115470e+00
    1.5932436893241999e+01 -1.1774583752789343e+00
    1.1509455651215275e+01 -1.4148242341742980e+00
    1.4864520196848227e+01 -1.1182866443409769e+00
    1.2090497129828762e+01 -1.1747506941096237e+00
    1.2803141505710993e+01 -1.3244421802561357e+00
    9.4223194600289393e+00 -1.6390362216754839e+00
    9.3901671802892022e+00 -1.7027434230760048e+00
    1.1226363709418139e+01 -1.3471728627698951e+00
    1.2233067226630046e+01 -1.3147689579011093e+00
    1.3797060643969777e+01 -1.1533700625477608e+00
    1.0280707308465297e+01 -1.4105618737649253e+00
    1.0578501198460046e+01 -1.0138371224246685e+00
    1.0147368980247952e+01 -1.1627885021212241e+00
    1.0458382203999536e+01 -1.2819039121756561e+00
    9.7777756646286829e+00 -1.7483795612649706e+00
    9.4682192333865860e+00 -2.0376160870873190e+00
    1.0489428529121128e+01 -1.6035143391227515e+00
    1.2194454477805657e+01 -1.5195350207195255e+00
    1.4226604738622196e+01 -1.2911568191181131e+00
    1.0659399888462644e+01 -1.4344852962540851e+00
    1.1919230421638092e+01 -1.1678437033422056e+00
    1.0432598071137706e+01 -1.3429323697252613e+00
    9.7657530431824409e+00 -1.4547223763076662e+00
    9.2432475889857582e+00 -1.8769173488270314e+00
    9.4279598477884949e+00 -1.9256206748657920e+00
    1.0350829979368147e+01 -1.5391497945960644e+00
    1.1442941005635500e+01 -1.4848029793338553e+00
    1.2791173769667063e+01 -1.2883541389380715e+00
    1.0570531794440720e+01 -1.4845704308523815e+00
    1.2453770823077065e+01 -1.2785746648085297e+00
    1.0620685112658920e+01 -1.5136992931615265e+00
    9.9510514281293965e+00 -1.6372572876930338e+00
    9.3703946488665650e+00 -1.9023518595649764e+00
    9.9846545961328275e+00 -1.6062750761917375e+00
    1.0559693644962428e+01 -1.3414673422361008e+00
    1.1928860042346052e+01 -1.3575510870907579e+00
    1.3231102964039618e+01 -1.1709550286770698e+00
    1.0474835799987277e+01 -1.4417605976123768e+00
    1.2395674733536680e+01 -1.1357420694141378e+00
    1.0777887987763711e+01 -1.2736564127238523e+00
    1.1929886858664435e+01 -1.3785014750675528e+00
    1.0871402438286996e+01 -1.7122828620326991e+00
    1.0166142174734333e+01 -1.7235845813327604e+00
    1.0371394647088616e+01 -1.3965847163630165e+00
    1.1564631712517853e+01 -1.4394845748691516e+00
    1.3068003104524317e+01 -1.2741686122563516e+00
    1.0364276266135677e+01 -1.5937256393624948e+00
    1.1626844536989077e+01 -1.1201021665327302e+00
    1.1306289223605837e+01 -1.3092739582430435e+00
    1.1718641532753562e+01 -1.3544798430160652e+00
    1.1176245658921895e+01 -1.7952836489262385e+00
    1.0284441711030341e+01 -1.8324854071173104e+00
    1.1041900416181683e+01 -1.5748185829434460e+00
    1.1706190403148621e+01 -1.5072796550023313e+00
    1.2720828609865540e+01 -1.3195461246598492e+00
    1.0155871230425452e+01 -1.5309654595515299e+00
    1.0940120935749800e+01 -1.2363348264147778e+00
    9.6648739155841614e+00 -1.4186750144223526e+00
    9.4104628283097504e+00 -1.4806081084031362e+00
    9.7443374208970504e+00 -1.7816823247408411e+00
    1.0368691342505743e+01 -1.8394364566325030e+00
    1.1174324655187775e+01 -1.6342662482025854e+00
    1.1423543210817130e+01 -1.5685089348904389e+00
    1.2497467140051079e+01 -1.3901662745942502e+00
    1.0366480321338868e+01 -1.7131525530344887e+00
    1.2309833893515021e+01 -1.3864269375256857e+00
    1.0729409212641352e+01 -1.5680750480650714e+00
    1.0134809420356351e+01 -1.5570121318268484e+00
    1.0466014337844150e+01 -1.8601166818174273e+00
    1.1503660046786395e+01 -1.4432100894938271e+00
    1.5590852372453982e+01 -1.5689203906692244e+00
    1.4622186260956688e+01 -1.6161518866794293e+00
    1.4899766213583069e+01 -1.4408324951939311e+00
    1.0662017112616025e+01 -1.8423929025833627e+00
    1.4400027646225917e+01 -1.3155529489111268e+00
    1.4138356722635070e+01 -1.3823033744373212e+00
    1.4509556118016427e+01 -1.3422835793453833e+00
    1.1552530026078369e+01 -1.3953979984025342e+00
    1.1281922462003291e+01 -1.8490551063883931e+00
    1.2177264601982731e+01 -1.8422345280976038e+00
    1.1554291069546618e+01 -1.8202192828661354e+00
    1.0332236438805062e+01 -1.4670536769006675e+00
    1.0014597916176513e+01 -1.8538688532081868e+00
    1.1542686156615030e+01 -1.4176855138529565e+00
    1.2035746084962112e+01 -1.5503723025848373e+00
    1.2481760579895006e+01 -1.4995904757565275e+00
    1.1075719237755143e+01 -1.7065744388765178e+00
    1.0043803137443915e+01 -1.4980108107654690e+00
    1.2698522248402242e+01 -1.5651861602268051e+00
    1.3166448443258062e+01 -1.7143340592574710e+00
    1.3409418711822029e+01 -1.5249923136371142e+00
    1.0942302820479185e+01 -2.1165035280052811e+00
    1.4406760747225304e+01 -1.5305515379574555e+00
    1.4407837882671888e+01 -1.6217493301447459e+00
    1.3668400257108107e+01 -1.4837592758630014e+00
    1.0232229431843439e+01 -1.4709274475423451e+00
    1.0100250606181735e+01 -1.8986776942375534e+00
    1.0677695996169838e+01 -1.8341873122996524e+00
    1.0511090089928512e+01 -1.8251441459228896e+00
    9.8032017321104359e+00 -1.5334103779223955e+00
    9.7415386581643677e+00 -1.9321690165030088e+00
    1.0256805186639948e+01 -1.5410548462232614e+00
    1.2001787509057275e+01 -1.7718497206323944e+00
    1.2541163351767715e+01 -1.7797659360502720e+00
    1.0244547044255969e+01 -1.8354959848252710e+00
    1.0175341334107392e+01 -1.7398219962542443e+00
    1.0950192154514506e+01 -1.6013584807738799e+00
    1.0982206907410935e+01 -1.4587717001131884e+00
    1.1869210976303904e+01 -1.3776374993975338e+00
    1.0570302495368312e+01 -1.3978630799382037e+00
    1.1490574443312500e+01 -1.2459951932430051e+00
    1.2657548616355809e+01 -1.4193983032572877e+00
    1.2170095681280582e+01 -1.4976019410396322e+00
    1.0184416445870184e+01 -1.6803738165150082e+00
    1.0860313403743623e+01 -1.8270144884116726e+00
    1.1171687009188721e+01 -1.6302196328299596e+00
    1.1475430327495658e+01 -1.5477106853275460e+00
    1.2541075924222651e+01 -1.4695830126903366e+00
    1.1011170906961697e+01 -1.5169775598757191e+00
    1.1846815676713641e+01 -1.3602219116935270e+00
    1.2109942537798716e+01 -1.5404342501133714e+00
    1.2140689945906667e+01 -1.6633828421127865e+00
    1.0747355890345816e+01 -1.8142610576573606e+00
    9.9472812795620893e+00 -1.7800357057830203e+00
    1.0939355203742128e+01 -1.6323989605719356e+00
    1.1720776824108965e+01 -1.5290268134435889e+00
    1.2467154031351406e+01 -1.4571982733369111e+00
    1.0759878144065658e+01 -1.4839528751091511e+00
    1.1684313701905516e+01 -1.3523927696601017e+00
    1.2457935735781076e+01 -1.5263397416185760e+00
    1.2081144417281868e+01 -1.6361133130689347e+00
    1.0295104239672803e+01 -1.7952164702505460e+00
    1.0210462616209108e+01 -1.7834804388422287e+00
    1.1299241881569660e+01 -1.6779560427026015e+00
    1.2089638131095580e+01 -1.6345912602673756e+00
    1.2032905558102554e+01 -1.4679700346425497e+00
    1.1033090517652621e+01 -1.5783166674364519e+00
    1.1618193145511878e+01 -1.4284076011432811e+00
    1.2296972284118700e+01 -1.6589432799241557e+00
    1.2248460596451983e+01 -1.8072184163394609e+00
    1.0567082864056502e+01 -1.8680572378687441e+00
    1.1478924342077606e+01 -1.6157236874622494e+00
    1.2296265369259938e+01 -1.4903675133849614e+00
    1.2590862633570092e+01 -1.4603252926803751e+00
    1.3066930471452123e+01 -1.4422740490733534e+00
    1.1041970726467882e+01 -1.6289056251432890e+00
    1.0985649321495698e+01 -1.5473788176581784e+00
    1.0524438594653402e+01 -1.7051408168931286e+00
    1.1465116457117929e+01 -1.7068084321374737e+00
    1.1752505636720327e+01 -1.6931235525757566e+00
    1.1335204662945264e+01 -1.5610205408632714e+00
    1.2368534950931908e+01 -1.4465526172839767e+00
    1.2040838383901237e+01 -1.3896107435793723e+00
    1.1697563200308897e+01 -1.3356837974160416e+00
    1.1321880952154640e+01 -1.6105662097769631e+00
    1.2272001885639506e+01 -1.5783523193420104e+00
    1.1139715892858053e+01 -1.6945372438360604e+00
    1.1190992725008073e+01 -1.6189482788045313e+00
    1.1559937671622647e+01 -1.6003609821172331e+00
    1.1833811049632123e+01 -1.7718655580180771e+00
    1.1754331081597327e+01 -1.6411531151014189e+00
    1.1829871350407767e+01 -1.6472232620223870e+00
    1.2262545811227163e+01 -1.6075033816805919e+00
    1.1395165711800344e+01 -1.8305822302565138e+00
    1.1127837843953307e+01 -1.6750890404706089e+00
    1.0889859638964490e+01 -1.8594672137426547e+00
    1.1813368649351526e+01 -1.8432067786026884e+00
    1.1955262002668228e+01 -1.8179901063252377e+00
    1.1690006256357204e+01 -1.6915300891955558e+00
    1.1417719898783840e+01 -1.5471515748801408e+00
    1.1023191202914161e+01 -1.5220147284469405e+00
    1.1360147033763869e+01 -1.5020899014723188e+00
    1.1440382346156412e+01 -1.7984386328866577e+00
    1.2039529738974034e+01 -1.7310187129099510e+00
    1.0823085146078286e+01 -1.8074023274415665e+00
    1.1234824573763902e+01 -1.7295583847170228e+00
    1.1759398063105847e+01 -1.7436635789883799e+00
    1.0623763050494469e+01 -1.4011605066751474e+00
    1.0645805488160342e+01 -1.2631458315678623e+00
    1.1290905063659373e+01 -1.3709238533887844e+00
    1.1434932550164538e+01 -1.3349670193347007e+00
    9.9472700294006096e+00 -1.5635649149872815e+00
    1.0513547282338941e+01 -1.3861755110435621e+00
    1.0782392791370494e+01 -1.5209759915975929e+00
    1.0683095479943967e+01 -1.4341302556867970e+00
    1.0768514011656519e+01 -1.4960834141348116e+00
    1.0740989530729587e+01 -1.4751626097362898e+00
    1.0678894088125999e+01 -1.2583859951765139e+00
    1.1859632410949683e+01 -1.3698298402882394e+00
    1.1364233821503257e+01 -1.3350043974434693e+00
    9.8552496143414654e+00 -1.7056613118068864e+00
    1.0118351020124843e+01 -1.3707708156378675e+00
    1.0700460670353289e+01 -1.4693061567462957e+00
    1.0208191498213433e+01 -1.3562051064861249e+00
    1.0552525451910375e+01 -1.5237875337499263e+00
    1.0799663885554155e+01 -1.5142600051850903e+00
    1.0996209448739998e+01 -1.4822339792838730e+00
    1.1087223756478005e+01 -1.6075927247703583e+00
    1.1364859559980443e+01 -1.5658778738564940e+00
    1.0012318237667968e+01 -1.6901391421948506e+00
    1.0786481583619414e+01 -1.4452037186023965e+00
    1.1095773603596768e+01 -1.5262097920698365e+00
    1.1399219635529349e+01 -1.4602556337441766e+00
    1.1210691804780952e+01 -1.5587653964231802e+00
    1.0215846419651347e+01 -1.4712673884655130e+00
    1.0416223753504934e+01 -1.3723673647306649e+00
    1.1653902850676285e+01 -1.5574810288702070e+00
    1.0890094713889948e+01 -1.4533054658997748e+00
    9.8812287657337414e+00 -1.7732291829583546e+00
    1.0545429185903540e+01 -1.4272938887858273e+00
    1.1563201055324056e+01 -1.5425729857546684e+00
    1.0841048090975656e+01 -1.4258900800062635e+00
    1.0350574451238977e+01 -1.5063630285109746e+00
    1.0451738525446654e+01 -1.5360023190546754e+00
    1.3585859422069491e+01 -1.4624761095963505e+00
    1.4974714406568568e+01 -1.6249011710420995e+00
    1.4411212954466951e+01 -1.4972384732440791e+00
    1.1059110049467312e+01 -2.0677258678876798e+00
    1.3659806591255313e+01 -1.5633218791590180e+00
    1.3838282406985060e+01 -1.6389420999576221e+00
    1.1961402512676576e+01 -1.4444791041925966e+00
    1.0238402262953661e+01 -1.5617058587902752e+00
    1.0204697326927741e+01 -1.8120999342566793e+00
    1.3337032127120048e+01 -1.7852593893219000e+00
    1.3142815776620475e+01 -1.7457234171258766e+00
    1.1231961947499999e+01 -1.4802156921091019e+00
    9.4488509749061809e+00 -1.7745317235712887e+00
    1.0151215896745025e+01 -1.5091796282650263e+00
    1.1031139182333172e+01 -1.6911261497094510e+00
    1.1018565419104670e+01 -1.6316879794335899e+00
    1.0151015325471580e+01 -1.7913522730126155e+00
    1.1004533420627556e+01 -1.5326438794454356e+00
    1.3449902852159124e+01 -1.4121853156706947e+00
    1.5182229455228754e+01 -1.6057196830892593e+00
    1.4896746364670777e+01 -1.4756259922786181e+00
    1.1126596300222626e+01 -2.0721033386422403e+00
    1.2974535422769526e+01 -1.5308667085193561e+00
    1.4220492437683628e+01 -1.7356510052592111e+00
    1.3708411353752116e+01 -1.5968310693955918e+00
    1.1485358434753953e+01 -1.6339499345283623e+00
    1.0973365547108322e+01 -1.8182020856134458e+00
    1.2187313321086966e+01 -1.6131080615081042e+00
    1.2779689213971810e+01 -1.6819331596363749e+00
    1.1682645543006807e+01 -1.4703013551136876e+00
    9.7458525577921282e+00 -1.8586684390847530e+00
    1.0208588941220452e+01 -1.5480468397700473e+00
    1.1343434163507457e+01 -1.7818471719443236e+00
    1.2562416817743060e+01 -1.8431630320205417e+00
    1.1027069470634437e+01 -1.8916244999945917e+00
    1.0076342741285186e+01 -1.7939720635117307e+00
    1.1881840423478298e+01 -1.6345338766803703e+00
    1.3242163392246677e+01 -1.5407264377726220e+00
    1.2670628294712460e+01 -1.4057136862543973e+00
    1.1039340758892408e+01 -1.5714027664629664e+00
    1.1661427314100843e+01 -1.4272710437041762e+00
    1.2204300913686634e+01 -1.5441386505079513e+00
    1.2250491315766865e+01 -1.6550084705745491e+00
    1.0262745674331882e+01 -1.7603969781136939e+00
    1.0289461642168563e+01 -1.8001171909176457e+00
    1.2120115293898108e+01 -1.7121157620563576e+00
    1.2434757648745867e+01 -1.6659907146415001e+00
    1.1838656500277951e+01 -1.5399100844867186e+00
    1.0934485523121079e+01 -1.6920836785685764e+00
    1.1712351722265051e+01 -1.5906168535891585e+00
    1.2067572692595991e+01 -1.7325787836471007e+00
    1.1514575636654492e+01 -1.6673930960129539e+00
    1.0118297031995551e+01 -1.7699743402580728e+00
    1.0759598568038587e+01 -1.7509206817992573e+00
    1.1514620454984017e+01 -1.5177520761605208e+00
    1.2691692362728304e+01 -1.4743347688624411e+00
    1.2631128835884633e+01 -1.3720950130190470e+00
    1.0685731170994572e+01 -1.5236310723841191e+00
    1.1308821360113724e+01 -1.3638535633426498e+00
    1.2199073091196547e+01 -1.5041965830254369e+00
    1.2909868302648178e+01 -1.6400893582669389e+00
    1.0957635689709075e+01 -1.7658019422345883e+00
    1.0744124697683368e+01 -1.8020370733181945e+00
    1.2143758051139853e+01 -1.6586874238554752e+00
    1.2404622242309346e+01 -1.6028949063436324e+00
    1.1844258349378192e+01 -1.4977281989476876e+00
    1.0583719352129686e+01 -1.6707038410440513e+00
    1.1504044070922331e+01 -1.5214318546909935e+00
    1.2005314427848495e+01 -1.6469195281349533e+00
    1.2004976577119432e+01 -1.6764761231086125e+00
    1.0793123098424132e+01 -1.8178323277730233e+00
    1.0875716597830161e+01 -1.5756644056120321e+00
    1.1404569739335312e+01 -1.5966881552107355e+00
    1.0885765166206834e+01 -1.6623566862042962e+00
    1.1603831836945851e+01 -1.5916153680888270e+00
    1.1451806543311434e+01 -1.7465956208847699e+00
    1.1871106049054234e+01 -1.4884379050649255e+00
    1.2018716241608804e+01 -1.5926180368206091e+00
    1.1745253441449753e+01 -1.5458091940568468e+00
    1.0906944744106706e+01 -1.5572409759913801e+00
    1.1016127454005192e+01 -1.6345860536497014e+00
    1.1594359833340013e+01 -1.7159183008251671e+00
    1.0038653834962943e+01 -1.6503438258444005e+00
    1.1606685029128052e+01 -1.6262816717959965e+00
    1.1717395472295312e+01 -1.7961248593024084e+00
    1.2070209356645801e+01 -1.4519722295104318e+00
    1.1812515687420344e+01 -1.4803568863384917e+00
    1.1241280151925926e+01 -1.4498381068191735e+00
    1.0882005540468313e+01 -1.5486412799748559e+00
    1.0763613428150677e+01 -1.6688235381018621e+00
    1.1396749488969125e+01 -1.7200099770972823e+00
    1.0121178918971983e+01 -1.6382001639231742e+00
    1.1482685236967372e+01 -1.5701166135909732e+00
    1.0997564419977671e+01 -1.6486208953715613e+00
    1.2176083815120805e+01 -1.4025918461574973e+00
    1.2594159198480414e+01 -1.5041640274257169e+00
    1.2371687238727374e+01 -1.5306859245536408e+00
    1.0812476689621155e+01 -1.5830773799186311e+00
    1.0680619539619462e+01 -1.6249789023461445e+00
    1.1188928694170194e+01 -1.7619464610391853e+00
    1.0017065012061650e+01 -1.6813654629957815e+00
    1.0855826166630205e+01 -1.5586505441170255e+00
    1.1141168428497078e+01 -1.6749259718430756e+00
    1.2109606634907591e+01 -1.3705251663275757e+00
    1.2444780502997590e+01 -1.4171113159410549e+00
    1.2244307254630812e+01 -1.4196288193636126e+00
    1.0726775922244959e+01 -1.5209460568939679e+00
    1.0117429656207374e+01 -1.5897861923540750e+00
    9.8882316163729360e+00 -1.5393446843981180e+00
    9.2386893168940567e+00 -1.4368787407069279e+00
    1.0206651176293269e+01 -1.3255052062959014e+00
    1.0323239990409290e+01 -1.5192696819048883e+00
    1.1492257385629687e+01 -1.3065549477955640e+00
    1.1560810569019685e+01 -1.4003992816600843e+00
    1.1718873102019755e+01 -1.4381509544518725e+00
    1.1009347092907921e+01 -1.5806080749979556e+00
    1.0452762721472578e+01 -1.6608077375113923e+00
    1.0261266576888946e+01 -1.5379669668382041e+00
    1.0066771313405559e+01 -1.4403875314315677e+00
    1.1483878024982191e+01 -1.3809822380585068e+00
    1.0286659304796009e+01 -1.7301378564590999e+00
    1.0839102045921569e+01 -1.3406127805973946e+00
    1.1163440020769727e+01 -1.4037024676779020e+00
    1.0953220264611016e+01 -1.3855895193915739e+00
    1.1143358716122879e+01 -1.6394233793913546e+00
    1.0708133571734523e+01 -1.5519830627874776e+00
    1.0215259414022013e+01 -1.5254124206026192e+00
    9.9439133880239456e+00 -1.4857073307498017e+00
    1.1354822803388689e+01 -1.3277377532710315e+00
    1.0641420396685712e+01 -1.5134445032909110e+00
    1.1753660478956752e+01 -1.2498123262048062e+00
    1.1350272809916964e+01 -1.3580584090704551e+00
    1.1805124627729612e+01 -1.4026036146836218e+00
    1.1379657376076100e+01 -1.5456751762467771e+00
    1.0538110222238320e+01 -1.5775927328273345e+00
    1.0541630729478893e+01 -1.4428942208340234e+00
    1.0401692913453136e+01 -1.4254680493231144e+00
    1.1345046768043723e+01 -1.2875360322794178e+00
    9.8932867424990434e+00 -1.6712455407249849e+00
    1.1362866560336631e+01 -1.3466701133762797e+00
    1.1338126627798911e+01 -1.4519567929948396e+00
    1.1360971499647517e+01 -1.4333945136472057e+00
    1.0782201086091431e+01 -1.5988097149608111e+00
    1.1815836350628940e+01 -1.7372786693285809e+00
    1.4594973793395940e+01 -1.6056280289792346e+00
    1.4444447321624018e+01 -1.6895645459996043e+00
    1.6099379488914586e+01 -1.5766871296677312e+00
    1.1331325577745364e+01 -2.2610772030350232e+00
    1.3761788994290345e+01 -1.5751902107857645e+00
    1.3990536985987864e+01 -1.8898695723736934e+00
    1.3318123437985012e+01 -1.7214297003923280e+00
    1.1780808807676983e+01 -1.7884576364290463e+00
    1.1949194946956812e+01 -2.1067652001369304e+00
    1.3679397671368479e+01 -1.8552290240088776e+00
    1.3676090798853805e+01 -1.9155833031968050e+00
    1.3529483810514748e+01 -1.5765774728469717e+00
    1.0947794038367492e+01 -2.0847267909363119e+00
    1.1716395157749488e+01 -1.5613124788815591e+00
    1.1744154179672833e+01 -1.9126043510613993e+00
    1.1495829070117646e+01 -1.8290759831845291e+00
    1.1599248085091212e+01 -2.0936220810124300e+00
    1.0774360328832334e+01 -1.8597226786106236e+00
    1.4461237134973965e+01 -1.5676201655542206e+00
    1.3970675282170719e+01 -1.6578870904036127e+00
    1.4590470097499868e+01 -1.4644700774525488e+00
    1.1303489883297567e+01 -2.2435240100040978e+00
    1.4601690997052728e+01 -1.5192034940027557e+00
    1.5834275980471226e+01 -1.9420222167690298e+00
    1.4997708934486871e+01 -1.7236101170651874e+00
    1.0989097110597243e+01 -1.9193558915615130e+00
    1.1667234114323573e+01 -2.2359354286091171e+00
    1.4056978358187793e+01 -1.7821013880032708e+00
    1.3660340727466032e+01 -1.8311290115015717e+00
    1.3194412751394719e+01 -1.4766316168720859e+00
    1.1216767621667712e+01 -2.0733329238114653e+00
    1.2208832328579785e+01 -1.4667514713750802e+00
    1.3558789745679025e+01 -1.9424054339141605e+00
    1.3288076755105557e+01 -1.8152522133083036e+00
    1.1825617702401892e+01 -2.2926301273657033e+00
    1.0082196852536221e+01 -1.8582196540533973e+00
    1.0958059939567907e+01 -1.4886002194200407e+00
    1.2101018217495403e+01 -1.4907742712834753e+00
    1.3877646734338123e+01 -1.3014880754817160e+00
    1.1192051838376740e+01 -1.5943974412341968e+00
    1.3051236408958415e+01 -1.3059517894065793e+00
    1.2490811228159377e+01 -1.6438566719372962e+00
    1.0430819385965762e+01 -1.5814905474211107e+00
    9.7640463978812111e+00 -1.8781010052087430e+00
    1.0316997865146300e+01 -2.0500445963700726e+00
    1.0950311779284794e+01 -1.6606999537471299e+00
    1.1978101724169115e+01 -1.6134217733281557e+00
    1.3667662861370891e+01 -1.3898521063569604e+00
    1.1101497586116066e+01 -1.6567749276677946e+00
    1.2762646426343553e+01 -1.3565190876723827e+00
    1.1088423008605638e+01 -1.5622419705300366e+00
    9.6885086425109552e+00 -1.5600193146060048e+00
    9.8163760120393686e+00 -1.9559547178724384e+00
    1.0779658515536820e+01 -1.9152904590303939e+00
    1.2127710095658768e+01 -1.4523176996833713e+00
    1.2775973431028097e+01 -1.4710321687562071e+00
    1.3776977467527184e+01 -1.2453371845979659e+00
    1.0943382631300715e+01 -1.5839444556714355e+00
    1.3541348894284855e+01 -1.2330575558586170e+00
    1.3271819902751970e+01 -1.4785726565037431e+00
    1.3164293032429326e+01 -1.5285227271631781e+00
    1.0999123475224186e+01 -1.9430543093910113e+00
    1.1148482456044560e+01 -2.0975088894624934e+00
    1.2432574251363445e+01 -1.6071301648436129e+00
    1.2533619811653727e+01 -1.5436484589498534e+00
    1.2914994128052708e+01 -1.2430494599763204e+00
    1.1156297666240375e+01 -1.6565548876857414e+00
    1.2916639226039498e+01 -1.2447363643793627e+00
    1.2149554807675965e+01 -1.5087821755038171e+00
    1.1630738184469658e+01 -1.5630969454847421e+00
    1.0978307817320255e+01 -2.1061128948628713e+00
    9.8829506044473572e+00 -1.8664739711694567e+00
    9.2521037757654980e+00 -1.5680444507324349e+00
    9.4365814560954036e+00 -1.5224246507811248e+00
    1.1764602253960584e+01 -1.3104522702003765e+00
    1.0709835610914782e+01 -1.5542419289021772e+00
    1.4420438124622706e+01 -1.3479984750712011e+00
    1.3310341561473289e+01 -1.5335540737479321e+00
    1.1827041557856100e+01 -1.5636942163700358e+00
    1.0404283254234892e+01 -1.8388850423019598e+00
    1.0290760028872002e+01 -1.8139126724957244e+00
    1.0173092067874453e+01 -1.6354884608009073e+00
    1.0300419795372937e+01 -1.6275344179667912e+00
    1.2796540795063883e+01 -1.4031363454052821e+00
    1.1015288010625728e+01 -1.6148846633836214e+00
    1.3562253984488970e+01 -1.2960900735113370e+00
    1.2719798579992494e+01 -1.4399609648711746e+00
    1.2080556600259488e+01 -1.4582085657501092e+00
    1.0384224327102066e+01 -1.7009121489811498e+00
    1.0719325972650745e+01 -1.9831637123677810e+00
    1.1304979873197139e+01 -1.5342665260010626e+00
    1.1135706276837416e+01 -1.4662938306436344e+00
    1.3301318931800832e+01 -1.2640419260413958e+00
    1.0984280650592732e+01 -1.5911710812493027e+00
    1.3302702270139502e+01 -1.2259678694078309e+00
    1.3324277860488266e+01 -1.5027835171310049e+00
    1.2448671636756108e+01 -1.4937103892677839e+00
    1.0315131925297248e+01 -1.8470479043025678e+00
    1.0104255842807099e+01 -1.8402402621908465e+00
    1.2342399067331286e+01 -1.6096860025135853e+00
    1.1877182369595227e+01 -1.5462169360447946e+00
    1.2725307426888348e+01 -1.2891827617652543e+00
    1.0994436716177951e+01 -1.6625712041683192e+00
    1.2765540493353507e+01 -1.2547730255671263e+00
    1.2530676895361701e+01 -1.4602400193059526e+00
    1.1797385730206802e+01 -1.4207785357505649e+00
    9.8643823111256737e+00 -1.7464714188930028e+00
    1.0701348252588980e+01 -1.6659543148125373e+00
    1.1677630447824319e+01 -1.4768449798102912e+00
    1.1905787352859935e+01 -1.5278891816459088e+00
    1.2789626688870515e+01 -1.3500296301478325e+00
    1.0705973458970197e+01 -1.6598350156873531e+00
    1.3643265030640503e+01 -1.3793360083544557e+00
    1.2922361250210274e+01 -1.5594155177188636e+00
    1.2553216832462855e+01 -1.5035941689135330e+00
    1.0865061449266905e+01 -1.6455653883564019e+00
    1.0547154476672285e+01 -1.7431325594895122e+00
    1.1812665549825459e+01 -1.6308794591604614e+00
    1.1778863466353242e+01 -1.6716682421217892e+00
    1.1877852227170164e+01 -1.4338338432920552e+00
    9.4776174442047374e+00 -1.8320810543790611e+00
    1.3104527724529763e+01 -1.4808417775984553e+00
    1.2838676353220769e+01 -1.6510006639723751e+00
    1.2017776494094861e+01 -1.5336058910469117e+00
    1.0700503429061630e+01 -1.7117349904907369e+00
    1.0406678870915291e+01 -1.7845191871824497e+00
    1.2838334036226136e+01 -1.5450301116300365e+00
    1.2348380468353652e+01 -1.5941609667757715e+00
    1.2246010050356238e+01 -1.3236672166022783e+00
    1.0946467750690328e+01 -1.7825447791648428e+00
    1.3502323037847409e+01 -1.3882894138687809e+00
    1.3651861359499152e+01 -1.6409174883021400e+00
    1.3313456631243154e+01 -1.5399670070071687e+00
    1.0396695074892683e+01 -1.7841018125480075e+00
    1.0672699973141670e+01 -1.9247312328169532e+00
    1.2539341642331719e+01 -1.6317217492015574e+00
    1.1457192615386315e+01 -1.6264380884851446e+00
    1.0795393256026786e+01 -1.3547210309316888e+00
    9.6895968045608196e+00 -1.9156538697848740e+00
    1.2236848807733397e+01 -1.4590865152483221e+00
    1.2652501322865783e+01 -1.6886855518743102e+00
    1.2480875937863235e+01 -1.6167112633811644e+00
    1.0434848265192045e+01 -1.9077065908594135e+00</input_scale>
  <output_scale>
    5.2631578947368418e-01 4.9999999999999994e-01 5.2631578947368418e-01
    4.9999999999999994e-01 5.2631578947368418e-01 4.9999999999999994e-01
    5.2631578947368418e-01 4.9999999999999994e-01 5.2631578947368418e-01
    4.9999999999999994e-01 5.2631578947368418e-01 4.9999999999999994e-01
    5.2631578947368418e-01 4.9999999999999994e-01 5.2631578947368418e-01
    4.9999999999999994e-01 5.2631578947368418e-01 4.9999999999999994e-01
    5.2631578947368418e-01 4.9999999999999994e-01 5.2631578947368418e-01
    4.9999999999999994e-01 5.2631578947368418e-01 4.9999999999999994e-01
    5.2631578947368418e-01 4.9999999999999994e-01 5.2631578947368418e-01
    4.9999999999999994e-01 5.2631578947368418e-01 4.9999999999999994e-01
    5.2631578947368418e-01 4.9999999999999994e-01 5.2631578947368418e-01
    4.9999999999999994e-01 5.2631578947368418e-01 4.9999999999999994e-01
    5.2631578947368418e-01 4.9999999999999994e-01 5.2631578947368418e-01
    4.9999999999999994e-01 5.2631578947368418e-01 4.9999999999999994e-01
    5.2631578947368418e-01 4.9999999999999994e-01 5.2631578947368418e-01
    4.9999999999999994e-01 5.2631578947368418e-01 4.9999999999999994e-01
    5.2631578947368418e-01 4.9999999999999994e-01 5.2631578947368418e-01
    4.9999999999999994e-01</output_scale>
  <inv_output_scale>
    1.8999999999999999e+00 -9.4999999999999996e-01
    1.8999999999999999e+00 -9.4999999999999996e-01
    1.8999999999999999e+00 -9.4999999999999996e-01
    1.8999999999999999e+00 -9.4999999999999996e-01
    1.8999999999999999e+00 -9.4999999999999996e-01
    1.8999999999999999e+00 -9.4999999999999996e-01
    1.8999999999999999e+00 -9.4999999999999996e-01
    1.8999999999999999e+00 -9.4999999999999996e-01
    1.8999999999999999e+00 -9.4999999999999996e-01
    1.8999999999999999e+00 -9.4999999999999996e-01
    1.8999999999999999e+00 -9.4999999999999996e-01
    1.8999999999999999e+00 -9.4999999999999996e-01
    1.8999999999999999e+00 -9.4999999999999996e-01
    1.8999999999999999e+00 -9.4999999999999996e-01
    1.8999999999999999e+00 -9.4999999999999996e-01
    1.8999999999999999e+00 -9.4999999999999996e-01
    1.8999999999999999e+00 -9.4999999999999996e-01
    1.8999999999999999e+00 -9.4999999999999996e-01
    1.8999999999999999e+00 -9.4999999999999996e-01
    1.8999999999999999e+00 -9.4999999999999996e-01
    1.8999999999999999e+00 -9.4999999999999996e-01
    1.8999999999999999e+00 -9.4999999999999996e-01
    1.8999999999999999e+00 -9.4999999999999996e-01
    1.8999999999999999e+00 -9.4999999999999996e-01
    1.8999999999999999e+00 -9.4999999999999996e-01
    1.8999999999999999e+00 -9.4999999999999996e-01</inv_output_scale>
  <weights>
    <_>
      8.6953749485215131e-04 6.9821863045125124e-02
      6.0233433788312842e-02 -3.2554633512367502e-02
      -2.6357482608669069e-03 -8.2807588615516334e-02
      1.2109339263890051e-01 8.0425802560557355e-02
      8.4576950642794427e-02 -3.0701443845532302e-02
      -6.1057818681557671e-02 6.2654963219744980e-02
      4.0713464054437959e-02 4.4157840753044734e-03
      2.3655774475202632e-02 2.4827105486817953e-02
      -1.0814330331240625e-01 -4.2320773671457312e-02
      -3.6396405566576806e-02 1.0207076437537041e-01
      2.3995688251444495e-02 3.3476311367023906e-02
      1.2755131912024795e-01 1.1522132796364938e-02
      9.7000019579010326e-03 -2.4962498593795256e-02
      -7.4582291667052658e-02 -8.1295462931624249e-02
      4.7282095239922259e-02 1.0020227461618725e-02
      -1.9543719096879429e-03 2.6495776925654670e-02
      2.0891719458047353e-02 8.9327559024552930e-02
      -3.1000038691313958e-02 -6.6512359399719362e-02
      -2.0728407522025837e-02 -3.6800587142602599e-02
      7.3778644979252780e-02 -6.1719916375083027e-02
      8.9751213519293840e-02 -5.8967726255041708e-02
      -1.2260506438648384e-01 -1.0171888387609784e-01
      1.8622358318673711e-02 1.0265034078040292e-01
      1.9633713299055516e-01 5.6087278442186070e-02
      -1.3225662288412415e-01 9.4763966071846145e-02
      6.0752564402826573e-02 -7.4896181852564248e-02
      -1.0425176768855585e-01 -3.2541279045534263e-02
      -8.0405998172862092e-02 1.3351866364550357e-02
      8.1990912108321212e-03 -4.4117376936231474e-02
      -2.6647901900486728e-02 -6.4759125159845360e-02
      1.6662519431200964e-02 2.9592161878718801e-02
      7.6961906414204778e-02 2.0100861737047865e-02
      -4.5074482861988084e-02 -1.9693902598783947e-01
      -3.9715042792136453e-02 6.4571942140710867e-02
      -7.1826987746190660e-02 -8.7068450540660050e-02
      -6.8849147212063269e-02 4.2939080512817716e-02
      -3.1282273556509907e-02 -6.9158591857814464e-02
      -7.8727714590244621e-02 1.6429100462227262e-02
      1.4088003230143533e-02 3.2914071779936889e-03
      -4.9247350118009330e-04 -9.7154667338010592e-02
      4.8531356169565727e-02 -1.2871639091492481e-02
      1.0141515140042261e-02 2.6729527733565444e-02
      -4.4010825088927806e-02 4.8252680230470947e-02
      2.5807380530821038e-02 1.0197917134975737e-01
      -1.4068326580145427e-01 -5.9462391894995172e-02
      4.1632509770554493e-02 2.6110148249237134e-02
      1.7589692965113196e-01 2.7776415696386335e-03
      -1.7072470110714721e-01 1.5762256038260428e-02
      8.7980303612594443e-03 2.1494381971502746e-02
      -4.2055159191379442e-02 -4.8792650651725365e-03
      8.9963334500877436e-03 -5.9571459971757695e-02
      1.5361465260777930e-02 -3.2768972767038003e-02
      -4.2300724502477904e-02 -5.2705269345190479e-02
      7.2326832055712317e-02 1.5003127750657549e-01
      4.0822481527256795e-02 7.4021259713453427e-02
      -6.6295807884925104e-02 -6.1093723353233195e-02
      8.1296405587887521e-04 3.2806378928624609e-03
      -1.0188607160435181e-01 3.4982698211149438e-02
      -8.1918487805505216e-02 -2.3465101852059054e-02
      -2.6579511521806147e-02 4.3234466651585462e-03
      -1.5616297235609167e-02 1.5301502936409101e-02
      -1.8207158461843309e-01 -3.4047618483056624e-02
      -1.5023854264376480e-02 6.3345872023832725e-02
      8.2402653627356007e-02 2.0396091926786774e-02
      1.7186339212489018e-02 3.6170641184580174e-02
      1.3000880439147470e-02 9.5355451283962528e-02
      -5.9392317875432719e-02 7.2486077620244671e-02
      -1.0184634777218692e-01 -1.4965521370322837e-02
      -5.6060090094644924e-02 1.9910366920433572e-02
      1.2593164482039806e-01 -2.7613462925690120e-02
      1.3932471598152805e-02 -5.0075647290436145e-03
      -2.8681677014347783e-02 7.4496759713340702e-02
      -9.9069712164740822e-03 6.7139237788800751e-03
      7.1741954578294787e-03 -6.1911700949336609e-02
      1.4542630584058157e-02 -1.4206284805648095e-01
      1.8145921956762772e-02 3.8971236385915417e-02
      5.1318831692466940e-02 -8.6829489758327660e-02
      9.4871680869261982e-02 -4.7787655842629853e-02
      1.5610000066649364e-02 3.3324381403177896e-03
      -6.3021661519015145e-03 -1.0270999314222838e-02
      4.7587801245516488e-02 -1.1936822494726530e-03
      -1.8542722443398479e-01 5.4071697497712033e-02
      1.2516915680764620e-01 3.9384792209624993e-02
      -5.3082164737145478e-02 5.5127223294296132e-02
      8.6630279198182822e-02 -8.7164927680800405e-02
      3.9211481968894589e-02 -9.2670560576052760e-02
      1.9792538368203605e-02 4.5503131081032780e-02
      -2.4665936513602223e-02 -2.5854593854311873e-02
      8.4220569145488366e-02 1.1708851179183423e-02
      6.9175222775492026e-02 7.5001116031949103e-02
      -2.9028969226663322e-02 -4.7044253998002085e-02
      -4.7504956932128618e-02 -7.9072098671569384e-03
      -3.7108025227948024e-02 2.9365943542530651e-02
      9.6867992448182769e-02 -5.0108234048068238e-02
      -8.0252122239295856e-02 -1.0953583465202980e-02
      -2.3984641159966024e-02 2.0912837820884482e-02
      -8.7078204153263977e-02 3.1103633387275259e-02
      9.7659411576319615e-03 -2.6971963289823243e-02
      5.7798855537558990e-03 5.6965829044658821e-02
      1.3878115103662411e-01 -8.6739127532311722e-02
      -9.9121846316389095e-02 -7.2771563131130548e-02
      1.6514722238309906e-01 5.8085802365473130e-02
      1.9818950139595701e-02 1.1690807653336652e-01
      -5.1012086281537750e-02 -1.7071113788415795e-01
      6.1353968535157191e-02 1.2776204369422295e-01
      -1.5756107604670322e-01 4.8811794437644655e-02
      -2.4501777238806942e-02 -6.4389269123690918e-02
      1.7895675906907282e-01 7.1278674942215408e-03
      1.7377395186430541e-01 1.2947924337875769e-01
      1.3865310443103152e-02 -9.6817280466631087e-02
      -1.7664315202969509e-03 -1.0798254310641169e-01
      -9.6335737626707801e-02 -5.9723411121272191e-02
      2.0357777031896743e-01 7.0961861371607829e-02
      9.5979678957769324e-03 1.4478010913598041e-01
      -4.3870435353547441e-02 -5.1040722780433159e-02
      3.8136152952377919e-02 1.7338320032522430e-02
      -7.5129810353507555e-03 -7.0057125479154977e-02
      7.1049931453018259e-02 1.0145632741806473e-04
      5.3656782231687537e-02 -5.4394433839484871e-03
      2.2685532393590365e-03 -1.1093952940510109e-01
      2.7923294553215093e-02 -3.4077607161492246e-02
      -4.2698963603950701e-02 7.1662836497692783e-02
      -1.0283279726985682e-01 3.9000674821432484e-02
      1.3738276653398709e-01 5.3028562069921459e-02
      -1.1089604298282121e-01 -1.0008526700323658e-01
      -8.5502012269352584e-02 7.3141317021256674e-02
      -7.6299552311465499e-02 -8.6849456497894814e-02
      1.9947000993000905e-01 4.3779798533956013e-02
      9.0941326202202216e-02 -6.3177046898239067e-02
      6.9119143867270916e-02 7.1989371579714093e-02
      -1.2321256779387793e-01 -2.4140766060585597e-01
      5.6682003400379523e-02 2.6569222327343600e-02
      7.7434669594894742e-02 1.0318596864195005e-01
      3.6052178614331097e-02 1.7203739014072044e-03
      -6.8903020168928172e-02 1.9396497980921339e-02
      -1.2470508466654618e-02 1.1258507496626699e-02
      6.3361834174079298e-02 8.9493127761444038e-02
      -1.0000619334449083e-01 -3.9838745950393321e-02
      -7.5732413073250668e-02 3.5729168908090223e-04
      6.1324088121422399e-02 -1.4780928239753599e-02
      -2.0437635189761359e-02 7.1456093799749376e-02
      2.4779422497199687e-02 -1.1877117846483072e-01
      1.1451001576344207e-01 -5.2870407816044733e-02
      -4.4398050818101879e-02 -3.7919830537361816e-02
      1.8241572837543393e-02 5.5000791999990133e-02
      9.7102743960090554e-02 8.4912795349956650e-03
      8.3975168565206551e-02 -2.9851170328907849e-02
      -1.4482886121654837e-01 -1.4110421634850484e-01
      1.1101502535992942e-01 3.6231475077402910e-02
      5.7853554478753802e-02 9.8385496685324772e-02
      4.4200610735407445e-02 -3.3277993147334359e-02
      -9.3453097315155956e-02 -1.6272414464954110e-01
      -1.0013245754373004e-01 -5.8506999069328845e-02
      7.2805380026390656e-02 2.5313066641645295e-02
      5.5328065323871287e-02 2.5581863078367240e-02
      8.9385725780090214e-03 7.3532603277247999e-03
      6.6995865842165409e-02 1.9095754221291191e-03
      9.5777211324976574e-02 -5.9004845503305883e-02
      1.7277404322571622e-02 -4.7892348258122504e-02
      -9.1221893507774529e-02 -8.7535602898567516e-02
      -1.2116310979368278e-01 -1.1000380471595363e-01
      1.9680518007411896e-01 -7.2358190062508654e-03
      -2.3382117635983326e-02 -3.1111891734210247e-02
      -1.2565511484983680e-01 4.9261283734423414e-02
      -1.3478137167262179e-02 1.3398768904861294e-01
      -7.9866699423144782e-02 6.8297874393935171e-02
      -1.9121961976033580e-02 7.9941821118665081e-03
      1.5616028173145946e-02 8.9518698061618468e-02
      1.3576071133893686e-02 -4.2454965670456216e-02
      -1.8326508020924082e-01 1.1852010452599145e-02
      -9.7189280510193623e-03 -2.8447466223631055e-03
      -3.6470012013924732e-02 7.8147044767949078e-02
      -4.4563603924958992e-02 -4.0391773292645192e-02
      3.2134312429029546e-02 -7.4287168473556014e-02
      3.6630051780403065e-02 -1.3389431778334061e-02
      -3.5239518506392481e-02 4.9181332102738368e-02
      5.3089060356075933e-02 1.7369515448256656e-02
      7.6799468063080675e-02 3.8788230166017158e-02
      1.6565610921069332e-01 -1.3952331420657991e-02
      -1.2180960777111673e-01 4.9542436744047791e-02
      4.1566777991174315e-02 -2.0307968682395307e-03
      2.9684672419464948e-02 -1.2225779838083928e-01
      8.9270757500402365e-02 -1.1699328045656099e-01
      -1.2028077413027830e-01 7.3584460530665263e-03
      4.3564670001541746e-02 7.8927950783035962e-04
      3.3263954107282875e-02 4.2197840255786608e-02
      1.1712311770516853e-02 4.0006281203279155e-02
      3.7472036677379653e-02 1.7706849144384869e-02
      3.0691290678881603e-02 -5.6756097601381096e-02
      -3.5899990890914321e-02 -4.7395944287019841e-02
      -1.3572331116927611e-01 -1.6956716872960221e-03
      9.5378532588686976e-02 4.6019385970567775e-02
      1.3241544197534030e-01 8.2060427928236340e-02
      -1.2405343260335723e-01 -2.1929305060248996e-02
      3.4101751923800547e-03 9.1146910697628789e-03
      5.6575115897884026e-02 1.3006124263465041e-01
      1.4842056993722189e-01 1.2796078518621251e-01
      2.4777398278511210e-02 -2.3952112909695236e-01
      1.0531115984021469e-02 -1.9460551683445074e-02
      1.2749479311567695e-02 1.2489194308943984e-01
      1.4534703631120327e-04 8.6531027408479289e-02
      -2.7949109554452727e-02 2.4134030882015215e-02
      -5.5074807095300181e-02 -7.3929635793586598e-03
      -2.4860930555604316e-02 -1.2030633767037509e-01
      -3.0340806765655721e-02 -1.0932531764531145e-01
      1.6285282110393220e-01 -1.6695700922037104e-02
      1.4113754169682384e-02 -2.8780929202668403e-02
      3.9194558819742709e-02 -8.3499709989719229e-02
      2.0112871685433942e-01 7.0619404456432652e-02
      -8.8423679465293725e-02 7.6725008245156753e-02
      5.8717630647815371e-02 5.2154199054478725e-02
      -1.7099366707192329e-01 -1.0735677029642619e-01
      2.5038200940588468e-02 4.9530582291191734e-02
      -2.8898296691535066e-02 -1.7776392564166923e-02
      -1.0181787906527201e-01 -1.1072195313009089e-01
      -8.4957417809675903e-02 -6.0247395721838718e-03
      2.2240852191603176e-02 3.4809529460856359e-02
      -7.2038500786355739e-04 -8.9875160524473641e-02
      7.4112468582483201e-02 6.3965970679437698e-02
      -3.7533580651869493e-02 8.6334876615456625e-03
      1.7449596706165707e-02 -1.4532002254139939e-01
      5.4085366739307861e-02 4.8031406822246873e-02
      1.1306276786367982e-01 -3.3421008439516529e-02
      5.9268200247375251e-04 -1.1833219505293927e-01
      3.4332856333276762e-02 -2.3653780352337847e-03
      2.6945954537738369e-02 1.9305865502283394e-02
      7.7785569113681952e-02 3.3847823277411412e-02
      -2.5902033458664788e-02 2.0646164822286588e-02
      -3.7312833242941837e-02 4.2026386008554725e-02
      2.5400152955065893e-02 -2.4767717424635610e-02
      -1.5896257290584184e-01 -5.1149349553166260e-02
      -4.6929983195851649e-02 3.7693567003013607e-02
      1.7746225153663416e-02 1.4721273790444578e-01
      3.5574402277988602e-02 -1.1386674358174616e-01
      -9.6069594621755513e-03 -8.0757674784855977e-03
      1.7875921210738645e-02 -8.7149097911044818e-02
      -6.6009473138964186e-03 -4.3263331094550481e-02
      -9.0562202272301634e-02 -2.5435312488812614e-02
      1.6260081774252144e-02 -1.9286650230331614e-02
      7.0495696896420171e-02 -8.6420385028212865e-02
      3.8488445982194454e-02 5.4133833787211705e-02
      -6.8470096933704316e-02 5.5998337973693794e-02
      -6.3961786677724702e-02 -3.0589491701248007e-02
      3.9387869805201391e-02 5.8353036108659252e-02
      4.9359589603958101e-02 -1.2976836702674066e-01
      7.7290610459720521e-02 -3.4104068857722866e-02
      5.5815952963560230e-03 -1.9145268188210943e-01
      -6.2602753797021210e-02 9.9259184841742787e-02
      7.0763409214438851e-03 7.5638272892334102e-02
      1.4997098954693694e-01 -2.7102853211368634e-02
      4.6587578382056662e-02 3.7939634950893736e-04
      -3.3268999681933822e-02 1.4744994176602533e-01
      -9.6862471934794914e-02 -1.5097226418785191e-02
      -7.8270242917863279e-03 4.0450809710749665e-02
      -9.5537985154601088e-02 1.4914121688153585e-03
      8.0293287905422117e-02 6.3585249871666513e-02
      1.7964971714818180e-02 -8.6370384576338513e-02
      5.4180014067010578e-03 1.1536254821850353e-02
      1.2314672624162634e-01 4.8494769565971978e-02
      1.9033764732888003e-01 7.7551392774661901e-02
      -1.4712744667808291e-02 3.4519615414649214e-02
      -1.7880846154741126e-01 -1.0051200201106043e-01
      1.1017220094081357e-02 1.1284072022620567e-01
      -2.2083367280432281e-02 9.4203766111010015e-02
      5.1136062476887331e-02 5.6660318635830764e-02
      -6.2457507046802495e-03 -1.7004521006389248e-02
      -1.1905857813741776e-01 -1.0388158399668701e-01
      -9.4628292408326015e-02 4.5035428758262240e-02
      4.1461391305071586e-02 6.1388134461103284e-02
      5.4584673973696173e-02 -1.2650354653579252e-01
      2.5304755941325384e-02 -7.6086821984649888e-02
      -4.3052558113204305e-02 4.4373439472096754e-04
      5.8008245569234548e-03 1.1457881372348633e-01
      3.0823959113788508e-02 1.0027041781365145e-02
      5.1510977889034214e-02 3.7026713229687133e-02
      -6.6991742777104943e-02 -6.8798713936508119e-02
      -1.1527549177735714e-01 1.4840689471489881e-02
      -9.9449410713592132e-02 -1.4870918510573188e-02
      -8.2387971745592287e-02 4.2956175090528737e-02
      7.6913964620354006e-02 -1.6353277752488701e-01
      8.5139325505528510e-02 -4.7399555879423287e-02
      5.0767915093183152e-02 7.9476784220443131e-02
      8.4262502482066515e-02 3.1205263125256566e-03
      3.1502352816092137e-03 -1.2610573707361269e-01
      9.5864384062221822e-02 5.4015842200012626e-02
      -1.1697785289695662e-02 -3.0765958753790179e-02
      7.0304328990912046e-04 -1.6533887088907868e-02
      7.2405311596566033e-02 3.0158770844377139e-03
      -8.2978065562272704e-02 6.2809727551549595e-03
      -4.4285610046400914e-02 4.3800207027748478e-02
      2.6939468247150298e-03 5.8036830557341712e-03
      7.7533022794116307e-02 7.4249071703764172e-02
      -4.2580091423429459e-02 -3.3935884618170084e-02
      -9.9780499027212182e-03 -3.0200472655892176e-02
      -4.2773023619424111e-03 -5.6492939511831632e-02
      5.0883920308927535e-02 8.8903001295001061e-02
      5.5760204914972071e-02 8.9178553951821296e-02
      -3.8229851242501160e-02 -1.3202162134174447e-01
      3.8911142175873624e-02 -2.2066023303467148e-02
      -1.1200135371925071e-01 2.6451072364840421e-02
      -6.2306677560825294e-02 -2.3573639015328812e-02
      9.9994547635815556e-02 -1.1646933389858338e-01
      1.0497015236061945e-01 -2.9444046864703626e-02
      4.6013536546105009e-02 4.0577516506482496e-02
      -1.8273393495101171e-02 3.1171357326648701e-02
      2.8187029949061776e-02 5.1983952607335925e-02
      -8.5554960826802959e-02 5.0953444432774143e-02
      -1.8179903736309741e-01 -1.0836323247102554e-01
      4.0761614399365688e-02 -5.4708045013319342e-02
      -3.6880719443632221e-02 3.3414198399792663e-02
      -1.0166760266302595e-02 -7.2305930213599628e-02
      -1.1099692474305259e-01 -5.3315784048961798e-02
      2.8117730916002680e-02 1.1536277305345769e-02
      4.5541063199115134e-02 -1.5689341763493247e-02
      5.9021428713227790e-02 3.2708461518506107e-02
      -6.4382583802559672e-04 4.5119018738258090e-02
      -1.5418782620607169e-02 -8.3045982146903938e-02
      -1.3371892250805942e-01 1.0755198676128883e-01
      1.9265983498986280e-02 3.7497731899881939e-02
      4.3693749417234723e-02 -2.7811987025978587e-03
      2.7976637241655344e-02 -1.7247231018165509e-04
      -2.3953840119540083e-02 -2.2950238913432189e-02
      5.7754219906247919e-02 9.4408921272865071e-02
      3.1845120988541899e-02 2.1421756863468158e-02
      -6.0652620948399176e-02 -1.5604367198777571e-03
      7.7662671467541008e-02 4.0053272872534781e-02
      1.9226338175973613e-02 -6.0324162903813580e-02
      -5.6214264191286854e-02 -5.3963133259521782e-02
      1.3904766936615587e-01 6.9987541745791151e-02
      -5.8096613668858217e-02 -9.6656401284573840e-02
      -1.1416700212437309e-02 -6.5837943390845449e-02
      4.6962104902404433e-02 4.4986708580210984e-02
      4.0574013606075592e-02 -6.5502980547165503e-03
      -2.8609402424967678e-02 1.2325554739505468e-01
      -2.8774368880049608e-02 4.9696567389133792e-02
      -1.6201003875534293e-02 -6.2320435602621779e-02
      -1.0586000078087594e-01 -3.5574548123968472e-02
      1.1852017319656398e-02 -4.6836298518164125e-03
      6.3815942324392555e-02 -2.8989786051724344e-02
      -1.1584485502138413e-01 7.8527130873167917e-03
      1.5425812686478071e-01 5.6238275340615908e-02
      -1.5083842206511648e-02 -1.2621323649994682e-02
      -5.6153209098499218e-02 2.5274813243498062e-02
      -7.0436438234300488e-04 -3.6240860310168807e-02
      5.9344943566536586e-02 -4.0158650030116226e-02
      8.4697175514707720e-02 1.1071426685241659e-02
      1.0235470892185311e-01 3.9661175577747503e-02
      3.1477073767684043e-02 1.3122363383071248e-01
      5.2410501248950213e-02 3.5567483503166096e-02
      4.6363677347749668e-02 1.5606060303017737e-02
      6.9620585327160251e-03 1.0423239601214863e-02
      -5.0607716555738765e-02 -1.0916312111618438e-01
      -1.4020401525665076e-02 1.0965260042549906e-01
      4.5167326294240348e-02 -8.8667875528524273e-02
      1.2991597127736881e-01 8.0492708599425464e-02
      -1.4334019138535573e-01 -1.5344810173470062e-02
      3.5177892631717098e-02 -1.6415503311356865e-02
      9.8474455871957953e-03 6.7804942959769521e-02
      5.3042903486708828e-02 -7.8506865926113653e-02
      -9.3396066696122340e-02 -2.4491917154934369e-02
      -1.4941512740212887e-01 -7.2923722400929300e-02
      -1.0219835624357516e-01 -5.3142367477607741e-02
      4.2146385660624092e-02 2.7011895737674992e-02
      -1.0412293448614346e-01 -4.0272363453385404e-02
      9.9537579669365467e-02 -3.8300888949518545e-02
      6.6671855158686150e-02 2.4063863370453104e-02
      1.0511233046655885e-01 -7.4764347948610088e-02
      -1.4245050989348526e-01 -5.0722765688991922e-02
      -3.4404509115173648e-02 -8.5616749124296135e-02
      5.6792246548962810e-02 -3.5406885282710882e-02
      -1.2021317157821089e-01 -1.6764407037887490e-02
      9.7454783525023181e-02 1.5865440689932914e-01
      7.8997458326025942e-03 -7.2427858103366771e-02
      8.3601618568747362e-04 7.4607622132985760e-02
      -7.3214716162498888e-02 -1.5945314018929860e-02
      5.6159297825449712e-02 4.1665420764646174e-02
      -1.4158147925288503e-01 -9.3980098483771132e-02
      1.8704020457887258e-01 3.9820130213861202e-02
      4.9434565266547208e-02 -5.7487774604065858e-02
      7.2425256936544625e-03 -4.9174540747341636e-02
      2.9922217887131293e-02 -1.6595705297616062e-01
      7.9454798393205503e-02 -1.7209540853934696e-02
      9.3146314231955935e-02 -4.6547729318090404e-02
      1.6081192473905997e-01 1.8308507089747716e-01
      -1.0412610833567794e-01 -1.1429825080637659e-01
      -3.7760598821717753e-03 -1.4260208602415536e-01
      -1.8379144154769250e-02 6.2857245280690588e-02
      2.4087801481433090e-02 5.6072909802977050e-02
      -5.0592887285256828e-02 -2.0818698567345664e-02
      1.2838346042683615e-01 -9.5169672176022221e-02
      1.2677440510049667e-01 -4.0849824409923408e-02
      -8.6159673025173245e-02 1.2032962997976664e-02
      1.2444376844047829e-01 1.3857496307030281e-01
      -8.6441899177094633e-02 -7.8939100224767744e-02
      -6.5222460264265258e-02 5.6792869324832129e-02
      8.8472063090250325e-02 3.9902852925155941e-02
      -6.7082959045727003e-02 8.0133364528201106e-02
      -3.9326421835806639e-02 4.4400660536132036e-02
      -4.0273060651224248e-02 1.1481007636968261e-01
      -1.0059637068041596e-01 -1.7263984336798235e-02
      -5.3863930926245876e-02 -8.0859325331122597e-02
      4.3729753794789989e-03 8.4611233844326186e-02
      1.2337038969866652e-01 1.4096587751252459e-02
      1.1065483287138433e-01 6.3914837086429283e-02
      -6.1306279640029215e-02 -2.1959280981664605e-02
      -1.9298379747172391e-02 7.8597455875135197e-02
      7.5002740965801909e-02 7.7455777707047133e-02
      7.7096102392841259e-02 7.9179186559189541e-03
      1.8598188493257287e-02 -3.7193081231744710e-02
      -3.2297186732182133e-02 -8.1707961898217746e-02
      -1.4026437441997980e-01 -7.5429702981346214e-02
      7.2225068730954287e-02 8.9371623891762678e-03
      -4.5208439333808317e-02 6.7827755828038364e-02
      -1.2290497345737197e-01 -3.3525470761925656e-02
      -1.5142700332357797e-01 -2.6879379262674903e-03
      1.0779259845388489e-01 3.1076109977041945e-02
      -9.7224787562268752e-02 -4.2418860397205570e-02
      9.8959858645555634e-02 7.4715596867114084e-02
      5.5923143882927975e-02 -3.2727976497557466e-02
      1.1251107196034924e-02 -5.4268581886523205e-02
      -5.5250171210916972e-02 -9.1337147044620356e-02
      3.8145528075368536e-02 7.0343169456788882e-02
      1.5828181822859563e-01 8.0430614322610283e-02
      -4.5136944166453960e-02 -6.9526320429875860e-02
      -8.2613948456994782e-02 3.5008963643730857e-02
      -2.4957225897871603e-02 -1.0863583037865077e-01
      -1.5105540032616871e-01 -6.2712858776844932e-02
      1.7594689804919236e-01 1.4591139541075451e-01
      3.4630758986079369e-04 -5.5158210156980282e-02
      9.6293200776283547e-02 -4.3756858221875063e-02
      6.8778844423516830e-03 -1.1748483832156507e-02
      -2.9352844284505614e-01 -3.6165112259985845e-02
      -2.5343419201664621e-02 9.6570759609954857e-03
      -1.8291319324336152e-02 -2.0790794633962401e-02
      5.2908391658579801e-02 -1.4002708464761618e-01
      -2.9496389208990260e-02 1.6231809589489696e-01
      3.2612561233771528e-02 3.6625936156479286e-02
      -2.6473507821141714e-02 -9.8423952178097476e-02
      -2.5319643589439050e-01 5.3981999705593198e-02
      -2.0140717796294660e-01 -3.1243772504746015e-02
      -3.7553492317748439e-02 2.1416581245871341e-02
      3.0730583109190100e-02 -3.0282309610397021e-02
      -2.9304820294991218e-02 -4.4515187967509223e-02
      -9.5948518320767229e-02 -1.1816902996182069e-01
      -2.7434753716051665e-02 1.7019144164563699e-02
      6.5085816977865696e-02 6.2277076590189467e-02
      -4.1539583885341548e-02 1.2659713151958074e-01
      3.6304123182455558e-02 2.9427979516597466e-02
      -4.3537608917265595e-02 9.6866671836485591e-02
      -2.7755620576300759e-02 -9.5027402740095746e-02
      -5.3204521162422719e-02 -4.9741561736045062e-02
      1.4196098175568975e-02 7.2360392598991546e-02
      2.4516481474000824e-02 -4.6958042144908993e-02
      1.3331515817380755e-02 -4.7844909004636615e-02
      1.8275356594472887e-02 1.1475283987814723e-01
      -4.2772414299483530e-02 -1.3331309110864001e-01
      -4.8625296226141049e-02 1.2173540009584415e-01
      -1.9746521761127123e-02 6.5363777932121100e-02
      -3.2612416563725051e-02 1.9447676917099619e-02
      -9.9398809750685518e-03 -8.8735726646926485e-02
      -3.9489477643069863e-02 -3.5926455284569871e-02
      8.3430872285502583e-02 5.9437014284073428e-02
      6.7185854639765813e-02 1.6109485683260708e-02
      -9.0856436168243390e-02 -7.0624061206610550e-02
      -8.9748650195760643e-02 6.3982038920830667e-02
      -1.4500086494276715e-01 -3.7142314584354068e-02
      -8.8969287749107631e-02 -8.5584138052632056e-02
      8.7087262433553830e-02 -1.2258571214434344e-01
      -1.5450147767691330e-01 -1.1915252953062902e-01
      1.1322773159740911e-01 5.1468860369714195e-02
      -3.4190482809688491e-02 -4.6387182792085938e-02
      5.1409995561867740e-02 -8.3540358780192267e-02
      4.1305577760550091e-02 -6.7563109172829719e-02
      1.5761282233941003e-02 1.6741860300497330e-01
      -1.5816514509524898e-02 2.3420231491600111e-02
      7.6017588585812063e-02 -5.6260539950374645e-02
      8.8417396989520614e-02 -3.7967286219308546e-02
      -1.5590952668826557e-03 -7.3071179653654367e-02
      -5.5688209579437487e-02 9.9183787213313586e-04
      -6.2419951940574502e-02 3.9788800594849669e-02
      -9.0332675098062781e-02 3.6303198858938006e-02
      5.5728118885821139e-02 4.2562739715524454e-02
      -1.1954482341765632e-01 -8.5501023967616815e-02
      6.0827550657790034e-03 -2.1026019951099446e-02
      8.9150501181962688e-02 2.4049982708032203e-02
      3.2314296314265550e-02 1.1242673503088692e-02
      8.8992362209295364e-02 1.0107776504423069e-01
      -8.1560460815333968e-02 -2.4112125735721655e-02
      -1.3276233876442126e-01 1.5390535620568753e-02
      -1.5407876427746650e-01 -8.6630214627976765e-02
      -1.0372985910622572e-01 8.5352827767025602e-02
      -2.2027159415513930e-02 -5.5927969712494828e-02
      -1.5197674173528863e-01 -1.0478387157840603e-01
      -1.1974445439658586e-01 -7.2254082072881115e-02
      9.3110577604155115e-02 -7.3654198729908291e-02
      -3.6566342990421809e-02 -3.5918953466118571e-04
      -1.0568518073239160e-01 -3.5893491215560305e-02
      -5.5150348763266174e-04 6.4925903429301629e-02
      -9.3143845413750134e-02 8.2316949405354195e-02
      -1.2697832953355534e-02 -1.7709891757352203e-01
      -8.0725708993294640e-05 -3.1803110052356894e-04
      -1.3426332396519566e-01 -4.4012434994372386e-02
      5.4018937527883372e-02 -1.0279357106115863e-01
      -5.5097389530341283e-03 4.2789372106163105e-02
      1.5839195246734278e-01 -2.1825115916979620e-02
      1.5123094832250866e-03 7.2275503011705947e-02
      5.8752594572640197e-02 1.5198066912112880e-02
      7.3282872243502051e-02 1.9864254174790517e-02
      1.8910060760574637e-01 3.9658829718804849e-02
      6.9819842630056191e-03 -4.3679243878112983e-03
      -6.1047492626944387e-02 7.0615207692232413e-04
      7.3890633224427876e-02 -1.3322104674744839e-01
      -2.8878701387983895e-02 2.6585975742318590e-02
      2.1832613228383219e-01 1.3772727495438100e-01
      -1.2078911149052050e-01 -8.3174140337516578e-02
      6.8354043145516501e-03 -6.0690433371827356e-02
      1.2961434819697537e-01 1.0627205957621461e-01
      2.2959063332227752e-03 -1.8289582929757481e-02
      -2.5311449597533597e-01 -5.2073336875062416e-02
      3.6749293540338296e-03 7.8168950032629581e-02
      -7.4235854062970549e-02 -8.8086366563747256e-02
      1.2209492353126268e-01 -7.6748856581547774e-03
      8.1152588130468356e-02 2.2740506625091472e-02
      -2.9363442314961841e-01 1.0198526608668441e-02
      -1.0217294280972034e-01 2.8162372148785940e-02
      9.7154260135087267e-02 1.4187762974745741e-01
      2.7906820731842738e-02 2.2861954422744818e-03
      -1.6876464160977239e-02 -2.4220467944922150e-02
      1.9039323363087415e-02 7.9346688454689632e-02
      -9.4661606310326371e-02 -4.2992063803804860e-02
      -6.6688972725242060e-02 -1.0901172947139340e-01
      1.0667694611235742e-01 1.2311029510830986e-01
      4.2338616024177073e-02 -6.4860125824406686e-02
      3.9402638093718528e-03 -1.6227824194794887e-02
      -1.3018011921858114e-01 -1.4881089479336768e-02
      1.1204070030247111e-01 1.4671724053549412e-01
      -1.4320168496680757e-01 5.8956884684707778e-02
      9.8190082961627984e-02 -2.5842874598897173e-02
      -7.1713610288692456e-02 -2.7899493432541313e-02
      1.1578548269168631e-01 -1.8073949904586359e-01
      -5.4823389813024245e-02 -8.2975312086754280e-02
      -2.0744015670593155e-02 -1.5721699980365597e-01
      1.6075352355535966e-02 -5.1640612507337640e-02
      4.5601707324313234e-02 3.7930632085056461e-02
      9.2923939085678822e-02 -1.1840114507015251e-01
      7.6581995662146934e-02 2.7372074923348495e-02
      -4.5989889739071518e-02 2.1120804247837872e-02
      -5.9233394483893059e-02 5.4030470051131645e-02
      -1.2527379462628063e-01 -3.6379409959047787e-02
      5.6288534271304203e-02 -8.1038106871052243e-02
      5.5695652333912467e-03 7.2143140856776505e-02
      -9.0372781889187945e-02 -3.4322326506660811e-02
      9.5881929940915128e-02 3.4960852805914565e-02
      1.2844226736235771e-02 8.6541962213004073e-02
      -7.5691038818749501e-02 -4.4576034784153257e-02
      1.4412737055801652e-02 -1.1785387209044559e-02
      1.0700399824558968e-01 1.0798173267849394e-01
      8.2293033116938932e-02 2.9632558456572863e-02
      5.2090298980436843e-02 1.1115846139233386e-01
      3.2886253608317456e-02 -1.0356904259620714e-01
      -1.2939303516274833e-01 -5.6609715884194542e-02
      6.7593793542105637e-02 -2.8074915748605933e-02
      8.4779421592802010e-02 -4.9970017228885513e-02
      7.7017363074332962e-02 5.7796070307681337e-02
      -5.1138845981214563e-02 7.7140297402431307e-02
      3.6852121970348525e-02 -3.6714922082429012e-02
      3.1911598481897341e-02 -2.1629387277600994e-02
      4.8736672708346467e-02 2.8833016561315893e-02
      -1.7429979508173832e-01 -6.9723048139872738e-03
      1.0973069767330449e-02 -3.8323320528513255e-02
      4.4612110288674407e-02 -4.5186226657047648e-02
      -2.1599409346282187e-02 -3.9133373142648566e-03
      1.9159573981869987e-01 6.5815793945468867e-02
      -9.1124511016859380e-02 -5.9985438072650395e-02
      6.5860431044309511e-02 3.0256225965723305e-03
      -5.3539698106091244e-02 1.1914091399683167e-01
      -5.0422862913637734e-02 -4.8741998873345786e-02
      3.9038723668169149e-02 1.8558317388610301e-02
      -3.3992162907956675e-02 -4.9823604828313800e-02
      2.4413437171707210e-04 -1.0378101726850884e-01
      -2.7120851790339642e-02 -7.6131150009728726e-02
      -1.2490402842407686e-02 -8.0775578348378174e-02
      8.1259272640907924e-03 -2.7855876792207499e-02
      -3.6080871494355203e-02 6.7509012712701905e-02
      -4.4042304632755616e-02 -6.9287186829970676e-02
      1.7564456048476403e-02 -4.0089470282246627e-03
      9.7931187166689873e-02 3.2287192812886896e-02
      -4.3803727802633793e-02 -9.3032828290070271e-02
      -4.1367643495525880e-02 -1.1720904724057350e-03
      -1.7143117263181386e-02 5.2612698661592388e-03
      -9.7226253983698045e-04 -1.4316804904496530e-02
      -1.2141523546430612e-01 1.1013760217913320e-01
      1.0390216047968112e-01 2.5789515899920099e-02
      8.6714095454446694e-02 -2.1517973856204644e-03
      -2.1177959527681249e-02 3.5383899093381688e-02
      -9.3421752844166119e-04 -1.0323416166511735e-01
      -1.2818765179513539e-01 3.6984428247403764e-02
      7.0150212447590954e-02 4.9934498496089545e-02
      8.9934702323097540e-02 -4.0211777652297109e-02
      -9.8168967244223179e-02 8.4382888550571286e-02
      5.8926390177367366e-02 1.5057895280756628e-01
      -6.1325570619407091e-02 -9.9286800660649127e-03
      -4.2505357746174519e-02 -4.6083051005961904e-02
      -5.5917420538617965e-02 -2.2313130601304304e-01
      7.0215515532974435e-02 6.3362189067316360e-02
      5.0572351562656867e-02 4.0132949727644293e-02
      8.4324684858100837e-02 -7.8776625071568962e-02
      1.1337586012652154e-01 3.7813371448047195e-02
      -2.7577872478135885e-02 -3.5581761784529632e-02
      1.1320123614632253e-01 -8.6043271980188601e-02
      -1.2177087864704569e-01 -9.0392022319751280e-03
      -6.1126520185046045e-02 -7.6491767440370742e-02
      9.3331337387273575e-02 6.0045266551956099e-02
      2.7703130501288798e-02 -1.2115435241616027e-01
      2.9424969993870346e-02 1.7898488994782306e-02
      -1.3828962322726476e-02 -4.8422150109581494e-02
      -4.9978101411636743e-02 3.0090353059800207e-02
      -1.1691137990887857e-01 -4.0279340259997701e-02
      -1.5418057955113540e-01 -3.6101213074339615e-03
      6.8386044119227093e-02 -4.4564984536271085e-02
      1.6110453052108642e-01 4.4011400336351966e-02
      9.3291560281083916e-02 1.2498863726011712e-02
      4.8051417102088802e-02 2.1151518212089361e-02
      2.4798460629948785e-02 1.5309588383251424e-02
      3.0634744854130386e-02 -1.6054015945605838e-02
      2.9121743283215339e-02 -1.5880715675651386e-02
      -6.5639532676279838e-02 2.7075487683291554e-02
      2.5520802147819613e-02 2.9312207158256755e-02
      -4.0312992036210448e-03 2.2858118833733520e-02
      6.2385075086266027e-02 -1.7829349056213337e-02
      -2.6807609146914709e-03 -7.3715499392172223e-04
      8.1593809901797959e-02 9.0965451934199290e-02
      2.7284269364614061e-02 -5.8081986274568273e-02
      -8.5720808920273728e-02 5.2712278975543016e-02
      1.5869732662866676e-02 8.6157660548274090e-02
      1.0537542261697508e-01 -1.4143721385157773e-01
      6.0694651673321706e-02 1.0365806188149973e-01
      -9.8125031603537333e-02 -3.4971453005777565e-02
      -1.2647409696460681e-02 -6.7805086609112789e-02
      -4.9620641271381605e-02 7.0394849506414600e-02
      9.8843627081798419e-03 -4.7218777877607560e-02
      -5.4313132913114119e-02 -8.2121855088947912e-02
      7.8299577744438312e-02 -8.3340605030233203e-02
      7.5952892121261079e-02 2.9939617244959107e-02
      1.0986857777505360e-01 3.7453837378183301e-02
      -1.2444929966519411e-01 -1.1713312281127737e-01
      -1.8188756639215367e-01 -2.5905525447686251e-02
      -1.4423416161307615e-01 -1.9960398291910361e-02
      -4.4620867343162125e-02 3.8900580503767733e-02
      -2.2524687810347613e-02 -1.5469490365937528e-04
      -4.8689364131551366e-02 9.7891502831681590e-03
      -5.2059391485311496e-02 4.3068821257566066e-02
      7.1284567919554634e-02 1.2153833395663304e-01
      2.5583951817516201e-02 -3.9078950285375273e-02
      -1.4396847360536990e-02 7.7512543879511522e-02
      -4.5243159822170753e-02 -6.7283920233446731e-02
      -4.2731578786351913e-02 5.7223305696953657e-02
      1.3738094340599979e-01 8.6379476282193585e-02
      -1.4946825856825408e-02 -5.2231144927809711e-02
      1.6586732766377271e-01 2.5256803585997040e-02
      7.9010028738193863e-02 -6.3489714232514580e-02
      2.8739905196953380e-02 1.4604322308686821e-01
      2.4781526817860913e-02 5.7000257051737203e-02
      -1.7289202070530165e-02 -6.8992605506225744e-03
      -1.1885818915310487e-01 -2.4968881930070876e-02
      1.1633564660543873e-01 -2.9553366806350644e-02
      -4.0899150047814886e-02 -5.0833293462108596e-03
      -8.9385607386736302e-02 -1.7077013469421667e-02
      -6.8963162279091619e-02 6.1991687106612424e-02
      2.9891937338526041e-02 -9.7586554324104319e-02
      -1.3849613537813041e-01 -1.9545080986002349e-03
      -8.7397098521850916e-02 1.6475898834378797e-01
      6.7726365821068023e-03 8.9893386351234769e-02
      3.5640432287129632e-02 -1.7518151054237055e-01
      -2.1347798301432339e-01 -7.1891026958925811e-02
      -2.9040167779126075e-04 -1.4591245130193131e-01
      -1.1320781232478792e-01 -1.2904707115656708e-01
      5.9195913345288613e-02 3.3721008277873839e-02
      1.2046924453818002e-01 -2.4583270043666710e-02
      -6.4127022865111709e-03 1.2201598204021150e-02
      7.5108815235339736e-03 -1.4547878389514035e-03
      5.9995000236283413e-04 -1.6451651816670714e-03
      1.2290683554405147e-03 3.2371432458622909e-02
      -2.7033242075861452e-02 2.5064016351761559e-02
      -9.3989566599364215e-03 1.0755291143943127e-01
      2.9100366153128811e-02 5.1150371208122027e-02
      9.7654574302100568e-03 -1.0353850929490135e-02
      -1.5802835459343212e-01 -5.0429898607484640e-02
      -4.3428000697545099e-02 -7.2823253611063204e-02
      7.8260720569391609e-02 6.4455055033586034e-02
      -6.3734585291645746e-02 -2.2620458547001673e-02
      1.2060639020994632e-01 7.7077288442831321e-02
      6.3914046451072556e-02 1.0502032846815366e-02
      -1.2144780375644236e-01 1.3371658026017696e-01
      2.7061708555244233e-02 1.7336167561035867e-02
      -1.3872473991455342e-01 -1.9929536661993516e-01
      7.2984843055362222e-02 -8.2542299095120768e-03
      1.0035384510801909e-02 4.1938443680854136e-02
      -1.0492116493095235e-01 -1.6893414436239954e-01
      4.1116786036568979e-02 1.9138589911972079e-02
      -4.9813810060184295e-02 -1.3500170700067407e-02
      -7.4471144731002165e-02 -1.0248845908874529e-01
      6.3728930952044443e-03 2.8553542410540336e-03
      -3.1697993393554745e-02 4.4159849485001686e-02
      3.9214616554031460e-02 6.7234958467706343e-02
      2.5679415517799042e-01 -8.4203493212639466e-02
      5.6738589992463749e-02 -6.8202214682107062e-02
      3.1438463237157356e-02 -4.0913727766157745e-02
      3.8070624911315153e-02 -8.1411089136753739e-02
      -8.4749728078251305e-02 6.0572498758550655e-02
      -7.7529632551384717e-02 -1.2569143882907275e-02
      5.0708504565892959e-02 2.2526989904560420e-02
      -7.6513935560945698e-02 7.8817283107442723e-02
      8.7605634249385472e-02 1.6051605621644604e-02
      3.5992670998359691e-02 -3.2578319706250879e-02
      -4.7534484955676755e-02 6.1938518812538139e-02
      -2.3909263778407013e-02 -1.0053315290672384e-02
      1.5671415188560515e-02 -7.6378640894096059e-02
      -7.1355171671639198e-02 -1.5627116257770329e-01
      8.7913302054146658e-02 9.4072204722929556e-02
      5.2547392722168122e-02 -3.2323050436458174e-02
      -6.6736158553024019e-02 8.4587719799033040e-02
      3.7972365239498616e-02 -3.1430370109753671e-02
      1.1838718117247614e-02 -5.3565110751582004e-03
      -3.7760489830223905e-02 -3.1298410534262591e-02
      8.4757683913307819e-02 1.7233463305920751e-01
      3.9039709882960981e-02 -6.7732136891172870e-02
      1.0943581936371269e-01 -9.3109808431695737e-02
      -9.4607730205383336e-02 -2.8786705331226735e-03
      1.2847766161942210e-02 -4.6950413768434120e-03
      -4.5708782880722741e-02 -1.4936887359829956e-01
      -3.6004678546399264e-02 -3.8481900882666981e-02
      3.7404714428090971e-03 3.1500232339013147e-02
      8.1069487039004837e-02 4.6877002947482684e-02
      -7.5639211000973386e-02 -3.0154352334093488e-02
      5.0858437745938373e-02 -2.7191702562732782e-02
      -9.7304373720229417e-02 -1.3941704336275304e-01
      6.7149638678007856e-02 1.0277789973804986e-01
      -7.5719684808808960e-02 -7.7569572704142362e-03
      5.3536999526282540e-02 1.5401269133479355e-02
      -1.4255036736076596e-01 -2.0210065932059748e-02
      7.7200829332941451e-02 -5.2262965543975685e-02
      1.2066053801384392e-01 1.3347915947403236e-01
      -1.5088851367752118e-01 -8.1389013816610650e-02
      3.9596517439121452e-02 7.6138434510402378e-02
      -4.7250858455163115e-02 1.7706650365728727e-01
      -7.2896742272943266e-02 -1.6320505146539578e-02
      -5.1969725002033069e-02 -1.1834642714806470e-01
      -2.6135351462222775e-02 -4.6553515773537224e-02
      1.0486755660721758e-01 6.9757794386607105e-02
      -2.4958559096087504e-02 4.8257046199238094e-03
      -5.3383522975673135e-02 -1.6193909259853308e-02
      8.6860914867840894e-02 7.5999662735735649e-02
      -2.8976976321753448e-02 1.0535697983218485e-01
      4.2228199057117506e-02 -2.1313310535093055e-02
      -3.7153400947090107e-03 -4.9947255352472193e-02
      2.9697973755750402e-02 6.8666126992144971e-02
      -1.3185291214177125e-01 -6.3190553100332031e-02
      1.0689979489074040e-01 -8.7411497837886851e-03
      1.3685676018338408e-01 8.7212882895497210e-02
      2.6455368456679181e-02 8.3191525290423184e-03
      -8.0895162454951694e-02 -1.4001613482791062e-01
      5.2622399276451771e-02 7.3438918944968831e-02
      -9.2534503903964394e-02 -6.0969305040829572e-03
      -3.4451823450463243e-02 -1.9125580201021741e-02
      8.5591844579541859e-02 1.9124565667935384e-01
      6.1096224482558935e-02 8.8178187162214053e-02
      -4.7448092785065066e-02 -1.5327127502209201e-01
      -3.7129849193692756e-02 4.2958387439088259e-02
      -1.0558593941812962e-02 -1.6782448534625713e-01
      -1.0625435578909537e-01 -8.6817707059733143e-02
      2.6034510047301226e-02 8.3257930094188609e-02
      -5.2212686078429632e-02 2.3291384204640789e-02
      2.3797483257999677e-01 3.2436203604169454e-02
      -3.0379808980372073e-02 2.3664360041167454e-02
      -1.2314061635525593e-02 1.0637195521228736e-01
      8.8136126548149465e-02 2.0259078692019331e-02
      -6.1009486501265545e-02 2.0166162664703592e-02
      2.2727337389154799e-03 5.2880241278515441e-02
      -1.4359027328580043e-01 3.4385289623368367e-03
      -2.5379858226480537e-02 6.7058742497551879e-02
      4.9834729123727731e-02 -1.7201433090408433e-02
      -8.6396107403979794e-02 -2.8848953154098668e-02
      -1.0137117069923629e-01 1.0677699935607300e-01
      4.9536926451497126e-02 6.5147353449151069e-02
      -7.0041460808649883e-02 -4.1825014884381359e-05
      -5.5047931083325091e-02 6.9336352339198328e-03
      8.9079228706503810e-02 1.1752659100635256e-01
      1.4963307142220483e-01 5.2456098060443754e-02
      -1.2408697557368759e-01 -2.7671310917061725e-03
      -2.9198919584093212e-02 5.5547262067270949e-03
      -4.6723345898907517e-02 -2.5610182704257954e-03
      -2.0595215903978145e-01 -9.7522743849027677e-02
      -1.0931252185943131e-02 9.2092971809037166e-02
      4.8271606239414594e-02 5.3630467786358875e-02
      -1.2992715793458818e-02 -7.9549183989082978e-02
      8.0124193013523790e-02 -5.8923575888309293e-02
      -2.4963868855734869e-02 3.5259819271029882e-03
      -3.4145188201487639e-02 4.8815369770397472e-02
      4.9969903335398261e-02 -1.6719067066480162e-02
      3.7269586408299006e-02 -2.5362698568698289e-02
      3.4457381304384492e-02 4.2688377195615676e-02
      -4.5001690026326147e-02 -8.9231303136580120e-02
      -7.3017674835185842e-02 3.0900395091924458e-02
      -4.4699975827928340e-02 3.3593755575426328e-02
      4.6822518060589895e-02 -4.2810011240273062e-03
      2.4725727319390392e-02 7.8542304843146532e-02
      -5.5432989343491633e-02 -1.8439086995636979e-02
      3.3007092688824784e-02 7.1139921747141774e-02
      4.9252099438945554e-02 -6.0178276439614500e-02
      -4.2121608467227539e-02 -5.5440077338765404e-03
      2.8347309487172963e-02 3.4892201607283638e-02
      5.0395485842919717e-02 7.3580884970147656e-02
      -3.5473366588979219e-02 -1.1900138453499190e-01
      -1.0509696773496702e-01 -8.7743089579900541e-02
      -9.0716850613895297e-02 1.1422926339274167e-01
      -4.9816558536606527e-02 -1.9688433235397523e-03
      6.2511592453996026e-02 -5.8952755514603272e-02
      -1.3720053200016692e-02 -8.5570003728182700e-02
      3.1282653042472498e-02 1.9593922285476614e-02
      -9.9561532027963764e-02 -8.2261364591185410e-02
      4.1943883822020800e-02 8.7953867120914200e-02
      -1.4065613415949318e-01 -1.4956387077732303e-02
      1.1057058440859066e-01 5.6919307276321066e-02
      -5.7482458227402153e-02 -1.2896722967185392e-01
      1.7103684784951875e-01 3.8936935551177158e-02
      -1.0554076431513862e-02 -5.4742428489151958e-03
      -3.5411704430296446e-02 -6.9739643794431566e-02
      -3.8796540285641466e-02 4.2434518211285022e-02
      1.2706151501327373e-01 5.0680779260325888e-02
      7.5047705071231785e-03 -1.3868951979403604e-02
      -6.2734659572919765e-02 -1.0390581648045225e-02
      8.3486656020698546e-02 5.2253813485859085e-02
      -6.1923825390660034e-02 3.8335125550227347e-03
      -1.2153210095964886e-01 -7.4796504682668255e-03
      6.0923971915823806e-02 3.8480382349334055e-02
      1.1663092622303196e-01 6.5125061076789226e-02
      -2.3644648392513237e-01 -9.9071241749209185e-02
      -1.9544695429908398e-02 4.9899673684443979e-02
      9.8010233719189557e-02 1.5235656539017844e-01
      -2.0695457403889089e-02 6.5391276819688191e-02
      1.5453685073886325e-01 -2.7585674683073252e-02
      5.2489215726688791e-02 2.2574688308589667e-02
      -1.9096530656982153e-02 -2.4666907481109061e-02
      -1.1815651803751805e-02 -6.0215827851795231e-02
      4.1206520240556897e-02 6.6791151399688650e-02
      6.1040481740693410e-02 3.0014812825820070e-02
      -8.2666522862760786e-02 -2.9582567291805313e-02
      1.4350223982885248e-02 5.6444963755795325e-03
      4.9368301614957116e-02 -5.6899213503780778e-03
      -8.4848306395373690e-02 -1.3844567104997220e-02
      5.1504147922312671e-02 1.5000352836071876e-02
      -1.1373825032515032e-01 -4.8220137577424708e-02
      -3.3891700632364278e-03 3.0585498822375285e-02
      -3.6855321791641393e-03 3.6289715329047921e-02
      -8.0069139299673769e-02 -7.8515180373446625e-02
      -3.1971194029811509e-02 4.6362782155930163e-02
      -5.2483669499662371e-02 6.5264164932769212e-04
      -5.4509291919028056e-02 4.2293755204692550e-03
      -4.7388489932061822e-02 -8.8790261320888311e-02
      4.5518221922378477e-02 2.7122356836153209e-02
      9.2113664263557705e-04 6.8455064262558429e-02
      4.0746026234525133e-02 -6.3864428806637175e-02
      -7.0211163457078368e-02 5.0771170809112490e-02
      -6.8501541045071987e-02 -3.5988414807426393e-02
      9.6568432439947990e-02 8.1845980204473368e-02
      -6.1423187324748359e-03 -6.7171525695272530e-02
      -3.6518129522980156e-02 6.0646635175557531e-02
      5.7127478617724652e-02 5.7429775169945019e-02
      -5.4693057227738519e-02 -8.0601866286384924e-03
      8.3176663981976887e-02 5.2601290132171998e-02
      -6.4731931034087101e-02 -4.8260008022211927e-02
      5.9688556324134008e-02 1.1766643511713509e-01
      -3.5298979772401547e-02 -3.9605110532421768e-04
      -9.5046654107409922e-03 -3.7039515523637767e-02
      2.0066591662560963e-02 1.4565718110548697e-02
      1.7109791204442024e-01 3.1729040922698369e-02
      1.0132433365052163e-01 5.2679338239480414e-02
      1.1917703634269169e-01 9.8904067390599967e-02
      -6.9352983503134583e-02 -1.9460236003651422e-02
      2.8896246327267804e-02 6.2965855474793442e-02
      -7.3973342952299667e-02 -1.1220391112127248e-01
      -6.9696454796889101e-02 -4.3951675695753201e-02
      -5.6233691953475461e-02 1.4775587689630509e-03
      3.8554604704154364e-03 3.8975299836953935e-02
      1.1984820743296384e-01 -1.2674808005903582e-01
      -3.7522816998581780e-02 4.7264764922751598e-02
      -2.2990580545323724e-02 2.2935652414489215e-02
      -1.9775344743116083e-02 3.5112219112715615e-02
      5.4528579511259050e-02 3.6167290119294065e-02
      8.0318697782983575e-02 7.9772721770166768e-02
      -3.8189668809037958e-02 2.7099757841478736e-02
      -1.0732863170254864e-01 -4.9812986406277952e-02
      9.6288259575019013e-03 -6.2559123537610256e-02
      -7.8916948391002925e-02 -4.8568003606416318e-02
      9.9673919129708941e-03 9.4618106266300031e-02
      -2.0710976240936856e-02 1.4598345835157797e-03
      2.5209818382999683e-03 -6.7306254510404687e-02
      2.2135647233680545e-02 5.8521943680520598e-02
      -9.9626726778648950e-02 4.5107835115243751e-02
      1.1779248609294346e-01 6.5114034132414844e-02
      -7.4168492241330597e-02 8.5958461104009135e-02
      5.9396287766277790e-02 -4.6158767087840037e-02
      -1.0917927405800949e-03 4.1500077521630825e-02
      3.0797862647552895e-02 2.5628174086185788e-02
      1.2643626759107851e-01 3.3770608943104068e-02
      -4.9257693491632478e-03 4.9570256186967566e-02
      -5.5737252333168258e-02 -1.7649338579377619e-02
      -3.4936576078112888e-02 -1.5755121301393102e-02
      8.1471244729327458e-02 -5.6390278305259674e-02
      7.7636121686647810e-02 5.7042892870909835e-02
      2.4828591750296483e-03 6.6204103714323281e-02
      -4.8340443231221025e-02 -4.4439304037495762e-02
      -2.8472347691769116e-02 -5.3438656701078231e-03
      1.1619260192076031e-02 -2.7436303942357017e-02
      -3.6913211488840685e-02 1.3743826102621258e-02
      2.3512902357365983e-02 3.1600871075543055e-03
      -9.7235600425736091e-02 -1.9696897514415199e-02
      -4.7018444317320385e-02 5.7819633343685027e-02
      -5.2029694922024659e-02 3.0440997735579126e-02
      -1.5617038546418327e-02 2.9586713627150298e-02
      5.4751198803204022e-03 -5.7249242610168338e-02
      3.7626918093927438e-02 4.8262556001073244e-02
      -3.1254794919888746e-05 9.2454795677019246e-03
      -5.1693009766654426e-02 -8.4890889560994595e-02
      -9.6492425974803536e-02 1.4536655169366178e-02
      4.8886761056331295e-02 -3.9708951612074730e-02
      -3.6272414161416272e-02 4.8690044996352169e-02
      5.8623035725449253e-02 -2.0745965849339790e-03
      -1.0533337638772099e-01 -2.7784897283510877e-02
      2.4378424194597143e-02 8.1279907745070504e-02
      2.7054409122656406e-03 -2.4520480109868948e-02
      -1.4377178838359870e-02 -7.6201617117298504e-02
      9.3501712358293229e-02 1.0818407622796977e-01
      9.0009112394119115e-02 1.0922409732633050e-01
      -1.8304387914720079e-02 -8.3641956071331430e-02
      1.9958655136100772e-02 -5.0167089364347973e-02
      5.5602024583863555e-02 9.6629050534216790e-02
      7.7266037256111642e-02 6.9062143029904668e-02
      -6.4724152445102545e-02 1.7411665223457683e-02
      -9.2402695136476518e-02 -3.0075357880536006e-02
      5.4248274241448027e-02 -2.8624381230430092e-02
      -6.1358578873306188e-02 -2.9064398066963749e-02
      8.0421959181627214e-02 1.8855502977749055e-02
      -5.3195520035353917e-02 -3.7694265207430483e-03
      -1.5942058499045779e-02 -8.4713185144324910e-02
      -6.7252287375965669e-03 -7.8491494609362708e-02
      -4.6291698065029176e-02 2.1113639929000030e-02
      -3.6753103607937640e-02 -4.0508838915135785e-02
      1.8074503008008996e-01 5.2146338945660974e-02
      -7.1362314401553648e-02 -6.1774365062436512e-02
      7.7219769725058215e-02 -8.7455240599730366e-02
      7.3018676599847843e-02 1.0955817829047421e-02
      -1.0416138306222419e-01 -6.5161357841085524e-02
      2.4790432598130050e-02 -4.4884803924765439e-02
      5.7797976027897199e-02 -1.1947379255275489e-01
      -3.7420469036171147e-02 -2.2690892413799953e-02
      1.7516806250901421e-01 3.3123495752522804e-02
      -3.3225265739733001e-02 -4.6592699186881539e-03
      -7.1202914661800065e-02 3.5710674170301810e-03
      9.9538776307232193e-02 7.3495848789499659e-03
      2.6629867271723926e-03 -1.3507896350060292e-01
      -5.8296716208007969e-03 -7.2688558670452380e-03
      -1.1890678835638306e-01 1.2147003032963839e-01
      7.3134942775418847e-03 8.5703884432337136e-03
      -1.6108868860958261e-02 -4.1816982225585338e-02
      -5.3473800535646363e-04 -7.9481668076079162e-02
      1.6701301027564200e-01 5.7163018668372853e-02
      -1.5031215757669028e-01 -5.5316137432676167e-02
      2.0921701751798329e-02 -4.6606322611098240e-02
      8.9150293219865742e-03 -1.2746283485588522e-01
      4.5692525212656224e-02 -6.9362647247527111e-03
      3.9261237456433652e-02 -2.6619898429056574e-02
      -2.6764659409875160e-03 -2.9965510140699418e-02
      -6.5488599491908647e-02 -4.4909263386485550e-02
      2.9259535427143230e-02 -8.8216566338858271e-02
      1.8293099783641468e-02 2.0216559382788851e-02
      -8.3110765245252252e-02 -9.6759547427543897e-03
      4.4105680771575763e-02 1.2848234299148803e-02
      -4.4055733523984363e-02 8.7652264603765767e-02
      6.6215930819304464e-02 -2.0312518572277120e-02
      -7.2264494003479582e-03 -2.5637441149346872e-02
      -3.2705849883975388e-02 -8.8712927101647909e-02
      -1.7109569835933708e-03 -7.5199448274021571e-02
      -1.5394378482318132e-02 6.4466076149377529e-04
      8.8494040496687881e-02 8.0032295189890731e-02
      1.6637802677352856e-01 4.4498993983585984e-02
      -3.8695413351430855e-02 -7.2232016849052935e-02
      -1.1004527156871183e-01 -9.8743549576124273e-02
      6.9404532314596867e-02 3.7985936345466091e-02
      1.5103446365748367e-02 -5.5744082214979410e-02
      -3.6831323708908112e-02 -8.4850448431288084e-02
      4.8174889204524028e-02 -1.9193420614771421e-02
      1.6016069702046019e-02 3.6567909192483573e-02
      9.2106897681845067e-03 -3.2695924149596337e-02
      1.6168746258070277e-01 -6.1282859290381735e-02
      -7.7290182130403621e-03 -5.2078710968739672e-02
      1.1869443647143016e-01 9.5174602168062408e-02
      -8.6440158092958297e-02 -1.1573884064420087e-01
      6.2052959577176832e-02 3.8317892767835003e-02
      -5.8146722892483203e-02 -1.5483355546563826e-02
      7.7152833673262894e-02 5.7497997212036342e-02
      3.4974973319336321e-02 -2.8489618700316830e-02
      -3.6291428500415529e-02 4.1573733062436800e-02
      5.5585443550960380e-02 -1.2715685992204585e-02
      -5.7931560951595011e-02 -1.3234021893681441e-01
      2.8374706353057538e-02 7.5310527255599724e-02
      -1.0842215886114932e-02 -4.5531210082593393e-02
      3.0115330889419138e-02 2.0549637440637966e-02
      -3.3302181753848562e-03 1.2707017016878283e-02
      8.9419237435493890e-02 2.4836791770488434e-02
      -9.7272457761949274e-02 -4.5221251601418266e-02
      4.0080308345454500e-02 8.9388253890220482e-02
      -3.8253001314038457e-02 5.0776368666607029e-02
      -8.5671036569978126e-02 7.9310394466831132e-03
      1.1733405307208419e-01 -3.7648178758182910e-02
      2.4918395812303686e-03 6.8232135501506544e-02
      -4.6390417779146480e-02 1.7468167616426188e-02
      -1.6836355663783026e-02 3.2005702068006618e-02
      -1.2302211613639893e-03 -7.7394475041626032e-03
      5.6999858046228029e-02 3.6142886227043515e-02
      -8.8502249027126709e-02 3.4174637073962767e-02
      6.4166505351265224e-02 -3.6531844919579677e-02
      -8.1940318649153410e-02 4.2658410544711776e-02
      -1.3495681515243349e-01 -2.1819266964964537e-03
      -2.3706783884662536e-02 -1.6878671053106534e-01
      5.5381446573509484e-02 8.0808572285427108e-02
      -7.1513639011628494e-02 -9.4663095947748032e-03
      -3.4038672560844599e-02 1.9298801404101416e-02
      -3.6805134057705413e-02 5.1498266558421477e-02
      -1.1885186924116584e-01 5.5972409710897925e-02
      -7.0458965622408470e-02 -7.6939744182105791e-03
      3.7349657582904490e-02 6.7940902439118725e-02
      1.3277956658590334e-01 2.8271099883055630e-02
      -5.3803982092432000e-02 3.1855463875382330e-02
      4.5189694013813800e-02 -1.2043319746334810e-03
      1.0180932252361950e-01 9.5317540632402317e-02
      -1.0015674045142310e-01 -1.7980105072136633e-02
      -1.2938231512325071e-02 -3.5165431391936702e-02
      1.4207533942547991e-02 -3.5149679040234812e-02
      -2.6952540915161794e-02 -4.2136406531162462e-02
      1.3661211377997329e-01 9.8308270013611004e-02
      -1.1396011213341453e-01 2.5152384870525221e-02
      1.6148928642310448e-01 7.8942680564509903e-05
      -6.1235667935392396e-02 -7.2887627803801865e-03
      2.7489828171989562e-02 5.9536873388676748e-02
      6.9723847612936415e-02 -1.0077308794131772e-01
      4.5902082654590448e-02 -1.7992293687831347e-02
      1.5696327960830048e-01 -8.7735103871513474e-03
      1.9410219013488090e-03 -7.9202103727404327e-02
      -8.4762712879630581e-02 -1.0982304062103958e-01
      2.9459263178390854e-02 9.0147143931001164e-02
      3.2711205697351815e-02 -8.2124532805853773e-02
      -9.8270690313653694e-02 3.0122841063589059e-02
      -1.9832061199956549e-02 1.2304053728243173e-02
      8.9330447660086965e-02 8.7218338003290624e-02
      -3.0924276980009220e-02 5.6884375398178408e-02
      9.7096866839289277e-03 -3.5944938279336071e-02
      -2.7305554993785973e-02 -7.4843148894023007e-02
      -3.4023810637194132e-02 9.2146208744315658e-02
      -4.5507779486218806e-02 1.0964660714983109e-02
      8.2980026001662932e-02 1.2092242057354990e-02
      9.9009692790616485e-02 6.2950296137304365e-02
      -1.4850271393717360e-01 -3.3773048989820441e-02
      -8.6653985765266783e-02 -3.4268677196017443e-02
      2.3351989951400326e-03 -3.9674050289626606e-03
      -4.3410583006477634e-02 -6.1001878944405299e-02
      1.2853569353935523e-01 8.7349710629021693e-02
      1.1715497379731048e-01 1.2409910353625450e-02
      -7.2648322138260196e-02 -5.6072523144982657e-02
      4.6929594832833599e-02 -1.5674535711555481e-02
      -4.4297732289447493e-02 -6.3018950706338381e-02
      -8.9476142712276704e-02 9.4413447821914019e-04
      -1.3205493375826730e-02 -1.5822654339833306e-02
      -7.6119725344020339e-02 -7.5709620394829813e-02
      -2.2302799440578284e-02 -4.3736852584947772e-04
      3.9032715567300778e-02 1.4047083917101775e-02
      -3.4909345840830490e-02 -2.7642209790499729e-02
      1.4105255074990752e-02 -3.2460608559748416e-02
      4.2662621221243209e-02 1.2276647546630071e-01
      -1.5368850779574569e-01 6.4163546864585046e-03
      -8.9931558188757227e-02 6.0290545534749947e-02
      2.7455794459262276e-02 1.0902637308190702e-01
      6.9494072290718995e-02 -3.9010473850308494e-02
      7.4400232164218164e-02 4.4779275431774592e-03
      -6.4141830316909676e-02 1.0660012522450563e-01
      3.4525400913243257e-02 1.0037082756818626e-01
      -3.1140176559429449e-02 -2.7387333348859014e-02
      -1.2495322581233395e-01 5.2764192807128784e-03
      1.5108233464604546e-02 -2.5476378699855307e-02
      -1.9059906500354029e-01 -1.2454234862942256e-02
      2.2451312289179470e-02 1.4677904453314168e-02
      -2.3605756515248676e-02 -1.9477954516908234e-02
      4.9851911736326388e-02 5.5175574216332540e-02
      -3.7829373160926751e-03 -9.6378077352847133e-03
      -1.7928250870198385e-02 5.4957811079634759e-02
      4.6938403210526274e-02 4.0649005577211648e-02
      6.3705642817351082e-02 3.3901126568438682e-03
      -2.7094433904031840e-02 2.9316920773008386e-02
      1.0687209309315064e-02 -3.4597603038053697e-02
      -1.3662379701812893e-01 -9.9695304912743629e-02
      1.9461220060034225e-02 -3.7408917895934056e-02
      -1.1541415090996626e-01 -6.4189518469582069e-02
      1.7995810432378945e-01 5.3075951671363170e-02
      -6.6018204040433556e-02 2.2765481479624511e-02
      -1.9894840960150373e-02 -4.0506795626593664e-02
      -2.9971297681934152e-02 -1.0897789777988158e-01
      1.4499772279011930e-01 1.4019297649869836e-01
      1.6894155470754395e-02 8.6490309692154405e-02
      -1.3847749871426893e-01 -4.3023920202541442e-03
      6.5350854388948054e-02 -1.9555549963874479e-02
      -5.3738573443860689e-02 -2.0428043552739333e-02
      -7.2739009840275468e-03 8.3366585459043782e-02
      3.6264495491019413e-02 -1.1930714865997315e-01
      4.0561926973752320e-02 -1.7233151805301584e-02
      -4.0045225507295036e-02 -5.2936913678351778e-03
      -1.3928787726921504e-01 -3.1034043228717403e-02
      4.8118445854088053e-02 -1.0521863896272729e-01
      7.0836016382494843e-02 2.0164541100011063e-02
      -1.9647954370717320e-02 -3.9684007191302002e-02
      -1.3626924580637773e-01 -1.0528795859451272e-01
      6.7677805713081116e-02 -3.1436959534134175e-02
      -2.5223907162095712e-02 3.9568580023826024e-02
      1.0968159683673304e-02 8.2621659041936926e-02
      -1.5885520637767103e-02 -2.4551845716849305e-02
      -2.4123143347273474e-03 -2.9044831671752466e-02
      5.0009746325873052e-02 1.5207756263921840e-02
      -3.9021674601170321e-02 -1.8106237375086688e-02
      -2.6560967259865797e-02 2.6648614451088314e-03
      4.6984501110321153e-02 -3.9652994077465115e-02
      -4.7398611427691119e-02 -4.5717124618239152e-02
      -5.3765848233803953e-02 -1.0083865040995590e-01
      -4.6890619068283200e-02 1.4744242117181712e-02
      -3.4169834448728793e-02 7.5696283405429915e-02
      -7.0530425542027472e-02 -3.8550763035016727e-02
      4.0977154653494351e-02 -4.1787760633895450e-02
      -4.3836507413298531e-02 1.1661214619677188e-02
      -6.0885849083766441e-03 9.8405981118541930e-02
      7.0625198035036099e-02 8.1694400377662277e-02
      -1.3034689547243841e-01 -1.0113149383971581e-01
      -8.8061678029030810e-02 3.5655893659368394e-02
      -1.0229613855241879e-02 -2.7587793619980004e-02
      7.6207328999251867e-02 4.5083149628652501e-02
      6.1707234745645587e-02 5.3814245573356581e-02
      3.2053681319064603e-03 4.0229884990961862e-02
      -8.8247090589203492e-02 -5.0177123165687315e-02
      -6.4030841454577089e-02 2.7667958956248368e-02
      -4.1351037091416187e-02 6.1239892728915642e-03
      -1.1891219331969601e-02 6.0785624814148044e-02
      5.4172465103836082e-02 -4.4364098419343516e-02
      3.4359921457130342e-02 5.5672606354768589e-02
      -9.3291830198121511e-02 7.1550324263551669e-03
      -1.7884244242446759e-01 7.0506150818218025e-02
      -3.0336025437434205e-01 -2.3748044727006346e-01</_>
    <_>
      -1.4696483252999542e+00 -1.2434699348122145e-01
      3.4646725863564926e-01 5.9311732479781970e-02
      -4.6759697214986551e-01 2.3610659808217063e-01
      -1.4843369123311470e-01 -1.1972371988282686e+00
      3.8158165070485295e-01 -4.5920386197575783e-02
      1.4830405439948560e+00 -7.1406755510574382e-01
      2.4334423113446138e-01 1.3477159655611199e+00
      3.2840867338866125e-01 4.5535624991204349e-01
      3.0288512094126219e-01 1.2813408398220308e-01
      -1.3461413763384042e-01 -6.1052472801728019e-01</_>
    <_>
      -1.1613236478817279e+00 -7.2809845593526257e-01
      -4.5209059611151836e-01 -2.9932012298164107e-01
      -4.9546792023205738e-01 6.8205318384569802e-01
      1.1656245139881438e+00 -9.6805231378762946e-01
      3.4358383413154064e-01 -7.8824834619134621e-01
      -1.0070791817884821e-01 -1.1189103048988043e+00
      -8.1389079422310651e-01 -2.5589886771293507e-01
      9.3709238824156704e-01 9.8268363007964477e-01
      -6.9836773951074071e-01 1.4813527760774348e+00
      -7.5115770186589415e-01 -1.2103884417991571e+00</_>
    <_>
      2.0605086775227637e+00 -1.5094563486458181e+00
      4.1815669140799866e-01 2.8349679699124669e-01
      5.3969433090385897e-02 2.8836081906022865e-01
      2.1101824008546560e-01 2.6948363001938486e-01
      -7.6650043227113418e-01 4.2150725383000708e-02
      5.9947659525708477e-03 -2.0653009296481073e-01
      9.2798932460653194e-01 2.7183820196837399e-01
      9.9751939225298847e-01 2.0192949622906065e-01
      2.2417975442719085e-01 1.1508208166827087e-01
      1.4083701651517069e-01 1.3035581664374551e-01
      2.5486867812331226e-01 9.7374760374467476e-02
      -4.6701044721462320e-01 2.2737395734862085e-02
      2.0109392048306188e-01 2.2106669276040208e-01
      2.3123525805987650e-03 -1.0466141131842832e+00
      1.4687036535512867e+00 -7.7344729077399144e-01
      -4.5604641604161267e-01 -7.6468767326865894e-01
      -6.0028374463605005e-01 -8.2871889606668003e-01
      -1.4546136367015901e+00 -2.1426480008809357e-01
      -2.9490092297180431e-01 4.4022841161564547e-02
      -1.1665880233128669e+00 -6.8586461210621430e-01
      -1.3512184639416045e+00 -5.7165280489514092e-01
      -5.9045235906271898e-01 -6.9483448213530630e-01
      -4.3435103906605310e-01 -2.8969351097303292e-01
      -8.9054087075250254e-01 -2.8893562562689484e-01
      3.2323794440637516e-01 -1.6089040265736035e-01
      -6.2462889448151426e-01 -6.1110181029105215e-01
      -5.7406113707506201e-01 5.1024323158663287e-01
      2.5603733760930791e+00 3.5221621186274399e-01
      -3.1455301620539979e-02 2.7641050968745839e-01
      1.5978200039483043e-01 2.6897161977754347e-01
      9.1671293560670719e-01 8.2347017435125097e-02
      9.1223288606942284e-03 -6.0958328322429123e-01
      -6.1460764378114174e-01 2.4500142341208772e-01
      7.0501468247361465e-01 9.8852482906759034e-02
      1.7466591550787203e-01 -2.8270203319165038e-03
      -2.7945509454894716e-02 6.6351799124905339e-02
      2.1018510032013532e-01 -2.0157389454633919e-02
      -5.4658537308574651e-01 -5.6845124957388693e-02
      5.8938689901564673e-02 2.2064591123765512e-01
      2.0916343316297539e+00 2.6197486183427241e+00
      -5.7584266472264334e-01 2.5610119400354114e-01
      6.8100840823822756e-02 2.6291650483633439e-01
      1.9938512364692895e-01 2.8391430135717094e-01
      -8.3312915241488428e-01 1.4502121543732668e-01
      -5.9189860311361711e-02 8.4807097788037106e-02
      -4.9491473475787162e-01 2.6277616060503700e-01
      -1.7726822497734354e-01 2.1785362414668577e-01
      2.7458770094414864e-01 3.4004527596012563e-01
      1.5969218218656464e-01 7.1297853314101642e-02
      3.6501932451142105e-01 -1.2380117763814198e-01
      3.8523854478899618e-02 3.9333749861244764e-02
      3.0500922986417062e-01 2.6971876466431538e-01
      1.4867807529157381e-01 6.7124449617388493e-01
      -1.4934820297653069e+00 -6.6134100151435693e-01
      -1.2238548251177317e+00 -7.0031510155474663e-01
      -1.0491610684048063e+00 -6.1833461528383749e-01
      -8.5422659661475142e-01 -1.5004249759656445e+00
      -1.5073645932738708e+00 -2.0164480296767571e+00
      -1.1711579328991979e+00 -8.6626968800706394e-01
      8.1999677084277509e-02 -1.0876234315449373e+00
      -9.9528800416791252e-01 -9.1671867347277014e-01
      -1.2435471367942095e+00 -1.4363027502935448e+00
      -6.2516253845439762e-01 -1.5224813233261696e+00
      -2.2702010305137579e+00 -1.6871187381279225e+00
      -9.2831426863536193e-01 -9.5782503088047222e-01</_></weights></opencv_ml_ann_mlp>
</opencv_storage>
