<?xml version="1.0"?>
<opencv_storage>
<opencv_ml_ann_mlp>
  <format>3</format>
  <layer_sizes>
    256 4 4 4 26</layer_sizes>
  <activation_function>SIGMOID_SYM</activation_function>
  <f_param1>6.6666666666666663e-01</f_param1>
  <f_param2>1.7159000000000000e+00</f_param2>
  <min_val>-9.4999999999999996e-01</min_val>
  <max_val>9.4999999999999996e-01</max_val>
  <min_val1>-9.7999999999999998e-01</min_val1>
  <max_val1>9.7999999999999998e-01</max_val1>
  <training_params>
    <train_method>BACKPROP</train_method>
    <dw_scale>1.0000000000000000e-03</dw_scale>
    <moment_scale>0.</moment_scale>
    <term_criteria>
      <iterations>128</iterations></term_criteria></training_params>
  <input_scale>
    4.7811143833927178e-02 -9.4328346021469320e-02
    3.3887852892301992e-02 -1.3995362249973706e-01
    3.8992929205718806e-02 -1.2199141045145045e-01
    5.9212591071374603e-02 -1.0584551123854648e-01
    3.1072481430681208e-02 -1.6389787904843756e-01
    2.7259717082672420e-02 -1.7587866177291217e-01
    1.9287533661485813e-02 -2.4194240465760961e-01
    2.3172914023175638e-02 -2.1849643425370480e-01
    2.0996722120786973e-02 -2.3948764649000462e-01
    2.2320531805117057e-02 -2.2115146668074029e-01
    2.3809077466464667e-02 -2.0410081968884122e-01
    2.6731504812003749e-02 -1.8006688897720521e-01
    2.8531024836214502e-02 -1.7527855582735297e-01
    3.6660027423232773e-02 -1.5988534287561465e-01
    3.9249254834892590e-02 -1.5009254961218738e-01
    4.4556168771600090e-02 -1.2872452006409499e-01
    4.1345348628490458e-02 -1.3086166500952529e-01
    2.7475886961581399e-02 -1.6385146663016134e-01
    2.7022169676572342e-02 -1.7705188846273787e-01
    2.3824964258121400e-02 -1.9214720836049196e-01
    2.0724141074489829e-02 -2.2367489744266697e-01
    1.6394800993887119e-02 -2.8911643647136254e-01
    1.3292765671106271e-02 -3.6449878695439442e-01
    1.3641150852356218e-02 -3.6247805045699466e-01
    1.4054707707072078e-02 -3.4170626978750201e-01
    1.4424811097218776e-02 -3.4621498569874076e-01
    1.5522527696417368e-02 -3.0845510043557378e-01
    1.8326855357594384e-02 -2.5511280252175023e-01
    2.2712047321660312e-02 -2.0474649425832339e-01
    3.1242831140448797e-02 -1.6830542729381145e-01
    3.0691913909950713e-02 -1.6483925075587874e-01
    3.6182992312514997e-02 -1.4478093135061817e-01
    3.3489260776521083e-02 -1.5847353847834131e-01
    2.4029253013646699e-02 -1.8709651128622884e-01
    1.8770122398277130e-02 -2.5747324864862686e-01
    1.7201915103761185e-02 -2.8686928516745991e-01
    1.3460526977632850e-02 -3.7046503139116987e-01
    1.1815816343394884e-02 -4.4406044290271462e-01
    1.1437602059047022e-02 -4.6549028352895572e-01
    1.0430518432904393e-02 -5.3624720814795213e-01
    1.0655806714873678e-02 -5.0506216752622501e-01
    1.1091904280092565e-02 -4.8633272325244831e-01
    1.1679605476778186e-02 -4.2057642942157553e-01
    1.2432389048372121e-02 -3.9299135070361668e-01
    1.6893584247570110e-02 -2.8479062592182469e-01
    2.1219989398943175e-02 -2.3186930229562400e-01
    2.7806275697081540e-02 -1.8711855080052300e-01
    3.8860620352013132e-02 -1.3835222211927814e-01
    3.1492945354415922e-02 -1.6871525122886688e-01
    2.4338633534088754e-02 -2.0439182640399836e-01
    1.4298006740916297e-02 -3.3908912874330044e-01
    1.2731262717712048e-02 -4.6475138611057903e-01
    1.0970033892278467e-02 -5.7735926685558692e-01
    9.9830503380205042e-03 -6.6556820988353471e-01
    9.4738374231329667e-03 -7.2538314331953002e-01
    9.0981390762933413e-03 -7.9047931755286416e-01
    9.0352793989181383e-03 -7.6610366324250423e-01
    9.0721440029474260e-03 -7.0384614920837307e-01
    9.2767642861939469e-03 -6.4452799121832482e-01
    1.0553762057282987e-02 -5.0073959271246737e-01
    1.2245479365465902e-02 -4.1351277072422404e-01
    1.5352355603778983e-02 -3.1273932511405794e-01
    1.8817361460983187e-02 -2.4757943908679231e-01
    3.1833793616451368e-02 -1.6791356903508450e-01
    3.0803471952931698e-02 -1.7777646533051922e-01
    2.0385364312442807e-02 -2.6649932966510143e-01
    1.3016844850545526e-02 -4.6668647403951791e-01
    1.0985397366520860e-02 -5.7342585035661997e-01
    9.8927319924250537e-03 -6.6716370370565603e-01
    9.4308031456421370e-03 -8.1260598254656125e-01
    9.0043218487625993e-03 -9.1300655584773904e-01
    8.7064188292705277e-03 -9.4061133005430264e-01
    8.7238758953150086e-03 -8.4089191850484257e-01
    8.7837047568852661e-03 -7.6415854198228772e-01
    9.1526820744219327e-03 -6.8742958844210411e-01
    9.8034804580431397e-03 -6.0770966141130756e-01
    1.1018314116408202e-02 -4.6625807719664042e-01
    1.4512521546213806e-02 -3.4694549141672437e-01
    2.1716798436168670e-02 -2.2663051358556532e-01
    4.0789200180451318e-02 -1.4477682283264384e-01
    2.6671644531036726e-02 -2.0196823111729570e-01
    1.7855729382891462e-02 -2.8407281509425564e-01
    1.3133830711577057e-02 -5.0692321161882603e-01
    1.0368477815191695e-02 -6.8015250209343414e-01
    9.8631858606841750e-03 -8.0463042758195780e-01
    9.4224402434035653e-03 -9.5405076272383649e-01
    9.0791332235102030e-03 -1.0338540458614440e+00
    8.9029701911922596e-03 -1.0199261926743393e+00
    8.7374064220194590e-03 -8.8609597333998424e-01
    8.7073496952556634e-03 -7.9638669269598150e-01
    8.6901128860581642e-03 -7.6338937528704176e-01
    9.7176484339644639e-03 -6.0351988163089720e-01
    1.0990120379535704e-02 -4.7850894902833668e-01
    1.5356136861469015e-02 -3.1911257615910643e-01
    2.6456593643957412e-02 -2.0166440053641690e-01
    3.7707177270057075e-02 -1.4587932315980132e-01
    2.1789033354681017e-02 -2.3817565823966610e-01
    1.6627679837955579e-02 -3.2294599284732939e-01
    1.1489675222309729e-02 -5.7387740477763793e-01
    9.7826003663354661e-03 -7.7180613228528150e-01
    9.3150015832349411e-03 -9.1061388278435973e-01
    9.2650438470715055e-03 -1.0154061789149773e+00
    8.8763631201084284e-03 -1.0260667382073918e+00
    8.8310231088490933e-03 -1.0239445820092603e+00
    8.7189409485115346e-03 -9.3608862489290079e-01
    8.6841871999691778e-03 -8.6492859334144978e-01
    8.8872979493164455e-03 -7.6909401685343071e-01
    9.9311270356591888e-03 -6.2509658195356854e-01
    1.0741396568050598e-02 -5.1406085578111704e-01
    1.5721741447044333e-02 -3.3377320915112119e-01
    2.3491185971698712e-02 -2.2267355579397763e-01
    3.0525087473947117e-02 -1.6943695374577952e-01
    1.9093590166970553e-02 -2.6211701250868236e-01
    1.5318996617751188e-02 -3.4139182042996524e-01
    1.1160040240211401e-02 -5.8983606454963045e-01
    9.5811421588887311e-03 -7.9960400745237292e-01
    9.2171642693834044e-03 -8.8927550100509789e-01
    8.9106743288538889e-03 -9.8674564776963192e-01
    8.7726307556727674e-03 -1.0010295820065789e+00
    8.7479024497056704e-03 -9.8390819460708512e-01
    8.7102846481094433e-03 -9.5401779391424424e-01
    8.6468810591851936e-03 -7.8062965729986378e-01
    8.9632977093486547e-03 -7.1186049507358851e-01
    9.6166376767467376e-03 -6.2338975359208726e-01
    1.0805818075123893e-02 -5.2458664311656944e-01
    1.4965010379030740e-02 -3.3842388830089543e-01
    2.1684418077756725e-02 -2.2611654358212899e-01
    3.0575222993563696e-02 -1.6719144264816088e-01
    1.7044261350979011e-02 -2.9514940799523465e-01
    1.4129184382227255e-02 -3.6923248821322430e-01
    1.1156445991379309e-02 -5.7462490361281549e-01
    9.4742803805148747e-03 -7.7939097046365458e-01
    9.2191696209015777e-03 -9.1681460704963169e-01
    8.8990181077446308e-03 -1.0106707588158310e+00
    8.7055360411551538e-03 -9.7407762404741183e-01
    8.6803045275665302e-03 -9.7022077669417517e-01
    8.5634098339984772e-03 -8.5824138828858354e-01
    8.7256484994560693e-03 -8.0972601190216287e-01
    8.8027415666656096e-03 -7.5272374165187173e-01
    9.4169660850158578e-03 -6.3942346573749753e-01
    1.0310278673866127e-02 -5.4465895689994548e-01
    1.3752636497613584e-02 -3.7267970027227287e-01
    2.3562836990736143e-02 -2.1139595297507527e-01
    2.8284616514753190e-02 -1.7192760133189625e-01
    1.5143902446386559e-02 -3.1628009520640071e-01
    1.2412832017000044e-02 -4.2561400606057387e-01
    1.0270526199634878e-02 -6.1795490790333585e-01
    9.6720481572286320e-03 -7.7651233716965462e-01
    9.1620655766282300e-03 -8.2370564931746004e-01
    8.8539980584518320e-03 -1.0036048732940137e+00
    8.8476868104852713e-03 -9.6740296300518391e-01
    8.5967774557770306e-03 -9.3404743201177964e-01
    8.7589113953169314e-03 -8.3078096798828815e-01
    8.6371781729338987e-03 -7.7448255971510804e-01
    9.0089209888726315e-03 -7.3105138546781323e-01
    1.0076694392827087e-02 -6.0105641249772401e-01
    1.1416595777614773e-02 -4.8088740644870454e-01
    1.5135564035326916e-02 -3.4037610108673610e-01
    2.4633364097687259e-02 -1.9683357915675678e-01
    3.2498526176526155e-02 -1.7625722992627449e-01
    1.5681568832173698e-02 -3.1505311563096466e-01
    1.2925284073144352e-02 -4.3253352520819999e-01
    1.0506018021525336e-02 -6.1890255554679829e-01
    9.6005999822726239e-03 -7.4018157508793336e-01
    9.1122584930428772e-03 -7.7539277818201391e-01
    8.7106464566512019e-03 -8.7311559625166602e-01
    8.7808123051528169e-03 -9.2103473049245010e-01
    8.5460713404770829e-03 -8.7753928488419819e-01
    8.7446788596519821e-03 -7.6276319254826352e-01
    9.1960523019349785e-03 -6.8247400872438690e-01
    9.7406743386198851e-03 -6.1273982135239868e-01
    1.0660530295677928e-02 -5.2295743474819523e-01
    1.3399301533934095e-02 -4.0513395598677054e-01
    1.7035803755927850e-02 -3.0274859367604934e-01
    2.7179405917884390e-02 -1.8992483377531122e-01
    3.1706738097078087e-02 -1.5703201818038673e-01
    1.6102549850477713e-02 -3.1200596929498026e-01
    1.2910498625416511e-02 -4.2527776459880129e-01
    1.0506853303878081e-02 -5.8886718557513174e-01
    9.6802116850822871e-03 -6.9059599492452406e-01
    9.4632822813006303e-03 -6.8891158344981229e-01
    9.0413281670158885e-03 -7.7700366787417063e-01
    8.9992564592522566e-03 -8.2715222698004087e-01
    9.0439848004224242e-03 -7.3836364677115851e-01
    9.0984857403629479e-03 -6.8880092453362041e-01
    9.6012524253468179e-03 -5.9319889477196885e-01
    1.0283741934819636e-02 -5.2312101057339611e-01
    1.1794906660003988e-02 -4.4276387774718623e-01
    1.5198639400276699e-02 -3.5141969070707435e-01
    1.8536402124082873e-02 -2.8669969726423172e-01
    2.8986889157760425e-02 -1.9404349210208499e-01
    2.9859476544014423e-02 -1.5434803842778769e-01
    1.7253831132723461e-02 -3.0996192438164638e-01
    1.2852631235778190e-02 -4.3603290624112989e-01
    1.0806108952601619e-02 -5.7079358993884188e-01
    1.0205400049184606e-02 -6.2530516133569547e-01
    1.0238718973680030e-02 -6.0601024074257714e-01
    9.6110523901411903e-03 -6.5794741599085627e-01
    9.5391400495181376e-03 -6.7992511903696662e-01
    9.4494601229536818e-03 -6.4293410614646018e-01
    9.5020312928896355e-03 -6.1125448664774074e-01
    1.0557886660602535e-02 -5.1165033149683170e-01
    1.1987764677916096e-02 -4.2674171228949759e-01
    1.4653324041910774e-02 -3.4539411567800238e-01
    1.8031973859898184e-02 -2.9563652948109120e-01
    2.2512386906593115e-02 -2.5784146519269840e-01
    2.9698006604002739e-02 -1.9554871466180965e-01
    3.1594022528812847e-02 -1.6036424696289173e-01
    1.6583966374232897e-02 -3.1255951780827573e-01
    1.4351423568742236e-02 -4.2263874306703286e-01
    1.2006992239880299e-02 -5.0907047477662992e-01
    1.1021343085583727e-02 -5.4495247137649439e-01
    1.0883025089261868e-02 -5.6222090505108302e-01
    1.0086212273572644e-02 -5.9159251826523174e-01
    1.0250324305181364e-02 -5.6684709523659926e-01
    1.0394538788202925e-02 -5.3090915637445113e-01
    1.0512810828614971e-02 -5.1585324258083365e-01
    1.1754842622416935e-02 -4.4495022013108110e-01
    1.3771088496896854e-02 -3.6252064359760677e-01
    1.6545124393514202e-02 -2.8959564821394612e-01
    1.8069833713392776e-02 -2.8011910016323094e-01
    2.4639706505832394e-02 -2.4513007067778045e-01
    3.5563466939348788e-02 -1.6698948616987860e-01
    2.9179830568967273e-02 -1.8029107764263136e-01
    1.8290778954305545e-02 -3.1005221645546083e-01
    1.4773355971656899e-02 -4.0004008978190286e-01
    1.2962832238179461e-02 -4.6718819192377775e-01
    1.2081389529437145e-02 -4.8708108205690159e-01
    1.2161286627558438e-02 -4.5342345121666799e-01
    1.1566666986001103e-02 -4.8778778974116971e-01
    1.2017720997472241e-02 -4.5525859177839695e-01
    1.1911657966243371e-02 -4.3444508411929306e-01
    1.1440576918795898e-02 -4.4653856650304313e-01
    1.4044580080385402e-02 -3.5945762874209675e-01
    1.6260849117064696e-02 -3.0167285709737074e-01
    1.8940632136798800e-02 -2.5240506804221191e-01
    2.1455139493641268e-02 -2.3699364504275194e-01
    2.9891301118131815e-02 -2.0964359092730339e-01
    2.8774236800373974e-02 -1.8701307084194344e-01
    3.0666291466199008e-02 -1.7428744811642197e-01
    1.6854484660477589e-02 -3.1961941546946271e-01
    1.4793409776888193e-02 -3.8588979738710921e-01
    1.4071330361993319e-02 -4.0582173749007255e-01
    1.4173294774586885e-02 -3.9769613050857056e-01
    1.4682668709031862e-02 -3.8580251825707806e-01
    1.4100176933167634e-02 -3.8404379067767003e-01
    1.3466160503107729e-02 -3.9410841591503920e-01
    1.3938634433188985e-02 -3.6042403976158094e-01
    1.4785196176715134e-02 -3.3967937846856505e-01
    1.6980276365553774e-02 -2.9976276788229306e-01
    1.7449432741001053e-02 -2.8313416508436212e-01
    1.9078358206815981e-02 -2.6002330698112386e-01
    2.0731790584499251e-02 -2.4406844125188565e-01
    2.6537756976741544e-02 -2.1413348423857892e-01
    3.7525918569175844e-02 -1.6249382871632301e-01
    2.9600299516678384e-02 -1.9322306477463669e-01</input_scale>
  <output_scale>
    5.2631578947368418e-01 4.9999999999999994e-01 5.2631578947368418e-01
    4.9999999999999994e-01 5.2631578947368418e-01 4.9999999999999994e-01
    5.2631578947368418e-01 4.9999999999999994e-01 5.2631578947368418e-01
    4.9999999999999994e-01 5.2631578947368418e-01 4.9999999999999994e-01
    5.2631578947368418e-01 4.9999999999999994e-01 5.2631578947368418e-01
    4.9999999999999994e-01 5.2631578947368418e-01 4.9999999999999994e-01
    5.2631578947368418e-01 4.9999999999999994e-01 5.2631578947368418e-01
    4.9999999999999994e-01 5.2631578947368418e-01 4.9999999999999994e-01
    5.2631578947368418e-01 4.9999999999999994e-01 5.2631578947368418e-01
    4.9999999999999994e-01 5.2631578947368418e-01 4.9999999999999994e-01
    5.2631578947368418e-01 4.9999999999999994e-01 5.2631578947368418e-01
    4.9999999999999994e-01 5.2631578947368418e-01 4.9999999999999994e-01
    5.2631578947368418e-01 4.9999999999999994e-01 5.2631578947368418e-01
    4.9999999999999994e-01 5.2631578947368418e-01 4.9999999999999994e-01
    5.2631578947368418e-01 4.9999999999999994e-01 5.2631578947368418e-01
    4.9999999999999994e-01 5.2631578947368418e-01 4.9999999999999994e-01
    5.2631578947368418e-01 4.9999999999999994e-01 5.2631578947368418e-01
    4.9999999999999994e-01</output_scale>
  <inv_output_scale>
    1.8999999999999999e+00 -9.4999999999999996e-01
    1.8999999999999999e+00 -9.4999999999999996e-01
    1.8999999999999999e+00 -9.4999999999999996e-01
    1.8999999999999999e+00 -9.4999999999999996e-01
    1.8999999999999999e+00 -9.4999999999999996e-01
    1.8999999999999999e+00 -9.4999999999999996e-01
    1.8999999999999999e+00 -9.4999999999999996e-01
    1.8999999999999999e+00 -9.4999999999999996e-01
    1.8999999999999999e+00 -9.4999999999999996e-01
    1.8999999999999999e+00 -9.4999999999999996e-01
    1.8999999999999999e+00 -9.4999999999999996e-01
    1.8999999999999999e+00 -9.4999999999999996e-01
    1.8999999999999999e+00 -9.4999999999999996e-01
    1.8999999999999999e+00 -9.4999999999999996e-01
    1.8999999999999999e+00 -9.4999999999999996e-01
    1.8999999999999999e+00 -9.4999999999999996e-01
    1.8999999999999999e+00 -9.4999999999999996e-01
    1.8999999999999999e+00 -9.4999999999999996e-01
    1.8999999999999999e+00 -9.4999999999999996e-01
    1.8999999999999999e+00 -9.4999999999999996e-01
    1.8999999999999999e+00 -9.4999999999999996e-01
    1.8999999999999999e+00 -9.4999999999999996e-01
    1.8999999999999999e+00 -9.4999999999999996e-01
    1.8999999999999999e+00 -9.4999999999999996e-01
    1.8999999999999999e+00 -9.4999999999999996e-01
    1.8999999999999999e+00 -9.4999999999999996e-01</inv_output_scale>
  <weights>
    <_>
      -1.0363591913735877e-01 1.1839932308807900e-01
      7.5780633518237772e-02 -1.6583816413293873e-01
      -4.9178817525596462e-02 -1.4852770123989745e-02
      7.8960397987476068e-03 -6.6690652281312976e-02
      6.8980079890466464e-02 -5.9111066203013242e-02
      -2.6321051445346893e-02 5.5816163127258955e-02
      -5.7764425299005370e-02 4.0304795097137858e-02
      3.5580587423848266e-02 -8.5435198763012449e-02
      4.6486882036189732e-02 -5.1780339064356144e-03
      4.5484809215471281e-02 2.1940016690795056e-02
      3.2167618864439723e-02 5.3057254447746458e-03
      5.1259738019554406e-02 4.0943841993175287e-02
      3.3360163924972042e-02 6.5998505496988871e-03
      -4.3476149027901946e-04 4.0917415041921826e-02
      7.4058725003780870e-02 -4.5578812239996873e-02
      -3.4022770036499728e-02 7.5041398035145923e-02
      6.3386266197176230e-02 -1.3386295345679861e-02
      -2.9625923466757430e-02 5.1186569190945670e-02
      3.1874923918668738e-02 6.0001315470994368e-02
      -8.3235475724574310e-03 7.6746641347022245e-03
      8.0506229903177351e-02 -8.9829430593490675e-02
      -5.9428777401860929e-02 1.0607449055268060e-01
      6.8300942214621088e-02 -3.0628685025111114e-02
      1.7557231625359925e-03 4.6113580694174067e-02
      1.0168132868346749e-02 2.1743482121241043e-02
      3.6641393708142705e-02 -3.2529592251338391e-02
      1.8149508795461327e-02 -3.8931031361967149e-02
      -4.6997184897754216e-02 3.7631300422905765e-02
      -6.5317975916122456e-02 6.1507451167648872e-02
      -1.2375198695787834e-02 -2.5527970034223798e-02
      -2.5283550596534993e-02 7.0960521266696707e-03
      -2.8315820223944483e-02 1.4086359173886270e-02
      5.7818358705303614e-02 -3.6902658609142609e-02
      -3.1913296753619640e-02 2.3944981497897994e-02
      -1.7278142625933988e-02 -6.5971056693944485e-03
      -3.2004155982725165e-02 1.1146805029291917e-02
      -1.0631084619658975e-03 -5.2170427701160163e-02
      3.3521766442434646e-02 -3.2521831346888269e-02
      -5.8765553631179995e-02 7.1596456738585473e-02
      6.0274378083096547e-02 -1.0331592511990778e-01
      6.7225730534421213e-02 -1.4221737260013339e-02
      7.5158603517495679e-03 4.0020019529416251e-02
      9.3172070579951600e-03 8.0690684306741027e-03
      7.6494569324996875e-03 4.9863693618497865e-02
      1.7549874202581032e-02 1.9551416877195429e-02
      9.5497437881550493e-03 -4.9767455891060091e-03
      3.8531525870362363e-02 -2.1364627541048523e-02
      -2.7811391557797226e-02 3.3111628497982791e-02
      -4.3237678400851659e-02 7.0698795286232324e-02
      9.4450131115070939e-03 -8.6397223624264968e-02
      1.4623798749160569e-02 1.0832352380526912e-02
      -2.4325829523990275e-02 1.2302979427121479e-02
      -5.0206915293449776e-02 6.0092344743189523e-02
      3.8366968920299914e-02 -8.9511985559879992e-02
      6.5370714033998023e-02 -4.4742626925044743e-02
      -3.4436507901943691e-02 6.9671641442083654e-02
      -9.5332939872224659e-02 8.6261886033173876e-02
      8.2515401653065895e-02 -1.4122459466825946e-01
      -1.2865334621216138e-02 6.0683859430979972e-03
      -1.5450715631080202e-02 -1.2049649451377865e-02
      -4.8883222767251530e-02 2.5939589170927004e-02
      -1.8238881601745176e-02 -2.1520121786697009e-02
      1.0795269796231598e-02 -1.3142497862153749e-02
      -5.2150520433725797e-02 6.6852278116578637e-02
      2.0403082294951666e-03 2.8186835070922117e-03
      -9.4662912099746192e-03 1.2706258047919364e-02
      -1.1451669514502575e-03 2.6738518316433466e-02
      -9.2580102806733254e-03 3.1109419505078673e-02
      9.7016611554943694e-03 -8.8443354292939924e-02
      -2.6212078969977289e-02 6.7065049277452729e-02
      -1.4894875630367789e-03 -1.4962598303144156e-02
      1.3703414276016318e-02 1.5232581142077849e-03
      -5.7763539799256360e-03 7.5000675431395311e-02
      4.3887461983288155e-02 -5.0064455565434589e-02
      2.7302580235216263e-02 -1.4589731771025388e-02
      -3.6368095038636764e-02 5.2219557959170500e-02
      6.9290306713820943e-02 -2.5789365476255717e-02
      2.7172160764690069e-02 4.4918873396241246e-02
      -5.9491541813370262e-02 6.4907188324345555e-02
      5.6946067364076682e-02 -5.4006252444920667e-02
      -3.7420316681155252e-02 3.3475565886822281e-02
      2.5772608747505858e-02 -4.7765750984497139e-02
      -3.2573847125357408e-02 1.5472569926464459e-02
      3.9716164602852065e-02 -6.0106721945241859e-02
      6.9125567154882618e-03 -1.8673020426970090e-02
      6.6856105091336188e-03 -1.7976221178479756e-02
      -1.0852366647973760e-02 -1.7071777605395015e-02
      1.7594941172166086e-02 -3.7608474395270396e-02
      -2.5338062009763070e-02 -1.5745977228159451e-02
      3.1149416920378981e-02 -3.5150841535611203e-02
      3.3938038021116834e-02 -2.4098944927344625e-02
      7.1247838287316432e-03 1.4422371977212342e-02
      4.2630816815983560e-02 1.1959507079153178e-05
      -6.2113822911320671e-02 7.2074789719875271e-02
      -1.3166317743589230e-02 -2.7092542888855702e-02
      -4.4440662495335223e-02 3.4408603956742202e-02
      7.4175983921284903e-03 -6.2650307192916475e-03
      -4.5506448069701819e-02 -1.7818406788768566e-02
      -9.4194648985470239e-03 2.1440792418637094e-02
      -2.5637841511261587e-02 -4.6067434164267271e-02
      -3.1868328914882948e-02 -3.3612289258933788e-02
      -4.0953692422236218e-02 -3.8475574088585755e-02
      1.8126556077289531e-02 -6.8071709512906118e-03
      -1.3088482870450956e-02 4.5167506228984432e-02
      3.5900996135648816e-02 1.1356773494755565e-02
      -3.3253436498576934e-02 9.3657443135694088e-02
      -7.7618785269187418e-02 3.7667325069936600e-02
      -4.7184666015578199e-02 -3.8503918589646779e-03
      2.6741506816889440e-02 -7.4651782576188375e-02
      -8.9711546035913581e-02 1.2601353144946650e-01
      2.4496582020294481e-02 -7.9596681762717975e-02
      -5.9502616670058732e-02 1.0668794703046368e-01
      6.8425105058363732e-03 -8.8864472664746202e-02
      -2.6452925978218387e-02 6.0672320454796654e-02
      9.9194389739719648e-03 -7.7059405871091988e-02
      -8.3143126914149434e-03 8.7581552721994138e-02
      -3.9082391084325945e-03 -1.7310728628237002e-03
      -3.6600311950791768e-02 6.1933104349025596e-02
      -9.3917025810856050e-02 7.8291492593156334e-02
      1.3084193715562334e-02 -7.0255914572134801e-02
      -9.2926204706608884e-03 -2.0041511541433247e-02
      -3.9511366432393676e-02 -8.8861636504638988e-03
      -3.8602937400127081e-02 2.2499232012830321e-02
      4.0092174780843322e-02 -6.8806530324758919e-02
      -2.1163303292049743e-02 3.3818126863408064e-02
      6.9223660130858103e-03 -6.1581653167907379e-03
      4.6990429926411691e-02 -4.5533631183574085e-02
      -4.0961778276105101e-02 6.5199681820321431e-02
      6.2768471233594678e-02 -2.9560330779132209e-02
      7.0645222772001666e-03 4.7579677846015481e-02
      -3.2080884229317701e-02 2.3054909089254082e-02
      -9.0121622541143153e-03 -1.7056322372142163e-02
      1.8638184675888698e-02 -7.0078929299848672e-02
      -5.6257632311813466e-02 6.2293689183536338e-02
      1.4466098029398990e-02 -1.4197334230709846e-02
      -2.1773597082698184e-02 5.4476800417579706e-02
      -4.4588845303719631e-03 1.9822521107594488e-02
      1.0538684539050823e-02 4.3509919387952234e-02
      1.0967597341265818e-02 1.4510614090588266e-02
      -1.4258931584134380e-02 8.9381823509848565e-02
      -1.2318948627562844e-01 1.4418187899589621e-01
      4.3650620221894459e-03 -6.9786852047748399e-02
      -2.5528852418289311e-02 -2.8796250504259355e-02
      -3.9856088442560375e-02 2.1671767785012185e-02
      -4.5438775380944645e-02 2.8539854719279344e-02
      1.9820658534465893e-03 -3.9890817502621627e-02
      -5.7291380126727139e-02 2.1877764918184887e-02
      1.8840671736829260e-03 -1.6420983260432571e-02
      2.5138259443762199e-03 1.2272593615956184e-02
      -8.5384674181903982e-03 3.9871877172231188e-02
      6.7277311310475874e-02 -4.3629621750588585e-02
      -5.9256948923116448e-02 1.6650263434234130e-01
      -9.6652908170944997e-03 2.4708420538475356e-02
      -2.0911797477734285e-02 3.2370059842649408e-02
      -1.3354668414564921e-02 2.2861572819778769e-02
      -1.6393890757294186e-03 7.0350155110196844e-03
      -8.9470618074948549e-02 7.1097141950487372e-02
      4.5883414724041616e-02 -6.6728414814909764e-02
      9.9088938191475955e-03 -4.0963690968875656e-03
      -8.6504803613545303e-02 4.7581939081579823e-02
      -1.7011638778896974e-02 1.2995739736354870e-02
      7.8246767513763804e-03 -4.0691082632895184e-02
      -1.5696170451043778e-02 -2.9098391768066268e-02
      -1.0963082141585640e-03 -3.2455499185023676e-02
      2.7982636234201289e-02 -1.0633331268124760e-01
      -4.9364369987649134e-02 4.4632932526496416e-02
      5.7971040009707911e-03 1.8163230909075057e-02
      1.5661071226982522e-02 2.0028945751965239e-02
      -8.6175086472307968e-02 1.5528538739596778e-01
      1.0600907949739624e-01 -4.9327278822976897e-02
      -4.0569846489054789e-02 4.4515189899649796e-02
      -8.6107140354392368e-04 5.4984712014966110e-02
      -8.6418991188225547e-02 9.0887439935164280e-02
      1.2303823375313879e-02 -3.9519089054225569e-02
      -5.8926701504428421e-02 1.5484440700955268e-02
      -1.7152627958713432e-02 -1.3554804932223507e-02
      4.5404321555883358e-02 -7.8931284025815507e-02
      -6.9075061691822287e-02 8.6111491475408655e-02
      4.9449698601472507e-03 2.0158688114659495e-02
      -2.3428761967144413e-02 2.9229027547762097e-02
      5.6113790119252070e-02 -3.7612868222301012e-02
      -6.1911158365330544e-02 1.1492141831291090e-01
      6.9610283572287129e-02 -2.1197817319458554e-02
      -7.9326378066318856e-02 1.7496126532575618e-01
      1.2685510286474714e-02 2.2315049563533886e-02
      -5.1503420120637342e-03 7.8190159222350356e-02
      1.2186397208600785e-01 -5.5054253079128250e-02
      9.9374644959554399e-03 1.3964128015171035e-01
      4.6808016842821140e-02 -2.8964793990833942e-02
      2.1161927764197074e-02 6.6881207235261073e-02
      1.1532702363030301e-02 2.8382763461098786e-02
      -2.6381918245977933e-02 -4.6325389215802915e-03
      -6.0534681563375800e-04 -6.0523814605496627e-02
      -2.0988785112976437e-03 3.9784442231775859e-02
      -3.3858597283557126e-02 -8.9048987582024657e-03
      6.9524339565044835e-02 -2.8243148599671915e-02
      2.0976674272286548e-02 -1.0112774412454967e-02
      -2.7593321467678157e-02 2.6309321122565513e-02
      -5.0166343653772920e-02 6.3741009419517991e-02
      2.7987496513439007e-02 -2.7611937498486696e-02
      -8.0015373614510596e-03 3.7316418707672411e-02
      2.7166597759574820e-03 2.4741914485220878e-02
      2.9807104001610494e-02 -5.6286268672530448e-03
      -5.9016168199299029e-02 9.7623310919627782e-02
      -9.5805384165720930e-02 8.9004669888861812e-02
      3.2886747766645526e-02 -8.1596518297921458e-02
      -3.1930927172238457e-02 -1.3488963371162681e-03
      -3.1621926498592592e-02 3.4081214497697486e-02
      -1.6024647795464669e-02 -1.6470216493524717e-02
      -1.9456192870423182e-02 3.7281649068587976e-02
      1.4424597076563291e-02 -4.9836706922631847e-02
      -6.4316193753103379e-02 8.3555630155912233e-02
      5.9879117469113690e-03 3.2422714893616165e-02
      -1.3068454991184673e-02 3.4867232236828326e-02
      2.4755552242773045e-02 5.7821400430799986e-03
      -4.0074823360161813e-02 7.0465504312188815e-02
      2.6667127882089331e-02 1.9149993165274198e-02
      -4.9260945629443477e-02 1.0199430730617021e-01
      -6.8972404012295263e-02 1.0366037539681304e-01
      5.2028221562504078e-02 -4.1047828872273567e-02
      2.4056148437741908e-02 1.2693800445989193e-02
      2.7875873512441533e-02 1.7993642412246869e-02
      -5.0992187726450602e-02 9.0648454631603134e-02
      3.7429543323619197e-02 -8.0451699254593972e-02
      2.8514367477934812e-02 -7.6074533497512434e-02
      7.1212507347898852e-03 5.4306423829471984e-02
      -6.9287375015752745e-02 3.7847006056619038e-02
      1.0235120201071111e-01 -8.0837659153875183e-02
      1.6404897361494478e-02 2.6588254761386737e-02
      8.2102226244111839e-03 -1.6809877006265471e-03
      -3.4379666079234921e-03 7.0915827208420906e-02
      5.8735566423063568e-04 2.6192165130796728e-02
      4.5561210446697933e-02 1.9255659916855062e-03
      -4.0133409117843133e-02 8.7899119566873199e-02
      3.2025028711155333e-02 -6.7149556321173792e-03
      -5.2865580891907522e-02 4.4094653588263928e-02
      3.2823445814692716e-02 -2.2222388707250452e-02
      -6.8146813890162056e-02 1.0224411508689402e-01
      -6.7100350395437255e-02 5.8667445368312192e-02
      -2.0361317826577737e-03 -6.7204918382573709e-03
      4.6816670597456679e-02 -2.5103478170802308e-02
      -8.2601971774866764e-02 1.0750965443662132e-01
      1.1358336606657243e-01 -9.7497853174065854e-02
      -1.1320436448393001e-01 1.7795387931689019e-01
      3.4942780645067902e-02 -1.1610181546142771e-02
      -2.7574989640286023e-02 5.9488163532692005e-02
      6.9989838727981007e-02 2.8736744409127292e-03
      -2.5946081226419431e-02 1.0981211427148700e-01
      2.8150621657211512e-02 -2.0139965986563624e-03
      1.2551905921074477e-02 1.1433962038146978e-01
      -6.1420862971502073e-02 7.2398805439168309e-02
      2.8445555047250493e-02 1.2474945065421426e-02
      6.8731672445201345e-03 3.0838607979088276e-02
      -1.8162815177451445e-02 5.9281254671862606e-02
      3.6085543581210036e-02 -5.0726322684347992e-02
      -2.5110986285581029e-02 4.4179218219013779e-02
      1.3399232743378071e-03 -5.5932926087870573e-02
      1.4966088024163238e-02 3.0652822940375371e-02
      5.1016498895980041e-02 -2.3585576399451337e-02
      3.5128921823939029e-02 4.3622226431374755e-02
      -5.7321236125204102e-02 8.3694874756467474e-02
      3.8392062481860278e-02 -5.5708211363094111e-02
      -2.4789491309374714e-02 7.1154002966566807e-02
      -2.3592138410298596e-02 -1.8490674647900123e-03
      -4.2853926108814999e-02 8.7996099286960741e-02
      -2.7231758182819789e-02 -2.0738051864948003e-02
      6.3254697850058357e-03 3.6734853991417779e-02
      -1.0481766975146466e-01 5.5774164493757349e-02
      2.6236246512894672e-02 -8.3066231121492352e-03
      -3.3623365302541119e-02 4.8812578449831834e-02
      -4.6663801819879197e-02 4.5218464276427388e-02
      1.1058502367472096e-02 -7.5994956873842003e-03
      -3.8573857946188200e-02 3.3107412383598121e-02
      -4.6209485399964197e-03 2.6935749847827106e-02
      -4.1865577686386102e-02 5.9610820552399940e-02
      7.7424612542511314e-03 -5.1002416843579347e-02
      4.2942561106618017e-02 -1.0874519262640721e-03
      -2.7526170479749226e-02 5.7547415918046303e-02
      -1.8324953603807134e-02 5.9460579819779216e-02
      -2.3812374909989104e-03 -8.6013931300793385e-03
      9.7412261680737740e-03 7.7735345426610388e-03
      1.0829679704977009e-02 3.8958286353442499e-02
      5.3419053096602616e-02 -6.4324457315829267e-02
      -3.9240851061032901e-02 9.5239634245991925e-02
      -5.9868061810412009e-02 1.1594039841031416e-01
      2.7200513584886604e-02 -1.2692106443088724e-02
      1.3190203081886844e-02 2.9729971991344886e-03
      -4.3921769412270308e-02 7.9535121659207262e-03
      -7.2993494081355290e-02 -8.2871673916886882e-03
      -2.1949896185805354e-02 -4.8862218580911949e-02
      -7.9816979403257923e-03 2.2560404036821328e-03
      -6.4778897566478456e-03 1.0578768132749440e-02
      5.1458436069809044e-02 -1.2272602279105361e-03
      -5.0189521092568579e-02 5.2583811150019338e-02
      -2.3225435858628986e-02 8.1058152124103139e-02
      -1.3775387285795481e-02 -2.9861641039943338e-02
      1.4779202496145597e-02 8.5854077026562003e-03
      -9.2582730840571420e-02 4.7132569952988812e-02
      -7.1776673774109317e-02 8.9665115594787015e-02
      -1.1618421662704239e-02 -8.6594117251156469e-02
      -9.2802632309090999e-02 1.2785288119951679e-01
      3.3029068937432723e-02 -9.0033933751844680e-02
      -7.5573337494888121e-02 1.0278902913392519e-01
      4.4086378874894992e-02 -9.5549613913034834e-02
      4.0197625187350268e-02 -2.0429755660866845e-02
      -2.0500333130271400e-02 4.4789821647869592e-02
      -2.0936187781257748e-02 7.4689541185102737e-02
      -2.0483707685449434e-02 -2.4497580208613097e-02
      4.3116928345549650e-02 2.3997095606446351e-02
      -2.4845948363739892e-02 6.0765945527842417e-02
      -2.8625413996747222e-02 6.9278044700949185e-02
      2.0129824111345198e-02 1.3626769096553991e-03
      8.3550752816545076e-05 3.0919697381561421e-02
      1.2725010457599094e-02 2.5016127152083276e-02
      -5.6734824332152337e-02 2.6660705104109175e-03
      1.5157836016476841e-03 -2.6486790537353666e-03
      5.1906028244479034e-02 -4.5275566997438697e-02
      -2.1100576274305793e-02 1.1894868010567831e-01
      -2.9460347472372188e-02 -3.7383493910112305e-03
      4.2318627471987114e-02 1.2237685484535257e-02
      -5.8049472837301004e-02 -4.4506448600987063e-02
      -5.5790479745759118e-02 -2.8779578950894219e-03
      3.9378592760994140e-02 -4.4395062488097027e-02
      -2.0199311180159805e-02 6.7122411577619001e-02
      -1.6605751235966741e-02 2.6173418005856708e-02
      -1.0389066081710332e-02 -2.7789628878079037e-02
      -3.8049113657262615e-02 8.9197373244961770e-02
      -3.5882357391873947e-02 -5.2607039985344752e-02
      -5.1467802859398615e-02 9.2016975915003421e-02
      -4.4067808847351134e-02 -4.0118874944623843e-02
      -4.7172025839488790e-02 6.7361401578503982e-02
      -3.0720752077501599e-02 -3.5593969318033741e-02
      1.4534990668104628e-02 1.7570182415850399e-02
      -2.7012763988008275e-02 -1.5122040673312125e-02
      -5.6149588095111565e-02 1.2423233677352825e-01
      4.2028910899351742e-02 -6.9317433993315858e-02
      -7.2047911075549198e-02 9.4832407945552186e-02
      4.4087866034911299e-02 -7.3764450577919360e-02
      -5.6435359122540996e-02 1.2855265755409639e-01
      4.9481188118026632e-02 -8.4726595529288226e-02
      -5.2806280395308420e-03 4.6221187782905744e-02
      2.8047994968657539e-02 4.0580819548950375e-02
      -1.1871613317485815e-02 3.7102141907264144e-02
      4.5864902468211156e-02 -1.8027820881699338e-02
      7.6276405955548340e-02 -6.9194198129651163e-02
      -5.5502780484795330e-02 1.6659989131303574e-01
      4.3969108037079020e-02 -5.7831329103968550e-02
      -5.0238702131734501e-02 9.2796807660596309e-02
      -8.4601380359349051e-03 5.3883290618873172e-03
      1.7307438376979640e-02 6.4593742623935690e-02
      -2.5857562063058243e-02 -4.2664811248098629e-03
      1.8787368294919518e-02 -2.9939059156358322e-03
      -8.4761685907013468e-02 -4.1490713342391759e-02
      -5.0488558492167844e-02 -7.3134227552439993e-02
      1.8599473660247670e-03 -6.4575360142031038e-02
      -4.2533172674505820e-02 6.6308863574520274e-02
      -1.4224780669178941e-02 5.6756301010773384e-02
      -3.7935118689051320e-02 -1.6487117715505067e-02
      -1.4941451990802103e-02 7.5864643622063993e-02
      -4.7316532488305661e-02 -2.0465559433068835e-02
      -7.2251584976709665e-02 1.1968675247280322e-01
      -3.6055635437737803e-03 -7.7784731214367103e-02
      3.7542499598042678e-02 4.3683403152340074e-02
      -2.5229378945889766e-02 4.3295195464469735e-02
      -7.8058720246709581e-03 4.8622782321423939e-02
      -6.2059020579211706e-02 5.5180344257048453e-03
      1.2659784552394894e-02 9.1318672864363695e-03
      -3.1950211559558066e-02 5.6112459484777499e-02
      5.3423103432978951e-02 -1.5901011646845278e-02
      -5.3115714579396497e-02 8.8393533548776007e-02
      2.5411038344309984e-02 3.6149652754865556e-02
      3.2568972018526036e-02 3.1046033383480547e-02
      -6.4496895318894631e-02 1.1782588536520780e-01
      8.3985551020711355e-02 -8.0754441066142199e-02
      -1.0400164286232524e-01 1.1137812805611651e-01
      5.4840084192415296e-02 -1.1341284896717563e-01
      6.9844999700219550e-03 -1.1320848114011526e-03
      3.7706163164046666e-02 1.0583788420860607e-02
      5.2148317322050719e-02 -1.6615203743067682e-02
      -1.6630816463180511e-02 1.1548915612373323e-01
      -2.1014099857497366e-02 5.1273548120922004e-02
      -7.8999009209468202e-03 -1.9778510879113462e-02
      -2.2832747092229686e-02 2.2408701235816737e-02
      7.5496936671217889e-03 -1.1008086074055033e-02
      -1.6944156191895657e-01 5.4894992981729979e-02
      2.8214173023107449e-02 -1.0829702339970225e-01
      -9.9022015551374090e-02 8.8544937084941138e-03
      5.3706397473361790e-03 -6.7481425529702974e-02
      -1.5058667992606252e-02 4.2503478879455207e-03
      -1.3983671999226451e-02 5.6605678557033173e-03
      2.6952120629728897e-03 4.3736624595878702e-02
      -2.7836913160669146e-02 2.8377242868857587e-02
      -3.8432963061309174e-02 7.9327378655006303e-02
      1.3975314116100552e-02 -4.6663263553075682e-03
      -2.5869367190283286e-02 5.7980969072909082e-02
      -2.3688701615456696e-02 -1.9864011411430047e-05
      2.6996944695096749e-02 2.6546162616754129e-02
      -7.7011134765477954e-02 5.5414644616771418e-02
      3.5357127007606869e-02 1.3331398910450669e-02
      -5.7225734453154486e-02 9.7611941858792753e-02
      -9.4013188024425473e-02 1.8202914863701122e-01
      5.2414297330101979e-02 -1.2832576799069731e-01
      -9.8974640230027628e-03 7.4555773003693260e-02
      -9.5491717684702930e-03 -3.7064110713914911e-02
      -7.2682445566242149e-02 9.6518746123758867e-02
      6.1755593715065282e-02 -1.3207291738196883e-01
      -2.1385773503768558e-02 6.0734360255137142e-02
      1.9311208632392048e-02 9.9124174341952247e-03
      6.2770237682199231e-03 5.1103968540409273e-02
      1.5035207423148639e-02 6.0837451965248542e-02
      -2.5497101420846675e-02 2.6356866226178392e-02
      3.6708087693126744e-02 2.5285564643389710e-02
      2.9008800511726725e-02 -5.0936116509275507e-02
      -5.6094834561185941e-02 1.0519418004178835e-01
      -7.8365823837870996e-02 4.6258817054232959e-02
      1.6420998600295323e-02 -8.1119343349859208e-02
      -4.9444592313335631e-02 -7.3081057235781371e-02
      -2.8371879177974967e-02 5.4172407698071115e-03
      -2.7377415522392552e-02 -5.4366384262622677e-02
      -2.9093968097477548e-02 -4.2748603955490546e-03
      -2.7411850646739719e-02 -7.2656388506944017e-03
      -2.0766008082327630e-02 8.2415440941253099e-03
      -1.2178825482039982e-02 5.9087641693977479e-03
      1.2276360021914730e-02 3.1180865328418145e-02
      -4.6790476763767713e-02 4.8647341292653488e-02
      6.4397756298136932e-04 -1.4820303431091378e-02
      4.4893977447628498e-02 -9.6714343570207372e-03
      -4.2571255284099961e-02 5.9922344792218800e-02
      5.1427004030206939e-02 -1.4331535490456709e-03
      -6.3338810294739742e-02 8.2723399998345382e-02
      -1.5008256057499442e-02 1.0209683591036540e-01
      -2.8207698567449660e-02 -3.5332526785175858e-02
      7.2440750456410935e-02 -1.6711909090408865e-02
      -3.6740886404716441e-02 7.2384040800291094e-02
      4.1166363611329811e-02 5.4108523730220393e-03
      -2.9238258251446169e-02 3.6895275571350833e-02
      9.8488390521257185e-03 3.4176693690939883e-02
      4.4712526083774656e-02 -4.1649043632187042e-02
      3.4672329301147493e-03 3.0995615255504275e-02
      6.5902281091979875e-02 4.1206871909726966e-02
      -3.1910603587758948e-02 4.0082920364375066e-02
      4.1466274783527518e-02 2.4990190404042607e-02
      1.3940711892093536e-02 -1.2172048700507724e-02
      4.9824134942374011e-02 7.1564944007846520e-02
      5.3372873659225314e-02 -3.5961159269353823e-02
      -2.4051212500790613e-02 6.5935116796880716e-02
      5.8718863073781137e-02 -4.4840940892458409e-02
      -1.8616987627666604e-02 5.4194684025373009e-02
      -6.1816469704621825e-02 -7.5628732070072077e-02
      -1.5285384286985424e-02 -1.7806671260298838e-02
      -3.7939165972853697e-02 -7.4860265050386409e-03
      -3.3551943681901106e-02 -4.3841589440091165e-02
      -2.3573010323818363e-02 -1.7954107831946630e-02
      -3.0605228347758355e-02 2.3175220061137605e-02
      -1.0042369642036517e-01 2.9992050472941800e-02
      2.0253706596799100e-02 -4.5478593343357639e-02
      -1.6969555918842631e-02 5.3470425808942866e-02
      -5.6630597573121104e-03 1.5564438981752081e-02
      1.9759652439005765e-02 1.9540656339576343e-02
      -3.7257579136866323e-02 1.4573324921325190e-02
      6.3336490224080361e-02 -2.5175199092018662e-02
      -2.0406965680183325e-02 8.2390503488801531e-02
      9.0463271808712206e-03 2.1038794936139985e-02
      1.9245519188973788e-03 6.1379122746187866e-03
      1.3290337670078442e-02 1.2311258182460028e-02
      -1.2179370782007268e-02 -2.2993275480357490e-02
      -3.5415669814196839e-02 3.9043596079224939e-02
      4.8000929134482666e-02 -8.7726289756194148e-02
      5.7143057311724574e-02 3.8226523058921521e-03
      5.1793639358531887e-02 2.2342662766880086e-02
      5.7543340516580541e-02 -1.2787735745671052e-02
      2.5060484927371573e-02 6.4681123718989139e-02
      7.3792744861127635e-02 -3.0503009032672557e-02
      3.3334758029552929e-02 9.1055211756172358e-02
      2.3145088681607733e-02 -3.0771698655388532e-02
      2.6038155033986286e-02 4.3990361961534677e-02
      4.9941711566235929e-03 -2.1318125361943184e-02
      4.6220950197366530e-03 5.2485245481536935e-03
      -9.9617843000466121e-03 1.0701905229694008e-02
      -1.9934695909784382e-02 -8.5876279502932144e-03
      -4.7009254321378598e-02 -5.5871479502244893e-02
      -3.5323483111208996e-02 4.3341595908487985e-03
      -6.3120617539546731e-02 -1.0855815536587510e-02
      -1.8152061893912195e-02 -2.8089689577684478e-02
      1.5601623737768817e-02 -6.9361141790940925e-02
      -7.8063991549639819e-02 7.1668194794507825e-02
      -5.8678224077187938e-02 7.1297944462016156e-03
      -3.3033000366470736e-02 -6.6747097236873609e-03
      5.5000470174175963e-04 1.5264253364553617e-02
      -5.4026691481040057e-02 1.3509588175878011e-02
      -4.5028847414329672e-02 1.3460208694310211e-01
      2.7356623787192287e-02 -6.4884409856334993e-02
      -2.7768255623169716e-02 4.4616359473022019e-02
      1.8771513883278387e-03 -2.6656590162116678e-03
      -4.4685362763372545e-02 4.3023956025318610e-02
      2.3577931009898926e-03 -4.2154172940478879e-02
      -1.0006219621701225e-02 8.8199432040847424e-03
      -1.0014753255087348e-02 -5.9220529223824779e-02
      7.4275208068579304e-02 -3.2408118068045257e-02
      -2.6390718280062661e-02 4.6198830954695604e-02
      9.2295657005091652e-02 -3.5195194645492624e-02
      -2.5949043620468237e-02 7.6153089080842479e-02
      -1.5156105523978464e-02 2.9824140411705984e-02
      5.3287300416780405e-02 -1.4928825525982183e-02
      4.4818008292596710e-02 -9.8297972551846993e-03
      2.6840462804864951e-02 4.3543396195052410e-02
      -3.2131071827920278e-02 3.5986394398220121e-02
      2.6684792769383518e-02 -2.5444266719245014e-02
      -3.2559059321445830e-02 2.8723362740054232e-02
      4.1443832316758068e-03 -2.8682710906324932e-02
      -6.0640313280785049e-02 2.6975243158116006e-02
      -2.0758898234017531e-03 -5.2988221830358916e-02
      -2.3047644130639072e-02 7.1278671974581820e-02
      -8.6844079241224170e-02 9.9966746605090265e-02</_>
    <_>
      4.9869260994423936e-01 -1.4372151423508284e-01
      5.1138053554104324e-01 3.8620852117816262e-01
      -4.6703618926983564e-01 7.6392151366854388e-01
      -4.4212115049139683e-01 -3.8347867472342634e-01
      -6.4200102595058040e-01 -9.9538820659072408e-02
      -3.4065557074610883e-02 2.9966827158407394e-01
      7.5600578242368088e-01 -1.9337357841728114e-01
      4.4963535534759319e-01 5.1796352112728450e-01
      1.1669037592179277e-01 -1.8604145483577336e-01
      2.7923754662407130e-01 -3.8449745447401751e-01</_>
    <_>
      4.5340692860341103e-01 -4.5185060796798732e-01
      1.1431228761382293e+00 -1.6422190272034337e-01
      9.4318045013460000e-02 6.4654950034347514e-01
      -2.0472988946118201e-01 -2.1194349484693489e-01
      -4.4983055669521593e-01 -4.0968116694015004e-02
      6.3227470500412652e-01 -3.4524748292217056e-01
      4.1285518615275726e-02 2.2633237025250644e-01
      5.4310979812494342e-01 6.6602400089898783e-01
      -6.8674408897151717e-01 -1.0498045267154241e+00
      -1.4395257790007343e-01 -1.7842955927138247e+00</_>
    <_>
      -1.4122271002112161e-01 -2.2761406012798491e-01
      -4.6791581239002827e-01 8.8049145399547724e-01
      4.5778557325351460e-01 5.8256254171878341e-01
      -8.0210876386668817e-01 2.5680188792051722e-01
      -7.5828038473462245e-01 9.6599958542686726e-01
      6.0732914114531611e-01 1.0893810302949579e-01
      -2.4903600400055211e-03 5.7796895283153971e-01
      -3.8381035853488060e-01 -2.8088333662074377e-01
      1.6632611692036997e-01 6.9520247746491970e-01
      1.4292163526294264e+00 -2.8610282777257040e-01
      1.4902319130778882e-01 -2.7752409266842404e-01
      -6.3845349230058102e-01 2.5414769053734010e-01
      1.0974835691784612e+00 5.4919855515298976e-01
      5.2180002242737789e-01 1.1848640505513728e+00
      5.2224714058666721e-01 6.8216004881970949e-01
      5.3781403201726508e-01 1.1906444448645643e+00
      7.1996555836712939e-01 8.8851128421646874e-01
      -4.7421172741228999e-02 -4.8740727629662661e-01
      -2.3020060208717319e-01 9.1058096965018442e-01
      -3.0103300743014932e-01 3.3965165096778416e-01
      1.1766181125546608e-01 4.0821182102376274e-01
      3.6398217061062310e-01 1.4890509998854706e-01
      -1.4924674609617056e-01 9.2885188076881731e-01
      2.8574015619730864e-01 2.3796168393266673e-01
      1.5195352717905616e-01 -5.1392379135144783e-01
      -5.9092008462795165e-01 7.8077706011450032e-01
      2.0955997236828758e-01 -1.4733879788061313e+00
      -1.9253006189883735e+00 1.4767211414485229e-01
      6.0282821435677114e-01 5.6044116180427173e-01
      5.9469131342237491e-01 3.1473132802302117e-01
      8.0168386168519998e-02 2.5450901666543552e-01
      -3.5353147425278053e-01 8.6297545983073620e-01
      1.7871209070651486e+00 -6.5807845690786945e-02
      -1.8010134797224828e-01 -1.2588444725683853e-01
      5.7846642460438892e-02 4.1983508750584048e-01
      -4.4409214978712447e-01 1.0741840298090159e-02
      2.0046233317228809e-01 5.1794011009427143e-01
      1.6456368386028544e-01 1.1224628155125951e-01
      3.7867323755637172e-01 -2.5114838388049082e-01
      2.8243256441853615e-01 3.5507958943153811e-01
      7.2007179295005275e-01 1.4022312505527534e-01
      8.4420373316900199e-01 -1.8310261327921704e-01
      4.4941860293553287e-01 7.9539490064272900e-01
      1.0769934792323046e+00 3.4702602325906534e-01
      1.1304975297523896e+00 1.0284417317960159e+00
      1.3549919505174723e+00 6.3694228678950726e-01
      1.4841048024852319e+00 -9.6427830336288559e-02
      1.1321079741263782e+00 1.0268699833056463e+00
      3.0099629125655741e-01 3.3230529441965462e-01
      3.0747896505114440e-02 8.0277113776257780e-01
      3.2312429747826921e-01 9.6033079206146565e-01
      1.6990271576749144e-01 4.4534721170141572e-01
      -7.8186960202016365e-01 -4.3981554173174053e-01
      -6.6101243605315230e-01 -8.5733299582894751e-01
      -3.7038713076913532e-01 -9.4642397747458840e-01
      -1.2599489996127646e+00 -2.9361456334492575e-01
      -6.7983119520710822e-01 -1.3878030066027569e+00
      -5.7513560607496450e-01 1.2995243647286922e-01
      -4.1556296996895464e-01 -7.3546629939602504e-01
      -1.2671226511062686e-01 -1.8097051648087337e+00
      -4.0286096114487696e-01 -3.1674208699695328e-01
      -1.0419907238191088e+00 -1.0258159707044414e+00
      -1.5726356585257222e+00 -9.5567756383651647e-01
      -1.2731595337947590e+00 -1.1510846778512107e+00
      -1.5655880875672481e+00 -6.9433703900948640e-01</_></weights></opencv_ml_ann_mlp>
</opencv_storage>
