<?xml version="1.0"?>
<opencv_storage>
<opencv_ml_ann_mlp>
  <format>3</format>
  <layer_sizes>
    576 4 4 4 4 26</layer_sizes>
  <activation_function>SIGMOID_SYM</activation_function>
  <f_param1>6.6666666666666663e-01</f_param1>
  <f_param2>1.7159000000000000e+00</f_param2>
  <min_val>-9.4999999999999996e-01</min_val>
  <max_val>9.4999999999999996e-01</max_val>
  <min_val1>-9.7999999999999998e-01</min_val1>
  <max_val1>9.7999999999999998e-01</max_val1>
  <training_params>
    <train_method>BACKPROP</train_method>
    <dw_scale>1.0000000000000000e-03</dw_scale>
    <moment_scale>0.</moment_scale>
    <term_criteria>
      <iterations>128</iterations></term_criteria></training_params>
  <input_scale>
    1.2646200195069767e+01 -2.1944958363240290e+00
    2.1253819257567844e+01 -2.3374482991587517e+00
    1.7407238018969700e+01 -2.0702156028068437e+00
    2.3482197791753613e+01 -1.8127308893802172e+00
    1.3449838785078230e+01 -2.1545596641673712e+00
    1.9374636205000581e+01 -1.4226678604738277e+00
    1.5676669733746532e+01 -1.7759067587052930e+00
    1.9349540887364526e+01 -1.9149158059517690e+00
    1.1600134219525691e+01 -1.9119903179610669e+00
    1.2176732796516456e+01 -2.6068150567302810e+00
    1.4582331358668922e+01 -2.1018282783660229e+00
    1.6411543531213930e+01 -2.2003522011053005e+00
    2.0404345039765239e+01 -1.6537985968489581e+00
    1.3179084301437806e+01 -2.1538623802212138e+00
    2.0613132888873931e+01 -1.5817971487045472e+00
    1.6285114890811521e+01 -1.9273655252285180e+00
    1.5413868391595525e+01 -1.7050864118474114e+00
    1.1612025331004515e+01 -2.1920970212767337e+00
    1.1122257790782795e+01 -2.5694150327932781e+00
    1.5708452313577176e+01 -2.2966691742234353e+00
    1.7357347023199758e+01 -2.4471525654224107e+00
    2.2568361428541618e+01 -2.0630159760959206e+00
    1.4420572060265902e+01 -2.4826327946370519e+00
    2.2153415450154004e+01 -1.8058522381410484e+00
    1.6789604878422093e+01 -2.1015819438279477e+00
    1.6911522589675137e+01 -1.9991940187896935e+00
    1.1472702244349529e+01 -2.4177716561394478e+00
    1.1346959521752593e+01 -2.9514916754262743e+00
    1.0489959334433793e+01 -1.9453552881137308e+00
    1.1581647278038236e+01 -1.9750748318535374e+00
    1.4016515953079049e+01 -1.5325833253912424e+00
    1.2230692406065444e+01 -2.2379691033709328e+00
    1.6170077709444087e+01 -1.6269527002508908e+00
    1.6428150906198894e+01 -2.3138298319295871e+00
    1.6032986891901373e+01 -2.1932844296125467e+00
    1.1581606533139059e+01 -2.8106203992812602e+00
    1.0481639416365899e+01 -1.9859792464406201e+00
    1.2391033153311476e+01 -1.4501435873049369e+00
    1.6592822969080242e+01 -1.3123275468358784e+00
    2.3532662754629005e+01 -1.0919481048679160e+00
    1.1419740312699242e+01 -1.1444737523405006e+00
    2.0703385542492480e+01 -9.5902812710381580e-01
    1.7474508765366931e+01 -1.1926899981891668e+00
    1.3551179701029801e+01 -1.1439539521922035e+00
    1.0765932700477371e+01 -1.7894662432318236e+00
    1.0942586123016600e+01 -2.4241573879609488e+00
    1.2041756584017220e+01 -1.6135845954151795e+00
    1.6197078945739538e+01 -1.3529510633437012e+00
    2.2077658330729037e+01 -1.1010817367484249e+00
    1.1615169882126995e+01 -1.1636272004313004e+00
    1.8815104151669292e+01 -9.4651057535018823e-01
    1.5544828893549733e+01 -1.1767924852160652e+00
    1.5088775029236951e+01 -1.3457232515505877e+00
    1.1807430509542730e+01 -2.1965296712412474e+00
    1.0432597252995258e+01 -2.9756815249057578e+00
    8.5847389494183748e+00 -1.8574075747932470e+00
    9.9431814718828360e+00 -1.5296670897539657e+00
    1.9254760054452774e+01 -1.4983180765735262e+00
    1.2052799267157480e+01 -1.3253299252391473e+00
    2.0950930496873280e+01 -1.2141418464909204e+00
    1.7007483130380379e+01 -1.4526302803822795e+00
    1.2449539348912626e+01 -1.5015207684357514e+00
    1.0234193183164660e+01 -2.5715567006862017e+00
    1.1223503762965841e+01 -3.2875952292750061e+00
    9.5495698995703417e+00 -2.0956896870817441e+00
    1.1278471687092203e+01 -1.5327037589088077e+00
    1.9932958834681543e+01 -1.5094155607255964e+00
    1.1886401070469928e+01 -1.3013665209754610e+00
    1.9167734483625026e+01 -1.2578975128536016e+00
    1.4415070456080933e+01 -1.3893267068008819e+00
    1.2715826700165621e+01 -1.6370604611832438e+00
    1.0664055262430550e+01 -2.8753190789685874e+00
    9.0829432948216962e+00 -1.9422300250494160e+00
    1.0665372331256563e+01 -1.3365082763107621e+00
    1.9188296511529174e+01 -1.1490720754059816e+00
    2.0298266636206719e+01 -7.4459499644808202e-01
    1.3226570111337413e+01 -8.8855067151026967e-01
    2.0905617098304067e+01 -7.1888074263578094e-01
    2.2042166604409793e+01 -1.0016736367831596e+00
    1.7502219585613989e+01 -1.1839282471444379e+00
    8.5212858990821871e+00 -1.6059183217572728e+00
    9.7378332970184367e+00 -2.2097533890673127e+00
    8.5658456290529017e+00 -1.4454933993197676e+00
    1.0200038030342256e+01 -1.0877554232442599e+00
    1.2704494044993584e+01 -6.9480297830478122e-01
    1.1610685093127838e+01 -8.7963040777289825e-01
    2.2867197087935189e+01 -7.9172951969385519e-01
    2.5550770237668193e+01 -1.1186342041576900e+00
    1.5039459526972641e+01 -1.1652047769434404e+00
    8.6991172153884389e+00 -1.6776230114359578e+00
    1.0618419328596394e+01 -3.0266981943596951e+00
    8.4905826321669799e+00 -1.7429061694218200e+00
    1.0457124117409686e+01 -1.1949029422588346e+00
    1.8640725547748019e+01 -9.8948672489321710e-01
    1.4164184860321692e+01 -8.9220005459354512e-01
    1.4829837901626838e+01 -6.8013764354447848e-01
    1.4153042875893030e+01 -8.8551287883977070e-01
    1.1011567245744864e+01 -1.2081101117076094e+00
    8.5653527139554821e+00 -2.0067300645134116e+00
    1.1642909356827518e+01 -3.3982469320763262e+00
    8.7534598262340850e+00 -2.1453798903562946e+00
    8.4248308582380584e+00 -1.3991714946087745e+00
    1.3743270601683603e+01 -1.0518131042585674e+00
    1.2852850620624762e+01 -9.2201639713252759e-01
    2.1482822404300190e+01 -8.3818919435178851e-01
    2.2813106187363015e+01 -1.1537894166637357e+00
    1.1037423380693845e+01 -1.2103384621368891e+00
    8.4946085157144928e+00 -1.9936225235373648e+00
    1.1219828422470689e+01 -2.5559135980073857e+00
    1.2072099659105934e+01 -2.7751525300445810e+00
    1.2595443810226104e+01 -1.7729084913728481e+00
    1.2497475271021088e+01 -1.2070514371652128e+00
    9.4656319874974333e+00 -1.2331927772674591e+00
    8.8401622991512152e+00 -1.0503552580441680e+00
    1.0129749202417829e+01 -1.1474627956114352e+00
    1.2487654017451044e+01 -1.1616190986461754e+00
    1.0322134816807084e+01 -1.5772397952746620e+00
    9.1520232011543250e+00 -1.9114176321825134e+00
    9.1333364928894802e+00 -1.8444022267431930e+00
    1.2563637984312090e+01 -1.3791216030212083e+00
    1.7252014118033234e+01 -1.0952062560674192e+00
    1.1369043893202178e+01 -1.2586099139061973e+00
    1.0196791548230536e+01 -1.0859084934210592e+00
    1.0898378990903856e+01 -1.0828385797881870e+00
    1.3464657636199529e+01 -9.7707793124159958e-01
    1.1445325334538175e+01 -1.4968129697332428e+00
    1.0841582560697653e+01 -2.3794230461927866e+00
    1.0817621142835192e+01 -2.4548440213332632e+00
    1.2661137478556704e+01 -1.8339359315649033e+00
    1.4595477293970749e+01 -1.4117816781304819e+00
    9.9404756596220416e+00 -1.2084313719379991e+00
    9.5800818712609246e+00 -1.0498047564503890e+00
    1.2525811077182995e+01 -1.0744162941759752e+00
    1.3281313469228397e+01 -1.0226226803075580e+00
    1.1886295882767502e+01 -1.5592023723356130e+00
    7.9671076428851784e+00 -1.4106896985459556e+00
    8.5172447796800768e+00 -1.5081085405699937e+00
    1.1066856151383256e+01 -1.3373179425939592e+00
    1.5591813509250446e+01 -1.2436003883053657e+00
    1.0173983346908630e+01 -1.2705069810405039e+00
    1.0187060666061610e+01 -1.1247631797033848e+00
    1.1320998253467556e+01 -1.0689062920635513e+00
    1.1752754240518925e+01 -8.9549773729609727e-01
    1.0334079944755668e+01 -1.2344387139634705e+00
    8.7578714688853765e+00 -1.6166607939147419e+00
    1.4695752804583760e+01 -1.5471952341690882e+00
    1.8194246555273068e+01 -1.5205385951040378e+00
    2.1553960030477583e+01 -1.2646068989906050e+00
    1.4542474066900052e+01 -1.4359077624296090e+00
    2.2719617429554120e+01 -1.1941350271600353e+00
    1.7142200761741435e+01 -1.2761581320407334e+00
    1.1852738317965873e+01 -1.1556186275611813e+00
    8.4771689047977112e+00 -1.5681892683930638e+00
    9.4776661492146275e+00 -2.0814176320003561e+00
    1.2703106158282512e+01 -2.1561409967222249e+00
    9.2505337407525001e+00 -1.4631606473433423e+00
    9.8588086471116512e+00 -1.0893786375583627e+00
    9.6270802412853662e+00 -1.2157368097102406e+00
    1.2679174280325306e+01 -1.0342389826322360e+00
    1.4483517145762764e+01 -1.3017065069452565e+00
    1.0862917889228873e+01 -1.2594482524151158e+00
    8.9491321210104040e+00 -1.8866660510647846e+00
    9.3513243628732159e+00 -1.6076706675162351e+00
    1.2950634943643720e+01 -1.3908784741493969e+00
    1.2777737819831286e+01 -1.3571231121193015e+00
    1.7599948199218137e+01 -1.2544384173813166e+00
    1.3373538479058080e+01 -1.5605847041018317e+00
    1.8374268549957922e+01 -1.1913757332175574e+00
    1.6826225819056226e+01 -1.4444633658540142e+00
    1.3398694169158031e+01 -1.3477700957700562e+00
    9.3200753506589660e+00 -1.7049253663302586e+00
    1.0331393551589027e+01 -2.2797136958355106e+00
    8.8769437604951147e+00 -1.6464184490590597e+00
    7.8390005928572020e+00 -1.4317306631224993e+00
    7.9081599015069592e+00 -1.2480132732058631e+00
    8.9288186850707785e+00 -1.4105576149670835e+00
    9.6371517370889386e+00 -1.1278759664743945e+00
    1.1239854810834913e+01 -1.3279435897228014e+00
    1.1837957982840486e+01 -1.4552808990663690e+00
    9.8142955694967355e+00 -2.1148259576796833e+00
    1.2940706825218152e+01 -3.0412526891564915e+00
    1.1831149138834661e+01 -2.4101530147838135e+00
    1.0333564967142570e+01 -1.5428651862375959e+00
    1.6562785590901253e+01 -1.3332693723990485e+00
    2.0769260199757099e+01 -1.2489154372240832e+00
    2.3321699429566770e+01 -1.1590338897156185e+00
    1.6625680665891494e+01 -1.1533344500050928e+00
    1.1383295566867332e+01 -1.3477514407026576e+00
    9.5614358756083426e+00 -1.9060013591264136e+00
    1.3497311695813600e+01 -3.0225902281954413e+00
    1.0978731473746162e+01 -2.0994468712180536e+00
    1.1021251124846069e+01 -1.4614961922596088e+00
    2.0163962641157593e+01 -1.4367560540957809e+00
    1.8884396747799325e+01 -1.1777208230853489e+00
    2.0116826767877178e+01 -1.1811934910182700e+00
    1.5558811027419081e+01 -1.2612745952252944e+00
    1.2252796059980984e+01 -1.4570658185925265e+00
    1.0410824126641121e+01 -1.9056470044882912e+00
    1.3828545416990902e+01 -3.3879287858005185e+00
    1.1127485251891423e+01 -2.3717132821477125e+00
    9.7528867411275524e+00 -1.5864980449908204e+00
    1.3203532563765563e+01 -1.2871222870790680e+00
    1.5097678081297261e+01 -1.1706212760245853e+00
    1.6847950666049226e+01 -1.0829887986902280e+00
    1.4701813938013677e+01 -1.1733952885260874e+00
    1.2708939718055161e+01 -1.5365134609827682e+00
    1.0773119652150811e+01 -2.2922177115979609e+00
    1.2435578342957536e+01 -2.8761339792793890e+00
    1.1336280043708594e+01 -2.2050546350979072e+00
    1.1200469135751515e+01 -1.5997314925996144e+00
    1.5702334684370976e+01 -1.3648650592710958e+00
    1.5673584811750283e+01 -1.2793128167617445e+00
    1.4425855282042987e+01 -1.2047236090114650e+00
    1.3164996498350742e+01 -1.4077714575088505e+00
    1.3091241885892636e+01 -1.7922278530249731e+00
    1.1064951043162969e+01 -2.2402685951310919e+00
    1.2926484672799582e+01 -2.3601432870072281e+00
    1.2166319775941208e+01 -2.4195820374575550e+00
    1.1606008211361191e+01 -1.9659715228217223e+00
    1.3680222367609774e+01 -1.5378183956756941e+00
    1.7705542304811683e+01 -1.4236408746042930e+00
    1.5964592039968194e+01 -1.1371909410391745e+00
    1.3911616762475500e+01 -1.1976337016502534e+00
    1.2023149223897491e+01 -1.3382692302860437e+00
    1.1490871307417860e+01 -1.7314917696571892e+00
    1.2907498588698900e+01 -2.1517803727480955e+00
    1.1608464002373204e+01 -2.4250778640200887e+00
    1.0599388433002929e+01 -2.1153749908750643e+00
    1.2818142517916032e+01 -1.6479020926336636e+00
    1.6304219230646353e+01 -1.4803447854596508e+00
    1.7422712162985974e+01 -1.1582413189798659e+00
    1.4434072301686507e+01 -1.1264750454252426e+00
    1.2346565901279163e+01 -1.2148931432213197e+00
    1.1801494302729438e+01 -1.5486560962535081e+00
    1.4115551678945437e+01 -2.6342830247152320e+00
    1.4539720698690523e+01 -3.1145829277411665e+00
    1.1857200194937226e+01 -2.4772971417230898e+00
    1.2647624095145355e+01 -1.9943069707346974e+00
    1.4304490933792392e+01 -1.7398633055220314e+00
    1.3881427278247946e+01 -1.2983710230963030e+00
    1.3289115776570851e+01 -1.3298085770735686e+00
    1.2660189908378392e+01 -1.4320137379329996e+00
    1.2134741312495400e+01 -1.8199266786465240e+00
    1.1895687914189409e+01 -2.1023480025531383e+00
    1.2804941033712362e+01 -2.9504551681782067e+00
    1.2274287298613746e+01 -2.8546032510700217e+00
    1.1092062211776785e+01 -1.8296815762291327e+00
    1.1913572417169190e+01 -1.5403700166317305e+00
    1.4831123184272872e+01 -1.3253924359795972e+00
    1.3884492086221805e+01 -1.2051557984741947e+00
    1.3581030455295428e+01 -1.2291963719091610e+00
    1.2124368966617245e+01 -1.5470108533449791e+00
    9.4506306693448128e+00 -2.0252442709839915e+00
    1.0584995489521772e+01 -2.6851204172008547e+00
    9.8641973901123166e+00 -2.0005053597158247e+00
    1.2136162916243848e+01 -1.1353061985389423e+00
    1.1605260071080300e+01 -1.1444448047928732e+00
    1.0616845341539795e+01 -8.9323514632854972e-01
    1.1461754881972185e+01 -9.9008498634810826e-01
    1.5550611738531801e+01 -1.0967764862162486e+00
    1.2107009251666211e+01 -1.4592963376839438e+00
    1.0281082681605767e+01 -2.3498804817145724e+00
    9.8954391329734701e+00 -2.4580287341931490e+00
    1.2103265462662149e+01 -1.9525103829754147e+00
    1.6512894994650754e+01 -1.0800305546144053e+00
    1.4124799793086236e+01 -1.2696743215384485e+00
    1.2058572950336949e+01 -1.0330873476613656e+00
    1.0031984783069554e+01 -1.1495078139808896e+00
    1.2926898702351007e+01 -1.1594972539265234e+00
    1.1209060493199070e+01 -1.7246300711871190e+00
    1.0223066992136909e+01 -1.9588910188644439e+00
    1.0558307118881611e+01 -2.4497555921794416e+00
    1.0220636118792804e+01 -1.8861347427731221e+00
    1.3105884510665494e+01 -1.0316013840354594e+00
    1.2807613146034406e+01 -1.1325184077371058e+00
    1.2169104385829163e+01 -8.4844542292883518e-01
    1.3105289265704640e+01 -1.0757272049878819e+00
    1.7129577743006262e+01 -1.1507317556201284e+00
    1.2240242773368180e+01 -1.3811081436461536e+00
    1.0352646454785754e+01 -2.1005451877466137e+00
    9.6709924097041355e+00 -1.9291607361680843e+00
    1.0337688701540474e+01 -1.4759427742268738e+00
    1.5256114816531555e+01 -9.3576629358868113e-01
    1.4701201862305327e+01 -1.2473620504608194e+00
    1.2925430247622582e+01 -9.1723923624253778e-01
    1.1168705234951791e+01 -1.1274880656800950e+00
    1.4506402700373108e+01 -1.2264451254809203e+00
    1.1504252983084577e+01 -1.6692676038208860e+00
    1.0914285111622220e+01 -1.6068618242427251e+00
    1.5647130545901767e+01 -1.6361423740900896e+00
    1.6600198058333504e+01 -1.9074833763879580e+00
    2.4371365798894093e+01 -1.9752326904144499e+00
    1.4089445924891457e+01 -2.4841758850315236e+00
    1.7405792406047794e+01 -1.5148035640379878e+00
    1.6113800768399898e+01 -1.8572680060575222e+00
    1.5896309338345572e+01 -1.5288411083886457e+00
    1.0781800987101258e+01 -1.5711718516504685e+00
    1.0616949571848167e+01 -1.9379524992107164e+00
    1.4227286364053199e+01 -2.0383181364116765e+00
    1.3972403568966605e+01 -2.4527119913747106e+00
    1.0764313928483695e+01 -1.6560654724763142e+00
    1.3349797164063455e+01 -3.1297178769083085e+00
    9.7275730128073992e+00 -1.7351699916267462e+00
    1.0973300854350525e+01 -2.1120693758481637e+00
    1.1440062589016037e+01 -1.7072446334440696e+00
    1.0263961642902068e+01 -1.8444731084514050e+00
    1.1296665000047172e+01 -1.6184101925410221e+00
    1.5511688132013948e+01 -1.6284306852612003e+00
    1.5163518415314293e+01 -1.7861489898017615e+00
    2.4371568531342540e+01 -1.8771421928589249e+00
    1.4782590248940483e+01 -2.4727526462807337e+00
    2.0763337002754170e+01 -1.6600084718126236e+00
    2.0688149614491280e+01 -2.2884583302401529e+00
    2.1620888298535871e+01 -1.8672619081434081e+00
    1.1566800059306244e+01 -1.6018620542853763e+00
    1.1470090469958738e+01 -1.9878124091540621e+00
    1.3481613371923531e+01 -1.8063799718550289e+00
    1.3135198788643464e+01 -2.1013912674312052e+00
    1.2005169777569691e+01 -1.5386056565663675e+00
    1.3456425065791297e+01 -2.8459481516840066e+00
    9.8452252814188199e+00 -1.4645789434591741e+00
    1.1916110727190368e+01 -2.2419163818334340e+00
    1.4390469820816806e+01 -2.0105717869899800e+00
    1.1882448255007056e+01 -2.0601394095378489e+00
    1.1790886607519123e+01 -2.7374301464147672e+00
    1.0901609644185950e+01 -1.9433653662302122e+00
    1.2390633577068130e+01 -1.7470057877302785e+00
    1.7689540828345599e+01 -1.4919201312872472e+00
    1.2733859689505223e+01 -1.6213472561397630e+00
    1.2691373603251193e+01 -1.2641970182768145e+00
    1.1591106174208498e+01 -1.6340177379234884e+00
    1.0872894167537273e+01 -1.6372733019298393e+00
    1.1031772759404618e+01 -2.3932316199217110e+00
    1.1556297198423067e+01 -2.6461127567626912e+00
    1.2350503768843794e+01 -2.2302883372854176e+00
    1.2699388545930491e+01 -1.9986808678078303e+00
    1.5384003274142581e+01 -1.4311029342950190e+00
    1.2486180551122386e+01 -1.5891685108395286e+00
    1.6048038346547781e+01 -1.4756149104963960e+00
    1.1154393747064919e+01 -1.6730002324439817e+00
    1.0720758300708114e+01 -1.7533020670994555e+00
    1.0893641415040268e+01 -2.3879242513768606e+00
    1.1372192251116095e+01 -1.9567998237824273e+00
    1.1306290380787489e+01 -1.3798575096118548e+00
    1.3024391223889067e+01 -1.3640291071895123e+00
    1.7768935765153284e+01 -1.2064364145472910e+00
    1.2341854527797651e+01 -1.4247487856219503e+00
    1.5538162857264080e+01 -1.1527572292393853e+00
    1.3443304780902523e+01 -1.4973497526429100e+00
    1.3621046217236145e+01 -1.5933873233459730e+00
    1.2005730124228403e+01 -2.0619450263592678e+00
    1.2096740444510981e+01 -2.2406833249823710e+00
    1.1411493892216447e+01 -1.5954361137445607e+00
    1.1132164857704016e+01 -1.5251874333062159e+00
    1.2329734512528713e+01 -1.0734520028100853e+00
    1.0967109773122672e+01 -1.3187987120538320e+00
    1.7675713494181171e+01 -1.2655887971523103e+00
    1.4797013193991845e+01 -1.6342351672238287e+00
    1.3023725728557459e+01 -1.6024879763885871e+00
    1.2154364875506349e+01 -2.2385271937968518e+00
    9.5520283358463747e+00 -1.5659341401545481e+00
    7.9939890259641952e+00 -1.7472510160736123e+00
    8.8676603288408185e+00 -2.2775268714578907e+00
    9.2713120193290770e+00 -1.4996853176423881e+00
    1.1033636991653237e+01 -1.6159892206201338e+00
    1.9488481738985335e+01 -1.3764307586467162e+00
    1.6222694200290121e+01 -1.4281600889935131e+00
    1.4000235258857149e+01 -1.2791990639440194e+00
    1.0002613685533579e+01 -1.3331023072467727e+00
    1.0014067917224999e+01 -1.4627674571494658e+00
    9.1062934248796115e+00 -1.8210977213301895e+00
    1.0073447272045664e+01 -2.4253842524506237e+00
    1.0847124144474289e+01 -1.3562101372056095e+00
    1.1372215239631199e+01 -1.5218198830883716e+00
    2.0639495914391002e+01 -1.2275730246774035e+00
    1.4618487591897111e+01 -1.2169248374427422e+00
    1.4550468411215519e+01 -1.2060733796959431e+00
    1.0742418891903666e+01 -1.2834008193710136e+00
    1.1893074948466507e+01 -1.6075325640262867e+00
    9.4166853347146944e+00 -1.7418294302371484e+00
    9.0449093933548390e+00 -2.1463999665348434e+00
    1.0385054668216863e+01 -1.3176889064917057e+00
    1.0830310218100717e+01 -1.5355873002294913e+00
    2.1046582700775350e+01 -1.3045025004385931e+00
    1.6507603794943957e+01 -1.3080016403633550e+00
    1.7580396870404321e+01 -1.3353901326401041e+00
    1.2128147178830853e+01 -1.3957538168273294e+00
    1.1055546982988764e+01 -1.3240353668119644e+00
    1.0036038407597911e+01 -1.3692338714824224e+00
    9.2398835200435947e+00 -1.7552512106570477e+00
    1.0475510834517474e+01 -1.2571740463116763e+00
    1.0578877444849068e+01 -1.5195280400335269e+00
    1.9703108503301458e+01 -1.1645780134330617e+00
    1.5013282658176877e+01 -1.1943016536784627e+00
    1.7087452646383689e+01 -1.2431514534987669e+00
    1.1308073503871586e+01 -1.2513748156833275e+00
    1.3023888210756123e+01 -2.2257128674011035e+00
    1.1447307250278287e+01 -1.9728982227434366e+00
    1.1424819147150027e+01 -2.1184628785592055e+00
    1.2251321701844248e+01 -1.3407841380368792e+00
    1.2336327673256370e+01 -1.9196474595042696e+00
    1.8782524992151664e+01 -1.5350675031997800e+00
    1.4326153828501621e+01 -1.7887334222374696e+00
    1.4847787585879527e+01 -1.6638654432219868e+00
    1.3985380222571257e+01 -2.2240960585915883e+00
    1.2948196077231389e+01 -2.4251974315905849e+00
    1.2378647738040678e+01 -2.1329187735786332e+00
    1.2370997651978705e+01 -2.2632158396717816e+00
    1.6085560473035208e+01 -1.6071376927618386e+00
    1.1940681957766060e+01 -1.8906980612098452e+00
    1.4292370309241155e+01 -1.4091143258767249e+00
    1.2914669105559264e+01 -1.7640614002057244e+00
    1.7076931555332120e+01 -2.0624608275807619e+00
    1.5401794753756963e+01 -2.7111702182344630e+00
    1.1621667309155917e+01 -1.9286420782245295e+00
    1.2491522752447082e+01 -1.9160441840693483e+00
    1.0967656780051966e+01 -2.0340378648507476e+00
    1.1612072977397782e+01 -1.4437214713662212e+00
    1.2560220019584420e+01 -2.1377052316701119e+00
    1.8221706022998557e+01 -1.5458059547050904e+00
    1.4372030342611469e+01 -1.7582583689632749e+00
    1.7856960336918959e+01 -1.9038466935462515e+00
    1.2192861820373507e+01 -1.8832186241639259e+00
    1.2009747125683347e+01 -2.2101454252758153e+00
    1.1980610184295291e+01 -1.8836529521846497e+00
    1.1898499293170369e+01 -2.1039903768688055e+00
    1.2324557112988666e+01 -1.4950386860301925e+00
    1.2189594167154439e+01 -2.1136386228858619e+00
    1.5956280722537116e+01 -1.5608996682007916e+00
    1.3720716006706947e+01 -1.8752615132562489e+00
    1.7296200799487156e+01 -2.0812436429163843e+00
    1.3394213832650255e+01 -2.3020618578415144e+00
    1.3822614029217974e+01 -2.3324121763849903e+00
    2.2670806493822749e+01 -2.6501154667299969e+00
    1.8651478737150736e+01 -2.7720207780809827e+00
    1.8229609171674085e+01 -1.7161111680950696e+00
    1.5212095542501773e+01 -2.9655397610742065e+00
    2.0425020087055554e+01 -1.6730760317433722e+00
    1.9669320313452058e+01 -2.5040433062394345e+00
    2.1995932734581213e+01 -2.2540351900716415e+00
    1.3649169128153460e+01 -2.2370339488827766e+00
    1.4221406764834850e+01 -2.7960793916116931e+00
    1.6912581755302515e+01 -2.5677393611670398e+00
    1.5462754987263809e+01 -2.8046577688638683e+00
    1.4266993538843424e+01 -1.6987969792108544e+00
    1.4797508443238225e+01 -3.1196112684240869e+00
    1.5232786580268629e+01 -1.6492037484179038e+00
    1.5345249437237685e+01 -2.3885504392966541e+00
    1.7889230301217687e+01 -2.2585710803387564e+00
    1.3994858002316350e+01 -2.6617682518176675e+00
    1.3808638832973736e+01 -2.4353063880614187e+00
    1.8470012971291808e+01 -2.4415172720314127e+00
    1.7499147776751173e+01 -2.8179363372361159e+00
    1.7344472038338232e+01 -1.7612972237059108e+00
    1.5880122819349948e+01 -3.2042230700046392e+00
    1.8983417211248582e+01 -1.6136372350838297e+00
    1.8773346564854307e+01 -2.5272632762604164e+00
    1.8587381468941121e+01 -2.1655533186817513e+00
    1.3558908785369152e+01 -2.3261479020242319e+00
    1.4490923273487875e+01 -2.8346586594200942e+00
    1.3912080513362419e+01 -2.2757543973816436e+00
    1.5356623942919429e+01 -2.8779506353782613e+00
    1.4537334439335662e+01 -1.7884262644569024e+00
    1.6302551479512143e+01 -3.5210633861726861e+00
    1.7748934371852211e+01 -1.8140930239561484e+00
    1.6665065636167689e+01 -2.7085711545466076e+00
    2.0198956610773195e+01 -2.7220366606593598e+00
    1.4271320439073925e+01 -2.6974183379489340e+00
    1.0246950012664737e+01 -1.9207559332252782e+00
    1.1400668538274578e+01 -1.5517135958549446e+00
    1.2973292731759082e+01 -1.8452463993703223e+00
    1.6435620126536460e+01 -1.3103464252239236e+00
    1.1432447993683166e+01 -1.9165812088888547e+00
    2.0572442266210928e+01 -1.3482429808461784e+00
    1.4437739710661196e+01 -1.6761579797445167e+00
    1.7501253971575206e+01 -1.7656621544832782e+00
    1.0535815918029842e+01 -1.8364560777540400e+00
    1.0995655895231822e+01 -2.2749115494206467e+00
    1.1410331256673500e+01 -1.7218721900586715e+00
    1.2869419658393854e+01 -1.9376973198227856e+00
    1.7098560465877000e+01 -1.4371658755117238e+00
    1.1722163601375701e+01 -1.9463075543652324e+00
    1.6923730398320398e+01 -1.2680853698634476e+00
    1.3228098053654010e+01 -1.6294311537012298e+00
    1.5570754816983575e+01 -1.7542615318900108e+00
    1.0853515564264924e+01 -2.0734566449077771e+00
    1.2763848034777917e+01 -2.4492608411343397e+00
    1.1461310895182429e+01 -1.8406986749936158e+00
    1.2696904805011926e+01 -2.1019594575693192e+00
    1.3842148701370427e+01 -1.3152679054982632e+00
    1.2457385941913090e+01 -2.4299739827462123e+00
    1.6330719606384790e+01 -1.3163845286162787e+00
    1.1878751390662238e+01 -1.6147504734401665e+00
    1.2435834064947848e+01 -1.4947694854060485e+00
    1.1758775816068704e+01 -2.0664108632492648e+00
    1.1844633453289157e+01 -2.4041892329936259e+00
    1.0950505549944216e+01 -1.7370978541616855e+00
    1.2487348559973361e+01 -2.0513652396058046e+00
    1.4113640496010913e+01 -1.3099167840656076e+00
    1.2618274008892136e+01 -2.3308607875065928e+00
    1.9562524738015362e+01 -1.5234385776550841e+00
    1.3016495627518710e+01 -1.7445895880362814e+00
    1.4198471101814983e+01 -1.7627990639569839e+00
    1.1809473742145597e+01 -2.2489505120469997e+00
    9.9961412009158348e+00 -1.5730065704513641e+00
    1.1070951468044617e+01 -1.3088120385780699e+00
    1.0388836808277755e+01 -1.4956688690043247e+00
    1.0812919016611581e+01 -1.1123532610525055e+00
    1.0219552698549665e+01 -1.6554965745754844e+00
    2.0368364857197811e+01 -1.1822184437041445e+00
    1.4107819214004152e+01 -1.3058924352087196e+00
    1.6872270622900441e+01 -1.4897189029851639e+00
    9.9721938037895281e+00 -1.5615856226091829e+00
    1.0837293114891164e+01 -1.5737420858887792e+00
    1.3337785086555417e+01 -1.5573571704734981e+00
    9.8748706178042909e+00 -1.9030716209833236e+00
    7.6807382054294289e+00 -1.2798453704163184e+00
    8.6133909815481289e+00 -1.8993193515347069e+00
    1.8618615136081726e+01 -1.3036872512513979e+00
    1.4064583367772480e+01 -1.3588479980966783e+00
    1.4561970385804736e+01 -1.3710698018280016e+00
    1.0656679537895570e+01 -1.5281829741427972e+00
    1.0025293107547872e+01 -1.5831701528367681e+00
    1.5665129691293041e+01 -1.6600184234344861e+00
    1.1945627571155187e+01 -1.7243400890712024e+00
    9.9920723321498208e+00 -1.1976832106478930e+00
    1.1347771119276540e+01 -2.0590671496558826e+00
    2.3022878181153942e+01 -1.3916373751407298e+00
    1.4729275527517833e+01 -1.4120563573237130e+00
    1.1936943548744534e+01 -1.3057354522462079e+00
    9.9647871536048456e+00 -1.5537910031377729e+00
    1.0172530559609552e+01 -1.5898066981485828e+00
    1.5206267156312647e+01 -1.8794176634316679e+00
    9.4321972131673562e+00 -1.8551109907397030e+00
    7.5987347973548260e+00 -1.3647333800441011e+00
    8.6169252753019254e+00 -2.0264595709832576e+00
    1.6847978625611976e+01 -1.3654190106307691e+00
    1.3403336078690202e+01 -1.4183225936112163e+00
    1.0939585061644818e+01 -1.2901627249164784e+00
    9.7893626219533321e+00 -1.5254684599906967e+00
    1.3318006508764682e+01 -2.2317310909222110e+00
    1.3236299855764692e+01 -1.8152609792402816e+00
    1.4253927653699790e+01 -2.1629746549507485e+00
    1.2764032401000451e+01 -1.3984253354428549e+00
    1.3713728284911845e+01 -2.5496303457302778e+00
    1.7339537993188511e+01 -1.5780037109801512e+00
    1.5684399948431123e+01 -2.0519727048095913e+00
    1.5850108896390431e+01 -1.8305966431245901e+00
    1.3009703086417412e+01 -2.1262316895528088e+00
    1.3286582079042384e+01 -2.3460419178177943e+00
    1.3155568936292164e+01 -1.9309102927290276e+00
    1.4061393574306914e+01 -2.3724515271422613e+00
    1.1371891479410861e+01 -1.4329622513170686e+00
    1.3498779259020989e+01 -2.6923907108698355e+00
    1.5107714797438051e+01 -1.5730613390086130e+00
    1.5361203291351639e+01 -2.1281160809260475e+00
    1.6667683977215500e+01 -2.0014618989357671e+00
    1.5505700966709911e+01 -2.5716997307873806e+00
    1.3478860916897235e+01 -2.4366849028423871e+00
    1.7582673011028660e+01 -2.3666294663662040e+00
    1.4976015780425444e+01 -2.1871809065245005e+00
    1.5327812088994900e+01 -1.6239585962237062e+00
    1.4120899022648372e+01 -2.6142439008167226e+00
    1.9597927616539717e+01 -1.8598535219281571e+00
    1.3036335533092442e+01 -1.9374504781121078e+00
    1.2825546358780137e+01 -1.7455715435292571e+00
    1.2722214070589835e+01 -2.2130531805123006e+00
    1.6211945432215423e+01 -2.9844345501006444e+00
    1.4889521027127076e+01 -2.2240621590743501e+00
    1.3771496843974685e+01 -2.3632766027470189e+00
    1.1887924478271307e+01 -1.5641775923773245e+00
    1.3907385267998041e+01 -2.7837241090397735e+00
    1.5359072197638957e+01 -1.6649492585925576e+00
    1.5112217633038615e+01 -2.3045864236468887e+00
    1.3659594955765419e+01 -1.8792593186532642e+00
    1.3887065803226783e+01 -2.5180279165880051e+00</input_scale>
  <output_scale>
    5.2631578947368418e-01 4.9999999999999994e-01 5.2631578947368418e-01
    4.9999999999999994e-01 5.2631578947368418e-01 4.9999999999999994e-01
    5.2631578947368418e-01 4.9999999999999994e-01 5.2631578947368418e-01
    4.9999999999999994e-01 5.2631578947368418e-01 4.9999999999999994e-01
    1. 0. 1. 0. 1. 0. 1. 0. 1. 0. 1. 0. 1. 0. 1. 0. 1. 0. 1. 0. 1. 0. 1.
    0. 1. 0. 1. 0. 1. 0. 1. 0. 1. 0. 1. 0. 1. 0. 1. 0.</output_scale>
  <inv_output_scale>
    1.8999999999999999e+00 -9.4999999999999996e-01
    1.8999999999999999e+00 -9.4999999999999996e-01
    1.8999999999999999e+00 -9.4999999999999996e-01
    1.8999999999999999e+00 -9.4999999999999996e-01
    1.8999999999999999e+00 -9.4999999999999996e-01
    1.8999999999999999e+00 -9.4999999999999996e-01 1. 0. 1. 0. 1. 0. 1.
    0. 1. 0. 1. 0. 1. 0. 1. 0. 1. 0. 1. 0. 1. 0. 1. 0. 1. 0. 1. 0. 1. 0.
    1. 0. 1. 0. 1. 0. 1. 0. 1. 0.</inv_output_scale>
  <weights>
    <_>
      -4.1686239767985142e-03 8.4250168550409232e-02
      2.0031180296938102e-02 5.8855844555102191e-02
      1.7916453376194078e-02 -9.8536604394902725e-03
      -4.0308813719791788e-02 3.3831828566084111e-02
      -4.9986680817403163e-03 5.9239041532527202e-03
      1.1110472698834568e-02 4.1203668508826972e-02
      2.9187107978568272e-02 -3.0039242986588270e-02
      -1.8742186894507039e-02 -1.4236958239204197e-02
      -2.2792867348197715e-02 1.3868035543720937e-02
      2.7948596969649919e-02 2.0060835415563711e-02
      -1.2034096128956380e-03 -1.0883786006422127e-03
      3.7339638990203851e-02 -4.1829423605751211e-02
      5.5274064991300343e-04 2.1411360648285065e-02
      3.7073796074232362e-02 1.3147033792368043e-02
      3.0542414853800378e-02 -1.7423783684602814e-02
      -2.2933189977314614e-02 -4.5367024739095006e-02
      -1.1923027296115655e-03 7.4956849309994855e-02
      2.7358430349826730e-02 -3.4651221538198433e-02
      1.7016295662058561e-02 -1.4312116104957587e-02
      -2.1031356366827181e-02 3.0775509745852761e-02
      1.4755549670325782e-02 -7.0231216269017779e-02
      -5.8936720358316590e-02 1.2596703825937652e-01
      -1.1178968937919065e-02 1.7236221890747999e-02
      3.0672579292113575e-02 5.2067691057077696e-02
      -1.0297719391067033e-02 8.0837043078845134e-04
      -1.8417428873370265e-02 2.7710753152970551e-02
      -4.7537993340914395e-02 2.1832143622014417e-02
      2.8532994966732326e-03 -5.9306362976180717e-04
      -5.0168394199672624e-02 2.7499149921107628e-02
      -1.8729488451767168e-02 4.7597995821653902e-02
      -2.3165079394455924e-02 2.4355470386762699e-02
      7.3436245339056289e-03 -2.9194141570558177e-02
      4.5109610979020325e-02 -6.5171300843508792e-02
      -5.5163675861468330e-02 -9.5335732150947122e-02
      3.0706050306197406e-02 6.8574028391957982e-03
      1.5086141854414304e-03 -6.4058579173189745e-02
      -1.6200933765841807e-02 -2.1727939932985017e-02
      -9.7437177137879735e-02 -4.5772626758148312e-02
      -6.9748562021493187e-03 -4.1968665003911367e-02
      -5.0218962957783178e-02 -3.2249096856809670e-02
      -5.9812196699212689e-03 -5.7827137973428339e-02
      5.1477957615159884e-03 -4.4988466501881458e-02
      3.3346446700377140e-02 -3.9588867508342632e-02
      6.9980987289813265e-02 -6.7540273234148115e-02
      -2.9608285846507751e-02 -1.9927922881280674e-02
      4.5536520176142334e-02 3.1075224555024913e-02
      -3.3224043441684843e-02 2.2643134786446027e-03
      4.4719519636210993e-02 9.6237965831215661e-02
      -8.8815248546256775e-03 1.6886564614171228e-02
      3.6077713723738913e-02 9.3368493668276778e-02
      2.4203614851201167e-02 5.4238541077189575e-02
      -1.0228151021637094e-02 -9.9829767914807452e-02
      -4.7336260648703473e-03 3.5534521424572599e-02
      -3.6614510186300360e-02 2.6215755146258273e-02
      1.2556847662438997e-02 -7.7910675100595170e-02
      -6.6546266111660285e-02 -1.0498454558568099e-02
      -1.2887771846159560e-02 -1.0031999718764262e-01
      -7.1753933421570326e-02 6.9718395964128094e-03
      -3.6459764950883961e-02 -4.8132515308966554e-02
      -1.0678977908554472e-02 8.1888740121881659e-02
      2.1008059110019763e-02 -4.4254688426325163e-02
      7.4379432003086873e-02 1.5028061827560396e-02
      -1.0546957922603116e-02 -3.7614177441309592e-02
      1.5064386212233371e-02 6.4490293652521152e-02
      -7.6260460244939703e-03 -2.4617266305693646e-02
      2.2936444387763585e-02 -1.0116040464856299e-02
      -3.8369014824995122e-04 -4.5048360409666042e-03
      2.6466791756336098e-02 3.8836755293645962e-02
      9.0034051188312467e-02 -2.8409905657493757e-02
      -5.3047114281909421e-03 -1.2791755525332077e-01
      -6.3237224196116451e-04 -4.8417858156205022e-02
      -9.1828460656830022e-02 -7.0270077000600312e-02
      -1.5919664047279799e-03 1.6220188154613190e-02
      4.3456173963327065e-02 9.5246982559267251e-02
      3.2550100679219915e-02 2.7937687257440370e-02
      8.4821472401419767e-02 1.2512846572587363e-01
      1.2942137465607611e-02 1.0111647600683028e-01
      3.5298636309187642e-02 -4.5208582506380442e-02
      2.0681428237954991e-04 5.6488075011828634e-02
      2.5398043052342851e-02 -1.2682897669309258e-02
      -2.0488762133674555e-02 2.4475070880680634e-02
      -5.2695208527137383e-02 -3.8686139309113680e-02
      -5.0062252513375274e-02 7.0545485258690685e-02
      -2.9223427750225007e-02 1.8327307878263352e-02
      -1.0624357093883624e-02 2.4312180295349713e-02
      -4.6379879024992528e-02 1.6626848908660893e-02
      3.5368488357302878e-02 -9.0477372115849747e-02
      -7.9420187195764616e-02 -5.5001978300091563e-02
      1.6647739040833436e-02 -4.2932733410757325e-02
      -3.8194433104066276e-02 -2.8000965063618485e-02
      1.6515334574478659e-02 1.5929961631842765e-02
      6.1184442209942978e-02 -6.2616897997812898e-03
      -2.1033438088339330e-02 -7.5167441587931400e-02
      -9.5724027431465228e-02 1.7933114332194224e-02
      1.7533970507542972e-02 -6.8218482081358646e-03
      -6.8213285836838708e-02 -2.2716167721866340e-02
      -2.8923768323817598e-03 -1.0073105940567841e-02
      -4.1238999908103778e-02 2.1990910055625233e-02
      1.6358413418278645e-03 -1.7178986805651698e-02
      -9.1501662823592414e-02 -4.9276511648371935e-02
      -2.7943926260725529e-02 -2.7097843757042041e-03
      -7.0590096299466512e-02 1.7851282626241010e-02
      -1.2739330395410198e-02 -6.6533472856742182e-03
      -8.3561819925595665e-02 1.3366361933079144e-02
      3.7009899976023171e-02 -7.8147065996140519e-02
      -3.8728597585206206e-02 -1.6126510973223482e-01
      2.6008120377788737e-02 5.2318477797280119e-02
      6.2932568837270178e-02 -1.4152721254518189e-01
      -6.2827321551506502e-03 -3.0412178358456797e-02
      3.8486875818390651e-02 3.5532711194710472e-02
      1.0018923134369131e-02 6.5251286348581891e-02
      1.0851495684352974e-01 8.7855247268052550e-02
      3.3589924382830878e-02 1.4624771094443925e-01
      1.5543646391609750e-01 -6.7903354428464666e-02
      4.8805700380616109e-02 7.0158217341559512e-02
      1.2549007993729158e-01 -8.3321461601196689e-02
      -2.5079723725682731e-02 3.5227341453633036e-02
      -2.7912814485548176e-02 1.5623283909265006e-03
      -4.1733003493545820e-02 7.8074535740208964e-02
      5.9677978072785319e-02 1.3776355411147721e-02
      1.4064221118240399e-03 -1.5447644243266851e-02
      -1.7265786044558504e-02 2.0806848163140636e-02
      -7.9487142186016498e-03 -1.2356033284298538e-01
      -6.3345109199742067e-02 -5.5034974005182796e-03
      1.1834805672124115e-02 -1.1492110699753438e-01
      -2.3633467359470500e-02 -1.6608920748411918e-02
      9.3281869098895062e-03 8.0335787101907543e-04
      4.1780431162544193e-02 1.8231876255619221e-02
      -1.7565114233485828e-02 3.9088643078870002e-04
      -3.4257403767048084e-02 4.9407424805069940e-02
      2.5013469896076237e-02 2.2198495204133320e-02
      -1.0228347667881310e-01 -3.7234768986414243e-02
      3.0670823190288844e-02 -6.9222753888835226e-02
      -8.9764616663456726e-02 -4.8793233655866311e-02
      -1.4946913769350541e-02 -2.8656936172979205e-02
      -1.0507779834077428e-01 -1.7837607245784266e-02
      -8.2994765569046076e-03 -1.8439135791950209e-02
      -1.7520011798728558e-02 -2.2444125837755780e-02
      -1.4877044618396497e-03 -1.8055984901081686e-02
      -2.4669711061763612e-02 -4.5449848973242980e-02
      -3.5648840566066793e-03 -9.5076396614623110e-02
      -2.3276265180537738e-02 -7.4017858313341595e-02
      2.6792344291003811e-02 -1.3600397990032912e-02
      9.0763337406693664e-02 -6.0304083568957563e-02
      1.0415568665374814e-02 7.1659478058563580e-03
      -2.5972575143640306e-02 -1.8507976202407163e-02
      3.4282393577489509e-02 -1.9425512004631423e-02
      -8.0654380270913220e-02 -1.8127729343537452e-01
      -6.2332633258567220e-03 5.4271784859995002e-02
      4.0411694722556991e-02 4.5186541828861594e-02
      2.4742062678140650e-02 1.7726017429390999e-02
      5.6187664953647645e-02 2.2202647457991789e-02
      2.1433076416191958e-02 -2.3117610145248105e-02
      2.0159787169330270e-02 2.6959359961567154e-02
      -2.1226613467742066e-02 2.5688607997559655e-02
      5.2585576861730120e-02 8.3321875004287324e-02
      1.9081526444508640e-02 -1.6802232026091421e-02
      3.1568366570372805e-02 5.5403398304524717e-02
      1.1946972347318553e-02 -3.1005796885884142e-02
      7.2639150621267343e-02 3.3190753709398869e-02
      3.4805321258228024e-03 -8.8100703198432842e-02
      1.2046939343360664e-02 5.8759530888561312e-02
      -3.4639603283774772e-02 3.4964059395022139e-02
      -8.0274075583410459e-02 -3.6258278143646183e-02
      1.6028060575999851e-03 8.0093561572436592e-02
      -8.5540034444511331e-03 -1.1363504914298293e-01
      -2.1040265645828390e-02 8.8955971741995821e-02
      7.0289664358644879e-02 2.0007208188901920e-02
      -1.1629556497414855e-02 -1.3183615909993994e-02
      1.3344091981755521e-02 1.7985037087380879e-02
      2.3442073733629380e-02 -7.5601145485120688e-02
      -1.8057351731880225e-03 -2.3434706136972383e-03
      -1.3010223395088064e-02 -2.1557944614260666e-02
      -6.8696567882493007e-04 2.9148206904030541e-02
      -3.1809440960689501e-02 4.2094663634451725e-02
      4.7989343967349982e-02 6.6796168964479902e-02
      -8.5599435151334599e-02 -5.8641033813124485e-03
      -1.1944597353408111e-02 1.1853429710659973e-01
      -3.3049880376128354e-02 -7.2532463067366687e-02
      -6.0016874453945553e-02 9.1212351861664445e-02
      1.4854485332425024e-02 4.8410413913225071e-02
      4.5447471750350868e-02 1.8722104051098493e-02
      -3.8663701085831538e-02 1.2541054733045315e-01
      -5.9344838235961858e-02 -7.0416718960359267e-02
      -4.2513289558850219e-02 2.3129675999740078e-02
      -7.3829131311193050e-02 -4.6252999252922311e-02
      4.7749991701500578e-02 -4.3035709007016379e-02
      -1.0695385319075958e-02 -1.3211323228729668e-02
      2.8994018674187376e-02 -3.2717325215289181e-02
      2.2784949157735920e-02 4.3533873832345825e-02
      1.8290422255625182e-03 -1.4315943385720091e-02
      8.6701244391950080e-03 6.7103554378617009e-02
      -2.1435852674687152e-02 -1.3124489210708579e-02
      1.7476709491965798e-04 7.1940500876833555e-02
      -1.4996765783270574e-02 -5.2256698643948898e-02
      4.9566423716973736e-02 6.7609216680276765e-02
      6.3380739936693672e-02 -2.7191134009430688e-02
      1.1898147242851916e-01 5.9531306121260903e-02
      4.2855570611672389e-02 -3.8376161172258994e-03
      -3.0611630255078511e-02 -2.5600970990308773e-02
      7.8484927536539781e-03 5.2128091029863412e-02
      -4.7461066175466506e-02 5.5545211191247369e-02
      -2.9669342059325178e-02 1.5120530000367723e-02
      -6.6334103186607180e-02 7.3375191745962590e-02
      4.8048818895797867e-02 -8.9610285159586966e-02
      -5.5443208058201042e-02 -4.5431307341788789e-02
      7.5096720910715342e-02 -1.0693522591271576e-01
      -1.2732183701335039e-03 -6.7043690938246511e-02
      -4.7914878381918324e-03 -5.4378210608003585e-03
      3.9577603086564800e-02 -2.2555535245231975e-02
      8.1280076345790521e-03 2.5515947146426521e-02
      8.7657129243189733e-02 -6.1065705121404038e-02
      -4.5221367436008283e-02 -1.9244554687810618e-02
      1.1277243322127515e-02 -3.9529998344882645e-03
      2.8398469011957236e-02 -4.9250465178946677e-02
      3.2404805045231064e-02 7.4602702039037475e-02
      7.9739257934281372e-03 -2.1627578065325267e-02
      -1.9829910887922863e-02 -7.1440232307820877e-04
      6.2116235133028920e-02 -4.8110611553199803e-02
      1.1705808920791545e-02 -3.2273840157835118e-02
      4.4102914666368669e-02 -4.7741125343745971e-03
      1.6025489679333000e-02 -1.0909304007996268e-01
      1.6190332603681461e-02 -3.3043550348006039e-02
      -6.3926074711749492e-02 -1.2085500077596202e-01
      2.5486512680936595e-02 -7.1422894440946960e-02
      -2.7260536834483505e-02 -3.6818236328138312e-02
      1.3907549433307355e-02 -1.3748083395895276e-02
      3.2994916640741910e-02 -1.1271289001937921e-02
      3.7555513049130615e-02 -8.6831317008706888e-02
      8.1509385507736037e-03 2.4512801308678028e-02
      -5.3432264533609226e-02 -2.7563213003075220e-02
      -3.5882494543825513e-02 1.0575619378555332e-01
      -3.1376745811276065e-02 -4.5240827598774749e-02
      -3.3646560458955962e-02 5.0865825252825500e-02
      -1.2181989922182361e-02 4.5394923837417944e-02
      4.3074300876625567e-02 5.2731743046247281e-02
      -4.4545965241216930e-03 3.3923065285914353e-03
      1.7018463231126709e-03 2.4227014159683542e-02
      -2.1855297710921292e-03 -3.7733039370265301e-02
      -7.5601692564592704e-02 2.7262354265757273e-02
      -3.8750225638347617e-02 4.6622317682032247e-02
      -3.8436487699612019e-02 6.5194278074635376e-02
      8.2242764644276361e-03 2.7661304869976474e-02
      2.1223503841611747e-02 5.4605068451773903e-02
      3.2288278513113611e-02 -3.8233965503996575e-02
      -1.8553221617593919e-02 -1.3174425248366831e-02
      2.1820841082621393e-02 -7.4758966627107640e-02
      -3.0611217012099904e-02 -4.2811725520602001e-02
      -2.8733637693924237e-02 5.0815012567415968e-02
      4.8401893687044638e-02 2.3158214666099349e-02
      -5.3260464287892405e-02 8.9718725280573716e-02
      -5.4342610787716976e-03 -6.4797556325773727e-03
      5.1494700932949236e-02 -5.9893914023288856e-02
      -5.6288806852224281e-02 -3.2757920928799159e-02
      4.4886112051197739e-02 -2.3760098701876828e-02
      -6.5232349715517862e-02 -1.0922847466576119e-01
      7.9430153685252497e-02 5.4178097414410313e-02
      4.2122990164769551e-02 -1.2313945582963393e-01
      -2.2506509642088615e-03 5.8959155272846231e-02
      -2.0911788228827354e-03 -2.2870794192449174e-02
      3.4171526608693804e-02 -3.8477944110097265e-02
      4.3966686198684407e-02 -3.4124043405773290e-02
      1.4125405537386886e-02 1.2298982497024475e-02
      8.9748666620000861e-02 5.6767136509427371e-02
      -1.3220342884977154e-02 -5.1656986312511111e-03
      7.0306514960772587e-02 1.6325045919831308e-02
      -7.4487680871884371e-02 5.2690604975624125e-02
      2.3981472554063275e-02 3.0053600628818882e-02
      -1.8819740491345632e-02 2.3505770893281472e-02
      3.0330144135136537e-02 6.9892755041571469e-02
      7.2881522529426139e-03 2.0970031634344168e-02
      -3.9292457342467038e-03 -7.4094054077717866e-02
      3.1609959938381713e-03 -1.5865823250597572e-02
      -5.0564936878151411e-02 -2.0258092188894128e-02
      -1.9602933120574390e-02 -2.3501498712328227e-02
      -7.9921030754478192e-02 -3.3655510183222104e-02
      2.6670271669674084e-03 3.3410303434806714e-02
      -1.0048143767261089e-02 2.5223628323247947e-02
      -2.6103125202223483e-03 4.8113394878931605e-02
      3.8075241706907355e-02 4.6636915271762641e-02
      5.8967379340890080e-02 4.2771480661008450e-03
      7.4435507593428624e-02 -8.2513823495450576e-03
      4.2191371884236890e-02 -5.5440503326194324e-02
      4.9474732812800785e-02 -6.9527529993100898e-02
      2.6562792704574231e-02 8.3272470380459318e-02
      1.3947180504321499e-01 -8.6305975722968890e-03
      2.3834063608432895e-04 6.8814190021209434e-02
      6.3053459738474010e-02 -4.7929674731226557e-02
      -1.6523793922938321e-02 2.7517854444415478e-02
      -4.5029177264254094e-02 6.1634737271805823e-03
      -4.6805967090874180e-02 1.0890510258086693e-02
      -3.1710662991639792e-02 4.7370234348106874e-02
      -8.8653434947607065e-02 2.1328370190807012e-02
      -5.9923333496150255e-02 3.4630031605960829e-02
      -9.3233597712160221e-02 3.7662712010393104e-02
      -1.2883677564311649e-02 8.8770558454407025e-02
      -1.1475147619710702e-01 5.7363497605278785e-02
      4.1576038165522050e-02 1.1909179395361875e-01
      -8.0570876484635956e-02 3.6692486250306272e-02
      1.5890071815410522e-02 1.2521618066205553e-01
      -6.2957165173019997e-02 1.9430639939257844e-03
      -3.5724337629203191e-02 5.9428981611596307e-02
      -2.3652133240734289e-02 4.0424470251935997e-02
      -5.2164279793946777e-02 4.3375618666877946e-03
      -2.4256751965215470e-02 5.7873985381945540e-02
      -3.1722895858126710e-02 -3.1805500622534927e-02
      8.3175791103059463e-02 -1.0993043297448346e-01
      -8.3191575960409006e-02 -5.4870253687817422e-02
      5.5920346573952971e-02 -1.0341582561562779e-01
      -5.4693023457628477e-02 2.3414989005574997e-03
      -4.6041624883002667e-02 4.6019625234831545e-02
      1.2183348296976840e-03 -2.8691803132895443e-02
      -4.2097659233743548e-02 7.8338232067758848e-02
      1.2480385768222102e-01 4.4491133312348274e-02
      -8.6554486859082291e-02 9.5459041178597590e-02
      1.1419975440924209e-01 1.2041032715282771e-01
      -1.5511170258926623e-02 1.3207623079578970e-02
      9.7958555225295646e-02 1.6911540460666483e-01
      2.3221155641708086e-02 -2.2441427946811959e-02
      8.5731874159190744e-02 9.5039177153700471e-02
      7.2695523776026005e-02 -4.6873716245056631e-02
      3.6172420076413740e-02 -2.8950618516713336e-02
      5.0451900551876226e-02 -3.2845661328119488e-02
      -1.0254664828498329e-02 -7.6107096150810336e-02
      2.1521744050450566e-02 7.0901613777520175e-02
      5.3918985408679787e-02 -4.2347624579684051e-02
      3.0034914013500166e-02 4.6979167047986818e-02
      5.6397923305471963e-02 4.2666511159933508e-02
      -5.9491867228790900e-02 -2.0831899332500500e-02
      -9.1077925544650232e-02 3.3689125484655462e-02
      -1.2863765382466991e-01 3.9218055630586592e-02
      -9.7055145685292513e-02 1.0631452657415018e-01
      -1.1292366406629872e-01 1.7356382363440767e-02
      -9.6909198498207116e-02 5.7517179174278510e-02
      1.7030401280891543e-02 -4.6695705275947824e-02
      -4.8026157409593394e-02 -3.1466864617042657e-02
      -2.7967810686497192e-02 -1.6025986115124943e-02
      -1.8182836462496101e-02 9.5523146264796965e-02
      -4.5119510085511925e-02 7.7383399517897550e-02
      1.5340340880906224e-02 5.6945070061379659e-02
      7.5810212268890599e-03 7.1350794615578958e-02
      2.0752917021615261e-02 -3.2655380815198011e-02
      8.5084799604425179e-02 -1.0160544460973835e-01
      -4.6390263294242472e-02 4.8376581642754646e-03
      -1.9773335676887879e-02 -1.7334247906117768e-02
      -1.4137052504341132e-02 7.2449701155598775e-02
      -6.7718085421371227e-02 8.5688098092803186e-02
      4.5457275956739547e-02 7.9742704798289321e-02
      -7.2226290639561833e-02 6.6865969425887309e-02
      2.0570884994730188e-02 5.4271260721460886e-02
      -6.8247780116664769e-02 1.0790970278972245e-01
      4.8719236411714668e-02 3.5921673011478556e-03
      1.8450699531830234e-02 3.9161224981210378e-02
      1.1545978891842724e-01 -3.3293699040334115e-03
      6.3418571677815561e-02 -4.1746577916813785e-02
      1.0309438734051940e-01 4.7522244665034373e-02
      6.4306306932564880e-02 -4.4607664794827320e-02
      7.5068937361001523e-02 1.7264101503081333e-01
      1.2388855658478011e-01 -5.8127131351035387e-02
      5.9597863856061910e-02 1.0759821632007826e-02
      -4.7375220788304792e-02 -1.8998815575346642e-01
      -1.4326566163597632e-01 1.3844272792150106e-01
      -1.8989598424488035e-02 3.6740804113832938e-02
      -1.5169347954693621e-02 -7.3377244433229710e-02
      -6.8194227958814696e-03 1.6746702255604190e-01
      6.6293050058802247e-02 -7.7672891661302174e-02
      9.8905272133493802e-02 6.4846192361065425e-02
      1.5673150701587002e-01 5.1549402624957386e-02
      -1.0658768327637227e-03 4.4092547731277437e-02
      5.6570175518023812e-02 3.0827765864602938e-02
      3.7654842843061503e-02 -1.4756203548291863e-01
      -6.7453097451102090e-02 4.4749685095410996e-02
      7.0656132741285391e-02 -1.9030338215963835e-01
      -6.0717526564961738e-02 9.0546081069114687e-02
      2.1922329049844647e-02 -1.2504697539480411e-01
      -5.2161711664148236e-02 5.4653629405832835e-02
      -1.2814110382141823e-03 -1.8279965660096639e-01
      -5.0504738637768470e-02 1.1043043939973725e-01
      -3.3371296108198244e-02 6.1775852642018347e-02
      3.7062527073812523e-02 -3.0251860103152235e-03
      -5.0476440321471083e-02 1.4079406485727336e-01
      -1.5466184981087089e-02 -8.0005238627016126e-02
      -4.5466771420343242e-02 8.3008219259886717e-02
      -7.2832725302613907e-02 -5.5939178217919057e-03
      1.2345165069628822e-03 -1.9167339290409854e-02
      -2.3279263956913945e-02 1.5992533932933761e-01
      -4.5742708296174217e-02 -2.8009977153712295e-02
      -9.4197917183357058e-02 1.2098195583291052e-03
      1.2241789030773446e-02 -1.0040072633582961e-01
      -1.2070462266500127e-01 -2.7214397024221022e-02
      4.7900694273347699e-02 -4.7948210149308640e-02
      -3.3390788092727511e-02 -5.2289558124996201e-02
      -9.0509737784919952e-03 -1.4212224195518871e-02
      1.9096125168085874e-02 6.0608222176205449e-02
      1.6340759536811706e-02 -7.3553931668512526e-02
      3.5343178383577874e-02 3.7044032826670750e-02
      -6.7964449723806192e-02 -1.3092229106064240e-01
      -8.9264646786040514e-02 4.9615143992825718e-02
      1.2434538258870543e-02 -2.8894153780661354e-02
      -6.7814244574324993e-03 -1.1734152704789065e-01
      5.8539186129626608e-02 1.8364286659581463e-02
      -1.8020714364130851e-02 -1.0616405822137534e-01
      1.5046342403258406e-01 2.6191768581666271e-02
      1.4284522079467704e-01 -8.6187615924840921e-02
      1.2015547486015449e-01 -1.1890611546240279e-02
      6.1785888453051156e-02 -9.8066297530034430e-02
      6.5536686243643685e-02 -6.0969956669968212e-02
      1.0706706402085776e-02 6.0525506993796642e-02
      1.0378953069196725e-01 -7.1251653132617193e-02
      8.9909587563454518e-02 -1.9681150898505917e-03
      6.3614231139484875e-02 -9.3019180686563771e-02
      7.4721041381494045e-03 -6.2376338934365859e-02
      8.5052802696564660e-03 -1.0853535775518516e-01
      2.1210607160117349e-02 1.3290723063977639e-01
      -7.2456243642011184e-02 7.4865335459644286e-02
      5.1331620952103835e-02 -9.6398187631112405e-03
      -2.5785678680869461e-02 9.6270115882171922e-02
      8.2606680966320248e-02 -9.8049257241655779e-02
      3.9449310590365320e-02 6.2858948177849355e-03
      -4.9976066931798390e-03 -1.0397797623012252e-01
      1.2008110096243797e-01 -8.5672503270065578e-02
      5.5016849453338505e-02 1.3281421766410220e-02
      1.4177663860994250e-01 -6.4885607433655790e-02
      7.0877228330521833e-02 1.5989457419310186e-02
      1.2671885185380660e-01 -6.8456001381079898e-03
      1.1932743668383716e-01 -3.6300303393588619e-02
      8.6965545390734228e-02 1.8319055107148791e-02
      7.3304696266545399e-02 -1.3388471116721656e-01
      5.9146880669986690e-02 2.8244935478052541e-02
      8.6080703334411188e-02 -8.9159049191614326e-02
      2.5419022074302629e-02 9.8632561066823270e-03
      1.0711368282566666e-01 6.5111485679109501e-02
      -5.4360491063314344e-02 6.8410576192018971e-02
      -6.6516607888349247e-02 -3.8784556030624496e-03
      -4.5731521478535465e-02 5.3387442067884018e-02
      -4.1899458764376549e-02 -1.1080263816123792e-02
      -9.3935092158156099e-04 -9.2889033814112607e-02
      -9.7154753898871932e-02 -3.2271795328896867e-02
      2.5597239259381951e-02 -8.7841057100496792e-02
      3.7150178447336542e-02 2.0887601297260631e-02
      -3.6188373563571546e-02 1.6935951257104960e-02
      4.7557351831181614e-02 1.4811945045975244e-01
      -4.6421082732650623e-02 2.8884379982302460e-02
      2.7323243905447547e-02 1.0312726397437121e-01
      -7.4459309827202877e-02 2.4767257937140554e-02
      1.6724896429910846e-02 1.2860436178960691e-01
      -2.4476135825650416e-02 6.6375544570613329e-02
      1.1195172607040831e-01 1.0888534111090434e-01
      1.8814102338919610e-02 2.5916762363487625e-02
      6.1249255107309324e-02 2.5248498940441826e-02
      -4.3675135642499772e-02 4.5772114925885544e-02
      -7.8323262840571534e-02 -1.8802070301891835e-02
      -2.4265086802942545e-03 3.9354073086202063e-02
      -5.8760997742887174e-03 5.3583033300730463e-02
      3.3092474441067193e-02 -8.0678677499381145e-03
      2.2022130517139339e-02 2.2471587030582725e-02
      1.1843968876161098e-02 -8.0404117337532138e-02
      -6.9936920991619328e-02 2.5044819676079779e-03
      -4.2433834608424995e-02 2.9818245051715174e-02
      9.9577499717763852e-03 5.5432990993479730e-02
      -4.1304594848020508e-02 5.7152101696069768e-02
      1.0005033866607116e-01 1.5210302281527682e-01
      -2.5569023381836378e-02 1.7021801482198860e-02
      6.1001582137861332e-02 5.4866231203569815e-02
      -7.2050186913602708e-03 3.8011601077472250e-02
      1.9006287432951709e-02 -7.6840258718923610e-02
      3.7844069075735377e-03 1.8937307657472875e-02
      -3.1310069846631578e-03 -1.5512773662676146e-01
      2.4498606218280403e-02 7.8621068805222842e-03
      -1.0998813938161375e-02 -6.7133334562818744e-03
      2.3248064530697461e-02 8.7185384865575713e-02
      9.5495182033189671e-02 -1.3468218770860010e-01
      4.0732307980076404e-02 -2.4874042238514941e-03
      3.7697923579488306e-02 -4.0162466399380439e-02
      -2.2392876303049439e-02 -1.5067386706432823e-01
      -1.4213608708494194e-01 7.6158273440292190e-02
      -9.1994705811898142e-02 -8.0797647768973638e-03
      -5.2980024325114568e-02 7.0814532607459776e-02
      -9.5340613214359160e-02 -4.0925997497084449e-02
      -1.3284937184910564e-01 6.7584164685437195e-02
      -1.1291561400324092e-01 -8.8361946219016524e-02
      -2.3259707242000760e-01 1.0249225116407638e-01
      -5.9599358714019612e-02 -5.4109713004196487e-02
      -9.8861196058131942e-02 2.7051168644314216e-01
      2.2197625599688922e-02 -1.6515439546763586e-02
      -9.2639370156159320e-03 1.1873849105960217e-01
      3.3704447308125537e-02 -1.7565461606394096e-02
      1.8095827689678457e-03 7.0368897534041991e-02
      4.5668274648865644e-02 7.0439808968015244e-02
      9.0843399773916839e-02 1.3761677120617921e-01
      4.1272061878856230e-02 5.0553418636911936e-02
      4.6596855346398493e-02 3.1218078564307691e-02
      -4.6350823761373429e-02 -7.5269774091496502e-02
      -1.5281561064134863e-01 8.5544994538898189e-02
      -5.8409847479568525e-02 -8.8030126162555837e-03
      -6.1512905904093688e-02 2.3535770424478780e-02
      1.1420864471168713e-02 -4.0683680261720333e-02
      2.5141498821043756e-02 -4.0165673160262941e-02
      4.7577932756480206e-03 -4.3382255635677568e-02
      -2.3693354737585680e-02 -3.7568185290587613e-02
      6.2161568835902875e-02 -3.3546943870376135e-02
      1.8683693766769156e-02 -1.3083158109702428e-01
      8.0589461193959502e-02 -2.8443293603820148e-02
      1.8115155075219831e-02 -7.5440221963968893e-02
      -4.5264450598069220e-03 -1.9784251184869081e-02
      -1.3312036461293119e-02 -4.3390009320161495e-02
      2.7965231428260670e-02 -5.0123972715209845e-02
      -3.0626025152609784e-02 5.5027860623597158e-02
      -2.1351808612626026e-02 -2.1528711374678679e-02
      -4.8513213427251088e-02 -3.5821735133784116e-02
      -4.2086635808714322e-02 3.2612335174027417e-02
      -3.9047953468937704e-02 2.5286944887765183e-02
      -6.6651498704397572e-02 5.3041349653648220e-02
      3.5488556167855678e-02 8.2001454954910818e-02
      -4.9730484791730610e-02 4.8344352066283056e-02
      3.4600993922307893e-02 3.0623172896561288e-02
      -2.4897941097073478e-03 3.5947346603492289e-02
      -5.2843275041938934e-02 -8.2102586447192386e-02
      -7.3405537043866763e-03 4.3774825299355037e-02
      -3.0288705574077916e-02 -2.5803933040706970e-02
      -4.0792324803605180e-02 4.3425676656677854e-02
      -1.3592276698228578e-02 4.6992181387862930e-02
      -5.5544771547801693e-02 -8.6558837475721184e-03
      -7.8014646665075293e-02 2.6997658862557256e-02
      3.6259593899810529e-03 -5.7269828043881740e-02
      -6.5029575967732151e-02 1.1572843777040696e-01
      -4.3270251495258295e-02 2.1580684077355285e-02
      -1.7557416284789254e-02 1.3578373628909376e-01
      -4.0336344064676290e-03 3.4722363254999410e-02
      -9.6436896240151577e-03 -1.5841694096240835e-02
      -3.3316974038425665e-02 4.7160824847992132e-02
      5.8511772948647844e-02 5.8588651005612231e-02
      1.4032115065873178e-02 1.5253331174988989e-02
      -1.2492244022664641e-02 3.3138018726419735e-02
      2.9932775459224320e-02 2.1069535552625449e-02
      -2.4647226002244036e-02 -7.4174465895127967e-02
      9.9071699189087325e-03 3.9111367190118949e-02
      -8.5462098111259988e-03 -3.6357756509809214e-02
      -3.8344968232427966e-02 2.7809333002233733e-02
      -3.4207839389857088e-02 4.8438149307667037e-02
      -5.8087527224785461e-02 -3.9141407845491867e-02
      -6.6182677018748734e-02 2.3160220093448029e-02
      4.7080382443599578e-02 -9.2639948721539259e-02
      -3.2537211680431520e-02 -3.6705756392505319e-02
      -2.9191531033617851e-02 -5.0548994407038549e-02
      -6.3237390560334658e-02 8.1875738947629895e-02
      -6.3070549365910861e-02 3.5603812831862695e-02
      -4.2464339078765831e-02 7.3752236247820555e-02
      -2.4522717665925342e-02 -3.7895785025910816e-03
      2.3771295752908973e-02 3.8566420564970574e-02
      -4.2913246109203343e-02 1.8315522308521608e-02
      2.2100201552291376e-02 -6.7937876497807153e-03
      -2.4718137536158754e-02 7.3873443742370509e-02
      2.2659206709335439e-02 -7.9029585220623963e-02
      -3.6901142902513132e-02 3.5944510543332128e-02
      -4.2651865466255004e-02 2.1554215593515710e-02
      -5.4716458675511830e-02 5.5121776388833935e-02
      4.6616582161330413e-04 6.3047168246035457e-02
      -3.1790455122926498e-02 3.4823652361447618e-02
      -3.8628677352579373e-03 1.2490767385747165e-02
      4.9087131395761305e-03 -3.5743238887513011e-02
      -1.6592414707586330e-02 -6.7541698791393871e-03
      1.4302028759615138e-02 2.4392421211314453e-02
      7.1658983230951948e-02 4.6695295410392662e-02
      -5.7333941155832705e-03 -3.1274452881845539e-03
      -2.6334838653950587e-02 -3.9837000874345600e-02
      -2.1509203218393228e-02 -8.1479741987543132e-04
      2.4153585580271576e-02 1.5961531591421132e-02
      1.6360311168308037e-02 -4.4277546647236325e-04
      6.2200820914320339e-03 -5.1180479257788208e-02
      8.7141762610088477e-02 3.0973789389579731e-02
      4.6956029751251710e-02 -1.3440499356841332e-01
      2.7176299525749945e-02 7.4668478068672134e-02
      2.0287617282789289e-02 -4.1052279600512914e-02
      4.1102349915652411e-02 7.5573485325379441e-02
      1.1288561158376927e-01 6.6910484340717460e-02
      4.2302112969892107e-02 -4.8130620485299029e-02
      -7.9328212800712401e-03 -6.1573737890327308e-02
      4.3028318677894604e-02 -2.2257972905879116e-02
      1.6689557223879149e-02 1.2342734893376166e-02
      7.2530375959728055e-02 -5.7978533915389360e-02
      -2.9508063837109601e-02 -1.2990070309319809e-02
      1.0547955667585533e-02 -1.3226162199717719e-02
      -6.6109058695448586e-02 -8.1606839621975069e-02
      -9.2093388241135336e-03 -3.2466372791854839e-02
      -1.1877785220038742e-01 -3.5630171084647930e-02
      1.3146834698256707e-02 -6.2720292713456333e-02
      -7.8553297909176242e-02 -6.3433940904006753e-02
      6.5521102467166276e-02 -8.6461888691493821e-02
      -8.3812371385583225e-03 -3.9585415782007062e-02
      4.2364553621794233e-02 -4.2590472770016811e-02
      3.2506533449498345e-02 7.9913537549110195e-02
      3.6182377614703103e-02 -4.9029810866439039e-02
      -1.9444182935613119e-02 -2.6614562166897879e-02
      6.6264210019906705e-02 -1.0996397005920401e-01
      8.0627143486377475e-03 6.1556004120861776e-02
      2.8597879666425768e-02 -6.3460602700859639e-02
      2.2776304141637779e-02 -1.3343032617833520e-02
      -1.1738966621838223e-02 1.2310909678141154e-02
      2.2753564890322885e-02 -4.7594995837685374e-02
      -4.7967670749568994e-02 4.1458752630211843e-02
      1.9701169146961031e-02 -7.4421566944261094e-02
      3.8118545356929409e-03 1.4546469374809403e-02
      -3.1667689091349496e-02 2.4716762331873018e-02
      6.8121138722315094e-02 2.9412646755194713e-02
      9.7295555507019141e-02 -1.8895665327767978e-02
      1.2973427467856802e-01 -5.0935222740992056e-03
      1.3117873215547171e-01 3.4877023813109469e-02
      1.0605184483857705e-01 -5.5454213835821636e-02
      6.6703027855572639e-02 8.1844073011082652e-02
      1.0886540888273787e-01 -1.2361927018078711e-01
      2.1925227802666408e-02 3.0850002550025991e-02
      -1.2592633217963299e-03 3.0468149156001222e-02
      1.5586986772533363e-02 -2.5361009407112382e-02
      -2.3374779709221461e-02 4.6762746212925400e-02
      4.7273328597505153e-02 3.1083365668929473e-02
      -1.1214609437575056e-02 3.1617236866061695e-02
      2.6164090324570292e-02 7.1469150566282391e-02
      3.7835961085422469e-02 4.5578337621339352e-02
      5.0295875077129085e-02 -3.7128503108432062e-02
      -3.0156774601402931e-03 3.9988417617818246e-02
      -1.2740897589485276e-02 4.7123065169984983e-02
      -5.2690026223084364e-02 3.6901248394480966e-02
      -2.8015441176359627e-02 2.7169521548916397e-02
      -3.1774315458643676e-02 4.3356926032667234e-02
      -1.0943369658898833e-02 6.9719723495678572e-03
      6.2665531847846401e-03 3.9095064427168133e-02
      8.0304176021984197e-02 7.4600445808816779e-02
      -2.7687575999436342e-02 6.8588468626268648e-02
      5.6361166700084300e-02 2.5294573864486330e-02
      7.3301631354880156e-03 1.7154437515519093e-03
      4.2515768912305074e-02 3.7822787104784754e-02
      -5.7345582676486470e-02 6.1654580653266865e-02
      8.9375867811784124e-02 1.2985244313134689e-01
      -9.0711401901752059e-02 1.4015779052445326e-01
      6.5576064989457825e-02 6.2427574685067107e-02
      -1.0781910164074342e-01 1.1507870032049235e-01
      7.6866018113849440e-03 3.1043950036859697e-03
      -4.4991091284829563e-03 3.0743508384759314e-02
      -1.9671067846123165e-02 -1.3166979598461352e-02
      -7.2655524486345283e-06 3.7112087461042075e-02
      3.2233720926643165e-02 -2.4828187750488163e-02
      3.3779496953419239e-02 2.7134129729184119e-04
      2.4448906092545280e-02 6.3129921665275396e-02
      5.8035962126271615e-02 -5.0096536798163602e-02
      7.4598476418801740e-02 2.9314173442341177e-02
      4.7052049077056159e-02 -4.5307441528256318e-02
      4.4713271381217619e-02 3.6756225486471727e-02
      1.9443602406615545e-03 -6.2981490208026319e-02
      -2.9730705017456251e-02 3.2429089692731082e-02
      -5.1122829110612646e-02 -4.8485244627836072e-02
      2.8902776775491655e-02 -3.7218110717352638e-03
      -4.3049511601659679e-02 -7.1391605752762155e-02
      -8.8229169397993537e-02 -4.5136774120247266e-03
      -8.4091551744873731e-04 -5.4850551056135573e-02
      -5.7434086229013512e-02 -5.6739793318386217e-03
      1.7191496757759571e-02 -6.1960420678832520e-02
      -1.4934887970024593e-01 -4.1957618575176513e-02
      9.0149189850759801e-02 8.0186917574832650e-02
      1.0547323873412062e-01 -2.8159369716804477e-02
      1.1648353938432458e-01 -1.3105988781950392e-02
      2.0163416983712105e-02 -1.5686825546501945e-01
      1.3975638308948751e-01 2.5333238865961324e-02
      1.7449793303588398e-01 -4.1591122828217156e-02
      5.2448674935978101e-02 -1.5588441581651182e-02
      1.2763718436397184e-02 5.1612592460601667e-02
      -5.0953170993675377e-02 1.5484026064377576e-02
      -6.5194894557271607e-02 1.6220911146077230e-01
      2.0487387495664755e-02 7.8513843031602013e-02
      1.4777637254929560e-01 -1.4874670480930247e-01
      5.2819074989284356e-02 4.8489883731028763e-02
      9.3534528918171170e-02 -2.1021448704542808e-01
      1.3826326232006013e-02 -5.2789481284973034e-03
      6.5206095961595281e-02 -1.9977815045299722e-02
      3.3551816101748552e-02 -1.2575286596554838e-01
      -1.1021747387531636e-01 -5.6625248671401548e-02
      6.8670415134693380e-02 -5.5145402216125440e-02
      3.7456254497357108e-02 1.5238132135000479e-02
      3.8332660668000292e-02 -6.8975097455944753e-02
      -5.9283416927206969e-02 -7.1040949587005048e-02
      4.0011134289454416e-02 -6.2693159267932244e-02
      -1.9364990112369435e-02 -7.3658937008523009e-02
      2.5229163533278883e-03 -6.1249990598771523e-02
      -1.2541833071299507e-01 5.9498087434369212e-02
      3.8628126758889977e-02 -3.4834634305714887e-02
      1.0355873503629222e-01 6.4795846526302478e-02
      -1.2732385539959935e-02 -1.7635723100554541e-03
      9.5477175502091380e-02 1.3091580157159599e-01
      -5.8682654425905437e-02 -4.2285030438432864e-03
      -3.1755335415911273e-02 7.1624660609688348e-02
      -9.2944587205134044e-02 2.2295122145857792e-02
      -1.0201262586598962e-01 2.2651255516925692e-02
      -5.3099387843180461e-02 -5.6771673282353226e-02
      -1.8603148925573990e-01 3.7235637183189035e-02
      3.9994242287063241e-02 -1.0539885325213926e-02
      3.8363169762705806e-04 1.6233519505663260e-02
      1.0535182674896873e-01 -7.1571210045728653e-02
      2.1018198876594965e-02 -4.6298590098955886e-02
      1.4247766688071009e-01 -2.0733528436633633e-02
      1.6981132117179024e-01 -4.9663095475822117e-03
      6.5803631967656040e-02 2.4189179426094165e-02
      1.5759929111340626e-01 2.5860178652411286e-02
      -3.2362825764889074e-02 4.3355803784479896e-02
      5.5470138552059983e-02 3.1923070964035419e-02
      -2.3027982480114038e-02 8.0460425550441014e-02
      1.1081363413062099e-01 -7.0362206931218856e-03
      -9.2457206337552847e-02 1.3557769524756619e-01
      4.4290269021454262e-02 9.6693487702638557e-03
      -7.2409499178046011e-02 4.6420452496082482e-02
      -4.3864372246586139e-02 -2.8430575209312411e-02
      -8.7249320204205741e-02 -3.8538102634562338e-02
      -1.5216791293287640e-01 5.4872711058730851e-02
      -1.0123078344855617e-02 -3.6234058077821027e-02
      -3.4703875122072847e-02 6.0825863382306153e-02
      6.7070631572577366e-02 -1.2020144625480438e-01
      -9.6775093165052992e-02 -2.3237424983138327e-02
      1.1148510857104678e-01 -5.9092763559462455e-02
      7.8404382412311374e-03 -5.1910644241537685e-02
      4.2287537244625965e-02 -2.2356190040298218e-02
      3.3880549302756788e-02 1.7371700375647576e-02
      3.1027343564717758e-02 -4.7703798715670022e-02
      -1.3289880049633060e-02 -1.2537255504118217e-01
      7.4926115480314470e-02 1.9894095372557832e-02
      1.0638555879856973e-01 -1.4492180853522502e-01
      3.3718364106756611e-02 8.4733839550765980e-02
      1.1217786308462892e-01 -1.0316208813201022e-01
      -5.7240028847528004e-02 8.5614540630085903e-02
      -7.0523588427075148e-04 -4.7479379235026778e-03
      -4.1945514622029265e-02 1.5346111401376945e-02
      -1.1831210196072271e-01 -5.9807027794108014e-02
      -1.1125032789761570e-02 6.5747456431762219e-02
      -3.4270342820828946e-03 -1.4436780695065654e-01
      -7.7098382572761637e-05 1.0249927819845139e-02
      -1.1629189286520052e-02 5.4336241029348921e-03
      -5.6214618317411182e-02 -2.8076717651123250e-02
      -1.0101017092474970e-01 2.1667591692374719e-01
      3.9332584750118044e-03 -6.5181269778140441e-02
      -6.6239258770853765e-02 5.4928940680624046e-02
      -2.6872497445570636e-03 -6.2563427906616745e-02
      -5.2825542464932977e-02 7.1702778387231450e-02
      -7.1761556706438721e-03 -2.0465241402996000e-02
      3.4764901537625924e-02 5.6508440856798792e-02
      4.1850647217663656e-02 -6.6670081678385701e-02
      2.9784812832518145e-02 7.8743717519881809e-02
      1.0200119521727360e-02 -3.0363644339833930e-02
      -2.2425141642222417e-02 -3.9851389550408262e-02
      -2.5946214233739259e-02 2.7144328941373478e-02
      -5.1330270769639127e-02 -3.5378234334219216e-02
      5.1935828667496525e-03 -1.2972952976719441e-02
      -5.0807797069614580e-02 -6.2469392620711078e-02
      3.3984610558274848e-03 -3.5894716428572004e-02
      -5.8216661958859078e-02 7.4730461776628468e-02
      2.7865101657495030e-03 -4.8290453707120505e-02
      -7.1257276212334117e-02 6.6477476192280546e-02
      1.5919944872069106e-02 -4.9736163549985127e-02
      -6.6572355021583138e-02 8.8641164394661118e-02
      -2.3362498602925854e-02 -3.2798851582877271e-02
      -7.6533807837425499e-02 -7.7144270563708428e-02
      -5.7653966012427858e-02 1.8492813254471649e-02
      3.8999483662984597e-03 6.4015431236232392e-02
      1.4665973094285653e-02 -1.0356060658315253e-02
      7.3027559261643171e-02 2.4612046782064103e-02
      -5.5946200676056067e-02 2.8631343173047927e-02
      -6.0847696050507133e-02 -3.3582081254944232e-02
      -3.8315564359786232e-02 3.5786728281509701e-02
      -7.4660361841486805e-02 -1.4364015109261996e-02
      2.9776834469889938e-02 4.1647067297830125e-02
      6.9159958641017566e-02 -9.1168349210551433e-02
      6.8650830258715836e-02 -2.1207286268036947e-04
      5.8876329613972371e-02 -1.5597781248765957e-02
      2.5649960552949273e-02 3.1868148718403863e-02
      5.5767530141775927e-02 8.1287546795285395e-02
      5.3612569134466057e-03 3.5942597968109148e-03
      -6.2893926188989846e-03 -5.1789593030553910e-03
      1.1338213511871895e-02 -6.2509080012515773e-03
      -1.3533668436280207e-02 -4.6015344378850374e-02
      2.3083252744112832e-02 -2.5993324860305794e-02
      6.2017379773665990e-02 -5.1890747498009704e-02
      5.0987287356961460e-02 -5.5892410761723216e-02
      6.6105731615939231e-02 3.5479745583023845e-02
      4.8110898278817496e-02 -2.6689539981496108e-02
      -2.8765008925898679e-02 -3.9831293064063605e-02
      8.4032571571952871e-03 3.8061785328756703e-02
      -1.7364059682104062e-02 -4.9167846587152416e-03
      -5.6207186326019641e-03 4.1168521177388499e-02
      1.1979395065944497e-02 -6.6793062700429950e-02
      3.5693484045407758e-02 -2.1253203771997550e-04
      2.0647573829121101e-02 -6.2239158509170287e-03
      3.1947586048142546e-02 1.7411998163901515e-02
      4.5187595559660149e-02 2.7190199090204710e-02
      3.3821735605979300e-02 1.5407916299801198e-02
      1.8517925640868238e-02 -1.6044533823724696e-02
      -6.7992332639941503e-03 -3.5505756364581843e-02
      -3.5976359373055954e-02 7.3436308448674653e-03
      2.1759090475486638e-02 -8.2466931966527435e-02
      -4.8675018524206262e-02 4.7581996119810323e-02
      3.3628345098796142e-02 -5.7306587425658126e-02
      -3.2353723926885632e-02 5.0327247469700465e-02
      3.7286754891750963e-02 -5.1699405344721082e-02
      -1.3900613212125075e-02 9.7894029079705173e-03
      1.2039549940112909e-02 -1.1458094909563643e-02
      -5.2213555829726845e-02 1.5470943657433639e-03
      -2.0522506725904117e-02 -7.7686992001909407e-03
      5.5113598735587840e-02 1.4662181458477518e-02
      -1.1930404898766582e-02 -5.5487055611877522e-04
      5.8686350948440762e-02 2.9422739386411080e-02
      -2.8274684084788344e-02 4.5228405600621691e-02
      3.1229237032085490e-02 3.8330566792152951e-02
      -2.2646958970618344e-02 8.0000415165858901e-02
      2.7244696143079800e-02 -1.7074847066829938e-02
      -1.9912756199610568e-02 -1.5978489442142453e-02
      3.0306776661464863e-02 1.4738303429251431e-02
      3.2100628233942628e-02 -1.1019369215086766e-01
      -3.4445268649820400e-02 -5.2996416413202893e-03
      5.2096891080465326e-03 -4.9094671596714599e-03
      -4.8567089052091179e-02 7.2124100701785208e-03
      -1.0278891532738540e-03 -2.5025047726951119e-02
      -6.5500278431769449e-02 4.8865392238592207e-03
      1.3608446495327501e-02 -3.9531716406597521e-02
      -6.7851986165544984e-02 -1.5482980167548132e-02
      -4.0253446131019416e-02 8.7908194995519138e-03
      2.7664845763095570e-02 1.5229681916079629e-02
      -3.8608981129158809e-02 9.9332706353086071e-03
      2.9469377955482164e-02 6.8184114438346433e-02
      -2.7600162228848049e-02 7.2657266841287824e-03
      -2.3037158730045020e-03 3.7096672631922560e-02
      -2.8812006026167996e-02 3.9126928606969508e-02
      8.5432518682622263e-02 -2.7559304382743715e-02
      1.3030637153522198e-02 2.9786152216283068e-02
      1.1422048471370749e-03 -1.4273906065121720e-02
      7.2464368807400644e-03 -1.1499220969164593e-03
      -9.6164091287629979e-03 -4.7086951218447172e-02
      6.0280770764329202e-02 -8.4148243871608047e-03
      5.3099788778373694e-02 -3.6212296705808014e-02
      1.7163678557356166e-03 -1.9227338718772084e-02
      -5.3621650035476807e-03 4.5406701445383640e-02
      4.1850915262678047e-03 -3.0465852502616613e-02
      -8.9810586386122701e-02 -1.5367390827489280e-02
      1.5521108466994558e-02 -4.8631752015901454e-02
      -4.2171596355909155e-02 -3.2396478944541583e-02
      2.3515314556113831e-02 -1.0716731563333973e-02
      -9.0421156526671598e-03 -2.2382242762097809e-02
      6.4822466349124096e-03 2.2600995086339476e-02
      7.9163493127816908e-03 -1.4701674035690209e-02
      2.8680595571059064e-02 1.0309595171084493e-02
      -2.4273564247996714e-02 -3.8253469784323993e-02
      -1.3919193893190882e-02 5.0267352775985874e-02
      -3.6000046502000435e-03 2.8456224212323630e-02
      8.8879969626794921e-03 1.4417918507241723e-02
      1.4829304033392244e-02 -5.7805046293195765e-02
      3.5687368060053078e-02 1.9226802767666886e-02
      -1.2147855769836185e-02 -5.1296642580850670e-02
      -9.2750899982111615e-03 1.4533058973801602e-02
      -3.9450162201117571e-02 3.7108679914646954e-02
      -1.5140655218582523e-02 -3.4136613340207872e-02
      -1.0334045023021772e-01 9.2167654983526560e-04
      -2.3244445433081116e-05 -1.0359487255306289e-02
      -6.5345781423352206e-02 -1.6568280068762209e-02
      -7.2080895515457093e-03 9.8148642829827895e-03
      -4.7379779234126021e-02 6.0060291409053425e-02
      -1.6354949344040541e-03 2.8820847603664781e-02
      -3.5670830561656701e-02 -1.4745855650112336e-02
      1.8291226283597074e-02 8.9868591448606597e-03
      -1.5205823303248153e-02 -3.7397152792258422e-02
      3.5917851686358089e-02 -5.6029699965024653e-02
      -3.4740123308831195e-04 -1.7830055663326141e-02
      1.0423556795790474e-02 2.9595901208598212e-02
      2.1769608592974877e-02 3.0952896003302508e-02
      3.5692020173519814e-02 -6.6897233901418085e-03
      1.3324771995589041e-02 1.7158337228419682e-02
      2.0616353127862801e-02 -4.5158014345762935e-02
      -8.3976846197227298e-02 -4.1395789492648334e-02
      2.9088300085153489e-02 -2.4549732364037177e-02
      -3.1731214561349398e-02 -6.6500853317873782e-02
      -4.8337541811738095e-03 4.7081374871460024e-02
      1.4341678965965741e-02 9.3035814917248345e-03
      -3.3782466929201255e-03 2.4765231110451758e-02
      1.0660165172210408e-02 1.5386189202190649e-02
      9.7436358611206180e-03 1.8384384857444227e-02
      3.6797436527188088e-02 -1.2682242438140246e-02
      2.8008626196694544e-02 -3.4515452877765480e-02
      7.9498920439992279e-03 -2.7378739823666724e-02
      -1.5634542597834714e-02 -3.4517105268948176e-02
      -2.6059653094096705e-02 8.1277032235012297e-03
      -1.0667141884043786e-01 9.7351900870830260e-02
      8.0632638141834093e-02 9.6770875498798967e-02
      -4.7265902479751931e-02 7.8835815202816153e-03
      8.2149758776928372e-02 4.0594392699181803e-02
      -3.0152435314266469e-02 1.6295329542651386e-02
      4.9441053087162908e-02 2.0338389775611931e-02
      7.6134168384893626e-03 -1.0567512990910730e-02
      -6.4219181575268488e-03 -4.9773583432294204e-02
      -3.0401998809923066e-02 4.1195005383751981e-02
      -5.1974551477873970e-03 -8.5996975984683324e-02
      -3.4854554446082264e-02 1.7027136743905893e-02
      -2.0522464902933961e-02 9.2462178701485879e-03
      -1.9288450235152257e-02 1.0866774238067789e-02
      -7.3156919133671935e-03 9.6637198531106094e-03
      5.5205164103625699e-03 -2.7004221678649038e-02
      -1.1930121539702873e-02 1.2517514533949800e-02
      6.5737084212191654e-02 1.6053364207742529e-03
      -6.9862808155896437e-03 -2.6999102597504241e-02
      7.2671563830738153e-02 -4.3377885305688452e-02
      -3.3234171037535711e-02 -3.5627132606579640e-02
      3.1175006874996979e-02 3.3439745425410589e-02
      1.4592669658438940e-02 2.7949211652851143e-03
      -7.5564402929356993e-03 -1.0793216969078407e-02
      -7.8097394258161909e-02 8.9443372524279762e-03
      4.4934425292193617e-02 -6.4108066344820636e-02
      -5.7737428866107506e-02 -3.2916791567282812e-02
      1.7491509084274864e-02 -8.7409591475815611e-03
      -1.2320490615924641e-02 -3.7815100004593297e-03
      2.6679214327911274e-02 -1.7963261273826085e-02
      -2.2043012423402841e-02 -9.6394265912311209e-03
      5.9187552954454601e-03 2.2934114729709836e-02
      -1.3674277673961453e-02 -2.9782295735198061e-03
      3.9741467968927524e-02 8.0778596538842971e-03
      2.1635112025010931e-03 -1.1978269833155676e-02
      1.9128889824831942e-03 8.1417290928329084e-03
      2.9438731605662773e-02 -1.9711404495626880e-03
      -2.7980382966704131e-02 -1.4149346211679174e-02
      -4.4135974898325103e-02 -4.1176290646845653e-03
      -5.6783879953964854e-02 1.3039990385270437e-02
      -2.8633280643987659e-02 2.7791185175159591e-02
      -2.9583779619111399e-02 5.7266998179848327e-03
      -3.9848427218990685e-02 8.1885670730849208e-03
      1.4209354510854297e-02 -4.6519657001882979e-02
      -5.9821273510029346e-02 -6.4208339341814968e-02
      2.5198354275999080e-03 -2.2796229770245622e-02
      5.8625385872498317e-04 -2.4037971351830431e-02
      2.0962326473724356e-03 -1.3298347420806206e-02
      1.2113721075896318e-02 -4.7268021396966516e-02
      -8.1303801257433788e-03 8.8704903940177594e-03
      1.4574025764602216e-02 4.9176273362334204e-02
      5.7893749185921627e-02 -4.7702544193491001e-02
      1.8537010733393491e-02 -1.6444874694425727e-02
      -3.5236481130212050e-02 -1.9717356505432766e-04
      3.2354962979855489e-02 5.7562497846950798e-02
      -5.0844149227293460e-02 2.6864985393112412e-02
      4.4326396611672737e-02 5.6449722916499065e-02
      -1.6965682235195286e-02 2.9384831081475386e-02
      4.9613512202456272e-02 6.6883455412817039e-02
      1.3376057936970862e-02 3.9674245314230423e-02
      2.3428317137202889e-02 -3.9419044932443574e-02
      4.4217231371834739e-02 3.0660162446866486e-02
      2.6971054606127875e-02 -4.1248920266948916e-02
      -9.3469264951671835e-03 8.2289842533436880e-03
      -4.1931434650864643e-02 -2.9974072423739409e-02
      4.0704740144248609e-02 -2.2880359489894787e-02
      -3.8088540101650803e-02 -2.5144044193067317e-03
      4.0671419311243490e-02 -1.4601576975957677e-02
      2.3794868483030487e-02 -3.3417579003459506e-02
      -2.6527096190220430e-02 -3.9030639439519448e-03
      2.7965709914490922e-02 4.3194157846994125e-02
      -3.3938899838794239e-03 -3.6497400264970621e-02
      -9.7731288292676674e-03 -5.0915267207754307e-02
      -4.3962557133216611e-02 3.3346754972673080e-02
      7.2454828145224026e-02 4.7787815871130811e-02
      -2.3733022157977547e-02 4.9264987602500782e-02
      8.8830817278910817e-02 7.2889441715535061e-02
      -4.5118887934618900e-02 3.8536202256973649e-02
      -4.9133210572690225e-02 -1.6467106670303822e-02
      1.7311691527164694e-02 6.3671057320181879e-03
      -3.1354706401110016e-02 -5.9783538066481887e-02
      -3.0112299916372869e-02 3.4659086015230087e-02
      -4.5124629040324167e-02 2.5009619859768656e-03
      3.0210605884418842e-02 -2.2127976376630433e-03
      -3.1721425747063756e-02 4.2991682042639617e-02
      6.6149988799995771e-02 -2.7591762890689243e-02
      -2.3487658264175256e-02 -5.4543234505366925e-02
      2.8887237772998262e-02 1.7077630912235564e-03
      1.0748942399636191e-02 -3.6950495360240115e-02
      -4.1273835577172631e-02 2.6603485577987175e-02
      -1.3591760111600262e-02 5.2676481158965262e-02
      1.6141173185531280e-02 -7.1585355599697184e-02
      -5.3849374554098606e-02 -3.9489169014509551e-02
      3.6032679244393725e-02 -5.0437149821857027e-02
      -5.7903561495979770e-02 -2.2712090819585730e-02
      6.0320881780531153e-03 3.4774693583817451e-05
      -2.6361076521550678e-02 3.0811855591512623e-02
      4.5373653358159537e-02 3.6498889501832617e-02
      2.7927623117717886e-02 1.5780291988318092e-02
      1.9904232088855476e-02 -1.8271649239155467e-02
      -1.4385819101822178e-03 -1.0977795316053531e-02
      2.2439475089578612e-02 8.9427840127495061e-05
      -3.6736026528414262e-02 -2.1623711960653526e-02
      -5.6692437918008709e-02 7.9422816195963739e-02
      3.1684571788744629e-03 3.1758914430640439e-02
      -8.3431431703907179e-03 2.7922876042006536e-02
      1.8887537555920344e-02 2.9615823661040940e-02
      2.1297981249369814e-02 -4.0723138388682231e-02
      1.3141751401415066e-02 -4.8884445254406779e-02
      2.1978773873704716e-02 -7.6977796977249852e-02
      1.2194032064572972e-02 3.2622993222006742e-02
      1.2995116633422893e-02 -2.2398196071886211e-02
      1.0583012832590090e-02 1.6121165411945720e-02
      -2.9615516475240957e-03 -4.0827404908689330e-02
      -7.4623096503180969e-02 -2.5051038728221713e-02
      1.0354954856212177e-02 -1.8147818267873646e-02
      -4.8900034237501340e-02 -2.4136573120990056e-02
      1.8158569014908969e-02 5.0880293243010626e-03
      -1.1799651180203014e-02 5.9317193510900253e-03
      4.4303727991569744e-02 -1.1711766153062547e-02
      -2.4343429062386807e-02 -1.8842317940420437e-02
      3.6096578896445115e-04 4.4492476237017346e-02
      3.4033927193289279e-02 2.0382467374346982e-02
      2.6212046906677139e-02 -3.6431014132936174e-02
      -1.2428872846001951e-02 3.5881735096126639e-02
      4.0083654857289687e-02 -7.0073838875184188e-02
      -8.0455949804514228e-03 -3.8807479309681432e-02
      -1.6881200108512063e-02 -1.3255349631163588e-03
      5.9733829928642221e-02 1.8638811008369206e-02
      -2.7684886304779402e-02 1.5551495946678016e-02
      2.9939347605497959e-02 1.5547993959398421e-02
      -7.1373447262077463e-02 2.7520467675598379e-02
      -8.4580753561549926e-02 6.9778908506179984e-03
      -3.6455028691189439e-02 5.3743714104089414e-03
      -1.0415928773893972e-01 -1.4347616840856177e-02
      -6.2122885908111247e-03 9.1913749899757789e-03
      -1.1394644570348928e-02 -3.4697905332582865e-02
      -5.7579318020443918e-03 7.7494466236250139e-04
      -2.9255908869983471e-02 -7.0111268323777714e-05
      2.9317481417363372e-02 -2.2960789445440268e-03
      -1.6116058154792761e-02 -2.0281422771810761e-02
      5.1719803076022593e-02 -4.3013211403932154e-02
      -1.3385556318183037e-02 -8.8270102358945557e-02
      6.0098239341710991e-02 -1.0663614325803929e-02
      3.3322881133538949e-02 -3.6508812206714022e-02
      3.6855688511217372e-02 -6.4704373425682549e-03
      6.9995511425454834e-02 1.0382581904821641e-02
      1.7750997948670733e-02 1.9057039512644303e-02
      6.1912748022124958e-02 6.3003723279055776e-02
      -4.4439548936278817e-03 4.6198761428638213e-02
      4.3488175614156896e-02 -5.1822031174574637e-02
      7.9589238602760393e-03 4.0715122014577637e-02
      3.8786657200907938e-02 -7.5099256357280389e-02
      1.6501839166004131e-02 2.2154614582084741e-02
      2.7570849861418230e-02 -7.3808760123592873e-02
      1.3909766231846973e-02 1.0669286143759523e-02
      3.0083046330675258e-03 3.8753482337530447e-02
      8.0847083822681381e-02 -2.9844050135227080e-02
      4.3309875911181198e-02 -8.9185635962549081e-02
      5.6722456077184347e-02 -2.8910887610291758e-02
      3.1490758096762660e-03 -6.7767186582537151e-02
      -2.9409329258456934e-02 1.8043129881104195e-02
      -3.2404684467105760e-02 5.1724842804638363e-02
      -5.1886111156045030e-02 6.5125637748027654e-02
      3.5944723525392144e-02 2.6480480632031404e-02
      -1.0469117871772174e-02 1.0009698544065226e-01
      1.0204505019385435e-01 3.7817954364426387e-03
      -1.1535876530298474e-02 -1.2625729245581391e-02
      -3.2765124130056285e-02 -3.7035897359292302e-02
      1.5013071410502942e-02 -5.4994505889253996e-02
      -8.1822798349381484e-02 -5.0011055589212164e-02
      2.8456926936947695e-03 3.7115883096628804e-02
      9.3668753828329530e-03 -3.6158474829599996e-02
      2.5500534406072814e-04 1.6736800667370065e-02
      -1.2116069338832981e-02 2.9204286375739980e-02
      -3.1395625711872321e-02 -3.4022156207213855e-02
      -7.3479014340425253e-02 4.3152590761125459e-02
      -1.9512580703478843e-02 -9.7815307276064838e-03
      -4.3197441860662704e-02 7.4609413068298987e-03
      1.2826698167860364e-02 -2.9192468693612215e-02
      -4.1512860421731882e-03 -7.9106781966916551e-03
      -2.7255627029546495e-02 -1.1560957886955336e-02
      6.2608610025283928e-03 3.2507762977792884e-02
      -2.7630469144440568e-02 5.5120840368613602e-02
      6.1235654424872658e-02 3.4728631879643375e-02
      -3.1359117272629707e-03 -1.1190342202045338e-02
      3.7944879759762426e-03 -3.2259386117611651e-02
      1.3536590170592708e-02 -2.8330343509114710e-02
      1.6510759740102365e-02 -3.7975128780067639e-02
      -1.1645538448213005e-02 7.8353614216127299e-02
      7.6949886881410884e-02 4.4457866156052475e-02
      2.7504356989331707e-02 -3.6230601720623125e-02
      -2.4170171589030981e-02 -1.4222061456751207e-02
      -4.6247342174256393e-03 -3.9661303020400392e-02
      -5.9228736016196284e-02 6.7561052344548747e-02
      8.7386824480737758e-04 7.7732279495882472e-03
      -1.3978232987788967e-02 3.1379002952910649e-02
      1.1317185272833869e-02 -1.5454380882224766e-04
      1.1106311468878475e-02 1.2106656939634993e-02
      -4.5424686497845174e-02 8.9744604847172421e-03
      -1.0793387904296603e-02 8.3621361192997970e-02
      -3.5807361282191447e-02 -2.3944575423756057e-02
      -2.5333051927374572e-02 7.4954266484568488e-02
      -6.9283408233407296e-03 -9.1122140256280262e-03
      -6.9007933844335582e-04 1.8244072662855341e-03
      4.3907691996667390e-03 8.8891519331351834e-03
      2.3004255063524676e-02 -3.1696972762251356e-02
      1.2563050517415396e-02 -8.0216620029483574e-03
      -4.1041639955752281e-02 -9.9218980768693135e-02
      1.3765795857842225e-02 1.4134629796920107e-02
      3.0403836589621584e-02 1.0936381465154996e-02
      2.6977480364977036e-02 -4.9729156495806667e-03
      4.0265748509169662e-02 -2.7876915124300593e-02
      2.5225336140407891e-02 -3.6950077268519829e-02
      -4.4214570504039083e-02 2.2736159863794050e-04
      -8.9179093914012516e-03 2.2175390453232267e-03
      -2.1861366971126839e-02 -2.2617662395956122e-02
      -4.2934022230430051e-03 5.5630581080330626e-03
      1.8086930631896134e-02 5.7635444476594648e-03
      9.1664749504819006e-03 3.1867620303397443e-03
      3.7555716242605522e-02 -1.7500968004429823e-02
      -4.5161691461200623e-02 7.3349933450912203e-02
      3.4013928474735167e-02 1.0543578337225400e-02
      -3.3110597182270760e-02 5.0021235451982053e-02
      1.4146879762727183e-02 2.2033036166364275e-02
      1.1246360753955886e-02 2.1599325959976497e-02
      -2.7491035284721063e-02 -3.3065677491489517e-02
      2.2513246762965268e-02 1.7628736539883432e-02
      -6.1778081186116916e-03 1.1739058989708355e-02
      2.5926559176942629e-02 3.2117462926303892e-03
      6.0261728849497573e-03 -3.5119939724768685e-02
      2.1105263587501873e-02 1.8329302076540099e-02
      -3.1330635029605584e-02 -5.8033932611748572e-02
      7.7642083839457024e-03 -2.2003682601565634e-02
      4.5991299394677601e-03 -3.2013513818591674e-02
      -1.1007444122602763e-02 -6.6843552022929395e-02
      -1.6370674614174099e-02 -2.9127475729418223e-03
      -5.8451553787959897e-03 -6.1661493748066440e-02
      -2.5305298690436101e-02 3.9555213816687695e-02
      2.7560721427331430e-02 -5.7758571034992934e-02
      -2.5541135261060846e-02 3.3163221135649873e-03
      -8.9408023032452981e-03 1.2438035781110685e-02
      1.3177316928681475e-02 1.2464377788844324e-02
      6.1162344786142644e-03 -5.1608780480533285e-03
      -4.2087876147395176e-02 -3.9691867052152559e-02
      -9.8438216215611819e-03 3.6817530065128418e-03
      -1.9997066202542334e-02 -1.5371388356365172e-03
      1.6709548634121198e-02 -4.5428854709864824e-02
      -3.2758329270535486e-02 -8.3690833890736598e-03
      3.3970245537149418e-02 -6.6355462140060509e-02
      -2.9197910748092724e-02 -5.0156464279869889e-02
      5.0890016270550162e-02 -3.8474364991627603e-02
      -7.0922544753932327e-03 -7.8860971180216469e-02
      8.6552089976532961e-03 -1.5998959323832843e-02
      -3.8812782589466799e-02 -1.4983788710605742e-02
      2.9396318419178547e-02 1.3497047250168892e-02
      3.1406885255708381e-02 5.4691367686974947e-02
      -9.4057376640541770e-03 3.7917936059061907e-02
      2.1834486629096848e-02 9.8940690883430760e-03
      -4.1913916629079680e-02 4.0083454609349783e-02
      1.5604164448839851e-02 4.0524340590500169e-02
      -1.8748704170270268e-02 4.3999319615321969e-02
      1.8257768067582014e-02 3.4503671753644390e-02
      4.4820335574319733e-02 -7.5896698787025346e-03
      3.0775626090480363e-02 -5.9658421763162300e-02
      2.4786500646692782e-02 -3.6415422692577297e-02
      1.3946018144691898e-02 -5.9141942026244836e-02
      3.3932774512110242e-02 -7.7842208204392999e-02
      -5.9354617431622271e-02 -4.8813073232338522e-02
      5.5063092232851184e-02 2.7914110072694509e-02
      5.8177839393648276e-02 -1.5158028125207129e-01</_>
    <_>
      -9.4593668709508150e-01 8.2894158486136581e-03
      6.5400831914224056e-01 2.5161055047098307e-01
      2.7141241207892458e-01 2.4282831702659399e-01
      -2.8045779106772717e-01 -1.4416439428133181e+00
      -1.6832326691476890e-01 -1.1889737381979940e-01
      1.2913555421628982e+00 -9.0971275077921954e-01
      4.0690925064412220e-01 1.6655721285597858e+00
      -4.1490788227097668e-02 8.6244082194507021e-02
      -1.2269548181095505e-01 -5.4052892669932920e-02
      1.2656926157608378e-01 -7.0329516196586755e-02</_>
    <_>
      -8.0201790187506272e-01 2.4147792917137467e-01
      -4.8899679823235892e-01 -7.4140769233808926e-02
      -4.6134721646660171e-01 1.3429072471339270e+00
      6.4220956740709434e-01 -8.9881622833196917e-01
      6.8762344058814906e-01 -7.6572285880155277e-01
      3.8600544862779956e-01 -1.1101326717222293e+00
      -2.4666081291382641e-01 -2.7164934320350542e-01
      1.3539993615749268e+00 9.0785912242066336e-01
      -3.9399654105011706e-01 3.3259461048266675e-01
      -6.6124776113401965e-02 8.3475896249161671e-02</_>
    <_>
      -2.5265401758906797e-01 -2.8325234633663526e-01
      6.7059647244496201e-01 8.2547949393047682e-01
      8.5186336828180609e-01 -6.4350895013589560e-01
      -7.8899115203387840e-02 -9.7277834994772527e-01
      6.8013138115326988e-01 7.2936766613256532e-01
      1.2779916058779499e+00 -6.3471822603875974e-02
      1.0829928626134455e+00 7.8456714038364095e-01
      -8.2223291158767375e-01 9.2609970609461878e-01
      -2.1055030834664723e-01 -3.3190564883043772e-01
      -6.5237081268164498e-01 1.7428995752714702e-01</_>
    <_>
      -5.4716871475508955e-01 2.3171847763226787e+00
      4.7414809328490737e-01 -1.4991614522320200e+00
      2.3130743552909370e-02 -1.2743164422117542e-01
      -5.1887335699649262e-01 -6.7474018615490808e-02
      -2.4135381856362291e-02 4.2288221707701057e-01
      4.8710772300333915e-01 2.9420641969492278e-01
      -1.2465388810306084e-01 3.0317386562830079e-01
      1.9168713334144025e-01 -3.2209142475208336e-01
      3.8012402910474774e-01 -3.0045123647459763e-02
      -4.9061925125565825e-01 -3.2073824912529547e-01
      8.2130390836667039e-03 2.7898957427572785e-01
      3.7678800030806153e-01 3.2093663195629590e-01
      -1.4374686459483585e-01 -4.8417961733954262e-01
      -1.0162522962241389e+00 -9.3299848598105015e-02
      -5.2137873960788728e-01 -9.1215904992025421e-01
      -8.3675356114386035e-02 1.9424369521413274e+00
      7.2617784686873521e-01 8.9475651911906942e-02
      2.9559485200312818e-02 -5.9006062712799046e-01
      -6.7519878411114909e-01 -4.1573315206192540e-01
      1.6933785992909645e-01 -4.2533609293423902e-01
      -2.7202897475752241e-01 4.5153850370546877e-01
      -5.3134423923152652e-01 4.6863833415629913e-02
      6.8148021780025159e-01 4.4278804840619151e-01
      -1.0956948752860336e-02 -3.8744393513733205e-01
      -5.3162491449545091e-01 -4.4224763850954502e-01
      2.0304613743611494e-01 6.6808384804321297e-01
      5.5158426635014024e-02 5.5372991301625762e-01
      -2.5718553768510612e+00 1.8037620944663149e-01
      2.6117502633831364e+00 2.8234036128255223e-02
      -1.6335657467289361e-01 -5.5444622865248747e-02
      -3.6707983100119732e-02 1.4541327285960870e-01
      1.9838082093125517e-01 6.5072869852857998e-02
      -7.4567645610975911e-02 8.8317950941238885e-02
      3.4398032127570796e-02 -9.6158980161225718e-02
      1.2418527398819722e-01 2.3778075340504697e-02
      -1.9006100223163330e-01 -1.4303728982749234e-01
      6.2927389407629129e-03 1.0861610230527412e-01
      8.8818785443431358e-02 1.4874807776390342e-01
      -3.2380116550172824e-02 -2.1829879406248048e-01
      -1.7407058000607343e+00 -9.8881993966930126e-01
      7.0034354024230461e-01 1.4114313359636035e+00
      -3.4683982621164289e-01 1.1015693357323098e+00
      -3.8238214498549311e-01 -3.9249649259650445e-02
      -8.8703471687007381e-03 3.0788482686522350e-01
      3.4518389734835342e-01 2.2524628680732900e-01
      -8.1044889197621650e-02 2.2561025401023208e-01
      1.4920988551503056e-01 -2.3897386305820106e-01
      2.7875317167008540e-01 -3.2320404351576751e-02
      -3.5065882565125372e-01 -2.2348641576458059e-01
      4.9169201713545546e-03 1.9923687547084204e-01
      2.8678589160492651e-01 2.2190371014675453e-01
      -1.0988058068593706e-01 -3.3665019616884023e-01
      -1.7553531163451981e+00 -1.3685228972129297e+00
      -2.5581376211085995e+00 -1.8181782446871388e+00
      -7.5507577209589394e-01 -1.3634537726207305e+00
      5.1338094167758981e-02 -1.2718170515011585e-02
      -1.4118364457085513e-02 -3.4884588536572690e-02
      -2.2670387982735567e-02 -4.4722045825452403e-02
      -7.6965976346166807e-03 -3.4040192184563028e-02
      -3.3676952249249062e-02 3.4843253669521547e-02
      -3.5055798573037637e-02 2.1818475952583391e-02
      2.8364612517032949e-02 7.8859244645957897e-03
      1.2894263784223468e-03 -1.5822813818605026e-02
      -5.4161517734527646e-02 -4.7012773035261281e-03
      2.1524311105253914e-02 1.0555201515839184e-02</_></weights></opencv_ml_ann_mlp>
</opencv_storage>
