<?xml version="1.0"?>
<opencv_storage>
<opencv_ml_ann_mlp>
  <format>3</format>
  <layer_sizes>
    256 4 4 4 26</layer_sizes>
  <activation_function>SIGMOID_SYM</activation_function>
  <f_param1>6.6666666666666663e-01</f_param1>
  <f_param2>1.7159000000000000e+00</f_param2>
  <min_val>-9.4999999999999996e-01</min_val>
  <max_val>9.4999999999999996e-01</max_val>
  <min_val1>-9.7999999999999998e-01</min_val1>
  <max_val1>9.7999999999999998e-01</max_val1>
  <training_params>
    <train_method>BACKPROP</train_method>
    <dw_scale>1.0000000000000000e-03</dw_scale>
    <moment_scale>0.</moment_scale>
    <term_criteria>
      <iterations>128</iterations></term_criteria></training_params>
  <input_scale>
    4.7129945029069108e-02 -8.3791784737936609e-02
    1.8434711641383847e-01 -2.1282377166574072e-02
    2.0609700714096257e-01 -1.9034674690672024e-02
    4.2915863350727425e-02 -9.2154083607615081e-02
    3.8303884142600469e-02 -1.0347667361413301e-01
    2.4733059015902580e-02 -1.6275580079506702e-01
    2.1599524797423251e-02 -1.8820375509381018e-01
    2.1723461760222055e-02 -1.8866602301643051e-01
    2.5876505870046636e-02 -1.6276144121411262e-01
    3.1433220293691687e-02 -1.3023838531501611e-01
    4.4108152726275857e-02 -8.9622142989644174e-02
    4.5680872728886497e-02 -8.6489229333666845e-02
    3.1491751903431432e-02 -1.2652019485288418e-01
    4.9414535758705469e-02 -7.9866847454988454e-02
    4.8069216548601516e-02 -8.2132027913084993e-02
    3.7984115164199896e-02 -1.0436689375748333e-01
    6.5280118035401291e-02 -6.0291307855948308e-02
    1.6829274626866653e-01 -2.3314732143341160e-02
    2.3796954774174015e-01 -1.6483765304457731e-02
    4.8395132132553462e-02 -8.1571476335338886e-02
    1.9233193572292050e-02 -2.1316034889972357e-01
    1.4949530782585194e-02 -2.8341164519020690e-01
    1.1913194697475050e-02 -3.7694301596164242e-01
    1.0875240266189292e-02 -4.2702550633045261e-01
    1.2689747318286180e-02 -3.4862794212517956e-01
    1.6270920067276960e-02 -2.5931373704830540e-01
    2.9410750937600094e-02 -1.3874769418687996e-01
    3.6359890500701306e-02 -1.0913893246090622e-01
    2.7941902024565972e-02 -1.4322628337655557e-01
    4.9067547726979570e-02 -8.0438967004433648e-02
    4.7436834501782724e-02 -8.3242109076833506e-02
    3.7827248177207069e-02 -1.0480928958914672e-01
    7.6629319320188349e-02 -5.1310559251429987e-02
    1.3742912901175128e-01 -2.8558479815462622e-02
    9.7216721479317217e-02 -4.0404269430465961e-02
    2.9265492110325295e-02 -1.3649633272390943e-01
    1.5616027325029308e-02 -2.6934253576676997e-01
    1.1344535787368642e-02 -4.0198423690238205e-01
    8.9467299550060695e-03 -5.9894241747410015e-01
    8.4110842875532062e-03 -6.9128541868505233e-01
    8.2836268745354515e-03 -7.2113607293617465e-01
    8.6188746423042535e-03 -6.4519113110348036e-01
    1.2289830142405190e-02 -3.6560686745169441e-01
    1.8147324601656578e-02 -2.2736573323131284e-01
    2.5364084093442384e-02 -1.6010561340149845e-01
    3.1271944705161599e-02 -1.2828463010388866e-01
    4.2915863350727425e-02 -9.2154083607615081e-02
    3.7984115164199896e-02 -1.0436689375748333e-01
    6.8798783119006779e-02 -5.7186963874726750e-02
    1.2432059095342653e-01 -3.1575448897533630e-02
    3.5303188179199564e-02 -1.1248815574303084e-01
    1.7823505708320326e-02 -2.3269003078930109e-01
    1.0920775245460212e-02 -4.2666966552083974e-01
    8.1320414012701521e-03 -7.7837714862056151e-01
    7.8983896018501969e-03 -1.0559547581258795e+00
    7.9957799474228829e-03 -1.2040331277310654e+00
    8.0837933181392204e-03 -1.2605762190498215e+00
    7.9374914196775163e-03 -1.0979633470260639e+00
    8.0898699742919973e-03 -7.9605888124156132e-01
    9.0380946385152424e-03 -5.8837717850430615e-01
    1.0275875695736097e-02 -4.7255164514414799e-01
    1.3252497390217157e-02 -3.3086844489356909e-01
    3.0069502165215572e-02 -1.3304475038964678e-01
    3.7620237940255617e-02 -1.0631021422287555e-01
    5.2070889556082647e-02 -7.5744190575739570e-02
    6.4482034659056886e-02 -6.1043070659221280e-02
    2.1306334310791999e-02 -1.9172421201305670e-01
    1.1360376205341848e-02 -4.0690596315210936e-01
    7.9163819933984296e-03 -8.9252261028831104e-01
    8.2133759461870959e-03 -1.3409094801823118e+00
    9.1493640786296619e-03 -1.7641977127439179e+00
    9.2870926880403784e-03 -1.8137883748929102e+00
    8.8191765626430500e-03 -1.6284996020698037e+00
    8.3065103171791853e-03 -1.3969874610559256e+00
    7.8895013114564806e-03 -1.0606235800540398e+00
    8.1616344737818706e-03 -7.7122124900001154e-01
    8.9174733236521472e-03 -5.9878766297361785e-01
    1.3091545150900243e-02 -3.3651103200267668e-01
    2.8193274329980655e-02 -1.4286055940369227e-01
    3.7881054139517686e-02 -1.0479373108208480e-01
    3.7368224055047222e-02 -1.0612589165941290e-01
    3.9670125542955528e-02 -9.9839835156324608e-02
    1.5139669377580487e-02 -2.8172342029939929e-01
    8.5236590660954983e-03 -6.6526294605030190e-01
    7.9078074100571976e-03 -1.1273623431091937e+00
    9.0406217396867741e-03 -1.7180799518741470e+00
    1.0241459455574942e-02 -2.1383757462302473e+00
    1.0752972362754531e-02 -2.3053373782539976e+00
    8.7863864838008694e-03 -1.6251195105634533e+00
    8.5688700781005878e-03 -1.5314946588365022e+00
    7.8806998974159242e-03 -1.0497735906178318e+00
    8.0685621968219455e-03 -8.0654937468738608e-01
    8.7867247514685169e-03 -6.3336898346833626e-01
    1.3720206200400679e-02 -3.1869415219078112e-01
    3.0122844785090124e-02 -1.3344442060037434e-01
    3.7984115164199896e-02 -1.0436689375748333e-01
    7.9409536429154534e-02 -4.9505130234944676e-02
    3.2921031831695452e-02 -1.2086048855632851e-01
    1.1607535334078186e-02 -3.9718391980111195e-01
    8.1497110671504679e-03 -7.5883152242895424e-01
    8.1584129320145474e-03 -1.3230886227080869e+00
    1.0782189828245168e-02 -2.3072441317473111e+00
    1.1072285340394668e-02 -2.4078831958671469e+00
    9.3711197207412070e-03 -1.8485203984600220e+00
    8.3899144945419214e-03 -1.4438644772379816e+00
    7.9797745735025859e-03 -1.1739914583801814e+00
    7.9861041506486350e-03 -8.5332650912201047e-01
    8.3759819193905700e-03 -7.0086278988844797e-01
    9.1006914229935492e-03 -5.7969278342749309e-01
    1.5339944542860043e-02 -2.8090405328815521e-01
    3.0237118473239552e-02 -1.3195200333373600e-01
    3.7984115164199896e-02 -1.0436689375748333e-01
    6.7865784272153798e-02 -5.7978420373756889e-02
    2.6010024151997595e-02 -1.5527353244668610e-01
    9.9259275541694180e-03 -4.9668554165549694e-01
    7.9310872345815294e-03 -8.6211578924458976e-01
    8.8320443487822555e-03 -1.6305702043236545e+00
    1.4122690579056310e-02 -3.2960395627097885e+00
    1.2804780662527953e-02 -2.9221566875000362e+00
    9.9952997498650494e-03 -2.0607585713554619e+00
    8.0390619237191065e-03 -1.2435112730803484e+00
    7.9198844529310905e-03 -1.1489461856691725e+00
    7.9032620132507246e-03 -9.1492852643238887e-01
    8.2271437273340343e-03 -7.3495271006433227e-01
    9.6651301574483331e-03 -5.1582775146168791e-01
    2.0085600605507611e-02 -2.0613384134638207e-01
    3.7756976535776844e-02 -1.0716157456663575e-01
    3.1946863961415280e-02 -1.2466045838619988e-01
    7.4122925361518058e-02 -5.3055208709054717e-02
    1.7848308530855193e-02 -2.3168216356087820e-01
    9.3195898216501486e-03 -5.4839676554023153e-01
    7.8757756049612632e-03 -1.0503549101493097e+00
    9.9782999506139638e-03 -2.0511532156721146e+00
    1.3064642941848928e-02 -2.9970059047861075e+00
    1.2599285217145848e-02 -2.8602716136754389e+00
    1.0392909672603453e-02 -2.1887614573645657e+00
    8.6784489593786877e-03 -1.5754048745913056e+00
    8.1453330079641704e-03 -1.3094706986282276e+00
    7.8783265790506683e-03 -1.0423252911951848e+00
    8.1315232868475786e-03 -7.7386788238181037e-01
    9.8828217548066893e-03 -4.9971963815861270e-01
    1.6605447823356472e-02 -2.5392171522642321e-01
    3.0638139793387587e-02 -1.3016493291431958e-01
    3.7071467484027919e-02 -1.0699502227937249e-01
    7.1848195693746980e-02 -5.4744890145135894e-02
    1.5991376495957794e-02 -2.6344214490203410e-01
    9.1840525807815425e-03 -5.6498056169711874e-01
    8.3374001505431752e-03 -1.4114914974711996e+00
    1.0559472913043778e-02 -2.2381349744167878e+00
    1.2623675601114822e-02 -2.8698047330032028e+00
    1.2062976786464284e-02 -2.7058467161872728e+00
    1.2111914694482299e-02 -2.7169336495668741e+00
    9.7808591886975865e-03 -1.9856171479808986e+00
    8.6349590186452271e-03 -1.5529423359398786e+00
    7.9855979874036264e-03 -1.1866559563438677e+00
    8.0422142547187780e-03 -8.2750845640737691e-01
    1.0312426929974892e-02 -4.7469005036732037e-01
    1.7264741514861268e-02 -2.4104355520277876e-01
    3.3551089158776949e-02 -1.1852551100413643e-01
    3.6359890500701306e-02 -1.0913893246090622e-01
    6.6108741640068219e-02 -5.9530191561977398e-02
    1.7489190297158494e-02 -2.3771774928262887e-01
    8.4358343617600435e-03 -6.9150239151276760e-01
    7.8868819598666047e-03 -1.1062701659587970e+00
    8.6858664411817634e-03 -1.5629581186433159e+00
    1.0856449540161068e-02 -2.3311286164014811e+00
    1.1510337246916016e-02 -2.5414270177281169e+00
    1.0125304185873924e-02 -2.1070149245684169e+00
    8.7616762778851380e-03 -1.6139310760758498e+00
    7.9072526011556756e-03 -1.1093072072961934e+00
    7.9639113384718241e-03 -8.5955077730994334e-01
    9.1952412850361299e-03 -5.7335126950294957e-01
    1.2619365698838534e-02 -3.5475112021820948e-01
    1.9901857987992520e-02 -2.0617813092902829e-01
    2.8255453506738436e-02 -1.4157148857256169e-01
    2.9265492110325295e-02 -1.3649633272390943e-01
    6.8798783119006779e-02 -5.7186963874726750e-02
    1.5361390003084631e-02 -2.7452712286389114e-01
    8.2943136240363948e-03 -7.1417314769396756e-01
    7.9159610462239179e-03 -9.0549520114288284e-01
    8.0013463784852270e-03 -1.2033549683120059e+00
    8.5533728457149859e-03 -1.5221557223036255e+00
    8.3026348953812914e-03 -1.4036550027213821e+00
    8.0201118050648359e-03 -1.2064458696318292e+00
    8.0368795263466280e-03 -8.1077152609622183e-01
    8.5774360574076541e-03 -6.5308663380564824e-01
    1.0007340896852570e-02 -4.9436300275800826e-01
    1.4236236009065147e-02 -3.0354480762537678e-01
    2.0533029102676875e-02 -2.0059490302201341e-01
    3.3880273110151182e-02 -1.1734158334509985e-01
    3.8968801457892617e-02 -1.0167385132281563e-01
    3.3127013132101091e-02 -1.2008692237809374e-01
    6.2253466094295162e-02 -6.3245553203367597e-02
    1.5094134474929461e-02 -2.8020639714324863e-01
    8.9069215040014343e-03 -5.9743071143848803e-01
    8.3056671839737035e-03 -7.1261330908291876e-01
    8.0477932414254570e-03 -8.1058417029984331e-01
    7.9356767735920802e-03 -8.9789121666115845e-01
    7.9252156741292362e-03 -8.9463083839293056e-01
    8.0612393146618968e-03 -8.0244221369154689e-01
    8.7885239247249662e-03 -6.1887633197702874e-01
    1.0016551242293337e-02 -4.8985688085545098e-01
    1.3834200598200183e-02 -3.1439360765471519e-01
    2.0769733734784673e-02 -1.9853676391230382e-01
    2.5439082169721339e-02 -1.5800378861210024e-01
    4.2029361403248935e-02 -9.4132221505737274e-02
    4.3214409652511464e-02 -9.1640843359454771e-02
    3.6262503440211605e-02 -1.0955255589303335e-01
    5.6745271571446390e-02 -6.9441537965238859e-02
    1.7904582203632582e-02 -2.3068118451239406e-01
    1.1889155790994652e-02 -3.7663347021345428e-01
    9.3148964066023729e-03 -5.4693809292895756e-01
    8.5778322801274461e-03 -6.5081700493364636e-01
    9.3418278551073344e-03 -5.4583714812872441e-01
    1.0369184837880397e-02 -4.6238358412125574e-01
    1.0977187384348362e-02 -4.2898100847389337e-01
    1.2318264599533784e-02 -3.6802544331213055e-01
    1.3346852646112880e-02 -3.3084943088220681e-01
    1.7740194370083371e-02 -2.3918099798129427e-01
    2.5826458056064747e-02 -1.5741885643807085e-01
    2.4499654033333165e-02 -1.6492455442848189e-01
    2.7859389693316590e-02 -1.4464482117120367e-01
    4.3082824014773674e-02 -9.4966340801851706e-02
    3.5531752934542041e-02 -1.1361538601325766e-01
    6.3712662170704218e-02 -6.1785821427765501e-02
    2.0227663649693799e-02 -2.0176380185170853e-01
    1.6427659568239800e-02 -2.5413488203855211e-01
    1.4297640284043279e-02 -2.9876294246197821e-01
    1.4534405365405406e-02 -2.9297144607205039e-01
    1.6258557649033261e-02 -2.5714990559080814e-01
    2.0046660269540880e-02 -2.0391904273820730e-01
    2.4606094774997023e-02 -1.6481449247425115e-01
    2.4218500076760702e-02 -1.6794841229435639e-01
    1.8671465092847925e-02 -2.2647858238300508e-01
    2.4970994963099510e-02 -1.6379697465699183e-01
    2.0688488979453412e-02 -1.9713634790309301e-01
    1.9169561161762064e-02 -2.1481399129106404e-01
    2.2210432028785358e-02 -1.8348744996761304e-01
    3.2878132161147065e-02 -1.2348054742666227e-01
    3.4731122140040219e-02 -1.1613101035742532e-01
    5.2486746516981292e-02 -7.5137220430412377e-02
    2.5864828550134299e-02 -1.5527328258546758e-01
    2.7461807397081459e-02 -1.4583801193759757e-01
    2.3344014716488157e-02 -1.7301922533666589e-01
    2.4860803992795256e-02 -1.6187435848622844e-01
    3.8631990391548798e-02 -1.0257905815213406e-01
    3.4219532713072043e-02 -1.1614624988677159e-01
    2.9627723596747514e-02 -1.3476536534612563e-01
    2.9047510996728705e-02 -1.3949065064392493e-01
    2.3920483300039836e-02 -1.7739581163737439e-01
    2.7900107260688090e-02 -1.4476527946998100e-01
    2.5893441867307358e-02 -1.5571468142133449e-01
    2.1823081848872466e-02 -1.8691694868982192e-01
    2.3360341782223074e-02 -1.7351885890645488e-01
    3.5103490624821786e-02 -1.1648294285837052e-01
    3.3538394708712373e-02 -1.1975915734632209e-01</input_scale>
  <output_scale>
    5.2631578947368418e-01 4.9999999999999994e-01 5.2631578947368418e-01
    4.9999999999999994e-01 5.2631578947368418e-01 4.9999999999999994e-01
    5.2631578947368418e-01 4.9999999999999994e-01 5.2631578947368418e-01
    4.9999999999999994e-01 1. 0. 1. 0. 1. 0. 1. 0. 1. 0. 1. 0. 1. 0. 1.
    0. 1. 0. 1. 0. 1. 0. 1. 0. 1. 0. 1. 0. 1. 0. 1. 0. 1. 0. 1. 0. 1. 0.
    1. 0. 1. 0.</output_scale>
  <inv_output_scale>
    1.8999999999999999e+00 -9.4999999999999996e-01
    1.8999999999999999e+00 -9.4999999999999996e-01
    1.8999999999999999e+00 -9.4999999999999996e-01
    1.8999999999999999e+00 -9.4999999999999996e-01
    1.8999999999999999e+00 -9.4999999999999996e-01 1. 0. 1. 0. 1. 0. 1.
    0. 1. 0. 1. 0. 1. 0. 1. 0. 1. 0. 1. 0. 1. 0. 1. 0. 1. 0. 1. 0. 1. 0.
    1. 0. 1. 0. 1. 0. 1. 0. 1. 0. 1. 0.</inv_output_scale>
  <weights>
    <_>
      -2.7830200720027443e-01 1.2845724722635823e-01
      2.2265846934854847e-01 -3.2289598416038762e-01
      6.8829897475205556e-02 -6.9558951530210309e-03
      -9.3607449520538948e-03 -6.6014687598161641e-03
      -5.2136708835757058e-02 -5.9413800950424110e-02
      1.2132300279674660e-01 4.9922948249180093e-03
      2.3026555307672178e-01 -4.6552690294074811e-01
      -4.0934913315410143e-01 2.4330361779325435e-01
      3.5420833811141345e-01 -1.3944706483063873e-01
      1.2010971220370664e-01 4.8293959407435577e-01
      5.5809276168726185e-01 -1.1497890182249577e-01
      1.3679061126132208e-01 6.7815013836813076e-01
      2.1839123815516129e-01 -9.5860782136962100e-02
      1.2937527276130795e-01 6.4845627791895333e-01
      5.8890259160551783e-01 -1.3166920058067452e-01
      -2.4051888208069200e-01 6.5525005411311943e-01
      1.4302039365901997e-01 9.8089238240157056e-02
      -6.5131735274510494e-02 6.4775665332452737e-01
      3.1030523707949659e-01 -2.3229894335076354e-01
      -1.6101474485471864e-01 6.5993903590334996e-02
      1.6286816638902391e-01 4.3804353169172014e-02
      -1.6902273323529340e-01 4.9592458621993976e-02
      3.7291039638287871e-01 8.2252051914720792e-02
      -2.1550468215198040e-01 2.8296070413143848e-01
      1.8801310596331910e-01 1.4251019491853648e-01
      -3.4143926340056870e-02 2.9450959829790968e-01
      9.9017044609200841e-02 2.2631099682695563e-01
      4.1235526853805238e-01 1.1242967410728165e-01
      -1.4530778291970364e-01 -1.2432134981666726e-02
      8.3034579815872700e-02 1.8084068413712134e-01
      5.3283621027101567e-02 -9.6183127721335901e-02
      7.1427258375260969e-02 6.7981261015740091e-02
      1.6180425468949492e-02 -6.2090551634025305e-02
      3.3543367516783586e-02 -1.9336778153801898e-01
      1.0805793098091589e-01 8.1774168643279521e-02
      -4.8975120898180589e-03 2.9077995030369778e-02
      -2.2634488115761724e-02 -2.7682684073037894e-02
      2.9908701265767220e-02 -9.1926175766260370e-03
      3.1009400447966862e-01 5.1060463507865340e-02
      -5.5910944186247147e-02 3.0810042680811067e-01
      5.9384651705966873e-01 -3.8333775645713825e-01
      -3.7252896838661093e-01 2.6015397053184769e-01
      3.4890793950444204e-01 -4.9802367569441008e-01
      -3.2698309916604176e-02 4.3806982324190852e-01
      4.7990856739294191e-01 2.3755545311470411e-02
      4.7740927036756704e-03 -3.1300450965524068e-01
      3.2692653200736321e-01 2.8380261438030241e-01
      3.8904515382418778e-02 -1.1265124510913180e-01
      4.1360856995607004e-03 1.3402272327645540e-01
      1.5226954206935342e-01 6.7981857395143744e-02
      -1.6223174329851484e-01 -1.3246179993173934e-01
      5.8077039698153872e-02 2.1570296234846514e-01
      -2.0763669332272139e-01 -1.2969931055611375e-01
      5.9490555500785205e-02 2.2908460584788062e-01
      -4.2088871991082860e-01 -2.3690682510684441e-01
      4.2093250804158677e-01 -2.0527591392101360e-01
      1.8830385863424345e-01 -1.2486603641313292e-01
      3.3283119896061408e-01 7.0050499258668353e-02
      -8.6128715924734311e-02 9.1307711571049874e-02
      -6.8270476620043135e-03 -1.8423744518509564e-02
      -1.6594501978623385e-01 2.2189787102695389e-02
      9.9805388377846541e-02 8.6559068285449486e-02
      6.0993081925201198e-02 -9.7720516125040610e-02
      7.2216568447707366e-02 7.7137862411468347e-02
      4.5331039077054540e-02 8.2806262735464098e-02
      1.3486983343879108e-01 -5.3360921282665986e-02
      1.1220754432182528e-01 6.4053950973464488e-02
      -1.3444005271863924e-01 1.3555659244157216e-02
      -1.6769807384823729e-01 8.5745753919675136e-02
      -1.7423446981978113e-01 7.0636454037645541e-02
      -2.0418843153559174e-01 -3.7527077746456555e-01
      -2.1215826062197651e-01 -5.5454907343689852e-01
      3.7168769324355078e-01 -5.7198715314642945e-01
      -3.4327017193255310e-01 6.0577580905513018e-01
      -1.1972822776857005e-01 2.1990435743139491e-01
      -1.6657541065930537e-01 5.2018998395885330e-01
      -3.0647463700442706e-01 2.7644198995163427e-01
      3.2410588009183761e-01 5.0645840064856040e-01
      -6.7477777156568330e-01 6.2129055565387803e-01
      5.5530857617187102e-01 -1.0037787747051836e-02
      -4.2992999541491120e-02 1.4162116985135081e-01
      8.0570561657797357e-01 2.6840642423884631e-01
      -1.6292625740353756e-01 1.1570652345504223e-01
      4.8175586502068868e-01 1.0143026317656964e-01
      -7.2678834704024600e-02 1.7188115948168575e-01
      4.2289679074704961e-01 -1.2798059525079619e+00
      8.6733172581258039e-02 -2.4808190287223825e-01
      -2.5209161172591193e-01 -2.1207544003650813e-01
      3.0774891350354550e-01 1.7325978560784680e-01
      7.3388455555113474e-02 5.1506647578703657e-02
      7.1362975012528057e-02 8.8547961023370494e-02
      -9.3422969952006676e-02 -2.2109834746281520e-01
      6.7175038312368512e-02 4.2143208333936082e-02
      1.4702776568072198e-01 -2.0457148527423311e-01
      5.2661103243557141e-02 -1.0186498593385852e-01
      7.3050264258070832e-02 6.4101968546216775e-02
      -5.0330385723350718e-02 2.3307614186721615e-02
      5.4449995583406074e-02 -2.6960313940774605e-01
      -5.0281707986292124e-03 5.4187110809318310e-02
      6.2595305146176242e-02 -1.1333859040421847e-01
      -2.0099942215725561e-01 6.6747810528096552e-01
      1.9067054218813373e-01 3.2611634878280060e-01
      -4.1818371625138795e-01 3.8139634599549388e-01
      -3.0602919478808716e-01 -1.2706495164327838e-01
      -2.8355704567739937e-01 2.2385314758844169e-01
      -1.5209228226592020e-01 9.3897422524353624e-02
      -2.7360417993927078e-01 1.1775838928732690e-01
      1.4602482225086689e-02 6.0756090124247919e-01
      8.3461244755631631e-02 9.5604086775324289e-03
      -1.1739578689437595e+00 6.1570622607405112e-01
      -9.6990138721687158e-02 3.9239965862791304e-01
      5.1905107874895118e-01 2.3617301597466311e-01
      -6.0011058616336932e-02 5.5352014109078806e-01
      2.6887936358020825e-01 1.6698898899890749e-01
      -1.9036808280912687e-01 1.6615556124777792e-01
      3.5989944732949403e-01 -2.0401327548487533e-01
      -3.0731624926278028e-01 -1.4459626083788185e-01
      -2.7155614300639963e-01 -2.2819648582066421e-01
      -6.1486489091370145e-01 3.1575674195271977e-02
      1.0560262745769933e-01 -7.1180291355596181e-01
      1.7215711495894617e-01 -1.2528471159035309e-01
      -4.5637314971260452e-02 -2.0969374634153148e-01
      4.1355577593660764e-01 1.8306512161146646e-01
      -3.2471834908227054e-01 -4.6898678959370488e-01
      6.0247589675006841e-01 4.9846048806863591e-01
      -5.5589953346833310e-01 -3.8925478790718067e-02
      8.4642853397855530e-02 3.0759883911196696e-02
      -5.6099087899808596e-03 5.3118343343081888e-02
      1.0979400492521439e-02 -1.5954797912757765e-02
      -1.9574743688877280e-01 6.2379893544739724e-02
      -9.0829580689835585e-02 1.2511115529130368e-01
      -5.3349025366879535e-02 -1.5887015310513217e-02
      -1.3527671761413276e-01 2.8766519417714947e-01
      7.9289431257666743e-02 -4.8770870818812005e-02
      1.6284544649065125e-01 4.8435155375724609e-01
      6.2418681689570717e-02 -2.8789686665580561e-01
      3.6062168382533913e-02 5.7291189552097488e-01
      -3.2571283045012700e-01 -4.3734236330740500e-01
      5.1077738149653518e-01 -2.6621225275602184e-01
      -9.9202840145172541e-02 -6.5646478350975063e-02
      2.4770260410126840e-01 -3.4317230640614027e-01
      -2.7361316390470058e-01 1.1116480424336321e-01
      -4.5807258855887135e-02 -1.3493650102492341e-01
      -1.1280409607061448e-01 4.0852003683044885e-01
      -2.8996440019852976e-01 3.2795005461277077e-01
      9.9387253197604677e-02 1.6745804489997648e-01
      -1.5118129832964716e-01 3.6358481554004057e-01
      -5.0990934898907846e-02 -6.3740692335491803e-02
      4.4868085121576744e-02 4.2755614488627702e-01
      -7.0099050773647598e-01 -4.2351352259700509e-01
      -1.8254964218112055e-01 -1.1047120234982405e-01
      -2.8306679681101271e-01 -6.4114051631353730e-01
      2.1585945501750695e-01 2.5228645790614790e-01
      -3.1184715176756106e-01 -3.8053346760165940e-01
      -7.4609057003217127e-02 -8.6730923234535545e-02
      1.9656572443066811e-01 -1.1065152374105461e-01
      1.3977774833714143e-01 2.7219287699143307e-01
      7.4097262698740951e-02 2.6176970152633322e-01
      6.0406109685494494e-02 -1.2980625038206467e-02
      5.1785666718389578e-02 5.6206364511889997e-02
      6.4072237965445464e-02 -1.8863204167913414e-01
      -4.2496943581117358e-01 1.2761132633157130e-01
      6.1403064678676768e-03 -2.7320400197897310e-01
      -3.6941800877172176e-01 7.9873409983437560e-02
      -1.7369486514797319e-02 -2.4716304708936615e-01
      1.6947351814113742e-01 -1.2564382874941032e-01
      -1.1473878342776025e+00 -6.9574768277830004e-02
      -3.5848766886820643e-01 -1.8898155055117491e-01
      7.5078648557859562e-02 5.5330887580168664e-01
      -2.2979907001670546e-01 -5.5453919500753501e-01
      2.8747659135521869e-01 -4.7603718419002788e-01
      6.8777857861506086e-02 -3.2487185866463109e-01
      3.5863794400931603e-01 -5.0829323253911385e-01
      1.4525846466395773e-01 -4.9948599601693122e-02
      2.0684023644525162e-01 -6.6981409086625587e-02
      -3.9335654791811239e-02 3.7398406785061705e-02
      1.3784752558907548e-01 4.6393351577130110e-01
      -5.2816094427391302e-01 3.7724856718346322e-01
      -7.6498217431647864e-02 4.4004872389604294e-01
      -4.3855374789121521e-01 2.2825212127430924e-01
      2.7520013063145188e-01 1.2659520207727606e-01
      -2.0119838191384262e-01 -5.2928961222393732e-02
      5.3804199343907178e-01 1.8314300454797203e-01
      -2.3936317463004889e-01 -1.9979006058668866e-01
      6.5998994447911602e-02 4.7895318616003552e-01
      -1.9498642443772932e-01 -4.1408818116108426e-01
      3.6792802976413114e-01 3.8036618878144468e-02
      -3.7363530570653258e-01 -1.3427874359109948e-01
      -2.1392660950149692e-01 -6.2761000126320754e-01
      4.0346105154325229e-01 -2.0603064203129939e-01
      5.4757196965568640e-02 -9.1085370642271388e-02
      8.1146034652766388e-02 6.8885664876468383e-02
      4.5611283058569936e-02 1.2254870588837649e-01
      2.7228485630061855e-01 -1.8179096349339954e-01
      -8.1938766730912660e-01 8.1026694498606264e-02
      -1.8897010957165283e-01 -5.1357054458252560e-02
      4.0104795510142142e-02 -4.3907217479550009e-01
      5.9932743483767248e-01 -3.5377436262182060e-01
      -4.6559659493016999e-04 3.4028678322902309e-02
      -3.7354623257186403e-01 -2.7694846316887622e-01
      6.9724388982881538e-02 1.9226585133425336e-01
      -5.7414876526659164e-01 -1.7783909173724183e-01
      1.7210806311258486e-01 -2.9045909264062880e-01
      -1.8928690498085407e-01 -2.3432353819378474e-01
      -2.9508931917655185e-01 -9.1838164404445546e-02
      -3.1917509684647394e-01 4.0648626961730515e-02
      1.4866290178941849e-01 3.0877681149663538e-01
      -8.3558173212984352e-02 5.9024127846807717e-02
      2.5052787124654213e-01 5.3537596447062807e-01
      -2.5783858882175370e-01 5.0565651092136854e-01
      1.5026474752197289e-01 3.8588697636816341e-02
      -5.4532988203228749e-01 -8.8321980522119814e-02
      2.0448468308435119e-01 -3.7971512479643081e-02
      -6.8913554214734396e-01 5.7185680220063956e-02
      3.0207640508738215e-01 6.7358067001869348e-01
      -7.0337455088837000e-02 -2.3138160011909573e-01
      1.3217185598738854e-01 3.7577961720005271e-02
      1.4408973216470271e-02 -7.6232685449255733e-01
      6.9518842789431531e-02 -2.4531446107342703e-01
      4.8562882434255855e-01 -3.7388790578006359e-01
      5.1339650955678710e-02 2.0083756006031922e-01
      -2.3278232356665723e-01 3.1087489125838741e-03
      6.4621536436299296e-02 -9.4409184870728816e-02
      7.0819482545261395e-02 7.7580696780556013e-02
      1.4861049513206957e-02 9.3271588271873998e-02
      -7.7059279755584825e-03 -6.5191365422531622e-02
      -1.8321882657497812e-01 2.9459807510737929e-02
      1.2182578803309295e-01 2.0631813899489912e-01
      3.5220969292674875e-01 -6.5400525004562005e-02
      2.2343890659295707e-01 -1.6743240370760978e-01
      -1.0544395172269222e-01 1.5696650366779985e-01
      -4.2682158057398822e-01 2.6320071169506420e-01
      -6.8226829446390067e-02 1.0723829240207193e-01
      -4.0579095128324916e-01 1.8612503451954202e-01
      -1.4452700810410807e-01 -1.7160963136038662e-01
      -5.3671201480493626e-02 -4.0194227122098797e-01
      -1.1353048263533054e-01 3.0107741153586352e-02
      2.5906316616766345e-01 -9.8290685371289904e-02
      -5.7460871601144027e-02 3.5035671182844103e-01
      1.4874933594553272e-01 9.9817191422521850e-02
      3.7749949318945164e-01 6.9053062371508722e-01
      2.0275351556220880e-01 5.5799077512534290e-01
      6.5459878093912460e-01 -1.6294521468431242e-01
      -4.8219430200155622e-02 3.1539994571627455e-01
      2.7204159574739650e-02 -3.7059837011261998e-01
      -2.1953743584547333e-01 -7.8593916466988301e-01
      5.0490218588725277e-01 -2.1490506595452052e-01
      -7.0991049205210899e-01 2.8193513323541070e-01
      4.4176215131012453e-01 4.4172380163479345e-02
      1.3909286803446977e-01 -1.0395267531091013e+00
      -3.5656701061441864e-01 8.1792636857344322e-02
      1.2675151454929090e-01 -2.8509913938086939e-01
      -5.0389954941570836e-01 -6.1995849518999814e-02
      3.3116020728769824e-01 5.4136495855571882e-03
      -2.9055958715541680e-01 -9.4365539720949632e-02
      -5.6056802707174280e-02 3.0020656230629406e-01
      1.4111799744816887e-02 -1.0392873639236005e-01
      1.1093755609354239e-01 -3.7312175867889076e-02
      1.5615329779292736e-01 5.4856018544576268e-01
      -3.2335130592815353e-01 5.3184336643099017e-02
      4.2196400949467434e-03 2.8236057656665170e-01
      2.2971862723205913e-01 2.1786426556997210e-01
      -4.7847224837862595e-01 2.0524728878715118e-01
      -1.0495418496007647e-01 -1.7938637036152300e-01
      -2.7485752443015460e-01 1.9812433116463024e-01
      -9.2098277951670138e-02 6.1055915991179113e-02
      -5.6702555244745467e-01 2.3284633710135919e-01
      2.1770533616491508e-01 -5.1676524647310584e-01
      -2.4679875053481684e-01 2.3301182569213336e-01
      3.8527397699579174e-01 -1.6973189757710841e-01
      3.3314820922523775e-02 2.6310302975140365e-01
      2.5300389723119271e-01 -8.1546605082374810e-02
      1.5436797243749648e-01 4.0151160761739280e-01
      -5.6199882094750753e-01 5.7640267434036796e-01
      -3.0190113171141919e-01 -2.0288940454033197e-01
      -4.0570832156440412e-01 2.0379866412981709e-01
      2.3057019730593060e-02 -1.5828110148069086e-01
      -7.8802881996490004e-01 -5.2110775016222222e-01
      -2.9067075037055301e-01 -1.4721748223577080e-02
      -4.6276031571033396e-02 -5.9554929004623414e-01
      1.0089184053097318e-01 -8.7130383833887493e-02
      3.0518533550011589e-02 -6.5989763881428798e-01
      -2.3009363349720363e-01 -5.5305088426316273e-01
      5.0886182081439535e-01 -2.3622178118946921e-01
      3.5562658139558001e-01 3.9611227517065375e-02
      -2.0370742156865733e-02 -1.4950540314674704e-01
      7.5880211871117181e-02 -1.2746458841909564e-01
      -1.0720251871130765e-01 7.5449739007199867e-02
      4.2754690754608686e-02 1.2169513689496310e-01
      -1.0968386354201541e-02 3.2124184378821051e-02
      1.1190321774094715e-01 4.2398650210601335e-01
      -1.8423000077816107e-01 3.0081188142905495e-02
      -3.7340463672959245e-01 1.3006656293252281e-01
      1.3092008710560937e-01 6.7931476581558636e-01
      1.1232671060063208e-01 -1.1416997047856364e-01
      -1.0372722741287825e-01 -8.6765629326228347e-02
      -2.7199523183962626e-01 5.4839567785517393e-02
      2.0926409899677981e-01 -3.1262363639838447e-01
      -1.0973761539713078e-01 -1.4524663877396085e-01
      1.9268285376503325e-01 -2.5086229054009807e-01
      2.3242491440296253e-01 -1.2277151898490735e-01
      2.7775737835661857e-01 -9.8782633404435966e-02
      7.2406412115755783e-02 -2.0972030079591447e-01
      8.4886734863166960e-02 9.2191090032741743e-02
      -1.0730403999902507e-01 3.6533145257262215e-02
      -1.0414591216127320e-01 6.8769637445291987e-01
      3.1892275081245397e-02 1.1429187789091515e-01
      1.8912059848684659e-01 -3.3773852720164255e-01
      -6.8129517120018801e-01 -5.2672782511819372e-01
      9.5120241294891839e-01 -4.5080570462574254e-01
      8.7597810954689933e-03 -5.6929484965039223e-01
      -2.1079952248316828e-02 -2.4897752383915073e-01
      1.0659096686981480e-01 -6.6680933159685463e-01
      -2.8195500687940200e-01 9.9271478042407574e-02
      6.9187809256926036e-01 -2.0133598253444995e-01
      -3.5158602868099126e-01 5.2591676868140436e-01
      2.6610351907380680e-01 -6.1781754021386588e-02
      -1.0475691010223196e-03 5.0011125990049171e-02
      -2.4287867359776477e-01 1.1082946291358534e-01
      -3.6082711079522076e-03 9.7863242516803589e-02
      6.5321197010473134e-02 4.4745742383240437e-02
      -6.0323711395825264e-02 -1.1637326035800513e-01
      3.7963676202920366e-01 2.8676394260858967e-01
      1.9782349763679868e-01 1.3414404907223668e-01
      7.5160710561748778e-02 3.3991323320108596e-02
      -2.9152276018290585e-01 4.9026708898249077e-01
      -2.9775942150030404e-01 -2.4095794850538163e-01
      -1.1955905328051206e-01 -9.7424272479034998e-02
      1.3852983663265320e-01 2.8146971568399048e-01
      3.1804099503685418e-01 -4.6664122986923892e-02
      -7.5358231456658384e-03 3.5968332649746325e-02
      5.9233748554675156e-02 -8.2313322773699793e-02
      -4.0793876446375534e-02 -3.1409423926434404e-01
      -5.5185531864773117e-02 -1.6081575003875029e-01
      1.7996063399878914e-01 -4.2814557718696256e-01
      -1.7543033209816584e-02 8.7968636136473516e-02
      1.6993457880030066e-01 -2.3762058020210597e-01
      -3.6928867089359990e-01 2.4103462345712087e-01
      -1.4614298286654209e-01 3.0756360723503967e-01
      1.3723013000516893e-01 1.0617338148841531e-01
      -2.2485070158630949e-01 -2.3941606225557836e-03
      4.7019522536135777e-01 -6.6166805975745246e-01
      -3.4142606191100361e-01 -6.5911518700467797e-01
      7.0511374891196421e-01 -1.1282364531898041e-01
      -2.0873027240206390e-01 -4.0315332926133585e-01
      2.8264177769211624e-01 9.8033238087413710e-02
      7.9453675065292939e-02 -1.0255445402855249e-02
      -7.9324703176271730e-02 9.2735849682511248e-03
      -1.2859205601979654e-01 5.9455379077989277e-02
      -4.1087473235572408e-01 4.7480818806847974e-01
      -5.3792158404663309e-02 2.4483599303924827e-01
      -6.3122517698988756e-01 2.7511690259443589e-01
      1.5373221983854209e-02 -1.4675831698070400e-02
      1.5061370391029377e-01 -1.0411941218454941e-01
      2.1991751394770670e-01 1.0438906966821179e-01
      -5.7751384991985136e-02 4.3656605511617513e-01
      -4.0917335888416934e-01 -4.5155937442083754e-01
      -1.1469498149641761e+00 1.1401962605683484e-01
      -9.7370065010285251e-02 8.5293527585124287e-03
      1.1541206779420628e-01 3.3448522915315920e-01
      -1.9158765700986716e-01 -5.2047653158620172e-02
      3.2960099937221699e-01 -1.4578502916911298e-01
      1.2560984053156213e-01 -7.5655388973320983e-02
      -2.3536908254526305e-02 3.9236287595924318e-01
      3.4094385074734002e-01 2.1393072110242525e-01
      -1.0281187762712486e-01 5.6782376407408675e-01
      2.0405939216950267e-01 -3.3847278272646567e-02
      2.5342888234783900e-01 4.5552839489425428e-01
      1.7931069984558654e-01 5.3433190370783212e-01
      -3.9783958241689940e-02 -1.5204136435206400e-01
      -7.7666308990856942e-02 1.0221523187475128e-01
      1.8638647881802625e-01 3.2501259777569591e-01
      -1.7764680299039348e-01 -3.4750800241150501e-02
      1.7287997493887743e-02 3.1997952486305137e-01
      7.4509071871995972e-02 -5.6494535152866392e-02
      -2.2967926833107502e-01 2.4714320766744896e-01
      -1.6716744160015362e-01 2.4402397680331081e-01
      -1.7129032269625138e-01 3.1842662813244521e-01
      -8.0130314722429832e-02 4.9862198964381231e-02
      -5.7094876900671233e-03 -1.0260643769128452e-01
      -4.9258865697669046e-02 7.3764351716276599e-02
      1.6667033679152141e-01 -8.1262301873714776e-02
      -3.6178768517556963e-03 -1.1718868149497952e-01
      -5.2584024667939899e-01 2.5379168176961199e-03
      3.3479421385173846e-02 -9.3552645434196946e-02
      9.1249984551143373e-03 -8.7742415021939135e-02
      3.2771460683948628e-01 3.1938149152530071e-01
      3.5774899273123850e-01 2.3320929949036290e-01
      -1.7721188864320561e-01 -5.7981247706269357e-01
      -8.0358809222599970e-02 -6.0148559297871529e-01
      9.3003434423509820e-02 2.0529985732010003e-01
      -9.0122132454237933e-02 9.5360478344902203e-02
      -1.5005868052038629e-01 -4.3201301218891298e-02
      -3.3493104131308221e-01 2.7461214565735487e-01
      -2.4102448271169918e-02 6.8980153309122355e-03
      -1.2646517816161149e-01 3.0321090890641694e-01
      5.5678645369543822e-01 4.8127115216629818e-01
      -9.0270216081502333e-02 3.6033163722523032e-01
      2.0476500979861194e-02 4.1531851629734738e-02
      -5.1389409077639212e-02 -3.0772787586632699e-01
      2.2477645316192885e-01 2.5198649576842852e-01
      4.7682021744171695e-02 6.1972902633995364e-01
      -2.5637065153887145e-01 4.0657058506410720e-01
      -6.2363843177809936e-02 1.3076483798202906e-01
      -9.1610248964223609e-02 3.1148980973207219e-03
      3.8056616008898113e-02 2.5106312484704790e-01
      -9.0728035954636674e-02 -1.7015455624104273e-01
      -2.9060204000281625e-02 -1.6437640925335575e-01
      -3.1139086081284117e-01 -1.7260473972063384e-01
      2.4017302722018657e-01 -2.7413102498007796e-01
      -3.8954313012233788e-02 4.0611530014414345e-02
      -1.7965100751930466e-01 3.0076603219946890e-01
      5.2610042220285272e-02 -8.1288618516624375e-02
      -7.8446420042279724e-02 8.4975377883771713e-02
      -1.6850302206987681e-02 2.0253298420805679e-01
      2.7203030143907853e-01 -5.0360582851483993e-01
      1.1862589368538864e-02 -1.2357185630931060e-01
      -2.2088564208129352e-02 -2.7421664912921237e-02
      1.1117229644365133e-01 1.4321550500699287e-01
      1.9767725333656880e-01 4.6985508730033593e-01
      2.2899425502947585e-01 -7.9763244657403184e-02
      5.3639067373636828e-01 -9.8045262734503935e-01
      4.7521182231056913e-01 1.3404928573829350e-01
      2.4341828998151754e-01 7.4559399274974833e-02
      1.7420023893735620e-01 -1.1294807333152551e-01
      3.4554794256783122e-02 6.7438096292893226e-02
      -3.7348260171462005e-02 2.5716956778823904e-02
      1.1909226039811228e-01 -1.0076337628730157e-01
      5.0431715463801430e-01 1.1790636685269344e-01
      3.1796506973738745e-02 1.0124409730405755e-01
      1.1164223636590148e-01 6.8086162547112816e-03
      2.0227862695518375e-01 7.3643218300290039e-02
      -2.7507207470157950e-02 -1.2266001518517838e-02
      2.1310868925108481e-01 3.1117353804745995e-01
      7.2924631451868555e-03 -3.1637053847825794e-02
      3.1503265272049363e-01 -2.7117186466983138e-02
      1.4278034795360584e-01 2.3702733089134573e-01
      -2.0493323872807215e-01 7.5366718761104790e-01
      1.8538912085341788e-01 2.6503982999657943e-01
      2.2952695100265225e-01 3.3270931089034012e-01
      -1.4820987043716122e-01 -2.8195859387250676e-02
      -1.0393211415865233e-01 3.2205840873894470e-01
      -2.7292875101383096e-01 -3.3420591510688602e-01
      -1.0522384496102159e-01 3.0648864432523015e-01
      -1.2397444909624050e-01 -8.5119460072824990e-02
      -2.1818854024470846e-01 -2.8416733477505718e-01
      -1.0232959907987212e-01 1.0439126875915002e-01
      -1.2553370390123289e-01 -3.7071698446837420e-01
      -7.7760147479038729e-03 -1.0973003319742321e-01
      2.4678754973909152e-02 -8.3428205269378816e-02
      2.5296950959604764e-01 -1.3437795967165442e-01
      -2.5334687333115330e-01 5.7273514035632167e-01
      3.3088119564642238e-01 -1.2667675245895718e-01
      9.7519780671007528e-02 6.9423905425747444e-03
      1.1921226734416714e-01 -5.9794678105200838e-02
      1.1816763977241776e-01 2.1693052828529444e-01
      8.1933461038442169e-03 -1.8890342952190048e-01
      4.7411274981790347e-01 -2.3501530816119576e-01
      1.6875470729792102e-01 5.5980409848288483e-02
      5.3907177676282081e-01 -1.2394587855209642e-01
      4.2338054156382121e-01 1.4122963167668037e-01
      -3.2748028560081292e-02 -1.9324080504445953e-01
      -2.6029799265610876e-01 -3.2872425321448094e-02
      1.0355551842245919e-01 -4.1864040077918795e-02
      -5.0391936577645524e-01 5.2276295869346706e-02
      -9.0870515088372059e-02 1.6742572260757757e-01
      -1.3953376481949120e-01 1.5792747166951235e-01
      1.6213781309310427e-01 -2.4966095834289023e-01
      7.6515817063776581e-02 -5.7809623581601674e-02
      7.9218228055957171e-02 1.3130860417726531e-01
      -7.5027691984934045e-02 5.4243338247141420e-02
      2.3814092509142053e-02 2.2310375326702031e-01
      -1.0700989283304484e-01 1.7189898823741761e-03
      -6.2416354148985283e-02 2.3436729732438064e-01
      1.1548781708760012e-02 -2.7013659923452582e-01
      -3.3494404327641508e-01 1.3643358491973340e-01
      -7.9434252351439930e-02 6.5168170561455034e-03
      -2.0275255274418863e-01 1.1334075836336731e-01
      -9.7401382958419824e-02 2.5127100475429104e-01
      2.8519321075195436e-01 -4.9012602447507098e-01
      3.7652278855480226e-01 -1.5512552768667309e-01
      -1.4220661831095710e-01 9.0298329625032578e-02
      1.6205765294841820e-01 6.1264855868368662e-02
      -1.3273621650288900e-01 -1.6326851225505933e-02
      -1.4916087836079062e-02 1.0412331375630274e-01
      1.2575845273342314e-03 -7.8309127627625832e-02
      -3.3457017691752450e-01 6.2997646680232500e-02
      -3.0674095291743253e-01 -1.8535925923525162e-01
      -2.8859124413563537e-02 -1.5283071917068144e-01
      1.7804359387622171e-01 -1.1100567867485957e-01
      1.3161270240794426e-01 -1.7952856811419671e-01
      3.3568126354269556e-01 -3.4034479393142014e-01
      3.5725937869954268e-02 7.9703848414217668e-02
      5.7294486135400724e-02 -2.1313611942038492e-02
      -1.1312301606464423e-01 -6.2563244358084169e-03
      -1.0579761444819408e-01 8.3495158127111113e-02
      -1.2062754197662641e-01 1.3345329703465245e-01
      -3.1686296049192016e-03 -1.3248367783339198e-02
      -2.4529929292694118e-02 1.8638975249683104e-01
      -1.6839237698747536e-01 -1.8246183121371159e-01
      -1.1687344618132739e-01 1.4260586484945070e-01
      3.2772668087532875e-02 3.9510704601351480e-03
      -1.0873828718116464e-02 -6.5124787870731282e-02
      1.3068713243311297e-01 2.5137610409954662e-02
      -3.8835852271340260e-01 1.4238449205078599e-01
      -3.9855180763820114e-01 1.8116236679980471e-01
      -4.1798962744979562e-01 3.4615020817758679e-01
      -3.1192924294825075e-01 3.8512134450946922e-01
      1.7971700258252629e-01 -1.5833185221259485e-01
      2.2733457436414792e-01 -1.4888432045969632e-01
      1.3939897518276104e-01 -1.0583238172020079e-01
      2.8059881917358576e-01 1.1005062363605451e-01
      9.6955629173127533e-01 1.0050126582285424e+00
      -5.4221938171717077e-01 -4.9080478762077067e-03</_>
    <_>
      4.2896674459280987e-01 2.9264634334635588e-02
      3.5721260542947046e+00 1.9038979454908611e-01
      -1.0154252538689719e+00 2.0372822132399384e+00
      5.8563680117789529e-01 3.7779797869015830e-01
      -3.1937954604584027e+00 -2.0965514146298148e+00
      2.8494678113920524e-01 -2.2839327759797795e-01
      1.0395459350990599e+00 -7.0813601260032377e-01
      1.3174491597856424e+00 3.1449785499827674e+00
      -3.7137849257098968e-02 -2.1859532613672026e+00
      3.0603409390059783e-01 -6.8912243227428738e-01</_>
    <_>
      1.1656581239786250e-01 -1.6162723841856486e+00
      7.1964416784345808e-01 -9.2395196998117624e-01
      -9.3751539703051145e-01 1.4460434205156264e-01
      8.9015065520304437e-01 -4.3921602376163560e-01
      5.1403376824746314e-02 4.2208254110734050e-01
      8.3507064070746440e-01 -1.3337461493354379e+00
      8.0227224855795265e-01 1.4733102654880053e+00
      1.8969979515677596e-02 7.6723312049952608e-01
      -1.3505822502920577e+00 -2.5469573037686741e+00
      5.3620945166236700e-01 5.4492111635668783e-01</_>
    <_>
      -1.4226011880880574e+00 -3.0839696525163218e-01
      -1.7921612538373904e-01 2.0835333861536776e+00
      -1.8718130717106099e-01 -1.1727293751636341e-17
      -1.0637333859692540e-17 -1.0767473704179106e-17
      -1.1193942934155815e-17 1.1041897498711920e-17
      -1.2524235817363736e-17 -1.0807653438784622e-17
      -1.0692121419908989e-17 1.1278622859514367e-17
      -1.1373794322236722e-17 1.1091199602947067e-17
      -1.1151373123660732e-17 -1.1170940105285369e-17
      1.0604584333294873e-17 1.1176463560214105e-17
      1.1282736689871847e-17 -1.0556782669621085e-17
      1.1781008064605224e-17 -1.1097567441225699e-17
      1.1398272393487978e-17 1.1190532258755745e-17
      6.1485836707167252e-01 1.5941385097122798e+00
      -6.9564570222143884e-01 -1.1334460935618851e+00
      -3.8052242388630642e-01 -2.3277617256134184e-17
      -2.2613862692246666e-17 -2.2743473239600530e-17
      -2.2891696071778471e-17 2.3165759808109611e-17
      -2.2996666194965997e-17 -2.2659231700268722e-17
      -2.2610030413225778e-17 2.3493860734779362e-17
      -2.3029533392270410e-17 2.2970646240659903e-17
      -2.2890203169600416e-17 -2.2982503108609192e-17
      2.2323234389588437e-17 2.3119308444040968e-17
      2.2916971532334703e-17 -2.2356889100354656e-17
      2.3403354557423720e-17 -2.2832786654261385e-17
      2.3021730145960655e-17 2.3485255938487325e-17
      -2.8153042551599405e-01 -6.7147385265479892e-02
      -1.7054513517771410e+00 -2.1928278203547588e-01
      2.2803487906863880e+00 6.4428318428498321e-17
      6.9843425964546630e-17 6.9355244402493948e-17
      6.7749076146016630e-17 -6.7033482321917982e-17
      6.3607609573935373e-17 6.9524069053400342e-17
      6.9556843363881631e-17 -6.5433334657705452e-17
      6.7164350058700357e-17 -6.7565567615473647e-17
      6.7859280711091202e-17 6.7609508565010200e-17
      -7.0721317570012074e-17 -6.6645880309714395e-17
      -6.7388672059799358e-17 7.0361508284333397e-17
      -6.5016837557400216e-17 6.7814698792888497e-17
      -6.6552364822908724e-17 -6.5447370629905323e-17
      -1.2597398092387568e+00 -1.3401746770607759e-01
      -2.8597996591509806e-01 -6.2318353485454914e-01
      2.3005916873428593e+00 6.9387286150068912e-17
      7.3716366496359369e-17 7.3240368448583745e-17
      7.2102152639129571e-17 -7.1557164970920717e-17
      6.9002876109582105e-17 7.3458449249436576e-17
      7.3457949598738260e-17 -6.9953448279613597e-17
      7.1629672186542830e-17 -7.1988692174411529e-17
      7.2316715592243078e-17 7.2067303826083192e-17
      -7.4373926258143802e-17 -7.1387961482661986e-17
      -7.1686373920349631e-17 7.3724577538262263e-17
      -6.9928272660931815e-17 7.2249569561172339e-17
      -7.1318091329399360e-17 -6.9960097831891940e-17
      -7.2400430211824340e-01 1.6862012955228797e-01
      -1.1656789202141893e+00 -1.3281395137035763e+00
      -2.6413108861978656e+00 -7.2961717575637764e-17
      -7.9040550740648609e-17 -7.8431434761804362e-17
      -7.6756779987532856e-17 7.5879755400458885e-17
      -7.2191923453194296e-17 -7.8731923637339900e-17
      -7.8740299400656376e-17 7.3909351508822399e-17
      -7.6035622188901792e-17 7.6631698576999293e-17
      -7.6889386096730935e-17 -7.6640476643330644e-17
      7.9929207461429762e-17 7.5528521924248253e-17
      7.6201367476978165e-17 -7.9186230408404297e-17
      7.3798978436636737e-17 -7.6889955405189725e-17
      7.5423211637076237e-17 7.3943004048747900e-17</_></weights></opencv_ml_ann_mlp>
</opencv_storage>
