<?xml version="1.0"?>
<opencv_storage>
<opencv_ml_ann_mlp>
  <format>3</format>
  <layer_sizes>
    256 4 4 4 26</layer_sizes>
  <activation_function>SIGMOID_SYM</activation_function>
  <f_param1>6.6666666666666663e-01</f_param1>
  <f_param2>1.7159000000000000e+00</f_param2>
  <min_val>-9.4999999999999996e-01</min_val>
  <max_val>9.4999999999999996e-01</max_val>
  <min_val1>-9.7999999999999998e-01</min_val1>
  <max_val1>9.7999999999999998e-01</max_val1>
  <training_params>
    <train_method>BACKPROP</train_method>
    <dw_scale>1.0000000000000000e-03</dw_scale>
    <moment_scale>0.</moment_scale>
    <term_criteria>
      <iterations>128</iterations></term_criteria></training_params>
  <input_scale>
    5.3030332168029458e-02 -7.4822704572884993e-02
    1.6735070655539969e-01 -2.8859625833150986e-02
    1.5277734473113852e-01 -3.0589671234120503e-02
    4.8401560290886915e-02 -8.2296874304583434e-02
    4.2772228040115323e-02 -9.2800833091373755e-02
    2.5727479989436326e-02 -1.6113602725159343e-01
    2.1407329278921038e-02 -1.9755277723892509e-01
    1.8488066082741346e-02 -2.3164794034467676e-01
    2.9237232608428112e-02 -1.4357211636006617e-01
    3.5384433270506312e-02 -1.1652058724239066e-01
    4.7041350123102482e-02 -8.6266609121091742e-02
    2.8972879537209149e-02 -1.4029976044539968e-01
    3.1283310003918104e-02 -1.3140784822759582e-01
    5.0703543624007634e-02 -8.4486987689702947e-02
    4.5299868229607486e-02 -9.9685697157010172e-02
    3.9993781130929884e-02 -1.0528375473455720e-01
    7.1946292196655021e-02 -5.6121530571757623e-02
    1.1271962865957642e-01 -4.2189031294860346e-02
    2.0196924963618856e-01 -2.6577875931556649e-02
    5.1428270213606943e-02 -7.7552565024086861e-02
    2.1226761379563988e-02 -1.9241300349448062e-01
    1.5084258432318230e-02 -2.8272484464654218e-01
    1.2638028839730166e-02 -3.5208943589427072e-01
    1.1118123033549221e-02 -4.1730529960007173e-01
    1.3037249562812559e-02 -3.4007575188828637e-01
    1.4879583727943888e-02 -2.8838640249324132e-01
    2.2759185780907448e-02 -1.8221678600382049e-01
    2.2012811981347843e-02 -1.8773414331791025e-01
    2.7177729220711828e-02 -1.5022283531546249e-01
    5.0413867483108270e-02 -8.4900141181851282e-02
    4.4882103844668210e-02 -1.0040855720895482e-01
    3.9857479458835408e-02 -1.0560252288127989e-01
    8.0784010776895829e-02 -5.1633043406864441e-02
    1.1005040957491317e-01 -4.4323506920580319e-02
    5.8810840965186455e-02 -6.9467065821757948e-02
    3.2745575692777175e-02 -1.2175013052807722e-01
    1.7231590229241655e-02 -2.4182452556286879e-01
    1.1457920800402753e-02 -4.0060078238195596e-01
    9.2294398440899428e-03 -5.6751757158562210e-01
    8.5465753384425681e-03 -6.7486614507141485e-01
    8.4872524508181890e-03 -6.8153634702395327e-01
    8.7865758125129159e-03 -6.2029512425517930e-01
    1.1613240265919030e-02 -3.9639952185970984e-01
    1.4488510667486694e-02 -2.9770676284787440e-01
    2.3218600303742381e-02 -1.8011714668255729e-01
    3.0558636310805024e-02 -1.3535889590168043e-01
    4.1732221185978281e-02 -1.0652898325409091e-01
    3.9998546754215644e-02 -1.0526831750012861e-01
    6.7705915927113433e-02 -6.5778092519926140e-02
    7.6325203109428530e-02 -5.9142154025467353e-02
    3.1291724912839582e-02 -1.2918399180296464e-01
    1.6868419584800603e-02 -2.4960752984748355e-01
    1.1577398086899667e-02 -3.9683163988262427e-01
    8.3363722596027697e-03 -7.2635148592025967e-01
    7.9172373693972026e-03 -9.9418933063619053e-01
    7.9814179127242792e-03 -1.1742908185208396e+00
    7.9993049280892882e-03 -1.1779880303831212e+00
    7.9272406123782491e-03 -1.0115178986461251e+00
    8.1979073623991202e-03 -7.6180261426532048e-01
    9.1396560613202973e-03 -5.8141422658729902e-01
    1.0697095519223834e-02 -4.4575472051703408e-01
    1.3833527150718585e-02 -3.1641846477225355e-01
    2.8924973150620925e-02 -1.4752464793617723e-01
    3.9669749613621588e-02 -1.0679527318327776e-01
    4.7258488060403205e-02 -9.1108308064959495e-02
    4.1193614782069413e-02 -1.0243647946191808e-01
    1.9601102544513058e-02 -2.1435329126543326e-01
    1.1432571149708129e-02 -4.0687444169357928e-01
    8.1486615457065491e-03 -7.8594906649831930e-01
    8.1314913509703025e-03 -1.2501533657108002e+00
    8.8486153344342969e-03 -1.6316496297777066e+00
    9.4702405174135196e-03 -1.8681967452380588e+00
    8.9812966109052757e-03 -1.6846069893725588e+00
    8.3488346309993668e-03 -1.4052985774701015e+00
    7.9078159569089552e-03 -1.0743227708471044e+00
    8.3016776406112155e-03 -7.3085718842404901e-01
    9.2727976818082775e-03 -5.5606555758404430e-01
    1.2811045799697111e-02 -3.4766654450862644e-01
    2.0067507640465720e-02 -2.1138270763271316e-01
    2.9813562779500275e-02 -1.4074571263192098e-01
    3.7938803875475373e-02 -1.0947683247878359e-01
    3.0796220369159594e-02 -1.3863469932099570e-01
    1.5077153796638116e-02 -2.9029902531906687e-01
    8.7642988684766727e-03 -6.3186646186007212e-01
    7.9190226753626056e-03 -1.0345249673701504e+00
    8.9425076552723942e-03 -1.6608302488911895e+00
    1.0200507452166333e-02 -2.1093691730864443e+00
    1.1220725907085947e-02 -2.4374589622066738e+00
    8.9107411903855110e-03 -1.6664569694975231e+00
    8.7316268201975116e-03 -1.5883784570320609e+00
    7.9445042336828142e-03 -1.1178163117269633e+00
    8.3416066475801316e-03 -7.2542857491725643e-01
    9.4533605398579926e-03 -5.4909250140628352e-01
    1.4546158936605186e-02 -3.0081770114294826e-01
    2.6253135774927772e-02 -1.6290755820375985e-01
    3.1089832281003756e-02 -1.3822947467151475e-01
    5.8710986376101275e-02 -7.6943676212642031e-02
    2.8746517422605974e-02 -1.4979401173257195e-01
    1.1978070492536767e-02 -3.9017387269074594e-01
    8.4175761911917824e-03 -7.0502471155793311e-01
    8.0525159924505641e-03 -1.2203736147444937e+00
    1.0596561542456761e-02 -2.2320507087383548e+00
    1.1798489963447002e-02 -2.6129453903852937e+00
    9.9894466062828927e-03 -2.0515293090009914e+00
    8.7231174314574521e-03 -1.5849496716427884e+00
    8.3260449327889063e-03 -1.3934201788252243e+00
    7.8950972513368335e-03 -9.7112623574641044e-01
    8.6534663193981193e-03 -6.4938168434524024e-01
    9.8580297684248246e-03 -5.0573403073977219e-01
    1.6612732277525619e-02 -2.6225546740981764e-01
    2.9220413103211499e-02 -1.5246783901566577e-01
    3.5844646757822320e-02 -1.2507509768713473e-01
    4.6350304715680572e-02 -1.0171839293593003e-01
    2.2737506602429354e-02 -1.9445069834155373e-01
    1.0543708575639204e-02 -4.6101026945312851e-01
    8.1763062827976442e-03 -7.7428945526678150e-01
    8.3668318288282924e-03 -1.3948621972924178e+00
    1.2974136892895845e-02 -2.9503853519188357e+00
    1.3455084730472560e-02 -3.0911198081067290e+00
    1.0703053279904706e-02 -2.2779090999828417e+00
    8.4661890264567680e-03 -1.4664240169502694e+00
    8.1858563172027068e-03 -1.3253814225946987e+00
    7.9693013108510565e-03 -9.2221330137781332e-01
    8.5448376054337027e-03 -6.6857047557835825e-01
    1.0350130536592953e-02 -4.6994472997109804e-01
    2.0026755651414454e-02 -2.1680146888593285e-01
    3.0372723038320976e-02 -1.5521239170681361e-01
    3.0500196481868629e-02 -1.4143948677746915e-01
    4.2261913364239991e-02 -1.0990640167125319e-01
    1.5702003924964947e-02 -2.8705205328392613e-01
    9.9039563885674649e-03 -5.0437217835806547e-01
    7.9526768996552189e-03 -9.1759837649915077e-01
    8.8428367651012894e-03 -1.6157874586347689e+00
    1.1682777360017271e-02 -2.5703589541906586e+00
    1.3245388390075078e-02 -3.0305456049609671e+00
    1.1111165722571707e-02 -2.4051771589009041e+00
    9.2862356147789520e-03 -1.8055796877771582e+00
    8.3559559823877510e-03 -1.4090600520800076e+00
    7.9449398567139791e-03 -9.6534354199549188e-01
    8.4508446172876246e-03 -7.1076131947617294e-01
    1.0068284205026671e-02 -5.0089819575711536e-01
    1.5288130171687309e-02 -2.9436870034720741e-01
    2.4436606393960662e-02 -1.8977775564482854e-01
    3.1977781245678467e-02 -1.4020872282149199e-01
    2.1003122967265284e-02 -2.2400784263365939e-01
    1.2926643295504451e-02 -3.6694068492846005e-01
    9.7574407398275404e-03 -5.2119573816642684e-01
    8.0035409873851285e-03 -1.1576007231333190e+00
    9.0529172617846675e-03 -1.6941653683839746e+00
    1.0942145336177376e-02 -2.3447515532303060e+00
    1.1763552184842613e-02 -2.5961486481400060e+00
    1.1829293977625973e-02 -2.6154259473131303e+00
    9.9450365215335915e-03 -2.0265095680945806e+00
    8.3797464019978694e-03 -1.4073072970333285e+00
    7.9238857447825311e-03 -1.0094117977964745e+00
    8.3129219574764011e-03 -7.4830138917314748e-01
    1.0538301350372759e-02 -4.6807191766704626e-01
    1.5642304143083579e-02 -2.8160853061847019e-01
    2.7775592377275289e-02 -1.6526419169545867e-01
    3.4590428700086412e-02 -1.2927247104789535e-01
    1.9286471273323075e-02 -2.4381856058308193e-01
    1.4034503858474457e-02 -3.2710487365064644e-01
    9.0017455562117210e-03 -6.0549302516275638e-01
    7.9133268586634026e-03 -9.5714495167285174e-01
    8.2702793326084323e-03 -1.3179795790486954e+00
    9.7005665358992771e-03 -1.9300388066743688e+00
    1.0732835594952556e-02 -2.2766879210352364e+00
    9.7734634036791609e-03 -1.9578426979389070e+00
    8.5837053672419387e-03 -1.4984486905078893e+00
    7.9491699598953081e-03 -1.0195664116764869e+00
    8.2194545956174713e-03 -7.7636124071758983e-01
    9.5836526734082248e-03 -5.5019512652783620e-01
    1.3157197594724236e-02 -3.4745992061383091e-01
    1.9430251210684254e-02 -2.2667901436905588e-01
    2.5163720814192863e-02 -1.7712837088574429e-01
    2.8487040588937414e-02 -1.5516807704030208e-01
    1.5252612362220145e-02 -3.0411856627218081e-01
    1.2482233189229556e-02 -3.7718891542299193e-01
    8.8330283571620913e-03 -6.1890089475539534e-01
    8.1192482160443741e-03 -8.0444118544616228e-01
    7.9408954581416044e-03 -1.0432938892179076e+00
    8.2023701510038610e-03 -1.3037447576948171e+00
    8.1670346578659042e-03 -1.2672610670961371e+00
    8.0151490300289698e-03 -1.1085241569366608e+00
    8.3075556928994196e-03 -7.6145483938469261e-01
    9.1227641606113144e-03 -5.9039869532671518e-01
    1.0818372955756628e-02 -4.4914790521211334e-01
    1.4589936879525988e-02 -3.0786052902302435e-01
    2.1634263384188959e-02 -1.9984071879516985e-01
    3.1539642797444971e-02 -1.4037943293803321e-01
    3.2809273185707234e-02 -1.3910085165805441e-01
    3.1412283443697876e-02 -1.4284084311997469e-01
    1.8028294154487975e-02 -2.5359682727400223e-01
    1.4041869612334661e-02 -3.1879484292187155e-01
    9.6336702979705393e-03 -5.1942561205022353e-01
    8.7419726112973155e-03 -6.4087270334580626e-01
    8.3434590712668892e-03 -7.3740091319144108e-01
    8.1432054663097345e-03 -8.3119488173046241e-01
    8.1549654926924876e-03 -8.1601058480226363e-01
    8.3337628316349135e-03 -7.4847906232058403e-01
    9.1349847597552471e-03 -5.9755479641632225e-01
    1.0781849569347669e-02 -4.5025046041946776e-01
    1.5145619740060840e-02 -2.9056724189849892e-01
    2.2191394221463410e-02 -1.9456825746460915e-01
    2.7202228133152252e-02 -1.5538992120863862e-01
    4.0959077312518063e-02 -1.0975909454167426e-01
    3.9514878329924882e-02 -1.1743333086996005e-01
    3.7204945330582231e-02 -1.1633377861692829e-01
    2.3029261633369193e-02 -1.9491577801373106e-01
    1.8554482764761088e-02 -2.3007480744648659e-01
    1.3156960260234281e-02 -3.3403804534773907e-01
    1.0050857641610388e-02 -4.8592317652454464e-01
    9.1441017587084016e-03 -5.7934991887152953e-01
    1.0055826908470804e-02 -4.9143615428532650e-01
    1.0764226692075883e-02 -4.4983533154829836e-01
    1.0977180037842338e-02 -4.4359511020420245e-01
    1.2538132630265706e-02 -3.7467298069746641e-01
    1.4142144970350027e-02 -3.1886708021820909e-01
    1.9161685165585238e-02 -2.2585693578201566e-01
    2.7106849645303317e-02 -1.5680973067864040e-01
    2.5770867365218549e-02 -1.6605929127891561e-01
    2.8597509000097495e-02 -1.5045002636122370e-01
    3.8808048849481996e-02 -1.2183240409064328e-01
    3.6191339473625871e-02 -1.2173496585224093e-01
    3.0372736143563180e-02 -1.4391033306248099e-01
    2.1765406427916245e-02 -1.9222353029618855e-01
    1.8377320840207399e-02 -2.2664762391762150e-01
    1.5203672044136651e-02 -2.8321439425774603e-01
    1.5740600472584940e-02 -2.7095108061281126e-01
    1.7160816723433430e-02 -2.5220781958690902e-01
    1.6582755972684226e-02 -2.6426490595870383e-01
    1.7217759566162661e-02 -2.5526587305873966e-01
    2.1141264171850159e-02 -2.0946475834685430e-01
    1.8868471088012262e-02 -2.3201724903642446e-01
    2.7122919285701798e-02 -1.5490841504450281e-01
    2.2826706722479984e-02 -1.8224316294734963e-01
    2.1195149044255557e-02 -1.9722283398134174e-01
    2.4159341447034185e-02 -1.7482986707288156e-01
    3.2797788501794170e-02 -1.3722572681812664e-01
    3.5702302609845984e-02 -1.2298736396451772e-01
    4.7022999041237960e-02 -9.7141607575816122e-02
    2.8311066666263079e-02 -1.4676437945782106e-01
    2.7283986683222766e-02 -1.5582832690953827e-01
    2.1774220581779885e-02 -1.9585373684203314e-01
    2.2491783595374709e-02 -1.9137527607529439e-01
    2.7096696935742202e-02 -1.6643976430377538e-01
    2.4895405039891762e-02 -1.7346144290947391e-01
    2.7209943115707222e-02 -1.5954765442142754e-01
    2.2571331911012554e-02 -1.9550556904312746e-01
    2.1229645725076844e-02 -2.1036419412719734e-01
    3.0188347683443015e-02 -1.4025099992738796e-01
    2.8053802955059985e-02 -1.5029608062792352e-01
    2.3887229466107558e-02 -1.7589550422940753e-01
    2.5169443218592876e-02 -1.6862153501461388e-01
    3.3934089314647094e-02 -1.3599037625653626e-01
    3.4007483185792615e-02 -1.2968713505369772e-01</input_scale>
  <output_scale>
    5.2631578947368418e-01 4.9999999999999994e-01 5.2631578947368418e-01
    4.9999999999999994e-01 5.2631578947368418e-01 4.9999999999999994e-01
    5.2631578947368418e-01 4.9999999999999994e-01 5.2631578947368418e-01
    4.9999999999999994e-01 5.2631578947368418e-01 4.9999999999999994e-01
    5.2631578947368418e-01 4.9999999999999994e-01 5.2631578947368418e-01
    4.9999999999999994e-01 5.2631578947368418e-01 4.9999999999999994e-01
    1. 0. 5.2631578947368418e-01 4.9999999999999994e-01
    5.2631578947368418e-01 4.9999999999999994e-01 5.2631578947368418e-01
    4.9999999999999994e-01 5.2631578947368418e-01 4.9999999999999994e-01
    5.2631578947368418e-01 4.9999999999999994e-01 5.2631578947368418e-01
    4.9999999999999994e-01 5.2631578947368418e-01 4.9999999999999994e-01
    5.2631578947368418e-01 4.9999999999999994e-01 1. 0. 1. 0. 1. 0. 1.
    0. 1. 0. 1. 0. 1. 0. 1. 0.</output_scale>
  <inv_output_scale>
    1.8999999999999999e+00 -9.4999999999999996e-01
    1.8999999999999999e+00 -9.4999999999999996e-01
    1.8999999999999999e+00 -9.4999999999999996e-01
    1.8999999999999999e+00 -9.4999999999999996e-01
    1.8999999999999999e+00 -9.4999999999999996e-01
    1.8999999999999999e+00 -9.4999999999999996e-01
    1.8999999999999999e+00 -9.4999999999999996e-01
    1.8999999999999999e+00 -9.4999999999999996e-01
    1.8999999999999999e+00 -9.4999999999999996e-01 1. 0.
    1.8999999999999999e+00 -9.4999999999999996e-01
    1.8999999999999999e+00 -9.4999999999999996e-01
    1.8999999999999999e+00 -9.4999999999999996e-01
    1.8999999999999999e+00 -9.4999999999999996e-01
    1.8999999999999999e+00 -9.4999999999999996e-01
    1.8999999999999999e+00 -9.4999999999999996e-01
    1.8999999999999999e+00 -9.4999999999999996e-01
    1.8999999999999999e+00 -9.4999999999999996e-01 1. 0. 1. 0. 1. 0. 1.
    0. 1. 0. 1. 0. 1. 0. 1. 0.</inv_output_scale>
  <weights>
    <_>
      -1.6636314117111894e-01 3.2274632984150381e-01
      4.3555902798006640e-01 -1.0128753333209816e-02
      2.8618745758172852e-02 1.3440440492344642e-02
      -2.4598545470887065e-02 -2.9747252977171446e-02
      2.7763356012518111e-02 -2.3295708549414856e-02
      -9.6835741251622157e-02 1.1407116501310111e-01
      4.4165424637339704e-02 -6.2987359823048938e-01
      -4.6350780491586346e-01 3.9012816896815561e-01
      1.8950993210853004e-01 -4.4450478767681095e-01
      -1.9564628161906500e-01 -5.8980009244580141e-02
      1.3680379146144980e-01 -5.3470152052386288e-01
      3.6281614308514003e-02 -4.2297501402399663e-02
      1.3305806712146456e-01 -9.3350827601421549e-01
      -5.2746840075271757e-02 4.9665971614284703e-02
      1.3729416599840219e-01 -7.6836818823017250e-01
      -9.2066422091057620e-01 2.9285152044374062e-02
      7.1270363396207026e-01 -4.2690266318095266e-01
      3.1891287444258823e-03 3.8374515486724062e-02
      3.1294285387964560e-01 -6.4323425125860506e-02
      -1.1491459748846231e-01 1.9490682676611704e-01
      1.1494585948522243e-01 -2.1483955436226437e-01
      -2.2936005044713306e-01 -1.6750200497567030e-01
      1.2839216315720042e-01 -9.8482577663081428e-01
      -7.1625403272746302e-01 -4.3357167948262532e-01
      2.0024557900947415e-01 -2.9917207701545101e-01
      -2.8539582294281551e-02 -2.8447302035449329e-01
      3.7635799863509387e-02 -5.0529141764072770e-02
      2.4428927999864480e-01 -3.4361680375623360e-01
      1.1876839702669120e-01 -3.7738482279735940e-02
      2.1437262520474640e-01 2.0166537520888106e-01
      3.1736071644177832e-01 1.4104472158957082e-01
      6.2926127030660403e-02 1.0250484606026851e-01
      5.3012534399964277e-02 1.3108658503513737e-01
      -1.0965077677259552e-01 1.2827152395562155e-01
      5.8465362267715648e-02 -4.1811231334128250e-02
      -3.3217362242230673e-02 -6.4978075699256663e-02
      1.0796988273627276e-03 2.3290631308112274e-02
      2.6353482196799994e-02 -4.8711551723162341e-02
      2.2912688736265882e-01 -4.4859189079761586e-01
      -2.5445638275781890e-01 -1.7020013012849991e-01
      1.7689366804713033e-01 -1.5621341480047005e-01
      -2.6545689775405579e-01 5.1462447484077578e-01
      4.6815732265474252e-01 -4.0873341712971989e-01
      -8.6307173212031608e-03 2.7630414047541996e-01
      3.3114067469980091e-01 8.2658450395000027e-02
      -4.5807875348698285e-01 -7.6822004248489825e-02
      5.0555031966201473e-02 -4.5340879389744543e-02
      -5.3970875945165753e-01 -1.4033243592793943e-01
      2.9337398552722338e-01 7.6606538514676303e-02
      3.0525141151455776e-01 -3.8935314929679485e-02
      -2.5086598869100968e-01 -6.1626850146938653e-02
      5.2140759424979359e-02 -2.5356859932517917e-01
      -1.8979788425146263e-01 -1.6811629009802520e-01
      2.5474745272396869e-03 -3.4649195793716316e-02
      -2.8912093769318853e-01 -1.4924402429869366e-01
      6.7028489195373853e-01 -4.6428620557539546e-01
      3.3845474030706306e-02 -6.2979316346193512e-02
      -1.2409930858535946e-01 -4.1956414440075296e-01
      -1.4667734163351097e-02 6.0640903368773841e-02
      -1.8202897040928732e-02 -1.0018969528910440e-01
      1.2908799787362643e-01 1.1537094976103938e-01
      2.5488817586203288e-01 1.1981994256892672e-01
      3.2517700502610208e-01 1.2881839128837536e-01
      9.3520031549036250e-02 1.1787419606493300e-01
      5.6052455732533382e-02 4.5077918236619406e-02
      -2.8904845319956678e-02 8.0882432279770461e-02
      1.0839948680078839e-02 1.3325544601360459e-01
      -1.5273734144922776e-01 9.5227376622284587e-02
      -4.0512279912618071e-01 -2.1602161187265190e-01
      -1.0798323546347526e-01 7.7382643344017274e-02
      -1.1238681631958332e-01 7.9606431708771441e-01
      -1.9196807191019207e-02 3.3458029383351767e-01
      8.3295445530282064e-01 -6.0825091511459661e-01
      2.0876359924706389e-01 2.4352599370492289e-01
      1.1760171358228306e-02 -3.2450805448148246e-01
      9.3522516630871549e-02 -2.9699486375281964e-01
      -3.9250997859522441e-01 -3.4627466672804785e-01
      7.2544009389353836e-01 -2.7349824064962130e-01
      -2.8221683156918798e-01 1.2263766566450668e-01
      8.7948907310723035e-01 -7.2835730567755419e-01
      -3.8907461145241289e-02 2.2749940989738413e-02
      7.4340865774537468e-01 -5.1184427178175962e-01
      -1.0078136154728468e-01 -2.2909567290543673e-01
      2.0396465278375533e-01 -4.0602967472288487e-01
      -3.4466140789477445e-01 1.0586602071084108e+00
      2.4182691538451781e-01 1.8712997420545571e-01
      -2.0069375791208252e-01 7.0223781549526118e-02
      -7.3684672459344194e-02 1.4932568096732007e-01
      1.0234760427953973e-02 -2.2268563708720743e-01
      -7.7407831281921982e-02 -8.3859500200731796e-02
      7.5406913541289132e-03 1.3677621581798610e-01
      -2.8762737533246474e-01 2.3094900390095627e-02
      2.2366841712191451e-01 5.6087166726066096e-01
      2.5279854288997800e-01 1.8395901012863863e-01
      3.1844546336006635e-01 1.3550130143212483e-01
      6.4827628510262941e-02 9.9459630349671160e-02
      -1.8940965419891836e-01 2.4608383242352311e-01
      4.3537033484995012e-02 -5.2823371275526748e-02
      -6.1994352541011953e-02 1.9263807888804101e-02
      6.2581227738249881e-02 -1.3269326119377975e-01
      -7.1529008742247963e-02 -1.2148132650551803e-01
      2.3417637430446803e-01 -4.3639437193837688e-01
      -3.9365563946046672e-01 1.5452906173976666e-01
      -2.4428496343832949e-02 -2.7879814970037581e-01
      -4.5980723184863320e-02 -1.2223963061284053e-01
      1.0678220887578882e-01 -1.2222572409663854e-01
      -5.4254606386273629e-01 -8.4957026522725043e-01
      -2.1099521812220895e-01 -2.6248461405033158e-01
      -5.6787501012815189e-01 -8.0789010835752351e-01
      -5.4521579514753582e-01 1.5999037079768089e-01
      5.1609236363041877e-02 1.6013853945174922e-01
      3.8041673591432834e-01 -2.5751319660022537e-01
      2.3408060544877826e-01 -1.8895534942111953e-02
      2.7543125225802501e-01 -1.9425564753550023e-01
      3.5081965881083288e-01 1.8136275025804616e-01
      4.0961271249524966e-01 -3.7889346442345075e-02
      -2.4652124166715059e-02 2.5059009647915681e-01
      3.8475923342919195e-02 4.1607365842996169e-01
      -9.4089710642936120e-01 4.9382186281227408e-01
      1.1666060622853924e-01 3.8952354708976195e-01
      9.6530830993547811e-02 -3.5303181528159096e-02
      -2.2949700365411593e-02 -1.5654931534683874e-02
      6.3618285445844602e-01 2.0125878832764538e-01
      -3.3840264187400254e-01 -3.1323900599963258e-04
      5.9693892032797335e-01 -5.9657033854493613e-02
      -1.4349444300917041e-01 3.1854768351934049e-01
      3.4615061656864049e-01 3.3178065977756432e-01
      -7.6247810882609669e-03 8.7730679572674872e-02
      1.3383200172341110e-02 -2.7326984564295800e-02
      6.2337595910440580e-02 2.6056703283966148e-01
      -3.8289625150840823e-01 -1.2016326126367699e-01
      -1.0096488726509617e-01 1.7192302981629259e-01
      -4.6133353336956512e-01 2.0673354793037401e-02
      2.0694715822245999e-01 -1.8419426959573404e-01
      -8.0901275124890634e-02 3.3318072289558631e-01
      -3.4255240183439045e-01 -4.0608594096046634e-02
      -4.5514437525031837e-01 3.2415687275157901e-01
      -4.9507855357645497e-01 1.6070320048755876e-01
      1.9286997730500535e-01 1.5009578235123333e-01
      -1.1665350469111560e-01 2.9746984728536985e-01
      1.9211943146473312e-01 -1.1937204025766256e-01
      -3.3004590828704367e-01 2.1437846158160148e-01
      -6.2733067169216256e-02 -4.5917973112981558e-01
      2.8271937190104172e-02 -1.6321199400337905e-01
      -8.4947771243954195e-02 -8.7506480772311115e-02
      4.0643731626210572e-01 -3.4697123812520581e-01
      -1.0671925912698578e-01 1.0218875018083082e-01
      2.0200952326332101e-02 -2.5567871850094837e-01
      -4.0277961514937188e-01 1.7695291338755786e-01
      -4.4281189380455849e-01 -4.5905095025802957e-02
      -7.8497677463231552e-01 6.2289988832505749e-01
      1.6274868882314728e-01 5.8473347759943373e-01
      1.0015307885897654e-01 1.3336198260309690e-01
      -6.3349958476135271e-01 3.8253257702733114e-02
      -3.3290988180754011e-01 -1.5332526025698328e-02
      -1.2158118162093447e-01 -4.8058021410306789e-01
      -2.4839751743604135e-01 -9.3787906587140257e-01
      -1.8372917403303532e-01 -7.0438506443344850e-01
      -4.2412647651752199e-02 -1.7906058353863033e-01
      -3.3563497993076302e-01 -7.7212705639086388e-02
      4.7700920510870180e-02 -1.6978392714965587e-01
      -2.3436777880113158e-01 3.3632169136660428e-01
      -2.1606905384973640e-01 -1.8047193169775991e-01
      -4.8832055584241890e-02 3.4288049931911119e-01
      -6.0434484900800856e-01 -4.7991751341499918e-02
      2.8795032939570442e-01 2.1280445878762438e-01
      -1.1394368455307671e+00 2.0025122541589893e-01
      4.5484275122007561e-01 4.6119625280123061e-01
      1.9936731135091892e-02 5.1121360535915528e-01
      -2.9625443415746466e-01 1.0342785530392798e-01
      2.7310741982460912e-01 1.7304652058921732e-01
      -3.5141169300636299e-01 7.9647883295971250e-02
      4.4752548187726165e-01 4.3379281435303979e-02
      -1.6359172674824687e-01 2.7082373818363981e-01
      -1.4320477622338329e-01 -6.2031534623703206e-02
      -8.6374535480594719e-02 8.0182013178946770e-02
      2.1546868859556503e-02 -5.2319002221696187e-01
      -5.4224773864232734e-01 -6.6299200707289202e-02
      -3.7940732918364722e-01 -5.3001178149275852e-01
      -4.4560536775495591e-01 -2.2021370615302624e-01
      -9.5641506994009834e-02 -1.4857188922635950e-01
      -3.8393865745513672e-01 -1.9491950523599172e-01
      7.0103082566655206e-01 3.2584563996173455e-01
      -2.1000049903352394e-01 4.0583682179660230e-01
      1.1650664263296817e-01 4.6610721576610575e-01
      -9.0094354983182329e-02 1.5041000090013618e-01
      3.5262626973484973e-01 1.8804053565036824e-01
      -4.1194020199773340e-01 7.6090816063261485e-02
      -4.0186654899789631e-01 -7.2203665717636575e-02
      8.9179800599866230e-02 -2.2277366644732050e-01
      -3.3643737028182319e-01 -8.1588067955053367e-01
      -1.7520487992633987e-01 -2.3217149331163719e-01
      -3.8917626289735205e-02 1.1566116044409856e-01
      -5.5298454027213957e-02 -5.6234937413310059e-02
      -2.7967566875538319e-01 5.9880820318545261e-02
      3.6873151211130073e-01 1.6238224012304378e-01
      8.2600936747148232e-02 2.6248711945210740e-01
      1.8551134100227909e-01 5.4754026314745685e-02
      -3.0396993236744480e-01 1.8751199779580524e-01
      3.2171285552459364e-02 2.7603320470246479e-01
      -9.0675777265811885e-02 4.2777352995716382e-02
      -5.8507247208514601e-01 -2.4521330719489545e-02
      8.7063879805022223e-03 1.9268584543147160e-01
      -2.1526506006610999e-01 2.1244666695893411e-01
      -1.1886017750623226e-01 -1.1801140246174252e-01
      1.0467671571688067e-03 4.7677730612008390e-02
      -3.1295293589638817e-01 -2.2247875199922720e-01
      -3.2705201114328353e-01 -3.0067506170692826e-01
      -1.8621234505379541e-01 -7.3012503512994131e-01
      -3.3148769451747390e-01 -2.0954415740014218e-01
      -4.0704388900268962e-01 -1.7923455467896293e-01
      -9.8508716706808008e-01 6.0662320921197041e-02
      -3.9168336403171838e-01 -4.6973292168782266e-01
      -9.4977544305451911e-01 -1.7901248823316840e-01
      -1.2744942046586960e-01 8.0619974463908187e-02
      -4.5069753300683058e-01 -2.9646815086653383e-01
      -4.7903462751232896e-02 7.7014767080968216e-01
      -1.1159042459310492e-01 5.5168258453134245e-01
      2.5027600182290033e-01 6.8160635528529678e-01
      4.0618763327982206e-02 4.5393483560521508e-01
      1.6773870628639337e-03 -6.0655724257970410e-02
      -2.0162598468799253e-02 6.0155671660236040e-02
      -4.9777298797338249e-02 -1.8707173743472788e-01
      4.5282585331732343e-02 -9.7911769227151794e-04
      4.5040615247181462e-02 8.4425092605386762e-02
      -6.5309945609307807e-02 -2.9703497469418705e-03
      -1.3976422669162869e-01 -2.0808518104101120e-01
      1.7177658873619736e-01 4.0151092895214832e-02
      5.1514052003960342e-01 4.2974241814914155e-01
      1.8401084715214197e-01 -1.9769546305695965e-01
      -1.2675085449666404e-01 -3.4922866108218936e-01
      -5.8642590287430275e-02 6.6067507099458564e-02
      -1.8894363624837149e-01 -2.5790540792791361e-01
      -1.6503150544798575e-01 1.1512937328192833e-01
      -3.2872631399872865e-01 3.6707673200682905e-01
      -1.1704385986026918e-01 2.2839250283382481e-01
      -7.1378282174692526e-02 2.2396504363605498e-02
      1.6200428668195410e-01 -2.8426072899847921e-01
      -2.7211955733950310e-01 -1.4044644498228268e-01
      4.7921189136794530e-02 -2.9024222775583042e-01
      -1.0364177780478358e-01 -8.0933702020952925e-01
      -6.2031749686108251e-01 -1.0080232759649381e+00
      -2.2048332890666195e-01 -3.3727615909701603e-01
      -7.5472565019486615e-01 -1.2665988348100374e-01
      -3.5871496331058539e-01 6.5315297133915873e-01
      4.0590506797198028e-02 8.6313429640826123e-01
      1.7081945898888065e-01 -2.9067597847576293e-01
      -7.1200008076911703e-01 4.6132310867211523e-01
      3.1303891447341869e-01 8.8214386514727783e-01
      -6.0938289468428564e-01 2.4094592556842084e-01
      -2.5417424478531070e-01 3.3939768048378879e-02
      4.9402212838182552e-02 7.8299716597518762e-02
      -2.7670314616062169e-01 -1.2861308218292619e-01
      2.7417938191911312e-01 -1.9890296605060601e-01
      -3.3125591051569991e-01 -3.1654939841878865e-01
      3.2106054829234132e-01 -1.2751353861468814e-01
      8.9595800719153226e-02 1.7408174846385644e-02
      -2.2453994019651781e-03 2.0573704164148620e-02
      -1.5655856584819834e-02 -2.4131344764575616e-01
      -4.3268443484200375e-01 -3.7664143842147357e-01
      3.1375798766054169e-01 -2.8323325374997166e-01
      8.9716031337121291e-02 -3.6951512939373188e-01
      -2.3601247978776840e-01 2.7129446580938643e-01
      4.0148654394303274e-01 1.6516525930452508e-01
      -1.5490602075380142e-01 3.5719701836464578e-02
      3.6004435934923790e-01 -4.6484268914130142e-02
      -3.0075545510577750e-01 5.9388531083938612e-01
      4.0164031717339532e-01 -1.0948639245845711e-01
      -2.8866038019667817e-01 3.1720974988608083e-02
      6.6375396461316793e-02 -3.9874765275427126e-01
      -1.9708049059842805e-01 -6.6754083305562387e-02
      -2.5507293636042699e-01 -2.9362442465519867e-01
      -4.1816642713723345e-01 -9.1697120459578951e-01
      -4.1557781715437347e-01 -2.6157539872311614e-01
      -3.9593057822786226e-01 -2.1128919745149766e-01
      2.2776841046126747e-02 2.3319926266971966e-01
      -1.9062403079526158e-01 3.2874018666005378e-01
      -2.4490999376085146e-01 7.6457405132415690e-01
      -2.6696044426961951e-02 6.4474314574774327e-01
      3.8280850514391296e-01 1.9310305293692018e-01
      -2.3565885800895792e-01 5.8021558138090179e-01
      -3.8438516042970727e-01 2.7816166884114157e-02
      -1.5416933143022266e-01 7.4793766037039152e-03
      2.9155648605488760e-01 -2.2484110028382226e-01
      -8.2360626455638339e-02 6.3189377582248213e-02
      -2.6656122633294765e-01 9.9490055022958476e-02
      -2.4984670507173112e-01 -1.4394074787936981e-01
      -3.1443010656824089e-01 1.2424863641226559e-01
      -3.4451431849665792e-01 -2.4173021307945197e-01
      -4.9946016420635064e-01 -3.3356462369331302e-01
      -3.4397187116746791e-01 -1.0735474356450847e-01
      -2.9299369084509358e-01 -6.5732221372970656e-01
      2.2460809839412683e-02 -6.5750873866373460e-01
      4.3229905824401360e-01 -2.0372917546906538e-01
      -4.1022151038110161e-02 2.1583655447724609e-01
      -1.0522364439737847e-01 2.7707685127453996e-01
      -1.0408068368518281e-01 4.9271593999539881e-01
      6.0753719161372333e-01 3.2794956187808316e-01
      1.5675060178984920e-01 4.6117283295169825e-01
      4.3179775080053190e-01 1.1286456054056443e-01
      1.3266434651547088e-01 -7.2418862588564017e-02
      -3.3817731068216261e-01 -1.6745965905220347e-01
      1.7254273768555078e-01 -1.0894324228928338e-02
      2.0830615219192737e-02 1.1411177284809186e-01
      -8.1837018811769469e-02 -4.8660726760541678e-01
      2.5221216236285343e-02 -5.9815861501662966e-02
      2.4551816677396579e-01 5.4354600970185296e-01
      3.9303902125486478e-01 1.5699715724198662e-01
      -1.2579928959055342e-01 6.7868932634571033e-01
      8.8605801654426086e-01 1.3568309806925383e-01
      3.9989867230932780e-01 4.3072482888538560e-01
      2.3893594338919091e-01 4.8336602671267886e-01
      9.9024050754352444e-02 -3.3403615011450671e-01
      -3.5791309450093839e-01 1.9885574653132759e-01
      3.1479580343361302e-01 -5.3629637092556615e-01
      -5.1453522369939997e-01 3.4067436376134930e-01
      -4.6036232852738432e-02 -2.5154176937483620e-03
      -1.6524477370909813e-01 -7.6773360187503185e-04
      -1.0617195261015561e-01 -2.2845748185956427e-01
      -1.8274145688637351e-02 5.8441533746303648e-02
      -4.3930340365656473e-01 -3.0912584118065922e-01
      -6.3706611692729720e-01 -2.0655830432109837e-01
      -2.4850561145558236e-01 -2.7795085606471009e-01
      -4.5445879925592270e-01 -4.2034503214812530e-01
      7.5580734940684485e-02 -7.3012572276930587e-01
      -3.0185265495873065e-01 -2.9522570266303127e-02
      1.0942016465109498e-01 1.3235951562404294e-01
      -1.9279046675231881e-01 2.6156818258982723e-01
      1.9400464349844290e-01 1.8370862991054238e-01
      3.4946445814668525e-01 -2.0882122567467012e-01
      2.9228400436080170e-02 1.4022783845361092e-01
      -3.2182104271907833e-02 -1.0860404150120612e-01
      6.6703267406855352e-02 3.1195116553443830e-01
      9.6706571742853506e-02 2.6057822867066838e-01
      8.2307881683171186e-02 2.5867246869920202e-02
      8.8463729386044035e-02 2.0458991999387574e-01
      2.1811995572630655e-01 -7.4850863744708965e-02
      6.4845744761804686e-02 1.6230603988963566e-01
      -1.7682008489500886e-01 -2.2406068411371408e-01
      5.0451469225999579e-02 -4.5247863800623928e-01
      1.5656935007366080e-02 7.9909323987247716e-01
      3.8053640468707955e-01 3.0976055730577401e-01
      3.8821880389674393e-02 2.9517720118082585e-01
      4.7952747689613950e-01 1.2985362745830989e-02
      1.7149555074519143e-01 5.0383303827627526e-03
      2.5334037665200071e-01 8.5407953528975952e-03
      -1.2203627009935125e-01 -7.9628921658297963e-02
      -2.3867552562641389e-01 9.7371555037293722e-02
      -3.1273919483941515e-01 -3.9788833359888631e-01
      -3.1892784254731088e-01 4.4468862976331340e-02
      -4.2136653544808911e-01 -2.0958141766654444e-02
      -9.5187143167916474e-02 1.2068715004943179e-01
      -6.3138305459002442e-01 -2.5460345069078538e-01
      -8.5407697833642726e-01 -8.9647735928212058e-01
      -5.5122964021033949e-02 -9.6112903482299505e-01
      -1.3036816305328467e+00 -3.2066428281976422e-01
      -2.6538509044943620e-01 -2.2982334971394119e-01
      -1.6361561101984962e-01 6.0401554504118538e-01
      1.1000056136423970e-01 -2.0447743191722109e-01
      3.1599717280605039e-01 -1.5114990657156635e-01
      1.1590925941271257e-02 1.3105144750725473e-01
      2.6223984994857813e-01 -1.1757388320191603e-01
      4.7429008204667439e-01 -2.8608495159549824e-01
      1.5837717002434592e-02 8.1602161078732041e-02
      4.7301524550875373e-01 -5.0544445138531657e-01
      -1.2171327650536964e-01 6.1447919796700501e-02
      -2.4300279442237949e-02 -4.2551734213639442e-01
      2.7281444739314483e-02 -7.0368093067530876e-02
      8.3665817956030897e-02 3.2665612852921966e-01
      -2.3562129733960832e-01 -1.7178637921645440e-01
      3.9712290705559400e-01 5.0480083140443423e-03
      2.5714404475640734e-01 -2.0864714254562819e-01
      1.8599121206279043e-01 -3.6839381882144967e-01
      3.1754249031258763e-01 -9.0628246454924261e-02
      -1.6878432993470679e-02 -2.2340048624656550e-01
      1.1605710387411319e-01 1.9468462570662307e-01
      -1.1439655709784195e-01 -3.3394219491755944e-01
      -1.1193895585511826e-01 -3.8066420661709725e-02
      -1.3881448433506036e-01 6.0724808431606998e-02
      -1.1306238700022471e-01 4.4530791768646140e-02
      -1.1299895877277344e-01 -3.1359487696522925e-01
      -5.4289565839275389e-01 -3.7571745495187997e-01
      -1.3669359856471217e-01 -2.5064681230760005e-01
      -2.3425103673745634e-01 -1.8317386180221751e-01
      -8.8463042118100987e-01 -2.9554862729834674e-01
      -1.0324308648087936e+00 -2.1981665123706784e-01
      1.5675491193442737e-01 -3.0988614108045259e-01
      1.8186457615485435e-01 -3.9265395385192653e-01
      -9.9020816408932705e-02 5.2008085504722890e-01
      1.0099995700384759e-02 4.6891928965161378e-01
      1.3585883488546144e-01 -8.0461878729966463e-02
      -2.2926359208098052e-01 -9.1453713774237833e-02
      7.6716089085638955e-02 -2.5253934414806384e-01
      2.7815427603879249e-02 -2.4725420148746985e-02
      -8.9799256932417193e-02 -1.7348253443340692e-01
      1.8738725140426843e-01 1.9585451484468372e-01
      3.2111012230483083e-01 -3.3675117574297891e-01
      -3.9953368415810941e-01 -2.3294118306606826e-01
      5.1845362463933037e-02 5.1872579551498998e-01
      -9.4276908743040032e-03 3.2491284205593141e-01
      2.0592908439522037e-01 -5.3847106912841580e-01
      1.7642752341824067e-01 -2.2367759457413278e-01
      6.4872825145167887e-02 1.3964851149583093e-02
      2.9053560189386252e-01 6.0871322461244683e-03
      6.9021591643727370e-02 -1.3052378478655444e-01
      3.7454718461089576e-01 1.1872980688775046e-01
      -4.6781086469497260e-02 3.2385804932305673e-01
      -2.5935320855395343e-02 2.8025587387639378e-01
      -1.0443629562694769e-01 3.7159531912911586e-01
      3.3056147377966066e-01 1.7978724659841036e-01
      3.6405093461766534e-02 -3.6649502452064653e-01
      3.0798013653176134e-02 -8.1813429470537991e-02
      -1.1630010828014672e-01 -1.2574463582604012e-01
      -5.9157437348803715e-02 -8.1988048523295234e-02
      1.0392086598094939e-01 5.6826675841698793e-01
      1.0698091236011062e-01 2.3311366549930576e-01
      -2.0786516036713940e-01 -2.0422164034865314e-01
      -6.8402813481579949e-01 -1.3909840576709231e-01
      -2.7756320130059232e-02 -4.7883852919806280e-01
      -2.6258353437606215e-03 -1.4738436809749605e-01
      3.4743622245839950e-01 8.8298443837347018e-01
      1.5435341393189683e-01 -1.5191283114831525e-01
      3.5908235264536825e-01 1.9732016384751624e-01
      1.7632586467220691e-02 -5.6709712904952872e-02
      3.3946734479938351e-01 -6.6493234033459164e-02
      -1.5706424308012654e-01 7.9831289192595786e-02
      1.3588842660587050e-01 1.7314457927896956e-02
      -5.5544823720629417e-02 5.0004048525260081e-03
      2.5373436981254305e-01 -3.7825670678140730e-02
      -4.9588042004252535e-02 -1.0967038852680044e-03
      -1.3039125932899895e-01 -1.5204018650522053e-01
      -1.8353718203113098e-01 -2.5512518697528475e-01
      3.2994721060301929e-01 -3.0912204182700809e-01
      2.2460756249903421e-01 -1.7776531274484009e-01
      4.0568887781725106e-02 2.4718696960882650e-02
      5.7217215383354370e-01 1.3103934741253587e-01
      4.2621653237590534e-01 -5.7696632265847725e-01
      4.1687218151461404e-02 -3.1172253540175604e-01
      2.9172057665954126e-01 -2.3723857541152307e-01
      6.3995609295871322e-02 -4.1121765987516312e-01
      -2.3748939210219956e-02 -2.1115655203700218e-01
      -1.4944303960527833e-01 -3.7805120825039833e-02
      2.8869689182206660e-02 -1.2730156091334127e-01
      1.7582271366710717e-01 4.2470567537928322e-01
      -3.8553061201610106e-01 3.5178127068303239e-01
      -2.3358479164107000e-02 1.4295900228982389e-01
      -2.5880673031300355e-01 3.2670648573289979e-01
      1.1935622279537686e-01 7.5505767800059756e-02
      -2.0718114129654519e-01 -9.6717143968147831e-02
      -5.4803230807541081e-01 4.4013796652393695e-02
      -8.7392742888590339e-04 -2.9917202866397941e-01
      -1.4635300598593098e-01 5.9858432603748880e-02
      2.1897020014498619e-01 -4.3543145446637489e-02
      9.2061380530067766e-02 7.8910121422065327e-02
      2.3640848454318636e-01 -1.8607504341213654e-01
      1.7928587592421394e-01 -1.1107682320606098e-01
      3.5396952954483618e-01 3.0267072439655374e-01
      4.0608237587201679e-01 -4.0656599713123458e-02
      3.1229508880079343e-01 2.7898589267540713e-01
      1.3840850521879094e-01 -2.2973968872756173e-01
      -2.9695234922740333e-02 1.9629715237888679e-01
      -3.0249322960897534e-01 -9.2952715149422341e-02
      -2.0256746174116999e-01 -2.4443380705054310e-01
      -3.1100381767174001e-01 -2.0779838491448191e-01
      -7.2479976190616191e-02 -2.4414228913999528e-01
      2.0134135591854141e-01 -1.8366216118818507e-01
      -6.5105621066879352e-02 2.2187841789085072e-01
      1.8206031538305736e-01 4.0647943312430761e-02
      2.1273937630737236e-01 -3.4665274849998116e-02
      2.3475851215377122e-01 -2.0253764218005500e-02
      1.6954910964059899e-01 1.4246301734247940e-02
      2.7019419687446083e-01 -2.0149246341889013e-02
      4.3097416202745271e-02 1.3864127285839671e-03
      5.3876914376241924e-01 2.6823793731893264e-01
      6.9710577925172962e-02 4.2639945530918419e-02
      2.3575782240864571e-02 1.9301475525800790e-01
      -3.7930837152964657e-02 -1.2236427176198408e-01
      -1.0453213951644551e-02 8.9056792664515660e-02
      -3.3286381428715989e-01 3.6545788714790284e-01
      1.3867542527164969e-01 -1.3635667998943848e-01
      1.6129156814332851e-01 -1.0088312650741563e-01
      -3.1349462617224061e-01 5.3750892202791299e-02
      1.8064555929970844e-01 5.6840847081072336e-02
      5.9677035785508904e-02 8.3665548950310725e-02
      3.3757449324403062e-02 8.9473482835589077e-02
      -6.4225120883729503e-02 6.7163953362895934e-02
      -2.2589017782716508e-01 1.6991482817135270e-01
      6.1759869709667375e-02 1.2287129630326364e-01
      5.8080174754375553e-02 -5.4756549125819690e-02
      -2.2880878754674167e-01 -3.7371624582803860e-02
      -2.4199469439941856e-01 2.4719455093744840e-02
      -2.4788155327630387e-01 -2.2042385606461048e-01
      -2.2706550952955898e-01 -1.2120100309791947e-01
      -1.4935604227300808e-01 -2.6169721117275191e-01
      -2.4552738090682447e-01 -1.7517611571721567e-01
      -6.0302394992789624e-02 -1.1098802130085025e-01
      -3.2310654183276499e-01 2.7192122337262379e-03
      -1.1982933060764238e-01 -2.3235028978850120e-01
      -2.7210465422055879e-01 3.0120821315136739e-02
      -1.0827802770034529e-01 -2.5387072863390411e-02
      6.9626275948337446e-03 1.5863613014541877e-01
      1.5169048431255575e-01 7.3821643470000989e-02
      1.4282289365261119e-01 6.5490592189351812e-02
      1.6117675031638251e-01 2.2552247911282416e-01
      -4.7660892783971620e-01 -1.2569710183428193e-01
      3.7449375047007699e-01 3.1081804181898315e-01
      -3.9040124313614860e-01 -1.9720107516963392e-01
      5.4616862977394076e-01 2.1644205010817050e-01
      5.6766181947546168e-01 2.8764882163562905e-01
      3.5980365779305301e-02 4.2839571753406733e-02
      5.5533208989675531e-01 9.7602939418897972e-02
      1.1105581793185183e-01 -2.6293924346307174e-01
      -7.5438570404286864e-02 -2.2617868916119881e+00
      -1.1686769988958290e+00 6.8907994269082518e-01</_>
    <_>
      -1.0733115244390132e+00 -1.0525708437941386e+00
      2.2421806380582407e+00 5.8318844116871471e-01
      -1.5758025966522653e+00 1.5871393816584443e+00
      -1.5882387431153461e-01 -2.9872679985046893e+00
      -8.2093523062129425e-01 -1.8108922099456819e+00
      -5.3959929459446876e-01 1.4717850124003513e+00
      1.9775794254812282e+00 -9.8575471413153803e-01
      1.0080558383115643e+00 2.5643947814158113e-01
      5.6458216316001353e-01 -4.5022282185687046e-01
      -4.4694802143008339e-01 -1.5108838999843006e+00</_>
    <_>
      -2.2866804963234352e-01 -2.3377306514319134e+00
      1.1888632743245708e+00 7.6817140738852141e-01
      -4.4994849260566822e-01 1.1139499622501874e+00
      1.2245117356558668e+00 -3.9569014375313938e-01
      -4.2625142348297251e-01 4.9179681749110082e-01
      9.5870094464037747e-01 -1.4559654552704895e+00
      1.3451270172628662e+00 2.4952548724338781e+00
      -3.9000734176414076e-01 1.2161322671623667e+00
      -8.0384840673537439e-01 -2.4906570485355362e+00
      -6.9454515724219112e-01 -4.1025140053088229e+00</_>
    <_>
      -9.5647617220083314e-01 -1.7873858332876499e-01
      -9.6187723112823864e-01 3.0276304427270695e+00
      -2.3558341534114059e-02 -1.7337806207390971e-01
      -1.2214746773693230e-01 -8.6478328534779769e-02
      -1.5811248683627077e-01 6.4861232212113593e-05
      -1.1798737761507128e-01 -2.0253856040062312e-01
      -6.8596453259699000e-02 -4.9050593874996107e-02
      -1.7429659002463130e-01 -4.8122227687757292e-02
      -2.5520108545905612e-02 -1.6571899273872401e-01
      2.9205828319103882e-05 -3.2286256872659749e-05
      4.3781047873310466e-05 -1.3124558938050302e-06
      1.4488661295662968e-05 3.2188608486947668e-05
      9.1843586878625607e-05 -2.4114988577343548e-05
      1.1937547742052910e+00 1.4396522367372244e+00
      -8.6520410665780290e-01 -1.8627632451671183e+00
      -2.0980606424200968e-01 1.3055825712100000e-01
      8.4013888602531603e-02 6.1080649992897480e-02
      1.2558924984813027e-01 -5.1287896942885421e-05
      7.7398140060623066e-02 1.4461724889729147e-01
      4.7435199908073586e-02 3.8816736895811221e-02
      1.2892650797430527e-01 2.6364059680673495e-02
      1.6612910953886267e-02 1.1674532068458875e-01
      -2.3094003337479811e-05 2.5529798909284125e-05
      -3.4619105974698873e-05 1.0378017860612066e-06
      -1.1456658194079814e-05 -2.5452585138091310e-05
      -7.2623726950301888e-05 1.9068509908713565e-05
      1.3825852977078155e+00 6.0115336966679880e-02
      -1.7924070254782900e+00 5.5766957259194483e-01
      -3.7927735061257239e-01 6.7584290075514780e-02
      4.8523591477180314e-02 2.9293021041847115e-02
      9.1340825127212658e-02 7.3384927731172739e-07
      5.1105098473749333e-02 7.8507888015576247e-02
      3.0554088067552894e-02 2.6730123641035837e-02
      7.9685070236681643e-02 2.0779883573241065e-02
      3.9088662307343133e-02 6.8233539293408543e-02
      3.3043892417256936e-07 -3.6529133418121056e-07
      4.9534504708687623e-07 -1.4849313901801969e-08
      1.6392678851148419e-07 3.6418652635404990e-07
      1.0391315181720941e-06 -2.7284043405684913e-07
      -1.7558521576828232e+00 1.3624095816708109e-01
      -8.4861618854816356e-01 -2.4789770625444953e+00
      1.2859489624330869e+00 2.8515645476651846e-01
      1.9738914530650908e-01 1.2632208222371297e-01
      2.9828536502306180e-01 -7.1238670121341201e-05
      1.8666385012630096e-01 3.1493599960974222e-01
      1.1672375740806849e-01 9.2931962177263822e-02
      3.1328478324909881e-01 8.0881420454820593e-02
      9.7919863738379687e-02 2.5778383855182180e-01
      -3.2077472144401481e-05 3.5460781805463178e-05
      -4.8085790555303530e-05 1.4415022548177694e-06
      -1.5913249371177684e-05 -3.5353532206577777e-05
      -1.0087404700945579e-04 2.6486078939765813e-05
      -2.6078134652352536e+00 4.0505837922428850e-01
      -3.6210165796903726e+00 -5.2702090752619029e+00
      -4.1181561215569890e-01 -1.3419131648294400e+00
      -1.5016894493455486e+00 -1.6328087563927711e+00
      -1.2961862271108453e+00 -1.2182133056985952e-04
      -1.5055802615562131e+00 -1.2745191639572675e+00
      -1.6460162544161039e+00 -1.6849628794497273e+00
      -1.2866987510646424e+00 -1.7158240071231972e+00
      -1.6779005867066976e+00 -1.3603476737368920e+00
      -5.4853920372387019e-05 6.0639532090743665e-05
      -8.2228864987268240e-05 2.4650337017851482e-06
      -2.7212372282855086e-05 -6.0456130452034563e-05
      -1.7249915817420749e-04 4.5292386463873882e-05</_></weights></opencv_ml_ann_mlp>
</opencv_storage>
