<?xml version="1.0"?>
<opencv_storage>
<opencv_ml_ann_mlp>
  <format>3</format>
  <layer_sizes>
    576 4 4 4 4 26</layer_sizes>
  <activation_function>SIGMOID_SYM</activation_function>
  <f_param1>6.6666666666666663e-01</f_param1>
  <f_param2>1.7159000000000000e+00</f_param2>
  <min_val>-9.4999999999999996e-01</min_val>
  <max_val>9.4999999999999996e-01</max_val>
  <min_val1>-9.7999999999999998e-01</min_val1>
  <max_val1>9.7999999999999998e-01</max_val1>
  <training_params>
    <train_method>BACKPROP</train_method>
    <dw_scale>1.0000000000000000e-03</dw_scale>
    <moment_scale>0.</moment_scale>
    <term_criteria>
      <iterations>128</iterations></term_criteria></training_params>
  <input_scale>
    1.2416962285694883e+01 -2.3164471718544410e+00
    1.8911815584118003e+01 -2.5651301257186816e+00
    2.0215404614954060e+01 -2.7440576796055733e+00
    1.8735614222124727e+01 -1.9749170575430848e+00
    1.6179941829868550e+01 -3.2119548310246864e+00
    1.7989325032261117e+01 -1.8963967183582728e+00
    1.8175082776343597e+01 -2.4835833776390048e+00
    1.8497586807438555e+01 -2.3728891314703069e+00
    1.2478172443979410e+01 -2.2941293343804117e+00
    1.3412826112086975e+01 -2.6761638579552280e+00
    2.0207713156882118e+01 -2.9995509767398509e+00
    1.9463529258639380e+01 -2.8684254672519924e+00
    1.8316449163477483e+01 -2.0584256027507353e+00
    1.6658172298660467e+01 -3.2578500497070695e+00
    1.8731803616785935e+01 -2.0017508478907926e+00
    1.7902277046708029e+01 -2.5725288541768423e+00
    1.9069310757262357e+01 -2.6175612264051402e+00
    1.3381247440540065e+01 -2.5736508696814488e+00
    1.6509639457974050e+01 -2.9732236479235592e+00
    1.8123312045421866e+01 -2.6044813766763455e+00
    1.9967944690312446e+01 -2.9025989287862988e+00
    1.8993506770457568e+01 -2.1140173902745834e+00
    1.6882595904563118e+01 -3.3691447216838286e+00
    2.0977001060986591e+01 -2.2347875992920812e+00
    1.9225278558315061e+01 -2.7061231490521811e+00
    1.8398981240261154e+01 -2.4851857441415577e+00
    1.8177382837924238e+01 -3.1249153910540337e+00
    1.5955401897630210e+01 -3.0801343564110160e+00
    1.5572607485545673e+01 -2.5044827256211146e+00
    1.5946549819996857e+01 -2.6015917538247550e+00
    1.5289590875391957e+01 -1.9187236302180233e+00
    1.6200236107556155e+01 -3.2386573291612790e+00
    1.6144105082108261e+01 -1.9376831121668607e+00
    1.6937430268522018e+01 -2.6101958285881599e+00
    1.6978567306459006e+01 -2.5322496774892791e+00
    1.6309233076458238e+01 -3.0472812225864225e+00
    1.1565896513654378e+01 -1.8600875561465837e+00
    1.5194087856435393e+01 -1.9257046562621665e+00
    1.7726666953912762e+01 -1.9180209915323516e+00
    2.0813362728918868e+01 -1.6239230608370998e+00
    1.3765798005764335e+01 -1.9171264275798161e+00
    1.8357456131509220e+01 -1.4166279282678700e+00
    1.5672052264798054e+01 -1.5803622025453654e+00
    1.7086552540353207e+01 -1.6796476122221948e+00
    1.1863904134465750e+01 -1.7275508802306270e+00
    1.1843182377679371e+01 -2.2302729062607831e+00
    1.3644233471093047e+01 -1.9905228067132976e+00
    1.5629940342974471e+01 -1.9042016847394945e+00
    1.5598208694371300e+01 -1.4293420126337775e+00
    1.3245302756174789e+01 -1.9446238669183060e+00
    1.7838074955257383e+01 -1.4801330114245930e+00
    1.4962665230603498e+01 -1.6026389892282717e+00
    1.6818457051481488e+01 -1.7793051335023902e+00
    1.2250426966739463e+01 -1.9866934207439058e+00
    1.1559609689451291e+01 -2.6522667448620068e+00
    1.0451808459291854e+01 -2.2718884148325054e+00
    1.2894575031125505e+01 -2.2548177701762273e+00
    1.6279702591489798e+01 -1.7387539364424853e+00
    1.3433998544555807e+01 -2.0489633568926138e+00
    1.6405640822420661e+01 -1.5753931580182605e+00
    1.5087339771991594e+01 -1.7734458921661371e+00
    1.5599017378267439e+01 -1.9527481074841955e+00
    1.2231862668837980e+01 -2.3733106220480233e+00
    1.2149634754063189e+01 -3.0253931497554323e+00
    1.1109214988652035e+01 -2.5722404594616988e+00
    1.1899112073946268e+01 -2.0897279938444706e+00
    1.3474498764714200e+01 -1.6068519561458590e+00
    1.2566333649318283e+01 -1.9439404301648275e+00
    1.4378894859010620e+01 -1.5649618137564183e+00
    1.4029251486454568e+01 -1.7603935338001286e+00
    1.4442062872252224e+01 -2.0312201293491978e+00
    1.1628681049564159e+01 -2.5763494702765763e+00
    9.5450901669621153e+00 -1.5773651666464905e+00
    1.2197080501986516e+01 -1.5759401818945338e+00
    1.3929644600580271e+01 -1.3007166352918655e+00
    1.4319788912415376e+01 -9.9761863556405217e-01
    1.3245893816455732e+01 -1.3266990931520215e+00
    1.9552675650504010e+01 -1.1305967492343898e+00
    1.5628599612915782e+01 -1.0974565104936174e+00
    1.5014000587290351e+01 -1.1424672021254956e+00
    1.0019951169970243e+01 -1.3922834410602785e+00
    1.0506905013181587e+01 -2.2567150706253960e+00
    9.5814794705815363e+00 -1.9797419029584045e+00
    1.0206621284749936e+01 -1.5010758414103800e+00
    1.2614828753190219e+01 -1.2976078806655957e+00
    1.1611612350316665e+01 -1.4782056872856049e+00
    1.4426378027667379e+01 -1.0798788612462180e+00
    1.2891008530514004e+01 -1.1202950642434952e+00
    1.3033864575457377e+01 -1.2286877125234243e+00
    1.0525540203165860e+01 -1.6809403917651511e+00
    9.8721633492396901e+00 -2.4388778415474857e+00
    8.8365618463379327e+00 -1.9835634656604075e+00
    1.0782266201124546e+01 -1.4510149185020782e+00
    1.3773972438462447e+01 -1.0634360160510952e+00
    1.3799300378343068e+01 -1.2444141252455339e+00
    1.5572755476074676e+01 -9.7132046179482601e-01
    1.2633912893781375e+01 -1.0255708364975955e+00
    1.1433046093309374e+01 -1.1646278652945907e+00
    9.4062535603861779e+00 -1.6791042263640046e+00
    9.5061752159390682e+00 -2.4302756950943545e+00
    8.7015198091517600e+00 -2.0854105761526958e+00
    9.8855136399466623e+00 -1.6719328908437674e+00
    1.2975009629263861e+01 -1.2922410943267815e+00
    1.3170669265509488e+01 -1.4560920459386399e+00
    1.3240415443200144e+01 -1.0639279285772203e+00
    1.1683056298628735e+01 -1.1907323219628567e+00
    1.0980778559999663e+01 -1.3200529553914857e+00
    9.7785996162787594e+00 -1.8758818620650068e+00
    9.1739023966072786e+00 -1.9835061430812426e+00
    9.0771233885381335e+00 -2.0225092033918157e+00
    1.0104082499707866e+01 -1.6893755874610532e+00
    1.3827969379433734e+01 -1.3507479973682870e+00
    1.2164274640221207e+01 -1.4030698948109350e+00
    1.0538406010128304e+01 -9.3818862550959192e-01
    8.7716625175425644e+00 -1.1295199185644287e+00
    1.2628197689674481e+01 -1.2376564314128193e+00
    1.1658075491092829e+01 -1.6439833193543565e+00
    9.1914592496044634e+00 -1.7665819348765897e+00
    9.0341591209753904e+00 -1.7591312865226352e+00
    1.0651235486509533e+01 -1.5097574751225555e+00
    1.3934520505060142e+01 -1.2207458885342481e+00
    1.2761727226018758e+01 -1.4184605316046357e+00
    1.3569617545451319e+01 -9.5635375592423755e-01
    1.1252414724666535e+01 -1.1415606266762841e+00
    1.1856856160373953e+01 -1.1033503367147397e+00
    1.1583639965250994e+01 -1.4729003522946216e+00
    9.5255457559918444e+00 -1.6260419422167847e+00
    1.0506550347260967e+01 -1.6631124536036821e+00
    1.2692412304019516e+01 -1.4958581387283885e+00
    1.5642839958448047e+01 -1.3834941444423712e+00
    1.1470863616105069e+01 -1.4399210583183872e+00
    8.2262447509474921e+00 -1.1517112891225398e+00
    7.5464271191006134e+00 -1.3290971582596436e+00
    8.8368138737796897e+00 -1.2385433336186116e+00
    1.1458556889113721e+01 -1.4282652528483510e+00
    9.9325832557643992e+00 -1.4014009417052329e+00
    1.0442268785776642e+01 -1.3722330873776678e+00
    1.0852713749451686e+01 -1.3249696345816064e+00
    1.1799303979551157e+01 -1.0861379970338456e+00
    1.1404868552073856e+01 -1.4454573262360946e+00
    1.0327309883418115e+01 -1.2066956798291764e+00
    9.5749713038117044e+00 -1.5127534685895310e+00
    1.1221089323349682e+01 -1.2207752386954218e+00
    1.1617577677733580e+01 -1.3339112646849698e+00
    1.1168183469292888e+01 -1.6304255410421067e+00
    1.6888626123161099e+01 -1.8646757214624998e+00
    1.9847289968528759e+01 -1.9972409375107421e+00
    2.0176092066710531e+01 -1.5543014786138027e+00
    1.3417088317456370e+01 -1.7326700740690988e+00
    1.9835819895250442e+01 -1.4074178837055831e+00
    1.8815621300120572e+01 -1.5614428904948574e+00
    1.6386245431730352e+01 -1.5445121129561561e+00
    1.2717302297052614e+01 -1.6045772177718738e+00
    1.2276451408990976e+01 -2.3179667778006436e+00
    1.3025921763134278e+01 -2.4570792414293048e+00
    1.0403064644470939e+01 -1.9703490452965724e+00
    1.1109434478404060e+01 -1.6232882697577935e+00
    1.1088179589187195e+01 -1.7837249383026570e+00
    1.4473047758552466e+01 -1.4874004578143318e+00
    1.4962394850385504e+01 -1.6326321040383673e+00
    1.4132769716825546e+01 -1.7231220877907139e+00
    1.2821814787179555e+01 -2.0843691431066813e+00
    1.0917127350882906e+01 -1.7339730638190305e+00
    1.3256963458805636e+01 -1.7847522456503648e+00
    1.3251721257115280e+01 -1.8176566592773125e+00
    1.4356276015638725e+01 -1.6725283566726163e+00
    1.2972461402653861e+01 -2.1465422289746479e+00
    1.7646075718909234e+01 -1.6975896069525345e+00
    1.9510850979316942e+01 -1.9203443085822622e+00
    1.7814376526575444e+01 -1.8677197700486665e+00
    1.1392907782928472e+01 -1.6865857175972556e+00
    1.1974919744855118e+01 -2.5232994751833528e+00
    1.1920859417145458e+01 -2.5985374644932486e+00
    1.0626691185528792e+01 -2.2794312275537041e+00
    9.8711908343529231e+00 -1.9621247078524733e+00
    1.0922884288706706e+01 -2.2299245128972958e+00
    1.1971794780735520e+01 -1.7196407951090575e+00
    1.3888303498034926e+01 -1.7911727796075732e+00
    1.4247777111599039e+01 -1.9510174706623777e+00
    1.1610567212602009e+01 -2.2346300248919548e+00
    1.2777343765312189e+01 -2.5620140450249145e+00
    1.1809025745890816e+01 -2.0914560109851466e+00
    1.1867258070507708e+01 -1.8021379305276524e+00
    1.3901702198976372e+01 -1.4734186822300814e+00
    1.4550529984654604e+01 -1.3156844735446971e+00
    1.4575019671725110e+01 -1.1037667104047337e+00
    1.3378815028655186e+01 -1.2221214348952436e+00
    1.2297959897317517e+01 -1.5071718686016686e+00
    1.1801905038966549e+01 -2.0340636189538137e+00
    1.2164314352679506e+01 -2.2341280012927065e+00
    1.0785314446557598e+01 -1.8996928193808797e+00
    1.1769625577844241e+01 -1.6859533852746686e+00
    1.4299063403391871e+01 -1.4821359806731031e+00
    1.2916118717832891e+01 -1.4175939526088099e+00
    1.1599995677494270e+01 -1.1721022236193914e+00
    1.2386882859893765e+01 -1.2825031157870745e+00
    1.2685471747320355e+01 -1.4998706119312319e+00
    1.2594239630169811e+01 -1.9050866164195273e+00
    1.2770304643683561e+01 -2.7111826302705091e+00
    1.1954576484552318e+01 -2.3032883432023992e+00
    1.1544614520901082e+01 -1.9477345550158001e+00
    1.3432873410921978e+01 -1.7527709095362003e+00
    1.3621904833891307e+01 -1.5636091258683495e+00
    1.3497698665285764e+01 -1.3302367839294604e+00
    1.4038499686999879e+01 -1.5392894906940160e+00
    1.3850420151714253e+01 -1.8792326550609935e+00
    1.2410499613642720e+01 -2.3189250793605698e+00
    1.1862815460951927e+01 -2.3506473070100675e+00
    1.1390922446434889e+01 -2.1508048318510600e+00
    1.2318442568413698e+01 -2.0133998180880117e+00
    1.4463962723621471e+01 -1.8678085332581065e+00
    1.2971965213721305e+01 -1.7412221224410802e+00
    1.2250678425506271e+01 -1.4855352169167035e+00
    1.3436459688462751e+01 -1.7289763210388469e+00
    1.4283412982036900e+01 -1.9660653176650327e+00
    1.1599087048142721e+01 -2.0546022051270110e+00
    1.3215045970278863e+01 -2.1921433820207703e+00
    1.2618226408507276e+01 -2.0283413986521186e+00
    1.4401793273098962e+01 -2.0159496180010792e+00
    1.7194282495677559e+01 -1.7121662426182571e+00
    1.3582012940057190e+01 -1.5201961667450381e+00
    1.2760117918552384e+01 -1.3554807657457877e+00
    1.2522223318804421e+01 -1.5136479752444083e+00
    1.2860350571236973e+01 -1.7133648820116862e+00
    1.3739117422348007e+01 -2.1315523973767987e+00
    1.3697971602476288e+01 -2.2740112774370216e+00
    1.2400817930255446e+01 -1.9754761874493649e+00
    1.3105522932209363e+01 -1.8630932838718277e+00
    1.5233998588698663e+01 -1.6719925391006660e+00
    1.3676350433763291e+01 -1.7042475319731627e+00
    1.2171786859793496e+01 -1.5269856619658031e+00
    1.1420545830906002e+01 -1.7034904820170884e+00
    1.2352795536507722e+01 -1.9028249967966537e+00
    1.3716141554686228e+01 -2.2624946692385803e+00
    1.3416082479476339e+01 -2.4200684471524685e+00
    1.3539044982576058e+01 -2.4060743849353954e+00
    1.4607978184998865e+01 -2.4614952336655809e+00
    1.3982521924725887e+01 -1.9001575710328733e+00
    1.2745928151398591e+01 -1.7784751441182631e+00
    1.3291337230125741e+01 -1.6340288026265044e+00
    1.3489499799657198e+01 -1.7175422233082376e+00
    1.3301084576870151e+01 -1.8472557313286733e+00
    1.3350374833273424e+01 -2.1625825635802207e+00
    1.3558640241774512e+01 -2.4893256261085965e+00
    1.2445385658837237e+01 -2.2746407224943281e+00
    1.2373329043624437e+01 -2.1714532950048926e+00
    1.2298813452869972e+01 -1.8953204375470531e+00
    1.3000719503560155e+01 -1.9719045569268003e+00
    1.3795575079060439e+01 -1.8315179413862053e+00
    1.3303851151694365e+01 -1.8649050452459732e+00
    1.3420790469666093e+01 -2.0039634764027361e+00
    1.4323278593695166e+01 -2.4129283232092993e+00
    1.0813661706384803e+01 -1.4771236518869386e+00
    1.0361949092981737e+01 -1.6926723666674677e+00
    1.1185560302332359e+01 -1.6399181687802649e+00
    1.2991395049308826e+01 -1.3493343001342812e+00
    1.0606608638060543e+01 -1.4422283409260086e+00
    1.0449927523692349e+01 -1.3291564620275782e+00
    1.0602374012421190e+01 -1.3999887873309724e+00
    1.1797341627856548e+01 -1.3624245303388534e+00
    1.2634600551229777e+01 -1.4446267196655143e+00
    1.0412850052672054e+01 -1.5746639995348430e+00
    1.0799952926986320e+01 -1.9024750400559125e+00
    1.1922785642132807e+01 -1.7449189302380774e+00
    1.2903156201638289e+01 -1.2922050667334699e+00
    1.1365600589440765e+01 -1.6023845573759121e+00
    1.0716795104742751e+01 -1.4262882197718214e+00
    1.1648140227217727e+01 -1.4695726666153266e+00
    1.1616616668755544e+01 -1.2810788538064255e+00
    1.1996785767402717e+01 -1.4080639857027035e+00
    1.0337728671199416e+01 -1.7174367327213684e+00
    1.0216677231248605e+01 -1.9865950408424486e+00
    1.0800303852603632e+01 -1.8243679015536194e+00
    1.1982027555042283e+01 -1.3986932311508078e+00
    1.0003697872353619e+01 -1.4858128860115614e+00
    1.0580000319602377e+01 -1.2676939931975646e+00
    1.0781281687881883e+01 -1.4482294918231207e+00
    1.2375378670735683e+01 -1.4855513588513991e+00
    1.2809237430719524e+01 -1.6995508705572908e+00
    1.0161174074244505e+01 -1.7944402495633216e+00
    1.0363677008828406e+01 -1.8874706071388661e+00
    1.1442346072896777e+01 -1.7614104668577304e+00
    1.2816661925372173e+01 -1.3654070011591102e+00
    1.0842730889383541e+01 -1.5926015736107892e+00
    1.2432101462242205e+01 -1.4737230085151545e+00
    1.0379857997762896e+01 -1.4261552594496938e+00
    1.1388233128769256e+01 -1.4860384603164607e+00
    1.1177938769441067e+01 -1.6797023846911907e+00
    1.1888149569317912e+01 -1.4467869083963589e+00
    1.5915671227473373e+01 -1.5116932899558082e+00
    1.9320411483941772e+01 -1.8731235367524832e+00
    2.1357536073047434e+01 -2.1676169853376019e+00
    1.4453164009773378e+01 -2.5939123605562959e+00
    1.7379131183782984e+01 -2.0437983650381910e+00
    1.8132643832607190e+01 -2.1995937119217213e+00
    1.5736244429351551e+01 -1.7471073073317509e+00
    1.2568841399962608e+01 -1.5366638111232933e+00
    1.0835258895844570e+01 -1.8727132145838516e+00
    1.2618547507787918e+01 -1.9832927247476995e+00
    1.3399074421745299e+01 -2.3623542137707516e+00
    1.1779066493730438e+01 -2.2968301389627577e+00
    1.2440510629604777e+01 -2.8321226972933262e+00
    1.0813474269553547e+01 -2.1817368483261306e+00
    1.1603777934960895e+01 -2.2456737537396467e+00
    1.1157454539088043e+01 -1.9481361082763344e+00
    1.0992607842665954e+01 -1.8535417560296090e+00
    1.4326171966933700e+01 -1.5020385828200900e+00
    1.8224202058834514e+01 -1.4947335227205776e+00
    1.8956614893398282e+01 -1.5962905638856442e+00
    1.8723801440868783e+01 -1.5367498746583677e+00
    1.3798491441737083e+01 -2.1977486789118390e+00
    1.7619621115598747e+01 -1.7839864098228635e+00
    1.9761650203345511e+01 -2.1888609399509753e+00
    1.9484511652203015e+01 -1.9334797105089592e+00
    1.5119545947750449e+01 -1.6315193863333182e+00
    1.2647760316729006e+01 -1.9604291632646251e+00
    1.4863357445963885e+01 -1.9591853399304509e+00
    1.3685817845085479e+01 -1.9324598281018617e+00
    1.1875264800886296e+01 -1.8238955199035114e+00
    1.1975083554829329e+01 -2.5822222283234728e+00
    1.1190026273835628e+01 -2.0952760194854902e+00
    1.2036837670536050e+01 -2.3732482050091668e+00
    1.2317064449623766e+01 -2.1280158472632138e+00
    1.3859695383159941e+01 -2.1772982706019364e+00
    1.1585127509865254e+01 -1.9920011708189274e+00
    1.1491551996700293e+01 -1.8918420599838086e+00
    1.2272773723758091e+01 -1.8814613585883275e+00
    1.2005366988579482e+01 -1.6248240249705797e+00
    1.1664724061550439e+01 -1.8085460052359073e+00
    1.5348974263042200e+01 -1.8779360050368163e+00
    1.3717161555435412e+01 -1.8142327553959101e+00
    1.3620792088401759e+01 -1.7340371682778777e+00
    1.1583269473559161e+01 -1.7623676023668691e+00
    1.1457654361215045e+01 -1.8800887654861456e+00
    1.3093585867996856e+01 -2.1852893739417474e+00
    1.2591252319399064e+01 -2.1137069060816036e+00
    1.2997193147039651e+01 -2.0188363871451100e+00
    1.2588927207257022e+01 -2.2222642750658630e+00
    1.3924397243670541e+01 -1.9643319853486900e+00
    1.3292897710022604e+01 -2.0170743004291065e+00
    1.2423705226138097e+01 -1.7830771318252290e+00
    1.1019820136771932e+01 -1.7154673755293837e+00
    1.2188771381981393e+01 -1.7246605703645503e+00
    1.2273131217318369e+01 -1.6520806955000977e+00
    1.1964904850285052e+01 -1.6762000978557570e+00
    1.2214988282027541e+01 -1.4766721044234188e+00
    1.1013229822877562e+01 -1.6093227711857239e+00
    1.3356373742076308e+01 -1.6060179900455580e+00
    1.3364261690906364e+01 -1.6976853811963470e+00
    1.4330719072834182e+01 -1.5802347444556077e+00
    1.2869400426393872e+01 -1.6001855148440383e+00
    1.2752924057709496e+01 -1.8963106798642764e+00
    1.2454848149736618e+01 -1.9308547414211190e+00
    1.1761140868461490e+01 -1.8037212805220462e+00
    1.1348697518229605e+01 -1.6322179383789424e+00
    1.1017695140120329e+01 -1.9296601566120390e+00
    1.3877860721990622e+01 -1.8703969412559125e+00
    1.3263573080666914e+01 -1.8479071952684545e+00
    1.3206903168864649e+01 -1.7022333475640199e+00
    1.3041686826763444e+01 -1.7546385652980288e+00
    1.1291228381640858e+01 -1.3767727830870449e+00
    9.7610075472402578e+00 -1.6878826683522048e+00
    9.4754731169523012e+00 -2.1097476269720916e+00
    1.1254626295150896e+01 -1.9508569007655538e+00
    1.0140338256519087e+01 -1.6553982430984513e+00
    1.4435206471244063e+01 -1.3683748896260133e+00
    1.4522451857202228e+01 -1.2915767926505350e+00
    1.3626160625605031e+01 -1.3060431286368084e+00
    1.2850520292183337e+01 -1.3539656119155388e+00
    1.0863795884257460e+01 -1.2188367632625750e+00
    1.1570642549607449e+01 -1.9008632249881894e+00
    8.4416000823059161e+00 -1.9555714406597979e+00
    1.0577023729747877e+01 -2.0208068255694891e+00
    1.0296994142359809e+01 -1.8159017708900997e+00
    1.3625703285307997e+01 -1.3663495286604976e+00
    1.3382326959118432e+01 -1.1687968096767525e+00
    1.2348006428857754e+01 -1.1259590317722949e+00
    1.1116956435944253e+01 -1.1581291692166340e+00
    1.3074170536728513e+01 -1.3923726787846982e+00
    9.6656243849308900e+00 -1.7045041555384794e+00
    8.1347327867608108e+00 -1.7755996907706091e+00
    1.0814456889758027e+01 -1.7479120455580239e+00
    9.2214168876391014e+00 -1.5237071029889337e+00
    1.4807109574463682e+01 -1.3089568791309307e+00
    1.6579869317913953e+01 -1.2343875333224319e+00
    1.4938095077188212e+01 -1.2246687446925826e+00
    1.3806543674155074e+01 -1.2883384622333107e+00
    1.2694615080771586e+01 -1.2134692240481202e+00
    1.1043755291796305e+01 -1.5156276504624846e+00
    8.1505091887421592e+00 -1.6133542147084516e+00
    1.0246194597712977e+01 -1.6847501060307375e+00
    9.3530313547762294e+00 -1.6527987608634844e+00
    1.3112021450390239e+01 -1.3232977607200780e+00
    1.5269890298368090e+01 -1.1712014421008730e+00
    1.4363835320830731e+01 -1.1039693014886265e+00
    1.2941571787989478e+01 -1.1561333706523358e+00
    1.0904773769371550e+01 -1.5632439915900986e+00
    1.1838002425658726e+01 -1.5246993133311673e+00
    1.2689222253573957e+01 -1.7680834155867635e+00
    1.2041717052381438e+01 -1.7517567958511304e+00
    1.0555164824459990e+01 -2.1753089058483148e+00
    1.2795287607553584e+01 -1.7763377860927982e+00
    1.4918462504578846e+01 -1.7388617290079689e+00
    1.3089449599229416e+01 -1.5339776128599261e+00
    1.1421829894049846e+01 -1.5783998153452532e+00
    1.0627459509352681e+01 -1.5676394961191915e+00
    1.2043402031129192e+01 -1.5465263014417072e+00
    1.2275839192702628e+01 -1.6558620376056286e+00
    1.2520800433417332e+01 -1.7627991880306524e+00
    1.1432392140377740e+01 -2.4393999662863979e+00
    1.3669988000135044e+01 -1.8804563656408273e+00
    1.3200445780331618e+01 -1.5992520169101128e+00
    1.2782975408508863e+01 -1.4716979371942440e+00
    1.1533005480268422e+01 -1.5951051065965829e+00
    1.1685349853876760e+01 -1.6146105077964306e+00
    1.5592933797535883e+01 -1.8214559290390686e+00
    1.2947760704310932e+01 -1.7092321386234046e+00
    1.1706219030073454e+01 -1.7172165242662276e+00
    1.0804907943880899e+01 -2.2383564866665746e+00
    1.2584394234083232e+01 -1.8147923549839113e+00
    1.4049040578724544e+01 -1.6700061461517526e+00
    1.4038672011056679e+01 -1.6019957262968911e+00
    1.1424693416053904e+01 -1.5638351871941474e+00
    1.1333732508087811e+01 -1.5870459048353973e+00
    1.4459438361673850e+01 -1.6348221630955713e+00
    1.0931772956577760e+01 -1.5004142003082319e+00
    1.0230171593381495e+01 -1.5845281678561800e+00
    1.1019161874024034e+01 -2.5085902973037859e+00
    1.4099442386649091e+01 -2.0715433322122330e+00
    1.3712200097778208e+01 -1.6790589973337120e+00
    1.3057967782687930e+01 -1.5621398943175955e+00
    1.0843118056577739e+01 -1.5359200927179864e+00
    2.0061115230558737e+01 -2.8354627877159042e+00
    1.9888730883968734e+01 -2.3681513433466947e+00
    1.9711395082465955e+01 -2.5712996682745612e+00
    1.8508727859751716e+01 -1.9846118922630953e+00
    1.8655718668260100e+01 -3.6936782849090943e+00
    2.1368478680240823e+01 -2.3741390292659585e+00
    2.1630077474689521e+01 -3.0576801361081984e+00
    2.0814291283354635e+01 -2.7323604828752464e+00
    2.0610137964695316e+01 -3.0145760323414570e+00
    1.8996680569420121e+01 -3.3989784824699769e+00
    1.8551090055991160e+01 -2.9139012970950069e+00
    1.7285643248903067e+01 -2.9301313554979864e+00
    1.4721940353523095e+01 -2.2074628774103000e+00
    1.9330074832994878e+01 -4.3040301599851496e+00
    1.3039049823074574e+01 -2.2272985629909727e+00
    1.5043444996286510e+01 -2.9266789092387153e+00
    1.5957372279220706e+01 -2.8802576173496846e+00
    1.8528883631707178e+01 -3.4187573699261780e+00
    1.7116219685495352e+01 -2.5699333973546312e+00
    1.8596186292010451e+01 -2.2914970236538861e+00
    1.8316858666679433e+01 -2.4708831566048457e+00
    1.6950893982253138e+01 -1.8438982473673111e+00
    1.6839287312059788e+01 -3.3157464044499494e+00
    1.9864095373267396e+01 -2.1631504959546430e+00
    2.0212277468706699e+01 -2.8192184555523756e+00
    2.0869550690052648e+01 -2.6494676665445831e+00
    1.8027167372149272e+01 -2.7292555426067655e+00
    1.9670862234475241e+01 -3.4365970223799791e+00
    1.9987713795508075e+01 -2.9246452566854857e+00
    1.9745014219609452e+01 -2.9893495165783297e+00
    1.7107764056879532e+01 -2.1372346905081105e+00
    1.9242459602683127e+01 -4.1418018432084054e+00
    1.6010482223435389e+01 -2.2982417712554755e+00
    1.7287952363675199e+01 -3.0924393635195808e+00
    2.0312172765904005e+01 -3.2842111602541229e+00
    2.0327692632352530e+01 -3.6523693417615317e+00
    1.1284700685518608e+01 -1.9185610061575977e+00
    1.1952775685420397e+01 -1.7656603082357727e+00
    1.2932933165498076e+01 -1.8739779431995118e+00
    1.3742276443921211e+01 -1.6136178683864442e+00
    1.1685776282658191e+01 -2.0790908677561881e+00
    1.4771117595241980e+01 -1.8045769042382642e+00
    1.5198252040376914e+01 -2.2034967399025374e+00
    1.3711046708196653e+01 -2.0706258930805856e+00
    1.1858001696800631e+01 -2.0617063180191328e+00
    1.1854961078137492e+01 -2.2168872407568694e+00
    1.2052693900045767e+01 -1.9948195235410628e+00
    1.5424526271822712e+01 -2.2550954597859021e+00
    1.4201661737426619e+01 -1.7334764072317217e+00
    1.2141064674669952e+01 -2.3043591623102877e+00
    1.3785633092361184e+01 -1.8395725232248525e+00
    1.3654817173605432e+01 -2.0281240048510081e+00
    1.4255517424260709e+01 -2.1265058655570837e+00
    1.3092552356592027e+01 -2.3560086761825376e+00
    1.5308712474691069e+01 -2.2398834155608540e+00
    1.7472059151731646e+01 -2.1071018684841185e+00
    1.5512708623598144e+01 -1.9067471809428798e+00
    1.4418615824365961e+01 -1.5491937838948884e+00
    1.2385752651010986e+01 -2.2158230704660564e+00
    1.4913726952219506e+01 -1.7748211462048316e+00
    1.5479020914024503e+01 -2.1338522320915696e+00
    1.7495239549949368e+01 -2.3124455255284868e+00
    1.5857481135382653e+01 -2.3849796733158879e+00
    1.4922553065756279e+01 -2.4005774536580970e+00
    1.7682007296560585e+01 -2.4066375688254542e+00
    1.5938187947706947e+01 -2.1954095602083075e+00
    1.4261467939529616e+01 -1.7700395186702342e+00
    1.3469146164261470e+01 -2.6403835680536609e+00
    1.3692940262262677e+01 -1.9065813933304681e+00
    1.4427584456301675e+01 -2.1763119529376307e+00
    1.5231257291931060e+01 -2.2255285626686594e+00
    1.4754246617419104e+01 -2.4110606197344455e+00
    1.1850463702657386e+01 -1.8873278656273196e+00
    1.1948845340232884e+01 -1.6179238992035361e+00
    1.1948443228650264e+01 -1.6148575391546836e+00
    1.7216400415897155e+01 -2.0238976520506724e+00
    1.1349964977937560e+01 -2.4867674554153778e+00
    1.4770563915587472e+01 -2.0685557504128562e+00
    1.5414273008011905e+01 -1.9723688952922669e+00
    1.5147649666316093e+01 -1.9173689754320347e+00
    1.2868206145205839e+01 -1.9501296035024152e+00
    1.2500975889462303e+01 -1.9039563636825907e+00
    1.3408386017414886e+01 -1.7766415600989123e+00
    1.2559836370508775e+01 -1.6875702382553717e+00
    1.7071173704930708e+01 -2.1713482697426101e+00
    1.1685837148788808e+01 -2.5766092412914650e+00
    1.5949583896991159e+01 -2.2497393253358395e+00
    1.4273241557501324e+01 -1.8107470353903319e+00
    1.4858425787779010e+01 -1.8329580390321172e+00
    1.2625163244437534e+01 -1.8987827583868069e+00
    1.3833929034768039e+01 -2.1470067395882784e+00
    1.6972696405370929e+01 -2.0774348532942399e+00
    1.6174618205511599e+01 -1.9588502476018899e+00
    1.7433610795308052e+01 -2.0186886815345848e+00
    1.1438510827519849e+01 -2.5162531873217575e+00
    1.3357970449480623e+01 -1.9405498018383738e+00
    1.6876352510771312e+01 -2.2079260767019733e+00
    1.6985258444326995e+01 -2.1848080754605204e+00
    1.4041062647582438e+01 -2.1775096886474712e+00
    1.1787975541143922e+01 -1.9010790101945676e+00
    1.4966989289504177e+01 -1.9026557101953494e+00
    1.5625442080548577e+01 -1.9669520512518506e+00
    1.6978838600897078e+01 -2.1481629867486824e+00
    1.2027941841596752e+01 -2.6892566411649628e+00
    1.3043108789489532e+01 -2.0930645754101502e+00
    1.4698572487631020e+01 -2.0795001341338240e+00
    1.4359993952141487e+01 -1.9920753385712209e+00
    1.1961421429397365e+01 -1.9635144872464152e+00
    1.3190126278057276e+01 -1.5170752314772380e+00
    1.6113644173404637e+01 -1.4954776622463650e+00
    1.5186982864578502e+01 -1.7300483714486008e+00
    1.0215564759057708e+01 -1.4531428733310969e+00
    1.1188802501813997e+01 -2.3443425391540424e+00
    1.3252422025782961e+01 -1.7109308285304425e+00
    1.4299364119581918e+01 -1.6302428489699958e+00
    1.3853516538635596e+01 -1.5590223675560624e+00
    1.2540770134347694e+01 -1.5498309501989489e+00
    1.2459694961993003e+01 -1.4420258997509121e+00
    1.5704120299710706e+01 -1.4246055911095210e+00
    1.0624687361325590e+01 -1.4923979967931402e+00
    9.1122298451328163e+00 -1.6368452928459631e+00
    1.1202705214101973e+01 -2.7425614361253281e+00
    1.2239886160040470e+01 -1.7432439720483788e+00
    1.3475038142461958e+01 -1.5333888796406463e+00
    1.3613825539057375e+01 -1.4848034056006520e+00
    1.2509670744573269e+01 -1.5323839401769066e+00
    1.1593511286510457e+01 -1.5240792547123538e+00
    1.6995911414782515e+01 -1.6559723151495165e+00
    1.5638869849083779e+01 -1.9231422485144347e+00
    9.8413530343693498e+00 -1.5383009975921729e+00
    1.1601034129743258e+01 -2.5948222408961508e+00
    1.3433652708028411e+01 -1.7556107154286964e+00
    1.4580467128387467e+01 -1.7145590504692778e+00
    1.4492264965402327e+01 -1.6803793931569706e+00
    1.1470874559484756e+01 -1.6292096419286601e+00
    1.1153554315512434e+01 -1.3988765600136981e+00
    1.6272206385512003e+01 -1.4574750789139765e+00
    9.4451428844045537e+00 -1.4439651595775511e+00
    8.3871192658759242e+00 -1.6591803055299201e+00
    1.1201960713745054e+01 -2.9319868089982424e+00
    1.4168419725789139e+01 -2.0594695345464715e+00
    1.3455299401431329e+01 -1.5984971358922808e+00
    1.3339192865306412e+01 -1.5273948553273358e+00
    1.1053469086301584e+01 -1.5097262314834607e+00</input_scale>
  <output_scale>
    5.2631578947368418e-01 4.9999999999999994e-01 5.2631578947368418e-01
    4.9999999999999994e-01 5.2631578947368418e-01 4.9999999999999994e-01
    5.2631578947368418e-01 4.9999999999999994e-01 5.2631578947368418e-01
    4.9999999999999994e-01 5.2631578947368418e-01 4.9999999999999994e-01
    5.2631578947368418e-01 4.9999999999999994e-01 5.2631578947368418e-01
    4.9999999999999994e-01 5.2631578947368418e-01 4.9999999999999994e-01
    5.2631578947368418e-01 4.9999999999999994e-01 5.2631578947368418e-01
    4.9999999999999994e-01 5.2631578947368418e-01 4.9999999999999994e-01
    5.2631578947368418e-01 4.9999999999999994e-01 5.2631578947368418e-01
    4.9999999999999994e-01 5.2631578947368418e-01 4.9999999999999994e-01
    5.2631578947368418e-01 4.9999999999999994e-01 5.2631578947368418e-01
    4.9999999999999994e-01 5.2631578947368418e-01 4.9999999999999994e-01
    5.2631578947368418e-01 4.9999999999999994e-01 5.2631578947368418e-01
    4.9999999999999994e-01 5.2631578947368418e-01 4.9999999999999994e-01
    5.2631578947368418e-01 4.9999999999999994e-01 5.2631578947368418e-01
    4.9999999999999994e-01 5.2631578947368418e-01 4.9999999999999994e-01
    5.2631578947368418e-01 4.9999999999999994e-01 5.2631578947368418e-01
    4.9999999999999994e-01</output_scale>
  <inv_output_scale>
    1.8999999999999999e+00 -9.4999999999999996e-01
    1.8999999999999999e+00 -9.4999999999999996e-01
    1.8999999999999999e+00 -9.4999999999999996e-01
    1.8999999999999999e+00 -9.4999999999999996e-01
    1.8999999999999999e+00 -9.4999999999999996e-01
    1.8999999999999999e+00 -9.4999999999999996e-01
    1.8999999999999999e+00 -9.4999999999999996e-01
    1.8999999999999999e+00 -9.4999999999999996e-01
    1.8999999999999999e+00 -9.4999999999999996e-01
    1.8999999999999999e+00 -9.4999999999999996e-01
    1.8999999999999999e+00 -9.4999999999999996e-01
    1.8999999999999999e+00 -9.4999999999999996e-01
    1.8999999999999999e+00 -9.4999999999999996e-01
    1.8999999999999999e+00 -9.4999999999999996e-01
    1.8999999999999999e+00 -9.4999999999999996e-01
    1.8999999999999999e+00 -9.4999999999999996e-01
    1.8999999999999999e+00 -9.4999999999999996e-01
    1.8999999999999999e+00 -9.4999999999999996e-01
    1.8999999999999999e+00 -9.4999999999999996e-01
    1.8999999999999999e+00 -9.4999999999999996e-01
    1.8999999999999999e+00 -9.4999999999999996e-01
    1.8999999999999999e+00 -9.4999999999999996e-01
    1.8999999999999999e+00 -9.4999999999999996e-01
    1.8999999999999999e+00 -9.4999999999999996e-01
    1.8999999999999999e+00 -9.4999999999999996e-01
    1.8999999999999999e+00 -9.4999999999999996e-01</inv_output_scale>
  <weights>
    <_>
      -9.4838032651025264e-02 1.2154577636920277e-01
      1.0995968776574602e-01 -6.9334900050568651e-02
      -5.6451365623589366e-03 -1.2102864505857149e-02
      7.2556932808509361e-02 -2.2841779662644024e-01
      4.8395023828127486e-02 -2.1659269724835305e-02
      1.2916750941568750e-01 -8.8922143112260224e-02
      5.5114504977799510e-02 1.3070039531326444e-01
      1.2611729437219046e-01 -1.0487548700328914e-02
      1.5749618641994742e-01 -4.3788558855052185e-04
      -1.1233089840513051e-01 -1.4012997982095463e-01
      1.3921951637664529e-01 -4.8699248527895075e-02
      -5.3409873068086186e-03 2.2826629493513692e-03
      1.0265023217659384e-01 -8.7245460911025766e-02
      -6.6102276336868354e-02 8.8333304583286573e-02
      -1.2303882761209751e-01 1.0925979677292970e-01
      9.4868921628548680e-02 8.2434525314903764e-02
      4.3521387655987176e-02 4.0541668624172002e-02
      2.7999688545470375e-02 -7.0874442887148212e-02
      3.0391856084077550e-03 4.6077359622288656e-02
      1.0923483397150278e-01 -1.2654221574698849e-02
      9.0953650128167238e-02 1.3182556031092080e-01
      2.1179697545544243e-02 5.1297009508374063e-02
      -6.5861477629739221e-02 1.1828786699102656e-01
      -8.5239479986935721e-02 -1.6012863500053501e-01
      -9.4087117426626371e-02 6.0645237241269405e-02
      -1.6039762779711061e-01 -7.5906672579109727e-02
      9.4783303285294648e-02 1.7403627552734280e-01
      5.8940941551872614e-02 5.9819471883014556e-02
      -1.0160612919796483e-01 1.2769169858645016e-01
      1.7580052027401794e-01 -2.8966817562171652e-02
      -1.2301111697252419e-01 -3.9697271492570907e-02
      -1.0348774950941252e-01 -1.1645330354419366e-01
      1.2731744691092783e-01 -3.2300102549767916e-02
      1.1768784222424501e-01 6.1276871721547464e-02
      1.5032154459761898e-01 -2.6200374227833740e-02
      -3.1397660728223115e-02 6.3742258688291947e-02
      2.3237702379514191e-01 4.6640059867560313e-02
      -2.5501686377805433e-01 1.4009761332390844e-01
      1.0743597098284086e-01 2.1019672855113647e-01
      -2.0821504113128983e-01 1.9724457995697611e-01
      1.5015833619874254e-02 6.1167099110385481e-02
      4.5711231180973054e-02 3.7119778216058536e-03
      3.0391435484834115e-02 4.3554418029084871e-02
      -4.8561993580284318e-02 -5.1864795474636204e-02
      -1.4645451777138377e-01 -1.9140547273592248e-01
      7.7203984242105268e-03 -1.1429841073678319e-01
      1.0455067803381628e-01 1.2093007282492670e-01
      -6.2136344729935546e-02 6.3049918771383162e-02
      -9.9943367032113234e-02 1.2343424805851509e-01
      -5.4291601277093933e-02 -2.1146820612972461e-02
      9.9033717896414616e-02 1.3810898345848380e-01
      1.1418961985875185e-01 -1.1768071700713575e-01
      -1.0155705581755940e-02 -9.4368109299890167e-03
      -1.8126199211087424e-01 -1.1740255364693157e-01
      1.3458383807011876e-01 1.0315779221940823e-01
      1.3036605358293299e-01 1.3788113752409933e-01
      6.9397159955135915e-02 1.8442190052586641e-01
      -5.2952542731401916e-02 -2.3949114035900561e-02
      1.8336435172331061e-01 -9.1975780288842221e-02
      -6.0966629907221855e-02 5.9785174965585282e-02
      7.0286135919695417e-02 -3.1999058751398211e-02
      -1.6132752870401813e-02 1.3034749179827343e-01
      4.7449625339305024e-02 -3.4231229513365324e-02
      -4.5560829302610704e-02 9.8964153564215604e-02
      -1.9680365673442422e-02 4.6502372225855383e-02
      -9.4633262415198136e-02 4.5415037178499852e-02
      -3.6262608654439935e-03 -2.7977857204037955e-02
      3.6981357763049109e-02 -2.1502149560704158e-02
      -6.0473062146920935e-02 -2.0729096490059599e-02
      1.5868296070937130e-01 -1.2722250867330442e-01
      8.0552221408426716e-02 8.4998081041784621e-02
      1.1165905005490596e-02 -5.4225827504169433e-02
      1.5374003157877247e-01 1.4302902449500958e-02
      1.8342063730350362e-02 2.5926345245950937e-02
      6.9421526737320979e-02 -6.1255634700098274e-02
      -8.6506643737280814e-02 7.9709664147183723e-02
      -1.2753752429206106e-01 -6.6489582100936404e-02
      7.1086762226353198e-02 -1.7303061981517037e-01
      -1.6107582134710623e-02 -1.3232190509566959e-03
      1.4611004648101666e-01 -3.0370293307547470e-02
      3.4827954275146406e-01 2.3989690176082223e-02
      -4.4307958139064060e-02 8.9919052937493579e-03
      -6.6781687154596925e-02 3.3822396795998300e-02
      8.5307622595792148e-03 1.2072151929050785e-01
      -1.1993992976008778e-03 7.0104600454879068e-02
      7.5293870557241044e-02 -9.0920949309496613e-03
      -1.4160171012871672e-02 9.2160664916388219e-02
      -1.0552649084687862e-01 -4.9031731186203756e-02
      -1.7832431517663874e-01 2.1552635599184685e-02
      -5.1871874546029546e-02 -5.2708066130010008e-02
      3.0314144074314500e-02 -1.9795743770955720e-01
      -3.4034674519035829e-01 8.2474734430334290e-02
      -4.2501751853060606e-02 -2.8710999031024526e-01
      -6.7876083601940168e-02 1.6606563418813894e-01
      -1.3750747422916068e-01 -3.0097402020598041e-01
      3.8720058169155469e-01 3.5338380049505007e-02
      -1.4609796611376455e-01 -6.2778422107220830e-02
      -5.5100043312358876e-02 -1.5212343205961869e-02
      -2.9229554613417563e-01 1.4353728464447054e-03
      -2.4627354336886240e-01 1.9426946658345451e-01
      -1.2206582210784234e-01 -1.6148551411523299e-01
      -5.0167526104327197e-02 -6.8444545208151963e-02
      -1.1172879239827134e-01 -2.1688577039920436e-02
      -2.3278585741440871e-01 1.2637917822598924e-01
      8.8009906715932507e-02 1.1460244081672794e-01
      4.5490154647370877e-02 -1.0802789057540113e-01
      2.3091863038227974e-02 -2.6515093870168836e-02
      7.5283132821706233e-02 1.3196968051367916e-01
      -1.5967776908093453e-01 -4.9863630265586630e-03
      3.9310607339240591e-02 1.3318140850600468e-01
      2.0506497016484942e-01 1.3877218930484794e-01
      -2.5336218068116367e-01 2.7150003178004850e-01
      2.2521974658912322e-01 2.6687335720318534e-01
      -2.8824553792124319e-01 -1.5755874603333517e-01
      -8.3690283132331744e-03 -1.1385497920619227e-01
      -1.3891452726212633e-01 7.1407319689198853e-03
      -1.4797050437744211e-01 -2.9969230158709392e-01
      -2.0101105962380178e-01 2.1910086423096195e-01
      3.0009026540079149e-02 1.1622600855263858e-02
      1.7295131331767180e-01 5.6048783595342752e-02
      2.0036078590137640e-01 -7.1067426888348273e-02
      -3.0862146567996889e-02 -1.0164667929560973e-01
      -2.6587537738202927e-01 -1.8056709703968041e-01
      -1.3341306674215275e-01 -3.6610850178121913e-02
      -4.0067296457762448e-02 -6.0682978905584967e-02
      1.5620451565191890e-01 8.6707107018324986e-02
      -1.1119351930169055e-01 -1.6959536889905968e-01
      -3.0830227819161654e-01 8.0474420942375779e-02
      1.7835840404247846e-01 3.3365124965279069e-01
      -2.9452388855793976e-01 2.3876354662719193e-01
      1.8577440403823275e-01 -1.8894740200673939e-02
      -3.6745361098634834e-02 2.4933748999849414e-01
      1.3751833860192561e-01 -4.7103422534287571e-02
      -2.1747410752516294e-02 -1.0770057295444682e-01
      -9.6743040687960163e-02 -1.4396998419949528e-01
      -7.1444494598174882e-02 5.3372302896879942e-02
      1.5818683639611153e-03 1.6807986094879790e-01
      -6.2777850100193711e-02 7.0539757649977775e-02
      8.4856410757548795e-02 1.0309885087083608e-01
      -1.6540385830674070e-01 5.3131152614966155e-02
      -2.4060260072735210e-01 1.5341953744388721e-02
      -1.9448099227862001e-01 3.2825885968318525e-03
      -1.7277784695086860e-02 -8.6603005704635153e-02
      -1.1959773621838203e-01 9.6668195475905175e-02
      9.7529028435660040e-02 2.5093367365679152e-02
      7.1363250217475166e-02 -2.1601130986395214e-01
      -1.4329350412580141e-01 -4.4688210679759150e-04
      -8.1615313958830524e-02 1.1441680265975926e-01
      9.7470798958383620e-02 2.0681942617285715e-01
      1.1098510698095432e-01 -2.2019522415956952e-01
      -7.9692127093978646e-02 1.8952646775355741e-01
      -7.2449912635964217e-02 2.3500852138160144e-01
      6.3168566001365084e-02 3.2349840530174603e-02
      3.3758085868054136e-02 -8.6001386490199991e-02
      -5.9184542584405316e-02 5.9316338129312245e-02
      1.6712124557641708e-01 -1.9046327145628536e-01
      -1.0311229246259251e-01 6.9303810146853592e-02
      -7.6223613382075776e-03 9.9508059665105245e-02
      -2.8824602324408610e-01 -8.9240338558601185e-03
      -1.8147647797109069e-02 -3.2170365038655883e-02
      -2.9569740521651811e-01 -8.8807932451181196e-02
      -7.5497897278022641e-03 4.8193182079891442e-02
      1.5257570125765885e-01 1.1437094078737053e-01
      7.4608576979348839e-03 2.4561447183181251e-01
      9.9738388219377597e-02 -2.8739956107831401e-02
      -1.8641853260455207e-01 -1.2497277894670056e-01
      -4.1554197947913582e-02 -1.8658237925001819e-01
      -7.7702362438427264e-02 -9.3966404280549976e-02
      3.4837561716734061e-01 -1.7328618155484182e-01
      -1.1544273127492186e-01 7.9372265005812126e-02
      2.1669663760364175e-01 -9.2859948351390678e-02
      -2.5579814675013807e-01 3.3501957586898301e-01
      -3.0283144656799255e-02 2.5110860974606297e-02
      -1.5300020111526871e-01 9.1973504680143328e-02
      -8.3731769326598968e-02 3.2958617599178164e-01
      7.9378673046225354e-02 -1.2401896944714018e-01
      -9.1377153482758461e-02 -2.4167650021170786e-01
      2.5165105374547153e-03 6.9129081197839851e-02
      8.7539857336811688e-02 -6.3558901820423036e-02
      -6.6878298245547654e-02 8.8086769109447474e-02
      -1.6935052078411023e-01 1.0754042364614697e-01
      4.7483743749438576e-02 1.9039751317973524e-01
      2.8107522592029077e-01 8.9853798779753927e-02
      -1.8984440203054329e-01 1.6667276320600860e-01
      4.6612403058864937e-02 -2.4039191992020767e-01
      -2.4663189245801115e-01 -4.4565662906410258e-02
      4.2131655074048443e-03 -2.3242318282082763e-01
      8.4453743066048248e-02 1.6338621571767553e-01
      -2.2440445970635024e-02 -9.5572006873824930e-02
      -1.0998550855482679e-02 -2.8558465771491914e-01
      7.8320272714754460e-02 -2.7104317123590388e-01
      8.5911535763754363e-02 -1.0893678037678230e-01
      1.8965023314645432e-01 1.8259620891510653e-01
      1.7747500918825573e-01 -7.8101027613514409e-02
      -3.2702682173153691e-01 8.3675195136408254e-02
      -9.3439736592386094e-02 -9.9528196382864031e-02
      -2.7849588457311600e-02 3.6254837936009095e-02
      9.3701346491978477e-02 -1.6739053162490711e-01
      1.4840873574321831e-01 1.1663942554222054e-01
      1.0561794642830437e-01 -3.5952733278856402e-01
      5.8806915335305250e-02 1.5360060439761089e-01
      -1.6789267308700809e-01 8.3289489096096368e-04
      -2.7992784130645237e-01 -5.8220566667936111e-02
      -6.9777390990927390e-02 1.0573525866083903e-01
      -1.6376769110800837e-01 -6.3363969667348863e-02
      2.1640088030269622e-01 -1.9881353835566176e-02
      -9.8694443299138568e-02 -6.4006776768024992e-02
      2.6706654573808308e-01 6.8539406457471932e-02
      -8.6030269375573509e-02 8.9987878571933716e-02
      -4.2629383428028356e-02 1.8458458865437349e-01
      1.3787062445486434e-01 3.8929923572970530e-02
      2.6925553175612564e-02 3.1230774445454011e-03
      -2.1475148633513974e-01 -1.0405951863277368e-01
      5.2090121326404212e-02 -5.6267361313650701e-03
      -8.4660346500473840e-02 -4.0158240896854741e-01
      -8.4269452953160504e-02 4.4924849364583752e-01
      1.4390601458479757e-01 2.4144582063303978e-02
      1.1854912205009231e-01 -4.3551777613517681e-02
      5.2414337179468022e-02 1.8996558680876466e-01
      -7.8763494863255568e-02 -1.4138357130999010e-01
      9.1926334817114388e-02 -1.9853756868993888e-01
      -1.2951532232130096e-02 1.9956517030551765e-01
      -1.8857431678337488e-01 -1.6317027003828735e-01
      2.4501625310576146e-03 4.9150721994439817e-02
      -1.4389043768456283e-01 2.0059591794518236e-01
      -2.8520567889015508e-01 3.1768623413768682e-01
      3.2417291055612069e-01 1.5890907780558232e-02
      -3.3696497062199693e-01 -1.8769040840100570e-02
      4.9645496026984884e-02 1.1233227364935509e-01
      -7.3910305137176890e-02 1.0682691626242294e-01
      2.0109939116394290e-01 4.4803991585757597e-02
      6.6472595022315450e-02 4.9931368506853389e-02
      -1.9748366997784811e-01 -2.9433958202762504e-02
      -3.5376344085639957e-02 7.6411609814383219e-02
      -1.3260655664887891e-01 6.4354442294308811e-02
      -3.0762693053624595e-02 -8.5963632439849030e-02
      2.5407208424667616e-01 1.9560551822122305e-01
      6.6398009014333209e-02 9.8295519148366012e-02
      3.8729305785890962e-02 4.1652235759312102e-02
      -8.4891519660999767e-02 -3.0164881712615561e-02
      4.5268524677123279e-02 7.7950313066209184e-02
      1.7862266646615232e-01 3.7250733411015834e-02
      6.8901664541311447e-03 -1.0589121759341183e-01
      4.3102002496523885e-02 -1.4761606382602138e-01
      -1.4100991583882502e-01 -4.4635035950420865e-01
      1.9000758430357384e-01 1.6728949847011923e-01
      3.4366024669710810e-01 5.4428187184927916e-02
      1.2489176943028536e-01 4.4953192670010265e-02
      -2.4360873864431914e-01 -5.1141976324301439e-02
      -3.0279243371094572e-01 -2.3696498971489136e-01
      -2.0235304564875095e-01 -1.0028269219237031e-02
      2.8339500830575404e-02 -3.7477951631585661e-02
      1.5447829674370323e-01 -8.4058470480723804e-02
      -7.2215379386395689e-02 5.0340584136001378e-02
      -4.7875079818908470e-02 1.8736707662528319e-02
      3.1942725658894007e-02 -2.0227216024380404e-01
      -1.4038788924305609e-01 9.2101048887444775e-02
      2.1058225482521697e-01 -4.1440161091272652e-02
      -1.8480328906046525e-01 -1.4621098163652074e-01
      1.9459166509115403e-01 -2.6659412740047644e-01
      2.8193976693796646e-01 1.8242806639677747e-01
      -2.3518695920577345e-01 -5.5500917639658053e-02
      1.6037799294449637e-01 3.6661736852639279e-02
      -1.1444746807392218e-01 -1.4674912607891992e-02
      4.6649365495598359e-02 1.2220810992146991e-01
      9.6280379722198703e-02 6.6142020610373987e-03
      -6.3006030267027599e-02 -1.6768872864804099e-01
      3.0630510288547724e-01 3.4350989208108396e-01
      -1.8904497689186936e-01 -6.3462935858606725e-02
      1.7463264245770344e-01 -2.7482730038935455e-01
      -8.3748157497488596e-02 -1.0756024921311461e-02
      1.2593357627568355e-01 5.8910558831990791e-02
      -1.7397422832673429e-01 7.2417303786101832e-03
      4.2741060500285026e-02 9.9053690405860817e-02
      4.2686291685728961e-02 -1.4159165914537206e-01
      -4.4582348589671410e-02 1.5376348861199854e-02
      1.0814180969582939e-01 -1.0076936721768640e-01
      1.7770280427200780e-01 -1.5524683692641372e-04
      -1.9256734965229946e-01 1.1566180740453741e-01
      -6.7221187476656105e-02 -8.1476694271016809e-02
      6.1871649612269868e-02 -1.0297012207456409e-01
      1.3779866688812872e-01 -2.0393760123994822e-01
      -2.1903586603411493e-01 -2.4431778621204572e-02
      -3.4032522230749700e-02 -1.0607518636946299e-01
      1.3101324959170671e-01 1.1860704103989006e-01
      2.3308589357104270e-01 -3.7277936712962090e-02
      -1.7516511350805106e-01 -1.7572249420144925e-01
      -1.1305776376497777e-01 -1.0738416067777677e-01
      7.5624832599979208e-02 -1.4678153734963353e-01
      7.3639412332213633e-02 5.4192595565019600e-03
      -1.5818800412770884e-03 2.1320895353866459e-01
      -1.2360446733039772e-01 2.5066465241473806e-02
      2.2147622340005467e-02 5.4660615115360696e-02
      -6.4159816418793994e-02 5.1801591729011831e-02
      2.6943716178617189e-01 -4.7968883764641944e-02
      -1.1032315815828228e-01 4.9234473221815470e-02
      -2.2463663564228735e-02 -4.1673101189918143e-03
      -6.4069733733294790e-02 -1.4195377083660482e-01
      1.7649428850725962e-01 8.7986993931246954e-02
      1.1145187641489877e-01 -1.2751761809539535e-02
      -1.9070769461379991e-01 1.2341265457676838e-01
      1.6106076141392880e-01 -2.5350740745954831e-01
      2.1046626532685184e-01 1.2495095056995083e-02
      -2.5178526458205716e-02 -1.7508972769969350e-01
      3.0596252178489665e-02 7.0119887378725279e-02
      1.1781145359795898e-01 -2.2718841985931140e-01
      1.1500260912505384e-02 -8.4441501909257088e-02
      5.9280834696645794e-02 1.0221884498872705e-01
      2.4569672351296548e-01 -2.5378075204696725e-02
      -2.8758442565127790e-01 3.1333055586666186e-01
      3.0994145797299771e-01 1.2209478840384119e-02
      1.6092146642199216e-02 4.0508748691896518e-01
      -1.6368858463143100e-02 -4.0162597322946580e-02
      -1.3716342485552876e-01 1.0927971664640583e-01
      -2.0773858699182532e-01 1.7186706412564784e-02
      8.8222761756137011e-02 7.8456295362559214e-02
      2.0998130889382263e-01 4.7542237021256914e-02
      2.0810280863163072e-01 1.3802074237329989e-01
      -3.3061003538322414e-01 7.1449944645262636e-02
      -2.3974012591509761e-01 1.6410932226147060e-01
      -2.1403936298229811e-02 -1.5467540985191838e-01
      -3.5761465870219461e-01 8.5114189523441006e-02
      -1.6814990616093395e-01 -5.6154612633154036e-02
      -1.0067703134643803e-01 -1.0985535818516139e-01
      -8.6635522304715371e-02 -1.6142119991153242e-01
      8.6902581522991292e-03 -1.2291635692035457e-01
      1.1176643301833709e-01 -1.5517612558815183e-01
      -1.5092738183860163e-01 1.9103314542311917e-01
      1.4877035994366725e-01 2.2709373345492972e-01
      5.9744913660234799e-03 1.7483977880157833e-01
      8.5592878364840475e-02 1.9152685618806420e-01
      1.5371560519967789e-01 -7.4249882990143193e-02
      -9.0443869190160925e-02 9.6125239222000822e-02
      4.3603448505829409e-02 -1.0953859730468497e-01
      -7.5919298745683358e-02 1.8725299219058578e-01
      -2.8457709311964469e-01 1.5839088759155995e-01
      1.0022931790144589e-01 5.9386503483851148e-04
      -7.8099610005877201e-02 3.4463066303804968e-01
      3.1271661662954664e-01 1.2275241012265431e-01
      -9.5380221949115412e-02 -1.8528400943057929e-03
      -8.0908232433430247e-02 -8.4638204326711250e-02
      7.8723382142197165e-02 -1.6268030461040939e-01
      -2.6786460613700421e-03 2.1057347955676309e-01
      -6.2383433932874958e-03 1.1668349237229657e-01
      3.1852171730019099e-02 -6.2833966157006121e-02
      -3.2677267204566235e-01 -6.8655039029321074e-02
      1.3159910115267442e-01 3.1005471173809646e-01
      1.1456038436507774e-02 -5.5420448560256970e-02
      -2.9485534492884258e-02 1.5493136599905238e-01
      6.8433513477881847e-02 -7.3982000065433692e-02
      -2.8221072945847875e-01 3.3230489036654703e-01
      8.3166749900531411e-02 -1.5436214671647625e-01
      -5.7212429564227257e-02 3.5079726823473004e-02
      8.4522750438245906e-02 -1.1858325877757576e-01
      3.8807144598669033e-02 2.8776205948964778e-01
      -8.2241715734735030e-02 -6.5952877069511320e-02
      1.7288896657454339e-01 1.0218252841225321e-01
      -3.3761618972814711e-01 1.4778984257898661e-01
      -6.6486026017716651e-02 3.2863927446144817e-02
      -1.0183236749938976e-01 2.4037990859266245e-01
      1.4187019812996887e-01 5.3358011945610781e-02
      -2.0668370026604235e-01 2.4899488337324197e-01
      5.6497061094558654e-02 1.5899351224525990e-01
      -3.8257327869993779e-01 5.9163083812840589e-01
      -2.0648467426431509e-03 5.3078832676661025e-01
      -7.0821726975547214e-02 -1.2764295482258978e-01
      1.7022185734548129e-01 1.5857942781808171e-01
      1.5748269947624757e-01 2.6721975308076990e-01
      -2.1777964582845596e-01 -2.3692484259516938e-01
      8.9461711260311702e-02 1.2583979794152694e-01
      -1.4855654472286312e-01 -3.4235969706805473e-02
      1.0988257708377878e-01 6.7349535947921091e-02
      -1.3179819553024122e-02 -1.7060321224599032e-01
      1.3106097055570951e-01 1.6355647046362082e-01
      1.8797619597990106e-01 -2.6045978663845792e-01
      -4.1044578748725469e-02 2.9050373312608034e-02
      -2.2111888506939748e-01 -1.2383738708258490e-01
      -1.2235467033577096e-03 -7.3093441271829027e-02
      1.1525019729420241e-01 1.1585588651781435e-01
      -2.4494099781678355e-01 5.0201604846680785e-02
      3.1760065507591934e-01 -8.1573777013024637e-02
      -9.6769767927003397e-02 7.0211636124123830e-02
      1.2246756568289213e-01 -1.2301254201143436e-01
      -6.8797729178301820e-02 -4.7402448641245203e-02
      1.2077438541964913e-02 -3.6023829886630426e-01
      1.0153179152164268e-01 2.4853098992592565e-01
      -7.3195137268056515e-02 -8.9422779284577831e-03
      1.2887873123566498e-01 -2.2326765281756092e-01
      -3.4299885166705096e-01 7.7127945298012132e-02
      -1.2556796039100107e-01 -5.0447122732741038e-02
      -9.2312277045737245e-02 9.1675670268520471e-02
      1.5726074698417993e-02 1.4878686876329993e-02
      -1.7440282069780547e-01 2.2354993313608920e-01
      1.9247371379576689e-01 -8.5299712733705041e-02
      -9.3047923429228088e-02 -1.0170360857845025e-01
      3.4366932634545665e-03 -2.0612351142300739e-01
      -6.0758959438938297e-02 1.5071767864096567e-02
      -1.2721533263035528e-01 2.8598202118539640e-02
      1.3691382671925362e-01 1.8450849166706249e-01
      1.3832536341120801e-02 -4.7749786637175896e-03
      7.0285553704183421e-02 -2.9809144349457761e-02
      -2.6326701018960413e-01 -9.8481277082976951e-02
      1.3489600008219571e-01 -1.0763393803305643e-01
      -2.6232086649926689e-01 -1.0490085646886109e-01
      2.6498748462202473e-02 -1.9874672034441182e-01
      -1.1594464984414066e-01 -1.0037448784409649e-01
      -1.4661811159899318e-01 9.5408431116302036e-03
      -1.1114293701855997e-01 3.4372210743053584e-02
      5.4366711745687531e-02 -1.0179059799367786e-02
      -2.0892810163649848e-02 -8.1059518951848014e-02
      -9.7852830750365591e-02 6.5100650111373698e-02
      -2.4357691905045212e-01 -6.1459804037140832e-02
      -6.7920401932305155e-02 1.2458192334508916e-01
      7.9752568897304518e-02 2.5132275495283246e-01
      6.1250279407758797e-02 -9.4666705827182548e-02
      -2.5834295474503310e-01 -3.0926953129778245e-01
      -1.0801022952048915e-01 2.2033202119745854e-03
      1.3945611556033358e-01 -6.9042304379901415e-02
      -1.7788959237316504e-01 4.8444445699729909e-02
      6.8930034361143422e-02 -2.5652353783461146e-01
      3.8903341299796924e-02 -3.4084801831457567e-02
      4.5941716285223207e-02 1.5097478535045752e-01
      -1.8214551659306263e-01 8.1498485593987757e-02
      -2.0458789648330245e-02 2.5413345905975188e-02
      -1.9053194940834897e-01 1.8209318057883742e-01
      -3.8653673774892275e-02 -1.3744814349629378e-01
      -1.6635224162663351e-01 -1.4394887920637370e-01
      -3.5210914136639343e-01 -1.3386467876176802e-01
      1.9333385687284677e-01 1.0740212343067818e-01
      -1.4474478007819347e-01 9.6293861222662938e-02
      3.5372957861180204e-01 -9.1639065003402423e-02
      -2.7174756065008937e-01 2.5250131564886752e-01
      5.3813683933454051e-02 5.9439965236459877e-02
      -2.3112070111925764e-01 -5.3661399570514696e-02
      2.4441917436911129e-01 -1.6977466265300678e-01
      -1.9355542437703280e-01 4.2201050491851005e-01
      -4.2122682337292626e-02 -7.8131509914610736e-02
      -5.4594829545541153e-04 2.0763151476220273e-01
      -6.9512405194149751e-02 -9.1283544672369085e-02
      2.9602860998699887e-01 3.4587412007250823e-02
      -1.3301214031099129e-02 1.2484245554118029e-01
      -4.0188118484858829e-02 -8.1238972996984835e-02
      -2.7037752069331555e-01 1.2025559507111568e-01
      5.7173919430570326e-02 -1.0334494443708922e-02
      -4.4681214977333537e-02 -5.7349695877580847e-03
      3.0807915850040914e-02 -1.6562231121016482e-01
      -3.9671579808402208e-01 -8.3794418507134205e-02
      1.4589895000372591e-01 -1.9660860921681661e-01
      -1.7529367367888982e-01 4.3746027024715133e-02
      7.9976861194786530e-02 9.8336832341168370e-02
      3.7623395085110818e-02 2.0486267056688177e-02
      -1.4884504302339246e-01 -9.9734481169522576e-02
      -5.3198451492900860e-02 1.1969119836653243e-01
      -9.4236327609732967e-02 1.4843683764699930e-01
      -1.5341004813594733e-01 2.3726340012198588e-01
      4.9197302951332601e-02 -1.8370495478359095e-01
      -1.7892211662540086e-01 -7.0604969327702605e-02
      2.4134364955689611e-01 -2.8993733479237604e-01
      -1.4276566596761855e-01 -1.4921601312358884e-01
      1.3676477271120355e-01 -8.0758296802787496e-02
      -2.1744935412992406e-01 9.7070222061100206e-02
      1.3937700325237382e-01 8.6933319350225260e-02
      9.9634672659573140e-02 2.6285120973655490e-01
      -1.5387950584103156e-02 3.3481306859183652e-01
      -5.6178929781072896e-02 -5.0444229700254771e-02
      1.3876731365127390e-01 1.1164884741922969e-01
      -1.0605607014288897e-01 8.9680165384320082e-02
      -1.0444081357890260e-01 8.2648909705634183e-02
      -7.4366395428989054e-02 -7.9342940008013257e-02
      1.7293243742595145e-02 -9.9013043364364395e-02
      -8.1207247147034294e-03 -1.0986733517018551e-01
      -1.6439379307368324e-01 -5.8354226485172661e-02
      -9.8465161043424926e-03 1.9382270974777674e-01
      -8.2728030913521277e-03 -1.7773087348083205e-01
      -2.8863308531142873e-01 5.4771616644768435e-02
      -1.1975962730803317e-02 2.4405547662563640e-01
      3.1635414574508768e-02 -4.3381795241121002e-03
      -1.4285920370541610e-01 2.2108265972692706e-01
      1.8336654004014194e-01 4.4101521454778109e-02
      8.3946210909000389e-03 9.2647185177607005e-02
      -1.1037580137414364e-01 -1.9286214685795491e-01
      8.0514661505377616e-02 -2.3505220823976486e-01
      -8.9583005320931192e-02 -1.0900337571532757e-01
      2.6824694766475821e-01 2.8718916149610035e-01
      -5.2706730068632912e-03 -8.8527917720771010e-02
      1.2280952601698432e-01 5.5023532263745088e-02
      -3.0970436290478544e-02 4.0437791839477027e-01
      2.8418960332284603e-02 3.0006515388488419e-01
      1.0866337067663133e-01 5.7828051344221205e-02
      -1.3335285109917596e-03 2.2131326870218618e-01
      -1.3722464196716517e-02 -2.2692042693440878e-01
      -1.3030039712031127e-01 -1.9921014577433518e-01
      -1.2057901099205195e-02 -8.9627679937360566e-02
      5.5953070110219992e-03 4.1522240273456651e-01
      1.6957156755045381e-02 -6.3252392654782108e-02
      -2.1773689234363211e-01 1.2496145079597451e-01
      3.4496602766828664e-02 8.2125829851856000e-02
      -6.7101639568009255e-02 -7.0295422890612913e-02
      -1.8904072844307107e-01 -5.4885270843947325e-03
      5.3419451156564844e-02 1.8498446579638880e-02
      -1.2036343177794806e-02 -1.4615277435722815e-01
      8.2062539371897267e-02 -3.2217845175006261e-02
      2.2831720019424028e-02 9.2047651355503218e-02
      5.7583752658361713e-03 1.9532243306487951e-02
      8.2449064654767618e-02 1.5287827185958761e-01
      -3.8680548322743133e-02 -8.1950308054979298e-02
      1.9772530609412753e-01 4.6786146413912807e-02
      -1.1572044260822614e-01 2.8706099837046351e-02
      4.8756977473206911e-02 2.1409889855881659e-01
      -1.1544165068680784e-01 -7.3317801080729203e-02
      2.5437401307763920e-02 -8.3682009561184295e-02
      -1.0202616525563123e-01 -4.1154742129177302e-02
      -3.0153254038693128e-01 -1.1834746986394402e-01
      -2.4819083758195786e-02 -1.7743787685446649e-01
      -3.1353842816967967e-03 -5.2677102276399844e-02
      -5.7006965821212896e-02 2.4072904266288395e-01
      -5.2877554473010235e-02 9.2961084941803426e-02
      7.5108097587142028e-02 -8.7376017128657474e-02
      4.4469198783275345e-03 -1.8316116560363610e-01
      2.0785673820933417e-01 2.9823106717478504e-01
      -1.4891040477913114e-01 -6.9652092475942395e-02
      -3.0727355372937439e-02 6.2870765325341180e-02
      2.6019713972418967e-01 1.0639724082033375e-01
      -1.4279654664137040e-01 3.4399936998978775e-01
      1.9647394331879256e-01 8.2354142358536039e-02
      -4.6829801148867171e-03 -6.8672763341843376e-03
      -1.0670951906765457e-01 1.8252116020982135e-02
      -2.3221197746084954e-01 3.5389468522133494e-01
      -1.2954787519073574e-01 1.0488484746869729e-01
      5.0352083939670285e-02 -2.3540307359452389e-01
      3.9943452627776731e-02 2.4060435523136366e-02
      -4.5380411829324403e-02 1.7919164658644057e-02
      -2.3653269820336154e-02 5.6830133479169600e-04
      -2.1506255353148504e-01 1.4708639512162092e-01
      5.2181641189950792e-02 -2.7805997902632684e-01
      3.2875120634466307e-02 -2.0139965629176443e-01
      1.1248588458914431e-03 -2.9839286945936888e-01
      5.1236797168179589e-02 -7.6742739070428542e-02
      -2.8354705942252206e-01 -4.3807792142946382e-02
      1.8061820572597729e-02 1.6782565245436584e-01
      -1.1612372609374333e-01 1.5816087220165584e-01
      3.5382282649676015e-02 -9.5750229050392039e-05
      -1.0173603124294715e-01 -4.8438976910624935e-03
      -1.7553511133192598e-01 3.0443531724803857e-01
      -1.0475607185044603e-01 3.9493001195486377e-01
      1.4696042071891735e-02 6.7720039491043285e-02
      5.6118104581300836e-02 -7.0978002376566707e-02
      4.2859336357693754e-02 3.1605483671796386e-02
      -2.3971017753610640e-02 -3.0479492224226223e-01
      -1.3653868751290518e-03 5.0757781121879161e-02
      -7.9644996408367044e-02 -1.3165378330461833e-01
      -6.8873064893392094e-02 1.3810668495865369e-01
      -8.6325835169147755e-02 1.9413252508244747e-01
      9.3227920072476822e-02 -2.2328510262474091e-01
      -1.2697701242676074e-01 9.4870467258864874e-02
      -4.9144037014339809e-02 3.5593333301040496e-02
      -1.2918097551823184e-02 -1.4768098496916407e-01
      -7.3157430635830495e-02 -3.0874731166311283e-02
      -2.3624091733392397e-01 8.8430921765584466e-02
      -1.7714288947571671e-01 -7.5305752969123632e-02
      -1.9141782630141529e-02 -9.2249786545060886e-02
      -8.9704863116547170e-02 6.5613045173701826e-02
      -5.6973935554752650e-02 1.8416693872303724e-01
      2.1565517472337750e-01 -8.4948323481070412e-02
      -2.5862330432842473e-01 -2.2653334306684142e-01
      -1.4631321644918560e-02 -7.8344069982761597e-02
      -1.3247406268026451e-01 -1.4525504258307947e-01
      -1.2265132667037822e-02 9.1640689784181648e-02
      4.8149839498969331e-02 4.6356527630762818e-04
      4.2791718812886521e-02 9.2369185639788021e-02
      2.0419323875346951e-02 3.7109360077796430e-02
      8.6353212144396046e-03 1.5190619323402321e-01
      2.9796761049338757e-02 1.2256849032625618e-01
      9.0738972543608493e-02 -6.2196049308170876e-03
      3.4985609370516139e-02 1.3137981098670303e-02
      -8.0733277442992316e-02 -1.9289570591595556e-01
      -9.9787537632813599e-03 -1.6846565416768366e-01
      -5.6565156572181710e-02 -2.8195422660126351e-02
      -1.1416932805566235e-01 -5.1117464552402257e-02
      -1.2421279162328297e-01 -1.8494444003928384e-02
      1.0298716016188590e-01 -8.4488219732379216e-02
      -9.9015616166072115e-02 6.9652706565437178e-02
      8.5737604720822702e-02 -1.0417596948412500e-01
      -3.2772543459979604e-02 -6.7470751987638578e-03
      -1.4903294487677285e-01 6.1468817648538530e-02
      2.2617238636467357e-01 -1.0294031144298209e-01
      -1.0255530128821239e-01 2.1226574236225562e-01
      -3.1955616429897818e-02 8.6498278904719839e-02
      -2.4158703656863040e-02 -3.1681878189728938e-02
      7.8161560787706990e-04 1.6359637544872470e-02
      1.5152212663389536e-01 1.4481827015256071e-01
      -6.0425274120217164e-02 2.5494175085858155e-02
      7.1093621180732966e-02 -3.6085568077742422e-02
      2.3997148712438141e-01 -1.7298628860852527e-01
      -1.6268720724389915e-01 -1.7661112394588047e-01
      9.4471509506668994e-02 1.0662864484306958e-01
      -1.6791766157196347e-01 -9.0722410916485710e-02
      -9.3644276695082462e-02 1.1606473380985760e-01
      1.2185957900935622e-01 2.1774075330959600e-01
      -8.2528363289470497e-02 3.9673408223860958e-02
      5.6571301480775528e-02 2.0467928949321951e-01
      -2.2964632024629314e-01 -1.1787097815572822e-01
      -2.0736571562091969e-02 1.3947540382056758e-01
      4.0512158389552272e-02 6.3477906920658776e-03
      -3.3551399410614399e-02 7.0251326835744185e-02
      -2.9501154128224041e-02 -1.1398024899541176e-01
      -1.1269452770426726e-01 -2.5872903385378978e-02
      1.4138756021283846e-01 -5.5152908808106041e-02
      -1.0081724930537024e-01 -7.3147460976401943e-02
      -4.8818531727221033e-03 -9.6672317697550723e-03
      -2.0804538141407292e-01 -1.6497838275998600e-01
      1.0225053424527296e-01 3.0536178580867590e-01
      -1.3093493611333867e-01 7.4403229353826539e-02
      1.0860696737716014e-01 -2.6745251078039944e-01
      5.9839203266811962e-02 -2.5679168379560873e-03
      -9.9304792677664972e-03 3.5832155751775251e-02
      8.7912848460996340e-02 1.6079338025149795e-01
      1.8672805138737317e-01 6.4332129245540368e-02
      -8.1574299403560868e-02 -8.5517630252536267e-02
      5.9709874855392420e-02 2.0050800840877478e-03
      -5.0579657010908712e-02 -1.5815501483160724e-01
      -4.1067313139707483e-02 -5.0417959086654779e-02
      3.4110078637533868e-02 1.1247927650969136e-01
      3.4864131242376313e-02 1.1058429613134058e-01
      4.4066720718695294e-02 2.0128385771243984e-02
      -1.8658848859941743e-01 -7.6842698397731168e-02
      -4.4622516262412516e-02 -1.9329850662717871e-01
      5.6647529501080846e-02 1.3980556191008821e-02
      -1.3257135998581440e-02 -2.6554174076962342e-03
      9.9309353343428469e-02 -1.5553463198805381e-01
      -6.0591450913121438e-02 1.0687925923342105e-01
      -1.9717887476602305e-01 2.7463069985949565e-02
      1.5153731230354694e-01 2.1129301184178679e-02
      -5.2696704973009038e-02 9.0173126455661168e-02
      -4.4994258003984183e-01 4.0329055113187962e-02
      5.7716257920449238e-02 -5.8027904927503088e-03
      -1.0487923103033131e-01 2.0348929043333458e-01
      2.7009979892912407e-02 -1.6523659207921825e-02
      3.2189893036614886e-01 2.1838221720000047e-02
      -8.5236158449260871e-02 2.2950768069744185e-01
      2.8888192096982179e-01 5.2583426726923795e-02
      -1.8283483502208545e-01 1.0516491197588008e-02
      8.8910099122699413e-02 -1.3837912942899061e-01
      -1.8424086341102647e-01 -5.5579260095406834e-02
      8.6672756073167996e-03 7.2399090898545182e-02
      3.6983464771732671e-02 1.0061063562514744e-01
      1.9286678539425342e-01 9.9362080665546276e-02
      -3.5187991366820215e-02 2.2263139359585027e-01
      -2.6232358430010960e-01 -9.6771599515645720e-02
      3.0347221700006904e-01 2.0640258023910424e-01
      -1.4754439276935727e-01 1.4516280988883087e-01
      3.2647090537219242e-01 2.5835118893557441e-01
      -8.0623431489635106e-02 3.0919372689973623e-01
      -2.3591596585887495e-01 -1.6555240289095205e-01
      -4.9533415152010089e-02 1.1679436490541367e-01
      -1.7377257500150811e-01 -1.5885267084877724e-01
      1.5994595062246594e-01 1.6645132437979333e-02
      8.4657545927811606e-02 3.6374464633611393e-03
      -3.3041757272805172e-01 -2.3943108703075966e-01
      -2.3535253946938721e-02 -6.2699653815010775e-02
      6.2677292975215196e-02 -4.9753441165846748e-02
      -7.2016146304440032e-02 -1.7685612020703698e-01
      3.8419193764986599e-02 -1.1033394819674440e-01
      -2.9715980330979019e-01 -1.5571603226243392e-02
      1.2512331553306663e-01 -3.1482323596612038e-01
      -2.0512401117422041e-01 -6.9153033009686699e-02
      1.6987587336856314e-01 -3.0541006708213742e-01
      -5.7670145146581489e-02 -1.6646977387203588e-01
      -1.5120786185014795e-01 -1.2241467174270497e-01
      2.7767023605028526e-02 1.3313079192047361e-01
      8.5777840014436654e-02 -1.2757407899851103e-01
      1.0479172760738721e-01 -1.6521836697664039e-02
      -2.5486746324727955e-01 3.3928793288299064e-02
      -1.5118197445782236e-01 -2.8593287982637744e-02
      3.8831497250356407e-03 -2.3872279711740294e-01
      1.7166566855760585e-02 2.2697853774534638e-01
      -1.0774647660182614e-01 -2.1484942137136165e-01
      -1.5969747001753207e-01 1.4286105237645763e-01
      1.0759901069413345e-01 4.6066707125807085e-02
      -1.5677201229067048e-01 -1.1304259430412603e-01
      1.1151388840411230e-02 1.3017002295537788e-01
      -3.5200092602675737e-01 3.4949297997136940e-02
      2.3672573089171894e-01 7.0152397172905404e-02
      -1.8377334373707507e-01 1.1945499884305660e-01
      1.8797253543052669e-02 -6.3420290668137466e-02
      1.1000581861927246e-01 -1.5064795977304254e-01
      -2.1293698366153643e-01 -1.5103615338596761e-02
      -5.4945317303403338e-02 7.4671244843816459e-02
      1.1315967951261235e-01 -1.0288678358637815e-01
      -1.0890176101120058e-01 -1.6238174977026090e-02
      1.0347688883392807e-01 -1.1811674487090282e-01
      -2.7762802222378181e-02 6.2022685401449659e-02
      4.8378488135253916e-01 1.2966768662113740e-01
      -9.8002275992895266e-02 4.1247474034259646e-01
      -2.1211309796082038e-02 2.8731607168749457e-01
      -2.1513457046664428e-01 1.6420687145834606e-01
      3.2735755847972954e-02 -2.0358546262596253e-01
      -1.8221143300010983e-01 -1.6615053421728770e-01
      -2.7266499736879785e-01 -1.2423710445487579e-01
      1.8042033203854630e-02 3.2287544561431278e-02
      1.8494799800170308e-01 -8.1417990540782019e-03
      9.4186690726704228e-02 1.3770928065081142e-01
      5.3219416926220987e-02 1.9299151324585730e-02
      -2.0907609810485436e-02 -8.7645824133438063e-02
      -2.3752792299345463e-01 -3.3262371022113144e-02
      -3.9375295349365641e-01 -2.5680990756444261e-01
      -1.5855470690663787e-01 1.4184241294485259e-01
      9.8038167955622729e-02 -1.1988680492263594e-03
      7.1218171952086962e-02 9.7909734648135030e-02
      5.1708029845106323e-03 8.7061849103162933e-02
      2.1286837741811001e-02 -2.0985552563774031e-04
      -1.8288444545396521e-01 7.5474870337572331e-02
      1.9798957428358169e-01 -4.9514985042317161e-02
      4.9007668252835972e-02 -1.7502536709208794e-01
      2.0668426403593756e-01 -1.3464183078950007e-01
      6.8969408994345879e-02 -6.9079176013368368e-02
      4.0596052613264641e-02 -1.1903650046094246e-02
      1.5602048571065052e-01 2.1790548729559112e-01
      3.8777644412586083e-02 -5.7496941375646420e-02
      -6.0970719448177439e-02 2.7822095025699251e-01
      1.9602058773504163e-01 -1.0205517738907885e-01
      -1.4005916804957605e-01 9.4227946289410239e-02
      1.5278418359796003e-01 -1.2454439506916559e-01
      -2.6205729713602667e-02 -2.0271038365147659e-01
      8.9438276108790446e-02 3.8751162630127456e-02
      -2.0427428460412428e-01 -2.6966126645340271e-01
      -6.3170537148897171e-02 6.2898378520242298e-02
      -8.1104316963256234e-02 -2.0742864000449857e-01
      7.3292442200539057e-02 -4.1882053506318385e-02
      1.9816141532680048e-02 -3.1434626965272487e-02
      2.5061378763099568e-01 -4.2573400246921345e-01
      2.0482336105916293e-02 3.0546346834074117e-01
      -1.0909756634870896e-01 -1.4075430868355079e-01
      7.6814140700644976e-02 -1.4866927301899696e-01
      1.1887126250852996e-02 -1.4246016015230467e-01
      1.3977589882213823e-01 -2.8764703135779318e-01
      1.2754622787436798e-01 -2.8398762266391175e-01
      1.1039090826854982e-01 1.0586767163206696e-01
      -4.6332914925796269e-02 -1.0302189959536698e-01
      2.1899130916934711e-01 1.1659060645453301e-01
      3.8226637168044038e-02 -1.3398789307822215e-01
      -1.5084983580145828e-01 3.4084922197934867e-02
      3.7419665313874156e-01 2.4686319638339130e-01
      -2.8372394060126788e-01 -1.2523728545992122e-01
      2.6314581245655627e-01 -5.2384338942195081e-02
      -1.6292354893028457e-01 -4.7233744955625222e-04
      1.5124231234378713e-01 -7.6693602598805907e-02
      4.8892668928334437e-02 1.6321628841234273e-01
      -3.3411251457326291e-02 2.2116042972761649e-01
      9.1599637584226068e-02 1.5080784919399196e-02
      -1.4220036300390917e-01 2.1367524281916325e-01
      -1.4829157159381420e-01 1.9543509698323538e-01
      -5.8279099105033046e-02 1.3890467109924423e-01
      -6.4702400443016311e-02 -6.8242979448641869e-02
      6.3063109514691171e-02 2.2530859431114974e-02
      -1.0814700865832215e-02 4.0854785699731978e-02
      5.4579532794170257e-02 3.4920751967710745e-01
      1.0225601703842539e-01 1.0181127766800931e-01
      4.0660654279138800e-02 4.6648660759121024e-02
      5.3113503950837374e-02 -2.4315424809005495e-01
      -8.6831875075893170e-02 2.2353418597299807e-01
      6.7908565564856138e-02 -4.9346349708553422e-02
      -4.7431580370038626e-03 1.9778322115090108e-01
      2.1941431474170589e-02 -2.3000045691471238e-01
      2.1153021655867688e-01 -1.6240819191123142e-02
      1.3076733487038611e-01 -4.5056718418441388e-01
      -3.0601074287919339e-01 4.4717534227530095e-02
      2.7013782719518120e-01 -1.3915535955404740e-01
      -1.7132012923832857e-01 -3.7515083100641791e-02
      1.5837869101767803e-02 3.6990236330580142e-02
      3.2053544177199922e-01 -3.5126207153119993e-01
      -7.2504278971005240e-02 1.7732884958892227e-02
      -4.9380363697772392e-02 -3.6605156638824576e-01
      -2.5677615244920404e-01 -1.5550888874779181e-01
      2.1786365908160873e-01 -2.5202878296714595e-02
      -1.7077416293679579e-02 6.7766800196920093e-02
      -1.4939329936357854e-01 2.0189230790889306e-01
      1.2950895429372195e-01 -1.6533783897575302e-01
      -2.7331828244487438e-01 2.5824072374830304e-01
      4.6161976517099912e-02 1.7120133229835346e-01
      -2.5344958865987565e-03 -4.0845954361835414e-03
      5.4779066519505114e-02 -3.7866279661517038e-02
      1.7969234937494916e-01 -5.0238225180352793e-02
      -7.6848042607051803e-02 -8.1722011655984361e-02
      -5.1847051105075058e-02 -9.5786452000675051e-02
      -5.8788605562039117e-02 2.2541958600421544e-01
      5.1187467957709419e-02 -1.9231534875464508e-02
      -2.2127805346611620e-01 2.7531917036871900e-03
      1.5245257191654843e-01 1.8936525267356413e-01
      1.4464819610804264e-01 -7.4597391237831726e-02
      1.5898902881998722e-01 8.2933666868775971e-02
      1.5846589408683412e-01 -1.4087559899951340e-02
      2.0686969087163348e-01 -5.3524464067536227e-02
      1.6039399806895135e-01 -1.4979279828191283e-01
      -7.9210680702424666e-02 -4.6972144419781842e-02
      -2.0484348488791315e-01 7.3370149456447181e-02
      -1.9727226523320224e-01 9.7852020542697954e-02
      -1.4193998613989747e-01 1.1391602567815293e-01
      -3.4749513910949048e-02 2.3344842669249812e-03
      1.0722460846110515e-02 5.4076494864197027e-03
      7.6790589075878157e-02 -2.4242018256571855e-02
      -3.6501124850112993e-01 -8.0257865302370807e-02
      1.4101394375910270e-01 -1.7781051353925453e-01
      8.6261393273223685e-02 8.5624576739550623e-02
      -1.0614752463954510e-01 7.0986740219246336e-02
      4.5796102525874016e-02 -1.0889606642562917e-01
      -2.3880870722056755e-01 -1.0707173222744089e-02
      1.4135206056937874e-01 6.4376661840982619e-02
      -1.1601745317044057e-01 -1.8821739483959734e-02
      -3.8235956211177369e-02 -1.7846064283594636e-02
      -9.2819867827475561e-02 -2.1188327247769079e-02
      3.3043390422897730e-02 -5.1236268867042079e-02
      1.4670429805242857e-01 -1.2013532467085374e-01
      -2.1769098027565895e-01 3.5421721205301931e-02
      3.0997069404274524e-01 -2.0934253086285540e-01
      1.8586319888130401e-01 -2.4415444183077752e-02
      -1.0151946291701880e-01 -9.1596058959042465e-02
      7.7752022976410165e-02 -1.2511594734802689e-01
      -1.0965176237026433e-01 -1.3062106809969828e-01
      -1.7733627412884936e-01 2.2205873955571906e-01
      1.3509504953262019e-01 7.4952228500844370e-03
      -6.9289960901996545e-02 9.7760771743885672e-02
      7.0407573722009675e-02 -1.6729131661997138e-01
      -4.9522213557629167e-02 -1.6435371314030953e-01
      -1.7237290020548832e-01 -2.4216760787436875e-01
      -2.7153561035378845e-02 -1.6459015963039317e-01
      2.3434581156974534e-02 -1.3828731129275421e-01
      1.0417522971700179e-01 -1.9163758351601907e-02
      -1.4946380238022899e-01 -8.5449516532501171e-02
      -8.7338897099503709e-02 -2.8370706901718584e-01
      -1.5010884123887716e-01 1.6961540961535587e-01
      5.3061441695214893e-02 -9.7800504983531628e-02
      -2.1559465316840352e-02 -1.5820056036612764e-02
      -1.1553611788857816e-01 1.1682140288475243e-01
      5.7613876340867551e-02 -1.0680388476463504e-01
      -2.1743297616196078e-01 -6.9752417053593252e-02
      6.2776507640716531e-02 3.1824094166963868e-01
      6.4986628071189406e-02 -1.1283933601234108e-01
      2.0893144549922069e-02 -1.1613206660071099e-01
      5.3145800394060571e-04 -2.1660849656243018e-02
      -1.4034917275653566e-01 4.9475946931879879e-02
      1.0015947431499823e-01 -5.6294615971104606e-03
      -8.6897999557493819e-02 2.2162449032368279e-02
      9.5259449651891509e-02 8.3462592028329761e-03
      -1.5256891610892237e-01 -1.1187708349410244e-01
      -2.3020915864613665e-02 3.2340776172352009e-02
      1.9026269918462613e-01 2.1296353862348763e-01
      -1.3248989534011568e-01 6.5496218588510249e-02
      -4.9185399616966136e-02 -3.7066781951948687e-02
      5.2529167349163457e-02 -8.2009041283205047e-02
      -1.7893415792055268e-02 -9.6493477559962071e-02
      2.8825970092459692e-02 7.6782323889906579e-02
      1.1771952110084287e-01 3.4070958606856744e-02
      8.9117604459600389e-02 -4.0119173082089628e-02
      7.0212529083239661e-02 9.0378494558630160e-02
      -1.0374518739608116e-01 2.2868003953472196e-01
      -5.2028304678668313e-02 2.0209091728558745e-01
      -3.5876257052150862e-02 8.8802205453121660e-02
      2.4632833411733365e-01 8.4302207932025128e-02
      9.6187524259811197e-03 7.1318820783181539e-02
      -2.9813149361713892e-02 1.5453492096118182e-01
      -5.1702608580141141e-03 -1.2799396913455768e-01
      9.1976599560961450e-02 5.1212524184507946e-02
      1.4402059153973646e-03 1.8109929575698627e-01
      1.2142607884168612e-01 -1.3368768022973906e-01
      -3.1691878359465769e-01 6.3486766115766438e-02
      1.1757463961730165e-02 6.7824413582921572e-02
      2.2237796024407561e-01 -1.3531034624334604e-01
      2.9425872188106949e-02 -8.5679322412470726e-02
      -3.3850369085706170e-02 1.6235734375126543e-02
      -4.8394589723804365e-02 7.3765086928362422e-02
      -7.9040881915743960e-02 7.1791334232453249e-02
      1.5234192830880014e-03 6.2433710277437160e-02
      -1.3916582393896859e-01 -1.1051404820201041e-01
      -7.1477706847365612e-03 2.5457596885474748e-02
      4.6517661456121212e-03 7.3998733139072889e-02
      -9.2163569049202740e-02 4.7350246098682748e-02
      -5.1478556494391495e-02 -1.3180356294966283e-01
      2.4628295753142071e-02 1.0199086887872245e-01
      -1.4701607613156251e-01 8.7309816093635764e-02
      1.9959612230585791e-01 1.6282475175163658e-01
      5.9945090780680006e-02 9.4238943055453703e-02
      9.4297980780228899e-02 -6.3100277606541180e-03
      1.4474289190931812e-02 -8.9548192627406792e-02
      -3.8719015099877807e-01 1.0520480429968546e-01
      1.6025640872654051e-01 7.2624943452216484e-02
      -2.7435564710685140e-01 8.7573285514506854e-02
      6.3433152083360103e-02 -1.1566078281785212e-01
      3.7023736602331436e-02 -1.2966342308214890e-01
      7.8157273907578498e-02 -2.0393540411611788e-01
      1.1153343530418609e-01 1.8639892701262994e-01
      -5.6612456438678307e-02 1.4668027895088800e-01
      -5.6980931611783900e-02 9.2412909264139226e-02
      1.3405016521913099e-01 -6.4159268073608472e-02
      7.2249282068974185e-02 8.6321172808982369e-03
      7.1129251215956597e-03 -9.4139466619719822e-02
      1.8295547031898271e-01 9.2327329798225125e-02
      5.5889443152446913e-02 9.2076591179502981e-02
      -1.0886365402877567e-02 2.6263929002801698e-02
      -9.3348157251516378e-02 8.7648318831426875e-02
      1.0302538814538791e-01 -5.5675362418484819e-03
      2.3435817305877774e-01 2.2742744402282737e-02
      -3.9061788455580039e-02 2.6795680313439488e-02
      2.2327037910332032e-01 1.6669732695847726e-02
      -6.8990023430319139e-02 -9.6334767424785847e-02
      5.2093105618491203e-02 -3.0118884978913030e-01
      -3.4834111645456592e-02 9.5487738458858842e-02
      -4.3619483499409382e-03 1.7401018003361721e-01
      1.2877741692282094e-01 -1.9166065620076214e-03
      -1.3332709872178966e-01 9.7259042634349632e-02
      4.4141649748957103e-02 9.0699726067150876e-02
      -2.1413389018593346e-03 1.2884600537873738e-02
      -4.0741593491379041e-02 7.6762695952754145e-02
      -7.6639574924171019e-02 -9.9948068256455316e-02
      1.3491580561661162e-01 -8.7067142803022052e-02
      2.8733509798329185e-02 -2.1894213646386361e-03
      5.2063936006498480e-02 8.7517968105093741e-03
      1.6738911969947440e-01 -3.5695636180178854e-02
      -4.3617066757181749e-03 2.3707476943851979e-01
      -4.1393716559061988e-02 1.4281603456607600e-01
      1.4536009757594701e-01 -1.5358618301058363e-01
      -9.4702514860833101e-02 1.0567694777102654e-02
      -6.6158724011214379e-02 1.6156102253127463e-01
      1.3846390848311508e-02 2.4222883501380726e-02
      1.3170663013729871e-02 -1.0270105470418542e-01
      2.9271737965991983e-02 6.0566255751990178e-02
      2.8250323887663339e-02 1.1038883357313063e-01
      4.7290754173165202e-02 3.6374754097425577e-02
      1.3778273745824218e-01 8.4362985230144918e-02
      8.0480637847463510e-02 9.1509636574054851e-02
      -7.2126963821907156e-02 2.8616270981695130e-01
      -8.7556644355432200e-02 -9.8599085071150797e-02
      3.7024275592167248e-02 -1.8236800291045029e-03
      -1.5695017311096862e-01 9.0368696285642966e-02
      -8.9580076628931457e-02 -4.3449557946551941e-02
      -1.8963493417769658e-01 -8.6126433121573101e-02
      -1.1423233032291699e-01 -9.5277282501878335e-02
      4.9082844654600971e-02 -1.0315703432313927e-01
      -1.0621394431398154e-01 4.2233369386279404e-03
      3.0043971997459268e-01 1.9509648129473273e-02
      -1.0509681421192324e-01 6.1730390903647354e-02
      1.8075610235891112e-01 -8.8003846637126154e-02
      4.9023344729900060e-02 -6.8699574710037433e-03
      -1.9070102337590653e-01 -4.7928971860151083e-02
      1.2424844733704953e-01 -8.5152714680798339e-02
      -1.2876872738789449e-01 1.8017377543543092e-01
      1.7499148859777582e-02 -5.4251762554141172e-02
      -4.2194755870246854e-02 -1.9927012617282712e-02
      -1.6920877149993266e-01 -1.2504355990671731e-01
      -4.2986632080295184e-02 -2.3878598219371847e-01
      6.3346025900120992e-02 -2.8924995682434597e-02
      -1.2114103816857655e-01 -1.8871038551281222e-02
      2.3785966215733360e-02 1.9998716268814884e-01
      1.0373714420478648e-01 7.8515369938055996e-02
      -1.8784770562198227e-01 -3.0672275798022289e-02
      4.4763913922500079e-02 8.0278467331116127e-02
      -2.8636835509775777e-01 -1.9975574144524338e-01
      4.2328350612000756e-02 -2.0709931217369720e-01
      1.8229658705658461e-01 -2.1809548094884371e-01
      5.9893252018540739e-02 2.9237063776733598e-02
      -2.0226019179938184e-01 9.1723456842694881e-02
      -1.4397754883083988e-01 -2.4027764346752020e-02
      1.4824489181980968e-01 1.3178548613294533e-01
      7.8049592635291959e-02 -3.8257781047930893e-02
      -1.6649791198119165e-01 1.6545790777249389e-01
      6.4724699349135967e-02 1.4430839569897162e-03
      2.2608080466748174e-02 -2.0260665803852007e-01
      8.8706592693792649e-02 1.0250428674645271e-02
      7.3642945637071772e-02 -1.6151708606449072e-01
      -3.9083811436693303e-02 1.2327656621875017e-01
      -5.7609278609488397e-02 -8.6109619060969547e-02
      -1.2895055074940850e-01 -1.3862402364097469e-02
      3.1573039094563250e-02 -7.6388571198455074e-02
      -1.0368504849781243e-01 1.4040587296604612e-01
      -5.3106668468408960e-02 -1.0413787610458396e-01
      -1.8236916108860600e-03 4.2266194181853643e-02
      -1.8634608525509324e-02 -6.7087962432716891e-02
      -1.0388166502855273e-01 -5.9018635305931065e-02
      2.7896276014073645e-01 -2.2666363062079597e-02
      -2.0619356064739511e-01 1.2227165731882439e-01
      9.1963653920747290e-02 -1.5493689621140674e-01
      -6.9199266276567736e-02 2.7692750137645289e-01
      3.9485962345411026e-02 -1.5618631014441364e-01
      -1.2540009931430066e-01 1.7656593197316553e-01
      5.0748548629524506e-02 -6.3261066002681832e-02
      -1.1969897118259086e-01 -4.1111271603961053e-02
      -2.5257562224683332e-02 1.9221379033575917e-01
      9.2040543931864768e-02 6.6122948543180390e-02
      -1.4569836935110735e-02 -5.8830903037080023e-02
      1.0203442256962307e-02 -2.6142194954140230e-01
      7.5339231840765103e-02 -5.3723614360745818e-02
      -1.0599869628007884e-01 1.8202787437211185e-01
      -9.6635651907488865e-02 8.4679664235566082e-02
      6.3777170139592013e-02 -3.0018359437762727e-02
      -1.8355108227359793e-01 -2.0887686235493363e-01
      1.1897994852622719e-01 3.4450808420832417e-02
      -4.5959062623576082e-02 3.4357319844663919e-02
      1.0632995284087859e-03 -1.6150542930766526e-01
      9.3578844251636803e-02 -1.9865057540642581e-01
      1.3690649815533781e-01 -1.5371455906144063e-01
      -2.3428867654931601e-02 -1.9906947455943741e-01
      -1.0555367830967294e-01 -1.5790538599277143e-01
      7.0468885642162485e-02 -1.3467473959416712e-01
      7.9565562454136651e-02 -2.3080748066642086e-02
      -1.1926263343290965e-01 7.3763227511783519e-02
      -1.6630726002809651e-01 1.2404275586181342e-01
      -4.7276251772737740e-02 7.2860490843939960e-02
      -3.3297598776884853e-02 1.3169205240954215e-01
      -1.0858473075102945e-01 9.8358413146439165e-03
      1.2619612056784851e-03 -7.0217196796096504e-02
      2.7060960527818978e-01 1.5232404375344574e-01
      6.4632546860314430e-02 -7.2310677208447124e-02
      7.6024560779006309e-02 1.7015807465027796e-01
      -1.7220320678735140e-01 1.4411496371208582e-02
      -5.6425938380010879e-02 -2.9507363490568161e-01
      1.0459512123527230e-01 -1.9646050908478432e-01
      1.3936505847522995e-01 2.8784719347062748e-01
      -2.6909374212709780e-01 1.0854586024228902e-01
      -8.6587078269222434e-02 2.5852570879336711e-01
      -1.5105250634548933e-01 -3.5488055301978329e-02
      3.2319479878763446e-01 -6.2589827181357138e-02
      -2.2604120834728370e-01 6.2556208597335551e-03
      1.8034388117409939e-01 -1.4941530660584418e-01
      1.8209197121231032e-02 1.4570851935014709e-01
      -6.3481776922595989e-02 4.5371681456715461e-02
      5.8124524278544039e-02 1.3102147839570655e-01
      6.6202799953297021e-03 4.6049838827880676e-02
      1.3545338418464115e-01 2.8976039439579129e-02
      1.4582132745159723e-01 -7.7524662921637871e-02
      3.7145962107963254e-02 -1.4722503355066496e-01
      1.9933977253530449e-01 1.3388933047873458e-01
      -7.3223800913486542e-02 -2.4783784981679997e-02
      -1.0841075600921010e-01 -1.4673257112474350e-01
      8.4859906200475704e-02 -2.0183100134825641e-01
      1.1672022184334664e-01 -5.7573346875091323e-04
      -4.6533922388927385e-01 9.6918685799304682e-02
      1.5850383063413542e-01 5.5973980749627027e-03
      3.6345071009440899e-02 -1.9208714496449605e-02
      3.3211928747670108e-02 -3.3207938203699362e-02
      -2.7171643262551039e-03 2.2076882870142862e-03
      3.8151953367681235e-02 7.0559348533555138e-02
      6.6271474176242740e-02 -6.3669013400421165e-02
      1.6976641091643874e-02 -1.2062296379254975e-01
      -1.5807828587092337e-01 -5.1814438550425362e-02
      2.2090754980171004e-01 4.5745947100859661e-03
      -7.4383650950941960e-02 -3.8393496133212558e-02
      -9.5151858065388992e-02 7.4183262968699967e-03
      2.5375060606576134e-02 6.4969511151440715e-02
      -1.5485171430925615e-01 1.8459013398866020e-01
      1.0238449215077360e-01 2.8888005296710401e-02
      -1.0767308660382088e-01 -3.1211751092041145e-02
      5.1164217962614653e-02 1.5693613575421569e-01
      3.6097201411342722e-01 1.2948937423559689e-01
      -1.0837686512184523e-01 -1.9364763168379717e-02
      -1.0555772666236592e-01 9.4950353728449274e-02
      -1.1341714553020671e-01 -9.4726022746484659e-02
      -5.6046302048499884e-02 -3.6683705953254118e-02
      1.5540523447438567e-01 4.2815127574679687e-02
      1.9218673285246846e-01 1.8632826320440065e-03
      3.9603024430986726e-02 -2.6430272008720088e-02
      7.6477168654065106e-02 6.8675123670166160e-03
      5.3574098173257839e-02 -2.4254043993053101e-02
      -7.1338789064229413e-02 -8.0894787354877762e-02
      -2.8655157947065878e-02 -2.4085390950942538e-02
      -6.2172131254483759e-02 -2.1455417700023183e-01
      1.8715742724511572e-01 8.4224606031910898e-02
      1.1305325838702779e-01 -2.5770164806700213e-01
      -5.4327239686272108e-02 -8.1738541695624070e-02
      1.5888194525958688e-01 -2.3324033507300040e-02
      -7.5933949923937927e-02 -1.1285285555738053e-01
      1.2878946146389533e-01 1.5055659121363243e-01
      -7.3450455305667578e-03 3.1652024176580107e-01
      1.3968230875958668e-01 -5.8339773290257149e-02
      -1.9276833577016697e-01 1.5119016294711640e-01
      1.7098694998683356e-01 -2.1061490344865538e-02
      -7.8826263841525496e-02 5.6374009745840080e-02
      1.4280873767122307e-01 -5.5447162037416675e-02
      -2.2442719550822471e-01 -3.2008556972354427e-02
      6.0923212475390322e-02 -1.1630348336245841e-01
      -1.6748946745914950e-01 -9.6946221282457209e-02
      1.7049565918050155e-01 -2.1193143193425434e-01
      -2.1738911370071415e-01 -1.7620881223860235e-01
      -2.3558093058574567e-01 2.0728061813552420e-01
      -1.4319948826664974e-01 -3.9257594217525844e-02
      -8.3233003375384626e-02 -1.6494903007956228e-02
      3.4452207053099072e-02 1.0372247522300930e-01
      -8.7985913133115295e-02 1.8411460017949896e-01
      1.1838610351715717e-01 -9.5710383161272228e-02
      8.4766658613590826e-02 1.4040645994907583e-01
      -5.6474015233437119e-02 -1.3384585865617160e-01
      1.5170077556446199e-01 -8.5250894618549233e-02
      4.3743056610915473e-02 1.1771855461927064e-01
      -3.3501188146033437e-02 -1.0042136212444283e-01
      1.4500163469768077e-02 2.7365905542337653e-02
      -1.4969073392331805e-01 -1.3300196821283011e-01
      2.4996151055093847e-02 1.0458783729489526e-01
      -5.9868367783101079e-03 -1.2187252727177179e-01
      4.7226007740758892e-02 -1.4700571636540682e-01
      -9.7754858343736054e-02 4.8428518341302410e-03
      7.8622503856799503e-02 -5.8178389051493348e-02
      -2.7574493558420871e-01 -4.9876280795469526e-02
      -7.1832599262197719e-02 -1.1647771141331198e-01
      -1.3374993685058961e-01 -4.6015637783156005e-01
      -1.1338086370530881e-02 -7.9407248294320151e-02
      1.3212506358072670e-01 -1.0343668950437050e-01
      2.0326547265436845e-01 9.6243051104488567e-02
      7.4826007229222471e-03 -3.8484957079858934e-01
      -2.2914292441911838e-01 2.5535554130283088e-02
      -1.0922052210863203e-02 -1.9787316282593839e-01
      -1.1234659467771961e-01 1.2769311151130766e-01
      -1.3095768974101096e-01 -1.8067816716457696e-02
      1.6121352371515996e-01 1.9126661682160279e-02
      -1.6168555927048031e-01 -7.3613545210924142e-02
      3.3922772816412272e-01 -1.0283143344954528e-01
      -3.6290663837542890e-02 -5.7891783049847212e-02
      1.5032537065787613e-01 1.9960803442944021e-02
      1.1883057494204640e-02 -6.0161302317634967e-02
      7.0896502698742245e-02 1.4381969128499700e-01
      1.0796207506152176e-01 4.4471754478908609e-02
      6.3111865360188146e-02 5.3062962121644838e-02
      -3.6310616599154848e-02 -3.8147614157438953e-01
      1.8245885238717455e-01 -7.3180012209154308e-02
      5.9112074414817131e-03 -3.1703013119674470e-03
      5.0812513233899834e-02 -1.1108824303278271e-01
      -7.9857171531820037e-02 -6.9849950867527264e-03
      -2.9478939176301493e-02 2.7441901673794156e-01
      -6.5303663031229461e-02 1.2868926159023833e-01
      1.5204223910846015e-01 -1.0124017702627085e-01
      -4.9533618561945221e-02 -2.8390035988540140e-02
      -7.2052235389894817e-02 2.6771757477817036e-02
      1.1356053691201874e-01 -6.9447861053675064e-02
      -1.1125541490856576e-01 1.3148941606450318e-01
      1.0914087032891748e-01 -5.5236131759349952e-02
      1.1080980729772461e-01 2.9015949868959879e-02
      -1.9322229693265630e-01 1.6799995053661592e-03
      3.8202758862088147e-02 6.1249474573886686e-02
      4.0479507192354623e-02 -2.2662549104213689e-01
      -2.3535064480180473e-02 -1.1599399567032614e-01
      -5.5206232096132471e-02 -4.0556193561963848e-02
      1.8641932640079467e-01 2.1418728910973286e-01
      1.6184818933767903e-01 1.2500537871071882e-01
      2.2562859097217045e-01 7.5430631163529186e-03
      2.6644518991979591e-02 4.3737001592473346e-01
      1.8406290958643434e-01 -5.1001613334846770e-02
      -1.7399706533861428e-02 -1.6726340423650490e-01
      2.5234719447655315e-02 -3.5893434756273913e-03
      8.1578326290532077e-02 -1.3437581532179460e-01
      1.5619427479417686e-02 5.1181247993415717e-02
      -1.7196556837267674e-01 -9.5765198189430606e-02
      1.1073466037795686e-01 -4.0849800816164836e-02
      2.2717156832848927e-02 -1.0739134371950633e-01
      3.9130525100819378e-03 2.5303046946504943e-02
      7.5414729933189539e-02 -5.8850335415881039e-01
      1.0621913456896575e+00 -1.7112404314018874e+00</_>
    <_>
      -2.1957970386144079e+00 -3.0097002494052009e-02
      1.2792702647981486e+00 1.5549934719942299e-01
      2.5309997474469163e-02 -1.3158575607733744e-01
      -1.6175095017259497e-01 -2.4709595439216496e+00
      -1.8659424458553667e-01 7.4037350832059678e-01
      1.5381337208225903e+00 -1.3482775153824416e+00
      -2.5986063687589250e-01 2.1636353021326076e+00
      -1.2959128500050660e-01 1.0787652746223007e+00
      -2.9388392198914220e-01 3.7364129213424885e-01
      1.2342706467226670e+00 -1.7727241403826868e-01</_>
    <_>
      -1.9256228499844041e+00 -3.5271258882066836e-01
      1.9741530129175161e-01 2.7900856677667984e-01
      4.8986570612383917e-01 1.0521453187211751e+00
      1.5232423390429004e+00 -1.3198778003181968e+00
      1.1972383894485887e+00 -1.7385096461162480e-01
      -2.8898379749809677e-01 -1.7849535393745100e+00
      8.7860534501541909e-01 -1.5699078790581054e+00
      1.4898258104889710e+00 2.1259062036247269e+00
      -4.1420690474701266e-01 1.8668280713124612e+00
      -1.4013894327874077e+00 -1.2768750116950056e+00</_>
    <_>
      -9.9541397778471347e-03 -1.9237005000380467e+00
      -6.6775421120213274e-01 3.0335547602202245e-01
      -8.4806824449223783e-01 -1.9097057926013855e-01
      1.5216000164105608e+00 -8.0472716229501284e-01
      5.8468276950828968e-01 1.0425735879630962e+00
      1.3476164660236425e+00 3.1603428891402502e-01
      -8.1375409894552642e-01 1.4193768564043014e+00
      -3.6038092156746482e-01 1.8356636264676580e+00
      -2.0640834715062728e+00 -8.8516280096376665e-01
      8.1439097639069946e-01 1.4720936665205071e+00</_>
    <_>
      1.9482427997595089e-01 2.3973689738070783e+00
      2.1532095783006371e+00 2.2155494730779157e-02
      -3.6434599783340965e-01 2.8557999017184987e-01
      5.4799676144121645e-01 3.7249011934017023e-01
      1.0146181692033256e+00 4.6467720912423743e-01
      6.4888491626278411e-01 2.8096188276467476e-01
      8.3162929914759276e-01 4.7192638545512845e-02
      4.9147702827257450e-01 4.5882027904660944e-01
      5.9348308536848782e-01 4.2031144926824682e-01
      6.3395215180266462e-01 4.1656962168207379e-01
      3.4718768969100194e-01 3.6605378966823027e-01
      7.2347720130556581e-01 6.3447362406508456e-01
      8.2313817201875505e-01 2.9054228683829114e-01
      2.1595364155685566e+00 -1.3560915426007609e+00
      -2.8217542226444698e+00 -4.0276766770660133e-01
      8.1275537157998679e-01 1.3854268284045951e-01
      2.4011473430285143e-01 1.8707669881534938e-01
      4.9152235496502933e-01 2.0277164650403939e-01
      2.9790462543666946e-01 1.7200527737039786e-01
      3.9597921380012741e-01 2.5025927259170414e-02
      2.5239395612773186e-01 2.0283818154431651e-01
      2.5772255340283023e-01 1.9671358740891257e-01
      2.9469303413053527e-01 1.8823665377372709e-01
      1.5869696248081924e-01 1.8276550007151304e-01
      3.5792496960228865e-01 2.7884788778611547e-01
      3.7661346597545331e-01 1.2939552563445805e-01
      2.6100070276789156e+00 1.3780648276889040e+00
      -3.1315374748081823e+00 -8.5952625027638030e-01
      4.6174257022147380e-01 -1.5321183443987058e-01
      -2.7257549738064585e-01 -2.0945041681660392e-01
      -5.5122977719171262e-01 -2.3041608431374269e-01
      -3.3807559129069020e-01 -1.8930883057038986e-01
      -4.4518599622564031e-01 -2.7954715372024787e-02
      -2.8351785913697636e-01 -2.3115023511469734e-01
      -2.9320176345291821e-01 -2.2049764413577644e-01
      -3.2980995854636397e-01 -2.1439419902923959e-01
      -1.7943928133488307e-01 -2.0479192493226889e-01
      -4.0105719569249448e-01 -3.1680843325618668e-01
      -4.2546172790905129e-01 -1.4611657139998641e-01
      -3.5184416109955898e+00 1.0088258997581108e+00
      -2.7918666482395227e+00 7.3244816810308522e-01
      3.7848732147575581e-01 -1.1717378725361577e-01
      -2.0033808160837474e-01 -1.6199307624776946e-01
      -4.2133964868021240e-01 -1.7054328914478198e-01
      -2.5861864125263673e-01 -1.5553094128716191e-01
      -3.3865465437808073e-01 -2.2463593204012703e-02
      -2.2134434936276201e-01 -1.7302722682188984e-01
      -2.1535661714612009e-01 -1.6827805379892236e-01
      -2.4872488362426054e-01 -1.6306632670946339e-01
      -1.3530265529753865e-01 -1.6030721410395282e-01
      -3.1189901889686550e-01 -2.3408101432521081e-01
      -3.2054745424220099e-01 -1.0793839472113539e-01
      -3.4117607047625365e+00 -3.2776143460345236e-01
      -2.6419847623747854e+00 -9.9608668351405827e-01
      -1.1611833321878440e+00 -1.3629494101698896e+00
      -9.4529480392166176e-01 -1.1952610167587319e+00
      -5.4885831758163625e-02 -1.0838530280285072e+00
      -7.3179013273996363e-01 -1.3017211751838169e+00
      -4.0714477985895320e-01 -1.7821733039753431e+00
      -9.6589468934145561e-01 -1.0841782238189090e+00
      -8.7066341366147693e-01 -1.1311885017300745e+00
      -7.6879834110732204e-01 -1.1465752151603532e+00
      -1.2683818686992787e+00 -1.2001503929827086e+00
      -5.5744217086552861e-01 -7.9585804403689275e-01
      -4.4622260253600565e-01 -1.3772425459132807e+00</_></weights></opencv_ml_ann_mlp>
</opencv_storage>
