<?xml version="1.0"?>
<opencv_storage>
<opencv_ml_ann_mlp>
  <format>3</format>
  <layer_sizes>
    256 8 16 32 26</layer_sizes>
  <activation_function>SIGMOID_SYM</activation_function>
  <f_param1>6.6666666666666663e-01</f_param1>
  <f_param2>1.7159000000000000e+00</f_param2>
  <min_val>-9.4999999999999996e-01</min_val>
  <max_val>9.4999999999999996e-01</max_val>
  <min_val1>-9.7999999999999998e-01</min_val1>
  <max_val1>9.7999999999999998e-01</max_val1>
  <training_params>
    <train_method>BACKPROP</train_method>
    <dw_scale>1.0000000000000000e-03</dw_scale>
    <moment_scale>0.</moment_scale>
    <term_criteria>
      <iterations>128</iterations></term_criteria></training_params>
  <input_scale>
    4.7129945029069108e-02 -8.3791784737936609e-02
    1.8434711641383847e-01 -2.1282377166574072e-02
    2.0609700714096257e-01 -1.9034674690672024e-02
    4.2915863350727425e-02 -9.2154083607615081e-02
    3.8303884142600469e-02 -1.0347667361413301e-01
    2.4733059015902580e-02 -1.6275580079506702e-01
    2.1599524797423251e-02 -1.8820375509381018e-01
    2.1723461760222055e-02 -1.8866602301643051e-01
    2.5876505870046636e-02 -1.6276144121411262e-01
    3.1433220293691687e-02 -1.3023838531501611e-01
    4.4108152726275857e-02 -8.9622142989644174e-02
    4.5680872728886497e-02 -8.6489229333666845e-02
    3.1491751903431432e-02 -1.2652019485288418e-01
    4.9414535758705469e-02 -7.9866847454988454e-02
    4.8069216548601516e-02 -8.2132027913084993e-02
    3.7984115164199896e-02 -1.0436689375748333e-01
    6.5280118035401291e-02 -6.0291307855948308e-02
    1.6829274626866653e-01 -2.3314732143341160e-02
    2.3796954774174015e-01 -1.6483765304457731e-02
    4.8395132132553462e-02 -8.1571476335338886e-02
    1.9233193572292050e-02 -2.1316034889972357e-01
    1.4949530782585194e-02 -2.8341164519020690e-01
    1.1913194697475050e-02 -3.7694301596164242e-01
    1.0875240266189292e-02 -4.2702550633045261e-01
    1.2689747318286180e-02 -3.4862794212517956e-01
    1.6270920067276960e-02 -2.5931373704830540e-01
    2.9410750937600094e-02 -1.3874769418687996e-01
    3.6359890500701306e-02 -1.0913893246090622e-01
    2.7941902024565972e-02 -1.4322628337655557e-01
    4.9067547726979570e-02 -8.0438967004433648e-02
    4.7436834501782724e-02 -8.3242109076833506e-02
    3.7827248177207069e-02 -1.0480928958914672e-01
    7.6629319320188349e-02 -5.1310559251429987e-02
    1.3742912901175128e-01 -2.8558479815462622e-02
    9.7216721479317217e-02 -4.0404269430465961e-02
    2.9265492110325295e-02 -1.3649633272390943e-01
    1.5616027325029308e-02 -2.6934253576676997e-01
    1.1344535787368642e-02 -4.0198423690238205e-01
    8.9467299550060695e-03 -5.9894241747410015e-01
    8.4110842875532062e-03 -6.9128541868505233e-01
    8.2836268745354515e-03 -7.2113607293617465e-01
    8.6188746423042535e-03 -6.4519113110348036e-01
    1.2289830142405190e-02 -3.6560686745169441e-01
    1.8147324601656578e-02 -2.2736573323131284e-01
    2.5364084093442384e-02 -1.6010561340149845e-01
    3.1271944705161599e-02 -1.2828463010388866e-01
    4.2915863350727425e-02 -9.2154083607615081e-02
    3.7984115164199896e-02 -1.0436689375748333e-01
    6.8798783119006779e-02 -5.7186963874726750e-02
    1.2432059095342653e-01 -3.1575448897533630e-02
    3.5303188179199564e-02 -1.1248815574303084e-01
    1.7823505708320326e-02 -2.3269003078930109e-01
    1.0920775245460212e-02 -4.2666966552083974e-01
    8.1320414012701521e-03 -7.7837714862056151e-01
    7.8983896018501969e-03 -1.0559547581258795e+00
    7.9957799474228829e-03 -1.2040331277310654e+00
    8.0837933181392204e-03 -1.2605762190498215e+00
    7.9374914196775163e-03 -1.0979633470260639e+00
    8.0898699742919973e-03 -7.9605888124156132e-01
    9.0380946385152424e-03 -5.8837717850430615e-01
    1.0275875695736097e-02 -4.7255164514414799e-01
    1.3252497390217157e-02 -3.3086844489356909e-01
    3.0069502165215572e-02 -1.3304475038964678e-01
    3.7620237940255617e-02 -1.0631021422287555e-01
    5.2070889556082647e-02 -7.5744190575739570e-02
    6.4482034659056886e-02 -6.1043070659221280e-02
    2.1306334310791999e-02 -1.9172421201305670e-01
    1.1360376205341848e-02 -4.0690596315210936e-01
    7.9163819933984296e-03 -8.9252261028831104e-01
    8.2133759461870959e-03 -1.3409094801823118e+00
    9.1493640786296619e-03 -1.7641977127439179e+00
    9.2870926880403784e-03 -1.8137883748929102e+00
    8.8191765626430500e-03 -1.6284996020698037e+00
    8.3065103171791853e-03 -1.3969874610559256e+00
    7.8895013114564806e-03 -1.0606235800540398e+00
    8.1616344737818706e-03 -7.7122124900001154e-01
    8.9174733236521472e-03 -5.9878766297361785e-01
    1.3091545150900243e-02 -3.3651103200267668e-01
    2.8193274329980655e-02 -1.4286055940369227e-01
    3.7881054139517686e-02 -1.0479373108208480e-01
    3.7368224055047222e-02 -1.0612589165941290e-01
    3.9670125542955528e-02 -9.9839835156324608e-02
    1.5139669377580487e-02 -2.8172342029939929e-01
    8.5236590660954983e-03 -6.6526294605030190e-01
    7.9078074100571976e-03 -1.1273623431091937e+00
    9.0406217396867741e-03 -1.7180799518741470e+00
    1.0241459455574942e-02 -2.1383757462302473e+00
    1.0752972362754531e-02 -2.3053373782539976e+00
    8.7863864838008694e-03 -1.6251195105634533e+00
    8.5688700781005878e-03 -1.5314946588365022e+00
    7.8806998974159242e-03 -1.0497735906178318e+00
    8.0685621968219455e-03 -8.0654937468738608e-01
    8.7867247514685169e-03 -6.3336898346833626e-01
    1.3720206200400679e-02 -3.1869415219078112e-01
    3.0122844785090124e-02 -1.3344442060037434e-01
    3.7984115164199896e-02 -1.0436689375748333e-01
    7.9409536429154534e-02 -4.9505130234944676e-02
    3.2921031831695452e-02 -1.2086048855632851e-01
    1.1607535334078186e-02 -3.9718391980111195e-01
    8.1497110671504679e-03 -7.5883152242895424e-01
    8.1584129320145474e-03 -1.3230886227080869e+00
    1.0782189828245168e-02 -2.3072441317473111e+00
    1.1072285340394668e-02 -2.4078831958671469e+00
    9.3711197207412070e-03 -1.8485203984600220e+00
    8.3899144945419214e-03 -1.4438644772379816e+00
    7.9797745735025859e-03 -1.1739914583801814e+00
    7.9861041506486350e-03 -8.5332650912201047e-01
    8.3759819193905700e-03 -7.0086278988844797e-01
    9.1006914229935492e-03 -5.7969278342749309e-01
    1.5339944542860043e-02 -2.8090405328815521e-01
    3.0237118473239552e-02 -1.3195200333373600e-01
    3.7984115164199896e-02 -1.0436689375748333e-01
    6.7865784272153798e-02 -5.7978420373756889e-02
    2.6010024151997595e-02 -1.5527353244668610e-01
    9.9259275541694180e-03 -4.9668554165549694e-01
    7.9310872345815294e-03 -8.6211578924458976e-01
    8.8320443487822555e-03 -1.6305702043236545e+00
    1.4122690579056310e-02 -3.2960395627097885e+00
    1.2804780662527953e-02 -2.9221566875000362e+00
    9.9952997498650494e-03 -2.0607585713554619e+00
    8.0390619237191065e-03 -1.2435112730803484e+00
    7.9198844529310905e-03 -1.1489461856691725e+00
    7.9032620132507246e-03 -9.1492852643238887e-01
    8.2271437273340343e-03 -7.3495271006433227e-01
    9.6651301574483331e-03 -5.1582775146168791e-01
    2.0085600605507611e-02 -2.0613384134638207e-01
    3.7756976535776844e-02 -1.0716157456663575e-01
    3.1946863961415280e-02 -1.2466045838619988e-01
    7.4122925361518058e-02 -5.3055208709054717e-02
    1.7848308530855193e-02 -2.3168216356087820e-01
    9.3195898216501486e-03 -5.4839676554023153e-01
    7.8757756049612632e-03 -1.0503549101493097e+00
    9.9782999506139638e-03 -2.0511532156721146e+00
    1.3064642941848928e-02 -2.9970059047861075e+00
    1.2599285217145848e-02 -2.8602716136754389e+00
    1.0392909672603453e-02 -2.1887614573645657e+00
    8.6784489593786877e-03 -1.5754048745913056e+00
    8.1453330079641704e-03 -1.3094706986282276e+00
    7.8783265790506683e-03 -1.0423252911951848e+00
    8.1315232868475786e-03 -7.7386788238181037e-01
    9.8828217548066893e-03 -4.9971963815861270e-01
    1.6605447823356472e-02 -2.5392171522642321e-01
    3.0638139793387587e-02 -1.3016493291431958e-01
    3.7071467484027919e-02 -1.0699502227937249e-01
    7.1848195693746980e-02 -5.4744890145135894e-02
    1.5991376495957794e-02 -2.6344214490203410e-01
    9.1840525807815425e-03 -5.6498056169711874e-01
    8.3374001505431752e-03 -1.4114914974711996e+00
    1.0559472913043778e-02 -2.2381349744167878e+00
    1.2623675601114822e-02 -2.8698047330032028e+00
    1.2062976786464284e-02 -2.7058467161872728e+00
    1.2111914694482299e-02 -2.7169336495668741e+00
    9.7808591886975865e-03 -1.9856171479808986e+00
    8.6349590186452271e-03 -1.5529423359398786e+00
    7.9855979874036264e-03 -1.1866559563438677e+00
    8.0422142547187780e-03 -8.2750845640737691e-01
    1.0312426929974892e-02 -4.7469005036732037e-01
    1.7264741514861268e-02 -2.4104355520277876e-01
    3.3551089158776949e-02 -1.1852551100413643e-01
    3.6359890500701306e-02 -1.0913893246090622e-01
    6.6108741640068219e-02 -5.9530191561977398e-02
    1.7489190297158494e-02 -2.3771774928262887e-01
    8.4358343617600435e-03 -6.9150239151276760e-01
    7.8868819598666047e-03 -1.1062701659587970e+00
    8.6858664411817634e-03 -1.5629581186433159e+00
    1.0856449540161068e-02 -2.3311286164014811e+00
    1.1510337246916016e-02 -2.5414270177281169e+00
    1.0125304185873924e-02 -2.1070149245684169e+00
    8.7616762778851380e-03 -1.6139310760758498e+00
    7.9072526011556756e-03 -1.1093072072961934e+00
    7.9639113384718241e-03 -8.5955077730994334e-01
    9.1952412850361299e-03 -5.7335126950294957e-01
    1.2619365698838534e-02 -3.5475112021820948e-01
    1.9901857987992520e-02 -2.0617813092902829e-01
    2.8255453506738436e-02 -1.4157148857256169e-01
    2.9265492110325295e-02 -1.3649633272390943e-01
    6.8798783119006779e-02 -5.7186963874726750e-02
    1.5361390003084631e-02 -2.7452712286389114e-01
    8.2943136240363948e-03 -7.1417314769396756e-01
    7.9159610462239179e-03 -9.0549520114288284e-01
    8.0013463784852270e-03 -1.2033549683120059e+00
    8.5533728457149859e-03 -1.5221557223036255e+00
    8.3026348953812914e-03 -1.4036550027213821e+00
    8.0201118050648359e-03 -1.2064458696318292e+00
    8.0368795263466280e-03 -8.1077152609622183e-01
    8.5774360574076541e-03 -6.5308663380564824e-01
    1.0007340896852570e-02 -4.9436300275800826e-01
    1.4236236009065147e-02 -3.0354480762537678e-01
    2.0533029102676875e-02 -2.0059490302201341e-01
    3.3880273110151182e-02 -1.1734158334509985e-01
    3.8968801457892617e-02 -1.0167385132281563e-01
    3.3127013132101091e-02 -1.2008692237809374e-01
    6.2253466094295162e-02 -6.3245553203367597e-02
    1.5094134474929461e-02 -2.8020639714324863e-01
    8.9069215040014343e-03 -5.9743071143848803e-01
    8.3056671839737035e-03 -7.1261330908291876e-01
    8.0477932414254570e-03 -8.1058417029984331e-01
    7.9356767735920802e-03 -8.9789121666115845e-01
    7.9252156741292362e-03 -8.9463083839293056e-01
    8.0612393146618968e-03 -8.0244221369154689e-01
    8.7885239247249662e-03 -6.1887633197702874e-01
    1.0016551242293337e-02 -4.8985688085545098e-01
    1.3834200598200183e-02 -3.1439360765471519e-01
    2.0769733734784673e-02 -1.9853676391230382e-01
    2.5439082169721339e-02 -1.5800378861210024e-01
    4.2029361403248935e-02 -9.4132221505737274e-02
    4.3214409652511464e-02 -9.1640843359454771e-02
    3.6262503440211605e-02 -1.0955255589303335e-01
    5.6745271571446390e-02 -6.9441537965238859e-02
    1.7904582203632582e-02 -2.3068118451239406e-01
    1.1889155790994652e-02 -3.7663347021345428e-01
    9.3148964066023729e-03 -5.4693809292895756e-01
    8.5778322801274461e-03 -6.5081700493364636e-01
    9.3418278551073344e-03 -5.4583714812872441e-01
    1.0369184837880397e-02 -4.6238358412125574e-01
    1.0977187384348362e-02 -4.2898100847389337e-01
    1.2318264599533784e-02 -3.6802544331213055e-01
    1.3346852646112880e-02 -3.3084943088220681e-01
    1.7740194370083371e-02 -2.3918099798129427e-01
    2.5826458056064747e-02 -1.5741885643807085e-01
    2.4499654033333165e-02 -1.6492455442848189e-01
    2.7859389693316590e-02 -1.4464482117120367e-01
    4.3082824014773674e-02 -9.4966340801851706e-02
    3.5531752934542041e-02 -1.1361538601325766e-01
    6.3712662170704218e-02 -6.1785821427765501e-02
    2.0227663649693799e-02 -2.0176380185170853e-01
    1.6427659568239800e-02 -2.5413488203855211e-01
    1.4297640284043279e-02 -2.9876294246197821e-01
    1.4534405365405406e-02 -2.9297144607205039e-01
    1.6258557649033261e-02 -2.5714990559080814e-01
    2.0046660269540880e-02 -2.0391904273820730e-01
    2.4606094774997023e-02 -1.6481449247425115e-01
    2.4218500076760702e-02 -1.6794841229435639e-01
    1.8671465092847925e-02 -2.2647858238300508e-01
    2.4970994963099510e-02 -1.6379697465699183e-01
    2.0688488979453412e-02 -1.9713634790309301e-01
    1.9169561161762064e-02 -2.1481399129106404e-01
    2.2210432028785358e-02 -1.8348744996761304e-01
    3.2878132161147065e-02 -1.2348054742666227e-01
    3.4731122140040219e-02 -1.1613101035742532e-01
    5.2486746516981292e-02 -7.5137220430412377e-02
    2.5864828550134299e-02 -1.5527328258546758e-01
    2.7461807397081459e-02 -1.4583801193759757e-01
    2.3344014716488157e-02 -1.7301922533666589e-01
    2.4860803992795256e-02 -1.6187435848622844e-01
    3.8631990391548798e-02 -1.0257905815213406e-01
    3.4219532713072043e-02 -1.1614624988677159e-01
    2.9627723596747514e-02 -1.3476536534612563e-01
    2.9047510996728705e-02 -1.3949065064392493e-01
    2.3920483300039836e-02 -1.7739581163737439e-01
    2.7900107260688090e-02 -1.4476527946998100e-01
    2.5893441867307358e-02 -1.5571468142133449e-01
    2.1823081848872466e-02 -1.8691694868982192e-01
    2.3360341782223074e-02 -1.7351885890645488e-01
    3.5103490624821786e-02 -1.1648294285837052e-01
    3.3538394708712373e-02 -1.1975915734632209e-01</input_scale>
  <output_scale>
    5.2631578947368418e-01 4.9999999999999994e-01 5.2631578947368418e-01
    4.9999999999999994e-01 5.2631578947368418e-01 4.9999999999999994e-01
    5.2631578947368418e-01 4.9999999999999994e-01 5.2631578947368418e-01
    4.9999999999999994e-01 1. 0. 1. 0. 1. 0. 1. 0. 1. 0. 1. 0. 1. 0. 1.
    0. 1. 0. 1. 0. 1. 0. 1. 0. 1. 0. 1. 0. 1. 0. 1. 0. 1. 0. 1. 0. 1. 0.
    1. 0. 1. 0.</output_scale>
  <inv_output_scale>
    1.8999999999999999e+00 -9.4999999999999996e-01
    1.8999999999999999e+00 -9.4999999999999996e-01
    1.8999999999999999e+00 -9.4999999999999996e-01
    1.8999999999999999e+00 -9.4999999999999996e-01
    1.8999999999999999e+00 -9.4999999999999996e-01 1. 0. 1. 0. 1. 0. 1.
    0. 1. 0. 1. 0. 1. 0. 1. 0. 1. 0. 1. 0. 1. 0. 1. 0. 1. 0. 1. 0. 1. 0.
    1. 0. 1. 0. 1. 0. 1. 0. 1. 0. 1. 0.</inv_output_scale>
  <weights>
    <_>
      -2.9661158478682648e-01 1.0512679831363630e-01
      -6.5710976075163477e-02 -7.9087034350868168e-02
      -2.7210758742182062e-01 2.0609405563974864e-01
      2.7943840112950930e-01 3.9622717417164610e-02
      1.2954902792074615e-02 -7.1715443810892024e-02
      2.8416699303706036e-02 1.4817636300933994e-03
      -8.9444972922982039e-03 -6.1186408636428810e-03
      1.2771358071258534e-02 -1.8180788684853722e-02
      -2.6332456670407210e-02 9.5526740769692434e-02
      -4.9161937328720297e-02 6.5868676216314953e-02
      -1.0108321493703182e-01 4.0592614837951457e-02
      8.2970252555693472e-02 3.2137926570512981e-02
      4.8994498156133121e-01 6.4932884866602958e-01
      5.0077607745522879e-01 8.1948438861032730e-02
      4.7374454094408308e-01 -5.3897638799644161e-02
      1.2118096438974257e-01 9.4083461345036909e-02
      2.9383668862540474e-01 3.9813336085457796e-01
      1.3125883724958542e-01 -3.7234145852142693e-02
      -2.9750042097468267e-02 6.4826604437016244e-03
      4.4881542575535206e-02 1.7306918523113193e-02
      5.8796937109200453e-01 -1.3345328692489225e-01
      -7.5786285268865548e-03 4.9569391499943515e-02
      -4.8533375349299634e-02 -1.1942828905879482e-02
      4.2931709916896134e-02 1.0557001367173563e-01
      5.2238171663713717e-01 -4.9662415837063240e-02
      -1.2685106385499875e-01 6.7290471677623157e-02
      2.7934770261958917e-02 5.8782461762660096e-02
      -3.3760276306156523e-02 -6.6305640420224715e-02
      5.7988887344551165e-01 -1.8701379806994178e-01
      1.7044159713470119e-01 -5.4057207272434266e-02
      4.7405594482836461e-01 -5.9185253526433092e-02
      -5.8228390626952752e-02 1.5330498961020625e-01
      4.2878147610253797e-01 -2.5022982008396727e-01
      -8.3031874979273113e-02 7.1772932638054940e-02
      6.7953536068762199e-02 7.6389826626276136e-02
      -7.6703847812498727e-02 -7.9565574881362802e-02
      1.5644959490036020e-01 -1.6713724409804614e-01
      2.4201747361449152e-01 5.6733205356167627e-03
      -2.6732923617500272e-02 -1.4926711669540094e-02
      -1.1286851921853022e-01 -1.3200320486670961e-01
      4.5721529576958431e-03 -9.2716825871032804e-02
      -4.9073310869922927e-03 -1.0694564138179732e-01
      1.4129168309317303e-01 3.8952188960907325e-02
      -1.4730792147875617e-02 -8.3663950002308307e-02
      1.8878866775713998e-01 -5.9179367527700055e-01
      -6.1317677684106106e-02 -1.3639055851098933e-02
      2.6050079147035810e-01 1.3021296681167142e-02
      1.1845888620018684e-01 1.3892775137296262e-01
      1.7640794494136255e-01 -1.8746365376122204e-01
      -1.4530361521533655e-01 -6.9064203528309692e-03
      9.2774630319612333e-02 1.1727794044132266e-01
      -3.0606311084976558e-02 4.8310216916870583e-02
      1.7041614661641963e-01 -2.6363353725367156e-01
      -3.4296326493677537e-01 6.2762103253158341e-03
      -3.6531233579781119e-01 1.9131865895838894e-02
      7.8598418922578850e-02 1.2114372062384667e-01
      2.1655062656680300e-02 1.1244918818854212e-01
      -2.2182317731276857e-01 -3.0766951023295616e-02
      -1.5724180254094494e-01 4.6528080642830025e-02
      8.1593537864707230e-02 4.0466930225375480e-02
      4.4509131828127560e-02 4.5000872215704008e-02
      3.4502937347812755e-02 2.5389063832957918e-02
      -8.7561759424279271e-03 -1.0527753347887499e-02
      3.7717598932570699e-02 -5.3078304398031871e-02
      -1.1499627319797327e-01 -5.1656062843903981e-03
      5.2539708404534724e-01 -9.9607908472393713e-03
      -6.9846103484647953e-02 5.6139036504949870e-02
      6.7737444020729232e-02 8.8108779011405500e-02
      -3.6916427658884830e-03 -1.1656880728097571e-01
      -1.4003031350940270e-01 -1.8304124654406911e-01
      1.3578559084737129e-02 -8.1956827321986669e-02
      -4.6145548273188355e-02 -7.2902996450996585e-02
      2.1230503453926557e-02 8.1166350573122006e-03
      2.4286457682492512e-03 3.5172699269207131e-02
      -3.2133706031241625e-02 1.2374476227698635e-02
      1.7163143458773074e-02 1.6822867158302023e-02
      5.6563008598995312e-01 -2.5990204528111555e-01
      7.8100719032601185e-02 4.5719564896339278e-02
      -8.7819420311686311e-02 -3.5423821719107726e-02
      -2.3475146846004533e-03 1.9368941095824765e-02
      4.8341082109103661e-01 2.5916677419993600e-01
      4.7305696580551343e-01 2.1059851137851060e-01
      4.5142187443451859e-01 -1.0536093622534043e-01
      -2.7113954983283994e-01 1.3123239704425610e-01
      6.4530557827444868e-01 6.9141678507225157e-01
      2.0299157175895025e-01 3.9464012108259436e-02
      1.4746729678917389e-01 -2.4669827751893438e-02
      1.5399771352666566e-01 1.0499711767154735e-01
      4.2546123187815466e-01 -5.4272493585643844e-01
      1.2467887168507366e-01 -9.8012271508816348e-02
      -1.8448778564645756e-02 -2.0691769683958940e-02
      -1.6655433048413271e-01 -2.6943321396642371e-02
      1.0955395130417346e-01 -5.8837230418961650e-01
      -9.8794140505847131e-02 -1.4567327931589061e-02
      -8.9290276921696957e-03 6.0025891557148811e-02
      -8.0693265268594522e-02 -3.4479216864191295e-02
      3.9378881965950213e-02 -1.6007822745412556e-01
      1.0170831630072977e-01 -3.8312982041303588e-02
      -1.5578918968938674e-01 2.2201001177879998e-01
      5.5925540567533114e-02 -2.9879057963512148e-04
      1.3382521640620038e-01 2.0549697492041416e-01
      1.7536112013237734e-01 4.9030408353485794e-02
      -1.5883586773519756e-01 4.6604735890623084e-02
      -1.0233119231584122e-01 -8.0905962164546982e-03
      9.5899727389421902e-02 5.0672901021434333e-02
      -9.2036859060777063e-02 9.0343422896380698e-02
      -4.3673504066380188e-02 -4.3818145235100726e-02
      9.1386254628510147e-02 1.2640601435556934e-03
      5.3504901088418551e-02 1.6316396593175156e-01
      8.8160190748766604e-02 2.4950838008042284e-01
      -5.0049520472107356e-01 1.3904147648943560e-01
      7.2219763303224799e-02 7.4053357824732782e-02
      2.1811112068285643e-01 -1.7856519960741857e-01
      -9.5781757830026681e-02 1.5359888180260006e-01
      -2.7067289372717851e-01 -1.2721594436706077e-02
      4.0223019441812157e-03 -4.4414449076302957e-03
      1.2276363914086844e-01 4.2281777214110319e-02
      -9.2344847341078812e-02 7.7240579303778376e-03
      5.8732377981651968e-04 4.5315746705778363e-03
      -5.7424304436350139e-02 6.6026854643973801e-02
      1.3700600651128218e-02 9.8606207383171926e-02
      -2.2365902757818015e-01 -4.0629695237335783e-02
      -1.6028118585984930e-01 5.7493497654188659e-02
      8.1886609480962463e-02 5.7329240977936125e-02
      6.8772875540795683e-02 4.5232358666431487e-02
      3.2891868421338274e-02 3.5463108558535059e-02
      -6.8377480123859042e-03 -1.1960349927686334e-02
      3.3963502936518869e-02 -5.2946258307489384e-02
      -3.1812064873974810e-02 -4.3751740254336403e-02
      -4.1325676468506850e-02 -3.2599002842804418e-02
      -6.3492998656672461e-02 1.0977021304228769e-01
      9.5267405006679934e-02 2.3413328347728104e-02
      -5.8052416738668171e-02 -1.2783197239168961e-01
      9.5044806850819424e-02 -6.4657236037371571e-02
      1.6384844919404312e-01 -6.9302761150608308e-02
      -1.0286493073142751e-01 -4.4217185074270360e-02
      4.7861596032133850e-02 2.3736740003854320e-01
      -1.2252861956908336e-01 -2.0177287547634863e-02
      -6.9280083610209223e-02 8.8750695439826516e-03
      1.8812280654626083e-02 -1.1782828945562092e-01
      -3.1997977437971720e-01 2.8689502414883433e-01
      6.9867425203038536e-01 -5.0645314302433894e-02
      1.9465882200856890e-01 -6.3091125758944558e-02
      -3.1298858621837466e-01 -3.1395124093262845e-02
      6.7716898603535491e-01 1.7742461728456344e-01
      1.9097665182662510e-01 1.7006584568312689e-03
      2.8033141208460172e-01 -8.1767623692409789e-04
      7.8597022543712963e-03 1.0418169506769399e-02
      1.6717075931322234e-01 1.8137391784797752e-01
      -2.9858915878831532e-01 -1.2935860282858824e-01
      1.9476775094787127e-01 6.2229080041287979e-02
      9.0257134150373605e-02 5.4522460088670406e-02
      3.5690443614616596e-02 4.5730874063546717e-01
      -6.7994838653849510e-01 -1.7645655250361547e-01
      -2.4666355749810914e-01 1.1477785003291588e-02
      3.8913611037238643e-01 -6.8001114516580835e-02
      -3.6454586773950742e-01 5.5653489653711113e-02
      -7.4350670392491902e-01 -2.6803942194374047e-01
      -8.2817792319355421e-01 4.7933163194631950e-01
      6.4878565755875683e-01 1.1444954510614368e-01
      4.4150332616519294e-02 -5.8797757459887051e-02
      -4.1826323530128651e-01 8.6587254785300091e-02
      -8.7546755942464616e-01 3.0447875473060082e-01
      6.5660085094153453e-01 1.2283778364924529e-01
      1.1452178894601615e-01 -2.3573646201012631e-03
      -3.6326925927841242e-01 -1.1292175848738489e-01
      -3.9667044315965161e-01 2.8045934832417529e-02
      2.1752175536012366e-01 5.5301631400480160e-02
      -6.0416301768838343e-01 -2.1208186892448480e-01
      3.2543971402872385e-01 -2.6736057840064706e-02
      -5.4394628085565466e-01 3.9701431464034043e-02
      3.2204567697043707e-01 -6.5216840753047275e-03
      -1.4237877903265039e-01 1.4071785661171907e-01
      4.6342609140453483e-01 1.4127350894333562e-01
      2.2957387023487219e-01 -5.9844047234939850e-02
      -6.2555415268217313e-02 4.4080655166371880e-03
      1.1827423830057603e-02 -2.9336738041303106e-01
      7.8593349869197859e-02 -2.8001101783622570e-02
      -1.2898102147866000e-01 2.7218198846944833e-02
      -3.3540044977999769e-02 -1.1799230701070966e-02
      -1.5181646938151089e-01 -1.2510334392872263e-01
      2.3035680747658738e-01 -4.3554294283692702e-02
      7.6236377914248463e-02 7.7498437355406338e-03
      -1.5343226671590102e-01 -1.1029107362700685e-02
      -5.2637355366315940e-02 3.7224827505419257e-04
      4.7405093839849599e-01 -5.5560665945293332e-02
      -1.6494583174222097e-01 -4.2859778466939509e-03
      -1.9975618274367105e-01 1.6691581778210268e-02
      4.3886614044583661e-02 3.9319014003179081e-02
      3.6125943230624132e-02 2.1509771363437038e-02
      -1.9663335518171156e-02 -2.4516244168790928e-03
      2.6868975944805303e-02 -4.7468395757351546e-02
      -2.4304788521378137e-01 -3.4094148264624376e-02
      1.9877769974539461e-01 7.0530965510458024e-02
      -8.3363886102877274e-02 -7.0979067349602631e-02
      -9.9384224913264541e-02 4.4442203478777260e-02
      -1.2918157571492977e-01 -4.1394356666107586e-02
      -4.9174921134436120e-03 -5.6522037833191832e-02
      -8.5242480665725193e-02 2.2920669282071281e-02
      7.9272888275439699e-02 -1.3781409081948168e-02
      -1.5284012842059527e-01 -1.7930752054234586e-01
      -8.5699365703357022e-01 -1.9593820779202015e-01
      -7.3409293209729443e-02 7.8687781804236950e-03
      -3.9203810487021054e-02 -6.2847313334456492e-02
      -3.2845726922745705e-01 1.5747121877375930e-01
      -1.2406708791949181e-01 -2.0419254685083207e-01
      1.0452968088680392e-01 -3.6581472627231389e-04
      -3.2220695716635850e-01 1.0485708020769503e-01
      -5.0540871790440860e-02 4.7252544816021536e-01
      -4.9267299335758900e-02 -3.2561399833164201e-01
      7.4375396099043242e-02 -1.4053902587165285e-01
      5.9324912308204636e-02 2.2107201669344597e-02
      -3.0470271181620094e-02 3.8675084371132279e-01
      -4.2605349634278905e-01 -2.2275525615899108e-01
      4.4360006233558534e-02 1.0335404507715235e-01
      3.7583363866327152e-01 -1.3978501818073183e-01
      -1.9225256486975772e-01 2.6856504750809268e-01
      -1.4355023929553554e-01 -4.3722525266767731e-01
      1.1202042728317183e+00 9.6547272918585753e-02
      2.2199251019292363e-01 -1.0339920928978007e-01
      4.8244345525600460e-02 -4.8595971232633106e-01
      -2.4499257779112263e-01 1.3774287202663318e-01
      -5.0391705693480737e-01 4.7283129862718529e-02
      2.1042206193419158e-01 3.8394921252127567e-02
      -8.2998626634035819e-03 -2.5755752354459199e-01
      -2.5792656267038733e-01 -1.3028633285422594e-01
      -2.7521180965039799e-01 1.1406614542907285e-01
      -3.2458511374228824e-02 5.8524174126320223e-02
      -1.5073328586150481e-01 -2.4262977633750026e-02
      6.7276982452872683e-02 2.4268763012186781e-01
      -3.2733935051757085e-01 7.4452781219378844e-02
      -1.2948863532042373e-01 1.6391246302650728e-01
      -5.6333540825053185e-01 2.4068988889328546e-01
      1.9331222443036553e-01 2.0210776849818560e-01
      3.1645348379759580e-01 -2.1253776862070131e-01
      -3.9734181352566378e-01 6.2770120802521645e-02
      -5.9561632831317091e-01 5.3576116399394180e-01
      1.0825122524941268e-01 -7.4916044954164276e-02
      -2.1762155574611659e-02 -8.2676876177465275e-02
      -3.5165236549372025e-01 -1.0344423410984087e-02
      -1.6575402910303830e-01 -1.3088753817594501e-01
      3.3223177866690079e-01 4.1731446391398717e-02
      8.5781770463303944e-02 -6.7167748531487340e-02
      4.2405243820681247e-02 -5.6728207507391583e-02
      -2.8732870928020071e-01 -4.7977304771742857e-01
      1.9395813183715591e-01 -2.4115051903381677e-02
      3.1930679661309219e-01 -7.1011389800364394e-02
      -2.7057242131532777e-01 -9.7268122351660227e-02
      -1.3631741580776844e-02 -4.5107735739054911e-01
      8.1757486669559662e-02 -1.3298903165715900e-01
      4.6147223193886000e-01 6.4459693913371478e-03
      -1.9474848152894716e-01 -4.2166977152380831e-02
      3.2318539795803639e-02 1.0424739717677053e-03
      3.9403577566786828e-02 -8.0380220550031242e-03
      2.1055074566390022e-02 -9.2716595461307671e-03
      9.7641650137063642e-03 -3.7060213645777489e-02
      3.3598837507510665e-03 2.7917959026059484e-03
      1.3967550232487583e-01 7.5541675202766972e-02
      8.2483954743478125e-02 -3.4326300606035656e-02
      6.0871852967234212e-03 5.5874314273983379e-02
      -2.3065369176591363e-01 -1.1714681105612980e-01
      -9.9056383332132306e-02 2.1628078624672035e-02
      6.9642637571481134e-02 5.8851877797644787e-03
      -5.4470200613028000e-02 4.0832243211827116e-02
      -3.3227294815886987e-01 -5.6832352365306628e-02
      -2.4280868534476624e-01 -1.0322226858737915e-01
      -4.1778298540204130e-02 1.6191306860816077e-02
      1.3827030310663607e-01 2.2049581651475549e-02
      -3.8162140246169834e-01 -3.5566294263475740e-01
      -6.7348758173109355e-02 -1.5819747509938656e-01
      -2.9893398980488470e-02 -1.0531711686190150e-01
      -1.4070404562988612e-01 1.4102845773823747e-02
      -6.0666367584810332e-01 -4.5749421767008863e-01
      -1.7833988264675155e-01 -3.7411174093919286e-01
      3.5411055636069599e-01 -8.4232439767261746e-02
      1.5976030411596179e-01 -2.4984508578448100e-01
      2.0200119967306182e-02 -2.1386772923433886e-01
      3.4205974230730674e-01 1.2136425997173574e-01
      7.9002789723679204e-02 -1.3626133912527574e-01
      1.2561469068963715e-01 -6.3094444131921501e-02
      -8.9100828389964346e-02 1.5530888089699882e-01
      3.5060139319386230e-01 -3.9732838877846038e-02
      2.7820230651177952e-01 -5.6815970750588932e-02
      2.1997187560760464e-01 -8.4990360286183869e-02
      3.6977709824325150e-01 1.8107137817516000e-01
      -2.3538611006972743e-01 2.2324996334513889e-02
      1.1368613211940166e-01 9.2210256180807068e-02
      3.0142978562045501e-02 4.7553191996707990e-03
      1.6952085762888230e-01 1.8896411931015503e-01
      -4.6586019905748710e-01 -1.1310762914648546e-01
      -9.4239165355989210e-02 1.7736242686719558e-01
      -2.7805843752387022e-01 -2.7190760075248663e-02
      2.8566396910833340e-02 -2.4439336280848983e-01
      -1.5021536527599988e-01 -1.9781098750238107e-01
      -1.0087752998330086e-01 1.3197381405622027e-01
      -2.5618343110269398e-01 -2.1288190434430956e-01
      -4.3179630591712831e-01 -2.2705713230072722e-01
      -1.0093481500739376e-01 -1.2610063818411091e-01
      6.3317071595848062e-01 -1.8145049171653732e-01
      -4.0617687174030181e-01 3.2543329796166427e-02
      -5.6779100595150189e-01 1.6441670895752386e-01
      3.0041724367373507e-01 -9.1832287231985957e-02
      2.0456882260483647e-01 -1.5478039120593937e-01
      -3.1761618734147407e-01 -1.5770123465055585e-01
      -1.0031184583127134e-01 -5.6556509136942879e-01
      1.1355907670156973e-01 -3.4272141702135572e-01
      2.4271631135626281e-01 -1.3325990708245691e-01
      6.3016626707164805e-02 -1.7621482173563471e-01
      -4.1641213922108879e-02 6.9724177687019134e-02
      1.1544167218127257e-02 1.1287130618937494e-01
      -1.6917056306891817e-01 -4.8852292698961339e-02
      -2.7004846651774769e-02 -6.4701886825358212e-02
      4.1706656898871401e-03 -2.2776728822572556e-01
      -1.8143866297468961e-01 -3.9019384589232597e-02
      1.1560531157305381e-01 -4.6825786840962803e-04
      1.7458579608076913e-01 2.3749897781008236e-02
      3.9228713866455774e-02 3.4712187416603056e-02
      4.7248374347426021e-02 1.5581167114251074e-02
      -1.7274479776678720e-02 -7.6860164945528366e-03
      6.7143686729386840e-03 -3.3998411707295270e-02
      -6.3873430417443255e-02 -1.6557882719139518e-02
      2.4459572576411862e-01 -4.8168385355608877e-02
      3.3543730260588250e-01 -4.3492427008009982e-02
      -4.7236703871369051e-02 -1.3938168301367149e-01
      -5.6739032525318193e-02 3.9686737091998220e-01
      1.4019937000055055e-01 -1.4268282297424115e-02
      2.7491968786416165e-01 3.0384610766268003e-02
      3.4630549088006564e-02 2.3727895778743180e-03
      -5.0881947045744325e-01 2.3324599541838081e-01
      -1.3775238812805102e-01 2.3944395284667472e-01
      -1.4727088643015879e-02 4.7127903011177544e-02
      1.8805822859304921e-01 -1.0348650401259679e-01
      -7.8422217571779484e-01 7.3685980842975496e-01
      -1.1700779270711174e-01 -1.8599701227405292e-02
      5.6772683642850574e-01 -9.4866833004518980e-02
      2.7922211838684818e-01 -1.5388948695877055e-01
      -6.7852692101120293e-01 -6.1620108593971001e-01
      1.6436507140919890e-01 -2.5192289301231124e-01
      1.3537788879929652e-01 -9.4590986441983160e-02
      5.4062593583089132e-02 -1.1772429173239835e-01
      9.7705479576185861e-02 -9.6912426259480721e-03
      5.7836467669936686e-01 4.1843149372454383e-02
      -9.8311603928717142e-02 -1.6797996931096051e-01
      -1.0344428430678966e-01 -2.8566771382556956e-02
      2.3458647254407569e-01 5.1091319740028422e-03
      4.0296355441717940e-01 2.1392189917686369e-01
      -1.5046913002625459e-01 -1.6518524803534196e-01
      -8.1372426070429188e-02 2.2492102981047164e-03
      -8.5691861467205532e-02 5.5210215985446436e-03
      2.9531940294268973e-02 -8.0895148038442194e-02
      1.7397995813452599e-01 -5.9432407610702759e-02
      -1.7184769231526412e-01 -1.1871491233249963e-01
      1.1526366974225011e-01 -1.3737626751268259e-01
      -3.8831147061037363e-01 -4.1949135904153623e-01
      4.7912028370256493e-01 1.1856576982666009e-01
      -4.1481018498389494e-01 -1.6420719828293542e-01
      -2.7695660255655807e-01 -2.1310820004359693e-01
      -2.1005513335150247e-01 -3.5064584794776932e-01
      5.0065637208213187e-01 -6.4666772474634886e-03
      -2.4435507496335701e-01 -2.7235556709380576e-01
      -1.2868355784109300e-01 -2.4821902736202719e-01
      1.4955552150861917e-02 -1.5886446175095525e-01
      2.0636382681343754e-01 -1.8820797404656378e-01
      -1.9946917092768079e-01 -1.6083718735835639e-01
      -1.8929746968880178e-02 -4.8768825612456013e-01
      1.7828593474400339e-01 -1.8629044196945974e-01
      2.3424915124239754e-01 -1.4766768557570331e-01
      -3.9390883288661982e-01 -5.0054363176760937e-02
      -4.0241077239714529e-01 -3.4312331884587638e-01
      -2.4771669045214093e-01 -2.8401567893191337e-01
      1.0046284480291141e-01 -2.1364626413682225e-02
      -2.3074944341907791e-01 -2.1122979583294779e-01
      -1.3142537104556217e-02 -5.0438396049715284e-01
      6.8262268010249455e-02 3.4484207657222501e-02
      1.9499380578425476e-01 -5.9748575599725261e-02
      -1.7550133120671743e-01 -7.9413889354579784e-02
      -3.6362148931726034e-02 5.8387418428103932e-01
      3.4175513134056568e-01 2.4581353412075446e-01
      -3.1100049395045642e-01 -8.3416833612298083e-02
      -5.1631864335989798e-02 -6.0887326997695272e-02
      4.5982707766594119e-02 5.0098629294767799e-02
      4.4221713625321908e-02 2.6293467693687404e-02
      -1.3070670954465997e-02 -8.2491269983235600e-03
      2.4088179435736042e-02 -4.3669802883104618e-02
      -5.4926126824152405e-02 -5.7386941707402502e-02
      -5.6091634084569464e-02 5.4471780383323148e-02
      -2.5337228154774810e-01 1.2433486061086984e-03
      2.5771310688545220e-02 1.1273897927063015e-01
      -4.8144176151445955e-01 2.8454844221068071e-01
      -2.2328500607211332e-01 -3.0186995480186785e-01
      1.6166876665144197e-02 8.1394618825305715e-02
      3.6975642807985820e-01 3.1836100589880831e-02
      -1.2973666453345048e-01 -8.9618161564863172e-02
      -7.7093532618409732e-02 3.6034922585095813e-01
      -4.0490100983726623e-01 -8.2123341937281435e-02
      2.9258194999612097e-01 1.2698522859152395e-02
      -2.9395605176679107e-01 1.4524488959112797e-01
      -5.3411126645294522e-02 -1.5176081106345568e-01
      2.4310156288322268e-01 -1.4140021238738389e-02
      8.9316002284200682e-02 -8.2040930507900289e-02
      -3.4906857147377496e-01 -2.6197252265175778e-02
      1.3428538614448544e-02 -2.6155023623124879e-01
      4.2771659350986213e-01 -3.7407996397254219e-03
      -1.7460166973890190e-02 -7.6235471922374912e-02
      -1.2939009551656513e-01 1.3660110366054225e-02
      2.1344833512732592e-01 -2.6894293527818438e-02
      1.5625670490012539e-01 -8.9878167873439746e-02
      5.6609132154325462e-02 9.7117795113710853e-02
      -7.6513372167285154e-02 3.4676607327988546e-01
      -7.3835148923919638e-02 -5.9290774545920119e-02
      2.1468540557573412e-01 4.2714936701624941e-02
      1.9001826113113834e-01 5.0866869427518835e-02
      -1.4903786553285920e-05 -2.5719502886137402e-01
      -1.5195275137625627e-01 -6.5650036853659166e-02
      7.6807581575560349e-02 2.0615033981228437e-02
      -1.3788593391942136e-01 3.1278357131080847e-02
      1.6803535569568312e-01 -3.9269261568201941e-01
      -3.4353305004918727e-01 -2.4151836072839697e-01
      2.4259379628533753e-01 5.5051229541158479e-02
      -2.0513690302235238e-01 -1.0772910107052248e-01
      -2.5964958391951942e-01 8.3992311502149877e-02
      1.3335875042175965e-01 -1.9933190468797146e-01
      5.2885315200814109e-01 -2.2324876098276006e-01
      -1.1074929323266650e-01 -7.0942083947268643e-03
      -3.0424246067918764e-01 1.4141479576715194e-01
      1.0085772255994208e-01 -1.5106103961623046e-01
      7.7775305792537808e-01 -1.2918105468370242e-01
      2.6660463628692915e-01 -9.4701415771809974e-02
      -2.5298614142675052e-01 -5.8811683835431738e-01
      -1.4633598783938526e-01 -1.7550478445539780e-01
      1.3164879300191892e-01 -2.1396220272285275e-02
      -2.2867236752345202e-01 -3.7268162395102486e-02
      -4.7729566576658877e-01 -2.5217249945917630e-01
      3.1588841296705655e-01 -4.5532118895653978e-02
      -5.3836984105202469e-02 -3.0795092552034969e-01
      -5.3436559149939622e-01 -3.3078294645664408e-01
      -2.0148110951183607e-01 -1.0831524790688811e-01
      2.3372837466986593e-01 3.1543737295902358e-01
      -4.8175898308709580e-01 -1.0672588995910644e-01
      -7.3799991921638039e-02 1.2799685373996185e-02
      5.6775725291431873e-03 -1.6432920590336064e-01
      -1.3346154620997130e-01 -2.2447076280852327e-02
      2.0649911753414424e-01 -2.8521027972462313e-02
      -8.2263144954289560e-02 2.1130246840007924e-03
      5.5847047237327793e-02 4.6774815066312189e-02
      3.3895161517813167e-02 3.4988499597774295e-02
      -1.3097372892433770e-02 -1.6872718117735622e-02
      3.0325923234217424e-02 -5.3648452218886832e-02
      -3.0051067798277094e-02 -7.4832494907274810e-02
      1.1876278368363703e-02 1.1910514957060202e-02
      2.5887213070036958e-02 3.6863791049363000e-02
      -4.5680293329456029e-02 7.7741568950063317e-02
      -3.8394358088586078e-01 -3.6528087613853635e-02
      -1.6475552219971493e-01 8.9123324334999653e-03
      -4.2754313020418239e-02 3.7781276469244000e-02
      3.9767255702336962e-01 -2.5824840309423128e-02
      2.3404706657857099e-01 -3.6123568832993508e-01
      2.7288613726903194e-01 5.4795855296652887e-02
      -2.0923004639426709e-01 -4.3746181493122718e-02
      -4.0078675349345882e-01 8.8472416784176108e-03
      -5.4481285328780965e-02 4.8705871668405225e-02
      -1.4823631838447179e-01 -1.9983222777255874e-01
      4.0986883093651222e-01 6.5029659644141896e-02
      2.0283350595282701e-01 -1.4732680055397690e-01
      -1.1395941672418991e-01 1.3741276382746509e-01
      -2.3835695201212770e-01 -1.2390075937593115e-01
      4.8521394718716060e-01 -1.6048956328738540e-01
      -1.2921940450187147e-01 2.0117529144653984e-01
      -1.6155402907861272e-01 2.9181334658386016e-01
      2.0393138657125801e-01 2.8377259995044323e-02
      -9.7902170007319350e-02 -4.7673414023743560e-02
      -8.2778868530036104e-02 -5.5655985037993731e-02
      -8.4363144969290121e-03 -3.9371330927628768e-02
      -1.7557088614133762e-01 6.1658520931563944e-03
      -2.8620713021247557e-01 -1.9616685791843395e-02
      1.3541184773195393e-02 -7.8200084131815908e-02
      4.4562758931841050e-02 -2.1876959868291437e-02
      -4.0859375342276422e-01 -6.2710434479207447e-02
      -2.1417636755867037e-01 1.5341166547198125e-02
      -2.5985715437391166e-01 -1.3068330146196694e-01
      1.1725307757528355e-01 -6.9369812466806158e-01
      -5.4625981458751738e-01 -2.2197222073699502e-01
      -4.2398398001018564e-02 1.8065740633826172e-01
      2.6042779998540094e-01 6.9985940008519223e-02
      1.1368902144656572e-01 -3.3873363228226328e-01
      1.6889128504795226e-01 1.5905668641496229e-02
      2.5561867829682028e-01 -1.4059298365816145e-01
      4.9370713840098301e-01 -5.3179813538441797e-02
      -5.2543521060781939e-01 2.6333693273237230e-01
      6.4230572362422467e-01 -2.2952949599017974e-02
      3.1232684789170417e-01 -2.1899632088017085e-01
      2.0961242368886343e-01 8.3150179853245154e-04
      -9.3550133820139866e-02 -4.3661466447902350e-02
      5.0396437821471596e-01 2.2141277321587043e-02
      7.0663840478908435e-01 -1.4098587624424946e-01
      -6.0945396429215308e-02 -1.5261602143043004e-01
      -1.8879548732148049e-01 -7.2322585064555200e-01
      4.1860974760195158e-01 1.6324357788467563e-02
      -2.5093924766907227e-01 -2.6011032822438968e-01
      -4.9579863144739245e-01 -1.7439602515032468e-01
      -1.3261703740533404e-01 5.5410772940295686e-02
      3.6687811069561155e-01 4.8569451661695968e-02
      -8.3560575538877524e-02 -3.0550973770956384e-02
      1.5894789601720478e-02 1.4219711215321838e-02
      -3.8768922703914882e-02 1.7620341283072327e-01
      -1.6212554349792499e-01 3.2092933141130792e-02
      -2.8789718028250122e-01 8.1339817283872393e-02
      1.5588728184074935e-01 4.1759645573594267e-02
      -9.7084849102150789e-02 3.2262007160223416e-01
      -1.9889832588559120e-01 5.3061679574848669e-02
      9.1438132490051199e-02 3.1939879328657314e-02
      1.2361149341130684e-01 1.7400068915133349e-01
      8.9169390551501110e-02 2.6081837069381275e-02
      3.3362390373996721e-02 4.6516854706660185e-02
      -1.1277963367087926e-01 1.4651879211674183e-02
      -5.3373228099077394e-02 -1.6000701808998763e-02
      1.3066155514130576e-01 -3.5032315085219035e-01
      -3.7899374197308447e-02 -7.5880973177103975e-02
      2.1887014161130594e-01 4.2332419106868538e-02
      -4.0079472090771084e-01 5.8613378693731601e-02
      1.4678550013590036e-01 -3.9907481275734125e-01
      -6.6569118178312583e-02 -8.3266728641662319e-02
      -2.4647950409226813e-01 8.7121605974961699e-02
      -2.4570032367543873e-01 -2.3217512817180177e-02
      -3.1246833727477841e-01 3.1288072017029156e-01
      -2.0337491090452064e-01 -1.3031972194047786e-01
      6.8767713193841035e-02 6.0031976792123423e-02
      8.5603987147584604e-02 -4.2018522939941100e-02
      -1.0263142463827379e-01 -9.8200052478551750e-02
      -2.2018508775847967e-01 4.9064206008092963e-02
      1.3432947200005679e-01 4.1860710948031010e-02
      -3.7501859015180029e-02 5.7623786550869159e-02
      -3.1179963368649982e-01 1.2088655786763673e-01
      -1.9219679405354195e-01 -7.7587379317055130e-02
      -1.8481429581688105e-01 1.2271256310497047e-01
      -6.5154777119500754e-02 1.7571343082996439e-02
      -1.2399115709826401e-01 -3.5620000599286711e-01
      -2.0001636658982447e-01 -1.4106918876928918e-02
      -5.1961890206828931e-01 5.6928808111746450e-02
      -8.0137724082321810e-02 -1.6543933886432910e-01
      3.8937116484736516e-02 -1.0651984835683841e-01
      -5.8153543063289508e-02 -2.2503757361015989e-01
      -9.4455682375815711e-02 1.1234794433248790e-01
      3.6372619860079195e-03 -8.9435132838612610e-02
      -1.9314304415483655e-01 -7.8793651882600277e-02
      -1.0562140030720996e-01 -1.3194950332668509e-01
      5.1782622324711891e-01 -1.8284288995179941e-02
      3.7038080805903589e-01 1.7501068123298102e-01
      -1.9970165338367013e-01 4.5632337984074389e-01
      6.7184376564742285e-02 -1.3156174621844213e-02
      5.3238979195624625e-01 -1.6320908293705486e-01
      3.5209131900114837e-01 1.6105055708802854e-01
      -3.2057886836890359e-01 3.1651362215752232e-01
      4.9986129300775656e-01 -3.0533176876025009e-01
      6.2628899587181319e-01 -1.5742026627682565e-01
      -3.1705843513972481e-01 -1.6192653478417554e-01
      -3.6485782331300926e-01 1.2676254992903818e-01
      1.9907993584438075e-01 1.6792628882337884e-01
      -1.6294671155718263e-01 -1.7634943879058287e-01
      -3.5064718748974222e-01 -9.7525461667783378e-02
      -1.2156339636195049e-01 7.2581683101173994e-02
      4.1554831418504978e-01 -6.6279722851960529e-02
      -1.5945472760795534e-01 -8.9904742691270037e-02
      -1.5247452227587230e-01 -1.5326007541794709e-01
      6.3921745877380684e-02 2.8152202820798328e-01
      3.9222157326255636e-01 1.5831362786523495e-01
      -5.4214070984294105e-01 5.0581867406897255e-02
      6.2875111277466852e-02 -7.4362140441101010e-02
      7.6372332979185054e-02 -2.8847612885320112e-01
      1.5113868723714963e-01 2.2052556595496178e-02
      -4.6211507428519295e-02 -6.8912970384044356e-02
      -6.4770231447928012e-02 -7.3203169491001405e-02
      2.0229441574960128e-01 2.1833794722288303e-03
      1.6935531536785448e-01 6.2047584988977146e-02
      4.2782394779755852e-02 -5.6647282200279966e-02
      1.0120127649731121e-02 -1.0399431871561383e-01
      1.1332151033807375e-01 -7.7594246340542516e-02
      -1.0946325217254869e-01 -6.5500971895264867e-02
      3.5570604898728800e-03 5.3284460310658657e-02
      -3.5841823706763032e-02 -5.6655974308588208e-02
      1.0246423662754771e-01 -3.6916105235089419e-01
      -5.3407532369206340e-02 -6.9135899774234011e-02
      1.0217828005898461e-01 8.0069194494591919e-02
      -2.6409012420340483e-01 -1.0026642444011927e-02
      1.3752439429451857e-01 1.9883050590482812e-01
      -4.3751514590546109e-01 -1.4141141053642112e-01
      -1.7051521902221606e-01 2.2240744811839186e-01
      1.9981361730223887e-01 -6.4336352750751164e-03
      2.8141384113565145e-02 1.4833492614605234e-01
      2.1909422581252758e-01 1.7765935453161737e-02
      1.2828300824011946e-01 -1.3235959082008025e-01
      -1.8130477445259988e-01 6.0996516691190952e-02
      -2.4824269708922170e-01 1.6514684840815347e-01
      6.3443437805973557e-02 7.2832975168564068e-03
      -2.7398359818951445e-01 -4.4962107944439771e-02
      6.9288497151782369e-03 -2.8596475785241653e-02
      -1.8333860742779646e-03 -1.7375253860702536e-01
      2.3716763629067555e-01 1.4472021856813297e-01
      -3.1394859732585151e-01 7.4644684045421628e-02
      7.2727722777262416e-02 -5.1295879634570919e-02
      2.5208014176465410e-01 -2.5234194408768629e-01
      2.6560835673554012e-01 1.7049560031358743e-01
      -2.4617528897958585e-01 8.9325027797235668e-02
      -9.2093373587129670e-02 4.4627621116286702e-02
      9.5145555249315727e-02 2.9227813558100674e-01
      2.0858266823248833e-01 -1.5024853806878444e-02
      -8.4239536552482286e-02 8.5754364634684097e-02
      3.1676993251711882e-01 9.7623811933702329e-02
      1.7002654302103018e-01 3.2015466746944710e-01
      -1.7432394395949891e-01 -4.6028979401271783e-03
      2.1271314615021264e-01 5.1052156555055177e-03
      1.2772163019737062e-01 1.2640822427767920e-01
      -9.8056564605230240e-02 -1.5258864475527380e-02
      -5.7614647024298561e-02 8.2313284236391719e-03
      -2.1195757644695573e-01 -1.0610955853280697e-01
      -1.3144770031936240e-01 1.1167420019229859e-01
      1.0169755345818568e-01 6.8891196409440636e-01
      2.0550319622116439e-02 1.7277729814115791e-01
      -9.8730842687117548e-01 -2.6271701488815281e-02
      -1.2816072876092255e-01 -3.0190892244122827e-02
      1.7080848705987828e-01 5.4887338296919264e-01
      2.7498616118489383e-01 2.3730063166804741e-01
      -5.6870281410090769e-02 -6.7658683653870122e-02
      -1.0827626058424945e-01 4.2759585503308932e-02
      2.1861155626100939e-01 4.1062442290821877e-01
      3.9448194696276551e-01 1.8344900838378470e-01
      2.1604678410163156e-01 -1.7459002890975084e-01
      1.5460833814635869e-01 8.7818923653552219e-02
      1.5384833233443748e-01 -1.6736140513633954e-01
      3.4864600568144455e-01 3.9884637489625542e-02
      4.9496576015824373e-01 -3.8816891405898057e-02
      1.3841725311106789e-01 1.7578683951547372e-01
      9.5401814593974385e-02 3.2862395493017567e-02
      2.0690130088993375e-01 1.3439689013027022e-02
      2.1105921771055711e-01 -6.6972267081283884e-02
      -2.6401697764221927e-02 2.2466390116727117e-02
      -1.5495450442851663e-01 -6.9546289416662303e-03
      -4.2713617205704282e-02 -6.9124316057758498e-02
      5.6497401646687970e-02 5.4490046507722052e-02
      6.3981240598909393e-03 4.7497909661609133e-02
      -4.2854686980934871e-02 -1.4111390096804174e-01
      1.5558845851544642e-01 -5.0272798498279994e-02
      3.1827720327896054e-02 1.2481663528604463e-02
      -1.3592923569231832e-01 -7.6425699055182983e-02
      3.1725062800098353e-01 -1.4848106445879766e-01
      -1.4812586886672693e-01 -1.6891292601949134e-01
      -1.5458308658101427e-01 1.8860233683895056e-02
      -9.2043821187774821e-02 -7.0584114926665553e-02
      2.3348603792758776e-01 1.1992254677027689e-01
      -1.5153600000384132e-01 1.1922449180561900e-01
      4.2353572235590137e-01 1.9834901101535615e-02
      4.3130666296858555e-01 6.7402120336070251e-02
      -7.8260044667716119e-03 5.1559754560548976e-01
      1.4052228572010478e-01 4.7636502912021313e-03
      8.7982134827432015e-02 -1.2317667938778458e-01
      -5.7282150895567888e-02 6.0720581585063375e-02
      -1.0847406466658943e-01 -1.6515210129140251e-01
      -1.0564823602081644e-01 -8.1179765361994075e-02
      -4.2136727318682593e-01 7.2141642773265971e-02
      7.2061267284477301e-02 -1.0035710399540857e-02
      -1.6923394996539542e-01 -1.5407120252251599e-01
      -3.6894226167166998e-02 -2.0056363017414962e-03
      -6.6619669590669631e-02 4.0073331064692810e-02
      9.9886529265115986e-02 -1.5350614461334903e-02
      3.0680155485120823e-02 2.4668947226554944e-01
      2.3300114667067917e-01 1.6727019347280067e-01
      -2.9389618632491309e-02 -8.4341146000869779e-03
      5.4291012677896031e-02 2.1200844447460735e-02
      3.0953372983965899e-01 1.9892193282031101e-01
      -3.9896335220335762e-02 1.9336270226100868e-01
      1.9032361811924120e-01 -1.5731585669760399e-02
      -1.8738084297723251e-01 1.5097062392047539e-01
      1.8583494889313448e-01 -2.5054664071112790e-02
      2.0434638932455651e-01 1.6922964546077618e-01
      3.3965459216950100e-01 -1.7161823216332226e-02
      -4.0708101015826351e-02 1.4443661393420910e-02
      7.8295436215756020e-02 -1.4515820066295124e-01
      -2.9008380632355468e-01 -6.2887244940622977e-02
      -1.1426094860972349e-01 9.9393977738939682e-02
      -1.9268175489359615e-01 -1.5549621798270119e-01
      2.3761149058183894e-03 7.3593341116545447e-02
      2.0632199799532300e-01 5.3003928500008318e-02
      -6.2387907078510696e-01 1.8711515969337605e-01
      -3.0547832741880127e-01 -5.2457610570179308e-02
      2.7375613610228827e-01 5.2237857129685472e-01
      8.3866961223789012e-03 2.8048540579852649e-01
      -6.7566194318327366e-01 2.3764055406082329e-03
      -3.5884030914425505e-02 6.3280988427651771e-02
      2.3812394825487843e-01 5.7244111482168969e-01
      4.2318371042643736e-02 9.7338125805239081e-02
      -1.9217497446880227e-01 -5.4258284044953163e-02
      1.0366648003612841e-01 1.5689815835031845e-01
      1.3913363750564317e-01 6.4082405947064824e-02
      3.6572975419624142e-02 -4.6094360948465585e-02
      9.5490264456605425e-02 2.7752438558619714e-02
      5.8277470339458820e-02 8.6042645037846241e-02
      9.9304234601515662e-02 1.9610202670635757e-01
      -3.5827513944236694e-02 -1.0647386613444525e-01
      3.7662460784659052e-01 1.1525858143694787e-02
      7.0569731350856701e-02 1.1987688727545426e-01
      -5.3001605425434285e-02 -4.1988390374365317e-02
      -3.2413042881239851e-01 -1.6330952264746615e-01
      6.4578352090333035e-01 5.8084697278885711e-02
      8.4101330485016279e-02 1.4870125960540412e-01
      -3.9577526440414991e-02 -4.1781689602011271e-02
      4.8899069071683142e-02 -1.6058338922593732e-02
      -1.8478295730951580e-01 -4.0016752081823963e-03
      -8.0815809894170965e-03 -1.0907613999401507e-01
      4.3811043670724609e-01 -5.2322592887423962e-02
      6.8037357143654220e-02 -3.8683050717194432e-02
      1.0032701607382755e-01 -6.2276982977924049e-02
      -1.2757642386407403e-01 1.2730179346241052e-01
      -6.6031684756323122e-02 7.1850853850895136e-01
      3.8687888592861630e-01 -1.3805594693505965e-01
      1.0375354261968641e+00 -9.2998957660083870e-02
      5.2541902880023438e-02 5.9705154427788835e-02
      1.4913555974006015e-01 1.4828937402164569e-01
      -3.0632995265939955e-01 1.0971558346965347e-01
      -1.7523103288174430e-01 1.6906743920147313e-01
      1.6959085184466374e-01 1.3229360410552088e-01
      -6.7045361865051807e-03 1.3789424959372121e-01
      -1.0926550967389388e-01 2.2009104023108576e-02
      -2.6112462559019745e-01 3.0760556336149821e-02
      9.4381269717629154e-02 1.0027527643461501e-01
      2.6931633516455378e-01 -1.3526603595808367e-01
      -5.5475550821460641e-02 7.5261065569992749e-02
      1.2175448282513335e-01 -2.0568057066430591e-02
      1.6150438403498311e-02 3.8197636037617319e-02
      3.3820538313214088e-01 -1.2375125595381319e-01
      -2.4172991858299794e-01 -8.2970665685973236e-02
      2.9568111205655828e-01 3.5893713307755003e-02
      -9.6753445046658074e-02 1.2101399604409948e-02
      3.5280517596584771e-01 -1.0343912767742411e-01
      -2.1452146697664506e-01 1.8712689983392794e-01
      -2.3638855517103335e-01 2.0293761647808331e-01
      -5.4774378393370252e-02 -6.4211926860146401e-02
      -1.9391842235501805e-01 -6.4552141077247394e-01
      -1.0997781167107557e-02 -3.5465017836771107e-01
      8.6372636401561662e-02 -1.6019094096902917e-02
      5.1531640898945311e-02 -1.0788371418570536e-01
      3.1364914355124389e-02 -2.7382455641690640e-01
      -1.3717753767241500e-01 9.1168866504540771e-02
      -2.8016069931477122e-01 7.6748057150611880e-03
      6.0945030858804906e-02 -6.1424509094226545e-02
      2.4833960450086948e-01 2.0774026266359796e-01
      -2.2343405952125520e-01 -1.9066632632433644e-01
      -3.7177897493807351e-02 1.4953249034083349e-01
      2.0935357764470544e-01 -1.0701935501744236e-01
      8.8455476300261043e-02 -3.9715289903520516e-02
      -2.3257433614785386e-01 -3.3403539133914348e-02
      2.7609581442597636e-01 -1.9239125157076164e-02
      7.8209841079329129e-02 4.8272692899454161e-03
      7.5815737042882372e-02 2.5137142782764743e-01
      -1.4891533765461049e-01 -1.6493303966598655e-01
      1.9811660347069779e-01 1.0618689845961064e-02
      8.6029034571664095e-02 1.6855931686838016e-01
      -9.7666461280536576e-02 5.3297893421799455e-02
      -1.3272399993381426e-01 6.5718163507251020e-03
      5.5237741369792752e-02 -3.2700193890474404e-03
      -5.1933635143400228e-02 -5.2656120853051637e-02
      -1.6802559447787094e-01 1.0297473599574578e-01
      5.4704256315884124e-02 5.7372551307359722e-02
      5.2904706728918220e-02 -4.6898073259694507e-02
      -5.1381122637107049e-02 -1.2081050989441039e-02
      8.7289433124965090e-03 2.3421346491010620e-02
      -1.2203159069557180e-01 -3.9858577305313884e-02
      2.6849549919102189e-01 -2.6838736086491281e-02
      -3.9053377252826163e-02 -1.2787988480121231e-02
      -1.2324940136221660e-01 1.0355713025307420e-02
      2.1009101083500320e-02 1.7234184911438185e-02
      -7.7629757058852014e-02 1.9567141654709672e-02
      5.3075064486463347e-02 -9.9568780766475962e-02
      2.6204685956590379e-01 -3.4025008237257542e-01
      -1.9265668028706037e-01 1.6263647706363552e-01
      -1.8402639236516422e-01 7.6781253535269753e-02
      1.1360618376229967e-01 2.3224047761683947e-01
      -1.0936746902526938e-01 3.3517383894009484e-01
      8.7750763689045674e-01 3.7463128838272727e-02
      1.1426018566540762e-02 -1.9856574164329013e-01
      -6.1287157306991608e-02 -8.4007525265988287e-02
      2.1019331951959448e-02 -8.0617416504914843e-02
      -2.2166439386586032e-01 -5.2920400951926898e-02
      -3.5139164506876879e-03 1.0689769334245380e-01
      6.5574324033276284e-03 8.2438757224933282e-02
      1.5256990960987028e-02 5.7794721525671597e-02
      7.9408556576620812e-02 2.3385632235687348e-02
      2.6381106838480861e-01 5.2606701077396865e-02
      1.3223578450005183e-01 1.2685418665649445e-01
      2.3857753327824551e-02 1.8908668234094045e-01
      -2.7427670871256093e-01 -5.5910992683955232e-02
      1.1836226324823720e-01 8.7911650522368281e-02
      1.4532923821635280e-01 -1.5382319511717387e-02
      2.3166511098659920e-01 -6.1826870878874063e-01
      -3.0420290895027485e-01 -2.0972673014628976e-01
      1.3479964189121452e-01 -1.5126164682282848e-02
      -3.8679019992511948e-01 -2.2036262101678120e-01
      -1.6968174766562141e-01 -1.7700777487101071e-01
      1.8702136298559802e-01 -1.5908313438858065e-01
      1.2790600814167052e-02 -4.2358855959900169e-03
      -2.3833833161093052e-01 -1.5312580615184807e-01
      2.1329938913759885e-01 -4.0794880782553555e-01
      -4.9296979324838786e-01 -8.9061563703199204e-02
      -5.6982032778356374e-02 5.9257073749955189e-02
      2.0973293341337895e-01 -8.8103257929004891e-02
      4.5681312188165540e-02 5.5361439940010249e-02
      -3.6512175139915842e-01 -3.7169347641279776e-01
      8.7681255580469523e-03 8.1300979830949097e-02
      1.0817974414586087e-01 -6.8459417713021345e-02
      2.5693025016367680e-03 3.5846080151468514e-02
      -3.4554419983946832e-01 -8.1126672020768384e-02
      -3.5595447490151921e-02 1.6591841442249858e-02
      -5.8909456628024534e-02 -7.9954995595902939e-02
      -5.6376066782019008e-02 4.5960167872103705e-02
      3.2946229826904649e-01 4.2317256497924893e-02
      -6.9391422270423317e-02 -2.5439530907368012e-02
      -3.1914311644563986e-02 -7.6856742825544729e-03
      -1.3398970232818178e-02 1.7806825968189396e-01
      -4.4784063348617564e-02 6.9908940682582771e-02
      -2.7321158571622572e-01 2.2214906161716924e-02
      4.4962753648770913e-02 -9.6933663974223087e-03
      1.7562595085725836e-02 5.2987100745295633e-02
      -8.0069911810164526e-02 -1.3765936422625463e-01
      1.2919089294036673e-01 4.7250531930519223e-02
      1.1275975593710580e-01 -2.2721778190858100e-01
      7.4955622596134031e-02 -3.2346077652187014e-02
      -9.1375704237947275e-02 -5.9486731982819147e-02
      -5.0994299013472084e-02 -4.3413993822091924e-03
      1.6400483121978110e-01 -1.6954696117939910e-01
      -2.6534288983916587e-01 -9.8934512885226172e-02
      1.8229860782432028e-01 -1.4385204262040174e-01
      -4.1909278740467676e-01 3.6185781883887373e-02
      -1.5267297597505491e-01 4.3347473634777547e-02
      3.2340276364544035e-02 1.3866630070326878e-02
      2.7819906769966148e-02 2.5042185835045189e-01
      6.5550995769717138e-02 -5.6804193169556856e-03
      -3.3841477140094528e-02 6.7014744756381556e-02
      1.2836152890600802e-01 -4.0957834506398988e-01
      -1.1728872047269723e-01 2.0012706115321655e-01
      -1.5160279833194418e-01 3.4854713814658093e-02
      -2.2193143555814621e-01 6.6364080409244255e-02
      -1.3256955622364133e-01 -4.4029671045531432e-01
      5.1941331386195833e-01 8.8888068743221874e-02
      -7.2177027364699053e-01 1.3805399686065605e-02
      -6.8099030834149379e-02 -2.5404054185842151e-01
      2.1469383395718492e-01 -5.3526945736369380e-01
      -1.1767865667831577e-02 1.4751079181798338e-01
      -1.1601292225902540e-01 3.7002846812759678e-02
      -1.6289318168494840e-02 -3.2102706279389957e-02
      9.3836895208550014e-02 -1.3900253164451937e-01
      2.6462082760987573e-02 1.1413441302983844e-01
      4.9033420423326049e-02 -1.3949057510828305e-01
      2.4133759365419099e-02 -1.8439102505721163e-03
      -2.0948388134558113e-02 -6.5206808887073323e-02
      5.9082435041887302e-02 -7.4370687292691653e-02
      -1.8574455456664854e-01 4.5049422816624170e-02
      2.2029540984798823e-03 -1.5034382389673992e-01
      1.2088819762347701e-01 -7.2541696003449874e-01
      2.9216134123286313e-03 9.7235665184803699e-02
      8.1528317798627445e-02 -6.2356631562261913e-02
      -1.9254144497522785e-01 -3.6216992382115717e-02
      9.6422725207146662e-02 -7.3879800204397286e-02
      3.5130771347980407e-02 -9.3776982928700070e-02
      -1.7459318580409589e-01 -1.3452031669701220e-01
      -7.2043661120282806e-02 -1.3378303837664637e-01
      3.7611761051492054e-01 -1.6447478908041213e-01
      -3.1093632129168719e-01 -6.3786963104113636e-02
      -2.2664543496873080e-01 -5.4061647446559238e-02
      -6.5297487793139958e-02 -1.3371180276330258e-01
      7.7504097383825785e-02 4.8149626920083788e-02
      -2.7526218289936522e-01 -1.2991339451865194e-01
      -2.8495509272564873e-01 1.5561228723832058e-02
      3.9609530000811535e-03 -1.0063827700417220e-01
      2.1395246448398023e-01 -1.1522962526568788e-01
      -3.5747692575948753e-01 -5.4235013435556360e-02
      1.2289031970229096e-01 8.9599966733055383e-02
      1.2976447684219183e-01 1.7389774184914530e-01
      2.3999030736421334e-01 -1.1815523485637230e-02
      -3.6332766995436983e-01 -1.3565400121041220e-02
      -7.6370409790543978e-02 1.2676536110716712e-02
      2.5214058755321689e-01 2.2053380987657734e-01
      6.1447058033693089e-03 1.8294839829310938e-01
      3.0330296563338736e-02 2.1187543006941350e-02
      2.0270696267148211e-01 1.0649446104766953e-01
      1.1096686929059789e-01 1.1294123002457807e-01
      3.2119899379862468e-02 3.3344097559282720e-01
      1.6523920704030148e-01 6.8998131701348664e-02
      1.4010145785867112e-01 7.1941293045236762e-02
      2.1078176995449585e-01 5.7008897679385939e-02
      -1.0369021237556099e-01 1.5798926355569570e-01
      4.5031154840090321e-02 -8.2329604449298023e-03
      1.3107790662565669e-01 1.2629001045478455e-02
      -1.1877337523833760e-01 -1.7714570149183418e-02
      -1.5624861247936692e-01 1.6123596682529792e-01
      1.3922516599747212e-01 -4.3432657824863294e-07
      1.3268233986067773e-01 4.9090097168248388e-03
      -1.4729307234764624e-01 -7.6375096709688908e-02
      2.0397950092841188e-01 -1.2558817945250841e-01
      1.8450889622491276e-01 1.6758592390807209e-01
      -8.5279910543162064e-03 -5.1006403204352575e-02
      -1.4834758212414900e-02 -5.9848089334948250e-02
      9.2818935881842868e-02 -1.7000067018852899e-02
      -1.3925250805183539e-01 4.3443436731036927e-02
      4.1267069111986743e-01 -5.5318405173966710e-02
      -1.5042849228122543e-01 2.4103050452648853e-02
      1.7232081510047573e-01 -8.1571587232288856e-02
      5.1888676343424298e-02 1.2643535086712199e-01
      3.3431943455462791e-02 2.5960427406993180e-02
      -2.3519116591906905e-01 5.0723463826243854e-02
      1.1758744563087764e-01 -1.8322244095008380e-01
      -2.7286156365817847e-02 1.8710540505794840e-01
      -1.6968041609759194e-01 1.2320937400224977e-01
      8.9635704771920122e-03 -7.7833971135718452e-02
      -3.9050849603676219e-02 -8.1052776557185263e-02
      -8.4756111687660646e-02 2.1310158118917535e-01
      -5.1758658577124284e-01 3.8749131275977719e-02
      1.6395544636833670e-01 -3.1203845385391792e-02
      1.8085557282639525e-01 -4.9668144193126385e-01
      -2.3226232485845955e-01 7.4294646187709479e-02
      -6.8542455155462678e-01 1.9898486302798096e-01
      -4.1376700946535748e-02 -1.0428623872294869e-01
      -1.3012770333877538e-01 -4.5308186432861203e-01
      1.5138580144402367e-01 8.3363732913600649e-02
      1.4244464934122994e-01 -5.0829976232702044e-02
      -9.6968805097894017e-02 4.1490377746182451e-02
      9.4495552378555253e-02 3.8726597647962058e-01
      1.5083810628757902e-01 9.9603551972714307e-03
      -2.0001343605817665e-01 9.8469043277544854e-02
      2.1129355889865009e-01 8.3339342505455910e-02
      -9.4361552098744791e-02 4.7390829787252597e-01
      -1.3018232559000892e-01 -4.4774644352202977e-02
      -2.9947080232382559e-02 5.9024426339544370e-02
      1.3054566181513697e-01 2.2689406654627080e-02
      -1.0877719824130981e-01 2.3734289040166806e-01
      -2.7713314773076159e-01 3.9567452259060477e-02
      -2.8040159945778662e-02 1.0067918527727234e-02
      -4.7762961185720598e-02 9.6998105497205209e-02
      8.5111119295647256e-02 1.8112102608326103e-01
      4.6539474685576503e-02 7.4395541187315992e-02
      -6.1297713190061928e-02 1.5652792913725490e-02
      5.3049541059933175e-02 4.2220935846819803e-02
      1.4671778131548341e-01 1.9241741805998772e-01
      -1.3483433939210951e-01 3.0338856216997428e-02
      4.9223635349220529e-02 3.5565839061313734e-02
      1.5551141915933660e-02 1.5136015096413707e-01
      -7.3354885471741113e-02 9.6626128492500560e-02
      7.3188817919584648e-02 1.0720516994683445e-01
      8.3639633381667175e-02 8.8553253230687953e-02
      9.6535717025285642e-02 3.3347784938518872e-02
      4.8963273456814102e-02 2.2633011521579757e-01
      -1.0509108456401827e-02 5.0474191525599711e-02
      2.4800953499075404e-01 -2.2101599793482297e-02
      4.3180695739039434e-03 -2.7622823779003214e-02
      5.2353543688598118e-02 5.1819250053569115e-03
      -2.0279880280000664e-01 -3.7857134335394685e-02
      2.2519999887369582e-01 9.5569952471656985e-04
      6.5242234177422073e-02 -7.1067244081362668e-02
      -2.3040217656903748e-02 -2.3662471705344532e-01
      6.1979834495971770e-03 1.1161259370026070e-02
      -3.2030121856251009e-01 4.4984387048029257e-03
      -1.9333403157280254e-01 5.0349644312283705e-02
      2.3745421018928081e-01 -7.4054340659489973e-02
      2.3210154338364572e-01 3.0814784472469891e-02
      1.4969662239478451e-01 -3.5489001056331154e-02
      1.2994736431143492e-02 -1.3544015815506873e-02
      1.2201745464490221e-01 -1.6758627088168396e-01
      7.2789523275399184e-02 -8.2852047509480067e-02
      1.8469834276901886e-01 -7.6392084865013477e-02
      -2.0907948060975581e-01 -1.2516908411845765e-01
      -7.4050167830608263e-02 1.2887976927600306e-02
      2.5903914116744840e-02 -4.4924551793753084e-02
      5.0271848698840806e-02 1.6761571896394316e-02
      4.5655489360612499e-02 -1.1725613200307822e-02
      -1.6195534177882387e-01 2.7099382492871815e-01
      -1.5954971356452907e-01 2.1445923579283155e-02
      2.7559030624356134e-01 4.3655951706411469e-02
      -3.6786607415307516e-03 8.5702750583891485e-02
      4.4308278714687475e-02 1.8983970819050382e-02
      2.0262687765808174e-01 9.6668548421718153e-02
      -1.8322930732948328e-01 2.7341593766290466e-02
      -1.3951587976258828e-01 3.5801188846699174e-02
      2.4603886105645515e-02 -8.0132975713724269e-02
      3.1017951894359963e-01 1.6187677457905991e-01
      -3.5418242834719638e-01 3.6543584168317690e-02
      9.1013929739119821e-03 -2.8830911130226889e-02
      -7.2749631532204900e-02 -1.7815589267666659e-01
      -4.0784619600353136e-02 -1.7299544532978366e-02
      -1.0508327651637371e-01 -3.5063919224693871e-03
      5.7375479193203412e-03 -6.1029259562093402e-02
      -5.8334538376102620e-02 4.9830321616429179e-03
      9.9001106740633199e-02 4.7956528358269416e-03
      1.8210458223853827e-02 2.8831754525778262e-02
      -2.3671940427275762e-03 -3.4052898728437753e-02
      -5.3908098559112369e-02 7.5644140284689909e-02
      6.6808473163957410e-02 -2.1732165731290141e-02
      -9.7066466266280738e-02 1.0384922891924782e-02
      -4.9347475002944605e-02 -2.2935675987299498e-02
      -1.2393224078783535e-01 -9.4853297444114998e-02
      5.5266499943795580e-02 -4.1562194428720146e-02
      2.1237326986102134e-01 8.3219121807748056e-03
      3.6886595198466284e-05 -2.1818183080491469e-02
      -1.2135147950220575e-01 -2.8905346968490633e-02
      -1.0408582865534247e-01 -6.0798754631334370e-02
      4.3274347459066179e-02 5.0652402114070745e-02
      1.0648245945673103e-01 3.5326272339408646e-02
      -1.4394965915015797e-03 2.9781475990207529e-01
      -1.0488108993786348e-01 -3.2637080699297681e-02
      -1.4328570885993677e-01 -2.4037873344823272e-02
      1.2349000214218404e-01 1.4898732903131994e-02
      -3.1502177921011332e-01 3.6108046436624719e-01
      -4.0204855601710154e-01 -9.3758008863556203e-02
      3.2769835984331319e-01 -1.1831749889880628e-02
      3.3288402664523251e-03 3.1180431662368471e-02
      -2.7516700114928322e-01 4.1961123332194905e-01
      -4.5938839430922729e-01 -2.4590975452670530e-01
      2.7268541743740587e-01 6.2721001219098793e-02
      1.6374536072015822e-01 2.2230318822459461e-02
      6.7991589818071060e-02 -2.4248459837959449e-01
      -3.1640432419477060e-02 7.0899921577635500e-02
      -1.9968823609876141e-01 -1.8173224323284342e-02
      -2.3218159091942227e-02 2.5106240238626027e-02
      1.4733135046915780e-01 -2.4964826941654575e-01
      -7.9124846464127943e-02 7.9474751599021259e-02
      -2.7853273859228178e-01 -7.1473760577164133e-02
      6.2348846513649324e-02 4.4834679621792509e-02
      -4.4920299690078902e-01 1.4149599289961337e+00
      1.9391515907766514e+00 -1.6313114002560686e-01
      5.1245515533035990e-01 -1.7145812440602839e-01
      2.2857184301279379e-01 -2.3242474740360181e-01</_>
    <_>
      3.7777754835468441e-01 2.4363454476743943e-02
      1.5975127244224588e-01 -4.2870105346241649e-01
      5.3219174664319975e-02 -7.5673395005505451e-01
      -1.0046123698891680e+00 -4.5072043264727864e-02
      2.2420631059209412e-01 -2.1634351927720247e-01
      -1.5329381678641401e+00 -4.2752720871593208e-01
      8.8301692147140370e-02 -5.5394782881163718e-01
      7.7489383404219003e-01 -2.2684965981131594e-01
      -5.4000891986054378e-01 9.3838455462361747e-01
      4.3848722650795047e-01 4.4404870985542261e-01
      3.6640520619703915e-01 -2.2408690236913162e-01
      9.2468745284563181e-01 -6.9533242630637537e-01
      2.4140498404869110e-01 -1.3988897497644678e-01
      -9.5697110815094510e-01 1.4870830836013688e-01
      1.2154567267568213e+00 3.3655919011948393e-01
      -1.1542232389859006e+00 -3.5103753737729879e-02
      5.2413673336077349e-01 2.3464254687033343e+00
      5.1354754553119486e-01 3.5563534063067226e-02
      4.2687842112069871e-02 8.1374797780739672e-01
      -1.3553731757070695e+00 -2.9995319288593819e-01
      2.1128533579749989e-01 -1.3032498459154210e-01
      -2.9723357220570557e-01 -1.8209453388681002e-01
      9.7152381618931961e-03 1.7909885348313312e-01
      -1.3652578147556818e+00 -1.8292776177069203e-01
      1.1938780523939278e-01 -1.8428996649571039e-01
      2.0791917107280669e-01 -3.2715997723501845e-02
      6.3988687642017358e-02 -1.5854796917501221e-01
      2.4129525003659538e-01 1.5329096285313394e-03
      -1.9141542679584830e-01 -1.8964804917186084e-01
      -1.4290466731339055e+00 7.0905590517958889e-02
      7.9326636627880265e-01 -1.7319414982536363e-01
      -7.6405219716185108e-02 8.7190369334855009e-02
      7.1682849944138471e-01 -1.0241083516762740e-02
      -5.9153840107384181e-01 -1.7696585977250154e-01
      -3.9586456118354624e-01 -5.9761543963227526e-01
      -1.5593061953246279e+00 -4.5823239174508668e-01
      -3.1034772066763777e-02 5.8869205345423314e-01
      1.5448527269838992e+00 -4.6745721563804093e-01
      4.9604653783940988e-01 -2.3714327065046828e-01
      -9.1696226553320359e-01 -2.7924855579271671e-02
      -2.1497820323945149e-01 -3.7444134142389168e-01
      2.9203307588769950e-01 1.4107925729123297e-01
      -2.8608327570478331e-01 1.0843854622758921e-01
      8.4714475115620358e-01 2.4717550525808658e-02
      4.5391378883738731e-01 -1.1897109830477030e-01
      8.4756794699847071e-01 4.2558619295317168e-01
      1.2070541228236456e-01 -3.6118326616319765e-02
      -2.6856572488151226e-01 3.0669164825498324e-01
      2.6886954731527346e-01 -1.0536001697714468e+00
      -2.1221486252149271e-01 -4.1222428352659651e-01
      5.5797801517406785e-02 -8.4618909439641476e-01
      -3.9590539400138774e-01 -1.3402334650824552e-01
      2.6003352258999562e-01 -2.1152694712512732e-01
      -9.6889618371768127e-01 -6.4879781795285441e-01
      5.7048463141554129e-01 -1.2886218542216812e-01
      3.6793931767182780e-01 2.8065361663121774e-01
      -3.3951429578816400e-01 -5.5672486018557055e-01
      8.1197459236819050e-02 7.5438341312636187e-02
      -2.1076958074238625e-01 2.5508371273602021e-01
      4.3848279446797139e-01 2.1724376241813573e-01
      1.1040343147270265e-01 3.4155155195787497e-02
      5.9561790433827200e-01 6.2341131906942696e-02
      -6.1756147048427013e-01 1.7063604111489692e-02
      5.6566189368058084e-01 -8.2859877098185285e-03
      1.1633482909862540e-01 9.0668401787063113e-01
      6.1932724212849377e-01 -5.1694463133476795e-02
      1.7955806380885037e-01 3.6438237947892499e-01
      9.4039935493107252e-01 -6.8800573765078560e-02
      7.7729626488839465e-02 -2.4678742626344410e-02
      -1.0946308052873590e+00 -4.8097510274769256e-01
      -4.3292626339079421e-01 -6.0422754897298245e-02
      -1.4983998267542258e+00 -2.9606972206614679e-01</_>
    <_>
      -1.0250715890842844e-01 -3.2172200600516801e-02
      8.2195493745357687e-02 6.4792898139836810e-02
      -7.9890728115338941e-02 1.3416785348835220e-01
      -1.3381850384029234e-01 7.8405284525752839e-03
      1.4747425429055944e-01 1.0554013278036223e-01
      -3.3798746780066440e-02 -4.4982858028499570e-03
      5.4507294777292589e-02 -9.1459868599495217e-02
      -1.8223475384397825e-02 3.7313460464568054e-03
      1.0886416456545676e-01 5.4977969025678142e-02
      -7.0502809357314997e-02 1.5147622804118011e-01
      3.2759296534040572e-01 -5.4980327067883274e-03
      -1.7596284175750157e-01 -5.7928495298698680e-02
      -3.3150052773353498e-03 6.7200672473472778e-02
      1.8246753366857124e-01 -9.9991406109270070e-02
      -2.4893407760508340e-01 -1.4928469984481665e-01
      -2.0164125377194305e-02 6.8643557113242465e-02
      8.6541725210512524e-02 1.0728861044404710e-01
      -1.0769654512042774e-01 -1.6447678825517945e-01
      -1.0398730303813601e-01 -1.1198501564531495e-01
      -4.3314760387904473e-02 3.8013857300282707e-02
      -4.5120742766067989e-01 -2.9071947463578030e-01
      1.4020264174940095e-01 -9.7594392898951873e-02
      -8.3665417014385290e-02 6.3677304866742446e-02
      -1.5884053873942158e-01 -3.7304253347760351e-02
      1.5845340598545275e-02 -8.9858475226986312e-02
      2.3254941193759482e-01 -1.5578362247682995e-01
      -3.4396017896524561e-01 -1.5608081421219019e-01
      4.0140871994631500e-01 -5.2194746867523033e-02
      -9.6625548070249881e-02 -5.7547218691564969e-02
      -8.3646756356788587e-02 1.4730233245808652e-01
      5.3857866178405212e-01 -5.1387681172363267e-02
      7.8841266646910574e-02 -6.5922327739802783e-03
      1.8788524772927551e-01 -8.1189724414027775e-02
      -1.4512622440411183e-01 1.3048646588996715e-01
      2.8625297876139727e-01 4.0141756452959337e-02
      -2.8096568809009942e-01 -1.3398665210308094e-01
      -2.2956176926022639e-02 1.0801701049295558e-01
      -4.3259323448057170e-02 8.5558043298715178e-02
      2.8137938239942822e-01 4.1630184167948378e-02
      2.7337576486975390e-01 2.1122706647267145e-01
      -2.0511347672633223e-01 1.3551698954866306e-01
      -7.8312133835174561e-02 1.8616638398275770e-01
      1.3071590015335841e-01 1.9715615036746975e-01
      -5.7452928445709171e-02 2.0609597196639351e-02
      9.7382393420968980e-02 -1.8396463157046550e-01
      -9.5329917985405424e-02 -1.1133491443626786e-01
      6.0565395060966663e-02 2.5437828826593839e-01
      -4.1163437387608448e-03 -2.7676157813574009e-01
      1.1762756445964057e-02 -1.3809576918310837e-01
      -9.7071946351562605e-02 -9.4654106380679850e-02
      6.1201426923575171e-02 3.0413627584987914e-02
      -3.5903014725840218e-02 1.1327294355931838e-01
      5.9307747198729992e-02 1.7249772830157939e-01
      8.3570864227332509e-02 7.6064326435507992e-02
      -8.7616444391566434e-02 -1.0736161167720533e-01
      9.3480866637857554e-02 4.8310604631050288e-02
      -2.7339673891081998e-02 5.6988710638468464e-02
      -8.4854609581012944e-02 1.6399821472058068e-01
      3.4171099850783780e-02 1.0799110038331500e-01
      2.8171474653008355e-01 1.0080131162366905e-01
      -6.9237205515567363e-02 -2.5816079420626695e-02
      -6.9637614557950117e-02 3.0110664210351860e-02
      1.4270752956510457e-01 1.0195090636422122e-01
      6.2862476789559529e-02 2.5337826699068128e-03
      3.1235479303062252e-02 -1.4912753210350646e-01
      -6.5889957570787680e-02 1.0900405849105368e-01
      2.9962881651873819e-02 -3.7034687824545845e-02
      -7.2952148799562203e-02 -9.5053048674295218e-02
      7.7223868622497291e-02 9.7179919886487609e-02
      3.4126530441651641e-02 1.5550984991269212e-01
      7.1396957197590455e-02 1.9447370298691032e-02
      1.6299237832547042e-01 1.5570234270461680e-01
      -7.4113442671885396e-02 1.2558131367445845e-02
      -5.1607414158753355e-02 -1.1658247753698071e-01
      1.4648495565382333e-01 6.5948938083294120e-02
      -1.7989872200134002e-01 7.0761140276552788e-03
      1.1152806425644560e-01 2.9992249047042514e-02
      -2.0474907607435443e-02 -1.0265762903917448e-01
      -1.0051938772823329e-01 2.1555713960819536e-01
      2.2069113608536577e-02 -9.2094188239681601e-02
      1.1878792607495687e-02 -7.7724618073076013e-02
      -1.9884887242248861e-01 -6.3048932875843358e-02
      1.6769317293517749e-01 -8.5373106213615060e-02
      -2.3300407318575501e-02 -3.2581672842446029e-02
      -2.5229594050896187e-01 6.1374083592155008e-02
      -1.3429710341922441e-01 -1.4010170377594702e-01
      -4.4862088302421520e-02 -1.8152141274307479e-01
      2.0317728178542979e-02 5.6843630123915023e-03
      4.3093931788293349e-02 1.1991056627510828e-01
      2.3335517336822394e-04 -2.1001960708016389e-02
      1.4830024983478501e-01 6.6843032427791993e-02
      4.7036285312975418e-01 3.5465196766467849e-01
      -1.8070578961017722e-01 -3.9865494438668443e-02
      -1.3010435757539157e-01 -2.0589979297132274e-01
      2.7137944251579482e-01 1.3644087471806812e-01
      -8.5041714692647360e-02 -8.4728496436606862e-02
      -3.0721606082393016e-01 -8.6018511094702793e-02
      -1.8642993747188036e-01 -2.2680791942147474e-01
      8.8100286331342925e-02 -8.9727084857195813e-02
      5.4847301040217844e-02 -5.6262211326985723e-02
      -1.8444918859099257e-01 -1.3685989499074928e-02
      -4.2331289190463506e-01 -2.6798996278585174e-01
      -3.8902102292051299e-01 -1.8285829579118615e-01
      -2.1903590058511738e-01 -2.5776353363910920e-01
      3.9239947287265203e-01 -5.1439231462029250e-02
      -1.1444044068246242e-01 -2.1180408334269457e-01
      5.5072115548709610e-02 1.5969656079224234e-02
      4.3685396552688333e-01 3.1980791699292843e-01
      -3.5220954605650673e-01 3.3914374211228150e-02
      1.0409646872228950e-01 7.3420503640547211e-02
      6.4977928916830796e-02 -1.9670452452907258e-01
      -1.2352073374379600e-01 2.0577052287526018e-01
      -2.5684604305828387e-02 1.2104919985013955e-01
      -4.8018077550739856e-02 -1.0528619175603014e-01
      1.3481563413981412e-01 4.7557424865927858e-02
      -8.0001517220480697e-02 -1.0911065550936193e-01
      -6.5864707505568679e-02 -1.0455849459585438e-01
      -1.6227613717707284e-01 1.9641462838970658e-01
      -4.5644703307394317e-03 -4.7039175833340947e-02
      2.0215741637491690e-02 9.4995451022682018e-02
      -4.6619844405093227e-03 -4.6667704402462915e-02
      1.6789451655313346e-02 1.4630077214992617e-03
      -7.3287208942415749e-02 4.8918452544952772e-02
      4.5136142954631919e-02 6.1147133569690516e-02
      8.6443682750067391e-03 -6.8830589277503323e-02
      1.7968381601524530e-01 1.4809828685357360e-01
      4.6710582512963970e-02 -2.3831459186432726e-02
      -5.6688853572260091e-02 9.1175661620328894e-03
      1.2925648292167108e-01 8.1683680177079040e-02
      -3.1902205182053181e-02 4.4557011569038567e-02
      -2.9144130316563054e-02 1.1089746462393013e-01
      -7.1518849265648943e-02 -1.2453630442506369e-02
      -1.8792830304673508e-01 -2.6660406046324598e-02
      5.7142655381965057e-02 -3.5513932827947750e-02
      4.9638514212755239e-02 -5.6865913868418869e-02
      -1.5448767365200983e-01 6.7583421791347950e-02
      -2.9608979346130264e-02 4.4629615005826372e-02
      8.2090606793365259e-02 1.2031241604913930e-02
      1.1078075379899308e-01 -1.7191489859017767e-01
      5.6372315362536007e-02 -4.2502696339521563e-02
      -4.9056674228717109e-02 4.1655191497842477e-02
      3.8431992849184511e-03 -7.2139970806193471e-02
      1.6933745703021119e-01 -1.1329113100313551e-01
      -3.7616927349267984e-02 -4.6575298517924101e-02
      -6.6292899731863544e-03 9.9617420996618328e-02
      -1.0825749362761100e-01 7.7672215437438602e-02
      -1.9773823719346792e-01 -2.7540720955520410e-02
      1.5835001096498474e-01 5.6455852869847153e-02
      -5.9656565636005708e-02 2.3695833640462870e-02
      -4.0937233209126900e-02 -1.2150697614947092e-01
      -8.6977544149898361e-03 -1.8411803556882775e-01
      -1.3460729296012003e-01 -3.8151072173720310e-02
      2.0640250781785271e-02 -2.5001427433962293e-02
      -5.1016149219567160e-02 4.8821554337922455e-04
      4.5248840721963071e-02 3.4902389450898706e-02
      1.1428574616446582e-01 8.6018530248500633e-02
      -1.9829180617444894e-01 8.8006341729486695e-02
      -1.2485123716501295e-01 -3.0013191244490249e-02
      2.4730036316785806e-02 -1.0868538995430801e-01
      7.5095346828484177e-02 3.1151304923613445e-04
      1.1075915850853491e-01 -9.5132846452948241e-02
      5.7675934913258023e-02 -5.1976388741145473e-03
      6.5698979710091454e-01 1.5493905792192321e-02
      -2.9319119377239283e-01 -2.3420047884880435e-01
      -1.7079684992598466e-02 9.2271764960433780e-02
      -3.6425606520437109e-02 -1.1058736575395002e-02
      1.3221832127499999e-01 3.2007061023838879e-02
      1.9921953366239131e-01 7.2240765565428980e-02
      -1.6834665680243624e-01 2.4608048289247095e-01
      1.1847472714083394e-02 3.3193178729108881e-03
      3.7155563674318337e-01 7.7758541063476003e-02
      -1.7462815474433652e-01 -1.3531820242767190e-01
      3.4582559141143041e-02 -3.4352471655638522e-01
      -1.2894765480420267e-01 -3.1952709857318590e-01
      6.7129831755894723e-02 2.0790466052080234e-01
      -2.5316347270491507e-01 5.2016416156963549e-02
      -8.9365085396249724e-02 1.4360918725291943e-01
      7.8634568613840050e-02 -8.1727189927657221e-02
      8.7167749644183223e-02 4.2681472432713113e-02
      -1.1452195990505527e-01 -5.7187208961088254e-02
      -8.7098301743753728e-02 -2.5153552498493903e-01
      -4.7977070230978545e-02 -3.9988059989095335e-03
      3.6272158804050512e-02 9.1603600676503846e-02
      -1.4075411376017696e-01 -2.8891973461185442e-02
      1.3600850818105156e-01 -3.6802284753356959e-03
      8.3949318812969381e-02 -1.1654284279070616e-01
      -1.5092656108975558e-01 -4.1441784048347953e-02
      1.4256551757841051e-02 -3.3478682734977214e-02
      9.1144234799761442e-02 -4.0150025666889265e-02
      1.1341526421000170e-01 6.9246254517817768e-02
      1.7071209935037421e-01 -1.7464286365874654e-01
      2.5455429210073890e-02 2.0699247789387167e-02
      -1.4011778589231853e-02 4.0208778574346640e-02
      2.0439900865686481e-01 1.3504734048241859e-01
      -2.5487477677099517e-02 1.7574954120343436e-01
      2.2009948357644052e-01 9.8859930044848596e-02
      3.3389480900984070e-01 1.8952521302780653e-03
      -3.7048059333258117e-02 3.4849784410589495e-02
      -1.3849057385486615e-02 1.0032347230597755e-02
      -2.4048541407874829e-01 -2.1736160674370816e-01
      -2.1063528865196014e-02 5.0490296569734139e-02
      -1.4406587611622645e-02 -1.0932231162843672e-01
      4.7591017457033709e-02 -9.8623851274268981e-02
      -3.7660833521305664e-01 -1.4878210876170395e-01
      -5.3348401119712946e-03 1.0975213522728772e-01
      1.4781582218090419e-02 -5.1306340737812935e-02
      -2.3975279567399652e-01 -1.5846982642657115e-01
      -1.4218544143041460e-02 1.6353399681216657e-01
      1.6213793117779909e-01 7.3372593840598702e-02
      -1.9680875048284582e-01 7.2922063607121475e-03
      1.4955919500960537e-02 4.1223942298494742e-02
      -4.8189590012702926e-02 5.0675255506329453e-03
      -6.2310572359463114e-02 2.2324714331468504e-01
      -7.7563052281814954e-02 6.5051240898772580e-02
      5.1095638892396412e-02 -3.7679921764413440e-02
      1.7457212670784819e-01 1.8668883793679339e-01
      -1.1364841218820892e-01 4.1641844255088711e-02
      2.4963015234234692e-02 1.8212935649439715e-01
      -6.8576218644057201e-03 3.8052292819958825e-02
      1.8772076455077205e-01 1.8736265652956002e-01
      7.4239537979282746e-02 -6.2709707459632502e-02
      -1.0787803954552737e-01 -3.1793933467024120e-03
      4.7643735035689042e-03 2.1791560345594344e-01
      -5.0227431235273928e-02 -1.2264552880251804e-01
      3.1449931677935578e-01 -8.6434955148845596e-02
      -2.5828245883368822e-01 2.6470014337606408e-02
      1.8265940209765835e-02 1.8415098868787283e-02
      6.9252153772103075e-03 1.7320125533487232e-01
      -6.3682655494745777e-02 3.8518268861456428e-01
      1.4299717246990234e-01 -2.9869678655286055e-02
      1.8564701772357092e-01 -2.2399927649325219e-01
      3.3511348464843593e-01 2.2350084133903100e-01
      -3.3267143172761826e-01 2.3784053499180061e-01
      2.1867157601453770e-02 2.7449274286156755e-01
      2.7138689328070814e-01 1.4690438318382723e-01
      2.9947640618972282e-01 3.2126868167925304e-01
      1.8957951365234524e-02 -2.0693247691797475e-02
      -4.4442910616315728e-01 -2.8689058096711290e-01
      1.2203694889562798e-01 4.8917876613053557e-01
      -4.3966384815224684e-02 -1.7788037612857735e-01
      1.4388022697783963e-02 2.1034235675157827e-02
      4.2761104446549084e-02 -4.7576717431322781e-02
      -3.9986895933466604e-02 -5.4423963994827733e-02
      3.9644947557907671e-02 7.3176496635133759e-02
      1.7103817647328275e-02 -1.2595859271274490e-01
      2.0485191071987419e-01 -1.4070742127231013e-02
      -3.5727588257215927e-02 9.6504924199741784e-02
      -1.9442098222804557e-02 5.7607453658166344e-02
      -1.3098558631732371e-01 -5.2602522085580375e-02
      1.1618905071886247e-01 -9.4812991869762081e-02
      -1.0422823734352370e-01 -8.6768661682469855e-02
      2.9449053803027661e-02 -1.2839185810885384e-01
      5.6929816499517137e-02 -4.8644663594849591e-02
      -2.0373834622848658e-01 -6.4120368802949759e-02
      1.5803499658367354e-01 5.9735355565008037e-02
      1.5458188878782723e-02 -6.3854898964978798e-02
      5.3085308382181828e-01 4.4568055073628704e-01
      1.0327851248103315e-01 4.2427091266045858e-01
      -2.4221392831458544e-01 1.6118751729153072e-01
      5.4868266337086469e-01 -4.2610206637353161e-02
      -3.7076199374250013e-01 1.3950015075005182e-01
      -6.7353263334094818e-02 -9.5518805385128150e-02
      3.5712882215893532e-01 -1.7643000459535982e-01
      -1.0460246258652589e-01 1.5248707798004454e-01
      -4.0659826388447146e-01 1.8602618757240239e-01
      -2.7510312404386000e-01 5.6880150675945829e-01
      3.6100538185281097e-02 -3.2797785216372811e-02
      2.5116596523654244e-01 2.5174143798434667e-01
      3.2021566349301189e-01 6.3255883625304002e-02
      1.2068553437186867e-01 7.8542632207858051e-02
      2.4170973579098606e-01 -6.7429200955168274e-03
      -2.5985855770507754e-01 5.1944244699967623e-01</_>
    <_>
      3.8770606023021076e-01 -7.7978017722946369e-01
      -1.0870959020073403e+00 -1.0744500537463413e+00
      -9.8207399388581884e-01 1.5528101507162104e-01
      8.0038421188900533e-01 -6.0297251239681215e-01
      6.4472700773943303e-01 4.7487887115715555e-01
      1.1513617765537201e+00 2.7543007805348263e-01
      7.7720484377626756e-02 5.9718328268933363e-01
      1.4909665338440869e-01 3.9780451878149470e-01
      5.9191815127326186e-01 7.9315222981467004e-01
      -8.6556745380962530e-02 -1.0245620449005211e-01
      6.5345322931254646e-01 -8.6051813775975650e-01
      3.1122226362228389e-01 -7.3280743840002938e-01
      -5.9781009672677243e-01 -7.1464219973307164e-01
      -8.4301461236817121e-01 -4.4099793009234239e-01
      -1.0107485963757143e+00 1.2186359948383431e-01
      -9.1553428279341809e-01 -8.5240385873642843e-01
      8.9878746451713420e-01 3.7590471943179843e-01
      5.7854273832056757e-01 -2.7473487949007069e-01
      4.4663158212654469e-01 -3.9396376937878402e-01
      -1.1123769158691096e-01 2.7065053147538803e-01
      4.4007464474394065e-01 -6.7384693105436433e-01
      1.5469340717923266e-01 -3.3428540329007533e-01
      5.1274898046323114e-01 9.2173055507057167e-01
      -8.9786101710095700e-01 -7.3676550823299403e-01
      -3.1467267171592261e-01 -2.2883890874894117e-01
      -8.2653063338039912e-01 -7.3279296487840512e-02
      3.0187893660878073e-01 -7.6911229787060398e-01
      -6.0649901781841695e-02 1.4133273731972257e-01
      -4.8601244812864408e-01 -5.3246693414276558e-01
      -4.7901602755476036e-01 2.2911726579683128e-01
      5.4150229070199518e-01 -6.2920530337130343e-01
      1.4643133642962214e-01 4.7242800637010884e-01
      8.0823185317949042e-01 -7.4295141275305288e-01
      7.0829980565591102e-02 -2.2995487620411426e-02
      8.9333931300526548e-01 4.8017137035103741e-01
      -4.2874761142773127e-01 -4.2951556350355363e-01
      -4.5040444545570574e-01 3.0068007497445465e-01
      6.1742782425949483e-01 8.4957213326474590e-01
      -3.9975484910421738e-01 -1.2779669797791726e-01
      4.4849210138632453e-02 2.7539748067002262e-01
      -5.5868777505378864e-01 -7.9012683518509830e-01
      -1.2345026036714771e-01 -5.5548342428562403e-01
      6.2804709816318116e-01 5.0196030548618864e-01
      -5.6579850946931709e-01 -8.2368796442218872e-01
      1.4631057050525281e-01 1.6340317154897940e-01
      -5.5469041131189500e-01 5.5046870577711726e-01
      5.3468881268476043e-01 -4.8846141844130436e-01
      -2.9053437265273896e-01 2.9756302745606822e-01
      -2.7038729772505515e-01 -5.4772640515278448e-01
      -6.9212904975844602e-01 2.5511034613142008e-01
      -1.8019062795536547e-01 -7.9834258240077879e-03
      1.8183100298502414e-02 -5.8440658739125373e-01
      8.4755687465148621e-01 -9.1306878744940956e-01
      -6.2425469772511721e-01 2.6872364056844134e-01
      4.2745288656753117e-01 6.0841122609629442e-02
      -2.1845540135415875e-01 5.3934762749001997e-02
      4.2115432889747412e-01 -5.7740354999295740e-01
      -7.0058091122924970e-01 -1.1176617705214724e-01
      -8.8151423817053076e-01 -1.6997964698574272e-02
      2.5331981803853526e-01 7.5527149712785291e-01
      4.0737994700016339e-01 9.3441113126093642e-02
      -1.2738277759497021e-01 1.7165465880457198e-01
      -4.2562303666269946e-01 -2.2111060071340674e-01
      5.7389785210754385e-02 3.3484242288362309e-01
      5.0345740709137787e-01 1.8565262161329119e-01
      -6.2628462388504347e-01 1.3940954499742393e-02
      -9.0108565139486618e-01 -8.0391062890636844e-01
      -2.6849122572267292e-01 -6.0196903794189460e-01
      -4.7317659811250656e-01 -1.2575571753517382e-03
      2.0348388298917852e-01 2.7977050378539342e-01
      -3.9081713718803934e-01 -7.5646042842353145e-01
      3.0163667446496967e-01 4.1626315588241192e-01
      -9.5982351523417109e-01 -8.0967777106866146e-01
      8.4162406830680081e-01 3.8788426691318761e-01
      -2.9508882076936793e-01 5.8219756922884447e-01
      1.3156360542324652e-01 2.0500452119300414e-01
      7.1126130141429422e-01 8.5037705762426929e-01
      -2.2606364433941645e-01 -6.0079760466693022e-01
      -9.0243573004871638e-02 -2.4192043168683994e-01
      7.8040783781090062e-01 1.0226811330066939e-01
      -1.1188249621384305e+00 -6.3715812281693107e-01
      1.9181503268448624e-01 -1.6133385915322651e-02
      7.2073897780019247e-01 -1.0315037235534581e+00
      -8.4481786478294829e-01 -4.0844546236646212e-01
      -9.9453710103128889e-01 -4.5951857290854431e-01
      -8.5081707768618353e-01 3.2447547661532733e-01
      2.1107247863609369e-01 4.8317989265142774e-01
      -9.6583878047197605e-02 9.2661490522066425e-01
      5.2355614842731790e-01 8.4097497288192435e-01
      -7.3224172628345158e-02 -2.0155619769838257e-01
      5.2312281691815166e-01 7.7235717980457574e-01
      -6.7547306026373455e-01 7.3532528157409405e-01
      8.4152159756307343e-01 4.4299167846179777e-01
      -6.5029378465828913e-01 9.1945482840788950e-01
      2.8759146222963350e-01 8.6856370772001790e-01
      -9.3397382831055586e-01 -3.2387332027084631e-01
      5.7327315867668260e-01 1.3472588366731955e-01
      6.7670614016997710e-01 4.4311764816620614e-01
      1.0589054804622395e+00 9.1113521539501952e-01
      3.1937898939886966e-01 4.6915792268565720e-01
      -5.8207525143026062e-01 -9.4727611566641956e-01
      -6.0287682228031592e-01 8.4991747221761071e-01
      -5.8362768147477884e-01 5.9914130147634082e-01
      7.1622189806775927e-01 2.3709664979546102e-03
      -6.8001298585781189e-01 6.6402880798160036e-01
      -6.8175014736427231e-01 4.2267679134000991e-01
      6.3941659905548587e-01 -2.2031535440944386e-01
      5.3498784505052133e-01 -8.3850260536293664e-01
      -3.0668616922889247e-01 7.9213149489891754e-01
      -6.2900338103396081e-01 -4.0528517408400416e-01
      3.7326635760974719e-01 -3.5581535263277253e-01
      -5.0419288939656781e-01 3.8639628810229548e-01
      3.1407875507566574e-02 -9.8777172682032368e-04
      6.6307904949754781e-01 2.1226307355386756e-01
      2.2847137738323275e-01 -6.3497498618063786e-01
      3.9065631433290909e-01 -9.4038925577794130e-01
      -5.4736142645649000e-01 3.6603341006053081e-01
      5.6514570716234037e-02 -2.6066162722761477e-01
      -1.0310649329133157e+00 -8.1445209247594275e-01
      -2.3834508560997694e-01 1.3474288134995513e-01
      6.9374068679962153e-02 -4.0315466887319934e-01
      3.5804013670898810e-01 4.5298312868741197e-01
      -8.5863130538935395e-01 9.8231920200590794e-01
      8.2434493961616162e-01 -8.3409614699322354e-01
      4.4197320349160479e-01 -4.6382733426734546e-01
      6.5319418368512350e-01 5.7513766392377619e-01
      -7.8625942152147854e-02 -1.0158738136267295e-01
      -4.9196274264926265e-01 -3.1203706851462987e-01
      7.7240842577608548e-01 6.7202854608102047e-01
      5.0335522699457491e-01 6.0722299957676862e-01
      4.8582802487143312e-01 1.1364375793389736e+00
      7.7474859220716852e-01 6.5022949681102449e-01
      -8.1370991947866211e-01 4.4555832054896022e-01
      -4.0643726743027292e-01 -9.3459210131018825e-03
      1.0296420194988028e-01 -5.9247872254402711e-01
      -3.5069405541912607e-01 -6.7064048540016330e-01
      2.1599627663733653e-01 4.7439517871860036e-02
      -4.5240549957296838e-01 -1.7185969178311544e-01
      -1.2564655248060014e-01 7.7401504565975288e-01
      -2.4265462022968065e-01 -1.5472442069282291e-01
      3.1245016208975612e-01 5.2710964065504118e-01
      3.2341274777784307e-01 -6.9467505001465235e-01
      1.0190575865137108e+00 -4.7442058217162392e-01
      1.7708148935718071e-01 -2.1215621302126128e-01
      -4.7897962370819708e-01 2.1967943241032561e-01
      4.0462143457891714e-01 9.1128926423068302e-01
      -9.2703742911855147e-01 1.0076571877425589e+00
      1.2696145256044661e-01 6.9764552346781666e-02
      3.1978452482346997e-01 3.9759495895603963e-01
      7.3377812700866088e-02 -4.2479387579228489e-01
      6.3810084858934790e-01 6.2275318134399604e-01
      -6.5980652017126629e-01 2.5913294925113983e-01
      4.5383620912935868e-01 -2.4133918348313274e-01
      3.6065245882125174e-01 -8.3972246208719803e-01
      -4.6264358436221326e-01 9.3365377277722914e-02
      7.6632783585686892e-01 2.9064870182355101e-01
      4.7378569609159243e-01 8.5938360136017009e-02
      -4.2979033640886993e-01 6.9770572243672238e-02
      -3.2566319387002879e-01 -6.7298749901794142e-01
      8.0651897212322254e-01 -3.4686112677584419e-01
      2.9990561686590023e-01 -2.1811639428396773e-01
      -3.4796830063738482e-01 -7.3931384662362409e-01
      -2.7679984002244051e-01 -9.7165307755328834e-01
      -9.1262963299411948e-01 2.2231830695834923e-01
      -4.3266624586415198e-01 -1.4558968984480727e-01
      -6.3507371416087277e-01 -6.0734015318020163e-01
      6.1992090061397676e-01 -4.9523429471509045e-01
      9.9769436592328098e-01 -1.2623648114960578e-01
      -2.5982300968133953e-01 9.4613890977573323e-01
      9.3639640971009619e-01 -5.3463868227766420e-01
      -7.7641749272937177e-01 7.1003020083869706e-01
      1.4686301828798531e-01 -9.1206136852659481e-01
      6.6858162949565469e-01 6.5323255006124892e-01
      -7.9500413395314673e-01 -9.4745686400192586e-01
      -5.0500248937334447e-01 -5.1083717698918940e-01
      -9.7414430705544541e-01 4.8334416690475202e-01
      8.9752648470195528e-01 -8.2099720289933042e-01
      1.1136701266441019e-02 -1.9467865334476245e-01
      2.6809912669588648e-01 -3.3931654086708361e-02
      6.9692474652727443e-01 -7.1522357739090978e-02
      6.4178212563293724e-01 4.7135465515788721e-01
      -9.6175164199987551e-01 4.6381538900452973e-01
      4.9818367786596834e-01 1.0614028051541011e+00
      1.1916913332906935e-01 9.9942309374397659e-02
      -2.7924912862706736e-01 -2.8373677134441011e-01
      6.8705574332137098e-01 4.9511465964029083e-01
      -4.6471953046039954e-01 8.3320083187561034e-01
      -4.8752123152288090e-01 -4.1428568272106259e-01
      -7.6890899211895458e-01 -2.2048111839632065e-01
      -1.0206408636194761e+00 -6.2130576161662532e-01
      1.3873358126338026e-01 8.2083343563417988e-01
      -4.6571114564168514e-01 6.2846204942237438e-01
      -7.4518117820688456e-01 3.5565391150740333e-01
      6.8754493754977886e-02 2.4679231886201264e-01
      -1.0000260478913847e+00 9.9929169081080224e-02
      -4.0734648294499409e-01 4.9088062614067102e-01
      -1.0385545036893775e+00 1.0002752356431308e+00
      -8.7266802496741436e-01 -4.6951169332128467e-01
      6.5442489582021679e-01 7.1119775635414095e-01
      -5.8544287714781686e-02 -3.5457376999943552e-01
      -8.5409025404034403e-02 -8.8546134779876073e-01
      8.4127221085980686e-01 7.1089537600622177e-01
      6.9669373742248908e-01 9.6939425423547099e-01
      -2.1029235225828136e-01 -8.2828708746897373e-01
      2.5276391220504763e-01 -3.0804058982705751e-01
      1.5104585301756313e-01 7.6245334763565698e-01
      7.8811721893230247e-01 -1.2144287635070174e-01
      5.7388449988994628e-01 8.5440715602994111e-01
      -1.2159212508690174e+00 5.9960559312555207e-02
      8.3729836351434894e-01 2.5067207736520247e-01
      6.7331933541455524e-01 5.5020936616482741e-01
      1.5738196532814894e-01 -6.2906366412851056e-01
      6.5452438748574482e-01 -5.5469539434966564e-01
      -1.1543350946201383e-01 -6.4044119624944584e-01
      -4.2758840357102222e-02 6.6883785880193525e-01
      -8.3691670097842297e-01 -5.1544217731882724e-01
      7.4033576403199708e-01 -9.3464110877925388e-02
      4.2254808118126530e-01 -3.4201242470241511e-01
      -2.0039406318295228e-01 2.3648375938392266e-01
      -2.9617723827217352e-01 1.5226026761891498e-01
      -8.4414783637515578e-01 1.6870168988889389e-01
      -5.7241836653854294e-01 1.0390602735522665e+00
      -3.3905768950012583e-01 -6.1009388157084921e-01
      -3.3128949859677542e-01 -1.9720021004862455e-02
      -8.2728419430623112e-01 5.7660563869376980e-01
      -7.3998857205916824e-01 9.5187771804202848e-02
      7.7022694730863372e-02 -4.2408298149919560e-01
      -3.7769255714175420e-01 5.9979822391430571e-01
      3.9086677157181487e-01 1.1650963536837675e-01
      -9.3613675970171151e-01 -1.0590411844118514e-01
      8.9780376737488632e-01 5.3677764538410255e-01
      -8.6513721771607555e-01 9.5976899872664567e-01
      -1.3121144062367149e-01 -9.4962011514798605e-01
      -2.9261186479954304e-01 -7.1156798086049489e-01
      8.1364796233055914e-01 -7.6197500757520953e-01
      1.8563721866759203e-01 2.8783062839346264e-02
      -2.0647149433766834e-01 6.5691907339963537e-02
      -8.7959944471195983e-01 -9.9413835535163630e-01
