<?xml version="1.0"?>
<opencv_storage>
<opencv_ml_ann_mlp>
  <format>3</format>
  <layer_sizes>
    256 4 4 4 26</layer_sizes>
  <activation_function>SIGMOID_SYM</activation_function>
  <f_param1>6.6666666666666663e-01</f_param1>
  <f_param2>1.7159000000000000e+00</f_param2>
  <min_val>-9.4999999999999996e-01</min_val>
  <max_val>9.4999999999999996e-01</max_val>
  <min_val1>-9.7999999999999998e-01</min_val1>
  <max_val1>9.7999999999999998e-01</max_val1>
  <training_params>
    <train_method>BACKPROP</train_method>
    <dw_scale>1.0000000000000000e-03</dw_scale>
    <moment_scale>0.</moment_scale>
    <term_criteria>
      <iterations>128</iterations></term_criteria></training_params>
  <input_scale>
    4.7811143833927178e-02 -9.4328346021469320e-02
    3.3887852892301992e-02 -1.3995362249973706e-01
    3.8992929205718806e-02 -1.2199141045145045e-01
    5.9212591071374603e-02 -1.0584551123854648e-01
    3.1072481430681208e-02 -1.6389787904843756e-01
    2.7259717082672420e-02 -1.7587866177291217e-01
    1.9287533661485813e-02 -2.4194240465760961e-01
    2.3172914023175638e-02 -2.1849643425370480e-01
    2.0996722120786973e-02 -2.3948764649000462e-01
    2.2320531805117057e-02 -2.2115146668074029e-01
    2.3809077466464667e-02 -2.0410081968884122e-01
    2.6731504812003749e-02 -1.8006688897720521e-01
    2.8531024836214502e-02 -1.7527855582735297e-01
    3.6660027423232773e-02 -1.5988534287561465e-01
    3.9249254834892590e-02 -1.5009254961218738e-01
    4.4556168771600090e-02 -1.2872452006409499e-01
    4.1345348628490458e-02 -1.3086166500952529e-01
    2.7475886961581399e-02 -1.6385146663016134e-01
    2.7022169676572342e-02 -1.7705188846273787e-01
    2.3824964258121400e-02 -1.9214720836049196e-01
    2.0724141074489829e-02 -2.2367489744266697e-01
    1.6394800993887119e-02 -2.8911643647136254e-01
    1.3292765671106271e-02 -3.6449878695439442e-01
    1.3641150852356218e-02 -3.6247805045699466e-01
    1.4054707707072078e-02 -3.4170626978750201e-01
    1.4424811097218776e-02 -3.4621498569874076e-01
    1.5522527696417368e-02 -3.0845510043557378e-01
    1.8326855357594384e-02 -2.5511280252175023e-01
    2.2712047321660312e-02 -2.0474649425832339e-01
    3.1242831140448797e-02 -1.6830542729381145e-01
    3.0691913909950713e-02 -1.6483925075587874e-01
    3.6182992312514997e-02 -1.4478093135061817e-01
    3.3489260776521083e-02 -1.5847353847834131e-01
    2.4029253013646699e-02 -1.8709651128622884e-01
    1.8770122398277130e-02 -2.5747324864862686e-01
    1.7201915103761185e-02 -2.8686928516745991e-01
    1.3460526977632850e-02 -3.7046503139116987e-01
    1.1815816343394884e-02 -4.4406044290271462e-01
    1.1437602059047022e-02 -4.6549028352895572e-01
    1.0430518432904393e-02 -5.3624720814795213e-01
    1.0655806714873678e-02 -5.0506216752622501e-01
    1.1091904280092565e-02 -4.8633272325244831e-01
    1.1679605476778186e-02 -4.2057642942157553e-01
    1.2432389048372121e-02 -3.9299135070361668e-01
    1.6893584247570110e-02 -2.8479062592182469e-01
    2.1219989398943175e-02 -2.3186930229562400e-01
    2.7806275697081540e-02 -1.8711855080052300e-01
    3.8860620352013132e-02 -1.3835222211927814e-01
    3.1492945354415922e-02 -1.6871525122886688e-01
    2.4338633534088754e-02 -2.0439182640399836e-01
    1.4298006740916297e-02 -3.3908912874330044e-01
    1.2731262717712048e-02 -4.6475138611057903e-01
    1.0970033892278467e-02 -5.7735926685558692e-01
    9.9830503380205042e-03 -6.6556820988353471e-01
    9.4738374231329667e-03 -7.2538314331953002e-01
    9.0981390762933413e-03 -7.9047931755286416e-01
    9.0352793989181383e-03 -7.6610366324250423e-01
    9.0721440029474260e-03 -7.0384614920837307e-01
    9.2767642861939469e-03 -6.4452799121832482e-01
    1.0553762057282987e-02 -5.0073959271246737e-01
    1.2245479365465902e-02 -4.1351277072422404e-01
    1.5352355603778983e-02 -3.1273932511405794e-01
    1.8817361460983187e-02 -2.4757943908679231e-01
    3.1833793616451368e-02 -1.6791356903508450e-01
    3.0803471952931698e-02 -1.7777646533051922e-01
    2.0385364312442807e-02 -2.6649932966510143e-01
    1.3016844850545526e-02 -4.6668647403951791e-01
    1.0985397366520860e-02 -5.7342585035661997e-01
    9.8927319924250537e-03 -6.6716370370565603e-01
    9.4308031456421370e-03 -8.1260598254656125e-01
    9.0043218487625993e-03 -9.1300655584773904e-01
    8.7064188292705277e-03 -9.4061133005430264e-01
    8.7238758953150086e-03 -8.4089191850484257e-01
    8.7837047568852661e-03 -7.6415854198228772e-01
    9.1526820744219327e-03 -6.8742958844210411e-01
    9.8034804580431397e-03 -6.0770966141130756e-01
    1.1018314116408202e-02 -4.6625807719664042e-01
    1.4512521546213806e-02 -3.4694549141672437e-01
    2.1716798436168670e-02 -2.2663051358556532e-01
    4.0789200180451318e-02 -1.4477682283264384e-01
    2.6671644531036726e-02 -2.0196823111729570e-01
    1.7855729382891462e-02 -2.8407281509425564e-01
    1.3133830711577057e-02 -5.0692321161882603e-01
    1.0368477815191695e-02 -6.8015250209343414e-01
    9.8631858606841750e-03 -8.0463042758195780e-01
    9.4224402434035653e-03 -9.5405076272383649e-01
    9.0791332235102030e-03 -1.0338540458614440e+00
    8.9029701911922596e-03 -1.0199261926743393e+00
    8.7374064220194590e-03 -8.8609597333998424e-01
    8.7073496952556634e-03 -7.9638669269598150e-01
    8.6901128860581642e-03 -7.6338937528704176e-01
    9.7176484339644639e-03 -6.0351988163089720e-01
    1.0990120379535704e-02 -4.7850894902833668e-01
    1.5356136861469015e-02 -3.1911257615910643e-01
    2.6456593643957412e-02 -2.0166440053641690e-01
    3.7707177270057075e-02 -1.4587932315980132e-01
    2.1789033354681017e-02 -2.3817565823966610e-01
    1.6627679837955579e-02 -3.2294599284732939e-01
    1.1489675222309729e-02 -5.7387740477763793e-01
    9.7826003663354661e-03 -7.7180613228528150e-01
    9.3150015832349411e-03 -9.1061388278435973e-01
    9.2650438470715055e-03 -1.0154061789149773e+00
    8.8763631201084284e-03 -1.0260667382073918e+00
    8.8310231088490933e-03 -1.0239445820092603e+00
    8.7189409485115346e-03 -9.3608862489290079e-01
    8.6841871999691778e-03 -8.6492859334144978e-01
    8.8872979493164455e-03 -7.6909401685343071e-01
    9.9311270356591888e-03 -6.2509658195356854e-01
    1.0741396568050598e-02 -5.1406085578111704e-01
    1.5721741447044333e-02 -3.3377320915112119e-01
    2.3491185971698712e-02 -2.2267355579397763e-01
    3.0525087473947117e-02 -1.6943695374577952e-01
    1.9093590166970553e-02 -2.6211701250868236e-01
    1.5318996617751188e-02 -3.4139182042996524e-01
    1.1160040240211401e-02 -5.8983606454963045e-01
    9.5811421588887311e-03 -7.9960400745237292e-01
    9.2171642693834044e-03 -8.8927550100509789e-01
    8.9106743288538889e-03 -9.8674564776963192e-01
    8.7726307556727674e-03 -1.0010295820065789e+00
    8.7479024497056704e-03 -9.8390819460708512e-01
    8.7102846481094433e-03 -9.5401779391424424e-01
    8.6468810591851936e-03 -7.8062965729986378e-01
    8.9632977093486547e-03 -7.1186049507358851e-01
    9.6166376767467376e-03 -6.2338975359208726e-01
    1.0805818075123893e-02 -5.2458664311656944e-01
    1.4965010379030740e-02 -3.3842388830089543e-01
    2.1684418077756725e-02 -2.2611654358212899e-01
    3.0575222993563696e-02 -1.6719144264816088e-01
    1.7044261350979011e-02 -2.9514940799523465e-01
    1.4129184382227255e-02 -3.6923248821322430e-01
    1.1156445991379309e-02 -5.7462490361281549e-01
    9.4742803805148747e-03 -7.7939097046365458e-01
    9.2191696209015777e-03 -9.1681460704963169e-01
    8.8990181077446308e-03 -1.0106707588158310e+00
    8.7055360411551538e-03 -9.7407762404741183e-01
    8.6803045275665302e-03 -9.7022077669417517e-01
    8.5634098339984772e-03 -8.5824138828858354e-01
    8.7256484994560693e-03 -8.0972601190216287e-01
    8.8027415666656096e-03 -7.5272374165187173e-01
    9.4169660850158578e-03 -6.3942346573749753e-01
    1.0310278673866127e-02 -5.4465895689994548e-01
    1.3752636497613584e-02 -3.7267970027227287e-01
    2.3562836990736143e-02 -2.1139595297507527e-01
    2.8284616514753190e-02 -1.7192760133189625e-01
    1.5143902446386559e-02 -3.1628009520640071e-01
    1.2412832017000044e-02 -4.2561400606057387e-01
    1.0270526199634878e-02 -6.1795490790333585e-01
    9.6720481572286320e-03 -7.7651233716965462e-01
    9.1620655766282300e-03 -8.2370564931746004e-01
    8.8539980584518320e-03 -1.0036048732940137e+00
    8.8476868104852713e-03 -9.6740296300518391e-01
    8.5967774557770306e-03 -9.3404743201177964e-01
    8.7589113953169314e-03 -8.3078096798828815e-01
    8.6371781729338987e-03 -7.7448255971510804e-01
    9.0089209888726315e-03 -7.3105138546781323e-01
    1.0076694392827087e-02 -6.0105641249772401e-01
    1.1416595777614773e-02 -4.8088740644870454e-01
    1.5135564035326916e-02 -3.4037610108673610e-01
    2.4633364097687259e-02 -1.9683357915675678e-01
    3.2498526176526155e-02 -1.7625722992627449e-01
    1.5681568832173698e-02 -3.1505311563096466e-01
    1.2925284073144352e-02 -4.3253352520819999e-01
    1.0506018021525336e-02 -6.1890255554679829e-01
    9.6005999822726239e-03 -7.4018157508793336e-01
    9.1122584930428772e-03 -7.7539277818201391e-01
    8.7106464566512019e-03 -8.7311559625166602e-01
    8.7808123051528169e-03 -9.2103473049245010e-01
    8.5460713404770829e-03 -8.7753928488419819e-01
    8.7446788596519821e-03 -7.6276319254826352e-01
    9.1960523019349785e-03 -6.8247400872438690e-01
    9.7406743386198851e-03 -6.1273982135239868e-01
    1.0660530295677928e-02 -5.2295743474819523e-01
    1.3399301533934095e-02 -4.0513395598677054e-01
    1.7035803755927850e-02 -3.0274859367604934e-01
    2.7179405917884390e-02 -1.8992483377531122e-01
    3.1706738097078087e-02 -1.5703201818038673e-01
    1.6102549850477713e-02 -3.1200596929498026e-01
    1.2910498625416511e-02 -4.2527776459880129e-01
    1.0506853303878081e-02 -5.8886718557513174e-01
    9.6802116850822871e-03 -6.9059599492452406e-01
    9.4632822813006303e-03 -6.8891158344981229e-01
    9.0413281670158885e-03 -7.7700366787417063e-01
    8.9992564592522566e-03 -8.2715222698004087e-01
    9.0439848004224242e-03 -7.3836364677115851e-01
    9.0984857403629479e-03 -6.8880092453362041e-01
    9.6012524253468179e-03 -5.9319889477196885e-01
    1.0283741934819636e-02 -5.2312101057339611e-01
    1.1794906660003988e-02 -4.4276387774718623e-01
    1.5198639400276699e-02 -3.5141969070707435e-01
    1.8536402124082873e-02 -2.8669969726423172e-01
    2.8986889157760425e-02 -1.9404349210208499e-01
    2.9859476544014423e-02 -1.5434803842778769e-01
    1.7253831132723461e-02 -3.0996192438164638e-01
    1.2852631235778190e-02 -4.3603290624112989e-01
    1.0806108952601619e-02 -5.7079358993884188e-01
    1.0205400049184606e-02 -6.2530516133569547e-01
    1.0238718973680030e-02 -6.0601024074257714e-01
    9.6110523901411903e-03 -6.5794741599085627e-01
    9.5391400495181376e-03 -6.7992511903696662e-01
    9.4494601229536818e-03 -6.4293410614646018e-01
    9.5020312928896355e-03 -6.1125448664774074e-01
    1.0557886660602535e-02 -5.1165033149683170e-01
    1.1987764677916096e-02 -4.2674171228949759e-01
    1.4653324041910774e-02 -3.4539411567800238e-01
    1.8031973859898184e-02 -2.9563652948109120e-01
    2.2512386906593115e-02 -2.5784146519269840e-01
    2.9698006604002739e-02 -1.9554871466180965e-01
    3.1594022528812847e-02 -1.6036424696289173e-01
    1.6583966374232897e-02 -3.1255951780827573e-01
    1.4351423568742236e-02 -4.2263874306703286e-01
    1.2006992239880299e-02 -5.0907047477662992e-01
    1.1021343085583727e-02 -5.4495247137649439e-01
    1.0883025089261868e-02 -5.6222090505108302e-01
    1.0086212273572644e-02 -5.9159251826523174e-01
    1.0250324305181364e-02 -5.6684709523659926e-01
    1.0394538788202925e-02 -5.3090915637445113e-01
    1.0512810828614971e-02 -5.1585324258083365e-01
    1.1754842622416935e-02 -4.4495022013108110e-01
    1.3771088496896854e-02 -3.6252064359760677e-01
    1.6545124393514202e-02 -2.8959564821394612e-01
    1.8069833713392776e-02 -2.8011910016323094e-01
    2.4639706505832394e-02 -2.4513007067778045e-01
    3.5563466939348788e-02 -1.6698948616987860e-01
    2.9179830568967273e-02 -1.8029107764263136e-01
    1.8290778954305545e-02 -3.1005221645546083e-01
    1.4773355971656899e-02 -4.0004008978190286e-01
    1.2962832238179461e-02 -4.6718819192377775e-01
    1.2081389529437145e-02 -4.8708108205690159e-01
    1.2161286627558438e-02 -4.5342345121666799e-01
    1.1566666986001103e-02 -4.8778778974116971e-01
    1.2017720997472241e-02 -4.5525859177839695e-01
    1.1911657966243371e-02 -4.3444508411929306e-01
    1.1440576918795898e-02 -4.4653856650304313e-01
    1.4044580080385402e-02 -3.5945762874209675e-01
    1.6260849117064696e-02 -3.0167285709737074e-01
    1.8940632136798800e-02 -2.5240506804221191e-01
    2.1455139493641268e-02 -2.3699364504275194e-01
    2.9891301118131815e-02 -2.0964359092730339e-01
    2.8774236800373974e-02 -1.8701307084194344e-01
    3.0666291466199008e-02 -1.7428744811642197e-01
    1.6854484660477589e-02 -3.1961941546946271e-01
    1.4793409776888193e-02 -3.8588979738710921e-01
    1.4071330361993319e-02 -4.0582173749007255e-01
    1.4173294774586885e-02 -3.9769613050857056e-01
    1.4682668709031862e-02 -3.8580251825707806e-01
    1.4100176933167634e-02 -3.8404379067767003e-01
    1.3466160503107729e-02 -3.9410841591503920e-01
    1.3938634433188985e-02 -3.6042403976158094e-01
    1.4785196176715134e-02 -3.3967937846856505e-01
    1.6980276365553774e-02 -2.9976276788229306e-01
    1.7449432741001053e-02 -2.8313416508436212e-01
    1.9078358206815981e-02 -2.6002330698112386e-01
    2.0731790584499251e-02 -2.4406844125188565e-01
    2.6537756976741544e-02 -2.1413348423857892e-01
    3.7525918569175844e-02 -1.6249382871632301e-01
    2.9600299516678384e-02 -1.9322306477463669e-01</input_scale>
  <output_scale>
    5.2631578947368418e-01 4.9999999999999994e-01 5.2631578947368418e-01
    4.9999999999999994e-01 5.2631578947368418e-01 4.9999999999999994e-01
    5.2631578947368418e-01 4.9999999999999994e-01 5.2631578947368418e-01
    4.9999999999999994e-01 5.2631578947368418e-01 4.9999999999999994e-01
    5.2631578947368418e-01 4.9999999999999994e-01 5.2631578947368418e-01
    4.9999999999999994e-01 5.2631578947368418e-01 4.9999999999999994e-01
    5.2631578947368418e-01 4.9999999999999994e-01 5.2631578947368418e-01
    4.9999999999999994e-01 5.2631578947368418e-01 4.9999999999999994e-01
    5.2631578947368418e-01 4.9999999999999994e-01 5.2631578947368418e-01
    4.9999999999999994e-01 5.2631578947368418e-01 4.9999999999999994e-01
    5.2631578947368418e-01 4.9999999999999994e-01 5.2631578947368418e-01
    4.9999999999999994e-01 5.2631578947368418e-01 4.9999999999999994e-01
    5.2631578947368418e-01 4.9999999999999994e-01 5.2631578947368418e-01
    4.9999999999999994e-01 5.2631578947368418e-01 4.9999999999999994e-01
    5.2631578947368418e-01 4.9999999999999994e-01 5.2631578947368418e-01
    4.9999999999999994e-01 5.2631578947368418e-01 4.9999999999999994e-01
    5.2631578947368418e-01 4.9999999999999994e-01 5.2631578947368418e-01
    4.9999999999999994e-01</output_scale>
  <inv_output_scale>
    1.8999999999999999e+00 -9.4999999999999996e-01
    1.8999999999999999e+00 -9.4999999999999996e-01
    1.8999999999999999e+00 -9.4999999999999996e-01
    1.8999999999999999e+00 -9.4999999999999996e-01
    1.8999999999999999e+00 -9.4999999999999996e-01
    1.8999999999999999e+00 -9.4999999999999996e-01
    1.8999999999999999e+00 -9.4999999999999996e-01
    1.8999999999999999e+00 -9.4999999999999996e-01
    1.8999999999999999e+00 -9.4999999999999996e-01
    1.8999999999999999e+00 -9.4999999999999996e-01
    1.8999999999999999e+00 -9.4999999999999996e-01
    1.8999999999999999e+00 -9.4999999999999996e-01
    1.8999999999999999e+00 -9.4999999999999996e-01
    1.8999999999999999e+00 -9.4999999999999996e-01
    1.8999999999999999e+00 -9.4999999999999996e-01
    1.8999999999999999e+00 -9.4999999999999996e-01
    1.8999999999999999e+00 -9.4999999999999996e-01
    1.8999999999999999e+00 -9.4999999999999996e-01
    1.8999999999999999e+00 -9.4999999999999996e-01
    1.8999999999999999e+00 -9.4999999999999996e-01
    1.8999999999999999e+00 -9.4999999999999996e-01
    1.8999999999999999e+00 -9.4999999999999996e-01
    1.8999999999999999e+00 -9.4999999999999996e-01
    1.8999999999999999e+00 -9.4999999999999996e-01
    1.8999999999999999e+00 -9.4999999999999996e-01
    1.8999999999999999e+00 -9.4999999999999996e-01</inv_output_scale>
  <weights>
    <_>
      -1.0374112381468863e-01 1.1987467235014267e-01
      7.7053155773748036e-02 -1.6701389739448616e-01
      -4.8968353614573787e-02 -1.3475772827313989e-02
      7.6839084345714237e-03 -6.7245614879113541e-02
      6.8689289532043327e-02 -5.7284623858117195e-02
      -2.6436414224775759e-02 5.3486594649075084e-02
      -5.7967230192628900e-02 4.1415948002846460e-02
      3.5623779561502610e-02 -8.6077633310176732e-02
      4.5503131146672066e-02 -4.4716873554615615e-03
      4.6823245057865372e-02 2.0036908436548047e-02
      3.1520735608164457e-02 5.5807805407801538e-03
      5.2148364293292088e-02 4.0142306340215365e-02
      3.2454641875256679e-02 6.6121047702615010e-03
      1.3664990102797382e-03 4.0865587822372526e-02
      7.4162911667667544e-02 -4.5461612137053589e-02
      -3.2274711698930647e-02 7.4459866175258349e-02
      6.4263952358333307e-02 -1.2532598947131849e-02
      -2.9220968671340188e-02 5.1440386379366161e-02
      3.0921823632350416e-02 6.0094236017834549e-02
      -7.4478314702915169e-03 7.0367151449529063e-03
      8.0227039771701730e-02 -8.9470977473961183e-02
      -5.8819081692211082e-02 1.0624974272391334e-01
      6.8357399540955543e-02 -3.0025558075634895e-02
      1.7406696641647061e-03 4.5610507439763359e-02
      9.8620654074277891e-03 2.1956232834691780e-02
      3.6113748627223288e-02 -3.3353872139216374e-02
      1.9108086837884748e-02 -3.9036901620530813e-02
      -4.7676571602365131e-02 3.8496149192465613e-02
      -6.4915661155316842e-02 6.0954835105709468e-02
      -1.2093584741991308e-02 -2.5454667601233216e-02
      -2.5964640825739908e-02 7.8012129334307312e-03
      -2.8009918550644157e-02 1.3350603084501419e-02
      5.7368422025938864e-02 -3.6633711747751881e-02
      -3.1316921959925213e-02 2.3465904462600478e-02
      -1.5861255747630768e-02 -6.0983392585494175e-03
      -3.2627070291060586e-02 1.0756437135335998e-02
      -1.1432241948071595e-03 -5.0871483775241304e-02
      3.2582878332008597e-02 -3.2813521963977202e-02
      -5.8362174659429035e-02 7.2649954735532554e-02
      6.0239836165531219e-02 -1.0395654553769008e-01
      6.7820865083175322e-02 -1.3999483941157286e-02
      7.3788780311789979e-03 3.9561485331621973e-02
      9.1174565730304524e-03 7.3921923418484997e-03
      8.3258659126053229e-03 5.0682940446885760e-02
      1.7505643544629398e-02 1.9421186603698046e-02
      9.9534349852675001e-03 -4.0846792658751690e-03
      3.7574442740181742e-02 -2.1810241453114866e-02
      -2.4906184345638283e-02 3.2346764408600182e-02
      -4.2508688514462864e-02 7.0559844529686555e-02
      1.0322482341247864e-02 -8.5890116829266644e-02
      1.4384166807643570e-02 1.0022295634467944e-02
      -2.3030391998520659e-02 1.2386477293906297e-02
      -5.0432946546262993e-02 6.0606748421742684e-02
      3.8691501181645618e-02 -8.9657636207569683e-02
      6.5577619807221904e-02 -4.4647449686907148e-02
      -3.5008379279988011e-02 6.9362334803739212e-02
      -9.5481187218538571e-02 8.6633009858514742e-02
      8.1974504942970330e-02 -1.4161340693314284e-01
      -1.1994419835970171e-02 5.7147161110368125e-03
      -1.6016941784625323e-02 -1.1737891635721377e-02
      -4.7699550509499755e-02 2.5103313310684876e-02
      -1.9175334230576897e-02 -1.9927327672629076e-02
      1.0968703000206886e-02 -1.3243071392020784e-02
      -5.2434313336069953e-02 6.7098932762108876e-02
      1.3584694108187928e-03 2.4916384780465225e-03
      -7.8360267662091442e-03 1.2305391283887785e-02
      -1.8539253945980159e-03 2.6785209109706585e-02
      -7.9941661759147034e-03 2.9652746549559718e-02
      8.8735754135286695e-03 -8.7385036029764857e-02
      -2.6642118772568966e-02 6.5434725589609610e-02
      -6.8828508849293874e-04 -1.4004028916125432e-02
      1.2264798254581986e-02 1.9133119083659135e-03
      -5.5445775264793872e-03 7.4754235356602070e-02
      4.4873403983486986e-02 -5.0228624237607065e-02
      2.7613690343618127e-02 -1.5220631612878713e-02
      -3.5796208977518534e-02 5.3431363048245882e-02
      7.0885117327165417e-02 -2.5817331499149890e-02
      2.6415237525871254e-02 4.6482207085532710e-02
      -5.8631762948411152e-02 6.2438854413885254e-02
      5.8087987484636290e-02 -5.1766060909733624e-02
      -3.8113487599686552e-02 3.3397069669181788e-02
      2.6444047718605611e-02 -4.8318594195340438e-02
      -3.3398361765676975e-02 1.5175872955837043e-02
      4.0668913376004784e-02 -6.1245345937264786e-02
      7.2726262116966089e-03 -1.8570811840739047e-02
      4.8677167346836804e-03 -1.7818898228101513e-02
      -1.1045606540965740e-02 -1.6457927714086350e-02
      1.6085625306652966e-02 -3.8165091660724758e-02
      -2.6484002086659259e-02 -1.4870068189052956e-02
      3.0170841563850199e-02 -3.6203188218685539e-02
      3.4931620402477631e-02 -2.4068380016442216e-02
      5.2435699613987046e-03 1.4450335998813851e-02
      4.1615356752115071e-02 1.0870458280255160e-03
      -6.2577721549903820e-02 7.0273096211298111e-02
      -1.3121497365016228e-02 -2.6957750892456001e-02
      -4.5192404612467825e-02 3.4174230550639034e-02
      6.8003283506773964e-03 -5.4165294952302984e-03
      -4.4597560122656081e-02 -1.8897309627984152e-02
      -9.0326721709967171e-03 2.1788842650848406e-02
      -2.5338583016464373e-02 -4.6241842776237732e-02
      -3.1007898418274352e-02 -3.3359259195262392e-02
      -4.2122441854611704e-02 -3.8091477071705022e-02
      1.7938972266121164e-02 -6.5576050177158108e-03
      -1.2862590644205097e-02 4.5316936165173106e-02
      3.5748829915393729e-02 1.1773437040326067e-02
      -3.2603262763635031e-02 9.4616596388174129e-02
      -7.8059027761011521e-02 3.7294558458422125e-02
      -4.6503232093767007e-02 -2.6869873991879913e-03
      2.7395500839845065e-02 -7.4589233063932656e-02
      -9.0072609693588809e-02 1.2766799885005992e-01
      2.4314500321625715e-02 -7.9472713127787004e-02
      -6.0193045758492110e-02 1.0752305679769925e-01
      6.6277619415542411e-03 -8.7786643009823598e-02
      -2.8420607769220580e-02 6.0118080841803687e-02
      9.1005706794973877e-03 -7.6951108339528229e-02
      -9.3318454908826610e-03 8.7243845578845611e-02
      -3.9913636753197536e-03 -1.5734333850419323e-03
      -3.8341020293389982e-02 6.2598306516245275e-02
      -9.4507057506363998e-02 7.8536441784227876e-02
      1.2535156464548411e-02 -7.0241823151174984e-02
      -8.0731897957030986e-03 -1.9682981244638159e-02
      -4.0717665883770071e-02 -8.8729754559167401e-03
      -3.8317711778830414e-02 2.3400155073483662e-02
      3.8375144167131663e-02 -6.9114720011420799e-02
      -2.1130904878406687e-02 3.4959445051416030e-02
      6.0281493302654443e-03 -5.9501139657997552e-03
      4.8079182407761052e-02 -4.4910871176895767e-02
      -4.2241487751968593e-02 6.5936834930037894e-02
      6.1472247632998196e-02 -2.9669547574647150e-02
      9.1169379982008105e-03 4.6030348308422148e-02
      -3.2136212074016138e-02 2.1463132637455466e-02
      -7.3330256360139446e-03 -1.7047386849322801e-02
      1.8131496658139259e-02 -7.1349688366986644e-02
      -5.7267077842150814e-02 6.2007573721345771e-02
      1.3811023142882014e-02 -1.3805169880254093e-02
      -2.2334620104098046e-02 5.4230058024290970e-02
      -4.3670542500107573e-03 2.0592736189620230e-02
      1.1349848677489638e-02 4.4152262061039171e-02
      1.0273219685968886e-02 1.4464737074832215e-02
      -1.4131208815873621e-02 8.9799648207882624e-02
      -1.2403475211220473e-01 1.4379238875116868e-01
      4.6785712481293620e-03 -6.9759716599832391e-02
      -2.5864869757520954e-02 -2.8219661403317026e-02
      -4.0849272571657692e-02 2.1432853559078893e-02
      -4.3855484028386141e-02 2.7620874820472839e-02
      2.1825453527956804e-04 -3.8471032735381959e-02
      -5.7319106307482819e-02 2.2447263248146915e-02
      1.6720138311140087e-03 -1.6687250228933758e-02
      2.5857816667836492e-03 1.1832476272576942e-02
      -9.3302300345298114e-03 4.0157699810727115e-02
      6.6185131483563323e-02 -4.3596477779805631e-02
      -6.0145914280406866e-02 1.6633898680129192e-01
      -1.0385455211566546e-02 2.4706207934174843e-02
      -2.0745811377279950e-02 3.2367283908571812e-02
      -1.3520229291684869e-02 2.3634823516353046e-02
      -2.4446332006256726e-03 6.5807514841544970e-03
      -8.9032818667047042e-02 7.1471105742813013e-02
      4.5829903853495280e-02 -6.6645456588332042e-02
      1.0291370620108178e-02 -5.1606874267765088e-03
      -8.7419378810669232e-02 4.7494720060171997e-02
      -1.6078462155352545e-02 1.0702397961408221e-02
      8.0181930814934993e-03 -3.9637526864349459e-02
      -1.6178722581166753e-02 -2.8829907301516487e-02
      -6.1016339417748692e-04 -3.3405666943446814e-02
      2.7809964532195374e-02 -1.0649128855673570e-01
      -5.1558381393516817e-02 4.5002373715326921e-02
      5.8192562643793952e-03 1.7514062198401559e-02
      1.4617895025284757e-02 2.0125423822877710e-02
      -8.6458771599014730e-02 1.5542903390617274e-01
      1.0504490912859266e-01 -4.8759901133995295e-02
      -4.0522480923942047e-02 4.3283526495051287e-02
      -1.8211582814863490e-03 5.6525916268163820e-02
      -8.7987552696233234e-02 9.1355810405473525e-02
      1.2398187955194047e-02 -4.0389948836063727e-02
      -5.9315383990071864e-02 1.5668960723182992e-02
      -1.8215754255646487e-02 -1.3709237587668323e-02
      4.5722969947186699e-02 -7.9330617472290310e-02
      -7.0457728538084297e-02 8.6430404483874429e-02
      5.0494079766517704e-03 2.0252089700032460e-02
      -2.4278159140628319e-02 2.9307481306832479e-02
      5.5981029913869072e-02 -3.8050383327531884e-02
      -6.2465146433977527e-02 1.1516102601526580e-01
      6.9934932164430030e-02 -2.2077201985284362e-02
      -7.9497253047070657e-02 1.7593689532050616e-01
      1.1858564751426564e-02 2.2031866733076676e-02
      -4.4644232921462208e-03 7.8419482130447971e-02
      1.2171793793564639e-01 -5.4614402091106115e-02
      8.7791781480004039e-03 1.3942422646437325e-01
      4.7009492888222093e-02 -2.8297218230992537e-02
      2.0454364764721521e-02 6.5947672013812186e-02
      1.1479917223845939e-02 2.7629682883812144e-02
      -2.6187884064567884e-02 -4.4013581082696417e-03
      -1.3038883132110307e-03 -6.0772806791531180e-02
      -1.3947281500785798e-03 3.9030806549747867e-02
      -3.4540407496753071e-02 -9.2100665722852498e-03
      6.9309643405710955e-02 -2.8590965967165923e-02
      2.0178966165273052e-02 -1.1453227757196795e-02
      -2.8031769837073041e-02 2.6657512969533177e-02
      -5.0636065786790051e-02 6.4107379055506425e-02
      2.7290115907635238e-02 -2.7886301768803721e-02
      -8.7855254475634279e-03 3.8351738298245605e-02
      1.4840788277768822e-03 2.3813737729922988e-02
      2.9337184116913620e-02 -6.2241501942463346e-03
      -5.9557670400829120e-02 9.7290628157319467e-02
      -9.6505767602967987e-02 8.9118410877887466e-02
      3.3134208703522031e-02 -8.1837065814653290e-02
      -3.2815944259585166e-02 -9.7148001587888896e-04
      -3.1805467060639393e-02 3.3854940734833944e-02
      -1.6310535076293004e-02 -1.6691909298122035e-02
      -1.8943909845060839e-02 3.7078320376214807e-02
      1.4833846510730693e-02 -5.1428611807736370e-02
      -6.4360803273621842e-02 8.4641651091968362e-02
      5.9567090355360352e-03 3.1823773234942253e-02
      -1.2721791030419460e-02 3.5380044908256178e-02
      2.5798568492126393e-02 5.5697732382679810e-03
      -4.0612737470559906e-02 7.1648776238245157e-02
      2.7730701610710898e-02 1.8245265427376891e-02
      -4.9239204846048462e-02 1.0318458800480027e-01
      -6.9193672754736577e-02 1.0352852941707830e-01
      5.2190607418390926e-02 -4.0733349437243396e-02
      2.3478970324263763e-02 1.2562592172133633e-02
      2.8092773192679703e-02 1.8002038163356368e-02
      -5.1783998535541408e-02 9.0453173705957818e-02
      3.7831305709790798e-02 -8.0689167288917327e-02
      2.8907796274560357e-02 -7.6631801321173004e-02
      6.7380765170079156e-03 5.4660396587874728e-02
      -6.9492460507607268e-02 3.7367632091948197e-02
      1.0201634049675584e-01 -8.0696081962161714e-02
      1.5787852342549518e-02 2.5549131881634605e-02
      8.2935759617956302e-03 -1.3666162691708776e-03
      -3.2506328010230272e-03 7.0405954766324982e-02
      3.1098234593084919e-04 2.6948566337517611e-02
      4.5353475594003850e-02 2.8296996550355768e-03
      -4.1061348221592187e-02 8.7916116649603193e-02
      3.2176367320868697e-02 -6.9898045901626649e-03
      -5.3637817004293174e-02 4.4303102042615526e-02
      3.2009689203480657e-02 -2.2499718913314398e-02
      -6.7770933409682543e-02 1.0243211134082261e-01
      -6.7718572432322696e-02 5.8499257383024784e-02
      -1.5587406128282735e-03 -6.4510720952837240e-03
      4.6750347703667934e-02 -2.5662617476360686e-02
      -8.2297653597050588e-02 1.0784188014406661e-01
      1.1305259426385049e-01 -9.7981125832988542e-02
      -1.1282403375718927e-01 1.7718592329666788e-01
      3.5264585800341024e-02 -1.1273477745247068e-02
      -2.7541095923483663e-02 5.9855875385090643e-02
      6.9794624060062010e-02 2.8434614736328623e-03
      -2.5572508563174685e-02 1.1002376841182120e-01
      2.8691743154199291e-02 -2.8204878924981288e-03
      1.1670579050235649e-02 1.1586932874749280e-01
      -6.1339645518250559e-02 7.1871009478569350e-02
      2.8676722118949661e-02 1.3134877329697472e-02
      7.2067851342588474e-03 3.0788788746998957e-02
      -1.8109237497787978e-02 5.9276324877621377e-02
      3.7076943936800312e-02 -5.1409818416830212e-02
      -2.4808445297135651e-02 4.4946155024724113e-02
      1.9142913123520848e-03 -5.6188072790665081e-02
      1.4749191564234758e-02 3.1261175467160375e-02
      5.0391999272547949e-02 -2.4218151496238179e-02
      3.5160420456748019e-02 4.2660365662545954e-02
      -5.9258989133518070e-02 8.3189226444182571e-02
      3.9666978663744884e-02 -5.6792064173402761e-02
      -2.4568860830668754e-02 7.0763913060018488e-02
      -2.3470986120797076e-02 -1.1676508148200982e-03
      -4.2424409792583481e-02 8.7300612703305511e-02
      -2.8128560638384287e-02 -1.9673931931108685e-02
      5.4364071035319390e-03 3.6830583685823835e-02
      -1.0422847207935920e-01 5.5659967224556517e-02
      2.6360214649330024e-02 -8.6015942290792145e-03
      -3.3487043840174355e-02 4.9124600458078566e-02
      -4.6475696436928796e-02 4.4604488426657450e-02
      1.1691327384350020e-02 -6.8833704671025916e-03
      -3.8911533881801109e-02 3.2668794104487170e-02
      -4.3692389620978538e-03 2.7886540487445433e-02
      -4.0159336943167499e-02 5.9216908814962818e-02
      7.4252738105851975e-03 -4.9605530536912815e-02
      4.3272824915145496e-02 -6.4198806426925996e-04
      -2.7739176144700423e-02 5.8027794327061163e-02
      -1.7744757137464168e-02 5.9011326507750594e-02
      -2.6667891836347100e-03 -8.1077007028569157e-03
      1.0597112366060863e-02 7.4653504550155035e-03
      9.5688907461667552e-03 3.9312270106189234e-02
      5.2640431076185643e-02 -6.3684787505631613e-02
      -3.9184687486591638e-02 9.4119716149735688e-02
      -6.0673461856934098e-02 1.1613479765455645e-01
      2.7898273632004669e-02 -1.4078318315979187e-02
      1.3702313480083224e-02 1.4332761871136304e-03
      -4.3612470842043366e-02 9.2243842430542629e-03
      -7.2404059808434756e-02 -9.7739750463674540e-03
      -2.1093236037283955e-02 -4.7782339127833480e-02
      -7.9607314858477878e-03 3.2461810166977350e-04
      -6.0225651487010694e-03 1.1149712954540678e-02
      5.1110516637537448e-02 -2.5616684981720913e-03
      -4.9341040668182894e-02 5.2888269221680224e-02
      -2.3803602643789196e-02 8.1266864165097832e-02
      -1.3311172869249752e-02 -3.0358309486050779e-02
      1.4293340722295624e-02 9.2068793733005305e-03
      -9.2538233716624424e-02 4.6688233292852661e-02
      -7.1081299584492802e-02 8.9544429826484639e-02
      -1.1705619338916552e-02 -8.5496775093100691e-02
      -9.2662525268414592e-02 1.2783714393972562e-01
      3.3826791182189342e-02 -8.9307566269972410e-02
      -7.6221538377364020e-02 1.0369033658624935e-01
      4.5127743287813785e-02 -9.5965951709419031e-02
      4.1023400065448364e-02 -2.1283143489127288e-02
      -2.1685712364031679e-02 4.5987891777497909e-02
      -2.0128540201734799e-02 7.4361760837173357e-02
      -2.0606434401765111e-02 -2.3677045160443781e-02
      4.3531115555420434e-02 2.3620739917556772e-02
      -2.4806773753972420e-02 6.1047985874115640e-02
      -2.9607484844201237e-02 6.9707687643613334e-02
      2.0497562148136892e-02 6.1535552474017334e-04
      3.1151005663572793e-04 3.1239137270520929e-02
      1.2596028880663124e-02 2.4679139519411090e-02
      -5.6348138761486352e-02 3.5061462202591845e-03
      1.9600829499210556e-03 -2.7256176300473772e-03
      5.3112008270737539e-02 -4.5064156646649964e-02
      -2.1933567257379112e-02 1.1937213399225260e-01
      -3.0578327845591773e-02 -2.8113835884148865e-03
      4.2672228877421524e-02 1.2135451625381219e-02
      -5.7630695414008899e-02 -4.5393500999498237e-02
      -5.5394130383001172e-02 -2.4598046291215126e-03
      3.9522755471715056e-02 -4.5962662146132649e-02
      -1.9687788841651854e-02 6.8254742019341841e-02
      -1.6381009773683081e-02 2.4616766697797308e-02
      -1.0075719360690303e-02 -2.7358394555994970e-02
      -3.8330527791111901e-02 8.8806379304332314e-02
      -3.5656887904582782e-02 -5.2258806518849496e-02
      -5.1822644701074477e-02 9.1085216031371513e-02
      -4.3097009621157478e-02 -3.9985648637168109e-02
      -4.7012523837080579e-02 6.7921032974409393e-02
      -3.0276253019429787e-02 -3.5202120547305218e-02
      1.4059757707665651e-02 1.7990453432405979e-02
      -2.6910610409292234e-02 -1.5284075784208545e-02
      -5.5766513720935267e-02 1.2375034355814413e-01
      4.2643929693373411e-02 -6.8563022683916106e-02
      -7.1539522081552356e-02 9.5266247398314796e-02
      4.3864904184985710e-02 -7.3402301948034973e-02
      -5.5672361213861897e-02 1.2834163604524629e-01
      4.9791013189993190e-02 -8.4233791449330228e-02
      -5.2411773640458105e-03 4.5457053484796270e-02
      2.8615166723249933e-02 4.0764074412294814e-02
      -1.1794377486428602e-02 3.6469822273484720e-02
      4.6028900816914624e-02 -1.7978597052030795e-02
      7.6742184000291910e-02 -6.8985246650089080e-02
      -5.6035093784259367e-02 1.6691362425208250e-01
      4.4057613722402800e-02 -5.7278822011263220e-02
      -5.0795449746061067e-02 9.2774882780171791e-02
      -7.7974119256385829e-03 5.6726496453060682e-03
      1.6787510335939507e-02 6.5776690285163170e-02
      -2.6267363392657998e-02 -3.4674662352337333e-03
      1.8939145818657695e-02 -2.6195832372738069e-03
      -8.3501967427224086e-02 -4.3208058062155524e-02
      -5.0298868757107450e-02 -7.1355970349192388e-02
      2.4271133619331083e-03 -6.5510596103549257e-02
      -4.1964206860098545e-02 6.7706690928576660e-02
      -1.4112449667351097e-02 5.4919025399568375e-02
      -3.7848838115997159e-02 -1.5933531549451135e-02
      -1.4506708281902491e-02 7.4195337700656325e-02
      -4.7340562426068357e-02 -1.9181918493452750e-02
      -7.3051647022143437e-02 1.1972361324739443e-01
      -3.3746359867849172e-03 -7.8570741994162460e-02
      3.6534229995099851e-02 4.4460044840817781e-02
      -2.4825218665624593e-02 4.2322710547380030e-02
      -8.3221903646185855e-03 4.8101018140210991e-02
      -6.0615261433414572e-02 5.4788311302934245e-03
      1.2902516553208331e-02 9.0080145411327479e-03
      -3.1663102218793954e-02 5.6717374467895210e-02
      5.4112898584970336e-02 -1.6475605232825465e-02
      -5.3027851533760779e-02 8.9146749327240593e-02
      2.6345777902862508e-02 3.5780312198602011e-02
      3.2012285174679113e-02 3.1803652801088038e-02
      -6.5461439977723329e-02 1.1736454916906641e-01
      8.4154970452254868e-02 -8.1754933440907340e-02
      -1.0358936525925642e-01 1.1122555503031023e-01
      5.5056712140333683e-02 -1.1323370029495562e-01
      7.1768536127940598e-03 7.7301882963123553e-06
      3.6524948958789868e-02 9.9796950878184333e-03
      5.2554735375828075e-02 -1.6483788641142801e-02
      -1.6525846163003604e-02 1.1553428781461217e-01
      -2.1237958723184208e-02 5.0756114303554492e-02
      -7.1186733964754764e-03 -1.9960748933399081e-02
      -2.2604842638485240e-02 2.1822598670921595e-02
      7.7078931299050316e-03 -1.0813923773859306e-02
      -1.6958027245042859e-01 5.4204366213247181e-02
      2.8269957579180379e-02 -1.0766533892829994e-01
      -9.9252516519937675e-02 8.0359125792898271e-03
      6.1566867585426104e-03 -6.6669515806184382e-02
      -1.5676237400867751e-02 3.6228675714842524e-03
      -1.4227802699325227e-02 5.6696221234352638e-03
      2.9390964951388101e-03 4.2903718993128781e-02
      -2.8445436950316469e-02 2.9057373591974082e-02
      -3.9149207281972853e-02 7.9252771800835051e-02
      1.3483485951776793e-02 -4.7881153393904887e-03
      -2.5628325368231109e-02 5.7753692288255068e-02
      -2.3334746950456189e-02 8.3034298742280376e-04
      2.8410818985867042e-02 2.4980249501700302e-02
      -7.7475094113664530e-02 5.6635428351630560e-02
      3.5638317795637219e-02 1.2355987620416327e-02
      -5.6960507362491086e-02 9.8422636019266305e-02
      -9.4092648405961821e-02 1.8150895760082797e-01
      5.3149485857195110e-02 -1.2860269316964679e-01
      -8.7991668388992632e-03 7.2999883043553357e-02
      -9.9404477162864067e-03 -3.6272314706904729e-02
      -7.2030987436885727e-02 9.5918618837016703e-02
      6.1741692424951651e-02 -1.3189721632603979e-01
      -2.1243137892515120e-02 6.0100526411262831e-02
      1.9646625917539916e-02 9.7797069928772674e-03
      6.4655292192145062e-03 5.1251612206445252e-02
      1.5210222895037980e-02 6.0209175741898976e-02
      -2.5302108003438600e-02 2.6023073786433162e-02
      3.7343588874732735e-02 2.5493005825330869e-02
      2.8358022870950357e-02 -5.1831480352219336e-02
      -5.6590731933286322e-02 1.0515736798659241e-01
      -7.7578962029008949e-02 4.5772377886156054e-02
      1.6331431847939924e-02 -8.0224728915097632e-02
      -5.0074793355935926e-02 -7.3119265846529238e-02
      -2.8442061304931619e-02 5.4204671395031703e-03
      -2.7250990479510594e-02 -5.4521900306086557e-02
      -2.8766271863832647e-02 -4.2145904916212574e-03
      -2.7213536286393104e-02 -7.7085546529015647e-03
      -2.0065139595465735e-02 8.6521225800922103e-03
      -1.2925196908008826e-02 5.0140711001089109e-03
      1.1943290702880817e-02 3.1399770307104211e-02
      -4.6298738792120694e-02 4.7659249785668989e-02
      -3.0027603476023607e-04 -1.3983314078098665e-02
      4.4843919073310000e-02 -1.0366529250486273e-02
      -4.4142564821282211e-02 5.9751885811604066e-02
      5.0887403603394825e-02 -1.6892274342240571e-03
      -6.3548880057808926e-02 8.1911592517095844e-02
      -1.5152320124196017e-02 1.0183023263083253e-01
      -2.6759386602821979e-02 -3.5524595905009428e-02
      7.2226871088100067e-02 -1.7849156039727088e-02
      -3.6480150018112438e-02 7.2314887747438855e-02
      4.0117231210804787e-02 5.0695441436375988e-03
      -2.8014037477088808e-02 3.5428950380909985e-02
      1.1122373285599287e-02 3.3912431147441253e-02
      4.4657449663688939e-02 -4.1108823486524775e-02
      3.3002350940375988e-03 3.1715092699700451e-02
      6.6110286589251208e-02 4.0645059309319172e-02
      -3.0957198194788319e-02 4.0096718877997109e-02
      4.1372796154537629e-02 2.5233894316370891e-02
      1.3903717664134658e-02 -1.2339797066744511e-02
      4.9895561553044712e-02 7.2030164566157850e-02
      5.3282485051079964e-02 -3.5963498709621525e-02
      -2.3526713507048175e-02 6.5416890062521243e-02
      5.7810817882915859e-02 -4.4965177030206194e-02
      -1.8743468262703473e-02 5.3598220287795303e-02
      -6.2245092627973612e-02 -7.5005737422722749e-02
      -1.5909318878045281e-02 -1.7858301476438836e-02
      -3.6532486005392856e-02 -7.3643810737984245e-03
      -3.3199817154464392e-02 -4.2973737120198141e-02
      -2.3863225814215353e-02 -1.9132371680829274e-02
      -3.0464127198084091e-02 2.4150674126238409e-02
      -1.0105310024911672e-01 3.0689650519254430e-02
      2.0895204350073762e-02 -4.5517273276129262e-02
      -1.6238685831387704e-02 5.2531210822360272e-02
      -6.1930588034478174e-03 1.6445388411770012e-02
      2.0765021074697590e-02 1.8806824207961592e-02
      -3.7630017398350590e-02 1.5699468414577526e-02
      6.3902576848373874e-02 -2.6567570058113849e-02
      -2.0952264958221729e-02 8.3788504675309128e-02
      9.3685291308333550e-03 2.0314508173206625e-02
      2.2101025646114165e-03 6.8272513266854750e-03
      1.4529753297211291e-02 1.1562269111456023e-02
      -1.2434795526652427e-02 -2.2115703877664879e-02
      -3.4480040488591393e-02 3.9385924249706286e-02
      4.7570854181400057e-02 -8.7720616532968240e-02
      5.7496892032266662e-02 3.9687165190679672e-03
      5.1561813578557436e-02 2.2037795379411539e-02
      5.8422473702477017e-02 -1.2868261227244075e-02
      2.4561267693706111e-02 6.4413485634816359e-02
      7.3751623489222012e-02 -3.0708527179411700e-02
      3.3014996622238113e-02 9.0808916943278320e-02
      2.4156933659133836e-02 -3.0999532419884832e-02
      2.4955590525965521e-02 4.5012101051246305e-02
      5.3450867106750316e-03 -2.1727492073320465e-02
      4.6703461829208873e-03 5.5602116962938071e-03
      -9.6536552265078235e-03 9.8627866375277096e-03
      -2.0248953481251612e-02 -8.0494876715356302e-03
      -4.7680641666271936e-02 -5.5047115634084924e-02
      -3.6120680679590504e-02 2.9936146500531046e-03
      -6.3373055055359881e-02 -1.0160045874718648e-02
      -1.7782556564151807e-02 -2.7937842248691933e-02
      1.4781746938438261e-02 -6.9421890129646488e-02
      -7.8259328917993018e-02 7.1483450984928906e-02
      -5.9510494290406092e-02 7.4519034851843642e-03
      -3.1602817710473415e-02 -7.5330094000702315e-03
      9.5032511735129537e-04 1.5069175766268039e-02
      -5.4197832551352708e-02 1.3669561008037559e-02
      -4.5288605397139081e-02 1.3405322146429396e-01
      2.7282949867716060e-02 -6.5295674135574730e-02
      -2.7455580139777516e-02 4.4812404554788660e-02
      2.0099822582574055e-03 -2.3616487515456630e-03
      -4.5075524689606662e-02 4.3463228598897882e-02
      2.8623245587300087e-03 -4.2808209741379340e-02
      -9.0012683310726916e-03 9.0368867752586828e-03
      -1.0387524947055395e-02 -5.8664176994096456e-02
      7.4228881818183198e-02 -3.2205331811485827e-02
      -2.6331855395280480e-02 4.5400632476562681e-02
      9.1820879024969174e-02 -3.5742614488129758e-02
      -2.5123798383646343e-02 7.5363727394318583e-02
      -1.4935272847340237e-02 2.9829766182575847e-02
      5.3604950393927348e-02 -1.5098128770259619e-02
      4.3565300276226598e-02 -8.3375785625326975e-03
      2.7270308333219681e-02 4.1382900876703280e-02
      -3.1894757468006976e-02 3.5795783734561507e-02
      2.6767336239133525e-02 -2.4839132055066680e-02
      -3.2619122144457870e-02 2.9289653255050403e-02
      4.9810135735497063e-03 -2.8805135184887601e-02
      -6.1739800860500668e-02 2.6399153643030086e-02
      -1.0832393159380144e-03 -5.3039075236066074e-02
      -2.5021960837606039e-02 7.1317355708616872e-02
      -8.6319088246022871e-02 9.8827200950716551e-02</_>
    <_>
      4.9711848825388649e-01 -1.4748473250842203e-01
      5.1433639508744255e-01 3.8450773002886052e-01
      -4.6847318344435745e-01 7.6147557937280064e-01
      -4.4095282632400867e-01 -3.8120085982008750e-01
      -6.4236194898223231e-01 -9.5378478241481102e-02
      -3.6238504553171895e-02 2.9969232150285985e-01
      7.5892820149168350e-01 -1.9111119360797252e-01
      4.4842715105463671e-01 5.1788966837894301e-01
      1.1239548947413448e-01 -1.8471194357327950e-01
      2.7888955582190872e-01 -3.8474902861270549e-01</_>
    <_>
      4.4965018216161401e-01 -4.5649233042351206e-01
      1.1451207294107553e+00 -1.6163099055397975e-01
      9.2947556864370937e-02 6.4343253768997688e-01
      -2.0285575632692565e-01 -2.1107471754207299e-01
      -4.5073320337922340e-01 -4.0928754986339584e-02
      6.3173899956238211e-01 -3.4604043903393972e-01
      4.4164491692873717e-02 2.2878537487258274e-01
      5.4175847681131672e-01 6.6422237771964321e-01
      -6.8975264092863864e-01 -1.0462667006936559e+00
      -1.4741699237916639e-01 -1.7832513260138907e+00</_>
    <_>
      -1.4205865490609573e-01 -2.2853238080455551e-01
      -4.6463804457567387e-01 8.8270404735152030e-01
      4.5890756537112715e-01 5.8399970553100589e-01
      -8.0236808954924044e-01 2.5547294614013544e-01
      -7.5446639403361537e-01 9.6660683106755418e-01
      6.0740223227427459e-01 1.1122149696299896e-01
      9.2281646782722230e-04 5.7977341417362160e-01
      -3.8022228916785233e-01 -2.7845823656849994e-01
      1.6635919707327440e-01 6.9599449446854378e-01
      1.4318855224350964e+00 -2.8272618085771195e-01
      1.5165227174618101e-01 -2.7876197201340630e-01
      -6.3292997143926377e-01 2.5315379536062987e-01
      1.0979136835220229e+00 5.5065087118026124e-01
      5.1769190534778575e-01 1.1858682144914821e+00
      5.2149413168147896e-01 6.8142947814789778e-01
      5.3594142349279972e-01 1.1903889047549987e+00
      7.1916513879681598e-01 8.8746923100427733e-01
      -4.7146270397430030e-02 -4.8934182761799888e-01
      -2.3150771531412973e-01 9.1152598892565517e-01
      -3.0261468213619935e-01 3.3858978959230535e-01
      1.1876635389408240e-01 4.0752136080629525e-01
      3.6251026577808937e-01 1.4785469853995370e-01
      -1.5109205381065521e-01 9.2713870211789595e-01
      2.8456895046958536e-01 2.3752568708835686e-01
      1.5351729966984110e-01 -5.1509544409700481e-01
      -5.9268016320036521e-01 7.8032897782780264e-01
      2.1193568725400666e-01 -1.4753131406351359e+00
      -1.9229654228231887e+00 1.4813992162846948e-01
      6.0317040598862892e-01 5.6075567468869736e-01
      5.9522964756731123e-01 3.1557148528137330e-01
      8.3252196940212714e-02 2.5465821195705551e-01
      -3.5309964929979143e-01 8.6515754737976458e-01
      1.7864654290782305e+00 -6.5202663808363051e-02
      -1.7818186994082733e-01 -1.2536107482686681e-01
      5.9012767106865933e-02 4.2112531356757699e-01
      -4.4413616752412127e-01 1.1964733394593847e-02
      2.0134620168758130e-01 5.1793555367630473e-01
      1.6574626179737559e-01 1.1281718518783586e-01
      3.7903358888172861e-01 -2.5084399770317967e-01
      2.8750815899043458e-01 3.5643103096551815e-01
      7.2034992037253931e-01 1.3849313031239274e-01
      8.4325009511704552e-01 -1.8466224379783475e-01
      4.5104633749399892e-01 7.9585675255711441e-01
      1.0770094434257258e+00 3.4569531706768047e-01
      1.1296943786445746e+00 1.0278250270667542e+00
      1.3516087350532757e+00 6.3608699238696187e-01
      1.4842480103996694e+00 -9.6221425074881670e-02
      1.1325123367050933e+00 1.0265474919605770e+00
      2.9839358944487471e-01 3.3232773591082693e-01
      3.0593271437903358e-02 8.0362654253805277e-01
      3.2227888389903475e-01 9.6057548847678242e-01
      1.6830313318726622e-01 4.4386350538321950e-01
      -7.8530008438940202e-01 -4.3989038738860098e-01
      -6.6176404169080594e-01 -8.5537432849758699e-01
      -3.6894447368784700e-01 -9.4509271810206807e-01
      -1.2601768348964613e+00 -2.9292645790008298e-01
      -6.8242518353388582e-01 -1.3857217695175046e+00
      -5.7396667404378576e-01 1.3103186207642864e-01
      -4.1472597736982919e-01 -7.3499926831496232e-01
      -1.2804543445345906e-01 -1.8107103601924615e+00
      -4.0251059726485172e-01 -3.1474000465608165e-01
      -1.0397229759795521e+00 -1.0262189150833834e+00
      -1.5721017382630715e+00 -9.5556076362916031e-01
      -1.2745434847699821e+00 -1.1500770558426487e+00
      -1.5626525386385104e+00 -6.9436001875559938e-01</_></weights></opencv_ml_ann_mlp>
</opencv_storage>
