<?xml version="1.0"?>
<opencv_storage>
<opencv_ml_ann_mlp>
  <format>3</format>
  <layer_sizes>
    256 32 26</layer_sizes>
  <activation_function>SIGMOID_SYM</activation_function>
  <f_param1>6.6666666666666663e-01</f_param1>
  <f_param2>1.7159000000000000e+00</f_param2>
  <min_val>-9.4999999999999996e-01</min_val>
  <max_val>9.4999999999999996e-01</max_val>
  <min_val1>-9.7999999999999998e-01</min_val1>
  <max_val1>9.7999999999999998e-01</max_val1>
  <training_params>
    <train_method>BACKPROP</train_method>
    <dw_scale>1.0000000000000000e-03</dw_scale>
    <moment_scale>0.</moment_scale>
    <term_criteria>
      <iterations>128</iterations></term_criteria></training_params>
  <input_scale>
    5.3030332168029458e-02 -7.4822704572884993e-02
    1.6735070655539969e-01 -2.8859625833150986e-02
    1.5277734473113852e-01 -3.0589671234120503e-02
    4.8401560290886915e-02 -8.2296874304583434e-02
    4.2772228040115323e-02 -9.2800833091373755e-02
    2.5727479989436326e-02 -1.6113602725159343e-01
    2.1407329278921038e-02 -1.9755277723892509e-01
    1.8488066082741346e-02 -2.3164794034467676e-01
    2.9237232608428112e-02 -1.4357211636006617e-01
    3.5384433270506312e-02 -1.1652058724239066e-01
    4.7041350123102482e-02 -8.6266609121091742e-02
    2.8972879537209149e-02 -1.4029976044539968e-01
    3.1283310003918104e-02 -1.3140784822759582e-01
    5.0703543624007634e-02 -8.4486987689702947e-02
    4.5299868229607486e-02 -9.9685697157010172e-02
    3.9993781130929884e-02 -1.0528375473455720e-01
    7.1946292196655021e-02 -5.6121530571757623e-02
    1.1271962865957642e-01 -4.2189031294860346e-02
    2.0196924963618856e-01 -2.6577875931556649e-02
    5.1428270213606943e-02 -7.7552565024086861e-02
    2.1226761379563988e-02 -1.9241300349448062e-01
    1.5084258432318230e-02 -2.8272484464654218e-01
    1.2638028839730166e-02 -3.5208943589427072e-01
    1.1118123033549221e-02 -4.1730529960007173e-01
    1.3037249562812559e-02 -3.4007575188828637e-01
    1.4879583727943888e-02 -2.8838640249324132e-01
    2.2759185780907448e-02 -1.8221678600382049e-01
    2.2012811981347843e-02 -1.8773414331791025e-01
    2.7177729220711828e-02 -1.5022283531546249e-01
    5.0413867483108270e-02 -8.4900141181851282e-02
    4.4882103844668210e-02 -1.0040855720895482e-01
    3.9857479458835408e-02 -1.0560252288127989e-01
    8.0784010776895829e-02 -5.1633043406864441e-02
    1.1005040957491317e-01 -4.4323506920580319e-02
    5.8810840965186455e-02 -6.9467065821757948e-02
    3.2745575692777175e-02 -1.2175013052807722e-01
    1.7231590229241655e-02 -2.4182452556286879e-01
    1.1457920800402753e-02 -4.0060078238195596e-01
    9.2294398440899428e-03 -5.6751757158562210e-01
    8.5465753384425681e-03 -6.7486614507141485e-01
    8.4872524508181890e-03 -6.8153634702395327e-01
    8.7865758125129159e-03 -6.2029512425517930e-01
    1.1613240265919030e-02 -3.9639952185970984e-01
    1.4488510667486694e-02 -2.9770676284787440e-01
    2.3218600303742381e-02 -1.8011714668255729e-01
    3.0558636310805024e-02 -1.3535889590168043e-01
    4.1732221185978281e-02 -1.0652898325409091e-01
    3.9998546754215644e-02 -1.0526831750012861e-01
    6.7705915927113433e-02 -6.5778092519926140e-02
    7.6325203109428530e-02 -5.9142154025467353e-02
    3.1291724912839582e-02 -1.2918399180296464e-01
    1.6868419584800603e-02 -2.4960752984748355e-01
    1.1577398086899667e-02 -3.9683163988262427e-01
    8.3363722596027697e-03 -7.2635148592025967e-01
    7.9172373693972026e-03 -9.9418933063619053e-01
    7.9814179127242792e-03 -1.1742908185208396e+00
    7.9993049280892882e-03 -1.1779880303831212e+00
    7.9272406123782491e-03 -1.0115178986461251e+00
    8.1979073623991202e-03 -7.6180261426532048e-01
    9.1396560613202973e-03 -5.8141422658729902e-01
    1.0697095519223834e-02 -4.4575472051703408e-01
    1.3833527150718585e-02 -3.1641846477225355e-01
    2.8924973150620925e-02 -1.4752464793617723e-01
    3.9669749613621588e-02 -1.0679527318327776e-01
    4.7258488060403205e-02 -9.1108308064959495e-02
    4.1193614782069413e-02 -1.0243647946191808e-01
    1.9601102544513058e-02 -2.1435329126543326e-01
    1.1432571149708129e-02 -4.0687444169357928e-01
    8.1486615457065491e-03 -7.8594906649831930e-01
    8.1314913509703025e-03 -1.2501533657108002e+00
    8.8486153344342969e-03 -1.6316496297777066e+00
    9.4702405174135196e-03 -1.8681967452380588e+00
    8.9812966109052757e-03 -1.6846069893725588e+00
    8.3488346309993668e-03 -1.4052985774701015e+00
    7.9078159569089552e-03 -1.0743227708471044e+00
    8.3016776406112155e-03 -7.3085718842404901e-01
    9.2727976818082775e-03 -5.5606555758404430e-01
    1.2811045799697111e-02 -3.4766654450862644e-01
    2.0067507640465720e-02 -2.1138270763271316e-01
    2.9813562779500275e-02 -1.4074571263192098e-01
    3.7938803875475373e-02 -1.0947683247878359e-01
    3.0796220369159594e-02 -1.3863469932099570e-01
    1.5077153796638116e-02 -2.9029902531906687e-01
    8.7642988684766727e-03 -6.3186646186007212e-01
    7.9190226753626056e-03 -1.0345249673701504e+00
    8.9425076552723942e-03 -1.6608302488911895e+00
    1.0200507452166333e-02 -2.1093691730864443e+00
    1.1220725907085947e-02 -2.4374589622066738e+00
    8.9107411903855110e-03 -1.6664569694975231e+00
    8.7316268201975116e-03 -1.5883784570320609e+00
    7.9445042336828142e-03 -1.1178163117269633e+00
    8.3416066475801316e-03 -7.2542857491725643e-01
    9.4533605398579926e-03 -5.4909250140628352e-01
    1.4546158936605186e-02 -3.0081770114294826e-01
    2.6253135774927772e-02 -1.6290755820375985e-01
    3.1089832281003756e-02 -1.3822947467151475e-01
    5.8710986376101275e-02 -7.6943676212642031e-02
    2.8746517422605974e-02 -1.4979401173257195e-01
    1.1978070492536767e-02 -3.9017387269074594e-01
    8.4175761911917824e-03 -7.0502471155793311e-01
    8.0525159924505641e-03 -1.2203736147444937e+00
    1.0596561542456761e-02 -2.2320507087383548e+00
    1.1798489963447002e-02 -2.6129453903852937e+00
    9.9894466062828927e-03 -2.0515293090009914e+00
    8.7231174314574521e-03 -1.5849496716427884e+00
    8.3260449327889063e-03 -1.3934201788252243e+00
    7.8950972513368335e-03 -9.7112623574641044e-01
    8.6534663193981193e-03 -6.4938168434524024e-01
    9.8580297684248246e-03 -5.0573403073977219e-01
    1.6612732277525619e-02 -2.6225546740981764e-01
    2.9220413103211499e-02 -1.5246783901566577e-01
    3.5844646757822320e-02 -1.2507509768713473e-01
    4.6350304715680572e-02 -1.0171839293593003e-01
    2.2737506602429354e-02 -1.9445069834155373e-01
    1.0543708575639204e-02 -4.6101026945312851e-01
    8.1763062827976442e-03 -7.7428945526678150e-01
    8.3668318288282924e-03 -1.3948621972924178e+00
    1.2974136892895845e-02 -2.9503853519188357e+00
    1.3455084730472560e-02 -3.0911198081067290e+00
    1.0703053279904706e-02 -2.2779090999828417e+00
    8.4661890264567680e-03 -1.4664240169502694e+00
    8.1858563172027068e-03 -1.3253814225946987e+00
    7.9693013108510565e-03 -9.2221330137781332e-01
    8.5448376054337027e-03 -6.6857047557835825e-01
    1.0350130536592953e-02 -4.6994472997109804e-01
    2.0026755651414454e-02 -2.1680146888593285e-01
    3.0372723038320976e-02 -1.5521239170681361e-01
    3.0500196481868629e-02 -1.4143948677746915e-01
    4.2261913364239991e-02 -1.0990640167125319e-01
    1.5702003924964947e-02 -2.8705205328392613e-01
    9.9039563885674649e-03 -5.0437217835806547e-01
    7.9526768996552189e-03 -9.1759837649915077e-01
    8.8428367651012894e-03 -1.6157874586347689e+00
    1.1682777360017271e-02 -2.5703589541906586e+00
    1.3245388390075078e-02 -3.0305456049609671e+00
    1.1111165722571707e-02 -2.4051771589009041e+00
    9.2862356147789520e-03 -1.8055796877771582e+00
    8.3559559823877510e-03 -1.4090600520800076e+00
    7.9449398567139791e-03 -9.6534354199549188e-01
    8.4508446172876246e-03 -7.1076131947617294e-01
    1.0068284205026671e-02 -5.0089819575711536e-01
    1.5288130171687309e-02 -2.9436870034720741e-01
    2.4436606393960662e-02 -1.8977775564482854e-01
    3.1977781245678467e-02 -1.4020872282149199e-01
    2.1003122967265284e-02 -2.2400784263365939e-01
    1.2926643295504451e-02 -3.6694068492846005e-01
    9.7574407398275404e-03 -5.2119573816642684e-01
    8.0035409873851285e-03 -1.1576007231333190e+00
    9.0529172617846675e-03 -1.6941653683839746e+00
    1.0942145336177376e-02 -2.3447515532303060e+00
    1.1763552184842613e-02 -2.5961486481400060e+00
    1.1829293977625973e-02 -2.6154259473131303e+00
    9.9450365215335915e-03 -2.0265095680945806e+00
    8.3797464019978694e-03 -1.4073072970333285e+00
    7.9238857447825311e-03 -1.0094117977964745e+00
    8.3129219574764011e-03 -7.4830138917314748e-01
    1.0538301350372759e-02 -4.6807191766704626e-01
    1.5642304143083579e-02 -2.8160853061847019e-01
    2.7775592377275289e-02 -1.6526419169545867e-01
    3.4590428700086412e-02 -1.2927247104789535e-01
    1.9286471273323075e-02 -2.4381856058308193e-01
    1.4034503858474457e-02 -3.2710487365064644e-01
    9.0017455562117210e-03 -6.0549302516275638e-01
    7.9133268586634026e-03 -9.5714495167285174e-01
    8.2702793326084323e-03 -1.3179795790486954e+00
    9.7005665358992771e-03 -1.9300388066743688e+00
    1.0732835594952556e-02 -2.2766879210352364e+00
    9.7734634036791609e-03 -1.9578426979389070e+00
    8.5837053672419387e-03 -1.4984486905078893e+00
    7.9491699598953081e-03 -1.0195664116764869e+00
    8.2194545956174713e-03 -7.7636124071758983e-01
    9.5836526734082248e-03 -5.5019512652783620e-01
    1.3157197594724236e-02 -3.4745992061383091e-01
    1.9430251210684254e-02 -2.2667901436905588e-01
    2.5163720814192863e-02 -1.7712837088574429e-01
    2.8487040588937414e-02 -1.5516807704030208e-01
    1.5252612362220145e-02 -3.0411856627218081e-01
    1.2482233189229556e-02 -3.7718891542299193e-01
    8.8330283571620913e-03 -6.1890089475539534e-01
    8.1192482160443741e-03 -8.0444118544616228e-01
    7.9408954581416044e-03 -1.0432938892179076e+00
    8.2023701510038610e-03 -1.3037447576948171e+00
    8.1670346578659042e-03 -1.2672610670961371e+00
    8.0151490300289698e-03 -1.1085241569366608e+00
    8.3075556928994196e-03 -7.6145483938469261e-01
    9.1227641606113144e-03 -5.9039869532671518e-01
    1.0818372955756628e-02 -4.4914790521211334e-01
    1.4589936879525988e-02 -3.0786052902302435e-01
    2.1634263384188959e-02 -1.9984071879516985e-01
    3.1539642797444971e-02 -1.4037943293803321e-01
    3.2809273185707234e-02 -1.3910085165805441e-01
    3.1412283443697876e-02 -1.4284084311997469e-01
    1.8028294154487975e-02 -2.5359682727400223e-01
    1.4041869612334661e-02 -3.1879484292187155e-01
    9.6336702979705393e-03 -5.1942561205022353e-01
    8.7419726112973155e-03 -6.4087270334580626e-01
    8.3434590712668892e-03 -7.3740091319144108e-01
    8.1432054663097345e-03 -8.3119488173046241e-01
    8.1549654926924876e-03 -8.1601058480226363e-01
    8.3337628316349135e-03 -7.4847906232058403e-01
    9.1349847597552471e-03 -5.9755479641632225e-01
    1.0781849569347669e-02 -4.5025046041946776e-01
    1.5145619740060840e-02 -2.9056724189849892e-01
    2.2191394221463410e-02 -1.9456825746460915e-01
    2.7202228133152252e-02 -1.5538992120863862e-01
    4.0959077312518063e-02 -1.0975909454167426e-01
    3.9514878329924882e-02 -1.1743333086996005e-01
    3.7204945330582231e-02 -1.1633377861692829e-01
    2.3029261633369193e-02 -1.9491577801373106e-01
    1.8554482764761088e-02 -2.3007480744648659e-01
    1.3156960260234281e-02 -3.3403804534773907e-01
    1.0050857641610388e-02 -4.8592317652454464e-01
    9.1441017587084016e-03 -5.7934991887152953e-01
    1.0055826908470804e-02 -4.9143615428532650e-01
    1.0764226692075883e-02 -4.4983533154829836e-01
    1.0977180037842338e-02 -4.4359511020420245e-01
    1.2538132630265706e-02 -3.7467298069746641e-01
    1.4142144970350027e-02 -3.1886708021820909e-01
    1.9161685165585238e-02 -2.2585693578201566e-01
    2.7106849645303317e-02 -1.5680973067864040e-01
    2.5770867365218549e-02 -1.6605929127891561e-01
    2.8597509000097495e-02 -1.5045002636122370e-01
    3.8808048849481996e-02 -1.2183240409064328e-01
    3.6191339473625871e-02 -1.2173496585224093e-01
    3.0372736143563180e-02 -1.4391033306248099e-01
    2.1765406427916245e-02 -1.9222353029618855e-01
    1.8377320840207399e-02 -2.2664762391762150e-01
    1.5203672044136651e-02 -2.8321439425774603e-01
    1.5740600472584940e-02 -2.7095108061281126e-01
    1.7160816723433430e-02 -2.5220781958690902e-01
    1.6582755972684226e-02 -2.6426490595870383e-01
    1.7217759566162661e-02 -2.5526587305873966e-01
    2.1141264171850159e-02 -2.0946475834685430e-01
    1.8868471088012262e-02 -2.3201724903642446e-01
    2.7122919285701798e-02 -1.5490841504450281e-01
    2.2826706722479984e-02 -1.8224316294734963e-01
    2.1195149044255557e-02 -1.9722283398134174e-01
    2.4159341447034185e-02 -1.7482986707288156e-01
    3.2797788501794170e-02 -1.3722572681812664e-01
    3.5702302609845984e-02 -1.2298736396451772e-01
    4.7022999041237960e-02 -9.7141607575816122e-02
    2.8311066666263079e-02 -1.4676437945782106e-01
    2.7283986683222766e-02 -1.5582832690953827e-01
    2.1774220581779885e-02 -1.9585373684203314e-01
    2.2491783595374709e-02 -1.9137527607529439e-01
    2.7096696935742202e-02 -1.6643976430377538e-01
    2.4895405039891762e-02 -1.7346144290947391e-01
    2.7209943115707222e-02 -1.5954765442142754e-01
    2.2571331911012554e-02 -1.9550556904312746e-01
    2.1229645725076844e-02 -2.1036419412719734e-01
    3.0188347683443015e-02 -1.4025099992738796e-01
    2.8053802955059985e-02 -1.5029608062792352e-01
    2.3887229466107558e-02 -1.7589550422940753e-01
    2.5169443218592876e-02 -1.6862153501461388e-01
    3.3934089314647094e-02 -1.3599037625653626e-01
    3.4007483185792615e-02 -1.2968713505369772e-01</input_scale>
  <output_scale>
    5.2631578947368418e-01 4.9999999999999994e-01 5.2631578947368418e-01
    4.9999999999999994e-01 5.2631578947368418e-01 4.9999999999999994e-01
    5.2631578947368418e-01 4.9999999999999994e-01 5.2631578947368418e-01
    4.9999999999999994e-01 5.2631578947368418e-01 4.9999999999999994e-01
    5.2631578947368418e-01 4.9999999999999994e-01 5.2631578947368418e-01
    4.9999999999999994e-01 5.2631578947368418e-01 4.9999999999999994e-01
    1. 0. 5.2631578947368418e-01 4.9999999999999994e-01
    5.2631578947368418e-01 4.9999999999999994e-01 5.2631578947368418e-01
    4.9999999999999994e-01 5.2631578947368418e-01 4.9999999999999994e-01
    5.2631578947368418e-01 4.9999999999999994e-01 5.2631578947368418e-01
    4.9999999999999994e-01 5.2631578947368418e-01 4.9999999999999994e-01
    5.2631578947368418e-01 4.9999999999999994e-01 1. 0. 1. 0. 1. 0. 1.
    0. 1. 0. 1. 0. 1. 0. 1. 0.</output_scale>
  <inv_output_scale>
    1.8999999999999999e+00 -9.4999999999999996e-01
    1.8999999999999999e+00 -9.4999999999999996e-01
    1.8999999999999999e+00 -9.4999999999999996e-01
    1.8999999999999999e+00 -9.4999999999999996e-01
    1.8999999999999999e+00 -9.4999999999999996e-01
    1.8999999999999999e+00 -9.4999999999999996e-01
    1.8999999999999999e+00 -9.4999999999999996e-01
    1.8999999999999999e+00 -9.4999999999999996e-01
    1.8999999999999999e+00 -9.4999999999999996e-01 1. 0.
    1.8999999999999999e+00 -9.4999999999999996e-01
    1.8999999999999999e+00 -9.4999999999999996e-01
    1.8999999999999999e+00 -9.4999999999999996e-01
    1.8999999999999999e+00 -9.4999999999999996e-01
    1.8999999999999999e+00 -9.4999999999999996e-01
    1.8999999999999999e+00 -9.4999999999999996e-01
    1.8999999999999999e+00 -9.4999999999999996e-01
    1.8999999999999999e+00 -9.4999999999999996e-01 1. 0. 1. 0. 1. 0. 1.
    0. 1. 0. 1. 0. 1. 0. 1. 0.</inv_output_scale>
  <weights>
    <_>
      -1.8696132302207008e-01 1.7545987298882345e-02
      -9.6575763204812926e-02 -3.8196338774971778e-05
      1.0660181741477294e-01 6.8043792082101082e-02
      -1.0330377313368751e-01 -7.1457885089694362e-02
      2.2194501705493284e-02 -7.6967991763066249e-02
      4.3903357709934386e-02 2.3415548365795208e-02
      5.7654537049113649e-02 8.9649217838313797e-02
      4.3666295592108960e-02 5.1028047520047547e-02
      1.4634933150792850e-01 -8.3295597984906627e-02
      3.1222825368335677e-02 2.3189845287222798e-02
      -5.5188566471521504e-02 -1.2866243529313914e-01
      1.5335160043788676e-01 6.3021547464172226e-02
      9.7755018469946928e-02 -2.9820875754989078e-02
      5.5763850122508223e-02 -1.5404861293412561e-01
      -5.6785601759535814e-02 1.2259929945967162e-01
      5.4226037049986117e-02 -2.3826605952690719e-02
      -1.0367845017982998e-02 6.7071793508807574e-03
      -7.5397912114152565e-03 -8.1745041360080737e-03
      1.0690203066823299e-02 3.2412212227844205e-03
      2.7444825935715859e-03 -2.1675152911721481e-03
      1.1917745217204257e-02 -1.0793037808957099e-02
      4.4795461259042662e-03 -4.2949164954256469e-03
      6.3065818225347056e-03 1.0151130936741675e-02
      -7.4871188499316382e-04 1.1339353138935311e-02
      -1.6756691029068117e-02 1.8961143732832766e-02
      -2.9136816776649259e-03 4.9072451755453345e-05
      4.4843417392809908e-03 -5.5605152515499747e-03
      1.7406401163674501e-04 1.0631436747625757e-02
      8.4456394345017068e-03 1.4184548926819839e-03
      1.0931765254589328e-02 -1.0128462004688343e-02
      -1.5109052302630458e-02 7.9904150166786835e-03
      1.0456488541787077e-03 1.6430648434903881e-03
      8.3465966576144433e-03 -5.1629704591864643e-03
      -1.9976389808469444e-03 4.5229191868174532e-04
      -3.3302652246545932e-02 2.4834662044900070e-02
      1.8574375134914410e-02 1.7089382742727737e-02
      7.6097198039204060e-03 7.1764629516441582e-03
      -3.0840781250472755e-02 -2.2271109274778395e-02
      2.3567282127565019e-03 -2.8604309344418661e-03
      -4.2622400447904652e-03 -5.4707932126575468e-03
      -9.6254080675270848e-03 -7.9049983206087859e-03
      -2.4628454699861108e-02 -5.1804220412341451e-03
      8.4012989671026512e-03 -3.1740140338381178e-03
      -3.7235148006402860e-02 3.3524435004951784e-03
      -2.9883259991178097e-02 -3.5471985226156176e-03
      4.2095703729472158e-03 1.4749667795009318e-02
      1.5196340782569139e-02 -1.4805307959557631e-02
      1.0125931923657369e-02 4.5997929215980539e-02
      -3.3537364464116093e-02 1.5302816736343096e-02
      -1.8141339693336117e-02 -1.7249544613591693e-02
      7.1123547963632502e-02 -1.2460121260176792e-01
      -6.3624313310904512e-02 -2.3857542935876601e-02
      6.2750830398473675e-03 -2.1055930439559865e-02
      8.1836726593425575e-03 1.4105406160592643e-02
      6.3702622858106883e-03 1.2989367507108432e-02
      4.4646285084454146e-02 -6.7585121594346570e-02
      -3.9972652129306133e-02 -1.1483970680268095e-01
      3.5393595298632362e-02 2.8122722067760089e-03
      -3.0335707614464646e-02 1.1284617442215758e-01
      4.8757198215882959e-02 1.3243994947152980e-02
      5.1765454566877762e-02 -6.2226533604752582e-02
      3.2489775038408719e-02 -1.3220898948210274e-02
      3.1120823106677944e-03 5.0540535924024473e-02
      -2.1614701154666323e-03 -5.7174948058576848e-02
      -4.0650286152334819e-02 -4.5962581506469331e-03
      -4.5890192131749094e-02 -3.8507873984598470e-02
      6.3230751547409064e-02 -6.4867321721580093e-02
      -3.8985765394031779e-03 -1.9505244810371098e-02
      2.8290153130823188e-02 -4.3198049018645455e-02
      -1.5228754691568834e-03 -1.3284580009944699e-02
      3.2422752964016185e-02 3.1682829828029849e-02
      1.2810600217474510e-01 3.1858805605016476e-03
      -7.4943420642372124e-02 1.3788480515752067e-02
      2.0285342314177907e-02 -1.9705948756654152e-03
      -1.7421809172102731e-02 -3.2044166493067341e-03
      5.0556815166903420e-02 6.0275470369979753e-02
      2.7898479165927231e-02 -6.1200985898315054e-02
      9.4922297430662887e-03 -1.9801924333983870e-02
      -1.3546432727100388e-03 4.1512997873461036e-02
      3.2533879838941085e-02 5.1371929504313166e-03
      -6.9392160201034170e-02 2.0048807572279035e-02
      -1.9073638714311360e-02 -3.3399469933932190e-02
      3.1130832289066636e-02 -9.5639063751044445e-02
      -7.2818689579805876e-02 2.5370860449484466e-02
      4.3926176246431636e-02 -1.0334695738228563e-02
      7.0012843357259491e-02 -2.1654194482320928e-02
      5.2225857426108800e-03 1.8882167167820391e-02
      2.5886430549188422e-01 5.2170651529974917e-02
      4.9720107488065164e-02 6.9963691467098799e-02
      7.9218639345797218e-02 -3.0334088530816806e-02
      -5.5040924458620251e-02 -7.9890161713925642e-02
      4.6779913288919221e-02 2.1639390665188185e-04
      4.2526435353800011e-02 -9.4996582637580304e-02
      3.3197065186001263e-03 -2.4357135431710648e-02
      -4.5623056743836123e-03 2.1295176138794236e-02
      -1.4986552896118601e-02 -8.0879330703621813e-02
      -3.2555481941144819e-02 1.3631545249525076e-02
      -1.1272986986536541e-03 -2.0851247508695832e-02
      -5.8090519622510488e-03 -1.4598251599765241e-01
      -1.9284527412722977e-02 1.8998937259461710e-02
      2.4225136861948503e-02 -2.1064437531910823e-02
      3.1696948910795497e-02 -2.4244741158395321e-02
      1.1309494787972484e-02 2.9493872170015131e-02
      1.6137165247643048e-01 1.8112301134713047e-02
      1.2243484598824336e-01 -1.8173433032466844e-02
      2.4548108651290403e-02 -6.4910585113445848e-03
      -4.1464537470991741e-02 -2.9769882828135048e-02
      -4.5116255759885399e-03 -4.4702820735079470e-03
      1.5083751564526496e-02 -8.3396983114103984e-02
      1.8890712795111640e-02 -1.8459498041694673e-02
      -2.3472022077178023e-02 3.9013607154902000e-02
      -2.4251644820647996e-03 -6.8788091144429755e-02
      -6.2612326927158179e-02 -7.3454137255855628e-04
      5.8890206062110463e-02 -5.4481666819378098e-02
      -3.2415701101305401e-03 -2.0325810062959207e-01
      -2.7724460347918201e-01 1.4051831059682303e-02
      3.7279554303384664e-02 6.8613069186605855e-02
      4.0162623442653977e-02 -2.7542452510494590e-02
      -1.7310794351935315e-02 8.0921936555336978e-03
      2.6907737006244542e-01 1.0917288121870364e-01
      2.1428300197386541e-01 6.7583078240269545e-02
      1.3190094366961477e-01 -2.4103182781750682e-02
      -1.0040058903003454e-01 -4.1471742618683485e-02
      -7.1179197540037181e-02 -1.1792789134074196e-01
      1.4080364993273111e-02 -1.5351316418793556e-01
      1.4767387696692291e-01 2.7074010143237758e-02
      1.4372265339139016e-02 3.1190810736600048e-02
      -8.2862145257425357e-02 -1.1303490359115476e-01
      3.0892822717798356e-02 -2.8228860702672321e-02
      4.0234243280445461e-02 -8.4788083738403987e-03
      -9.0852811116242702e-02 -2.1018146247095509e-01
      3.9824524296621408e-02 4.2515257105637097e-02
      -2.0971418928744542e-02 4.4534353912204165e-02
      -3.0729454242289001e-02 4.6660666218124765e-02
      -7.6551624420063927e-02 -6.4006222362552018e-02
      9.1156906258722123e-02 4.5995759761931598e-02
      -1.3678393172470540e-01 8.4196190937130919e-02
      2.2108652564611156e-03 -8.0865820939312522e-02
      1.7886443301696506e-02 3.9772507135661054e-03
      -8.8488707578989356e-02 -4.4994778622295055e-02
      -6.7960176849162918e-02 -3.7672387372542623e-02
      -8.5133169621677954e-02 1.4467649844842553e-01
      7.5135901727578766e-02 -3.9642780211074563e-02
      -3.9688857321318986e-02 -5.8421523825892885e-02
      7.9310742989464791e-02 1.4148683802672287e-02
      2.2160249001889766e-02 -5.2487735365361965e-03
      1.4491443226263867e-02 3.9454358940766418e-02
      3.7556490824420037e-02 7.8834274962271723e-03
      -1.0796026951803582e-02 -6.2887593449427563e-03
      2.6728884000921653e-02 -6.9902818709641126e-03
      -5.0393794904253081e-03 3.9824964517492643e-02
      2.5980194265912530e-02 -4.4672441686901584e-02
      -1.8320113825330511e-01 2.3748816588057620e-04
      -1.5007500857477129e-02 3.1667754389274375e-03
      3.4650618773227670e-02 2.8782057202655288e-02
      2.9797536870447158e-02 -1.2817170846100234e-02
      3.8736814363748054e-02 2.9743640759126243e-02
      -9.8440276346702018e-03 -5.2602213863502903e-02
      -4.1819102851901532e-02 4.0734962417320476e-02
      3.6489576106353856e-03 3.9147066889229946e-03
      9.5574181067328692e-02 -5.4938269023205692e-03
      8.6620404829103020e-02 3.8210810987382410e-04
      4.5527970212775317e-03 4.9153042962799161e-02
      2.1167816875784614e-02 -1.2062402518837161e-02
      5.5276139360806841e-05 3.6458307285564644e-02
      -1.1001614913815424e-02 -5.1556608928392783e-02
      1.7143287593543877e-02 -3.3308013321441516e-03
      -5.2501426316950144e-02 -9.1308258434514331e-02
      5.3160580782452796e-02 3.6343072984453349e-02
      -4.5868595567829885e-02 2.4750649391536438e-02
      2.6506979422778645e-02 1.0861808647748815e-01
      -8.9575688993052786e-03 -4.3316927331199725e-02
      1.0388856735655448e-02 4.0799263559803650e-02
      2.9224123059730725e-02 -2.3121086630054744e-02
      -5.7605005645143034e-03 -2.8028712075389556e-02
      -2.3830899055166809e-03 5.3984491161832689e-02
      2.0763903556568841e-01 7.0732096287655810e-02
      2.0496693733758500e-01 4.5180825737301075e-02
      -4.1127100203700348e-02 -1.4000550344052368e-01
      1.0419733604510045e-01 -1.9683059921689994e-02
      -1.2560510420848332e-02 3.6396080271555317e-02
      8.2692318454579361e-02 -7.1945327796508585e-02
      2.0446581140537969e-02 -4.5587122820448425e-02
      -9.6097579264848340e-02 8.4080500725225785e-02
      -6.1215225487945550e-02 4.0120260119459135e-02
      -1.1878713833003625e-01 2.8693592830965335e-02
      8.7230080249985270e-02 -5.6147954862197036e-02
      -3.1258724381442837e-02 -7.8814852037294658e-02
      6.3890830358775019e-02 5.6299139190583075e-02
      -3.0416413054165526e-02 -9.0547360618728270e-02
      -2.5861803667657151e-02 -4.0623061889332110e-02
      -3.1954622932618776e-02 9.6730378492932978e-03
      1.4590930342452405e-02 4.6085573824206930e-02
      1.6503362910198344e-02 1.1930724039040797e-02
      -4.0745147978375716e-02 -1.4299592193809740e-01
      3.4049183492460840e-02 5.2380288370033994e-03
      -5.0151626682375019e-03 9.6963316914328215e-03
      8.2270289305169123e-02 2.6435489251814992e-02
      2.9493502334373704e-02 -7.3452743025851260e-03
      3.2323462452284887e-02 1.1771726933139770e-01
      7.2050559452261506e-02 9.8555281099985195e-02
      -1.1614446377183349e-03 1.2920232005454712e-02
      -2.6982717658372658e-02 -1.3957912633305658e-01
      -1.1351049052704950e-02 -5.1892343833614497e-02
      3.7455958513291913e-02 -3.8986212638219296e-02
      -8.4607042216351021e-03 -2.7944043997225540e-02
      -2.3746179974682632e-02 3.4002318501700199e-02
      1.9885469888080008e-02 -1.3740460331611394e-02
      1.8608100210226238e-02 9.4185360889742456e-02
      -1.3725760286862522e-02 8.5357840369992402e-02
      5.1727308757006278e-03 2.0050874375288578e-02
      1.2432190456170651e-01 -1.5908284224483572e-02
      -1.1313454465924264e-01 4.5170484481803774e-02
      1.3683739302044304e-01 4.9681217914246061e-02
      -3.2304892168395626e-02 2.2913872796417638e-02
      8.7215606415114014e-02 -6.8387727978370408e-02
      -2.4050020386131166e-01 6.8259644136675152e-02
      -3.1517302058726916e-02 2.0217130260140315e-02
      4.5335218917748202e-03 -9.2639115977466976e-02
      -7.3775234848220631e-03 -7.7429745918520157e-02
      4.9067372216857370e-02 -3.8332842060323717e-02
      -8.8906835004758905e-02 2.8091411900783219e-02
      -3.6567359349541195e-02 5.8014129501133875e-02
      4.7182091043291054e-02 1.4748758108161210e-02
      -8.6276162779593726e-02 -1.1221833655380394e-01
      -9.3159149762755813e-02 5.2086953995364692e-02
      1.9928244348968269e-02 -1.9982150264371468e-01
      8.1058569084180548e-02 7.9690617513687598e-02
      -1.8680491753210800e-02 3.8474542262432118e-02
      2.0672491346317365e-01 -2.3961593204687229e-02
      -6.5673882069519962e-02 1.4190506983137821e-02
      1.5476912197817300e-01 8.2643893481478922e-02
      -4.9120675009110090e-02 -7.2674178524401722e-02
      1.5529772969585971e-02 -8.9076460570615325e-03
      1.8071134667384282e-02 -7.2004616709170272e-02
      -3.4088496265853245e-02 5.3993520431406226e-03
      -5.1426925410012980e-02 -4.4037354563297534e-02
      -5.5106578451164859e-02 -2.6953700163507675e-06
      5.0997543235256064e-02 -1.0484555576824602e-02
      -8.0474437184679198e-02 -8.8509183676237890e-02
      2.7474500498068863e-02 -3.3384355811450557e-02
      -6.4649835550039142e-02 -4.3337631239018425e-02
      4.5434837613502511e-02 -6.3231174576490912e-02
      -4.2087401265565437e-04 2.0972835077385475e-02
      -1.7400380185584922e-03 8.7672031763569771e-03
      4.3406435795906730e-02 6.1291832398891341e-02
      -2.4088225719794694e-02 3.4802479316727079e-02
      8.6429809735891108e-02 6.6029092864362718e-02
      -3.5840609648665221e-02 6.1586525159803267e-03
      3.3625487341608945e-02 -9.4190144718388727e-02
      6.0316788066379204e-02 4.9851777714222861e-02
      3.5646402045817240e-02 8.1245859344740226e-03
      -6.3850755415461216e-02 -2.3109224309318208e-02
      -3.4064353706556291e-02 -4.9325233901246983e-02
      -5.2780462134499487e-04 -2.3387290819059575e-02
      -2.3350955758957324e-02 -3.4789255345515975e-02
      -3.3325935195876046e-02 1.3310642995953754e-02
      -4.4074188832591895e-03 -2.5625631050558803e-02
      3.3959056431893966e-02 -6.6660214971574663e-02
      -3.8523384986295303e-02 1.0206383352194101e-02
      1.0687912914099087e-02 1.8094557726733664e-02
      1.1196607741307686e-02 2.9109713557181633e-03
      -1.4560120622583600e-02 4.3501681329409124e-03
      -1.0017696328071347e-02 2.3350901891861599e-02
      7.7788390478034609e-03 -2.8989529451515453e-02
      2.4390018349321970e-02 -2.5096323551416569e-02
      -3.9555485382522801e-03 2.7744692146750476e-03
      3.6532728488845277e-02 -2.6324962206248203e-02
      4.2115246997662961e-02 -1.4997018078041328e-02
      3.1451604170310232e-02 3.0685519970187487e-02
      3.0121402883808577e-02 3.3388409774039847e-02
      -3.6162158010445769e-03 -1.7286249752716427e-02
      2.8329574463621582e-02 -1.7384099788969160e-03
      9.8655073739039381e-03 4.9320060167694628e-04
      1.2841897433771442e-02 2.8711011822538445e-02
      3.9944881072868739e-03 -2.8899365936723098e-02
      -5.3822147438848736e-03 2.9811212254476742e-03
      1.5315301584156261e-02 5.1959400396487205e-03
      -8.4253031357943030e-04 2.6561504677276348e-03
      -3.7568202919486322e-02 -2.3989506253936040e-03
      1.5906196118764107e-02 6.5090202852613492e-03
      1.8948376059752662e-03 7.4527164886816592e-03
      4.3785993130593236e-03 -4.6507353560589597e-03
      6.5435967419934654e-03 -3.1832949700918217e-03
      1.2152588834732749e-02 1.8955706676950759e-02
      6.2215803599638990e-03 3.7828255353957365e-03
      -2.1864090940293406e-03 3.0545610044968715e-04
      -9.5728704275823090e-04 2.3635612431429122e-03
      2.0667369312317236e-02 -6.2052151323463249e-03
      4.6817532727224309e-03 4.7865234011731060e-03
      -1.2617909598346839e-02 5.0569410439077235e-02
      -5.4335972570985821e-03 -7.9445827038326651e-04
      -3.2887236159152575e-03 1.3225135211879870e-02
      -7.2439731385938386e-03 4.5438680547635092e-03
      -5.6499795845631360e-03 3.8430361535070372e-04
      2.4811156916296619e-02 1.8228902274298943e-02
      -1.3215046853328413e-02 2.3106833547348941e-02
      6.0116378183008197e-03 -2.6566893374111874e-03
      -4.5918534671643722e-03 -8.2499518691837945e-03
      -2.5031449597305636e-02 -1.6091580573721946e-02
      -8.8235838224495124e-03 -7.4066623255584140e-04
      -5.8595048466314938e-03 6.8450703537967757e-03
      1.5446897535346667e-03 -3.6275938975966972e-03
      -7.1088574737665534e-03 1.0143639363226301e-02
      8.8224493546869648e-02 -1.6836416265804479e-02
      2.8179781058006826e-02 -2.9346366967221010e-02
      -1.3299551299273732e-02 -1.3627620420626457e-01
      -1.8752847895779599e-02 2.1627547719591907e-02
      3.7365462703796266e-02 1.8436606516349600e-02
      -5.9257943183674833e-02 -5.9461109911166599e-02
      6.0119671829783755e-03 -1.8135405654092100e-02
      8.1959005264381199e-02 9.3900455871738203e-02
      3.2050601926349863e-02 1.0317804050013957e-01
      7.2768854408532683e-03 -2.1819608055691206e-02
      -3.1925941214674676e-03 -2.6342031542855398e-02
      -9.3215125026034941e-03 -1.3946270219929535e-02
      -3.4579186417649746e-02 -7.2872112245437631e-02
      2.0546103966654381e-02 2.1241713740114763e-02
      3.8496581038821892e-02 -2.5936824815383029e-02
      -2.8965511418878560e-02 -1.7005868261413249e-02
      9.1574972038823768e-02 -9.1753941221213737e-03
      4.0536349742675275e-02 2.5761015967016687e-02
      9.2212815663857209e-03 -4.6697415205357834e-02
      5.4843852940338722e-02 4.8498176577732803e-02
      -3.9433326201702416e-02 -1.2902083568340644e-02
      7.8089352789740699e-03 -7.5438122667855880e-03
      2.2545490418075013e-03 -4.1452533570732412e-02
      2.8488651444847929e-01 -2.1801385251201477e-01
      -1.6806848186803558e-01 -9.0801014563311536e-02
      -7.5474747497751141e-02 -8.7580004057837904e-03
      5.7349002556911423e-02 1.4260719096985158e-01
      6.4394346070339734e-03 7.0021140791743913e-03
      -1.5641340441291805e-02 -1.4301598266508914e-01
      -3.6264283341554224e-02 -1.9092985200858888e-02
      4.9782325281771962e-02 4.4536145210804625e-03
      -5.7296964855763369e-02 -1.2475654657902821e-01
      5.1876150195588215e-02 2.3847675422209339e-02
      3.1604133194717901e-02 -2.0724877973600727e-02
      1.5477921706721748e-01 -2.2151676070728760e-01
      -7.1043865783085761e-02 -5.4694390261782647e-02
      -1.2657698537945369e-04 -1.7775815279708566e-02
      1.1858946543798191e-01 -5.6536430955613420e-02
      1.6041540259414941e-02 2.8229233927078518e-02
      4.8667955663950158e-01 -2.1672981221294130e-01
      -1.7274551037457231e-01 -2.6416858612639538e-02
      1.6073404584122694e-02 -1.7133569180093022e-02
      2.1050605148036177e-02 2.2141129994409622e-01
      1.1802446375224318e-01 -2.9268467459535496e-02
      1.2562286960378508e-01 -1.9347302996480323e-01
      -2.6642641161670415e-02 -8.1477465214487885e-02
      1.0289256226743470e-02 1.2292954151019722e-01
      -6.4389219352201668e-02 -1.4311044272688594e-01
      -9.7297028745729642e-03 4.8479853800459945e-02
      1.9032095684010354e-02 -3.8020407811654923e-02
      1.2562435906715583e-01 8.8070513335934561e-02
      -2.1645526837845169e-01 1.2624360812029567e-03
      6.0245585683461618e-02 1.6000189041482968e-02
      6.3642252925443871e-02 -4.5804652566445780e-02
      4.7383617144006587e-02 -1.9558532809090963e-03
      2.1417931688578626e-01 -6.7049634820349674e-02
      1.3567999832672140e-01 5.5236622689143325e-02
      1.9826784948967519e-01 -9.9136298426776431e-03
      -1.0815887283258203e-01 -1.3685093470319021e-01
      1.9069157543178106e-01 -3.2805463600722395e-02
      1.3014109747051383e-01 -1.0020248961723287e-01
      1.1208284836847991e-01 -1.0400673020366176e-01
      1.7702773575911795e-02 9.5112796386469297e-03
      -6.4138931142760855e-02 -6.6087026296670084e-02
      9.3773433011558313e-02 2.9319871647346576e-02
      5.7068177638062809e-02 -1.8408130504391634e-02
      6.2687724913178186e-02 7.8885071780086830e-02
      -1.3851050602058954e-01 6.0628907730777795e-02
      6.0199333967911675e-02 5.9756434467748303e-02
      7.7086468003692329e-02 -7.9310120022496378e-02
      1.5669550200178899e-02 -2.3210636962079031e-02
      1.4526314675403551e-01 3.6870802351151165e-02
      -8.6558957138897524e-02 2.0746272053736139e-01
      1.7764058523055579e-01 -5.1301307684329021e-02
      -7.0933028239238735e-02 -1.6369290866102265e-01
      1.4887696863402075e-01 -6.2505290639205013e-02
      7.5132324393455921e-02 -1.0290877184448653e-01
      2.9572037144067472e-02 -6.7690681708390377e-02
      6.8727100510229039e-02 -4.8275673573545279e-02
      -1.0326455725153567e-01 -3.3449561269296650e-02
      8.6464351084176591e-02 -1.6711026873259518e-03
      -1.4489165303220591e-02 1.2436263146591816e-02
      6.5552406165371890e-02 -2.0245771357535772e-01
      6.7181748896880389e-02 2.6814903674993781e-02
      2.1463908048826669e-02 -1.3691856915242497e-02
      1.6299894822365452e-01 -6.9834126967089558e-03
      -4.4675344271597646e-02 -2.7451186867730033e-02
      5.2048151939526353e-02 7.1450113324264708e-02
      -1.7437977619143347e-01 9.4195554537993914e-02
      2.0638050289051385e-02 -5.3727275492624536e-02
      7.1288913262503237e-02 -1.0221588611276693e-01
      1.1768689243805648e-01 4.7435578608642351e-02
      5.6958704233759511e-02 -1.0019743461459109e-01
      -1.6663087478739380e-01 1.2494262265808726e-02
      9.2742514730636841e-02 -2.0417575302281554e-02
      -1.0029882234027500e-01 -1.5604950059580966e-01
      -1.9555765667048634e-02 6.0951483886270731e-03
      -9.0170554750122530e-03 -1.8594186982394085e-02
      -6.9808654697858935e-02 -8.5155355070033856e-02
      2.4173673421355134e-02 8.0082211394419303e-02
      4.2959484329678867e-02 1.1561745388312283e-02
      3.5269710114206945e-02 -2.1906254332552940e-02
      -5.5076211587518208e-02 -4.4704562321738250e-02
      -1.7006258237225812e-02 1.9855015704885406e-01
      -2.7358139763232614e-01 1.0071282572893034e-01
      6.3876585782185802e-02 -3.0316536638867683e-02
      -1.0449092561748580e-02 -1.7280841101999928e-01
      -4.8159900567438699e-02 -6.9691550039898903e-03
      5.0549646816510314e-02 -2.4802054532716451e-02
      -4.9429237809523942e-02 5.1160858658961104e-02
      8.2716864380692270e-02 -2.9220556096347560e-02
      -8.9406532081379067e-02 -2.0520045996517942e-02
      -1.6738644393830063e-01 1.5909579875715025e-02
      9.6434177227534695e-03 1.4822375585895059e-01
      -1.5545359580143567e-01 2.4788155699811333e-02
      -1.2195594591044591e-02 6.6002773868278916e-03
      -8.0954399608572356e-02 -6.5815768032785729e-02
      -5.3750261492694990e-02 4.9686387534833704e-02
      -1.1463188581179874e-02 -5.5636887794810956e-02
      4.3143732768890558e-03 1.1189828349281532e-01
      6.4228917807561570e-02 -1.2413947726244072e-01
      -7.0442972372823626e-02 5.0136875338125726e-02
      -3.5924224324229218e-02 -9.6413894057574848e-02
      -1.8601115354216692e-02 9.1725562948231004e-02
      -5.2244431353582572e-03 3.7726460809544171e-02
      -2.0748831092667622e-02 -1.1485666972293061e-01
      1.7076956130716692e-02 -2.5079297706921057e-02
      -2.2577192822853875e-02 5.9262687638109851e-02
      -1.0985283144663149e-01 -1.0410425232889131e-02
      1.0642927791851500e-01 9.4178793740936795e-02
      -1.2745846730983368e-01 2.4071724204397210e-01
      1.4452463618569586e-01 -7.2483607325815783e-02
      -5.9563566815451836e-02 -2.1739993419363522e-02
      -3.6564804086418538e-02 5.1196008249103142e-02
      -1.5797197062166180e-03 -5.2902351674033607e-02
      3.5825506043595343e-02 1.6715019629150435e-01
      1.1138287484979789e-01 1.2287710113917435e-02
      -5.3860482943008603e-02 1.0506130537693112e-01
      -7.5434954172895100e-02 -1.4245673071281559e-01
      -8.8869209853423337e-02 -2.5183070147285304e-02
      5.4453858397790683e-02 1.4418057100371787e-02
      -3.0684082467927146e-02 -8.3496424187081184e-02
      -1.8754451304705023e-02 7.7580014161095449e-03
      7.2683138369999730e-03 4.7683577073520805e-02
      8.5205909612418279e-02 1.0388451740589093e-01
      1.2340054605321076e-01 -9.3524862126699365e-04
      2.3169715879312932e-02 -8.6316991339803958e-02
      1.0434330245288580e-01 -1.2400641477931074e-02
      -3.4725779928065128e-04 3.2519100164899964e-02
      9.7920777697413572e-02 -2.5756305255949900e-02
      3.9377493251338762e-02 -3.3111456636418068e-02
      -2.7036005974322851e-03 1.1155631526224306e-01
      2.9800857127067867e-02 1.0107598459518528e-01
      -1.6381508865865046e-02 2.7110370564731947e-02
      -1.6330223709629985e-02 -1.0998910894840373e-01
      -1.5221383782798864e-02 -9.3015753406443469e-02
      7.1382397680225779e-02 -1.2196720900204702e-02
      7.6600281633984330e-03 -5.6701978356790354e-02
      -5.4285796106499473e-02 1.8627302862240059e-02
      -6.7598825834725073e-03 2.1660724348153183e-02
      7.9191327969358599e-02 1.0004370429058343e-02
      8.7202463500893508e-03 4.6612900632778557e-02
      -3.5459707807042044e-02 -1.2922029889397221e-02
      1.0671608500482857e-01 -2.2575976852600085e-02
      -9.1797353253224093e-02 1.3240958468571942e-02
      6.7800652234388151e-02 6.7230361850187798e-02
      -3.9063225680113833e-02 -2.6517273971276102e-02
      7.1585657253515400e-02 -3.6668823293707374e-02
      -9.8808986129927126e-02 7.4990062050487846e-02
      -3.1560588291885142e-02 8.9647859488663009e-03
      4.2807606221811324e-02 4.3073339488757890e-02
      -7.0002961706338213e-02 2.2984977724267008e-02
      -4.5349293954251434e-02 -2.6037172747791461e-02
      -8.1772783874450361e-02 3.0034936002778630e-02
      2.1855413390376256e-02 -2.9253733062347593e-02
      -3.0726180942275147e-03 -3.7454830441655700e-02
      2.3401441540952996e-03 5.2907292420150902e-02
      -7.7477884990445917e-02 3.6773765504323479e-02
      -1.6383840169827878e-02 -2.0677908504298609e-01
      1.1721697600297848e-01 -2.5646843682924792e-02
      -3.3249689150774100e-02 -4.5450949613065846e-02
      1.2754458583902351e-01 3.6336929162094855e-02
      -3.3941971759902233e-02 -2.6055650357344279e-02
      6.2819959621414359e-02 -6.3739332961840256e-02
      -3.7802698913942702e-02 6.5911824358799498e-02
      -6.0002293683554697e-02 -9.8784772972118941e-03
      2.8292239660782275e-03 -4.6612255759479269e-02
      3.9195367899452806e-02 3.0600949722733143e-02
      1.9081701485784319e-02 -8.6376416833367928e-02
      -7.8903234027448380e-02 5.6770514500129821e-02
      3.5147701792987637e-02 4.7207530885770066e-02
      3.0028262818325071e-02 -7.1272657253873301e-02
      2.3597245265357707e-02 -1.9455792017094901e-02
      -1.1616154800515413e-02 9.7874237520608857e-03
      7.8035678442595235e-02 -8.9163386747025120e-02
      -3.3714642614875896e-02 1.9241460505973449e-02
      -2.3323057419752057e-02 1.0924744645950713e-02
      -8.2512070429213592e-03 5.4068459092465694e-02
      8.1041776663399248e-03 2.7376944640115718e-02
      5.2604854878877998e-02 6.1245213370722876e-02
      -4.9724794432924491e-02 4.1086541568807915e-02
      1.7894369346228987e-02 -7.0940914104402994e-02
      8.2361634494142938e-02 2.8092963209063633e-02
      3.2822210169599478e-02 1.4591809524450801e-02
      -7.8416948946234494e-02 2.1534221397058559e-02
      -3.6322158757891243e-02 -2.4365048128210616e-02
      -1.8742665054793172e-02 -2.0269913164231431e-02
      9.4552948484636166e-03 -9.8868862488973766e-02
      -7.6294978765533393e-03 2.4869143540018970e-03
      -1.3882026324335625e-02 4.4534429043477253e-03
      1.2774157267973690e-02 6.8941010103105355e-02
      -1.2714943531192988e-02 -1.0483861015364910e-02
      -5.4753758430207116e-03 1.0579897773333272e-02
      -1.2246139779991576e-02 1.5065966226335251e-02
      7.6066587969657084e-03 2.8622589972985141e-03
      5.6575403130550627e-04 1.2260485949263976e-02
      4.9679930130728453e-02 1.4904269557339790e-02
      8.2886455128870825e-03 -6.0106063248860902e-03
      -1.4262286014682610e-02 -3.4227208897647868e-02
      1.0383314547050987e-02 -1.4021206778182018e-02
      -2.1976078865064155e-02 -1.0757168817924817e-02
      1.3866164189797484e-02 -3.1629597614718243e-03
      -1.2791980907140895e-02 2.7834996489358864e-04
      4.2942061992879022e-03 -9.4948826533183799e-03
      2.0953854278509067e-02 -1.2663160545793143e-02
      6.5842739297040714e-03 -4.1415746580034220e-03
      1.2708884574282101e-02 4.4411478466920985e-02
      -1.1368476469163301e-02 -2.5651126769263545e-02
      2.7000741267090367e-03 4.2550600920409579e-03
      7.3921483869133671e-03 -7.7624682881098951e-03
      1.0966694761487476e-02 8.6076619593585518e-03
      -1.1470275212044103e-02 2.0567529905520920e-02
      3.1190490995087031e-02 5.7426892573051620e-02
      4.0462681762989481e-03 3.4815395998070626e-03
      1.0932071281364228e-03 -8.9923101059051291e-05
      2.4949503454648286e-02 -5.4563830843687164e-03
      -2.1923150861072301e-03 1.7844829808294067e-02
      8.0471683339832911e-03 -2.3262157388658701e-02
      -1.6320560191555870e-02 -4.3716450999556952e-03
      -3.9637406930794302e-04 1.5464519030673911e-02
      4.2053599359458592e-02 4.3033194612174183e-03
      -2.1960790022982405e-02 -7.3078418639447321e-02
      -3.0831094228697904e-02 -1.2956056061290622e-01
      7.5677457635449003e-02 2.3145044302886116e-02
      7.3104407409683630e-02 2.4237954200070685e-02
      -1.3981841556076371e-02 -5.7072157868699507e-02
      3.1796173264281823e-02 5.9696963791541484e-02
      -3.8443350814771966e-02 8.2314180587031840e-02
      1.0534180303592008e-01 3.0762676271042604e-02
      -4.0308740304191388e-03 -2.6854025411395449e-02
      -1.5438751245593242e-02 -7.4974990950721493e-02
      -6.9079035399682867e-02 -7.0367102724390840e-02
      -4.2148134402360440e-02 -4.7470488818767920e-02
      4.3026389865335246e-02 4.4522893562588969e-02
      -6.3886552323566853e-02 6.4212932437115984e-03
      -1.2269906250150623e-03 -5.0484161696670270e-02
      2.8495990841496958e-02 -2.3425572223186128e-02
      6.2049938327132844e-03 2.7438305496237787e-02
      -7.3157682534760295e-03 2.1545481876591879e-01
      5.2187132083529514e-02 1.5633717565893400e-02
      -5.3159130503613448e-02 -2.1168242237618110e-02
      -5.4053301539521433e-02 5.3340022364721795e-02
      -3.1183747214210682e-02 -9.2609956175260896e-02
      2.0729104990011493e-01 -2.2078843399072826e-01
      -2.2494044493535159e-01 -5.0073457857085450e-03
      -5.0993141249958476e-02 -9.1231852665602207e-03
      5.6845573786619197e-02 1.9417669764577730e-01
      1.4191870742074025e-03 3.6869647646452945e-02
      -2.1584487233533393e-02 3.9130309608600380e-02
      -7.9460491706758812e-02 2.9407632422127532e-03
      7.7667765873819364e-02 -2.0453583152948204e-02
      -8.7791700450090784e-02 -3.4574581903480191e-03
      3.3134654021102702e-02 4.4243493968050222e-03
      1.9004326508753458e-02 1.2742557141627106e-02
      1.5062828077555548e-01 -3.3299211890940389e-01
      4.7038865891379386e-02 -6.2332062466388061e-02
      -1.2199470938352707e-02 -8.7738661897037454e-02
      8.8394403295533747e-02 7.8459403999745735e-03
      -3.5616572961316061e-02 -4.3125752890691128e-02
      3.7816196254470996e-01 -2.6619191245902768e-01
      -2.5624436444592569e-01 -2.4587183437897553e-03
      -7.7269466724509767e-02 -1.4489899647179257e-02
      5.6869485094900800e-02 3.9367208513546026e-01
      1.2984092001225436e-01 3.2158762136237647e-02
      4.0443992174001582e-02 -1.4615219599202364e-01
      -1.5462153373991477e-01 -2.4090748015466682e-02
      1.0939734484240670e-02 1.0388124704327316e-01
      -1.3506418217584054e-01 -2.9757679389440056e-01
      1.0538411152408964e-01 4.8221631674234884e-02
      1.1034531447508536e-02 5.5262735768501291e-02
      -7.4881662184267351e-03 -1.3987770042166209e-01
      7.6538058315768417e-02 -5.1876054302666050e-02
      -3.1518140712024502e-02 1.9795667010805554e-02
      1.0044412844931730e-01 -4.2880522950093793e-02
      1.8525820342207081e-02 9.4158723363534196e-03
      2.1265542743252014e-01 -1.4002127895660815e-01
      -7.8201628830087508e-02 8.0321905336112803e-02
      -9.5235700666349565e-02 -1.2582041914159544e-02
      4.7098968171126625e-02 6.0677499885935557e-02
      -1.5224357017346288e-02 -3.2468525541579446e-02
      -5.7805476505503779e-02 -1.0765073642444851e-01
      -5.8506383615272307e-02 -4.4688738039385355e-02
      -2.9322494215983000e-02 6.5582822623924857e-03
      2.7174177699839570e-03 -6.1048041795614932e-02
      1.4231239470222548e-01 2.4119025896298323e-02
      1.1862810542848197e-01 7.2800786901583300e-02
      -5.9788240906794264e-02 -1.6269391289820970e-01
      4.5379914561240894e-02 2.2084261509335092e-02
      -2.8206565208480378e-03 1.5365359862709388e-01
      1.2897137915438905e-01 -1.3307804765669898e-01
      -1.0543451225524483e-01 -3.7911693007547778e-02
      2.5368043153577968e-01 -5.0938488671149168e-02
      -2.8931985040785124e-01 2.3468157237223225e-01
      -5.4179110362364571e-02 -1.1839179759555560e-01
      1.0126072576493958e-01 4.1498546657098935e-02
      -8.4641941180920041e-02 -1.8609672779841188e-01
      -1.2784816653314621e-01 -1.5384292279210712e-01
      -1.9009222549504917e-01 4.3029157555717720e-02
      4.9693090372086177e-02 -9.9884389963630804e-02
      -1.7775747644418025e-01 -1.5134788793019688e-01
      3.7882559317527131e-01 -5.4560991424160168e-02
      1.4072729993797670e-01 6.2266403104828061e-02
      -1.4173046032252784e-01 6.1663888367302612e-02
      4.0590273142887218e-01 3.7995492620088014e-02
      -5.3754269446867939e-02 2.4674624340140489e-01
      5.8203872262562149e-02 -9.8155976626113486e-02
      -5.2924365892741104e-02 -1.0543164258381015e-01
      2.8244300846394105e-01 -1.5389580505942180e-01
      -3.7757472416395793e-01 5.2512222784404261e-01
      -1.1693958779257695e-01 -1.2941727292457375e-01
      1.8229855885948179e-01 7.3762277545623450e-02
      -1.3083119109411798e-01 -2.0407478942580023e-01
      -2.6063112036445479e-01 -9.6136873368145401e-02
      -2.2513824868314902e-01 8.6011273365885557e-02
      1.0566532958825042e-01 -2.5783473312808319e-01
      -9.1316046839080442e-02 -3.5890733782986068e-03
      3.1964302289565549e-01 3.7066855936145608e-02
      6.6648296191849074e-02 2.0103645731582864e-02
      -2.6480771169872182e-02 9.7744338029367491e-03
      3.7412870678839438e-01 1.0368728999084685e-01
      -2.7576743810921577e-02 1.5002051123198201e-01
      2.0653783999477779e-01 -4.8867539543734149e-02
      -2.7894651409512534e-03 -4.0175460820776705e-03
      8.5423469262996710e-02 -9.6077030928558113e-02
      -4.9695466959629514e-01 2.8046693971970960e-01
      -3.9958097080544125e-02 -7.1100033259313369e-02
      1.6765651894350819e-01 -1.0860806103932658e-01
      -4.0047741527942320e-02 -1.6624577161770138e-01
      -3.3635618467999569e-02 -1.0924665613226331e-01
      -2.2214724212152634e-01 4.8648545533028914e-02
      2.9003637874005280e-02 -8.3063163414599586e-02
      -3.3149972960479367e-03 -1.8080839388589908e-02
      7.9705878645893583e-02 2.5862597410802931e-02
      9.7900728285932700e-02 -3.6656569211276323e-02
      -7.4934187943286948e-02 2.7261385049294824e-02
      -4.1157666692911217e-02 1.1789335378011538e-01
      7.0736397832448117e-02 1.1108277816534218e-01
      -7.7106331857747831e-02 -1.4292358987729392e-01
      -1.6333092278985866e-02 -4.2133258232218834e-02
      -6.9848343482141445e-02 3.8231636593110796e-02
      -2.4637419656148937e-01 1.4088755753636240e-01
      2.9955123106899139e-02 -2.0844599329270151e-02
      -2.3692548954606645e-02 -4.2559883388828650e-02
      -6.4888076727861246e-02 -1.5311998701892093e-01
      2.9833005144167014e-02 -2.8920851479936906e-03
      3.4151323904660316e-02 5.1542841782886366e-02
      8.1279142310812180e-02 -5.6891863338182143e-02
      -5.4076532632177453e-02 1.1943222074659932e-01
      -9.2276765184805529e-02 -1.2386252028308958e-02
      -8.6766905234211406e-02 5.2583356417860362e-02
      4.4456487607392584e-02 3.4553655894221302e-01
      8.2512982653912242e-02 -9.3730597005080140e-03
      -3.9129481242958099e-02 -1.8007699121989552e-02
      2.0394235674885484e-02 7.8767804924632021e-02
      1.6174432246592735e-02 -5.2889708015870568e-03
      -5.3436996887778320e-03 -4.5998147511381107e-02
      -1.0890638518456487e-02 -4.7117164271667875e-03
      4.9714336092189400e-02 1.4558777434250044e-02
      -1.8065819826733817e-02 1.0842458405922104e-02
      1.4075433477154184e-02 2.7762728212169824e-02
      -9.0959611859937166e-03 -4.3324653969888827e-02
      -4.1158103417264336e-02 -4.1098661751379550e-02
      1.1775103752986002e-02 3.2914522195739544e-02
      -1.4645341288236495e-02 -3.8237489567005359e-02
      -2.4163340268680805e-01 -2.4600003125861226e-02
      -2.4713658256964300e-02 -3.8039452793241103e-03
      8.4284925549844403e-02 1.3245518870584588e-01
      -1.7643094003585899e-01 3.8305165435682158e-04
      -2.5568502720901319e-03 2.1688577148852122e-02
      -1.2003845996454521e-01 3.2951134869008837e-02
      -5.1834049907533979e-02 -3.9741535748318284e-02
      -6.0710858209940065e-02 3.0240102892335481e-02
      1.5293257915746754e-02 -1.3073069312676788e-01
      1.2630800160671091e-01 7.1955143240729933e-03
      -5.0098271530899185e-02 -9.7545174017289928e-03
      4.1325589360446037e-02 3.6896920030650253e-02
      7.4499958475857025e-02 3.8118125360665521e-02
      1.2497570376616049e-01 -2.7380454554758030e-02
      9.0373392589042478e-02 -2.6171898178071799e-02
      -8.3347737554601120e-02 -3.6743700196109279e-02
      -1.3741322287972829e-01 1.1183622028121439e-03
      2.2155856040490078e-02 -4.8051265038112918e-02
      5.5469766966883979e-02 1.0174421885089161e-02
      -1.3660700428481287e-01 -3.5559013941583572e-03
      7.9650825599402425e-02 3.4154794921002027e-02
      -5.0794366780438624e-02 -5.3380273771083134e-02
      -5.4636114651366627e-02 1.3946793500331641e-02
      -8.1593202380123075e-02 -3.0469309606041650e-03
      -8.4879440842303040e-03 -1.4746532853961677e-02
      6.3930390921140182e-02 -2.7888140447082148e-02
      -2.3330875824448026e-03 1.4254957039159098e-02
      2.0926414125218003e-02 -6.9944835385657182e-03
      5.5038055179651373e-02 7.2055473675862639e-02
      5.3242570800356152e-02 9.3564112254565217e-03
      9.1809682637772443e-03 -7.0025136155148535e-02
      -6.5686913233768851e-02 -1.5962141974156477e-02
      -9.0295349038882186e-02 -5.4995474427047800e-04
      -3.7869111623034385e-02 -2.8968457415819417e-02
      7.7949861651758823e-02 7.7832717337802237e-03
      -2.9681171761324381e-02 1.8956635751270108e-02
      8.4150807685872575e-02 -1.0761778890444118e-01
      -3.0869830199136906e-02 -4.0687446708823238e-02
      1.0020227130213839e-01 4.7099787151137752e-02
      -6.6419626467424775e-02 -7.2359298673099190e-02
      2.1360459522000891e-01 -8.7504923951668381e-02
      -2.2312343676302363e-02 2.9509943069005490e-03
      -3.7865624387676939e-03 1.9802834910444808e-02
      1.3343702255035444e-01 7.2275187378022882e-02
      3.5742064789563495e-02 -1.0800400873158910e-02
      2.1037906800128209e-02 -1.3685336656188030e-01
      -5.5032345213614928e-02 6.9785805003201473e-02
      1.7626107922785093e-02 -2.3553007419823687e-02
      -4.0512271266935421e-02 3.0303538551470784e-02
      -6.9314041847788763e-02 -3.9821098919500947e-02
      6.8185474689304346e-02 4.0035484537823574e-02
      -1.7712747713347493e-01 5.7710015669691578e-03
      -3.6299850825016705e-03 1.5795401278263503e-02
      -2.9617184885415836e-02 8.2329970913236003e-02
      3.0058205059551486e-02 2.9805533601073714e-02
      -2.5476864120761500e-02 5.2634069092602986e-02
      5.0980998312987885e-03 1.4016339473599296e-01
      9.1028971917787374e-02 -3.2118288019524426e-02
      -2.4420738455037175e-02 -1.2548618942658418e-02
      6.9008841963884460e-02 -1.0509660541143133e-02
      -3.9065940759222869e-03 3.4330427330393001e-02
      2.9987239933327095e-02 4.0815280263724971e-03
      5.0841098464030022e-03 4.7626052257085912e-03
      7.6643418243597924e-02 7.7865472080680745e-02
      2.9546838456541283e-02 -3.9696088926120372e-02
      -6.6007497768757209e-02 -4.6555327723476432e-02
      3.2612555220769245e-02 -5.6925454794760522e-02
      -1.1919285754273330e-02 2.9415994864221858e-02
      9.4099993157653172e-03 1.6234209968277138e-02
      3.4947301090730520e-02 6.0784476891609804e-02
      -8.8748129173755845e-03 4.2997930577235464e-02
      8.7167057403443965e-02 5.6629517874573758e-02
      -2.6308884800979818e-02 3.5986805924738243e-03
      3.1091887110360674e-02 -8.7563604480046076e-02
      5.7821818679623209e-02 4.2799583832885964e-02
      2.6971323887279061e-02 2.5791075045238504e-03
      -6.9286767008748418e-02 -2.7496297427576720e-02
      -3.3869023694395269e-02 -4.7926860540416644e-02
      -1.1867864079818427e-04 -9.0759518776488083e-03
      -2.6354669635746616e-02 -3.4538452339155555e-02
      -3.5518748053419334e-02 9.0746550832330481e-03
      -1.4941746473036905e-02 2.6256189618618242e-04
      2.8330860663034599e-02 8.5395622129967305e-02
      -2.6447600069185648e-02 -5.0714950313389337e-02
      -8.5802401940257914e-03 1.8480169372865989e-02
      -1.4771577053213629e-02 -2.9687636933177111e-03
      1.5311936466905967e-02 3.0382363947662725e-02
      -1.0797740862189580e-02 -4.0557117521773482e-02
      6.4446875606677015e-02 -1.4094145764103519e-02
      1.8254404595036498e-02 8.4856410973160271e-03
      -1.9365634939302833e-02 1.5639858287100246e-03
      2.9479016089758954e-02 -1.8560821155282358e-02
      1.3096602880172359e-02 3.1839243250126417e-03
      6.7689643838488162e-02 -2.3054422187706747e-02
      -1.9980130027654568e-02 1.9106135169541977e-02
      1.8967508033294479e-02 1.3730963055118131e-02
      3.3492813615397243e-02 -1.4234761625127934e-02
      2.2880475029897620e-02 -1.2396114363087756e-02
      -7.2928692639003534e-02 2.6077270877898660e-02
      5.5417589211206646e-02 -5.9924452572069492e-04
      9.9502576157605143e-03 4.5617240878632136e-02
      3.8352687674686023e-05 -3.5554390526367968e-02
      -2.2759283322976095e-03 -2.8762632427438446e-03
      2.9488242929631370e-02 3.0033639645667964e-02
      6.5630752857543974e-03 9.6135287108536832e-02
      -2.9618445109750560e-03 -9.3724340509022692e-03
      4.9770306055237669e-03 -1.9102036658692978e-02
      -8.8026989262669803e-02 -3.5528467170068342e-02
      -4.9516056029420670e-02 -6.0776525144173891e-03
      4.2553581106584944e-03 3.0705068132878096e-02
      3.2236763122441437e-03 -4.2650793068502196e-02
      -2.5466074823945585e-03 7.7268722150925844e-03
      -3.7852790156213068e-02 1.3929026919532983e-02
      2.8818291272514323e-02 -3.7479187688252015e-02
      -6.9094450019732342e-02 -2.6413488272622043e-01
      5.1998672948970315e-02 1.6591972613478428e-02
      2.8532359467603328e-02 8.5342454922683497e-02
      9.4901155243673666e-02 -4.4270088728738860e-02
      -6.1162916025045951e-03 5.0260520026564302e-02
      5.3691001587555486e-02 9.0670844091861741e-02
      2.0543809859891060e-01 7.8472582394823881e-02
      2.0630345068425274e-02 -1.4050480257071183e-02
      -1.0314778107268618e-02 -1.2724448789199280e-01
      -1.1836864163036109e-01 -1.1731115254252061e-01
      -4.4464973870824293e-02 -9.4308137453945354e-02
      5.9958022174525498e-02 6.4149560018361917e-02
      -5.7813984963767266e-02 -1.9479328965042730e-02
      1.1771576137725653e-02 -1.2582002428690020e-01
      -4.7679570486092164e-02 -1.3115686391543108e-01
      2.4564976113446855e-02 -2.8245135222903096e-02
      -1.4479131305292003e-01 -2.3467398274955953e-01
      2.1978105527900138e-01 -4.2205631453085868e-02
      -6.0601748362012375e-02 4.8836075786558936e-02
      2.2782946233789970e-03 4.4332234741654951e-02
      -9.5264419676348688e-02 -5.6146120139375947e-03
      2.5596504908479428e-01 -4.6469794974315019e-02
      -6.2307547152431839e-03 5.1824173621560672e-02
      -6.8149143888550784e-02 -2.1979219891688891e-02
      3.5773597702609926e-02 1.9486410197506912e-01
      -2.5385891027537455e-01 -5.8229521484004475e-02
      -1.5764214962292461e-01 -1.1101593320190492e-01
      -5.9065294383883707e-02 2.0324717522231772e-01
      1.8269142461222090e-02 3.4895747695311030e-03
      -3.9252563015501854e-02 -2.2286816103648055e-01
      9.0728000593991304e-02 -2.9733800014658970e-02
      -1.3859931227532751e-03 5.8684745304436410e-02
      -4.3979730644667619e-02 -2.1975707029865599e-01
      1.6863126658682950e-01 -7.7258265916091778e-02
      -6.9119484453885924e-02 -4.5563357819249861e-02
      8.7736986591407565e-02 3.3778437153610598e-02
      -1.6943393693559211e-02 -1.9023272835361565e-02
      9.6282357776109828e-02 -6.4309436916039769e-02
      -4.9610375874731879e-03 7.7304288277127943e-03
      -1.7232040309678079e-01 2.3917128784010644e-02
      6.5914756687647250e-02 3.2710059237997018e-02
      -8.1814182382433185e-03 5.9690828438789360e-02
      -4.9404634685378201e-02 -5.8650475977504044e-02
      -9.4523735446710333e-02 3.5156187358422304e-02
      9.9591869325806586e-03 2.6782757615746611e-02
      1.1368371137953017e-02 -6.4467030115916216e-02
      1.8647755918273226e-01 3.7326031208101927e-02
      1.9622308401321586e-01 2.1089516057165184e-01
      -1.6699600961926309e-01 -3.6076735316179102e-02
      1.1463712430966079e-01 -3.6448198016874517e-02
      -1.6878924427260500e-01 1.2853525521904285e-01
      1.4388542507648505e-01 1.8282050367774054e-03
      -1.1989423206113674e-01 -1.2356855615992328e-01
      1.3031248327285345e-02 -2.9202754439151885e-01
      -1.3986589370754754e-01 -1.1857033259665314e-01
      -2.3303478571535002e-01 3.9916964904124975e-02
      1.3091829698082430e-01 2.6513073191788578e-01
      -1.7447359909306151e-01 -1.7292253959850992e-01
      -7.6516707989734437e-02 -1.0614219728456843e-02
      -1.6748635933140874e-01 6.1552051501256672e-02
      6.7840974862569514e-02 -8.8498316715831055e-02
      -1.2986574867614986e-01 -9.3028238758759174e-04
      8.2734491945710642e-02 7.6626987326709223e-02
      2.2062997685908634e-01 4.8027539358465085e-02
      -1.6448779412821832e-01 -2.7236468174056905e-01
      -3.6373301502238463e-02 1.2775553317869537e-02
      -4.8909621324045548e-02 1.8093229796501567e-01
      1.0049229043116450e-01 -6.3104729722920930e-02
      -8.5371153528657220e-02 -1.2340969501354516e-01
      1.4979843251046249e-01 -3.3236281273901747e-01
      -7.3085922718881091e-02 4.9938102297692737e-02
      -4.5520207929625876e-02 -6.8161628771009328e-02
      6.1158259800746448e-02 4.1557040497683506e-01
      -1.9049145969080253e-01 -2.5645499317287707e-01
      -9.0670011878022552e-02 -9.4860237895872238e-02
      -5.5544547377742642e-02 1.1557760158411645e-01
      8.2728968302334380e-02 -1.0389350679525718e-01
      -1.1760556594328681e-01 -9.2901486049684165e-02
      6.9685087818012387e-02 5.4675464460883609e-02
      1.4443756661296023e-01 -1.8975901911068856e-02
      -1.3942875315436706e-01 2.0079009028977499e-02
      3.0321346992106986e-02 1.1847337922992378e-02
      -1.7507298069732308e-02 1.1739390673243044e-01
      -1.1377015002972984e-01 -7.2584705660676527e-02
      -7.2063123998596226e-02 -3.6964329245734368e-02
      8.1509010018127964e-02 -2.0830950817791558e-01
      -2.1974941702218673e-01 1.3210022714916686e-01
      -4.7797200303355540e-02 -5.6450735892191670e-02
      5.5009294335261347e-02 2.6705211494707248e-01
      -2.1518291438360534e-01 -1.5685031302717911e-01
      -8.0405014270470393e-02 4.3753685960888362e-02
      -2.1263748160889554e-02 9.9783486429784740e-02
      3.8600638315683548e-02 -5.3614288192391259e-02
      -3.5124751740021665e-02 1.2676841270458671e-02
      2.5837141444037820e-01 -1.3436765207757106e-02
      6.9837038650804734e-02 5.2073212659342075e-02
      -2.7403528241004289e-02 -1.8649825574877321e-01
      2.9938671265993888e-01 -1.6408663122311658e-02
      -6.3935845118856985e-02 5.9579020423700238e-02
      9.3705455017095762e-02 1.9562718662036016e-02
      -2.5837444410340055e-02 -9.0794806459355532e-02
      -6.2453731986655402e-02 -1.4832477982579767e-01
      -2.4929844689012437e-01 1.1000952125954021e-01
      -1.8665425263644170e-01 1.5627950124201574e-02
      1.8923259310260629e-01 6.1405817625854342e-02
      4.2606839730088865e-02 7.4061273834903126e-03
      1.5574796047818191e-02 1.0499270059595682e-02
      -1.2996256540675782e-01 7.1579470549590574e-02
      8.5299680195786390e-02 -1.3855207630755334e-01
      -7.6097185682635887e-03 -5.0053035106067609e-04
      -1.7445305809175046e-01 -3.7742787385634323e-02
      -1.8659996742975815e-01 2.1958571866034619e-02
      3.4299735812601741e-02 8.9503212445973701e-02
      8.2374016178266243e-02 5.4161232703383862e-02
      2.8959480281121500e-02 -1.2690603855789065e-01
      -6.0167351007003274e-02 1.0672153180078335e-01
      9.1847959701378698e-02 3.2470201856114871e-02
      8.2856519740433388e-03 1.3348073067711899e-01
      7.8635148982401759e-02 3.8831284938418989e-02
      3.1999390945538032e-02 -1.2020628930001434e-02
      -5.7764244583620034e-02 -2.8176243268130130e-01
      5.3527598490769629e-02 1.7871231106284197e-01
      -9.6057486604402262e-02 -1.0575607768003498e-01
      -8.4803675124995315e-02 -4.3468686426500272e-02
      -4.5061817465847115e-02 -4.0576865844014643e-03
      6.6643925334770912e-02 -3.8962883016308479e-02
      -2.4608479905666364e-01 -1.5082141491369025e-01
      -1.3592717107108387e-01 -6.9488762831004568e-03
      3.6915689797725644e-02 2.5915758553938317e-01
      -2.1869567946035826e-01 -1.3656879581237187e-02
      6.8205617489357093e-02 -1.1655249125628613e-01
      -2.6855474856620576e-01 3.7968713939055446e-02
      8.0027154492787939e-02 7.9164950236429735e-02
      -9.6393549810302737e-02 1.0672452771186208e-01
      4.8685086019684692e-01 -9.0396860574623247e-02
      5.1749385160493759e-02 2.8667339492438496e-02
      -1.3012735787227128e-01 -9.6319596064382007e-02
      6.7466158493165396e-02 1.4394765091808059e-01
      -9.7751841714907917e-02 9.5597848508719135e-02
      1.0873995705260567e-01 -1.2887854499170748e-01
      -7.9425249086527261e-02 2.3121526376210615e-02
      5.4804003615499482e-02 4.6407224844642957e-02
      -2.9406246556745036e-01 -4.6821191791017104e-02
      -1.6971151109281357e-01 -1.2739780456975656e-02
      5.5686458700471259e-02 2.6331403634660966e-01
      4.6703911140386668e-03 -9.1846346410156231e-03
      6.6069859741193213e-02 -1.6236352928267292e-01
      -6.4759466164265311e-02 4.1803990955436930e-02
      3.8336048489136722e-02 1.0542434980093365e-01
      -1.3256946694145291e-01 1.2390283474361087e-01
      3.3646522719994443e-01 -3.3968547007955907e-01
      1.3983909611979433e-02 3.2551023202198298e-02
      -5.8898601152862572e-02 -5.2035270719336918e-02
      6.5786120383174843e-02 1.6931287868244899e-01
      -7.2592263281492184e-03 9.0027540051817415e-02
      -2.4321190306846426e-02 -8.8060587868485973e-02
      -1.3709765438327742e-01 8.0590399428212334e-02
      4.6581599653987234e-02 1.0098490856979192e-02
      7.3179488377942387e-02 -4.7572998718153049e-02
      1.7813298894962658e-02 -1.4490697372232835e-02
      9.8790284142175208e-02 5.7445536658972944e-02
      -4.8052268178554902e-02 -4.1628509288646146e-03
      3.3236160989287096e-03 3.9390965819368053e-02
      3.9997882099147399e-03 1.8697675112148881e-02
      1.7667272880303429e-02 1.3191624200161135e-02
      -3.4333403751876754e-02 7.7565618439965178e-02
      1.8999378642539530e-01 -4.0754180421095583e-02
      6.2620861174441447e-02 -2.8850730774011762e-02
      2.0440310891727931e-02 -6.8145953605574905e-02
      1.2320547371466745e-01 -4.4249912192015656e-02
      -2.6955027356494695e-03 1.2030163174696325e-02
      3.2610740871952905e-02 -3.7811877652645293e-02
      -7.9490407030249777e-03 -1.6536957219017705e-02
      -7.9268962284612787e-03 -5.9600016141812005e-02
      -9.1636057461777533e-03 -4.2319096470392635e-02
      2.2503917617941568e-02 -5.0684047446319224e-03
      1.4928211398208358e-01 -8.7126876448668455e-02
      -1.7469556870196509e-01 -5.7698842694669447e-02
      3.1457531285634797e-02 1.9823010531865935e-02
      -4.6918188230399671e-02 7.6452920763815215e-03
      5.7770772966857398e-02 6.0763334116054030e-02
      -3.6292227672728258e-02 -7.6636615188128587e-02
      3.7474833220838144e-01 1.7486473939744254e-01
      7.1286973502911438e-02 -1.2712419108024994e-02
      -2.0771413467932445e-02 1.0066737264481548e-01
      1.6694811361299774e-01 -3.4249765039223848e-02
      -7.8136101568614929e-03 7.3324290541875144e-03
      6.4494470741857310e-02 -1.0857233904461253e-01
      -7.2523250542440743e-02 -5.5286809638877181e-03
      4.2919895235368783e-03 -5.5628598818481791e-02
      1.1619118449389627e-02 -5.8459164200340905e-03
      3.4732715031102973e-03 1.1891973460999436e-01
      -2.9733974525530333e-03 -1.1486593671089541e-01
      -5.9126799832279711e-02 -3.6266608454192995e-03
      -7.7868095281051777e-02 1.5503501148273417e-02
      1.2646467433559419e-02 1.0846766134939839e-01
      3.2436729314142083e-03 6.4484000156804907e-03
      2.8078487587402716e-02 -3.8916473455560885e-01
      2.1476266168906680e-01 6.9750470760825923e-03
      5.5659634383971321e-03 -2.5591138137918121e-02
      2.8085160431599050e-02 1.4950572052380090e-01
      2.8527357109152308e-02 -3.9669951557477143e-02
      -7.2435956600443399e-02 -2.8799490887352241e-02
      -3.2433494626321641e-02 -1.0207462624197122e-01
      -3.9736175028682430e-02 -1.5624718310058244e-02
      -2.6394689434543053e-02 -1.0407893296772561e-01
      6.6506666611686549e-03 -3.7884465084191084e-02
      -9.8539060367758016e-02 -8.8814289225982238e-03
      4.6599233115054900e-02 -9.2172795196093005e-02
      2.6401071991537205e-02 2.0804587310529785e-02
      -2.6718837727683999e-02 1.2223536866620165e-02
      6.4985518321747829e-02 3.6084314372901737e-02
      -6.4437329873165037e-04 2.1094410386505089e-02
      2.3158700412714603e-02 -4.0527022683316927e-02
      3.3119628982147896e-02 7.7272473245467058e-02
      7.4063413711695947e-02 -4.4843977480593551e-02
      4.6643669540419770e-02 1.8737037930975049e-02
      1.9526018124122486e-02 8.9966108230858169e-03
      -6.9529591677092939e-02 2.2783870288723057e-02
      -3.7528803071770742e-02 -1.5941620063896357e-02
      -1.2219695644500130e-02 -2.0196157167041855e-02
      1.9354081255816807e-02 -3.2156806927472602e-02
      -1.0401410343881276e-02 1.4595790817120346e-02
      -4.4391556892935070e-03 -1.8721771737589984e-02
      1.3676485770649276e-02 -4.5745236091394095e-02
      -5.4022699365394791e-02 -1.1578115544969788e-03
      1.7192063224649265e-02 -2.7514128225649311e-03
      -2.8512447720323086e-04 -7.2615617298135079e-03
      1.2332368662373743e-03 1.0073419841779993e-02
      -3.0247612561887943e-02 6.3495854041632896e-02
      2.5409381213667103e-02 -5.2506822577353771e-02
      7.6766558772667437e-03 3.3997640390257076e-03
      -7.3771463021084314e-03 -2.7983153005749779e-02
      5.9977989235082529e-03 2.7156809336692260e-03
      3.9239929726885704e-02 1.8894773831777581e-02
      5.7213510128395019e-02 4.5258159177288398e-03
      -8.9938099455646979e-03 1.1259420103100284e-02
      8.1870620771556431e-03 2.1183478877190954e-02
      -1.0211775173599801e-02 -4.9478507752180175e-03
      -3.0326560144391577e-02 -1.0108085282554221e-02
      1.4703648229497889e-03 7.0928470286336420e-02
      3.5117023859946349e-03 -4.6771180293802395e-02
      6.9786363493676996e-03 -4.3504495566921838e-03
      -2.1074867573260089e-02 -1.1740783457250790e-04
      1.1819743001326368e-02 3.1116880907001081e-02
      -4.9506144573376161e-02 7.7430749265257878e-02
      9.5671466549173453e-02 1.0600511070655700e-02
      2.2384223617658232e-02 6.1965184170290656e-03
      -1.9846861761927886e-02 -7.1042020435139047e-02
      1.7350621082487685e-04 2.9886119661365600e-02
      -2.4864441618482856e-02 2.6945695117373099e-02
      2.0722025251847003e-02 2.4461800790908834e-02
      -3.5311486204390022e-02 -1.3758230041392823e-02
      4.4962318552152353e-02 5.8701634724733324e-02
      6.7809192467652990e-02 -3.0461439905577484e-02
      1.3846763355830013e-02 1.2801219348700448e-02
      -6.0287179687170366e-02 5.1843395939316805e-02
      3.7870268735659823e-02 -1.6087280522245194e-02
      -6.1729247391540398e-02 7.4019178526988111e-02
      -1.8721468145966959e-02 2.1797598353713116e-02
      -6.3394965693225336e-02 -8.0014563010617496e-04
      -1.1263313902788480e-01 1.1123817904206225e-01
      7.6342095779031616e-02 -1.8992757778033234e-02
      1.0986870376994400e-02 1.4041978397453983e-02
      -2.2313997569087925e-02 -1.3798778037173948e-01
      -7.8105752991862260e-02 -6.4783074048812742e-02
      -4.1973569759905439e-02 3.1435678523424868e-02
      -7.6567492493054782e-03 1.2397368187404427e-01
      7.0430003997713183e-03 -3.1001985123007791e-02
      2.1340375701373118e-02 6.5100641039520971e-02
      1.8684179593019148e-01 -1.0568415420327385e-02
      1.1207109307054867e-01 6.1140370101866168e-02
      -6.7958012661694697e-02 1.2420993700535771e-01
      -7.1342308921739386e-02 -1.4599038474323180e-02
      -1.0971133651039604e-01 1.5567668064712797e-01
      -3.1273678746623679e-02 6.1921300598734047e-02
      -4.5322703251851761e-02 -5.7925408289643654e-02
      -7.2464846084291948e-02 -1.2321780084394889e-01
      2.5158543911166059e-01 -4.7565501141527619e-02
      1.4489099729588062e-02 3.9332495957851883e-03
      1.1794797815037231e-02 1.3356556385688032e-02
      -1.1940533701227692e-01 -1.8272592157418338e-01
      -7.7724057189578852e-02 1.9962997038597212e-02
      1.0696634451335069e-01 9.4306158967984055e-02
      2.1486077801790026e-02 -8.0474705933762158e-02
      -3.7554644315159480e-02 1.8694900060344341e-03
      2.1715819870521258e-01 -2.8930284383715355e-02
      1.7107906540288784e-01 1.8488888216151550e-01
      -7.2134006912464313e-02 9.0707779176736753e-02
      -1.5913560811259761e-02 -6.1421866156628938e-02
      -2.3580796249885164e-01 1.9950926019022019e-01
      6.4262918124713617e-02 1.4706078760872671e-01
      -1.0942647065128423e-01 -1.0755813017973734e-01
      -1.9525932546082703e-01 -4.4029060872272791e-01
      1.5192024893811279e-01 -3.1599879174141920e-01
      -1.2106375077016213e-01 3.3746013293267117e-02
      1.4660771199805828e-01 3.8501359160875159e-01
      -1.2559352913852045e-01 -2.4996659818773265e-01
      -8.0022371704815895e-02 5.8349977628810432e-02
      1.0823653583490633e-02 9.4829668524357716e-02
      7.9352673698239146e-02 -7.7276681479998055e-02
      -8.0422248557847201e-02 -3.9174088544349867e-02
      -2.1699702590654582e-02 -2.6723509978766130e-02
      8.5355872669784463e-02 6.0475465613813730e-04
      -1.3908490674874097e-02 1.1719481111027902e-01
      -1.1750505934912349e-01 -1.7275557300443303e-02
      -2.0322258462921853e-02 6.9070171180247941e-02
      -1.0967541668292902e-01 2.0438204721619675e-02
      -6.9270209715288730e-02 -7.7784951968966190e-02
      2.2828536439746170e-02 3.0150779272608536e-02
      -3.7800891557455293e-02 4.9136657945531223e-02
      1.2962066086134727e-01 -9.5929461022857421e-03
      -7.0668208016835543e-02 5.8771777299133410e-02
      -2.3357347812882161e-02 -8.8271610047509413e-02
      2.6079508963016529e-02 3.1281107541078351e-02
      2.4794618138805607e-02 5.8869160742463802e-02
      8.9682795089972442e-02 -2.4324386242832965e-02
      -9.7583641662137940e-02 -3.5138727339386867e-02
      1.0853019154974983e-01 -1.9359513172310428e-02
      1.7146328325467947e-01 -4.3897260728258745e-02
      -6.4722978501738179e-02 -6.1562107796506310e-02
      3.9011102354286072e-02 -4.4527821044186497e-02
      -1.7114189526928808e-02 6.8375916203516643e-02
      -1.0971201193341448e-01 -1.7075319882943179e-02
      -3.5919014931357608e-02 -7.5549558543686751e-02
      6.4231883431816003e-02 -1.1580888650798515e-01
      8.3539030874406790e-03 9.4491500048567711e-02
      -3.0328759215068939e-02 -4.1877643493566472e-02
      3.1621239486730505e-02 3.1855589581016047e-01
      -1.4800242303241098e-01 -1.2411237634487562e-01
      -7.7526643832025344e-02 3.8290237957699612e-03
      -1.9767551267542503e-02 6.6924799288751793e-02
      4.7535338516795630e-02 -1.8773389472551083e-02
      -5.1058456715826483e-02 -5.8479096354506960e-02
      -8.0060671095109406e-02 3.4521091732051826e-02
      2.4982656267185138e-02 -4.8010942361871575e-02
      -9.1807620291263700e-03 -2.7307663153762013e-01
      2.8373478815552147e-02 -2.5492350133889365e-02
      3.8685307050867652e-02 -2.8923481476258214e-02
      3.9962484601821675e-02 -3.8183833842960042e-02
      -1.6950488843163036e-02 -2.8843739182733766e-02
      1.5311372364305698e-01 6.7409384304994546e-02
      9.7334624665497735e-02 6.1868324677394906e-02
      -2.0194067885367034e-03 -1.9969651544744720e-02
      -6.0279309737930081e-02 1.1782252801073452e-02
      -1.7455535028942103e-02 2.1527344986056914e-03
      -3.2582489223389112e-02 -7.6501333798510901e-02
      -4.0879206260559756e-02 6.1631650408512102e-02
      -7.3331187100257210e-03 2.2170970777604066e-02
      -3.1645039970149655e-02 -8.3576931970035920e-02
      -3.0770685821798750e-02 5.1203432575713942e-03
      7.0098435515601867e-02 6.1562860432219008e-02
      -1.8434916605576157e-01 -5.9514875881807351e-02
      6.8071132494702022e-02 7.5531799852498915e-02
      -2.9355557075229421e-02 5.4452359089888262e-02
      -5.1490244741926400e-02 1.7569113153387435e-04
      -8.3484210735527253e-02 -1.1493047713389076e-01
      3.2145075483624642e-02 -9.9349416141571958e-02
      6.0462012172706650e-02 -4.8959682288233553e-02
      -1.6683620260332557e-02 -2.4147092100200870e-02
      -3.0760673967876746e-02 -7.1771225965158664e-03
      -1.7772426796781093e-01 -5.8566450268661162e-02
      -1.1717771435070802e-01 -2.6125918574988718e-02
      -3.1590272672081594e-02 1.4383899781172882e-01
      8.0179899555971490e-02 -9.7285135707342027e-02
      -7.9899733752765906e-02 -3.9479255375172287e-02
      -7.0008131473204657e-02 2.6096077407724304e-02
      -1.5158674772566605e-02 1.4065557004338644e-01
      -1.0267247491915822e-01 1.7193424628960233e-02
      -3.4395686778828723e-03 2.7513387973294612e-02
      -9.8362391460721482e-02 2.9485768835351461e-02
      -1.1081836118403708e-01 1.1887210509135195e-01
      -4.0982057279469720e-02 -1.0943616613136666e-01
      -2.4779897778554744e-02 -2.1643508067834541e-01
      1.9599739194728918e-01 -1.6656741378652437e-01
      -3.3608517378011876e-02 6.6366652795561113e-04
      -1.7193526634706732e-02 5.4053903963213086e-02
      -1.6700315711717692e-01 -3.6426466518270584e-02
      -1.1441053439255147e-01 -6.9491822421500232e-02
      -3.6407635841377871e-02 5.5164586452325838e-02
      5.4389955433613635e-02 -4.1712801419887979e-02
      -7.1916500634026173e-02 -8.2225229010329484e-02
      -2.0119137052565755e-01 -6.2096023636922987e-02
      -2.7148466712855434e-02 -1.6285437536596833e-02
      -3.2283784294116144e-02 8.9274117210532467e-02
      -3.3209356924685179e-01 -2.8844402343459533e-02
      4.3094309617477997e-02 -5.2326458186275959e-02
      -3.4687173173771019e-01 1.4773516427167193e-02
      -3.2868739769191446e-03 -4.1828547805175628e-02
      -2.6147090007246326e-01 -1.2980611663072311e-01
      5.2049755362247729e-01 -3.8407968653367497e-01
      1.7304708502423279e-02 2.7023910553654647e-05
      -6.2151940032883012e-02 1.9163109571569883e-01
      -9.5882652388466535e-02 5.6967447943199460e-02
      -1.0693125045264772e-01 1.1889296762091046e-01
      2.3890607881003387e-01 3.5422629753306088e-02
      3.9391617421987164e-02 -6.4127833833251442e-03
      -5.1591649645204032e-02 -1.2725544596063974e-02
      -6.5258179765830390e-03 -1.2877189680505727e-01
      -7.2482760687134037e-02 -5.2172775989599081e-02
      6.9862063194805202e-02 3.8540941331893741e-01
      -9.3455848202565639e-02 -4.2463125161778095e-02
      5.0652704762471724e-02 -3.1622545786894080e-02
      -2.5461284444743992e-01 -7.4531188993263484e-02
      3.2386738983851596e-02 4.6355916138719429e-02
      -2.2856938723934370e-01 -6.4842067491883260e-02
      1.5006555470315752e-01 -1.5386440708977142e-01
      -2.5977986906698936e-02 -2.7049797030704848e-03
      4.7181613722031793e-02 2.4796164425266567e-01
      8.5883098388362833e-02 7.9563151007108993e-02
      -7.1095557357318387e-02 1.5826070992142030e-01
      1.1804755879708535e-01 -4.3605667294464835e-02
      -3.2325367251852806e-03 -3.0753463370850484e-02
      -1.1804131852899578e-02 9.2745052087828614e-02
      1.9724818004107203e-01 -7.0522254083830380e-02
      1.1358784373286410e-01 8.1368212137131912e-02
      2.0759582751302644e-01 -7.3475210164043528e-02
      -1.5617639565121400e-01 -2.0983310655591469e-01
      -8.4528859170978035e-02 9.9852225485827520e-02
      2.3056715499359573e-02 -1.1156161751572780e-01
      1.9382946182503760e-02 1.1386972058407156e-02
      -2.1443734356191460e-01 -3.5812255410993116e-01
      2.4223266365107926e-01 -1.9563763253182306e-01
      -1.6915358387733878e-01 7.4007250421875129e-02
      1.5170208984355488e-01 3.2923038118271958e-01
      3.0324222022672964e-01 -1.1204156014488191e-01
      1.2159427704695892e-01 7.9412616543226802e-02
      8.1426445865657726e-02 -1.4003385351167497e-01
      4.0223456864794380e-02 -7.7392431800290323e-03
      -5.6024753845211585e-02 -3.4332590858539680e-02
      3.3272172364000582e-02 -4.8026630970511734e-02
      3.9799200991592593e-02 -5.8066657627923221e-02
      2.9116895045463616e-02 2.1031103777500548e-01
      -8.6799542496216839e-02 -2.7430359723528613e-02
      6.0248063127075938e-02 2.6168354113677690e-02
      -1.2440837198915627e-01 -8.4841224617753147e-02
      4.7639010981646843e-02 3.1921952741968851e-02
      -7.7669958891723262e-02 3.4166835121668543e-02
      1.0900548846766794e-01 -6.8667287515901176e-02
      3.1131332918638427e-02 -6.5421317542904256e-04
      -5.1263994335114964e-02 7.3278570089683456e-02
      3.1289617852902088e-02 -4.2990987475464419e-02
      2.9077646693386060e-03 5.0091866715049817e-02
      1.1553300182597850e-01 -3.9135854466978544e-02
      -3.4255292142202139e-02 2.3537700739319663e-02
      1.0733682473209397e-02 5.8384971478745176e-02
      -1.1765185319228055e-02 -1.2407854882609459e-01
      2.1124188029481064e-01 -1.1198098278976114e-01
      -1.7676542169459478e-01 4.7134827711708188e-01
      -1.1299068765408259e-01 7.8692734610810791e-03
      1.9044356485767688e-01 -6.4119361723342469e-02
      -5.2208714291847547e-01 -2.0019937510539135e-01
      9.0867865853782551e-02 1.2737444077436635e-01
      1.6544300495678631e-02 2.2844645248479442e-02
      6.6019873909151705e-02 2.1708449024623805e-01
      -1.3099127098984994e-02 -2.6995550380098619e-02
      -1.6420456485053456e-02 2.2986171295065427e-01
      -1.3233437965788206e-01 6.0645247726767770e-02
      -2.7690058484833139e-02 -3.3396505309821037e-02
      -2.4604916746908956e-03 -4.1217530630704352e-02
      -5.4757915590891194e-02 -5.2513242159519601e-02
      1.5399585986162850e-02 -1.3866863685102520e-02
      1.4488980138597485e-01 5.3022809697348468e-02
      1.1812400277116582e-01 -2.3853057066790632e-02
      -7.3234060358413303e-02 -6.1592636837177112e-02
      -7.3176726720694113e-02 -8.6639057136389377e-02
      -5.2173845856943221e-02 3.8697904694353580e-02
      4.1177359138917999e-02 -3.9850148098139096e-02
      -8.1770531095352400e-02 -1.5308974968298816e-01
      -1.0116650541249111e-01 5.6305308365764223e-02
      -2.4173289462583389e-01 -1.6159773564411126e-01
      -9.5163399494778811e-02 1.2370729286695377e-01
      -3.6662541157556669e-02 1.1898986968128010e-01
      -9.1114977413032497e-02 -1.2270427561601000e-02
      1.8081144899189874e-01 8.7950655613816042e-02
      1.2584049631322053e-01 1.7495936723332922e-01
      1.7477581218615801e-01 3.0549838663538411e-02
      -3.8141925664846893e-02 1.8238046994731022e-01
      1.4459744548301061e-02 7.4815703940181296e-03
      1.6423030202344317e-02 -3.2480483199715866e-02
      3.3422678762068753e-02 -5.0005653233336299e-02
      -1.0605451881801364e-01 9.0959567844407077e-02
      3.3304127980033141e-02 6.6661407925577955e-03
      1.6919983869167918e-02 -6.6127308600109408e-03
      -4.3237171695171819e-03 -8.5230170044436615e-03
      -4.3572612459932956e-02 8.6634196835065860e-02
      -4.1643231054594687e-04 -2.4299338767798030e-02
      7.0192187135765638e-02 -2.3136535677943538e-02
      -1.7454419702062220e-02 -3.7715607993006862e-02
      5.6112288671728940e-02 -3.4757327017185161e-02
      3.6333148007819879e-02 1.3948853960384132e-02
      6.3426585341084460e-02 -8.7461369362249863e-04
      5.8571830420525222e-03 1.7246329195300461e-02
      -3.6468530503055145e-02 -1.7210382382011325e-02
      8.9010135405218627e-02 -6.0440227449250122e-02
      2.4131580911766544e-02 1.0187010003234600e-02
      2.7384423562114409e-02 -5.2443725246441942e-03
      1.3579181232676898e-02 -2.9932788052898267e-02
      -2.5736653496905560e-02 3.4684038391132703e-02
      -1.9427290227538627e-02 1.1647929847568262e-02
      -4.0342577632729477e-02 -4.9080324568421445e-03
      -5.7943233277292956e-02 5.7308454432484120e-02
      -7.6516698463467193e-04 -3.0756399914228395e-02
      -1.4643678418491892e-02 8.2651919240300138e-03
      2.5458844131646185e-02 5.2420460250854522e-03
      2.5636446645915512e-02 -1.6338223824764232e-02
      -1.9594492725159111e-02 2.7322193040314913e-02
      -1.9482086638137462e-02 6.0567654088112183e-02
      2.7652712749626301e-02 -2.5789429579942704e-02
      -1.4582436249375481e-02 1.4180697661032542e-02
      1.6362690097536969e-01 -2.2321306358201860e-02
      7.6403204998639909e-02 -1.2226533554622119e-04
      3.5876069906027368e-02 5.4529138915626338e-03
      -1.6125339118746454e-01 4.7840150530114901e-03
      -4.9034652971579752e-02 1.5015707572739473e-01
      2.8134863027318519e-02 3.0192921279754512e-02
      -2.1108209433544575e-02 2.8495729127749413e-02
      -1.5999711507702141e-01 2.3424916391844780e-01
      1.9036909434142121e-01 1.4723075241515676e-02
      1.1594372483523935e-01 -1.8501398558075702e-03
      -3.6260025246578405e-02 -2.6487045814031862e-01
      1.8310612028542474e-02 -1.5311424096035942e-01
      1.7319998880769724e-02 1.5770465995737323e-02
      7.4262282204907354e-02 8.3461157253910137e-02
      5.1166083996803616e-03 -5.5937368489219666e-02
      3.2028098282422944e-02 7.3120714457314009e-02
      2.2547454584141483e-01 -1.3876198984598576e-01
      1.8483512173440567e-01 1.0915510701549332e-01
      -1.9863412524016169e-01 -1.0481147008322667e-02
      -2.4826811144061205e-02 5.2908735138145875e-02
      -1.6938870036361511e-01 2.9382039817863737e-01
      -1.4779680674774540e-01 1.6897102626791008e-01
      -2.0944893559601924e-01 -1.8287941918884631e-01
      -2.1706462405467176e-02 -3.0326902497379727e-02
      -1.0842035996696597e-02 -2.5496783411734081e-01
      9.3980328068743221e-02 -5.2578675056682372e-02
      8.0149950208156254e-02 1.8063793218577304e-01
      -3.1518115983424794e-01 -2.5726721512405226e-01
      -2.0355105277176541e-01 -3.0711810232122654e-02
      1.8644155385152742e-02 3.0083140081710630e-01
      2.1865126346820721e-01 -2.4795054444421691e-01
      -1.6038040538440862e-01 -5.6094603333714542e-02
      1.7048094947910755e-01 -2.7027393748044574e-03
      1.6530815182339520e-01 1.1922453233899316e-01
      5.2242150813232087e-02 1.2703571853746787e-01
      -6.7009349538797364e-02 -8.0025399737251049e-02
      -1.4618224577110492e-01 2.1066167623664925e-01
      1.1726948673345990e-01 6.6797964814833679e-03
      -6.1787866365144224e-02 -2.9511123242514162e-02
      -2.1707540778554615e-01 -2.5537418308866711e-01
      -5.3994033215609152e-02 -3.6741516289079401e-02
      -6.6778381721943017e-02 5.3092516397321689e-02
      1.0964665529971443e-01 2.3990082318658404e-01
      3.5726666512235897e-02 -2.3599747678546001e-01
      5.8606233887748480e-02 8.4362053694475039e-02
      7.5438890378111231e-02 -1.5768480729010906e-03
      4.8219423611169945e-02 -6.6254087049070848e-02
      -3.1602467114866230e-02 7.2878273409535510e-02
      -5.2366517658487245e-02 2.1132143633298038e-02
      6.2310214392223860e-02 9.3443048736796671e-04
      -2.1519524205555963e-02 1.0473351538528662e-01
      -1.1528007791835743e-01 7.5019613234728237e-03
      -4.7592049314407296e-02 1.4327667212427786e-02
      -4.2067451702793794e-02 1.0943987990675319e-01
      -1.6915663866856868e-02 -4.6784193775940570e-02
      2.4833263738640053e-02 1.2904527844880295e-01
      1.7557482937644681e-01 7.3490567933108836e-03
      1.3031489430508394e-01 -7.7391431921379102e-03
      -1.2375180010201886e-01 3.7066000356572697e-02
      -4.8038189308833530e-02 -5.9599348243558045e-02
      -6.9152015203903794e-03 2.6199390863069175e-02
      8.3168580286222954e-02 -6.6861350965626088e-03
      -4.0027076302220918e-03 5.0854638392946690e-02
      5.3933172063809730e-03 1.3638156825146876e-03
      -1.1070599535885600e-01 1.1907070268578774e-04
      -4.9782167418376412e-02 -1.4180407658788989e-02
      6.8004239449485929e-02 1.9205129213040371e-02
      -1.1580681740283835e-01 2.3236567619045287e-02
      -1.5394880875998320e-02 -8.1369985155210253e-02
      -7.3451471975838095e-02 1.0040251964418931e-01
      -4.6489505324021317e-03 -1.2118024000634249e-02
      -2.8281053860112509e-02 1.6254649105317823e-01
      1.6866460540324560e-01 -1.2600088180455368e-01
      1.3061735857910792e-01 -5.4696742371564246e-03
      -1.2519425573703369e-01 -4.0483186478920491e-02
      6.0314540263490764e-02 3.5130812596869850e-02
      1.1507990675455640e-02 -9.7852013379348115e-04
      6.2176137088969852e-02 5.1329018957836578e-03
      -8.9587893545289531e-03 1.1726452540016299e-01
      -1.0773489391725373e-02 -5.2392019298051061e-02
      -8.4961927346308780e-02 2.1810397073617111e-02
      7.2089060183089812e-04 -3.9845570205000916e-02
      -1.8019638591957148e-02 -8.5914988678000431e-02
      -5.9951025302919382e-02 6.3856181352267075e-02
      3.3647703504858031e-02 5.1798166137016731e-03
      1.4947089761823457e-01 1.0986883624867834e-02
      -4.4144201945441233e-02 -1.5016715969052774e-02
      1.4363349636096720e-01 1.3803377145090753e-01
      2.5875233446339369e-02 1.0624497458636920e-02
      1.2565855944805207e-01 -4.3295784581315645e-02
      -6.5652792921730832e-02 -1.7510383536810456e-01
      -2.6167010894099247e-02 -5.7759521182457847e-03
      2.2860469115253274e-02 -8.8193717918022496e-02
      -1.2592405790978041e-02 7.2878729944689982e-02
      3.2609554232278584e-02 -1.7876709731488442e-03
      -3.1958072568239501e-02 -1.0603536495377085e-01
      -1.0407642404924380e-01 -2.0705196721428156e-03
      1.1176443279244049e-02 8.8303135105666189e-02
      -8.7002730266032183e-02 -1.1327069760091044e-01
      -1.3870262276420690e-02 1.0633848903394937e-01
      -5.4034447463411295e-02 -2.5574399111861493e-02
      1.3203893444612336e-01 5.6337806645093677e-02
      -8.6819037795117210e-02 9.8633581378692312e-04
      4.8518896955388260e-02 -1.3070201448877236e-01
      -2.1745125903629439e-02 -1.5753456012662628e-01
      4.1876555046536805e-02 5.2715580529588571e-04
      -5.0654178735390548e-02 -6.3677028729271057e-02
      -4.4010199504573605e-02 -1.1265679411759382e-02
      5.1625841002279856e-02 -3.6252908315852844e-02
      -9.5216256455149750e-02 2.2435070398581076e-02
      1.1626943179092779e-02 5.1036410900843980e-02
      -5.0072629938974718e-02 -1.0147146093356531e-01
      -9.7257956357069044e-03 -3.2847558751912080e-02
      1.3956192147269574e-02 1.1808883174445096e-01
      -7.0664871633486850e-02 3.0114029544376680e-02
      -5.8689521287652103e-04 3.4293902446956702e-02
      -7.4513618223699160e-02 -3.1099468460777286e-02
      -2.4870794953388842e-02 3.9172153815928201e-02
      -6.9740403952629759e-02 -3.2500046210696298e-02
      -1.1842360951196022e-01 -1.2676941306910849e-01
      1.6730574148389455e-02 -1.3562868848592036e-01
      -8.8824880530059616e-02 -1.4134482497739362e-03
      6.2243287358421030e-02 3.9818071871543112e-02
      -4.7932665254729855e-02 2.7518256257663926e-02
      -6.1158119433854741e-02 7.2601703986000854e-02
      -1.3175073357371084e-01 -6.4539688198844121e-03
      3.7801540017798674e-02 -3.3820122724042279e-02
      -6.5866112825615317e-02 -2.7444262486370150e-03
      -9.0150856251773881e-02 9.0517367446655228e-02
      -3.9539321223975292e-02 -5.2089570576385344e-02
      1.0440543241349712e-01 1.0295645664205771e-01
      -2.0241282306615652e-02 -7.2766713106364733e-02
      4.1933790144617393e-02 -6.2054685445942614e-02
      -1.1287539295715836e-02 1.1196399956890012e-04
      3.5840454465638369e-02 6.6036735574986294e-02
      -9.2672933153238463e-02 -1.1112176144939806e-01
      1.6767355993561009e-01 -1.2068711145938135e-01
      8.0283200084155279e-02 -1.8125631037325916e-03
      -1.0378675391644013e-03 2.2383379932544922e-02
      -5.2014877561185986e-03 5.4886790272628813e-02
      3.7459703280848496e-03 4.1025047808380725e-02
      2.9653550386182888e-02 -2.5107298353928848e-02
      -1.3412184147879525e-01 2.4820349082760044e-02
      -2.3683204716882177e-03 -6.0852216155874807e-02
      -1.9681699959744794e-02 3.5776348468310980e-02
      -6.6404049258534631e-02 -4.5199490345951852e-02
      1.6185565898703197e-01 1.7427183948954686e-01
      -1.7352017749751622e-01 2.7200730294988641e-02
      3.2920542595134356e-02 -3.1872284327129671e-02
      -1.8071560265906922e-02 -5.3386711131652147e-03
      7.9344337176472560e-02 6.6592073057300319e-02
      -4.9070196419617289e-02 -2.0851142953056709e-01
      5.1813601278451409e-02 2.5101568903628760e-02
      1.1002000349311720e-01 -6.5321926875725800e-02
      2.2738497661470451e-02 8.8030970816095802e-02
      1.3636761605507677e-01 1.5169562383611329e-02
      2.8224440846254473e-02 -2.5600978860671731e-03
      5.2159984180761662e-02 -1.1394338788158336e-01
      -2.5345444625571856e-02 5.7499136153368692e-02
      2.5686507177548147e-02 8.3069348149389377e-05
      7.5745425384591517e-02 -5.4081263589150261e-02
      -4.4378886577646354e-02 4.5542459790518915e-02
      6.4039446347478679e-03 2.4960075006684843e-01
      3.4822517727249418e-02 -2.8324300311602515e-02
      -5.9622521162515631e-02 -3.0747987132022453e-02
      -3.9291983703077037e-02 2.0731562423277120e-02
      3.4840147873214905e-02 1.9938144156738238e-02
      -1.0242516495698781e-01 -2.3265938871983863e-01
      2.4375992147751078e-02 -1.2675864967493072e-01
      -9.2713400401882792e-02 2.4731699570178307e-02
      7.1716893844251048e-02 1.2236957446739256e-01
      -1.0192388679777016e-02 6.2128321074986316e-02
      -4.9582544527350468e-02 2.2634468606061119e-02
      -2.4000830037519062e-03 -3.4333327361892679e-02
      -1.6352326726634264e-03 9.7027321413283782e-03
      4.5634390671185639e-02 4.3859369520374454e-03
      -2.5819403690191735e-02 1.5153147117554357e-02
      3.9051695254377454e-03 -1.0912634761941776e-02
      2.0696261619474549e-02 3.7113569963238571e-02
      -1.1359672668267011e-01 1.2293128314398303e-02
      1.4631772531647106e-02 7.9086045778243609e-03
      -3.4590164929536815e-02 -4.3262785898220323e-02
      3.2810482635273801e-02 2.0113450757389796e-03
      8.2887442651436230e-03 -7.9020879461408997e-02
      8.7891389657632976e-02 -5.1821632792403517e-02
      5.0661715795458334e-02 1.5722497152919324e-03
      -4.2262341013610039e-02 -2.1083102630050310e-02
      5.2523050801736797e-02 3.6573796053882484e-04
      3.4196366314068298e-02 -3.3450966877142437e-03
      1.0869553334122162e-01 -3.8800740677310055e-02
      2.2491095352106721e-02 6.6199054238861429e-03
      1.2905653262792688e-02 2.3390523931730894e-02
      8.1429262749279807e-02 2.2563389002020158e-02
      4.0689487782268954e-03 -8.6866342497654236e-02
      -1.3871177944422031e-01 1.6340495121337120e-01
      8.0798575052022717e-03 3.6922004671611063e-03
      6.4759504003195453e-02 1.4795967113658015e-02
      -9.3947446597528184e-02 -1.2879181717498506e-01
      -9.0385401557373181e-04 5.1646004305140490e-03
      -9.5222178670236912e-02 3.6465687344185482e-01
      -2.9875063348209491e-01 -4.9395481865144465e-03
      -7.5055416468960121e-02 4.7485887987673621e-02
      7.7801613119108642e-03 -9.3385518669911072e-02
      -1.4180380065168297e-01 1.0549580943905889e-02
      9.7479077637145056e-02 7.3944637384428150e-02
      8.0174239655032967e-02 6.7285427204228032e-02
      3.0275057724182968e-02 9.4341672592605840e-04
      5.6301588982470098e-02 2.1148306142466219e-01
      7.7220171737616625e-02 -1.3987976069048211e-02
      9.8470220959193583e-02 -5.1384116357658750e-02
      -1.4897282634855966e-01 3.0889507748976603e-02
      9.0501604421921265e-03 6.2096701807955899e-03
      6.7265699686065591e-02 2.4576237312646132e-02
      -9.1407359367392277e-02 -1.1789711704710128e-01
      -2.4736561056813513e-02 -3.0679335403034101e-02
      2.5705791322867374e-02 -5.3000332011865298e-02
      -1.5996002020805256e-01 8.8806703289626601e-02
      -8.6027839831692696e-02 2.0496791223416633e-02
      -1.0630688454619942e-03 6.2543359739826512e-02
      -1.1247860978160824e-01 -1.8090236177322503e-02
      1.4104844485056433e-02 4.0872884393885608e-03
      4.0367334384131447e-02 1.0705570726629628e-01
      5.3982989904786741e-02 -4.3591057177129244e-02
      -1.6722394566931337e-02 6.3021173559832694e-02
      -5.4836601390009829e-02 -7.8557848764487188e-05
      -3.4430084626065144e-02 -7.5367781292044172e-03
      3.5174328770450132e-02 8.5516010755400759e-02
      -2.2617090554632811e-02 -4.7831284187187434e-02
      1.2097344295372041e-02 -2.6936730086860507e-02
      -3.5182827877720577e-02 -3.2829048896302156e-04
      2.1426553970088118e-02 3.7920101983304685e-02
      -2.7366217234993290e-02 -1.3571403897689282e-02
      6.6043399890844096e-02 2.0857427562807861e-02
      1.2142350441949612e-02 2.4939641241562790e-03
      -1.6424823323977104e-02 2.0588860320167098e-02
      3.6251546530648764e-02 2.7064493082077295e-02
      -4.2816718209941484e-03 1.4876536675741528e-02
      1.0948073425817722e-02 -5.3181292072113459e-02
      -4.8139828783890719e-02 1.4271059837492861e-02
      1.3745584674065137e-02 1.1093608327054876e-02
      -7.1756647192368073e-02 -1.1856070376131074e-02
      -1.0522990428399038e-02 1.3636525950778697e-02
      9.6552324431339563e-03 -1.2610350180617768e-02
      7.7014434460255674e-02 -6.6887668952551813e-02
      -1.3601972644582861e-03 -3.4759940841634508e-02
      1.9876557904471372e-02 3.8812257372515674e-02
      -1.0417712903300279e-02 3.9882687102543432e-02
      3.3785153247525762e-02 1.4663915408967419e-02
      6.7154804231594312e-02 1.2496780843004741e-02
      1.9396135197864386e-02 6.1114341043494317e-03
      -2.6426785478754738e-02 9.0021227101939293e-03
      -2.7272812491992565e-03 2.9180190575421750e-02
      -8.2923323699101506e-03 -1.6602665068558033e-02
      -5.6503417546616572e-02 -8.1915571585495887e-03
      -5.9297319877912015e-02 2.2691759014790133e-02
      1.1737769233154475e-02 -6.4263199990153841e-02
      8.1408458474993145e-02 2.1990846113352135e-02
      8.9119947183983958e-02 4.3329997907813216e-02
      1.9163714301572283e-02 1.1212711646670735e-01
      -2.1081897919746206e-01 -9.1918219222248253e-03
      -3.2999912531199230e-02 1.0784669056597443e-01
      1.9626648376433974e-02 1.4830856274518550e-02
      -1.4861267501111827e-02 4.6726163692913294e-03
      -1.6080943512230148e-02 -8.6201561236791555e-02
      8.5514968988456522e-02 -7.7021405497219628e-02
      6.3233334883368117e-02 1.4889678813078166e-02
      -1.6791394864284423e-02 -2.1415075073037127e-02
      -2.3191438193975289e-02 -1.3312182433821002e-01
      4.9628488090626602e-02 -2.1115407687168863e-02
      7.9538595429657272e-02 1.6371014862607045e-02
      1.9619427768166334e-02 -2.5652576610737915e-02
      -7.8019991499560272e-03 1.7075537536560000e-02
      1.6735316730540531e-01 -1.9158344311393662e-02
      1.7213652535152638e-01 1.0240625827678536e-01
      -1.1409421190859777e-01 -1.0119331752924798e-01
      -4.6486093559718174e-02 -5.7626652546168098e-04
      -1.3103501644049842e-01 2.2966691936969297e-01
      7.0374775230035630e-02 9.4043581951341229e-02
