<?xml version="1.0"?>
<opencv_storage>
<opencv_ml_ann_mlp>
  <format>3</format>
  <layer_sizes>
    256 8 8 26</layer_sizes>
  <activation_function>SIGMOID_SYM</activation_function>
  <f_param1>6.6666666666666663e-01</f_param1>
  <f_param2>1.7159000000000000e+00</f_param2>
  <min_val>-9.4999999999999996e-01</min_val>
  <max_val>9.4999999999999996e-01</max_val>
  <min_val1>-9.7999999999999998e-01</min_val1>
  <max_val1>9.7999999999999998e-01</max_val1>
  <training_params>
    <train_method>BACKPROP</train_method>
    <dw_scale>1.0000000000000000e-03</dw_scale>
    <moment_scale>0.</moment_scale>
    <term_criteria>
      <iterations>128</iterations></term_criteria></training_params>
  <input_scale>
    5.3030332168029458e-02 -7.4822704572884993e-02
    1.6735070655539969e-01 -2.8859625833150986e-02
    1.5277734473113852e-01 -3.0589671234120503e-02
    4.8401560290886915e-02 -8.2296874304583434e-02
    4.2772228040115323e-02 -9.2800833091373755e-02
    2.5727479989436326e-02 -1.6113602725159343e-01
    2.1407329278921038e-02 -1.9755277723892509e-01
    1.8488066082741346e-02 -2.3164794034467676e-01
    2.9237232608428112e-02 -1.4357211636006617e-01
    3.5384433270506312e-02 -1.1652058724239066e-01
    4.7041350123102482e-02 -8.6266609121091742e-02
    2.8972879537209149e-02 -1.4029976044539968e-01
    3.1283310003918104e-02 -1.3140784822759582e-01
    5.0703543624007634e-02 -8.4486987689702947e-02
    4.5299868229607486e-02 -9.9685697157010172e-02
    3.9993781130929884e-02 -1.0528375473455720e-01
    7.1946292196655021e-02 -5.6121530571757623e-02
    1.1271962865957642e-01 -4.2189031294860346e-02
    2.0196924963618856e-01 -2.6577875931556649e-02
    5.1428270213606943e-02 -7.7552565024086861e-02
    2.1226761379563988e-02 -1.9241300349448062e-01
    1.5084258432318230e-02 -2.8272484464654218e-01
    1.2638028839730166e-02 -3.5208943589427072e-01
    1.1118123033549221e-02 -4.1730529960007173e-01
    1.3037249562812559e-02 -3.4007575188828637e-01
    1.4879583727943888e-02 -2.8838640249324132e-01
    2.2759185780907448e-02 -1.8221678600382049e-01
    2.2012811981347843e-02 -1.8773414331791025e-01
    2.7177729220711828e-02 -1.5022283531546249e-01
    5.0413867483108270e-02 -8.4900141181851282e-02
    4.4882103844668210e-02 -1.0040855720895482e-01
    3.9857479458835408e-02 -1.0560252288127989e-01
    8.0784010776895829e-02 -5.1633043406864441e-02
    1.1005040957491317e-01 -4.4323506920580319e-02
    5.8810840965186455e-02 -6.9467065821757948e-02
    3.2745575692777175e-02 -1.2175013052807722e-01
    1.7231590229241655e-02 -2.4182452556286879e-01
    1.1457920800402753e-02 -4.0060078238195596e-01
    9.2294398440899428e-03 -5.6751757158562210e-01
    8.5465753384425681e-03 -6.7486614507141485e-01
    8.4872524508181890e-03 -6.8153634702395327e-01
    8.7865758125129159e-03 -6.2029512425517930e-01
    1.1613240265919030e-02 -3.9639952185970984e-01
    1.4488510667486694e-02 -2.9770676284787440e-01
    2.3218600303742381e-02 -1.8011714668255729e-01
    3.0558636310805024e-02 -1.3535889590168043e-01
    4.1732221185978281e-02 -1.0652898325409091e-01
    3.9998546754215644e-02 -1.0526831750012861e-01
    6.7705915927113433e-02 -6.5778092519926140e-02
    7.6325203109428530e-02 -5.9142154025467353e-02
    3.1291724912839582e-02 -1.2918399180296464e-01
    1.6868419584800603e-02 -2.4960752984748355e-01
    1.1577398086899667e-02 -3.9683163988262427e-01
    8.3363722596027697e-03 -7.2635148592025967e-01
    7.9172373693972026e-03 -9.9418933063619053e-01
    7.9814179127242792e-03 -1.1742908185208396e+00
    7.9993049280892882e-03 -1.1779880303831212e+00
    7.9272406123782491e-03 -1.0115178986461251e+00
    8.1979073623991202e-03 -7.6180261426532048e-01
    9.1396560613202973e-03 -5.8141422658729902e-01
    1.0697095519223834e-02 -4.4575472051703408e-01
    1.3833527150718585e-02 -3.1641846477225355e-01
    2.8924973150620925e-02 -1.4752464793617723e-01
    3.9669749613621588e-02 -1.0679527318327776e-01
    4.7258488060403205e-02 -9.1108308064959495e-02
    4.1193614782069413e-02 -1.0243647946191808e-01
    1.9601102544513058e-02 -2.1435329126543326e-01
    1.1432571149708129e-02 -4.0687444169357928e-01
    8.1486615457065491e-03 -7.8594906649831930e-01
    8.1314913509703025e-03 -1.2501533657108002e+00
    8.8486153344342969e-03 -1.6316496297777066e+00
    9.4702405174135196e-03 -1.8681967452380588e+00
    8.9812966109052757e-03 -1.6846069893725588e+00
    8.3488346309993668e-03 -1.4052985774701015e+00
    7.9078159569089552e-03 -1.0743227708471044e+00
    8.3016776406112155e-03 -7.3085718842404901e-01
    9.2727976818082775e-03 -5.5606555758404430e-01
    1.2811045799697111e-02 -3.4766654450862644e-01
    2.0067507640465720e-02 -2.1138270763271316e-01
    2.9813562779500275e-02 -1.4074571263192098e-01
    3.7938803875475373e-02 -1.0947683247878359e-01
    3.0796220369159594e-02 -1.3863469932099570e-01
    1.5077153796638116e-02 -2.9029902531906687e-01
    8.7642988684766727e-03 -6.3186646186007212e-01
    7.9190226753626056e-03 -1.0345249673701504e+00
    8.9425076552723942e-03 -1.6608302488911895e+00
    1.0200507452166333e-02 -2.1093691730864443e+00
    1.1220725907085947e-02 -2.4374589622066738e+00
    8.9107411903855110e-03 -1.6664569694975231e+00
    8.7316268201975116e-03 -1.5883784570320609e+00
    7.9445042336828142e-03 -1.1178163117269633e+00
    8.3416066475801316e-03 -7.2542857491725643e-01
    9.4533605398579926e-03 -5.4909250140628352e-01
    1.4546158936605186e-02 -3.0081770114294826e-01
    2.6253135774927772e-02 -1.6290755820375985e-01
    3.1089832281003756e-02 -1.3822947467151475e-01
    5.8710986376101275e-02 -7.6943676212642031e-02
    2.8746517422605974e-02 -1.4979401173257195e-01
    1.1978070492536767e-02 -3.9017387269074594e-01
    8.4175761911917824e-03 -7.0502471155793311e-01
    8.0525159924505641e-03 -1.2203736147444937e+00
    1.0596561542456761e-02 -2.2320507087383548e+00
    1.1798489963447002e-02 -2.6129453903852937e+00
    9.9894466062828927e-03 -2.0515293090009914e+00
    8.7231174314574521e-03 -1.5849496716427884e+00
    8.3260449327889063e-03 -1.3934201788252243e+00
    7.8950972513368335e-03 -9.7112623574641044e-01
    8.6534663193981193e-03 -6.4938168434524024e-01
    9.8580297684248246e-03 -5.0573403073977219e-01
    1.6612732277525619e-02 -2.6225546740981764e-01
    2.9220413103211499e-02 -1.5246783901566577e-01
    3.5844646757822320e-02 -1.2507509768713473e-01
    4.6350304715680572e-02 -1.0171839293593003e-01
    2.2737506602429354e-02 -1.9445069834155373e-01
    1.0543708575639204e-02 -4.6101026945312851e-01
    8.1763062827976442e-03 -7.7428945526678150e-01
    8.3668318288282924e-03 -1.3948621972924178e+00
    1.2974136892895845e-02 -2.9503853519188357e+00
    1.3455084730472560e-02 -3.0911198081067290e+00
    1.0703053279904706e-02 -2.2779090999828417e+00
    8.4661890264567680e-03 -1.4664240169502694e+00
    8.1858563172027068e-03 -1.3253814225946987e+00
    7.9693013108510565e-03 -9.2221330137781332e-01
    8.5448376054337027e-03 -6.6857047557835825e-01
    1.0350130536592953e-02 -4.6994472997109804e-01
    2.0026755651414454e-02 -2.1680146888593285e-01
    3.0372723038320976e-02 -1.5521239170681361e-01
    3.0500196481868629e-02 -1.4143948677746915e-01
    4.2261913364239991e-02 -1.0990640167125319e-01
    1.5702003924964947e-02 -2.8705205328392613e-01
    9.9039563885674649e-03 -5.0437217835806547e-01
    7.9526768996552189e-03 -9.1759837649915077e-01
    8.8428367651012894e-03 -1.6157874586347689e+00
    1.1682777360017271e-02 -2.5703589541906586e+00
    1.3245388390075078e-02 -3.0305456049609671e+00
    1.1111165722571707e-02 -2.4051771589009041e+00
    9.2862356147789520e-03 -1.8055796877771582e+00
    8.3559559823877510e-03 -1.4090600520800076e+00
    7.9449398567139791e-03 -9.6534354199549188e-01
    8.4508446172876246e-03 -7.1076131947617294e-01
    1.0068284205026671e-02 -5.0089819575711536e-01
    1.5288130171687309e-02 -2.9436870034720741e-01
    2.4436606393960662e-02 -1.8977775564482854e-01
    3.1977781245678467e-02 -1.4020872282149199e-01
    2.1003122967265284e-02 -2.2400784263365939e-01
    1.2926643295504451e-02 -3.6694068492846005e-01
    9.7574407398275404e-03 -5.2119573816642684e-01
    8.0035409873851285e-03 -1.1576007231333190e+00
    9.0529172617846675e-03 -1.6941653683839746e+00
    1.0942145336177376e-02 -2.3447515532303060e+00
    1.1763552184842613e-02 -2.5961486481400060e+00
    1.1829293977625973e-02 -2.6154259473131303e+00
    9.9450365215335915e-03 -2.0265095680945806e+00
    8.3797464019978694e-03 -1.4073072970333285e+00
    7.9238857447825311e-03 -1.0094117977964745e+00
    8.3129219574764011e-03 -7.4830138917314748e-01
    1.0538301350372759e-02 -4.6807191766704626e-01
    1.5642304143083579e-02 -2.8160853061847019e-01
    2.7775592377275289e-02 -1.6526419169545867e-01
    3.4590428700086412e-02 -1.2927247104789535e-01
    1.9286471273323075e-02 -2.4381856058308193e-01
    1.4034503858474457e-02 -3.2710487365064644e-01
    9.0017455562117210e-03 -6.0549302516275638e-01
    7.9133268586634026e-03 -9.5714495167285174e-01
    8.2702793326084323e-03 -1.3179795790486954e+00
    9.7005665358992771e-03 -1.9300388066743688e+00
    1.0732835594952556e-02 -2.2766879210352364e+00
    9.7734634036791609e-03 -1.9578426979389070e+00
    8.5837053672419387e-03 -1.4984486905078893e+00
    7.9491699598953081e-03 -1.0195664116764869e+00
    8.2194545956174713e-03 -7.7636124071758983e-01
    9.5836526734082248e-03 -5.5019512652783620e-01
    1.3157197594724236e-02 -3.4745992061383091e-01
    1.9430251210684254e-02 -2.2667901436905588e-01
    2.5163720814192863e-02 -1.7712837088574429e-01
    2.8487040588937414e-02 -1.5516807704030208e-01
    1.5252612362220145e-02 -3.0411856627218081e-01
    1.2482233189229556e-02 -3.7718891542299193e-01
    8.8330283571620913e-03 -6.1890089475539534e-01
    8.1192482160443741e-03 -8.0444118544616228e-01
    7.9408954581416044e-03 -1.0432938892179076e+00
    8.2023701510038610e-03 -1.3037447576948171e+00
    8.1670346578659042e-03 -1.2672610670961371e+00
    8.0151490300289698e-03 -1.1085241569366608e+00
    8.3075556928994196e-03 -7.6145483938469261e-01
    9.1227641606113144e-03 -5.9039869532671518e-01
    1.0818372955756628e-02 -4.4914790521211334e-01
    1.4589936879525988e-02 -3.0786052902302435e-01
    2.1634263384188959e-02 -1.9984071879516985e-01
    3.1539642797444971e-02 -1.4037943293803321e-01
    3.2809273185707234e-02 -1.3910085165805441e-01
    3.1412283443697876e-02 -1.4284084311997469e-01
    1.8028294154487975e-02 -2.5359682727400223e-01
    1.4041869612334661e-02 -3.1879484292187155e-01
    9.6336702979705393e-03 -5.1942561205022353e-01
    8.7419726112973155e-03 -6.4087270334580626e-01
    8.3434590712668892e-03 -7.3740091319144108e-01
    8.1432054663097345e-03 -8.3119488173046241e-01
    8.1549654926924876e-03 -8.1601058480226363e-01
    8.3337628316349135e-03 -7.4847906232058403e-01
    9.1349847597552471e-03 -5.9755479641632225e-01
    1.0781849569347669e-02 -4.5025046041946776e-01
    1.5145619740060840e-02 -2.9056724189849892e-01
    2.2191394221463410e-02 -1.9456825746460915e-01
    2.7202228133152252e-02 -1.5538992120863862e-01
    4.0959077312518063e-02 -1.0975909454167426e-01
    3.9514878329924882e-02 -1.1743333086996005e-01
    3.7204945330582231e-02 -1.1633377861692829e-01
    2.3029261633369193e-02 -1.9491577801373106e-01
    1.8554482764761088e-02 -2.3007480744648659e-01
    1.3156960260234281e-02 -3.3403804534773907e-01
    1.0050857641610388e-02 -4.8592317652454464e-01
    9.1441017587084016e-03 -5.7934991887152953e-01
    1.0055826908470804e-02 -4.9143615428532650e-01
    1.0764226692075883e-02 -4.4983533154829836e-01
    1.0977180037842338e-02 -4.4359511020420245e-01
    1.2538132630265706e-02 -3.7467298069746641e-01
    1.4142144970350027e-02 -3.1886708021820909e-01
    1.9161685165585238e-02 -2.2585693578201566e-01
    2.7106849645303317e-02 -1.5680973067864040e-01
    2.5770867365218549e-02 -1.6605929127891561e-01
    2.8597509000097495e-02 -1.5045002636122370e-01
    3.8808048849481996e-02 -1.2183240409064328e-01
    3.6191339473625871e-02 -1.2173496585224093e-01
    3.0372736143563180e-02 -1.4391033306248099e-01
    2.1765406427916245e-02 -1.9222353029618855e-01
    1.8377320840207399e-02 -2.2664762391762150e-01
    1.5203672044136651e-02 -2.8321439425774603e-01
    1.5740600472584940e-02 -2.7095108061281126e-01
    1.7160816723433430e-02 -2.5220781958690902e-01
    1.6582755972684226e-02 -2.6426490595870383e-01
    1.7217759566162661e-02 -2.5526587305873966e-01
    2.1141264171850159e-02 -2.0946475834685430e-01
    1.8868471088012262e-02 -2.3201724903642446e-01
    2.7122919285701798e-02 -1.5490841504450281e-01
    2.2826706722479984e-02 -1.8224316294734963e-01
    2.1195149044255557e-02 -1.9722283398134174e-01
    2.4159341447034185e-02 -1.7482986707288156e-01
    3.2797788501794170e-02 -1.3722572681812664e-01
    3.5702302609845984e-02 -1.2298736396451772e-01
    4.7022999041237960e-02 -9.7141607575816122e-02
    2.8311066666263079e-02 -1.4676437945782106e-01
    2.7283986683222766e-02 -1.5582832690953827e-01
    2.1774220581779885e-02 -1.9585373684203314e-01
    2.2491783595374709e-02 -1.9137527607529439e-01
    2.7096696935742202e-02 -1.6643976430377538e-01
    2.4895405039891762e-02 -1.7346144290947391e-01
    2.7209943115707222e-02 -1.5954765442142754e-01
    2.2571331911012554e-02 -1.9550556904312746e-01
    2.1229645725076844e-02 -2.1036419412719734e-01
    3.0188347683443015e-02 -1.4025099992738796e-01
    2.8053802955059985e-02 -1.5029608062792352e-01
    2.3887229466107558e-02 -1.7589550422940753e-01
    2.5169443218592876e-02 -1.6862153501461388e-01
    3.3934089314647094e-02 -1.3599037625653626e-01
    3.4007483185792615e-02 -1.2968713505369772e-01</input_scale>
  <output_scale>
    5.2631578947368418e-01 4.9999999999999994e-01 5.2631578947368418e-01
    4.9999999999999994e-01 5.2631578947368418e-01 4.9999999999999994e-01
    5.2631578947368418e-01 4.9999999999999994e-01 5.2631578947368418e-01
    4.9999999999999994e-01 5.2631578947368418e-01 4.9999999999999994e-01
    5.2631578947368418e-01 4.9999999999999994e-01 5.2631578947368418e-01
    4.9999999999999994e-01 5.2631578947368418e-01 4.9999999999999994e-01
    1. 0. 5.2631578947368418e-01 4.9999999999999994e-01
    5.2631578947368418e-01 4.9999999999999994e-01 5.2631578947368418e-01
    4.9999999999999994e-01 5.2631578947368418e-01 4.9999999999999994e-01
    5.2631578947368418e-01 4.9999999999999994e-01 5.2631578947368418e-01
    4.9999999999999994e-01 5.2631578947368418e-01 4.9999999999999994e-01
    5.2631578947368418e-01 4.9999999999999994e-01 1. 0. 1. 0. 1. 0. 1.
    0. 1. 0. 1. 0. 1. 0. 1. 0.</output_scale>
  <inv_output_scale>
    1.8999999999999999e+00 -9.4999999999999996e-01
    1.8999999999999999e+00 -9.4999999999999996e-01
    1.8999999999999999e+00 -9.4999999999999996e-01
    1.8999999999999999e+00 -9.4999999999999996e-01
    1.8999999999999999e+00 -9.4999999999999996e-01
    1.8999999999999999e+00 -9.4999999999999996e-01
    1.8999999999999999e+00 -9.4999999999999996e-01
    1.8999999999999999e+00 -9.4999999999999996e-01
    1.8999999999999999e+00 -9.4999999999999996e-01 1. 0.
    1.8999999999999999e+00 -9.4999999999999996e-01
    1.8999999999999999e+00 -9.4999999999999996e-01
    1.8999999999999999e+00 -9.4999999999999996e-01
    1.8999999999999999e+00 -9.4999999999999996e-01
    1.8999999999999999e+00 -9.4999999999999996e-01
    1.8999999999999999e+00 -9.4999999999999996e-01
    1.8999999999999999e+00 -9.4999999999999996e-01
    1.8999999999999999e+00 -9.4999999999999996e-01 1. 0. 1. 0. 1. 0. 1.
    0. 1. 0. 1. 0. 1. 0. 1. 0.</inv_output_scale>
  <weights>
    <_>
      3.6455714989781429e-01 4.0787882927371816e-01
      -1.9656186215323793e-02 -1.9668915051575370e-01
      2.5391536734328962e-01 1.7667171126365946e-01
      1.0630187409130756e-01 5.1104265814998572e-02
      2.1477689368942308e-02 -1.0413719744367455e-02
      1.9915239588485702e-02 -1.6002074185527092e-02
      1.1759044571601126e-02 1.6451876800644225e-02
      -1.1566211228423610e-02 -1.8751267390886020e-02
      -7.9835650816538650e-02 6.5687832363958559e-02
      -5.6416756806722569e-02 1.9297251348311326e-02
      -5.4227795386093550e-03 -3.9729131807181614e-02
      -3.7165833296019372e-03 4.7076319325628960e-02
      -3.8152125863621361e-01 -2.3470963488898899e-01
      -4.4086616286776187e-01 -4.2230804666707804e-02
      -2.9787110630237063e-01 -1.3583502379564641e-01
      2.9554899386541683e-01 6.4258815784953882e-01
      -4.3338064259047676e-01 -6.7573928915130976e-02
      -2.0168436754541538e-01 -1.6006345260138830e-01
      -4.3822835404213556e-02 -1.0843041493185511e-01
      3.4954019225926125e-01 3.1510718031413343e-01
      -6.4443122510263418e-01 -1.5581773866808168e-01
      -1.9500786996677247e-01 2.0113057410949636e-01
      -9.2873354978694547e-02 -7.2050261563263981e-02
      1.1615343142578965e-01 6.6017446937736188e-02
      -8.3834008896278800e-01 -7.3128358957617226e-02
      -1.6446847590789276e-01 3.3769437478551539e-01
      -2.0324070256667159e-01 -1.2758764911765008e-01
      -1.6124002975678141e-02 1.0492375730167675e-02
      -8.5674159907505221e-01 -4.6107938150405298e-01
      -2.7972850650756825e-01 3.7645107400996164e-01
      -3.8174827944380979e-01 -2.3931449580004863e-01
      -1.3314961739324413e-01 4.4741050538414640e-01
      -6.4204212003480299e-01 -1.6024242384937383e-03
      1.1656949521528562e-01 1.8641719071023846e-01
      -5.0136207451428799e-02 -2.5893804624517014e-01
      1.8326580418086952e-01 -1.5325272000218418e-01
      -2.4781465424349755e-01 -6.9705757638643340e-02
      -5.5696027136457993e-02 1.6554790751997736e-01
      -1.2900513232036590e-01 -1.5317072003831875e-01
      2.0213270887160098e-01 3.3804829406338488e-01
      -3.9966828413357643e-02 -3.7458752449773140e-02
      1.0914945219358821e-01 1.4889223688369405e-01
      -1.2786747969304280e-01 -2.4882152779423300e-01
      -1.3987258114006498e-01 2.6089204053726233e-02
      -9.8708678359203647e-02 8.3196799148857040e-02
      -2.0878154467926829e-01 -1.5368036744385086e-01
      -3.0856152176814239e-01 -7.7663124902413794e-01
      -3.1953830861932264e-01 8.8520004407905781e-03
      1.1864001471260606e-02 1.2286133474930656e-01
      -7.9496634061932400e-02 -1.1670234282646805e-01
      -1.0421428453315658e-01 -3.5686296782665505e-01
      -1.6488700005623788e-02 2.2635891272538976e-02
      -9.5104971897264967e-02 3.3319233757764433e-01
      -6.8253642075570067e-02 -5.1417774069755430e-02
      -1.4711208353183246e-02 2.9531997854350983e-02
      -1.1756247947370813e-02 -1.9925790119577963e-01
      -2.3495002395170567e-01 9.9215949947015686e-02
      1.6674678421530204e-01 -8.3204879736898149e-02
      -4.3930239603332102e-02 1.5147717816170950e-01
      -3.6836924390903306e-03 -1.6287731657708227e-01
      2.2688790201564769e-02 -1.4303083051142272e-03
      9.0943432219360590e-02 -1.5867377930396517e-01
      -5.8670858322280472e-02 9.7736339804897737e-02
      2.3909157684787233e-01 -1.5140621201931231e-01
      1.0831143683796454e+00 -8.6449209002169222e-02
      6.9023772344049550e-02 1.1994039044379357e-01
      2.3791091399046541e-01 -3.6046669087808930e-01
      -4.9659788139980038e-02 -3.2576795729386133e-02
      2.0630038343643752e-02 -4.6406956056883004e-02
      5.5697217547170670e-02 1.2784940933013098e-01
      5.6550683747164140e-02 -6.5204310930466552e-02
      -1.2086897568208556e-01 -4.0933397159720955e-02
      -3.6297192497609050e-02 1.6186700011780554e-02
      -1.0412437492345560e-01 4.4953954926389497e-03
      -1.5857341145600785e-03 8.5806721872725450e-02
      9.8007215263407832e-02 7.6232412966151908e-02
      -6.5951686774634832e-01 -1.4635733388862723e-01
      -1.0011359983413640e-01 -6.2198395581074893e-02
      -2.3814423708932417e-02 -1.8040799095817769e-01
      1.7718473252267566e-01 -6.2156704471901345e-02
      -1.4837954246961757e-01 -3.6045288416595850e-01
      -1.8327019404283704e-01 1.9875622565805709e-01
      -3.4638588377395374e-01 -1.7999351851018303e-01
      1.8182497902013384e-01 5.7694059932359565e-01
      -4.8746649745781062e-01 -2.8970115084500503e-01
      -4.0407407931561229e-01 -3.8597828330961093e-02
      -3.7112057982695329e-01 -1.1085065004184010e-01
      4.3373142092193767e-01 7.2450127948113707e-01
      -2.2549111259820964e-03 -5.5550044789054032e-01
      -1.7573683123919759e-01 4.7274581065886462e-01
      -9.6083681112950473e-02 -2.0332242574108028e-01
      8.5301252411918244e-02 -1.2681031203303123e-02
      -1.1775412052603502e-02 -3.5736311741881560e-01
      -1.9291386160311133e-01 2.7789690181944354e-01
      -5.5932308427591552e-02 -2.5242452850422309e-01
      9.2523929875761815e-02 2.7566525723936842e-02
      6.9463789025997411e-02 -1.7098015449011397e-01
      1.2244122151094455e-01 3.8564135105126213e-02
      1.4824741246229772e-01 1.0592456233886643e-02
      2.4998370200924522e-01 -1.1444460041928591e-01
      -2.7470211987211071e-02 -6.4216711015585945e-02
      -2.5247196667262713e-02 -1.3469482980191017e-01
      1.9999999428186241e-01 1.7595947989633259e-01
      1.6300917017483002e-01 9.7916629695919938e-02
      1.4661744029507287e-01 8.2944840032292244e-02
      -2.9132600003732395e-01 -4.0904721905622016e-01
      6.7266118615080264e-02 -6.9925925265590912e-03
      -7.9183432620951469e-02 -1.1423839284814673e-01
      4.9264594826219110e-01 1.1276465498524288e+00
      -4.2206637505822819e-01 -7.9776044255651224e-01
      -4.3591472896184980e-01 -2.1329175816339235e-01
      -3.9759359439004667e-02 4.4981915525342236e-01
      2.8040662237551711e-01 2.6576468017038024e-01
      -3.2233801274496932e-01 -3.5302678879055874e-02
      -1.5762671821743429e-01 -1.1865236080006480e-01
      -1.6283809795279919e-01 -2.3651007588231868e-02
      1.6368797095207985e-01 1.7092539876309185e-01
      7.3944875638289928e-02 -4.1693292673991030e-02
      1.6659121198834566e-02 1.8111561804157988e-01
      8.8261705178784483e-02 -1.3520641803219516e-01
      -9.1864469792875630e-02 1.1188948855558496e-01
      6.1901267838844143e-02 -6.7254115460103153e-02
      -6.4884446608620819e-02 1.5567367921202632e-01
      1.1914647245053843e-01 -7.8328305944831492e-02
      3.9188557957939879e-02 5.4045581576963935e-03
      -5.8972795826426182e-03 -1.3441463680348539e-01
      -6.9640126380341186e-02 9.4149317881961764e-02
      3.2858055462500757e-01 -1.5222017766881221e-01
      5.5919660497490906e-02 5.8243446997771398e-02
      1.5993886676264463e-02 -2.8128172807838001e-02
      3.8374308995024392e-02 -1.3526527280783177e-03
      -2.4176887973973737e-03 -7.3649659624814262e-02
      4.4669451007513732e-02 -6.6087245874758935e-02
      1.0595420645613457e-01 1.3064638623174940e-01
      8.1783868018379322e-02 -6.6940625835973003e-02
      -1.1274053821360058e-01 -7.7925181676973085e-02
      -2.3283871232573050e-01 7.1420232294775871e-02
      2.9540915848661860e-02 1.5839478727340189e-01
      -1.5093111171070597e-01 2.8724049446818023e-01
      -2.4980949442419495e-01 3.1637701393062523e-01
      8.7444808939011442e-01 -1.3664372361014510e-01
      6.5528138264973473e-02 4.3349248207036575e-02
      -2.0555668493557062e-02 6.2600518812921779e-02
      -9.8205373328877230e-02 3.5893448416162238e-01
      -6.4199980750472585e-01 -3.5979101660811796e-01
      -1.8567737896509606e-01 -1.6959190652156542e-01
      -2.4659341446770305e-01 -5.7295942705804215e-01
      4.0074805972372840e-01 1.0976799267143575e-01
      -3.2677316962180564e-01 1.0136434735208268e-01
      4.1594256745627528e-02 6.3661926527036807e-03
      -7.4013792127065908e-02 1.7240304184790581e-01
      -8.2467731590920815e-02 -3.1501221899068892e-02
      -7.5648899607131592e-01 6.0853494840257771e-01
      -1.6655229609563454e-01 -4.3523566679686521e-01
      -3.9603096574339844e-02 7.1478484479736326e-01
      1.2954791904771459e-01 1.0777214104445539e-01
      -2.2067393626757073e-01 9.3594653194715705e-01
      -5.0787516463243816e-02 -3.1169160123909695e-01
      2.9170827320259035e-01 8.2803806661038981e-01
      6.8879121231478269e-02 -2.7361956549331562e-01
      4.5621866675411488e-02 4.4906019914516010e-01
      -4.2643558517735392e-01 -3.5457765991645313e-01
      2.1268839527021272e-01 2.4515853878851790e-01
      3.8873769281931531e-01 -1.2555137116304951e-01
      -2.2931984178058143e-01 2.4884168395350886e-01
      -3.4689551251978062e-01 -8.8693769091537644e-02
      4.6089698521364544e-03 -9.1740258310494191e-03
      1.2514403907474436e-01 3.4925373657229752e-01
      1.1142103893038984e+00 1.8943772301987949e-01
      2.0351134981209572e-02 -2.3470179717747794e-01
      1.5824238444217120e-01 5.7589855161132367e-02
      -2.9982756177668529e-01 -5.0037139199494041e-02
      -4.3734280540160937e-02 -2.0274215418936284e-01
      8.6571341862868384e-02 1.3139026408176641e-01
      8.8141582209089797e-02 -3.3903580867421218e-01
      2.1397842402331843e-01 -5.3909964727554611e-02
      -3.3198934317965967e-01 -1.9110879492680391e-01
      1.9470896249004718e-02 4.3337884707952239e-02
      -7.4710997805109522e-02 8.8928479899545249e-02
      3.0459897308594419e-01 -1.4006262294386135e-01
      1.9307355737099302e-01 -1.8416239319229952e-01
      -3.3733557939742775e-01 -4.7192951670439855e-03
      -1.0270000759063222e-01 -4.9527854661511217e-02
      5.4475802770929303e-02 4.3692548764921485e-01
      4.3973064798711192e-01 -7.5094912586308626e-02
      2.4308436945395900e-01 3.1703248741553708e-01
      4.9796121566337032e-02 -1.3019822884315514e-02
      2.0673749388332657e-01 -1.3641235872155455e-01
      2.2595423235258653e-02 -6.5538566210860483e-03
      9.2377329242762846e-02 -1.6222456091142876e-01
      -6.8619730904616122e-02 1.0499131139822405e-01
      2.2980996209273338e-01 -1.4514902625778853e-01
      1.4638705102383129e-01 1.0573140900963152e-01
      9.5508645702504766e-02 1.7412688031459367e-01
      1.1339858475707897e-01 4.2128606931608775e-02
      -7.8998516131511806e-02 -7.1079556976824596e-02
      2.2357712223471878e-02 7.9912495405512984e-02
      7.6187823887774647e-02 1.4934359919652196e-01
      1.2440488916729298e-02 4.4155135512887356e-02
      -1.1885964819365684e-01 -3.2187940826625613e-02
      -9.1575584320813364e-02 3.8700313799666958e-01
      2.0410186597580751e-01 2.4786885040224385e-01
      1.2600577232955484e-01 1.2872544705215480e-01
      -4.7028586773040459e-01 -5.0330737367906653e-01
      2.9631248183710476e-02 4.7995358440957930e-01
      8.1791319692856557e-01 6.6489624618859755e-01
      2.7860106486518449e-01 3.2899351140500532e-01
      -9.2838574658646567e-01 -4.5668925040503733e-01
      -2.1158509042455066e-02 -1.7495784094816724e-02
      1.4475938552134149e-01 -8.6594368676246654e-04
      -2.2261404104900264e-02 1.2246494914755188e-01
      -1.7637173247485363e-01 -1.0589097241404884e-01
      -4.1031180044316967e-01 -3.5810143620356352e-02
      1.3794875863988185e-01 -1.8749471077342020e-01
      -3.3665786202183516e-02 2.7446413363886996e-01
      -4.3644065841518670e-01 -8.8819566976244976e-02
      -6.3867608292109279e-01 -3.2524458646759052e-01
      4.3564765127258909e-01 1.7943325028146415e-02
      -4.7724066429651060e-02 -6.3388076596879062e-02
      -6.2851655472483015e-01 -1.6252492462218282e-01
      -1.4480050500601038e-02 1.6323331666729496e-01
      3.6134178991645727e-02 1.7328745939853138e-01
      -1.6269086645679588e-02 -2.4392498408942878e-02
      1.7462917074182213e-01 -8.3884119145066383e-02
      9.3505043481513908e-02 8.1906587377263460e-02
      3.3833932436908326e-01 2.0176443507519812e-01
      2.9711402404610737e-01 -2.8362889974654049e-01
      -1.0841765186912067e-01 -7.2371085934153900e-01
      2.0597575576668462e-01 1.6240053226764650e-01
      -1.4496991112654270e-01 -1.0432516501815167e-01
      1.5523634637272338e-01 7.8929134304261142e-02
      2.4943981793975009e-01 -4.1042743117378921e-01
      2.6768027366216296e-01 -8.9041589600304019e-02
      1.8398762336435162e-01 -8.6202743457478408e-03
      8.7679616936586963e-02 -3.2441974228258876e-02
      1.0303866708634411e-01 6.5254550019910665e-02
      4.5751023581892081e-01 2.7392551537674648e-01
      2.5728477523546645e-01 -1.9099555485867878e-01
      4.2333083603467514e-01 8.2323212238296406e-01
      -2.6166320913248314e-01 -1.3082604776554474e-01
      -5.2951992202175550e-02 -1.3759035865945174e-02
      -2.5684884839613514e-01 -1.8769592185611562e-02
      -2.3207803028612975e-01 1.8289289696334801e-01
      3.2567950610338320e-01 1.6359046621416731e-01
      2.3978948991984630e-01 -4.5715288963421108e-01
      1.3234368592706022e-01 2.1199490676190635e-01
      -2.3579401265492789e-01 -3.8967418443680435e-01
      -1.0681068271752502e-01 -1.3676586687063882e-01
      -1.1099731762935390e-02 -5.7968536831920825e-01
      4.8084892877669488e-01 1.0248874045579124e-02
      1.0611280083180655e-01 -4.0436782676110977e-01
      -1.7496580672201464e-01 -6.9003117595953378e-01
      2.3762968841258017e-01 -6.7505404567764172e-03
      2.4256430147049937e-01 2.8262520010370017e-02
      -8.0746081712177967e-02 7.1013653574829416e-02
      1.1604639930905539e-01 -3.0644402907467655e-01
      -3.2716297000585384e-02 -1.0643583863530950e-01
      -9.7218942231903360e-02 -2.0772206250162874e-02
      -4.1197545405362010e-02 -4.3600391146642617e-02
      1.6529375508688691e-02 5.6407173563669415e-02
      -1.4414253160590682e-01 7.1073624859186543e-02
      8.7804867664846201e-02 1.5105380882350347e-01
      1.3787730077749510e-02 1.8476788315724982e-01
      -1.0192090212724654e-01 -7.9186165916531562e-02
      -2.7031222475164967e-02 5.3912293494385366e-01
      -6.1680340508435676e-02 -2.4111025446607745e-02
      5.0148516124622351e-02 3.9079394545424906e-01
      -5.6248286546620591e-02 -3.1568256462908215e-03
      4.5122462587510248e-01 1.4484464808291261e-01
      1.4468470197621949e-01 3.8532330253863728e-01
      -3.7310752445373137e-02 1.6248316512825631e-02
      -1.9250458108393637e-01 -2.8429704286502805e-01
      5.7292831797233057e-01 -8.8576678835295325e-02
      7.4807528982188953e-01 2.1549042277756339e-01
      3.7817464760162867e-01 -1.3464235116392226e-01
      -6.0728143546858271e-01 -6.3341996366719566e-01
      -1.5257817561183881e-01 -1.7291295900301101e-01
      -2.7191733215547326e-01 -1.3539210408246054e-02
      -2.2909668031843416e-01 -2.3344250080105064e-01
      2.6293691238156419e-01 2.8495744667655576e-01
      -1.3580128486706861e-01 1.1504014145698117e-01
      -7.0377916550571865e-02 5.5317411214611062e-02
      -3.2964269544232772e-01 -3.8302032000694125e-01
      -1.4336246288828947e-01 2.4542241865879683e-01
      -5.5613872325664748e-01 3.3508676889042389e-02
      -2.9862467942810772e-01 -3.7011330229666427e-02
      -3.2792659790622980e-01 2.1611180945773217e-01
      1.3144108466945961e-02 2.4582082406320949e-01
      -8.2558819853185625e-02 3.9881274374176695e-01
      7.4776253592059944e-02 -2.4185917182700550e-02
      2.3315882904496574e-02 2.7935939680414706e-01
      -2.0233589332148369e-01 -8.0107681952719445e-02
      4.9014166464815706e-01 9.4379037088486214e-03
      8.5436173190983025e-02 1.2006040537056093e-02
      1.4528835642512081e-01 -1.3494895075751920e-01
      -3.0339978376173371e-01 -4.4661113047359174e-01
      1.7766660678173432e-01 -3.3515769072590923e-01
      3.1764350906350991e-01 4.5109976917210554e-01
      2.2682357847017401e-02 1.4980288085748342e-01
      -4.5289740897765413e-01 -2.2269729051164053e-01
      5.8959639235030625e-01 -2.1907279825801182e-01
      2.8794767396139243e-01 1.7263445083076442e-01
      5.0978502037242424e-01 4.6309076379789277e-01
      -1.9132964503072039e-01 -2.4135213952163072e-03
      5.5214790845372397e-02 -5.3199201778653704e-01
      4.8369251037618050e-01 6.0128247627425424e-01
      1.0133664664325098e-01 -3.9997309852139956e-01
      -4.7332235205740658e-01 -2.9345127306578739e-01
      -1.0840050207715150e-01 2.9544190924686464e-02
      -4.2137718383863831e-01 5.8205717227311993e-02
      -1.8604389939051652e-01 -1.9436483968686285e-02
      -1.7365317658784740e-02 4.9926425157856280e-01
      -5.4020555497017297e-01 3.9628543060929153e-02
      -6.5537320658508369e-01 1.1937518179068649e-01
      1.9753853863852047e-01 -2.1752595087205581e-01
      2.4257114446507849e-01 5.1562306852906759e-01
      -3.7931032535202003e-01 -4.3118312569617367e-01
      -2.8662650386856120e-01 3.6945654367684821e-01
      3.5764389640400041e-01 -7.3647039004004133e-01
      -6.9398734579697391e-02 5.4331645843021370e-01
      -4.2841839787600901e-02 -2.6861882531190451e-01
      4.4840521782088048e-02 2.1903508246374666e-02
      -2.1626684178600353e-02 -1.4027353114715577e-01
      -5.5352331863117422e-02 -2.6794425880098206e-02
      -2.3684313172642565e-01 1.3758799318662546e-01
      3.3570423122621460e-03 -7.9947428491261824e-02
      -8.4601635582042339e-02 9.5700630093465841e-02
      8.0958378888529206e-02 2.6240743675462330e-01
      -1.5175628840507960e-01 4.7962293813909762e-01
      -1.7984420619814495e-01 -1.1273412723826153e-01
      -1.9680736558124245e-01 3.0198335538733856e-01
      1.3266981998887176e-01 1.7703882202498314e-01
      1.1795685131120687e-01 1.7936765551371167e-01
      3.2589732907909880e-01 -3.9995404582134814e-01
      1.7365724053641277e-01 7.6882609240003741e-01
      -3.2548228814492003e-01 1.7250203142302775e-01
      5.4436494707881933e-01 3.1534261653154816e-02
      5.0626401794986642e-01 2.0176949594243351e-01
      2.7470340591935261e-01 -3.9131379355204948e-01
      -1.6439868445424924e-01 -2.6664097060130254e-01
      6.6965356101660878e-01 -2.8219591140762351e-01
      -5.0305444143558109e-01 1.6442462771168251e-01
      -3.9576922520338503e-01 -4.2363361066002353e-01
      7.4974097780413779e-02 4.2012473722708998e-01
      2.2758169876102266e-01 -1.9616058319343685e-01
      -4.2585870108542151e-01 -1.1755788827680330e-01
      -2.5954943112624085e-01 -2.5290556924883012e-01
      3.4076955244224755e-01 3.1992003042267769e-01
      -7.7299015930992629e-02 -6.5058141536782160e-02
      -2.4490918350368381e-02 1.7816774197490608e-02
      -1.3050997213483809e-01 2.4165982231681871e-01
      -2.1541771582859099e-02 2.0334353918943157e-01
      -7.0329239091046347e-01 -9.9675382109960950e-02
      4.0717591796833064e-01 2.6183340948365563e-01
      1.4231245646074978e-01 -2.5402891737064298e-01
      -2.1086195461465393e-01 -1.6509970177696748e-01
      -1.6501164595782336e-01 -1.8981678353383036e-01
      5.4698719587786926e-01 3.8481278749495340e-01
      1.3351196831156945e-01 -6.5035643290862033e-02
      -5.2912272564646190e-01 -3.5452983753358058e-01
      1.6008527607703668e-01 -3.6262583034787754e-01
      3.1221828048455519e-01 2.6483423709928627e-01
      -1.5998405630566359e-01 9.5258811358450379e-02
      -2.5644555387754031e-01 -3.3782386402961423e-01
      1.9810158145469950e-01 -7.0297070143233509e-01
      1.1751619491573098e-01 5.3260760032357857e-01
      -2.2421954751577638e-02 -4.0285232756614398e-01
      1.0233540900301777e-01 -2.7981779938929047e-01
      4.5939816528061539e-01 5.6750637794137512e-02
      6.5680669695020277e-01 3.0332911315091010e-01
      3.8805837615519062e-01 -2.5677350398099946e-01
      -4.6747851428924697e-01 -4.7267740933825525e-01
      1.8278948492025021e-01 -3.2702659540312956e-01
      5.7945460440213363e-02 2.1306777392280099e-01
      -4.1918185251442412e-02 -3.5189882936691425e-01
      -6.0713571209524891e-02 -6.8993025683695697e-02
      -1.1727574248371472e-01 3.5014190595626665e-01
      -5.4915529059472512e-01 -3.1010159097614876e-01
      7.4394753304885219e-01 8.5703390648013841e-02
      2.0756418351461414e-01 6.8324662776110834e-01
      -8.4610034924208066e-01 -1.4081956393194583e-01
      -3.2852388967552060e-01 2.5304759062642590e-01
      -1.1668498164340974e-01 -1.3025275890617558e-01
      6.8111244753396236e-02 4.7786908351699103e-01
      9.2361979037340627e-02 2.3839121058617057e-02
      -2.2623781641002649e-02 1.7105061557427639e-01
      1.1326030146020493e-02 -2.0444401274534634e-03
      -1.1276878375794188e-02 -4.5865265503620807e-02
      -2.6403994917312090e-01 3.0711631821473362e-01
      1.0858723129099113e-01 -2.7463994567746997e-01
      3.8870672609406673e-02 2.6623553036584585e-01
      -5.1843209495658640e-02 -6.1712651313867474e-02
      1.9135598133614887e-02 -4.2625276489367241e-03
      -3.1502488081325586e-01 -7.5814625200188984e-03
      -1.9667030804972718e-01 -5.7549958780529195e-02
      2.2073523467553649e-01 1.6537912134424357e-01
      -4.8874966919659778e-02 -9.4316141372552481e-02
      1.0031956550146086e-01 -1.6082403521358987e-01
      6.8923651567964692e-02 2.3235138921308224e-01
      -2.1495936841847624e-01 -1.4789838604197239e-01
      2.9467513657382055e-01 -3.4921940628001016e-03
      3.7381658083404884e-01 5.3676543752986833e-02
      -6.0730348123986318e-02 -1.1176722479418331e-01
      -2.9353809247990587e-01 -3.4638195740526855e-03
      3.3895596549639512e-01 -1.8677387339876295e-01
      5.0755419749433456e-02 -1.9564456979650349e-01
      7.8478990867056585e-03 1.3304479422444272e-02
      -1.8839600054846282e-02 1.3798918524954906e-01
      -1.2398266549857863e-01 9.1786740769286820e-02
      -8.7035020037733946e-02 -2.9405501485759478e-01
      -1.3921775859269375e-01 3.5055746124219550e-01
      7.5489287356218474e-02 1.4021333859868312e-01
      -3.5553004553713596e-01 -1.3268258243639660e-02
      1.4109335698536321e-01 2.1725959238663967e-01
      5.1481145475657311e-02 3.4542455552523027e-02
      -2.1549110899037757e-01 -1.5282338990957270e-01
      -9.7174844933499571e-01 3.4616536857280472e-02
      2.8313125691297220e-01 4.9127192237806505e-01
      2.2881975903323779e-01 -2.1491052805841593e-01
      -5.1658955020552622e-01 -4.5540712588742888e-01
      5.2757090762395334e-02 -4.9614430007826354e-01
      2.9115949752705117e-01 4.9215436274801477e-01
      -1.1890464343611919e-01 -5.9379695370597722e-02
      -4.1933033216027410e-01 1.3565887670584656e-01
      -5.8927125494945810e-02 -4.3202905041297451e-01
      -4.0167329210010769e-03 8.0681359879825665e-02
      -2.0585833295659109e-01 -5.8617318431216210e-02
      -3.9223032341016167e-01 1.1464171461045456e-02
      -1.4855845138110932e-02 -2.4429416718173849e-01
      3.0399428220489655e-01 5.5122099239760680e-01
      7.5887957281712826e-02 -2.3339753499292265e-01
      -3.2372968563693150e-01 -2.4847939787107123e-01
      7.3621985652294408e-01 -3.9727377338806291e-01
      4.5938627595968401e-01 2.3916096737448067e-01
      5.5671120825830445e-01 -1.1795693637399421e-01
      -2.8206757614964056e-01 -3.2660815266442683e-01
      4.3554130703888938e-01 -3.6946097268715705e-01
      2.7724484409200112e-02 2.0140016166154012e-01
      3.5232326571152078e-01 5.6955312230549719e-02
      1.2216071938512202e-01 -1.2931616913189231e-01
      1.2034182865173791e-01 6.9298788177872994e-02
      9.6811693490661571e-02 3.3657658378882731e-02
      5.7885949209638160e-02 -1.1622455745190479e-02
      -1.4343003917922104e-01 -2.1297494842564671e-01
      -3.8147904819790984e-01 8.9267749854972711e-02
      -6.5560518888685915e-02 -2.0601370177715206e-01
      -1.0921148643495339e-01 2.0207935577600522e-01
      2.4616712812485211e-01 4.4133216627138365e-02
      7.4577776867919526e-02 4.4200772811591155e-02
      2.3822063874088903e-02 1.2398708708430715e-01
      -1.0139300606997467e-02 5.1983385456926788e-03
      -4.6573204013007671e-02 4.1564935830688994e-03
      -4.7530287815154437e-01 1.4181101369177393e-01
      -3.8827303652137955e-02 -2.7280149780765117e-01
      -1.0774032318006706e-01 6.4488765533107645e-02
      -2.2556982752713780e-02 4.9328689285779249e-02
      3.8545181480675322e-01 7.6050470904642257e-03
      3.5957142984584148e-02 7.3146008576108992e-02
      2.4951537987871511e-01 -2.6984727745779707e-01
      1.8299666097233391e-01 -1.0399602842012134e-01
      -3.5452141076937099e-01 1.2660727870519006e-01
      3.1278788696310006e-01 -1.4282119092665183e-01
      1.5204992659570776e-01 2.3295693756422101e-02
      -1.6350557450083111e-01 -2.0788514951865791e-01
      -1.3351493008479937e-01 -3.2801917120373758e-01
      2.5805451251937123e-01 1.0776312579016854e-01
      1.0574003858033214e-01 -1.3356181283897345e-01
      -2.7571926453701789e-01 -1.3091354495315599e-01
      3.4927184832592012e-01 9.4858600757104228e-02
      7.5975848223952827e-02 -2.1112600565241366e-01
      2.3435420171679247e-01 2.9841808794137092e-01
      1.3858113561125778e-02 -1.2380066058161353e-02
      -5.7825846896901983e-02 2.1652339646926136e-01
      -1.5421557052366336e-01 7.0478066811522924e-02
      -9.6585374022778128e-02 2.2014814807540611e-01
      5.2812766283376229e-02 -2.2352487372447313e-02
      -1.5650464894994184e-01 1.5215103489444784e-01
      1.0490482564644947e-01 2.5390070518763591e-01
      -3.6625608953251586e-02 1.8355429646987212e-01
      -1.5035889417802728e-01 -2.6942025874196884e-01
      -4.5025028998205741e-01 1.1104366434376152e-01
      3.6895435878590357e-02 5.5483174560157789e-01
      -5.6844359433911619e-02 -2.4802549321253359e-01
      -4.2726566564282781e-01 -6.2251923387964359e-01
      -1.4256308569111509e-01 -5.1099206900660310e-01
      1.2203241504820095e-01 9.7524214803191345e-02
      -1.4982348858398470e-01 -2.8182770103449750e-01
      -3.3970317341052214e-01 -2.3193303753735628e-01
      3.7081241667826081e-01 -2.4807710189363058e-01
      2.0537501181536355e-01 -2.2384646206913153e-01
      7.0852384151535053e-02 7.8278934957014702e-03
      -5.0093551381532930e-02 4.3232063141913557e-01
      -1.8974121834315380e-01 -5.8249952701600050e-01
      2.7040585270526492e-02 2.1240844694680130e-01
      -1.4472088366675470e-01 -1.5332625669923616e-01
      -4.5671429506360786e-02 3.3322869330404858e-01
      7.7991181394306841e-01 -1.8946324709800214e-01
      3.2382094572124409e-01 3.6158492981957524e-01
      1.8306327723258126e-01 -1.5341681989526250e-02
      9.9712191408767676e-04 -3.4542446088112688e-01
      -1.9425040931875803e-02 2.8503025897207483e-02
      1.9131328690515076e-01 2.0541351322082144e-01
      1.6914957786908585e-01 -2.7196274615536538e-02
      -2.6303425726344198e-01 -2.0438341040732230e-01
      -2.1456266664194278e-02 1.5671431449341328e-01
      -2.7619950970213494e-02 -1.9141465569172220e-01
      -6.8943932349419312e-02 2.2017950009822065e-01
      3.2356337361721332e-02 1.0924847387882335e-01
      7.6195083041468437e-02 2.2624440601391382e-01
      9.9694973527025780e-03 -2.2354540211089552e-01
      -2.4273852239449327e-02 2.2336013633668941e-01
      -2.3401885175247303e-01 4.7974909689507531e-02
      -3.2145104115321337e-02 1.9225234033680878e-02
      -1.1066993763866036e-01 -4.1802382586657971e-02
      -6.1291522737573156e-02 1.1259105408320429e-01
      3.9896790252378890e-02 1.2509536606597527e-01
      -3.1275969596815506e-01 -9.3768042772392715e-02
      1.5683871434449556e-01 4.6042275296971186e-01
      2.8036145489791636e-02 -1.6559912345662839e-01
      6.9673781997446789e-03 -1.2850506191284750e-01
      -2.7762308045350725e-01 4.7040207561138747e-02
      -3.6739550428038871e-02 -8.8998745277705432e-02
      1.0240099217262624e-01 -1.5013728105424790e-01
      2.2956995198232164e-01 -1.8620154897090491e-01
      -5.3161567193314253e-02 3.1479801052787959e-01
      2.3431070659155137e-01 -2.8208811213657919e-01
      2.6514312546276064e-01 3.1802198059892356e-01
      -1.1326919893050753e-01 -1.5654584803729815e-01
      4.9894330761572313e-02 1.8014103200132087e-01
      3.2727394626759987e-01 -1.6188275515422743e-01
      1.9659234284811428e-01 -5.4888125088302327e-02
      -2.0711183118393642e-01 -4.3377505253677789e-01
      5.5706006313670253e-01 3.2165435330047742e-01
      1.6789550092839761e-01 -1.6843731454073335e-01
      2.9963737864156798e-01 3.4063026166702554e-01
      -2.3254991023719477e-02 -2.3280586496861916e-01
      1.4278122447802249e-01 4.0788585106448988e-01
      -1.6740146603475539e-01 7.3593558183087646e-02
      -7.0813608254442176e-02 3.3659827418125826e-01
      -8.6418201416694720e-02 6.9643248235214478e-02
      8.1628623570042538e-02 1.7290957754249134e-01
      1.1050176330495331e-02 2.4667753788916358e-01
      -1.6055623539831386e-02 2.5000603903150470e-01
      -2.4879680611971730e-01 -4.0442754720424051e-02
      -9.6170032767865210e-01 -3.0205426703887733e-01
      3.1463755296918972e-01 3.2921926226111531e-01
      2.5939908129323446e-04 -2.8667374334279603e-02
      -4.1977695389348046e-01 -3.4014187544603325e-01
      -2.0649327378247276e-01 -5.5031253695357642e-02
      -5.4303478433887845e-03 -3.1773492463029418e-01
      -2.1633802992270065e-02 2.2390276668727407e-01
      -5.3269796560431064e-02 3.0963576514698565e-02
      1.9650485991611347e-01 -2.5818508560785514e-01
      9.3971277962278527e-02 -3.7755466328447507e-02
      -8.6555497141583199e-02 -5.9967454088754590e-02
      -2.4148667270721075e-01 3.8575756830418267e-01
      5.6638517896083562e-01 3.2147582221194265e-02
      2.3953329947312138e-01 4.3170111712895726e-02
      2.8041707056120613e-01 1.8439058965306795e-01
      -2.8878282625609741e-01 -3.1535160742744589e-01
      7.1670107602374178e-01 -3.4063374089971440e-02
      -1.8149006664698847e-01 -7.3708140233496255e-02
      -3.8546134652751807e-02 8.9217865254779469e-02
      -1.2135999606782163e-01 2.6421911028193101e-01
      -6.9919107110957682e-02 2.0388917021759068e-01
      -2.3090867281920380e-01 -5.5361614394964266e-02
      -9.9541380090202858e-02 9.5843780321682462e-02
      2.6635777918664177e-01 3.5862365592311291e-01
      1.2404427586450946e-01 -1.6311370711550163e-01
      1.3147168618224557e-02 -6.7009015434852076e-02
      2.1163915713317983e-02 1.4437623194465003e-02
      -1.6698802614512240e-01 -3.9750915537078768e-02
      2.1668289976155516e-01 -1.6096010214792977e-01
      -1.4139932614217171e-01 -1.7562723786296031e-01
      7.8929810659461405e-02 6.9528817693834469e-02
      -2.7127192373052778e-01 -9.8164866780794113e-02
      -2.2591132733712022e-01 4.5495467895454805e-02
      -7.8618894679761284e-02 6.3701032653578321e-02
      -2.1656840600907015e-01 2.4549254322421429e-01
      -1.8907466896970950e-02 2.7697381499616069e-01
      4.2391575238254087e-03 8.4382364762125538e-03
      2.0178325223910015e-01 1.1410838699966995e-01
      1.9339710087634743e-01 2.0891129507813430e-01
      -4.6833729121610712e-02 -1.8769284170233647e-01
      -8.4919639465223018e-01 2.2647498226630997e-01
      -6.8012955903432371e-02 -2.4977278905232028e-01
      5.6355772820664222e-02 8.7061429935289328e-03
      1.6665914176927721e-01 5.4635216840840620e-02
      9.8594369792383132e-02 -5.7539742608785249e-02
      1.4161567906912237e-01 4.2623463686724983e-02
      9.5143272618010089e-02 -1.1602704043935046e-01
      1.9185289566812768e-03 -1.4678075497508991e-01
      3.1139517174539416e-01 5.7267102346041832e-01
      2.4641164750665120e-01 5.0399841648019082e-03
      1.0782439347802272e-01 6.8011645510151222e-02
      -2.1373817162483885e-01 1.8866913326819387e-02
      4.5871497258502492e-01 -1.9425089465426851e-01
      -1.4510664997141665e-01 1.7737290028315422e-02
      7.4484621600853937e-02 1.7410165270539176e-02
      1.8724672580326604e-01 -1.0199680866644502e-01
      -3.0667285243203675e-02 -6.0497350634534798e-02
      -3.2708437048065936e-01 1.1208482296384963e-01
      -1.8018717068561288e-01 2.5555429631434992e-02
      1.6260591133131647e-01 2.8160911282378798e-01
      -7.5140180928014869e-03 -4.5526373352590806e-02
      -1.0475513682744471e-01 -1.2656046740102855e-01
      -4.3893611454835120e-02 1.0433921213858000e-02
      2.6917583730905964e-01 2.3831566580052457e-01
      -3.1611759846518173e-01 -3.3573716982109557e-02
      2.1047119733240943e-02 -1.2448972585621734e-01
      -5.4983232701087757e-02 6.3193324152025568e-02
      -5.4821717564842116e-02 -1.7558547211676545e-02
      2.1870039530850041e-01 1.6655412186432458e-01
      1.1898611505872338e-01 9.1380887864712136e-03
      1.8093107249828608e-01 -2.4743246875665484e-01
      1.3129439857836958e-01 6.0789388718357457e-02
      4.9399548244974556e-01 8.5113074995823434e-01
      -2.4056863723370991e-01 -7.4239237156898286e-01
      2.7618646717497281e-01 2.1267328766882093e-01
      2.0279038348451678e-01 1.9062039080514692e-01
      6.3571942401917858e-01 1.7802557651040848e-01
      -2.8368626763459837e-01 -4.5505266240863895e-01
      -5.4994590528219492e-02 -3.4726669020010686e-01
      3.3967015815486712e-01 3.2110804824027689e-01
      -1.8092321272885184e-01 -1.0315177458932458e-01
      -3.0747554823953022e-01 -9.4735064796072202e-02
      -2.5188435412996218e-01 -2.1308705382965482e-01
      1.7442442074951664e-01 6.0676973389797373e-01
      -3.3285120410441493e-01 -1.8014213711897892e-01
      -2.5204352123273832e-01 1.0465253409145047e-02
      -2.6574650742489264e-01 -6.0687413437156768e-01
      -1.2537030516057007e-01 2.6254470050678447e-01
      1.5924173487844676e-01 5.5392501976517586e-03
      -1.5554993308974052e-01 -2.8768140326353830e-02
      -3.9480597196083253e-02 -8.7013541858160806e-02
      -1.5010863821342293e-01 1.1481859575328264e-01
      -1.5763402926116679e-01 -5.8773747751579029e-02
      -3.2857694799312429e-02 -8.6520899255420572e-02
      2.1556845195108545e-02 -1.5926526474516249e-02
      -8.4350452806662937e-02 1.0632423519663431e-02
      3.7378104462209565e-02 -7.6380305221673023e-02
      -4.3365327653846111e-02 -3.3754202208472303e-03
      -1.6337148235780776e-02 1.5862162887607886e-01
      -1.6162877751837795e-01 9.7285518019595563e-03
      1.7187462508907059e-01 -2.1955609587162270e-01
      1.6907814566714346e-01 -3.0677190898313413e-02
      4.2818283402910934e-01 1.0476648463268574e-01
      -3.2627811486345476e-01 -4.4584769211072439e-01
      -3.4933512956262708e-01 4.7349142819662890e-02
      -1.1212117015554113e-01 -2.5848100161747373e-01
      -1.0288804417644604e-01 -2.7318004414569406e-02
      -1.4632629938670641e-01 1.2307713807865357e-01
      -6.0244774832059179e-02 -1.9217546957756133e-02
      -1.7823109058509329e-02 -9.4893854093999933e-02
      6.0846946021258695e-02 1.1464102361591411e-01
      5.6461699679301834e-02 2.4311767146308205e-01
      -1.4046416253763963e-01 1.4760088175330233e-01
      1.2564113640027377e-01 2.7681237952975513e-01
      1.3949962845408936e-01 -1.0247636688148345e-01
      -1.5424191148290581e-01 -2.0558976799208831e-01
      1.0171251210474490e-01 -1.4696919377360138e-01
      1.5188210036966984e-01 -1.1213324718307191e-01
      1.6119148910493170e-01 -5.8884098159241761e-03
      6.2653484564494460e-02 -2.5433205285241062e-01
      4.5371541003885291e-01 -1.2757554125234732e-01
      -1.3648835344450824e-01 -2.0427527802333070e-01
      -2.2644343516028481e-02 -1.8550333409612735e-02
      1.5026299868276913e-01 5.3318319176463624e-02
      6.5315453580439262e-02 -1.6195279513765248e-01
      -2.3134417229583099e-01 -1.4046104641919926e-01
      -1.2698950016584801e-01 -1.2372086577246461e-01
      1.3078874844642055e-01 2.1546301149646813e-01
      2.2622171472119163e-02 -2.2348338290777686e-01
      -8.2591368408335641e-02 -1.8366197851770885e-01
      7.6370100771448388e-02 -1.2748713550055293e-01
      1.4999387507311995e-01 -2.8148538569515935e-02
      -1.4014427828118739e-01 6.3582895666782524e-01
      -1.4703909616096417e-01 5.7482415237462966e-03
      2.2957747998858496e-02 -2.9153207706814763e-02
      -2.3242125852414444e-01 2.3648175226046855e-02
      4.5562425196256723e-01 4.3867911715610214e-01
      -1.8890199988530718e-01 3.2437046773486578e-02
      1.6582874145758320e-01 6.8217667970859736e-02
      7.9082487133984705e-02 8.7647576824730358e-02
      2.0216311743056220e-01 3.6000782332777909e-01
      -5.2466052222395176e-01 -1.6361150933490645e-01
      -1.6728326534073440e-01 2.9149330304241355e-01
      2.6983891331458904e-01 4.2086655434720166e-01
      1.6420216517395309e-02 7.2072298990541128e-02
      -2.2839272054052487e-01 -1.3788543235769130e-01
      -2.1974605922975357e-01 2.1295872362529192e-01
      2.9156032945767824e-01 2.6492421460989407e-01
      -1.3778268067303048e-01 -3.8706860641692448e-01
      5.9525228749666870e-02 1.3948425825554242e-01
      6.4211667990901652e-02 -2.0510837758853537e-01
      -1.9601896818725389e-01 1.7807225688768531e-02
      -9.7906790400175692e-02 -1.1533069342146851e-01
      3.0772331297604083e-01 1.1872907258745187e-02
      -4.9365249911246502e-02 4.0443791289387528e-03
      -2.5380018234647000e-01 -3.4391989612084933e-01
      -1.7924391526153875e-02 -5.9631311731773724e-02
      2.6915227183270019e-01 -7.1850824917531697e-02
      5.4721394335310182e-02 -1.2522832787453378e-02
      -3.5032060891260364e-01 -3.2235868355093711e-01
      -1.2885006253822665e-01 -1.8855904187462455e-01
      2.7317969330685211e-04 2.4613898372091331e-01
      5.3609384915661402e-03 5.6174145164743050e-01
      -2.4847966554831236e-01 3.1665521614138714e-01
      3.0479902272794537e-02 -5.8267169212138359e-01
      1.3367737086487599e-01 8.0270836639580151e-02
      9.3155362547439863e-02 -1.9298207449970314e-01
      -1.8963245505966050e-01 -4.3333183923227253e-01
      -1.8011780886635967e-01 -2.1964726439238724e-01
      5.7381676511278221e-02 -4.5450904211499465e-01
      4.0686253439962357e-02 2.1822474970780315e-01
      1.3278390906229790e-02 3.6731384880006057e-01
      -2.8631109870510546e-01 4.5296396828920199e-01
      -2.2495808104797543e-01 -1.4757910204413774e-01
      8.3663819772137205e-03 -1.3086553866771677e-01
      5.0677233034801990e-02 4.8009980740178780e-02
      -8.7600942169402729e-02 1.3983433716430410e-01
      -2.0144504882263131e-02 2.1939174176050470e-03
      -2.8408181098014303e-03 1.3618321940440173e-01
      2.3363552905631985e-01 1.1818175433175046e-01
      -2.3821653944103752e-01 -5.1891027450424421e-01
      -4.8327738234123598e-02 4.3907839848787173e-03
      4.7968412729835534e-02 -3.4232400929419365e-01
      2.5705844264771083e-01 -1.0636864770419395e-01
      -4.0019679368904548e-01 -3.5583389956446226e-01
      5.4967343895714865e-02 6.1931534417158790e-02
      1.4739273846759068e-02 -4.6672572809619345e-01
      1.4163364293177860e-01 -3.1421869170103689e-01
      -3.1256191040793196e-01 1.2610942347451695e-01
      -3.7309033473016319e-02 1.6212522909982077e-01
      -7.9551331034315984e-02 3.8074418311872145e-02
      7.1256065237661356e-02 -9.4333627685034310e-02
      2.6133740186803472e-01 -2.2381330141623917e-01
      3.9458186409092716e-01 1.4799118413887241e-01
      1.3142617276165766e-01 -1.5321085835619502e-01
      -1.0090864415850517e-01 -3.3859011677269885e-01
      -1.0570827618333654e-01 2.5594974978299856e-01
      1.7155718821680216e-01 1.2436536573197046e-01
      5.2990995586518479e-02 -1.3315437314179346e-01
      1.2714174753666282e-01 -6.7351055611826346e-02
      -3.9327071821628873e-01 2.0294890673539867e-01
      -2.7683482919264894e-03 -2.4731426117815467e-01
      1.4670224743698712e-01 1.8340728305490028e-01
      2.4457000085131841e-01 -1.3663088294206344e-01
      -2.8799339517471151e-01 -1.4079956785874481e-02
      2.4741104912755045e-02 -6.0995300653022853e-02
      -6.6389940696913674e-02 1.0131243885351149e-01
      -1.9951351481184015e-02 1.0324847697969551e-01
      -5.8005145827574212e-02 -7.3388112500373304e-02
      8.1368364240569993e-02 -4.6241479505257449e-02
      7.9598108941280526e-02 4.1652991373830744e-02
      -1.3452671753945125e-01 -2.5111068453640745e-01
      1.7200194791721610e-01 -5.0016314725260323e-02
      9.5843785422909333e-02 1.1302683406034564e-02
      9.3198841444680873e-03 1.0956503594992435e-01
      -3.5398127865844405e-02 -1.0490765866704330e-01
      2.6282170829518881e-01 -2.9110336264136849e-01
      3.7141186725079496e-02 1.5255601874270951e-03
      -8.7249964128542273e-02 4.4529354645066924e-02
      -2.1880532340844830e-01 -1.7503854098958993e-01
      1.7334178905308156e-01 -1.9215752885385448e-01
      -4.4026717043090913e-02 -8.0395682663499390e-02
      -9.3706719775146132e-03 -3.8229115427724260e-02
      -1.2772686541121056e-01 -4.1633318157367255e-01
      8.7289790847906723e-01 -4.1074952289296474e-01
      -4.1051413517975949e-01 -1.7964619380834940e-01
      -1.1785349657693910e-01 2.8570066942257932e-01
      -1.0031980669502232e+00 3.8624307054227411e-02
      7.1666772532375828e-02 -6.7565735568448290e-02
      -9.4519455581067280e-02 -4.1401728932314263e-01
      2.4002694513658654e-01 -1.3387131741497366e-01
      -1.0346812328262064e-01 -6.1849225932422669e-01
      7.0493319697685308e-01 -2.7310574215166483e-01
      -4.2744025735239707e-02 -2.5548595181608713e-01
      -2.9964362695051698e-02 1.6236476643189390e-01
      1.3696382620702532e-01 4.2141939722692651e-01
      -1.1158976795032591e-01 2.0459882130958512e-01
      6.9907048778063641e-02 1.2986321197283571e-01
      1.9536960621413375e-02 -1.4462629332526764e-01
      -1.8890821182872372e-01 -5.2125717618168525e-02
      -3.6615245701402133e-01 1.3259475767420031e-01
      2.1441590415567352e-01 -1.2203589810621369e-02
      -9.7453430903324201e-02 -1.5121271747822340e-01
      8.0520007085793169e-02 1.1256727250657296e-02
      -2.6281574526853729e-01 1.1851925766205076e-01
      8.0944688828355746e-02 -2.6796222366396999e-01
      1.1485408430683006e-01 6.7785870378984203e-02
      2.2340285586309926e-02 -1.1497190400254637e-01
      -1.1818907528735835e-01 -1.4709312909951708e-01
      4.0127204343219258e-01 4.4297768144351879e-01
      2.5350648054946784e-01 -4.5138009243945004e-01
      -3.9362970151578092e-01 -5.8947368254514265e-01
      3.2300595486632222e-01 -1.9777848801299380e-01
      1.7561075123807687e-01 -1.2053103029420785e-01
      2.2723397898303840e-01 -5.3956430366281047e-02
      1.0740444583058922e-01 -2.1165158007547005e-01
      -2.0548302530770493e-01 -7.3266672328005752e-02
      8.3803430341122975e-02 -4.8506578662232555e-02
      2.4894369681959000e-01 -2.1160265732862024e-01
      9.2484197373185223e-02 -4.2263200105912097e-01
      -2.4184152431895661e-01 3.8629368490354710e-01
      2.7814791087101126e-01 -9.1449445762029000e-02
      1.9976009771722375e-01 -1.2682796319430749e-02
      2.2253051764577845e-02 -1.3347940041433812e-01
      -2.9383579415881472e-01 2.8352468123723928e-01
      1.9504589557615115e-01 -2.1127447962116278e-01
      4.6083644963987744e-02 -3.5933339700709145e-02
      1.0522022554435131e-01 -2.1511264663485843e-01
      2.0874712348404789e-01 -1.2605561423939785e-01
      -7.7603458043794066e-02 1.8095391526381888e-02
      -2.1486946150430845e-02 -1.4383843844445153e-03
      6.2267968990681030e-02 2.1259478169304993e-01
      2.0602471365523307e-02 1.6741046098784043e-01
      -1.1936424006108896e-01 2.8806383659509507e-02
      -8.6193420716038568e-02 9.5178423444836277e-02
      5.4869222844170673e-02 3.0108666161905157e-01
      -9.3575853802794012e-02 -4.7843161006296354e-02
      3.5400703990535408e-03 -5.2040670141071728e-02
      -1.2014900231230241e-01 -1.1967944715828805e-02
      1.3995533434242424e-02 -1.0026726980199963e-01
      -8.0296775721319658e-02 4.8696049280478847e-02
      -1.7990361643113345e-01 -2.7156120893119161e-02
      -1.3768680688783466e-01 1.5381029870807544e-01
      2.5824018732857479e-01 1.1903695186116997e-01
      4.0776049326640529e-02 3.6258349740241912e-02
      1.1857804431004025e-01 2.8331352354115608e-01
      3.2483703938176497e-02 -6.1739562593992027e-02
      4.8978761336055318e-02 4.3852538648065355e-02
      7.9787481116065807e-03 1.3962320062492922e-01
      -1.4253024870893832e-01 4.6535687638104985e-02
      -2.5632732202518432e-01 3.4716497329238871e-01
      -1.9862124700938852e-01 2.6395450129854031e-01
      -5.8102490349628805e-02 -9.1584389396619489e-02
      7.0657600895547030e-03 -1.0233621508428956e-01
      6.1105029237513583e-02 -2.0775461633807027e-01
      -6.8626187026331859e-02 -4.8474383505490204e-01
      8.2100546364260818e-01 6.9665960649000228e-02
      -1.4301081438462926e-01 -1.9796226246075294e-01
      2.2340916328363336e-01 -1.0577623074880912e-01
      5.1344262693463105e-01 4.3900075174211496e-02
      3.4764082068762875e-01 -1.4233812853521521e-01
      -1.1003633881619299e-01 5.8090747929334434e-02
      -5.2939962823589939e-02 -5.8193695672309365e-01
      9.2585056066314467e-02 -2.5957173933923749e-01
      -1.5559216785452676e-01 -7.0011780330108894e-02
      1.9155989036953516e-01 -4.2955503447468804e-02
      3.1859221894939754e-02 -1.8912224504311922e-01
      1.9633144948474276e-01 -1.3938289391009689e-01
      5.6720333464934554e-02 -7.9923186421425110e-03
      1.3375522259582678e-01 1.1385488804033993e-01
      2.1339691691039545e-01 4.1410144021403160e-03
      -1.3495955991855409e-02 -2.7789995676132651e-01
      -1.0142718217443725e-01 -2.2385369052908449e-01
      8.6374252745299612e-02 4.5763510614305397e-01
      7.5580687997913523e-02 -3.6573356476943014e-01
      1.4800610085699550e-01 -1.9967948167972191e-01
      -9.1833409998586163e-02 6.5959153231342757e-02
      -1.8615274269169549e-01 1.2776675648122374e-01
      -2.8267439272695771e-01 -4.5461521973957315e-02
      -4.2367545358221029e-02 2.5119655289181470e-01
      -1.3119105503228307e-01 -1.5981220086656162e-01
      -4.8420323829062160e-02 -1.2217151056319728e-01
      9.2583064356591374e-02 -1.1345722991724000e-01
      -1.1316620282522000e-02 -1.7767759104426584e-01
      -1.8441000477460184e-01 2.8512047274109970e-01
      -1.8866321652110224e-01 -3.2806631026789312e-01
      1.2498984244895213e-01 2.1875047317767740e-01
      1.3753272484219364e-01 -1.2021632772983483e-01
      -4.4963023673217650e-01 -4.5018404816183015e-02
      -8.7717263176990509e-02 8.9856897208833164e-02
      -1.2597208482368777e-02 -2.0974707808244628e-01
      2.0347310949015510e-01 -2.3397913685465391e-01
      -3.6565569499206141e-01 -1.6512136606168765e-02
      -5.4395894097595821e-02 -7.4473371005863223e-03
      5.5296574143928412e-02 -1.6209926387312001e-02
      1.8034066347180455e-01 -3.1332321120866591e-01
      -3.5370099778143299e-01 -9.2076871874447283e-02
      -7.5842193608160482e-02 6.0877378630483066e-03
      -4.5322740584106930e-02 1.2542135394652240e-01
      8.0464574909746941e-02 1.3700439048249469e-01
      -3.0568164007362914e-01 3.9711948766537129e-02
      -1.3826464236912792e-01 -2.0833948453340648e-01
      -9.4174174419826576e-02 1.3518412648681513e-01
      2.9848993062181994e-01 3.6425130999180916e-01
      2.6670737891707963e-01 -3.7525401631621727e-02
      1.6723712996185099e-03 4.6313323316647746e-02
      -1.2604964275934999e-01 1.4730053801017925e-01
      -2.3660811679726906e-01 1.3240922209490943e-01
      2.3699359711088769e-01 1.5290654148432561e-01
      3.9543751709190383e-01 4.6592302033488284e-02
      4.9781251592174953e-02 1.5067408330404600e-01
      -3.6238024399141283e-01 2.5678534511143430e-01
      4.9900933953122334e-01 -2.6391272005928545e-01
      1.9819039980119604e-02 -3.2658207026773334e-01
      -1.0781302979759272e-01 1.4463521974500460e-01
      -1.5683801996458452e-01 -4.1054403637907194e-01
      -3.5447512301476375e-01 -2.7131462733388517e-01
      9.0485214193194344e-02 -9.9139916381393561e-03
      3.2144572843000201e-02 -2.8645539663758107e-01
      -8.7228469660170685e-02 -1.9069507914162059e-01
      -1.1140583512989286e-01 -1.6458950051759641e-01
      -1.4087803692341250e-01 -1.4864968459345196e-01
      -3.4726844055208005e-02 -2.0183013955016404e-01
      2.5552212888616127e-01 1.1434292573035559e-01
      -2.9485747445301241e-01 3.5043251973209455e-02
      -6.9053125964184794e-02 -1.9800000896287806e-02
      7.5509783699187830e-02 -2.2171026479372663e-01
      1.9573532861252621e-01 -8.0031361336826284e-02
      2.2316016952324627e-01 2.8502971010184891e-01
      -1.4733100472689689e-01 -2.3921539585718724e-01
      6.1789353492273213e-02 -1.0146884313357845e-02
      3.1854852013718310e-01 -1.3724722395638832e-02
      2.7550233337613006e-01 5.6095014241492346e-02
      -1.1806098167099542e-01 1.1828868200231610e-01
      8.0684579201654047e-02 -4.2328965298381327e-01
      1.0151834822061387e-01 -2.2585206983307277e-01
      1.8825390151943644e-01 -8.6868381845379455e-02
      -1.1519517153706979e-01 4.4666283251725847e-01
      -2.2151183013615516e-01 -2.2300360181059628e-01
      -7.3281764352752660e-02 1.3108296554110230e-01
      -1.5635556008944379e-01 1.0301462324660053e-01
      -4.4699994307764823e-01 1.7528638609155897e-01
      -2.3881781209634498e-01 3.6296259753759014e-01
      -6.0052885272614716e-02 5.2756129253203254e-01
      5.4900583615520138e-02 5.8902370932447094e-02
      1.2484255868754562e-01 -1.9273126217724706e-01
      1.0959135909963076e-01 3.4027743564713103e-01
      6.0446791535309647e-03 -1.7329735321972256e-01
      4.1169925417930509e-01 1.3805804075231445e-01
      1.1418859142297419e-01 -1.5214484113700236e-01
      4.2568166256088211e-02 2.1318363529622680e-01
      -9.3854999743791315e-02 -2.5780701899650765e-01
      -1.8438778063795977e-01 1.2006574856132116e-01
      -4.2128377603567253e-02 -2.2201424826926155e-01
      4.4116135554715434e-02 4.7076884984458237e-02
      2.6106671894416805e-01 -1.1299672742186182e-02
      -2.4567495791481242e-01 -9.2663314825147891e-02
      2.5923485148973736e-02 1.6717629603643057e-02
      9.1148581743680193e-02 7.4271883703046285e-03
      1.7480525356763812e-01 -5.5209164760915697e-02
      -3.7285221265936030e-01 -2.8178617938906764e-02
      5.7650516739235706e-02 -1.1050769373883698e-01
      9.6843314663543983e-02 4.9507992577320796e-02
      2.7014699897186145e-01 3.8114274491718017e-02
      -3.1532294435047986e-01 -1.1133008234587531e-01
      1.4320538648563502e-01 5.4382779161073418e-02
      -5.6645229432848138e-02 -4.3530747477691985e-02
      1.0972660648068164e-01 1.4815819496973384e-01
      -3.7903437990394928e-01 2.0338969423171335e-01
      -4.6485100070493085e-02 -7.4623579135345036e-02
      -9.5386444048036270e-02 -1.4456765272688006e-03
      -1.9131459055747979e-02 2.1610149859703603e-01
      4.4056604504600877e-01 2.6744099079595163e-01
      1.8760930175752904e-02 4.0009478879443106e-01
      1.6333134856167053e-01 2.2272174802326172e-01
      -3.6996393727016469e-01 1.8892911585246044e-01
      9.9891393056387751e-02 -1.5923909477506998e-01
      -1.0775742545199760e-01 -5.2107565521578976e-02
      -8.4052030284563622e-02 -1.6484155443743861e-01
      1.4247735726065688e-01 -4.6921814053064753e-02
      5.1845548769960462e-03 -2.6410640093689863e-01
      1.1907643362292257e-01 1.8381664551220447e-01
      6.2380464739704058e-02 -2.5139738574522663e-01
      8.6670500686652704e-03 -1.7466304328421348e-01
      4.4257166638819727e-02 -2.0613485197112161e-02
      5.0286293625925203e-02 6.2280396415273075e-02
      2.1755917910799512e-02 1.7848638728101798e-02
      -8.2168790793277741e-02 1.1106101519841788e-02
      1.8229726957595996e-01 1.9037699373952119e-01
      1.4749508063344297e-01 -2.0979829079507677e-02
      1.2417246543407072e-01 2.1375206148061945e-01
      -9.8551056558856709e-02 6.5750850982851244e-02
      -5.4086309579754965e-02 1.3627466260889914e-01
      -2.3294582694156463e-01 -9.0818917151985146e-02
      -1.1561878212247044e-01 2.3482323013131412e-01
      1.5508525130315526e-01 2.7812268440041626e-01
      -4.3322963796836020e-02 -7.6041683979604827e-02
      -1.8283889268782333e-01 1.6668133973480764e-01
      -1.7129397878142105e-01 2.0063136952677418e-01
      -3.7701844170273426e-02 2.9452236366321688e-01
      -2.3661699611844419e-01 -1.1249396458936331e-01
      -3.7772822166963260e-02 3.3933498538917695e-01
      -1.6455989475518978e-01 1.3633646117098067e-01
      -2.7106034239233506e-01 8.3935591150580358e-02
      -6.2571895484234724e-02 -8.3335068724572064e-03
      -2.1517042190604137e-02 1.3010309302307504e-01
      -4.9246792103450274e-02 1.9404308870100034e-01
      -8.7063607856910391e-02 1.8616108137047929e-01
      4.4066248670811936e-01 -2.9394583367604366e-02
      7.5664449261255540e-02 -8.5706745750996197e-02
      -9.3659996757618186e-02 2.6439359094602716e-01
      -1.7589354927714299e-01 -2.4474398539225828e-01
      2.8134674793080805e-01 -1.1807378546709353e-01
      -3.5050123037908144e-02 -1.5453002986641665e-01
      -6.9944531419369446e-02 1.7776342643949422e-01
      -9.0697024309676771e-02 -3.1877037198770242e-01
      -5.4371102057067088e-03 1.0231059885654936e-01
      8.8711023321189242e-02 -1.0643939301019881e-02
      1.6464434231722477e-01 -7.2910632506986678e-02
      9.3239805243875581e-02 -1.4889908250415601e-01
      -1.6906736175327008e-01 -1.5356494597487966e-01
      7.4357489155029738e-02 -1.0361204374833147e-01
      1.1423854539782920e-01 8.7827038836134796e-02
      2.1180198953881005e-01 1.1427685119251801e-02
      -2.7953604640755092e-01 9.4403953162935372e-02
      5.7041323856535620e-01 -1.2551582990901367e-01
      3.6787481199256389e-01 1.6796184640692760e-01
      -4.1454016509319702e-01 -4.1407749276765532e-01
      -2.7125983443270485e-01 4.3371483122838150e-01
      5.4851325333242706e-01 -2.6216484802337436e-01
      4.1145208769795127e-01 2.8401733453901340e-01
      -3.5405396902279607e-01 -4.2022349515714863e-01
      2.5479136350697717e-02 2.3946678198241738e-02
      -1.4409125981815157e-01 1.1683748772006416e-01
      -1.1945281677468381e-01 -3.8359571426720818e-01
      1.9014080545015968e-01 2.7131160106642305e-01
      7.7626685285903220e-03 1.6433587318715151e-01
      -4.4090374762187029e-01 -1.4751224473995297e-01
      -1.3105207126955870e-01 -3.8918564418846541e-01
      3.9252972809494652e-01 1.7204528962638602e-01
      -2.0113167212268643e-01 5.9684824880919296e-01
      -2.0467515252441366e+00 -9.6051641291901579e-01
      1.8857369749881774e+00 -2.0658068417308589e-01
      -1.4127178860774867e-01 -4.5290589079938803e-01</_>
    <_>
      -6.5025897770384700e-01 -5.9240247245314170e-01
      1.0138781423480581e+00 -8.9975721886755522e-01
      -1.9997091875114811e-01 -9.1453309246949888e-01
      -3.8873706720569490e-01 -6.8962381988883636e-01
      -7.0020773461952390e-01 2.8732657509176729e-01
      -3.7912652426729426e-01 -3.5797598377383855e-01
      -2.5911461185986595e-01 -1.0579515324018660e+00
      -3.9966981333421858e-01 -2.5097278466412354e-01
      2.4104892856146784e-01 -1.6319578039135602e-01
      1.3155037409151293e+00 -6.6887878888191710e-01
      -3.9700880215219142e-02 7.6815359186825183e-01
      2.1326137364618974e-01 -8.3472027208510402e-01
      -2.2656055363697289e-01 5.0052313327826045e-02
      7.2949469478918849e-01 -5.0018991127828127e-01
      -1.8859482542118941e-01 -8.3221290966911199e-01
      -1.5372238411202593e-02 8.5253023541122394e-02
      -1.7013782098798058e-01 1.6924704991020811e-01
      -8.7405779037431997e-01 -7.9392286694738534e-01
      -3.1084699416281691e-01 -8.9615812522474714e-01
      -7.0632270451617563e-01 3.0356561615743272e-01
      1.5045962957635570e-01 -1.8630697706702801e-01
      -1.2704617299286033e-01 -1.2165979341383219e-01
      2.8548318283074577e-02 3.9942288329372355e-02
      4.8469637222022410e-01 -3.0492231124893677e-02
      -3.6752880174235997e-01 1.6522338888920857e-01
      -2.2415691109113342e-01 -6.4222324056473423e-01
      4.3194539872157089e-01 -1.0812794065570346e-01
      -4.0241546571404058e-01 1.5033488549313107e-01
      -1.2232104237282672e-02 -1.7561739703685961e-01
      2.5300136197835182e-01 -7.1785278051280599e-01
      -5.3295611131211340e-01 2.7464417691856641e-01
      -3.3515708120345872e-01 -6.4521513350925375e-02
      4.0982598626376171e-01 -1.4935466726365436e+00
      -9.5583212303617748e-01 2.4036064692983500e-01
      5.0509164199165058e-01 -1.0210928089180098e+00
      -2.0169897330080917e+00 -4.8747215683947986e-01</_>
    <_>
      4.7752492552791764e-01 -8.8463610697255246e-01
      -8.9598014714193253e-01 -2.8810032410270514e-01
      1.1143327074758644e+00 -4.3639983916050051e-01
      1.0797315228740640e+00 5.7797801099188556e-02
      -8.9741982226123895e-01 2.5046595027286439e-05
      1.0545421740431855e+00 -1.0916384163536812e+00
      -3.0008219713601819e-01 -3.3115310864056763e-01
      -1.1965324184793411e+00 -1.4688192527138672e-01
      -5.4949807976223308e-01 9.8569588369877492e-01
      -3.1005649331136004e-03 -3.0546734966235972e-02
      -1.6194071665675925e-02 8.0854191182212071e-03
      -1.9528960175049372e-02 -9.0237090890523571e-03
      -2.7398378798040302e-02 7.1013978720657718e-03
      5.8254386387036594e-01 1.4516168858950687e+00
      -6.4605280008650656e-01 -9.9867010469862516e-02
      1.7262089104481617e+00 4.6486150755593020e-01
      1.2837040613704273e-01 1.0239431603504426e-01
      5.1426644629643559e-01 -2.9350189858972672e-05
      1.8539170642257952e-01 -1.2290868406757406e-01
      3.0954184788351369e-01 3.8102370349733578e-01
      -4.8519254609739482e-01 1.4405985045800232e-01
      5.7793250198983026e-01 -1.4907780867600171e+00
      3.6333162387978059e-03 3.5796546701624909e-02
      1.8976767953121358e-02 -9.4747061476385154e-03
      2.2884799499510281e-02 1.0574224852746780e-02
      3.2106904962975830e-02 -8.3215999157278189e-03
      1.2876765533956975e+00 6.8148562136763491e-01
      -8.1721442114214915e-01 1.5572950070646324e-01
      -1.0096793786091085e+00 1.5850954427799893e-01
      -1.6592908071711993e-01 2.9287504467724306e-02
      5.2447302778466576e-01 -1.0488916002002134e-05
      -2.0640285650622456e-01 2.1799296638464227e-01
      1.0709139849054125e-01 1.4137210837810402e-01
      1.5434909720604281e-01 6.4761166349220939e-02
      2.2297047628793551e-01 -4.6774559488657497e-01
      1.2984427922775122e-03 1.2792455078720146e-02
      6.7817221499292578e-03 -3.3859844222600844e-03
      8.1783176235103207e-03 3.7789193934182372e-03
      1.1473939729506052e-02 -2.9738985503794777e-03
      -4.2218202722691661e-01 6.8261583346562771e-01
      -1.4416634031458990e+00 -4.3597203177597063e-02
      -3.8725300064755996e-01 1.5175670458793108e-01
      -1.7783581455211697e-01 -7.6723144958056905e-02
      -5.4422030275607036e-01 8.5780258089994145e-06
      -1.3896338932264092e+00 1.3621235359606843e+00
      -4.9202648489612776e-02 -9.2949526622914794e-02
      3.3695737085360300e-01 -5.2180275127648350e-03
      -6.4178542713220391e-02 3.9153669678992153e-01
      -1.0618900100730088e-03 -1.0461778616204617e-02
      -5.5461972936964466e-03 2.7691173672238088e-03
      -6.6883445639478161e-03 -3.0904658395065985e-03
      -9.3835072587905109e-03 2.4321067841492276e-03
      2.6030079107736070e-01 1.0780070825354204e+00
      9.5081232116085337e-02 3.4653985694821515e-01
      -2.5424517919022421e-01 -8.5262026599812313e-01
      -1.1860286691447894e+00 -1.4707005201946255e-01
      -4.1747076320196069e-01 7.9232122476082678e-06
      1.0509078106033931e+00 -1.0132832255751343e+00
      -1.9949337850486740e-01 -2.1753438607780992e-01
      1.4504864539083562e+00 -2.2756704437072095e-01
      -3.9463595546896091e-01 4.7734069987066535e-01
      -9.8083019667993061e-04 -9.6640445083780065e-03
      -5.1229522622517247e-03 2.5577495589859472e-03
      -6.1780110142592420e-03 -2.8545738461496950e-03
      -8.6678396580896089e-03 2.2464598518362258e-03
      -6.4226699353735900e-02 -6.5086259966586812e-01
      3.4512855716538571e-01 1.7101364860748804e+00
      1.8395842419427297e-01 -1.0023596687037964e-01
      -1.9750539594252345e-01 -4.3381626693090591e-02
      5.5493604282273767e-01 -1.5726455203581455e-05
      -4.3205530597206737e-01 3.9863893388229860e-01
      1.7168337398361286e-01 1.9077495667590874e-01
      9.6592721243993665e-02 5.9335308412097748e-02
      3.2454971059684501e-01 -9.1629859039542527e-01
      1.9468086200115345e-03 1.9181141987423461e-02
      1.0168243500196763e-02 -5.0767597473952491e-03
      1.2262316293654457e-02 5.6659095034294754e-03
      1.7203988755847274e-02 -4.4588973991720937e-03
      -4.7500823659744995e-01 -3.5648419891603000e-02
      7.6020470017872122e-01 -1.5465768883400788e+00
      2.2863164406644410e-01 7.7650776532697652e-01
      -1.0372798488901367e+00 1.9035194967779234e-01
      1.5395866285490969e+00 -2.6708914783575542e-05
      1.0746146170693824e+00 -8.8761695620903125e-01
      3.6389724139283053e-01 4.0223817813528634e-01
      1.2813950737157291e+00 2.2595254431086934e-01
      5.4714994219270729e-01 -5.7897116228875212e-01
      3.3063447331098212e-03 3.2572195872015451e-02
      1.7268575053173633e-02 -8.6220060986555193e-03
      2.0824583893555355e-02 9.6225558150076305e-03
      2.9215414808535775e-02 -7.5726875796132288e-03
      -2.4060813665586607e-02 2.5224443524436274e-01
      3.0605332939522256e-01 2.8679950610025897e-02
      -2.1205073297020305e+00 2.1869710717629393e-01
      5.3482220795531654e-01 1.4876261724113793e-01
      8.7509760071806808e-01 -7.5387957512257786e-07
      6.6649419210567973e-01 -6.5418760793775654e-01
      5.8886547784115457e-02 9.3213479780285560e-02
      -5.5430855618507380e-01 8.8894060554077808e-02
      5.9834379688135333e-02 1.3877310281339192e-01
      9.3323567611293038e-05 9.1882767943419195e-04
      4.8733728832393153e-04 -2.4335264090783899e-04
      5.8764687365322219e-04 2.7158996899178658e-04
      8.2423245025983955e-04 -2.1373808851563958e-04
      -2.8314694457093742e-01 -7.5384490083240041e-01
      -8.0058986317569769e-01 -1.8307808095487588e+00
      -8.1868440353173333e-01 -4.5677569901320070e-01
      -2.9775181246556079e+00 -1.5306167245516380e+00
      1.1554699627637857e+00 -7.2234462146213876e-05
      -1.2702827691126160e+00 -2.2130276364747687e+00
      -9.6040346631271534e-01 -8.3296311887913543e-01
      -8.5058672224207144e-01 -1.3406526745712999e+00
      -3.2510414048270675e-01 -4.6159325196730769e+00
      8.9420390146896060e-03 8.8096376060681977e-02
      4.6703680565628687e-02 -2.3318366108908129e-02
      5.6321452939821111e-02 2.6024393815882181e-02
      7.9016648125649167e-02 -2.0480448613683214e-02</_></weights></opencv_ml_ann_mlp>
</opencv_storage>
