<?xml version="1.0"?>
<opencv_storage>
<opencv_ml_ann_mlp>
  <format>3</format>
  <layer_sizes>
    576 4 4 4 26</layer_sizes>
  <activation_function>SIGMOID_SYM</activation_function>
  <f_param1>6.6666666666666663e-01</f_param1>
  <f_param2>1.7159000000000000e+00</f_param2>
  <min_val>-9.4999999999999996e-01</min_val>
  <max_val>9.4999999999999996e-01</max_val>
  <min_val1>-9.7999999999999998e-01</min_val1>
  <max_val1>9.7999999999999998e-01</max_val1>
  <training_params>
    <train_method>BACKPROP</train_method>
    <dw_scale>1.0000000000000000e-03</dw_scale>
    <moment_scale>0.</moment_scale>
    <term_criteria>
      <iterations>128</iterations></term_criteria></training_params>
  <input_scale>
    1.2416962285694883e+01 -2.3164471718544410e+00
    1.8911815584118003e+01 -2.5651301257186816e+00
    2.0215404614954060e+01 -2.7440576796055733e+00
    1.8735614222124727e+01 -1.9749170575430848e+00
    1.6179941829868550e+01 -3.2119548310246864e+00
    1.7989325032261117e+01 -1.8963967183582728e+00
    1.8175082776343597e+01 -2.4835833776390048e+00
    1.8497586807438555e+01 -2.3728891314703069e+00
    1.2478172443979410e+01 -2.2941293343804117e+00
    1.3412826112086975e+01 -2.6761638579552280e+00
    2.0207713156882118e+01 -2.9995509767398509e+00
    1.9463529258639380e+01 -2.8684254672519924e+00
    1.8316449163477483e+01 -2.0584256027507353e+00
    1.6658172298660467e+01 -3.2578500497070695e+00
    1.8731803616785935e+01 -2.0017508478907926e+00
    1.7902277046708029e+01 -2.5725288541768423e+00
    1.9069310757262357e+01 -2.6175612264051402e+00
    1.3381247440540065e+01 -2.5736508696814488e+00
    1.6509639457974050e+01 -2.9732236479235592e+00
    1.8123312045421866e+01 -2.6044813766763455e+00
    1.9967944690312446e+01 -2.9025989287862988e+00
    1.8993506770457568e+01 -2.1140173902745834e+00
    1.6882595904563118e+01 -3.3691447216838286e+00
    2.0977001060986591e+01 -2.2347875992920812e+00
    1.9225278558315061e+01 -2.7061231490521811e+00
    1.8398981240261154e+01 -2.4851857441415577e+00
    1.8177382837924238e+01 -3.1249153910540337e+00
    1.5955401897630210e+01 -3.0801343564110160e+00
    1.5572607485545673e+01 -2.5044827256211146e+00
    1.5946549819996857e+01 -2.6015917538247550e+00
    1.5289590875391957e+01 -1.9187236302180233e+00
    1.6200236107556155e+01 -3.2386573291612790e+00
    1.6144105082108261e+01 -1.9376831121668607e+00
    1.6937430268522018e+01 -2.6101958285881599e+00
    1.6978567306459006e+01 -2.5322496774892791e+00
    1.6309233076458238e+01 -3.0472812225864225e+00
    1.1565896513654378e+01 -1.8600875561465837e+00
    1.5194087856435393e+01 -1.9257046562621665e+00
    1.7726666953912762e+01 -1.9180209915323516e+00
    2.0813362728918868e+01 -1.6239230608370998e+00
    1.3765798005764335e+01 -1.9171264275798161e+00
    1.8357456131509220e+01 -1.4166279282678700e+00
    1.5672052264798054e+01 -1.5803622025453654e+00
    1.7086552540353207e+01 -1.6796476122221948e+00
    1.1863904134465750e+01 -1.7275508802306270e+00
    1.1843182377679371e+01 -2.2302729062607831e+00
    1.3644233471093047e+01 -1.9905228067132976e+00
    1.5629940342974471e+01 -1.9042016847394945e+00
    1.5598208694371300e+01 -1.4293420126337775e+00
    1.3245302756174789e+01 -1.9446238669183060e+00
    1.7838074955257383e+01 -1.4801330114245930e+00
    1.4962665230603498e+01 -1.6026389892282717e+00
    1.6818457051481488e+01 -1.7793051335023902e+00
    1.2250426966739463e+01 -1.9866934207439058e+00
    1.1559609689451291e+01 -2.6522667448620068e+00
    1.0451808459291854e+01 -2.2718884148325054e+00
    1.2894575031125505e+01 -2.2548177701762273e+00
    1.6279702591489798e+01 -1.7387539364424853e+00
    1.3433998544555807e+01 -2.0489633568926138e+00
    1.6405640822420661e+01 -1.5753931580182605e+00
    1.5087339771991594e+01 -1.7734458921661371e+00
    1.5599017378267439e+01 -1.9527481074841955e+00
    1.2231862668837980e+01 -2.3733106220480233e+00
    1.2149634754063189e+01 -3.0253931497554323e+00
    1.1109214988652035e+01 -2.5722404594616988e+00
    1.1899112073946268e+01 -2.0897279938444706e+00
    1.3474498764714200e+01 -1.6068519561458590e+00
    1.2566333649318283e+01 -1.9439404301648275e+00
    1.4378894859010620e+01 -1.5649618137564183e+00
    1.4029251486454568e+01 -1.7603935338001286e+00
    1.4442062872252224e+01 -2.0312201293491978e+00
    1.1628681049564159e+01 -2.5763494702765763e+00
    9.5450901669621153e+00 -1.5773651666464905e+00
    1.2197080501986516e+01 -1.5759401818945338e+00
    1.3929644600580271e+01 -1.3007166352918655e+00
    1.4319788912415376e+01 -9.9761863556405217e-01
    1.3245893816455732e+01 -1.3266990931520215e+00
    1.9552675650504010e+01 -1.1305967492343898e+00
    1.5628599612915782e+01 -1.0974565104936174e+00
    1.5014000587290351e+01 -1.1424672021254956e+00
    1.0019951169970243e+01 -1.3922834410602785e+00
    1.0506905013181587e+01 -2.2567150706253960e+00
    9.5814794705815363e+00 -1.9797419029584045e+00
    1.0206621284749936e+01 -1.5010758414103800e+00
    1.2614828753190219e+01 -1.2976078806655957e+00
    1.1611612350316665e+01 -1.4782056872856049e+00
    1.4426378027667379e+01 -1.0798788612462180e+00
    1.2891008530514004e+01 -1.1202950642434952e+00
    1.3033864575457377e+01 -1.2286877125234243e+00
    1.0525540203165860e+01 -1.6809403917651511e+00
    9.8721633492396901e+00 -2.4388778415474857e+00
    8.8365618463379327e+00 -1.9835634656604075e+00
    1.0782266201124546e+01 -1.4510149185020782e+00
    1.3773972438462447e+01 -1.0634360160510952e+00
    1.3799300378343068e+01 -1.2444141252455339e+00
    1.5572755476074676e+01 -9.7132046179482601e-01
    1.2633912893781375e+01 -1.0255708364975955e+00
    1.1433046093309374e+01 -1.1646278652945907e+00
    9.4062535603861779e+00 -1.6791042263640046e+00
    9.5061752159390682e+00 -2.4302756950943545e+00
    8.7015198091517600e+00 -2.0854105761526958e+00
    9.8855136399466623e+00 -1.6719328908437674e+00
    1.2975009629263861e+01 -1.2922410943267815e+00
    1.3170669265509488e+01 -1.4560920459386399e+00
    1.3240415443200144e+01 -1.0639279285772203e+00
    1.1683056298628735e+01 -1.1907323219628567e+00
    1.0980778559999663e+01 -1.3200529553914857e+00
    9.7785996162787594e+00 -1.8758818620650068e+00
    9.1739023966072786e+00 -1.9835061430812426e+00
    9.0771233885381335e+00 -2.0225092033918157e+00
    1.0104082499707866e+01 -1.6893755874610532e+00
    1.3827969379433734e+01 -1.3507479973682870e+00
    1.2164274640221207e+01 -1.4030698948109350e+00
    1.0538406010128304e+01 -9.3818862550959192e-01
    8.7716625175425644e+00 -1.1295199185644287e+00
    1.2628197689674481e+01 -1.2376564314128193e+00
    1.1658075491092829e+01 -1.6439833193543565e+00
    9.1914592496044634e+00 -1.7665819348765897e+00
    9.0341591209753904e+00 -1.7591312865226352e+00
    1.0651235486509533e+01 -1.5097574751225555e+00
    1.3934520505060142e+01 -1.2207458885342481e+00
    1.2761727226018758e+01 -1.4184605316046357e+00
    1.3569617545451319e+01 -9.5635375592423755e-01
    1.1252414724666535e+01 -1.1415606266762841e+00
    1.1856856160373953e+01 -1.1033503367147397e+00
    1.1583639965250994e+01 -1.4729003522946216e+00
    9.5255457559918444e+00 -1.6260419422167847e+00
    1.0506550347260967e+01 -1.6631124536036821e+00
    1.2692412304019516e+01 -1.4958581387283885e+00
    1.5642839958448047e+01 -1.3834941444423712e+00
    1.1470863616105069e+01 -1.4399210583183872e+00
    8.2262447509474921e+00 -1.1517112891225398e+00
    7.5464271191006134e+00 -1.3290971582596436e+00
    8.8368138737796897e+00 -1.2385433336186116e+00
    1.1458556889113721e+01 -1.4282652528483510e+00
    9.9325832557643992e+00 -1.4014009417052329e+00
    1.0442268785776642e+01 -1.3722330873776678e+00
    1.0852713749451686e+01 -1.3249696345816064e+00
    1.1799303979551157e+01 -1.0861379970338456e+00
    1.1404868552073856e+01 -1.4454573262360946e+00
    1.0327309883418115e+01 -1.2066956798291764e+00
    9.5749713038117044e+00 -1.5127534685895310e+00
    1.1221089323349682e+01 -1.2207752386954218e+00
    1.1617577677733580e+01 -1.3339112646849698e+00
    1.1168183469292888e+01 -1.6304255410421067e+00
    1.6888626123161099e+01 -1.8646757214624998e+00
    1.9847289968528759e+01 -1.9972409375107421e+00
    2.0176092066710531e+01 -1.5543014786138027e+00
    1.3417088317456370e+01 -1.7326700740690988e+00
    1.9835819895250442e+01 -1.4074178837055831e+00
    1.8815621300120572e+01 -1.5614428904948574e+00
    1.6386245431730352e+01 -1.5445121129561561e+00
    1.2717302297052614e+01 -1.6045772177718738e+00
    1.2276451408990976e+01 -2.3179667778006436e+00
    1.3025921763134278e+01 -2.4570792414293048e+00
    1.0403064644470939e+01 -1.9703490452965724e+00
    1.1109434478404060e+01 -1.6232882697577935e+00
    1.1088179589187195e+01 -1.7837249383026570e+00
    1.4473047758552466e+01 -1.4874004578143318e+00
    1.4962394850385504e+01 -1.6326321040383673e+00
    1.4132769716825546e+01 -1.7231220877907139e+00
    1.2821814787179555e+01 -2.0843691431066813e+00
    1.0917127350882906e+01 -1.7339730638190305e+00
    1.3256963458805636e+01 -1.7847522456503648e+00
    1.3251721257115280e+01 -1.8176566592773125e+00
    1.4356276015638725e+01 -1.6725283566726163e+00
    1.2972461402653861e+01 -2.1465422289746479e+00
    1.7646075718909234e+01 -1.6975896069525345e+00
    1.9510850979316942e+01 -1.9203443085822622e+00
    1.7814376526575444e+01 -1.8677197700486665e+00
    1.1392907782928472e+01 -1.6865857175972556e+00
    1.1974919744855118e+01 -2.5232994751833528e+00
    1.1920859417145458e+01 -2.5985374644932486e+00
    1.0626691185528792e+01 -2.2794312275537041e+00
    9.8711908343529231e+00 -1.9621247078524733e+00
    1.0922884288706706e+01 -2.2299245128972958e+00
    1.1971794780735520e+01 -1.7196407951090575e+00
    1.3888303498034926e+01 -1.7911727796075732e+00
    1.4247777111599039e+01 -1.9510174706623777e+00
    1.1610567212602009e+01 -2.2346300248919548e+00
    1.2777343765312189e+01 -2.5620140450249145e+00
    1.1809025745890816e+01 -2.0914560109851466e+00
    1.1867258070507708e+01 -1.8021379305276524e+00
    1.3901702198976372e+01 -1.4734186822300814e+00
    1.4550529984654604e+01 -1.3156844735446971e+00
    1.4575019671725110e+01 -1.1037667104047337e+00
    1.3378815028655186e+01 -1.2221214348952436e+00
    1.2297959897317517e+01 -1.5071718686016686e+00
    1.1801905038966549e+01 -2.0340636189538137e+00
    1.2164314352679506e+01 -2.2341280012927065e+00
    1.0785314446557598e+01 -1.8996928193808797e+00
    1.1769625577844241e+01 -1.6859533852746686e+00
    1.4299063403391871e+01 -1.4821359806731031e+00
    1.2916118717832891e+01 -1.4175939526088099e+00
    1.1599995677494270e+01 -1.1721022236193914e+00
    1.2386882859893765e+01 -1.2825031157870745e+00
    1.2685471747320355e+01 -1.4998706119312319e+00
    1.2594239630169811e+01 -1.9050866164195273e+00
    1.2770304643683561e+01 -2.7111826302705091e+00
    1.1954576484552318e+01 -2.3032883432023992e+00
    1.1544614520901082e+01 -1.9477345550158001e+00
    1.3432873410921978e+01 -1.7527709095362003e+00
    1.3621904833891307e+01 -1.5636091258683495e+00
    1.3497698665285764e+01 -1.3302367839294604e+00
    1.4038499686999879e+01 -1.5392894906940160e+00
    1.3850420151714253e+01 -1.8792326550609935e+00
    1.2410499613642720e+01 -2.3189250793605698e+00
    1.1862815460951927e+01 -2.3506473070100675e+00
    1.1390922446434889e+01 -2.1508048318510600e+00
    1.2318442568413698e+01 -2.0133998180880117e+00
    1.4463962723621471e+01 -1.8678085332581065e+00
    1.2971965213721305e+01 -1.7412221224410802e+00
    1.2250678425506271e+01 -1.4855352169167035e+00
    1.3436459688462751e+01 -1.7289763210388469e+00
    1.4283412982036900e+01 -1.9660653176650327e+00
    1.1599087048142721e+01 -2.0546022051270110e+00
    1.3215045970278863e+01 -2.1921433820207703e+00
    1.2618226408507276e+01 -2.0283413986521186e+00
    1.4401793273098962e+01 -2.0159496180010792e+00
    1.7194282495677559e+01 -1.7121662426182571e+00
    1.3582012940057190e+01 -1.5201961667450381e+00
    1.2760117918552384e+01 -1.3554807657457877e+00
    1.2522223318804421e+01 -1.5136479752444083e+00
    1.2860350571236973e+01 -1.7133648820116862e+00
    1.3739117422348007e+01 -2.1315523973767987e+00
    1.3697971602476288e+01 -2.2740112774370216e+00
    1.2400817930255446e+01 -1.9754761874493649e+00
    1.3105522932209363e+01 -1.8630932838718277e+00
    1.5233998588698663e+01 -1.6719925391006660e+00
    1.3676350433763291e+01 -1.7042475319731627e+00
    1.2171786859793496e+01 -1.5269856619658031e+00
    1.1420545830906002e+01 -1.7034904820170884e+00
    1.2352795536507722e+01 -1.9028249967966537e+00
    1.3716141554686228e+01 -2.2624946692385803e+00
    1.3416082479476339e+01 -2.4200684471524685e+00
    1.3539044982576058e+01 -2.4060743849353954e+00
    1.4607978184998865e+01 -2.4614952336655809e+00
    1.3982521924725887e+01 -1.9001575710328733e+00
    1.2745928151398591e+01 -1.7784751441182631e+00
    1.3291337230125741e+01 -1.6340288026265044e+00
    1.3489499799657198e+01 -1.7175422233082376e+00
    1.3301084576870151e+01 -1.8472557313286733e+00
    1.3350374833273424e+01 -2.1625825635802207e+00
    1.3558640241774512e+01 -2.4893256261085965e+00
    1.2445385658837237e+01 -2.2746407224943281e+00
    1.2373329043624437e+01 -2.1714532950048926e+00
    1.2298813452869972e+01 -1.8953204375470531e+00
    1.3000719503560155e+01 -1.9719045569268003e+00
    1.3795575079060439e+01 -1.8315179413862053e+00
    1.3303851151694365e+01 -1.8649050452459732e+00
    1.3420790469666093e+01 -2.0039634764027361e+00
    1.4323278593695166e+01 -2.4129283232092993e+00
    1.0813661706384803e+01 -1.4771236518869386e+00
    1.0361949092981737e+01 -1.6926723666674677e+00
    1.1185560302332359e+01 -1.6399181687802649e+00
    1.2991395049308826e+01 -1.3493343001342812e+00
    1.0606608638060543e+01 -1.4422283409260086e+00
    1.0449927523692349e+01 -1.3291564620275782e+00
    1.0602374012421190e+01 -1.3999887873309724e+00
    1.1797341627856548e+01 -1.3624245303388534e+00
    1.2634600551229777e+01 -1.4446267196655143e+00
    1.0412850052672054e+01 -1.5746639995348430e+00
    1.0799952926986320e+01 -1.9024750400559125e+00
    1.1922785642132807e+01 -1.7449189302380774e+00
    1.2903156201638289e+01 -1.2922050667334699e+00
    1.1365600589440765e+01 -1.6023845573759121e+00
    1.0716795104742751e+01 -1.4262882197718214e+00
    1.1648140227217727e+01 -1.4695726666153266e+00
    1.1616616668755544e+01 -1.2810788538064255e+00
    1.1996785767402717e+01 -1.4080639857027035e+00
    1.0337728671199416e+01 -1.7174367327213684e+00
    1.0216677231248605e+01 -1.9865950408424486e+00
    1.0800303852603632e+01 -1.8243679015536194e+00
    1.1982027555042283e+01 -1.3986932311508078e+00
    1.0003697872353619e+01 -1.4858128860115614e+00
    1.0580000319602377e+01 -1.2676939931975646e+00
    1.0781281687881883e+01 -1.4482294918231207e+00
    1.2375378670735683e+01 -1.4855513588513991e+00
    1.2809237430719524e+01 -1.6995508705572908e+00
    1.0161174074244505e+01 -1.7944402495633216e+00
    1.0363677008828406e+01 -1.8874706071388661e+00
    1.1442346072896777e+01 -1.7614104668577304e+00
    1.2816661925372173e+01 -1.3654070011591102e+00
    1.0842730889383541e+01 -1.5926015736107892e+00
    1.2432101462242205e+01 -1.4737230085151545e+00
    1.0379857997762896e+01 -1.4261552594496938e+00
    1.1388233128769256e+01 -1.4860384603164607e+00
    1.1177938769441067e+01 -1.6797023846911907e+00
    1.1888149569317912e+01 -1.4467869083963589e+00
    1.5915671227473373e+01 -1.5116932899558082e+00
    1.9320411483941772e+01 -1.8731235367524832e+00
    2.1357536073047434e+01 -2.1676169853376019e+00
    1.4453164009773378e+01 -2.5939123605562959e+00
    1.7379131183782984e+01 -2.0437983650381910e+00
    1.8132643832607190e+01 -2.1995937119217213e+00
    1.5736244429351551e+01 -1.7471073073317509e+00
    1.2568841399962608e+01 -1.5366638111232933e+00
    1.0835258895844570e+01 -1.8727132145838516e+00
    1.2618547507787918e+01 -1.9832927247476995e+00
    1.3399074421745299e+01 -2.3623542137707516e+00
    1.1779066493730438e+01 -2.2968301389627577e+00
    1.2440510629604777e+01 -2.8321226972933262e+00
    1.0813474269553547e+01 -2.1817368483261306e+00
    1.1603777934960895e+01 -2.2456737537396467e+00
    1.1157454539088043e+01 -1.9481361082763344e+00
    1.0992607842665954e+01 -1.8535417560296090e+00
    1.4326171966933700e+01 -1.5020385828200900e+00
    1.8224202058834514e+01 -1.4947335227205776e+00
    1.8956614893398282e+01 -1.5962905638856442e+00
    1.8723801440868783e+01 -1.5367498746583677e+00
    1.3798491441737083e+01 -2.1977486789118390e+00
    1.7619621115598747e+01 -1.7839864098228635e+00
    1.9761650203345511e+01 -2.1888609399509753e+00
    1.9484511652203015e+01 -1.9334797105089592e+00
    1.5119545947750449e+01 -1.6315193863333182e+00
    1.2647760316729006e+01 -1.9604291632646251e+00
    1.4863357445963885e+01 -1.9591853399304509e+00
    1.3685817845085479e+01 -1.9324598281018617e+00
    1.1875264800886296e+01 -1.8238955199035114e+00
    1.1975083554829329e+01 -2.5822222283234728e+00
    1.1190026273835628e+01 -2.0952760194854902e+00
    1.2036837670536050e+01 -2.3732482050091668e+00
    1.2317064449623766e+01 -2.1280158472632138e+00
    1.3859695383159941e+01 -2.1772982706019364e+00
    1.1585127509865254e+01 -1.9920011708189274e+00
    1.1491551996700293e+01 -1.8918420599838086e+00
    1.2272773723758091e+01 -1.8814613585883275e+00
    1.2005366988579482e+01 -1.6248240249705797e+00
    1.1664724061550439e+01 -1.8085460052359073e+00
    1.5348974263042200e+01 -1.8779360050368163e+00
    1.3717161555435412e+01 -1.8142327553959101e+00
    1.3620792088401759e+01 -1.7340371682778777e+00
    1.1583269473559161e+01 -1.7623676023668691e+00
    1.1457654361215045e+01 -1.8800887654861456e+00
    1.3093585867996856e+01 -2.1852893739417474e+00
    1.2591252319399064e+01 -2.1137069060816036e+00
    1.2997193147039651e+01 -2.0188363871451100e+00
    1.2588927207257022e+01 -2.2222642750658630e+00
    1.3924397243670541e+01 -1.9643319853486900e+00
    1.3292897710022604e+01 -2.0170743004291065e+00
    1.2423705226138097e+01 -1.7830771318252290e+00
    1.1019820136771932e+01 -1.7154673755293837e+00
    1.2188771381981393e+01 -1.7246605703645503e+00
    1.2273131217318369e+01 -1.6520806955000977e+00
    1.1964904850285052e+01 -1.6762000978557570e+00
    1.2214988282027541e+01 -1.4766721044234188e+00
    1.1013229822877562e+01 -1.6093227711857239e+00
    1.3356373742076308e+01 -1.6060179900455580e+00
    1.3364261690906364e+01 -1.6976853811963470e+00
    1.4330719072834182e+01 -1.5802347444556077e+00
    1.2869400426393872e+01 -1.6001855148440383e+00
    1.2752924057709496e+01 -1.8963106798642764e+00
    1.2454848149736618e+01 -1.9308547414211190e+00
    1.1761140868461490e+01 -1.8037212805220462e+00
    1.1348697518229605e+01 -1.6322179383789424e+00
    1.1017695140120329e+01 -1.9296601566120390e+00
    1.3877860721990622e+01 -1.8703969412559125e+00
    1.3263573080666914e+01 -1.8479071952684545e+00
    1.3206903168864649e+01 -1.7022333475640199e+00
    1.3041686826763444e+01 -1.7546385652980288e+00
    1.1291228381640858e+01 -1.3767727830870449e+00
    9.7610075472402578e+00 -1.6878826683522048e+00
    9.4754731169523012e+00 -2.1097476269720916e+00
    1.1254626295150896e+01 -1.9508569007655538e+00
    1.0140338256519087e+01 -1.6553982430984513e+00
    1.4435206471244063e+01 -1.3683748896260133e+00
    1.4522451857202228e+01 -1.2915767926505350e+00
    1.3626160625605031e+01 -1.3060431286368084e+00
    1.2850520292183337e+01 -1.3539656119155388e+00
    1.0863795884257460e+01 -1.2188367632625750e+00
    1.1570642549607449e+01 -1.9008632249881894e+00
    8.4416000823059161e+00 -1.9555714406597979e+00
    1.0577023729747877e+01 -2.0208068255694891e+00
    1.0296994142359809e+01 -1.8159017708900997e+00
    1.3625703285307997e+01 -1.3663495286604976e+00
    1.3382326959118432e+01 -1.1687968096767525e+00
    1.2348006428857754e+01 -1.1259590317722949e+00
    1.1116956435944253e+01 -1.1581291692166340e+00
    1.3074170536728513e+01 -1.3923726787846982e+00
    9.6656243849308900e+00 -1.7045041555384794e+00
    8.1347327867608108e+00 -1.7755996907706091e+00
    1.0814456889758027e+01 -1.7479120455580239e+00
    9.2214168876391014e+00 -1.5237071029889337e+00
    1.4807109574463682e+01 -1.3089568791309307e+00
    1.6579869317913953e+01 -1.2343875333224319e+00
    1.4938095077188212e+01 -1.2246687446925826e+00
    1.3806543674155074e+01 -1.2883384622333107e+00
    1.2694615080771586e+01 -1.2134692240481202e+00
    1.1043755291796305e+01 -1.5156276504624846e+00
    8.1505091887421592e+00 -1.6133542147084516e+00
    1.0246194597712977e+01 -1.6847501060307375e+00
    9.3530313547762294e+00 -1.6527987608634844e+00
    1.3112021450390239e+01 -1.3232977607200780e+00
    1.5269890298368090e+01 -1.1712014421008730e+00
    1.4363835320830731e+01 -1.1039693014886265e+00
    1.2941571787989478e+01 -1.1561333706523358e+00
    1.0904773769371550e+01 -1.5632439915900986e+00
    1.1838002425658726e+01 -1.5246993133311673e+00
    1.2689222253573957e+01 -1.7680834155867635e+00
    1.2041717052381438e+01 -1.7517567958511304e+00
    1.0555164824459990e+01 -2.1753089058483148e+00
    1.2795287607553584e+01 -1.7763377860927982e+00
    1.4918462504578846e+01 -1.7388617290079689e+00
    1.3089449599229416e+01 -1.5339776128599261e+00
    1.1421829894049846e+01 -1.5783998153452532e+00
    1.0627459509352681e+01 -1.5676394961191915e+00
    1.2043402031129192e+01 -1.5465263014417072e+00
    1.2275839192702628e+01 -1.6558620376056286e+00
    1.2520800433417332e+01 -1.7627991880306524e+00
    1.1432392140377740e+01 -2.4393999662863979e+00
    1.3669988000135044e+01 -1.8804563656408273e+00
    1.3200445780331618e+01 -1.5992520169101128e+00
    1.2782975408508863e+01 -1.4716979371942440e+00
    1.1533005480268422e+01 -1.5951051065965829e+00
    1.1685349853876760e+01 -1.6146105077964306e+00
    1.5592933797535883e+01 -1.8214559290390686e+00
    1.2947760704310932e+01 -1.7092321386234046e+00
    1.1706219030073454e+01 -1.7172165242662276e+00
    1.0804907943880899e+01 -2.2383564866665746e+00
    1.2584394234083232e+01 -1.8147923549839113e+00
    1.4049040578724544e+01 -1.6700061461517526e+00
    1.4038672011056679e+01 -1.6019957262968911e+00
    1.1424693416053904e+01 -1.5638351871941474e+00
    1.1333732508087811e+01 -1.5870459048353973e+00
    1.4459438361673850e+01 -1.6348221630955713e+00
    1.0931772956577760e+01 -1.5004142003082319e+00
    1.0230171593381495e+01 -1.5845281678561800e+00
    1.1019161874024034e+01 -2.5085902973037859e+00
    1.4099442386649091e+01 -2.0715433322122330e+00
    1.3712200097778208e+01 -1.6790589973337120e+00
    1.3057967782687930e+01 -1.5621398943175955e+00
    1.0843118056577739e+01 -1.5359200927179864e+00
    2.0061115230558737e+01 -2.8354627877159042e+00
    1.9888730883968734e+01 -2.3681513433466947e+00
    1.9711395082465955e+01 -2.5712996682745612e+00
    1.8508727859751716e+01 -1.9846118922630953e+00
    1.8655718668260100e+01 -3.6936782849090943e+00
    2.1368478680240823e+01 -2.3741390292659585e+00
    2.1630077474689521e+01 -3.0576801361081984e+00
    2.0814291283354635e+01 -2.7323604828752464e+00
    2.0610137964695316e+01 -3.0145760323414570e+00
    1.8996680569420121e+01 -3.3989784824699769e+00
    1.8551090055991160e+01 -2.9139012970950069e+00
    1.7285643248903067e+01 -2.9301313554979864e+00
    1.4721940353523095e+01 -2.2074628774103000e+00
    1.9330074832994878e+01 -4.3040301599851496e+00
    1.3039049823074574e+01 -2.2272985629909727e+00
    1.5043444996286510e+01 -2.9266789092387153e+00
    1.5957372279220706e+01 -2.8802576173496846e+00
    1.8528883631707178e+01 -3.4187573699261780e+00
    1.7116219685495352e+01 -2.5699333973546312e+00
    1.8596186292010451e+01 -2.2914970236538861e+00
    1.8316858666679433e+01 -2.4708831566048457e+00
    1.6950893982253138e+01 -1.8438982473673111e+00
    1.6839287312059788e+01 -3.3157464044499494e+00
    1.9864095373267396e+01 -2.1631504959546430e+00
    2.0212277468706699e+01 -2.8192184555523756e+00
    2.0869550690052648e+01 -2.6494676665445831e+00
    1.8027167372149272e+01 -2.7292555426067655e+00
    1.9670862234475241e+01 -3.4365970223799791e+00
    1.9987713795508075e+01 -2.9246452566854857e+00
    1.9745014219609452e+01 -2.9893495165783297e+00
    1.7107764056879532e+01 -2.1372346905081105e+00
    1.9242459602683127e+01 -4.1418018432084054e+00
    1.6010482223435389e+01 -2.2982417712554755e+00
    1.7287952363675199e+01 -3.0924393635195808e+00
    2.0312172765904005e+01 -3.2842111602541229e+00
    2.0327692632352530e+01 -3.6523693417615317e+00
    1.1284700685518608e+01 -1.9185610061575977e+00
    1.1952775685420397e+01 -1.7656603082357727e+00
    1.2932933165498076e+01 -1.8739779431995118e+00
    1.3742276443921211e+01 -1.6136178683864442e+00
    1.1685776282658191e+01 -2.0790908677561881e+00
    1.4771117595241980e+01 -1.8045769042382642e+00
    1.5198252040376914e+01 -2.2034967399025374e+00
    1.3711046708196653e+01 -2.0706258930805856e+00
    1.1858001696800631e+01 -2.0617063180191328e+00
    1.1854961078137492e+01 -2.2168872407568694e+00
    1.2052693900045767e+01 -1.9948195235410628e+00
    1.5424526271822712e+01 -2.2550954597859021e+00
    1.4201661737426619e+01 -1.7334764072317217e+00
    1.2141064674669952e+01 -2.3043591623102877e+00
    1.3785633092361184e+01 -1.8395725232248525e+00
    1.3654817173605432e+01 -2.0281240048510081e+00
    1.4255517424260709e+01 -2.1265058655570837e+00
    1.3092552356592027e+01 -2.3560086761825376e+00
    1.5308712474691069e+01 -2.2398834155608540e+00
    1.7472059151731646e+01 -2.1071018684841185e+00
    1.5512708623598144e+01 -1.9067471809428798e+00
    1.4418615824365961e+01 -1.5491937838948884e+00
    1.2385752651010986e+01 -2.2158230704660564e+00
    1.4913726952219506e+01 -1.7748211462048316e+00
    1.5479020914024503e+01 -2.1338522320915696e+00
    1.7495239549949368e+01 -2.3124455255284868e+00
    1.5857481135382653e+01 -2.3849796733158879e+00
    1.4922553065756279e+01 -2.4005774536580970e+00
    1.7682007296560585e+01 -2.4066375688254542e+00
    1.5938187947706947e+01 -2.1954095602083075e+00
    1.4261467939529616e+01 -1.7700395186702342e+00
    1.3469146164261470e+01 -2.6403835680536609e+00
    1.3692940262262677e+01 -1.9065813933304681e+00
    1.4427584456301675e+01 -2.1763119529376307e+00
    1.5231257291931060e+01 -2.2255285626686594e+00
    1.4754246617419104e+01 -2.4110606197344455e+00
    1.1850463702657386e+01 -1.8873278656273196e+00
    1.1948845340232884e+01 -1.6179238992035361e+00
    1.1948443228650264e+01 -1.6148575391546836e+00
    1.7216400415897155e+01 -2.0238976520506724e+00
    1.1349964977937560e+01 -2.4867674554153778e+00
    1.4770563915587472e+01 -2.0685557504128562e+00
    1.5414273008011905e+01 -1.9723688952922669e+00
    1.5147649666316093e+01 -1.9173689754320347e+00
    1.2868206145205839e+01 -1.9501296035024152e+00
    1.2500975889462303e+01 -1.9039563636825907e+00
    1.3408386017414886e+01 -1.7766415600989123e+00
    1.2559836370508775e+01 -1.6875702382553717e+00
    1.7071173704930708e+01 -2.1713482697426101e+00
    1.1685837148788808e+01 -2.5766092412914650e+00
    1.5949583896991159e+01 -2.2497393253358395e+00
    1.4273241557501324e+01 -1.8107470353903319e+00
    1.4858425787779010e+01 -1.8329580390321172e+00
    1.2625163244437534e+01 -1.8987827583868069e+00
    1.3833929034768039e+01 -2.1470067395882784e+00
    1.6972696405370929e+01 -2.0774348532942399e+00
    1.6174618205511599e+01 -1.9588502476018899e+00
    1.7433610795308052e+01 -2.0186886815345848e+00
    1.1438510827519849e+01 -2.5162531873217575e+00
    1.3357970449480623e+01 -1.9405498018383738e+00
    1.6876352510771312e+01 -2.2079260767019733e+00
    1.6985258444326995e+01 -2.1848080754605204e+00
    1.4041062647582438e+01 -2.1775096886474712e+00
    1.1787975541143922e+01 -1.9010790101945676e+00
    1.4966989289504177e+01 -1.9026557101953494e+00
    1.5625442080548577e+01 -1.9669520512518506e+00
    1.6978838600897078e+01 -2.1481629867486824e+00
    1.2027941841596752e+01 -2.6892566411649628e+00
    1.3043108789489532e+01 -2.0930645754101502e+00
    1.4698572487631020e+01 -2.0795001341338240e+00
    1.4359993952141487e+01 -1.9920753385712209e+00
    1.1961421429397365e+01 -1.9635144872464152e+00
    1.3190126278057276e+01 -1.5170752314772380e+00
    1.6113644173404637e+01 -1.4954776622463650e+00
    1.5186982864578502e+01 -1.7300483714486008e+00
    1.0215564759057708e+01 -1.4531428733310969e+00
    1.1188802501813997e+01 -2.3443425391540424e+00
    1.3252422025782961e+01 -1.7109308285304425e+00
    1.4299364119581918e+01 -1.6302428489699958e+00
    1.3853516538635596e+01 -1.5590223675560624e+00
    1.2540770134347694e+01 -1.5498309501989489e+00
    1.2459694961993003e+01 -1.4420258997509121e+00
    1.5704120299710706e+01 -1.4246055911095210e+00
    1.0624687361325590e+01 -1.4923979967931402e+00
    9.1122298451328163e+00 -1.6368452928459631e+00
    1.1202705214101973e+01 -2.7425614361253281e+00
    1.2239886160040470e+01 -1.7432439720483788e+00
    1.3475038142461958e+01 -1.5333888796406463e+00
    1.3613825539057375e+01 -1.4848034056006520e+00
    1.2509670744573269e+01 -1.5323839401769066e+00
    1.1593511286510457e+01 -1.5240792547123538e+00
    1.6995911414782515e+01 -1.6559723151495165e+00
    1.5638869849083779e+01 -1.9231422485144347e+00
    9.8413530343693498e+00 -1.5383009975921729e+00
    1.1601034129743258e+01 -2.5948222408961508e+00
    1.3433652708028411e+01 -1.7556107154286964e+00
    1.4580467128387467e+01 -1.7145590504692778e+00
    1.4492264965402327e+01 -1.6803793931569706e+00
    1.1470874559484756e+01 -1.6292096419286601e+00
    1.1153554315512434e+01 -1.3988765600136981e+00
    1.6272206385512003e+01 -1.4574750789139765e+00
    9.4451428844045537e+00 -1.4439651595775511e+00
    8.3871192658759242e+00 -1.6591803055299201e+00
    1.1201960713745054e+01 -2.9319868089982424e+00
    1.4168419725789139e+01 -2.0594695345464715e+00
    1.3455299401431329e+01 -1.5984971358922808e+00
    1.3339192865306412e+01 -1.5273948553273358e+00
    1.1053469086301584e+01 -1.5097262314834607e+00</input_scale>
  <output_scale>
    5.2631578947368418e-01 4.9999999999999994e-01 5.2631578947368418e-01
    4.9999999999999994e-01 5.2631578947368418e-01 4.9999999999999994e-01
    5.2631578947368418e-01 4.9999999999999994e-01 5.2631578947368418e-01
    4.9999999999999994e-01 5.2631578947368418e-01 4.9999999999999994e-01
    5.2631578947368418e-01 4.9999999999999994e-01 5.2631578947368418e-01
    4.9999999999999994e-01 5.2631578947368418e-01 4.9999999999999994e-01
    5.2631578947368418e-01 4.9999999999999994e-01 5.2631578947368418e-01
    4.9999999999999994e-01 5.2631578947368418e-01 4.9999999999999994e-01
    5.2631578947368418e-01 4.9999999999999994e-01 5.2631578947368418e-01
    4.9999999999999994e-01 5.2631578947368418e-01 4.9999999999999994e-01
    5.2631578947368418e-01 4.9999999999999994e-01 5.2631578947368418e-01
    4.9999999999999994e-01 5.2631578947368418e-01 4.9999999999999994e-01
    5.2631578947368418e-01 4.9999999999999994e-01 5.2631578947368418e-01
    4.9999999999999994e-01 5.2631578947368418e-01 4.9999999999999994e-01
    5.2631578947368418e-01 4.9999999999999994e-01 5.2631578947368418e-01
    4.9999999999999994e-01 5.2631578947368418e-01 4.9999999999999994e-01
    5.2631578947368418e-01 4.9999999999999994e-01 5.2631578947368418e-01
    4.9999999999999994e-01</output_scale>
  <inv_output_scale>
    1.8999999999999999e+00 -9.4999999999999996e-01
    1.8999999999999999e+00 -9.4999999999999996e-01
    1.8999999999999999e+00 -9.4999999999999996e-01
    1.8999999999999999e+00 -9.4999999999999996e-01
    1.8999999999999999e+00 -9.4999999999999996e-01
    1.8999999999999999e+00 -9.4999999999999996e-01
    1.8999999999999999e+00 -9.4999999999999996e-01
    1.8999999999999999e+00 -9.4999999999999996e-01
    1.8999999999999999e+00 -9.4999999999999996e-01
    1.8999999999999999e+00 -9.4999999999999996e-01
    1.8999999999999999e+00 -9.4999999999999996e-01
    1.8999999999999999e+00 -9.4999999999999996e-01
    1.8999999999999999e+00 -9.4999999999999996e-01
    1.8999999999999999e+00 -9.4999999999999996e-01
    1.8999999999999999e+00 -9.4999999999999996e-01
    1.8999999999999999e+00 -9.4999999999999996e-01
    1.8999999999999999e+00 -9.4999999999999996e-01
    1.8999999999999999e+00 -9.4999999999999996e-01
    1.8999999999999999e+00 -9.4999999999999996e-01
    1.8999999999999999e+00 -9.4999999999999996e-01
    1.8999999999999999e+00 -9.4999999999999996e-01
    1.8999999999999999e+00 -9.4999999999999996e-01
    1.8999999999999999e+00 -9.4999999999999996e-01
    1.8999999999999999e+00 -9.4999999999999996e-01
    1.8999999999999999e+00 -9.4999999999999996e-01
    1.8999999999999999e+00 -9.4999999999999996e-01</inv_output_scale>
  <weights>
    <_>
      1.6943366096552101e-01 1.1558496836910680e-01
      -7.2209743906233304e-02 -7.7811320649335367e-02
      -5.4044566950630583e-02 1.6542933659419254e-01
      5.3896626132535798e-03 -1.3201846862133332e-01
      1.3730003978354527e-01 -3.3174840297210558e-03
      -9.0267679497461922e-02 1.5651272832868296e-02
      1.5966374750652781e-02 -2.0014880492185555e-03
      -8.3421297386784929e-02 1.7968474735885992e-01
      -6.2342338589037611e-03 7.6797169330857382e-02
      2.4351197915037556e-01 1.4273653913587484e-02
      2.0653449346334753e-02 1.1665258106836254e-01
      -8.9361593640757894e-02 4.4741937310133727e-02
      -3.0911644620523860e-02 -2.2485453193159748e-02
      1.1045043525686146e-01 5.0654079418041689e-02
      1.4298355084809221e-02 9.1535428611874789e-02
      -8.6743722157833644e-02 -1.2353199625846206e-01
      -5.4946106762535279e-02 -3.0814665227359129e-03
      1.4963348741933319e-03 -1.2878774621740879e-01
      5.3287772189031142e-02 4.8678910428143457e-02
      1.8544509126556120e-03 -2.3377753334219653e-02
      2.6718786315243465e-01 2.9432015140484491e-02
      -3.1079097954464868e-02 1.6804120439184325e-03
      5.9207404884594743e-02 1.0350508751376622e-01
      1.0061950480832740e-01 -3.6675440681275068e-02
      -4.6552371576812732e-02 7.0685697168870840e-02
      7.3549557303554822e-02 -9.3388548340220034e-02
      -4.1020389588052241e-03 -7.5178623298148728e-02
      -2.4169896145181821e-02 -3.4313402605869466e-02
      1.0701654116523283e-01 1.4973658887409077e-04
      -1.8107699006703662e-01 -1.1946792399432564e-01
      -7.7445331283131733e-02 -5.7188250483621007e-02
      4.9897382881700363e-02 1.2732160232283399e-01
      -6.0796872951343985e-02 -3.9337382706146617e-02
      -1.5893591652101993e-01 -1.9010218549758567e-01
      -7.4853126025620720e-02 -1.8865746438247286e-01
      1.1323597823121294e-01 -5.1799381531699031e-02
      1.1248791836633028e-01 -2.0854079791326161e-01
      1.3013317188419951e-01 2.6887006178346168e-01
      7.1762060856258761e-02 -1.2792366296711427e-01
      1.8906216978816198e-02 1.0539109819680280e-01
      -6.2839816595598147e-02 6.0483394532712918e-02
      -1.2637338296112230e-01 -4.2275527131826092e-02
      -7.2215778761528168e-02 3.6734540906239066e-02
      6.9807915592293310e-02 2.2688499230861262e-01
      -1.9404966567450638e-01 -2.8287492837456791e-03
      1.2959341114594602e-01 -8.4058550825509018e-02
      2.4305880266058375e-02 -7.9931294201451314e-02
      -2.0855458536019986e-02 2.0205220603357865e-01
      2.1571666782275654e-02 -6.7824849538902249e-02
      1.7094201634151657e-01 6.2538893413756333e-02
      5.1996270595801003e-02 1.2425411983214103e-01
      -8.8632960385488610e-02 -1.3857336265814660e-01
      -4.0220672179859772e-02 7.0147432617508568e-02
      7.6446439943886432e-02 1.3036223963549604e-01
      2.1211126479128387e-01 -6.9980198782117947e-02
      -2.3155192752143849e-01 3.7619960983254812e-02
      1.4611446956440677e-01 -1.4973073688625547e-02
      1.6649354785601070e-01 8.1230263287529442e-02
      -3.7331033987174161e-02 -1.8424232750299663e-01
      1.4164544269176604e-01 -1.5043296478027693e-02
      -4.1181730133329876e-03 2.4731789127683032e-04
      -2.6463682565794518e-02 7.0533196413412422e-02
      1.3550940308018813e-02 -7.8604549239073132e-02
      1.0357612295452116e-01 1.8538126903385649e-01
      -1.4939787605689101e-02 -1.0009178106769058e-01
      1.3913030992172332e-01 2.2805090892406282e-01
      1.3828606298074120e-01 1.4095415244267063e-02
      -7.9535938716103691e-02 2.0091259150775585e-03
      -6.3274677406145896e-02 2.8212060004718331e-01
      -5.4318537583148772e-02 -1.4678682459699513e-01
      1.2052858721720910e-02 -1.3831018197184761e-01
      6.3376252249476892e-02 -9.2763897337212381e-02
      -1.0572008873588369e-01 -4.8016209441874257e-02
      -5.6549552520062309e-02 1.6549881065357247e-01
      -3.6440816630150613e-02 -1.0397834430652757e-01
      1.4472748535692326e-01 -3.9764454766063384e-02
      3.4864785167185865e-02 1.0574375593375351e-01
      1.8745347454511441e-01 -3.4888856672212332e-01
      7.8742863247408687e-02 1.0517864024008396e-01
      -9.0907026096942178e-02 -1.2017876824376504e-01
      2.0150627527974030e-01 -2.5500494547163275e-02
      1.6002702381691469e-01 -1.5997873060496465e-02
      1.2573203987985512e-01 -5.8429258480367525e-03
      7.2353831743758902e-03 1.4781102553573018e-02
      9.3204137645755955e-02 1.5530908680259598e-02
      -8.3754385192138278e-02 -1.0125538898111325e-01
      -2.0983351625785567e-03 2.6947310910752325e-03
      6.6652229881389802e-02 1.6322692185583236e-02
      -9.3144082735152303e-02 2.8374870620901431e-02
      1.2669474884261198e-01 2.2438826855028129e-01
      -1.9118515788929491e-01 -1.0675476181119016e-01
      3.0582420257645854e-01 -1.5289685453100177e-01
      -1.9121838792426127e-01 -1.8021796364040721e-01
      1.6883199067506874e-01 -3.6180418278257423e-02
      -2.6090085482067449e-01 3.5100009909639622e-02
      -4.2041607373625500e-01 -8.9240401793945337e-02
      -9.6880334299599524e-02 -5.0369164983172815e-02
      3.0271551794496983e-02 -1.4218133034848748e-02
      -6.2301130985067489e-02 -2.5405538607302830e-01
      2.4405144118575753e-01 2.9337281940308962e-02
      -2.0943246750237463e-01 -1.5638771890184844e-01
      7.5757218827019870e-02 -9.9630155055670119e-02
      -2.1206737220904662e-02 7.9080010760681726e-04
      1.5683734392520704e-01 6.6039148788833199e-02
      1.4682756917164325e-01 2.3863959220310868e-01
      2.9463751492497955e-02 -1.4364239938636830e-01
      -8.6915089282487618e-02 -8.5949451648922592e-02
      -8.3801816747236774e-02 -1.5467628446417009e-01
      -9.3642601687272953e-02 -3.2005995382335117e-02
      -1.6004378494856527e-02 1.0122905098857175e-01
      2.3232537412727627e-01 -2.5019925149952893e-01
      4.3366051719690171e-02 1.9619129307078062e-01
      3.2601040892155458e-01 2.4673501748789700e-01
      2.2388230457780534e-01 4.0209281381485396e-01
      -1.4573925447993433e-01 -6.9086192182890291e-02
      2.0758026543410352e-01 1.0799008153747629e-01
      -4.0101903323380228e-01 -2.5272163760809763e-01
      1.5046789882027387e-01 -9.0814891550433340e-03
      -2.5682252933039718e-02 2.3067042765120917e-02
      -1.3234734744757834e-01 -3.6053610379484090e-02
      -1.0594599962595523e-01 5.5581822418114234e-02
      -1.0221736694616117e-01 6.1767067927013088e-03
      -2.8762070302979825e-01 -1.3137873917284475e-02
      1.6705687275490808e-01 -5.9866605857504182e-02
      -1.2791233519251460e-01 -2.6076478125264844e-02
      -1.0734866631286651e-01 -6.8647476255875542e-02
      -2.7123608369801594e-01 -3.3860589391060375e-01
      2.9336953753341288e-01 4.3527365261076756e-02
      1.8840405481622374e-01 -2.1447968454117686e-01
      1.9831386361326495e-01 3.3898149653717202e-01
      9.7234629498156616e-02 -2.4730878634003087e-01
      -1.1344471521931036e-01 -2.6763464450088659e-01
      4.9130127186843980e-02 5.4217546090568426e-02
      1.5182832185115078e-01 1.3930072844552530e-01
      -3.7526240437321828e-01 -1.0498333553728932e-01
      2.4338568363179363e-02 2.3362365142770047e-01
      5.1652627197271515e-03 -6.9991979973154275e-02
      3.9005520722300457e-02 1.5758920353121306e-01
      4.1601544726166548e-02 3.1106731710104710e-02
      9.7697642404745391e-02 7.2330845214842635e-02
      7.9104632047452147e-02 -1.0297355707927543e-01
      2.1449503802989531e-01 4.6883494627987930e-02
      -1.4188821829718204e-01 -1.1261445850923281e-01
      1.5550775959560620e-01 -2.0920517816039827e-01
      8.2448031917789669e-02 7.2931789128030708e-02
      3.1811333863026155e-02 -8.1341339956506539e-02
      1.5426043437296424e-01 -1.0174819294579091e-01
      -3.9762195551398344e-02 -1.8680924793765777e-02
      7.7762738230419223e-02 1.6847077303415370e-01
      -1.1878494539645490e-01 3.8974455305227107e-01
      1.6937759958398252e-01 -1.2018822330263128e-01
      3.6283377717437761e-02 -2.7487070234599068e-02
      2.1993306729887946e-02 7.1006090717156536e-02
      -5.4592412240769418e-02 6.7032850464438326e-02
      -4.4741286202815173e-02 1.5967102388114110e-01
      -5.5086459067511133e-02 -2.1423256684634830e-02
      1.5115322962665570e-01 -1.9091308146195116e-01
      -3.5406795247380604e-03 -1.4475270426505665e-01
      9.7723223248398730e-02 -5.6202815817815985e-02
      8.5982944183118817e-02 -1.9189499735257221e-01
      -1.9941436407030701e-02 -5.1311350779905680e-02
      1.3397961515449372e-01 -4.3927580321135040e-01
      7.1080401265399565e-02 -1.9714420891050452e-01
      -7.2546054145750119e-02 4.5332424948561911e-01
      1.0336787815611964e-04 -8.2845163732836735e-02
      2.6107971481013881e-01 9.9681126452979177e-02
      -2.4898073307132088e-01 9.6942244509514525e-02
      1.7846688340722797e-01 -2.7995920516658893e-02
      -1.4906603455211212e-01 -7.6385260402002414e-02
      1.0305083054238302e-01 4.2349887283852611e-02
      -9.5697237121831924e-02 -2.7887456879685851e-01
      1.9634560733918330e-01 2.3017350346658716e-01
      3.5328631768599031e-02 -5.8115163452763380e-02
      1.3694376996683874e-01 2.5343286546524724e-01
      3.7611671742327346e-01 8.7322447867443281e-02
      -7.9549195446355109e-02 1.2197806475595351e-01
      -3.5006674119427683e-01 -7.3744752549991882e-02
      -4.3599495399545337e-04 2.6190113339929919e-02
      -1.8134011896469998e-01 2.4594038690391473e-03
      5.8108523380185656e-02 5.8241024640946618e-02
      4.9681170324143341e-02 -1.6758596570676529e-01
      -2.4085198526427670e-01 3.6643247918738867e-02
      2.4845241452334121e-01 -3.1229409921040060e-02
      9.8794297974815204e-02 1.0936598681580843e-01
      -1.7615031404976153e-01 6.5762659232848075e-02
      1.9482598994406941e-01 2.5008628822692808e-01
      -1.7378271970430445e-01 -1.6830100701474510e-01
      -9.2591106552351241e-02 -5.0338734510063611e-03
      -3.6323463910972551e-03 2.5785988001397847e-01
      1.1208306692871171e-01 -3.5999321546804813e-01
      -9.3732081152601898e-02 1.2661263548790050e-01
      -3.3712718414279301e-02 -9.9619419983365404e-02
      1.1277028345339965e-01 2.8756622903372470e-01
      -2.7120763178836099e-01 2.1112911426586298e-01
      -6.1720390106503788e-03 1.0299884087916003e-01
      3.8351062092705009e-02 1.9091845103982727e-01
      1.3963044349763018e-01 7.9704036280842216e-02
      2.4019042787207862e-01 -2.8949674707672979e-01
      9.7270962390258772e-02 1.7584435943857360e-01
      3.5511819236121161e-03 -6.0410777633478439e-03
      1.4762386912505554e-01 -1.6545070934617692e-01
      1.8712238462757080e-01 6.9698913968456955e-02
      -1.1211333118537377e-01 6.6294410678378020e-03
      9.1982995446005439e-02 -7.6811529771119630e-02
      -3.1780959535889483e-02 4.0811162279345888e-03
      -1.3936665499665227e-01 -3.6063869320475500e-01
      -3.6374617859590459e-02 -1.9881303640548445e-01
      -2.9793225793863337e-01 -3.2675588658756544e-01
      4.0267434702596409e-02 -1.6741003031517396e-01
      8.3120886958620743e-02 7.3569363262355858e-02
      2.1879869142007136e-01 -2.3502703675639860e-02
      -5.2192645055066732e-02 1.3770454007977839e-02
      -1.9546983777798807e-01 1.1875366386051953e-01
      3.7052532900004882e-02 -5.2511096175161656e-02
      -3.5010779892432436e-01 -4.2478890562717636e-01
      -8.5017031063862755e-02 -3.5438091834705532e-02
      1.2742155335836544e-01 -2.9301805731428317e-02
      -1.5093476013708854e-01 4.9194631416945710e-02
      1.4942089884486748e-01 2.3057028737221624e-01
      6.9062995820700315e-02 7.4809428734655722e-02
      -2.1404003472508079e-01 -2.3072901314510938e-01
      -1.0958194342090907e-01 6.4739952118138558e-02
      -5.0439501789958111e-02 -1.2540998013579244e-01
      4.7137061401308432e-02 -2.4112973846415070e-01
      1.0667218207432076e-01 -2.9889704108055848e-01
      8.9042351143804752e-02 3.7279653119253398e-01
      -5.8117160632662854e-02 6.0569636303018155e-02
      3.2958115606790145e-01 4.2415973505877796e-01
      2.3963988220280100e-01 -6.3904856848524580e-02
      2.9792475832213838e-02 1.1962446518000504e-01
      1.5535432229106935e-01 -2.6835080065253780e-01
      -7.3082279283532406e-02 2.0968712611248472e-01
      1.3096289178060677e-01 -9.9457820750755016e-02
      1.4238544727876479e-01 -1.0891693995511341e-02
      2.1811161376502816e-01 1.8790253474039709e-01
      1.7164989764094904e-02 7.2237345455400226e-02
      2.5444943001502418e-01 -4.0968210766374996e-02
      -5.6969762255707969e-02 1.9690847458145386e-01
      1.3297290602498563e-01 -1.7682555930435790e-02
      8.7359392623795287e-02 6.5512661258132390e-02
      1.7277802000305129e-01 8.1373755944219542e-02
      -1.7820561613547783e-01 2.3928918328234006e-02
      -7.2476989599603067e-02 4.0444262267698060e-02
      8.1975836780415146e-02 1.3879550126828244e-01
      -3.8905128868137651e-01 -1.3534264598831189e-01
      -2.5595699457112997e-01 -1.1847436743020900e-01
      -5.6997997692296937e-02 -2.0828782298112372e-02
      -1.4743002901353200e-01 -1.9508495200387027e-01
      -1.6941271237587821e-01 1.8633276843160740e-01
      3.9032175010102710e-01 -5.2259187948276595e-02
      -2.1260372916360015e-01 9.3122687873653812e-02
      5.7388344623406383e-02 -5.1594924643775892e-03
      -1.2670746801861349e-01 -6.0127359504110182e-02
      1.3500629460973412e-01 -1.3723445718173649e-01
      -6.4325110034550237e-03 1.1754684168618559e-01
      1.5777110474981193e-01 3.2444818570776289e-03
      1.7160530582562483e-01 9.8792381842240762e-02
      -1.5538087747972831e-01 1.8746139511196319e-03
      3.4565630068461757e-02 1.7365622339807854e-01
      4.8149373489449927e-02 1.2220610865476523e-03
      1.8093895002758187e-01 9.4365122266638846e-02
      2.7271813052553462e-01 2.1020637247689216e-04
      3.7519026733573504e-02 -1.6864536472439556e-02
      2.5591022480910205e-03 2.6613199315780056e-01
      6.6140053600551627e-02 -1.2287487937860934e-02
      1.5275567755934829e-02 1.6040979502278593e-01
      -1.6141998608905886e-01 -3.4096145665135885e-01
      -2.3263130766473375e-01 1.1808619240753514e-01
      -9.0176709826205719e-03 2.4211732640742414e-01
      -6.1269673830973537e-02 -3.1459464469578091e-01
      -1.2713733851828418e-01 -1.3924486590466253e-01
      -1.9703820106109618e-01 -2.2956242202581932e-02
      6.0314869605047727e-02 -4.9069208115283480e-02
      1.8477090426822492e-02 1.2665521585888942e-01
      -1.3533527234709941e-01 -6.9891944089471150e-02
      3.6390427180779906e-03 -1.6275702491138555e-01
      -3.2593930780928466e-03 4.0391223579328853e-02
      -1.4846486927969405e-01 -3.0870498267241525e-01
      7.5211705643048479e-02 6.3607590758416085e-02
      1.4671944122944316e-01 -4.9541205176092673e-02
      -6.0893646361855749e-02 1.9379886125787243e-01
      6.5346585965872350e-03 -6.7531855341175867e-02
      2.5092918234560981e-02 1.3593403607988849e-01
      6.4616145993526518e-03 -1.1329210962088367e-01
      1.2848296738059325e-01 4.5871826670970089e-02
      -1.4431366270471546e-01 3.7784878852926057e-02
      -2.1558342584428372e-01 2.2072861249426975e-01
      1.3272200574791121e-01 -2.3224168160593188e-02
      -3.8952276129296214e-02 -1.7912549770576415e-02
      -2.0515040900494969e-01 1.9337744430496875e-01
      5.1797859679289973e-02 7.5010926963072641e-02
      3.5851065900800026e-02 1.4007902974177075e-01
      -5.5111489003208260e-02 -1.7120724380152383e-01
      3.3197831701925910e-02 -1.0719808379568711e-01
      9.0505277190357517e-02 -7.2118352932033170e-02
      -2.9798535227401092e-02 1.4707854006153789e-01
      2.9902618439509288e-01 1.2105275813067526e-01
      5.6892374571986030e-02 2.2938912426108929e-01
      1.8509932607998003e-01 1.7238771901472907e-01
      -2.5361856780521552e-01 -1.4205432647116553e-01
      1.7745671980892894e-01 1.2054117338602349e-01
      -1.4330470120489452e-01 -3.0421428537840700e-01
      1.5988315825467614e-02 2.6378292616127924e-01
      -8.6883368616823015e-03 4.1072564942709264e-02
      3.0625475000774297e-02 1.2110208584679527e-01
      -3.2290732407593979e-03 3.6829430219106583e-02
      3.2942972273146583e-02 -1.0584186331567146e-01
      -1.7522682577166571e-01 -4.3672994568456014e-01
      -9.6734347594869804e-02 -3.2509134330925099e-01
      1.4835622111595381e-01 -3.1060970222674331e-02
      -1.1788606408943371e-02 -3.5208361674404681e-01
      -1.9434536784739742e-01 1.9246057192101362e-01
      4.2362579039494287e-02 -1.8444375813294950e-01
      1.1220649516971183e-01 1.1489756307516047e-01
      1.9439818643554335e-01 -1.3700692082030705e-01
      -1.9634821123298279e-01 1.5420755849279301e-02
      -7.8961296529525091e-02 -1.1376172645366926e-04
      -1.9821904124841089e-01 5.6717350877930776e-02
      -8.1057340018529767e-02 -1.3803750593117958e-01
      2.2566876192796118e-01 2.8625965971564160e-01
      -1.8675401156216179e-01 -9.1133889571058876e-02
      3.3538393435547031e-01 6.5010737118169792e-02
      -6.1205539249677990e-02 5.9637069066300480e-02
      1.5658714457253287e-01 1.2294929209314225e-01
      -1.0616638373649108e-01 1.5512656004299769e-01
      1.7732535764653232e-01 -1.3036441133020235e-02
      -1.8574425348068804e-01 -2.4202872031732664e-01
      1.0800937103842896e-01 -1.0513270956758668e-01
      1.0785203774464931e-01 2.8690396912707278e-02
      -8.0610563802717305e-02 1.4287105186035401e-01
      1.7251615897563696e-01 1.4927303156174090e-01
      -1.9029863373349964e-01 1.1014883974713734e-01
      2.5752632390731157e-02 2.7968446317544752e-02
      -3.5315865413469691e-02 1.8133515094959216e-01
      1.7414951397879175e-01 -9.6404603574136272e-02
      3.4167271527894405e-01 2.8802308506095975e-01
      3.2126600278320046e-02 -3.3412253227772920e-01
      -2.2622091922975398e-02 5.9897922310465625e-02
      1.1537994098851086e-01 6.4868836301828093e-03
      -1.2268242008613002e-01 1.4606269816428358e-01
      -6.6263950725969592e-02 1.9631098724963189e-01
      4.2393550134005573e-02 -6.3027037530842239e-02
      1.1426971420602555e-01 -8.3381864617281476e-02
      2.9046888831583604e-02 -5.8687807178001081e-02
      -1.3340795034751851e-01 -5.3324533940380121e-02
      3.5106848441111921e-01 -1.9200946520460348e-02
      2.6332965562083527e-01 1.0679884057517422e-01
      -7.4726811020019213e-02 2.8636868025952050e-01
      3.3685971557930761e-01 1.4707231580415359e-01
      -1.3649042166160388e-01 1.2471081580445990e-01
      3.7139163355276716e-01 2.0409584133111941e-01
      -4.6299843952845816e-02 1.8519348349154752e-02
      8.3085719438275252e-02 -7.6241073912794444e-02
      1.4374011158123139e-02 3.3161077590805710e-03
      3.1099866957261779e-01 -2.7281547058188714e-02
      1.5166271029633885e-01 1.5629077843442976e-01
      -6.0051746345851385e-02 -1.5292862327222179e-01
      3.6805002641196427e-01 2.5316264177677977e-01
      -1.5264993928863987e-02 -3.2706887083255731e-01
      3.7384317520787969e-02 -4.8697507453382728e-02
      1.0071280954573870e-01 -3.5541370178942400e-01
      1.9348095966288703e-01 -2.8114995461441933e-01
      8.4760591440592892e-02 -5.7632258434596173e-01
      6.6975911599659781e-03 2.9573246964975675e-01
      5.6675304827377671e-01 1.7677443192632597e-01
      -2.5963521035493355e-02 4.0248886393182443e-02
      2.0764651719031835e-01 -2.9688698548562242e-01
      -1.6243802222700818e-01 1.7329541216747020e-02
      -2.3181527930810714e-01 -1.4645654371476124e-01
      9.1323675498478543e-02 -2.0679749155991248e-01
      3.9913591107545422e-02 2.2781331933971034e-02
      -2.4689714611327482e-01 1.5744313630050327e-01
      -3.6105224051468238e-02 -1.8581733110668239e-01
      -9.4079001787019653e-02 -3.7377279318275801e-02
      -2.6717399935432334e-01 -1.8658123891611703e-01
      1.0835253159544390e-01 1.7969524853337637e-01
      1.7958600557182326e-02 1.5495181419437273e-02
      1.4228094744510514e-01 -2.4778774476346199e-01
      1.0805536180522057e-01 3.2403992208483251e-02
      2.2901153770614077e-01 4.5800526505252397e-02
      4.9782579616032892e-02 -1.2876535039906559e-01
      3.6747935355111454e-03 6.4575538165388913e-02
      -1.6968278265683878e-01 -4.0746057586920681e-02
      1.0811145700458118e-01 -2.4311699877056316e-02
      -2.3922764955756623e-01 -2.7156896390135765e-01
      -4.9952519488187007e-03 -3.3786015646651085e-01
      4.3557480357604783e-03 1.6487521199113372e-01
      1.0355857271834991e-01 -2.7170062273834908e-02
      1.2482022239429716e-01 -4.9113541206927069e-02
      5.8491617180844183e-02 -1.9554135545888299e-01
      2.1708526413282478e-01 1.1191759754497613e-01
      -2.3593861657957061e-02 -1.0447630476947703e-01
      2.7719700755059923e-01 1.2046884581032216e-01
      -1.0730810701852730e-01 -1.2075874116245396e-01
      2.4064785324348203e-02 -1.6057798986224930e-02
      7.6668305550941993e-02 -4.4207083119946686e-02
      8.3809928922375265e-02 -1.5291884310968490e-01
      1.3544995584813929e-01 8.0439375711920280e-02
      2.8489380251882063e-01 -9.9537783327598911e-02
      -4.5934342542866533e-02 2.1420653064148024e-01
      4.6672551705234266e-02 -7.1409993199052071e-02
      1.2150882351085986e-01 7.2301838418190684e-02
      -8.1732044640485044e-02 1.7537621607182176e-02
      4.2357089526659375e-01 3.4617588578963759e-01
      -2.8447170998688298e-01 -3.8454599614840941e-02
      1.7811696209132330e-01 -1.6047048998267074e-02
      -5.0255074275188424e-02 -8.5017611199561416e-02
      1.8826687952781590e-01 -1.3527798859966972e-01
      -2.2429910116762368e-02 8.6279267503853091e-02
      5.6995302431134529e-02 -6.8125835318206790e-02
      1.0725218666377499e-01 6.7052247129173112e-02
      2.0367155897891076e-01 6.6539826453605261e-02
      1.4887023782922232e-01 -1.4257091565907370e-01
      -1.4860376009831136e-01 -2.5710746881918023e-01
      -2.3914745198111312e-01 1.8993616248226583e-01
      4.3171239491962815e-01 -3.9404291283179231e-02
      -5.7143026543872719e-03 1.1931637669029875e-01
      -1.6253060927256824e-01 -3.6911587047285387e-02
      7.8612206809401716e-02 3.0794118477900351e-01
      -3.8378542240613406e-02 -3.1356954102337081e-01
      -1.6753789198668351e-01 -1.7019898442898315e-01
      -4.9243780861422587e-02 -2.0095251203838291e-01
      3.9319576365259290e-02 -5.8441145223285564e-02
      5.6628937571214372e-02 9.7115099190180992e-02
      1.5948326248367128e-01 2.0564773704103267e-01
      1.9511631563785695e-01 -1.2162444725920458e-01
      -2.3900070789506339e-01 2.9923292257841370e-02
      2.2744848093452719e-01 3.7997686204124057e-03
      -4.3668809150867998e-03 -1.2806713035907177e-01
      8.9815456950045738e-02 -1.5154969654670322e-01
      -5.9188241260284116e-02 -1.0987839003856963e-01
      1.1632597220776790e-01 -1.3192619750669892e-02
      -1.5435069917802230e-01 -3.8523825689234320e-02
      3.0201490288174898e-01 3.5751537426680313e-01
      -1.4952714533661152e-01 -5.5326435946433350e-01
      -8.5826790554478977e-02 1.6770616633957997e-01
      -1.4636384412899828e-01 -2.3552551957251719e-01
      1.1426062123411215e-01 -1.6643717779130271e-01
      3.0519067749343997e-02 -1.8377321923578246e-01
      -2.3050469656302991e-01 -1.5107886970235776e-01
      6.6774907159554656e-02 9.0296787263679221e-02
      1.8790865661215345e-01 -2.7190108030852214e-02
      1.9466821227517861e-01 -8.8189130142688449e-02
      -1.0608756127688560e-02 -3.0995326385827709e-01
      -7.2006111896060626e-02 -6.3931119994163664e-03
      1.6559121914782433e-02 -9.4411081963994670e-02
      -9.9980239261194828e-02 1.3503487633069425e-01
      3.0971206096265146e-02 1.7509518245233457e-01
      1.3091348262755671e-02 -5.5365617830280038e-02
      1.4863350347283349e-02 -1.6320329913651624e-01
      -1.3740703970266349e-01 7.9669476111989393e-02
      1.6052102122402326e-01 -5.1918402285406583e-02
      7.3663567426394502e-02 -1.0277473875160352e-01
      5.7317229248385851e-02 2.2557704530417202e-01
      7.7045435430940612e-02 2.1102034987843388e-01
      1.4884225186730471e-01 -1.6151482391048955e-02
      9.8142415793544130e-02 2.0443681006606587e-01
      -9.2835287632474353e-02 -1.9399746405768617e-01
      -1.1931173743886449e-01 -6.5407994562849167e-02
      -1.6524337212426868e-01 -1.9066351292928282e-01
      7.6565795817013782e-02 -4.0244220127523961e-02
      -6.0116735091491930e-02 6.9490967972610646e-02
      1.1911812502819241e-01 -1.9944910714569192e-01
      -1.7804491556387230e-02 2.6846218298469665e-01
      -7.0173562056982377e-03 -1.0758684249925862e-01
      -1.2525755298315985e-01 1.4012347567465974e-01
      -6.1445393731714801e-02 -8.6486120494750088e-02
      8.1429872028743286e-02 -1.1984699430307295e-01
      -3.2383398417673036e-02 2.4008841808170120e-01
      -1.2971879583734985e-01 -9.4518642586818385e-02
      -1.9609683713977924e-01 -1.9679059198867137e-02
      4.2343207604322963e-01 1.5257480049204120e-01
      6.4312582282778752e-02 2.4339418428298379e-01
      1.2424974450387066e-01 -2.7158145155059470e-02
      1.6695519626064953e-01 -2.4361970639753922e-01
      -1.1240424333097693e-01 -1.3088867242635349e-01
      3.2852674068099524e-02 -1.5337439339778261e-01
      8.7480867866841505e-02 1.3262974980767478e-01
      -3.7801441619233205e-02 -4.0976294383475116e-02
      -1.1673335926438642e-01 2.0996975744293861e-01
      -2.5437784387906637e-01 2.0496635208379660e-01
      7.0098163637692987e-02 -1.4886524506654283e-02
      -3.2162711948980398e-02 -1.4430693263240765e-01
      -2.5907118270694918e-01 -2.0639519032093259e-01
      1.0673799703984893e-01 -4.6819979749953998e-03
      -1.7175425664792032e-01 -1.2894061046924840e-01
      3.5053490568627971e-01 -4.2257594598470109e-02
      -2.1194078987084961e-01 1.3203118374681674e-01
      1.3059162613232606e-01 -2.4337228293330077e-01
      -1.9629012954474473e-01 1.9844940419965294e-02
      -1.4932065663660013e-01 1.8591266068432469e-01
      2.1304551858427564e-01 5.9178794446221629e-02
      -9.7397655690241822e-02 -1.5641875509293696e-01
      -8.9694971048104769e-02 -5.0873443927672138e-02
      -1.4425817461662024e-01 -1.4340209719521288e-01
      1.3079244859994713e-01 3.2508074534730896e-01
      7.7370511443551990e-02 4.5046184039306741e-02
      1.5677812065171862e-01 7.1541339199972284e-02
      1.3815653029911168e-01 3.0660815963429768e-02
      -7.0125727953461767e-02 -2.1845624939027070e-01
      -3.2379735916302985e-02 -1.6309938033117078e-02
      -4.4584187080748135e-02 2.6059522752189640e-01
      1.5002561004833320e-01 -1.6227048121142462e-01
      -2.9771978712705753e-02 1.0467113786385468e-01
      8.0343261806827826e-02 -2.4622012059168856e-02
      -4.3987627344824066e-02 2.1416444995970263e-01
      1.1661504991149535e-01 -4.1404749233270415e-02
      8.0510155247687981e-02 1.7197802038849325e-02
      1.5118183262798590e-01 1.9342821044906966e-01
      1.3948638013789552e-01 4.7146412749743155e-01
      -2.3577087020075280e-01 -8.4302719971041495e-02
      3.4327326953257180e-02 -3.1206490620650629e-01
      -1.5794302907694294e-01 1.9752968358272691e-01
      3.6343506289547522e-02 1.1459105502616350e-01
      -7.8177043370129193e-03 2.3298924528338281e-02
      6.1463574932781997e-02 2.0903117221166266e-03
      4.1101370973896129e-02 8.0767555185092002e-02
      1.1574914588287142e-02 -7.3023283644180703e-02
      -1.1119616208394127e-01 -1.7534021280425910e-01
      -1.4740476584580431e-01 4.5322659769982385e-02
      -6.8008338682956068e-02 -6.0165022543992780e-02
      1.1664335966815988e-02 -1.0371730957081461e-01
      -1.2870384731269696e-02 -2.0233185104972168e-01
      -4.7457715739581845e-02 2.2243149670211643e-01
      6.1943032673882886e-03 -6.6434760052077726e-02
      -8.4606948110744956e-02 8.8190339478266905e-02
      1.2503222057022104e-01 -3.8066309166190671e-01
      2.9464207016763229e-02 7.8785892684886907e-02
      1.1400595303083119e-01 2.2094561128676563e-01
      2.2496143283835517e-03 -2.1556967394844156e-01
      -4.8971304221111241e-02 -2.6951537084458927e-02
      -5.9169626668256627e-02 2.3416957774416675e-01
      -5.8794302491413188e-02 2.7263346128299559e-02
      1.3900827226593698e-01 1.9854553098062994e-01
      -2.9576161752354813e-01 1.5151096671495981e-01
      1.1880475270773481e-01 -2.2543833751212244e-01
      -2.0893210900144363e-01 -8.4751834213668262e-02
      4.9959462701241901e-02 -3.2980182559398974e-01
      -5.4211632122534985e-02 -2.0095085145170913e-01
      4.1613340796543843e-02 -3.8957236460757617e-03
      9.2058770699567596e-02 3.5122320663645581e-02
      -1.1993596715177038e-01 -1.8132410494241386e-01
      -2.0868466987058495e-01 -3.0555699347909054e-01
      3.0990160962950836e-02 8.3250340602094991e-02
      1.4392114314399460e-01 8.7904592250073979e-02
      -4.1642635300477897e-02 -3.2653049990475629e-02
      -1.9997735824700419e-01 5.5819198602231043e-02
      -2.6296629565134705e-02 8.1564355917895265e-02
      -3.0078639953520570e-01 -2.7581946690160092e-01
      4.2745245924263049e-02 -1.3676552285266775e-02
      -2.2244468589508284e-01 -2.3546727619520144e-01
      3.1419196282988240e-02 4.1217488906738947e-01
      1.9191988008429622e-01 3.1830410959089123e-01
      -1.5857293387698895e-02 3.4561664256848733e-03
      5.5827311171128123e-02 -5.1626174280188411e-02
      2.1141993625020724e-02 -2.5669412544283537e-02
      -1.6803776040606877e-01 4.1298500393373926e-02
      2.2994051604180183e-02 4.2690366525216301e-02
      1.1086196364937448e-01 6.6652637816629792e-02
      2.2357614813730686e-01 -1.0806399124214863e-01
      -4.8758597599376216e-02 -1.2909773899306459e-01
      9.9913041518582768e-02 -2.1659938765467590e-01
      1.9356492254755722e-01 6.9655653000863613e-02
      -1.8540303461462740e-01 4.4205841456103470e-02
      -1.5935804961838726e-01 8.2068124127747874e-03
      8.8002592721413989e-02 -1.4694716044230036e-01
      -1.4173425812079177e-01 -1.3561411015627445e-01
      4.7824802807787552e-02 -1.0249836592558040e-01
      -1.1506022377528967e-01 -2.2152467894604025e-01
      -5.7268829136467692e-02 5.3064776658099576e-02
      4.0644594119003626e-02 -1.4158057919254968e-01
      -9.3379251742415528e-02 5.1777916438267187e-02
      1.1073489709098046e-01 1.9015007442612621e-02
      3.7425812345596360e-02 1.7670646961539724e-01
      1.1538826174817772e-01 1.1131174789388169e-01
      6.3517221135102539e-02 2.7959470891067417e-01
      -1.5426254138312240e-01 -2.2565644900883197e-02
      9.7812648370565650e-02 -8.5919383774830591e-02
      -8.3083082799893973e-02 6.2396104008645356e-02
      2.1992620978453173e-01 -2.3812645828108672e-01
      2.1738208795599678e-02 -9.4994506355209410e-02
      1.2107729984853283e-01 -1.0132156905814128e-01
      -3.4359736621663917e-02 -8.2847420253655935e-02
      1.2425646469464784e-01 6.7052620216590253e-03
      9.7550904144557068e-02 1.3107744983135933e-01
      -1.4448331132804698e-01 -2.0475008500708511e-01
      1.6390414809337681e-01 -9.2289067288412158e-02
      6.4829444000778867e-03 1.2322384456621679e-01
      2.7778327684623974e-02 4.3172807648056630e-02
      -1.3198239895786834e-01 -1.7585223606604491e-01
      6.4140792129280297e-02 4.3016065599667988e-02
      -1.0124635575903394e-01 2.1034598417072969e-01
      3.4041009851743270e-02 1.9265417973273530e-01
      6.0158321582919748e-02 -2.5223113579973250e-01
      -5.2159890405788167e-02 -3.4552612001812213e-02
      4.5622527650521265e-02 -1.6599356880877419e-01
      -8.0257505290819570e-02 -1.3241922049448712e-01
      6.2800300352009078e-02 2.4288251126158705e-01
      3.1972248501665174e-01 -1.7106136653218637e-01
      -1.9490804247329210e-01 2.0528742310941603e-01
      4.0007095241547241e-01 8.8084239427586225e-02
      1.9376648037446395e-01 3.3138170540986489e-01
      2.4896654986034897e-01 3.1769161570298951e-02
      4.1959885666123860e-02 -8.5310490389933630e-02
      1.9094863045332072e-01 1.5523339711246034e-01
      -1.8981874023668098e-02 1.5570702447960105e-01
      -6.6317508390365751e-02 4.1489416088485061e-02
      8.6705179652542715e-03 -3.2370373704862690e-02
      -1.8083589922587404e-01 -1.7393764547787519e-02
      8.1315659300973009e-02 -2.3590744118999910e-01
      -8.5933826935466237e-02 -3.9084756367475493e-01
      -6.2168580577585605e-02 1.2483984430459921e-01
      1.3762457768889647e-02 3.0490386910945627e-01
      1.7689514879038862e-02 -3.4392138010636529e-02
      -8.3089257867766662e-04 3.4084348770267635e-02
      2.9696966444285423e-02 -2.4315309458371767e-01
      1.5305929205120469e-01 -4.7569345134143695e-02
      2.3920952289205881e-03 -1.2667487076385595e-01
      -1.0783942547361852e-02 -8.2312073648489071e-03
      -1.5872060376249584e-02 5.7746232443471601e-02
      -1.8600949741969566e-01 1.7651997167193181e-01
      -2.5401714688376653e-02 1.7447299512410916e-01
      7.0773537525404689e-03 -4.1963375171873006e-02
      -1.2562650870617117e-01 -2.2158493513970444e-02
      -6.4939065385915165e-02 7.1379572692351415e-02
      1.1807580909708044e-01 6.9827171157994194e-02
      -2.1064153522487447e-01 -2.9119163119821517e-02
      -1.0547629069688139e-01 -1.5673851927387624e-02
      1.0794256711794565e-02 -9.9720236669515894e-03
      -1.0765029238828347e-01 -1.2439160999677860e-01
      6.8977965828316654e-02 -9.3230449970240492e-03
      8.8026358616072622e-02 2.5858809478398359e-01
      1.1558230599494965e-01 -9.6981099478033198e-02
      1.8502034885153954e-03 1.5934564459387082e-01
      2.0351454596773642e-02 -1.1556970998581781e-01
      -4.9299888773888332e-03 1.1507133850186638e-01
      3.6385543633201312e-01 2.2158514255508546e-02
      -6.1543801412708189e-03 2.2178709338865021e-01
      4.5173895543975960e-02 -2.3489273887277362e-01
      1.6274352034410955e-01 1.5061583767882247e-01
      9.3799899966380440e-02 -1.1819832718743020e-01
      1.8311890686362536e-01 -1.3832270501760213e-01
      1.9739654171684246e-02 -3.0175815431977022e-02
      2.0779732305505760e-01 1.2745688158592861e-01
      7.4694458879073874e-02 -3.0652874246571718e-02
      3.2578425543956520e-02 -3.9071685864433875e-01
      1.2620914695510882e-01 -1.3465973320046107e-01
      -4.3614055935622308e-02 6.1786895592034166e-02
      5.9827175209000806e-02 -2.1643950406692539e-01
      -1.1370203533728702e-01 -4.0885508288652637e-02
      1.9668052388798243e-01 -3.1616661998511197e-01
      -3.1945636731810084e-01 1.3228944270230064e-01
      2.0500678132583100e-01 4.3851208308405325e-02
      2.8098103821476861e-01 1.6323253898886611e-01
      1.6840338156587067e-01 1.3316680592309557e-01
      2.0894699623029067e-01 8.5407230424049768e-02
      1.0007076193864893e-01 4.3992108472913266e-02
      -1.1354145957969582e-01 3.3304552671638132e-01
      -2.3147760603053386e-01 -4.8622776696071832e-02
      7.6192290554379358e-02 -1.6353025733233242e-01
      4.8870078519853137e-02 2.7871147431022197e-01
      1.5670843118935521e-01 -7.3201436575371483e-03
      -2.8421804196712236e-01 -1.0053882655395259e-01
      4.1619125202484519e-01 2.6375793568040300e-02
      -2.0406528129202492e-01 -3.1474416126240148e-02
      9.6503575229256053e-02 1.3280560397422861e-01
      -9.6904039292281946e-02 -7.7571974732795852e-03
      3.3774802206259474e-02 -6.2630818413270242e-02
      1.3286284388081172e-02 -1.1175679987028474e-01
      -9.6931976985976127e-03 -2.2168307102770954e-01
      -5.6142796138816516e-02 -4.9103041039880321e-02
      -1.6593303840538604e-01 3.6240238308557590e-02
      5.4044064633876274e-02 -1.0040001195362332e-01
      2.8362462177998088e-01 -8.0839578383391404e-03
      -4.1914470194652845e-02 -1.9903556957128926e-01
      4.6558481916449158e-02 -1.8587680797575484e-01
      -3.9604330872520316e-01 -2.5233684070543860e-01
      8.5059534979793419e-02 -3.8476720271744286e-01
      -1.7048712703988589e-01 1.7070577208707050e-01
      2.4317655874146660e-01 -4.6282132436191149e-02
      -1.4664246048350679e-01 -2.3089436563189299e-02
      3.0229434863689753e-01 4.2233445769766773e-02
      3.7073691500691772e-02 -9.3530645573195501e-02
      1.5319738876516245e-01 -6.7483384310772901e-02
      4.1294733203764485e-02 5.1544889949770110e-03
      -8.1553377280912914e-02 6.5820172023911411e-02
      2.6265588799166961e-02 -7.5287596059738948e-02
      6.2734863906353910e-02 -2.9691697118254679e-01
      -1.2726817719416175e-01 -2.4535438919862507e-01
      1.1517892751570834e-01 1.1830986821141756e-01
      -1.3783938268985123e-02 -1.6641637355468547e-01
      4.5828150579062489e-03 -4.4524347011119972e-02
      9.6904147050878769e-02 -4.1545310203817598e-01
      -1.7955688610707515e-01 4.8607103301419219e-01
      1.4496312007030956e-01 -1.4447374569648427e-01
      5.4732177432869671e-02 2.3711344006332558e-02
      -1.0894883853827271e-01 8.2084692605629200e-02
      1.8776165263899786e-01 1.3050471578473399e-01
      -1.2520685101510648e-01 -7.5504761555731673e-02
      9.2240505987665242e-02 -3.4594352521974792e-01
      -6.1674553156217324e-02 -1.2751272026807092e-01
      -8.9417999098307638e-02 8.7563345038013454e-02
      -2.6339635005452295e-02 4.2050326037693410e-02
      -8.4419072251697008e-02 2.0460650249338186e-02
      -1.2515135838614175e-01 1.6440685975212901e-01
      5.3345945816345253e-01 -1.6457800165221259e-01
      7.3927921874061678e-02 2.8015889167139707e-02
      -1.6721803976583666e-01 6.8582681917223234e-02
      3.5365197336431564e-02 -2.5246021354054149e-01
      -2.8324655550885099e-02 1.0591556071332357e-01
      9.1629899997324196e-02 -2.2203981380630838e-01
      2.6086323929253824e-01 2.9337559129690949e-01
      -1.0120158607270724e-02 1.4878085472385646e-01
      3.4723235644139976e-02 1.2628782230868280e-01
      -5.1359895238166961e-02 -6.4786282423344915e-02
      -1.6130371210555752e-01 -4.4447997984648394e-02
      -2.6877929772989438e-02 -2.0395399196259448e-01
      -2.4327325648293793e-01 1.0341873436652824e-01
      -4.4314002893163389e-02 -2.5519638032713904e-01
      5.0791029523716009e-02 1.6495379919782646e-01
      -1.4379643629080369e-01 -1.0136163218883647e-01
      1.0682063761247355e-01 1.7142820335724307e-01
      -7.1938347856659104e-02 1.6613417909069053e-01
      2.0517596494015680e-01 -1.3330976815242088e-01
      -1.1706780771597197e-01 1.8240713499041161e-01
      1.5644108308293722e-01 -6.4202833864606373e-02
      1.0342760018598199e-01 7.4379965903718148e-02
      -1.8774791477935579e-02 6.1980007331159610e-02
      3.7492776786852471e-02 9.9813402881880078e-02
      -3.9154864299594763e-02 1.5419587336653868e-02
      -3.5790638433087468e-01 -3.9203351944075282e-01
      5.8137013840081388e-02 -2.6262180406630248e-01
      -1.3206049644673365e-01 9.5277581761713248e-03
      5.0960908063543290e-03 -1.7126184073416792e-01
      -1.0172762683634583e-01 1.0219314924301705e-01
      -1.1304040046582590e-01 5.2170380111511991e-03
      -1.4311448309166722e-01 7.8500453465176461e-03
      -4.9261778688570942e-02 -2.5748489845791989e-01
      -1.7043113690807801e-01 -1.9100161396199339e-01
      -1.8014422205622763e-01 1.0680213846438756e-01
      -1.0183376364071843e-01 -8.9182096787649962e-02
      1.5399498278229978e-01 -2.1321063619797159e-01
      1.4983613905799048e-01 8.8801539671269372e-02
      2.4110545954679150e-01 1.9564541860818860e-01
      -8.4525659169689210e-02 -2.4798453278175800e-02
      1.1781694304379535e-01 1.3341713692927418e-01
      -4.4733163950629717e-03 -1.5653539727106089e-01
      3.7087944392887422e-02 -6.1366444578895771e-02
      9.7545202054151056e-02 2.7945327596347984e-02
      1.2502804142761040e-02 3.2123996699246798e-01
      1.1853310304093279e-01 -2.0945151114200874e-01
      4.8281399651065843e-02 6.9470886241717864e-02
      6.5760850660226647e-02 1.0028855147421812e-02
      7.3569202172647841e-02 3.4449951253648486e-01
      1.1812585552058687e-01 -4.5836899072386743e-02
      7.3267007123868244e-02 -7.5690713287393463e-02
      2.1034631283065156e-01 6.9433462295093928e-03
      -8.6275656168307929e-02 2.0982383867088383e-01
      1.0825582822822613e-01 1.6741467250599726e-01
      7.0120187061519734e-02 -9.4391020970901393e-03
      3.0040853141738827e-01 1.1765834335737090e-01
      -1.4322501609514815e-01 5.5761895614516908e-02
      2.8697492636429012e-01 2.5528847129176441e-01
      3.7544728043966656e-02 2.1840336108405353e-01
      2.6425514572097525e-01 2.9688001941324932e-01
      3.6527522605151320e-03 -1.6969238890962460e-01
      2.1005950248728178e-01 2.2269219042978480e-01
      -1.4631130456983177e-01 1.3765233363362667e-01
      1.2580406693163126e-01 2.9062110468815777e-02
      1.8344821199050698e-01 -2.1939002859335294e-01
      -2.4713471992143679e-01 -1.3965132120111215e-01
      2.6772216385152949e-03 1.2275280863363036e-01
      -3.8117118230800062e-01 -1.0674765513372800e-01
      2.9457309840576196e-01 1.7354131402005649e-02
      2.0690462656692513e-02 -8.8278604930121074e-02
      -9.7363805562503999e-02 3.0854671705089803e-01
      2.4317332761558125e-01 1.5367224609259986e-01
      -3.2236066665156590e-02 1.0347380539482730e-01
      1.8971285663131854e-01 -1.6465123839058187e-03
      -1.2672726856744115e-01 9.4828019486834947e-02
      -3.2228536757581173e-02 1.3444686275008549e-01
      -9.4016086636744975e-02 4.0224572936720278e-02
      1.0115189334898279e-02 4.3352154230547342e-02
      8.3855808681308458e-02 -4.2926130335109447e-02
      -1.8987201835861448e-02 -1.9201209987156262e-01
      -2.2000046686789374e-02 4.3366502871571531e-02
      -4.3461347877014382e-02 -7.9970186557578135e-02
      1.2175525527341513e-01 8.9278268063992292e-02
      2.7389188579203927e-01 3.0685979219545023e-01
      -1.1508522588972167e-01 1.7699150399188432e-01
      1.3167600317259076e-01 6.9424172055264716e-02
      -4.7012317987556472e-02 6.3071657266656853e-02
      -6.9680497298817571e-03 9.3795424650709794e-02
      -8.3378433827094742e-02 -4.6420187366523771e-02
      -1.2621435046096996e-01 -2.2498510321182791e-01
      1.9306238494629283e-01 -1.1701018108210295e-01
      9.0210355261978986e-02 -2.1437832257804201e-01
      1.6536370572298290e-01 2.8130702126359480e-01
      -1.0846779345202939e-01 -2.2175525604527728e-02
      1.0253473988840466e-01 -9.5126356260117020e-02
      4.6746176182067903e-02 4.7301437448189404e-02
      3.1936660408331308e-01 3.4383883501020743e-02
      -4.9957155852564231e-02 -1.1639255111723522e-01
      -4.6938972076061562e-02 5.9824839592232171e-02
      2.5129738779434291e-01 9.5101568064035372e-02
      8.6469763960951060e-02 6.5711567959201495e-02
      1.8321563872795203e-02 1.1112734912128430e-01
      -1.9739644158000946e-01 7.7169282593091623e-02
      -2.8539203813028437e-03 1.5620414124118551e-01
      5.9635286752616930e-02 4.7215676688929467e-02
      -6.3911441690823037e-02 -5.3497439030789275e-02
      1.7428620470533130e-03 -3.3700257075547518e-01
      -6.6165656571009063e-02 -9.8093357862360619e-02
      1.8453226550023785e-01 -8.0085326499875653e-02
      -5.6428006319900720e-02 -6.9508516637820650e-02
      -2.9116991100320618e-02 -3.6818738458433344e-02
      3.6016848090477595e-02 1.4201827353888527e-01
      -2.5501172067810711e-02 -1.0450149565001457e-01
      -2.1221240982769959e-01 -2.4793250341690537e-01
      1.9784152794839582e-01 3.5419169106479909e-02
      4.8510826632270611e-02 -8.2561274994126313e-02
      4.3949759481579698e-02 2.5601534101543705e-01
      -1.1488034836838630e-01 1.3239545393362520e-01
      3.7915205177840347e-02 1.2097661923042030e-01
      -2.0370233594279952e-01 8.8249171677311666e-02
      7.3874911959909043e-02 4.3545425131836506e-02
      -2.0137642268025688e-01 2.2693198094246737e-02
      -1.4438103679114994e-01 1.5501616450885210e-02
      -1.9269848559338656e-01 1.2049310838898436e-01
      1.7105381726369626e-01 1.4501294137601756e-01
      1.3693791254638316e-01 1.6695759192337425e-01
      4.0484818085847932e-02 -5.1284367225157355e-02
      2.2181285504297890e-02 -1.4020190814355746e-02
      -2.7890103024475524e-03 2.7379616600877471e-01
      -2.5942136680365863e-01 9.6625263584818946e-02
      3.4060300337211469e-01 8.5187058296733578e-02
      3.6545525591854661e-01 3.8971670535372323e-02
      -7.0452515871927648e-02 -6.2170824138312965e-02
      -2.1292561059833029e-01 -1.7206839930267729e-02
      5.3220070934051312e-04 2.6148446674098108e-01
      -3.4507173488444925e-02 1.2403577181681237e-01
      -4.2532636157013498e-02 2.1158264065964938e-02
      -6.7134406315018796e-02 9.3993122322232087e-02
      -6.4539635569698883e-02 -1.8778227082619664e-01
      -1.5113381875819540e-01 -9.1821678539917906e-02
      -4.0142853071929364e-02 -4.1431130404876497e-02
      2.2604789149838000e-01 -5.8904810471133946e-02
      1.1735295274651317e-01 2.9278535748384849e-02
      8.5387836264544620e-04 1.1470960492015023e-01
      -6.7793224061374847e-03 -4.4639814169342096e-02
      -5.8126966984160762e-02 2.7314015871547796e-02
      -3.1758298845351585e-02 8.3632268328152331e-03
      -8.4676898299581027e-02 9.9599541039171874e-02
      -6.5735632626891083e-02 -8.6666173309755373e-02
      4.3819927640411052e-02 -2.6312954711292563e-01
      7.6676675024382579e-02 -2.3045978578013518e-01
      1.0858180175432504e-01 -2.5854525661558125e-01
      9.7037235176686193e-02 1.0080656930992971e-01
      1.3317196789371052e-01 9.6239501565348784e-04
      3.5210738682229369e-02 -2.3512461316410563e-01
      -4.9903293889257738e-02 6.9198719939533346e-02
      1.8516910522107227e-02 -3.2226217785338261e-02
      4.2988009497278079e-03 -1.4620535285972269e-01
      -1.0472153071064623e-01 2.0831429010279557e-02
      -1.4507244809162101e-01 -1.8574261906930978e-01
      4.7019920330187794e-02 1.7182551070933658e-01
      1.0820878361398573e-01 1.3276327746630923e-01
      -1.3818355680231964e-01 -7.5882277651091609e-02
      -1.1245562160093095e-01 6.7857000585408070e-02
      -6.8269155898831591e-02 -1.6220860745142205e-02
      1.1776868502392664e-01 -7.4356454832450722e-02
      1.7341127474437844e-02 -2.2020992620714209e-02
      1.9639553901396167e-01 1.5294699642798687e-01
      1.4437950464641314e-01 2.0268236075812818e-01
      8.0090151385911704e-02 5.4556473954733696e-02
      -5.9724331686811093e-02 1.1896950935998668e-01
      1.6224043980528929e-01 1.4328524906625922e-01
      5.2477645464187671e-02 2.0404571762392035e-01
      1.7024535317572259e-01 -2.3411113328227779e-02
      5.2264239908171715e-02 2.9629050803325269e-01
      2.6615592760032375e-01 -5.0685834250994294e-02
      -1.0331548489486286e-01 7.9701763409959450e-02
      -3.1195015477704070e-02 1.1165976643955328e-01
      3.2274055843300405e-02 7.9300192772470385e-02
      6.6132521615906645e-02 3.9421749137989549e-02
      -1.1109926354248895e-01 -6.0446196908022776e-02
      9.5445766894560483e-02 1.6065625262436112e-01
      -8.5700720751821103e-03 -9.6272756977395495e-03
      -3.6432208936820268e-02 3.8218035172191973e-02
      -1.0665605291230069e-01 1.3683448429497092e-01
      5.4587051479134726e-03 -2.5222621658036699e-02
      -4.0458719305165688e-02 1.7341699281638220e-01
      2.4341402419312688e-01 8.6715404357741985e-02
      -1.1633304464610374e-01 3.2703806630409712e-02
      3.5432171344659216e-02 -6.1276965772700816e-02
      -5.4700415573315626e-02 -5.4745191479051117e-02
      4.0593943961612422e-02 -2.1139731489821418e-02
      -9.9211992888879427e-02 -4.3985557996844532e-02
      3.3583230673412253e-03 -1.1259784058036860e-01
      -3.5040405736835645e-02 2.0088473773086321e-01
      1.2923722188213829e-01 1.1854480631545310e-01
      -1.8073006305441616e-01 2.6036283817190103e-01
      3.7561127813229976e-02 1.8826766881460130e-01
      -1.6924600310174800e-01 2.6019364092054664e-03
      -1.4604052732816131e-01 2.1306667582217720e-01
      -1.5358261852888485e-02 -7.6101458289178317e-02
      2.7760274214786478e-02 -2.3247334842183970e-01
      6.8051538459682287e-02 3.3542143569249068e-02
      1.6888192526583648e-01 -2.5014366186330955e-01
      1.0419004509432679e-01 1.5982962186109334e-01
      1.2439448502563043e-01 2.3000553154746507e-02
      -8.4241515158850044e-03 1.1736866615403885e-01
      1.3393090375350394e-03 8.9068658396405556e-02
      -1.5094631725673198e-02 8.0301972571725846e-02
      -1.2522963096382878e-01 3.0191528120469765e-02
      -7.5093452412451883e-02 -8.8509205456243134e-02
      7.9239063379303115e-02 9.8753668155660904e-02
      -4.9924771526416015e-02 1.0621866291324639e-01
      2.1796468239713010e-01 -3.5126295830936648e-02
      -1.1849813100550619e-01 1.5089817148537193e-01
      -1.2620482679003336e-01 -7.0455752600024641e-03
      5.5484604947502215e-02 5.0750862772395173e-03
      1.7907907220876793e-01 -2.0567345189400683e-02
      -7.6642588184371143e-03 1.0266796493158974e-01
      -6.2711797620777665e-02 -1.1792529570720267e-02
      -7.6367585224386220e-02 4.9766629469697350e-02
      3.1528283142276331e-01 -9.2197926120227328e-02
      -6.5646023351727853e-02 1.8426299844755190e-01
      6.5863065383558517e-02 8.4374835464556971e-02
      -3.7809232601180541e-02 1.9082878043379492e-01
      2.2639596268046186e-01 1.1935163956659288e-01
      2.0788308556833845e-02 1.0722011007953901e-01
      -1.6368686378148040e-01 -1.4556287296521961e-01
      6.7826057408007720e-02 5.3643700275642747e-02
      -5.4091297878226134e-02 5.1709966945017637e-02
      6.8207203205834399e-02 1.6966701160837380e-01
      -7.4802361404044879e-02 7.0676303141044200e-02
      -8.3210734536107156e-04 -6.9715349935163484e-02
      1.3491929955750273e-01 3.7956636502797896e-02
      -1.2049185943017597e-01 -2.0709063142662731e-01
      -2.4954871814067438e-02 1.0887504624046042e-01
      -1.3955775527010764e-01 -9.6192114661811420e-02
      1.7266158107511073e-02 -4.8594074415613267e-02
      -3.6839696195669507e-02 4.6291679297370734e-02
      -4.7643517553787165e-02 -1.1770126066056322e-01
      1.1822371045271934e-01 -6.3915224767632756e-02
      1.1639365150958361e-01 -1.1574429287630318e-01
      -9.6965484747845915e-02 1.1308017732097851e-01
      -1.0773047016188129e-01 1.4243208207153205e-01
      6.7424645691018886e-02 5.9444229824359242e-02
      2.2165780114577179e-03 -1.2344503341738665e-02
      8.7414824665302635e-02 -8.9375100078931818e-02
      2.0931410737469253e-01 -5.3991085893990799e-02
      -1.3362080735095261e-01 -1.3581328975930962e-01
      7.3662025034184606e-02 -4.7698589132734795e-02
      -6.4887007353534615e-02 -2.8301560800728454e-01
      -4.6340969971797132e-02 3.8772090907179833e-02
      1.6569360623276388e-01 -6.2017663029559668e-03
      -3.2298463260061261e-01 -3.5547468307738077e-02
      1.0678735452002956e-01 -6.2058179431027809e-02
      6.8468017003150666e-02 5.6467083097167206e-02
      2.1802627601465254e-02 -1.6651531303290355e-02
      6.4936143274121227e-02 1.2133075873452324e-01
      -1.6657209026412761e-01 -5.5836070628963390e-02
      1.7588983575744281e-02 1.7685630747805731e-01
      -8.9769798055458538e-02 -4.8975105973597055e-02
      -3.8781438714820787e-01 -5.2133685790172635e-02
      9.6922380774626227e-02 -1.1584858716415601e-01
      -2.9458354647674556e-01 -2.7654474615739166e-01
      5.9392700648126635e-02 -1.3842852338569109e-01
      -1.2966898007030497e-01 -1.4549587095928902e-03
      1.9448003094275026e-01 -1.3860474439908188e-01
      -2.6485277865788373e-02 -8.9391812750201652e-02
      1.1581935440551037e-01 1.0654290798097028e-01
      -9.4215859899159288e-02 -8.3263716820495839e-02
      -4.8680720953640198e-02 -1.8056307900691820e-01
      -1.2295371654032665e-01 6.6325210515784633e-02
      6.3240427335394728e-02 1.2719276514610680e-02
      -4.8567509973587601e-02 -1.9156161337340832e-01
      1.0532885204471744e-01 2.4575538640173814e-01
      -1.6652143225000629e-01 -2.0337558971565151e-01
      4.4000806370482759e-02 7.1629800677432201e-02
      -1.3378554254314434e-01 -2.5707390557095189e-01
      3.2097377169674104e-02 1.0400877850369925e-03
      7.2106367163826388e-02 8.8361746214162248e-02
      1.5858321109603454e-01 1.4863422171473922e-01
      1.3156701574498855e-01 2.6436927129163890e-02
      -2.8540754237986170e-02 -1.9463969272639454e-02
      -1.8272566493321174e-01 2.1928640598955085e-01
      -6.1226246865818375e-03 -3.2643162318439561e-01
      -1.0724081224593701e-01 -2.3763992845685886e-01
      1.3856038124595840e-01 9.6399643165927848e-02
      4.1563572636161172e-02 1.0008001843405194e-01
      -1.7605692274911400e-01 -5.2683256031616228e-02
      -2.1444828636101462e-01 -2.1860888529877037e-02
      7.7536408323095954e-03 -2.9749440953103984e-01
      -2.5418691731191639e-02 1.8396381766077766e-01
      2.3049161296409154e-03 -3.0044408002724239e-02
      -1.8721326860077825e-01 1.9027889408364596e-01
      -2.3596257388236527e-01 -1.6191819692462434e-02
      -1.9219730115488320e-01 5.1846762297001796e-02
      1.1051213323659642e-01 -5.2491959480281861e-02
      -6.0133111937182647e-02 -6.7305127918400612e-02
      -1.0483313056687545e-01 -3.3811117664930376e-02
      1.4224217195826228e-01 -1.9382542588136120e-01
      2.0810590073020230e-01 8.8261607607596451e-02
      -5.7559915042042512e-02 -1.0893247488626746e-01
      -3.4380989609074188e-02 9.5365607179505901e-02
      -2.8359462551144049e-02 -4.1804171458885438e-02
      -2.3492884434513167e-02 -1.4041866595792951e-01
      1.8915465671115955e-01 2.8196607832341311e-04
      -1.2492615130077772e-01 1.0045018051123901e-01
      2.1757032719155719e-01 1.7188182961462650e-01
      1.5109355183962855e-01 3.7559391667930814e-01
      -2.0537507833798588e-01 -1.2050045323528599e-01
      3.9923829906230349e-02 9.9878770274347078e-02
      1.6899562552806885e-01 7.7831502062456079e-02
      2.7263812744060606e-01 1.4493133358038579e-01
      1.4798479848611390e-01 2.5303710070375568e-01
      2.1285478423943338e-01 -1.5682258951283179e-01
      -1.4111835014148985e-01 -2.4867039903348395e-01
      2.0595062786514873e-01 1.6446364813198497e-01
      -3.7717919163317522e-02 -9.4644292700916108e-02
      -2.0261945521332345e-01 2.2734443811005645e-01
      -2.1711327527559065e-02 -1.2094719659398290e-01
      1.0620468344327406e-02 4.6096121296544994e-02
      9.6116171948207541e-02 -1.2147183495254268e-01
      6.8119893335835489e-03 -4.6315811494759676e-02
      9.5275722369981941e-02 8.4168320713688682e-02
      -1.7765624756326323e-01 -4.1964125479826229e-03
      -2.0659823590678573e-02 9.4595561157263960e-02
      -5.0726130628298803e-02 -2.2752673765517224e-02
      -2.2679655446760397e-01 2.8946276499368817e-01
      -1.1859342081360284e-01 -2.2429040980103947e-02
      6.2731979798491835e-02 -1.1515631134179269e-01
      3.0677093266461009e-01 2.0658096075015975e-01
      8.8165045429423758e-02 1.4607101639259408e-02
      -8.0551881127863632e-03 8.0901263894031142e-02
      -3.8144299454473382e-02 -1.0733604685290749e-01
      1.1149394780798112e-01 -1.6637309771978862e-01
      -7.0236360539412596e-02 8.9165572365072804e-02
      -2.8101980967803419e-02 5.0526040327647632e-02
      -1.1764835644820827e-01 4.4118886449946250e-02
      2.7401904228085766e-01 2.1248726703137624e-01
      -6.6481285093251519e-02 1.3324759783102660e-01
      6.6804469421551924e-02 1.7805231803273608e-01
      -8.2722443900747164e-02 5.7841956326512796e-02
      -6.3221135752780155e-02 -3.4773460160850314e-03
      2.9148980028420363e-01 -1.2148416390133089e-01
      -4.1480602360123686e-02 6.4630408416100030e-02
      -8.4270671737865354e-03 -1.2466343205321552e-01
      3.3446691806311643e-02 5.7963358715052371e-02
      1.4612227330651462e-01 -2.2869956203379629e-02
      -2.9406735759738005e-02 3.5992073636017075e-01
      4.8284563713367930e-02 1.2925663529724318e-01
      -6.0492083158996280e-03 1.5811444744523515e-01
      1.6268359087149442e-01 5.2513904670706359e-02
      -1.2956403885105672e-01 4.4667392226940703e-02
      1.1475658459196771e-01 1.0856524538837579e-01
      -5.0650829463202152e-02 6.2431856533449272e-02
      4.9322053403493472e-02 4.9405331233733800e-02
      -6.9243168014612957e-02 1.7016622429691097e-02
      -2.1321964879213329e-02 2.7726717544883213e-02
      5.0786940000234884e-02 1.7197093495601212e-01
      -3.0342520418748581e-01 1.1525067363884166e-02
      1.1716017398381563e-02 -1.1887024444178065e-01
      -1.8993431794238397e-01 9.0101447281405705e-02
      1.1275995958261183e-01 -3.5367413361489707e-02
      -1.7066437590810845e-02 -2.8353794758733193e-03
      2.4230444819178094e-02 -3.0016386091303335e-02
      6.8709284234556814e-02 -2.8999779848866808e-01
      -8.7655155590372472e-02 2.7952812146445166e-01
      -1.6577566936613650e-01 -1.9590661194150819e-01
      1.5283641539961795e-01 3.3813765985502808e-01
      -8.8532674719746199e-02 -1.1490310373973195e-01
      6.5759892662349745e-02 4.1428432738140696e-02
      -1.5861624665017940e-01 5.6367801605859684e-02
      1.6804720980418142e-01 1.9008659417345425e-01
      -1.4972594875339207e-01 -7.3030470325953448e-03
      2.8544504665954217e-02 1.4997099296539881e-01
      -2.2456868963582452e-01 1.0669556739843185e-01
      1.4285756049841833e-01 1.7218984089296091e-01
      3.0855430527588468e-01 8.5782167343445820e-02
      1.7261958453800005e-01 1.4711938002578326e-01
      -1.1440783944282694e-01 -3.0686835173226304e-02
      -1.1975703502584971e-01 1.6956598788415297e-01
      8.7412667383505283e-02 7.0525016720174138e-02
      -5.5488666477829615e-02 1.0554696850146418e-01
      -1.5318986327332737e-02 -3.7267825330011183e-02
      2.1098854239826915e-02 -7.9336623152653413e-02
      -7.0423949420052381e-02 -2.0885861522505453e-01
      2.7872536564261023e-02 -2.3910239536914521e-01
      5.6396861030746565e-02 -9.8344610535531674e-02
      -1.6827789771181621e-02 -1.1856027915031665e-02
      -1.1189230398208931e-01 -1.2997983928877707e-01
      1.6025158602843004e-01 7.5264434871751329e-02
      -1.1136403278970607e-01 1.6149328182477671e-01
      5.0935920091461945e-02 -1.4488807651003471e-01
      -1.7829257332016418e-01 2.5666026592844304e-01
      -4.6428169121121396e-02 -1.0236121499840828e-01
      -1.1860414677817611e-01 -6.5902029385007162e-03
      5.7554464452127460e-02 -2.5139844532892469e-01
      -4.7017926435126267e-01 -5.9118792852490214e-02
      2.3427836989987916e-01 1.5704067264149055e-01
      -1.5634970896459571e-02 -7.5873730349243523e-02
      -1.7215599025225814e-01 -1.0247762223916992e-01
      -1.8554090765615813e-01 -2.1430166813217413e-01
      1.0344031479099926e-01 2.3078132938655550e-02
      -1.1116193520427352e-01 -1.4086657497756122e-01
      2.1283003807978937e-01 8.5160654268848404e-02
      1.5207970046993305e-01 9.2481535451600122e-02
      -2.4211479265344579e-01 -9.1192186809131853e-03
      -1.1091215038309031e-02 2.2223239815635787e-01
      -1.3700413289741903e-01 -2.8765413173229046e-02
      -1.4198442563467772e-01 -6.3915893571739213e-02
      -2.1658367696984021e-01 -2.2266973857256611e-01
      -9.4893805796625763e-02 -7.2671786957729648e-02
      -8.0371536870227064e-02 -8.3074717724197875e-02
      2.7652615385267646e-02 -9.3798232075178442e-02
      -1.1057525894065809e-01 -2.1869900600066307e-02
      -3.0022142328933182e-01 -1.4140198518830037e-03
      -2.9088852881345016e-02 -3.1793303425640879e-01
      -2.3013303859620599e-02 -6.7472273535129227e-03
      -4.5250007629904998e-02 1.3334867424081159e-01
      -8.5433211033459022e-02 -5.6329889327874319e-02
      -1.4009835835648940e-01 8.3405737118432785e-02
      -6.0418209646102214e-02 1.7394117055158995e-01
      -4.5933749076584263e-02 3.5536587388952622e-02
      -8.3006369654397699e-02 6.6030641740974130e-02
      6.3928080672039742e-02 -1.6495240204986572e-01
      -1.0185921912416560e-01 -2.2580516893654579e-01
      1.8949518177634161e-01 -4.4422458530063269e-02
      -3.4472322172800003e-02 -7.0784990808522963e-02
      -7.6254248510395153e-02 -5.1721331127040165e-02
      2.9319164349772584e-02 6.5860823572323080e-03
      2.5694340520875925e-02 -1.2212145506542550e-02
      -8.2633309584188394e-02 5.7425973606269075e-02
      2.3902850786242782e-01 -2.8942262968238208e-01
      -1.8312583977527838e-01 -1.1112289163492152e-01
      -2.3755885122600404e-01 -4.3705127617410418e-02
      1.2172653599319491e-01 1.1851429830871513e-01
      -1.5656277864662302e-01 -4.7842217728072244e-03
      2.7387894181407663e-01 2.7312994415052294e-01
      -1.0513509970662173e-01 7.1086805982029946e-02
      -3.3148451275702089e-02 1.0411458381262825e-02
      -2.1263053568172506e-02 -9.2463111296728989e-02
      -2.0507780834345919e-04 -6.0913660412881730e-02
      2.8773244924863165e-02 -1.0885805438963453e-01
      2.1042087275159643e-02 5.6125980469803785e-02
      2.7470454322224985e-02 -1.3405506792162034e-01
      -9.8729326520143337e-02 -1.6602761996594378e-01
      3.5393322560441726e-02 6.5981563048553779e-02
      -6.6948285339931968e-02 1.9812149671039436e+00
      -1.0435625575665364e+00 -1.1208970322821961e+00</_>
    <_>
      -1.4028559836961114e+00 -6.9902071947485944e-01
      -4.0495039670279875e-01 -1.3019445170455044e+00
      5.1013853424854566e-02 2.3882256647187186e-01
      -9.9645401363175545e-01 -3.4002778049069180e+00
      -5.1706526095863781e-01 3.2031918450295432e-01
      2.3678646293682815e+00 -5.9445215501633342e-01
      3.9257340724632628e-01 2.0033391154749594e+00
      1.0540762850024814e+00 3.8359064317539099e-01
      -5.3917799407303546e-01 4.6143241632689119e-01
      -1.4475478571109925e+00 -1.5148213947413967e+00</_>
    <_>
      -8.3856379886966970e-01 -4.5023728103950023e-01
      8.0435852920158271e-02 2.7197438100656127e-02
      2.4040041864506667e-01 3.9578857120331062e-01
      9.8800825984970297e-01 -1.0028061486039579e+00
      7.5240839015700101e-01 -7.9180200394005262e-01
      -1.3764879147503464e+00 -2.0069850379408423e+00
      -2.6488356301741640e+00 3.6181132721280607e-01
      1.0986601575736625e+00 2.1560713536603830e+00
      -6.7139201556694483e-01 2.1419164187678197e+00
      -1.1166404322279286e+00 -2.4771028235148824e+00</_>
    <_>
      4.0248452880838466e+00 2.4890484844862759e-01
      1.0807181341424770e+00 6.5865711802153593e-01
      -1.3733194945103517e+00 1.1597890540197711e-01
      8.4008003216787835e-02 1.2133002972832919e-01
      9.0419825397836676e-02 3.6578798276811875e-02
      5.2503827402900029e-02 3.2119573442495240e-02
      7.4991999540210769e-02 9.9451647475565355e-02
      1.2815279191876508e-01 7.1254119270459049e-02
      7.5380624492717874e-02 8.4047111097332816e-02
      4.6168092610573454e-02 5.4416584673621968e-02
      1.2319337914981816e-01 6.0568585255408688e-02
      2.4401609510302413e-02 1.8004653857503487e-02
      9.2422405004906005e-02 9.2809073540132361e-02
      6.6419471893676696e-02 -1.7717484768121594e+00
      1.5065730497803023e-01 -3.4126826662770848e+00
      8.1439572956794781e-01 -6.1490556314945066e-01
      -4.3716925490194408e-01 -6.2813422538240904e-01
      -5.0632504393660427e-01 -1.9193853854069559e-01
      -2.7651209906361551e-01 -1.8561435733245230e-01
      -4.0853661452356232e-01 -5.0858247746388496e-01
      -6.7635203809502764e-01 -3.6154942012613472e-01
      -3.8864648641165589e-01 -4.4911598284133325e-01
      -2.4504867312273185e-01 -2.7136342881591830e-01
      -6.3944202056051069e-01 -3.2600813523368555e-01
      -1.5308757789563385e-01 -1.0108817256418209e-01
      -4.8098351143355461e-01 -4.8131818133417265e-01
      -4.4001236802477978e-01 9.1229906019472218e-01
      2.4973489017340089e+00 -6.7303406406818878e-01
      -4.5332713031455441e-01 1.9162365610753154e-01
      1.4275464600218360e-01 1.9598874078334633e-01
      1.2203956889797619e-01 5.8843599326658357e-02
      7.0549126337998105e-02 2.5573565998469976e-02
      1.0807474827765531e-01 1.6901748771639599e-01
      1.9896070985235378e-01 1.1509205448488531e-01
      1.2656856936512759e-01 1.3233482083665435e-01
      6.6162680624780548e-02 8.1417515961195078e-02
      2.0522701640785057e-01 8.3816930811801471e-02
      8.5756095630270396e-03 2.6374375773697688e-02
      1.4120407165087903e-01 1.5783556622763661e-01
      4.0923901236843783e+00 1.1993956573022453e+00
      -6.4139085999057510e-01 -1.6852982655606512e+00
      -1.2078710665603718e+00 8.8271940319798764e-02
      5.9840080897714865e-02 8.8336900378527247e-02
      8.1805531850072541e-02 2.7489946195797667e-02
      4.2164654777610291e-02 3.6021806777884996e-02
      6.5165584699032872e-02 6.8364999347945973e-02
      1.0156168156682700e-01 4.9072697629197498e-02
      5.3758380522278923e-02 6.6903939654362213e-02
      4.0440308659725949e-02 3.7240262486801526e-02
      8.8981145733439848e-02 5.0289836872387972e-02
      3.3880010807699805e-02 1.6116315436894221e-02
      7.1139383057114661e-02 6.6106863396886512e-02
      -1.3831777393902931e+00 1.9045816859022868e+00
      -1.3144938783727154e+00 -3.2484042534570784e-01
      -2.8193632051881550e+00 -1.0596273818082411e+00
      -1.3009786449004566e+00 -1.0362464790396826e+00
      -1.1589582458343772e+00 -1.6160632273150655e+00
      -1.4834213921873916e+00 -1.5899382760687200e+00
      -1.3110467868441877e+00 -1.2079642218489945e+00
      -9.5833479485044126e-01 -1.3916457106221736e+00
      -1.3628286926286719e+00 -1.2685386680995450e+00
      -1.5342552363827568e+00 -1.5050579589020940e+00
      -1.0315693801416270e+00 -1.4195357394761317e+00
      -1.6223919321373959e+00 -1.7333401727614934e+00
      -1.2263005946091006e+00 -1.2444068632844176e+00</_></weights></opencv_ml_ann_mlp>
</opencv_storage>
