<?xml version="1.0"?>
<opencv_storage>
<opencv_ml_ann_mlp>
  <format>3</format>
  <layer_sizes>
    256 32 32 32 26</layer_sizes>
  <activation_function>SIGMOID_SYM</activation_function>
  <f_param1>6.6666666666666663e-01</f_param1>
  <f_param2>1.7159000000000000e+00</f_param2>
  <min_val>-9.4999999999999996e-01</min_val>
  <max_val>9.4999999999999996e-01</max_val>
  <min_val1>-9.7999999999999998e-01</min_val1>
  <max_val1>9.7999999999999998e-01</max_val1>
  <training_params>
    <train_method>BACKPROP</train_method>
    <dw_scale>1.0000000000000000e-03</dw_scale>
    <moment_scale>0.</moment_scale>
    <term_criteria>
      <iterations>128</iterations></term_criteria></training_params>
  <input_scale>
    4.7129945029069108e-02 -8.3791784737936609e-02
    1.8434711641383847e-01 -2.1282377166574072e-02
    2.0609700714096257e-01 -1.9034674690672024e-02
    4.2915863350727425e-02 -9.2154083607615081e-02
    3.8303884142600469e-02 -1.0347667361413301e-01
    2.4733059015902580e-02 -1.6275580079506702e-01
    2.1599524797423251e-02 -1.8820375509381018e-01
    2.1723461760222055e-02 -1.8866602301643051e-01
    2.5876505870046636e-02 -1.6276144121411262e-01
    3.1433220293691687e-02 -1.3023838531501611e-01
    4.4108152726275857e-02 -8.9622142989644174e-02
    4.5680872728886497e-02 -8.6489229333666845e-02
    3.1491751903431432e-02 -1.2652019485288418e-01
    4.9414535758705469e-02 -7.9866847454988454e-02
    4.8069216548601516e-02 -8.2132027913084993e-02
    3.7984115164199896e-02 -1.0436689375748333e-01
    6.5280118035401291e-02 -6.0291307855948308e-02
    1.6829274626866653e-01 -2.3314732143341160e-02
    2.3796954774174015e-01 -1.6483765304457731e-02
    4.8395132132553462e-02 -8.1571476335338886e-02
    1.9233193572292050e-02 -2.1316034889972357e-01
    1.4949530782585194e-02 -2.8341164519020690e-01
    1.1913194697475050e-02 -3.7694301596164242e-01
    1.0875240266189292e-02 -4.2702550633045261e-01
    1.2689747318286180e-02 -3.4862794212517956e-01
    1.6270920067276960e-02 -2.5931373704830540e-01
    2.9410750937600094e-02 -1.3874769418687996e-01
    3.6359890500701306e-02 -1.0913893246090622e-01
    2.7941902024565972e-02 -1.4322628337655557e-01
    4.9067547726979570e-02 -8.0438967004433648e-02
    4.7436834501782724e-02 -8.3242109076833506e-02
    3.7827248177207069e-02 -1.0480928958914672e-01
    7.6629319320188349e-02 -5.1310559251429987e-02
    1.3742912901175128e-01 -2.8558479815462622e-02
    9.7216721479317217e-02 -4.0404269430465961e-02
    2.9265492110325295e-02 -1.3649633272390943e-01
    1.5616027325029308e-02 -2.6934253576676997e-01
    1.1344535787368642e-02 -4.0198423690238205e-01
    8.9467299550060695e-03 -5.9894241747410015e-01
    8.4110842875532062e-03 -6.9128541868505233e-01
    8.2836268745354515e-03 -7.2113607293617465e-01
    8.6188746423042535e-03 -6.4519113110348036e-01
    1.2289830142405190e-02 -3.6560686745169441e-01
    1.8147324601656578e-02 -2.2736573323131284e-01
    2.5364084093442384e-02 -1.6010561340149845e-01
    3.1271944705161599e-02 -1.2828463010388866e-01
    4.2915863350727425e-02 -9.2154083607615081e-02
    3.7984115164199896e-02 -1.0436689375748333e-01
    6.8798783119006779e-02 -5.7186963874726750e-02
    1.2432059095342653e-01 -3.1575448897533630e-02
    3.5303188179199564e-02 -1.1248815574303084e-01
    1.7823505708320326e-02 -2.3269003078930109e-01
    1.0920775245460212e-02 -4.2666966552083974e-01
    8.1320414012701521e-03 -7.7837714862056151e-01
    7.8983896018501969e-03 -1.0559547581258795e+00
    7.9957799474228829e-03 -1.2040331277310654e+00
    8.0837933181392204e-03 -1.2605762190498215e+00
    7.9374914196775163e-03 -1.0979633470260639e+00
    8.0898699742919973e-03 -7.9605888124156132e-01
    9.0380946385152424e-03 -5.8837717850430615e-01
    1.0275875695736097e-02 -4.7255164514414799e-01
    1.3252497390217157e-02 -3.3086844489356909e-01
    3.0069502165215572e-02 -1.3304475038964678e-01
    3.7620237940255617e-02 -1.0631021422287555e-01
    5.2070889556082647e-02 -7.5744190575739570e-02
    6.4482034659056886e-02 -6.1043070659221280e-02
    2.1306334310791999e-02 -1.9172421201305670e-01
    1.1360376205341848e-02 -4.0690596315210936e-01
    7.9163819933984296e-03 -8.9252261028831104e-01
    8.2133759461870959e-03 -1.3409094801823118e+00
    9.1493640786296619e-03 -1.7641977127439179e+00
    9.2870926880403784e-03 -1.8137883748929102e+00
    8.8191765626430500e-03 -1.6284996020698037e+00
    8.3065103171791853e-03 -1.3969874610559256e+00
    7.8895013114564806e-03 -1.0606235800540398e+00
    8.1616344737818706e-03 -7.7122124900001154e-01
    8.9174733236521472e-03 -5.9878766297361785e-01
    1.3091545150900243e-02 -3.3651103200267668e-01
    2.8193274329980655e-02 -1.4286055940369227e-01
    3.7881054139517686e-02 -1.0479373108208480e-01
    3.7368224055047222e-02 -1.0612589165941290e-01
    3.9670125542955528e-02 -9.9839835156324608e-02
    1.5139669377580487e-02 -2.8172342029939929e-01
    8.5236590660954983e-03 -6.6526294605030190e-01
    7.9078074100571976e-03 -1.1273623431091937e+00
    9.0406217396867741e-03 -1.7180799518741470e+00
    1.0241459455574942e-02 -2.1383757462302473e+00
    1.0752972362754531e-02 -2.3053373782539976e+00
    8.7863864838008694e-03 -1.6251195105634533e+00
    8.5688700781005878e-03 -1.5314946588365022e+00
    7.8806998974159242e-03 -1.0497735906178318e+00
    8.0685621968219455e-03 -8.0654937468738608e-01
    8.7867247514685169e-03 -6.3336898346833626e-01
    1.3720206200400679e-02 -3.1869415219078112e-01
    3.0122844785090124e-02 -1.3344442060037434e-01
    3.7984115164199896e-02 -1.0436689375748333e-01
    7.9409536429154534e-02 -4.9505130234944676e-02
    3.2921031831695452e-02 -1.2086048855632851e-01
    1.1607535334078186e-02 -3.9718391980111195e-01
    8.1497110671504679e-03 -7.5883152242895424e-01
    8.1584129320145474e-03 -1.3230886227080869e+00
    1.0782189828245168e-02 -2.3072441317473111e+00
    1.1072285340394668e-02 -2.4078831958671469e+00
    9.3711197207412070e-03 -1.8485203984600220e+00
    8.3899144945419214e-03 -1.4438644772379816e+00
    7.9797745735025859e-03 -1.1739914583801814e+00
    7.9861041506486350e-03 -8.5332650912201047e-01
    8.3759819193905700e-03 -7.0086278988844797e-01
    9.1006914229935492e-03 -5.7969278342749309e-01
    1.5339944542860043e-02 -2.8090405328815521e-01
    3.0237118473239552e-02 -1.3195200333373600e-01
    3.7984115164199896e-02 -1.0436689375748333e-01
    6.7865784272153798e-02 -5.7978420373756889e-02
    2.6010024151997595e-02 -1.5527353244668610e-01
    9.9259275541694180e-03 -4.9668554165549694e-01
    7.9310872345815294e-03 -8.6211578924458976e-01
    8.8320443487822555e-03 -1.6305702043236545e+00
    1.4122690579056310e-02 -3.2960395627097885e+00
    1.2804780662527953e-02 -2.9221566875000362e+00
    9.9952997498650494e-03 -2.0607585713554619e+00
    8.0390619237191065e-03 -1.2435112730803484e+00
    7.9198844529310905e-03 -1.1489461856691725e+00
    7.9032620132507246e-03 -9.1492852643238887e-01
    8.2271437273340343e-03 -7.3495271006433227e-01
    9.6651301574483331e-03 -5.1582775146168791e-01
    2.0085600605507611e-02 -2.0613384134638207e-01
    3.7756976535776844e-02 -1.0716157456663575e-01
    3.1946863961415280e-02 -1.2466045838619988e-01
    7.4122925361518058e-02 -5.3055208709054717e-02
    1.7848308530855193e-02 -2.3168216356087820e-01
    9.3195898216501486e-03 -5.4839676554023153e-01
    7.8757756049612632e-03 -1.0503549101493097e+00
    9.9782999506139638e-03 -2.0511532156721146e+00
    1.3064642941848928e-02 -2.9970059047861075e+00
    1.2599285217145848e-02 -2.8602716136754389e+00
    1.0392909672603453e-02 -2.1887614573645657e+00
    8.6784489593786877e-03 -1.5754048745913056e+00
    8.1453330079641704e-03 -1.3094706986282276e+00
    7.8783265790506683e-03 -1.0423252911951848e+00
    8.1315232868475786e-03 -7.7386788238181037e-01
    9.8828217548066893e-03 -4.9971963815861270e-01
    1.6605447823356472e-02 -2.5392171522642321e-01
    3.0638139793387587e-02 -1.3016493291431958e-01
    3.7071467484027919e-02 -1.0699502227937249e-01
    7.1848195693746980e-02 -5.4744890145135894e-02
    1.5991376495957794e-02 -2.6344214490203410e-01
    9.1840525807815425e-03 -5.6498056169711874e-01
    8.3374001505431752e-03 -1.4114914974711996e+00
    1.0559472913043778e-02 -2.2381349744167878e+00
    1.2623675601114822e-02 -2.8698047330032028e+00
    1.2062976786464284e-02 -2.7058467161872728e+00
    1.2111914694482299e-02 -2.7169336495668741e+00
    9.7808591886975865e-03 -1.9856171479808986e+00
    8.6349590186452271e-03 -1.5529423359398786e+00
    7.9855979874036264e-03 -1.1866559563438677e+00
    8.0422142547187780e-03 -8.2750845640737691e-01
    1.0312426929974892e-02 -4.7469005036732037e-01
    1.7264741514861268e-02 -2.4104355520277876e-01
    3.3551089158776949e-02 -1.1852551100413643e-01
    3.6359890500701306e-02 -1.0913893246090622e-01
    6.6108741640068219e-02 -5.9530191561977398e-02
    1.7489190297158494e-02 -2.3771774928262887e-01
    8.4358343617600435e-03 -6.9150239151276760e-01
    7.8868819598666047e-03 -1.1062701659587970e+00
    8.6858664411817634e-03 -1.5629581186433159e+00
    1.0856449540161068e-02 -2.3311286164014811e+00
    1.1510337246916016e-02 -2.5414270177281169e+00
    1.0125304185873924e-02 -2.1070149245684169e+00
    8.7616762778851380e-03 -1.6139310760758498e+00
    7.9072526011556756e-03 -1.1093072072961934e+00
    7.9639113384718241e-03 -8.5955077730994334e-01
    9.1952412850361299e-03 -5.7335126950294957e-01
    1.2619365698838534e-02 -3.5475112021820948e-01
    1.9901857987992520e-02 -2.0617813092902829e-01
    2.8255453506738436e-02 -1.4157148857256169e-01
    2.9265492110325295e-02 -1.3649633272390943e-01
    6.8798783119006779e-02 -5.7186963874726750e-02
    1.5361390003084631e-02 -2.7452712286389114e-01
    8.2943136240363948e-03 -7.1417314769396756e-01
    7.9159610462239179e-03 -9.0549520114288284e-01
    8.0013463784852270e-03 -1.2033549683120059e+00
    8.5533728457149859e-03 -1.5221557223036255e+00
    8.3026348953812914e-03 -1.4036550027213821e+00
    8.0201118050648359e-03 -1.2064458696318292e+00
    8.0368795263466280e-03 -8.1077152609622183e-01
    8.5774360574076541e-03 -6.5308663380564824e-01
    1.0007340896852570e-02 -4.9436300275800826e-01
    1.4236236009065147e-02 -3.0354480762537678e-01
    2.0533029102676875e-02 -2.0059490302201341e-01
    3.3880273110151182e-02 -1.1734158334509985e-01
    3.8968801457892617e-02 -1.0167385132281563e-01
    3.3127013132101091e-02 -1.2008692237809374e-01
    6.2253466094295162e-02 -6.3245553203367597e-02
    1.5094134474929461e-02 -2.8020639714324863e-01
    8.9069215040014343e-03 -5.9743071143848803e-01
    8.3056671839737035e-03 -7.1261330908291876e-01
    8.0477932414254570e-03 -8.1058417029984331e-01
    7.9356767735920802e-03 -8.9789121666115845e-01
    7.9252156741292362e-03 -8.9463083839293056e-01
    8.0612393146618968e-03 -8.0244221369154689e-01
    8.7885239247249662e-03 -6.1887633197702874e-01
    1.0016551242293337e-02 -4.8985688085545098e-01
    1.3834200598200183e-02 -3.1439360765471519e-01
    2.0769733734784673e-02 -1.9853676391230382e-01
    2.5439082169721339e-02 -1.5800378861210024e-01
    4.2029361403248935e-02 -9.4132221505737274e-02
    4.3214409652511464e-02 -9.1640843359454771e-02
    3.6262503440211605e-02 -1.0955255589303335e-01
    5.6745271571446390e-02 -6.9441537965238859e-02
    1.7904582203632582e-02 -2.3068118451239406e-01
    1.1889155790994652e-02 -3.7663347021345428e-01
    9.3148964066023729e-03 -5.4693809292895756e-01
    8.5778322801274461e-03 -6.5081700493364636e-01
    9.3418278551073344e-03 -5.4583714812872441e-01
    1.0369184837880397e-02 -4.6238358412125574e-01
    1.0977187384348362e-02 -4.2898100847389337e-01
    1.2318264599533784e-02 -3.6802544331213055e-01
    1.3346852646112880e-02 -3.3084943088220681e-01
    1.7740194370083371e-02 -2.3918099798129427e-01
    2.5826458056064747e-02 -1.5741885643807085e-01
    2.4499654033333165e-02 -1.6492455442848189e-01
    2.7859389693316590e-02 -1.4464482117120367e-01
    4.3082824014773674e-02 -9.4966340801851706e-02
    3.5531752934542041e-02 -1.1361538601325766e-01
    6.3712662170704218e-02 -6.1785821427765501e-02
    2.0227663649693799e-02 -2.0176380185170853e-01
    1.6427659568239800e-02 -2.5413488203855211e-01
    1.4297640284043279e-02 -2.9876294246197821e-01
    1.4534405365405406e-02 -2.9297144607205039e-01
    1.6258557649033261e-02 -2.5714990559080814e-01
    2.0046660269540880e-02 -2.0391904273820730e-01
    2.4606094774997023e-02 -1.6481449247425115e-01
    2.4218500076760702e-02 -1.6794841229435639e-01
    1.8671465092847925e-02 -2.2647858238300508e-01
    2.4970994963099510e-02 -1.6379697465699183e-01
    2.0688488979453412e-02 -1.9713634790309301e-01
    1.9169561161762064e-02 -2.1481399129106404e-01
    2.2210432028785358e-02 -1.8348744996761304e-01
    3.2878132161147065e-02 -1.2348054742666227e-01
    3.4731122140040219e-02 -1.1613101035742532e-01
    5.2486746516981292e-02 -7.5137220430412377e-02
    2.5864828550134299e-02 -1.5527328258546758e-01
    2.7461807397081459e-02 -1.4583801193759757e-01
    2.3344014716488157e-02 -1.7301922533666589e-01
    2.4860803992795256e-02 -1.6187435848622844e-01
    3.8631990391548798e-02 -1.0257905815213406e-01
    3.4219532713072043e-02 -1.1614624988677159e-01
    2.9627723596747514e-02 -1.3476536534612563e-01
    2.9047510996728705e-02 -1.3949065064392493e-01
    2.3920483300039836e-02 -1.7739581163737439e-01
    2.7900107260688090e-02 -1.4476527946998100e-01
    2.5893441867307358e-02 -1.5571468142133449e-01
    2.1823081848872466e-02 -1.8691694868982192e-01
    2.3360341782223074e-02 -1.7351885890645488e-01
    3.5103490624821786e-02 -1.1648294285837052e-01
    3.3538394708712373e-02 -1.1975915734632209e-01</input_scale>
  <output_scale>
    5.2631578947368418e-01 4.9999999999999994e-01 5.2631578947368418e-01
    4.9999999999999994e-01 5.2631578947368418e-01 4.9999999999999994e-01
    5.2631578947368418e-01 4.9999999999999994e-01 5.2631578947368418e-01
    4.9999999999999994e-01 1. 0. 1. 0. 1. 0. 1. 0. 1. 0. 1. 0. 1. 0. 1.
    0. 1. 0. 1. 0. 1. 0. 1. 0. 1. 0. 1. 0. 1. 0. 1. 0. 1. 0. 1. 0. 1. 0.
    1. 0. 1. 0.</output_scale>
  <inv_output_scale>
    1.8999999999999999e+00 -9.4999999999999996e-01
    1.8999999999999999e+00 -9.4999999999999996e-01
    1.8999999999999999e+00 -9.4999999999999996e-01
    1.8999999999999999e+00 -9.4999999999999996e-01
    1.8999999999999999e+00 -9.4999999999999996e-01 1. 0. 1. 0. 1. 0. 1.
    0. 1. 0. 1. 0. 1. 0. 1. 0. 1. 0. 1. 0. 1. 0. 1. 0. 1. 0. 1. 0. 1. 0.
    1. 0. 1. 0. 1. 0. 1. 0. 1. 0. 1. 0.</inv_output_scale>
  <weights>
    <_>
      1.1543532688992865e-01 1.2209691954579445e-02
      -2.2175301128295574e-01 -2.0472967251489319e-03
      2.1173554256809934e-01 7.2486947200582588e-02
      -5.7743430437595535e-02 -2.8806150302188693e-02
      -6.6842239369069481e-02 -5.0223846636475403e-02
      2.4849412634718047e-02 3.5021686274155570e-02
      -4.2110817121308923e-02 -2.5696519486687736e-02
      -1.9671275849793032e-03 -5.3675284717290737e-02
      -3.8645965505029953e-02 -2.9992809134888831e-02
      4.6122051951231297e-01 -1.2705026009050077e-01
      9.7805680803350573e-02 -8.2200541161281029e-03
      1.0749738606024593e-01 1.0626369661803907e-02
      -8.8808649000043496e-02 -7.6873569810223278e-03
      -1.7436123312745549e-02 -1.8533931901931276e-02
      -4.1934020271031394e-02 -3.5982134470878058e-02
      1.3117750602110786e-01 -6.7401455681483827e-02
      -3.3590515800346242e-02 -8.7141466000193422e-03
      -2.5972108267711427e-02 -1.2606050683208065e-02
      -3.0461421711552701e-02 -6.0977356316213038e-03
      4.7611869727904495e-03 6.1962963786457072e-03
      1.6571818283578180e-02 -1.2848519079017367e-02
      2.1255452580822672e-02 8.0337355243581944e-04
      -8.0026532723394255e-03 -7.0941702683102285e-03
      4.9447157565759821e-03 2.9918719960068303e-02
      2.9534770186679372e-02 -1.2461510827840090e-02
      -3.9455425871468983e-02 -1.4008129385883496e-02
      7.8817054624905920e-03 5.6172022902305748e-03
      -4.7279109366086480e-02 8.4737427385651581e-03
      -3.5374841192269322e-03 1.6618454493780892e-02
      2.1295366680464294e-03 -2.0087268569699307e-02
      2.3200285430701895e-03 -2.6881000548688964e-03
      -1.3520129943873753e-04 -1.9564011124272581e-02
      -9.5274022555200885e-03 -2.1289133871435571e-04
      1.5472794723440709e-03 -1.4624942032202244e-03
      2.7704712633419407e-03 7.0371692627928459e-03
      1.3116728035019707e-02 -1.1391689817763031e-03
      -9.3515729210165051e-03 -2.5069833908414024e-02
      2.3129356917226535e-02 -9.3419631578799886e-03
      -2.9293917042172074e-02 1.3079470489218798e-02
      -9.9116642189544350e-03 -1.1843720557552210e-02
      -5.5224247126721075e-02 -2.5494766799190488e-03
      2.8530251108508296e-02 -1.5859771666912402e-02
      1.9145067877560418e-02 1.2840956382474266e-02
      -3.1717709164129408e-02 -4.0489378891706632e-03
      4.5717827254036677e-04 3.9980282300957661e-02
      -3.0538716749709672e-03 -7.1003955932331803e-03
      2.4449465854308593e-02 -2.1113202432117846e-02
      -7.7881043430264836e-03 3.8676670074440742e-02
      -7.2425484024037451e-02 2.2416526359021752e-02
      1.1199649125182531e-01 -9.5489908733572798e-02
      -1.6466883507717481e-01 2.5383454784845164e-02
      -2.7754546336279094e-03 -7.1297696063269342e-03
      8.7324161923461846e-02 -2.5140323284465346e-02
      1.8249709151224372e-01 -1.8983653913195890e-02
      -9.2268831445567190e-02 -7.1177601598940612e-02
      1.4543889174615857e-01 -1.1046627263541474e-01
      -9.9806369187322275e-02 4.7995956109227453e-02
      -1.0128397944608222e-01 1.0944193544168623e-01
      9.4722132891982089e-03 -1.5017367808422926e-02
      3.3484174207748918e-01 6.1719453773340701e-03
      -3.2138851329304077e-03 -2.3216398683321487e-03
      7.5994888823036261e-02 3.2519383969102200e-02
      8.2280518793180810e-02 -4.9152257878589421e-02
      -4.5558923807882325e-02 2.2352752137612569e-01
      4.6876652148314067e-02 1.1658900671474501e-02
      1.4294136335698795e-01 -2.3579510564417938e-01
      -1.3399492769352722e-01 8.0283171096881142e-02
      3.6088579968418265e-02 6.1365445406827437e-02
      9.5668853960488603e-02 -3.4577130167485280e-02
      2.3413047478330470e-01 -6.6849222011468763e-03
      -5.9430425314013678e-02 -3.9358238838395704e-02
      6.6642371233719827e-02 3.1294483558192303e-02
      -1.1759027096590589e-01 3.1231619837259080e-02
      -9.0804898033026007e-02 5.2581405339989437e-02
      2.8636035670982763e-02 4.0155330272921459e-02
      1.1180888544503581e-01 3.7447016278504761e-02
      1.3110221759274770e-02 2.8024721162694534e-02
      6.3327198789889738e-02 -2.9310461767615117e-02
      6.2534107157234189e-02 -5.2201380902514048e-02
      1.8602876152611088e-02 1.2582430050556934e-01
      -3.6323177903983130e-02 8.5159485330994224e-04
      2.5764758126585663e-01 4.3450039944793028e-03
      1.4907120173018774e-02 5.5976136093601275e-02
      2.0430741234190832e-02 2.1033738319245907e-02
      1.5558302901490312e-01 -1.0554558354078049e-01
      8.2744815386149567e-03 2.7726691148825644e-02
      -6.4177764191395134e-02 9.4755779537042950e-02
      3.0161579824386369e-02 3.5212551614780575e-03
      -9.2929598117255485e-02 3.6864958287579720e-02
      -3.2152962304690275e-01 1.5372685541245016e-02
      4.3238342586117424e-02 1.0441891466213830e-02
      1.2865459671522508e-01 2.7949572889159960e-03
      -4.5767693780009007e-02 4.1868013444633576e-03
      4.9264790184944472e-02 -1.8180783556351228e-02
      2.5297201671526728e-02 3.1963510050252641e-03
      -2.7644187718500246e-02 1.3605415685096303e-01
      7.5521803342168334e-02 -1.5708867200972511e-02
      3.9951615393990886e-01 2.0466231954313950e-03
      -3.5636926511841090e-02 2.1452577009177801e-01
      1.3933718773893615e-03 7.9222698681119447e-02
      8.0496090753040039e-02 -5.6739542078598597e-02
      -5.8804731666610051e-02 1.7299314808259129e-02
      -6.5944653925091842e-02 7.8871548249767276e-02
      -1.8548224673511870e-02 2.9872042315138830e-02
      -1.6711495408928867e-01 -1.1083304393920390e-02
      -2.8336836750784256e-01 1.8583399852699831e-02
      4.0845225293990942e-02 -2.9911036324787258e-02
      2.0762462084386535e-02 5.4678559238050893e-02
      -5.5086840924585712e-02 4.6657253972063890e-02
      3.1011777882821400e-02 1.3022811152898940e-02
      1.1701554225634051e-02 6.2229155336772867e-04
      1.8754654788972692e-02 2.2584915069861847e-01
      8.6522241843919920e-02 -2.5847823272366330e-02
      5.4433202692159877e-01 9.2361779346663203e-02
      -1.7430252128309337e-01 8.9823232687497270e-02
      6.4215648073684649e-03 3.8268216054958372e-02
      1.2901509779458478e-01 1.5000171375321036e-02
      -6.4933335220470683e-03 6.9467320864458719e-03
      -4.3296898593936622e-02 -3.3038857566710600e-02
      -1.6859728182287690e-03 9.3301630130034618e-02
      -4.9957823217119439e-02 8.0369643485929637e-04
      -5.0790982895735992e-01 9.5536173723358032e-03
      -4.8571832559903515e-02 -2.8749529870564911e-02
      5.0821925742631013e-01 4.6879554169007506e-02
      -2.8420590058618762e-02 -6.9074528745149237e-03
      3.0096207304246118e-02 1.0297852487537296e-01
      4.2892262453725308e-02 1.9070542522924956e-02
      -7.0845638422457113e-02 6.2064668900711301e-02
      3.0592648797950883e-02 1.7425689720152647e-02
      4.3881605490139097e-01 -3.3755462815629592e-02
      7.0186486147763974e-02 7.1418276762523630e-02
      -2.5955093013823829e-02 4.3538404546223160e-02
      -1.1671874196545332e-01 1.3203090976060156e-01
      -5.7993127372109064e-02 -6.3813150103054161e-04
      2.4554447944124046e-02 6.2571640521538574e-02
      -3.2752428650233950e-02 9.8424430706113522e-02
      6.8207041181236563e-02 -1.1612377348692136e-02
      -8.9992023478535632e-02 -1.5662207300789959e-03
      2.6019059449791132e-02 3.0823214804310505e-02
      3.6913623367652804e-02 -2.4796537281801745e-04
      1.1187086927330255e-02 2.9128899994329372e-02
      -3.4105691718305471e-02 3.4768807220967063e-02
      2.5167973334954238e-02 -1.1083483232113528e-02
      1.0868003061150745e-02 3.7699209644406566e-03
      3.0344482040869831e-02 -1.6508256547377424e-02
      2.1612411468835613e-01 -5.4057556986227766e-02
      -7.0085185764825850e-02 3.1289873287785722e-02
      -3.1323951754418482e-02 -9.3794634306298086e-02
      -3.8443376652532266e-02 3.8935072795432457e-02
      7.3883964963084123e-02 3.5909492751789569e-02
      -3.5355935873625240e-02 9.9096445455606856e-03
      -2.1930177823991492e-02 1.6074078451289622e-02
      -3.3910135964771881e-02 -1.0433786129699359e-04
      -1.0719795466031892e-01 2.3259335705195405e-02
      6.9759446629362688e-03 8.1127388296851183e-04
      1.1019325296694832e-01 2.9799918989293267e-02
      -5.6318955860938803e-02 -2.7042617691721366e-02
      1.9547130592122326e-02 5.4270119329875417e-02
      -2.1623480654839929e-02 1.1199423521379244e-03
      -4.6493674058267952e-02 -3.0046835072136985e-02
      -3.2396413735938615e-02 2.4518058600421213e-03
      2.5411873918389762e-02 3.5394471637704546e-02
      -4.3472923565288819e-02 -2.0052167108408642e-02
      -4.1189267075249753e-02 -2.5950896035185069e-03
      -1.0592381198439359e-01 5.7066523338058492e-02
      -8.3490386414592221e-03 -1.0863351721334583e-02
      2.3749064354686988e-02 -8.2479818590651139e-04
      -3.3015604325577166e-02 -2.5797804646062435e-03
      3.1163993210674393e-03 -9.4310902025578069e-03
      -5.3423790707871240e-02 3.7398232041180098e-02
      -3.4464162622919174e-02 -1.9173297713726103e-03
      2.1473265632321666e-02 2.4567054596232418e-03
      4.1837878759796469e-03 -4.5988793293889378e-02
      -3.1432858291402135e-03 6.2948554439014426e-02
      -9.9941359994835700e-03 1.1249417445376837e-02
      -5.3400255314590403e-02 -1.0785523028036549e-01
      -1.7039730881905410e-01 3.8358495590385844e-02
      2.5942829378896615e-01 3.2968358387007131e-02
      -2.0148521665739744e-01 8.4966395937449979e-03
      -5.3875361661492030e-03 4.6462366812346542e-02
      2.0392161665293167e-02 2.7445476385960742e-02
      -4.4892013846407369e-02 -7.5672045474874300e-02
      5.8926228480644480e-02 3.0077212939825796e-02
      7.7964880749898310e-02 6.4412159189163196e-02
      -1.1291345554731566e-01 -8.9856679392377181e-03
      -1.1881777257790403e-01 3.0802949981596345e-02
      -9.5022738652557554e-04 1.1961567748728499e-02
      1.1256806488104969e-01 4.0061038114683159e-02
      2.6314300446080102e-02 4.4353374961420229e-02
      9.8282687151249378e-03 2.7487265568381714e-02
      1.9903938195156141e-02 -1.7723705611712506e-02
      7.5615940863014213e-03 -5.5665034520511547e-03
      -3.2823771992423608e-03 7.8541719524973311e-03
      2.0256021200771482e-01 2.7468993029350169e-02
      -6.7752254263529821e-02 -2.6720955742201086e-02
      -4.3770566980889949e-02 -3.1948340534481423e-03
      7.7682914414533538e-02 2.0314512390577771e-02
      -4.2421504620450329e-02 -6.1198427492649372e-02
      4.7712026694493939e-03 2.0995219233137019e-02
      4.7593266462170040e-02 7.9614021583360520e-02
      -7.7224576105228621e-02 -3.9297917504027896e-03
      -8.3171696618659904e-02 2.8000368832839871e-02
      -1.2673729101532990e-02 -3.2558037118863091e-02
      -2.7937262358162917e-02 2.1664984874783928e-02
      -1.6018019358979934e-03 2.0622999366098769e-02
      -5.5718824080603149e-03 3.1328832509986373e-02
      -1.8086963203728702e-02 2.6790447769454578e-02
      4.4821322949213149e-02 1.8671348417920536e-02
      -5.6375894057746595e-02 -2.0381051620597935e-02
      1.2381694089363432e-02 -7.7793547740426433e-02
      2.7850081691704012e-02 7.4459676973802430e-02
      4.6271256266981156e-02 3.9832522216268332e-02
      -2.3560764166678516e-02 -4.6023041130608497e-02
      -1.5351949664944933e-01 1.5829074804765988e-02
      1.5233588739370044e-03 9.9297217227635001e-02
      4.1479944028762778e-03 1.3419866440091036e-01
      -5.8931436314198435e-02 -6.6208647690920743e-04
      -8.4401793910997391e-02 -5.9197168229593164e-03
      7.8034845260959967e-02 4.4970491873885521e-02
      -2.5368199006138575e-01 -1.8007454653987669e-03
      -1.8878121617214912e-02 6.2121870129473310e-02
      6.9293506605709451e-03 -2.4029449967437010e-02
      -7.6868139524340279e-04 -6.4051801602049582e-02
      4.6841808017231493e-02 -6.6251130377533871e-02
      1.1260451346034168e-02 -2.1895623649539075e-02
      9.8804935306661387e-02 -4.3796972811618130e-02
      -6.8668042617244891e-03 5.8011607277385184e-02
      3.7491129686873875e-02 -7.4816879862030531e-03
      4.2201138392538910e-02 -9.6464169719369469e-02
      7.8282250768290963e-03 2.9066891741790324e-03
      -7.0997067392281126e-03 5.1933235482959382e-02
      3.0937449029206036e-03 -2.5966907937852602e-03
      -3.6861634545193443e-02 -1.6342889413113803e-02
      -3.4150876353949165e-02 -2.1581523489303860e-02
      1.0491637944853936e-02 -3.5395074713521033e-02
      -1.4036580819140992e-01 -8.8879922475237627e-03
      -1.6118422533530158e-02 -3.3285141710113021e-02
      2.1193988152106196e-02 -2.7470207880162335e-02
      -7.8436193531546457e-03 -8.7852281673522065e-04
      9.2282920291921963e-03 -4.3678602850274827e-02
      -1.4248007876244117e-02 -8.7536428495271178e-03
      3.3541748035135481e-02 -3.1725381483188146e-03
      -3.3647970589912200e-03 -9.7079989582452085e-04
      2.7159879245336960e-02 -1.2476104195011521e-02
      1.9797581254686052e-02 -2.6180680257497310e-02
      4.4499308790487350e-02 2.6078097568699617e-02
      -1.4711636097261874e-02 9.4025079823339790e-03
      -1.2884001172638528e-02 -2.6239818107040163e-02
      -2.2328065304105769e-03 -1.3204167062906530e-03
      -3.9941120739243940e-02 -2.0835261831693801e-02
      -2.0746343247432923e-03 3.8308550379915984e-02
      -1.1334327955518132e-02 9.6089810942184568e-03
      1.0751554107736191e-03 -1.8952905964433154e-02
      1.2511053053474889e-02 -7.0054720142971819e-03
      2.3104186925091547e-02 -1.8307166037405166e-03
      -4.0851243739470772e-02 1.2964948171176332e-02
      5.8050378895949849e-02 2.1749085650825815e-02
      3.6159033150344462e-03 -9.6162961707246405e-02
      1.7541941776455065e-02 5.3106531977926384e-02
      -6.9501057541966754e-02 2.9467855240870081e-03
      -3.2634810541474067e-02 -7.9858482833954289e-03
      5.2221083615794353e-03 -1.4353393942028864e-02
      3.9092583334580646e-03 -7.5062569669611265e-02
      4.8974334470383685e-02 3.4399696116553233e-02
      -2.1366408203297990e-01 -3.6261085907975811e-02
      4.7273333162270270e-01 -1.0094850013419208e-01
      3.2745112989573341e-03 4.1476951076406830e-02
      1.9341326651405086e-01 7.8169397110698674e-02
      -5.0397324096204274e-02 5.5977035040011724e-02
      5.6145125191367398e-02 3.7845128475742881e-02
      -7.5400601428448732e-02 2.4754346259613199e-02
      3.6469687231590678e-02 -7.3847862288686478e-02
      -1.3703844964212050e-01 2.9184096030700213e-04
      -2.0594558255353224e-02 -9.9896654246910289e-03
      6.5383538706393074e-02 3.9127271119270991e-03
      -1.0665103097989875e-02 6.4088815293542765e-03
      -1.6427391801267174e-02 -3.7829985474560089e-02
      -1.1175113067302019e-02 -1.6456942816048269e-02
      1.2597520924900869e-02 4.2503008171636259e-04
      3.2170216460777286e-02 -1.5896434648487211e-03
      -4.0549678227935343e-02 -8.3244915972812000e-03
      -9.9221871358867342e-02 1.2108974671544013e-02
      3.2391825925282649e-03 2.2275342802227091e-04
      -1.2569230660202249e-02 1.4961211159968272e-02
      1.0050065414928531e-02 1.5544503877165275e-03
      -6.3526470295029247e-03 7.2255206875276195e-04
      2.2381391432817994e-02 9.4634413378341786e-03
      -1.2440602526178656e-02 -1.1767496419169454e-01
      -1.2503653714436311e-03 3.8486860082981643e-03
      5.3652661900708545e-03 -8.7707277116874753e-03
      1.3333592363903848e-02 -2.1299551760434097e-03
      1.6732108038644552e-02 -4.5743171674316520e-04
      5.4738922229530459e-03 -5.1014271878252011e-03
      1.0999195793750733e-02 4.3870762103451044e-03
      -5.0180142085131585e-03 2.9426995301281098e-03
      9.4229797531427285e-03 1.9670002431259759e-02
      -1.8061750031148863e-02 7.8661058049615904e-03
      -2.8172778439091804e-03 -2.8881601381126054e-03
      6.8182281683152992e-03 1.3650147851564213e-02
      2.6994415529988489e-03 3.2132284998757032e-03
      2.6669200712613811e-03 1.4530666053613129e-02
      -3.0738097859163995e-03 -7.0149301758778921e-03
      4.7830078866355707e-04 -2.4978373527281034e-03
      -4.9773211438756196e-03 2.4357485599691631e-02
      -2.5643006970075093e-02 -4.8868090724906773e-03
      2.5313234722475725e-01 -1.2681425288571038e-01
      -6.6879730827410500e-02 -3.0425876283014186e-02
      3.6956761504943619e-02 1.7483741129637121e-02
      8.8118031081211801e-02 -1.4407426050059149e-02
      -2.0607430201362843e-02 -2.7902966774726888e-02
      -5.9184893278607506e-03 -2.3145774249413168e-02
      1.3446339558764175e-01 -1.6585591874839420e-02
      2.0947410506307482e-02 -7.1629874247529856e-04
      -2.2625588381178333e-01 6.0575620653180631e-02
      3.2187081146909317e-02 1.1394896103612141e-02
      1.5672880367008787e-01 3.0327491840428902e-02
      1.6423257360226064e-02 1.5580768072238379e-03
      4.2772507034744583e-02 -1.5263959239779917e-02
      8.7469129839044812e-02 -5.7190472842631783e-02
      1.9775817653009502e-02 7.4246196550239354e-02
      8.1176009772210053e-02 2.3230585942200861e-02
      4.5140789913720397e-01 -1.6604234307019150e-01
      -1.9126504139321035e-01 1.6344295807620854e-01
      -8.7531497362488442e-02 -7.8943753392463345e-03
      2.6709212590376952e-01 1.3487193749030904e-01
      2.2103076566240526e-01 -6.0047341833462595e-02
      -5.0147623548205462e-02 -1.6271414347517626e-01
      5.1718153562770160e-02 -9.7646097746971833e-02
      -6.0235361674134409e-02 7.8946118844895524e-02
      -8.8485107792656462e-02 9.5261677700870809e-02
      -2.6296251768735193e-02 1.7069203914925217e-02
      4.3642100494382757e-01 -5.1166105824202784e-03
      -3.0779074801132480e-02 -2.5281329038233567e-02
      5.1914013677384852e-02 2.1467699161507189e-02
      -4.7155130940624228e-02 2.4395635859206458e-02
      -1.2179853166545343e-01 2.0284487069870863e-01
      -3.6546481687634469e-02 -2.1151963034605710e-02
      9.1293816987759135e-01 -2.7449864113267462e-02
      -1.0185418530924148e-01 3.6269223764841729e-01
      6.0083272758699818e-02 -1.4253709481601300e-02
      5.9971867086104760e-02 4.6666858387817083e-02
      4.4590191978981036e-02 -5.2669717316642391e-02
      -1.0440815851209745e-01 1.0934616139281172e-01
      2.7374286303614983e-03 -5.0494738049862715e-02
      -3.7150839550452314e-01 8.9890020359089079e-02
      -1.7996368258469836e-01 9.8691005525037637e-02
      -7.2917319100556368e-03 3.4522196274606502e-02
      1.1938088012262997e-01 -1.3269452241728564e-02
      -8.1252303430548595e-03 2.7164425253128982e-02
      6.7972186052087380e-02 2.8891855938564429e-02
      1.6619777713307573e-03 -2.4171966682565244e-02
      -2.1682077842029832e-01 3.6613514840320110e-01
      8.8781854087067777e-02 4.3816990649618727e-02
      4.8087205126064597e-01 1.0913340987688412e-04
      -5.9378960538150401e-02 2.4679098102390637e-01
      -1.0337826729175527e-01 -4.6984169964431881e-02
      1.8217019412484961e-01 4.9976674716975221e-02
      -1.1830130710198031e-01 -7.9548051298999639e-02
      7.4518276569292385e-02 -2.5377950020316797e-02
      -1.0844164711362143e-01 2.6934459227558533e-01
      -2.3963878059468760e-01 3.0966536343516642e-02
      -2.9250018391336841e-01 -1.1504537664362910e-03
      -9.6825831102066690e-02 5.1549401692103161e-02
      3.0591253343168490e-01 6.3884739378139835e-02
      2.6463386767220119e-02 1.3655399572390417e-01
      1.3949000065975996e-03 1.3005884054206487e-01
      -5.2818572956815781e-02 4.7102954405263089e-02
      -1.7563569830273834e-01 -6.1488032556747611e-02
      1.7075643978461497e-02 3.6923516106540662e-02
      2.5522666570930097e-01 2.4364570810515879e-02
      -7.5502314116176847e-02 2.1493749538724133e-01
      -1.0666215982155421e-01 -8.4649973770109035e-02
      2.3644796234916346e-01 -3.7685522958571020e-02
      -2.4705805038032258e-01 -5.1898549535376003e-02
      8.2889434464668149e-02 -4.8150190421583340e-02
      -2.9540278560124072e-02 3.0976154536464695e-01
      -2.1039092086437697e-01 2.2407795166691006e-02
      -1.4455420194345933e-01 -2.6176562883689566e-02
      -2.5323955144333190e-02 7.4950744455242510e-02
      4.6443450998737032e-04 6.4846775620239050e-02
      2.7631921941370631e-02 2.1014644767029669e-01
      2.6111702345893849e-02 2.3003727261909558e-02
      -1.8152841427283666e-02 3.5603991244223983e-02
      -1.7563580233386786e-01 -1.0986733863677585e-01
      8.7038951937970059e-03 7.6897144461422373e-02
      1.1283691784562958e-01 7.8902074039973440e-03
      9.2468701422930483e-02 1.5995512337764228e-01
      -4.4657232702824207e-02 5.1489303523366947e-02
      4.8008811805113176e-02 -1.3057117995958459e-01
      -6.1737345929052813e-02 -6.0463780234453236e-02
      6.1212112851561674e-02 3.3160921599849034e-02
      1.3008782832580760e-02 1.1530514508115217e-01
      -2.0331283469886194e-01 8.1208494980376314e-02
      1.7889772907512091e-02 -3.2752753093296158e-02
      4.9343077650626600e-02 9.0161236911203271e-02
      -1.4786376916871399e-01 2.2711285064261916e-02
      -9.8618424796262649e-03 4.0768483015728517e-02
      -5.7730373202716706e-02 5.6508147201908124e-02
      -5.9788343857865300e-03 -1.3232911973480707e-02
      -5.6965275262441370e-02 -1.3295485605710083e-01
      4.7377480261339353e-03 -4.2290484542107570e-02
      1.7674954826129197e-01 -2.4429955185296512e-01
      -2.1507659583679610e-02 6.6136966696726945e-02
      2.7653941138721608e-02 -6.0487278368883263e-02
      -1.3623628600607715e-01 8.4598272097131916e-02
      1.9084633741135287e-01 -1.3301193447990285e-02
      -3.8724991006837545e-02 4.8734317721026592e-02
      -6.1228422699154225e-02 1.2555076129888212e-01
      5.5128169287709868e-02 -2.1247358987520396e-02
      3.3693146882173480e-02 -2.6657328940822907e-02
      5.4261401130480695e-03 6.5015225418079511e-02
      3.4777993955117638e-02 3.0409777602798945e-02
      -3.1877229152133112e-02 8.3127573742155195e-02
      1.2480880177372825e-02 2.3109044995971478e-02
      -8.3057611761626245e-03 9.1622989020817124e-03
      -4.8276995132821979e-02 4.8209911094931709e-02
      -5.1733767385700971e-02 -8.2488044531972265e-03
      8.9948209430061488e-02 -2.4001834493997998e-02
      1.3345608785283061e-01 5.5954801435719362e-02
      -2.4650465004696907e-03 -7.8165508243432189e-03
      -7.0400451092753249e-03 -1.4199434943154395e-02
      6.3588812531661501e-02 3.2948287118906550e-03
      -2.3639205258106578e-02 4.4509444655760462e-02
      -1.4463346142098127e-02 3.3935586460667376e-02
      -5.8961111780882251e-02 2.9785281025717973e-02
      2.5448185664680656e-02 3.3604408408312784e-03
      -5.8958662108989437e-04 -4.4914456512583427e-04
      -5.4228070241504153e-02 1.2944469179694142e-02
      3.7002448556297689e-02 1.4493088929654591e-02
      1.2745059413482022e-02 5.5279302666395441e-03
      4.9548413588790504e-03 4.3171064415461653e-03
      1.0712406087447438e-03 4.8193038200366342e-02
      7.9747041960344045e-02 5.5224241053687380e-04
      -3.3339193235388753e-02 -9.0111695518374321e-02
      1.4091936837853816e-01 9.7416043014514078e-02
      1.2665371710548864e-01 7.8004056054088305e-02
      -8.3292588344158980e-02 -1.1836817488774069e-01
      1.8055010954332065e-01 4.5373472014829164e-02
      -6.3564932759519396e-02 1.4629867712882300e-01
      -6.2697855463276775e-03 1.3906659101980304e-01
      -1.3012159707292115e-01 5.1599843144688524e-02
      9.6340791942981299e-02 -6.9312756279423196e-02
      1.1255768616759641e-01 1.1151169126322034e-01
      -1.3015177873682038e-01 -3.8863819692373951e-02
      -5.8204857803308939e-02 3.2249795082405698e-02
      4.5427874537728752e-04 -1.0031302620179097e-01
      4.6067106142326050e-02 -1.0537145816325694e-01
      -6.9670401027710174e-02 1.9338468206666415e-01
      -6.0421362282589243e-02 1.8719513419592514e-02
      -1.9551980823549746e-02 -6.1793619307712010e-02
      8.5614916446779321e-02 -5.4665727902567449e-02
      5.3148218248602105e-03 -2.1155178503070578e-02
      7.1302785566113459e-03 3.8938084356479174e-04
      4.5904920767887561e-02 -4.8606025063254218e-02
      1.9665948864433076e-02 9.6503057658554936e-02
      3.2725309048127767e-02 4.9801048671510098e-02
      -1.7270624462292472e-01 -1.9119221777188528e-02
      -1.2217204602911884e-02 1.5724932236736350e-02
      5.9655486230807922e-02 -8.1232101829413778e-03
      -1.0729615006566787e-01 3.2160000441975693e-02
      5.9829319362432552e-03 2.1436413642483200e-02
      -7.8659739910768595e-03 -2.2723393298662381e-02
      1.4093749729096171e-02 -9.3443039329255944e-03
      7.7421651129547901e-03 1.4941704222551710e-01
      -3.7323875243825463e-03 -4.4543809610453941e-02
      1.0951949476616988e-02 -2.3445942037485408e-02
      -9.1617968259352756e-02 5.7945023646119809e-02
      1.2806305677789658e-02 2.9909326861897026e-02
      3.7882006664336457e-02 -5.6137334865221142e-02
      -1.2593884082524107e-01 1.6485380206571709e-02
      -2.0462077360128731e-02 3.9569760762356326e-02
      -1.3635812608014697e-04 5.8928688664934226e-02
      1.1705550544364455e-02 -7.3195017600452125e-03
      -7.0889707336405428e-02 2.2550607660770033e-02
      2.1732801679359932e-02 2.0233282769771842e-02
      -1.4227308204559386e-01 -6.6207803758801956e-03
      -2.6713522292479065e-02 9.8774573058828669e-03
      1.5075339207392291e-02 1.3364397317616451e-02
      -3.8547251951991920e-02 -1.3900604275581607e-02
      4.8117298172150491e-02 -4.3823587918918820e-02
      4.0773567397412646e-03 -1.5109728330664388e-02
      4.3649124563790921e-02 -5.0013876771416506e-02
      2.9324189648864702e-03 1.1444037320582754e-02
      4.7699659332795512e-02 3.3558259625302921e-02
      1.7714158779776969e-02 -8.8023590727013781e-02
      -8.9872873660708178e-03 -1.8831651052270568e-02
      -1.9291750404417244e-03 5.3588732023235490e-02
      3.6384212014653236e-02 2.5228318327183454e-02
      -3.6133735641676080e-02 4.1663787731663782e-03
      -2.7258427045012704e-02 -7.7280333807909071e-03
      3.2070190421112532e-02 -1.6099848502945546e-02
      -1.5487740364986885e-01 1.6892175299610802e-03
      -8.7769072313905062e-03 9.2854052971587161e-03
      2.2563894830843673e-02 -2.6359454997194776e-02
      4.9189297480729081e-03 -2.4459618097415984e-02
      4.0521536013437658e-03 -7.4259497472215691e-02
      -1.5494368300579152e-02 -9.1988931537548193e-03
      4.0995993974991277e-02 -1.9549396464426557e-04
      -1.4377246774639532e-03 -1.4891746835615372e-03
      2.1391650809507532e-02 -1.5548777867372882e-02
      9.6195304713817126e-03 -2.2871201974484674e-02
      2.5549633987929258e-02 3.8096101929628173e-02
      -1.5325674071452151e-02 1.6468566174158931e-02
      -3.8107719296574062e-02 -2.6347542077191553e-02
      -2.0902081759421522e-02 -2.4626498829831184e-03
      -3.6045322693699311e-02 -2.6761882768202707e-02
      -8.4322314158952606e-04 2.5554254089909325e-02
      -1.2266102341520721e-02 -8.5585353676227434e-04
      -9.4737349641902009e-03 -3.1335118028101440e-02
      1.7776255355204742e-03 -2.5851144086140417e-02
      1.8180256093717612e-02 1.2219634984557781e-02
      -3.0860990995282573e-02 4.5514805738904276e-02
      -2.7638811624427072e-02 -3.5815447230687886e-02
      -5.2775347517186814e-02 2.5628715808055518e-02
      6.9079793859815428e-02 2.6990176176523092e-02
      -6.2926776953521526e-03 1.7846039222903093e-02
      -7.6322313884459592e-02 -3.5432998403932721e-02
      -4.0458471987108294e-02 3.4849630391685198e-03
      -1.4194033903942359e-03 1.4991306988488029e-02
      -5.1147292214148562e-03 -3.1707205395602289e-02
      6.3803566017332052e-03 -4.3584098510929127e-02
      -2.4455001494622802e-02 -1.6234026088033732e-02
      1.4819269559922670e-02 -3.4157106544289155e-02
      6.2415040061396740e-02 1.3966439154167133e-02
      -2.9724074607067049e-02 -3.3321323201719252e-02
      -5.6242486365884557e-03 3.1794959383815997e-02
      2.8098131646646114e-02 -1.8199278043575712e-02
      2.9034287939430875e-04 -2.4243469700874570e-02
      -2.5027816516084139e-02 -4.8641082870623789e-03
      -1.9140028097090575e-02 7.9729024579145560e-02
      -3.6834135487069285e-02 2.0152335406664262e-04
      -4.8138225096504762e-02 -3.7732629937944788e-02
      1.2250825564244986e-02 -2.9259807140748946e-03
      5.0788936355936447e-02 -4.2820983921901520e-02
      3.4235663752457103e-02 -7.6913903314155471e-02
      -3.9266607708411281e-03 -3.4074579507999289e-02
      -2.4448019374568183e-03 -3.4342754734848872e-02
      -7.2753889270585972e-02 8.4446284748298421e-04
      -6.0018274071682122e-02 -2.8891442519515309e-02
      7.2820614964711664e-02 3.0010685793998987e-02
      1.9514835714248675e-02 -3.7469411847527001e-02
      -1.7765066828049961e-02 5.9209230572510346e-02
      -1.7254201116469341e-02 4.4038231475176576e-02
      -2.0307095764088616e-02 -8.1523041968494248e-02
      4.9396667840697871e-02 -1.8214924097235491e-02
      3.4102672501732309e-02 5.5644902134145281e-02
      -3.1665964106329339e-02 2.9321243744638389e-02
      2.6785387631398806e-02 -8.9491904979059386e-02
      4.4799690834229772e-02 -1.1019702462774533e-02
      3.6597939711561812e-02 -5.1290221426296932e-02
      1.1865898747595343e-02 2.3610532010404868e-02
      -6.2841088001112750e-03 -2.3775369371643058e-02
      4.1274530289538341e-02 -4.6319369720891502e-03
      9.6336598905799598e-02 2.1344043784920906e-02
      -5.6740690363929558e-03 2.6489605735332652e-02
      -3.3505116001673767e-02 -2.7328240744203367e-03
      1.6317355614508589e-02 7.1650173204641015e-03
      -2.2335749980538652e-02 1.2123056527278681e-02
      -2.1735495170410336e-03 -1.0482846196832160e-02
      5.5619900525648400e-02 8.1076406075537115e-03
      1.1747927269057590e-01 -1.8170208079137107e-02
      1.2796416514720457e-01 -1.1591604536731361e-01
      -2.6215914907605853e-01 9.8973961918398412e-02
      -3.3030680872959982e-02 -2.6971914691531620e-02
      9.7577592738658916e-02 2.7558175221457842e-02
      1.9775986039021667e-01 -6.9554869643197487e-02
      -7.6011116375069698e-03 -1.1286815175652044e-01
      4.6038624446681220e-02 5.0242102056517107e-02
      1.8372121356398732e-02 3.1716367269080670e-02
      2.0743616774716611e-01 5.1166971143951086e-02
      -3.6367868222628795e-02 6.7327090892879707e-02
      6.2455950765445363e-02 3.7988089455520862e-03
      6.9210584631826551e-04 -2.8086413430513088e-02
      1.4819037303558144e-02 3.5032755786051158e-03
      -3.3069930821433738e-02 1.6526064081340077e-02
      -1.2553466865028387e-02 -3.3020492301387414e-02
      2.8456218293307616e-02 -4.3441378409191635e-02
      4.6487026171367324e-01 -1.6802942273569557e-01
      -1.1704214972754050e-01 2.8484736980863606e-01
      1.2387433605006283e-02 1.4085641500393058e-02
      1.1005187268827403e-01 -2.2993113324679197e-04
      8.7754534371903878e-02 -4.1791936649936925e-02
      -9.7141692238892963e-02 1.1666581234728716e-02
      1.0572507798264092e-02 -9.2650713531846549e-02
      -2.1006378973778020e-01 6.0982348722394303e-02
      -2.6300342056779979e-01 1.0182600031103770e-01
      -3.7837303114454213e-02 -5.2248285634555833e-03
      3.1657810666257297e-01 -7.0197844403222980e-03
      -1.1933118825425450e-02 3.8963324462833057e-02
      3.4792884295128293e-02 6.8987782484688412e-02
      1.3406067846780698e-02 7.1624550749535137e-03
      -1.3228194969688423e-01 2.6859992197218546e-01
      1.7744853528612489e-01 -8.7258365543264394e-04
      6.1754548483576011e-01 4.5201405083446118e-03
      -6.1793379932668285e-02 1.5614832309989835e-01
      4.9058011802141831e-02 9.8051325056656674e-02
      1.6137725053079230e-01 -9.9476239441167097e-02
      -1.0088593332699528e-01 -4.2932583891441729e-02
      -1.2333503551267838e-02 6.6192334155301957e-03
      2.8157851818942595e-02 -1.1973857938535834e-01
      2.2651296762673752e-02 5.7450157674824615e-02
      9.3995643679895366e-02 8.8064244589562482e-02
      2.8563735274765256e-02 6.7372093907227218e-02
      -3.9386492980173646e-02 -3.0645674574355998e-02
      -8.4615281027663122e-03 -3.8961503917829917e-04
      -3.3289244180858433e-03 -9.1125307550169482e-02
      3.9444152879065927e-02 -5.0721300369384575e-02
      8.5719699830560901e-03 -2.9040740930586100e-02
      2.3512316147428985e-01 -5.1656503959929566e-02
      2.9208864505268445e-01 -1.0940007372301200e-01
      4.7532781797324092e-02 9.1823836836556136e-02
      6.7179786645769873e-02 -6.8340097330041261e-02
      3.1368431381244188e-01 -2.8387839806737608e-01
      -2.4069969781235215e-01 5.8653797500423793e-02
      -1.0271028700640623e-01 5.1447121591762540e-02
      -4.5319505709534857e-02 1.0088844213229373e-01
      5.6846648248297868e-03 3.4076071121170552e-02
      -2.9727024633878642e-02 -3.0220900232545395e-02
      4.9515654395330122e-02 1.9353386868846793e-02
      -3.2699011426220026e-01 9.0423583582816668e-03
      1.0237147333385849e-02 1.7403349378353591e-01
      4.9613563747053911e-02 -1.3794769711492391e-01
      3.8928722941004655e-02 -3.3299676762003190e-02
      7.7187266156053855e-02 -2.2145787837045985e-01
      3.5112124052069288e-01 -1.4518919615146512e-02
      4.3211800913103748e-01 -2.1294162597295335e-01
      1.2429832229299066e-01 3.8517203285159340e-02
      6.0054640523356732e-02 -1.1000054891906044e-01
      2.5889960443680404e-01 -3.1383170985587949e-01
      -3.7833506032820458e-01 3.3100804253390605e-02
      -6.4470844668257615e-02 1.9149713201605978e-01
      -8.7790649106749580e-02 3.6958602217280562e-01
      1.2449092076617577e-02 7.3456278437924322e-02
      4.7208803016229250e-01 -1.1976001865692444e-01
      2.1976700663316789e-01 1.3826842862564312e-01
      -8.8433610561767428e-01 -2.3679032985983891e-02
      -2.6677811277679292e-02 2.7443511985160590e-01
      -1.5076711320186283e-02 -1.5916586737108848e-01
      5.3786967334963784e-02 -1.1930929117421098e-01
      1.5119182602328085e-01 -5.0107520253875282e-01
      1.8682771604510093e-01 3.1717941868262975e-02
      3.1582917709366154e-01 -2.9587892795290460e-01
      1.2252059687439658e-01 -3.2753774258997594e-02
      1.7998930588537285e-01 -1.7556536160272727e-02
      8.4650319151529083e-02 -2.7823477241020911e-01
      -3.8801281695536155e-01 1.3001269873055282e-01
      -3.6751513567787421e-02 2.8057250607280260e-01
      -5.0522988918463359e-02 2.8701320594472179e-01
      -2.5268919340980361e-01 3.2348441879929218e-02
      2.2081858463164097e-01 -5.7614146699234536e-02
      1.7580675404319018e-01 1.1801384905870888e-01
      -6.4061434106976078e-01 -3.6727257203447959e-02
      4.0671067516125009e-02 2.1764582323326451e-01
      -8.3853678082851005e-02 -1.2079621962087647e-01
      8.8098876191860007e-02 -1.3004487076050278e-01
      -7.9726235348175328e-02 -2.1243369947135082e-01
      8.9648556524558137e-02 -3.9977369770331131e-02
      1.7059587949782021e-01 -1.8717554445136339e-01
      -1.0602925486140548e-01 4.7854979840492612e-02
      2.2657205731104406e-02 -8.6525649950457473e-02
      -1.4269362879785910e-01 -2.0598033288161816e-01
      -1.8483367942042733e-01 -1.2649241128658957e-02
      -8.4148250608386016e-02 -1.1542850907246585e-02
      -3.8525425088938969e-02 3.0197760022168718e-01
      -2.1531686161699770e-01 -1.2351764591687454e-02
      2.4623579359390138e-01 -1.7469906879575926e-02
      2.8600715446351552e-02 1.1719151717260932e-02
      -1.6734440374840664e-01 5.0989055313217973e-03
      4.0920549649422523e-03 1.5375020840823789e-01
      -2.4326336123735217e-03 -6.7091586135292064e-02
      1.8801419843568069e-03 -7.6362408131868511e-03
      -1.3343496380606293e-01 -1.5335793030387751e-01
      3.4440744408049138e-02 2.9300245543259799e-03
      -7.4843825502848582e-01 1.4203410084192137e-02
      -1.2007177631643134e-02 1.5804917979808156e-01
      -8.8828780487142489e-02 4.6369379347718932e-02
      -1.8934256190965329e-01 8.6171501945771223e-02
      1.2060200186228950e-03 -8.2425409915163964e-02
      -3.8692080367802355e-02 -6.4884346217311470e-03
      -9.8371676720084802e-02 -1.0998851449956467e-02
      -1.9977090489624431e-02 5.4501273398634448e-02
      2.9509622591056195e-01 -1.0011046285363580e-01
      4.1875079611412666e-02 -1.0331900590972256e-03
      -1.2197083841042426e-01 2.5044917842528186e-02
      -4.6965219976230897e-02 -4.5107760840966439e-02
      1.6249779274594225e-02 4.1553920137258286e-03
      -1.1686328039308370e-01 1.7263806538529148e-02
      3.6953838958440989e-02 8.5851814821686967e-02
      -9.3902222672295796e-02 -1.9605093051556454e-02
      -3.8011270162073590e-01 5.5147910205279420e-02
      1.1895893152438201e-01 1.4972261799319975e-01
      1.3242361945776524e-02 3.0128568842462570e-02
      -1.2166952812012306e-01 7.8778200406591253e-02
      3.4097616784466364e-02 2.8448435929384789e-02
      -2.8859942087870741e-02 -1.3775287959797154e-02
      -9.3139624398404605e-02 -2.6299545006923453e-01
      4.7744353645530903e-02 1.0313602277553173e-02
      1.8982642474423908e-01 -7.9122838524721642e-02
      3.4532051505428191e-03 -1.8542137758510830e-03
      3.9215399541792699e-02 1.3269194613606263e-02
      6.5116294625667797e-03 -1.1496923760142568e-01
      1.1526622812482510e-02 -7.4556373149276389e-03
      -5.0319514123770434e-02 -1.4778908223384608e-02
      -4.1917845516583237e-02 -2.3194586831688971e-02
      -1.4175986897112558e-01 3.8706116954877245e-02
      -3.8560554191397062e-02 -6.6334112459830938e-02
      2.8864653115774908e-02 -3.6234616561502592e-02
      -2.5371835552937934e-02 3.9043906977989477e-02
      -5.7040849683657580e-02 9.9602756741689016e-02
      -9.4364319737168401e-03 -6.0897285895520806e-02
      5.6212728754553611e-02 1.2409259055575586e-02
      -9.5659113827020054e-03 -1.2489448276501856e-02
      -5.3029545061305623e-03 1.0154449038640958e-02
      -5.0858374929275293e-02 -2.5644177724497730e-02
      2.9993044754911973e-02 -1.8568232585273473e-02
      8.7396802913013799e-02 5.3703263867865357e-02
      1.7102471966663143e-02 1.7636545871312890e-02
      -4.8993675223868351e-04 -9.5014456815600869e-03
      8.1638660777771394e-03 1.3331437686563872e-03
      -4.4242754844886295e-02 -4.4924389369578226e-03
      -4.2851873557007425e-02 4.7604372563001943e-02
      -1.6135448599230004e-01 6.5286022387489664e-02
      7.2480253192112307e-02 9.8256655321281045e-03
      -8.6825470265319796e-02 1.5061846212006879e-02
      -1.0849561143520996e-02 7.4646361863397209e-02
      -2.4935684325737475e-02 -2.9318787637602987e-02
      2.4511577096618001e-02 -6.5177661604631273e-02
      -3.2013541851322089e-02 -5.0612339790337257e-03
      1.5627624040708690e-02 4.9592012935731717e-03
      9.2142510863078078e-02 3.7688042412550186e-02
      -1.8450737572782615e-02 -4.6817182875038554e-02
      1.5239639328144117e-01 -1.4801298539673919e-02
      -1.0246927851709038e-02 -4.5730935082900027e-02
      3.5287448838779390e-03 8.2322187001435537e-02
      -8.2787205696924049e-02 3.3467712969396830e-02
      -2.8350428393102384e-02 6.0010040592986598e-02
      -6.9366121536357586e-02 4.7369122240418580e-02
      -8.5265269594109128e-02 -3.6552396989412095e-02
      5.4992042638063988e-02 -3.7234849947009728e-02
      5.6468652409619582e-02 6.5730971553899564e-02
      -2.6757347383699493e-02 6.5138704163711439e-02
      -1.5192457535600407e-02 -7.6843683564671037e-03
      5.3791051428047403e-02 5.5375133623683528e-02
      4.0521586743844977e-02 4.2477468143510173e-02
      -2.2220472658160451e-02 3.4415915495557788e-02
      1.7575763105438864e-02 -6.6909977551337539e-03
      1.4222669381314888e-02 5.5149606115611734e-03
      9.2278574670083172e-02 -3.8530792692819615e-02
      3.8678120749079579e-02 -1.2044868336547436e-02
      6.7180412505880591e-03 2.3796435528745705e-02
      2.8045608914485952e-02 -3.2168908213241469e-02
      -2.4445863518897281e-02 -4.6802176742083035e-02
      -1.4870525659788528e-02 -1.4435501062052016e-02
      3.5164753917945150e-02 -7.0518306178408300e-03
      -1.4271956634735655e-02 7.1053290351827392e-03
      1.6311256257572074e-02 -6.8661955543316625e-03
      2.9702604961305536e-02 -1.5297265939338413e-02
      3.5966159311050593e-02 2.0804988600008956e-02
      -3.7458539454614313e-03 1.7137999881689792e-02
      -1.3462054238615226e-02 -3.2448906818040676e-02
      5.4189384264233366e-03 -4.7999241227603502e-03
      -4.1582733845365039e-02 -1.2288295657971149e-02
      -4.3439568521718049e-03 3.1934668450394582e-02
      -1.8500081056090481e-02 4.5238298320344822e-03
      -6.2601425156466580e-03 -2.1379344630957160e-02
      1.2729044304451438e-02 -5.4371791181308613e-03
      2.3514527941769451e-02 1.0555356609658945e-02
      -4.2026482319370395e-02 1.0780489296821115e-02
      6.3449906929282762e-02 -3.6064641225769523e-02
      -2.7420322367666855e-01 3.1764000881405845e-02
      -1.2223943875350024e-01 8.9870938635410666e-02
      -4.1974937528860341e-02 5.6949805122260160e-02
      -8.8623581498086065e-02 2.0591240108941405e-02
      -4.9470158380200059e-02 2.3618928352116937e-02
      5.3182827091943835e-03 -2.0196127457241246e-02
      -1.4584560430433038e-02 -4.3582288896482101e-02
      3.3483900320254015e-02 -5.3860590259869660e-02
      6.3149709538527679e-02 -5.8254515275106000e-02
      -1.2689069009768839e-02 -1.9746390935820864e-02
      -3.8354182052763218e-02 8.6886231563143967e-03
      -1.4564460105279797e-02 -5.5699157138350656e-02
      -4.8526875841808691e-03 3.9319100886804369e-02
      -1.4199866097093779e-02 4.1394303364420300e-03
      7.1936459582823589e-02 6.4173516763674021e-03
      2.4341093084386291e-03 2.4475985039387150e-03
      -1.1224193194583700e-01 -3.0287626077560386e-03
      7.4140636436830030e-03 -2.0718429784742982e-02
      1.4096779381569024e-03 -1.7566525249792992e-03
      -1.0253154410830216e-01 -2.0189441289863927e-02
      6.7897830581466583e-03 -3.3275895135357135e-02
      7.0297108506345895e-03 -1.6583558739357622e-02
      -1.5917334174220279e-02 -6.3345556740207762e-03
      -2.6386203527143097e-02 -1.1269696118205212e-02
      5.0279333449203656e-02 -1.6009999647469027e-02
      1.9805155153006033e-02 -1.6575327281675878e-02
      6.0144636812848512e-02 8.5166217542107479e-03
      -3.6465409889338356e-03 -1.7752452727671099e-02
      -1.7070798074487605e-02 -3.6549152664475922e-03
      1.7119392021546713e-02 -1.6995052170156556e-02
      3.4966678790821228e-03 -4.6149490503799490e-02
      5.5771096122286597e-02 -1.6192119818563549e-03
      1.3328496948500185e-01 8.8415386313766067e-02
      2.7814781840982067e-01 -3.6137669931623692e-03
      1.0497690044044628e-02 -5.6543008827526969e-02
      1.0255318687441199e-01 -6.1096310128471831e-02
      -2.2735241046186797e-01 -2.3884810866243569e-02
      2.4362634452228586e-02 -1.4972572197690315e-02
      -1.9778587139242420e-02 -3.5477346583100659e-04
      3.0996583061451657e-02 -2.3905895712470766e-02
      3.8784437551665600e-04 1.4375334711647368e-02
      3.1300201430335281e-02 6.1375038627292967e-02
      -1.8554630353685719e-01 2.3894074035797543e-04
      2.8595903668217303e-02 1.9831896479847544e-01
      -6.7598703126871620e-02 7.3747905945963130e-02
      4.8411146994925530e-03 2.1138260823890310e-03
      1.4429347395012149e-01 -9.1859856060741860e-02
      2.9616867171350234e-02 3.7012728265866303e-02
      5.9469141684457601e-03 -1.1730327686603433e-01
      -4.4299175923135536e-02 2.1857054362524547e-01
      -4.5378549687294545e-02 8.3842284660077069e-03
      1.6982835813406949e-01 1.2871767247349400e-01
      -1.8887582293851277e-01 -9.2818956765470015e-02
      1.1640903059223702e-01 -1.0132090040279208e-01
      9.2568264324260602e-02 5.5343193035145836e-02
      3.2008369336985604e-01 3.9888082815050477e-02
      1.9389606493825051e-01 8.8890225599454295e-02
      -2.8575288722912571e-02 9.8444079339776933e-02
      3.0367532848493445e-02 -1.4601726103038911e-02
      2.9604830808150125e-02 7.7168181986040588e-03
      -4.8463730753846308e-02 4.0898371161213323e-02
      2.8899907969036731e-03 4.0506813665899099e-03
      3.2797443599919408e-02 -2.5631043780363899e-01
      2.3541644813334747e-01 -3.2035402461709488e-02
      3.0275551558877811e-01 -1.3728916316730205e-02
      -1.0441740855104337e-01 1.4541129549599352e-01
      3.9264626536490273e-02 6.8123526936749848e-02
      9.5814026562713123e-02 6.6974572127504475e-02
      1.7928434851194091e-02 -1.9424074214350678e-01
      -2.2028223172448676e-02 -1.3867799988194121e-01
      2.5070592336568245e-02 -2.0732962936751257e-02
      9.2249789768161949e-02 1.5127079516960844e-02
      -2.7962840556332209e-02 2.3905897699247315e-02
      -2.5332511193439187e-03 4.4631980125723787e-02
      3.6575843608919308e-02 2.2976682188838637e-02
      -1.6508848126804261e-02 1.1146088915009617e-02
      2.7437795392184720e-03 -7.5357644061075049e-02
      5.5323910678334177e-02 -3.1536740828323681e-02
      6.7077178211662522e-02 -1.8376012841977271e-01
      1.3033491537341005e-01 -1.2255173497840697e-02
      3.2497022108154616e-01 -8.0712903481416257e-02
      2.5826046509944323e-01 -8.1443915810465381e-02
      1.3070288373736044e-01 1.3340561949359370e-01
      2.6485633358369737e-01 -2.5639120344790589e-01
      -1.7902092633778460e-01 -9.3727092591682992e-02
      -1.0898209123783151e-02 1.1248013288065248e-01
      7.3224932881448171e-02 -2.1394208153693917e-01
      1.9932129482770169e-01 1.4814350499690848e-02
      6.0204943342933040e-02 5.9378886517580477e-02
      3.2854943929297928e-02 2.6828149643998836e-02
      -3.8810507660583060e-01 -2.4738073970574235e-02
      5.4269729081010201e-02 -5.2014278535058300e-02
      -2.5215000328331495e-02 -7.1005704131010858e-02
      8.7948200447376820e-02 -4.5820893443291093e-02
      2.8003275259979554e-01 -2.5545088146494471e-01
      1.5827607792930920e-01 3.5411480968546766e-02
      2.8478120468145679e-01 2.6568399294123368e-01
      7.3329170599240559e-02 -2.5027508414770375e-02
      -1.8255728966922657e-01 -9.5874648701580509e-02
      3.4213824797376857e-01 -2.0194171306597011e-01
      1.1123317109399816e-03 -6.2756703478767634e-02
      2.9347076905795064e-02 -2.6681787587109790e-01
      6.1628927496030139e-03 -1.3190561261262715e-01
      3.1414826892139680e-01 1.9730032265631017e-03
      -1.3038104898985517e-01 1.0147738286963642e-01
      -1.6741600388672107e-01 -1.1285001134367414e-01
      1.1314708823119526e-01 -3.4860934502087979e-02
      2.9439869736795212e-02 3.6337813633309346e-02
      8.5186985381314612e-03 1.0858420072834474e-01
      -1.3696342391790609e-01 1.1395798100918805e-01
      2.9240097162345258e-01 -4.4016318647919472e-01
      1.4447052423599088e-01 4.8498290096562965e-02
      2.0678520851321480e-01 -1.6564252150056399e-01
      3.4941094838344716e-01 8.9264935449717656e-02
      1.2006587318972989e-01 1.4102400019444150e-01
      2.1597783459823919e-01 -1.3136680739631298e-01
      -3.2778132407262239e-01 6.3016672215242528e-02
      2.0389886778362148e-02 1.6654065256763814e-01
      -6.8128688514359187e-02 4.2812906222372583e-02
      -1.5871434797376399e-01 -4.8922213124814644e-02
      1.4659618616991768e-01 -8.5345503115589000e-02
      1.1730048931368284e-01 7.0883609665949796e-02
      -2.6151344257360271e-01 2.0813095977674886e-02
      3.8510677834843382e-02 1.5081247392112246e-01
      -6.7369575890351655e-02 -7.3865580215593737e-02
      1.0150405578467250e-01 -7.7711251825665476e-02
      8.3672096852444658e-02 -1.9789873117170814e-01
      7.7902194170328523e-02 4.1182237797116238e-02
      1.0787428242817572e-01 -8.1260465276702137e-02
      1.2147088238628273e-01 6.1566809885040943e-02
      -1.8311151945317211e-02 -5.0603631573470108e-02
      -1.7491810847301420e-01 6.7689505010871856e-02
      -1.8553536991650493e-01 1.2268079035341499e-01
      4.1515706452896498e-02 1.3485795244362964e-01
      -7.5227096821789255e-02 1.2465648101453400e-01
      1.2398936464470130e-02 -6.0494677316101607e-02
      -1.0576931754046409e-01 -7.4937925270850844e-02
      3.7946619763616352e-02 1.7485852994279918e-02
      -3.7588752707886736e-01 1.2993564356537550e-02
      2.3677354002535886e-02 2.6322131292278805e-01
      -4.8620492380594307e-02 9.1542214175208511e-02
      1.6226968054804065e-02 -2.1518639156830967e-02
      9.5734556934919932e-02 -2.2543015252332935e-01
      5.0192467461035555e-02 -2.3617869810312289e-02
      -1.5604482376051207e-01 -5.0584548507152667e-02
      -1.1434984529006491e-01 8.3126874523558013e-03
      -2.5281005461230327e-02 -9.9188113815154938e-02
      -2.7965768555737103e-01 1.5533685254100973e-01
      -1.6388521979614271e-01 1.2533887850192280e-01
      -6.1451397096861170e-02 1.0095060711648084e-02
      -1.2548681614951732e-01 1.7479012753864873e-01
      -3.0360825259252967e-02 -3.7406736656960496e-02
      1.3104074926624992e-01 -7.8264373657637193e-02
      7.4096805594051254e-02 3.7751123087454416e-02
      -2.8290208336197881e-01 7.7312727108940697e-04
      -3.7332045290885144e-02 1.9346201785294773e-01
      -3.0834405460814555e-02 1.5094164496196190e-02
      -2.0126279445908578e-02 -3.1027318096572033e-02
      -9.2571136662929113e-02 -6.9848157229212707e-03
      -1.5298495561107017e-01 -2.6531001944800157e-03
      -3.7538215518280921e-01 2.5825626391524720e-01
      5.1198344517821806e-02 6.5113911329151139e-03
      -1.5232076737902286e-01 -6.5382860254964814e-02
      -1.8306205065959816e-01 2.3706018562387307e-01
      1.5366209587265806e-01 -2.4461690335329030e-02
      -2.8950695066634717e-02 -2.0243906053426403e-01
      -7.5277113742604290e-02 -1.0668420600502296e-01
      2.9163168095019465e-01 -4.5251847587560859e-02
      1.6475282409363864e-01 1.1636970057010263e-02
      -7.1985374664994481e-02 -1.0899323848113783e-01
      9.7535688204851506e-02 -2.6778248004622682e-02
      4.6479908792359101e-03 1.2652836844559293e-02
      8.2396351988739385e-03 1.3917530130447772e-01
      -8.2307139146250860e-02 8.1694999979197269e-02
      1.5331791806075828e-01 3.0778851434714655e-01
      1.4621844214676394e-01 4.3102548757527594e-02
      -4.7244036774190618e-01 1.0697500626877829e-01
      1.0482242562669884e-02 1.0003930924289620e-01
      -1.1571971700022168e-01 -3.0852063106865273e-03
      -2.4296820084942342e-01 1.6755318634470492e-01
      2.5942339618210367e-02 -6.9352108195873965e-02
      -3.7376983215022870e-02 -1.1011787015312900e-01
      -6.2633614691648867e-02 -4.0330495489938606e-01
      1.6125015834215770e-01 6.4573001532145138e-02
      6.2603654193587355e-01 -1.9976041182376010e-02
      5.2428342166381849e-03 -4.0071637066942216e-02
      6.1662080366462209e-02 -1.9817969312165378e-02
      -5.6332907814077874e-03 -1.0464228409483343e-01
      1.9104657490722290e-02 -5.1324399374998844e-02
      -9.1590094195089219e-02 4.7892788403678119e-03
      1.9191082932368450e-01 -3.6607126412567421e-02
      5.1275781537030884e-02 1.8590016411520305e-02
      -2.0660992004002187e-02 7.0509356259298023e-02
      2.6864625035078617e-02 8.2151867296913664e-02
      -1.0375450408831147e-01 -6.6222744986197568e-02
      -8.0192124880926752e-02 2.1812635313800172e-01
      8.4105529467966275e-02 -3.4429744453713225e-02
      -7.1808292948513791e-03 -1.9145577155086760e-02
      -6.3089903798963093e-02 -3.5953898419158033e-02
      -1.5159658655872371e-03 2.0412955387405240e-02
      -1.9644173607301422e-02 -1.7933770520163712e-02
      -7.6812766214833059e-02 -6.5297299108872164e-02
      1.0110153057368648e-01 2.7852420905058062e-02
      1.3023881423756578e-02 -1.0710622698185627e-02
      2.7263675367603168e-02 5.9256113868339469e-02
      -8.1075302880179168e-02 4.7196216554603362e-02
      -1.6584387540757967e-03 -7.9997604033479081e-02
      -5.3993266891760483e-02 3.2471274069787982e-02
      -2.3459474528559399e-01 1.5973815861399973e-01
      1.0314777955922143e-01 1.6453418039774639e-02
      -1.9384553508662000e-01 -9.0069361413309429e-02
      -1.1204778705985599e-01 2.1082718478740023e-01
      -3.7099898710405158e-02 -7.4833217438007443e-02
      9.4412228218177574e-02 -9.8801836583955541e-02
      -9.5045987109003527e-02 -3.2787543668722566e-02
      5.8878136616675521e-02 -1.3965241858220420e-02
      1.7583734002938806e-02 5.9214283593868660e-03
      -4.0787353771373103e-02 -7.0612504845908919e-02
      2.6979150237512983e-01 3.5466640993895154e-02
      -2.2610658407648969e-02 6.6423805016117082e-02
      3.6470983849402221e-02 1.1072313800266097e-01
      -9.8683220097069896e-02 7.2470202710253104e-02
      2.3195802492477432e-02 -7.0748501806674136e-02
      -1.2412543136711247e-01 8.4843618774800719e-02
      -1.3578648930667372e-02 1.7266875011530103e-01
      -3.8002158228044598e-02 -5.5041952682398879e-02
      -1.5428832609954141e-01 1.6084897492619741e-02
      5.3465512870963107e-02 1.5657434465958470e-01
      -1.6338761154856324e-01 -9.4282440916041821e-02
      1.0644824620175142e-01 -1.6502607722916357e-01
      2.5487277906591208e-02 -8.6040068485191551e-02
      1.1053394881371113e-02 -2.1118324045789838e-02
      -1.2720754387312339e-01 3.4297180215829358e-02
      -8.5738152165526521e-02 -9.0354065134522266e-02
      2.9539151447019696e-01 2.2016102478969554e-02
      3.8038573130102907e-02 1.6013312722085192e-02
      -4.1811925486821841e-03 1.5495469247580121e-01
      -6.9660996196110520e-02 8.9099709233855795e-02
      8.6810708673892512e-02 -2.0238041067822862e-01
      -5.4078644961866405e-03 1.1613287112178414e-02
      2.9643478609427554e-02 2.1815529607218356e-02
      -7.4287649502347173e-03 -4.6231169430963039e-02
      3.7225497080772456e-03 1.0800738165805202e-02
      5.6083460558620556e-03 -1.2673605958690834e-03
      9.4696592786984723e-03 -9.8510367016235653e-03
      3.3589192957500648e-03 -4.2234510400162052e-03
      -1.5003021678228448e-03 -2.0278364334623693e-02
      9.3150483609336955e-03 1.0720141664754466e-02
      -5.1351621413414074e-02 -4.9608581654952723e-03
      -3.8063557563405431e-03 2.9865967288198073e-02
      1.0282563108435677e-02 6.8026035066045291e-03
      -5.2191225148895543e-03 -2.2154465737723112e-03
      1.0276702316248686e-02 2.4083138004438514e-03
      1.9207375280384891e-02 4.7658010150769710e-03
      -2.5797498893798880e-03 -1.4482768360499464e-02
      7.9777396835293501e-02 -2.9334018352208471e-02
      3.5489345280545516e-02 -2.8364114459757544e-02
      -1.0185725031446373e-02 -5.0334550433314293e-02
      3.9505755048812749e-02 7.6555340030261251e-02
      3.9712842555361894e-02 -5.8210397997218111e-02
      9.6386493068514802e-04 3.6199060756352971e-03
      -2.6128352492014234e-03 1.0424479957832029e-02
      -1.8998787975279478e-03 -1.1456419853815929e-01
      -6.0540185573419752e-02 1.5103864010365255e-02
      2.6554002291415281e-02 -3.3621798653591502e-02
      1.6188106648028850e-02 -1.1350394188483688e-03
      2.7982774988273384e-01 -1.2757856664495462e-02
      7.6003062671079766e-03 -1.2522296912322392e-01
      2.3307816437757114e-02 -4.9454093311185721e-02
      5.4084318738060314e-02 5.7311298177530222e-03
      -1.3110372002344918e-02 -2.2601717776728866e-02
      4.0069380570875515e-02 6.1809072409500197e-03
      -1.2886239955504142e-01 6.6133758053824154e-02
      5.3388554538880445e-02 1.4835869582556976e-02
      -2.7807196582457908e-02 -2.1940288423512977e-02
      -8.7535187354859309e-02 -1.9718213986275015e-02
      -3.6553912514630964e-02 -3.2656223845440322e-03
      2.0504088134308610e-02 -6.1623690112445360e-02
      -3.3792739300398916e-02 -5.9399322401107062e-02
      8.4392455392190285e-02 1.2543826576347358e-02
      1.1593159094289764e-01 -1.9635175369264856e-02
      -5.9546687117904189e-03 2.9286821194635507e-02
      -1.1548022433997218e-02 -2.1468768581431857e-02
      -6.7943395068129821e-03 1.9196034435375726e-02
      -2.2189295927239647e-02 2.7102693035024255e-02
      -1.4288632565324132e-02 1.9218642786921484e-02
      3.4277899807528343e-02 -4.4113674344911522e-02
      -5.6908930679323545e-02 1.2033746524794438e-03
      1.5455127189380273e-02 1.7041923749369869e-01
      2.1844407222048776e-01 1.2106471764647951e-01
      3.6938681515625932e-02 -6.2571081706094350e-02
      2.4462466749615192e-02 3.4280219070077231e-03
      -1.3704951090827097e-01 -5.2398991952325738e-02
      2.7607497276459409e-02 2.6047557157592984e-03
      -6.1245294952958503e-02 1.1531515535493798e-02
      1.1088696174243151e-01 2.3117005960360468e-02
      1.6581247341374122e-01 -8.0518124064623952e-03
      4.6617121151361698e-02 2.5609190571647168e-02
      -2.4555469357330703e-01 -5.6010203862437949e-02
      2.6640980276222231e-04 8.2671706810602222e-02
      -7.9002061170474480e-02 -3.4207265959181558e-03
      -1.7674950804783568e-02 -4.1808743151894714e-02
      7.3429373056228431e-02 -1.0458598897129176e-01
      1.9951386716528022e-02 3.8677315508390611e-02
      -2.7845077795274642e-01 1.0144176040193272e-01
      5.7735218184904867e-02 6.6248366653416380e-02
      -2.5220666023722527e-02 -5.4310624163745942e-02
      7.3494338593805331e-02 8.4757819099183521e-02
      -1.3370575026472437e-01 -1.0861716412546471e-01
      7.3468043008212691e-02 -1.0007413110672674e-01
      -1.4753426094617586e-02 -1.1600757038823203e-01
      2.7243631213944502e-01 2.3529834168534672e-02
      9.7852617787196242e-02 4.3394592047436481e-02
      -1.3201364374553258e-02 3.3322159232214411e-02
      1.2638896251091558e-01 1.9830189447895843e-02
      8.2519847855032427e-03 -8.6009155579980894e-03
      -1.0514817934684175e-02 -4.8748552299478769e-02
      -2.4501646179240954e-02 -3.0532058400763753e-02
      9.3248819023542859e-02 -2.0967523981420175e-01
      1.2389629239352268e-01 3.3659832190665838e-02
      -2.5092467891090764e-01 3.2301364567630098e-01
      -7.0071964077550258e-02 4.1565177780421340e-02
      -4.9456253367342683e-02 9.0827448739609462e-02
      2.6694884893498755e-01 3.8620780449872744e-03
      -3.1139635377284341e-01 -2.5276624622178789e-01
      1.2032718732659778e-01 -2.5246920339791151e-01
      -6.9144446867436121e-02 -3.4486346309277749e-01
      4.3312906153819730e-01 -2.2294869816292109e-02
      9.0703633057431329e-02 2.0332195081872298e-02
      -6.4306155334602003e-02 -1.7125782245394513e-02
      -4.4897625762498762e-02 4.4974621571933472e-02
      4.4418167813789426e-02 -9.3267270376500927e-02
      -2.9464403758949154e-02 -3.6573941368761523e-03
      -1.2221612043076183e-02 1.1967350062450548e-02
      3.2747427502189808e-01 -4.9464837468778500e-01
      3.6703634766383789e-02 -1.2764634745107573e-03
      -2.3578931651692270e-02 -2.2592017717474662e-02
      9.4736941157629997e-02 8.4127954866782484e-02
      6.3393544080326505e-02 6.5744511611203121e-02
      1.9479243935039200e-01 -2.2612067571731784e-01
      6.1793654341021437e-02 -2.4344768593269089e-02
      -2.1074558766089869e-02 2.6903580429340889e-02
      6.6267711111220534e-03 -2.4700988232447037e-02
      -1.1825328013925283e-01 -1.9473722030649857e-02
      -2.1174639662315711e-01 4.9760818637683286e-02
      2.9908955562887623e-02 3.0311412567513629e-02
      2.5064233146687348e-01 4.3762078183443187e-02
      -7.2885328549899750e-03 3.3832342931661076e-02
      1.2073105390320601e-02 -4.3372485797126499e-02
      9.0598725046654727e-02 -2.9577050108989800e-02
      5.4744740601294181e-02 -3.9385551999950474e-02
      -4.9028200645511250e-02 3.7929085247247578e-02
      9.7598899787735022e-03 4.0812765373088290e-02
      1.8798752663254531e-01 1.5450978417262365e-01
      7.2713310812219417e-04 2.6821197403509425e-02
      1.7049631423730668e-01 -1.7034614303879386e-01
      1.7253046516623044e-01 -1.4883942623416338e-02
      -1.5700814424391472e-03 -1.0023195102282687e-01
      -1.9434372819456065e-03 -1.2058006407322981e-01
      -3.0565493691356225e-02 1.0974239254624076e-02
      -3.7095462393289307e-02 7.5993014761841490e-02
      -6.2568431922226025e-02 -4.8885508040401367e-03
      1.7664514956058408e-01 1.9966760230349340e-02
      4.5187069411578344e-02 2.2529188818587096e-02
      2.0328082422667378e-02 1.0422415876354939e-02
      1.5897849417333642e-02 2.1547794077712203e-02
      4.8567382126863769e-02 1.0878328944118382e-02
      -5.2390043922054257e-02 -2.3081736068823782e-02
      3.8232974129262229e-02 3.9905602249406926e-03
      2.0315031859575200e-01 9.0115059640361442e-02
      2.5071613819412905e-02 -1.2828626649891536e-02
      1.6540861732806042e-01 -1.5890615523827573e-01
      1.2050137867653102e-01 3.2609508244273548e-02
      -1.1633820881568523e-01 4.0251641127681488e-02
      -2.3532149016220350e-02 -4.8658854308305605e-02
      1.4442239129292270e-01 1.0378936085139744e-02
      -1.3570536848480280e-01 6.2245114936012355e-02
      1.5122530000470126e-02 -5.4345995656210573e-02
      -6.5170316285315347e-02 -3.6851645212208094e-02
      -3.9486433633426736e-02 1.3296868461516415e-01
      4.5999575452151630e-02 1.3056526047848907e-01
      2.2816240428895428e-02 8.7815861628574750e-03
      1.9744951115471907e-01 2.0290402199832414e-01
      -1.6478538414805798e-02 6.0469850986442343e-02
      1.1873274149659331e-01 -2.0201547536127049e-02
      -2.1366905415895435e-02 6.5983527890604549e-02
      -4.5019145784712380e-03 7.5485956863491771e-02
      -2.6911092128540187e-01 1.9185831949153509e-01
      -9.4586987524761121e-02 8.9762942712233132e-02
      3.4395047930556401e-02 -4.4427608310248891e-03
      -7.6829657372806073e-02 -3.7399944519522423e-02
      2.0756096140903890e-01 -3.0049584343928459e-02
      2.0041392648276868e-02 -7.7961269391677648e-02
      5.3824800141195818e-02 2.4919984887112061e-03
      -3.4680040065568557e-01 -2.9435614739499929e-02
      2.0415124223259720e-02 1.0070875712998238e-01
      -1.8940984102497008e-02 1.2155254137974002e-01
      2.5922835648186142e-02 -5.0054250599027668e-03
      1.7216967302676145e-01 -9.5723895900990466e-02
      -9.8011581892156599e-02 5.9497274406089769e-02
      1.2417986302639870e-01 6.6281218448920626e-02
      3.7684167704061633e-02 1.6870416553691495e-01
      -4.8406028185960466e-02 3.7556062488543593e-03
      -1.8243637183735562e-01 2.6814532280184944e-01
      -2.9656338773718294e-01 -4.3301563488902899e-03
      6.5921020675617184e-02 -6.9994728503431983e-02
      -9.6223443370650738e-02 3.9000455172975304e-02
      2.0476160706174132e-01 1.0425439439246004e-02
      3.3474465953436068e-02 8.9210544780734191e-04
      -8.2423133326913218e-03 5.6254876578233234e-02
      -3.2981543671627989e-01 -1.2514667701047047e-02
      -3.1448342414363976e-04 7.6064717052920172e-02
      -2.1653741624986417e-02 2.0619053100013204e-01
      2.7743170581281738e-03 -1.4388168168305949e-02
      9.9503565437352545e-02 -9.3527948568725580e-02
      -1.4054146470736281e-01 -2.1331992306666353e-02
      -3.2582921630326694e-01 3.8813267018038911e-01
      -6.3811149914015375e-02 -9.5161917774096938e-02
      -1.6688717794022043e-01 -1.2463718410712649e-01
      -6.7700846280579194e-02 3.3957006316092198e-01
      -1.3298690422413534e-01 -3.5821796803538516e-02
      5.1920766420113743e-02 -3.0299965941611051e-01
      -1.3326405583053716e-01 -2.0621203215507022e-01
      1.7322922958537598e-01 -8.9576222254867846e-02
      1.2168472538332913e-01 9.3056225744436102e-03
      -1.5572203850139316e-01 -1.0294836830083190e-01
      -3.1065562408931401e-02 2.1242783851897450e-02
      2.3433245666672421e-03 -2.4204210373876503e-02
      -5.9524594634236799e-03 1.5502051256143345e-01
      -8.8197445658649190e-02 1.3060697285594786e-01
      4.5914106012567096e-02 -3.2267939885392705e-01
      -1.1692794637873479e-02 -1.4817685431268450e-02
      -4.1045399946887307e-01 2.2139470789278176e-01
      1.1852717765822585e-01 1.0071023384305068e-01
      -1.1106571501120299e-01 -6.4372281367575793e-02
      -2.0637246576695717e-02 1.2836708481725725e-01
      5.5261989135997102e-03 -3.6652785377456559e-02
      1.6545695847163991e-02 -1.3994464683826005e-01
      -1.0627749905264047e-01 -3.2012792447635557e-01
      1.3195729677325652e-01 2.9789157443675884e-02
      4.4959787527229206e-01 -1.4447546145629816e-02
      -1.2545031807896787e-01 -2.4727803520744201e-02
      -2.4382697792026221e-02 -1.5120269726050036e-03
      -1.0388849891751267e-02 -1.7061040863453011e-01
      4.4891132232435862e-02 -2.3877186478654428e-03
      -1.0283235660897026e-01 6.1841250444621451e-02
      -1.4204896067350406e-02 -2.5009558335767901e-01
      7.8830060051601647e-02 2.2334781083354054e-03
      -6.5051996084985658e-02 1.5391032973819313e-01
      -2.4409530506490397e-02 1.4299348361113629e-01
      -1.9912027721932929e-01 -1.3451248078474107e-01
      -3.2498888272498958e-02 2.2461501478161439e-01
      -1.3058810676668883e-01 -9.9237950306903147e-02
      4.3772233135456119e-02 -5.5234359440421640e-02
      -5.3443822572145916e-02 -1.3390505925815191e-01
      -7.7254274196607339e-02 -4.9907734363286223e-02
      -3.3265135864557394e-01 3.4479254026146475e-02
      -1.1879022272489044e-01 -9.2988354215737187e-02
      1.1181116658096436e-01 1.0660056864511916e-01
      -2.4724334039258430e-02 -1.7916501263148612e-02
      4.1761252837709588e-02 1.2378328894150509e-01
      -1.0648874593477317e-01 9.6327861278720964e-02
      2.8818181450178611e-02 -5.7526959698764357e-01
      3.7355053969019610e-03 1.9016212815240845e-02
      -1.3011315146058558e-01 -1.3463231981846804e-02
      2.0817148102127703e-01 8.3595075929940713e-02
      -6.6423695145267914e-02 -7.9030933659338762e-02
      -7.9135722837646069e-02 2.4514779227313283e-01
      1.8195374792943714e-01 1.8512445960009002e-02
      2.6402684572728544e-02 5.7047450794879453e-02
      -7.8660328114259950e-02 6.0337121479500669e-02
      -5.3506267290913415e-02 1.4512357556097177e-02
      1.1825475138461621e-01 -2.0066183217492348e-02
      3.5433183702310952e-02 -2.9791239579068903e-03
      2.0011397136520021e-02 5.0758914659976223e-03
      -1.2660253122915192e-02 2.4528048811907236e-02
      1.7809961293089743e-02 1.3655520171138198e-02
      -4.3518954160992850e-02 -6.0784275394500358e-03
      -2.6239175391768121e-02 1.1850553886152698e-01
      -1.2317388134688039e-02 2.9607513876508642e-02
      6.6474301305135611e-02 2.9025115827272484e-02
      1.1103380623918969e-01 -1.9345434905114884e-02
      -6.6776295477203984e-02 1.3925608984134759e-02
      1.3777738571519954e-02 8.6489599789396215e-02
      -1.3470201471709268e-02 -3.0165381216477518e-02
      -1.1257845692235782e-02 -1.7340745988218581e-02
      -1.3151379553275369e-02 1.7204793294258430e-02
      -2.4251786779057701e-02 2.3154997742994821e-03
      -5.9106007321442474e-03 -2.6692298633706722e-02
      5.6092237711150390e-03 -4.7546309182887790e-02
      -4.9429332300088120e-02 2.2485733252060451e-03
      3.2850129354499756e-03 3.1253328151022074e-02
      3.5703139298450229e-03 2.6345123398218716e-02
      -6.8988969884512863e-02 1.6035266517234317e-02
      5.5464781461042639e-02 -2.3261533760462163e-02
      -8.5960750653270371e-03 4.1890799880973453e-03
      2.7209550055208538e-02 9.3962504831775068e-03
      -1.2119731004836345e-02 -1.6230185234168783e-02
      1.0202415834959124e-02 8.3851669168366338e-03
      1.5119607886806915e-02 -1.0560951324953280e-02
      3.2000594286605191e-02 8.4774686702478817e-03
      -8.8095649107347886e-03 3.0114166134882553e-03
      -1.0562601454053451e-02 -1.4046207115389724e-02
      1.1085134594149134e-02 -1.1704871949087276e-03
      -3.4098405013799342e-02 -1.0806595144383811e-02
      1.2100729171305880e-03 4.3029551278544936e-02
      -6.9950861013905368e-03 -5.6710638350811323e-04
      -6.7519277031030753e-03 -1.0048364887204085e-02
      1.1015342408270266e-02 -1.2325935561957596e-02
      3.0625775041915784e-02 -3.2698478443353393e-03
      -2.6566499132257990e-02 5.1008278597016229e-03
      3.0902563171608746e-02 -2.4778154629780929e-02
      8.5015475592815498e-02 -2.5246393227470184e-02
      -9.9048412480534587e-02 -6.8870383760123194e-02
      1.4491264819032809e-02 -2.3542691697922797e-02
      -2.7454851609921460e-03 3.4418588387486351e-03
      4.9986026369522214e-02 1.4368078998392785e-02
      -2.0203651615681675e-02 -1.9364745181583366e-02
      -1.9384401909474051e-02 -1.9015605019678244e-01
      -5.0064784414815836e-02 3.5939752912615017e-02
      -9.5056555055547543e-03 1.7334547594846463e-02
      -6.9906558284151418e-02 -7.7158828976797971e-04
      2.9781954454657850e-01 -1.8285926101751417e-02
      4.2627382849052410e-02 -1.4013705303121807e-01
      3.3095024724168733e-02 9.1808560121915857e-03
      1.0487161172082070e-03 -6.0547569853025935e-03
      -1.3296837983810067e-01 -7.3838872757930718e-02
      -7.6834337101734498e-02 -2.7314237935136119e-02
      1.3432012558476686e-01 5.2080581239762266e-02
      -2.8129611772026095e-02 3.8866202532253903e-02
      2.4779832421990094e-02 -2.6051398571375287e-02
      -2.7545953398120493e-02 4.5346481896714787e-02
      5.4311080118862938e-02 1.3753223830144164e-02
      -3.0475582358386835e-02 -3.7770692010333458e-02
      1.6108900417854811e-03 -1.7578220150812154e-01
      8.7277790786893697e-02 1.4109678808010194e-02
      4.2323727220763899e-02 4.6516179008602034e-02
      -8.9794484414022213e-02 1.6043056602086533e-02
      -5.4831652979450647e-02 -3.1008632578121122e-02
      -3.6403423162113605e-03 2.0321112617029478e-02
      -2.0907004261409221e-02 7.4537622224668379e-02
      -1.2865370692312918e-02 2.9530310480940618e-02
      -2.8271198370621520e-02 -6.0914458806727495e-02
      -1.1068831328585299e-01 -5.2301202753964049e-02
      7.5876392760355918e-02 1.9639294430656115e-01
      2.4040086390333767e-01 1.3823394937449140e-01
      -5.5451220006083298e-03 -1.0581724451700376e-01
      2.7244918187447646e-03 8.5799166608816913e-03
      3.1712063491539030e-02 -2.8001523384078505e-02
      -7.6842218269423890e-02 -3.1808520503642704e-02
      -3.0393839401901546e-02 -5.3348944599184246e-02
      1.3675327068152493e-01 4.1578240582404308e-02
      1.1659081044561821e-01 5.6354313304407017e-02
      4.6562818670663267e-02 -3.7530606261847343e-02
      -1.5867970857085323e-01 -1.6331604832687203e-02
      -5.2280049998894962e-02 6.9308292498226717e-02
      3.8049554311891172e-02 -6.4042781053793491e-02
      -5.0681225813810751e-02 -1.2031834263139972e-02
      1.7923982350464298e-03 2.0323653884908824e-01
      2.8277724344493610e-01 -6.0850633310988229e-02
      -5.2453841893116616e-02 1.2887485641622659e-01
      1.8949818328733453e-01 -1.0928611183767933e-02
      3.2606890344948382e-02 -1.2410290109517767e-02
      2.3476121683067616e-01 -2.2030637325020641e-01
      3.1398818469166268e-01 -1.3657872043070476e-01
      -6.1839867183441095e-02 -2.0568155198374038e-01
      -2.5902881570271643e-03 -3.3953540973363738e-01
      3.4241739192091236e-01 2.5811006376835213e-02
      3.2850931301706304e-01 1.1816858566323592e-01
      -2.8798003428139617e-02 -1.8418947172439241e-02
      3.4919534695778666e-02 -4.0110352092699593e-02
      -9.2942540001990761e-04 -1.1760283824655529e-01
      2.1933146805408539e-02 -1.0020077362512674e-01
      1.4429089851121631e-02 1.4157120383022340e-02
      1.8592502428547344e-01 -4.1928920683038724e-02
      6.8680392915762570e-02 8.7777958963579608e-02
      -3.4739991487159078e-01 2.3476475314755091e-01
      3.0813783259033608e-02 1.4105773570954597e-01
      -2.3945969154309982e-02 1.8471368547817715e-01
      -9.3271501143844457e-02 -4.2702743327197673e-02
      -3.9128554482525807e-01 -2.3202870072009124e-01
      1.0942606176053361e-01 -3.1792000804840750e-02
      -4.4447836695974026e-02 -2.9007203397383508e-01
      2.6571198638953281e-01 2.0164649016180289e-03
      1.2192132849528235e-01 -5.6820608546000748e-04
      5.1775693525330832e-02 3.9759691741556615e-02
      1.3392313475349824e-01 6.0564027131260065e-02
      2.7883728257712438e-02 -1.2187323232720587e-01
      -5.0354327977345015e-02 -5.3541915678271067e-02
      6.1565574966360725e-02 -6.2503665798884361e-02
      2.5865194483783061e-01 -4.8969657408458778e-01
      -5.5449432178949147e-02 2.9609397133602236e-02
      -2.7725183412769472e-01 -1.2116165104109383e-01
      1.1667321268286830e-01 2.5625349788266349e-01
      8.2325823938894274e-02 1.1019885556552002e-01
      -8.3499423320460273e-02 -1.2956319108102038e-01
      3.1867710713563363e-01 -2.2773669571672971e-03
      -1.0588950397149209e-02 2.1860086141856517e-02
      2.9807307755953298e-02 1.3747304431697074e-02
      -1.6406999490531926e-01 4.4472888988492221e-02
      -2.3971868455400222e-01 3.7291242138338239e-02
      7.1370052232987979e-03 4.9826193378112484e-02
      2.4823280893131666e-01 1.5906832146094448e-02
      3.6256759417993979e-02 -7.5613940302407465e-02
      5.4039175807414824e-02 -5.2625689444366505e-02
      7.7461168670198144e-02 -3.6667240285905491e-02
      -1.1806956661769177e-01 1.0997354970575320e-01
      -4.9957988619323129e-02 -2.3077292538644704e-02
      -1.8926617826328657e-01 -1.2010760239852630e-01
      -3.3213870596438183e-02 3.5038850660278420e-01
      7.7958996160120364e-02 3.4544749624692429e-02
      6.2889100481595503e-02 -1.9171883152763639e-01
      3.1675643140332793e-01 9.6316123572871924e-03
      -1.0704048261890194e-01 1.3753392653616942e-01
      2.2409895677934444e-02 3.9822177621109470e-02
      -3.5753051209961634e-01 -1.5969884752634542e-03
      -3.9012594623513824e-01 -2.0079235366615412e-02
      3.7988791183942217e-02 1.8472252260926594e-02
      7.8496538472607111e-02 6.5995752092835300e-02
      -2.2785924503203315e-02 9.8578558620619566e-02
      7.9091046733191964e-02 -4.8077302327972533e-02
      1.2303868268324884e-02 -1.1589698114642845e-02
      -5.9640840863684243e-02 1.1630647172868298e-01
      -8.9033794260933753e-03 -2.8941749271107702e-02
      -1.4419797877416629e-01 1.6772429315442874e-01
      4.2181908251904437e-01 7.9143771116239985e-03
      -2.6976681535121328e-02 -1.6443687143017577e-01
      2.8706235223488009e-02 -1.8069775314031193e-02
      1.4967593171710278e-01 1.9167386397239922e-01
      -6.2913831172596010e-02 -4.1897396818996374e-02
      1.1124708212432052e-02 -9.5833224485186067e-02
      1.1595313773268810e-01 -1.3725723810265517e-02
      -2.7712452337295296e-01 -2.9867945558928698e-02
      -1.0951033448479222e-01 -6.4071700147950369e-02
      -7.4636180701514133e-03 3.2073255105874027e-02
      -1.6462586692713364e-02 -6.1083589764479064e-02
      3.8966927852006832e-02 1.6329077728734434e-01
      -5.5510061597185738e-02 8.4096412752855801e-02
      5.8778984933938377e-02 -2.9664618648157209e-02
      -5.3373210126370023e-02 6.9047783520672659e-02
      1.6541586166521771e-01 1.5829828716238215e-01
      6.4117444207397706e-02 -6.5760210655094575e-02
      -1.4095478017324342e-01 -5.7045448902851799e-02
      -1.1495228144700308e-01 2.0269707752768673e-01
      -2.5047262655220393e-02 5.8071895705607987e-02
      4.9831046884027834e-02 -2.3368065549070210e-01
      -9.2737559567989528e-02 -1.6133567830653506e-01
      1.8770614149575618e-01 -4.7793990251882086e-02
      -2.0976021191037203e-01 1.8929961728186607e-02
      -8.5604177721882498e-03 -2.9547500455125695e-02
      -2.1839403318638314e-02 1.9318715783684829e-02
      -3.0812345122289260e-02 -5.5337386408962068e-02
      -2.6736125490523614e-02 2.3356818289259618e-01
      -1.4418544906534259e-02 3.6044794519608105e-02
      1.4080994397349303e-01 -2.1867167577485908e-01
      1.5131706280085377e-02 -2.1806581927877672e-02
      1.8625205303652494e-02 2.3783003571699177e-01
      -1.4521158324528002e-01 -1.2750228699184704e-01
      -1.3691453096032655e-01 -5.3121622511468333e-02
      -1.4147117574973363e-03 3.0307541907135932e-01
      -1.7883827962107610e-01 5.1375468550175891e-02
      1.0658725792795017e-01 -2.8758186913860151e-01
      -8.7699951921955802e-02 -7.7085069588586491e-02
      3.9948271617083497e-01 -1.0525758459304685e-01
      4.8969789674632003e-02 1.9459335076281177e-02
      -1.5297449514155492e-01 -2.1090831595029055e-02
      -1.0971826944215828e-01 3.1194135336774651e-02
      -2.5064609436884377e-02 -3.5361545336754854e-02
      -3.7177297502085017e-02 1.7166716711666014e-01
      -7.3187539234480140e-02 1.2490018798351454e-01
      1.6337672058714045e-01 -3.0776041586800068e-01
      -1.3446256025068765e-01 -4.3176521222222472e-02
      -1.0017988576680364e-01 2.4030253340682267e-01
      6.7907335478503226e-03 6.3022101435203995e-02
      -9.3334877651148104e-02 -6.1679185930091189e-02
      -1.1050664425892041e-01 1.5221880942596416e-01
      -2.5988626058124970e-01 -2.5456780026796933e-03
      4.6506312666074315e-02 -1.5371677757672583e-01
      -3.7508537500540326e-02 -1.5864426826330327e-01
      1.2764554529923297e-01 -7.3374022287803403e-02
      9.7030925518181169e-02 -6.6050677530252663e-02
      -8.9555711122914342e-02 -2.1398862653129787e-02
      -4.4852343007585900e-02 4.1155571887587276e-02
      -1.8730315249162122e-02 -1.5051353611891796e-01
      4.0264692309740033e-03 9.2169778709007014e-02
      -7.5833968361950319e-02 1.0411236766082965e-01
      -2.2864160517334600e-02 -1.6407913864966567e-01
      -9.4344302347046827e-02 -4.3495643153097750e-03
      -2.4505632696967478e-01 2.0132743085613986e-01
      -1.1743993578138268e-01 -6.0796406765132718e-02
      -8.6866078698258159e-02 -8.1136635136670743e-02
      -2.4426862161735430e-01 2.3041284240126808e-01
      -2.6682762314409048e-01 5.4214923949297340e-02
      6.9101928573708726e-02 -1.4703749894810059e-01
      -4.9267568780191139e-02 -3.5053470328184205e-02
      1.8053786561681393e-01 -6.2433094544405300e-02
      -1.5454425264505736e-01 -5.5994224583886039e-02
      -1.7105272256726559e-01 -2.7502845529125606e-02
      3.1700567982270528e-01 7.2902418197440075e-02
      4.4165380246479202e-02 2.7448457554127607e-02
      5.4427292134033925e-03 1.1442915833381556e-01
      -5.3518164322243877e-02 7.3666930455944482e-02
      -7.6356428127284479e-02 -7.2707895534222300e-02
      -2.1900666263111829e-01 -4.9855209989331630e-03
      -3.8005023660462700e-01 9.0785186674526785e-02
      -2.5415529004101545e-02 2.6165113374786032e-02
      -8.9616046861151225e-02 -1.1250716288839735e-01
      -3.5095203260886398e-01 1.1202048685110963e-01
      -2.1717827876543841e-01 -1.9543167992788334e-02
      9.2529547712421931e-02 -1.5158281700031942e-01
      -9.3930322631295277e-02 -6.5590389302176630e-02
      3.4961990389016101e-01 -6.2285743486570851e-02
      -1.3015421779600566e-02 -6.4426453434572123e-02
      -2.4160191343839722e-02 -5.0859808043610462e-02
      -7.2024102741991156e-02 7.0544070567081549e-02
      -1.2006771231293185e-02 -2.2107053900661269e-02
      1.1207532306282759e-02 4.2513897905995204e-02
      -7.3922660449424679e-03 5.6427069075151326e-02
      -1.9201664413642922e-02 -3.8592575957385067e-01
      -1.1443799684601989e-01 5.7817807160340719e-02
      -6.0949001901551100e-02 1.3008525878841828e-01
      4.1636854640535251e-02 -4.9185892899153549e-03
      -1.7091909643004771e-01 -4.4968065270389677e-02
      -1.4662969604416143e-01 3.0636029723385311e-01
      3.3227850574143840e-02 -3.7479555840819752e-02
      6.7615041508828522e-02 -9.6193248691271924e-02
      -6.4804322756681756e-02 -1.2529962669319527e-02
      7.1107712192878064e-02 -9.4773569844020470e-03
      7.5590960030187615e-02 -2.1014833221873482e-02
      -6.2704707820025851e-02 -8.1354795663214713e-02
      2.5331377893551460e-01 1.2561268313940017e-02
      1.1422538104369436e-02 2.2787172816734026e-02
      1.6069065884251072e-02 1.1817078624190051e-01
      -1.2845247395269080e-01 7.2136499637985158e-02
      4.3082666111240876e-02 5.1230319669517412e-04
      8.3898593797152060e-02 -3.3214772386343724e-02
      -8.2833158106707605e-02 -1.1852672419259361e-01
      2.5164230756551491e-02 -3.6778215730390078e-02
      9.4842803816893612e-02 -5.6210244072819552e-03
      2.6519312263391086e-02 -8.2042000846619750e-02
      3.1265796059927564e-01 3.3749321258041566e-02
      -4.3514094701463696e-02 1.1920005340597400e-01
      -9.8373442316062199e-03 8.1635557518604185e-02
      -1.8917319268949356e-01 2.0828343720540255e-02
      1.2979141865641750e-01 -5.7903719760589358e-03
      3.5017444183203648e-02 3.0165416454731319e-02
      -1.1182621851142703e-01 -3.1600736960832404e-02
      2.0892825870218526e-03 -5.7800555416946238e-02
      1.8672578422285219e-02 -5.9723017865800893e-02
      1.6489950782011344e-02 -3.6343222375914169e-02
      -6.3215857513534424e-02 3.0181302800261284e-01
      -1.2774431937777853e-02 -3.6558857704641944e-03
      4.3260524312642483e-02 -2.2681342875896628e-03
      -7.6792920710304201e-03 1.3078264537380153e-03
      1.3530459748503310e-02 -3.0676026800849957e-03
      2.4002193132130666e-02 -1.6795803323807885e-02
      4.1666922747127168e-02 2.0622442302549573e-02
      -1.3250815557795222e-02 1.0543816786540140e-02
      -2.0321723718006772e-02 -2.3342821653356684e-02
      2.0432996850252923e-03 -1.5487397620230823e-02
      -4.6232787186225269e-02 -1.7148147663697443e-02
      -9.8043098928382276e-03 3.3039208286113460e-02
      -2.3445745745324861e-02 3.4348446457029970e-03
      -1.5116504246780900e-03 -1.4683220105752450e-02
      2.0142756824772651e-03 -1.3273401028195513e-02
      2.7008411894449472e-02 1.0793615526067566e-03
      -3.7564028360190557e-02 1.4771820984761550e-02
      -2.9377601578242783e-02 9.4116545261507464e-03
      -1.1998598511197427e-01 1.3078168470721900e-02
      5.1413720683674106e-02 5.7279021772665202e-02
      -4.0543705715991495e-02 5.8632163303176076e-02
      -7.9191779809977991e-02 4.8526881553699096e-03
      -4.0370959566304120e-02 -1.0575008042611390e-02
      8.1942387174950160e-03 -9.2592370821816972e-03
      -4.3821016863511739e-02 -4.3077111871535845e-02
      -1.4968990236788045e-02 -1.2259554945358450e-02
      9.5163390430650960e-02 -3.6207683710074871e-02
      5.2418189653597791e-02 -7.4642022683327246e-04
      -2.9647144127320547e-02 2.4953162489638553e-02
      -3.4607846804072043e-02 1.5178904647449035e-02
      -1.4049555186658189e-02 -2.9315113375704461e-02
      1.9013796264311312e-02 -2.0835645491364109e-02
      3.3567279639406332e-02 -4.8486960428781409e-02
      -1.5477152408798838e-02 -4.3746682807422811e-02
      -4.5606245087753523e-02 1.1343302955263540e-01
      1.9068801368475280e-01 6.6975304169295966e-02
      1.4741931293076032e-02 -7.2695015156944112e-02
      -6.3322112368117002e-04 -1.2256114754647993e-01
      -5.2492592870790049e-02 -1.6895890241533516e-02
      -4.3561237668759502e-02 -5.0689680665706512e-02
      -2.8372467082518716e-02 -1.0920637461060906e-01
      -1.8252650900199358e-02 -5.3645233059581411e-03
      9.7108322055846186e-02 8.3694451610771450e-02
      -1.3003503165849284e-02 2.7904094781399318e-02
      -2.3867194898722374e-01 -4.2959572107129598e-02
      -2.0269842713720149e-02 5.9108966781699898e-02
      -5.4514335817946083e-02 7.7094446171918352e-02
      -8.6421251472922692e-03 1.0760414891009892e-02
      9.7732953584318397e-02 -1.7572998013171118e-01
      -8.5696642981958601e-02 -4.1344858901891136e-02
      -1.6776384817676940e-01 -2.0845030066789769e-02
      1.2772591436154848e-01 1.3315413546854452e-01
      9.3603215272238166e-02 -7.5854002428510273e-02
      4.5581614667713710e-02 -1.2333808007644749e-01
      -4.1369899961446736e-02 -4.2398420250061138e-02
      -8.4969399339874699e-02 1.0554340303580613e-01
      -1.8556262978762640e-03 -7.4728923371421138e-03
      -4.8389670136255600e-02 3.0476329986486191e-02
      4.2701596369064336e-02 5.3490090396384082e-02
      9.1598052739485694e-02 2.6857290131530917e-02
      -1.3472846070699934e-01 2.8151965691471409e-02
      -4.9789891500108596e-02 5.2893705248580836e-02
      5.9704717099003053e-02 -1.3417748979356045e-01
      2.6088203904984172e-02 -7.3876133754322740e-02
      -3.6808262519580526e-02 1.8054750274745482e-01
      1.3007011487615194e-01 1.2044059517926305e-02
      -3.2727936223311792e-02 1.4967052178216994e-01
      1.3378513920079990e-01 -1.8996065776824512e-03
      2.4802000675293225e-02 3.2537059613164110e-02
      3.0548572066312685e-01 -2.3147352500840390e-01
      -8.0359245425756953e-02 -1.2730530848529464e-01
      2.9817688862203182e-02 -8.5625264335967871e-02
      -4.0384638030988088e-03 -1.4794574246098760e-01
      1.9637255088975944e-01 -1.2735759349106581e-02
      -1.4584120343696144e-01 6.9591846670083890e-02
      -3.0409080991071973e-02 -4.4688017632522302e-03
      -3.0986561745664460e-02 -3.5142693171669785e-02
      2.5134075061357692e-02 -5.3380465813379033e-02
      -4.6457065509686708e-02 1.0431138125281891e-03
      1.4887420124360930e-02 -2.7813580991238263e-02
      1.1247699360428506e-01 -2.8813035598376913e-01
      1.0361451030836860e-01 3.5042289558671370e-02
      -3.9473530049584354e-01 2.8856816327983137e-01
      -7.5108244407647079e-03 4.4871768536065428e-02
      3.6545752222274672e-02 1.5554911536814509e-01
      -5.2809717579705637e-02 -3.0179771091195472e-02
      5.6097591342242729e-03 -1.9735508338029034e-01
      1.0208572319860358e-01 -1.3646801723299049e-01
      -1.1965807271735103e-02 -1.9171673843627313e-01
      3.6920798475372707e-01 1.2446031000238928e-02
      -6.8073797630282110e-02 4.6761623114230523e-02
